~o
<STREAMINFO> 1 42
<VECSIZE> 42<NULLD><USER><DIAGC>
~h "PACIENTE"
<BEGINHMM>
<NUMSTATES> 45
<STATE> 2
<NUMMIXES> 16
<MIXTURE> 1 2.608203e-02
<MEAN> 42
 1.217184e-01 1.247878e-01 1.543472e-02 -9.167431e-02 6.749240e-02 7.022049e-02 2.869857e-02 3.549519e-01 4.141980e-01 2.893974e-01 2.330270e-01 1.573230e-01 2.682647e-03 3.818241e-03 2.231985e-03 -1.187628e-03 1.156850e-03 2.928358e-03 5.449362e-04 4.141624e-03 5.381931e-03 4.313059e-03 3.303324e-03 3.032443e-03 6.621762e-04 9.227382e-04 1.021746e-03 2.698992e-04 3.291186e-04 8.660533e-04 5.781054e-04 9.666230e-04 1.924254e-04 7.101301e-04 3.625882e-04 3.857476e-04 7.891448e-03 1.187876e-02 3.043100e-03 1.924620e-01 5.150404e-02 -1.294232e-01
<VARIANCE> 42
 2.158373e-03 1.007896e-02 6.552739e-03 4.688539e-03 1.722194e-03 8.440954e-03 7.560012e-03 8.178841e-02 5.277142e-02 2.222114e-02 1.221548e-02 1.212444e-02 3.146185e-05 2.870066e-05 2.786848e-05 2.303669e-05 2.278640e-05 2.041557e-05 1.194721e-05 1.333750e-04 1.326766e-04 7.756790e-05 4.125701e-05 2.870378e-05 1.051752e-05 5.588497e-06 8.378162e-06 5.951135e-06 8.190465e-06 4.341154e-06 1.892992e-06 2.601508e-05 2.236080e-06 1.211414e-05 1.851075e-06 1.734835e-06 1.881808e-04 3.924113e-04 2.356649e-04 8.463787e-03 8.802549e-03 2.730406e-02
<GCONST> -2.844618e+02
<MIXTURE> 2 9.628495e-02
<MEAN> 42
 5.659086e-03 1.089095e-02 9.413415e-03 1.150540e-03 9.996585e-04 1.361806e-02 1.245068e-02 2.126672e-02 2.967286e-02 1.253132e-02 1.735353e-02 9.308018e-03 1.049386e-03 2.487893e-03 2.561322e-03 -1.874431e-04 1.140009e-04 2.403459e-03 1.476270e-03 2.535381e-03 1.397593e-03 2.044820e-03 1.462778e-03 1.258950e-03 3.951696e-04 1.262078e-03 1.483249e-03 1.779604e-04 -6.342243e-05 1.300765e-03 7.236414e-04 1.560302e-03 8.889750e-04 1.279206e-03 8.475982e-04 7.489132e-04 5.005221e-04 -5.026837e-04 4.256219e-04 9.788009e-03 7.401401e-03 -6.646988e-03
<VARIANCE> 42
 1.882882e-04 3.220072e-04 2.712533e-04 1.706842e-04 1.461910e-04 2.686554e-04 3.900227e-04 1.370589e-03 1.481202e-03 6.537745e-04 4.274001e-04 4.157673e-04 2.317685e-05 1.419805e-05 2.158604e-05 1.339728e-05 1.878175e-05 1.228579e-05 8.068291e-06 7.374013e-05 9.872299e-06 4.065752e-05 1.131955e-05 8.494042e-06 8.618117e-06 5.852232e-06 6.823180e-06 5.543791e-06 6.292752e-06 4.253175e-06 1.477710e-06 2.601508e-05 1.686495e-06 1.211414e-05 1.561192e-06 1.499511e-06 2.347250e-06 5.996549e-06 1.640431e-05 2.765478e-04 2.347887e-04 2.838487e-04
<GCONST> -3.572834e+02
<MIXTURE> 3 3.264507e-02
<MEAN> 42
 -3.715227e-03 -3.516417e-02 -3.203083e-02 2.962424e-02 1.965205e-02 -3.213421e-02 6.703740e-03 1.871159e-02 -2.219446e-02 -6.911676e-02 -3.454424e-02 -3.470785e-02 1.012010e-03 1.679956e-03 1.315739e-03 -2.432437e-04 4.307164e-04 1.390184e-03 8.731656e-04 2.753970e-03 3.044415e-03 3.335589e-03 2.397796e-03 1.735921e-03 5.337994e-04 1.238846e-03 1.122600e-03 -1.419313e-04 6.170638e-05 1.104548e-03 3.578989e-04 1.289700e-03 1.312037e-03 1.495922e-03 1.108187e-03 9.410633e-04 3.413058e-03 4.339004e-03 6.848269e-03 -3.754948e-02 -2.775818e-02 5.847503e-03
<VARIANCE> 42
 3.447861e-04 8.829305e-04 8.389445e-04 4.826412e-04 3.845945e-04 6.769482e-04 7.252775e-04 2.347938e-03 5.403797e-03 5.233476e-03 2.155993e-03 2.190477e-03 9.075680e-06 8.157039e-06 9.538785e-06 6.241741e-06 8.325842e-06 6.634410e-06 6.045257e-06 7.374013e-05 1.368603e-05 4.065752e-05 1.297948e-05 8.494042e-06 4.255606e-06 3.896251e-06 4.297765e-06 2.921668e-06 3.716688e-06 3.018361e-06 1.943883e-06 2.601508e-05 6.230472e-06 1.211414e-05 3.768213e-06 2.769972e-06 6.929038e-05 5.131514e-05 1.661007e-04 1.199555e-03 6.959505e-04 9.392958e-04
<GCONST> -3.365353e+02
<MIXTURE> 4 7.823065e-02
<MEAN> 42
 3.256164e-02 6.997612e-02 3.948545e-02 -3.169955e-02 5.071619e-03 5.396250e-02 4.869055e-02 7.472442e-02 9.599727e-02 4.067414e-02 3.916343e-02 2.758455e-02 2.116294e-03 3.194803e-03 2.457372e-03 -1.269698e-04 1.084638e-03 2.648906e-03 1.419505e-03 2.213738e-03 2.147269e-03 2.661469e-03 2.141655e-03 1.548170e-03 5.452023e-04 8.300911e-04 1.199392e-03 6.369794e-04 3.964962e-04 8.902233e-04 7.959463e-04 1.453646e-03 1.000074e-03 1.215609e-03 8.434961e-04 7.326100e-04 7.792459e-04 -2.818620e-03 2.550323e-03 3.088516e-02 4.920941e-02 -2.033950e-02
<VARIANCE> 42
 9.601124e-04 2.743441e-03 1.768315e-03 1.389988e-03 7.287623e-04 2.137030e-03 2.288283e-02 8.246578e-03 5.559263e-03 2.459742e-03 3.790979e-03 1.643751e-03 4.447083e-05 4.906354e-05 5.132010e-05 3.388918e-05 3.636234e-05 3.909771e-05 4.832643e-05 7.374013e-05 4.768407e-05 4.065752e-05 2.503181e-05 2.208880e-05 1.512829e-05 1.106862e-05 1.602190e-05 9.102019e-06 1.303846e-05 9.660879e-06 6.037634e-06 2.601508e-05 6.527196e-06 1.211414e-05 5.018382e-06 4.088854e-06 2.487693e-05 5.650267e-05 2.028546e-04 1.418240e-03 2.341124e-03 4.271966e-03
<GCONST> -3.003755e+02
<MIXTURE> 5 1.515007e-01
<MEAN> 42
 1.586750e-04 -3.467908e-04 3.372214e-04 7.562321e-03 1.540870e-03 3.137908e-03 1.136004e-02 1.471314e-02 3.820430e-03 1.776503e-03 3.202436e-03 5.753003e-04 5.054546e-04 -6.202417e-04 -4.003676e-04 1.268664e-03 1.005904e-03 -6.159213e-04 5.719499e-05 1.149434e-03 -1.431966e-04 5.455928e-04 -1.211410e-04 -9.323517e-05 6.566586e-04 -5.622802e-06 -1.923023e-04 4.444956e-04 7.774749e-04 -1.755349e-04 -8.669011e-05 7.425635e-04 -1.164520e-04 3.636612e-04 -1.220714e-04 -7.356657e-05 3.719187e-04 2.423817e-04 1.718603e-03 -6.260308e-04 4.345512e-04 -6.948200e-04
<VARIANCE> 42
 1.359086e-04 2.019507e-04 1.618591e-04 1.277049e-04 9.221830e-05 1.452505e-04 3.744125e-04 1.370589e-03 8.135132e-04 6.537745e-04 4.191562e-04 3.380077e-04 1.199098e-05 8.999468e-06 1.012415e-05 7.880876e-06 8.972798e-06 6.685785e-06 4.348394e-06 7.374013e-05 9.872299e-06 4.065752e-05 1.131955e-05 8.494042e-06 4.948544e-06 3.550051e-06 3.965533e-06 3.247333e-06 3.630349e-06 2.534827e-06 1.116543e-06 2.601508e-05 1.442133e-06 1.211414e-05 1.159081e-06 1.002632e-06 2.131001e-06 4.567776e-06 1.608719e-05 2.765478e-04 1.433039e-04 2.838487e-04
<GCONST> -3.704117e+02
<MIXTURE> 6 3.790665e-02
<MEAN> 42
 -4.433002e-04 1.706127e-02 2.222033e-02 1.218320e-02 -4.150568e-03 1.673928e-02 3.513176e-02 1.884397e-01 5.509117e-02 -4.538321e-02 -8.364947e-02 -2.821796e-02 -2.899532e-04 -1.713368e-03 -4.671317e-04 3.275190e-03 9.663350e-04 -1.231517e-03 -4.029004e-04 -1.152761e-03 -1.694367e-03 -8.787307e-04 -5.400287e-04 -3.003427e-04 1.205404e-03 -2.903737e-04 -8.539265e-04 6.690897e-04 1.586459e-03 -6.431020e-04 -4.170472e-04 1.203524e-04 -4.891838e-04 -3.351495e-04 -2.671148e-04 -2.917950e-06 -4.179855e-03 3.121077e-03 1.691188e-02 -3.873046e-02 4.955407e-03 -3.726882e-02
<VARIANCE> 42
 2.252303e-03 2.356825e-03 1.094989e-03 1.953707e-03 1.129300e-03 1.177377e-03 3.172232e-02 3.980665e-02 1.701551e-02 1.891702e-02 2.439536e-02 8.537110e-03 3.263030e-05 3.871388e-05 2.798057e-05 2.880714e-05 2.123360e-05 2.562639e-05 3.304690e-05 8.472747e-05 4.314927e-05 5.534454e-05 5.433440e-05 5.096756e-05 9.420315e-06 8.584555e-06 9.194649e-06 6.736556e-06 7.423147e-06 6.554673e-06 3.470539e-06 2.601508e-05 5.497949e-06 1.211414e-05 8.535091e-06 1.208247e-05 1.294629e-04 9.676578e-05 4.292679e-04 1.394439e-02 1.388190e-03 1.214237e-02
<GCONST> -2.880018e+02
<MIXTURE> 7 6.130080e-02
<MEAN> 42
 1.085252e-01 1.011945e-01 2.481055e-03 -8.955405e-02 6.064163e-02 5.074031e-02 -1.516951e-02 1.024559e-01 1.613534e-01 1.602672e-01 1.683978e-01 1.448023e-01 5.558506e-04 -4.262837e-04 -1.981622e-04 1.573537e-03 1.032968e-03 -4.461813e-04 -9.666180e-05 -3.240334e-04 -7.563601e-04 -3.951800e-04 -3.131145e-04 -1.698638e-04 -3.151188e-06 -1.700271e-04 1.746531e-04 7.924411e-04 2.101998e-04 -4.081489e-05 1.508424e-04 7.423259e-04 -1.180533e-04 3.174109e-04 -1.244272e-04 -1.065286e-04 8.795304e-03 -1.111649e-03 -3.005245e-03 1.380969e-01 6.028995e-02 -5.728440e-03
<VARIANCE> 42
 1.130987e-03 1.835309e-03 2.452455e-03 8.172941e-04 1.317944e-03 2.121374e-03 2.832713e-03 2.809044e-02 1.371905e-02 2.864584e-03 2.916983e-03 3.602301e-03 1.857185e-05 1.903779e-05 1.566936e-05 1.488863e-05 1.248619e-05 1.325629e-05 1.813165e-05 7.374013e-05 4.759557e-05 4.065752e-05 2.231322e-05 1.652565e-05 3.622869e-06 3.409110e-06 2.824886e-06 2.842937e-06 2.428555e-06 2.388122e-06 1.872730e-06 2.601508e-05 1.696078e-06 1.211414e-05 1.372146e-06 1.037009e-06 9.397449e-05 8.436962e-05 2.130637e-04 2.024647e-03 2.067936e-03 8.450463e-03
<GCONST> -3.179626e+02
<MIXTURE> 8 1.604942e-02
<MEAN> 42
 -2.794467e-02 -7.331958e-02 -5.350184e-02 6.096741e-02 1.644759e-02 -5.775915e-02 4.448842e-02 1.771203e-02 -6.936744e-02 -1.377196e-01 -8.728026e-02 -9.715883e-02 -7.648853e-05 -1.697064e-03 -9.311357e-04 2.230031e-03 1.044093e-03 -1.446903e-03 -5.235073e-04 3.464145e-04 -2.767227e-03 -1.920026e-03 -1.597824e-03 -1.236368e-03 4.748909e-04 -3.611800e-04 -3.699008e-04 8.946275e-04 8.455970e-04 -4.179244e-04 4.984092e-04 1.123339e-03 -1.875598e-04 -2.047663e-04 -4.640960e-04 -5.361325e-04 1.856725e-02 4.084410e-03 6.552579e-03 -9.066052e-02 -5.392275e-02 -2.251628e-03
<VARIANCE> 42
 3.465914e-04 8.530411e-04 1.527755e-03 4.155586e-04 3.520569e-04 8.529162e-04 1.202682e-03 2.354084e-03 6.571398e-03 9.634040e-03 9.487480e-03 4.263423e-03 1.402908e-05 1.244627e-05 9.908120e-06 1.064716e-05 9.284448e-06 7.371875e-06 4.316494e-06 7.374013e-05 1.388851e-05 4.065752e-05 1.131955e-05 8.494042e-06 6.486384e-06 6.087758e-06 4.427135e-06 5.142370e-06 4.276681e-06 3.755523e-06 3.031570e-06 2.601508e-05 8.867293e-06 1.211414e-05 5.827500e-06 3.779568e-06 3.271544e-04 3.169475e-05 5.029026e-05 5.059747e-03 4.517105e-04 4.864594e-04
<GCONST> -3.277343e+02
<MIXTURE> 9 1.515007e-01
<MEAN> 42
 -4.504519e-03 -6.031165e-03 -4.751734e-03 3.042057e-03 -2.300344e-03 -1.682888e-03 3.620143e-03 -9.544939e-05 -7.588430e-03 -8.451102e-03 -4.986885e-03 -6.778694e-03 -8.796653e-04 -1.820206e-03 -1.673106e-03 1.457476e-04 -1.922814e-04 -1.650197e-03 -7.769172e-04 -2.285449e-03 -1.400005e-03 -2.004937e-03 -1.466923e-03 -1.259017e-03 -2.331544e-04 -7.592860e-04 -9.888482e-04 -2.763188e-04 1.533591e-05 -8.123805e-04 -5.093565e-04 -1.297636e-03 -5.968074e-04 -1.028554e-03 -5.527140e-04 -4.740926e-04 -2.119992e-04 -6.125125e-04 1.142494e-04 -7.277921e-03 -4.353833e-03 -7.433944e-03
<VARIANCE> 42
 1.359086e-04 2.019507e-04 1.618591e-04 1.277049e-04 9.221830e-05 1.452505e-04 3.744125e-04 1.370589e-03 8.135132e-04 6.537745e-04 4.191562e-04 3.380077e-04 1.199098e-05 8.999468e-06 1.012415e-05 7.880876e-06 8.972798e-06 6.685785e-06 4.348394e-06 7.374013e-05 9.872299e-06 4.065752e-05 1.131955e-05 8.494042e-06 4.948544e-06 3.550051e-06 3.965533e-06 3.247333e-06 3.630349e-06 2.534827e-06 1.116543e-06 2.601508e-05 1.442133e-06 1.211414e-05 1.159081e-06 1.002632e-06 2.131001e-06 4.567776e-06 1.608719e-05 2.765478e-04 1.433039e-04 2.838487e-04
<GCONST> -3.704117e+02
<MIXTURE> 10 9.628495e-02
<MEAN> 42
 1.703601e-04 3.713129e-03 2.825507e-03 -4.075306e-03 -3.836721e-03 7.061779e-03 4.551087e-03 6.458137e-03 1.427830e-02 2.303711e-03 9.084068e-03 1.151868e-03 -8.763074e-04 9.806810e-04 7.028914e-04 -1.651535e-03 -1.619516e-03 1.001415e-03 3.400802e-04 -8.995017e-04 1.407848e-04 -5.057105e-04 1.169965e-04 9.316840e-05 -7.790956e-04 2.944221e-04 4.384000e-04 -7.638498e-04 -1.066837e-03 4.758363e-04 2.373970e-04 -4.798977e-04 3.695145e-04 -1.130088e-04 3.478075e-04 2.590951e-04 -1.123075e-04 -1.482198e-03 -1.194468e-03 3.136119e-03 1.272275e-03 -1.338611e-02
<VARIANCE> 42
 1.882882e-04 3.220072e-04 2.712533e-04 1.706842e-04 1.461910e-04 2.686554e-04 3.900227e-04 1.370589e-03 1.481202e-03 6.537745e-04 4.274001e-04 4.157673e-04 2.317685e-05 1.419805e-05 2.158604e-05 1.339728e-05 1.878175e-05 1.228579e-05 8.068291e-06 7.374013e-05 9.872299e-06 4.065752e-05 1.131955e-05 8.494042e-06 8.618117e-06 5.852232e-06 6.823180e-06 5.543791e-06 6.292752e-06 4.253175e-06 1.477710e-06 2.601508e-05 1.686495e-06 1.211414e-05 1.561192e-06 1.499511e-06 2.347250e-06 5.996549e-06 1.640431e-05 2.765478e-04 2.347887e-04 2.838487e-04
<GCONST> -3.572834e+02
<MIXTURE> 11 7.823065e-02
<MEAN> 42
 2.016737e-02 4.902498e-02 2.266491e-02 -4.661257e-02 -5.726620e-03 3.547129e-02 -1.181773e-02 3.840015e-02 6.617309e-02 2.083582e-02 1.453506e-02 1.136727e-02 -5.511639e-04 3.929886e-04 -4.081500e-04 -2.455546e-03 -1.327410e-03 1.477797e-04 -1.361183e-03 -1.221145e-03 -6.148769e-04 1.109390e-04 1.403830e-04 -3.317784e-04 -1.010602e-03 -5.006903e-04 -4.017030e-04 -5.698028e-04 -1.047856e-03 -3.530549e-04 -1.869176e-04 -5.865534e-04 -2.186146e-05 -1.766062e-04 -5.257383e-05 -7.622660e-05 -1.215825e-03 -5.825350e-03 -3.146758e-03 1.582135e-02 2.985534e-02 -4.648361e-02
<VARIANCE> 42
 9.601124e-04 2.743441e-03 1.768315e-03 1.389988e-03 7.287623e-04 2.137030e-03 2.288283e-02 8.246578e-03 5.559263e-03 2.459742e-03 3.790979e-03 1.643751e-03 4.447083e-05 4.906354e-05 5.132010e-05 3.388918e-05 3.636234e-05 3.909771e-05 4.832643e-05 7.374013e-05 4.768407e-05 4.065752e-05 2.503181e-05 2.208880e-05 1.512829e-05 1.106862e-05 1.602190e-05 9.102019e-06 1.303846e-05 9.660879e-06 6.037634e-06 2.601508e-05 6.527196e-06 1.211414e-05 5.018382e-06 4.088854e-06 2.487693e-05 5.650267e-05 2.028546e-04 1.418240e-03 2.341124e-03 4.271966e-03
<GCONST> -3.003755e+02
<MIXTURE> 12 6.130080e-02
<MEAN> 42
 9.507317e-02 8.405832e-02 -1.732785e-02 -1.009894e-01 4.612023e-02 3.231696e-02 -3.645881e-02 3.541506e-02 1.145020e-01 1.388584e-01 1.467942e-01 1.207947e-01 -1.167952e-03 -2.171576e-03 -1.781544e-03 3.010541e-05 -3.804643e-04 -1.902549e-03 -1.799913e-03 -3.758916e-03 -3.515942e-03 -2.945710e-03 -2.202589e-03 -1.795934e-03 -7.645046e-04 -9.085781e-04 -4.976428e-04 1.180006e-04 -4.131530e-04 -6.589569e-04 -3.965485e-04 -1.297873e-03 -6.389875e-04 -1.074804e-03 -5.929818e-04 -5.138632e-04 4.917686e-03 -4.785767e-03 -8.843925e-03 1.200985e-01 4.210013e-02 -4.249900e-02
<VARIANCE> 42
 1.130987e-03 1.835309e-03 2.452455e-03 8.172941e-04 1.317944e-03 2.121374e-03 2.832713e-03 2.809044e-02 1.371905e-02 2.864584e-03 2.916983e-03 3.602301e-03 1.857185e-05 1.903779e-05 1.566936e-05 1.488863e-05 1.248619e-05 1.325629e-05 1.813165e-05 7.374013e-05 4.759557e-05 4.065752e-05 2.231322e-05 1.652565e-05 3.622869e-06 3.409110e-06 2.824886e-06 2.842937e-06 2.428555e-06 2.388122e-06 1.872730e-06 2.601508e-05 1.696078e-06 1.211414e-05 1.372146e-06 1.037009e-06 9.397449e-05 8.436962e-05 2.130637e-04 2.024647e-03 2.067936e-03 8.450463e-03
<GCONST> -3.179626e+02
<MIXTURE> 13 3.790665e-02
<MEAN> 42
 -1.942667e-02 -2.357584e-03 8.984085e-03 -5.497105e-03 -1.759259e-02 3.014104e-03 -3.611128e-02 1.086333e-01 2.913769e-03 -1.003989e-01 -1.461255e-01 -6.517655e-02 -2.574871e-03 -4.202188e-03 -2.582998e-03 1.128298e-03 -8.768623e-04 -3.256417e-03 -2.702358e-03 -4.834663e-03 -4.321891e-03 -3.854487e-03 -3.488503e-03 -3.156005e-03 -2.229767e-05 -1.462350e-03 -2.066834e-03 -3.691054e-04 4.966409e-04 -1.667186e-03 -1.162223e-03 -1.919847e-03 -1.427092e-03 -1.727364e-03 -1.435710e-03 -1.393312e-03 -8.731125e-03 -8.137069e-04 8.624364e-03 -8.596501e-02 -9.947961e-03 -8.134580e-02
<VARIANCE> 42
 2.252303e-03 2.356825e-03 1.094989e-03 1.953707e-03 1.129300e-03 1.177377e-03 3.172232e-02 3.980665e-02 1.701551e-02 1.891702e-02 2.439536e-02 8.537110e-03 3.263030e-05 3.871388e-05 2.798057e-05 2.880714e-05 2.123360e-05 2.562639e-05 3.304690e-05 8.472747e-05 4.314927e-05 5.534454e-05 5.433440e-05 5.096756e-05 9.420315e-06 8.584555e-06 9.194649e-06 6.736556e-06 7.423147e-06 6.554673e-06 3.470539e-06 2.601508e-05 5.497949e-06 1.211414e-05 8.535091e-06 1.208247e-05 1.294629e-04 9.676578e-05 4.292679e-04 1.394439e-02 1.388190e-03 1.214237e-02
<GCONST> -2.880018e+02
<MIXTURE> 14 3.264507e-02
<MEAN> 42
 -1.114259e-02 -4.704983e-02 -4.361665e-02 2.083660e-02 1.180761e-02 -4.254150e-02 -4.068651e-03 -6.706221e-04 -5.159866e-02 -9.805386e-02 -5.311731e-02 -5.342887e-02 -1.930249e-04 5.375344e-04 8.034223e-05 -1.242583e-03 -7.234650e-04 3.598898e-04 -1.103186e-04 -6.809135e-04 1.564629e-03 7.850589e-04 9.567141e-04 5.701391e-04 -2.913654e-04 4.492893e-04 2.933581e-04 -8.256469e-04 -7.094422e-04 4.096109e-04 -1.997940e-04 -7.504997e-04 3.135999e-04 1.037074e-04 3.317120e-04 2.753339e-04 8.342415e-05 1.473620e-03 1.693067e-03 -5.140332e-02 -3.831052e-02 -6.411670e-03
<VARIANCE> 42
 3.447861e-04 8.829305e-04 8.389445e-04 4.826412e-04 3.845945e-04 6.769482e-04 7.252775e-04 2.347938e-03 5.403797e-03 5.233476e-03 2.155993e-03 2.190477e-03 9.075680e-06 8.157039e-06 9.538785e-06 6.241741e-06 8.325842e-06 6.634410e-06 6.045257e-06 7.374013e-05 1.368603e-05 4.065752e-05 1.297948e-05 8.494042e-06 4.255606e-06 3.896251e-06 4.297765e-06 2.921668e-06 3.716688e-06 3.018361e-06 1.943883e-06 2.601508e-05 6.230472e-06 1.211414e-05 3.768213e-06 2.769972e-06 6.929038e-05 5.131514e-05 1.661007e-04 1.199555e-03 6.959505e-04 9.392958e-04
<GCONST> -3.365353e+02
<MIXTURE> 15 2.608203e-02
<MEAN> 42
 1.031350e-01 8.463019e-02 -1.694488e-02 -1.190635e-01 5.089267e-02 3.347062e-02 -6.080766e-03 2.405572e-01 3.223098e-01 2.297704e-01 1.888176e-01 1.132786e-01 4.390128e-04 1.675321e-03 1.203609e-04 -3.107490e-03 -7.525544e-04 1.121014e-03 -8.376532e-04 -4.778999e-04 7.745172e-04 7.901530e-04 7.340595e-04 8.894069e-04 -6.350529e-04 -2.286184e-05 -1.360565e-04 -7.058987e-04 -8.156410e-04 3.263587e-05 2.776130e-05 -1.073576e-03 -4.057157e-04 -6.820848e-04 -1.816287e-04 -1.411050e-04 2.404288e-03 3.955008e-03 -3.097453e-03 1.556624e-01 1.397528e-02 -1.955190e-01
<VARIANCE> 42
 2.158373e-03 1.007896e-02 6.552739e-03 4.688539e-03 1.722194e-03 8.440954e-03 7.560012e-03 8.178841e-02 5.277142e-02 2.222114e-02 1.221548e-02 1.212444e-02 3.146185e-05 2.870066e-05 2.786848e-05 2.303669e-05 2.278640e-05 2.041557e-05 1.194721e-05 1.333750e-04 1.326766e-04 7.756790e-05 4.125701e-05 2.870378e-05 1.051752e-05 5.588497e-06 8.378162e-06 5.951135e-06 8.190465e-06 4.341154e-06 1.892992e-06 2.601508e-05 2.236080e-06 1.211414e-05 1.851075e-06 1.734835e-06 1.881808e-04 3.924113e-04 2.356649e-04 8.463787e-03 8.802549e-03 2.730406e-02
<GCONST> -2.844618e+02
<MIXTURE> 16 1.604942e-02
<MEAN> 42
 -3.539145e-02 -8.500233e-02 -6.913644e-02 5.281331e-02 8.942314e-03 -6.944105e-02 3.061654e-02 -1.695526e-03 -1.017931e-01 -1.769808e-01 -1.262417e-01 -1.232768e-01 -1.574705e-03 -3.108235e-03 -2.190222e-03 9.248313e-04 -1.747230e-04 -2.532951e-03 -1.354554e-03 -3.088468e-03 -4.257919e-03 -4.470556e-03 -2.943606e-03 -2.402150e-03 -5.438444e-04 -1.348115e-03 -1.211531e-03 -1.244427e-05 1.839144e-05 -1.193091e-03 -1.980470e-04 -9.168605e-04 -1.378680e-03 -1.596981e-03 -1.429705e-03 -1.313777e-03 1.133229e-02 1.832486e-03 3.715954e-03 -1.191133e-01 -6.242415e-02 -1.107396e-02
<VARIANCE> 42
 3.465914e-04 8.530411e-04 1.527755e-03 4.155586e-04 3.520569e-04 8.529162e-04 1.202682e-03 2.354084e-03 6.571398e-03 9.634040e-03 9.487480e-03 4.263423e-03 1.402908e-05 1.244627e-05 9.908120e-06 1.064716e-05 9.284448e-06 7.371875e-06 4.316494e-06 7.374013e-05 1.388851e-05 4.065752e-05 1.131955e-05 8.494042e-06 6.486384e-06 6.087758e-06 4.427135e-06 5.142370e-06 4.276681e-06 3.755523e-06 3.031570e-06 2.601508e-05 8.867293e-06 1.211414e-05 5.827500e-06 3.779568e-06 3.271544e-04 3.169475e-05 5.029026e-05 5.059747e-03 4.517105e-04 4.864594e-04
<GCONST> -3.277343e+02
<STATE> 3
<NUMMIXES> 16
<MIXTURE> 1 3.601911e-02
<MEAN> 42
 1.052481e-01 1.157992e-01 2.821983e-02 -9.981754e-02 4.598846e-02 6.885996e-02 6.669835e-02 5.225584e-02 7.353147e-02 8.271967e-02 7.401098e-02 5.905224e-02 2.844526e-03 6.091211e-03 5.829715e-03 -2.776303e-04 4.779135e-04 5.604750e-03 5.302111e-03 5.556731e-03 4.790567e-03 4.853501e-03 4.749573e-03 4.623224e-03 -2.103859e-04 9.684373e-04 2.876804e-03 1.803210e-03 -3.714147e-04 1.687155e-03 1.007109e-03 1.490107e-03 1.038248e-03 1.189150e-03 1.190391e-03 1.248988e-03 9.013271e-03 3.268153e-02 9.649260e-03 5.800796e-02 7.813480e-02 -1.868543e-02
<VARIANCE> 42
 1.871190e-03 2.317500e-03 9.840912e-04 1.892931e-03 8.167938e-04 1.219130e-03 4.406933e-03 1.894899e-03 1.342133e-03 1.181438e-03 1.259594e-03 1.004367e-03 1.465829e-04 1.048352e-04 1.206652e-04 9.569492e-05 1.078785e-04 7.618077e-05 4.448020e-05 7.374013e-05 3.600290e-05 4.065752e-05 4.056606e-05 4.013323e-05 4.734115e-05 2.357244e-05 4.103266e-05 2.529253e-05 3.831129e-05 2.026226e-05 8.795141e-06 2.601508e-05 8.385002e-06 1.211414e-05 9.355007e-06 9.659696e-06 2.071649e-05 3.650796e-04 1.089489e-04 5.280560e-04 1.254370e-03 8.367033e-04
<GCONST> -2.955470e+02
<MIXTURE> 2 1.119962e-02
<MEAN> 42
 1.557317e-01 -3.932579e-02 -1.413258e-01 -3.360003e-02 1.771596e-01 -9.502301e-02 -7.924993e-03 9.415897e-02 1.192685e-01 1.242881e-01 1.318179e-01 1.395832e-01 1.270572e-02 8.791730e-03 4.747949e-03 -4.194710e-03 1.007590e-02 6.445545e-03 1.521962e-02 3.286196e-02 3.222969e-02 3.171664e-02 2.999217e-02 3.082046e-02 -4.766480e-03 5.642961e-03 1.556170e-02 3.552206e-03 -6.794991e-03 1.031160e-02 7.944956e-03 7.788281e-03 5.885308e-03 5.199440e-03 2.969301e-03 7.814905e-04 3.501496e-02 -1.027197e-02 2.688390e-02 1.222763e-01 -6.894746e-02 -2.423400e-02
<VARIANCE> 42
 1.507140e-02 2.005450e-03 1.696529e-02 4.555013e-03 1.571574e-02 6.126426e-03 4.908261e-03 8.402851e-03 7.356486e-03 6.429506e-03 1.170760e-02 1.590069e-02 6.536781e-04 1.851152e-04 9.836595e-04 1.736508e-04 7.725013e-04 4.253801e-04 2.904999e-04 3.993642e-04 2.614071e-04 3.304675e-04 3.097568e-04 4.550108e-04 2.439347e-04 5.298825e-05 3.043490e-04 7.248644e-05 2.601557e-04 1.184281e-04 2.178941e-04 2.719450e-04 1.369795e-04 1.005709e-04 7.772250e-05 7.570416e-05 6.614789e-04 2.816067e-04 9.552164e-04 7.383307e-03 2.278330e-03 2.408880e-03
<GCONST> -2.212765e+02
<MIXTURE> 3 1.803530e-01
<MEAN> 42
 1.784691e-02 6.444520e-03 7.338013e-03 -1.121409e-02 1.258720e-02 3.361957e-03 9.209437e-04 -1.526473e-03 1.594325e-02 2.722180e-02 2.222318e-02 -5.218019e-04 2.454116e-03 2.761977e-03 2.296095e-03 3.566623e-04 1.473079e-03 2.203218e-03 1.162913e-03 2.342233e-03 1.383428e-03 2.064496e-03 1.477778e-03 1.453259e-03 7.902519e-04 1.165956e-03 1.546619e-03 8.134948e-04 4.657186e-04 1.177996e-03 8.349033e-04 1.458500e-03 8.656043e-04 1.137876e-03 8.698732e-04 8.527499e-04 2.618178e-03 3.963898e-03 2.224824e-03 1.644734e-02 1.170762e-03 3.786939e-03
<VARIANCE> 42
 6.389234e-04 3.736272e-04 5.080228e-04 4.010092e-04 4.809605e-04 2.903916e-04 5.578658e-04 1.370589e-03 4.825017e-04 6.537745e-04 5.131129e-04 4.322584e-04 8.169095e-05 4.414422e-05 5.698062e-05 4.872300e-05 5.909794e-05 3.038741e-05 1.316746e-05 7.374013e-05 1.242822e-05 4.065752e-05 1.287974e-05 1.337591e-05 2.879805e-05 1.722217e-05 2.155438e-05 1.763818e-05 2.104865e-05 1.230137e-05 4.439484e-06 2.601508e-05 4.678071e-06 1.211414e-05 4.999363e-06 5.058173e-06 1.228925e-05 3.044688e-05 3.397921e-05 2.765478e-04 2.316776e-04 2.838487e-04
<GCONST> -3.303355e+02
<MIXTURE> 4 1.938894e-02
<MEAN> 42
 -5.545961e-02 -2.352437e-02 5.783417e-02 5.108786e-02 -4.376607e-02 1.357675e-02 6.349497e-02 2.435763e-02 2.727510e-02 9.716591e-04 -9.181873e-03 -2.694658e-02 -8.962339e-03 1.767062e-03 1.768795e-02 9.603240e-03 -8.900361e-03 9.085450e-03 1.856703e-02 2.025177e-02 1.421250e-02 8.665006e-03 3.863396e-03 -2.660253e-05 4.841375e-03 1.695411e-03 -4.439361e-04 -2.757070e-04 4.647794e-03 3.316588e-04 2.190148e-03 3.465126e-03 3.782076e-03 3.509131e-03 2.326394e-03 1.159159e-03 -6.296305e-03 -3.235910e-03 8.009464e-03 -2.374037e-02 -6.674781e-03 -1.659247e-02
<VARIANCE> 42
 3.255301e-03 9.907823e-04 3.535572e-03 1.195178e-03 3.064419e-03 1.316889e-03 6.151102e-03 5.783541e-03 3.729554e-03 2.190615e-03 1.550464e-03 2.283006e-03 5.100079e-04 1.149080e-04 5.324739e-04 1.800271e-04 4.979768e-04 1.932157e-04 3.846550e-04 4.815145e-04 3.031487e-04 2.518451e-04 1.764520e-04 2.263360e-04 9.773225e-05 4.480022e-05 1.059931e-04 4.481934e-05 9.138051e-05 4.995399e-05 4.247185e-05 5.067565e-05 6.275127e-05 9.708571e-05 6.131965e-05 5.488444e-05 1.119357e-04 6.359071e-05 2.961010e-04 1.073185e-03 8.725289e-04 2.382116e-03
<GCONST> -2.554595e+02
<MIXTURE> 5 1.552849e-01
<MEAN> 42
 -1.099977e-02 -2.383234e-02 6.896469e-03 2.051463e-02 -2.544597e-04 -1.187750e-02 -5.982495e-04 -2.106045e-02 -6.869073e-03 -6.345198e-03 -1.076817e-02 -2.578627e-02 3.323904e-03 -1.298803e-03 -2.222172e-03 2.123838e-03 4.447087e-03 -2.089174e-03 -1.064215e-03 -3.460106e-04 -1.642899e-03 -1.281165e-03 -1.805303e-03 -1.652975e-03 2.666709e-03 8.107034e-04 -5.408125e-04 1.980264e-04 2.568655e-03 -4.068785e-05 -1.622549e-04 4.416669e-04 -1.765483e-04 -3.214926e-06 -2.388207e-04 -2.225543e-04 -7.984923e-04 -3.793825e-03 2.599997e-05 -9.497297e-03 -1.786679e-02 1.009919e-02
<VARIANCE> 42
 9.928602e-04 4.662601e-04 8.982621e-04 5.092155e-04 8.337666e-04 4.217508e-04 1.017703e-03 1.370589e-03 7.132949e-04 6.537745e-04 5.224405e-04 6.194935e-04 9.888132e-05 4.661100e-05 7.873773e-05 5.313479e-05 7.758389e-05 3.841774e-05 1.749891e-05 7.374013e-05 1.441054e-05 4.065752e-05 1.866060e-05 1.996615e-05 3.402556e-05 2.040227e-05 2.755948e-05 2.034370e-05 2.587854e-05 1.557456e-05 4.956459e-06 2.601508e-05 5.353951e-06 1.211414e-05 5.741464e-06 5.494775e-06 2.313921e-05 4.230686e-05 4.718687e-05 2.864053e-04 3.225122e-04 2.838487e-04
<GCONST> -3.209157e+02
<MIXTURE> 6 7.322980e-02
<MEAN> 42
 2.929865e-02 2.039331e-02 8.883723e-03 -1.402311e-02 2.020968e-02 1.213390e-02 2.849852e-02 -6.886117e-03 3.126280e-02 1.864315e-02 1.685437e-02 1.104317e-02 -2.307390e-03 1.723604e-03 7.814030e-03 4.820236e-03 -2.354769e-03 4.365725e-03 3.446204e-03 3.059669e-03 2.142165e-03 2.172444e-03 2.176796e-03 1.870833e-03 -6.660692e-04 4.305842e-05 2.962417e-03 2.887609e-03 -1.980823e-04 1.251852e-03 1.132775e-03 1.325565e-03 1.010483e-03 9.076498e-04 8.894803e-04 8.579972e-04 2.988179e-03 3.532666e-03 2.082146e-03 1.677141e-02 1.165721e-02 5.403539e-03
<VARIANCE> 42
 1.925975e-03 1.847402e-03 1.521518e-03 1.442421e-03 1.287330e-03 1.280593e-03 9.857348e-03 1.370589e-03 2.932639e-03 1.327956e-03 1.344053e-03 1.399025e-03 2.113510e-04 1.055645e-04 2.155137e-04 1.047819e-04 1.880941e-04 1.083693e-04 5.292717e-05 7.374013e-05 4.498262e-05 5.000359e-05 5.241277e-05 5.373543e-05 7.120083e-05 3.266942e-05 7.359648e-05 3.364742e-05 6.440188e-05 3.570359e-05 1.297654e-05 2.601508e-05 1.500608e-05 1.616667e-05 1.593519e-05 1.556769e-05 2.794204e-05 9.461798e-05 7.394699e-05 9.103324e-04 1.204671e-03 9.396922e-04
<GCONST> -2.860562e+02
<MIXTURE> 7 1.592280e-02
<MEAN> 42
 2.018281e-01 -4.970576e-02 -2.071747e-01 -5.595184e-02 2.268009e-01 -1.357250e-01 -7.387903e-02 1.316495e-02 7.749868e-02 1.017597e-01 1.402413e-01 1.692253e-01 1.008919e-02 -2.287039e-03 2.171096e-03 5.867262e-03 1.223110e-02 -9.098165e-04 -5.783061e-03 -1.603737e-02 -1.127623e-02 -6.542800e-03 -2.445048e-03 1.720341e-03 -9.743558e-04 -2.863571e-04 2.912651e-03 3.605759e-03 -1.395788e-04 1.093522e-03 4.992004e-03 5.533597e-03 3.266529e-03 1.516062e-03 5.934174e-04 3.494206e-05 4.619573e-02 -1.989874e-02 1.783024e-02 1.445904e-01 -8.696101e-02 3.114242e-02
<VARIANCE> 42
 1.081049e-02 2.260803e-03 8.934613e-03 4.234856e-03 9.355474e-03 3.076972e-03 2.068457e-03 1.193111e-02 7.864835e-03 5.951365e-03 8.256314e-03 1.300994e-02 1.760853e-03 1.129131e-04 1.714000e-03 5.083840e-04 1.717017e-03 4.748171e-04 5.326446e-04 5.437144e-04 2.911229e-04 2.036106e-04 4.111513e-04 8.609516e-04 7.679351e-05 6.166222e-05 1.042942e-04 4.315413e-05 7.418223e-05 6.444626e-05 7.591441e-05 1.874837e-04 1.996958e-04 7.797904e-05 2.784775e-05 3.164805e-05 4.448534e-04 1.635740e-04 6.972247e-04 6.424861e-03 1.377805e-03 2.079839e-03
<GCONST> -2.296935e+02
<MIXTURE> 8 8.600275e-03
<MEAN> 42
 -2.210297e-01 -8.637738e-02 1.798958e-01 1.721593e-01 -1.809515e-01 3.878655e-02 2.276134e-01 2.083580e-01 9.983306e-02 9.239530e-03 -7.021556e-02 -1.710806e-01 2.101973e-02 6.771395e-04 -1.010145e-02 1.868379e-03 2.127939e-02 -7.178895e-03 -2.696333e-03 -1.550034e-03 -4.829420e-03 -3.554852e-03 -7.052193e-04 1.495471e-03 1.711911e-02 4.479681e-03 -1.119427e-02 -7.399861e-03 1.588481e-02 -3.457187e-03 -1.243783e-02 -1.032463e-02 -5.171695e-03 7.991976e-04 5.675150e-03 1.073117e-02 -4.044482e-02 -1.289451e-02 6.442925e-02 -1.168479e-01 -3.571721e-02 -1.413048e-01
<VARIANCE> 42
 1.045286e-02 1.196420e-03 7.912819e-03 3.800403e-03 8.937255e-03 1.742928e-03 9.731551e-03 4.142580e-02 3.321175e-03 9.557683e-04 2.318591e-03 4.865007e-03 1.908128e-03 4.459071e-04 8.173016e-04 9.725511e-04 1.267997e-03 1.544095e-04 2.018483e-03 1.930498e-03 3.251852e-04 1.101258e-04 4.711912e-04 1.257117e-03 6.112734e-05 1.101888e-04 9.675176e-05 6.136802e-05 5.181789e-05 8.830485e-05 6.872402e-05 1.348266e-04 2.111502e-05 4.029079e-05 8.066317e-05 1.435772e-04 4.150171e-04 1.020528e-04 9.418649e-04 3.335901e-03 6.603974e-04 9.400595e-03
<GCONST> -2.311107e+02
<MIXTURE> 9 1.803530e-01
<MEAN> 42
 7.736133e-03 -1.287256e-03 -1.677731e-03 -1.922417e-02 3.814877e-03 -3.454396e-03 -8.526729e-03 -1.633506e-02 7.156886e-03 1.699420e-02 1.316238e-02 -8.838132e-03 -1.161206e-03 1.043327e-04 -7.233256e-04 -2.435412e-03 -1.601928e-03 -1.773587e-06 -2.885672e-04 -1.092650e-03 -2.671871e-05 -4.860336e-04 4.224351e-05 -9.664742e-06 -1.356301e-03 -4.940286e-04 -3.104493e-04 -8.664186e-04 -1.369434e-03 -2.249367e-04 -7.900060e-06 -5.816997e-04 4.503236e-07 -2.543392e-04 -2.449699e-05 -4.686543e-05 1.215936e-03 1.756750e-03 -1.068438e-04 9.795444e-03 -4.917622e-03 -2.952185e-03
<VARIANCE> 42
 6.389234e-04 3.736272e-04 5.080228e-04 4.010092e-04 4.809605e-04 2.903916e-04 5.578658e-04 1.370589e-03 4.825017e-04 6.537745e-04 5.131129e-04 4.322584e-04 8.169095e-05 4.414422e-05 5.698062e-05 4.872300e-05 5.909794e-05 3.038741e-05 1.316746e-05 7.374013e-05 1.242822e-05 4.065752e-05 1.287974e-05 1.337591e-05 2.879805e-05 1.722217e-05 2.155438e-05 1.763818e-05 2.104865e-05 1.230137e-05 4.439484e-06 2.601508e-05 4.678071e-06 1.211414e-05 4.999363e-06 5.058173e-06 1.228925e-05 3.044688e-05 3.397921e-05 2.765478e-04 2.316776e-04 2.838487e-04
<GCONST> -3.303355e+02
<MIXTURE> 10 1.552849e-01
<MEAN> 42
 -2.360365e-02 -3.246956e-02 -5.091940e-03 1.148831e-02 -1.180447e-02 -2.009213e-02 -1.335883e-02 -3.586903e-02 -1.755211e-02 -1.657280e-02 -1.991095e-02 -3.574212e-02 -6.536598e-04 -4.029693e-03 -5.771544e-03 -7.919064e-04 9.238177e-04 -4.568456e-03 -2.737483e-03 -3.780894e-03 -3.161347e-03 -3.831695e-03 -3.533219e-03 -3.440315e-03 3.334513e-04 -9.960516e-04 -2.640697e-03 -1.606133e-03 5.338169e-04 -1.619273e-03 -1.052779e-03 -1.598532e-03 -1.102093e-03 -1.395430e-03 -1.197275e-03 -1.160192e-03 -2.722622e-03 -6.395575e-03 -2.721708e-03 -1.626670e-02 -2.505025e-02 3.360066e-03
<VARIANCE> 42
 9.928602e-04 4.662601e-04 8.982621e-04 5.092155e-04 8.337666e-04 4.217508e-04 1.017703e-03 1.370589e-03 7.132949e-04 6.537745e-04 5.224405e-04 6.194935e-04 9.888132e-05 4.661100e-05 7.873773e-05 5.313479e-05 7.758389e-05 3.841774e-05 1.749891e-05 7.374013e-05 1.441054e-05 4.065752e-05 1.866060e-05 1.996615e-05 3.402556e-05 2.040227e-05 2.755948e-05 2.034370e-05 2.587854e-05 1.557456e-05 4.956459e-06 2.601508e-05 5.353951e-06 1.211414e-05 5.741464e-06 5.494775e-06 2.313921e-05 4.230686e-05 4.718687e-05 2.864053e-04 3.225122e-04 2.838487e-04
<GCONST> -3.209157e+02
<MIXTURE> 11 7.322980e-02
<MEAN> 42
 1.174427e-02 3.200747e-03 -6.718934e-03 -2.921479e-02 5.857924e-03 -2.180254e-03 -1.121516e-02 -2.169470e-02 9.601261e-03 4.066694e-03 2.189840e-03 -3.918247e-03 -8.122556e-03 -2.386180e-03 1.941876e-03 7.257143e-04 -7.840665e-03 2.017026e-04 5.361617e-04 -3.752135e-04 -5.405987e-04 -6.560840e-04 -7.190708e-04 -1.061346e-03 -4.041293e-03 -2.243228e-03 -4.691188e-04 5.673531e-04 -3.408114e-03 -1.138247e-03 -3.081439e-04 -7.146344e-04 -5.390245e-04 -7.006621e-04 -7.072758e-04 -7.202393e-04 8.737693e-04 -3.582046e-04 -1.357551e-03 4.702727e-03 -2.226141e-03 -6.858221e-03
<VARIANCE> 42
 1.925975e-03 1.847402e-03 1.521518e-03 1.442421e-03 1.287330e-03 1.280593e-03 9.857348e-03 1.370589e-03 2.932639e-03 1.327956e-03 1.344053e-03 1.399025e-03 2.113510e-04 1.055645e-04 2.155137e-04 1.047819e-04 1.880941e-04 1.083693e-04 5.292717e-05 7.374013e-05 4.498262e-05 5.000359e-05 5.241277e-05 5.373543e-05 7.120083e-05 3.266942e-05 7.359648e-05 3.364742e-05 6.440188e-05 3.570359e-05 1.297654e-05 2.601508e-05 1.500608e-05 1.616667e-05 1.593519e-05 1.556769e-05 2.794204e-05 9.461798e-05 7.394699e-05 9.103324e-04 1.204671e-03 9.396922e-04
<GCONST> -2.860562e+02
<MIXTURE> 12 3.601911e-02
<MEAN> 42
 8.794524e-02 9.654301e-02 1.567173e-02 -1.172207e-01 3.455662e-02 5.489355e-02 4.014445e-02 3.484366e-02 5.887742e-02 6.897084e-02 5.981467e-02 4.637554e-02 -1.998330e-03 1.995649e-03 1.435807e-03 -4.190582e-03 -3.676669e-03 2.113486e-03 2.634372e-03 2.121848e-03 2.390471e-03 2.302971e-03 2.201913e-03 2.089192e-03 -2.962582e-03 -9.736210e-04 3.145341e-04 -2.084571e-04 -2.847259e-03 -1.133895e-04 -1.791549e-04 -5.500922e-04 -1.200268e-04 -2.030645e-04 -3.304722e-05 5.786365e-06 7.192656e-03 2.503871e-02 5.474116e-03 4.881617e-02 6.396797e-02 -3.025576e-02
<VARIANCE> 42
 1.871190e-03 2.317500e-03 9.840912e-04 1.892931e-03 8.167938e-04 1.219130e-03 4.406933e-03 1.894899e-03 1.342133e-03 1.181438e-03 1.259594e-03 1.004367e-03 1.465829e-04 1.048352e-04 1.206652e-04 9.569492e-05 1.078785e-04 7.618077e-05 4.448020e-05 7.374013e-05 3.600290e-05 4.065752e-05 4.056606e-05 4.013323e-05 4.734115e-05 2.357244e-05 4.103266e-05 2.529253e-05 3.831129e-05 2.026226e-05 8.795141e-06 2.601508e-05 8.385002e-06 1.211414e-05 9.355007e-06 9.659696e-06 2.071649e-05 3.650796e-04 1.089489e-04 5.280560e-04 1.254370e-03 8.367033e-04
<GCONST> -2.955470e+02
<MIXTURE> 13 1.938894e-02
<MEAN> 42
 -7.828171e-02 -3.611505e-02 3.404989e-02 3.725932e-02 -6.590895e-02 -9.388411e-04 3.212339e-02 -6.062211e-03 2.847075e-03 -1.774994e-02 -2.493225e-02 -4.605890e-02 -1.799568e-02 -2.520744e-03 8.457791e-03 4.236273e-03 -1.782652e-02 3.525368e-03 1.072199e-02 1.147439e-02 7.248037e-03 2.317155e-03 -1.450014e-03 -6.044390e-03 8.869905e-04 -9.819075e-04 -4.562054e-03 -2.953597e-03 8.240679e-04 -2.495467e-03 -4.166688e-04 6.176523e-04 6.134480e-04 -4.321516e-04 -8.058804e-04 -1.804202e-03 -1.052829e-02 -6.425662e-03 1.126430e-03 -3.684417e-02 -1.849022e-02 -3.611523e-02
<VARIANCE> 42
 3.255301e-03 9.907823e-04 3.535572e-03 1.195178e-03 3.064419e-03 1.316889e-03 6.151102e-03 5.783541e-03 3.729554e-03 2.190615e-03 1.550464e-03 2.283006e-03 5.100079e-04 1.149080e-04 5.324739e-04 1.800271e-04 4.979768e-04 1.932157e-04 3.846550e-04 4.815145e-04 3.031487e-04 2.518451e-04 1.764520e-04 2.263360e-04 9.773225e-05 4.480022e-05 1.059931e-04 4.481934e-05 9.138051e-05 4.995399e-05 4.247185e-05 5.067565e-05 6.275127e-05 9.708571e-05 6.131965e-05 5.488444e-05 1.119357e-04 6.359071e-05 2.961010e-04 1.073185e-03 8.725289e-04 2.382116e-03
<GCONST> -2.554595e+02
<MIXTURE> 14 1.592280e-02
<MEAN> 42
 1.602387e-01 -6.872492e-02 -2.449839e-01 -8.198215e-02 1.881115e-01 -1.579132e-01 -9.207115e-02 -3.052690e-02 4.202512e-02 7.090167e-02 1.038955e-01 1.236009e-01 -6.695820e-03 -6.537462e-03 -1.438910e-02 -3.151687e-03 -4.343661e-03 -9.625936e-03 -1.501470e-02 -2.536445e-02 -1.810116e-02 -1.225049e-02 -1.055579e-02 -1.001645e-02 -4.479632e-03 -3.427369e-03 -1.172330e-03 9.780868e-04 -3.584743e-03 -2.117615e-03 1.506848e-03 5.661021e-05 -2.386022e-03 -2.016167e-03 -1.517421e-03 -2.215322e-03 3.775911e-02 -2.501458e-02 7.268237e-03 1.125283e-01 -1.018085e-01 1.290032e-02
<VARIANCE> 42
 1.081049e-02 2.260803e-03 8.934613e-03 4.234856e-03 9.355474e-03 3.076972e-03 2.068457e-03 1.193111e-02 7.864835e-03 5.951365e-03 8.256314e-03 1.300994e-02 1.760853e-03 1.129131e-04 1.714000e-03 5.083840e-04 1.717017e-03 4.748171e-04 5.326446e-04 5.437144e-04 2.911229e-04 2.036106e-04 4.111513e-04 8.609516e-04 7.679351e-05 6.166222e-05 1.042942e-04 4.315413e-05 7.418223e-05 6.444626e-05 7.591441e-05 1.874837e-04 1.996958e-04 7.797904e-05 2.784775e-05 3.164805e-05 4.448534e-04 1.635740e-04 6.972247e-04 6.424861e-03 1.377805e-03 2.079839e-03
<GCONST> -2.296935e+02
<MIXTURE> 15 1.119962e-02
<MEAN> 42
 1.066255e-01 -5.723869e-02 -1.934262e-01 -6.059637e-02 1.270146e-01 -1.263316e-01 -3.594859e-02 5.749214e-02 8.496051e-02 9.221447e-02 8.853727e-02 8.914401e-02 2.478865e-03 3.349448e-03 -7.797390e-03 -9.465775e-03 -1.041661e-03 -1.804353e-03 8.401998e-03 2.486832e-02 2.576245e-02 2.444514e-02 2.295221e-02 2.228806e-02 -1.101384e-02 2.731239e-03 8.583460e-03 1.466477e-04 -1.324673e-02 5.958618e-03 2.040462e-03 1.191979e-03 1.203778e-03 1.188038e-03 -5.571133e-04 -2.698835e-03 2.472727e-02 -1.698443e-02 1.452127e-02 8.790587e-02 -8.804020e-02 -4.386614e-02
<VARIANCE> 42
 1.507140e-02 2.005450e-03 1.696529e-02 4.555013e-03 1.571574e-02 6.126426e-03 4.908261e-03 8.402851e-03 7.356486e-03 6.429506e-03 1.170760e-02 1.590069e-02 6.536781e-04 1.851152e-04 9.836595e-04 1.736508e-04 7.725013e-04 4.253801e-04 2.904999e-04 3.993642e-04 2.614071e-04 3.304675e-04 3.097568e-04 4.550108e-04 2.439347e-04 5.298825e-05 3.043490e-04 7.248644e-05 2.601557e-04 1.184281e-04 2.178941e-04 2.719450e-04 1.369795e-04 1.005709e-04 7.772250e-05 7.570416e-05 6.614789e-04 2.816067e-04 9.552164e-04 7.383307e-03 2.278330e-03 2.408880e-03
<GCONST> -2.212765e+02
<MIXTURE> 16 8.600275e-03
<MEAN> 42
 -2.619253e-01 -1.002131e-01 1.443142e-01 1.475003e-01 -2.187663e-01 2.208719e-02 1.881540e-01 1.269446e-01 7.678120e-02 -3.126670e-03 -8.947627e-02 -1.989804e-01 3.546885e-03 -7.769465e-03 -2.153685e-02 -1.060592e-02 7.035811e-03 -1.214936e-02 -2.066735e-02 -1.912501e-02 -1.204258e-02 -7.752486e-03 -9.387994e-03 -1.268687e-02 1.399175e-02 2.808468e-04 -1.512877e-02 -1.053337e-02 1.300543e-02 -7.216013e-03 -1.575383e-02 -1.496923e-02 -7.009739e-03 -1.739804e-03 2.082642e-03 5.938218e-03 -4.859361e-02 -1.693535e-02 5.215333e-02 -1.399509e-01 -4.599649e-02 -1.800874e-01
<VARIANCE> 42
 1.045286e-02 1.196420e-03 7.912819e-03 3.800403e-03 8.937255e-03 1.742928e-03 9.731551e-03 4.142580e-02 3.321175e-03 9.557683e-04 2.318591e-03 4.865007e-03 1.908128e-03 4.459071e-04 8.173016e-04 9.725511e-04 1.267997e-03 1.544095e-04 2.018483e-03 1.930498e-03 3.251852e-04 1.101258e-04 4.711912e-04 1.257117e-03 6.112734e-05 1.101888e-04 9.675176e-05 6.136802e-05 5.181789e-05 8.830485e-05 6.872402e-05 1.348266e-04 2.111502e-05 4.029079e-05 8.066317e-05 1.435772e-04 4.150171e-04 1.020528e-04 9.418649e-04 3.335901e-03 6.603974e-04 9.400595e-03
<GCONST> -2.311107e+02
<STATE> 4
<NUMMIXES> 16
<MIXTURE> 1 6.391375e-02
<MEAN> 42
 6.091590e-02 7.847255e-02 2.970173e-02 -4.899788e-02 2.666772e-02 5.582551e-02 3.760646e-02 1.472186e-01 1.857901e-01 1.483399e-01 1.124505e-01 8.006707e-02 2.486681e-03 4.371744e-03 3.416278e-03 -1.132792e-03 6.968611e-04 3.706266e-03 7.192678e-04 3.584753e-03 4.775071e-03 5.201464e-03 4.427772e-03 3.674820e-03 2.591669e-04 1.176070e-03 1.854956e-03 5.288641e-04 -1.185451e-04 1.395913e-03 7.302740e-04 1.437783e-03 1.051533e-03 1.507129e-03 1.276826e-03 1.050410e-03 7.070976e-03 -2.477495e-03 2.977488e-03 9.185302e-02 4.402594e-02 -4.962699e-02
<VARIANCE> 42
 2.507370e-03 3.866847e-03 3.326267e-03 2.373987e-03 1.958216e-03 3.015132e-03 5.636641e-03 2.479354e-02 2.087509e-02 1.389427e-02 7.233860e-03 5.133878e-03 4.598587e-05 3.050518e-05 4.058205e-05 2.824006e-05 3.594508e-05 2.417610e-05 2.048548e-05 7.374013e-05 5.289157e-05 4.268532e-05 2.697481e-05 1.609132e-05 1.488388e-05 8.154608e-06 1.348875e-05 8.188678e-06 1.225082e-05 7.126404e-06 3.505311e-06 2.601508e-05 5.282340e-06 1.211414e-05 5.667181e-06 3.597858e-06 7.801853e-05 1.447775e-04 2.338668e-04 4.554484e-03 2.613803e-03 7.808696e-03
<GCONST> -2.919541e+02
<MIXTURE> 2 1.328052e-02
<MEAN> 42
 1.256205e-01 1.855043e-01 9.055498e-02 -8.722983e-02 5.757006e-02 1.389127e-01 -5.953752e-02 7.376675e-02 3.046315e-01 4.549854e-01 3.934125e-01 3.098149e-01 2.150667e-02 1.969733e-02 3.068518e-03 -8.928151e-03 1.480343e-02 1.092846e-02 1.344439e-03 1.540383e-02 3.974095e-02 5.716757e-02 5.348907e-02 4.195576e-02 4.461768e-03 5.587833e-03 2.993901e-03 -1.916500e-03 2.627891e-03 4.141984e-03 -8.014766e-04 -1.295828e-03 3.454381e-03 8.980116e-03 9.806667e-03 9.026607e-03 2.227743e-02 7.241002e-03 1.408779e-02 3.238259e-01 1.286267e-01 3.977371e-02
<VARIANCE> 42
 1.818534e-02 5.510728e-02 5.136431e-02 2.377220e-02 2.129560e-02 4.923487e-02 3.224728e-02 9.726477e-02 1.448507e-01 1.667720e-01 1.169250e-01 7.261733e-02 7.256833e-04 1.286086e-03 1.108899e-03 7.287890e-04 5.992473e-04 1.023315e-03 1.334830e-03 3.451099e-03 3.757537e-03 4.052096e-03 3.298998e-03 2.645708e-03 6.475207e-05 8.613576e-05 1.116525e-04 4.752655e-05 6.716763e-05 8.339330e-05 1.153196e-04 2.487592e-04 2.481954e-04 1.875983e-04 1.678636e-04 1.374062e-04 8.281038e-04 9.731496e-04 1.093088e-03 6.970920e-02 4.121831e-02 3.873217e-02
<GCONST> -1.736338e+02
<MIXTURE> 3 1.772704e-01
<MEAN> 42
 5.739513e-03 5.744043e-03 5.140366e-03 8.771410e-04 4.155693e-03 6.557451e-03 6.891045e-03 1.369704e-02 1.173963e-02 9.278920e-03 1.191686e-02 8.136639e-03 5.436463e-04 1.171235e-03 1.525744e-03 4.783219e-04 1.960481e-04 1.238411e-03 7.496123e-04 2.057382e-03 1.105050e-03 1.789263e-03 1.181411e-03 9.537453e-04 3.130496e-04 5.998040e-04 8.335502e-04 3.359647e-04 1.528650e-04 6.484536e-04 3.975614e-04 1.245557e-03 5.545333e-04 1.013833e-03 6.217830e-04 4.972756e-04 5.536367e-04 5.163767e-04 1.479814e-03 7.050215e-03 4.088063e-03 8.136479e-04
<VARIANCE> 42
 2.777587e-04 3.183346e-04 3.027165e-04 2.098565e-04 2.022604e-04 2.441450e-04 7.435778e-04 1.370589e-03 1.054234e-03 6.537745e-04 6.065091e-04 3.918414e-04 1.553831e-05 1.051504e-05 1.430596e-05 9.492592e-06 1.250795e-05 8.711512e-06 4.415754e-06 7.374013e-05 9.872299e-06 4.065752e-05 1.131955e-05 8.494042e-06 5.614099e-06 3.577079e-06 5.075316e-06 3.339159e-06 4.537425e-06 2.984787e-06 1.224260e-06 2.601508e-05 1.774616e-06 1.211414e-05 2.380252e-06 1.482473e-06 2.131001e-06 8.014546e-06 2.824474e-05 2.765478e-04 2.106343e-04 3.125585e-04
<GCONST> -3.599812e+02
<MIXTURE> 4 1.294930e-02
<MEAN> 42
 3.026350e-01 3.901116e-01 1.436478e-01 -2.055567e-01 1.450124e-01 2.643760e-01 -2.002364e-01 -1.366594e-01 3.507565e-01 8.014405e-01 7.831883e-01 6.621341e-01 2.598454e-02 3.790149e-02 2.070190e-02 -5.979846e-03 1.382087e-02 2.834209e-02 -1.672343e-02 -9.591242e-03 1.394293e-02 5.177088e-02 5.261315e-02 4.720074e-02 1.867048e-03 5.259127e-03 6.877266e-03 5.159201e-03 8.715473e-04 5.546262e-03 2.732757e-03 5.077580e-03 2.716979e-03 6.178634e-03 2.985376e-03 1.819250e-03 5.250279e-02 2.990105e-02 8.908402e-03 6.446664e-01 2.913058e-01 2.861054e-01
<VARIANCE> 42
 9.181582e-02 1.945301e-01 1.558043e-01 1.047287e-01 7.525465e-02 1.533439e-01 1.531198e-01 5.920707e-01 5.108661e-01 5.915234e-01 5.100462e-01 3.722362e-01 3.103549e-03 6.772944e-03 4.971361e-03 3.695962e-03 2.349549e-03 5.100393e-03 5.096306e-03 1.163163e-02 8.724192e-03 1.346367e-02 1.083892e-02 8.107384e-03 4.537242e-04 6.122637e-04 4.368805e-04 4.238550e-04 2.926943e-04 4.112912e-04 4.428589e-04 1.005175e-03 1.676718e-03 2.554550e-03 1.480439e-03 8.784672e-04 1.799370e-03 2.017940e-03 1.469547e-03 2.902375e-01 1.328987e-01 2.232968e-01
<GCONST> -1.126721e+02
<MIXTURE> 5 8.885695e-02
<MEAN> 42
 -6.512311e-03 -1.889985e-02 -5.154734e-03 2.227582e-02 4.179518e-03 -1.072807e-02 1.570285e-02 1.327900e-02 -6.585561e-03 -1.479368e-02 -1.073900e-02 -8.346729e-03 1.519005e-03 -6.087112e-04 -9.421213e-04 1.249293e-03 2.145727e-03 -9.286066e-04 7.256714e-05 1.091307e-03 -3.818350e-04 -6.220303e-05 -7.024298e-04 -5.961139e-04 1.333721e-03 1.756464e-04 -3.896550e-04 2.762836e-04 1.448350e-03 -1.978485e-04 -1.530577e-04 5.600525e-04 -2.096010e-04 2.899533e-05 -2.607876e-04 -2.154484e-04 -4.270220e-04 1.572691e-03 3.667446e-03 -1.267152e-02 -1.357792e-02 4.260405e-04
<VARIANCE> 42
 4.920919e-04 7.085974e-04 5.771139e-04 4.497236e-04 3.855985e-04 5.187012e-04 1.134958e-03 1.397085e-03 1.692705e-03 1.255908e-03 1.263120e-03 7.778187e-04 2.610761e-05 1.682906e-05 2.441505e-05 1.543801e-05 2.141920e-05 1.423792e-05 7.471809e-06 7.374013e-05 1.234261e-05 4.065752e-05 1.255328e-05 8.545187e-06 1.002853e-05 5.965785e-06 9.749693e-06 5.589035e-06 8.549805e-06 5.387571e-06 2.440876e-06 2.601508e-05 3.745647e-06 1.211414e-05 4.220873e-06 2.809350e-06 6.521567e-06 1.541315e-05 5.591130e-05 5.277293e-04 4.776011e-04 4.956098e-04
<GCONST> -3.384032e+02
<MIXTURE> 6 9.595575e-02
<MEAN> 42
 1.537033e-02 1.484673e-02 8.030985e-03 5.969468e-03 1.241246e-02 1.346758e-02 2.662901e-02 5.335562e-02 4.812312e-02 2.427613e-02 2.109260e-02 1.507487e-02 6.618893e-04 -7.157662e-04 3.362613e-04 2.649452e-03 1.564613e-03 -4.004765e-04 1.339629e-03 1.374622e-03 9.421154e-05 -5.060405e-04 -5.561060e-04 -5.927627e-04 7.602669e-04 2.291297e-04 5.228996e-04 9.369092e-04 9.393842e-04 2.542320e-04 3.409459e-04 7.713364e-04 2.122266e-04 2.299891e-04 9.831207e-05 6.168202e-05 2.864347e-03 3.967118e-04 3.807867e-03 1.447713e-02 8.037400e-03 -8.645488e-03
<VARIANCE> 42
 2.119644e-03 4.292370e-03 2.884686e-03 2.501619e-03 1.374281e-03 3.018861e-03 3.871629e-03 1.036522e-02 8.392969e-03 8.420375e-03 5.045495e-03 4.047565e-03 5.678006e-05 4.499483e-05 6.032228e-05 3.596640e-05 4.764015e-05 3.858941e-05 2.573259e-05 7.374013e-05 4.637049e-05 4.270312e-05 3.566646e-05 2.480619e-05 1.870069e-05 1.227131e-05 1.992740e-05 1.055611e-05 1.637150e-05 1.146836e-05 5.289979e-06 2.601508e-05 8.426540e-06 1.211414e-05 7.778355e-06 5.196390e-06 4.840814e-05 6.408313e-05 1.567174e-04 3.197127e-03 2.810140e-03 3.357555e-03
<GCONST> -2.921307e+02
<MIXTURE> 7 4.004870e-02
<MEAN> 42
 1.060751e-02 2.924724e-02 3.450762e-02 2.229058e-02 4.429520e-03 3.216672e-02 3.414707e-02 1.789896e-01 1.179352e-01 9.800618e-02 6.846473e-02 3.108211e-02 3.676187e-03 2.700756e-03 1.909585e-03 1.408144e-03 3.776634e-03 2.070860e-03 9.349603e-03 1.708581e-02 1.638244e-02 1.088884e-02 7.346248e-03 4.611923e-03 1.483598e-03 1.162049e-03 1.088611e-03 8.302143e-04 1.528051e-03 1.000869e-03 5.836788e-04 1.043634e-03 1.340785e-03 2.182312e-03 1.747170e-03 1.537549e-03 3.161727e-03 8.237747e-03 8.914385e-03 4.692312e-02 1.858036e-02 9.464350e-03
<VARIANCE> 42
 8.511258e-03 1.603707e-02 1.037379e-02 9.580828e-03 5.387090e-03 1.128025e-02 1.594051e-02 3.089164e-01 1.067227e-01 1.514864e-01 5.468840e-02 2.881945e-02 1.458421e-04 1.871480e-04 2.567764e-04 1.023672e-04 1.551459e-04 1.858228e-04 2.368675e-04 1.070445e-03 9.007510e-04 7.543682e-04 4.838769e-04 2.693347e-04 3.422207e-05 3.793141e-05 5.398584e-05 2.264749e-05 3.475243e-05 3.750081e-05 2.635092e-05 9.596503e-05 8.921400e-05 1.094227e-04 6.211700e-05 3.796735e-05 4.537459e-04 4.448228e-04 4.487579e-04 3.808893e-02 9.381940e-03 5.204708e-02
<GCONST> -2.175659e+02
<MIXTURE> 8 7.722975e-03
<MEAN> 42
 1.498564e-01 1.541880e-01 6.555910e-02 -1.280770e-02 1.270379e-01 1.070625e-01 -2.608777e-01 -4.218768e-01 -3.352400e-01 1.374179e-01 2.407512e-01 2.895705e-01 -4.737473e-02 -4.172597e-02 1.742528e-02 6.463116e-02 -2.041904e-02 -1.336854e-02 3.191667e-02 -2.120681e-03 -7.623448e-02 -1.293352e-01 -1.197864e-01 -9.080125e-02 3.403533e-03 -6.791987e-04 9.010523e-04 9.021136e-03 7.052990e-03 -3.429754e-04 1.307378e-02 1.945064e-02 2.131627e-02 8.699022e-03 4.967114e-03 1.776735e-03 3.448412e-02 5.019800e-02 3.502128e-02 2.157969e-01 1.690590e-01 4.614612e-01
<VARIANCE> 42
 7.899879e-02 2.349854e-01 2.384095e-01 9.766266e-02 1.000941e-01 2.171348e-01 1.253700e-01 3.046602e-01 3.326262e-01 5.031918e-01 5.005929e-01 3.833325e-01 2.625741e-03 3.650671e-03 4.623309e-03 1.982160e-03 2.717140e-03 3.483681e-03 1.730244e-03 8.975184e-03 2.130055e-02 2.295726e-02 1.379470e-02 8.468273e-03 5.818338e-04 1.079525e-03 1.131123e-03 5.477098e-04 5.880701e-04 9.606372e-04 3.328726e-04 8.080230e-04 2.685788e-03 5.144416e-03 3.109678e-03 1.757551e-03 1.866267e-03 2.015416e-03 1.430241e-03 2.779868e-01 1.956072e-01 1.525589e-01
<GCONST> -1.087916e+02
<MIXTURE> 9 1.772704e-01
<MEAN> 42
 -9.269249e-04 -1.392731e-03 -1.819134e-03 -4.917429e-03 -1.533039e-03 3.073951e-04 -4.016404e-03 -1.111547e-03 -1.247956e-03 -9.486866e-04 2.065895e-03 2.186461e-04 -1.033100e-03 -1.258412e-04 1.281535e-05 -7.540801e-04 -1.218615e-03 5.780050e-05 -9.093553e-05 -1.377501e-03 -1.517591e-04 -7.612667e-04 -1.643709e-04 -2.120363e-04 -6.347140e-04 -1.567228e-04 -6.758823e-05 -3.949700e-04 -6.991844e-04 -4.260780e-05 -4.502377e-05 -7.946427e-04 2.167450e-05 -3.783815e-04 4.660396e-06 1.024819e-05 -3.028128e-05 -6.160222e-04 -6.460171e-04 3.983248e-04 -1.717235e-03 -6.258082e-03
<VARIANCE> 42
 2.777587e-04 3.183346e-04 3.027165e-04 2.098565e-04 2.022604e-04 2.441450e-04 7.435778e-04 1.370589e-03 1.054234e-03 6.537745e-04 6.065091e-04 3.918414e-04 1.553831e-05 1.051504e-05 1.430596e-05 9.492592e-06 1.250795e-05 8.711512e-06 4.415754e-06 7.374013e-05 9.872299e-06 4.065752e-05 1.131955e-05 8.494042e-06 5.614099e-06 3.577079e-06 5.075316e-06 3.339159e-06 4.537425e-06 2.984787e-06 1.224260e-06 2.601508e-05 1.774616e-06 1.211414e-05 2.380252e-06 1.482473e-06 2.131001e-06 8.014546e-06 2.824474e-05 2.765478e-04 2.106343e-04 3.125585e-04
<GCONST> -3.599812e+02
<MIXTURE> 10 9.595575e-02
<MEAN> 42
 -3.045506e-03 -1.135974e-02 -1.345273e-02 -1.403701e-02 -2.416054e-03 -8.510088e-03 1.740047e-03 1.263173e-02 1.147786e-02 -1.242892e-02 -7.320059e-03 -1.037332e-02 -2.352213e-03 -3.398894e-03 -2.770436e-03 2.505721e-04 -1.196261e-03 -2.885291e-03 -6.894626e-04 -2.060261e-03 -2.629624e-03 -3.119946e-03 -2.944962e-03 -2.584995e-03 -9.695049e-04 -1.172088e-03 -1.262705e-03 -3.626976e-04 -6.790842e-04 -1.100367e-03 -5.790523e-04 -1.268863e-03 -9.489136e-04 -1.162226e-03 -1.017276e-03 -8.501416e-04 8.130877e-05 -2.805366e-03 -1.199605e-03 -8.140125e-03 -1.316690e-02 -3.182326e-02
<VARIANCE> 42
 2.119644e-03 4.292370e-03 2.884686e-03 2.501619e-03 1.374281e-03 3.018861e-03 3.871629e-03 1.036522e-02 8.392969e-03 8.420375e-03 5.045495e-03 4.047565e-03 5.678006e-05 4.499483e-05 6.032228e-05 3.596640e-05 4.764015e-05 3.858941e-05 2.573259e-05 7.374013e-05 4.637049e-05 4.270312e-05 3.566646e-05 2.480619e-05 1.870069e-05 1.227131e-05 1.992740e-05 1.055611e-05 1.637150e-05 1.146836e-05 5.289979e-06 2.601508e-05 8.426540e-06 1.211414e-05 7.778355e-06 5.196390e-06 4.840814e-05 6.408313e-05 1.567174e-04 3.197127e-03 2.810140e-03 3.357555e-03
<GCONST> -2.921307e+02
<MIXTURE> 11 8.885695e-02
<MEAN> 42
 -1.538557e-02 -2.954765e-02 -1.476401e-02 1.379314e-02 -3.675146e-03 -1.983807e-02 2.227195e-03 -1.672036e-03 -2.304256e-02 -2.896920e-02 -2.495516e-02 -1.950249e-02 -5.248191e-04 -2.249641e-03 -2.918585e-03 -3.223563e-04 2.944914e-04 -2.437933e-03 -1.020817e-03 -2.343576e-03 -1.787117e-03 -2.612733e-03 -2.119654e-03 -1.765400e-03 6.700709e-05 -8.013519e-04 -1.638635e-03 -6.693620e-04 2.787480e-04 -1.126294e-03 -7.779897e-04 -1.480147e-03 -9.837480e-04 -1.363220e-03 -1.082578e-03 -8.858930e-04 -1.448516e-03 2.307293e-06 6.764919e-04 -2.186046e-02 -2.231956e-02 -8.478878e-03
<VARIANCE> 42
 4.920919e-04 7.085974e-04 5.771139e-04 4.497236e-04 3.855985e-04 5.187012e-04 1.134958e-03 1.397085e-03 1.692705e-03 1.255908e-03 1.263120e-03 7.778187e-04 2.610761e-05 1.682906e-05 2.441505e-05 1.543801e-05 2.141920e-05 1.423792e-05 7.471809e-06 7.374013e-05 1.234261e-05 4.065752e-05 1.255328e-05 8.545187e-06 1.002853e-05 5.965785e-06 9.749693e-06 5.589035e-06 8.549805e-06 5.387571e-06 2.440876e-06 2.601508e-05 3.745647e-06 1.211414e-05 4.220873e-06 2.809350e-06 6.521567e-06 1.541315e-05 5.591130e-05 5.277293e-04 4.776011e-04 4.956098e-04
<GCONST> -3.384032e+02
<MIXTURE> 12 6.391375e-02
<MEAN> 42
 4.088644e-02 5.359897e-02 6.632211e-03 -6.848731e-02 8.967023e-03 3.386142e-02 7.575427e-03 8.423477e-02 1.279973e-01 1.011903e-01 7.842964e-02 5.140664e-02 -2.258347e-04 2.162484e-03 8.681162e-04 -3.258448e-03 -1.701307e-03 1.739498e-03 -1.091168e-03 1.498705e-04 1.866007e-03 2.588104e-03 2.350281e-03 2.070260e-03 -1.284018e-03 3.381865e-05 3.858744e-04 -6.157706e-04 -1.518592e-03 3.280996e-04 -1.862503e-05 -6.024165e-04 1.321995e-04 1.149143e-04 3.245921e-04 2.916894e-04 3.537852e-03 -7.290436e-03 -3.139594e-03 6.485826e-02 2.357580e-02 -8.497372e-02
<VARIANCE> 42
 2.507370e-03 3.866847e-03 3.326267e-03 2.373987e-03 1.958216e-03 3.015132e-03 5.636641e-03 2.479354e-02 2.087509e-02 1.389427e-02 7.233860e-03 5.133878e-03 4.598587e-05 3.050518e-05 4.058205e-05 2.824006e-05 3.594508e-05 2.417610e-05 2.048548e-05 7.374013e-05 5.289157e-05 4.268532e-05 2.697481e-05 1.609132e-05 1.488388e-05 8.154608e-06 1.348875e-05 8.188678e-06 1.225082e-05 7.126404e-06 3.505311e-06 2.601508e-05 5.282340e-06 1.211414e-05 5.667181e-06 3.597858e-06 7.801853e-05 1.447775e-04 2.338668e-04 4.554484e-03 2.613803e-03 7.808696e-03
<GCONST> -2.919541e+02
<MIXTURE> 13 4.004870e-02
<MEAN> 42
 -2.629508e-02 -2.140778e-02 -6.233101e-03 -1.686210e-02 -2.492920e-02 -1.031668e-02 -1.635522e-02 -4.333135e-02 -1.273860e-02 -5.767884e-02 -2.507748e-02 -3.682306e-02 -1.154417e-03 -2.771326e-03 -4.500113e-03 -2.638923e-03 -1.205670e-03 -3.381814e-03 3.193403e-03 3.998748e-03 4.377437e-03 -9.746291e-05 -1.452634e-03 -1.952645e-03 -8.563871e-04 -1.301491e-03 -1.850391e-03 -1.073361e-03 -8.299965e-04 -1.448647e-03 -1.469647e-03 -2.874836e-03 -2.437341e-03 -2.001900e-03 -1.405403e-03 -9.271575e-04 -5.358798e-03 -1.985822e-04 4.408224e-04 -3.114242e-02 -2.016380e-02 -8.179097e-02
<VARIANCE> 42
 8.511258e-03 1.603707e-02 1.037379e-02 9.580828e-03 5.387090e-03 1.128025e-02 1.594051e-02 3.089164e-01 1.067227e-01 1.514864e-01 5.468840e-02 2.881945e-02 1.458421e-04 1.871480e-04 2.567764e-04 1.023672e-04 1.551459e-04 1.858228e-04 2.368675e-04 1.070445e-03 9.007510e-04 7.543682e-04 4.838769e-04 2.693347e-04 3.422207e-05 3.793141e-05 5.398584e-05 2.264749e-05 3.475243e-05 3.750081e-05 2.635092e-05 9.596503e-05 8.921400e-05 1.094227e-04 6.211700e-05 3.796735e-05 4.537459e-04 4.448228e-04 4.487579e-04 3.808893e-02 9.381940e-03 5.204708e-02
<GCONST> -2.175659e+02
<MIXTURE> 14 1.328052e-02
<MEAN> 42
 7.167931e-02 9.160452e-02 -9.980053e-05 -1.489028e-01 -8.019935e-04 5.015700e-02 -1.313676e-01 -5.098245e-02 1.523945e-01 2.916344e-01 2.566353e-01 2.020245e-01 1.073127e-02 5.352511e-03 -1.025154e-02 -1.972659e-02 5.011617e-03 -1.867262e-03 -1.326969e-02 -8.094591e-03 1.522145e-02 3.170513e-02 3.051431e-02 2.138118e-02 1.243021e-03 1.875459e-03 -1.232729e-03 -4.674080e-03 -6.503433e-04 4.891864e-04 -5.096955e-03 -7.604669e-03 -2.847306e-03 3.501455e-03 4.624180e-03 4.337792e-03 1.076671e-02 -5.237136e-03 8.630399e-04 2.182159e-01 4.741750e-02 -3.894826e-02
<VARIANCE> 42
 1.818534e-02 5.510728e-02 5.136431e-02 2.377220e-02 2.129560e-02 4.923487e-02 3.224728e-02 9.726477e-02 1.448507e-01 1.667720e-01 1.169250e-01 7.261733e-02 7.256833e-04 1.286086e-03 1.108899e-03 7.287890e-04 5.992473e-04 1.023315e-03 1.334830e-03 3.451099e-03 3.757537e-03 4.052096e-03 3.298998e-03 2.645708e-03 6.475207e-05 8.613576e-05 1.116525e-04 4.752655e-05 6.716763e-05 8.339330e-05 1.153196e-04 2.487592e-04 2.481954e-04 1.875983e-04 1.678636e-04 1.374062e-04 8.281038e-04 9.731496e-04 1.093088e-03 6.970920e-02 4.121831e-02 3.873217e-02
<GCONST> -1.736338e+02
<MIXTURE> 15 1.294930e-02
<MEAN> 42
 1.814305e-01 2.136894e-01 -1.424045e-02 -3.350039e-01 3.528206e-02 1.077394e-01 -3.567584e-01 -4.444439e-01 6.485690e-02 4.937983e-01 4.975183e-01 4.180894e-01 3.700739e-03 4.982332e-03 -7.501254e-03 -3.029761e-02 -5.567984e-03 -2.247272e-04 -4.527880e-02 -5.273126e-02 -2.341842e-02 5.357658e-03 1.096910e-02 1.118434e-02 -6.653273e-03 -4.638458e-03 -1.483408e-03 -3.075895e-03 -5.971777e-03 -2.565864e-03 -5.684929e-03 -7.604218e-03 -1.366212e-02 -1.403839e-02 -1.240521e-02 -1.003633e-02 3.553519e-02 1.193245e-02 -6.425466e-03 4.291716e-01 1.454847e-01 9.708823e-02
<VARIANCE> 42
 9.181582e-02 1.945301e-01 1.558043e-01 1.047287e-01 7.525465e-02 1.533439e-01 1.531198e-01 5.920707e-01 5.108661e-01 5.915234e-01 5.100462e-01 3.722362e-01 3.103549e-03 6.772944e-03 4.971361e-03 3.695962e-03 2.349549e-03 5.100393e-03 5.096306e-03 1.163163e-02 8.724192e-03 1.346367e-02 1.083892e-02 8.107384e-03 4.537242e-04 6.122637e-04 4.368805e-04 4.238550e-04 2.926943e-04 4.112912e-04 4.428589e-04 1.005175e-03 1.676718e-03 2.554550e-03 1.480439e-03 8.784672e-04 1.799370e-03 2.017940e-03 1.469547e-03 2.902375e-01 1.328987e-01 2.232968e-01
<GCONST> -1.126721e+02
<MIXTURE> 16 7.722975e-03
<MEAN> 42
 3.742950e-02 -3.971317e-02 -1.297497e-01 -1.378118e-01 4.873201e-04 -7.932846e-02 -4.025083e-01 -6.426610e-01 -5.659350e-01 -1.463261e-01 -4.225914e-02 4.191510e-02 -6.787153e-02 -6.589429e-02 -9.772688e-03 4.682258e-02 -4.126952e-02 -3.697762e-02 1.527819e-02 -4.001566e-02 -1.346133e-01 -1.899418e-01 -1.667668e-01 -1.276105e-01 -6.244959e-03 -1.382165e-02 -1.255182e-02 -3.401441e-04 -2.647073e-03 -1.274063e-02 5.775861e-03 8.080341e-03 5.864324e-04 -1.999081e-02 -1.733868e-02 -1.499253e-02 1.720400e-02 3.224064e-02 1.989387e-02 4.899092e-03 -7.850990e-03 3.052260e-01
<VARIANCE> 42
 7.899879e-02 2.349854e-01 2.384095e-01 9.766266e-02 1.000941e-01 2.171348e-01 1.253700e-01 3.046602e-01 3.326262e-01 5.031918e-01 5.005929e-01 3.833325e-01 2.625741e-03 3.650671e-03 4.623309e-03 1.982160e-03 2.717140e-03 3.483681e-03 1.730244e-03 8.975184e-03 2.130055e-02 2.295726e-02 1.379470e-02 8.468273e-03 5.818338e-04 1.079525e-03 1.131123e-03 5.477098e-04 5.880701e-04 9.606372e-04 3.328726e-04 8.080230e-04 2.685788e-03 5.144416e-03 3.109678e-03 1.757551e-03 1.866267e-03 2.015416e-03 1.430241e-03 2.779868e-01 1.956072e-01 1.525589e-01
<GCONST> -1.087916e+02
<STATE> 5
<MEAN> 42
 4.648084e-03 5.753067e-03 2.811370e-03 -6.821102e-03 1.240623e-03 7.661132e-03 -1.080897e-02 -1.596764e-02 -3.485768e-04 3.249374e-03 4.634226e-03 1.113183e-02 -2.179270e-04 -2.434713e-04 -2.773368e-05 2.286161e-04 -9.435412e-05 -1.410926e-04 3.800023e-04 2.016745e-04 -1.183704e-04 -1.816582e-04 -3.473095e-04 -3.581990e-04 1.175179e-05 -2.238486e-05 -3.387482e-05 6.202205e-06 2.150645e-05 -2.563701e-05 1.207794e-04 1.540415e-04 5.209504e-05 -3.524810e-05 -4.888380e-05 -4.974336e-05 6.651225e-04 -7.282832e-05 -6.242652e-04 7.683552e-03 4.424918e-03 9.452442e-03
<VARIANCE> 42
 1.189496e-03 1.256161e-03 9.926367e-04 9.908525e-04 8.217880e-04 9.051829e-04 2.364330e-03 1.457501e-03 1.096494e-03 8.356579e-04 1.360447e-03 8.005325e-04 1.282557e-04 6.412052e-05 1.263004e-04 6.413129e-05 1.117800e-04 6.439533e-05 3.217006e-05 7.374013e-05 3.399333e-05 4.362007e-05 4.492359e-05 3.651965e-05 5.085090e-05 2.423047e-05 4.819081e-05 2.528967e-05 4.372359e-05 2.407237e-05 9.038494e-06 2.601508e-05 1.163351e-05 1.560600e-05 1.477606e-05 1.192018e-05 3.887313e-06 1.196056e-05 6.905015e-05 6.534289e-04 7.889096e-04 6.176112e-04
<GCONST> -3.048044e+02
<STATE> 6
<MEAN> 42
 2.388712e-02 5.813149e-03 -1.692235e-02 -2.286926e-02 3.784119e-02 -5.504302e-03 -5.319686e-02 -1.085511e-01 -1.087030e-01 -2.734746e-02 1.758176e-02 3.354289e-02 2.338469e-04 6.819107e-04 4.456835e-04 -4.470032e-04 -1.100961e-04 5.656120e-04 6.673849e-04 1.485450e-03 1.667315e-03 1.081818e-03 5.313192e-04 7.084059e-05 -8.444109e-06 -2.587249e-04 -2.537382e-04 1.364113e-04 1.196575e-04 -2.470932e-04 1.175359e-04 2.956521e-04 2.833403e-04 8.010692e-05 -1.769260e-05 -7.295112e-05 3.949599e-03 -1.836227e-03 -3.319833e-04 1.198160e-02 1.321878e-02 8.000487e-02
<VARIANCE> 42
 4.285109e-02 3.143766e-01 5.749869e-01 3.491965e-02 2.313200e-01 4.345121e-01 2.036476e-02 7.495303e-02 4.803537e-01 4.353346e-01 2.478609e-01 7.716948e-02 2.283469e-04 5.659638e-04 1.215748e-03 9.330594e-05 5.821889e-04 8.353093e-04 1.311605e-04 3.004418e-04 1.138100e-03 7.858403e-04 4.331789e-04 2.226315e-04 3.949264e-05 2.977485e-05 5.253461e-05 2.151221e-05 3.830072e-05 3.205415e-05 1.052259e-05 2.601508e-05 2.906196e-05 1.916549e-05 1.678232e-05 1.625257e-05 3.593682e-04 1.570009e-03 1.299597e-03 1.075533e-01 2.431643e-01 5.081568e-02
<GCONST> -1.935362e+02
<STATE> 7
<MEAN> 42
 4.744934e-03 -5.485111e-02 -5.612751e-02 1.993412e-02 4.361692e-02 -4.342558e-02 -8.295041e-03 -2.032198e-02 -3.602360e-02 -1.429342e-02 2.164806e-03 3.767619e-05 -2.406887e-04 -9.503686e-04 -7.209576e-04 6.010025e-04 2.328503e-04 -7.676383e-04 2.659571e-04 -5.102609e-05 -1.520903e-04 -3.605016e-04 -3.649177e-04 -3.823008e-04 -7.120818e-05 -1.205161e-04 -4.943083e-05 9.580486e-05 -1.378783e-05 -8.567148e-05 4.502062e-05 9.326994e-05 1.572594e-04 1.264198e-04 7.068124e-05 3.387613e-05 1.050962e-03 -3.506829e-03 3.505595e-03 -2.952673e-03 -4.559314e-02 1.259436e-02
<VARIANCE> 42
 1.051625e-03 9.640714e-03 8.067159e-03 3.130885e-03 2.437717e-03 1.161538e-02 2.177942e-03 6.432525e-03 7.097764e-03 4.617759e-03 2.934240e-03 1.194040e-03 5.424270e-05 6.156348e-05 7.885858e-05 3.843078e-05 5.165833e-05 5.639010e-05 2.134576e-05 7.374013e-05 3.364561e-05 4.065752e-05 2.131928e-05 1.773685e-05 2.114298e-05 1.967033e-05 2.864958e-05 1.332837e-05 2.022136e-05 1.873832e-05 5.093711e-06 2.601508e-05 7.672783e-06 1.211414e-05 6.661387e-06 5.812240e-06 1.192073e-05 1.126792e-04 1.016364e-04 1.368572e-03 7.174581e-03 2.759465e-03
<GCONST> -2.924362e+02
<STATE> 8
<MEAN> 42
 -1.106815e-02 -5.300736e-02 -4.169940e-02 3.228994e-02 1.546381e-02 -3.124681e-02 6.070460e-02 8.832456e-02 1.045038e-01 9.965046e-02 5.371137e-02 1.591686e-02 1.037095e-02 4.815680e-03 -5.485948e-03 -7.592190e-03 7.978342e-03 -2.183595e-04 3.931844e-04 8.409083e-03 2.503498e-02 3.260139e-02 2.857811e-02 2.096004e-02 4.282433e-03 3.180583e-03 -1.096759e-03 -3.737061e-03 2.718953e-03 1.067470e-03 -3.320203e-03 -2.144624e-03 3.758590e-03 7.818943e-03 8.295230e-03 7.213654e-03 2.130593e-03 -3.263408e-03 8.489759e-03 3.351980e-02 -5.302663e-02 -7.424518e-02
<VARIANCE> 42
 4.519540e-03 1.405596e-02 1.787125e-02 5.074566e-03 7.514724e-03 9.630774e-03 6.160769e-03 4.332252e-02 4.100716e-02 3.510458e-02 2.401397e-02 1.616844e-02 4.802998e-04 9.161867e-04 9.803689e-04 4.537971e-04 5.022199e-04 8.285697e-04 5.663411e-04 2.313194e-03 2.180003e-03 2.405756e-03 1.864096e-03 1.330430e-03 7.613007e-05 8.924403e-05 1.351827e-04 4.882729e-05 8.332938e-05 9.351875e-05 8.522946e-05 1.927913e-04 2.225013e-04 2.563328e-04 1.717329e-04 1.288312e-04 1.215303e-04 4.922377e-04 5.734665e-04 1.504718e-02 1.091791e-02 1.387602e-02
<GCONST> -2.021368e+02
<STATE> 9
<MEAN> 42
 2.987728e-01 1.908382e-01 -1.059051e-01 -2.448128e-01 2.044837e-01 6.910921e-02 -3.159091e-01 -2.648292e-01 1.428542e-01 6.003642e-01 6.293341e-01 5.340854e-01 -5.896515e-03 2.723434e-03 8.596050e-03 1.580962e-03 -7.273329e-03 5.726709e-03 -2.104825e-02 -4.472095e-02 -4.830358e-02 -3.236338e-02 -2.025431e-02 -8.489124e-03 -3.687733e-03 -2.672828e-03 1.012816e-03 3.179464e-03 -2.362779e-03 -8.691886e-04 2.897654e-03 1.899247e-03 -3.039589e-03 -7.358755e-03 -7.264355e-03 -5.965007e-03 3.956805e-02 2.442480e-02 1.393116e-02 5.287700e-01 1.115652e-01 1.998087e-01
<VARIANCE> 42
 9.530916e-02 2.743678e-01 3.633371e-01 9.511648e-02 1.606339e-01 2.440305e-01 1.780835e-01 8.693691e-01 7.689204e-01 5.861847e-01 4.383569e-01 3.222243e-01 5.116309e-03 6.247059e-03 6.206712e-03 4.133106e-03 4.107997e-03 4.950607e-03 3.420481e-03 8.784790e-03 1.692631e-02 3.087214e-02 2.458389e-02 1.621968e-02 4.751529e-04 6.736007e-04 6.888402e-04 4.023347e-04 4.140259e-04 5.633745e-04 3.034253e-04 8.698438e-04 1.923285e-03 3.647414e-03 2.402385e-03 1.462805e-03 2.152922e-03 2.624410e-03 1.578049e-03 2.509094e-01 2.692820e-01 3.635356e-01
<GCONST> -1.023387e+02
<STATE> 10
<MEAN> 42
 -3.929403e-02 1.846751e-01 2.212689e-01 -7.002345e-02 -1.274313e-01 3.752763e-02 -2.214421e-01 -5.535383e-01 -4.277912e-01 -1.542871e-01 -1.057926e-02 9.924375e-02 -3.418683e-03 -5.695190e-03 -2.269178e-03 4.568918e-03 -5.895367e-04 -5.498508e-03 1.415602e-02 2.950373e-02 2.426795e-02 6.476182e-03 -1.670066e-03 -7.674942e-03 2.131311e-03 1.209647e-03 -9.228782e-04 -1.671786e-03 1.540943e-03 2.742361e-04 -1.970758e-04 2.168961e-03 4.438938e-03 5.988106e-03 5.063614e-03 3.476063e-03 8.377493e-03 8.056287e-03 -5.270296e-03 -3.249198e-05 2.236918e-01 3.653727e-01
<VARIANCE> 42
 1.836088e-02 1.043728e-01 9.592584e-02 3.646314e-02 3.218510e-02 2.130852e-02 6.745537e-02 1.459461e-01 9.741748e-02 5.631572e-02 5.897657e-02 7.371015e-02 2.746027e-04 6.359427e-04 5.937228e-04 3.068377e-04 2.757719e-04 4.133886e-04 9.311885e-04 2.633108e-03 2.064473e-03 1.539523e-03 1.187963e-03 9.288871e-04 5.247148e-05 6.824522e-05 7.042191e-05 4.288433e-05 4.416993e-05 5.205000e-05 4.948747e-05 1.485690e-04 2.623137e-04 4.192331e-04 3.016949e-04 1.726612e-04 5.008295e-04 1.400870e-03 1.333968e-03 3.906672e-02 8.929282e-02 7.343293e-02
<GCONST> -1.831696e+02
<STATE> 11
<MEAN> 42
 -5.158386e-02 -1.768604e-02 3.369694e-02 3.416587e-02 -4.212107e-02 9.982769e-03 -8.658070e-02 -1.616751e-01 -1.700400e-01 -1.079286e-01 -7.582980e-02 -4.859994e-02 6.113647e-03 4.919905e-03 -1.162126e-03 -5.525495e-03 3.681608e-03 2.014807e-03 1.743126e-02 3.728037e-02 3.671394e-02 2.494635e-02 1.824425e-02 1.098022e-02 -7.923381e-05 1.304858e-03 1.388252e-03 -6.176991e-04 -7.376922e-04 1.314013e-03 -2.254316e-03 -4.952545e-03 -3.970398e-03 -1.158560e-03 -5.069003e-04 1.952037e-04 -3.752497e-03 1.037891e-02 1.303410e-02 -5.424249e-02 9.115510e-03 1.062173e-01
<VARIANCE> 42
 2.928356e-03 7.248369e-03 7.776241e-03 3.170548e-03 3.658493e-03 6.672618e-03 6.362558e-03 2.440808e-02 2.082688e-02 1.302166e-02 1.278888e-02 8.151688e-03 1.554156e-04 3.067074e-04 3.586136e-04 1.431819e-04 1.814328e-04 2.926554e-04 2.415452e-04 6.051974e-04 5.504030e-04 4.687656e-04 3.881198e-04 3.109018e-04 3.194391e-05 5.876370e-05 6.263084e-05 2.996410e-05 3.289856e-05 5.229785e-05 3.223740e-05 6.905606e-05 6.820999e-05 1.081773e-04 8.121687e-05 6.015044e-05 4.195477e-05 3.875634e-04 5.633245e-04 5.135885e-03 5.267148e-03 7.403773e-03
<GCONST> -2.371780e+02
<STATE> 12
<MEAN> 42
 -1.368526e-02 -3.118428e-03 1.582432e-02 7.512124e-03 -1.384798e-02 9.545664e-03 4.316340e-02 5.565932e-02 4.886874e-02 2.323564e-02 7.792041e-03 -4.487133e-03 7.349422e-04 -1.324945e-04 -8.661165e-04 -3.110398e-04 8.136514e-04 -4.527723e-04 2.016230e-03 3.638053e-03 3.409329e-03 1.793958e-03 9.992276e-04 3.629625e-04 1.378592e-05 8.058655e-05 6.701345e-05 -4.956463e-05 -2.129105e-05 6.596085e-05 -2.830037e-04 -5.141199e-04 -4.788513e-04 -3.392853e-04 -2.555180e-04 -9.420855e-05 -9.656908e-04 -3.352420e-03 4.293651e-04 -1.325395e-03 -3.843883e-03 -4.129947e-02
<VARIANCE> 42
 1.000896e-03 9.926487e-04 1.156292e-03 6.727262e-04 7.756788e-04 8.270546e-04 3.989192e-03 4.316782e-03 4.055233e-03 2.544155e-03 2.051325e-03 8.531311e-04 8.647161e-05 4.950956e-05 9.389049e-05 4.454549e-05 7.847990e-05 5.074822e-05 2.625538e-05 7.374013e-05 7.553702e-05 1.221928e-04 7.601351e-05 5.230322e-05 3.744177e-05 1.993846e-05 3.969646e-05 1.877904e-05 3.378327e-05 2.097369e-05 8.307422e-06 2.601508e-05 2.519488e-05 4.844018e-05 2.886257e-05 1.933358e-05 1.075709e-05 2.926450e-05 5.931630e-05 1.461637e-03 6.163939e-04 1.833092e-03
<GCONST> -2.954930e+02
<STATE> 13
<MEAN> 42
 -5.371063e-03 4.883596e-02 5.952981e-02 -2.247559e-02 -2.821290e-02 6.750277e-02 7.694669e-02 1.623981e-01 1.376704e-01 7.904039e-02 3.655063e-02 -8.083512e-04 2.582968e-04 -1.250909e-04 -3.803983e-04 -6.666091e-05 3.265690e-04 -2.237169e-05 -3.691417e-04 -3.490952e-04 -7.400690e-04 -6.029001e-04 -2.594274e-04 -1.241536e-04 8.038975e-06 -2.218566e-05 -2.846877e-05 8.244497e-06 1.480417e-05 -4.764633e-05 -6.435715e-05 -1.627571e-04 -1.172793e-04 -7.357373e-05 -1.820634e-05 3.456792e-06 -1.701172e-04 -2.596395e-03 -2.995020e-03 1.705436e-02 3.096497e-02 -1.000246e-01
<VARIANCE> 42
 5.476719e-03 8.610406e-03 6.280333e-03 5.521282e-03 3.077463e-03 4.814312e-03 1.295720e-02 2.006179e-02 1.972803e-02 2.840217e-02 1.805801e-02 1.245024e-02 6.084940e-05 5.671254e-05 5.312765e-05 4.549343e-05 4.275655e-05 3.634648e-05 2.624179e-05 7.374013e-05 4.011313e-05 5.721434e-05 3.786703e-05 2.709934e-05 2.318036e-05 1.827343e-05 1.821912e-05 1.622183e-05 1.618381e-05 1.179494e-05 4.223044e-06 2.601508e-05 4.076086e-06 1.211414e-05 4.462807e-06 4.170271e-06 1.039156e-04 1.458436e-04 2.593515e-04 1.541793e-02 4.757445e-03 7.329703e-03
<GCONST> -2.765363e+02
<STATE> 14
<MEAN> 42
 4.327396e-03 -1.320009e-03 -6.395044e-03 -2.285963e-03 5.693188e-03 1.157583e-03 3.488080e-03 9.968902e-03 1.192317e-02 8.951214e-03 9.585408e-03 7.526719e-03 4.409457e-05 -9.369069e-05 -1.406228e-04 2.705732e-05 9.119543e-05 -1.520383e-04 9.986252e-06 1.417231e-04 3.036706e-04 4.600085e-05 -1.607687e-05 -2.393088e-05 2.395239e-05 -1.945275e-05 -4.451492e-05 -2.520100e-06 3.429924e-05 -2.853104e-05 3.256793e-06 2.543416e-05 1.061419e-05 -9.661549e-06 -6.904304e-06 -1.866714e-05 6.713109e-04 2.381864e-04 2.021315e-03 6.624085e-03 -2.850259e-03 -6.085496e-03
<VARIANCE> 42
 8.795050e-04 9.904105e-04 1.319907e-03 5.995371e-04 7.952264e-04 8.779812e-04 9.001298e-04 1.582185e-03 1.690066e-03 8.603879e-04 1.091099e-03 6.297238e-04 8.663410e-05 4.506853e-05 8.687854e-05 4.413385e-05 7.579137e-05 4.437527e-05 1.932720e-05 7.374013e-05 2.260773e-05 4.065752e-05 2.739267e-05 1.973735e-05 3.715951e-05 1.826739e-05 3.512135e-05 1.891394e-05 3.171961e-05 1.741985e-05 6.444014e-06 2.601508e-05 7.390278e-06 1.211414e-05 8.818429e-06 7.169356e-06 4.850044e-06 2.290926e-05 6.560428e-05 4.548382e-04 7.026899e-04 5.300201e-04
<GCONST> -3.145870e+02
<STATE> 15
<MEAN> 42
 4.774281e-02 2.335083e-02 -2.221429e-02 -3.291670e-02 3.694889e-02 -4.745318e-03 5.418656e-02 2.409292e-01 2.720319e-01 7.121425e-02 4.772665e-02 2.490482e-02 5.356624e-04 4.508671e-04 -8.591957e-05 -4.953379e-04 3.144847e-04 5.868787e-05 1.305970e-04 1.155791e-03 1.298644e-03 9.180763e-04 8.093124e-04 6.691802e-04 -4.981810e-05 3.774642e-05 8.761160e-05 7.044775e-06 -7.173167e-05 4.962786e-05 -3.482159e-06 -6.288719e-05 -2.835056e-05 4.065895e-05 1.144869e-05 -6.384089e-07 4.243740e-03 -6.370256e-04 2.176514e-03 4.594203e-02 -1.886437e-02 -1.497563e-01
<VARIANCE> 42
 3.096768e-03 5.518790e-03 2.908752e-03 3.864323e-03 1.374443e-03 3.688319e-03 7.061193e-03 3.610393e-02 5.638940e-02 4.015993e-02 2.624395e-02 1.313643e-02 2.623056e-05 3.085206e-05 2.736131e-05 2.168907e-05 1.914877e-05 1.784990e-05 1.912559e-05 7.374013e-05 8.660145e-05 6.887001e-05 4.681539e-05 2.861452e-05 8.099077e-06 8.159348e-06 6.511947e-06 6.485481e-06 5.287714e-06 4.126845e-06 2.470774e-06 2.601508e-05 6.677224e-06 1.211414e-05 8.068912e-06 5.570567e-06 2.260667e-04 2.288279e-04 2.241436e-04 1.824347e-02 2.450837e-03 9.743057e-03
<GCONST> -2.856708e+02
<STATE> 16
<MEAN> 42
 9.194880e-02 3.593662e-02 -5.381395e-02 -6.875780e-02 8.483554e-02 -3.431365e-05 -1.646663e-01 -1.946693e-01 -1.014178e-01 8.064622e-02 1.544675e-01 1.766854e-01 -1.042087e-03 1.620567e-03 2.655185e-03 -2.933093e-04 -1.846606e-03 2.610165e-03 1.236129e-04 -1.708686e-03 -3.670830e-03 -3.395219e-04 -1.879982e-05 1.717935e-04 -8.207720e-05 1.095417e-04 1.899062e-04 -1.449657e-05 -1.334902e-04 1.665431e-04 9.912114e-05 1.302922e-04 1.886802e-04 1.352602e-04 1.638351e-04 1.924492e-04 1.398321e-02 5.874755e-03 2.040660e-04 1.341636e-01 2.910629e-02 1.511905e-01
<VARIANCE> 42
 2.244130e-01 8.327947e-02 4.841699e-01 3.239002e-02 3.340040e-01 2.286477e-01 1.265498e-01 2.189468e-01 2.641358e-01 2.572881e-01 2.598378e-01 2.322726e-01 1.958520e-03 6.341368e-04 2.088674e-03 7.754605e-04 1.871486e-03 8.454617e-04 1.208530e-03 4.517060e-03 5.746634e-03 9.503866e-03 1.009680e-02 7.787015e-03 1.728338e-04 8.063790e-05 1.466889e-04 9.012601e-05 1.412280e-04 6.730903e-05 5.596819e-05 3.444871e-04 4.427223e-04 9.376556e-04 1.031944e-03 7.607589e-04 1.062696e-03 1.628341e-03 1.138486e-03 1.657226e-01 1.072148e-01 9.389459e-02
<GCONST> -1.419309e+02
<STATE> 17
<MEAN> 42
 2.085203e-02 4.188317e-02 2.259080e-02 -3.231945e-02 2.014142e-03 4.127238e-02 4.625717e-02 1.304620e-01 8.189827e-02 1.104637e-01 8.096340e-02 5.141889e-02 7.639271e-05 -8.418254e-04 -9.162253e-04 3.814155e-04 4.924418e-04 -1.001269e-03 -1.654439e-04 -7.386247e-04 -4.526708e-04 -6.433318e-04 -5.724052e-04 -3.687956e-04 -7.567882e-05 -7.933209e-05 -1.474415e-06 7.740415e-05 -3.728850e-05 -3.804424e-05 -8.459835e-05 -1.208999e-04 -2.202360e-04 -1.659399e-04 -1.344787e-04 -1.034826e-04 3.526175e-03 -5.779702e-03 3.252340e-03 5.005799e-02 2.725097e-02 -6.340532e-02
<VARIANCE> 42
 4.063688e-03 6.069495e-03 7.441106e-03 3.284304e-03 3.963630e-03 4.986361e-03 9.809511e-03 2.351804e-02 5.110560e-02 1.268291e-02 1.100001e-02 8.175221e-03 1.080508e-04 5.541337e-05 1.029946e-04 5.572723e-05 9.236943e-05 5.260376e-05 3.173276e-05 7.443225e-05 1.087118e-04 6.994291e-05 5.440674e-05 4.124920e-05 4.454254e-05 1.896463e-05 3.723117e-05 2.241097e-05 3.627610e-05 1.716809e-05 6.818616e-06 2.601508e-05 9.169235e-06 1.211414e-05 1.196444e-05 1.018184e-05 6.209356e-05 1.321591e-04 2.717030e-04 1.030018e-02 3.740090e-03 7.166135e-03
<GCONST> -2.685547e+02
<STATE> 18
<MEAN> 42
 3.494443e-03 2.875430e-03 -1.427142e-03 -2.518719e-03 2.616477e-03 1.377389e-03 -2.337730e-03 3.660068e-03 -6.456543e-03 -3.515006e-03 1.488073e-03 -3.229447e-03 -1.546378e-04 -7.462824e-05 8.026879e-05 1.144910e-04 -1.205617e-04 6.031685e-06 5.349620e-05 -1.417957e-04 -1.501274e-04 -1.067991e-04 -9.634808e-05 -1.519262e-04 3.305509e-05 5.054368e-05 1.712245e-05 -4.210661e-05 9.503984e-06 3.361520e-05 2.375118e-06 2.238514e-05 4.281662e-05 3.335747e-05 2.608627e-05 2.100058e-05 2.316663e-05 -3.988142e-04 -3.051769e-04 -1.222899e-03 2.222203e-03 1.313711e-03
<VARIANCE> 42
 4.113246e-04 4.434600e-04 3.560460e-04 3.322569e-04 2.649908e-04 2.824574e-04 2.776369e-04 1.370589e-03 7.894576e-04 6.537745e-04 4.925840e-04 3.895814e-04 1.592104e-05 1.333029e-05 1.233825e-05 1.158734e-05 1.101474e-05 9.152228e-06 4.070072e-06 7.374013e-05 9.872299e-06 4.065752e-05 1.131955e-05 8.494042e-06 5.722026e-06 4.473543e-06 4.476145e-06 3.982994e-06 4.081736e-06 3.166300e-06 1.267172e-06 2.601508e-05 1.946677e-06 1.211414e-05 1.578860e-06 1.404808e-06 2.611770e-06 5.143390e-06 2.394142e-05 2.765478e-04 2.482709e-04 2.838487e-04
<GCONST> -3.599820e+02
<STATE> 19
<MEAN> 42
 1.080089e-02 -2.203034e-04 -9.907326e-03 -8.234767e-03 1.476732e-02 -4.078491e-03 -8.141432e-03 -4.948081e-03 -6.362378e-03 3.540451e-03 1.220574e-02 1.387516e-02 -2.093634e-04 -2.454525e-04 -3.800874e-05 2.286160e-04 -8.793020e-05 -1.588198e-04 8.564141e-05 -1.665888e-04 -2.995279e-06 -1.619143e-04 -2.025702e-04 -1.731647e-04 -2.489316e-05 -3.671022e-05 -1.197030e-05 3.126535e-05 -7.547979e-06 -2.400030e-05 4.414882e-05 3.707023e-05 1.638956e-05 -7.189548e-06 -1.381109e-05 -1.439320e-05 6.084087e-04 -2.069779e-04 -5.658381e-04 9.104209e-03 -1.254286e-03 7.125379e-03
<VARIANCE> 42
 1.317288e-03 3.152895e-03 2.349374e-03 1.519159e-03 1.373430e-03 2.212253e-03 1.766911e-03 1.370589e-03 4.715411e-03 1.149435e-03 1.100162e-03 8.723008e-04 8.065836e-05 5.517070e-05 8.008572e-05 4.798069e-05 6.726336e-05 4.779862e-05 2.363295e-05 7.374013e-05 3.279031e-05 4.065752e-05 2.542260e-05 2.086032e-05 3.131786e-05 1.854914e-05 2.922627e-05 1.765717e-05 2.595815e-05 1.624364e-05 6.180608e-06 2.601508e-05 8.271717e-06 1.211414e-05 7.904833e-06 6.538796e-06 7.781518e-06 1.802250e-05 6.733963e-05 7.083919e-04 2.082163e-03 6.527747e-04
<GCONST> -3.060384e+02
<STATE> 20
<MEAN> 42
 -3.568763e-02 -3.629784e-02 -6.374503e-04 3.605212e-02 -1.762293e-02 -1.631200e-02 4.621771e-02 5.526060e-02 3.973230e-02 7.176498e-03 -1.370384e-02 -2.909837e-02 -1.547192e-03 -1.769710e-03 -1.761042e-04 1.663232e-03 -6.816289e-04 -9.885662e-04 9.480162e-03 1.579526e-02 1.496617e-02 1.005074e-02 4.399169e-03 8.016324e-04 6.622402e-04 1.432121e-04 -4.984459e-04 -4.004829e-04 5.923660e-04 -1.972208e-04 1.119454e-03 2.703041e-03 3.253012e-03 3.219543e-03 2.580532e-03 1.744256e-03 -1.879324e-03 -5.055639e-03 4.841638e-03 -1.965828e-02 -2.883870e-02 -4.632478e-02
<VARIANCE> 42
 1.359989e-03 3.186834e-03 4.281278e-03 1.197643e-03 1.954720e-03 3.185606e-03 3.664181e-03 1.156086e-02 1.184491e-02 6.771494e-03 4.682930e-03 3.086612e-03 1.562395e-04 2.195580e-04 2.818697e-04 1.186015e-04 1.649750e-04 2.149222e-04 2.001858e-04 5.296526e-04 5.583282e-04 6.668500e-04 4.612925e-04 3.210544e-04 4.515341e-05 6.859520e-05 1.006545e-04 3.193738e-05 5.659011e-05 7.436458e-05 4.712222e-05 1.051834e-04 1.277148e-04 1.764808e-04 1.187831e-04 8.399320e-05 1.866584e-05 1.752472e-04 1.598774e-04 2.639112e-03 2.410425e-03 5.094415e-03
<GCONST> -2.472278e+02
<STATE> 21
<MEAN> 42
 2.599798e-02 -2.167357e-02 -4.523328e-02 -1.941553e-03 3.651357e-02 -3.258967e-02 9.772629e-02 2.065520e-01 2.559224e-01 2.181219e-01 1.669588e-01 9.686887e-02 2.398681e-02 1.009520e-02 -1.392053e-02 -1.708355e-02 1.906295e-02 -1.758944e-03 -5.958754e-03 1.196602e-02 4.065990e-02 5.589598e-02 5.544318e-02 4.509406e-02 7.175308e-03 4.243833e-03 -2.977396e-03 -5.729057e-03 5.075054e-03 7.226313e-04 -7.061422e-03 -6.349194e-03 3.142786e-03 1.062933e-02 1.321824e-02 1.235456e-02 7.961005e-03 -1.879430e-03 4.379093e-03 1.124830e-01 -4.391138e-02 -1.451030e-01
<VARIANCE> 42
 7.527411e-03 1.511925e-02 1.533544e-02 7.833757e-03 7.513561e-03 1.350051e-02 1.219662e-02 3.284317e-02 3.572962e-02 3.327193e-02 2.773624e-02 2.520625e-02 5.173364e-04 1.718914e-03 1.624489e-03 7.117085e-04 6.391220e-04 1.558775e-03 8.869543e-04 2.762702e-03 1.910848e-03 2.764670e-03 2.302290e-03 1.786075e-03 6.144041e-05 9.783505e-05 1.358844e-04 4.536124e-05 7.367913e-05 1.022985e-04 1.022004e-04 3.600026e-04 2.647263e-04 1.733670e-04 1.730469e-04 1.410553e-04 1.551021e-04 7.540050e-04 1.074990e-03 1.811113e-02 9.593815e-03 1.450413e-02
<GCONST> -1.945997e+02
<STATE> 22
<MEAN> 42
 2.251240e-01 1.172673e-01 -1.040697e-01 -1.712272e-01 1.662715e-01 8.386811e-03 -6.777457e-02 1.286069e-01 5.519295e-01 7.771617e-01 7.153773e-01 5.458889e-01 2.854294e-02 2.450533e-02 -4.025755e-03 -2.653745e-02 1.637264e-02 1.039084e-02 -3.621680e-02 -3.640981e-02 2.659677e-02 7.995329e-02 8.319537e-02 7.053487e-02 -5.790627e-04 2.312008e-03 2.892498e-03 -8.632056e-04 -1.725573e-03 2.578980e-03 -4.735958e-03 -7.351827e-03 -7.003082e-03 -1.495813e-03 2.938159e-04 1.300761e-03 4.259378e-02 7.536747e-03 4.646696e-03 5.598246e-01 2.653714e-02 -9.386830e-02
<VARIANCE> 42
 3.305528e-02 6.571314e-02 3.818465e-02 4.012942e-02 1.909042e-02 4.458247e-02 7.848562e-02 2.341092e-01 1.351054e-01 1.797837e-01 1.401997e-01 1.150745e-01 1.434102e-03 1.557649e-03 1.453482e-03 1.132569e-03 1.057212e-03 1.156362e-03 2.908082e-03 8.188770e-03 5.544429e-03 4.938107e-03 5.711187e-03 5.129356e-03 9.528806e-05 1.291844e-04 1.351218e-04 7.835875e-05 8.334052e-05 1.091698e-04 2.153589e-04 4.570998e-04 3.686265e-04 3.718463e-04 3.124275e-04 2.691724e-04 9.730152e-04 1.498738e-03 1.430672e-03 9.903783e-02 4.187800e-02 7.975020e-02
<GCONST> -1.571865e+02
<STATE> 23
<MEAN> 42
 3.558670e-01 4.813099e-01 1.286999e-01 -4.182771e-01 1.153307e-01 3.069250e-01 -4.848127e-01 -4.265977e-01 2.489909e-01 9.569663e-01 1.049132e+00 9.382504e-01 -1.770221e-02 -6.825631e-03 1.086059e-02 1.227618e-02 -1.434043e-02 1.952025e-03 -2.274093e-02 -6.310476e-02 -8.201838e-02 -7.022759e-02 -5.821636e-02 -4.039387e-02 -9.077442e-03 -8.994295e-03 8.260156e-05 9.038263e-03 -4.600490e-03 -4.460429e-03 7.499378e-03 2.977147e-03 -1.101742e-02 -2.500482e-02 -2.662495e-02 -2.237809e-02 6.315579e-02 2.121441e-02 8.622443e-03 8.498574e-01 3.672157e-01 3.376825e-01
<VARIANCE> 42
 1.049373e-01 2.094089e-01 2.633215e-01 9.108099e-02 1.326079e-01 2.125837e-01 1.251953e-01 3.956161e-01 4.780047e-01 5.291029e-01 6.139114e-01 5.887750e-01 5.262212e-03 1.111776e-02 7.876638e-03 6.220829e-03 3.792681e-03 8.192163e-03 4.673533e-03 9.658358e-03 2.194980e-02 3.954457e-02 3.233818e-02 2.213476e-02 6.614830e-04 1.192759e-03 1.013709e-03 6.738216e-04 5.406439e-04 9.364166e-04 4.957898e-04 1.425898e-03 3.198408e-03 5.011646e-03 3.126191e-03 1.904709e-03 1.506108e-03 2.349445e-03 2.109095e-03 3.296180e-01 1.727333e-01 1.638136e-01
<GCONST> -9.703860e+01
<STATE> 24
<MEAN> 42
 7.869852e-02 -1.550581e-01 -2.304157e-01 3.914834e-02 1.582639e-01 -1.916315e-01 -2.574450e-01 -5.720226e-01 -5.301218e-01 -3.034925e-01 -1.887426e-01 -8.881046e-02 -2.024639e-02 -1.847211e-02 1.780960e-03 1.935489e-02 -1.106340e-02 -8.472631e-03 1.435563e-02 7.286359e-03 -4.561371e-02 -7.698464e-02 -6.721658e-02 -5.070446e-02 4.862739e-03 3.381259e-03 -1.469608e-03 -4.120726e-03 3.171443e-03 9.210480e-04 2.760436e-03 1.033020e-02 1.518121e-02 1.629197e-02 1.528388e-02 1.099225e-02 2.887056e-02 2.362306e-02 1.143577e-02 -9.668247e-02 -1.083392e-01 3.517546e-01
<VARIANCE> 42
 4.075148e-02 2.117285e-01 2.690017e-01 6.149709e-02 1.021222e-01 2.287778e-01 1.753099e-01 6.955443e-01 4.582326e-01 2.691258e-01 2.447783e-01 2.579856e-01 1.330859e-03 1.321939e-03 1.439914e-03 9.663255e-04 1.057965e-03 1.052688e-03 1.562004e-03 4.844920e-03 7.087814e-03 1.057034e-02 8.462722e-03 6.036419e-03 1.809186e-04 1.722380e-04 2.059418e-04 1.250656e-04 1.504777e-04 1.448996e-04 1.171321e-04 3.207408e-04 8.344842e-04 1.400850e-03 1.058567e-03 5.779020e-04 1.016581e-03 2.026459e-03 1.548405e-03 1.551749e-01 2.111812e-01 3.169453e-01
<GCONST> -1.355899e+02
<STATE> 25
<MEAN> 42
 -9.143343e-03 -2.161641e-02 -1.113204e-02 1.451379e-02 4.271002e-03 -1.456266e-02 -1.565002e-01 -3.334720e-01 -3.610228e-01 -2.097303e-01 -1.054255e-01 -1.789452e-02 -5.718730e-03 -6.394128e-03 -6.734458e-04 6.077062e-03 -2.507451e-03 -3.516281e-03 2.384858e-02 4.167524e-02 3.697184e-02 1.248727e-02 -4.095708e-04 -9.652670e-03 2.434272e-03 3.021325e-03 5.788910e-04 -2.720800e-03 9.462344e-04 1.843577e-03 -1.556644e-03 6.833808e-04 6.107361e-03 9.213218e-03 8.178080e-03 6.753688e-03 -3.010319e-04 2.320615e-02 7.238496e-03 -7.077586e-02 1.801822e-02 2.311024e-01
<VARIANCE> 42
 2.913630e-02 4.022311e-02 4.145518e-02 2.465392e-02 2.704368e-02 3.411222e-02 3.238546e-02 7.497824e-02 1.071811e-01 7.824566e-02 7.559089e-02 9.438458e-02 3.450390e-04 6.433142e-04 8.809366e-04 2.741531e-04 4.541390e-04 6.809743e-04 6.373920e-04 2.386094e-03 2.579313e-03 1.805696e-03 1.390637e-03 1.126262e-03 5.109830e-05 6.277405e-05 7.639338e-05 3.795229e-05 4.874715e-05 5.680605e-05 5.166737e-05 1.980771e-04 3.660667e-04 4.523087e-04 2.990268e-04 1.893284e-04 6.351209e-04 9.942661e-04 9.649943e-04 5.306583e-02 2.905832e-02 3.570064e-02
<GCONST> -1.844089e+02
<STATE> 26
<MEAN> 42
 -5.329508e-02 -3.552848e-02 1.878236e-02 4.403753e-02 -3.549305e-02 -7.166238e-03 -4.893538e-02 -1.397311e-01 -1.446801e-01 -1.153660e-01 -8.636282e-02 -7.259592e-02 6.132979e-03 8.137368e-03 2.043722e-03 -7.172145e-03 2.068047e-03 5.124543e-03 1.190760e-02 2.713762e-02 3.215912e-02 2.274152e-02 1.698149e-02 1.240212e-02 -6.659421e-04 1.727468e-04 8.431226e-04 2.448797e-04 -7.706527e-04 5.190372e-04 -1.983791e-03 -4.934235e-03 -4.611337e-03 -2.550787e-03 -1.666271e-03 -8.386993e-04 -3.198819e-03 9.995257e-03 1.709197e-02 -6.822681e-02 -8.701419e-03 7.999568e-02
<VARIANCE> 42
 2.569912e-03 7.848860e-03 7.028157e-03 3.527998e-03 3.009836e-03 6.711283e-03 1.577513e-02 2.942520e-02 2.383901e-02 1.354360e-02 1.217062e-02 1.027218e-02 1.642541e-04 2.927763e-04 3.926577e-04 1.302511e-04 2.056127e-04 3.013969e-04 4.661355e-04 1.130674e-03 1.080506e-03 7.233380e-04 4.743118e-04 2.900131e-04 3.633733e-05 5.261787e-05 5.163519e-05 3.127190e-05 3.095001e-05 4.254360e-05 4.701263e-05 9.967798e-05 1.045243e-04 1.211204e-04 7.049286e-05 4.221946e-05 8.103954e-05 3.663710e-04 4.917966e-04 6.207968e-03 5.906167e-03 1.061861e-02
<GCONST> -2.317604e+02
<STATE> 27
<MEAN> 42
 -1.070722e-02 3.049033e-01 3.185835e-01 -1.394679e-01 -1.658672e-01 3.155199e-01 -1.460096e-01 -2.364192e-01 -5.002830e-02 1.857735e-01 2.178170e-01 2.243262e-01 3.119695e-04 -2.983434e-04 -6.303173e-04 3.547597e-06 4.684551e-04 -4.666119e-04 2.205534e-03 4.165382e-03 3.652887e-03 1.263577e-03 4.295969e-04 -1.030124e-04 3.980550e-05 -3.430666e-04 -3.910178e-04 1.503686e-04 1.966155e-04 -3.725532e-04 -3.732568e-04 -6.999169e-04 -9.468668e-04 -9.059609e-04 -6.662644e-04 -5.280344e-04 -1.725514e-02 -5.170515e-03 3.349625e-03 1.702770e-01 2.899638e-01 1.744010e-01
<VARIANCE> 42
 2.397277e-03 4.793642e-02 4.435635e-02 1.340926e-02 1.161061e-02 4.616146e-02 1.899902e-02 5.801312e-02 4.070165e-02 3.479337e-02 3.558554e-02 3.662679e-02 5.158892e-05 1.070182e-04 1.359936e-04 4.529677e-05 6.727147e-05 1.088982e-04 8.176615e-05 1.908306e-04 1.378597e-04 1.018596e-04 1.033360e-04 1.002928e-04 1.602618e-05 8.398584e-06 1.335059e-05 8.977524e-06 1.247229e-05 6.918824e-06 9.292240e-06 2.601508e-05 1.172751e-05 1.569475e-05 1.109544e-05 7.637896e-06 1.758544e-04 6.273887e-05 2.726431e-04 2.331300e-02 4.343528e-02 3.183676e-02
<GCONST> -2.513151e+02
<STATE> 28
<MEAN> 42
 -4.502954e-03 9.747596e-03 1.503174e-02 -5.973535e-03 -5.253397e-03 1.493107e-02 2.017129e-02 3.804478e-02 3.809792e-02 8.389278e-03 2.117582e-03 -9.800768e-03 1.006340e-04 -3.223171e-04 -4.263582e-04 1.130142e-04 2.606215e-04 -3.661819e-04 5.132098e-04 9.787730e-04 6.294799e-04 1.021242e-04 -4.361945e-05 -1.202354e-04 9.908063e-06 1.492858e-05 5.739872e-06 -1.284768e-05 1.353015e-06 1.077406e-05 -6.264431e-05 -5.884697e-05 -5.268302e-05 -5.643015e-06 3.748308e-06 1.267903e-05 1.674166e-04 -3.166875e-04 3.679243e-04 -1.894081e-03 5.488642e-03 -2.636055e-02
<VARIANCE> 42
 1.788242e-03 2.596929e-03 3.041149e-03 1.641892e-03 1.679653e-03 2.581103e-03 7.145768e-03 8.540551e-03 1.034625e-02 4.478330e-03 3.360677e-03 2.895522e-03 8.681804e-05 5.186316e-05 8.021369e-05 4.909492e-05 7.198672e-05 4.447905e-05 2.198211e-05 7.374013e-05 3.754041e-05 4.065752e-05 3.669487e-05 2.823379e-05 3.557427e-05 1.943301e-05 3.144182e-05 1.950530e-05 2.937919e-05 1.665422e-05 5.804321e-06 2.601508e-05 9.470010e-06 1.211414e-05 1.128710e-05 8.146765e-06 2.927952e-05 7.210473e-05 1.272137e-04 2.698406e-03 1.681259e-03 4.368063e-03
<GCONST> -2.892656e+02
<STATE> 29
<MEAN> 42
 -1.468031e-02 -1.007671e-01 -8.120631e-02 5.542840e-02 4.129190e-02 -8.841075e-02 -3.077835e-05 -4.621506e-03 5.902141e-02 1.010298e-01 5.156201e-02 -4.752740e-03 -9.683518e-04 2.124802e-04 1.191000e-03 3.833332e-04 -1.103516e-03 6.767851e-04 1.153344e-03 -1.367089e-03 -2.136363e-03 -1.302179e-03 -1.241200e-03 -1.094630e-04 4.808155e-05 3.248233e-04 2.823440e-04 -1.861744e-04 -1.100752e-04 2.756806e-04 1.506705e-05 4.019316e-04 7.094610e-04 9.788438e-04 8.225737e-04 4.504814e-04 -2.077522e-03 1.734207e-02 -1.344608e-03 4.100440e-02 -9.255477e-02 -2.772270e-02
<VARIANCE> 42
 2.374810e-01 6.906608e-02 1.318070e-01 1.180888e-01 1.641554e-01 4.204398e-02 3.576145e-01 4.889528e-01 5.697254e-01 2.869104e-01 2.116241e-01 2.558388e-01 3.128366e-03 9.087317e-04 2.514724e-03 1.390746e-03 2.596352e-03 9.303056e-04 2.848595e-03 4.803966e-03 7.644543e-03 8.472193e-03 6.197697e-03 5.286035e-03 2.388470e-04 8.653147e-05 2.412645e-04 1.025855e-04 2.191983e-04 1.046388e-04 1.100953e-04 3.695478e-04 5.133646e-04 7.332487e-04 5.178056e-04 3.752568e-04 1.532308e-03 9.755914e-04 1.187416e-03 1.759147e-01 5.508383e-02 3.300064e-01
<GCONST> -1.379256e+02
<STATE> 30
<MEAN> 42
 4.073014e-02 1.692520e-02 -2.708106e-02 -3.031706e-02 3.636464e-02 -5.205557e-03 -8.974643e-05 7.254277e-02 -3.665872e-02 -6.534354e-02 -5.917947e-02 -3.251563e-02 6.131461e-04 1.006322e-03 3.931377e-04 -8.122573e-04 1.077240e-04 7.119455e-04 -1.047610e-03 -3.638674e-04 -1.849248e-04 8.534039e-04 8.062096e-04 7.515848e-04 -7.356910e-05 -7.744495e-05 -4.945608e-06 7.469562e-05 -2.923207e-05 -4.072010e-05 1.639102e-05 -1.229357e-04 -3.432915e-05 2.381653e-05 3.320535e-05 6.230442e-05 4.578860e-03 1.574368e-03 -2.164649e-03 -3.918656e-02 5.719790e-03 -1.347703e-02
<VARIANCE> 42
 1.843260e-02 1.508069e-02 6.797090e-03 1.594950e-02 9.862513e-03 6.695664e-03 5.619160e-02 1.422761e-01 1.662382e-01 8.770092e-02 8.975472e-02 8.075809e-02 5.607845e-05 3.671945e-05 4.853392e-05 3.434708e-05 4.368786e-05 2.854918e-05 5.553986e-05 1.566089e-04 2.036243e-04 1.254756e-04 1.004348e-04 7.143008e-05 1.782080e-05 9.311267e-06 1.549962e-05 9.684301e-06 1.461972e-05 7.979663e-06 5.504391e-06 2.601508e-05 1.024857e-05 1.211414e-05 7.814575e-06 5.685456e-06 4.555484e-04 2.363556e-04 3.962193e-04 5.835852e-02 1.010168e-02 7.499092e-02
<GCONST> -2.504759e+02
<STATE> 31
<MEAN> 42
 -8.648633e-03 -1.111965e-02 -1.206957e-03 8.358225e-03 2.393014e-03 -4.175344e-03 1.019581e-01 1.490771e-01 1.200537e-01 4.817355e-02 1.529109e-02 -7.951449e-03 1.914068e-04 4.357345e-06 -1.865618e-04 -9.782532e-05 1.938422e-04 -9.617874e-05 1.926846e-04 2.949463e-04 8.921472e-04 4.896111e-04 4.720977e-04 3.337531e-04 9.435379e-05 -1.547561e-05 -1.115565e-04 -3.869735e-05 1.058501e-04 -6.226196e-05 -7.747211e-05 -8.164623e-05 -1.851149e-04 -1.395889e-04 -9.056104e-05 -5.806139e-05 1.104844e-04 -6.842966e-03 4.877784e-03 -1.919864e-03 -1.846104e-02 -1.034727e-01
<VARIANCE> 42
 2.031079e-03 3.932939e-03 4.790957e-03 1.773581e-03 2.304609e-03 3.668589e-03 7.613102e-03 1.578944e-02 7.634696e-03 1.831795e-03 1.078888e-03 2.190673e-03 8.076615e-05 3.973452e-05 1.022874e-04 3.467063e-05 8.303782e-05 5.049250e-05 2.725164e-05 7.374013e-05 6.219919e-05 4.065752e-05 2.796631e-05 2.157687e-05 3.300695e-05 1.620221e-05 3.967815e-05 1.472272e-05 3.283358e-05 1.943212e-05 5.991216e-06 2.601508e-05 9.459957e-06 1.211414e-05 9.010919e-06 6.748894e-06 2.853933e-05 7.599890e-05 1.255285e-04 1.164509e-03 3.385688e-03 6.221678e-03
<GCONST> -2.896490e+02
<STATE> 32
<MEAN> 42
 9.551297e-04 -3.797841e-03 -3.691316e-03 1.604733e-03 3.068440e-03 -2.000004e-03 6.721119e-03 9.442360e-03 6.423874e-03 4.124737e-03 7.135139e-03 3.167059e-03 9.693080e-05 1.152412e-05 -8.565487e-05 -5.505782e-05 9.216899e-05 -3.338775e-05 9.002651e-05 1.254490e-05 1.659493e-04 9.567715e-05 8.667425e-05 4.171461e-06 1.910401e-05 1.446808e-05 -4.001637e-06 -1.679709e-05 1.165431e-05 5.481091e-06 1.539000e-05 1.293438e-05 8.319956e-06 1.971504e-06 3.396248e-06 1.130207e-06 4.287089e-04 -1.515594e-04 -4.756809e-04 2.388451e-03 -3.708919e-03 -5.938294e-03
<VARIANCE> 42
 5.901019e-04 5.327499e-04 4.583293e-04 4.074965e-04 3.897079e-04 3.581831e-04 5.564662e-04 1.370589e-03 1.026633e-03 6.537745e-04 4.986952e-04 4.796921e-04 4.926497e-05 3.286077e-05 4.649824e-05 2.959146e-05 4.006697e-05 2.758547e-05 1.121245e-05 7.374013e-05 1.381486e-05 4.065752e-05 1.411895e-05 1.177200e-05 2.059697e-05 1.332113e-05 1.833320e-05 1.244746e-05 1.626421e-05 1.084021e-05 3.826469e-06 2.601508e-05 4.687438e-06 1.211414e-05 4.905227e-06 4.092798e-06 2.131001e-06 1.034274e-05 2.474319e-05 2.765478e-04 3.321755e-04 2.838487e-04
<GCONST> -3.360515e+02
<STATE> 33
<MEAN> 42
 6.640986e-02 7.144379e-02 9.142149e-03 -7.006857e-02 3.027276e-02 4.179323e-02 3.812915e-02 1.519906e-01 2.295381e-01 1.801165e-01 1.397812e-01 1.013757e-01 3.945402e-04 4.832286e-04 9.308975e-05 -4.405520e-04 1.534295e-04 2.985817e-04 -4.273071e-04 -4.461260e-04 -7.441624e-04 -2.013518e-04 1.307101e-04 1.821260e-04 -1.044978e-04 -1.194122e-04 -1.320244e-05 1.105121e-04 -4.980111e-05 -6.760310e-05 -5.104261e-05 -1.160164e-04 -1.762992e-04 -1.621979e-04 -1.414267e-04 -9.840298e-05 8.601732e-03 -1.005346e-02 9.962390e-03 1.145252e-01 2.988454e-02 -9.627756e-02
<VARIANCE> 42
 3.395862e-03 1.008731e-02 5.294615e-03 5.134921e-03 1.980938e-03 6.527496e-03 1.004875e-02 1.593605e-02 1.623578e-02 1.644279e-02 1.130111e-02 9.733687e-03 3.727703e-05 4.365097e-05 3.063314e-05 3.300447e-05 2.320430e-05 2.808093e-05 3.282376e-05 7.374013e-05 6.849673e-05 7.469098e-05 5.278554e-05 3.434491e-05 9.513314e-06 6.160339e-06 6.828524e-06 6.243269e-06 6.658978e-06 4.172950e-06 3.334690e-06 2.601508e-05 3.255683e-06 1.211414e-05 4.191879e-06 2.834150e-06 5.558847e-05 1.911394e-04 1.761900e-04 8.667559e-03 6.549505e-03 4.972523e-03
<GCONST> -2.882110e+02
<STATE> 34
<MEAN> 42
 -2.018735e-05 5.673830e-03 4.230604e-03 -3.723154e-03 -2.516075e-03 7.691000e-03 1.552449e-02 3.142928e-02 1.189226e-02 1.232778e-02 1.588203e-02 1.791979e-02 -6.565978e-05 -1.940094e-04 -1.275613e-04 1.308143e-04 3.069454e-05 -1.667963e-04 -3.556440e-05 -3.294026e-04 -3.548459e-04 -1.585219e-04 -1.510690e-04 -1.107434e-04 8.343150e-07 1.409741e-05 1.193662e-05 -6.799256e-06 -4.315551e-06 1.281167e-05 -8.491512e-06 3.793836e-06 1.451213e-05 1.694072e-05 2.946503e-05 1.297765e-05 7.868053e-04 -4.662302e-04 2.298567e-03 6.514929e-03 5.304519e-03 -1.361319e-02
<VARIANCE> 42
 5.875832e-04 6.721075e-04 4.895476e-04 4.531482e-04 3.125303e-04 3.837704e-04 1.046434e-03 1.627133e-03 1.634976e-03 2.669550e-03 2.991515e-03 3.755576e-03 6.411671e-06 6.072487e-06 6.988424e-06 4.539728e-06 5.435696e-06 5.064961e-06 3.399867e-06 7.374013e-05 9.872299e-06 4.065752e-05 1.131955e-05 8.494042e-06 2.487977e-06 1.611757e-06 2.391445e-06 1.459789e-06 2.136875e-06 1.428380e-06 6.277447e-07 2.601508e-05 9.811151e-07 1.211414e-05 1.970417e-06 1.275269e-06 1.238991e-05 9.203481e-06 2.618413e-05 2.279627e-03 4.365719e-04 4.612742e-04
<GCONST> -3.558880e+02
<STATE> 35
<MEAN> 42
 2.365761e-03 4.662228e-03 1.043031e-03 -6.997862e-03 2.481123e-03 6.747307e-03 -1.460647e-02 -1.972081e-02 -1.859580e-02 -6.022668e-03 -2.921472e-03 1.008414e-02 -4.409026e-04 -6.216276e-04 -1.820210e-04 5.306409e-04 -1.325237e-04 -4.015942e-04 -3.297860e-04 -4.632199e-04 -5.448649e-04 -3.736968e-04 -2.939856e-04 -1.818682e-04 -2.795806e-05 -1.135017e-06 2.550045e-05 1.510904e-05 -2.787295e-05 1.203544e-05 4.601250e-05 5.196196e-05 4.178606e-05 1.434660e-06 -9.611989e-06 -1.770977e-05 4.737347e-04 1.095715e-03 -2.215642e-03 1.892242e-03 5.608430e-03 1.586835e-02
<VARIANCE> 42
 2.832912e-03 3.593466e-03 1.499313e-03 2.758206e-03 1.116045e-03 1.906889e-03 1.571435e-03 1.532139e-03 3.087588e-03 1.779259e-03 1.817586e-03 1.144617e-03 8.117441e-05 5.513484e-05 7.549155e-05 4.923699e-05 6.527658e-05 4.506121e-05 2.445223e-05 7.374013e-05 2.620729e-05 4.065752e-05 3.705568e-05 2.672397e-05 2.830240e-05 1.709415e-05 2.548637e-05 1.635775e-05 2.277719e-05 1.416653e-05 6.338290e-06 2.601508e-05 7.689258e-06 1.211414e-05 1.187613e-05 8.478197e-06 7.668054e-06 1.729599e-05 1.299285e-04 1.238885e-03 1.899470e-03 6.563998e-04
<GCONST> -3.032220e+02
<STATE> 36
<MEAN> 42
 -2.099051e-02 -5.111972e-02 -2.781206e-02 3.619006e-02 3.219225e-03 -3.644517e-02 3.636050e-02 -6.921589e-05 -1.512836e-02 -9.945249e-03 -1.485358e-02 -2.245693e-02 -9.431109e-04 -1.450326e-03 -5.275695e-04 1.210108e-03 -2.477345e-04 -9.777090e-04 4.983292e-03 4.474657e-03 7.575659e-03 9.996958e-03 6.292695e-03 3.051566e-03 1.255625e-03 1.283809e-03 3.180993e-05 -1.276727e-03 6.442557e-04 6.726868e-04 -1.002717e-03 -1.538479e-03 1.494502e-03 3.977460e-03 3.782190e-03 3.237809e-03 -3.259266e-04 -1.339940e-07 1.182892e-03 -2.106184e-02 -3.836910e-02 -1.287520e-02
<VARIANCE> 42
 2.959686e-03 3.054149e-03 3.617335e-03 2.349180e-03 2.428004e-03 2.471377e-03 4.605867e-03 1.230246e-02 1.302282e-02 8.650170e-03 6.174895e-03 5.037404e-03 1.955105e-04 2.149075e-04 2.754024e-04 1.361402e-04 1.824563e-04 1.972748e-04 1.853300e-04 1.034737e-03 8.136994e-04 7.446391e-04 5.965350e-04 4.665668e-04 4.761574e-05 4.807003e-05 6.803232e-05 3.090064e-05 4.581745e-05 4.649992e-05 2.736497e-05 1.194217e-04 6.034029e-05 6.348523e-05 7.628883e-05 6.370931e-05 1.832779e-05 1.419257e-04 3.817324e-04 4.517516e-03 1.996151e-03 4.749530e-03
<GCONST> -2.459804e+02
<STATE> 37
<MEAN> 42
 1.910945e-01 1.540363e-01 -3.711972e-02 -1.734759e-01 1.167844e-01 6.154343e-02 -3.222766e-01 -4.542412e-01 -2.010463e-01 2.059763e-01 3.211485e-01 3.546435e-01 -5.405137e-04 2.108261e-03 2.652494e-03 -7.838499e-04 -1.589609e-03 2.372877e-03 -2.831634e-03 -3.349967e-03 -4.428582e-03 -3.684635e-03 -2.355778e-03 -1.041217e-03 -1.685425e-04 -4.098454e-04 -2.460559e-04 2.896684e-04 3.609064e-05 -3.278774e-04 5.613076e-04 1.027306e-03 2.143518e-04 -6.909640e-04 -8.378227e-04 -7.826432e-04 2.735265e-02 1.680266e-02 6.950389e-03 2.859239e-01 1.304819e-01 3.269772e-01
<VARIANCE> 42
 8.883586e-02 8.526531e-02 9.862768e-02 6.221252e-02 7.326782e-02 7.113406e-02 1.444347e-01 4.818454e-01 4.637503e-01 4.241853e-01 3.748599e-01 2.831960e-01 2.926543e-03 2.107633e-03 2.254779e-03 1.954318e-03 2.071318e-03 1.453863e-03 2.870698e-03 7.546473e-03 8.581419e-03 1.439425e-02 1.429553e-02 1.011823e-02 2.584822e-04 2.042710e-04 2.096157e-04 1.791392e-04 1.839121e-04 1.431357e-04 1.403155e-04 4.493171e-04 6.522792e-04 1.382658e-03 1.404662e-03 9.296712e-04 1.609394e-03 1.615860e-03 1.174447e-03 2.184429e-01 6.633470e-02 2.026992e-01
<GCONST> -1.309892e+02
<STATE> 38
<MEAN> 42
 -5.868966e-03 5.002395e-03 5.476922e-03 -3.024712e-03 1.145810e-03 7.599031e-03 2.899886e-02 6.033971e-02 4.617384e-02 2.633349e-02 1.591379e-02 3.340227e-03 1.746197e-04 -1.487205e-05 -1.902819e-04 -8.155982e-05 1.825485e-04 -1.011963e-04 1.152230e-04 5.704634e-04 6.520755e-04 5.090922e-04 3.774631e-04 2.029495e-04 -1.350986e-05 4.470370e-05 5.884990e-05 -1.567811e-05 -3.637672e-05 5.142810e-05 -5.112258e-05 -8.379795e-05 -6.050497e-05 -4.039306e-06 9.418576e-06 2.363676e-05 7.771031e-05 -2.677872e-03 2.201276e-03 5.749117e-03 1.614876e-03 -3.674674e-02
<VARIANCE> 42
 1.470895e-03 1.502762e-03 2.029425e-03 1.103229e-03 1.350716e-03 1.314464e-03 5.117057e-03 1.077788e-02 6.278246e-03 2.445420e-03 1.669234e-03 2.121699e-03 9.636243e-05 4.808247e-05 1.065946e-04 4.606255e-05 9.107456e-05 5.236299e-05 2.582260e-05 7.374013e-05 3.348306e-05 4.065752e-05 3.254713e-05 2.805740e-05 3.965116e-05 1.866838e-05 3.977650e-05 1.947370e-05 3.572587e-05 1.898323e-05 7.645696e-06 2.601508e-05 9.631023e-06 1.211414e-05 1.141598e-05 9.598785e-06 1.281689e-05 4.945139e-05 8.227459e-05 1.138520e-03 1.175792e-03 4.506138e-03
<GCONST> -2.950837e+02
<STATE> 39
<MEAN> 42
 1.619232e-01 -1.594271e-01 -3.239605e-01 -2.200112e-03 2.488954e-01 -2.386354e-01 -1.473989e-01 -1.811329e-01 -1.667936e-01 -8.148083e-02 6.479830e-03 8.154031e-02 9.686325e-04 -2.604023e-04 -1.225897e-03 -3.424478e-04 1.099998e-03 -7.342448e-04 5.267910e-04 1.455448e-04 -7.504248e-04 -1.161344e-03 -5.307761e-04 9.388590e-04 -4.656981e-04 4.769032e-05 5.273489e-04 2.176968e-04 -5.080717e-04 2.817024e-04 3.870820e-05 1.439814e-04 2.858026e-04 2.456778e-04 1.241808e-04 -8.620694e-05 3.137557e-02 5.914625e-03 -5.660744e-03 4.380822e-02 -1.594768e-01 1.325329e-01
<VARIANCE> 42
 6.387340e-02 1.686727e-01 2.054240e-01 6.693672e-02 9.418461e-02 1.711765e-01 2.062965e-01 5.794154e-01 5.196784e-01 4.480133e-01 4.477068e-01 4.246611e-01 1.357012e-03 1.318624e-03 2.043587e-03 8.276858e-04 1.374454e-03 1.341315e-03 1.722795e-03 4.296712e-03 8.141229e-03 1.112967e-02 1.094057e-02 8.281274e-03 1.156481e-04 1.033725e-04 1.278103e-04 7.770936e-05 9.580212e-05 8.674981e-05 7.497178e-05 2.920965e-04 6.212961e-04 1.001210e-03 9.795442e-04 6.468156e-04 1.044244e-03 9.974727e-04 9.024179e-04 2.836702e-01 1.546617e-01 2.727202e-01
<GCONST> -1.378401e+02
<STATE> 40
<MEAN> 42
 2.575618e-02 1.664888e-01 1.404519e-01 -9.094934e-02 -5.815626e-02 1.554220e-01 -5.469254e-02 4.741631e-02 1.617461e-01 1.959368e-01 1.802126e-01 1.423070e-01 -2.653744e-04 6.996907e-05 3.412395e-04 1.061241e-04 -3.096555e-04 1.933010e-04 -8.825003e-05 1.766097e-03 3.151021e-03 1.427910e-03 5.303724e-04 -3.953441e-04 3.269858e-05 -4.025736e-04 -4.368517e-04 1.867510e-04 2.341869e-04 -4.182130e-04 4.518651e-05 -1.968454e-04 -5.256612e-04 -6.520380e-04 -5.925802e-04 -3.881466e-04 -3.690390e-03 2.221087e-03 -8.288233e-03 1.439242e-01 1.305743e-01 -1.147867e-02
<VARIANCE> 42
 3.956191e-03 3.288229e-02 4.570732e-02 6.995921e-03 1.678462e-02 3.948024e-02 1.446641e-02 1.175491e-01 7.682047e-02 2.158692e-02 1.932309e-02 2.142961e-02 7.759380e-05 9.985012e-05 1.153436e-04 5.991525e-05 7.163118e-05 8.864833e-05 1.440910e-04 2.843632e-04 2.093916e-04 1.042759e-04 8.419546e-05 1.003883e-04 1.794360e-05 1.390692e-05 1.812886e-05 1.140208e-05 1.454084e-05 1.178660e-05 8.928504e-06 2.601508e-05 8.390472e-06 1.211414e-05 8.585030e-06 5.895959e-06 3.586469e-04 1.096768e-04 3.894139e-04 1.227650e-02 3.690188e-02 4.808208e-02
<GCONST> -2.487056e+02
<STATE> 41
<MEAN> 42
 -2.095091e-03 4.956652e-03 3.031652e-03 -4.604844e-03 2.791738e-03 5.046265e-03 1.835027e-02 3.181027e-02 2.115745e-02 1.760589e-02 1.123850e-02 3.073536e-03 -3.150273e-05 -1.528654e-04 -1.222917e-04 9.142855e-05 4.492508e-05 -1.395763e-04 3.323853e-04 8.085839e-05 -4.198882e-05 -2.756629e-05 -1.047666e-04 -1.192933e-04 1.072489e-05 3.006706e-05 1.891057e-05 -2.078287e-05 -4.198645e-06 2.479948e-05 -4.160124e-06 -4.741123e-07 2.260135e-05 3.935107e-05 3.698434e-05 2.971786e-05 2.413167e-04 -1.529819e-03 2.415919e-03 4.043830e-03 3.292007e-03 -1.896775e-02
<VARIANCE> 42
