~o
<STREAMINFO> 1 42
<VECSIZE> 42<NULLD><USER><DIAGC>
~h "PACIENTE"
<BEGINHMM>
<NUMSTATES> 20
<STATE> 2
<MEAN> 42
 8.287824e-03 2.820445e-03 -3.158970e-03 -5.989637e-03 7.243764e-03 1.480208e-03 -9.784851e-04 -2.820289e-02 4.694949e-02 -2.557198e-03 1.913787e-02 1.507041e-02 -9.497993e-04 -1.185336e-03 -2.591218e-04 1.069345e-03 -3.719019e-04 -7.272368e-04 1.788510e-03 1.240201e-03 -1.924621e-03 -2.078871e-03 -7.279564e-04 -9.898527e-05 -1.356891e-04 -1.693153e-04 -3.699325e-05 1.527561e-04 -5.313734e-05 -1.038695e-04 2.554973e-04 1.771892e-04 -2.748979e-04 -2.969794e-04 -1.039996e-04 -1.414457e-05 -1.652360e-04 -1.827844e-03 -6.254279e-04 1.615475e-02 -2.311899e-03 7.286313e-04
<VARIANCE> 42
 3.503894e-03 7.075746e-03 4.355409e-03 4.140454e-03 2.173052e-03 4.925627e-03 7.953097e-03 1.042064e-01 1.834402e-02 1.705949e-02 1.342129e-02 8.237674e-03 6.473142e-05 6.834475e-05 6.530702e-05 5.015826e-05 4.847835e-05 5.138075e-05 6.453086e-05 7.374013e-05 3.735294e-04 2.037601e-04 4.585482e-05 2.692926e-05 1.874776e-05 1.478601e-05 1.841257e-05 1.214479e-05 1.509460e-05 1.217483e-05 1.671183e-05 2.601508e-05 1.224393e-04 5.245128e-05 8.506406e-06 7.250359e-06 1.251468e-04 9.196168e-05 1.140981e-04 9.843676e-03 3.721327e-03 1.065569e-02
<GCONST> -2.673961e+02
<STATE> 3
<MEAN> 42
 8.242318e-03 -7.039959e-03 -1.302668e-02 -1.056587e-03 1.218514e-02 -8.362889e-03 6.274201e-03 -2.366602e-02 3.734770e-02 -1.543835e-02 9.867620e-03 1.020042e-02 -6.484174e-06 -1.408450e-03 -1.409505e-03 7.046229e-04 7.058311e-04 -1.405973e-03 1.036082e-03 6.482587e-04 -1.371514e-03 -1.839946e-03 -1.324210e-03 -6.955789e-04 1.347730e-04 -3.187314e-05 -1.643496e-04 -5.211292e-05 1.539752e-04 -9.696832e-05 -1.074865e-04 -8.456635e-05 7.901208e-05 3.413720e-05 -8.516444e-05 -8.521359e-05 -3.343142e-04 -1.068582e-03 -1.121619e-03 7.355759e-03 -1.003318e-02 -1.207685e-03
<VARIANCE> 42
 3.550763e-03 1.100159e-02 1.435142e-02 3.645429e-03 6.439659e-03 1.186774e-02 7.286051e-03 1.164756e-01 4.172675e-02 3.282412e-02 2.011457e-02 8.887027e-03 7.441809e-05 8.615456e-05 1.283096e-04 4.827523e-05 8.071180e-05 8.952931e-05 5.542036e-05 9.912532e-05 3.407235e-04 2.372689e-04 1.145645e-04 7.004246e-05 1.691977e-05 1.183975e-05 1.756274e-05 1.001226e-05 1.453413e-05 1.082140e-05 8.305417e-06 2.601508e-05 4.103755e-05 2.327648e-05 1.045273e-05 8.767272e-06 1.539458e-04 1.072728e-04 1.545157e-04 1.279689e-02 6.638814e-03 1.444048e-02
<GCONST> -2.589016e+02
<STATE> 4
<MEAN> 42
 1.308892e-02 -1.656172e-02 -2.741703e-02 1.254605e-03 2.188256e-02 -2.027222e-02 8.691004e-03 -1.929555e-02 3.272815e-02 -2.186248e-02 2.964069e-03 6.606101e-03 6.923386e-04 -1.360290e-03 -2.055788e-03 3.301997e-04 1.385318e-03 -1.701347e-03 3.452892e-04 6.244424e-04 -6.599502e-04 -9.177204e-04 -9.862590e-04 -5.134831e-04 9.982778e-05 6.867821e-06 -9.233033e-05 -5.348646e-05 9.707128e-05 -4.220558e-05 -9.867892e-05 -3.392573e-06 1.016562e-04 1.317388e-04 4.826994e-05 2.599840e-05 6.521322e-05 2.167767e-04 -1.522506e-03 3.073155e-03 -1.934906e-02 -3.207274e-03
<VARIANCE> 42
 5.360996e-03 1.927166e-02 3.227887e-02 4.199442e-03 1.452685e-02 2.456682e-02 9.339753e-03 1.310384e-01 7.816324e-02 5.899052e-02 3.206977e-02 1.149993e-02 9.669318e-05 1.114972e-04 2.022528e-04 5.373979e-05 1.224479e-04 1.332658e-04 6.443828e-05 1.508211e-04 4.748138e-04 3.913208e-04 2.498103e-04 1.641222e-04 2.106282e-05 1.178649e-05 2.098085e-05 1.126851e-05 1.824058e-05 1.140815e-05 7.866343e-06 2.601508e-05 2.963428e-05 2.538083e-05 1.985371e-05 1.589070e-05 2.106815e-04 1.669531e-04 2.387056e-04 1.921534e-02 1.249106e-02 2.031961e-02
<GCONST> -2.438967e+02
<STATE> 5
<MEAN> 42
 2.003801e-02 -2.400671e-02 -4.183459e-02 1.489272e-03 3.259865e-02 -3.116389e-02 8.183876e-03 -1.333362e-02 3.397390e-02 -1.943880e-02 2.285838e-03 6.815645e-03 9.928109e-04 -1.063408e-03 -2.059588e-03 3.340119e-05 1.530869e-03 -1.555846e-03 -7.254309e-05 8.512428e-04 1.781237e-04 3.466842e-04 -9.644662e-05 3.028812e-05 4.292675e-05 4.240905e-05 -5.474537e-07 -4.240589e-05 2.079673e-05 2.078346e-05 -5.970811e-05 3.238341e-05 1.197148e-04 1.806555e-04 1.271592e-04 7.771624e-05 7.842768e-04 1.777339e-03 -1.721768e-03 4.468166e-03 -2.787545e-02 -6.019648e-03
<VARIANCE> 42
 8.000973e-03 2.970768e-02 5.331340e-02 5.473942e-03 2.403949e-02 3.970837e-02 1.222234e-02 1.419140e-01 1.168854e-01 8.894291e-02 4.780588e-02 1.672919e-02 1.361159e-04 1.458296e-04 2.548693e-04 7.754027e-05 1.598414e-04 1.665943e-04 9.925832e-05 2.224278e-04 7.708959e-04 6.806559e-04 4.588589e-04 3.125916e-04 2.717506e-05 1.319229e-05 2.583243e-05 1.386247e-05 2.335334e-05 1.291558e-05 1.138905e-05 2.601508e-05 4.981165e-05 4.613136e-05 3.650995e-05 2.798257e-05 2.803151e-04 2.601705e-04 3.285557e-04 2.777317e-02 2.009722e-02 2.662923e-02
<GCONST> -2.285893e+02
<STATE> 6
<MEAN> 42
 2.696631e-02 -2.779595e-02 -5.256620e-02 -8.526280e-05 4.143707e-02 -3.840650e-02 5.437079e-03 -7.079777e-03 4.052404e-02 -9.421810e-03 7.190418e-03 9.836186e-03 9.896305e-04 -5.414385e-04 -1.533095e-03 -2.248136e-04 1.262544e-03 -1.034716e-03 -3.923357e-04 8.933216e-04 9.354021e-04 1.430416e-03 7.001485e-04 4.311125e-04 -4.605146e-07 7.458505e-05 7.523831e-05 -3.690102e-05 -3.834612e-05 7.446801e-05 -4.565564e-05 6.052382e-06 1.082048e-04 1.547878e-04 1.137663e-04 5.724046e-05 1.661801e-03 3.308093e-03 -1.746261e-03 1.046774e-02 -3.365329e-02 -9.209761e-03
<VARIANCE> 42
 1.046796e-02 3.908097e-02 7.016172e-02 7.177285e-03 3.155654e-02 5.225296e-02 1.473399e-02 1.462646e-01 1.477725e-01 1.147032e-01 6.348617e-02 2.365965e-02 1.780296e-04 1.803429e-04 2.708339e-04 1.117801e-04 1.801230e-04 1.812715e-04 1.452093e-04 3.100538e-04 1.167762e-03 1.048852e-03 7.050374e-04 4.838341e-04 3.231683e-05 1.533433e-05 2.940303e-05 1.663040e-05 2.720605e-05 1.442925e-05 1.616746e-05 2.601508e-05 8.234558e-05 7.573821e-05 5.673983e-05 4.191546e-05 3.463253e-04 3.591448e-04 4.013088e-04 3.661046e-02 2.708717e-02 3.158312e-02
<GCONST> -2.175083e+02
<STATE> 7
<MEAN> 42
 3.198690e-02 -2.763446e-02 -5.742555e-02 -2.675946e-03 4.638234e-02 -4.075265e-02 1.309115e-03 -2.210375e-03 4.895962e-02 3.219410e-03 1.416304e-02 1.324419e-02 7.172474e-04 2.297010e-05 -6.943052e-04 -3.700627e-04 7.065469e-04 -3.353114e-04 -5.894796e-04 6.960570e-04 1.205413e-03 1.806022e-03 9.961372e-04 4.868621e-04 -3.889080e-05 8.065309e-05 1.198299e-04 -2.077835e-05 -7.941735e-05 9.992870e-05 -2.814345e-05 -2.812845e-05 3.862100e-05 5.371168e-05 4.231289e-05 7.986964e-06 2.467398e-03 4.499571e-03 -1.591532e-03 1.787589e-02 -3.570041e-02 -1.176707e-02
<VARIANCE> 42
 1.206621e-02 4.468039e-02 7.784479e-02 8.843531e-03 3.487543e-02 5.851961e-02 1.624528e-02 1.435008e-01 1.648083e-01 1.296349e-01 7.460327e-02 3.018518e-02 2.115870e-04 2.131638e-04 2.617790e-04 1.472061e-04 1.841448e-04 1.848263e-04 1.894465e-04 4.014051e-04 1.596140e-03 1.414084e-03 9.268660e-04 6.299962e-04 3.555515e-05 1.815946e-05 3.100618e-05 1.925412e-05 2.894760e-05 1.582165e-05 2.071421e-05 3.001785e-05 1.193699e-04 1.064272e-04 7.518755e-05 5.375383e-05 3.915393e-04 4.371730e-04 4.466031e-04 4.338239e-02 3.132742e-02 3.412138e-02
<GCONST> -2.106259e+02
<STATE> 8
<MEAN> 42
 3.407818e-02 -2.431913e-02 -5.619014e-02 -5.373676e-03 4.681641e-02 -3.847743e-02 -3.104476e-03 7.265399e-04 5.553413e-02 1.334362e-02 1.955397e-02 1.509114e-02 2.986581e-04 4.738617e-04 1.767927e-04 -3.854469e-04 6.178865e-05 3.252935e-04 -6.308242e-04 4.192144e-04 9.387990e-04 1.446445e-03 7.704043e-04 2.640888e-04 -5.983588e-05 6.430492e-05 1.243726e-04 -2.130448e-06 -9.208951e-05 9.428199e-05 -5.893371e-06 -3.962373e-05 -3.821175e-05 -5.157473e-05 -3.237039e-05 -3.191363e-05 2.972202e-03 5.144864e-03 -1.209206e-03 2.349831e-02 -3.415167e-02 -1.304183e-02
<VARIANCE> 42
 1.256353e-02 4.543128e-02 7.566166e-02 9.992242e-03 3.380194e-02 5.767842e-02 1.663069e-02 1.344757e-01 1.666039e-01 1.310317e-01 7.836778e-02 3.425696e-02 2.293912e-04 2.405302e-04 2.441641e-04 1.741380e-04 1.773740e-04 1.853536e-04 2.196890e-04 4.795252e-04 1.943621e-03 1.681144e-03 1.069884e-03 7.135847e-04 3.661161e-05 2.099877e-05 3.073722e-05 2.124530e-05 2.863305e-05 1.685455e-05 2.371007e-05 3.554315e-05 1.506957e-04 1.299207e-04 8.720338e-05 6.046985e-05 4.053418e-04 4.780715e-04 4.628081e-04 4.630735e-02 3.193529e-02 3.402027e-02
<GCONST> -2.075755e+02
<STATE> 9
<MEAN> 42
 3.333555e-02 -1.898573e-02 -5.009649e-02 -7.659239e-03 4.340231e-02 -3.275980e-02 -6.872650e-03 2.396886e-03 5.851687e-02 1.860796e-02 2.165730e-02 1.494506e-02 -1.061447e-04 7.618638e-04 8.705396e-04 -3.264487e-04 -4.877765e-04 8.167712e-04 -5.381916e-04 2.387042e-04 4.262302e-04 7.519389e-04 3.003800e-04 -2.093849e-05 -5.784172e-05 4.115550e-05 9.913301e-05 8.424991e-06 -7.852598e-05 7.022822e-05 1.325262e-05 -2.575507e-05 -7.326792e-05 -9.925700e-05 -6.716036e-05 -4.071389e-05 3.074124e-03 5.180733e-03 -5.752664e-04 2.590792e-02 -2.985168e-02 -1.313458e-02
<VARIANCE> 42
 1.207064e-02 4.191599e-02 6.615106e-02 1.033996e-02 2.954626e-02 5.126831e-02 1.608808e-02 1.207333e-01 1.551739e-01 1.205139e-01 7.480815e-02 3.492150e-02 2.288424e-04 2.557080e-04 2.261070e-04 1.858987e-04 1.642441e-04 1.841375e-04 2.282981e-04 5.337470e-04 2.105363e-03 1.783952e-03 1.110542e-03 7.239020e-04 3.576544e-05 2.299017e-05 2.917909e-05 2.217603e-05 2.691461e-05 1.729666e-05 2.450473e-05 4.024995e-05 1.675148e-04 1.410083e-04 9.105143e-05 6.131250e-05 3.873250e-04 4.778016e-04 4.533731e-04 4.495637e-02 2.934730e-02 3.164056e-02
<GCONST> -2.079004e+02
<STATE> 10
<MEAN> 42
 3.067692e-02 -1.255466e-02 -4.098723e-02 -9.533814e-03 3.751848e-02 -2.498125e-02 -9.541029e-03 3.800092e-03 5.852508e-02 1.990231e-02 2.107836e-02 1.374327e-02 -3.797460e-04 9.188519e-04 1.301391e-03 -2.678806e-04 -8.405420e-04 1.111320e-03 -3.812104e-04 2.007021e-04 1.246561e-06 1.850440e-04 -8.276808e-05 -1.714789e-04 -3.910312e-05 2.245792e-05 6.159852e-05 8.357804e-06 -5.042588e-05 4.211532e-05 2.240267e-05 -5.491703e-06 -6.075244e-05 -8.102296e-05 -5.482337e-05 -2.153051e-05 2.845138e-03 4.677080e-03 2.581638e-04 2.571253e-02 -2.383337e-02 -1.260624e-02
<VARIANCE> 42
 1.088496e-02 3.571585e-02 5.304711e-02 9.900930e-03 2.376715e-02 4.187739e-02 1.496154e-02 1.043222e-01 1.346284e-01 1.026564e-01 6.627795e-02 3.260981e-02 2.133811e-04 2.551558e-04 2.088550e-04 1.821448e-04 1.479944e-04 1.791599e-04 2.164427e-04 5.672572e-04 2.045495e-03 1.723126e-03 1.065561e-03 6.782208e-04 3.370938e-05 2.378549e-05 2.721076e-05 2.200644e-05 2.467848e-05 1.722979e-05 2.333430e-05 4.474218e-05 1.664355e-04 1.400367e-04 8.854522e-05 5.788171e-05 3.460030e-04 4.421478e-04 4.246353e-04 4.030509e-02 2.478549e-02 2.770058e-02
<GCONST> -2.109269e+02
<STATE> 11
<MEAN> 42
 2.727510e-02 -5.627249e-03 -3.064034e-02 -1.128562e-02 3.064108e-02 -1.633455e-02 -1.118612e-02 5.372733e-03 5.728135e-02 1.977577e-02 1.966403e-02 1.288457e-02 -4.860441e-04 9.896354e-04 1.478176e-03 -2.502121e-04 -9.825440e-04 1.235278e-03 -2.349804e-04 2.246150e-04 -1.776818e-04 -1.817982e-05 -2.019183e-04 -1.228169e-04 -1.518211e-05 1.010027e-05 2.524021e-05 2.527473e-06 -2.027745e-05 1.769258e-05 2.090438e-05 3.463572e-06 -2.552062e-05 -2.896095e-05 -1.695065e-05 7.011205e-06 2.468514e-03 3.801373e-03 1.172929e-03 2.459349e-02 -1.700475e-02 -1.194193e-02
<VARIANCE> 42
 9.377959e-03 2.860928e-02 3.966542e-02 8.928697e-03 1.789867e-02 3.196590e-02 1.362758e-02 8.760399e-02 1.099538e-01 8.292982e-02 5.610774e-02 2.869347e-02 1.906081e-04 2.426859e-04 1.928791e-04 1.684826e-04 1.317269e-04 1.706760e-04 1.928035e-04 5.945265e-04 1.810552e-03 1.563325e-03 9.819685e-04 6.104697e-04 3.131646e-05 2.381182e-05 2.577249e-05 2.115608e-05 2.273720e-05 1.711974e-05 2.108901e-05 5.048189e-05 1.509600e-04 1.328862e-04 8.413497e-05 5.318497e-05 2.945437e-04 3.832024e-04 3.843993e-04 3.416779e-02 1.960805e-02 2.308318e-02
<GCONST> -2.156906e+02
<STATE> 12
<MEAN> 42
 2.407590e-02 1.354171e-03 -2.044654e-02 -1.316830e-02 2.394032e-02 -7.739518e-03 -1.219323e-02 6.785731e-03 5.625999e-02 2.057842e-02 1.917308e-02 1.337635e-02 -4.571007e-04 9.972986e-04 1.456270e-03 -2.688871e-04 -9.572993e-04 1.227832e-03 -1.437366e-04 2.019111e-04 -1.458851e-04 1.146795e-04 -7.003882e-05 7.026296e-05 4.124827e-06 1.102366e-06 -3.112157e-06 -2.666582e-06 3.593730e-06 -1.052779e-06 1.302068e-05 -3.254112e-06 4.543064e-06 1.898105e-05 1.886967e-05 2.759571e-05 2.127540e-03 2.765000e-03 2.036156e-03 2.413208e-02 -1.007621e-02 -1.128079e-02
<VARIANCE> 42
 7.902076e-03 2.201828e-02 2.816873e-02 7.773273e-03 1.287003e-02 2.324265e-02 1.241784e-02 7.284401e-02 8.576173e-02 6.589451e-02 4.725942e-02 2.474946e-02 1.689249e-04 2.278565e-04 1.806802e-04 1.532713e-04 1.185211e-04 1.626303e-04 1.687703e-04 6.327276e-04 1.497059e-03 1.398248e-03 9.146980e-04 5.555057e-04 2.937463e-05 2.402818e-05 2.564877e-05 2.030377e-05 2.164466e-05 1.764708e-05 1.888009e-05 5.893144e-05 1.291758e-04 1.281698e-04 8.278545e-05 5.022531e-05 2.459113e-04 3.154758e-04 3.404172e-04 2.840649e-02 1.487287e-02 1.863047e-02
<GCONST> -2.208770e+02
<STATE> 13
<MEAN> 42
 2.157687e-02 7.981260e-03 -1.131202e-02 -1.522761e-02 1.812013e-02 1.438819e-04 -1.298185e-02 7.308248e-03 5.603041e-02 2.345610e-02 2.048776e-02 1.548191e-02 -3.569596e-04 9.468112e-04 1.304965e-03 -2.942385e-04 -8.314431e-04 1.126264e-03 -1.126655e-04 7.469554e-05 -3.269290e-05 4.112968e-04 1.879848e-04 3.009503e-04 1.430808e-05 -7.206091e-06 -2.161264e-05 -3.624370e-06 1.797923e-05 -1.450596e-05 4.429607e-06 -1.817489e-05 1.616880e-05 4.238424e-05 3.687193e-05 3.297270e-05 1.926326e-03 1.764802e-03 2.753085e-03 2.513240e-02 -3.569601e-03 -1.046633e-02
<VARIANCE> 42
 6.710271e-03 1.679030e-02 1.951881e-02 6.743184e-03 9.093535e-03 1.655398e-02 1.156695e-02 6.168431e-02 6.529491e-02 5.415886e-02 4.154535e-02 2.193888e-02 1.549228e-04 2.214792e-04 1.766137e-04 1.441158e-04 1.111550e-04 1.609661e-04 1.538027e-04 6.932872e-04 1.204879e-03 1.312487e-03 9.080572e-04 5.385577e-04 2.846327e-05 2.552203e-05 2.742302e-05 2.013572e-05 2.171263e-05 1.950859e-05 1.765312e-05 7.075653e-05 1.099354e-04 1.339952e-04 8.852792e-05 5.120258e-05 2.090683e-04 2.522033e-04 2.994569e-04 2.429977e-02 1.118576e-02 1.496844e-02
<GCONST> -2.249549e+02
<STATE> 14
<MEAN> 42
 1.986746e-02 1.388113e-02 -3.697913e-03 -1.732173e-02 1.345728e-02 6.898063e-03 -1.382112e-02 6.353694e-03 5.638004e-02 2.835265e-02 2.355835e-02 1.884187e-02 -2.440954e-04 8.429636e-04 1.087744e-03 -2.992620e-04 -6.660848e-04 9.649537e-04 -1.200328e-04 -1.365513e-04 4.981966e-05 6.995336e-04 4.387850e-04 4.801377e-04 1.606992e-05 -1.485057e-05 -3.099480e-05 -6.810695e-07 2.357644e-05 -2.303546e-05 -1.045199e-06 -3.021229e-05 1.174664e-05 4.113618e-05 3.580673e-05 2.556538e-05 1.877454e-03 9.396750e-04 3.290231e-03 2.758112e-02 2.164337e-03 -9.276711e-03
<VARIANCE> 42
 5.922944e-03 1.323753e-02 1.379645e-02 6.030082e-03 6.598630e-03 1.206979e-02 1.118877e-02 5.479629e-02 5.009512e-02 4.831252e-02 3.946006e-02 2.076057e-02 1.520800e-04 2.316870e-04 1.852196e-04 1.456730e-04 1.116004e-04 1.711503e-04 1.533138e-04 7.770389e-04 1.002822e-03 1.355082e-03 9.827149e-04 5.694087e-04 2.889748e-05 2.914253e-05 3.150152e-05 2.113018e-05 2.308759e-05 2.325666e-05 1.798707e-05 8.538996e-05 9.968117e-05 1.553751e-04 1.031866e-04 5.695567e-05 1.875535e-04 2.025853e-04 2.663869e-04 2.231974e-02 8.750379e-03 1.242060e-02
<GCONST> -2.266797e+02
<STATE> 15
<MEAN> 42
 1.878710e-02 1.879056e-02 2.295082e-03 -1.923768e-02 9.921843e-03 1.234165e-02 -1.477714e-02 3.851709e-03 5.677900e-02 3.452824e-02 2.775128e-02 2.280692e-02 -1.544414e-04 7.012914e-04 8.561802e-04 -2.736192e-04 -5.051373e-04 7.776354e-04 -1.364895e-04 -3.574748e-04 5.683058e-05 8.819947e-04 5.987405e-04 5.662224e-04 1.283961e-05 -2.026114e-05 -3.313787e-05 3.660936e-06 2.303634e-05 -2.679989e-05 -2.327711e-06 -3.151955e-05 1.031697e-06 2.608050e-05 2.284763e-05 1.228451e-05 1.936466e-03 3.508124e-04 3.667844e-03 3.095960e-02 6.941392e-03 -7.633585e-03
<VARIANCE> 42
 5.545102e-03 1.129458e-02 1.059290e-02 5.700267e-03 5.198813e-03 9.554105e-03 1.128360e-02 5.184256e-02 4.025824e-02 4.749012e-02 4.050152e-02 2.112553e-02 1.607582e-04 2.619749e-04 2.094460e-04 1.591198e-04 1.206290e-04 1.963083e-04 1.685321e-04 8.750983e-04 9.175133e-04 1.532730e-03 1.134459e-03 6.432016e-04 3.072772e-05 3.529428e-05 3.807409e-05 2.346512e-05 2.578376e-05 2.917611e-05 2.004720e-05 1.011940e-04 1.011439e-04 1.932586e-04 1.262344e-04 6.702938e-05 1.802977e-04 1.706101e-04 2.440571e-04 2.226118e-02 7.499231e-03 1.102007e-02
<GCONST> -2.256340e+02
<STATE> 16
<MEAN> 42
 1.810815e-02 2.261894e-02 6.805685e-03 -2.081492e-02 7.329953e-03 1.650007e-02 -1.575765e-02 3.242632e-04 5.680573e-02 4.112405e-02 3.227584e-02 2.675895e-02 -9.699007e-05 5.468719e-04 6.443214e-04 -2.252943e-04 -3.702510e-04 5.940119e-04 -1.399303e-04 -5.038808e-04 3.767657e-06 9.422058e-04 6.462862e-04 5.645148e-04 8.207947e-06 -2.205452e-05 -3.026422e-05 6.903423e-06 1.926757e-05 -2.622915e-05 -5.004634e-07 -2.093124e-05 -7.598828e-06 8.592363e-06 6.787732e-06 -2.405694e-07 2.046973e-03 -1.012821e-05 3.935016e-03 3.462005e-02 1.072969e-02 -5.686405e-03
<VARIANCE> 42
 5.516882e-03 1.068993e-02 9.326758e-03 5.728199e-03 4.635603e-03 8.596090e-03 1.176454e-02 5.174488e-02 3.499105e-02 5.014985e-02 4.370306e-02 2.261416e-02 1.789742e-04 3.111664e-04 2.495465e-04 1.828009e-04 1.376551e-04 2.364626e-04 1.974866e-04 9.735234e-04 9.404282e-04 1.817613e-03 1.341073e-03 7.455653e-04 3.377733e-05 4.387234e-05 4.703609e-05 2.702461e-05 2.968026e-05 3.720378e-05 2.363451e-05 1.160507e-04 1.136900e-04 2.448623e-04 1.553546e-04 8.007995e-05 1.836006e-04 1.557920e-04 2.336902e-04 2.355771e-02 7.224526e-03 1.058598e-02
<GCONST> -2.222995e+02
<STATE> 17
<MEAN> 42
 1.764680e-02 2.544996e-02 1.010241e-02 -2.200215e-02 5.454242e-03 1.955111e-02 -1.660138e-02 -3.325988e-03 5.630962e-02 4.748450e-02 3.647738e-02 3.029413e-02 -6.588452e-05 4.045059e-04 4.710042e-04 -1.696440e-04 -2.679777e-04 4.359265e-04 -1.205385e-04 -5.214331e-04 -7.071692e-05 9.088329e-04 6.003704e-04 5.051623e-04 4.457295e-06 -2.031392e-05 -2.475301e-05 7.933512e-06 1.461320e-05 -2.256768e-05 2.744098e-06 -2.528300e-06 -1.063895e-05 -4.748507e-06 -6.533488e-06 -8.459871e-06 2.169641e-03 -1.972590e-04 4.145459e-03 3.803377e-02 1.362135e-02 -3.748831e-03
<VARIANCE> 42
 5.755321e-03 1.108019e-02 9.431720e-03 6.038779e-03 4.662710e-03 8.761603e-03 1.250275e-02 5.312461e-02 3.313226e-02 5.466256e-02 4.809340e-02 2.473960e-02 2.035268e-04 3.741587e-04 3.026969e-04 2.132681e-04 1.609246e-04 2.884408e-04 2.359344e-04 1.058658e-03 1.042555e-03 2.162131e-03 1.572824e-03 8.589684e-04 3.769456e-05 5.427214e-05 5.789093e-05 3.145511e-05 3.449772e-05 4.687242e-05 2.827084e-05 1.280620e-04 1.344219e-04 3.046670e-04 1.873365e-04 9.439908e-05 1.930064e-04 1.548879e-04 2.353820e-04 2.557272e-02 7.674852e-03 1.083450e-02
<GCONST> -2.176780e+02
<STATE> 18
<MEAN> 42
 1.729959e-02 2.748357e-02 1.248863e-02 -2.284696e-02 4.089946e-03 2.174809e-02 -1.715362e-02 -6.141511e-03 5.537504e-02 5.323683e-02 3.995105e-02 3.325202e-02 -4.947089e-05 2.905037e-04 3.407363e-04 -1.207335e-04 -1.947570e-04 3.137586e-04 -7.903702e-05 -4.022320e-04 -1.335343e-04 8.219307e-04 4.963541e-04 4.226796e-04 2.338035e-06 -1.629819e-05 -1.861937e-05 6.999107e-06 1.046053e-05 -1.746236e-05 5.944498e-06 1.704149e-05 -9.013296e-06 -1.244808e-05 -1.489412e-05 -1.181513e-05 2.289049e-03 -2.825126e-04 4.340821e-03 4.088129e-02 1.578295e-02 -2.171718e-03
<VARIANCE> 42
 6.180938e-03 1.212457e-02 1.043216e-02 6.539446e-03 5.080593e-03 9.661963e-03 1.335776e-02 5.471103e-02 3.351869e-02 5.965913e-02 5.295229e-02 2.710718e-02 2.308485e-04 4.430817e-04 3.632725e-04 2.462113e-04 1.877896e-04 3.463791e-04 2.783564e-04 1.120923e-03 1.187518e-03 2.512957e-03 1.801647e-03 9.679265e-04 4.200736e-05 6.546564e-05 6.971488e-05 3.623892e-05 3.978991e-05 5.731971e-05 3.329731e-05 1.360346e-04 1.593168e-04 3.656617e-04 2.189477e-04 1.083762e-04 2.045237e-04 1.637048e-04 2.483654e-04 2.778164e-02 8.603825e-03 1.146635e-02
<GCONST> -2.127949e+02
<STATE> 19
<MEAN> 42
 1.625179e-02 1.677811e-02 2.768839e-03 -1.697792e-02 8.345179e-03 1.156547e-02 -5.934754e-03 1.313035e-02 3.006083e-02 4.052811e-02 3.970528e-02 3.006877e-02 -2.776821e-06 -2.868896e-06 -1.366350e-07 2.813929e-06 -1.367510e-06 -1.500841e-06 3.418080e-06 -4.517305e-07 -9.899785e-06 -5.452905e-06 -2.979619e-06 -4.812143e-06 -3.761468e-07 4.383830e-07 8.230681e-07 -4.495040e-08 -5.985894e-07 6.439925e-07 7.315900e-07 1.646024e-06 1.627486e-06 9.943526e-07 6.396898e-07 2.092037e-07 2.745633e-03 5.364444e-04 1.729353e-03 3.076897e-02 9.598443e-03 -5.159511e-03
<VARIANCE> 42
 9.048442e-03 1.619942e-02 1.460829e-02 8.959356e-03 7.790745e-03 1.282084e-02 1.625670e-02 5.846222e-02 4.558485e-02 5.322735e-02 4.270277e-02 3.200384e-02 2.522620e-04 3.254249e-04 2.855732e-04 2.175835e-04 1.884078e-04 2.426639e-04 2.485393e-04 6.386298e-04 8.832154e-04 1.282558e-03 1.016237e-03 6.893380e-04 3.848812e-05 4.227851e-05 4.717317e-05 2.862384e-05 3.245450e-05 3.515607e-05 2.374093e-05 5.533552e-05 9.478976e-05 1.528942e-04 1.018761e-04 6.341208e-05 2.136266e-04 2.203451e-04 2.166610e-04 2.694272e-02 1.177252e-02 2.089527e-02
<GCONST> -2.185351e+02
<TRANSP> 20
 0.000000e+00 1.000000e+00 0.000000e+00 0.000000e+00 0.000000e+00 0.000000e+00 0.000000e+00 0.000000e+00 0.000000e+00 0.000000e+00 0.000000e+00 0.000000e+00 0.000000e+00 0.000000e+00 0.000000e+00 0.000000e+00 0.000000e+00 0.000000e+00 0.000000e+00 0.000000e+00
 0.000000e+00 8.571431e-01 1.428569e-01 0.000000e+00 0.000000e+00 0.000000e+00 0.000000e+00 0.000000e+00 0.000000e+00 0.000000e+00 0.000000e+00 0.000000e+00 0.000000e+00 0.000000e+00 0.000000e+00 0.000000e+00 0.000000e+00 0.000000e+00 0.000000e+00 0.000000e+00
 0.000000e+00 0.000000e+00 8.571431e-01 1.428569e-01 0.000000e+00 0.000000e+00 0.000000e+00 0.000000e+00 0.000000e+00 0.000000e+00 0.000000e+00 0.000000e+00 0.000000e+00 0.000000e+00 0.000000e+00 0.000000e+00 0.000000e+00 0.000000e+00 0.000000e+00 0.000000e+00
 0.000000e+00 0.000000e+00 0.000000e+00 8.571432e-01 1.428568e-01 0.000000e+00 0.000000e+00 0.000000e+00 0.000000e+00 0.000000e+00 0.000000e+00 0.000000e+00 0.000000e+00 0.000000e+00 0.000000e+00 0.000000e+00 0.000000e+00 0.000000e+00 0.000000e+00 0.000000e+00
 0.000000e+00 0.000000e+00 0.000000e+00 0.000000e+00 8.571432e-01 1.428567e-01 0.000000e+00 0.000000e+00 0.000000e+00 0.000000e+00 0.000000e+00 0.000000e+00 0.000000e+00 0.000000e+00 0.000000e+00 0.000000e+00 0.000000e+00 0.000000e+00 0.000000e+00 0.000000e+00
 0.000000e+00 0.000000e+00 0.000000e+00 0.000000e+00 0.000000e+00 8.571426e-01 1.428574e-01 0.000000e+00 0.000000e+00 0.000000e+00 0.000000e+00 0.000000e+00 0.000000e+00 0.000000e+00 0.000000e+00 0.000000e+00 0.000000e+00 0.000000e+00 0.000000e+00 0.000000e+00
 0.000000e+00 0.000000e+00 0.000000e+00 0.000000e+00 0.000000e+00 0.000000e+00 8.571426e-01 1.428574e-01 0.000000e+00 0.000000e+00 0.000000e+00 0.000000e+00 0.000000e+00 0.000000e+00 0.000000e+00 0.000000e+00 0.000000e+00 0.000000e+00 0.000000e+00 0.000000e+00
 0.000000e+00 0.000000e+00 0.000000e+00 0.000000e+00 0.000000e+00 0.000000e+00 0.000000e+00 8.571431e-01 1.428569e-01 0.000000e+00 0.000000e+00 0.000000e+00 0.000000e+00 0.000000e+00 0.000000e+00 0.000000e+00 0.000000e+00 0.000000e+00 0.000000e+00 0.000000e+00
 0.000000e+00 0.000000e+00 0.000000e+00 0.000000e+00 0.000000e+00 0.000000e+00 0.000000e+00 0.000000e+00 8.571427e-01 1.428573e-01 0.000000e+00 0.000000e+00 0.000000e+00 0.000000e+00 0.000000e+00 0.000000e+00 0.000000e+00 0.000000e+00 0.000000e+00 0.000000e+00
 0.000000e+00 0.000000e+00 0.000000e+00 0.000000e+00 0.000000e+00 0.000000e+00 0.000000e+00 0.000000e+00 0.000000e+00 8.571432e-01 1.428568e-01 0.000000e+00 0.000000e+00 0.000000e+00 0.000000e+00 0.000000e+00 0.000000e+00 0.000000e+00 0.000000e+00 0.000000e+00
 0.000000e+00 0.000000e+00 0.000000e+00 0.000000e+00 0.000000e+00 0.000000e+00 0.000000e+00 0.000000e+00 0.000000e+00 0.000000e+00 8.571428e-01 1.428572e-01 0.000000e+00 0.000000e+00 0.000000e+00 0.000000e+00 0.000000e+00 0.000000e+00 0.000000e+00 0.000000e+00
 0.000000e+00 0.000000e+00 0.000000e+00 0.000000e+00 0.000000e+00 0.000000e+00 0.000000e+00 0.000000e+00 0.000000e+00 0.000000e+00 0.000000e+00 8.571433e-01 1.428567e-01 0.000000e+00 0.000000e+00 0.000000e+00 0.000000e+00 0.000000e+00 0.000000e+00 0.000000e+00
 0.000000e+00 0.000000e+00 0.000000e+00 0.000000e+00 0.000000e+00 0.000000e+00 0.000000e+00 0.000000e+00 0.000000e+00 0.000000e+00 0.000000e+00 0.000000e+00 8.571422e-01 1.428578e-01 0.000000e+00 0.000000e+00 0.000000e+00 0.000000e+00 0.000000e+00 0.000000e+00
 0.000000e+00 0.000000e+00 0.000000e+00 0.000000e+00 0.000000e+00 0.000000e+00 0.000000e+00 0.000000e+00 0.000000e+00 0.000000e+00 0.000000e+00 0.000000e+00 0.000000e+00 8.571427e-01 1.428573e-01 0.000000e+00 0.000000e+00 0.000000e+00 0.000000e+00 0.000000e+00
 0.000000e+00 0.000000e+00 0.000000e+00 0.000000e+00 0.000000e+00 0.000000e+00 0.000000e+00 0.000000e+00 0.000000e+00 0.000000e+00 0.000000e+00 0.000000e+00 0.000000e+00 0.000000e+00 8.571426e-01 1.428574e-01 0.000000e+00 0.000000e+00 0.000000e+00 0.000000e+00
 0.000000e+00 0.000000e+00 0.000000e+00 0.000000e+00 0.000000e+00 0.000000e+00 0.000000e+00 0.000000e+00 0.000000e+00 0.000000e+00 0.000000e+00 0.000000e+00 0.000000e+00 0.000000e+00 0.000000e+00 8.571431e-01 1.428569e-01 0.000000e+00 0.000000e+00 0.000000e+00
 0.000000e+00 0.000000e+00 0.000000e+00 0.000000e+00 0.000000e+00 0.000000e+00 0.000000e+00 0.000000e+00 0.000000e+00 0.000000e+00 0.000000e+00 0.000000e+00 0.000000e+00 0.000000e+00 0.000000e+00 0.000000e+00 8.571424e-01 1.428575e-01 0.000000e+00 0.000000e+00
 0.000000e+00 0.000000e+00 0.000000e+00 0.000000e+00 0.000000e+00 0.000000e+00 0.000000e+00 0.000000e+00 0.000000e+00 0.000000e+00 0.000000e+00 0.000000e+00 0.000000e+00 0.000000e+00 0.000000e+00 0.000000e+00 0.000000e+00 8.571422e-01 1.428578e-01 0.000000e+00
 0.000000e+00 0.000000e+00 0.000000e+00 0.000000e+00 0.000000e+00 0.000000e+00 0.000000e+00 0.000000e+00 0.000000e+00 0.000000e+00 0.000000e+00 0.000000e+00 0.000000e+00 0.000000e+00 0.000000e+00 0.000000e+00 0.000000e+00 0.000000e+00 9.997717e-01 2.282581e-04
 0.000000e+00 0.000000e+00 0.000000e+00 0.000000e+00 0.000000e+00 0.000000e+00 0.000000e+00 0.000000e+00 0.000000e+00 0.000000e+00 0.000000e+00 0.000000e+00 0.000000e+00 0.000000e+00 0.000000e+00 0.000000e+00 0.000000e+00 0.000000e+00 0.000000e+00 0.000000e+00
<ENDHMM>
