~o
<STREAMINFO> 1 42
<VECSIZE> 42<NULLD><USER><DIAGC>
~h "PACIENTE"
<BEGINHMM>
<NUMSTATES> 40
<STATE> 2
<NUMMIXES> 8
<MIXTURE> 1 9.033465e-02
<MEAN> 42
 9.960266e-02 9.947456e-02 1.176209e-02 -7.115304e-02 5.331846e-02 5.447773e-02 2.582548e-02 2.025974e-01 2.260616e-01 1.738140e-01 1.625437e-01 1.264924e-01 1.993183e-03 2.387390e-03 1.288159e-03 -3.026361e-04 1.148179e-03 1.718977e-03 -1.635424e-04 9.772669e-04 2.354938e-03 2.462263e-03 2.268023e-03 1.945641e-03 3.812440e-04 4.800729e-04 6.432388e-04 4.124427e-04 2.803450e-04 4.912791e-04 3.400826e-04 9.430759e-04 2.988883e-04 7.922960e-04 3.499556e-04 3.235433e-04 6.393236e-03 4.050595e-03 1.091752e-03 1.320385e-01 5.351736e-02 -4.846944e-02
<VARIANCE> 42
 3.912923e-03 5.719992e-03 3.728210e-03 3.822213e-03 2.344433e-03 4.125029e-03 8.454408e-03 5.661456e-02 4.040126e-02 2.695851e-02 2.145171e-02 1.353837e-02 2.395148e-05 2.608515e-05 2.160250e-05 1.959239e-05 1.644623e-05 1.820733e-05 1.820629e-05 8.465143e-05 7.439202e-05 5.248957e-05 3.402849e-05 2.233319e-05 6.076503e-06 4.254576e-06 5.406568e-06 3.829732e-06 4.763898e-06 3.422979e-06 2.573240e-06 2.601508e-05 2.594043e-06 1.211414e-05 1.941766e-06 1.608060e-06 1.724611e-04 2.105862e-04 2.548842e-04 1.554130e-02 4.473236e-03 1.808159e-02
<GCONST> -2.911020e+02
<MIXTURE> 2 2.656343e-01
<MEAN> 42
 5.766992e-03 5.360278e-03 3.494345e-03 4.472826e-03 3.793436e-03 6.668203e-03 1.216034e-02 1.855701e-02 1.735527e-02 7.385682e-03 8.776307e-03 6.159474e-03 8.048886e-04 9.428676e-04 1.063371e-03 4.918701e-04 6.060549e-04 9.034963e-04 6.799929e-04 1.849525e-03 8.885544e-04 1.454377e-03 7.819775e-04 6.501894e-04 5.281102e-04 5.937768e-04 6.511243e-04 2.759464e-04 3.878157e-04 5.585683e-04 2.952091e-04 1.134231e-03 4.317832e-04 8.542876e-04 3.950161e-04 3.771978e-04 4.407306e-04 5.379376e-04 1.810868e-03 4.444609e-03 3.455851e-03 -3.145420e-03
<VARIANCE> 42
 3.600707e-04 3.781558e-04 3.349610e-04 2.736486e-04 2.394311e-04 2.958594e-04 5.180566e-04 1.427533e-03 1.595676e-03 6.537745e-04 6.344422e-04 4.331798e-04 1.605082e-05 1.162658e-05 1.638859e-05 9.721637e-06 1.349288e-05 1.025906e-05 5.674326e-06 7.374013e-05 9.872299e-06 4.065752e-05 1.131955e-05 8.494042e-06 6.293846e-06 4.089802e-06 5.992460e-06 3.683730e-06 5.224040e-06 3.618014e-06 1.356006e-06 2.601508e-05 1.744827e-06 1.211414e-05 1.479612e-06 1.428330e-06 2.364372e-06 1.183207e-05 3.329295e-05 2.765478e-04 2.508510e-04 3.685362e-04
<GCONST> -3.563842e+02
<MIXTURE> 3 5.534405e-02
<MEAN> 42
 -1.796517e-02 -4.193412e-02 -2.251021e-02 4.467742e-02 7.746751e-03 -3.093258e-02 1.180597e-02 6.693073e-03 -2.964616e-02 -5.583692e-02 -3.683658e-02 -4.421690e-02 7.520498e-04 -6.095251e-04 -6.244705e-04 1.340547e-03 1.400172e-03 -7.369037e-04 -3.121860e-05 9.482864e-04 -2.024149e-04 1.512440e-04 -2.180189e-04 -2.296006e-04 7.862978e-04 2.609895e-04 -6.324827e-05 3.605460e-04 8.464769e-04 2.971783e-05 7.334982e-05 8.410176e-04 2.707742e-05 2.949098e-04 3.647164e-05 8.124509e-06 7.613758e-03 3.398745e-03 7.527094e-03 -3.775234e-02 -3.100360e-02 6.477681e-03
<VARIANCE> 42
 8.340608e-04 1.506860e-03 1.589091e-03 9.379830e-04 7.035055e-04 1.069678e-03 2.653299e-03 1.669948e-03 5.852680e-03 1.044988e-02 5.515394e-03 3.623063e-03 1.384268e-05 1.523403e-05 1.504224e-05 1.064911e-05 1.122721e-05 1.188685e-05 5.871370e-06 7.374013e-05 2.124648e-05 4.065752e-05 1.512177e-05 9.560196e-06 5.601117e-06 5.557713e-06 5.127188e-06 4.234473e-06 4.169035e-06 3.965712e-06 2.164943e-06 2.601508e-05 5.948041e-06 1.211414e-05 4.749961e-06 3.434037e-06 1.591069e-04 3.760299e-05 1.302405e-04 3.585274e-03 8.857584e-04 6.276655e-04
<GCONST> -3.226993e+02
<MIXTURE> 4 8.868525e-02
<MEAN> 42
 3.391245e-02 6.544115e-02 3.546288e-02 -3.013060e-02 7.071934e-03 4.927538e-02 3.607163e-02 8.506383e-02 9.243837e-02 3.812554e-02 3.952314e-02 3.112890e-02 1.471788e-04 8.399249e-06 1.200666e-03 2.616255e-03 6.938872e-04 4.331277e-04 1.602437e-03 6.906604e-04 -7.181696e-04 -3.287880e-04 -6.369710e-04 -5.594247e-04 5.352372e-04 5.101186e-05 4.568705e-04 1.044018e-03 7.956378e-04 1.411036e-04 4.551563e-04 8.541980e-04 1.962355e-04 2.254487e-04 6.042011e-05 6.174861e-05 1.285098e-03 -1.654373e-03 3.007185e-03 3.366986e-02 4.455573e-02 -1.659994e-02
<VARIANCE> 42
 1.296200e-03 2.575807e-03 1.614737e-03 1.527692e-03 8.087306e-04 1.922515e-03 2.121920e-02 1.425644e-02 6.644222e-03 3.949441e-03 7.006768e-03 2.774837e-03 4.851371e-05 5.591227e-05 5.186062e-05 3.929485e-05 3.697336e-05 4.226734e-05 5.099364e-05 7.374013e-05 5.112581e-05 4.065752e-05 2.885548e-05 2.494879e-05 1.550152e-05 1.128634e-05 1.694693e-05 9.174290e-06 1.367119e-05 1.022957e-05 5.574797e-06 2.601508e-05 7.282365e-06 1.211414e-05 5.712391e-06 4.556791e-06 4.593594e-05 5.466348e-05 2.154008e-04 3.104986e-03 2.049234e-03 5.322350e-03
<GCONST> -2.950262e+02
<MIXTURE> 5 2.656343e-01
<MEAN> 42
 -1.823219e-03 -2.418214e-03 -3.826431e-03 -2.144105e-03 -2.395989e-03 -2.120228e-04 3.056000e-03 3.443928e-03 1.376905e-03 -2.841924e-03 -1.298947e-03 -2.165716e-03 -7.976505e-04 -4.210432e-04 -5.559418e-04 -7.553115e-04 -8.632513e-04 -3.776945e-04 -2.728409e-04 -1.585358e-03 -3.682542e-04 -1.096153e-03 -5.638041e-04 -5.155922e-04 -4.753914e-04 -2.151536e-04 -3.280558e-04 -4.917755e-04 -5.264307e-04 -2.022748e-04 -1.705816e-04 -9.059686e-04 -9.658439e-05 -5.379273e-04 -9.154111e-05 -1.008532e-04 -1.743300e-04 -8.379734e-04 -4.971341e-04 -2.207281e-03 -2.879460e-03 -1.082434e-02
<VARIANCE> 42
 3.600707e-04 3.781558e-04 3.349610e-04 2.736486e-04 2.394311e-04 2.958594e-04 5.180566e-04 1.427533e-03 1.595676e-03 6.537745e-04 6.344422e-04 4.331798e-04 1.605082e-05 1.162658e-05 1.638859e-05 9.721637e-06 1.349288e-05 1.025906e-05 5.674326e-06 7.374013e-05 9.872299e-06 4.065752e-05 1.131955e-05 8.494042e-06 6.293846e-06 4.089802e-06 5.992460e-06 3.683730e-06 5.224040e-06 3.618014e-06 1.356006e-06 2.601508e-05 1.744827e-06 1.211414e-05 1.479612e-06 1.428330e-06 2.364372e-06 1.183207e-05 3.329295e-05 2.765478e-04 2.508510e-04 3.685362e-04
<GCONST> -3.563842e+02
<MIXTURE> 6 9.033465e-02
<MEAN> 42
 7.458132e-02 6.922232e-02 -1.266154e-02 -9.588267e-02 3.395072e-02 2.878717e-02 -1.095366e-02 1.074222e-01 1.456614e-01 1.081378e-01 1.039581e-01 7.995060e-02 3.557303e-05 3.444445e-04 -5.709808e-04 -2.073168e-03 -4.739788e-04 1.217471e-05 -1.870296e-03 -2.702982e-03 -1.095095e-03 -4.357247e-04 -6.533484e-05 5.532085e-05 -6.047786e-04 -3.449920e-04 -2.868423e-04 -3.703454e-04 -5.927092e-04 -2.487727e-04 -3.015703e-04 -1.097123e-03 -3.453530e-04 -5.999189e-04 -2.074335e-04 -1.836939e-04 1.140258e-03 -1.754041e-03 -5.294286e-03 8.217265e-02 2.676446e-02 -1.022566e-01
<VARIANCE> 42
 3.912923e-03 5.719992e-03 3.728210e-03 3.822213e-03 2.344433e-03 4.125029e-03 8.454408e-03 5.661456e-02 4.040126e-02 2.695851e-02 2.145171e-02 1.353837e-02 2.395148e-05 2.608515e-05 2.160250e-05 1.959239e-05 1.644623e-05 1.820733e-05 1.820629e-05 8.465143e-05 7.439202e-05 5.248957e-05 3.402849e-05 2.233319e-05 6.076503e-06 4.254576e-06 5.406568e-06 3.829732e-06 4.763898e-06 3.422979e-06 2.573240e-06 2.601508e-05 2.594043e-06 1.211414e-05 1.941766e-06 1.608060e-06 1.724611e-04 2.105862e-04 2.548842e-04 1.554130e-02 4.473236e-03 1.808159e-02
<GCONST> -2.911020e+02
<MIXTURE> 7 8.868525e-02
<MEAN> 42
 1.951133e-02 4.514019e-02 1.938936e-02 -4.576488e-02 -4.303342e-03 3.173678e-02 -2.219561e-02 3.730369e-02 5.983353e-02 1.298771e-02 6.040562e-03 1.005821e-02 -2.638893e-03 -2.982581e-03 -1.679907e-03 1.088309e-04 -1.738342e-03 -2.167406e-03 -1.253956e-03 -2.744223e-03 -3.578262e-03 -2.879318e-03 -2.785663e-03 -2.557375e-03 -1.039642e-03 -1.292794e-03 -1.189796e-03 -1.675457e-04 -6.833450e-04 -1.138244e-03 -4.892841e-04 -1.186001e-03 -8.831988e-04 -1.166766e-03 -8.956043e-04 -7.921170e-04 -1.425945e-03 -4.611763e-03 -2.863430e-03 1.138090e-02 2.644835e-02 -4.578172e-02
<VARIANCE> 42
 1.296200e-03 2.575807e-03 1.614737e-03 1.527692e-03 8.087306e-04 1.922515e-03 2.121920e-02 1.425644e-02 6.644222e-03 3.949441e-03 7.006768e-03 2.774837e-03 4.851371e-05 5.591227e-05 5.186062e-05 3.929485e-05 3.697336e-05 4.226734e-05 5.099364e-05 7.374013e-05 5.112581e-05 4.065752e-05 2.885548e-05 2.494879e-05 1.550152e-05 1.128634e-05 1.694693e-05 9.174290e-06 1.367119e-05 1.022957e-05 5.574797e-06 2.601508e-05 7.282365e-06 1.211414e-05 5.712391e-06 4.556791e-06 4.593594e-05 5.466348e-05 2.154008e-04 3.104986e-03 2.049234e-03 5.322350e-03
<GCONST> -2.950262e+02
<MIXTURE> 8 5.534405e-02
<MEAN> 42
 -2.951721e-02 -5.746144e-02 -3.845557e-02 3.242682e-02 -2.862720e-03 -4.401496e-02 -8.798103e-03 -9.652926e-03 -6.024728e-02 -9.672678e-02 -6.654286e-02 -6.829366e-02 -7.361803e-04 -2.170757e-03 -2.175844e-03 3.522821e-05 5.989068e-05 -2.115996e-03 -1.000455e-03 -2.486597e-03 -2.046171e-03 -2.399286e-03 -1.773488e-03 -1.466383e-03 -1.603694e-04 -6.820026e-04 -9.689801e-04 -4.625674e-04 2.974828e-05 -7.668460e-04 -5.152000e-04 -1.199182e-03 -9.484668e-04 -1.097305e-03 -8.353046e-04 -7.331217e-04 2.568254e-03 9.458944e-04 2.962176e-03 -6.170321e-02 -4.290828e-02 -3.543620e-03
<VARIANCE> 42
 8.340608e-04 1.506860e-03 1.589091e-03 9.379830e-04 7.035055e-04 1.069678e-03 2.653299e-03 1.669948e-03 5.852680e-03 1.044988e-02 5.515394e-03 3.623063e-03 1.384268e-05 1.523403e-05 1.504224e-05 1.064911e-05 1.122721e-05 1.188685e-05 5.871370e-06 7.374013e-05 2.124648e-05 4.065752e-05 1.512177e-05 9.560196e-06 5.601117e-06 5.557713e-06 5.127188e-06 4.234473e-06 4.169035e-06 3.965712e-06 2.164943e-06 2.601508e-05 5.948041e-06 1.211414e-05 4.749961e-06 3.434037e-06 1.591069e-04 3.760299e-05 1.302405e-04 3.585274e-03 8.857584e-04 6.276655e-04
<GCONST> -3.226993e+02
<STATE> 3
<NUMMIXES> 8
<MIXTURE> 1 1.072420e-01
<MEAN> 42
 2.575132e-02 2.920521e-02 1.261362e-02 -1.582033e-02 1.483784e-02 2.254626e-02 1.074860e-02 6.295670e-03 3.784505e-02 3.714325e-02 2.938277e-02 1.522912e-02 5.004858e-05 3.928130e-03 6.320478e-03 1.279142e-03 -1.366711e-03 4.820592e-03 3.249085e-03 4.523529e-03 4.246482e-03 4.816139e-03 4.358630e-03 3.906144e-03 -4.254413e-04 1.889695e-03 3.761529e-03 1.199373e-03 -1.035587e-03 2.635784e-03 1.686748e-03 2.366735e-03 2.096239e-03 2.445200e-03 2.285349e-03 2.113756e-03 3.483809e-03 3.808528e-03 3.733172e-04 2.553072e-02 1.878508e-02 1.442629e-03
<VARIANCE> 42
 1.409281e-03 2.393942e-03 1.810757e-03 1.487530e-03 9.579282e-04 1.850231e-03 2.388619e-03 1.507670e-03 3.332355e-03 2.799951e-03 1.909012e-03 1.424589e-03 1.019623e-04 5.622437e-05 9.172467e-05 5.653924e-05 8.338426e-05 4.868447e-05 2.161885e-05 7.374013e-05 2.421918e-05 4.065752e-05 2.549164e-05 2.140825e-05 3.570132e-05 1.972186e-05 3.261982e-05 1.968743e-05 2.939573e-05 1.731068e-05 5.771538e-06 2.601508e-05 6.806894e-06 1.211414e-05 7.701200e-06 6.455796e-06 2.085001e-05 1.170801e-04 6.767795e-05 1.285118e-03 1.511128e-03 6.264758e-04
<GCONST> -3.012697e+02
<MIXTURE> 2 7.231045e-02
<MEAN> 42
 6.459402e-02 3.908838e-02 -1.217637e-03 -2.200655e-02 5.676426e-02 2.075185e-02 1.415497e-02 6.083054e-02 1.392623e-01 1.474063e-01 1.304148e-01 9.784535e-02 2.295295e-03 2.684159e-03 4.507429e-03 2.200411e-03 2.209216e-03 3.269109e-03 4.105966e-03 6.688755e-03 8.412089e-03 8.382628e-03 6.585129e-03 4.919596e-03 7.022421e-04 1.164024e-03 2.619849e-03 1.507288e-03 7.472772e-04 1.707967e-03 1.418111e-03 1.561028e-03 1.319016e-03 1.308373e-03 8.204645e-04 4.221754e-04 1.552601e-02 -1.203731e-03 8.577934e-03 1.078068e-01 1.531131e-02 -1.499940e-02
<VARIANCE> 42
 7.256596e-03 1.131085e-02 1.372196e-02 5.768870e-03 7.753760e-03 1.084580e-02 9.361127e-03 1.230789e-02 2.387718e-02 2.741466e-02 2.339160e-02 1.299014e-02 2.197080e-04 1.404656e-04 3.112034e-04 1.024080e-04 2.316282e-04 1.707487e-04 1.259721e-04 2.694207e-04 3.189680e-04 3.392102e-04 2.514533e-04 2.047293e-04 6.045214e-05 3.646830e-05 8.181594e-05 2.804897e-05 6.230558e-05 4.396399e-05 2.749814e-05 4.288466e-05 3.151035e-05 3.322507e-05 2.698704e-05 2.391594e-05 3.705411e-04 4.252479e-04 4.890835e-04 1.499734e-02 7.777231e-03 4.347264e-03
<GCONST> -2.368837e+02
<MIXTURE> 3 2.913715e-01
<MEAN> 42
 3.153574e-03 -1.159389e-03 2.563867e-03 4.571259e-03 5.399911e-03 1.633237e-03 7.209195e-03 -7.620244e-04 8.646364e-03 1.007317e-02 8.354361e-03 -2.187165e-03 2.321156e-03 3.588499e-04 -1.264450e-04 1.277220e-03 2.642000e-03 -1.122957e-04 -4.297675e-05 8.214069e-04 -4.640984e-04 -8.504896e-05 -5.087302e-04 -4.682996e-04 1.563179e-03 5.093596e-04 8.979993e-05 5.966292e-04 1.618876e-03 1.619980e-04 2.708987e-05 5.988325e-04 -6.695453e-05 1.184975e-04 -8.245106e-05 -8.530178e-05 9.053137e-04 1.076635e-03 1.298407e-03 4.608377e-03 -1.146791e-03 3.831895e-03
<VARIANCE> 42
 6.298805e-04 6.918029e-04 7.477064e-04 4.567631e-04 5.141728e-04 5.417810e-04 8.652572e-04 1.370589e-03 1.151794e-03 1.070629e-03 6.909320e-04 5.790133e-04 6.121486e-05 4.042671e-05 5.981298e-05 3.604746e-05 5.074288e-05 3.501031e-05 1.316355e-05 7.374013e-05 1.390815e-05 4.065752e-05 1.724989e-05 1.463477e-05 2.374737e-05 1.579455e-05 2.322660e-05 1.402980e-05 1.969157e-05 1.364010e-05 4.304448e-06 2.601508e-05 4.925307e-06 1.211414e-05 5.860015e-06 4.838781e-06 1.025084e-05 3.651647e-05 4.662352e-05 4.069842e-04 4.789407e-04 3.177490e-04
<GCONST> -3.250000e+02
<MIXTURE> 4 2.907611e-02
<MEAN> 42
 1.888556e-02 2.426613e-03 2.908647e-02 5.315581e-02 3.463448e-02 1.491258e-02 5.832716e-02 7.770246e-02 1.479283e-01 2.957470e-01 2.283031e-01 1.362072e-01 8.116238e-03 3.281411e-03 4.655317e-03 6.451126e-03 8.595097e-03 2.773826e-03 3.708597e-03 2.179715e-03 3.564039e-03 1.008486e-02 9.947183e-03 9.020384e-03 5.086833e-03 1.332819e-03 -7.354075e-04 8.243300e-04 5.182812e-03 -6.316765e-05 7.479395e-04 2.366493e-03 4.207134e-03 6.333779e-03 6.072725e-03 5.406296e-03 1.546998e-02 2.084170e-02 2.780243e-02 1.626075e-01 5.261138e-03 1.577121e-02
<VARIANCE> 42
 3.712211e-02 3.146784e-02 4.723398e-02 2.318454e-02 3.424133e-02 3.067943e-02 4.609930e-02 8.172887e-02 2.190063e-01 3.455455e-01 2.368290e-01 1.374234e-01 1.460422e-03 7.618731e-04 1.351992e-03 7.744714e-04 1.221098e-03 6.926695e-04 1.177446e-03 2.105175e-03 5.522592e-03 1.028889e-02 7.343824e-03 4.418685e-03 1.528098e-04 9.192359e-05 1.511114e-04 8.459070e-05 1.294386e-04 8.332671e-05 1.130570e-04 2.596921e-04 5.449239e-04 1.087554e-03 7.820699e-04 4.440192e-04 1.826666e-03 1.472495e-03 1.372288e-03 1.535688e-01 2.396466e-02 4.029177e-02
<GCONST> -1.586953e+02
<MIXTURE> 5 2.913715e-01
<MEAN> 42
 -6.885394e-03 -1.168025e-02 -8.373821e-03 -3.977548e-03 -3.670241e-03 -7.677239e-03 -4.556907e-03 -1.557061e-02 -4.928872e-03 -3.015022e-03 -2.159873e-03 -1.181224e-02 -8.084415e-04 -2.184430e-03 -3.219999e-03 -1.124361e-03 -2.073618e-04 -2.479076e-03 -1.494241e-03 -2.613476e-03 -1.955844e-03 -2.635579e-03 -2.170050e-03 -1.998516e-03 -3.860717e-04 -1.080335e-03 -1.837959e-03 -9.016258e-04 -1.561316e-04 -1.315302e-03 -8.027967e-04 -1.441367e-03 -9.546758e-04 -1.273717e-03 -1.050750e-03 -9.651909e-04 -3.753637e-04 -1.340519e-03 -1.432849e-03 -3.461163e-03 -9.900676e-03 -3.298312e-03
<VARIANCE> 42
 6.298805e-04 6.918029e-04 7.477064e-04 4.567631e-04 5.141728e-04 5.417810e-04 8.652572e-04 1.370589e-03 1.151794e-03 1.070629e-03 6.909320e-04 5.790133e-04 6.121486e-05 4.042671e-05 5.981298e-05 3.604746e-05 5.074288e-05 3.501031e-05 1.316355e-05 7.374013e-05 1.390815e-05 4.065752e-05 1.724989e-05 1.463477e-05 2.374737e-05 1.579455e-05 2.322660e-05 1.402980e-05 1.969157e-05 1.364010e-05 4.304448e-06 2.601508e-05 4.925307e-06 1.211414e-05 5.860015e-06 4.838781e-06 1.025084e-05 3.651647e-05 4.662352e-05 4.069842e-04 4.789407e-04 3.177490e-04
<GCONST> -3.250000e+02
<MIXTURE> 6 1.072420e-01
<MEAN> 42
 1.073516e-02 9.634043e-03 -4.407578e-03 -3.124773e-02 2.457676e-03 5.340538e-03 -8.800796e-03 -9.235820e-03 1.475443e-02 1.597742e-02 1.190587e-02 1.316252e-04 -3.989006e-03 9.288129e-04 2.489558e-03 -1.728561e-03 -5.019311e-03 2.029622e-03 1.389241e-03 1.088646e-03 2.277962e-03 2.265609e-03 2.339060e-03 2.055382e-03 -2.815465e-03 1.133230e-04 1.476979e-03 -5.754477e-04 -3.204301e-03 9.715399e-04 7.257875e-04 3.265354e-04 1.052639e-03 1.052985e-03 1.175307e-03 1.097426e-03 1.657337e-03 -5.196142e-04 -2.917347e-03 1.119130e-02 3.235783e-03 -8.569171e-03
<VARIANCE> 42
 1.409281e-03 2.393942e-03 1.810757e-03 1.487530e-03 9.579282e-04 1.850231e-03 2.388619e-03 1.507670e-03 3.332355e-03 2.799951e-03 1.909012e-03 1.424589e-03 1.019623e-04 5.622437e-05 9.172467e-05 5.653924e-05 8.338426e-05 4.868447e-05 2.161885e-05 7.374013e-05 2.421918e-05 4.065752e-05 2.549164e-05 2.140825e-05 3.570132e-05 1.972186e-05 3.261982e-05 1.968743e-05 2.939573e-05 1.731068e-05 5.771538e-06 2.601508e-05 6.806894e-06 1.211414e-05 7.701200e-06 6.455796e-06 2.085001e-05 1.170801e-04 6.767795e-05 1.285118e-03 1.511128e-03 6.264758e-04
<GCONST> -3.012697e+02
<MIXTURE> 7 7.231045e-02
<MEAN> 42
 3.051976e-02 -3.452618e-03 -4.807394e-02 -5.238779e-02 2.154208e-02 -2.090542e-02 -2.454620e-02 1.645416e-02 7.745332e-02 8.117685e-02 6.923756e-02 5.225563e-02 -3.633725e-03 -2.056568e-03 -2.548954e-03 -1.847463e-03 -3.878518e-03 -1.957724e-03 -3.835259e-04 1.231390e-04 1.268219e-03 1.015564e-03 2.422170e-04 -8.037500e-04 -2.407797e-03 -1.251535e-03 -9.982381e-04 -6.111629e-04 -2.410078e-03 -9.442472e-04 -6.794361e-04 -1.058427e-03 -9.263470e-04 -9.972752e-04 -1.257498e-03 -1.533982e-03 7.826230e-03 -9.452347e-03 -2.681594e-04 5.882133e-02 -1.996413e-02 -4.137292e-02
<VARIANCE> 42
 7.256596e-03 1.131085e-02 1.372196e-02 5.768870e-03 7.753760e-03 1.084580e-02 9.361127e-03 1.230789e-02 2.387718e-02 2.741466e-02 2.339160e-02 1.299014e-02 2.197080e-04 1.404656e-04 3.112034e-04 1.024080e-04 2.316282e-04 1.707487e-04 1.259721e-04 2.694207e-04 3.189680e-04 3.392102e-04 2.514533e-04 2.047293e-04 6.045214e-05 3.646830e-05 8.181594e-05 2.804897e-05 6.230558e-05 4.396399e-05 2.749814e-05 4.288466e-05 3.151035e-05 3.322507e-05 2.698704e-05 2.391594e-05 3.705411e-04 4.252479e-04 4.890835e-04 1.499734e-02 7.777231e-03 4.347264e-03
<GCONST> -2.368837e+02
<MIXTURE> 8 2.907611e-02
<MEAN> 42
 -5.818284e-02 -6.853010e-02 -5.784705e-02 -7.750070e-03 -3.938317e-02 -5.514960e-02 -2.755583e-02 -3.665059e-02 -3.926414e-02 6.061456e-02 3.364275e-02 -1.207544e-02 -7.169950e-03 -7.759409e-03 -1.005246e-02 -4.680605e-03 -5.382589e-03 -7.753620e-03 -1.001698e-02 -1.617316e-02 -2.616162e-02 -3.048880e-02 -2.433126e-02 -1.756889e-02 1.421827e-04 -2.502253e-03 -5.652502e-03 -2.854598e-03 6.319683e-04 -3.714506e-03 -3.505191e-03 -4.079493e-03 -5.130308e-03 -6.857455e-03 -5.113481e-03 -3.022410e-03 -1.625822e-03 5.492459e-03 1.298467e-02 5.856030e-03 -5.666096e-02 -6.452003e-02
<VARIANCE> 42
 3.712211e-02 3.146784e-02 4.723398e-02 2.318454e-02 3.424133e-02 3.067943e-02 4.609930e-02 8.172887e-02 2.190063e-01 3.455455e-01 2.368290e-01 1.374234e-01 1.460422e-03 7.618731e-04 1.351992e-03 7.744714e-04 1.221098e-03 6.926695e-04 1.177446e-03 2.105175e-03 5.522592e-03 1.028889e-02 7.343824e-03 4.418685e-03 1.528098e-04 9.192359e-05 1.511114e-04 8.459070e-05 1.294386e-04 8.332671e-05 1.130570e-04 2.596921e-04 5.449239e-04 1.087554e-03 7.820699e-04 4.440192e-04 1.826666e-03 1.472495e-03 1.372288e-03 1.535688e-01 2.396466e-02 4.029177e-02
<GCONST> -1.586953e+02
<STATE> 4
<NUMMIXES> 8
<MIXTURE> 1 1.513388e-01
<MEAN> 42
 2.965246e-02 3.713192e-02 1.576446e-02 -1.412095e-02 1.549369e-02 2.784700e-02 2.576890e-02 7.506423e-02 8.311568e-02 6.231215e-02 4.968477e-02 3.555644e-02 1.549714e-03 2.674382e-03 2.396382e-03 -7.296080e-05 5.925272e-04 2.382923e-03 1.082661e-03 2.608725e-03 2.712729e-03 2.999284e-03 2.549618e-03 2.022853e-03 3.366691e-04 1.049620e-03 1.475400e-03 3.867996e-04 8.870265e-07 1.164780e-03 6.503085e-04 1.382304e-03 9.610000e-04 1.352911e-03 1.068505e-03 8.547673e-04 2.973261e-03 -2.246455e-04 2.999020e-03 3.776464e-02 2.210024e-02 -1.652635e-02
<VARIANCE> 42
 1.913984e-03 3.064990e-03 1.977875e-03 1.994712e-03 1.167527e-03 2.163877e-03 3.544298e-03 1.314011e-02 1.089879e-02 8.558756e-03 4.032895e-03 3.288819e-03 3.396502e-05 2.625772e-05 3.186997e-05 2.222303e-05 2.664080e-05 2.074325e-05 1.650045e-05 7.374013e-05 3.666920e-05 4.065752e-05 2.415739e-05 1.554662e-05 1.062908e-05 6.527800e-06 9.651683e-06 6.189372e-06 8.628712e-06 5.471972e-06 2.953579e-06 2.601508e-05 4.435555e-06 1.211414e-05 4.630798e-06 2.836931e-06 3.239634e-05 6.623628e-05 1.465734e-04 2.392309e-03 1.944427e-03 4.308278e-03
<GCONST> -3.056618e+02
<MIXTURE> 2 7.578780e-02
<MEAN> 42
 6.917927e-02 1.275204e-01 8.105507e-02 -2.899812e-02 2.645724e-02 1.044367e-01 2.635472e-02 1.963893e-01 2.393223e-01 2.606861e-01 2.137560e-01 1.609037e-01 1.077813e-02 1.205365e-02 4.504728e-03 -1.552369e-03 6.890097e-03 7.885288e-03 4.387700e-03 1.319868e-02 2.076895e-02 2.541924e-02 2.317026e-02 1.874357e-02 2.412016e-03 2.832151e-03 1.803571e-03 4.890667e-04 1.744400e-03 2.156864e-03 9.154051e-05 4.630205e-04 1.688556e-03 4.069537e-03 3.995434e-03 3.537391e-03 1.225558e-02 6.780124e-03 8.597392e-03 1.714327e-01 8.801349e-02 -3.042661e-03
<VARIANCE> 42
 1.797995e-02 5.296274e-02 3.872957e-02 2.580961e-02 1.494730e-02 4.168960e-02 3.021452e-02 2.628191e-01 1.330541e-01 1.549860e-01 1.118218e-01 7.736222e-02 4.830038e-04 8.989256e-04 5.825486e-04 5.454334e-04 3.094110e-04 6.223893e-04 8.623744e-04 2.381359e-03 1.579868e-03 1.885001e-03 1.670788e-03 1.318628e-03 5.631297e-05 8.460112e-05 7.408934e-05 5.196352e-05 4.423529e-05 6.552845e-05 7.804560e-05 1.934762e-04 1.554411e-04 1.619452e-04 1.140835e-04 8.233928e-05 6.484334e-04 6.181652e-04 5.633532e-04 7.097929e-02 3.642498e-02 5.718023e-02
<GCONST> -1.846587e+02
<MIXTURE> 3 2.503765e-01
<MEAN> 42
 -1.296233e-03 -6.247286e-03 7.011476e-04 1.378795e-02 4.178393e-03 -1.708496e-03 1.499926e-02 1.988517e-02 5.384006e-03 -3.476526e-03 5.982802e-04 -9.791311e-04 6.506004e-04 -3.023091e-04 5.652255e-05 1.324750e-03 1.074712e-03 -2.557954e-04 5.623731e-04 1.609438e-03 1.926626e-04 4.931064e-04 -1.609204e-04 -1.452986e-04 7.297031e-04 1.263495e-04 3.060381e-05 4.301075e-04 8.201109e-04 -1.662993e-07 7.819518e-05 8.191222e-04 6.242914e-05 3.439145e-04 8.644856e-06 5.034090e-07 4.507692e-04 8.632530e-04 3.199243e-03 -3.577436e-03 -4.404572e-03 -2.551312e-04
<VARIANCE> 42
 5.114311e-04 7.882655e-04 5.733435e-04 4.971815e-04 3.592483e-04 5.515568e-04 1.417676e-03 2.337202e-03 1.985815e-03 1.644373e-03 1.407454e-03 9.320696e-04 1.965571e-05 1.324901e-05 1.815365e-05 1.196600e-05 1.586806e-05 1.093984e-05 6.856922e-06 7.374013e-05 1.210794e-05 4.065752e-05 1.131955e-05 8.494042e-06 6.982058e-06 3.973370e-06 6.364281e-06 3.906964e-06 5.788066e-06 3.478283e-06 1.840408e-06 2.601508e-05 3.214348e-06 1.211414e-05 3.140898e-06 2.018333e-06 1.070776e-05 1.309877e-05 4.950744e-05 7.247344e-04 5.196453e-04 7.582406e-04
<GCONST> -3.409746e+02
<MIXTURE> 4 2.249940e-02
<MEAN> 42
 1.839343e-01 1.285154e-01 4.372284e-03 -2.904731e-02 1.587323e-01 6.232408e-02 -2.224020e-01 -3.424410e-01 -1.572548e-01 2.367253e-01 3.371897e-01 3.303760e-01 -1.078841e-02 -6.529917e-03 1.441301e-02 3.036880e-02 -1.995033e-03 2.747045e-03 1.359249e-02 1.898265e-03 -2.505830e-02 -3.204776e-02 -2.875799e-02 -2.021516e-02 6.468911e-04 8.378089e-04 4.233598e-03 7.292801e-03 2.422742e-03 2.109651e-03 8.870288e-03 1.250981e-02 1.054580e-02 4.992676e-03 1.313057e-03 -9.650877e-05 3.293667e-02 3.456819e-02 2.136789e-02 2.854299e-01 1.219585e-01 4.024284e-01
<VARIANCE> 42
 8.324187e-02 1.601310e-01 1.563378e-01 8.252626e-02 8.038530e-02 1.377852e-01 1.277772e-01 4.350695e-01 3.860749e-01 7.004160e-01 5.223745e-01 3.594299e-01 2.766089e-03 4.184817e-03 3.955613e-03 2.486719e-03 2.320487e-03 3.381096e-03 3.174475e-03 8.173883e-03 1.304090e-02 1.865294e-02 1.327851e-02 8.477634e-03 3.900443e-04 5.766448e-04 5.986634e-04 3.337375e-04 3.508825e-04 4.903144e-04 2.537854e-04 6.391240e-04 1.760044e-03 2.954389e-03 1.685144e-03 9.496318e-04 2.046133e-03 1.713831e-03 1.370624e-03 3.137463e-01 1.191323e-01 1.686727e-01
<GCONST> -1.161502e+02
<MIXTURE> 5 2.503765e-01
<MEAN> 42
 -1.034217e-02 -1.747771e-02 -8.876689e-03 4.868924e-03 -3.403147e-03 -1.110260e-02 -6.155204e-05 5.473262e-04 -1.244099e-02 -1.969687e-02 -1.440814e-02 -1.319106e-02 -1.122790e-03 -1.758277e-03 -1.647762e-03 -5.892658e-05 -5.186769e-04 -1.578813e-03 -4.850559e-04 -1.825445e-03 -1.199196e-03 -2.057424e-03 -1.506702e-03 -1.311080e-03 -3.272403e-04 -6.709831e-04 -9.784972e-04 -3.605342e-04 -1.422251e-04 -7.461725e-04 -4.644514e-04 -1.221077e-03 -6.547150e-04 -1.048300e-03 -7.002583e-04 -5.677688e-04 -8.581394e-04 -5.844359e-04 3.847815e-04 -1.434579e-02 -1.352286e-02 -1.126960e-02
<VARIANCE> 42
 5.114311e-04 7.882655e-04 5.733435e-04 4.971815e-04 3.592483e-04 5.515568e-04 1.417676e-03 2.337202e-03 1.985815e-03 1.644373e-03 1.407454e-03 9.320696e-04 1.965571e-05 1.324901e-05 1.815365e-05 1.196600e-05 1.586806e-05 1.093984e-05 6.856922e-06 7.374013e-05 1.210794e-05 4.065752e-05 1.131955e-05 8.494042e-06 6.982058e-06 3.973370e-06 6.364281e-06 3.906964e-06 5.788066e-06 3.478283e-06 1.840408e-06 2.601508e-05 3.214348e-06 1.211414e-05 3.140898e-06 2.018333e-06 1.070776e-05 1.309877e-05 4.950744e-05 7.247344e-04 5.196453e-04 7.582406e-04
<GCONST> -3.409746e+02
<MIXTURE> 6 1.513388e-01
<MEAN> 42
 1.215282e-02 1.498698e-02 -2.024862e-03 -3.198583e-02 1.826048e-03 9.240002e-03 1.955299e-03 2.921210e-02 4.135678e-02 2.530673e-02 2.428273e-02 1.261714e-02 -7.814665e-04 6.246902e-04 1.382420e-04 -1.958613e-03 -1.472062e-03 5.611328e-04 -5.421690e-04 -8.261580e-04 2.905250e-04 4.487539e-04 5.836106e-04 4.456849e-04 -9.674217e-04 2.763752e-05 2.327135e-04 -6.083384e-04 -1.174100e-03 2.290906e-04 -3.713073e-05 -6.578957e-04 1.185696e-04 -3.930344e-05 2.077333e-04 1.810396e-04 6.965493e-04 -3.480073e-03 -1.843680e-03 1.820014e-02 4.461978e-03 -4.278133e-02
<VARIANCE> 42
 1.913984e-03 3.064990e-03 1.977875e-03 1.994712e-03 1.167527e-03 2.163877e-03 3.544298e-03 1.314011e-02 1.089879e-02 8.558756e-03 4.032895e-03 3.288819e-03 3.396502e-05 2.625772e-05 3.186997e-05 2.222303e-05 2.664080e-05 2.074325e-05 1.650045e-05 7.374013e-05 3.666920e-05 4.065752e-05 2.415739e-05 1.554662e-05 1.062908e-05 6.527800e-06 9.651683e-06 6.189372e-06 8.628712e-06 5.471972e-06 2.953579e-06 2.601508e-05 4.435555e-06 1.211414e-05 4.630798e-06 2.836931e-06 3.239634e-05 6.623628e-05 1.465734e-04 2.392309e-03 1.944427e-03 4.308278e-03
<GCONST> -3.056618e+02
<MIXTURE> 7 7.578780e-02
<MEAN> 42
 1.554354e-02 3.546581e-02 2.335750e-03 -9.325960e-02 -2.244642e-02 2.276459e-02 -4.317457e-02 -8.674219e-03 9.341593e-02 1.032131e-01 7.999697e-02 4.964747e-02 1.987189e-03 6.081210e-05 -5.149690e-03 -1.089418e-02 -1.459366e-04 -2.093804e-03 -7.358784e-03 -6.320990e-03 4.869930e-03 8.052601e-03 6.820145e-03 4.218407e-03 -5.896630e-04 -8.470034e-04 -1.639435e-03 -2.394362e-03 -9.159850e-04 -1.081122e-03 -3.442197e-03 -5.100809e-03 -3.298485e-03 -1.020771e-03 -2.769607e-04 -9.224890e-05 2.069837e-03 -3.165046e-03 -8.966336e-04 6.486493e-02 1.167217e-02 -9.869222e-02
<VARIANCE> 42
 1.797995e-02 5.296274e-02 3.872957e-02 2.580961e-02 1.494730e-02 4.168960e-02 3.021452e-02 2.628191e-01 1.330541e-01 1.549860e-01 1.118218e-01 7.736222e-02 4.830038e-04 8.989256e-04 5.825486e-04 5.454334e-04 3.094110e-04 6.223893e-04 8.623744e-04 2.381359e-03 1.579868e-03 1.885001e-03 1.670788e-03 1.318628e-03 5.631297e-05 8.460112e-05 7.408934e-05 5.196352e-05 4.423529e-05 6.552845e-05 7.804560e-05 1.934762e-04 1.554411e-04 1.619452e-04 1.140835e-04 8.233928e-05 6.484334e-04 6.181652e-04 5.633532e-04 7.097929e-02 3.642498e-02 5.718023e-02
<GCONST> -1.846587e+02
<MIXTURE> 8 2.249940e-02
<MEAN> 42
 6.852767e-02 -3.155007e-02 -1.537860e-01 -1.439569e-01 4.532310e-02 -8.615364e-02 -3.653858e-01 -6.062802e-01 -4.057945e-01 -9.803809e-02 4.808773e-02 9.056605e-02 -3.182586e-02 -3.240598e-02 -1.074446e-02 1.042200e-02 -2.126361e-02 -2.051183e-02 -8.944504e-03 -3.426555e-02 -7.073700e-02 -8.667807e-02 -7.485095e-02 -5.704479e-02 -7.252925e-03 -8.767564e-03 -5.553442e-03 -1.459266e-05 -5.070002e-03 -6.747567e-03 2.498030e-03 2.397450e-03 -6.235356e-03 -1.674904e-02 -1.510715e-02 -1.242295e-02 1.484299e-02 1.800881e-02 6.559112e-03 6.137767e-02 -1.610366e-02 2.381492e-01
<VARIANCE> 42
 8.324187e-02 1.601310e-01 1.563378e-01 8.252626e-02 8.038530e-02 1.377852e-01 1.277772e-01 4.350695e-01 3.860749e-01 7.004160e-01 5.223745e-01 3.594299e-01 2.766089e-03 4.184817e-03 3.955613e-03 2.486719e-03 2.320487e-03 3.381096e-03 3.174475e-03 8.173883e-03 1.304090e-02 1.865294e-02 1.327851e-02 8.477634e-03 3.900443e-04 5.766448e-04 5.986634e-04 3.337375e-04 3.508825e-04 4.903144e-04 2.537854e-04 6.391240e-04 1.760044e-03 2.954389e-03 1.685144e-03 9.496318e-04 2.046133e-03 1.713831e-03 1.370624e-03 3.137463e-01 1.191323e-01 1.686727e-01
<GCONST> -1.161502e+02
<STATE> 5
<MEAN> 42
 5.508129e-03 2.242591e-03 -1.917270e-03 -5.954718e-03 3.959091e-03 4.050595e-03 -2.147646e-04 -3.400689e-04 2.245941e-03 -3.366563e-04 -1.542447e-03 7.391438e-03 -1.848134e-04 -4.071993e-04 -2.247505e-04 2.978934e-04 1.708357e-05 -3.177146e-04 2.045147e-04 9.937969e-05 -5.439052e-05 -2.028700e-04 -2.355499e-04 -2.863123e-04 -3.301075e-05 8.366929e-06 4.001507e-05 1.277531e-05 -3.509678e-05 2.402615e-05 6.941978e-05 8.864664e-05 9.808867e-05 7.089146e-05 4.088936e-05 3.171004e-06 2.199051e-04 4.041750e-04 2.319923e-04 2.160489e-03 7.939017e-04 6.866676e-04
<VARIANCE> 42
 1.385079e-03 1.591488e-03 1.566966e-03 1.118304e-03 1.000801e-03 1.263350e-03 8.978936e-04 1.370589e-03 1.137212e-03 1.143851e-03 1.190716e-03 9.365932e-04 1.020008e-04 6.108345e-05 1.074953e-04 5.449536e-05 8.996813e-05 5.966761e-05 2.548148e-05 7.374013e-05 3.671293e-05 4.290574e-05 4.016037e-05 2.966364e-05 3.985867e-05 2.305095e-05 3.934765e-05 2.153117e-05 3.404564e-05 2.161685e-05 7.342871e-06 2.601508e-05 1.192867e-05 1.430547e-05 1.272094e-05 9.690587e-06 3.993393e-06 1.459511e-05 5.500132e-05 6.176911e-04 1.014174e-03 3.096217e-04
<GCONST> -3.074892e+02
<STATE> 6
<MEAN> 42
 7.079706e-02 8.406385e-02 1.301822e-02 -7.674704e-02 3.500483e-02 8.165698e-03 -1.052177e-01 -1.197781e-01 -4.437414e-02 8.754743e-02 1.382313e-01 1.415751e-01 -5.585303e-05 1.736769e-03 1.797501e-03 -8.479809e-04 -9.161690e-04 1.291521e-03 -2.915842e-04 -5.498574e-04 -2.700882e-05 5.083850e-04 6.966296e-04 6.800573e-04 7.398668e-05 -1.530808e-04 -2.236959e-04 3.900204e-05 1.495994e-04 -1.534868e-04 1.148232e-04 1.448124e-04 1.421434e-05 -1.549946e-04 -1.686929e-04 -1.522653e-04 1.006141e-02 5.791915e-03 -1.586057e-03 1.124773e-01 7.001304e-02 9.965159e-02
<VARIANCE> 42
 1.285352e-01 2.262222e-01 4.708686e-01 5.984087e-02 2.437532e-01 2.550825e-01 1.258418e-01 3.292007e-01 2.904687e-01 2.677505e-01 2.587402e-01 2.224442e-01 1.237178e-03 1.385273e-03 2.035647e-03 8.034021e-04 1.292852e-03 1.359743e-03 9.647258e-04 2.900007e-03 4.343837e-03 6.833932e-03 6.714360e-03 4.611051e-03 9.964432e-05 1.035796e-04 1.069338e-04 7.498263e-05 7.760794e-05 7.908620e-05 4.994472e-05 1.887278e-04 3.039093e-04 6.221721e-04 6.498636e-04 4.231776e-04 1.167869e-03 1.507873e-03 1.199080e-03 1.601428e-01 2.376633e-01 1.616038e-01
<GCONST> -1.448067e+02
<STATE> 7
<MEAN> 42
 1.315809e-02 3.167069e-03 -8.893792e-03 -1.023429e-02 1.557163e-02 3.023628e-03 1.528601e-02 3.608023e-02 5.437844e-02 2.701373e-02 2.399370e-02 1.738290e-02 -1.066925e-04 -6.063394e-04 -5.023860e-04 3.581727e-04 1.955271e-04 -5.266118e-04 2.116551e-04 1.662725e-04 6.065005e-05 -2.666353e-04 -3.074090e-04 -2.852282e-04 -9.771077e-06 -1.782213e-05 -8.488390e-06 1.339112e-05 -1.346763e-06 -2.230375e-05 1.359726e-06 -1.251799e-05 -3.575644e-06 5.131822e-06 -2.937411e-06 -2.067538e-06 8.090797e-04 -2.027039e-03 -2.425550e-04 1.870294e-02 -4.532231e-03 -2.595481e-02
<VARIANCE> 42
 1.690107e-03 6.209039e-03 5.910467e-03 2.471586e-03 2.434706e-03 5.573773e-03 5.435952e-03 7.397729e-03 1.978790e-02 5.657197e-03 3.480735e-03 2.520228e-03 9.466858e-05 5.755280e-05 9.612486e-05 5.215074e-05 8.161124e-05 5.015749e-05 2.860737e-05 7.374013e-05 3.547469e-05 4.065752e-05 3.411850e-05 2.646741e-05 3.785401e-05 1.938129e-05 3.565466e-05 1.974042e-05 3.211051e-05 1.735933e-05 7.113597e-06 2.601508e-05 7.773914e-06 1.211414e-05 1.018262e-05 7.754354e-06 2.039248e-05 8.324075e-05 1.634688e-04 2.486854e-03 4.135076e-03 3.930030e-03
<GCONST> -2.842009e+02
<STATE> 8
<MEAN> 42
 -7.278310e-03 -6.278385e-02 -5.557256e-02 3.422455e-02 2.489739e-02 -5.847736e-02 5.039980e-02 6.341852e-02 7.058102e-02 6.063869e-02 3.643655e-02 2.276963e-02 5.852969e-03 1.328641e-03 -4.433651e-03 -3.614582e-03 5.157843e-03 -1.537708e-03 5.521914e-03 1.311152e-02 2.200498e-02 2.698664e-02 1.945665e-02 1.300376e-02 2.978309e-03 2.563764e-03 -3.725301e-04 -2.762156e-03 1.680203e-03 1.246667e-03 -1.253479e-03 7.849882e-04 4.065096e-03 6.895026e-03 6.120531e-03 5.024247e-03 3.212908e-03 2.332893e-03 -7.201267e-04 2.187473e-02 -5.859809e-02 -5.448546e-02
<VARIANCE> 42
 7.131964e-03 5.588849e-03 9.543711e-03 4.141844e-03 6.765689e-03 5.863051e-03 4.517699e-03 2.408543e-02 4.010588e-02 3.634829e-02 3.108597e-02 2.467707e-02 2.689900e-04 4.392275e-04 6.137931e-04 2.011492e-04 3.311657e-04 4.589333e-04 3.035994e-04 1.628825e-03 1.479324e-03 1.366889e-03 9.804567e-04 7.221897e-04 5.387193e-05 6.645119e-05 1.041499e-04 3.431456e-05 6.256225e-05 6.970834e-05 4.237056e-05 1.200121e-04 1.260975e-04 1.373221e-04 1.092030e-04 8.351541e-05 2.216155e-04 3.991362e-04 8.210123e-04 1.982520e-02 3.573382e-03 9.078166e-03
<GCONST> -2.166245e+02
<STATE> 9
<MEAN> 42
 2.574466e-01 2.598849e-01 5.549899e-03 -2.586999e-01 1.281618e-01 1.410062e-01 -3.395007e-01 -3.765967e-01 2.808924e-02 4.547786e-01 5.224992e-01 5.078059e-01 -3.565436e-04 3.666211e-03 4.008640e-03 -1.661591e-03 -2.185490e-03 4.195627e-03 -1.662527e-02 -2.912778e-02 -2.794640e-02 -1.552233e-02 -8.051316e-03 -9.234874e-04 -1.438791e-03 -1.631548e-03 -2.033029e-04 1.535229e-03 -6.189476e-04 -9.589166e-04 1.596367e-03 1.687640e-03 -9.706824e-04 -3.560681e-03 -3.440781e-03 -3.155095e-03 3.750162e-02 2.249924e-02 6.805691e-03 4.556982e-01 1.926957e-01 2.746818e-01
<VARIANCE> 42
 8.853350e-02 1.388424e-01 1.559767e-01 7.469520e-02 8.820453e-02 1.245497e-01 1.362685e-01 5.005260e-01 5.868296e-01 5.065655e-01 4.126593e-01 2.976274e-01 4.765736e-03 6.092191e-03 4.931658e-03 4.195702e-03 3.333612e-03 4.312620e-03 4.032814e-03 9.454765e-03 1.610513e-02 2.538776e-02 2.182280e-02 1.521899e-02 5.115829e-04 6.690606e-04 6.581202e-04 4.256338e-04 4.186469e-04 5.349367e-04 3.668872e-04 8.995314e-04 1.872460e-03 2.966909e-03 2.140603e-03 1.344555e-03 1.512931e-03 2.178779e-03 1.333344e-03 2.359158e-01 1.071293e-01 2.183114e-01
<GCONST> -1.100496e+02
<STATE> 10
<MEAN> 42
 -7.811317e-03 -2.693795e-02 -1.643473e-02 1.611715e-02 8.531852e-03 -1.834586e-02 -1.730515e-01 -3.133884e-01 -2.954460e-01 -1.524732e-01 -7.345659e-02 1.716255e-02 -1.278474e-02 -1.423998e-02 -1.394983e-03 1.357415e-02 -5.723529e-03 -7.893073e-03 2.411887e-02 3.459745e-02 1.464398e-02 -1.099309e-02 -1.862832e-02 -2.457401e-02 3.873210e-03 2.994588e-03 -8.653101e-04 -3.419629e-03 2.379891e-03 1.110582e-03 -1.940821e-03 3.760766e-04 7.239135e-03 1.051513e-02 9.210932e-03 7.331470e-03 -4.137583e-03 1.495656e-02 1.461425e-02 -3.348637e-02 6.453631e-03 2.139586e-01
<VARIANCE> 42
 3.518117e-02 2.764553e-02 3.285391e-02 2.380114e-02 2.904070e-02 2.267228e-02 3.318699e-02 7.607257e-02 1.155349e-01 8.264337e-02 7.034940e-02 8.268128e-02 4.303902e-04 7.389846e-04 8.860900e-04 3.623542e-04 4.746810e-04 7.095823e-04 6.421078e-04 2.793798e-03 4.485489e-03 3.243990e-03 1.556666e-03 9.406896e-04 5.794894e-05 6.812900e-05 6.967630e-05 4.572407e-05 4.684258e-05 5.464764e-05 4.737153e-05 1.667709e-04 3.109975e-04 3.925862e-04 2.675176e-04 1.719158e-04 5.677429e-04 1.117867e-03 6.515224e-04 5.107978e-02 1.976853e-02 3.540699e-02
<GCONST> -1.846365e+02
<STATE> 11
<MEAN> 42
 -6.335568e-02 -4.967557e-02 1.586778e-02 5.676436e-02 -3.920466e-02 -9.285400e-03 -9.902969e-02 -2.040974e-01 -2.500899e-01 -1.756126e-01 -1.430594e-01 -1.016589e-01 8.825537e-03 7.442224e-03 -1.371922e-03 -8.152107e-03 5.200102e-03 2.935758e-03 2.203924e-02 4.654590e-02 4.808851e-02 3.490214e-02 2.557590e-02 1.545856e-02 -7.540901e-05 2.788148e-03 2.839574e-03 -1.350195e-03 -1.438262e-03 2.793913e-03 -2.074117e-03 -4.367480e-03 -2.689765e-03 1.174928e-03 1.906027e-03 2.557227e-03 -5.115289e-03 5.951088e-03 1.673299e-02 -1.022408e-01 -1.181930e-02 1.332255e-01
<VARIANCE> 42
 4.768985e-03 8.937751e-03 1.049597e-02 4.332899e-03 5.614167e-03 1.010070e-02 1.096767e-02 3.054196e-02 3.165457e-02 1.715251e-02 1.186732e-02 8.142553e-03 2.429256e-04 3.683782e-04 4.183572e-04 2.006501e-04 2.392096e-04 3.361163e-04 3.760289e-04 9.031643e-04 9.313981e-04 5.928812e-04 4.131615e-04 3.431750e-04 4.313901e-05 6.172417e-05 4.894514e-05 4.038812e-05 3.141826e-05 4.503586e-05 4.503471e-05 6.986693e-05 9.763877e-05 1.038727e-04 8.346786e-05 6.211294e-05 1.387648e-04 4.050399e-04 6.985468e-04 7.238668e-03 6.382432e-03 9.719925e-03
<GCONST> -2.271449e+02
<STATE> 12
<MEAN> 42
 -6.703450e-03 1.376360e-03 1.050451e-02 7.552151e-04 -7.970521e-03 1.091315e-02 1.031233e-02 1.227236e-02 1.946986e-02 1.062898e-02 -2.754760e-03 -7.695843e-03 6.591267e-04 -9.407226e-04 -1.611246e-03 1.334977e-04 1.149220e-03 -1.247359e-03 3.659523e-03 5.852797e-03 5.469108e-03 2.382865e-03 1.099691e-03 -7.547176e-05 -2.689941e-04 -2.234808e-04 4.517622e-05 2.399227e-04 -1.695867e-04 -8.091396e-05 -6.222751e-04 -1.311802e-03 -1.577799e-03 -1.369910e-03 -9.758890e-04 -6.228635e-04 5.522449e-05 -2.151097e-03 2.416449e-03 -1.062120e-03 3.171300e-04 -1.261489e-02
<VARIANCE> 42
 8.585242e-04 1.177074e-03 1.819968e-03 7.390475e-04 1.019529e-03 1.191263e-03 1.377439e-03 2.957282e-03 4.819138e-03 2.709824e-03 2.214247e-03 1.193719e-03 1.253851e-04 9.696223e-05 1.652866e-04 6.895245e-05 1.217646e-04 1.005772e-04 5.949371e-05 1.381307e-04 2.005182e-04 2.416817e-04 1.467276e-04 9.666829e-05 4.764657e-05 3.834625e-05 6.097126e-05 2.732925e-05 4.501585e-05 3.809152e-05 1.520331e-05 3.193026e-05 7.608018e-05 1.004880e-04 5.303635e-05 3.057467e-05 1.095224e-05 2.432113e-05 9.652650e-05 1.241154e-03 9.267475e-04 1.300666e-03
<GCONST> -2.810233e+02
<STATE> 13
<MEAN> 42
 2.421939e-02 4.031912e-02 1.679892e-02 -3.326019e-02 5.165370e-03 3.558098e-02 6.764606e-02 1.828041e-01 1.508195e-01 1.147688e-01 7.617732e-02 3.362427e-02 3.457388e-04 4.063070e-04 5.804957e-05 -3.782751e-04 1.447343e-04 1.752694e-04 -3.616559e-04 -1.237845e-04 -1.926778e-05 2.604081e-04 4.477986e-04 3.891431e-04 -2.601745e-05 -2.326280e-05 4.447087e-06 2.382087e-05 -1.509300e-05 -9.635143e-06 -8.547256e-05 -1.743147e-04 -1.564995e-04 -1.044879e-04 -6.945124e-05 -3.348323e-05 4.818501e-03 -6.037264e-03 1.705245e-04 4.785357e-02 1.687326e-02 -1.040258e-01
<VARIANCE> 42
 4.966185e-03 9.561980e-03 6.665759e-03 5.892089e-03 2.948626e-03 6.721518e-03 9.622997e-03 3.146392e-02 5.475382e-02 2.872845e-02 1.828639e-02 9.245619e-03 7.304712e-05 3.527648e-05 7.216197e-05 3.614516e-05 6.492489e-05 3.557568e-05 2.148878e-05 7.374013e-05 8.632590e-05 6.480174e-05 4.001582e-05 2.450139e-05 2.659359e-05 1.034298e-05 2.421755e-05 1.248878e-05 2.325530e-05 1.058060e-05 3.793207e-06 2.601508e-05 4.947306e-06 1.211414e-05 5.465374e-06 3.988228e-06 8.863596e-05 2.066659e-04 3.205780e-04 1.373812e-02 5.230960e-03 1.121632e-02
<GCONST> -2.734921e+02
<STATE> 14
<MEAN> 42
 6.580805e-03 1.833387e-03 -4.963755e-04 -5.077538e-03 5.159508e-03 2.282175e-03 -5.688300e-03 -8.802610e-04 -9.961521e-03 4.300045e-03 5.832730e-03 3.330322e-03 -2.113137e-05 -6.996397e-05 -4.782962e-05 4.733912e-05 1.239788e-05 -6.760533e-05 2.693504e-05 -1.563397e-04 -5.677353e-05 -3.084471e-05 -8.768948e-06 1.809109e-05 2.651826e-05 2.159417e-05 -5.302661e-06 -2.393112e-05 1.626820e-05 8.028637e-06 1.075694e-05 4.123925e-05 4.907231e-05 4.282078e-05 3.732429e-05 2.761332e-05 5.693394e-04 1.887286e-04 -7.412854e-04 3.869909e-03 1.185184e-03 4.767387e-03
<VARIANCE> 42
 1.309073e-03 1.757335e-03 1.551639e-03 1.112020e-03 9.745930e-04 1.264342e-03 1.228001e-03 3.468229e-03 3.717043e-03 1.201491e-03 1.464082e-03 1.189881e-03 5.636054e-05 4.139274e-05 5.620607e-05 3.471597e-05 4.636352e-05 3.519903e-05 1.510225e-05 7.374013e-05 2.050956e-05 4.065752e-05 2.106212e-05 1.557982e-05 2.094419e-05 1.417940e-05 2.172115e-05 1.208339e-05 1.801867e-05 1.292989e-05 4.188080e-06 2.601508e-05 5.355884e-06 1.211414e-05 6.387273e-06 4.716375e-06 6.235492e-06 1.649387e-05 9.041801e-05 7.168092e-04 1.090135e-03 1.239223e-03
<GCONST> -3.140036e+02
<STATE> 15
<MEAN> 42
 6.153471e-02 3.554420e-02 -2.145515e-02 -4.781082e-02 4.282498e-02 9.138548e-03 6.565357e-03 1.198840e-01 1.266351e-01 1.087116e-01 1.031341e-01 7.312604e-02 7.277832e-04 2.894429e-04 -4.382695e-04 -5.064405e-04 5.958051e-04 -7.687902e-05 1.022509e-03 2.420070e-03 3.775582e-03 2.321781e-03 2.003202e-03 1.399059e-03 -1.530742e-04 -2.180380e-04 -5.783154e-05 1.843983e-04 -5.891254e-05 -1.288202e-04 1.832174e-04 1.577141e-04 4.782154e-04 3.229088e-04 1.974705e-04 1.717302e-04 1.092820e-02 -1.850491e-03 7.759892e-03 7.864063e-02 7.579225e-03 -5.811930e-02
<VARIANCE> 42
 4.613615e-03 5.108915e-03 3.597561e-03 3.959919e-03 2.882282e-03 3.012290e-03 3.217985e-03 1.631954e-02 1.468469e-02 1.463906e-02 1.154922e-02 6.794898e-03 9.697863e-05 6.861563e-05 9.000813e-05 6.021274e-05 7.650640e-05 5.569073e-05 3.612680e-05 1.122569e-04 1.662075e-04 1.550033e-04 1.355380e-04 1.107130e-04 3.420373e-05 1.393153e-05 2.924863e-05 1.661467e-05 2.842285e-05 1.307062e-05 5.912953e-06 2.601508e-05 1.472088e-05 1.684317e-05 2.041041e-05 1.733106e-05 1.417231e-04 1.223902e-04 1.328024e-04 7.212880e-03 2.780288e-03 4.398894e-03
<GCONST> -2.701159e+02
<STATE> 16
<MEAN> 42
 1.199128e-01 8.543962e-02 -3.067956e-02 -1.077745e-01 8.494953e-02 2.900699e-02 -1.556445e-01 -1.288694e-01 3.199014e-03 1.954702e-01 2.488642e-01 2.418182e-01 1.103658e-04 2.435377e-03 2.343917e-03 -1.275528e-03 -1.126067e-03 2.402021e-03 -4.571345e-03 -6.635061e-03 -5.395741e-03 -2.180404e-03 -5.421209e-04 4.895758e-04 -1.073174e-04 -3.300536e-05 7.414599e-05 7.118074e-05 -8.280692e-05 9.490846e-06 2.227673e-04 2.623501e-04 1.533092e-04 -1.036133e-04 -2.480228e-04 -2.938508e-04 1.880281e-02 8.206828e-03 4.000033e-03 2.060940e-01 5.931259e-02 1.136477e-01
<VARIANCE> 42
 1.469136e-01 1.080162e-01 7.737743e-02 1.071950e-01 8.445609e-02 5.705078e-02 2.250942e-01 2.968308e-01 3.812555e-01 3.178355e-01 2.778049e-01 2.691110e-01 2.272364e-03 1.532391e-03 1.585589e-03 1.507086e-03 1.552887e-03 9.937314e-04 1.758912e-03 3.761967e-03 5.933934e-03 1.000628e-02 9.298762e-03 6.777931e-03 2.069162e-04 1.520240e-04 1.685178e-04 1.374780e-04 1.515839e-04 1.089829e-04 1.002852e-04 3.282032e-04 4.584435e-04 9.268684e-04 9.259747e-04 6.554046e-04 1.279041e-03 1.183296e-03 8.954754e-04 1.850243e-01 7.523568e-02 2.065333e-01
<GCONST> -1.399737e+02
<STATE> 17
<MEAN> 42
 1.237459e-02 5.280520e-02 4.753629e-02 -3.363276e-02 -1.553269e-02 5.286005e-02 5.947291e-02 9.979078e-02 1.343589e-01 1.067277e-01 7.936031e-02 6.133853e-02 4.278791e-05 -5.127160e-04 -5.584749e-04 2.303543e-04 3.019748e-04 -5.359284e-04 1.647314e-03 2.533751e-03 2.642327e-03 1.154103e-03 4.518255e-04 1.125845e-04 -3.403082e-06 -5.513291e-05 -5.064216e-05 2.962917e-05 2.147184e-05 -5.288012e-05 -2.144747e-04 -3.155062e-04 -3.538055e-04 -1.548146e-04 -4.948005e-05 1.707832e-05 2.569525e-03 -6.855067e-03 -2.991431e-03 5.570113e-02 3.513113e-02 -6.768277e-02
<VARIANCE> 42
 3.784968e-03 8.564380e-03 4.824907e-03 4.733644e-03 2.485987e-03 5.495727e-03 1.802345e-02 2.753487e-02 2.296774e-02 1.397799e-02 1.125707e-02 8.404936e-03 1.061708e-04 1.062492e-04 1.164233e-04 7.738081e-05 8.575668e-05 8.475517e-05 7.238551e-05 1.381929e-04 1.369867e-04 9.580316e-05 8.912401e-05 7.276733e-05 3.790602e-05 2.260490e-05 3.337260e-05 2.197546e-05 3.039780e-05 1.851250e-05 8.612868e-06 2.601508e-05 1.344951e-05 1.787922e-05 1.911352e-05 1.494849e-05 5.305212e-05 1.597935e-04 3.432767e-04 8.082836e-03 5.532627e-03 1.143901e-02
<GCONST> -2.615414e+02
<STATE> 18
<MEAN> 42
 4.258725e-03 -5.408063e-04 -9.084067e-04 -2.357248e-03 4.665913e-03 6.494757e-04 -3.643136e-05 6.339784e-03 4.053022e-03 2.389865e-03 5.459586e-03 5.643226e-03 -1.124128e-04 -1.698798e-04 -5.854956e-05 1.407043e-04 -2.786814e-05 -1.158091e-04 -7.851920e-05 -2.213296e-04 -2.944542e-04 -2.037127e-04 -1.731930e-04 -1.909683e-04 1.201342e-05 1.373593e-05 1.280231e-06 -1.298066e-05 5.873325e-06 7.706465e-06 1.038809e-05 1.457507e-05 9.003140e-06 6.745227e-06 8.780510e-06 4.887946e-06 1.547861e-04 1.666837e-04 -2.373560e-04 3.653056e-03 -1.556443e-03 -2.156319e-03
<VARIANCE> 42
 9.246274e-04 1.631914e-03 8.083902e-04 1.033067e-03 4.521239e-04 9.617851e-04 1.135553e-03 1.370589e-03 1.679401e-03 9.381904e-04 8.713076e-04 8.161209e-04 3.953394e-05 3.269514e-05 4.108854e-05 2.587773e-05 3.249964e-05 2.741502e-05 1.249546e-05 7.374013e-05 1.517358e-05 4.065752e-05 1.633832e-05 1.329317e-05 1.472163e-05 1.046109e-05 1.526451e-05 8.783867e-06 1.253132e-05 9.354999e-06 3.365050e-06 2.601508e-05 3.926059e-06 1.211414e-05 4.771184e-06 3.860262e-06 4.146233e-06 1.395647e-05 3.942993e-05 5.815438e-04 9.663687e-04 4.895446e-04
<GCONST> -3.275434e+02
<STATE> 19
<MEAN> 42
 -3.019539e-02 -3.381471e-02 2.724707e-03 3.169058e-02 -1.656574e-02 -1.454003e-02 1.808820e-03 -3.494212e-03 -1.582793e-02 -1.830624e-02 -2.225442e-02 -1.939414e-02 -3.019821e-03 -3.010682e-03 2.589077e-07 3.037948e-03 -1.537603e-03 -1.534679e-03 6.620295e-03 7.751912e-03 5.380164e-03 1.336935e-03 -1.459766e-03 -2.558704e-03 -3.810798e-04 -1.675273e-04 2.147476e-04 2.826568e-04 -3.183257e-04 3.188782e-05 1.202467e-03 2.204032e-03 2.224075e-03 1.624536e-03 6.988343e-04 1.205819e-04 -8.424983e-04 -5.015119e-04 5.264132e-03 -1.966592e-02 -2.273262e-02 -1.716036e-03
<VARIANCE> 42
 1.588563e-03 1.585290e-03 2.914638e-03 1.000298e-03 1.841289e-03 1.683342e-03 2.625087e-03 4.088024e-03 3.552933e-03 2.023176e-03 2.497006e-03 1.433385e-03 1.204665e-04 1.034352e-04 1.791808e-04 6.778944e-05 1.241153e-04 1.124928e-04 1.049349e-04 2.485978e-04 2.370221e-04 2.664581e-04 2.023241e-04 1.460979e-04 3.717140e-05 3.542108e-05 4.757991e-05 2.469946e-05 3.385088e-05 3.296006e-05 1.831854e-05 4.206528e-05 5.325566e-05 7.680879e-05 5.345977e-05 3.625596e-05 1.434256e-05 3.177981e-05 1.260208e-04 1.234834e-03 1.314697e-03 1.718568e-03
<GCONST> -2.750158e+02
<STATE> 20
<MEAN> 42
 -3.108650e-02 -3.055432e-02 3.755150e-03 3.011392e-02 -1.651253e-02 -1.275350e-02 9.069845e-02 1.379231e-01 1.355650e-01 9.674523e-02 4.825295e-02 4.501051e-03 8.831890e-03 1.158993e-02 2.868377e-03 -1.019683e-02 3.004397e-03 7.305749e-03 9.712186e-03 2.839620e-02 4.008998e-02 4.334883e-02 3.353515e-02 2.222221e-02 6.915565e-03 5.886662e-03 -1.013633e-03 -6.411976e-03 4.068843e-03 2.434734e-03 -3.761631e-03 -7.870489e-04 5.707111e-03 1.147784e-02 1.204207e-02 1.057237e-02 2.701139e-04 -6.695208e-03 6.449412e-03 2.094223e-02 -3.179950e-02 -1.036302e-01
<VARIANCE> 42
 3.318927e-03 3.681434e-03 5.323061e-03 2.307675e-03 3.301306e-03 3.502028e-03 5.514107e-03 1.652355e-02 1.307564e-02 1.258669e-02 9.413870e-03 7.583322e-03 2.976255e-04 8.453035e-04 1.075435e-03 3.068411e-04 4.758443e-04 8.925763e-04 3.605536e-04 1.181301e-03 8.653938e-04 1.011306e-03 8.412057e-04 6.103204e-04 5.564427e-05 1.194058e-04 1.978258e-04 3.843653e-05 9.652747e-05 1.446544e-04 6.178428e-05 1.854961e-04 1.356808e-04 1.108124e-04 1.026151e-04 7.951500e-05 7.192216e-05 2.343621e-04 4.389614e-04 6.349532e-03 2.504081e-03 5.101315e-03
<GCONST> -2.247407e+02
<STATE> 21
<MEAN> 42
 7.052240e-02 2.551191e-02 -4.090360e-02 -4.946814e-02 5.789728e-02 -6.705672e-03 5.983607e-02 1.784158e-01 2.799286e-01 3.172473e-01 2.646778e-01 1.932767e-01 4.004006e-02 2.323387e-02 -1.684562e-02 -3.168155e-02 2.869175e-02 3.315707e-03 -1.984432e-02 3.000492e-04 4.366811e-02 7.820467e-02 8.090848e-02 7.036710e-02 7.894360e-03 4.244140e-03 -3.653241e-03 -6.067316e-03 5.749677e-03 3.388825e-04 -9.358156e-03 -1.093598e-02 -7.885291e-04 9.844130e-03 1.405091e-02 1.396214e-02 1.100659e-02 5.111597e-03 8.292351e-03 1.954410e-01 -9.881413e-03 -1.182757e-01
<VARIANCE> 42
 9.977246e-03 2.022828e-02 2.542121e-02 8.965472e-03 1.264761e-02 2.087599e-02 1.177164e-02 4.904804e-02 3.997627e-02 4.973163e-02 3.683518e-02 2.990877e-02 7.063255e-04 1.430921e-03 2.031477e-03 5.575946e-04 1.010245e-03 1.563226e-03 8.911067e-04 3.561969e-03 3.314992e-03 2.606429e-03 2.156127e-03 1.706283e-03 9.217310e-05 7.621778e-05 1.913747e-04 3.591664e-05 1.233191e-04 1.109651e-04 9.842176e-05 3.475716e-04 3.248309e-04 2.181800e-04 1.912810e-04 1.309098e-04 3.551168e-04 9.685750e-04 6.254706e-04 2.528848e-02 1.347260e-02 1.375507e-02
<GCONST> -1.874815e+02
<STATE> 22
<MEAN> 42
 6.605999e-02 2.042308e-02 -4.202872e-02 -4.190441e-02 5.586578e-02 -9.701669e-03 1.435958e-02 1.821793e-02 1.309257e-01 2.196656e-01 2.063745e-01 1.537695e-01 3.005606e-02 1.244838e-02 -1.760763e-02 -2.124157e-02 2.385894e-02 -2.434066e-03 -1.781118e-02 -2.118845e-02 1.451109e-02 4.042245e-02 4.830520e-02 4.510107e-02 5.314471e-03 1.430578e-03 -3.904835e-03 -3.359715e-03 4.547366e-03 -1.205972e-03 -4.894180e-03 -6.658670e-03 -1.355031e-03 3.488933e-03 5.006281e-03 5.742029e-03 1.329136e-02 6.419929e-03 1.736782e-04 1.521530e-01 7.232763e-04 -2.348842e-02
<VARIANCE> 42
 2.239517e-02 3.416619e-02 2.543763e-02 2.279783e-02 1.542466e-02 2.499193e-02 2.287717e-02 1.224017e-01 1.552530e-01 1.614395e-01 1.288949e-01 9.064373e-02 1.379026e-03 2.047766e-03 1.766122e-03 1.269788e-03 1.065582e-03 1.573879e-03 2.335430e-03 6.813253e-03 6.232416e-03 7.110524e-03 6.652146e-03 4.809347e-03 1.106950e-04 1.707610e-04 1.753641e-04 9.703955e-05 1.003270e-04 1.466794e-04 1.635642e-04 4.244972e-04 3.631661e-04 5.135434e-04 3.063302e-04 1.965290e-04 5.513051e-04 9.287249e-04 8.315303e-04 8.298774e-02 1.946593e-02 4.048467e-02
<GCONST> -1.633413e+02
<STATE> 23
<MEAN> 42
 3.703625e-01 3.653867e-01 -2.182980e-03 -3.678726e-01 1.878462e-01 1.831563e-01 -3.910780e-01 -3.189308e-01 2.079465e-01 7.957587e-01 8.682579e-01 7.669289e-01 -3.069368e-03 4.427692e-03 7.484755e-03 -6.889930e-04 -5.323981e-03 5.982323e-03 -3.768196e-02 -6.970841e-02 -6.482437e-02 -3.328329e-02 -1.898116e-02 -6.148332e-03 -9.118816e-03 -5.865386e-03 3.250275e-03 7.490469e-03 -6.203278e-03 -1.342534e-03 4.345271e-03 5.809566e-04 -9.023288e-03 -1.660062e-02 -1.787575e-02 -1.545154e-02 5.296809e-02 2.826489e-02 6.815870e-03 7.104759e-01 2.566561e-01 2.631370e-01
<VARIANCE> 42
 9.153087e-02 1.556146e-01 2.098602e-01 7.077819e-02 1.125783e-01 1.613388e-01 1.478786e-01 5.080674e-01 5.127872e-01 5.027804e-01 3.959616e-01 2.891863e-01 6.036166e-03 7.616756e-03 5.902403e-03 5.350526e-03 4.073318e-03 5.256451e-03 4.236387e-03 8.691379e-03 1.767063e-02 3.470892e-02 3.046339e-02 2.109805e-02 5.543631e-04 8.390759e-04 8.113649e-04 4.938364e-04 4.737786e-04 6.872729e-04 4.712281e-04 1.128358e-03 2.233106e-03 4.130057e-03 2.858991e-03 1.764053e-03 1.549270e-03 2.172523e-03 1.438282e-03 2.188187e-01 1.320557e-01 2.009529e-01
<GCONST> -1.042293e+02
<STATE> 24
<MEAN> 42
 9.109589e-02 8.748306e-02 5.646646e-04 -9.025364e-02 5.136739e-02 4.346660e-02 -4.603530e-01 -8.708802e-01 -6.711611e-01 -1.228318e-01 7.343596e-02 2.165902e-01 -3.006016e-02 -2.320084e-02 6.912427e-03 2.666248e-02 -1.856550e-02 -8.271161e-03 2.453647e-02 2.284647e-02 -1.959745e-02 -5.873014e-02 -6.094816e-02 -5.213042e-02 6.588410e-03 2.403542e-03 -4.170531e-03 -4.505702e-03 5.389865e-03 -8.640448e-04 3.003021e-03 1.173043e-02 1.610694e-02 1.303502e-02 1.216999e-02 8.243471e-03 1.951132e-02 2.063092e-02 1.140866e-02 1.062759e-01 1.344777e-01 5.865939e-01
<VARIANCE> 42
 5.101991e-02 4.348674e-02 6.897478e-02 3.057157e-02 5.172580e-02 4.393265e-02 7.378989e-02 4.893568e-01 4.248502e-01 2.170135e-01 1.313838e-01 1.086709e-01 1.725076e-03 9.261920e-04 1.492253e-03 9.547410e-04 1.383472e-03 7.806394e-04 2.050097e-03 5.735860e-03 7.621993e-03 9.819277e-03 6.927152e-03 4.698645e-03 2.004250e-04 1.347493e-04 2.417912e-04 1.075988e-04 1.884219e-04 1.381397e-04 1.307089e-04 2.694447e-04 6.361890e-04 9.717821e-04 7.098717e-04 4.183130e-04 1.152665e-03 2.460802e-03 1.097783e-03 7.839874e-02 4.214418e-02 1.963268e-01
<GCONST> -1.486250e+02
<STATE> 25
<MEAN> 42
 -5.813076e-02 -4.116761e-02 1.962820e-02 4.891684e-02 -3.700133e-02 -1.051223e-02 -2.190678e-01 -4.124431e-01 -4.019333e-01 -2.533861e-01 -1.676617e-01 -8.557972e-02 8.945505e-05 -3.855844e-03 -3.944471e-03 1.863439e-03 2.014888e-03 -3.905307e-03 2.785644e-02 5.602023e-02 5.234215e-02 2.387949e-02 1.040799e-02 -2.031407e-03 3.000217e-03 4.041275e-03 1.044143e-03 -3.514777e-03 9.938484e-04 2.554443e-03 -5.108046e-04 4.229395e-04 4.844113e-03 9.747482e-03 9.961945e-03 8.877622e-03 1.911553e-03 1.934239e-02 1.291916e-02 -1.046978e-01 9.227034e-03 2.689211e-01
<VARIANCE> 42
 1.897001e-02 3.514554e-02 2.884286e-02 1.984707e-02 1.631229e-02 2.751445e-02 1.354235e-02 5.390543e-02 8.402851e-02 4.992700e-02 4.892806e-02 6.040712e-02 3.899322e-04 7.360304e-04 8.547236e-04 3.490564e-04 4.406560e-04 7.080252e-04 5.342104e-04 1.546819e-03 1.962216e-03 1.505366e-03 1.132231e-03 1.033718e-03 7.421736e-05 7.694685e-05 9.203083e-05 5.268025e-05 6.475427e-05 6.691983e-05 5.636063e-05 1.300856e-04 2.694747e-04 4.037472e-04 2.830243e-04 1.981294e-04 4.220237e-04 9.223455e-04 1.144678e-03 3.166182e-02 2.502239e-02 2.064773e-02
<GCONST> -1.906793e+02
<STATE> 26
<MEAN> 42
 -1.885955e-02 9.115957e-03 3.112873e-02 7.620653e-03 -2.490165e-02 1.535568e-02 -1.130722e-02 -2.065669e-02 1.921531e-02 -1.411051e-02 -1.427665e-02 -2.067260e-02 3.062901e-03 1.804554e-03 -1.255760e-03 -2.429706e-03 2.182909e-03 3.030032e-04 7.528484e-03 1.544003e-02 1.707735e-02 1.083485e-02 7.781324e-03 4.376261e-03 -3.604024e-04 -8.701184e-05 2.657470e-04 2.225792e-04 -3.058933e-04 9.434392e-05 -1.515745e-03 -2.964239e-03 -3.061043e-03 -1.969249e-03 -1.313407e-03 -6.239568e-04 -3.199354e-05 9.339610e-04 4.550868e-03 -7.897729e-03 8.810968e-03 2.651978e-03
<VARIANCE> 42
 2.326044e-03 2.820229e-03 4.089619e-03 1.611968e-03 2.533746e-03 3.368507e-03 3.539226e-03 1.512338e-02 2.069543e-02 9.478454e-03 6.172130e-03 3.898062e-03 1.148847e-04 1.642952e-04 1.947037e-04 9.089261e-05 1.139355e-04 1.515881e-04 1.596792e-04 4.871970e-04 5.553993e-04 4.674701e-04 2.750379e-04 1.875828e-04 2.741628e-05 4.118276e-05 5.070951e-05 2.163232e-05 2.891239e-05 3.906630e-05 2.049619e-05 4.125294e-05 8.958144e-05 1.223202e-04 6.011840e-05 3.437033e-05 2.438472e-05 7.388341e-05 2.681258e-04 3.636995e-03 2.188401e-03 5.857486e-03
<GCONST> -2.554659e+02
<STATE> 27
<MEAN> 42
 7.692879e-02 1.152694e-01 4.189917e-02 -9.196739e-02 1.730887e-02 7.430178e-02 -1.338186e-02 2.123825e-01 3.289127e-01 2.518623e-01 1.724539e-01 1.006623e-01 -4.181950e-04 7.013889e-04 1.107514e-03 -1.337043e-04 -7.182461e-04 9.269102e-04 1.793240e-03 1.192195e-03 4.060188e-05 -6.607858e-04 -8.671154e-04 -2.501726e-04 1.400626e-04 -2.471919e-04 -3.953736e-04 5.794380e-05 2.676122e-04 -3.183752e-04 -5.493837e-04 -1.009473e-03 -1.089975e-03 -8.349365e-04 -5.973190e-04 -2.911271e-04 3.917215e-03 -4.845126e-04 -1.300245e-02 1.564860e-01 5.147966e-02 -1.257476e-01
<VARIANCE> 42
 5.404842e-03 1.754763e-02 1.197100e-02 8.783714e-03 4.214302e-03 1.549862e-02 1.008213e-02 6.690697e-02 4.853883e-02 3.462903e-02 1.855013e-02 1.209009e-02 7.712958e-05 8.411830e-05 9.386248e-05 5.742846e-05 6.425089e-05 7.053912e-05 8.740831e-05 2.034929e-04 2.621090e-04 3.957489e-04 3.019322e-04 1.344545e-04 1.940738e-05 1.373572e-05 1.740695e-05 1.224895e-05 1.505873e-05 1.093195e-05 5.929771e-06 2.601508e-05 1.165306e-05 1.900560e-05 1.514147e-05 9.561826e-06 1.794292e-04 1.583764e-04 3.145431e-04 1.549992e-02 1.365917e-02 2.410816e-02
<GCONST> -2.529578e+02
<STATE> 28
<MEAN> 42
 5.745905e-03 1.389171e-02 9.867824e-03 -1.233424e-02 2.062260e-03 1.481961e-02 2.015008e-02 3.347748e-02 4.141463e-02 2.180703e-02 1.435758e-02 8.895633e-03 -1.005133e-04 -2.905372e-04 -1.925876e-04 1.951933e-04 4.593970e-05 -2.373563e-04 1.726599e-04 5.512420e-05 -8.269871e-05 -1.740408e-04 -1.614261e-04 -1.504082e-04 1.813086e-05 -1.765410e-05 -3.548112e-05 -7.019007e-07 2.607592e-05 -2.689471e-05 4.441354e-07 8.284449e-06 1.559277e-05 1.961112e-05 -3.050263e-06 -8.259783e-06 5.104985e-04 -1.712950e-03 2.222077e-06 1.006152e-02 7.676033e-03 -2.326049e-02
<VARIANCE> 42
 1.507570e-03 2.733369e-03 2.135569e-03 1.630123e-03 1.012957e-03 2.113446e-03 5.643691e-03 7.965417e-03 7.690538e-03 4.174107e-03 3.053445e-03 2.464446e-03 9.035524e-05 5.096305e-05 8.793608e-05 4.888036e-05 7.748375e-05 4.646268e-05 2.724013e-05 7.374013e-05 4.130077e-05 4.618669e-05 4.106238e-05 2.927555e-05 3.522709e-05 1.756614e-05 3.247601e-05 1.836576e-05 2.991655e-05 1.604319e-05 7.175700e-06 2.601508e-05 1.005867e-05 1.370543e-05 1.172986e-05 9.099061e-06 1.440312e-05 5.786659e-05 8.242075e-05 1.891832e-03 1.693564e-03 3.555663e-03
<GCONST> -2.920980e+02
<STATE> 29
<MEAN> 42
 2.076343e-01 2.273702e-01 2.308024e-02 -2.187085e-01 9.718312e-02 1.291735e-01 -3.163562e-01 -3.674399e-01 -9.074558e-02 3.110781e-01 3.976864e-01 4.115178e-01 2.049551e-03 4.638571e-03 2.585311e-03 -3.342250e-03 -2.639485e-04 3.655939e-03 -6.800947e-03 -9.307968e-03 -8.090154e-03 -3.855319e-03 -1.172841e-03 2.056670e-03 -1.386456e-04 -1.643632e-04 -2.725689e-05 1.511528e-04 -6.022189e-05 -9.498661e-05 8.212808e-04 1.196141e-03 7.899173e-04 5.301900e-04 3.747454e-04 7.375993e-05 3.378549e-02 7.210628e-03 1.733095e-03 3.473918e-01 1.823263e-01 2.831535e-01
<VARIANCE> 42
 8.819299e-02 1.369334e-01 1.291120e-01 8.009863e-02 7.595091e-02 1.125768e-01 1.362772e-01 4.808324e-01 5.730220e-01 5.176559e-01 4.531201e-01 3.587997e-01 3.557750e-03 5.862863e-03 4.206142e-03 3.659765e-03 2.423540e-03 4.153156e-03 3.394777e-03 8.622000e-03 1.508825e-02 2.643659e-02 2.047980e-02 1.407362e-02 4.239048e-04 7.358643e-04 5.968603e-04 4.308554e-04 3.268706e-04 5.619997e-04 2.837550e-04 7.273290e-04 1.659458e-03 3.496719e-03 2.159317e-03 1.330164e-03 1.353447e-03 1.625521e-03 9.094074e-04 2.688467e-01 9.544650e-02 2.145758e-01
<GCONST> -1.132062e+02
<STATE> 30
<MEAN> 42
 9.467427e-03 3.162975e-02 2.506563e-02 -2.125294e-02 -4.822288e-03 3.161925e-02 -6.152690e-02 -8.649238e-02 -7.734604e-02 -3.999045e-02 -1.098754e-02 1.994485e-02 -4.517683e-03 -7.644102e-03 -3.094212e-03 6.063236e-03 -7.683417e-04 -5.431108e-03 1.645154e-02 2.398323e-02 2.214981e-02 1.165859e-02 4.734020e-03 -2.672910e-03 2.767986e-04 1.803246e-04 -6.539648e-05 -2.192518e-04 1.890744e-04 3.767372e-05 -2.716382e-03 -3.659007e-03 -2.501656e-03 -1.996577e-03 -1.576273e-03 -7.045111e-04 9.925081e-04 4.232950e-03 2.620053e-03 7.128045e-04 3.362837e-02 6.743322e-02
<VARIANCE> 42
 4.715576e-03 8.789997e-03 9.177935e-03 4.415789e-03 5.154957e-03 7.958310e-03 7.741637e-03 1.625431e-02 2.075533e-02 1.026712e-02 1.107005e-02 1.645026e-02 2.939802e-04 4.481057e-04 5.923117e-04 2.236323e-04 3.337736e-04 4.474554e-04 3.346012e-04 6.709431e-04 9.361433e-04 9.388358e-04 5.133883e-04 4.857537e-04 3.231599e-05 7.021699e-05 7.155802e-05 3.341660e-05 3.452986e-05 6.348852e-05 2.699024e-05 5.132426e-05 1.569675e-04 2.396811e-04 9.867913e-05 7.003354e-05 5.112630e-05 2.062783e-04 3.619531e-04 6.480499e-03 7.021040e-03 8.623614e-03
<GCONST> -2.280345e+02
<STATE> 31
<MEAN> 42
 -7.756570e-03 1.150583e-02 1.837796e-02 -3.690310e-03 -9.700829e-03 1.834875e-02 7.809722e-02 1.497836e-01 1.282706e-01 7.774992e-02 4.294849e-02 1.530538e-02 4.255120e-04 9.448091e-05 -3.272772e-04 -2.578099e-04 3.829000e-04 -1.151302e-04 2.844125e-04 7.883357e-04 7.590138e-04 4.685967e-04 3.550762e-04 1.964660e-04 7.836594e-06 7.434880e-05 6.448181e-05 -4.023162e-05 -2.695352e-05 6.991013e-05 -9.447205e-05 -1.645585e-04 -1.722784e-04 -8.501492e-05 -1.946234e-05 1.819475e-05 4.238075e-04 -6.554189e-03 -4.245506e-04 2.100137e-02 7.604435e-04 -9.575195e-02
<VARIANCE> 42
 2.395996e-03 3.685335e-03 3.154456e-03 2.206818e-03 1.687247e-03 2.813121e-03 5.696483e-03 1.296556e-02 1.036209e-02 9.221214e-03 7.554817e-03 6.963073e-03 8.564800e-05 4.563327e-05 8.895595e-05 4.385591e-05 7.672913e-05 4.517515e-05 2.571042e-05 7.374013e-05 4.715598e-05 4.674521e-05 4.306764e-05 2.983828e-05 3.578717e-05 1.751168e-05 3.681143e-05 1.766323e-05 3.230587e-05 1.795356e-05 5.435725e-06 2.601508e-05 8.853030e-06 1.292468e-05 1.230943e-05 8.742541e-06 2.854555e-05 8.651071e-05 1.991800e-04 4.565531e-03 2.363975e-03 5.049016e-03
<GCONST> -2.830939e+02
<STATE> 32
<MEAN> 42
 3.069246e-03 -1.788911e-03 -3.187090e-03 -1.951455e-03 5.036668e-03 -9.699853e-05 1.862379e-03 4.038007e-03 2.409053e-03 -2.679189e-03 -1.549901e-03 1.875797e-03 1.388472e-04 8.884986e-05 -5.157437e-05 -1.141560e-04 9.476943e-05 1.599705e-05 3.224527e-05 1.932270e-04 2.421607e-04 1.206375e-04 1.238605e-04 9.676423e-05 1.352877e-05 2.844769e-05 1.543920e-05 -2.106824e-05 -8.480606e-07 2.089249e-05 -3.201858e-06 1.022181e-05 2.115051e-05 2.735902e-05 2.679375e-05 1.831643e-05 8.678828e-05 -4.419027e-05 8.818854e-04 -4.539589e-04 -2.423974e-03 -2.099703e-03
<VARIANCE> 42
 7.322626e-04 7.057994e-04 6.064323e-04 5.785569e-04 5.062309e-04 4.467734e-04 6.449643e-04 1.370589e-03 1.184175e-03 7.144678e-04 5.065348e-04 4.050233e-04 5.593707e-05 3.292093e-05 5.386360e-05 3.126971e-05 4.707490e-05 2.946418e-05 1.098822e-05 7.374013e-05 1.392209e-05 4.065752e-05 1.456058e-05 1.159729e-05 2.298099e-05 1.318809e-05 2.187033e-05 1.272772e-05 1.928475e-05 1.181717e-05 4.045285e-06 2.601508e-05 4.598204e-06 1.211414e-05 5.130114e-06 4.044331e-06 3.619148e-06 1.153070e-05 4.170512e-05 2.903678e-04 4.099259e-04 3.148208e-04
<GCONST> -3.315069e+02
<STATE> 33
<MEAN> 42
 7.483360e-02 6.769978e-02 -2.093668e-03 -7.161317e-02 4.066430e-02 3.462515e-02 3.012097e-04 1.741890e-01 2.523374e-01 1.746851e-01 1.385117e-01 9.147616e-02 1.307698e-04 3.349033e-04 2.034537e-04 -2.330091e-04 -3.850370e-05 2.695367e-04 -3.155626e-04 -3.856063e-04 -3.211967e-04 1.359353e-04 1.585794e-04 2.179041e-04 -9.532799e-05 -1.762039e-04 -8.292510e-05 1.352625e-04 -4.715686e-06 -1.285576e-04 -7.796550e-06 -1.366664e-04 -2.465201e-04 -1.862286e-04 -1.484705e-04 -1.195296e-04 7.774850e-03 -5.240685e-03 4.977576e-03 1.200434e-01 1.924897e-02 -1.010984e-01
<VARIANCE> 42
 3.377390e-03 9.381426e-03 4.575584e-03 5.045026e-03 1.700175e-03 6.098051e-03 5.596540e-03 4.314565e-02 4.623976e-02 2.406508e-02 1.336927e-02 8.381778e-03 4.411038e-05 5.912027e-05 3.865209e-05 4.202945e-05 2.665766e-05 3.813320e-05 2.220220e-05 9.125382e-05 1.312747e-04 9.244378e-05 5.341250e-05 3.333903e-05 1.090630e-05 1.252012e-05 1.095540e-05 9.001664e-06 7.769338e-06 9.094335e-06 2.697081e-06 2.601508e-05 4.156752e-06 1.211414e-05 4.305927e-06 3.554050e-06 8.471935e-05 3.095576e-04 1.554146e-04 9.293295e-03 6.405507e-03 1.558509e-02
<GCONST> -2.798872e+02
<STATE> 34
<MEAN> 42
 -2.508051e-03 4.485052e-04 5.015990e-03 9.182927e-04 -3.303338e-03 3.668213e-03 -8.175231e-04 1.638967e-02 -9.082898e-03 -4.340280e-03 -1.370063e-03 -5.791331e-03 -2.102180e-04 -1.702613e-04 4.224141e-05 1.910238e-04 -1.302856e-04 -6.734535e-05 8.395855e-05 -1.018149e-04 -3.852797e-04 -2.852060e-04 -3.053905e-04 -1.877834e-04 2.106570e-05 3.158626e-05 1.046216e-05 -2.562183e-05 3.040764e-06 2.148695e-05 5.273451e-06 4.803105e-05 6.185030e-05 4.886398e-05 2.753440e-05 2.610290e-05 -6.012774e-05 -1.837001e-04 3.806424e-04 -5.029639e-03 1.333276e-03 -3.096006e-03
<VARIANCE> 42
 4.716813e-04 9.567444e-04 5.399556e-04 5.892654e-04 2.674963e-04 6.235462e-04 1.954648e-03 1.575953e-03 2.038732e-03 1.252940e-03 1.703821e-03 1.419874e-03 1.688276e-05 1.604906e-05 1.392802e-05 1.305596e-05 1.167015e-05 1.088487e-05 6.712273e-06 7.374013e-05 1.170032e-05 4.065752e-05 1.131955e-05 8.494042e-06 5.793794e-06 4.784436e-06 4.707539e-06 4.128259e-06 4.161947e-06 3.310773e-06 1.513988e-06 2.601508e-05 2.434083e-06 1.211414e-05 2.530260e-06 1.993515e-06 6.550980e-06 1.070591e-05 3.381510e-05 1.029679e-03 5.560552e-04 6.387464e-04
<GCONST> -3.432917e+02
<STATE> 35
<MEAN> 42
 5.482052e-03 -1.018900e-02 -9.443777e-03 4.622446e-03 9.629139e-03 -8.708574e-03 7.022953e-02 1.242312e-01 2.413343e-02 -4.765391e-02 -5.208256e-02 -3.459648e-02 -7.015051e-04 -1.715482e-03 -1.018227e-03 1.212728e-03 1.550340e-04 -1.371087e-03 1.573078e-03 1.075569e-03 6.894883e-05 -8.639207e-04 -1.149301e-03 -1.436519e-03 -1.177697e-04 -1.761141e-04 -5.624640e-05 1.456701e-04 -2.782942e-05 -1.215920e-04 2.331731e-04 3.955110e-04 3.759915e-04 1.314110e-04 -2.172899e-06 -7.774526e-05 -4.730757e-03 2.698862e-03 4.645487e-03 -4.753875e-02 -1.394517e-02 -6.504851e-02
<VARIANCE> 42
 8.627540e-04 3.655256e-03 2.408599e-03 1.555531e-03 7.693302e-04 2.470948e-03 1.194990e-02 5.311398e-02 1.661113e-02 4.684273e-03 5.676863e-03 4.351341e-03 5.505330e-05 6.517088e-05 7.024383e-05 4.264036e-05 4.684080e-05 5.395976e-05 5.743376e-05 8.030633e-05 6.748048e-05 7.789033e-05 5.670504e-05 3.922227e-05 1.933492e-05 1.779610e-05 1.794414e-05 1.418801e-05 1.431893e-05 1.303606e-05 8.313656e-06 2.601508e-05 2.039382e-05 2.601236e-05 1.658716e-05 1.035526e-05 5.688476e-05 2.779676e-05 6.268111e-05 3.751908e-03 3.310924e-03 1.596649e-02
<GCONST> -2.833820e+02
<STATE> 36
<MEAN> 42
 -2.665813e-02 -3.353701e-02 -2.856120e-03 3.209861e-02 -1.194119e-02 -1.667507e-02 7.062653e-02 9.533677e-02 7.984715e-02 5.427735e-02 2.672632e-02 -3.712399e-03 1.114141e-03 1.803049e-03 6.712988e-04 -1.463601e-03 3.034772e-04 1.238033e-03 8.038439e-03 1.516505e-02 2.024635e-02 1.824323e-02 1.207770e-02 7.539371e-03 1.207748e-03 2.333953e-03 1.127640e-03 -1.778949e-03 7.580066e-05 1.768640e-03 -3.800406e-04 5.784254e-04 2.949481e-03 4.857374e-03 4.595053e-03 3.884891e-03 -2.456601e-04 -4.991104e-03 8.302121e-03 4.920884e-03 -3.022199e-02 -7.172752e-02
<VARIANCE> 42
 3.012492e-03 7.271497e-03 6.550508e-03 3.596032e-03 2.913176e-03 6.053915e-03 1.025809e-02 3.316198e-02 3.712399e-02 1.643929e-02 1.105342e-02 6.857295e-03 1.953771e-04 3.934981e-04 4.562844e-04 1.798396e-04 2.286442e-04 3.756031e-04 2.416273e-04 1.008494e-03 8.497799e-04 7.266618e-04 5.119391e-04 4.365650e-04 4.755425e-05 7.534803e-05 9.055209e-05 3.871342e-05 5.050321e-05 7.175903e-05 3.770519e-05 9.942815e-05 1.188496e-04 1.357369e-04 9.268924e-05 7.160823e-05 4.496217e-05 1.963939e-04 2.795452e-04 6.244327e-03 5.874878e-03 1.618937e-02
<GCONST> -2.294111e+02
<STATE> 37
<MEAN> 42
 1.676566e-01 1.910106e-01 2.703525e-02 -1.772534e-01 7.193696e-02 1.117672e-01 -2.395573e-01 -2.765703e-01 1.575198e-02 3.479672e-01 4.056612e-01 3.917233e-01 -9.058701e-04 6.508990e-04 1.569266e-03 1.337518e-04 -1.251494e-03 1.109394e-03 -6.631372e-03 -1.240710e-02 -1.280879e-02 -7.811090e-03 -4.294256e-03 -1.563119e-03 -3.197107e-04 -5.074125e-04 -1.902146e-04 4.143883e-04 -6.862738e-05 -3.456437e-04 5.833293e-04 8.994688e-04 1.892610e-04 -6.949153e-04 -7.979999e-04 -9.028139e-04 3.070085e-02 1.068199e-02 5.744397e-03 3.411638e-01 1.490785e-01 2.025873e-01
<VARIANCE> 42
 7.361881e-02 2.041205e-01 2.075491e-01 8.785529e-02 9.046144e-02 1.881441e-01 1.332353e-01 3.940810e-01 4.763159e-01 5.439346e-01 5.276033e-01 4.529050e-01 2.571880e-03 4.495851e-03 3.220030e-03 2.729918e-03 1.777009e-03 3.225401e-03 2.659487e-03 7.120956e-03 1.253305e-02 1.888219e-02 1.555864e-02 1.107436e-02 2.861159e-04 4.741930e-04 3.986513e-04 2.804964e-04 2.246807e-04 3.651084e-04 2.217498e-04 6.650243e-04 1.427202e-03 2.110481e-03 1.422841e-03 9.174505e-04 1.684730e-03 1.497989e-03 1.419160e-03 3.153006e-01 1.630661e-01 1.849534e-01
<GCONST> -1.180125e+02
<STATE> 38
<MEAN> 42
 -1.372790e-02 4.399683e-03 2.545661e-02 7.656343e-03 -1.956750e-02 1.539317e-02 1.206927e-02 5.063557e-02 6.911647e-03 -3.266606e-02 -7.931093e-02 -1.217661e-01 1.649416e-03 1.299549e-03 -3.641448e-04 -1.483985e-03 1.025826e-03 4.824689e-04 4.163862e-03 8.819463e-03 1.082176e-02 7.098485e-03 4.440285e-03 1.972665e-03 1.061613e-04 3.072140e-04 2.040990e-04 -2.061651e-04 -5.027897e-05 2.574123e-04 -6.628864e-04 -1.310473e-03 -9.303270e-04 -3.021706e-04 -6.046105e-05 2.377676e-04 -4.753724e-03 7.515404e-03 8.562730e-03 -5.728886e-02 -2.365818e-03 -3.546931e-02
<VARIANCE> 42
 6.410980e-03 2.119569e-02 8.735158e-03 1.148059e-02 2.209865e-03 1.396712e-02 1.241697e-02 2.413310e-02 9.497263e-02 1.153651e-01 1.106083e-01 7.462036e-02 8.133905e-05 1.331513e-04 1.647347e-04 6.669317e-05 9.063751e-05 1.291118e-04 1.664409e-04 5.107010e-04 6.765639e-04 4.683091e-04 3.022688e-04 2.368274e-04 1.320707e-05 2.114810e-05 2.409912e-05 1.132082e-05 1.359605e-05 1.946708e-05 1.320907e-05 3.046376e-05 5.838090e-05 7.343975e-05 4.200969e-05 2.818604e-05 1.635994e-04 2.259805e-04 4.404993e-04 6.958584e-02 1.067340e-02 1.118323e-02
<GCONST> -2.354270e+02
<STATE> 39
<MEAN> 42
 1.217416e-02 1.583849e-02 8.340079e-03 -1.527125e-02 3.782674e-03 1.358185e-02 1.977350e-02 6.807302e-02 8.334011e-02 5.824063e-02 4.535027e-02 3.477200e-02 6.922806e-05 4.431229e-06 -6.580956e-05 -3.792686e-05 6.590072e-05 -2.864237e-05 9.980332e-05 3.006916e-04 4.098491e-04 2.676860e-04 2.171586e-04 8.485551e-05 1.689026e-06 1.895920e-05 1.772663e-05 -1.112656e-05 -7.948616e-06 1.748090e-05 -3.537235e-05 -4.955738e-05 -3.793494e-05 1.420262e-05 3.336199e-05 3.270262e-05 2.151965e-03 -2.338924e-03 9.752786e-04 3.450791e-02 4.531960e-03 -4.166859e-02
<VARIANCE> 42
 2.377801e-03 3.838545e-03 2.346707e-03 2.433964e-03 1.255696e-03 2.490060e-03 4.175325e-03 1.114173e-02 1.529526e-02 9.849604e-03 7.080492e-03 6.327624e-03 5.221855e-05 4.253495e-05 5.367574e-05 3.399578e-05 4.265428e-05 3.531337e-05 1.789384e-05 7.374013e-05 4.006824e-05 4.065752e-05 3.483923e-05 2.463529e-05 2.037956e-05 1.523470e-05 1.888743e-05 1.310395e-05 1.593226e-05 1.203579e-05 4.450851e-06 2.601508e-05 6.367950e-06 1.211414e-05 8.380447e-06 6.021559e-06 3.959911e-05 6.725285e-05 1.240464e-04 5.238392e-03 2.042895e-03 4.484725e-03
<GCONST> -2.917219e+02
<TRANSP> 40
 0.000000e+00 1.000000e+00 0.000000e+00 0.000000e+00 0.000000e+00 0.000000e+00 0.000000e+00 0.000000e+00 0.000000e+00 0.000000e+00 0.000000e+00 0.000000e+00 0.000000e+00 0.000000e+00 0.000000e+00 0.000000e+00 0.000000e+00 0.000000e+00 0.000000e+00 0.000000e+00 0.000000e+00 0.000000e+00 0.000000e+00 0.000000e+00 0.000000e+00 0.000000e+00 0.000000e+00 0.000000e+00 0.000000e+00 0.000000e+00 0.000000e+00 0.000000e+00 0.000000e+00 0.000000e+00 0.000000e+00 0.000000e+00 0.000000e+00 0.000000e+00 0.000000e+00 0.000000e+00
 0.000000e+00 9.924527e-01 7.547287e-03 0.000000e+00 0.000000e+00 0.000000e+00 0.000000e+00 0.000000e+00 0.000000e+00 0.000000e+00 0.000000e+00 0.000000e+00 0.000000e+00 0.000000e+00 0.000000e+00 0.000000e+00 0.000000e+00 0.000000e+00 0.000000e+00 0.000000e+00 0.000000e+00 0.000000e+00 0.000000e+00 0.000000e+00 0.000000e+00 0.000000e+00 0.000000e+00 0.000000e+00 0.000000e+00 0.000000e+00 0.000000e+00 0.000000e+00 0.000000e+00 0.000000e+00 0.000000e+00 0.000000e+00 0.000000e+00 0.000000e+00 0.000000e+00 0.000000e+00
 0.000000e+00 0.000000e+00 9.982798e-01 1.720194e-03 0.000000e+00 0.000000e+00 0.000000e+00 0.000000e+00 0.000000e+00 0.000000e+00 0.000000e+00 0.000000e+00 0.000000e+00 0.000000e+00 0.000000e+00 0.000000e+00 0.000000e+00 0.000000e+00 0.000000e+00 0.000000e+00 0.000000e+00 0.000000e+00 0.000000e+00 0.000000e+00 0.000000e+00 0.000000e+00 0.000000e+00 0.000000e+00 0.000000e+00 0.000000e+00 0.000000e+00 0.000000e+00 0.000000e+00 0.000000e+00 0.000000e+00 0.000000e+00 0.000000e+00 0.000000e+00 0.000000e+00 0.000000e+00
 0.000000e+00 0.000000e+00 0.000000e+00 9.995810e-01 4.189730e-04 0.000000e+00 0.000000e+00 0.000000e+00 0.000000e+00 0.000000e+00 0.000000e+00 0.000000e+00 0.000000e+00 0.000000e+00 0.000000e+00 0.000000e+00 0.000000e+00 0.000000e+00 0.000000e+00 0.000000e+00 0.000000e+00 0.000000e+00 0.000000e+00 0.000000e+00 0.000000e+00 0.000000e+00 0.000000e+00 0.000000e+00 0.000000e+00 0.000000e+00 0.000000e+00 0.000000e+00 0.000000e+00 0.000000e+00 0.000000e+00 0.000000e+00 0.000000e+00 0.000000e+00 0.000000e+00 0.000000e+00
 0.000000e+00 0.000000e+00 0.000000e+00 0.000000e+00 9.884273e-01 1.157274e-02 0.000000e+00 0.000000e+00 0.000000e+00 0.000000e+00 0.000000e+00 0.000000e+00 0.000000e+00 0.000000e+00 0.000000e+00 0.000000e+00 0.000000e+00 0.000000e+00 0.000000e+00 0.000000e+00 0.000000e+00 0.000000e+00 0.000000e+00 0.000000e+00 0.000000e+00 0.000000e+00 0.000000e+00 0.000000e+00 0.000000e+00 0.000000e+00 0.000000e+00 0.000000e+00 0.000000e+00 0.000000e+00 0.000000e+00 0.000000e+00 0.000000e+00 0.000000e+00 0.000000e+00 0.000000e+00
 0.000000e+00 0.000000e+00 0.000000e+00 0.000000e+00 0.000000e+00 9.653545e-01 3.464549e-02 0.000000e+00 0.000000e+00 0.000000e+00 0.000000e+00 0.000000e+00 0.000000e+00 0.000000e+00 0.000000e+00 0.000000e+00 0.000000e+00 0.000000e+00 0.000000e+00 0.000000e+00 0.000000e+00 0.000000e+00 0.000000e+00 0.000000e+00 0.000000e+00 0.000000e+00 0.000000e+00 0.000000e+00 0.000000e+00 0.000000e+00 0.000000e+00 0.000000e+00 0.000000e+00 0.000000e+00 0.000000e+00 0.000000e+00 0.000000e+00 0.000000e+00 0.000000e+00 0.000000e+00
 0.000000e+00 0.000000e+00 0.000000e+00 0.000000e+00 0.000000e+00 0.000000e+00 9.919943e-01 8.005651e-03 0.000000e+00 0.000000e+00 0.000000e+00 0.000000e+00 0.000000e+00 0.000000e+00 0.000000e+00 0.000000e+00 0.000000e+00 0.000000e+00 0.000000e+00 0.000000e+00 0.000000e+00 0.000000e+00 0.000000e+00 0.000000e+00 0.000000e+00 0.000000e+00 0.000000e+00 0.000000e+00 0.000000e+00 0.000000e+00 0.000000e+00 0.000000e+00 0.000000e+00 0.000000e+00 0.000000e+00 0.000000e+00 0.000000e+00 0.000000e+00 0.000000e+00 0.000000e+00
 0.000000e+00 0.000000e+00 0.000000e+00 0.000000e+00 0.000000e+00 0.000000e+00 0.000000e+00 8.005926e-01 1.994074e-01 0.000000e+00 0.000000e+00 0.000000e+00 0.000000e+00 0.000000e+00 0.000000e+00 0.000000e+00 0.000000e+00 0.000000e+00 0.000000e+00 0.000000e+00 0.000000e+00 0.000000e+00 0.000000e+00 0.000000e+00 0.000000e+00 0.000000e+00 0.000000e+00 0.000000e+00 0.000000e+00 0.000000e+00 0.000000e+00 0.000000e+00 0.000000e+00 0.000000e+00 0.000000e+00 0.000000e+00 0.000000e+00 0.000000e+00 0.000000e+00 0.000000e+00
 0.000000e+00 0.000000e+00 0.000000e+00 0.000000e+00 0.000000e+00 0.000000e+00 0.000000e+00 0.000000e+00 9.428927e-01 5.710725e-02 0.000000e+00 0.000000e+00 0.000000e+00 0.000000e+00 0.000000e+00 0.000000e+00 0.000000e+00 0.000000e+00 0.000000e+00 0.000000e+00 0.000000e+00 0.000000e+00 0.000000e+00 0.000000e+00 0.000000e+00 0.000000e+00 0.000000e+00 0.000000e+00 0.000000e+00 0.000000e+00 0.000000e+00 0.000000e+00 0.000000e+00 0.000000e+00 0.000000e+00 0.000000e+00 0.000000e+00 0.000000e+00 0.000000e+00 0.000000e+00
 0.000000e+00 0.000000e+00 0.000000e+00 0.000000e+00 0.000000e+00 0.000000e+00 0.000000e+00 0.000000e+00 0.000000e+00 7.602747e-01 2.397253e-01 0.000000e+00 0.000000e+00 0.000000e+00 0.000000e+00 0.000000e+00 0.000000e+00 0.000000e+00 0.000000e+00 0.000000e+00 0.000000e+00 0.000000e+00 0.000000e+00 0.000000e+00 0.000000e+00 0.000000e+00 0.000000e+00 0.000000e+00 0.000000e+00 0.000000e+00 0.000000e+00 0.000000e+00 0.000000e+00 0.000000e+00 0.000000e+00 0.000000e+00 0.000000e+00 0.000000e+00 0.000000e+00 0.000000e+00
 0.000000e+00 0.000000e+00 0.000000e+00 0.000000e+00 0.000000e+00 0.000000e+00 0.000000e+00 0.000000e+00 0.000000e+00 0.000000e+00 7.869774e-01 2.130226e-01 0.000000e+00 0.000000e+00 0.000000e+00 0.000000e+00 0.000000e+00 0.000000e+00 0.000000e+00 0.000000e+00 0.000000e+00 0.000000e+00 0.000000e+00 0.000000e+00 0.000000e+00 0.000000e+00 0.000000e+00 0.000000e+00 0.000000e+00 0.000000e+00 0.000000e+00 0.000000e+00 0.000000e+00 0.000000e+00 0.000000e+00 0.000000e+00 0.000000e+00 0.000000e+00 0.000000e+00 0.000000e+00
 0.000000e+00 0.000000e+00 0.000000e+00 0.000000e+00 0.000000e+00 0.000000e+00 0.000000e+00 0.000000e+00 0.000000e+00 0.000000e+00 0.000000e+00 9.278627e-01 7.213733e-02 0.000000e+00 0.000000e+00 0.000000e+00 0.000000e+00 0.000000e+00 0.000000e+00 0.000000e+00 0.000000e+00 0.000000e+00 0.000000e+00 0.000000e+00 0.000000e+00 0.000000e+00 0.000000e+00 0.000000e+00 0.000000e+00 0.000000e+00 0.000000e+00 0.000000e+00 0.000000e+00 0.000000e+00 0.000000e+00 0.000000e+00 0.000000e+00 0.000000e+00 0.000000e+00 0.000000e+00
 0.000000e+00 0.000000e+00 0.000000e+00 0.000000e+00 0.000000e+00 0.000000e+00 0.000000e+00 0.000000e+00 0.000000e+00 0.000000e+00 0.000000e+00 0.000000e+00 9.826670e-01 1.733301e-02 0.000000e+00 0.000000e+00 0.000000e+00 0.000000e+00 0.000000e+00 0.000000e+00 0.000000e+00 0.000000e+00 0.000000e+00 0.000000e+00 0.000000e+00 0.000000e+00 0.000000e+00 0.000000e+00 0.000000e+00 0.000000e+00 0.000000e+00 0.000000e+00 0.000000e+00 0.000000e+00 0.000000e+00 0.000000e+00 0.000000e+00 0.000000e+00 0.000000e+00 0.000000e+00
 0.000000e+00 0.000000e+00 0.000000e+00 0.000000e+00 0.000000e+00 0.000000e+00 0.000000e+00 0.000000e+00 0.000000e+00 0.000000e+00 0.000000e+00 0.000000e+00 0.000000e+00 9.915741e-01 8.425864e-03 0.000000e+00 0.000000e+00 0.000000e+00 0.000000e+00 0.000000e+00 0.000000e+00 0.000000e+00 0.000000e+00 0.000000e+00 0.000000e+00 0.000000e+00 0.000000e+00 0.000000e+00 0.000000e+00 0.000000e+00 0.000000e+00 0.000000e+00 0.000000e+00 0.000000e+00 0.000000e+00 0.000000e+00 0.000000e+00 0.000000e+00 0.000000e+00 0.000000e+00
 0.000000e+00 0.000000e+00 0.000000e+00 0.000000e+00 0.000000e+00 0.000000e+00 0.000000e+00 0.000000e+00 0.000000e+00 0.000000e+00 0.000000e+00 0.000000e+00 0.000000e+00 0.000000e+00 9.086582e-01 9.134177e-02 0.000000e+00 0.000000e+00 0.000000e+00 0.000000e+00 0.000000e+00 0.000000e+00 0.000000e+00 0.000000e+00 0.000000e+00 0.000000e+00 0.000000e+00 0.000000e+00 0.000000e+00 0.000000e+00 0.000000e+00 0.000000e+00 0.000000e+00 0.000000e+00 0.000000e+00 0.000000e+00 0.000000e+00 0.000000e+00 0.000000e+00 0.000000e+00
 0.000000e+00 0.000000e+00 0.000000e+00 0.000000e+00 0.000000e+00 0.000000e+00 0.000000e+00 0.000000e+00 0.000000e+00 0.000000e+00 0.000000e+00 0.000000e+00 0.000000e+00 0.000000e+00 0.000000e+00 9.343739e-01 6.562611e-02 0.000000e+00 0.000000e+00 0.000000e+00 0.000000e+00 0.000000e+00 0.000000e+00 0.000000e+00 0.000000e+00 0.000000e+00 0.000000e+00 0.000000e+00 0.000000e+00 0.000000e+00 0.000000e+00 0.000000e+00 0.000000e+00 0.000000e+00 0.000000e+00 0.000000e+00 0.000000e+00 0.000000e+00 0.000000e+00 0.000000e+00
 0.000000e+00 0.000000e+00 0.000000e+00 0.000000e+00 0.000000e+00 0.000000e+00 0.000000e+00 0.000000e+00 0.000000e+00 0.000000e+00 0.000000e+00 0.000000e+00 0.000000e+00 0.000000e+00 0.000000e+00 0.000000e+00 9.670575e-01 3.294251e-02 0.000000e+00 0.000000e+00 0.000000e+00 0.000000e+00 0.000000e+00 0.000000e+00 0.000000e+00 0.000000e+00 0.000000e+00 0.000000e+00 0.000000e+00 0.000000e+00 0.000000e+00 0.000000e+00 0.000000e+00 0.000000e+00 0.000000e+00 0.000000e+00 0.000000e+00 0.000000e+00 0.000000e+00 0.000000e+00
 0.000000e+00 0.000000e+00 0.000000e+00 0.000000e+00 0.000000e+00 0.000000e+00 0.000000e+00 0.000000e+00 0.000000e+00 0.000000e+00 0.000000e+00 0.000000e+00 0.000000e+00 0.000000e+00 0.000000e+00 0.000000e+00 0.000000e+00 9.954430e-01 4.557004e-03 0.000000e+00 0.000000e+00 0.000000e+00 0.000000e+00 0.000000e+00 0.000000e+00 0.000000e+00 0.000000e+00 0.000000e+00 0.000000e+00 0.000000e+00 0.000000e+00 0.000000e+00 0.000000e+00 0.000000e+00 0.000000e+00 0.000000e+00 0.000000e+00 0.000000e+00 0.000000e+00 0.000000e+00
 0.000000e+00 0.000000e+00 0.000000e+00 0.000000e+00 0.000000e+00 0.000000e+00 0.000000e+00 0.000000e+00 0.000000e+00 0.000000e+00 0.000000e+00 0.000000e+00 0.000000e+00 0.000000e+00 0.000000e+00 0.000000e+00 0.000000e+00 0.000000e+00 8.913193e-01 1.086807e-01 0.000000e+00 0.000000e+00 0.000000e+00 0.000000e+00 0.000000e+00 0.000000e+00 0.000000e+00 0.000000e+00 0.000000e+00 0.000000e+00 0.000000e+00 0.000000e+00 0.000000e+00 0.000000e+00 0.000000e+00 0.000000e+00 0.000000e+00 0.000000e+00 0.000000e+00 0.000000e+00
 0.000000e+00 0.000000e+00 0.000000e+00 0.000000e+00 0.000000e+00 0.000000e+00 0.000000e+00 0.000000e+00 0.000000e+00 0.000000e+00 0.000000e+00 0.000000e+00 0.000000e+00 0.000000e+00 0.000000e+00 0.000000e+00 0.000000e+00 0.000000e+00 0.000000e+00 6.394256e-01 3.605744e-01 0.000000e+00 0.000000e+00 0.000000e+00 0.000000e+00 0.000000e+00 0.000000e+00 0.000000e+00 0.000000e+00 0.000000e+00 0.000000e+00 0.000000e+00 0.000000e+00 0.000000e+00 0.000000e+00 0.000000e+00 0.000000e+00 0.000000e+00 0.000000e+00 0.000000e+00
 0.000000e+00 0.000000e+00 0.000000e+00 0.000000e+00 0.000000e+00 0.000000e+00 0.000000e+00 0.000000e+00 0.000000e+00 0.000000e+00 0.000000e+00 0.000000e+00 0.000000e+00 0.000000e+00 0.000000e+00 0.000000e+00 0.000000e+00 0.000000e+00 0.000000e+00 0.000000e+00 6.321283e-01 3.678717e-01 0.000000e+00 0.000000e+00 0.000000e+00 0.000000e+00 0.000000e+00 0.000000e+00 0.000000e+00 0.000000e+00 0.000000e+00 0.000000e+00 0.000000e+00 0.000000e+00 0.000000e+00 0.000000e+00 0.000000e+00 0.000000e+00 0.000000e+00 0.000000e+00
 0.000000e+00 0.000000e+00 0.000000e+00 0.000000e+00 0.000000e+00 0.000000e+00 0.000000e+00 0.000000e+00 0.000000e+00 0.000000e+00 0.000000e+00 0.000000e+00 0.000000e+00 0.000000e+00 0.000000e+00 0.000000e+00 0.000000e+00 0.000000e+00 0.000000e+00 0.000000e+00 0.000000e+00 3.311394e-01 6.688606e-01 0.000000e+00 0.000000e+00 0.000000e+00 0.000000e+00 0.000000e+00 0.000000e+00 0.000000e+00 0.000000e+00 0.000000e+00 0.000000e+00 0.000000e+00 0.000000e+00 0.000000e+00 0.000000e+00 0.000000e+00 0.000000e+00 0.000000e+00
 0.000000e+00 0.000000e+00 0.000000e+00 0.000000e+00 0.000000e+00 0.000000e+00 0.000000e+00 0.000000e+00 0.000000e+00 0.000000e+00 0.000000e+00 0.000000e+00 0.000000e+00 0.000000e+00 0.000000e+00 0.000000e+00 0.000000e+00 0.000000e+00 0.000000e+00 0.000000e+00 0.000000e+00 0.000000e+00 9.022639e-01 9.773613e-02 0.000000e+00 0.000000e+00 0.000000e+00 0.000000e+00 0.000000e+00 0.000000e+00 0.000000e+00 0.000000e+00 0.000000e+00 0.000000e+00 0.000000e+00 0.000000e+00 0.000000e+00 0.000000e+00 0.000000e+00 0.000000e+00
 0.000000e+00 0.000000e+00 0.000000e+00 0.000000e+00 0.000000e+00 0.000000e+00 0.000000e+00 0.000000e+00 0.000000e+00 0.000000e+00 0.000000e+00 0.000000e+00 0.000000e+00 0.000000e+00 0.000000e+00 0.000000e+00 0.000000e+00 0.000000e+00 0.000000e+00 0.000000e+00 0.000000e+00 0.000000e+00 0.000000e+00 7.996406e-01 2.003594e-01 0.000000e+00 0.000000e+00 0.000000e+00 0.000000e+00 0.000000e+00 0.000000e+00 0.000000e+00 0.000000e+00 0.000000e+00 0.000000e+00 0.000000e+00 0.000000e+00 0.000000e+00 0.000000e+00 0.000000e+00
 0.000000e+00 0.000000e+00 0.000000e+00 0.000000e+00 0.000000e+00 0.000000e+00 0.000000e+00 0.000000e+00 0.000000e+00 0.000000e+00 0.000000e+00 0.000000e+00 0.000000e+00 0.000000e+00 0.000000e+00 0.000000e+00 0.000000e+00 0.000000e+00 0.000000e+00 0.000000e+00 0.000000e+00 0.000000e+00 0.000000e+00 0.000000e+00 8.254223e-01 1.745777e-01 0.000000e+00 0.000000e+00 0.000000e+00 0.000000e+00 0.000000e+00 0.000000e+00 0.000000e+00 0.000000e+00 0.000000e+00 0.000000e+00 0.000000e+00 0.000000e+00 0.000000e+00 0.000000e+00
 0.000000e+00 0.000000e+00 0.000000e+00 0.000000e+00 0.000000e+00 0.000000e+00 0.000000e+00 0.000000e+00 0.000000e+00 0.000000e+00 0.000000e+00 0.000000e+00 0.000000e+00 0.000000e+00 0.000000e+00 0.000000e+00 0.000000e+00 0.000000e+00 0.000000e+00 0.000000e+00 0.000000e+00 0.000000e+00 0.000000e+00 0.000000e+00 0.000000e+00 9.092534e-01 9.074663e-02 0.000000e+00 0.000000e+00 0.000000e+00 0.000000e+00 0.000000e+00 0.000000e+00 0.000000e+00 0.000000e+00 0.000000e+00 0.000000e+00 0.000000e+00 0.000000e+00 0.000000e+00
 0.000000e+00 0.000000e+00 0.000000e+00 0.000000e+00 0.000000e+00 0.000000e+00 0.000000e+00 0.000000e+00 0.000000e+00 0.000000e+00 0.000000e+00 0.000000e+00 0.000000e+00 0.000000e+00 0.000000e+00 0.000000e+00 0.000000e+00 0.000000e+00 0.000000e+00 0.000000e+00 0.000000e+00 0.000000e+00 0.000000e+00 0.000000e+00 0.000000e+00 0.000000e+00 8.339697e-01 1.660303e-01 0.000000e+00 0.000000e+00 0.000000e+00 0.000000e+00 0.000000e+00 0.000000e+00 0.000000e+00 0.000000e+00 0.000000e+00 0.000000e+00 0.000000e+00 0.000000e+00
 0.000000e+00 0.000000e+00 0.000000e+00 0.000000e+00 0.000000e+00 0.000000e+00 0.000000e+00 0.000000e+00 0.000000e+00 0.000000e+00 0.000000e+00 0.000000e+00 0.000000e+00 0.000000e+00 0.000000e+00 0.000000e+00 0.000000e+00 0.000000e+00 0.000000e+00 0.000000e+00 0.000000e+00 0.000000e+00 0.000000e+00 0.000000e+00 0.000000e+00 0.000000e+00 0.000000e+00 9.915466e-01 8.453372e-03 0.000000e+00 0.000000e+00 0.000000e+00 0.000000e+00 0.000000e+00 0.000000e+00 0.000000e+00 0.000000e+00 0.000000e+00 0.000000e+00 0.000000e+00
 0.000000e+00 0.000000e+00 0.000000e+00 0.000000e+00 0.000000e+00 0.000000e+00 0.000000e+00 0.000000e+00 0.000000e+00 0.000000e+00 0.000000e+00 0.000000e+00 0.000000e+00 0.000000e+00 0.000000e+00 0.000000e+00 0.000000e+00 0.000000e+00 0.000000e+00 0.000000e+00 0.000000e+00 0.000000e+00 0.000000e+00 0.000000e+00 0.000000e+00 0.000000e+00 0.000000e+00 0.000000e+00 9.163062e-01 8.369379e-02 0.000000e+00 0.000000e+00 0.000000e+00 0.000000e+00 0.000000e+00 0.000000e+00 0.000000e+00 0.000000e+00 0.000000e+00 0.000000e+00
 0.000000e+00 0.000000e+00 0.000000e+00 0.000000e+00 0.000000e+00 0.000000e+00 0.000000e+00 0.000000e+00 0.000000e+00 0.000000e+00 0.000000e+00 0.000000e+00 0.000000e+00 0.000000e+00 0.000000e+00 0.000000e+00 0.000000e+00 0.000000e+00 0.000000e+00 0.000000e+00 0.000000e+00 0.000000e+00 0.000000e+00 0.000000e+00 0.000000e+00 0.000000e+00 0.000000e+00 0.000000e+00 0.000000e+00 7.574616e-01 2.425384e-01 0.000000e+00 0.000000e+00 0.000000e+00 0.000000e+00 0.000000e+00 0.000000e+00 0.000000e+00 0.000000e+00 0.000000e+00
 0.000000e+00 0.000000e+00 0.000000e+00 0.000000e+00 0.000000e+00 0.000000e+00 0.000000e+00 0.000000e+00 0.000000e+00 0.000000e+00 0.000000e+00 0.000000e+00 0.000000e+00 0.000000e+00 0.000000e+00 0.000000e+00 0.000000e+00 0.000000e+00 0.000000e+00 0.000000e+00 0.000000e+00 0.000000e+00 0.000000e+00 0.000000e+00 0.000000e+00 0.000000e+00 0.000000e+00 0.000000e+00 0.000000e+00 0.000000e+00 9.756123e-01 2.438766e-02 0.000000e+00 0.000000e+00 0.000000e+00 0.000000e+00 0.000000e+00 0.000000e+00 0.000000e+00 0.000000e+00
 0.000000e+00 0.000000e+00 0.000000e+00 0.000000e+00 0.000000e+00 0.000000e+00 0.000000e+00 0.000000e+00 0.000000e+00 0.000000e+00 0.000000e+00 0.000000e+00 0.000000e+00 0.000000e+00 0.000000e+00 0.000000e+00 0.000000e+00 0.000000e+00 0.000000e+00 0.000000e+00 0.000000e+00 0.000000e+00 0.000000e+00 0.000000e+00 0.000000e+00 0.000000e+00 0.000000e+00 0.000000e+00 0.000000e+00 0.000000e+00 0.000000e+00 9.913636e-01 8.636339e-03 0.000000e+00 0.000000e+00 0.000000e+00 0.000000e+00 0.000000e+00 0.000000e+00 0.000000e+00
 0.000000e+00 0.000000e+00 0.000000e+00 0.000000e+00 0.000000e+00 0.000000e+00 0.000000e+00 0.000000e+00 0.000000e+00 0.000000e+00 0.000000e+00 0.000000e+00 0.000000e+00 0.000000e+00 0.000000e+00 0.000000e+00 0.000000e+00 0.000000e+00 0.000000e+00 0.000000e+00 0.000000e+00 0.000000e+00 0.000000e+00 0.000000e+00 0.000000e+00 0.000000e+00 0.000000e+00 0.000000e+00 0.000000e+00 0.000000e+00 0.000000e+00 0.000000e+00 9.744349e-01 2.556510e-02 0.000000e+00 0.000000e+00 0.000000e+00 0.000000e+00 0.000000e+00 0.000000e+00
 0.000000e+00 0.000000e+00 0.000000e+00 0.000000e+00 0.000000e+00 0.000000e+00 0.000000e+00 0.000000e+00 0.000000e+00 0.000000e+00 0.000000e+00 0.000000e+00 0.000000e+00 0.000000e+00 0.000000e+00 0.000000e+00 0.000000e+00 0.000000e+00 0.000000e+00 0.000000e+00 0.000000e+00 0.000000e+00 0.000000e+00 0.000000e+00 0.000000e+00 0.000000e+00 0.000000e+00 0.000000e+00 0.000000e+00 0.000000e+00 0.000000e+00 0.000000e+00 0.000000e+00 9.907026e-01 9.297404e-03 0.000000e+00 0.000000e+00 0.000000e+00 0.000000e+00 0.000000e+00
 0.000000e+00 0.000000e+00 0.000000e+00 0.000000e+00 0.000000e+00 0.000000e+00 0.000000e+00 0.000000e+00 0.000000e+00 0.000000e+00 0.000000e+00 0.000000e+00 0.000000e+00 0.000000e+00 0.000000e+00 0.000000e+00 0.000000e+00 0.000000e+00 0.000000e+00 0.000000e+00 0.000000e+00 0.000000e+00 0.000000e+00 0.000000e+00 0.000000e+00 0.000000e+00 0.000000e+00 0.000000e+00 0.000000e+00 0.000000e+00 0.000000e+00 0.000000e+00 0.000000e+00 0.000000e+00 9.528630e-01 4.713700e-02 0.000000e+00 0.000000e+00 0.000000e+00 0.000000e+00
 0.000000e+00 0.000000e+00 0.000000e+00 0.000000e+00 0.000000e+00 0.000000e+00 0.000000e+00 0.000000e+00 0.000000e+00 0.000000e+00 0.000000e+00 0.000000e+00 0.000000e+00 0.000000e+00 0.000000e+00 0.000000e+00 0.000000e+00 0.000000e+00 0.000000e+00 0.000000e+00 0.000000e+00 0.000000e+00 0.000000e+00 0.000000e+00 0.000000e+00 0.000000e+00 0.000000e+00 0.000000e+00 0.000000e+00 0.000000e+00 0.000000e+00 0.000000e+00 0.000000e+00 0.000000e+00 0.000000e+00 7.860748e-01 2.139252e-01 0.000000e+00 0.000000e+00 0.000000e+00
 0.000000e+00 0.000000e+00 0.000000e+00 0.000000e+00 0.000000e+00 0.000000e+00 0.000000e+00 0.000000e+00 0.000000e+00 0.000000e+00 0.000000e+00 0.000000e+00 0.000000e+00 0.000000e+00 0.000000e+00 0.000000e+00 0.000000e+00 0.000000e+00 0.000000e+00 0.000000e+00 0.000000e+00 0.000000e+00 0.000000e+00 0.000000e+00 0.000000e+00 0.000000e+00 0.000000e+00 0.000000e+00 0.000000e+00 0.000000e+00 0.000000e+00 0.000000e+00 0.000000e+00 0.000000e+00 0.000000e+00 0.000000e+00 9.593133e-01 4.068673e-02 0.000000e+00 0.000000e+00
 0.000000e+00 0.000000e+00 0.000000e+00 0.000000e+00 0.000000e+00 0.000000e+00 0.000000e+00 0.000000e+00 0.000000e+00 0.000000e+00 0.000000e+00 0.000000e+00 0.000000e+00 0.000000e+00 0.000000e+00 0.000000e+00 0.000000e+00 0.000000e+00 0.000000e+00 0.000000e+00 0.000000e+00 0.000000e+00 0.000000e+00 0.000000e+00 0.000000e+00 0.000000e+00 0.000000e+00 0.000000e+00 0.000000e+00 0.000000e+00 0.000000e+00 0.000000e+00 0.000000e+00 0.000000e+00 0.000000e+00 0.000000e+00 0.000000e+00 9.438742e-01 5.612583e-02 0.000000e+00
 0.000000e+00 0.000000e+00 0.000000e+00 0.000000e+00 0.000000e+00 0.000000e+00 0.000000e+00 0.000000e+00 0.000000e+00 0.000000e+00 0.000000e+00 0.000000e+00 0.000000e+00 0.000000e+00 0.000000e+00 0.000000e+00 0.000000e+00 0.000000e+00 0.000000e+00 0.000000e+00 0.000000e+00 0.000000e+00 0.000000e+00 0.000000e+00 0.000000e+00 0.000000e+00 0.000000e+00 0.000000e+00 0.000000e+00 0.000000e+00 0.000000e+00 0.000000e+00 0.000000e+00 0.000000e+00 0.000000e+00 0.000000e+00 0.000000e+00 0.000000e+00 9.901268e-01 9.873195e-03
 0.000000e+00 0.000000e+00 0.000000e+00 0.000000e+00 0.000000e+00 0.000000e+00 0.000000e+00 0.000000e+00 0.000000e+00 0.000000e+00 0.000000e+00 0.000000e+00 0.000000e+00 0.000000e+00 0.000000e+00 0.000000e+00 0.000000e+00 0.000000e+00 0.000000e+00 0.000000e+00 0.000000e+00 0.000000e+00 0.000000e+00 0.000000e+00 0.000000e+00 0.000000e+00 0.000000e+00 0.000000e+00 0.000000e+00 0.000000e+00 0.000000e+00 0.000000e+00 0.000000e+00 0.000000e+00 0.000000e+00 0.000000e+00 0.000000e+00 0.000000e+00 0.000000e+00 0.000000e+00
<ENDHMM>
