~o
<STREAMINFO> 1 42
<VECSIZE> 42<NULLD><USER><DIAGC>
~h "CONTROL"
<BEGINHMM>
<NUMSTATES> 40
<STATE> 2
<NUMMIXES> 2
<MIXTURE> 1 4.577602e-01
<MEAN> 42
 4.121042e-02 5.568869e-02 8.572666e-03 -4.761647e-02 1.640485e-02 2.861821e-02 -1.646198e-02 1.207067e-02 4.199793e-02 5.763298e-02 5.758207e-02 5.262326e-02 4.990630e-04 1.679268e-03 1.186277e-03 -1.093088e-03 -3.299537e-04 1.430629e-03 7.635778e-04 5.800373e-04 7.530353e-04 1.139137e-03 1.228473e-03 1.191010e-03 1.475965e-04 6.731015e-04 5.302760e-04 -4.115512e-04 -1.830448e-04 6.061030e-04 5.182466e-04 5.435718e-04 6.570650e-04 6.225431e-04 5.898950e-04 5.706883e-04 3.315827e-03 2.013977e-04 4.151893e-04 5.021810e-02 3.804054e-02 1.502765e-03
<VARIANCE> 42
 2.407379e-03 4.609108e-03 2.265420e-03 2.911256e-03 1.090484e-03 2.783332e-03 2.343518e-03 5.387408e-03 8.595333e-03 5.748544e-03 6.512939e-03 5.850976e-03 4.934009e-05 4.047453e-05 4.417352e-05 3.392664e-05 3.653052e-05 3.023549e-05 1.750858e-05 7.374013e-05 1.869855e-05 4.065752e-05 1.754835e-05 1.855876e-05 1.748305e-05 1.384225e-05 1.811415e-05 1.117774e-05 1.425051e-05 1.173798e-05 4.023607e-06 2.601508e-05 4.026982e-06 1.211414e-05 4.049286e-06 3.730187e-06 2.163879e-05 9.304189e-05 1.647432e-04 3.680663e-03 3.008627e-03 2.087238e-03
<GCONST> -2.994384e+02
<MIXTURE> 2 5.422372e-01
<MEAN> 42
 5.363764e-03 3.380550e-03 -7.795511e-03 -3.925737e-03 6.303582e-03 -6.472538e-03 -4.648007e-03 4.404882e-03 2.004515e-03 5.236566e-04 -2.831646e-03 -8.652424e-04 -6.649112e-04 -1.561556e-03 -9.011710e-04 1.118003e-03 1.041138e-04 -1.229970e-03 -6.165343e-04 -1.122650e-03 -1.338293e-03 -1.384062e-03 -1.340683e-03 -1.341855e-03 -1.324542e-04 -5.907983e-04 -4.627055e-04 3.630274e-04 1.583212e-04 -5.298675e-04 -4.384867e-04 -4.723540e-04 -5.705667e-04 -5.333989e-04 -5.119051e-04 -4.927174e-04 2.797116e-04 3.504932e-04 -1.926283e-03 7.973248e-04 1.050721e-03 -6.135639e-04
<VARIANCE> 42
 9.604248e-04 2.158156e-03 1.400340e-03 1.241485e-03 6.238666e-04 1.577975e-03 1.150722e-03 1.370589e-03 1.893734e-03 1.744457e-03 1.604725e-03 1.925811e-03 3.057743e-05 2.724365e-05 2.788621e-05 2.206013e-05 2.252749e-05 2.007414e-05 1.254705e-05 7.374013e-05 1.365752e-05 4.065752e-05 1.163432e-05 1.169699e-05 1.254701e-05 9.964333e-06 1.106590e-05 8.525390e-06 9.384702e-06 7.459090e-06 3.343315e-06 2.601508e-05 3.687938e-06 1.211414e-05 3.225227e-06 3.344060e-06 8.059641e-06 1.861237e-05 6.962878e-05 1.113345e-03 1.465924e-03 6.299427e-04
<GCONST> -3.245264e+02
<STATE> 3
<NUMMIXES> 2
<MIXTURE> 1 5.012698e-01
<MEAN> 42
 2.773557e-02 3.782159e-02 1.026756e-02 -3.022157e-02 1.349981e-02 2.015368e-02 -2.496900e-02 -6.216164e-03 1.087985e-02 1.949097e-02 5.072825e-02 2.270687e-02 7.446499e-04 2.317677e-03 1.571410e-03 -1.528726e-03 -4.180926e-04 1.980088e-03 1.641744e-03 1.518984e-03 1.749677e-03 1.833719e-03 2.367397e-03 1.745774e-03 4.226351e-04 1.073329e-03 6.467010e-04 -7.475414e-04 -1.144204e-04 8.654592e-04 1.153044e-03 1.394653e-03 1.324457e-03 1.186803e-03 1.488423e-03 1.184865e-03 2.528816e-03 3.478227e-03 1.159372e-03 3.106215e-02 2.753437e-02 1.345093e-02
<VARIANCE> 42
 3.929124e-03 4.123474e-03 1.505739e-03 3.751150e-03 1.609942e-03 1.560479e-03 6.067059e-03 1.370589e-03 2.187135e-03 2.937307e-03 9.346021e-03 2.525677e-03 1.408716e-04 1.019007e-04 9.454333e-05 9.795751e-05 9.258233e-05 6.425232e-05 3.839544e-05 7.374013e-05 2.943875e-05 4.065752e-05 1.140401e-04 2.834601e-05 5.212154e-05 3.507307e-05 3.501781e-05 3.484408e-05 3.504665e-05 2.248481e-05 9.247186e-06 2.601508e-05 8.826758e-06 1.211414e-05 2.817668e-05 8.633627e-06 3.078005e-05 5.869294e-05 1.612070e-04 3.297197e-03 2.019156e-03 5.612356e-04
<GCONST> -2.855170e+02
<MIXTURE> 2 4.987292e-01
<MEAN> 42
 -5.020250e-03 -3.578847e-03 2.394198e-03 6.594716e-03 9.287753e-04 -4.748062e-03 -4.807036e-03 -1.152230e-02 -6.754810e-03 -7.170493e-03 -7.189882e-03 -4.261409e-03 -1.882075e-03 -4.005937e-03 -2.128656e-03 2.947137e-03 1.235297e-04 -3.116167e-03 -1.101200e-03 -2.169159e-03 -2.755582e-03 -3.132276e-03 -3.897878e-03 -3.078785e-03 -3.552859e-04 -9.461007e-04 -5.843719e-04 6.482224e-04 1.173411e-04 -7.717299e-04 -1.104321e-03 -1.300393e-03 -1.285137e-03 -1.193275e-03 -1.488473e-03 -1.180579e-03 -1.582365e-04 2.575525e-04 -3.329589e-04 -4.093472e-03 -1.715497e-03 5.454991e-03
<VARIANCE> 42
 1.600711e-03 2.233910e-03 1.163112e-03 1.498811e-03 6.938486e-04 1.284368e-03 1.520395e-03 1.370589e-03 1.375201e-03 1.282100e-03 4.063914e-03 1.243810e-03 1.285789e-04 7.732237e-05 9.509084e-05 7.920151e-05 9.270512e-05 5.478613e-05 3.254212e-05 7.374013e-05 2.857300e-05 4.065752e-05 8.121803e-05 2.544122e-05 4.546119e-05 3.174621e-05 3.819231e-05 2.908645e-05 3.391126e-05 2.389308e-05 9.615405e-06 2.601508e-05 1.013235e-05 1.211414e-05 2.535520e-05 8.764249e-06 6.043477e-06 3.908415e-05 1.253961e-04 8.012640e-04 1.332431e-03 3.050033e-04
<GCONST> -2.997746e+02
<STATE> 4
<NUMMIXES> 2
<MIXTURE> 1 4.290075e-01
<MEAN> 42
 4.251577e-02 3.256346e-02 -8.235119e-03 -3.826441e-02 2.543939e-02 1.075805e-02 -2.167393e-02 2.638019e-02 5.709088e-02 5.474674e-02 5.873588e-02 5.687229e-02 1.574347e-03 1.689538e-03 1.136838e-04 -1.634864e-03 7.426172e-04 9.155571e-04 -1.231957e-04 1.681725e-03 2.913470e-03 3.199525e-03 3.078782e-03 2.701512e-03 1.504133e-05 2.999727e-04 2.847883e-04 -1.582621e-04 -1.292063e-04 2.947360e-04 9.216476e-05 -6.436626e-05 -2.586050e-06 1.702232e-04 2.201988e-04 2.219264e-04 9.185218e-03 1.164492e-03 -4.884456e-04 5.276544e-02 1.537805e-02 -7.078423e-03
<VARIANCE> 42
 4.970925e-03 4.086995e-03 8.118073e-04 4.292904e-03 1.871708e-03 1.243710e-03 2.318660e-03 3.067806e-03 8.414580e-03 1.014788e-02 1.190166e-02 1.135343e-02 5.808246e-05 6.107128e-05 1.606988e-05 5.550878e-05 2.203786e-05 2.473822e-05 1.590946e-05 7.374013e-05 1.352038e-04 1.586139e-04 1.692166e-04 1.462534e-04 2.061355e-06 3.685461e-06 2.764441e-06 2.183687e-06 1.475067e-06 2.766642e-06 1.604222e-06 2.601508e-05 1.619113e-05 1.211414e-05 7.183590e-06 4.147546e-06 2.297590e-04 8.652675e-05 2.793124e-04 8.341085e-03 1.570387e-03 1.055039e-03
<GCONST> -2.988060e+02
<MIXTURE> 2 5.709913e-01
<MEAN> 42
 -3.184046e-03 -1.032985e-02 -5.495677e-03 6.069973e-03 1.216869e-03 -9.685842e-03 -1.927653e-03 -1.647838e-02 -1.316760e-02 -6.901751e-03 -5.795855e-03 -2.109822e-03 -1.213879e-03 -1.303428e-03 -8.846761e-05 1.258274e-03 -5.690899e-04 -7.075720e-04 1.355698e-04 -1.235277e-03 -2.194414e-03 -2.417587e-03 -2.335041e-03 -2.047807e-03 3.242167e-06 -2.306234e-04 -2.338409e-04 1.144502e-04 1.152331e-04 -2.345152e-04 -6.075762e-05 8.306897e-05 2.877880e-05 -1.117075e-04 -1.544520e-04 -1.690226e-04 -8.408882e-04 1.572928e-03 3.896030e-03 -3.837707e-03 -7.027899e-03 7.553438e-03
<VARIANCE> 42
 3.581696e-03 2.381701e-03 9.061144e-04 2.742244e-03 1.665634e-03 7.653834e-04 9.569138e-04 1.219649e-02 1.921184e-02 6.725505e-03 6.284181e-03 6.887948e-03 1.720614e-04 5.727195e-05 9.853890e-05 9.005521e-05 1.224992e-04 3.518070e-05 1.924704e-05 2.931682e-04 5.439599e-04 2.581116e-04 2.379647e-04 1.995526e-04 2.207506e-05 8.904542e-06 2.476046e-05 9.305330e-06 2.139839e-05 1.137946e-05 3.949905e-06 2.601508e-05 3.462577e-05 2.181156e-05 2.205626e-05 1.860139e-05 1.520869e-04 3.231582e-04 1.849074e-04 4.606950e-03 8.465812e-04 4.843776e-03
<GCONST> -2.746942e+02
<STATE> 5
<MEAN> 42
 2.468685e-02 8.160889e-03 -1.193305e-02 -8.094074e-03 1.907885e-02 -1.038028e-03 2.871186e-02 9.862096e-02 1.293633e-01 7.688051e-02 4.795212e-02 3.658238e-02 -5.093545e-04 1.276144e-03 1.799325e-03 -3.759073e-04 -1.101080e-03 1.567262e-03 7.163145e-04 4.449213e-03 5.198517e-03 3.487607e-03 3.149398e-03 1.553559e-03 -4.039566e-04 -1.974958e-04 2.124381e-04 3.130857e-04 -3.232739e-04 2.250174e-05 1.060321e-03 1.845586e-03 1.782544e-03 6.806704e-04 5.256803e-04 5.263320e-05 -1.449207e-03 -5.519888e-03 -3.492516e-03 4.363245e-02 -1.028437e-02 -6.585047e-02
<VARIANCE> 42
 3.247597e-03 3.578770e-03 2.696912e-03 2.555240e-03 1.850510e-03 2.569684e-03 2.749474e-03 1.845242e-02 2.781041e-02 2.128076e-02 9.706352e-03 6.856383e-03 1.574872e-04 1.182661e-04 2.163955e-04 8.361331e-05 1.569436e-04 1.281222e-04 1.319469e-04 1.870265e-04 1.756545e-04 1.479560e-04 1.657727e-04 1.344006e-04 4.735625e-05 3.004110e-05 6.418685e-05 2.266846e-05 4.814176e-05 3.536258e-05 2.506104e-05 4.959743e-05 4.472574e-05 3.201886e-05 4.769883e-05 3.863689e-05 7.801060e-06 5.198727e-05 7.565493e-05 7.343479e-03 1.605036e-03 6.960931e-03
<GCONST> -2.605263e+02
<STATE> 6
<MEAN> 42
 3.086612e-02 4.128924e-02 8.729074e-03 -3.493052e-02 1.176965e-02 2.347589e-02 -6.335288e-03 3.210505e-02 4.592844e-02 4.689823e-02 4.404117e-02 3.079129e-02 -1.780895e-05 -4.420614e-05 -2.608887e-05 3.131499e-05 3.008594e-06 -3.559367e-05 5.375971e-05 4.500546e-05 1.898396e-06 -4.446791e-05 -3.642411e-05 -4.887440e-05 -3.743842e-06 1.427800e-06 5.149988e-06 1.235306e-06 -5.392734e-06 3.099039e-06 8.789377e-06 1.511313e-05 3.128761e-05 2.146563e-05 1.208363e-05 8.340352e-06 3.803316e-03 1.234912e-03 3.322728e-03 3.605222e-02 2.602929e-02 -1.211650e-02
<VARIANCE> 42
 1.069668e-02 1.600811e-02 2.933631e-03 1.263370e-02 2.714745e-03 6.868907e-03 5.509412e-03 1.054101e-02 2.397191e-02 2.757216e-02 2.695492e-02 2.251010e-02 2.778139e-04 3.128011e-04 8.625261e-05 2.737428e-04 1.049645e-04 1.311988e-04 1.251920e-04 3.043686e-04 6.152740e-04 5.162585e-04 5.142872e-04 3.932022e-04 2.873954e-05 3.091264e-05 2.034020e-05 2.474200e-05 1.698579e-05 1.864114e-05 1.020359e-05 3.141818e-05 5.781006e-05 3.889314e-05 3.673658e-05 2.556084e-05 1.956541e-04 2.151898e-04 2.104726e-04 2.088931e-02 7.084478e-03 2.906809e-03
<GCONST> -2.432305e+02
<STATE> 7
<MEAN> 42
 3.824400e-02 2.033260e-02 -1.126439e-02 -2.335948e-02 2.498413e-02 3.943392e-04 -1.062653e-02 2.686337e-02 2.257571e-02 4.891964e-02 4.348389e-02 3.142086e-02 1.698447e-05 -7.840023e-06 -2.494213e-05 -4.570629e-06 2.104596e-05 -1.636637e-05 3.904299e-06 2.489842e-06 -1.425036e-05 -3.583360e-06 -9.140093e-06 5.156920e-06 2.560960e-06 -4.250441e-06 -6.873793e-06 8.435597e-07 4.763154e-06 -5.535134e-06 -1.760132e-06 -5.309963e-06 -1.018879e-05 -7.144123e-06 -9.038697e-06 -2.485026e-06 3.777251e-03 1.603154e-04 1.963507e-05 3.614559e-02 8.059297e-03 -5.829388e-03
<VARIANCE> 42
 1.302196e-02 9.224486e-03 1.002664e-02 8.688218e-03 9.213700e-03 6.430174e-03 6.562179e-03 1.204940e-02 3.060526e-02 5.662594e-02 4.134599e-02 2.559461e-02 4.177606e-04 2.376836e-04 2.781494e-04 2.584960e-04 2.892122e-04 1.539273e-04 1.602581e-04 3.063940e-04 8.370298e-04 1.573905e-03 1.302424e-03 8.194946e-04 5.158491e-05 3.298063e-05 4.355140e-05 3.138728e-05 3.934823e-05 2.549350e-05 1.904708e-05 3.503363e-05 7.202679e-05 1.246704e-04 1.117520e-04 7.513294e-05 2.102109e-04 2.245655e-04 2.383416e-04 2.747572e-02 4.568221e-03 4.774040e-03
<GCONST> -2.263050e+02
<STATE> 8
<MEAN> 42
 3.749599e-02 2.322097e-02 -1.327959e-02 -2.933788e-02 2.391763e-02 1.454048e-03 -2.971598e-02 -7.981608e-03 3.145764e-02 3.250268e-02 8.068690e-02 3.724694e-02 -4.420690e-05 -5.205988e-05 -7.962026e-06 4.815160e-05 -1.922269e-05 -3.088408e-05 -3.340797e-05 -3.680389e-05 4.833666e-06 -1.316787e-05 -4.377869e-05 -4.564975e-05 -5.003454e-05 -5.526834e-06 4.447654e-05 2.742965e-05 -4.704029e-05 1.887992e-05 3.593414e-05 1.631939e-06 -4.290345e-06 -9.933832e-06 -6.099845e-06 -2.288247e-05 4.161160e-03 4.828983e-03 1.244261e-03 4.917496e-02 1.158966e-02 1.114689e-02
<VARIANCE> 42
 1.269029e-02 1.441231e-02 1.456988e-03 1.318681e-02 3.547155e-03 4.870548e-03 1.196306e-02 1.026140e-02 4.275033e-02 3.281386e-02 3.478307e-02 1.771710e-02 3.840661e-04 5.016591e-04 8.924586e-05 4.205508e-04 1.134169e-04 2.017090e-04 4.460576e-04 4.633206e-04 1.760177e-03 1.132840e-03 9.114497e-04 5.932636e-04 3.831640e-05 4.818782e-05 2.930257e-05 3.592149e-05 2.207299e-05 2.919284e-05 4.401414e-05 4.518472e-05 2.118310e-04 9.991550e-05 1.294978e-04 4.937873e-05 2.091724e-04 2.053615e-04 2.233692e-04 2.358693e-02 4.292928e-03 2.319627e-03
<GCONST> -2.284628e+02
<STATE> 9
<MEAN> 42
 -3.400540e-02 -3.783444e-02 5.080923e-05 3.958001e-02 -1.609913e-02 -2.274992e-02 3.340591e-02 7.627100e-03 -1.733978e-02 -3.712447e-02 -3.703199e-02 -4.035965e-02 -5.567299e-03 5.704684e-04 6.164555e-03 2.491140e-03 -5.871441e-03 3.401228e-03 1.006659e-02 1.183402e-02 8.830263e-03 2.852003e-03 3.880672e-04 -1.458335e-03 -1.353386e-03 -7.727838e-05 1.276968e-03 6.962794e-04 -1.311401e-03 6.191949e-04 2.751371e-03 3.380726e-03 2.576404e-03 1.057596e-03 2.623163e-04 -3.478515e-04 -3.784321e-03 8.308627e-04 7.408739e-04 -3.860833e-02 -2.488161e-02 -1.441269e-02
<VARIANCE> 42
 1.471921e-03 1.406219e-03 1.778953e-03 7.773216e-04 1.183408e-03 1.268684e-03 1.613975e-03 3.614583e-03 2.808564e-03 1.871266e-03 1.478549e-03 3.354429e-03 1.319988e-04 1.442388e-04 2.070990e-04 8.612366e-05 1.350106e-04 1.463210e-04 2.109283e-04 3.666038e-04 2.363905e-04 1.548855e-04 1.258299e-04 9.747469e-05 4.675721e-05 3.871735e-05 4.421754e-05 3.160353e-05 3.617672e-05 3.092158e-05 3.031478e-05 4.601733e-05 3.922807e-05 3.656883e-05 2.999830e-05 2.004465e-05 8.487732e-06 3.402769e-05 9.823148e-05 8.546461e-04 1.062223e-03 1.372667e-03
<GCONST> -2.791041e+02
<STATE> 10
<MEAN> 42
 4.337301e-02 4.862936e-03 -2.366373e-02 -2.262747e-02 4.643946e-02 -8.957486e-03 -4.080455e-02 -1.540836e-02 -2.978994e-02 -1.445663e-02 -1.791307e-02 3.006924e-04 -7.858968e-05 -4.556200e-05 3.291279e-05 6.127513e-05 -5.595578e-05 -6.467691e-06 2.268974e-04 3.018508e-04 1.832838e-04 8.081520e-05 3.166915e-07 -5.203700e-05 5.381143e-06 -1.177365e-05 -1.748531e-05 3.073525e-06 1.141421e-05 -1.511209e-05 2.706421e-05 5.232945e-05 3.933589e-05 4.253874e-05 2.800613e-05 1.556563e-05 3.282630e-03 4.050750e-04 -4.557837e-03 3.679410e-03 -4.809652e-03 2.285743e-02
<VARIANCE> 42
 3.214286e-02 6.688074e-03 3.981293e-02 9.454462e-03 3.449624e-02 1.520971e-02 2.199731e-02 6.119697e-03 2.140327e-02 1.420892e-02 1.132915e-02 9.392886e-03 7.190295e-04 3.349650e-04 7.107476e-04 3.492866e-04 6.338903e-04 3.443159e-04 3.794663e-04 1.439148e-04 4.218863e-04 3.950030e-04 3.902141e-04 3.480777e-04 1.115757e-04 8.536515e-05 8.041354e-05 7.836927e-05 7.509883e-05 5.548012e-05 2.836274e-05 2.601508e-05 3.068196e-05 3.372406e-05 3.660752e-05 3.557700e-05 2.227180e-04 2.347706e-04 2.011796e-04 5.547019e-03 6.345421e-03 7.831442e-03
<GCONST> -2.259843e+02
<STATE> 11
<MEAN> 42
 -7.262873e-02 -3.131611e-02 3.706541e-02 5.171745e-02 -5.133221e-02 -2.227105e-03 1.356354e-01 1.485465e-01 1.086819e-01 2.389937e-02 -2.431078e-03 -3.791499e-02 2.493900e-03 9.846564e-04 -1.539683e-03 -1.784113e-03 1.981439e-03 -2.388749e-04 2.677863e-02 4.422183e-02 3.725924e-02 2.512524e-02 1.518114e-02 6.770520e-03 9.987857e-03 2.778519e-03 -7.221982e-03 -6.361221e-03 8.644000e-03 -2.212346e-03 -9.724531e-04 7.114228e-03 6.632629e-03 9.397922e-03 8.601667e-03 7.488789e-03 -6.808658e-03 -6.397618e-03 6.748729e-03 -3.449477e-02 -2.034774e-02 -1.143722e-01
<VARIANCE> 42
 4.346525e-03 5.971613e-03 9.516044e-03 2.518072e-03 5.248651e-03 7.135629e-03 5.481773e-03 1.691680e-02 1.037285e-02 9.011333e-03 7.798159e-03 1.203974e-02 3.417932e-04 4.164324e-04 5.431817e-04 2.425536e-04 3.437287e-04 4.003132e-04 4.352323e-04 5.332126e-04 4.244914e-04 6.464123e-04 5.884730e-04 4.215996e-04 6.809315e-05 3.659338e-05 8.788138e-05 3.068732e-05 6.921274e-05 4.707406e-05 4.643804e-05 1.301930e-04 9.303847e-05 5.356354e-05 6.100096e-05 4.987339e-05 5.514587e-05 2.289461e-04 4.790466e-04 4.602876e-03 4.741222e-03 5.123345e-03
<GCONST> -2.336104e+02
<STATE> 12
<MEAN> 42
 -1.679304e-02 -1.005769e-02 2.762782e-03 1.451871e-02 -7.841704e-03 -7.013640e-03 1.916337e-01 2.943236e-01 2.228130e-01 1.124196e-01 5.506577e-02 -9.474049e-03 2.962556e-02 2.278823e-02 -6.876580e-03 -2.619651e-02 1.821234e-02 8.156409e-03 9.162953e-03 4.480812e-02 5.008914e-02 5.099569e-02 4.254049e-02 3.335377e-02 1.240495e-02 9.515143e-03 -2.859962e-03 -1.092371e-02 7.646705e-03 3.403028e-03 -9.947784e-03 -1.918513e-03 5.015047e-03 1.202382e-02 1.415412e-02 1.419606e-02 -5.786079e-03 -1.029679e-02 1.549117e-02 7.215017e-03 -2.406687e-02 -1.964093e-01
<VARIANCE> 42
 5.880102e-03 8.377552e-03 1.004610e-02 4.457659e-03 6.051385e-03 8.484262e-03 7.465733e-03 2.542095e-02 1.695921e-02 1.475855e-02 1.507622e-02 1.652234e-02 5.096259e-04 5.394604e-04 6.333370e-04 3.671233e-04 4.387276e-04 4.637445e-04 6.546180e-04 9.735971e-04 7.810694e-04 7.043197e-04 7.131507e-04 6.446892e-04 8.901064e-05 7.339796e-05 1.225318e-04 5.068700e-05 8.717478e-05 7.695396e-05 8.516441e-05 1.924832e-04 1.416216e-04 8.553030e-05 6.822751e-05 5.883296e-05 1.111424e-04 6.424670e-04 7.661210e-04 9.203247e-03 6.507998e-03 7.707156e-03
<GCONST> -2.171087e+02
<STATE> 13
<MEAN> 42
 7.498164e-02 1.110507e-01 4.600563e-02 -9.942830e-02 1.406190e-02 8.143788e-02 -3.680353e-02 2.516010e-02 4.099724e-02 4.125120e-02 3.390640e-02 2.439458e-02 4.572712e-04 3.722357e-04 -8.593579e-05 -4.143309e-04 2.715451e-04 1.460052e-04 -1.709453e-04 3.476408e-04 4.929268e-04 6.072582e-04 6.098350e-04 5.408446e-04 1.152879e-04 1.137753e-04 -1.439032e-06 -1.144472e-04 5.887392e-05 5.578143e-05 -1.352689e-04 -3.931190e-05 3.148282e-05 9.517114e-05 1.358282e-04 1.419334e-04 3.415993e-03 -4.564044e-03 1.072166e-04 4.242189e-02 7.621325e-02 5.420499e-03
<VARIANCE> 42
 3.801861e-02 1.856906e-01 6.967136e-02 9.471165e-02 7.574808e-03 1.183919e-01 3.817466e-02 2.492554e-02 1.369002e-02 2.551290e-02 2.320741e-02 1.261662e-02 1.110611e-03 5.952552e-03 2.230532e-03 2.977581e-03 1.834000e-04 3.817246e-03 1.383075e-03 3.691124e-04 4.868529e-04 8.480985e-04 7.412539e-04 3.834110e-04 8.199749e-05 5.425753e-04 2.427659e-04 2.515686e-04 2.681209e-05 3.723215e-04 1.497572e-04 3.136897e-05 5.191566e-05 8.129692e-05 6.764980e-05 3.424435e-05 1.988569e-04 1.956336e-04 2.201335e-04 2.865572e-02 1.082401e-01 1.215822e-02
<GCONST> -1.911089e+02
<STATE> 14
<MEAN> 42
 3.464969e-01 4.184472e-01 7.020020e-02 -3.836470e-01 1.393060e-01 2.428295e-01 -1.110445e-01 2.318124e-01 4.093387e-01 4.584675e-01 4.725291e-01 4.059833e-01 6.930874e-02 4.943054e-02 -1.986506e-02 -5.934281e-02 4.477516e-02 1.481970e-02 -5.318678e-02 -4.647885e-03 3.655257e-02 7.124458e-02 8.671650e-02 8.608995e-02 6.903238e-03 5.406785e-03 -1.512652e-03 -6.162605e-03 4.253498e-03 1.925218e-03 -1.213342e-02 -1.369128e-02 -4.290247e-03 4.290803e-03 8.073192e-03 9.096746e-03 3.061020e-02 -7.008594e-03 2.153661e-02 3.993551e-01 2.671591e-01 -5.587362e-02
<VARIANCE> 42
 1.143594e-01 4.901057e-01 2.845210e-01 2.334320e-01 7.701539e-02 3.610679e-01 1.689262e-01 1.647812e-01 1.164252e-01 9.447110e-02 8.884014e-02 8.739165e-02 6.842660e-03 2.347597e-02 1.245108e-02 1.204680e-02 3.786818e-03 1.625829e-02 7.836041e-03 5.840410e-03 7.383661e-03 7.817980e-03 5.894467e-03 4.129027e-03 3.817721e-04 2.009610e-03 1.077874e-03 9.248939e-04 2.283795e-04 1.448940e-03 7.171951e-04 6.573146e-04 5.936965e-04 5.212925e-04 4.446035e-04 3.087190e-04 9.273793e-04 1.524827e-03 1.153428e-03 8.754724e-02 3.072083e-01 1.002287e-01
<GCONST> -1.168744e+02
<STATE> 15
<MEAN> 42
 3.924764e-01 3.944534e-01 -2.095878e-03 -3.926530e-01 1.999798e-01 1.919157e-01 -4.586809e-01 -4.989923e-01 -1.957784e-01 4.057399e-01 6.179627e-01 6.195343e-01 -3.324101e-02 -2.432169e-02 8.933118e-03 2.878932e-02 -2.118262e-02 -7.779132e-03 -1.326314e-02 -7.065332e-02 -7.930666e-02 -6.800953e-02 -5.774983e-02 -4.353901e-02 -9.124784e-03 -7.865268e-03 1.267345e-03 8.507114e-03 -5.223651e-03 -3.317830e-03 7.789323e-03 5.556515e-03 -2.034060e-03 -9.559466e-03 -1.207581e-02 -1.213895e-02 6.110254e-02 2.606022e-02 7.914542e-03 5.108248e-01 3.110246e-01 4.320920e-01
<VARIANCE> 42
 1.390764e-01 2.204589e-01 3.132913e-01 9.944040e-02 1.713828e-01 2.323327e-01 1.105765e-01 4.620770e-01 8.700345e-01 6.734504e-01 5.258229e-01 3.514577e-01 6.300099e-03 8.448003e-03 6.327749e-03 5.798169e-03 4.210110e-03 5.826121e-03 6.348246e-03 1.439622e-02 1.970460e-02 2.167245e-02 2.750493e-02 2.223556e-02 7.178843e-04 8.185426e-04 7.830931e-04 5.719344e-04 5.472000e-04 6.217819e-04 5.654002e-04 1.705470e-03 2.123680e-03 2.270139e-03 2.930959e-03 2.250962e-03 1.313554e-03 2.016327e-03 1.537225e-03 2.814974e-01 1.991510e-01 2.336185e-01
<GCONST> -9.884888e+01
<STATE> 16
<MEAN> 42
 -1.155468e-01 -6.602062e-02 4.473701e-02 9.057556e-02 -7.772314e-02 -1.656524e-02 -1.332238e-01 -4.134202e-01 -3.602271e-01 -2.736766e-01 -1.931783e-01 -1.116398e-01 -3.682021e-03 -7.048900e-03 -3.351921e-03 5.341649e-03 -1.160820e-04 -5.177822e-03 2.837511e-02 6.276541e-02 4.925644e-02 2.254185e-02 9.189903e-03 -2.344193e-03 7.433962e-03 7.742604e-03 2.976572e-04 -7.608629e-03 3.586116e-03 4.069060e-03 -1.113087e-03 2.064320e-03 7.466699e-03 1.138966e-02 1.207042e-02 1.111184e-02 -5.683957e-03 3.862234e-02 8.270700e-03 -1.388523e-01 -1.144007e-03 2.325683e-01
<VARIANCE> 42
 1.732520e-02 2.506860e-02 3.963213e-02 1.048980e-02 2.158088e-02 2.752222e-02 9.775144e-02 1.415483e-01 1.955673e-01 5.145261e-02 2.273740e-02 2.519221e-02 8.933850e-04 9.878873e-04 1.413676e-03 5.880719e-04 9.078702e-04 9.845414e-04 1.223809e-03 2.868304e-03 4.898592e-03 2.667773e-03 1.692161e-03 1.112187e-03 1.192492e-04 1.393263e-04 1.618323e-04 8.964738e-05 1.060393e-04 1.221862e-04 1.261692e-04 2.456465e-04 5.275155e-04 4.267721e-04 2.991015e-04 1.913275e-04 5.205027e-04 8.090585e-04 1.311214e-03 1.351290e-02 2.272552e-02 8.724233e-02
<GCONST> -1.762063e+02
<STATE> 17
<MEAN> 42
 3.216449e-02 1.683957e-02 -2.630416e-02 -3.715936e-02 3.796937e-02 -1.633813e-03 -4.634909e-02 2.172144e-02 7.175699e-02 6.549849e-02 5.434088e-02 8.003899e-02 1.023489e-04 2.077998e-04 1.063604e-04 -1.546311e-04 -1.355795e-06 1.573794e-04 2.399847e-04 4.532459e-04 5.684032e-04 5.446050e-04 4.099777e-04 2.991370e-04 -1.616577e-05 -3.556091e-05 -1.990981e-05 2.613330e-05 1.538087e-06 -2.862301e-05 -2.688455e-05 -7.673405e-05 -8.285975e-05 -5.665105e-05 -3.986109e-05 -2.117162e-05 1.416715e-03 4.438509e-03 -3.663704e-03 6.361347e-02 1.603349e-03 -3.840141e-03
<VARIANCE> 42
 3.069167e-02 2.926548e-02 7.631662e-02 1.073716e-02 4.629955e-02 4.518000e-02 1.405548e-02 1.155542e-02 6.297083e-02 6.494125e-02 5.337718e-02 5.328932e-02 5.877423e-04 5.580878e-04 1.146226e-03 2.863328e-04 7.296709e-04 7.062642e-04 3.352161e-04 2.122292e-04 4.216355e-04 5.395539e-04 9.570221e-04 1.209368e-03 9.310803e-05 1.083767e-04 1.137081e-04 7.231841e-05 7.674353e-05 8.833124e-05 5.164518e-05 4.697306e-05 5.116259e-05 3.756188e-05 8.567973e-05 1.035514e-04 2.071727e-04 2.169471e-04 2.156248e-04 3.049803e-02 2.343209e-02 8.937273e-03
<GCONST> -2.045562e+02
<STATE> 18
<MEAN> 42
 3.024840e-02 4.354176e-02 9.299473e-03 -3.398573e-02 3.469397e-03 2.384521e-02 -1.548217e-02 4.043601e-02 6.480972e-02 4.938469e-02 5.197407e-02 3.649386e-02 3.437931e-05 2.090839e-05 -1.401696e-05 -2.755916e-05 2.436567e-05 3.449034e-06 7.834195e-05 1.742087e-04 1.845008e-04 1.123305e-04 5.935715e-05 3.898371e-05 -8.487128e-06 -1.727596e-06 6.684957e-06 4.929876e-06 -7.700842e-06 1.890498e-06 -2.146565e-05 -5.007969e-05 -4.242533e-05 -4.080259e-05 -3.568286e-05 -2.900614e-05 2.900257e-03 -3.745202e-03 -2.803463e-03 4.277020e-02 2.603075e-02 -1.613754e-02
<VARIANCE> 42
 9.430857e-03 3.622659e-02 1.084921e-02 1.996928e-02 1.094579e-03 2.121414e-02 2.735883e-02 3.526920e-02 4.685958e-02 4.778737e-02 4.157414e-02 3.057757e-02 3.594600e-04 1.238872e-03 4.703948e-04 6.815625e-04 1.055433e-04 7.674760e-04 9.600086e-04 1.012639e-03 1.420528e-03 1.585273e-03 1.353929e-03 9.864307e-04 5.813605e-05 1.237287e-04 8.021210e-05 7.087593e-05 3.836718e-05 8.756293e-05 9.189052e-05 1.184310e-04 1.307863e-04 1.411478e-04 1.195427e-04 8.960524e-05 2.102858e-04 2.037314e-04 2.210326e-04 3.622556e-02 1.853642e-02 1.337430e-02
<GCONST> -2.046375e+02
<STATE> 19
<MEAN> 42
 2.993432e-02 6.995305e-02 3.203544e-02 -4.262494e-02 -5.087641e-03 4.215787e-02 -2.873521e-02 2.216217e-02 1.357715e-02 4.238074e-02 6.180583e-02 5.751103e-02 1.059199e-05 2.670446e-05 1.633532e-05 -1.849589e-05 -3.346162e-06 2.118853e-05 2.237645e-05 6.796424e-05 3.554093e-05 1.767995e-05 1.136222e-05 1.247213e-05 5.635443e-06 1.173191e-06 -4.330699e-06 -3.624666e-06 4.802302e-06 -1.431643e-06 -1.263834e-05 -2.609925e-05 -1.580391e-05 -7.237815e-06 3.264456e-07 -5.877104e-06 3.756341e-03 -4.078806e-03 -2.812335e-03 4.464775e-02 5.611730e-02 1.110440e-02
<VARIANCE> 42
 6.859477e-03 3.373991e-02 2.169233e-02 1.481260e-02 5.720166e-03 2.616747e-02 1.460811e-02 5.132297e-02 4.010070e-02 2.064497e-02 3.361275e-02 2.985994e-02 1.871239e-04 9.897890e-04 6.799874e-04 4.196334e-04 1.874109e-04 7.873117e-04 4.706961e-04 1.466495e-03 1.083387e-03 6.891667e-04 1.070888e-03 8.273511e-04 4.005993e-05 1.254363e-04 7.792714e-05 6.338026e-05 2.799122e-05 9.158422e-05 4.805928e-05 1.259851e-04 8.586249e-05 9.182481e-05 1.314150e-04 9.019001e-05 2.142730e-04 2.097620e-04 2.216036e-04 1.730193e-02 2.815153e-02 2.459569e-02
<GCONST> -2.082709e+02
<STATE> 20
<MEAN> 42
 3.348216e-02 3.228570e-02 -1.111021e-02 -3.716852e-02 2.521268e-02 2.888504e-03 -1.404876e-02 1.487285e-02 1.844184e-02 1.333662e-02 3.313382e-02 3.601273e-02 6.773773e-05 9.116095e-05 2.332292e-05 -7.953087e-05 2.204991e-05 5.702752e-05 -3.916183e-05 -6.823797e-06 9.828347e-05 8.933653e-05 1.037370e-04 9.633167e-05 -1.016026e-05 1.580538e-06 1.177196e-05 4.277277e-06 -1.078095e-05 6.722994e-06 -1.165050e-05 -2.877232e-05 -3.136465e-05 -1.804606e-05 -1.319302e-05 -9.943451e-06 2.766678e-03 6.074470e-05 3.168997e-03 2.645229e-02 2.079245e-02 2.971162e-03
<VARIANCE> 42
 2.452263e-02 1.439851e-02 1.580841e-02 1.543816e-02 1.648697e-02 9.145183e-03 2.045457e-02 3.265547e-02 3.308626e-02 2.987685e-02 3.414897e-02 3.450612e-02 7.633584e-04 3.316424e-04 5.528171e-04 4.093003e-04 5.759129e-04 2.517781e-04 4.013753e-04 5.572181e-04 6.724458e-04 7.130567e-04 1.017486e-03 1.000711e-03 8.613808e-05 3.659041e-05 6.538036e-05 4.501915e-05 6.670132e-05 2.948286e-05 3.601802e-05 4.694071e-05 5.284399e-05 6.086793e-05 1.001141e-04 9.385337e-05 2.106912e-04 2.163399e-04 2.019434e-04 2.111684e-02 9.095371e-03 1.633215e-02
<GCONST> -2.143341e+02
<STATE> 21
<MEAN> 42
 -1.107069e-02 8.962549e-02 5.006079e-02 -6.437348e-02 8.406837e-03 1.929371e-02 -4.499755e-02 -3.456424e-02 -8.715330e-02 -6.000749e-02 7.649078e-02 -2.885423e-02 -5.001127e-05 -1.020961e-04 -5.194713e-05 7.572173e-05 2.075751e-06 -7.689366e-05 1.233283e-04 3.128665e-04 1.261936e-04 -1.026812e-06 -6.201080e-05 -1.050986e-04 2.065959e-05 -6.950415e-06 -2.735082e-05 -6.727252e-06 2.417510e-05 -1.705419e-05 1.941713e-05 2.213256e-05 1.217338e-05 4.127891e-06 -4.236477e-06 -7.323288e-07 5.181723e-03 5.030944e-03 -1.034868e-02 -4.136827e-03 9.241226e-02 5.622855e-02
<VARIANCE> 42
 2.288654e-02 1.482589e-02 1.984761e-02 1.353786e-02 1.700730e-02 1.184209e-02 1.324519e-02 1.232643e-01 7.883105e-02 4.309800e-02 3.006315e-02 2.672316e-02 7.113527e-04 2.965687e-04 7.128498e-04 3.275309e-04 6.401846e-04 3.268205e-04 2.718667e-04 2.387676e-03 1.296968e-03 7.197144e-04 6.509890e-04 3.764778e-04 9.487205e-05 5.215428e-05 9.087239e-05 5.110555e-05 8.002757e-05 4.780022e-05 1.904605e-05 1.487201e-04 9.140860e-05 5.605140e-05 5.302242e-05 3.276799e-05 1.977384e-04 2.187550e-04 1.136468e-04 2.215659e-02 1.158446e-02 3.584109e-02
<GCONST> -2.104050e+02
<STATE> 22
<MEAN> 42
 3.857579e-02 3.066493e-02 -2.154294e-03 -3.260981e-02 2.294024e-02 1.031685e-02 -2.055628e-02 1.781754e-02 3.382308e-02 3.624557e-02 4.299176e-02 3.856824e-02 2.630427e-04 2.882487e-04 2.315651e-05 -2.755148e-04 1.217917e-04 1.574271e-04 1.160248e-04 4.949988e-04 4.217581e-04 3.986003e-04 2.794127e-04 1.107695e-04 -4.090707e-05 -3.041388e-05 1.056750e-05 3.599064e-05 -2.621093e-05 -9.333471e-06 -3.763948e-05 -9.877054e-05 -8.601928e-05 -5.728355e-05 -4.266818e-05 -2.166180e-05 3.131479e-03 -3.385807e-03 2.177894e-03 3.818475e-02 1.616417e-02 -9.135960e-04
<VARIANCE> 42
 7.885084e-03 1.258338e-02 3.960178e-03 9.209421e-03 2.646125e-03 6.597297e-03 1.189691e-02 3.684881e-02 2.211385e-02 1.275119e-02 1.656084e-02 1.876465e-02 1.267656e-04 3.021608e-04 1.422057e-04 1.787625e-04 5.950302e-05 1.904476e-04 1.992373e-04 4.832738e-04 3.835151e-04 2.965760e-04 4.186238e-04 4.256936e-04 2.382551e-05 3.578639e-05 2.769918e-05 2.293255e-05 1.692609e-05 2.569678e-05 2.196405e-05 3.333326e-05 2.880497e-05 2.546367e-05 3.607548e-05 3.467533e-05 1.825686e-04 1.903884e-04 2.146692e-04 1.113729e-02 8.258218e-03 1.515756e-02
<GCONST> -2.430190e+02
<STATE> 23
<MEAN> 42
 3.523705e-02 7.366605e-02 2.023138e-02 -5.274367e-02 7.049125e-03 4.499404e-02 -5.589289e-03 7.260645e-02 8.537736e-02 8.618847e-02 7.571746e-02 3.982159e-02 -8.378971e-06 1.905766e-05 2.956668e-05 -4.092639e-06 -2.375350e-05 2.622211e-05 4.582136e-05 -1.832909e-04 8.243561e-05 8.713547e-05 6.246033e-05 2.696805e-06 -7.023013e-07 -4.442347e-05 -4.406921e-05 2.233217e-05 2.172802e-05 -4.473995e-05 -1.233305e-05 -5.060809e-05 -5.643935e-05 -4.742930e-05 -3.089623e-05 -1.819350e-05 2.067435e-03 1.705508e-04 2.294328e-03 5.649631e-02 4.971469e-02 -3.090631e-02
<VARIANCE> 42
 7.049930e-03 2.548355e-02 8.829976e-03 1.425139e-02 1.360041e-03 1.545391e-02 2.500376e-02 7.975915e-02 7.903287e-02 4.293888e-02 2.928923e-02 2.168618e-02 1.035108e-04 2.728403e-04 9.105063e-05 1.653266e-04 2.957258e-05 1.563860e-04 3.577823e-04 1.049067e-03 1.113743e-03 8.370108e-04 4.421817e-04 2.339094e-04 1.564835e-05 2.239278e-05 7.859623e-06 1.701840e-05 6.320986e-06 1.127256e-05 2.465099e-05 9.206286e-05 1.025582e-04 8.379064e-05 3.687837e-05 1.632442e-05 1.778413e-04 2.730268e-04 2.455929e-04 2.035637e-02 1.948525e-02 4.024443e-02
<GCONST> -2.335768e+02
<STATE> 24
<MEAN> 42
 4.934404e-03 8.421865e-03 2.899518e-03 -3.696231e-03 1.032188e-03 2.848566e-03 9.734041e-04 1.067734e-02 4.487105e-03 2.034822e-03 5.609453e-03 6.643999e-04 -2.529125e-04 -2.644411e-04 -1.090742e-05 2.584453e-04 -1.219020e-04 -1.389796e-04 2.006358e-04 1.943847e-04 -7.672235e-05 -1.961361e-04 -2.855241e-04 -2.103162e-04 -3.928799e-06 1.890043e-05 2.307864e-05 -7.769784e-06 -1.326503e-05 2.113724e-05 4.044059e-05 8.830114e-05 6.304967e-05 3.651482e-05 1.970564e-05 6.514922e-06 3.629491e-04 -1.680374e-04 -2.613297e-04 2.215102e-03 5.944200e-03 -3.416887e-03
<VARIANCE> 42
 1.100772e-03 1.490439e-03 8.377158e-04 1.109883e-03 5.628843e-04 8.928478e-04 7.952409e-04 4.443396e-03 2.552744e-03 1.785958e-03 1.950680e-03 1.194811e-03 6.933856e-05 5.356877e-05 5.569222e-05 4.758291e-05 4.968698e-05 3.772017e-05 2.345188e-05 7.374013e-05 2.539907e-05 4.065752e-05 2.931122e-05 1.866936e-05 2.520219e-05 1.904530e-05 2.069385e-05 1.697127e-05 1.839090e-05 1.369166e-05 6.153440e-06 2.601508e-05 7.294946e-06 1.211414e-05 7.930917e-06 5.736644e-06 6.002815e-06 2.130902e-05 7.098571e-05 8.906076e-04 8.714924e-04 7.679161e-04
<GCONST> -3.122110e+02
<STATE> 25
<MEAN> 42
 5.875666e-02 5.972863e-02 -6.183974e-03 -6.813262e-02 3.100528e-02 2.815351e-02 -2.462791e-02 4.754077e-02 7.405987e-02 1.141750e-01 1.001253e-01 1.282114e-01 2.190719e-04 2.400049e-04 2.018735e-05 -2.292402e-04 1.019420e-04 1.325573e-04 -3.312240e-04 -2.149916e-04 -6.826126e-05 1.008105e-04 1.052537e-04 1.693919e-04 3.767257e-06 -1.685326e-05 -2.082453e-05 7.013455e-06 1.273111e-05 -1.911925e-05 -2.930868e-05 -7.877855e-05 -5.294767e-05 -1.994577e-05 -1.387531e-05 -5.118292e-07 4.630546e-03 5.672783e-03 2.989941e-03 9.349947e-02 3.723153e-02 -7.771070e-03
<VARIANCE> 42
 3.063708e-02 2.594067e-02 1.185732e-02 2.458746e-02 1.474536e-02 1.132508e-02 4.010283e-02 1.442465e-01 1.007740e-01 8.708527e-02 6.147404e-02 5.846244e-02 1.019598e-03 6.753515e-04 4.032300e-04 7.485673e-04 5.432389e-04 2.870524e-04 7.544123e-04 2.446221e-03 2.147134e-03 2.417067e-03 2.009952e-03 1.494375e-03 1.039969e-04 7.861111e-05 7.036840e-05 7.422756e-05 6.752148e-05 4.904993e-05 5.186360e-05 1.855323e-04 1.915684e-04 2.376628e-04 2.022982e-04 1.441575e-04 4.394692e-04 4.097975e-04 2.808954e-04 4.260525e-02 1.359614e-02 5.349443e-02
<GCONST> -1.892862e+02
<STATE> 26
<MEAN> 42
 1.208504e-02 7.453664e-03 -5.474620e-03 -6.529441e-03 8.680966e-03 -1.535490e-03 -2.509467e-04 1.440722e-02 8.118497e-03 3.812674e-03 9.745058e-03 3.000263e-03 -2.229725e-04 -2.710163e-04 -4.702341e-05 2.464060e-04 -8.916238e-05 -1.609686e-04 3.702128e-04 2.641995e-04 7.552188e-05 -1.243614e-04 -1.938734e-04 -2.364538e-04 9.353913e-06 5.389280e-06 -4.169706e-06 -7.951370e-06 6.762275e-06 2.905144e-07 4.320173e-05 8.161087e-05 6.673555e-05 2.383091e-05 1.369615e-05 8.661300e-08 4.649538e-04 -7.655043e-04 1.186250e-03 5.570032e-03 3.179177e-03 -4.760068e-03
<VARIANCE> 42
 2.018931e-03 1.648485e-03 1.183686e-03 1.558403e-03 1.183818e-03 9.778109e-04 1.313829e-03 3.243127e-03 2.675399e-03 4.062017e-03 2.209280e-03 1.821270e-03 5.440746e-05 3.827026e-05 5.184885e-05 3.335551e-05 4.369326e-05 3.189805e-05 2.411166e-05 7.374013e-05 2.962202e-05 4.065752e-05 2.955360e-05 2.016486e-05 1.916527e-05 1.280489e-05 1.901056e-05 1.122275e-05 1.591993e-05 1.124704e-05 5.185715e-06 2.601508e-05 7.050347e-06 1.211414e-05 7.708148e-06 5.426505e-06 1.340888e-05 2.954089e-05 1.524865e-04 1.403069e-03 8.976008e-04 8.483147e-04
<GCONST> -3.087382e+02
<STATE> 27
<MEAN> 42
 3.966908e-02 -1.049697e-04 -2.748939e-02 -7.372058e-03 2.658665e-02 -1.567621e-02 -4.319105e-02 1.948448e-02 2.762314e-02 8.653562e-03 4.273104e-03 1.834595e-02 5.480769e-04 4.618687e-04 -8.628173e-05 -5.054562e-04 3.208975e-04 1.891568e-04 3.752325e-05 6.134015e-04 8.651497e-04 7.246966e-04 7.006828e-04 5.908152e-04 1.407329e-04 1.402859e-04 -3.054515e-07 -1.401812e-04 7.031997e-05 7.042103e-05 -1.430144e-04 -6.054230e-05 1.114080e-04 1.596444e-04 1.800408e-04 1.678980e-04 2.575492e-03 -7.729504e-04 -8.930104e-03 2.212578e-02 -1.399272e-02 -4.115263e-04
<VARIANCE> 42
 3.132494e-02 1.100399e-02 7.813428e-03 1.924853e-02 1.694191e-02 1.561971e-03 3.961947e-02 4.163972e-02 4.213949e-02 3.621365e-02 3.463795e-02 2.876883e-02 1.166011e-03 4.689736e-04 2.678195e-04 7.505235e-04 6.044802e-04 7.786778e-05 1.060917e-03 1.505305e-03 1.982383e-03 1.916030e-03 1.689351e-03 1.263241e-03 1.361271e-04 6.069768e-05 4.349585e-05 8.753544e-05 7.540252e-05 1.834454e-05 8.313150e-05 1.692371e-04 2.425558e-04 2.321616e-04 1.974363e-04 1.392738e-04 2.700077e-04 2.691105e-04 1.513365e-04 3.121440e-02 2.593874e-03 1.917210e-02
<GCONST> -2.047108e+02
<STATE> 28
<MEAN> 42
 5.392236e-02 8.655917e-02 2.985546e-02 -6.182717e-02 1.464967e-02 6.104352e-02 -1.818151e-02 6.464989e-02 1.027616e-01 1.427998e-01 1.362727e-01 1.210030e-01 -1.307437e-05 1.519353e-04 1.651034e-04 -6.950792e-05 -8.983273e-05 1.592191e-04 -4.144660e-04 -6.523001e-04 -5.888793e-04 -1.045153e-04 7.498322e-05 1.179509e-04 -8.105399e-05 -9.426828e-05 -1.308948e-05 8.787835e-05 -3.442027e-05 -5.364878e-05 5.650809e-05 -5.024925e-06 -8.404447e-05 -1.232275e-04 -1.179203e-04 -1.113840e-04 6.646351e-03 -4.682718e-04 -1.082545e-03 1.074568e-01 5.963390e-02 -1.957497e-02
<VARIANCE> 42
 1.551099e-02 3.330323e-02 1.106451e-02 2.191195e-02 4.962842e-03 1.839896e-02 2.495286e-02 1.059423e-01 1.360299e-01 1.090015e-01 1.004501e-01 7.323563e-02 4.869659e-04 6.364788e-04 3.054219e-04 4.853535e-04 2.391723e-04 3.505632e-04 4.316171e-04 1.651196e-03 2.406060e-03 2.571760e-03 2.535873e-03 1.818715e-03 7.888819e-05 6.519645e-05 5.932986e-05 5.721057e-05 5.328566e-05 4.263111e-05 3.125679e-05 1.144404e-04 1.780041e-04 2.061158e-04 2.058004e-04 1.470737e-04 3.002284e-04 3.070084e-04 2.831192e-04 5.925857e-02 2.240972e-02 4.643435e-02
<GCONST> -1.949374e+02
<STATE> 29
<MEAN> 42
 5.902145e-02 7.134331e-02 -3.564282e-03 -6.422239e-02 3.393401e-02 3.383105e-02 -2.775139e-02 6.688152e-02 8.158096e-02 7.329877e-02 7.860739e-02 7.902966e-02 -6.480806e-04 -9.263405e-04 -2.775675e-04 7.875604e-04 -1.852069e-04 -6.055072e-04 1.228577e-03 1.148236e-03 9.376963e-04 -4.137363e-04 -8.986610e-04 -1.081102e-03 -1.205711e-04 -2.823837e-05 9.263816e-05 7.504486e-05 -1.078039e-04 3.244202e-05 -6.555394e-05 -1.528875e-04 -1.342788e-04 -6.067508e-06 1.904333e-05 2.382192e-06 5.147835e-03 1.675746e-03 -3.587161e-03 6.932167e-02 4.378721e-02 -1.763084e-02
<VARIANCE> 42
 1.542209e-02 1.776222e-02 5.523665e-03 1.492431e-02 6.040653e-03 7.758785e-03 1.799423e-02 7.076200e-02 5.407489e-02 2.951712e-02 3.029465e-02 2.770834e-02 3.443878e-04 2.468440e-04 2.285150e-04 2.384597e-04 2.268059e-04 1.520101e-04 3.415440e-04 1.510997e-03 1.239181e-03 6.413647e-04 5.637651e-04 3.964519e-04 5.851245e-05 3.113515e-05 5.247669e-05 3.170304e-05 4.804666e-05 2.737124e-05 1.930992e-05 1.048531e-04 8.939159e-05 5.565734e-05 4.373389e-05 2.875342e-05 1.686807e-04 2.834970e-04 2.680008e-04 1.938739e-02 9.956435e-03 2.526071e-02
<GCONST> -2.223266e+02
<STATE> 30
<MEAN> 42
 4.755709e-03 5.368408e-03 -2.264474e-04 1.077136e-03 1.785491e-03 3.046166e-03 6.596170e-03 1.454072e-02 7.887073e-03 5.334105e-03 5.575348e-03 3.511349e-03 -2.920066e-04 -2.956456e-04 -3.348454e-06 2.941194e-04 -1.467722e-04 -1.520629e-04 6.305072e-04 6.245933e-04 3.055334e-04 -1.473445e-04 -3.373809e-04 -3.945744e-04 2.541021e-05 4.253234e-05 1.713244e-05 -3.381912e-05 4.341593e-06 2.968276e-05 9.501493e-05 1.828484e-04 1.631563e-04 1.224596e-04 7.892493e-05 3.749644e-05 9.857351e-05 -6.949739e-04 1.105946e-03 2.685763e-03 3.225671e-03 -6.956473e-03
<VARIANCE> 42
 1.118450e-03 1.514802e-03 8.794435e-04 1.128771e-03 5.661544e-04 9.198538e-04 8.449866e-04 2.367528e-03 2.548125e-03 1.725686e-03 1.596204e-03 1.027778e-03 1.000314e-04 5.685124e-05 7.235067e-05 6.035260e-05 7.238835e-05 3.967888e-05 4.549135e-05 7.374013e-05 5.481584e-05 4.065752e-05 2.806672e-05 2.537701e-05 3.488902e-05 1.727014e-05 2.472067e-05 1.989356e-05 2.567970e-05 1.232189e-05 7.140222e-06 2.601508e-05 9.743470e-06 1.211414e-05 7.472448e-06 6.994487e-06 5.455277e-06 1.183998e-05 6.626381e-05 9.263117e-04 8.653929e-04 7.781712e-04
<GCONST> -3.093235e+02
<STATE> 31
<MEAN> 42
 -4.922326e-02 -3.393753e-02 1.215273e-02 4.208564e-02 -2.918625e-02 -1.546400e-02 1.311714e-01 1.914035e-01 1.036497e-01 2.469069e-02 -2.464831e-02 -5.415995e-02 3.468043e-03 7.062397e-03 3.613482e-03 -5.230643e-03 -7.038191e-05 5.412316e-03 1.751665e-02 3.739553e-02 3.504862e-02 2.669583e-02 1.891623e-02 8.771094e-03 7.011919e-03 7.155268e-03 1.344290e-04 -7.077721e-03 3.445965e-03 3.686456e-03 -4.353602e-03 3.840608e-03 6.007480e-03 1.055252e-02 1.106580e-02 9.672618e-03 -5.785805e-03 -6.699122e-03 3.019975e-03 -4.211407e-02 -3.022883e-02 -1.281767e-01
<VARIANCE> 42
 4.283030e-03 1.013338e-02 9.410498e-03 4.630991e-03 4.281368e-03 8.480701e-03 1.158139e-02 7.179943e-02 1.522465e-02 7.525450e-03 5.873632e-03 4.245353e-03 2.150197e-04 2.910766e-04 2.117750e-04 1.995410e-04 1.408614e-04 2.003443e-04 5.645684e-04 7.506819e-04 7.804714e-04 6.788949e-04 4.353830e-04 3.340741e-04 5.391709e-05 7.857226e-05 8.099955e-05 4.564236e-05 4.891585e-05 6.705669e-05 5.113032e-05 1.083175e-04 6.330448e-05 6.504093e-05 6.116278e-05 4.805245e-05 6.385291e-05 2.190474e-04 2.311696e-04 4.415965e-03 7.687664e-03 1.420804e-02
<GCONST> -2.328994e+02
<STATE> 32
<MEAN> 42
 -3.509816e-02 -2.042548e-02 1.187832e-02 2.816282e-02 -2.191043e-02 -8.866703e-03 1.423858e-01 2.323600e-01 1.414771e-01 6.101166e-02 6.895617e-03 -3.308090e-02 1.438532e-02 1.679874e-02 2.401819e-03 -1.556795e-02 5.969722e-03 9.632574e-03 1.001681e-02 4.000384e-02 4.079447e-02 3.758125e-02 3.202392e-02 2.170547e-02 1.088810e-02 9.595955e-03 -1.316796e-03 -1.024904e-02 6.080843e-03 4.120633e-03 -6.595598e-03 3.421865e-03 6.656097e-03 1.134566e-02 1.306421e-02 1.274622e-02 -5.145052e-03 -6.630052e-03 5.567428e-03 -2.037209e-02 -2.409310e-02 -1.493337e-01
<VARIANCE> 42
 4.002749e-03 1.231843e-02 9.409400e-03 5.590373e-03 3.765065e-03 9.543382e-03 1.435121e-02 8.548587e-02 2.151147e-02 1.154563e-02 8.141243e-03 5.595866e-03 3.585169e-04 3.051079e-04 2.914097e-04 2.577237e-04 2.503824e-04 2.117576e-04 4.845340e-04 8.966348e-04 8.480219e-04 8.207195e-04 5.359401e-04 4.622404e-04 8.808637e-05 1.365102e-04 1.111537e-04 8.452443e-05 6.664266e-05 1.010675e-04 1.018364e-04 2.330336e-04 1.416243e-04 9.098875e-05 1.075928e-04 7.323665e-05 7.120986e-05 3.894641e-04 3.200676e-04 6.090966e-03 8.932877e-03 1.754385e-02
<GCONST> -2.202646e+02
<STATE> 33
<MEAN> 42
 -8.025292e-03 9.376839e-03 1.434961e-02 -3.152639e-04 -9.823980e-03 7.286232e-03 1.474681e-01 2.787412e-01 1.954450e-01 1.120205e-01 5.415076e-02 4.111275e-03 2.714229e-02 2.686282e-02 -3.071981e-04 -2.699202e-02 1.366392e-02 1.328426e-02 2.200244e-03 4.190900e-02 4.836499e-02 4.893938e-02 4.590712e-02 3.597345e-02 1.273630e-02 9.646184e-03 -3.107711e-03 -1.120722e-02 7.911301e-03 3.250022e-03 -8.062149e-03 1.363499e-03 6.246039e-03 1.060617e-02 1.325025e-02 1.373223e-02 -3.394320e-03 -8.207461e-03 8.952928e-03 1.612347e-02 -7.515704e-03 -1.711149e-01
<VARIANCE> 42
 4.320917e-03 1.039390e-02 6.640091e-03 5.601179e-03 3.173092e-03 7.175261e-03 1.730281e-02 9.990831e-02 2.904682e-02 1.645853e-02 1.083687e-02 7.634399e-03 7.110436e-04 5.679365e-04 6.011840e-04 4.877913e-04 5.177319e-04 4.066756e-04 6.777794e-04 1.726485e-03 1.409358e-03 1.091288e-03 8.136875e-04 7.231783e-04 1.117237e-04 1.404413e-04 1.106578e-04 9.856687e-05 7.616889e-05 9.607747e-05 1.905497e-04 3.683275e-04 2.532892e-04 1.407908e-04 1.562277e-04 1.199878e-04 7.856188e-05 5.328017e-04 4.483697e-04 8.176719e-03 7.277951e-03 2.104495e-02
<GCONST> -2.083828e+02
<STATE> 34
<MEAN> 42
 3.328023e-02 4.806057e-02 1.144114e-02 -4.047110e-02 1.202385e-02 2.535144e-02 1.435121e-01 3.260192e-01 2.600312e-01 1.758640e-01 1.161234e-01 5.656358e-02 4.078088e-02 3.712764e-02 -3.695748e-03 -3.896279e-02 2.222805e-02 1.672119e-02 -8.914595e-03 3.782299e-02 5.288092e-02 5.881340e-02 5.910859e-02 5.000783e-02 1.241856e-02 9.185562e-03 -3.246878e-03 -1.082084e-02 7.888674e-03 2.995510e-03 -9.987140e-03 -3.879887e-03 2.754928e-03 8.678206e-03 1.207523e-02 1.308892e-02 -5.067140e-04 -1.082487e-02 1.241576e-02 6.697681e-02 1.310438e-02 -1.908475e-01
<VARIANCE> 42
 6.308747e-03 9.086236e-03 5.273126e-03 6.394766e-03 3.983187e-03 5.393394e-03 1.942474e-02 1.189826e-01 4.161767e-02 2.284013e-02 1.481219e-02 1.202354e-02 1.220623e-03 1.023259e-03 1.179946e-03 8.255328e-04 9.449560e-04 7.887117e-04 1.359186e-03 3.252217e-03 2.556358e-03 1.716240e-03 1.454546e-03 1.355523e-03 1.128936e-04 1.272446e-04 1.109688e-04 9.248916e-05 7.965606e-05 8.945044e-05 1.979930e-04 3.744088e-04 3.210267e-04 2.128783e-04 2.115971e-04 1.826532e-04 9.424192e-05 6.847292e-04 6.111742e-04 1.072311e-02 5.947701e-03 2.610620e-02
<GCONST> -1.970901e+02
<STATE> 35
<MEAN> 42
 1.233766e-01 1.286395e-01 2.612048e-03 -1.261111e-01 6.084669e-02 6.206311e-02 1.306958e-01 4.302544e-01 3.847414e-01 3.138818e-01 2.347707e-01 1.641908e-01 6.555491e-02 5.719268e-02 -8.393491e-03 -6.139667e-02 3.712771e-02 2.464483e-02 -4.187507e-02 -6.727310e-03 2.031520e-02 5.891892e-02 8.762284e-02 9.030126e-02 1.113260e-02 1.160802e-02 4.705217e-04 -1.137595e-02 5.404059e-03 6.164975e-03 -1.811299e-02 -2.367220e-02 -1.471831e-02 2.650445e-03 1.724343e-02 2.176940e-02 4.005346e-03 -1.474984e-02 1.287366e-02 1.710504e-01 5.519034e-02 -2.312484e-01
<VARIANCE> 42
 2.849684e-02 2.290253e-02 9.094166e-03 2.367624e-02 1.349397e-02 8.847542e-03 4.805619e-02 2.440561e-01 9.499326e-02 4.315074e-02 5.689867e-02 8.509295e-02 2.365510e-03 2.348485e-03 2.143610e-03 1.819187e-03 1.667465e-03 1.655399e-03 5.785985e-03 1.518128e-02 1.178633e-02 2.690716e-03 6.623573e-03 1.082621e-02 3.017685e-04 1.506656e-04 3.158750e-04 1.472337e-04 2.700395e-04 1.588405e-04 3.427437e-04 9.495379e-04 9.129164e-04 2.719219e-04 5.060688e-04 7.310614e-04 2.285692e-04 1.038174e-03 7.864861e-04 3.598254e-02 1.628148e-02 7.655136e-02
<GCONST> -1.576160e+02
<STATE> 36
<MEAN> 42
 6.381749e-02 6.418873e-02 2.326483e-03 -6.350315e-02 2.582544e-02 3.073669e-02 -5.168350e-02 -4.610505e-02 -1.076870e-03 1.708161e-02 1.451907e-01 1.628059e-01 3.186513e-04 2.628685e-04 -5.603917e-05 -2.907198e-04 1.885928e-04 1.050052e-04 -9.836687e-05 2.808703e-04 5.044464e-04 4.991366e-04 3.664501e-04 2.406094e-04 3.920018e-05 1.904816e-05 -1.996294e-05 -2.893734e-05 3.004846e-05 -1.419394e-07 -1.514601e-05 1.538977e-05 8.369701e-05 7.564089e-05 -6.165763e-06 -2.681371e-05 4.919751e-03 -3.290007e-03 -2.819268e-03 9.171436e-02 5.388482e-02 5.883661e-02
<VARIANCE> 42
 1.939535e-02 2.526115e-02 3.889985e-03 2.136065e-02 5.375410e-03 9.808278e-03 3.156633e-02 5.855069e-02 1.156038e-01 3.637822e-02 1.407120e-01 1.670279e-01 7.371323e-04 1.072948e-03 2.976765e-04 8.306209e-04 2.501311e-04 5.037178e-04 1.512560e-03 2.968934e-03 3.792027e-03 1.864361e-03 7.287676e-03 7.530883e-03 8.543097e-05 1.397854e-04 9.295735e-05 8.936528e-05 5.427401e-05 9.530621e-05 2.246708e-04 4.828818e-04 2.767934e-04 2.615054e-04 1.084284e-03 9.913096e-04 2.041548e-04 2.189834e-04 2.171165e-04 5.047574e-02 2.472539e-02 6.210684e-02
<GCONST> -1.812991e+02
<STATE> 37
<MEAN> 42
 4.106763e-01 4.997156e-01 8.419735e-02 -4.541968e-01 1.643086e-01 2.893498e-01 -4.532863e-01 -3.660911e-01 -1.267069e-01 4.691963e-01 6.739342e-01 6.656754e-01 -1.576414e-02 -1.350390e-02 2.274705e-03 1.464781e-02 -9.062699e-03 -5.645431e-03 -2.501100e-02 -6.477900e-02 -6.481067e-02 -4.704664e-02 -3.671791e-02 -2.219719e-02 -7.929243e-03 -7.132436e-03 8.000514e-04 7.531582e-03 -4.386116e-03 -3.192152e-03 4.873909e-03 2.468760e-03 -2.354437e-03 -8.124849e-03 -1.039764e-02 -1.030667e-02 5.538923e-02 2.278835e-02 1.151105e-03 5.472632e-01 3.938351e-01 3.878655e-01
<VARIANCE> 42
 1.436561e-01 3.224513e-01 3.369235e-01 1.495285e-01 1.600769e-01 2.946202e-01 1.463285e-01 7.398265e-01 8.486275e-01 5.973292e-01 4.917319e-01 3.013142e-01 9.176903e-03 1.623338e-02 9.566624e-03 1.032223e-02 5.337779e-03 1.063269e-02 8.448850e-03 1.602454e-02 2.020596e-02 2.467425e-02 3.387117e-02 2.564264e-02 7.218670e-04 1.378589e-03 1.025922e-03 7.936774e-04 5.312624e-04 1.025331e-03 8.029774e-04 1.964278e-03 2.015295e-03 2.258207e-03 3.367962e-03 2.338596e-03 1.400112e-03 1.837060e-03 1.647492e-03 2.641803e-01 2.496133e-01 2.854398e-01
<GCONST> -9.103497e+01
<STATE> 38
<MEAN> 42
 3.580054e-02 6.550151e-02 3.603562e-02 -3.843188e-02 2.244850e-03 5.494777e-02 -3.243977e-02 3.047363e-02 3.898475e-02 9.235239e-02 1.018443e-01 9.456711e-02 2.299404e-04 1.144282e-04 -1.165043e-04 -1.764022e-04 1.806143e-04 -3.672787e-06 2.965090e-03 6.236133e-03 5.567002e-03 2.751363e-03 1.600917e-03 5.368367e-04 5.059545e-04 4.848599e-04 -2.077281e-05 -4.951645e-04 2.656259e-04 2.324529e-04 -1.901751e-04 -3.561532e-04 6.352549e-06 4.986662e-04 6.927049e-04 7.220813e-04 3.860480e-03 -1.232984e-03 9.229684e-04 7.703079e-02 5.009576e-02 5.856812e-03
<VARIANCE> 42
 1.507239e-02 3.467105e-02 1.572354e-02 2.106375e-02 6.729431e-03 2.157794e-02 2.245045e-02 1.215482e-01 1.584218e-01 1.058769e-01 1.163909e-01 7.425077e-02 3.697299e-04 4.246303e-04 3.320463e-04 3.142424e-04 2.451368e-04 2.876385e-04 3.172255e-04 1.503381e-03 1.981425e-03 1.587635e-03 2.213723e-03 1.306949e-03 8.629781e-05 6.929096e-05 6.255395e-05 6.219016e-05 5.717274e-05 4.457019e-05 3.497729e-05 1.075518e-04 1.282178e-04 1.688514e-04 2.357219e-04 1.403053e-04 2.172320e-04 3.600093e-04 3.109195e-04 5.683625e-02 2.577132e-02 5.099609e-02
<GCONST> -1.964484e+02
<STATE> 39
<MEAN> 42
 3.457091e-02 2.306638e-02 -1.665508e-02 -2.852471e-02 2.376406e-02 -2.461262e-03 -3.213649e-03 2.843283e-02 4.216500e-02 2.391051e-02 2.519596e-02 4.281697e-02 1.742993e-04 1.507069e-04 -2.373925e-05 -1.620706e-04 9.846538e-05 6.509471e-05 2.000528e-04 2.238733e-04 4.087744e-04 3.081000e-04 2.985179e-04 1.858903e-04 5.014022e-06 1.090447e-05 5.748952e-06 -7.998970e-06 -3.810674e-07 9.023010e-06 -6.048579e-05 -5.167184e-05 -5.286603e-05 -1.625712e-05 -4.469384e-06 1.222801e-06 4.040619e-04 -7.572785e-04 2.757963e-03 2.860692e-02 9.981604e-03 -1.083378e-02
<VARIANCE> 42
 1.332321e-02 3.704475e-03 7.236369e-03 6.811881e-03 9.433675e-03 2.028419e-03 6.992362e-03 3.172113e+00 5.408644e-02 6.756144e-01 2.228010e-02 3.450339e-02 5.165630e-04 7.549976e-05 3.797608e-04 2.010546e-04 4.323364e-04 9.829865e-05 9.898996e-05 2.409533e-01 4.327590e-04 1.058325e-01 4.376629e-04 4.236836e-04 8.323832e-05 1.943154e-05 7.864845e-05 3.165703e-05 7.655804e-05 2.824229e-05 1.618948e-05 9.222255e-02 3.229333e-05 3.964317e-02 4.402974e-05 4.220932e-05 1.458570e-04 1.748233e-04 1.883213e-04 6.308419e-02 3.315657e-03 3.160017e-01
<GCONST> -1.971315e+02
<TRANSP> 40
 0.000000e+00 1.000000e+00 0.000000e+00 0.000000e+00 0.000000e+00 0.000000e+00 0.000000e+00 0.000000e+00 0.000000e+00 0.000000e+00 0.000000e+00 0.000000e+00 0.000000e+00 0.000000e+00 0.000000e+00 0.000000e+00 0.000000e+00 0.000000e+00 0.000000e+00 0.000000e+00 0.000000e+00 0.000000e+00 0.000000e+00 0.000000e+00 0.000000e+00 0.000000e+00 0.000000e+00 0.000000e+00 0.000000e+00 0.000000e+00 0.000000e+00 0.000000e+00 0.000000e+00 0.000000e+00 0.000000e+00 0.000000e+00 0.000000e+00 0.000000e+00 0.000000e+00 0.000000e+00
 0.000000e+00 9.930863e-01 6.913634e-03 0.000000e+00 0.000000e+00 0.000000e+00 0.000000e+00 0.000000e+00 0.000000e+00 0.000000e+00 0.000000e+00 0.000000e+00 0.000000e+00 0.000000e+00 0.000000e+00 0.000000e+00 0.000000e+00 0.000000e+00 0.000000e+00 0.000000e+00 0.000000e+00 0.000000e+00 0.000000e+00 0.000000e+00 0.000000e+00 0.000000e+00 0.000000e+00 0.000000e+00 0.000000e+00 0.000000e+00 0.000000e+00 0.000000e+00 0.000000e+00 0.000000e+00 0.000000e+00 0.000000e+00 0.000000e+00 0.000000e+00 0.000000e+00 0.000000e+00
 0.000000e+00 0.000000e+00 9.818694e-01 1.813062e-02 0.000000e+00 0.000000e+00 0.000000e+00 0.000000e+00 0.000000e+00 0.000000e+00 0.000000e+00 0.000000e+00 0.000000e+00 0.000000e+00 0.000000e+00 0.000000e+00 0.000000e+00 0.000000e+00 0.000000e+00 0.000000e+00 0.000000e+00 0.000000e+00 0.000000e+00 0.000000e+00 0.000000e+00 0.000000e+00 0.000000e+00 0.000000e+00 0.000000e+00 0.000000e+00 0.000000e+00 0.000000e+00 0.000000e+00 0.000000e+00 0.000000e+00 0.000000e+00 0.000000e+00 0.000000e+00 0.000000e+00 0.000000e+00
 0.000000e+00 0.000000e+00 0.000000e+00 9.918599e-01 8.140045e-03 0.000000e+00 0.000000e+00 0.000000e+00 0.000000e+00 0.000000e+00 0.000000e+00 0.000000e+00 0.000000e+00 0.000000e+00 0.000000e+00 0.000000e+00 0.000000e+00 0.000000e+00 0.000000e+00 0.000000e+00 0.000000e+00 0.000000e+00 0.000000e+00 0.000000e+00 0.000000e+00 0.000000e+00 0.000000e+00 0.000000e+00 0.000000e+00 0.000000e+00 0.000000e+00 0.000000e+00 0.000000e+00 0.000000e+00 0.000000e+00 0.000000e+00 0.000000e+00 0.000000e+00 0.000000e+00 0.000000e+00
 0.000000e+00 0.000000e+00 0.000000e+00 0.000000e+00 7.786574e-01 2.213426e-01 0.000000e+00 0.000000e+00 0.000000e+00 0.000000e+00 0.000000e+00 0.000000e+00 0.000000e+00 0.000000e+00 0.000000e+00 0.000000e+00 0.000000e+00 0.000000e+00 0.000000e+00 0.000000e+00 0.000000e+00 0.000000e+00 0.000000e+00 0.000000e+00 0.000000e+00 0.000000e+00 0.000000e+00 0.000000e+00 0.000000e+00 0.000000e+00 0.000000e+00 0.000000e+00 0.000000e+00 0.000000e+00 0.000000e+00 0.000000e+00 0.000000e+00 0.000000e+00 0.000000e+00 0.000000e+00
 0.000000e+00 0.000000e+00 0.000000e+00 0.000000e+00 0.000000e+00 9.947311e-01 5.268845e-03 0.000000e+00 0.000000e+00 0.000000e+00 0.000000e+00 0.000000e+00 0.000000e+00 0.000000e+00 0.000000e+00 0.000000e+00 0.000000e+00 0.000000e+00 0.000000e+00 0.000000e+00 0.000000e+00 0.000000e+00 0.000000e+00 0.000000e+00 0.000000e+00 0.000000e+00 0.000000e+00 0.000000e+00 0.000000e+00 0.000000e+00 0.000000e+00 0.000000e+00 0.000000e+00 0.000000e+00 0.000000e+00 0.000000e+00 0.000000e+00 0.000000e+00 0.000000e+00 0.000000e+00
 0.000000e+00 0.000000e+00 0.000000e+00 0.000000e+00 0.000000e+00 0.000000e+00 9.981711e-01 1.828883e-03 0.000000e+00 0.000000e+00 0.000000e+00 0.000000e+00 0.000000e+00 0.000000e+00 0.000000e+00 0.000000e+00 0.000000e+00 0.000000e+00 0.000000e+00 0.000000e+00 0.000000e+00 0.000000e+00 0.000000e+00 0.000000e+00 0.000000e+00 0.000000e+00 0.000000e+00 0.000000e+00 0.000000e+00 0.000000e+00 0.000000e+00 0.000000e+00 0.000000e+00 0.000000e+00 0.000000e+00 0.000000e+00 0.000000e+00 0.000000e+00 0.000000e+00 0.000000e+00
 0.000000e+00 0.000000e+00 0.000000e+00 0.000000e+00 0.000000e+00 0.000000e+00 0.000000e+00 9.906887e-01 9.311317e-03 0.000000e+00 0.000000e+00 0.000000e+00 0.000000e+00 0.000000e+00 0.000000e+00 0.000000e+00 0.000000e+00 0.000000e+00 0.000000e+00 0.000000e+00 0.000000e+00 0.000000e+00 0.000000e+00 0.000000e+00 0.000000e+00 0.000000e+00 0.000000e+00 0.000000e+00 0.000000e+00 0.000000e+00 0.000000e+00 0.000000e+00 0.000000e+00 0.000000e+00 0.000000e+00 0.000000e+00 0.000000e+00 0.000000e+00 0.000000e+00 0.000000e+00
 0.000000e+00 0.000000e+00 0.000000e+00 0.000000e+00 0.000000e+00 0.000000e+00 0.000000e+00 0.000000e+00 8.112770e-01 1.887229e-01 0.000000e+00 0.000000e+00 0.000000e+00 0.000000e+00 0.000000e+00 0.000000e+00 0.000000e+00 0.000000e+00 0.000000e+00 0.000000e+00 0.000000e+00 0.000000e+00 0.000000e+00 0.000000e+00 0.000000e+00 0.000000e+00 0.000000e+00 0.000000e+00 0.000000e+00 0.000000e+00 0.000000e+00 0.000000e+00 0.000000e+00 0.000000e+00 0.000000e+00 0.000000e+00 0.000000e+00 0.000000e+00 0.000000e+00 0.000000e+00
 0.000000e+00 0.000000e+00 0.000000e+00 0.000000e+00 0.000000e+00 0.000000e+00 0.000000e+00 0.000000e+00 0.000000e+00 9.916059e-01 8.394115e-03 0.000000e+00 0.000000e+00 0.000000e+00 0.000000e+00 0.000000e+00 0.000000e+00 0.000000e+00 0.000000e+00 0.000000e+00 0.000000e+00 0.000000e+00 0.000000e+00 0.000000e+00 0.000000e+00 0.000000e+00 0.000000e+00 0.000000e+00 0.000000e+00 0.000000e+00 0.000000e+00 0.000000e+00 0.000000e+00 0.000000e+00 0.000000e+00 0.000000e+00 0.000000e+00 0.000000e+00 0.000000e+00 0.000000e+00
 0.000000e+00 0.000000e+00 0.000000e+00 0.000000e+00 0.000000e+00 0.000000e+00 0.000000e+00 0.000000e+00 0.000000e+00 0.000000e+00 3.178993e-01 6.821007e-01 0.000000e+00 0.000000e+00 0.000000e+00 0.000000e+00 0.000000e+00 0.000000e+00 0.000000e+00 0.000000e+00 0.000000e+00 0.000000e+00 0.000000e+00 0.000000e+00 0.000000e+00 0.000000e+00 0.000000e+00 0.000000e+00 0.000000e+00 0.000000e+00 0.000000e+00 0.000000e+00 0.000000e+00 0.000000e+00 0.000000e+00 0.000000e+00 0.000000e+00 0.000000e+00 0.000000e+00 0.000000e+00
 0.000000e+00 0.000000e+00 0.000000e+00 0.000000e+00 0.000000e+00 0.000000e+00 0.000000e+00 0.000000e+00 0.000000e+00 0.000000e+00 0.000000e+00 5.877362e-01 4.122638e-01 0.000000e+00 0.000000e+00 0.000000e+00 0.000000e+00 0.000000e+00 0.000000e+00 0.000000e+00 0.000000e+00 0.000000e+00 0.000000e+00 0.000000e+00 0.000000e+00 0.000000e+00 0.000000e+00 0.000000e+00 0.000000e+00 0.000000e+00 0.000000e+00 0.000000e+00 0.000000e+00 0.000000e+00 0.000000e+00 0.000000e+00 0.000000e+00 0.000000e+00 0.000000e+00 0.000000e+00
 0.000000e+00 0.000000e+00 0.000000e+00 0.000000e+00 0.000000e+00 0.000000e+00 0.000000e+00 0.000000e+00 0.000000e+00 0.000000e+00 0.000000e+00 0.000000e+00 9.914510e-01 8.549011e-03 0.000000e+00 0.000000e+00 0.000000e+00 0.000000e+00 0.000000e+00 0.000000e+00 0.000000e+00 0.000000e+00 0.000000e+00 0.000000e+00 0.000000e+00 0.000000e+00 0.000000e+00 0.000000e+00 0.000000e+00 0.000000e+00 0.000000e+00 0.000000e+00 0.000000e+00 0.000000e+00 0.000000e+00 0.000000e+00 0.000000e+00 0.000000e+00 0.000000e+00 0.000000e+00
 0.000000e+00 0.000000e+00 0.000000e+00 0.000000e+00 0.000000e+00 0.000000e+00 0.000000e+00 0.000000e+00 0.000000e+00 0.000000e+00 0.000000e+00 0.000000e+00 0.000000e+00 7.982110e-01 2.017890e-01 0.000000e+00 0.000000e+00 0.000000e+00 0.000000e+00 0.000000e+00 0.000000e+00 0.000000e+00 0.000000e+00 0.000000e+00 0.000000e+00 0.000000e+00 0.000000e+00 0.000000e+00 0.000000e+00 0.000000e+00 0.000000e+00 0.000000e+00 0.000000e+00 0.000000e+00 0.000000e+00 0.000000e+00 0.000000e+00 0.000000e+00 0.000000e+00 0.000000e+00
 0.000000e+00 0.000000e+00 0.000000e+00 0.000000e+00 0.000000e+00 0.000000e+00 0.000000e+00 0.000000e+00 0.000000e+00 0.000000e+00 0.000000e+00 0.000000e+00 0.000000e+00 0.000000e+00 9.267993e-01 7.320071e-02 0.000000e+00 0.000000e+00 0.000000e+00 0.000000e+00 0.000000e+00 0.000000e+00 0.000000e+00 0.000000e+00 0.000000e+00 0.000000e+00 0.000000e+00 0.000000e+00 0.000000e+00 0.000000e+00 0.000000e+00 0.000000e+00 0.000000e+00 0.000000e+00 0.000000e+00 0.000000e+00 0.000000e+00 0.000000e+00 0.000000e+00 0.000000e+00
 0.000000e+00 0.000000e+00 0.000000e+00 0.000000e+00 0.000000e+00 0.000000e+00 0.000000e+00 0.000000e+00 0.000000e+00 0.000000e+00 0.000000e+00 0.000000e+00 0.000000e+00 0.000000e+00 0.000000e+00 8.569903e-01 1.430097e-01 0.000000e+00 0.000000e+00 0.000000e+00 0.000000e+00 0.000000e+00 0.000000e+00 0.000000e+00 0.000000e+00 0.000000e+00 0.000000e+00 0.000000e+00 0.000000e+00 0.000000e+00 0.000000e+00 0.000000e+00 0.000000e+00 0.000000e+00 0.000000e+00 0.000000e+00 0.000000e+00 0.000000e+00 0.000000e+00 0.000000e+00
 0.000000e+00 0.000000e+00 0.000000e+00 0.000000e+00 0.000000e+00 0.000000e+00 0.000000e+00 0.000000e+00 0.000000e+00 0.000000e+00 0.000000e+00 0.000000e+00 0.000000e+00 0.000000e+00 0.000000e+00 0.000000e+00 9.922880e-01 7.712018e-03 0.000000e+00 0.000000e+00 0.000000e+00 0.000000e+00 0.000000e+00 0.000000e+00 0.000000e+00 0.000000e+00 0.000000e+00 0.000000e+00 0.000000e+00 0.000000e+00 0.000000e+00 0.000000e+00 0.000000e+00 0.000000e+00 0.000000e+00 0.000000e+00 0.000000e+00 0.000000e+00 0.000000e+00 0.000000e+00
 0.000000e+00 0.000000e+00 0.000000e+00 0.000000e+00 0.000000e+00 0.000000e+00 0.000000e+00 0.000000e+00 0.000000e+00 0.000000e+00 0.000000e+00 0.000000e+00 0.000000e+00 0.000000e+00 0.000000e+00 0.000000e+00 0.000000e+00 9.955252e-01 4.474847e-03 0.000000e+00 0.000000e+00 0.000000e+00 0.000000e+00 0.000000e+00 0.000000e+00 0.000000e+00 0.000000e+00 0.000000e+00 0.000000e+00 0.000000e+00 0.000000e+00 0.000000e+00 0.000000e+00 0.000000e+00 0.000000e+00 0.000000e+00 0.000000e+00 0.000000e+00 0.000000e+00 0.000000e+00
 0.000000e+00 0.000000e+00 0.000000e+00 0.000000e+00 0.000000e+00 0.000000e+00 0.000000e+00 0.000000e+00 0.000000e+00 0.000000e+00 0.000000e+00 0.000000e+00 0.000000e+00 0.000000e+00 0.000000e+00 0.000000e+00 0.000000e+00 0.000000e+00 9.952540e-01 4.745980e-03 0.000000e+00 0.000000e+00 0.000000e+00 0.000000e+00 0.000000e+00 0.000000e+00 0.000000e+00 0.000000e+00 0.000000e+00 0.000000e+00 0.000000e+00 0.000000e+00 0.000000e+00 0.000000e+00 0.000000e+00 0.000000e+00 0.000000e+00 0.000000e+00 0.000000e+00 0.000000e+00
 0.000000e+00 0.000000e+00 0.000000e+00 0.000000e+00 0.000000e+00 0.000000e+00 0.000000e+00 0.000000e+00 0.000000e+00 0.000000e+00 0.000000e+00 0.000000e+00 0.000000e+00 0.000000e+00 0.000000e+00 0.000000e+00 0.000000e+00 0.000000e+00 0.000000e+00 9.979188e-01 2.081181e-03 0.000000e+00 0.000000e+00 0.000000e+00 0.000000e+00 0.000000e+00 0.000000e+00 0.000000e+00 0.000000e+00 0.000000e+00 0.000000e+00 0.000000e+00 0.000000e+00 0.000000e+00 0.000000e+00 0.000000e+00 0.000000e+00 0.000000e+00 0.000000e+00 0.000000e+00
 0.000000e+00 0.000000e+00 0.000000e+00 0.000000e+00 0.000000e+00 0.000000e+00 0.000000e+00 0.000000e+00 0.000000e+00 0.000000e+00 0.000000e+00 0.000000e+00 0.000000e+00 0.000000e+00 0.000000e+00 0.000000e+00 0.000000e+00 0.000000e+00 0.000000e+00 0.000000e+00 9.943903e-01 5.609737e-03 0.000000e+00 0.000000e+00 0.000000e+00 0.000000e+00 0.000000e+00 0.000000e+00 0.000000e+00 0.000000e+00 0.000000e+00 0.000000e+00 0.000000e+00 0.000000e+00 0.000000e+00 0.000000e+00 0.000000e+00 0.000000e+00 0.000000e+00 0.000000e+00
 0.000000e+00 0.000000e+00 0.000000e+00 0.000000e+00 0.000000e+00 0.000000e+00 0.000000e+00 0.000000e+00 0.000000e+00 0.000000e+00 0.000000e+00 0.000000e+00 0.000000e+00 0.000000e+00 0.000000e+00 0.000000e+00 0.000000e+00 0.000000e+00 0.000000e+00 0.000000e+00 0.000000e+00 9.951597e-01 4.840346e-03 0.000000e+00 0.000000e+00 0.000000e+00 0.000000e+00 0.000000e+00 0.000000e+00 0.000000e+00 0.000000e+00 0.000000e+00 0.000000e+00 0.000000e+00 0.000000e+00 0.000000e+00 0.000000e+00 0.000000e+00 0.000000e+00 0.000000e+00
 0.000000e+00 0.000000e+00 0.000000e+00 0.000000e+00 0.000000e+00 0.000000e+00 0.000000e+00 0.000000e+00 0.000000e+00 0.000000e+00 0.000000e+00 0.000000e+00 0.000000e+00 0.000000e+00 0.000000e+00 0.000000e+00 0.000000e+00 0.000000e+00 0.000000e+00 0.000000e+00 0.000000e+00 0.000000e+00 9.895475e-01 1.045255e-02 0.000000e+00 0.000000e+00 0.000000e+00 0.000000e+00 0.000000e+00 0.000000e+00 0.000000e+00 0.000000e+00 0.000000e+00 0.000000e+00 0.000000e+00 0.000000e+00 0.000000e+00 0.000000e+00 0.000000e+00 0.000000e+00
 0.000000e+00 0.000000e+00 0.000000e+00 0.000000e+00 0.000000e+00 0.000000e+00 0.000000e+00 0.000000e+00 0.000000e+00 0.000000e+00 0.000000e+00 0.000000e+00 0.000000e+00 0.000000e+00 0.000000e+00 0.000000e+00 0.000000e+00 0.000000e+00 0.000000e+00 0.000000e+00 0.000000e+00 0.000000e+00 0.000000e+00 9.965861e-01 3.413896e-03 0.000000e+00 0.000000e+00 0.000000e+00 0.000000e+00 0.000000e+00 0.000000e+00 0.000000e+00 0.000000e+00 0.000000e+00 0.000000e+00 0.000000e+00 0.000000e+00 0.000000e+00 0.000000e+00 0.000000e+00
 0.000000e+00 0.000000e+00 0.000000e+00 0.000000e+00 0.000000e+00 0.000000e+00 0.000000e+00 0.000000e+00 0.000000e+00 0.000000e+00 0.000000e+00 0.000000e+00 0.000000e+00 0.000000e+00 0.000000e+00 0.000000e+00 0.000000e+00 0.000000e+00 0.000000e+00 0.000000e+00 0.000000e+00 0.000000e+00 0.000000e+00 0.000000e+00 9.944317e-01 5.568309e-03 0.000000e+00 0.000000e+00 0.000000e+00 0.000000e+00 0.000000e+00 0.000000e+00 0.000000e+00 0.000000e+00 0.000000e+00 0.000000e+00 0.000000e+00 0.000000e+00 0.000000e+00 0.000000e+00
 0.000000e+00 0.000000e+00 0.000000e+00 0.000000e+00 0.000000e+00 0.000000e+00 0.000000e+00 0.000000e+00 0.000000e+00 0.000000e+00 0.000000e+00 0.000000e+00 0.000000e+00 0.000000e+00 0.000000e+00 0.000000e+00 0.000000e+00 0.000000e+00 0.000000e+00 0.000000e+00 0.000000e+00 0.000000e+00 0.000000e+00 0.000000e+00 0.000000e+00 9.949823e-01 5.017647e-03 0.000000e+00 0.000000e+00 0.000000e+00 0.000000e+00 0.000000e+00 0.000000e+00 0.000000e+00 0.000000e+00 0.000000e+00 0.000000e+00 0.000000e+00 0.000000e+00 0.000000e+00
 0.000000e+00 0.000000e+00 0.000000e+00 0.000000e+00 0.000000e+00 0.000000e+00 0.000000e+00 0.000000e+00 0.000000e+00 0.000000e+00 0.000000e+00 0.000000e+00 0.000000e+00 0.000000e+00 0.000000e+00 0.000000e+00 0.000000e+00 0.000000e+00 0.000000e+00 0.000000e+00 0.000000e+00 0.000000e+00 0.000000e+00 0.000000e+00 0.000000e+00 0.000000e+00 9.900878e-01 9.912182e-03 0.000000e+00 0.000000e+00 0.000000e+00 0.000000e+00 0.000000e+00 0.000000e+00 0.000000e+00 0.000000e+00 0.000000e+00 0.000000e+00 0.000000e+00 0.000000e+00
 0.000000e+00 0.000000e+00 0.000000e+00 0.000000e+00 0.000000e+00 0.000000e+00 0.000000e+00 0.000000e+00 0.000000e+00 0.000000e+00 0.000000e+00 0.000000e+00 0.000000e+00 0.000000e+00 0.000000e+00 0.000000e+00 0.000000e+00 0.000000e+00 0.000000e+00 0.000000e+00 0.000000e+00 0.000000e+00 0.000000e+00 0.000000e+00 0.000000e+00 0.000000e+00 0.000000e+00 9.941860e-01 5.814022e-03 0.000000e+00 0.000000e+00 0.000000e+00 0.000000e+00 0.000000e+00 0.000000e+00 0.000000e+00 0.000000e+00 0.000000e+00 0.000000e+00 0.000000e+00
 0.000000e+00 0.000000e+00 0.000000e+00 0.000000e+00 0.000000e+00 0.000000e+00 0.000000e+00 0.000000e+00 0.000000e+00 0.000000e+00 0.000000e+00 0.000000e+00 0.000000e+00 0.000000e+00 0.000000e+00 0.000000e+00 0.000000e+00 0.000000e+00 0.000000e+00 0.000000e+00 0.000000e+00 0.000000e+00 0.000000e+00 0.000000e+00 0.000000e+00 0.000000e+00 0.000000e+00 0.000000e+00 9.765688e-01 2.343122e-02 0.000000e+00 0.000000e+00 0.000000e+00 0.000000e+00 0.000000e+00 0.000000e+00 0.000000e+00 0.000000e+00 0.000000e+00 0.000000e+00
 0.000000e+00 0.000000e+00 0.000000e+00 0.000000e+00 0.000000e+00 0.000000e+00 0.000000e+00 0.000000e+00 0.000000e+00 0.000000e+00 0.000000e+00 0.000000e+00 0.000000e+00 0.000000e+00 0.000000e+00 0.000000e+00 0.000000e+00 0.000000e+00 0.000000e+00 0.000000e+00 0.000000e+00 0.000000e+00 0.000000e+00 0.000000e+00 0.000000e+00 0.000000e+00 0.000000e+00 0.000000e+00 0.000000e+00 9.903438e-01 9.656190e-03 0.000000e+00 0.000000e+00 0.000000e+00 0.000000e+00 0.000000e+00 0.000000e+00 0.000000e+00 0.000000e+00 0.000000e+00
 0.000000e+00 0.000000e+00 0.000000e+00 0.000000e+00 0.000000e+00 0.000000e+00 0.000000e+00 0.000000e+00 0.000000e+00 0.000000e+00 0.000000e+00 0.000000e+00 0.000000e+00 0.000000e+00 0.000000e+00 0.000000e+00 0.000000e+00 0.000000e+00 0.000000e+00 0.000000e+00 0.000000e+00 0.000000e+00 0.000000e+00 0.000000e+00 0.000000e+00 0.000000e+00 0.000000e+00 0.000000e+00 0.000000e+00 0.000000e+00 6.052029e-02 9.394798e-01 0.000000e+00 0.000000e+00 0.000000e+00 0.000000e+00 0.000000e+00 0.000000e+00 0.000000e+00 0.000000e+00
 0.000000e+00 0.000000e+00 0.000000e+00 0.000000e+00 0.000000e+00 0.000000e+00 0.000000e+00 0.000000e+00 0.000000e+00 0.000000e+00 0.000000e+00 0.000000e+00 0.000000e+00 0.000000e+00 0.000000e+00 0.000000e+00 0.000000e+00 0.000000e+00 0.000000e+00 0.000000e+00 0.000000e+00 0.000000e+00 0.000000e+00 0.000000e+00 0.000000e+00 0.000000e+00 0.000000e+00 0.000000e+00 0.000000e+00 0.000000e+00 0.000000e+00 5.286752e-02 9.471325e-01 0.000000e+00 0.000000e+00 0.000000e+00 0.000000e+00 0.000000e+00 0.000000e+00 0.000000e+00
 0.000000e+00 0.000000e+00 0.000000e+00 0.000000e+00 0.000000e+00 0.000000e+00 0.000000e+00 0.000000e+00 0.000000e+00 0.000000e+00 0.000000e+00 0.000000e+00 0.000000e+00 0.000000e+00 0.000000e+00 0.000000e+00 0.000000e+00 0.000000e+00 0.000000e+00 0.000000e+00 0.000000e+00 0.000000e+00 0.000000e+00 0.000000e+00 0.000000e+00 0.000000e+00 0.000000e+00 0.000000e+00 0.000000e+00 0.000000e+00 0.000000e+00 0.000000e+00 6.433737e-02 9.356627e-01 0.000000e+00 0.000000e+00 0.000000e+00 0.000000e+00 0.000000e+00 0.000000e+00
 0.000000e+00 0.000000e+00 0.000000e+00 0.000000e+00 0.000000e+00 0.000000e+00 0.000000e+00 0.000000e+00 0.000000e+00 0.000000e+00 0.000000e+00 0.000000e+00 0.000000e+00 0.000000e+00 0.000000e+00 0.000000e+00 0.000000e+00 0.000000e+00 0.000000e+00 0.000000e+00 0.000000e+00 0.000000e+00 0.000000e+00 0.000000e+00 0.000000e+00 0.000000e+00 0.000000e+00 0.000000e+00 0.000000e+00 0.000000e+00 0.000000e+00 0.000000e+00 0.000000e+00 1.041075e-01 8.958925e-01 0.000000e+00 0.000000e+00 0.000000e+00 0.000000e+00 0.000000e+00
 0.000000e+00 0.000000e+00 0.000000e+00 0.000000e+00 0.000000e+00 0.000000e+00 0.000000e+00 0.000000e+00 0.000000e+00 0.000000e+00 0.000000e+00 0.000000e+00 0.000000e+00 0.000000e+00 0.000000e+00 0.000000e+00 0.000000e+00 0.000000e+00 0.000000e+00 0.000000e+00 0.000000e+00 0.000000e+00 0.000000e+00 0.000000e+00 0.000000e+00 0.000000e+00 0.000000e+00 0.000000e+00 0.000000e+00 0.000000e+00 0.000000e+00 0.000000e+00 0.000000e+00 0.000000e+00 3.446102e-01 6.553898e-01 0.000000e+00 0.000000e+00 0.000000e+00 0.000000e+00
 0.000000e+00 0.000000e+00 0.000000e+00 0.000000e+00 0.000000e+00 0.000000e+00 0.000000e+00 0.000000e+00 0.000000e+00 0.000000e+00 0.000000e+00 0.000000e+00 0.000000e+00 0.000000e+00 0.000000e+00 0.000000e+00 0.000000e+00 0.000000e+00 0.000000e+00 0.000000e+00 0.000000e+00 0.000000e+00 0.000000e+00 0.000000e+00 0.000000e+00 0.000000e+00 0.000000e+00 0.000000e+00 0.000000e+00 0.000000e+00 0.000000e+00 0.000000e+00 0.000000e+00 0.000000e+00 0.000000e+00 9.913581e-01 8.641869e-03 0.000000e+00 0.000000e+00 0.000000e+00
 0.000000e+00 0.000000e+00 0.000000e+00 0.000000e+00 0.000000e+00 0.000000e+00 0.000000e+00 0.000000e+00 0.000000e+00 0.000000e+00 0.000000e+00 0.000000e+00 0.000000e+00 0.000000e+00 0.000000e+00 0.000000e+00 0.000000e+00 0.000000e+00 0.000000e+00 0.000000e+00 0.000000e+00 0.000000e+00 0.000000e+00 0.000000e+00 0.000000e+00 0.000000e+00 0.000000e+00 0.000000e+00 0.000000e+00 0.000000e+00 0.000000e+00 0.000000e+00 0.000000e+00 0.000000e+00 0.000000e+00 0.000000e+00 9.239901e-01 7.600988e-02 0.000000e+00 0.000000e+00
 0.000000e+00 0.000000e+00 0.000000e+00 0.000000e+00 0.000000e+00 0.000000e+00 0.000000e+00 0.000000e+00 0.000000e+00 0.000000e+00 0.000000e+00 0.000000e+00 0.000000e+00 0.000000e+00 0.000000e+00 0.000000e+00 0.000000e+00 0.000000e+00 0.000000e+00 0.000000e+00 0.000000e+00 0.000000e+00 0.000000e+00 0.000000e+00 0.000000e+00 0.000000e+00 0.000000e+00 0.000000e+00 0.000000e+00 0.000000e+00 0.000000e+00 0.000000e+00 0.000000e+00 0.000000e+00 0.000000e+00 0.000000e+00 0.000000e+00 9.860619e-01 1.393816e-02 0.000000e+00
 0.000000e+00 0.000000e+00 0.000000e+00 0.000000e+00 0.000000e+00 0.000000e+00 0.000000e+00 0.000000e+00 0.000000e+00 0.000000e+00 0.000000e+00 0.000000e+00 0.000000e+00 0.000000e+00 0.000000e+00 0.000000e+00 0.000000e+00 0.000000e+00 0.000000e+00 0.000000e+00 0.000000e+00 0.000000e+00 0.000000e+00 0.000000e+00 0.000000e+00 0.000000e+00 0.000000e+00 0.000000e+00 0.000000e+00 0.000000e+00 0.000000e+00 0.000000e+00 0.000000e+00 0.000000e+00 0.000000e+00 0.000000e+00 0.000000e+00 0.000000e+00 9.957576e-01 4.242411e-03
 0.000000e+00 0.000000e+00 0.000000e+00 0.000000e+00 0.000000e+00 0.000000e+00 0.000000e+00 0.000000e+00 0.000000e+00 0.000000e+00 0.000000e+00 0.000000e+00 0.000000e+00 0.000000e+00 0.000000e+00 0.000000e+00 0.000000e+00 0.000000e+00 0.000000e+00 0.000000e+00 0.000000e+00 0.000000e+00 0.000000e+00 0.000000e+00 0.000000e+00 0.000000e+00 0.000000e+00 0.000000e+00 0.000000e+00 0.000000e+00 0.000000e+00 0.000000e+00 0.000000e+00 0.000000e+00 0.000000e+00 0.000000e+00 0.000000e+00 0.000000e+00 0.000000e+00 0.000000e+00
<ENDHMM>
