~o
<STREAMINFO> 1 42
<VECSIZE> 42<NULLD><USER><DIAGC>
~h "PACIENTE"
<BEGINHMM>
<NUMSTATES> 20
<STATE> 2
<NUMMIXES> 8
<MIXTURE> 1 8.038611e-02
<MEAN> 42
 9.447927e-02 1.023577e-01 8.406924e-03 -9.663576e-02 4.194904e-02 5.704299e-02 -2.099594e-02 7.712854e-02 1.851718e-01 1.823615e-01 1.773684e-01 1.361483e-01 8.044066e-04 2.171610e-03 1.374516e-03 -1.488323e-03 -2.814452e-04 1.789277e-03 -6.572029e-04 2.508401e-05 1.140290e-03 1.246204e-03 1.309072e-03 1.096572e-03 1.408626e-04 5.732481e-04 4.360696e-04 -3.601786e-04 -1.555695e-04 5.124249e-04 6.048147e-05 9.755226e-05 2.256274e-04 2.529589e-04 2.382924e-04 2.165795e-04 5.183515e-03 -1.131318e-03 -6.669521e-03 1.451392e-01 5.684923e-02 -3.916450e-02
<VARIANCE> 42
 2.017631e-03 4.065276e-03 3.017596e-03 2.095473e-03 1.445368e-03 3.325280e-03 2.862877e-03 6.053344e-02 3.070790e-02 1.447880e-02 8.582918e-03 6.353682e-03 1.384678e-05 2.745544e-05 2.066466e-05 1.548487e-05 1.061309e-05 2.092148e-05 1.676927e-05 7.374013e-05 5.807579e-05 4.430661e-05 2.727229e-05 1.707391e-05 3.067558e-06 4.672927e-06 3.966768e-06 2.886655e-06 2.434890e-06 3.669343e-06 2.529612e-06 2.601508e-05 2.481003e-06 1.211414e-05 1.797437e-06 1.391730e-06 1.233386e-04 1.944923e-04 1.440444e-04 5.787098e-03 3.036163e-03 1.275177e-02
<GCONST> -3.041819e+02
<MIXTURE> 2 2.370769e-01
<MEAN> 42
 -1.569505e-02 1.002272e-02 -4.018348e-03 2.685811e-03 -1.078418e-02 1.424276e-02 2.332962e-02 6.542332e-03 1.735954e-02 7.227317e-03 1.849569e-02 4.540130e-03 -5.463506e-04 6.666987e-04 1.210374e-03 -6.153728e-05 -8.921961e-04 9.500962e-04 3.899205e-04 7.460915e-04 8.098620e-04 5.628114e-04 4.247952e-04 1.751809e-04 -3.605229e-04 3.595510e-04 7.213394e-04 1.080196e-06 -5.413775e-04 5.476432e-04 1.327155e-04 3.097003e-04 3.589259e-04 3.741568e-04 4.550492e-04 3.197237e-04 -6.044531e-04 -8.619705e-04 5.646159e-03 2.043147e-03 1.263557e-02 -9.911753e-03
<VARIANCE> 42
 9.891451e-04 5.456626e-04 2.668370e-04 6.559999e-04 4.316330e-04 2.094441e-04 1.008061e-03 1.370589e-03 1.356769e-03 6.537745e-04 4.191562e-04 3.380077e-04 6.546582e-06 5.209744e-06 8.150682e-06 3.852409e-06 6.214259e-06 5.226682e-06 3.399867e-06 7.374013e-05 9.872299e-06 4.065752e-05 1.131955e-05 8.494042e-06 2.917702e-06 2.160370e-06 3.680571e-06 1.626748e-06 2.841136e-06 2.272721e-06 1.083514e-06 2.601508e-05 3.139763e-06 1.211414e-05 1.614924e-06 1.164597e-06 4.894868e-06 2.502658e-05 1.506969e-04 2.765478e-04 2.084395e-04 5.355680e-04
<GCONST> -3.599655e+02
<MIXTURE> 3 9.061637e-02
<MEAN> 42
 -2.467838e-02 -4.728233e-02 -5.126180e-02 3.591985e-02 8.739023e-03 -3.903972e-02 3.611147e-02 2.243441e-02 -8.113147e-02 -1.190421e-01 -7.539139e-02 -5.628341e-02 -3.095168e-04 6.856448e-04 9.924616e-04 -1.852825e-04 -6.569017e-04 8.240310e-04 2.294449e-04 3.338558e-04 1.427047e-03 1.535556e-03 1.279113e-03 8.326393e-04 -1.068980e-04 6.562014e-04 7.582490e-04 -2.748370e-04 -4.381671e-04 7.030149e-04 1.379012e-07 5.910493e-05 7.871245e-04 1.052205e-03 1.042632e-03 7.671131e-04 1.151607e-02 5.443925e-03 4.345206e-03 -7.758261e-02 -2.927917e-02 -3.357073e-03
<VARIANCE> 42
 9.452772e-04 9.052639e-04 1.909626e-03 4.778116e-04 1.157754e-03 1.100837e-03 3.146254e-03 8.884560e-03 7.990862e-03 6.925812e-03 5.847787e-03 2.498389e-03 6.002434e-06 5.859288e-06 7.866741e-06 3.938233e-06 5.621857e-06 5.467826e-06 4.124624e-06 7.374013e-05 1.009924e-05 4.065752e-05 1.413211e-05 8.494042e-06 2.636921e-06 2.555717e-06 3.496672e-06 1.682004e-06 2.482479e-06 2.397378e-06 1.479318e-06 2.601508e-05 6.964679e-06 1.211414e-05 5.311534e-06 3.184918e-06 1.837695e-04 1.448130e-04 2.423378e-04 2.791256e-03 8.007624e-04 3.372765e-03
<GCONST> -3.284046e+02
<MIXTURE> 4 7.631895e-02
<MEAN> 42
 -3.946041e-02 5.349429e-03 1.357025e-02 1.667288e-02 -3.124223e-02 2.114483e-02 -4.982472e-03 -1.083582e-01 -7.229187e-02 -1.136384e-02 3.008961e-02 2.792161e-02 -1.497490e-04 3.284679e-03 3.433248e-03 -1.571530e-03 -1.792406e-03 3.377237e-03 1.983552e-03 9.955233e-03 1.077198e-02 9.894824e-03 7.302373e-03 3.910352e-03 -1.473023e-05 7.963449e-04 8.075636e-04 -3.912063e-04 -4.153250e-04 7.998361e-04 8.727505e-04 3.197918e-03 3.409873e-03 2.235743e-03 7.156932e-04 -6.924378e-05 -5.375176e-03 1.477352e-02 9.727652e-03 3.829711e-03 2.596413e-02 5.757977e-02
<VARIANCE> 42
 1.511176e-03 1.022233e-03 1.850665e-03 7.595136e-04 1.444211e-03 1.109574e-03 5.412217e-03 7.243150e-02 3.430580e-02 4.984587e-03 9.757392e-03 6.687702e-03 8.361318e-05 1.015233e-04 2.032162e-04 4.177558e-05 1.184086e-04 1.322371e-04 2.192661e-04 8.499403e-04 5.713477e-04 3.937788e-04 5.267542e-04 3.886679e-04 3.078163e-05 3.705200e-05 7.367199e-05 1.550295e-05 4.318328e-05 4.790922e-05 5.824916e-05 3.542253e-04 2.136241e-04 1.645858e-04 1.886891e-04 1.267944e-04 1.296384e-04 1.131063e-03 2.197037e-04 1.818085e-03 1.815251e-03 1.814633e-02
<GCONST> -2.448856e+02
<MIXTURE> 5 2.649413e-01
<MEAN> 42
 -1.359584e-02 4.628198e-04 -1.490863e-02 6.196298e-03 -4.049197e-03 3.586011e-03 1.020204e-02 -5.423072e-03 -5.574757e-03 -1.084701e-02 -1.772254e-04 -5.500844e-03 5.512690e-04 -7.152386e-04 -1.269633e-03 8.435915e-05 9.218383e-04 -1.006371e-03 -9.922577e-05 -3.910491e-04 -3.303630e-04 -4.600892e-04 -7.302830e-04 -5.279324e-04 3.917488e-04 -2.647178e-04 -6.581867e-04 -6.333170e-05 5.272721e-04 -4.665458e-04 -1.573905e-04 -2.879258e-04 -3.988029e-04 -3.929959e-04 -4.204575e-04 -2.792336e-04 7.993282e-04 6.839442e-04 3.693601e-03 -7.774320e-03 4.739583e-03 5.439036e-04
<VARIANCE> 42
 5.421881e-04 2.706704e-04 2.496310e-04 3.355093e-04 2.808905e-04 1.436091e-04 8.258366e-04 1.370589e-03 1.389500e-03 6.537745e-04 5.297398e-04 3.380077e-04 5.506541e-06 4.843663e-06 7.950071e-06 3.422203e-06 5.877851e-06 4.880777e-06 3.399867e-06 7.374013e-05 9.872299e-06 4.065752e-05 1.131955e-05 8.494042e-06 2.453678e-06 1.706921e-06 3.698102e-06 1.165451e-06 2.743915e-06 2.150686e-06 8.001393e-07 2.601508e-05 2.530886e-06 1.211414e-05 1.443504e-06 9.247755e-07 6.301134e-06 2.561177e-05 9.283757e-05 2.765478e-04 1.367416e-04 4.974237e-04
<GCONST> -3.656600e+02
<MIXTURE> 6 1.181036e-01
<MEAN> 42
 3.604059e-02 7.811361e-02 2.722389e-02 -5.700296e-02 4.280096e-03 6.050585e-02 -5.876097e-03 -9.922206e-02 1.266727e-01 6.360304e-02 6.399500e-02 4.428951e-02 -6.899104e-04 -2.082258e-03 -1.386901e-03 1.383594e-03 3.425380e-04 -1.749986e-03 -4.420637e-04 2.297065e-03 -1.466639e-03 -1.407914e-03 -2.251421e-03 -1.670975e-03 -2.984814e-04 -9.425909e-04 -6.430620e-04 6.207162e-04 1.741652e-04 -7.950623e-04 -3.052164e-05 -5.004385e-04 -5.253707e-04 -4.664552e-04 -5.156354e-04 -3.803491e-04 -8.434493e-03 -4.631455e-03 -8.798775e-03 6.722764e-02 5.257905e-02 1.399941e-02
<VARIANCE> 42
 1.143263e-03 3.371587e-03 1.500737e-03 1.649673e-03 7.727633e-04 2.373263e-03 1.122029e-02 2.377129e-01 1.332920e-02 2.216156e-03 8.899234e-03 1.804793e-03 2.232448e-05 3.686447e-05 4.097810e-05 1.936050e-05 2.289581e-05 3.367264e-05 4.643712e-05 2.194594e-04 3.602895e-05 4.065752e-05 3.160147e-05 1.829744e-05 6.491462e-06 1.011211e-05 1.387423e-05 4.859179e-06 7.858051e-06 1.048962e-05 9.525633e-06 2.601508e-05 6.431984e-06 1.211414e-05 6.325686e-06 3.703224e-06 1.791064e-04 7.971901e-05 2.610355e-04 3.628667e-03 2.418227e-03 1.830395e-02
<GCONST> -2.935761e+02
<MIXTURE> 7 7.614422e-02
<MEAN> 42
 -2.420061e-02 -1.047388e-01 -1.165378e-01 6.404160e-02 4.025587e-02 -9.785602e-02 6.138827e-02 4.716715e-02 -1.736451e-01 -2.391590e-01 -1.928247e-01 -1.376895e-01 6.154210e-04 -6.857652e-04 -1.297733e-03 3.119637e-05 9.676964e-04 -9.819217e-04 -7.382251e-04 -9.036871e-04 -2.072821e-03 -1.714585e-03 -1.083118e-03 -4.724850e-04 4.212653e-05 -4.077697e-04 -4.449050e-04 1.838296e-04 2.440799e-04 -4.228089e-04 5.566160e-05 8.761766e-06 -5.869253e-04 -7.264982e-04 -6.983902e-04 -5.284437e-04 3.359757e-02 6.276401e-03 -2.736540e-03 -1.660043e-01 -7.565396e-02 -7.587605e-03
<VARIANCE> 42
 5.113744e-04 6.830858e-04 1.330337e-03 2.810422e-04 7.217173e-04 8.508244e-04 8.594020e-04 1.370589e-03 6.268397e-03 5.458290e-03 3.460734e-03 1.261393e-03 6.544878e-06 6.139338e-06 9.167289e-06 4.022739e-06 6.575187e-06 6.142970e-06 3.399867e-06 7.374013e-05 9.872299e-06 4.065752e-05 1.131955e-05 8.494042e-06 3.018699e-06 2.941504e-06 4.721498e-06 1.797482e-06 3.250713e-06 3.131067e-06 1.388465e-06 2.601508e-05 7.062275e-06 1.211414e-05 5.343942e-06 2.701497e-06 8.247375e-05 6.069582e-05 1.386185e-04 1.848167e-03 4.086401e-04 1.034956e-03
<GCONST> -3.391607e+02
<MIXTURE> 8 5.640914e-02
<MEAN> 42
 -2.722393e-02 -3.120726e-02 -2.522140e-02 2.853432e-02 -2.882540e-03 -2.044503e-02 1.070037e-02 3.715492e-02 -4.243733e-02 -1.064844e-01 -1.236898e-01 -6.897451e-02 -5.876529e-04 -3.817357e-03 -3.227167e-03 2.202514e-03 1.312362e-03 -3.539056e-03 -1.357518e-03 -1.681056e-02 -1.623795e-02 -1.311642e-02 -8.208305e-03 -3.601394e-03 1.641924e-04 -7.888993e-04 -9.524997e-04 3.123105e-04 5.616863e-04 -8.816127e-04 -7.116362e-04 -3.092081e-03 -3.819701e-03 -2.742597e-03 -8.314087e-04 7.594412e-05 3.144616e-03 2.683725e-03 9.437303e-03 -8.124292e-02 -2.313810e-02 -1.485471e-02
<VARIANCE> 42
 1.288758e-03 2.037673e-03 2.828909e-03 1.122834e-03 1.394522e-03 1.786259e-03 2.164829e-02 1.233419e-01 3.015493e-02 1.855497e-02 1.558301e-02 6.211672e-03 7.191696e-05 9.978219e-05 1.080330e-04 5.884884e-05 6.569390e-05 8.626724e-05 1.159643e-04 3.422715e-03 8.820175e-04 5.486591e-04 3.216339e-04 2.211357e-04 2.007323e-05 3.231596e-05 3.767244e-05 1.677636e-05 2.096330e-05 3.003081e-05 3.659464e-05 5.183484e-04 2.086623e-04 1.887465e-04 1.284960e-04 8.905338e-05 3.556793e-04 3.819343e-04 4.113286e-04 1.121644e-02 1.360248e-03 1.898225e-02
<GCONST> -2.415362e+02
<STATE> 3
<NUMMIXES> 8
<MIXTURE> 1 9.026672e-02
<MEAN> 42
 2.101885e-02 2.391192e-02 1.788556e-03 -2.619140e-02 1.174942e-02 1.633232e-02 8.530243e-03 1.932234e-02 3.731568e-02 3.322047e-02 2.653258e-02 2.121432e-02 -3.847995e-03 3.211204e-03 7.095270e-03 3.324698e-04 -5.493071e-03 5.170625e-03 3.498462e-03 4.617122e-03 5.279970e-03 5.762398e-03 5.597278e-03 5.069970e-03 -3.526669e-03 1.356641e-03 4.904555e-03 1.092123e-03 -4.232816e-03 3.122329e-03 1.874009e-03 2.236479e-03 2.479469e-03 2.837990e-03 2.927571e-03 2.748363e-03 2.202726e-03 -8.685726e-04 3.667907e-04 2.282607e-02 1.397748e-02 -1.256404e-02
<VARIANCE> 42
 1.462801e-03 1.552676e-03 1.426432e-03 1.185804e-03 1.055403e-03 1.138118e-03 2.317159e-03 2.859954e-03 3.101168e-03 2.055190e-03 1.875090e-03 1.415211e-03 1.518495e-04 5.953966e-05 1.241801e-04 7.502332e-05 1.244656e-04 5.369631e-05 2.767116e-05 7.374013e-05 2.906183e-05 4.065752e-05 3.296862e-05 2.506157e-05 4.869289e-05 2.175747e-05 3.813917e-05 2.579365e-05 3.834944e-05 1.787151e-05 8.047778e-06 2.601508e-05 7.833451e-06 1.211414e-05 1.078969e-05 8.742786e-06 1.304884e-05 5.570221e-05 7.380803e-05 1.062222e-03 9.664127e-04 1.201291e-03
<GCONST> -2.987967e+02
<MIXTURE> 2 7.829391e-02
<MEAN> 42
 4.137381e-02 8.468597e-02 4.938173e-02 -6.571295e-02 -1.998695e-03 7.079072e-02 4.799112e-02 1.285771e-01 2.103898e-01 1.991190e-01 1.545654e-01 1.092687e-01 3.413521e-05 2.004231e-03 1.980392e-03 -1.016083e-03 -9.804916e-04 2.000972e-03 5.372919e-04 1.981059e-03 3.780749e-03 4.312365e-03 3.999681e-03 3.416869e-03 -9.997064e-04 6.590411e-04 1.662284e-03 1.716791e-04 -1.335665e-03 1.163800e-03 5.485213e-04 5.229101e-04 6.821519e-04 9.929393e-04 1.020774e-03 9.112623e-04 9.472696e-03 -7.277921e-03 -4.964736e-03 1.176415e-01 5.091727e-02 -8.529902e-02
<VARIANCE> 42
 4.702739e-03 7.984493e-03 1.242515e-02 3.371051e-03 6.378110e-03 9.082921e-03 1.359647e-02 2.232472e-02 2.200822e-02 1.740367e-02 1.396167e-02 8.994697e-03 1.110601e-04 6.521602e-05 1.132535e-04 5.987659e-05 9.627175e-05 6.148480e-05 6.291820e-05 1.108400e-04 1.529583e-04 1.532609e-04 1.240184e-04 8.924295e-05 3.874266e-05 2.127824e-05 3.510674e-05 2.127468e-05 3.177494e-05 1.850438e-05 8.298721e-06 2.601508e-05 1.062864e-05 1.324796e-05 1.514758e-05 1.182559e-05 1.623683e-04 3.305259e-04 5.065343e-04 9.681819e-03 6.027112e-03 8.519944e-03
<GCONST> -2.583636e+02
<MIXTURE> 3 2.945110e-01
<MEAN> 42
 2.658249e-03 1.957209e-03 -2.372088e-04 -5.275143e-03 2.092536e-03 3.689116e-03 2.800900e-03 -6.113218e-04 9.954269e-03 9.598428e-03 1.131870e-02 6.904616e-03 -6.935751e-05 7.280671e-04 7.995078e-04 -3.270808e-04 -4.339712e-04 7.675705e-04 6.976256e-04 7.282677e-04 8.533345e-04 8.812863e-04 8.726316e-04 7.564606e-04 -7.774110e-05 2.175895e-04 2.971755e-04 -6.878836e-05 -1.882901e-04 2.594137e-04 2.623015e-04 3.082711e-04 3.301877e-04 3.601152e-04 3.736150e-04 3.559258e-04 7.624273e-04 3.029534e-04 3.679641e-04 7.434916e-03 8.330565e-04 -1.879004e-03
<VARIANCE> 42
 3.905822e-04 3.708173e-04 4.858784e-04 2.676362e-04 3.319901e-04 3.193035e-04 4.427753e-04 1.370589e-03 6.811708e-04 6.537745e-04 5.214912e-04 3.779285e-04 5.807878e-05 3.546432e-05 5.221502e-05 3.395297e-05 4.673346e-05 2.943922e-05 1.019425e-05 7.374013e-05 1.025680e-05 4.065752e-05 1.307512e-05 1.050622e-05 2.218996e-05 1.438187e-05 2.019653e-05 1.332337e-05 1.776199e-05 1.179630e-05 3.760867e-06 2.601508e-05 3.647684e-06 1.211414e-05 4.644824e-06 3.807849e-06 3.054744e-06 1.639673e-05 2.445654e-05 2.765478e-04 2.696959e-04 2.838487e-04
<GCONST> -3.374719e+02
<MIXTURE> 4 5.886584e-02
<MEAN> 42
 1.036394e-01 1.298498e-01 2.923353e-02 -1.210369e-01 4.100734e-02 8.253623e-02 -1.205129e-01 -1.082732e-01 5.696082e-02 2.878405e-01 3.132409e-01 3.045740e-01 1.193556e-02 1.148427e-02 -4.548486e-04 -1.171809e-02 6.239632e-03 5.516320e-03 -3.356461e-03 1.477389e-02 3.083505e-02 4.639334e-02 4.297407e-02 3.257464e-02 1.971850e-03 1.846944e-03 -1.274545e-04 -1.910576e-03 1.054033e-03 8.595790e-04 -2.486933e-03 -7.778525e-04 1.051110e-03 4.067788e-03 4.555101e-03 3.861432e-03 2.264388e-02 2.529861e-03 4.968764e-03 2.510019e-01 1.019307e-01 9.466256e-02
<VARIANCE> 42
 5.591208e-02 6.436822e-02 8.347055e-02 3.916455e-02 5.363737e-02 6.070200e-02 7.951248e-02 2.807132e-01 3.811993e-01 4.108947e-01 3.369049e-01 2.370281e-01 1.467054e-03 1.417130e-03 1.517679e-03 1.063879e-03 1.143902e-03 1.105084e-03 2.039124e-03 2.776852e-03 2.826842e-03 4.454497e-03 5.322127e-03 4.567736e-03 1.429518e-04 1.109585e-04 1.732687e-04 8.383661e-05 1.310986e-04 1.066451e-04 1.098295e-04 2.300859e-04 3.615518e-04 6.568535e-04 5.630183e-04 3.583304e-04 1.470880e-03 1.302005e-03 1.286808e-03 1.863319e-01 5.029593e-02 1.294688e-01
<GCONST> -1.508513e+02
<MIXTURE> 5 1.863049e-01
<MEAN> 42
 -6.620000e-03 -1.310924e-02 -4.092409e-03 5.969268e-03 2.634231e-04 -6.132725e-03 -1.722923e-03 -9.654942e-03 -6.295365e-03 -7.812563e-03 -6.093810e-03 -5.130274e-03 2.314894e-03 -1.954361e-03 -4.286620e-03 -1.882180e-04 3.315723e-03 -3.132943e-03 -2.169265e-03 -2.655590e-03 -3.206087e-03 -3.658668e-03 -3.630301e-03 -3.341745e-03 2.069585e-03 -4.726883e-04 -2.549448e-03 -8.021852e-04 2.317470e-03 -1.511426e-03 -1.189681e-03 -1.370474e-03 -1.586149e-03 -1.795159e-03 -1.814419e-03 -1.658221e-03 -3.810393e-04 -2.442620e-04 -1.233570e-04 -4.915256e-03 -9.696848e-03 3.056411e-03
<VARIANCE> 42
 6.093680e-04 5.559962e-04 7.162222e-04 3.840578e-04 5.235232e-04 4.565487e-04 7.856190e-04 1.370589e-03 9.361170e-04 6.537745e-04 6.281954e-04 5.206794e-04 7.978476e-05 4.659396e-05 7.428605e-05 4.483448e-05 6.596549e-05 4.074707e-05 1.535548e-05 7.374013e-05 1.475706e-05 4.065752e-05 2.390638e-05 1.750846e-05 3.050243e-05 1.855637e-05 2.790555e-05 1.762048e-05 2.482819e-05 1.574942e-05 5.319281e-06 2.601508e-05 5.932808e-06 1.211414e-05 8.406633e-06 6.229091e-06 5.188963e-06 2.013595e-05 3.528940e-05 2.765478e-04 3.960075e-04 3.283324e-04
<GCONST> -3.245335e+02
<MIXTURE> 6 1.704539e-01
<MEAN> 42
 7.170810e-03 -6.034248e-03 -9.168311e-03 -5.423430e-03 1.180583e-02 -4.785982e-03 -1.742831e-03 -3.106104e-03 -4.734143e-03 -7.807534e-03 -5.814906e-03 -2.885960e-03 -1.404631e-03 -1.203276e-03 1.962653e-04 1.304783e-03 -8.121730e-04 -5.074862e-04 5.506991e-04 4.043277e-04 -8.706568e-05 -2.554465e-04 -3.944246e-04 -3.819503e-04 -1.179020e-03 -1.745262e-04 9.997496e-04 6.757677e-04 -1.093191e-03 4.140848e-04 3.689443e-04 4.449920e-04 5.545149e-04 6.412402e-04 5.944577e-04 5.047836e-04 1.887063e-04 6.121316e-04 -1.916648e-03 -2.622113e-03 -6.723824e-03 1.929207e-03
<VARIANCE> 42
 1.731041e-03 3.365383e-03 3.458804e-03 1.674093e-03 1.829540e-03 3.071242e-03 2.801002e-03 2.913344e-03 5.319815e-03 2.303878e-03 1.867643e-03 1.720919e-03 9.312433e-05 6.250072e-05 9.727905e-05 5.355823e-05 8.025781e-05 5.689915e-05 2.329580e-05 7.374013e-05 2.310399e-05 4.065752e-05 2.951245e-05 2.271310e-05 3.665934e-05 2.549288e-05 3.855112e-05 2.148812e-05 3.151917e-05 2.295202e-05 6.704338e-06 2.601508e-05 7.406946e-06 1.211414e-05 1.052848e-05 7.911309e-06 1.423390e-05 5.711338e-05 8.136754e-05 1.147043e-03 2.268135e-03 1.562740e-03
<GCONST> -2.952447e+02
<MIXTURE> 7 1.004894e-01
<MEAN> 42
 -9.981802e-03 5.375196e-03 1.765981e-02 -2.380867e-03 -8.269744e-03 1.461868e-02 6.117550e-02 8.407956e-02 7.636528e-02 5.007832e-02 3.101474e-02 1.490215e-02 1.700763e-03 -2.565271e-03 -4.280424e-03 4.238141e-04 2.998507e-03 -3.419442e-03 -6.182700e-04 -6.133248e-04 -1.054636e-03 -2.344424e-03 -2.607434e-03 -2.727996e-03 2.352033e-03 -1.058381e-03 -3.416155e-03 -6.495995e-04 2.895486e-03 -2.236451e-03 -1.379880e-03 -1.679555e-03 -1.854645e-03 -2.160757e-03 -2.206497e-03 -2.003084e-03 1.360313e-05 -5.965332e-03 2.358681e-03 1.283326e-02 1.713630e-03 -5.837069e-02
<VARIANCE> 42
 5.531601e-03 9.000536e-03 1.120769e-02 4.309218e-03 5.931736e-03 8.472806e-03 1.115334e-02 1.775831e-02 1.236320e-02 5.663692e-03 4.890387e-03 6.014271e-03 1.505616e-04 9.545939e-05 1.673766e-04 8.146313e-05 1.361459e-04 9.388660e-05 6.743192e-05 9.628703e-05 9.496030e-05 7.136496e-05 8.007198e-05 7.942371e-05 5.025082e-05 2.847622e-05 4.927970e-05 2.709952e-05 4.303943e-05 2.637689e-05 1.067318e-05 2.601508e-05 1.369260e-05 1.852364e-05 1.923409e-05 1.532292e-05 5.513416e-05 2.212761e-04 2.616017e-04 3.917508e-03 6.652668e-03 7.672682e-03
<GCONST> -2.612962e+02
<MIXTURE> 8 2.080466e-02
<MEAN> 42
 2.955822e-01 7.082258e-02 -2.226805e-01 -1.870214e-01 2.642924e-01 -7.279067e-02 -3.647780e-01 -2.380518e-01 -1.179709e-01 2.148004e-01 3.014186e-01 3.605362e-01 -3.391425e-02 -2.567506e-02 8.282830e-03 2.982292e-02 -2.117748e-02 -8.733789e-03 4.362590e-04 -5.541643e-02 -1.031579e-01 -1.384856e-01 -1.247423e-01 -9.106142e-02 -5.541291e-03 -6.039179e-03 -4.929929e-04 5.797106e-03 -2.525814e-03 -3.278013e-03 7.268221e-03 2.732985e-03 -2.408119e-03 -1.148580e-02 -1.271047e-02 -1.097130e-02 3.082283e-02 3.385152e-02 2.358186e-02 3.029692e-01 1.689664e-02 2.420617e-01
<VARIANCE> 42
 2.113158e-01 3.172585e-01 4.317594e-01 1.547471e-01 2.461778e-01 3.255991e-01 2.302646e-01 2.988876e-01 5.563375e-01 7.492214e-01 8.511723e-01 6.521451e-01 3.429375e-03 2.296675e-03 3.555717e-03 1.975765e-03 2.923737e-03 2.072885e-03 1.877946e-03 7.882478e-03 1.152497e-02 2.034681e-02 2.077986e-02 1.420789e-02 4.648671e-04 3.413314e-04 2.720421e-04 3.351980e-04 2.838226e-04 1.911288e-04 1.303240e-04 9.236042e-04 1.648658e-03 3.578181e-03 3.922842e-03 2.488758e-03 2.532661e-03 2.059028e-03 2.360721e-03 4.662995e-01 2.491008e-01 1.771385e-01
<GCONST> -1.083223e+02
<STATE> 4
<NUMMIXES> 8
<MIXTURE> 1 1.206290e-01
<MEAN> 42
 5.725206e-02 6.746830e-02 1.395496e-02 -6.167584e-02 2.354185e-02 4.145612e-02 1.956291e-02 1.254092e-01 1.591149e-01 1.218093e-01 9.346934e-02 6.311563e-02 1.671752e-03 3.207324e-03 1.535936e-03 -2.441692e-03 7.594557e-05 2.360146e-03 -4.284689e-04 1.821301e-03 3.312882e-03 3.794986e-03 3.214695e-03 2.681808e-03 -2.546060e-04 3.902430e-04 6.444280e-04 -6.775237e-05 -4.507634e-04 5.116973e-04 1.996097e-04 2.401380e-04 3.870565e-04 5.974279e-04 5.663837e-04 4.594223e-04 5.337756e-03 -4.294048e-03 1.920135e-03 7.774511e-02 3.289628e-02 -7.007437e-02
<VARIANCE> 42
 2.565036e-03 3.572881e-03 2.985960e-03 2.342372e-03 1.921413e-03 2.722236e-03 4.675257e-03 2.636806e-02 2.271957e-02 1.290505e-02 5.739833e-03 4.521204e-03 3.147011e-05 2.722602e-05 2.785812e-05 2.236066e-05 2.301848e-05 1.970047e-05 1.904352e-05 7.374013e-05 5.348529e-05 4.100003e-05 2.296955e-05 1.451067e-05 9.288803e-06 5.907847e-06 8.313881e-06 5.517973e-06 7.381824e-06 4.785526e-06 2.734101e-06 2.601508e-05 4.502120e-06 1.211414e-05 4.275241e-06 2.631970e-06 7.421581e-05 1.429114e-04 2.132224e-04 3.619651e-03 2.589353e-03 8.189739e-03
<GCONST> -2.987721e+02
<MIXTURE> 2 2.888667e-02
<MEAN> 42
 6.925134e-02 1.402087e-01 7.681858e-02 -1.024606e-01 -2.550440e-03 1.013320e-01 -1.051913e-01 -1.225330e-02 1.417687e-01 2.664872e-01 2.357388e-01 1.881030e-01 9.758756e-03 8.128759e-03 -1.618643e-03 -8.943954e-03 5.698723e-03 3.403497e-03 3.550110e-03 1.440324e-02 2.519809e-02 2.807062e-02 2.349392e-02 1.600050e-02 2.467267e-03 4.090705e-03 1.621132e-03 -3.283216e-03 4.231291e-04 2.878549e-03 -2.270226e-03 -2.949402e-03 1.487934e-03 6.513179e-03 6.558333e-03 5.972014e-03 6.433691e-03 6.910122e-05 9.317997e-03 2.000886e-01 1.006861e-01 2.532912e-02
<VARIANCE> 42
 1.675057e-02 5.659607e-02 4.964324e-02 2.378505e-02 1.948222e-02 4.558422e-02 2.947701e-02 1.186552e-01 1.442519e-01 1.235057e-01 7.921787e-02 5.187853e-02 4.477435e-04 8.205150e-04 7.739285e-04 4.406175e-04 4.077442e-04 6.812103e-04 7.366010e-04 2.334522e-03 2.933146e-03 2.583324e-03 1.802360e-03 1.446418e-03 4.494063e-05 6.943244e-05 8.215896e-05 3.669807e-05 4.643939e-05 6.457621e-05 7.492497e-05 1.504668e-04 2.007109e-04 1.574043e-04 1.192032e-04 9.370207e-05 5.864373e-04 8.087120e-04 8.226101e-04 4.991204e-02 4.377893e-02 4.836929e-02
<GCONST> -1.849727e+02
<MIXTURE> 3 3.911597e-01
<MEAN> 42
 2.918118e-03 1.731872e-03 2.948690e-03 -1.433775e-03 1.551883e-03 2.810998e-03 6.923685e-04 8.011055e-03 3.998994e-03 3.731049e-03 6.338474e-03 3.509881e-03 -1.217150e-04 4.124828e-04 5.341085e-04 -1.451452e-04 -3.310129e-04 4.763242e-04 2.576477e-04 2.267765e-04 3.434900e-04 3.885161e-04 3.831175e-04 2.714657e-04 -7.109978e-05 1.718916e-04 2.427755e-04 -5.019075e-05 -1.582777e-04 2.067941e-04 1.215371e-04 1.652003e-04 2.227532e-04 2.418329e-04 2.273128e-04 1.752226e-04 2.345173e-04 -3.845080e-05 3.041442e-04 3.271557e-03 6.833960e-04 -2.892261e-03
<VARIANCE> 42
 2.354399e-04 3.151458e-04 2.636639e-04 1.997106e-04 1.777521e-04 2.422687e-04 7.283017e-04 1.370589e-03 1.022601e-03 6.537745e-04 5.920689e-04 4.032781e-04 1.355135e-05 9.804176e-06 1.199916e-05 8.683107e-06 1.052133e-05 7.734509e-06 4.039375e-06 7.374013e-05 9.872299e-06 4.065752e-05 1.131955e-05 8.494042e-06 4.813629e-06 3.134366e-06 4.130747e-06 2.936092e-06 3.770460e-06 2.506431e-06 1.055205e-06 2.601508e-05 1.653267e-06 1.211414e-05 2.163934e-06 1.334460e-06 2.131001e-06 6.331195e-06 2.289459e-05 2.765478e-04 2.036459e-04 2.984177e-04
<GCONST> -3.633065e+02
<MIXTURE> 4 2.819253e-02
<MEAN> 42
 2.396594e-01 2.617956e-01 2.635043e-02 -2.482947e-01 1.089268e-01 1.378213e-01 -2.634270e-01 -2.830722e-01 2.187722e-01 6.120175e-01 5.862184e-01 4.788259e-01 2.403610e-02 3.008449e-02 6.052580e-03 -2.705875e-02 9.041526e-03 1.816677e-02 -4.223211e-02 -4.655012e-02 -3.455156e-03 4.606617e-02 5.024648e-02 4.568515e-02 -2.156635e-03 1.241140e-03 3.396645e-03 4.584054e-04 -2.782964e-03 2.301558e-03 -2.846276e-03 -4.762069e-03 -8.013343e-03 -4.027977e-03 -3.480399e-03 -2.741196e-03 4.140795e-02 2.128870e-02 1.426633e-04 5.020905e-01 1.785373e-01 1.716327e-01
<VARIANCE> 42
 7.432809e-02 1.859185e-01 1.552139e-01 9.171935e-02 6.833083e-02 1.471398e-01 1.424141e-01 7.405234e-01 4.557622e-01 4.945478e-01 3.938952e-01 2.829810e-01 2.845712e-03 5.648691e-03 4.209237e-03 3.195141e-03 2.120708e-03 4.215500e-03 4.634621e-03 1.134953e-02 8.378508e-03 1.147296e-02 8.069425e-03 6.131665e-03 3.823312e-04 5.165472e-04 4.076449e-04 3.475026e-04 2.663348e-04 3.665307e-04 4.484956e-04 9.699290e-04 1.095798e-03 1.425859e-03 9.463141e-04 6.471392e-04 1.731895e-03 1.822359e-03 1.378227e-03 2.352966e-01 1.282710e-01 2.351271e-01
<GCONST> -1.186463e+02
<MIXTURE> 5 1.719920e-01
<MEAN> 42
 -1.311649e-02 -2.901937e-02 -1.099961e-02 2.234099e-02 3.961313e-04 -1.919553e-02 1.092334e-02 1.094066e-02 -1.859294e-02 -2.656886e-02 -2.306763e-02 -1.896020e-02 1.294906e-04 -1.353807e-03 -1.483026e-03 6.109709e-04 8.109950e-04 -1.420543e-03 -2.419824e-04 -3.640882e-04 -8.667529e-04 -1.130298e-03 -1.209139e-03 -1.005540e-03 4.837112e-04 -2.515689e-04 -7.340483e-04 -1.171176e-04 6.160627e-04 -4.870652e-04 -3.640664e-04 -3.434721e-04 -4.647030e-04 -5.240330e-04 -5.098845e-04 -4.010789e-04 -1.284683e-03 6.469695e-04 2.470539e-03 -2.204162e-02 -2.164854e-02 -6.210278e-03
<VARIANCE> 42
 4.900352e-04 7.358164e-04 6.370146e-04 4.459342e-04 4.186382e-04 5.477990e-04 1.302692e-03 1.732465e-03 1.818466e-03 1.264450e-03 1.294147e-03 8.470885e-04 2.291109e-05 1.519748e-05 2.112381e-05 1.377450e-05 1.864067e-05 1.258177e-05 7.607526e-06 7.374013e-05 1.338019e-05 4.065752e-05 1.131955e-05 8.494042e-06 8.563967e-06 5.045717e-06 7.988591e-06 4.820456e-06 7.185969e-06 4.435509e-06 2.309029e-06 2.601508e-05 3.871546e-06 1.211414e-05 3.495592e-06 2.470549e-06 7.252762e-06 1.514774e-05 5.950757e-05 5.416079e-04 4.975785e-04 5.782998e-04
<GCONST> -3.393741e+02
<MIXTURE> 6 1.660065e-01
<MEAN> 42
 7.828404e-03 2.552177e-03 -1.573595e-03 -3.502021e-03 6.381566e-03 3.032220e-03 1.971001e-02 5.298517e-02 4.516825e-02 9.376969e-03 8.563424e-03 -2.248784e-03 -1.088098e-03 -2.076920e-03 -9.895430e-04 1.585275e-03 -5.557963e-05 -1.522240e-03 3.971214e-04 -3.478942e-04 -1.207121e-03 -1.677783e-03 -1.570382e-03 -1.439643e-03 -2.136621e-04 -3.609110e-04 -1.480280e-04 2.878448e-04 -3.634726e-05 -2.558212e-04 -5.475392e-05 -1.568245e-04 -2.848513e-04 -3.867033e-04 -3.722225e-04 -3.229085e-04 7.869206e-04 -1.911857e-03 2.313703e-03 3.171684e-03 -4.147461e-03 -3.198043e-02
<VARIANCE> 42
 2.313511e-03 4.165468e-03 2.559619e-03 2.598534e-03 1.397133e-03 2.870648e-03 5.449478e-03 1.469848e-02 1.164003e-02 7.451840e-03 4.517348e-03 4.171996e-03 4.514358e-05 4.041369e-05 4.511272e-05 3.151859e-05 3.519117e-05 3.120724e-05 2.682809e-05 7.374013e-05 5.312746e-05 4.293382e-05 3.241762e-05 2.273899e-05 1.324334e-05 9.015444e-06 1.286805e-05 7.917905e-06 1.087115e-05 7.519949e-06 4.300402e-06 2.601508e-05 7.758059e-06 1.211414e-05 5.827366e-06 3.857786e-06 3.063233e-05 4.868988e-05 1.671300e-04 2.929958e-03 2.880287e-03 4.767541e-03
<GCONST> -2.961130e+02
<MIXTURE> 7 7.464532e-02
<MEAN> 42
 -1.329799e-02 -2.236054e-04 1.711428e-02 8.534099e-03 -1.412672e-02 7.391068e-03 1.350637e-02 9.390661e-02 5.196084e-02 5.523869e-03 8.237943e-03 -1.545327e-02 5.577587e-04 -2.575776e-04 -8.191078e-04 -1.524186e-04 6.994567e-04 -6.073602e-04 7.316976e-03 1.083012e-02 1.034764e-02 4.497991e-03 2.121953e-03 4.162659e-04 1.243879e-04 -5.871883e-04 -7.100412e-04 2.319081e-04 4.184929e-04 -6.485608e-04 -3.343642e-04 -1.046321e-03 -1.010418e-03 -5.730476e-04 -2.518861e-04 1.456894e-05 -1.709766e-03 3.586373e-03 4.959452e-03 -4.758327e-03 -4.227459e-03 -4.686549e-02
<VARIANCE> 42
 9.175920e-03 1.656253e-02 1.131499e-02 9.885559e-03 6.162056e-03 1.113596e-02 1.910673e-02 2.896435e-01 1.194374e-01 1.730960e-01 5.660953e-02 2.940055e-02 1.318600e-04 1.981079e-04 2.474198e-04 1.030968e-04 1.404996e-04 1.866295e-04 2.483910e-04 1.124357e-03 9.543236e-04 7.855046e-04 4.804051e-04 2.652101e-04 2.558946e-05 3.118574e-05 3.882089e-05 1.872905e-05 2.445227e-05 2.841546e-05 2.521304e-05 8.015693e-05 8.047638e-05 9.914966e-05 4.636062e-05 2.649955e-05 4.271000e-04 3.703196e-04 4.553134e-04 4.015090e-02 1.039060e-02 5.638033e-02
<GCONST> -2.195058e+02
<MIXTURE> 8 1.849161e-02
<MEAN> 42
 9.133667e-02 3.040127e-02 -5.685349e-02 -5.921216e-02 7.504880e-02 -5.950728e-03 -3.356267e-01 -5.725148e-01 -4.621651e-01 -1.733668e-03 1.106622e-01 1.498916e-01 -5.385644e-02 -5.501416e-02 -1.162058e-03 5.443499e-02 -2.646481e-02 -2.825032e-02 2.572409e-02 -5.062569e-03 -8.553902e-02 -1.393330e-01 -1.251921e-01 -9.726928e-02 -5.334327e-04 -6.378784e-03 -5.842814e-03 3.458612e-03 2.659746e-03 -6.116529e-03 9.255720e-03 1.567691e-02 1.370393e-02 -2.315551e-03 -4.323749e-03 -5.266249e-03 2.791286e-02 4.143982e-02 2.288275e-02 1.127808e-01 5.873879e-02 3.955254e-01
<VARIANCE> 42
 8.874477e-02 2.729133e-01 3.163846e-01 1.025736e-01 1.340988e-01 2.585624e-01 1.545908e-01 4.822161e-01 4.537394e-01 5.282964e-01 4.326548e-01 3.385548e-01 2.808905e-03 4.995226e-03 6.898161e-03 2.177357e-03 3.610751e-03 5.245945e-03 1.971819e-03 9.089020e-03 2.294792e-02 2.276206e-02 1.181172e-02 7.203991e-03 6.483001e-04 1.239459e-03 1.249387e-03 6.314212e-04 6.403531e-04 1.083440e-03 3.754262e-04 7.564557e-04 3.273616e-03 6.074814e-03 2.732528e-03 1.448583e-03 1.906551e-03 2.133352e-03 1.228206e-03 2.654686e-01 2.450294e-01 2.321296e-01
<GCONST> -1.041933e+02
<STATE> 5
<MEAN> 42
 -7.541970e-03 2.964070e-03 1.274222e-02 -2.542185e-04 -8.017843e-03 1.262407e-02 4.906630e-03 -2.720704e-03 1.371422e-02 1.763710e-02 1.339041e-02 4.666057e-03 -7.713684e-04 2.162715e-04 1.002580e-03 2.904469e-04 -8.633627e-04 5.987632e-04 1.821244e-03 9.357427e-04 3.987221e-03 1.145176e-03 6.106222e-04 4.856945e-05 -1.471963e-05 1.218424e-04 1.323715e-04 -4.730286e-05 -7.706256e-05 1.333785e-04 3.173978e-04 -1.855573e-05 -2.075005e-04 -1.225815e-04 -7.067676e-06 -7.978815e-06 1.116129e-03 -4.493370e-05 1.597993e-03 8.004041e-03 3.603784e-03 -3.388257e-03
<VARIANCE> 42
 9.892359e-04 1.817634e-03 1.471948e-03 1.170838e-03 7.444867e-04 1.308582e-03 1.450833e-03 2.642556e-03 7.060188e-03 3.009906e-03 1.673370e-03 8.456750e-04 7.188370e-05 6.909137e-05 1.258790e-04 3.843985e-05 8.122608e-05 7.912944e-05 7.500575e-05 1.064522e-04 2.675224e-04 1.745863e-04 8.395253e-05 4.697105e-05 2.770808e-05 1.815101e-05 3.511310e-05 1.402879e-05 2.677238e-05 1.967009e-05 1.160582e-05 2.601508e-05 5.751808e-05 6.018993e-05 2.627161e-05 1.339320e-05 7.341157e-06 2.825180e-05 7.034394e-05 1.231361e-03 1.143019e-03 1.398967e-03
<GCONST> -2.911368e+02
<STATE> 6
<MEAN> 42
 7.432909e-02 9.461310e-02 3.254730e-02 -8.435749e-02 2.477686e-02 6.729145e-02 5.482799e-03 1.909186e-01 2.941585e-01 2.449619e-01 1.914751e-01 1.169323e-01 2.277737e-04 4.536550e-04 2.197726e-04 -3.431079e-04 -5.268666e-07 3.437902e-04 -1.279498e-03 -2.338593e-03 -2.221819e-03 -1.349714e-03 -4.373959e-04 -1.974736e-04 -1.253487e-04 -3.613677e-04 -2.320141e-04 2.428370e-04 5.215049e-05 -2.944393e-04 4.427188e-05 -1.342831e-04 -3.734462e-04 -4.146558e-04 -3.280009e-04 -2.731890e-04 7.380259e-03 -4.459599e-03 -2.565339e-03 1.564992e-01 4.062741e-02 -1.137905e-01
<VARIANCE> 42
 1.962950e-03 2.945319e-03 1.038951e-03 2.076020e-03 7.532822e-04 1.729606e-03 9.471033e-03 4.112935e-02 3.447066e-02 2.106035e-02 1.295333e-02 4.666246e-03 5.403409e-05 5.000815e-05 4.643980e-05 4.024413e-05 3.806808e-05 3.457589e-05 3.033994e-05 1.081361e-04 1.340640e-04 1.026728e-04 6.551031e-05 3.364918e-05 1.474493e-05 1.307608e-05 1.157915e-05 1.086365e-05 1.006706e-05 8.671552e-06 4.174801e-06 2.601508e-05 4.111729e-06 1.211414e-05 5.341536e-06 2.469741e-06 6.314924e-05 3.971322e-04 2.382483e-04 6.774239e-03 1.378429e-03 1.244125e-02
<GCONST> -2.859615e+02
<STATE> 7
<MEAN> 42
 1.070180e-02 1.602954e-02 1.375190e-02 -1.313642e-02 3.991709e-04 1.970507e-02 -1.780272e-02 -4.322132e-02 -5.471610e-03 2.777732e-04 9.610455e-03 2.589772e-03 -4.591096e-04 -8.810756e-04 -4.265252e-04 6.717380e-04 -2.218538e-05 -6.537970e-04 2.275878e-04 7.329402e-05 -5.226652e-04 -4.939053e-04 -5.138865e-04 -5.060228e-04 -5.364131e-05 -5.668274e-05 -3.470559e-06 5.531274e-05 -2.405733e-05 -3.205216e-05 4.912934e-05 1.476398e-04 1.447936e-04 6.665861e-05 2.221071e-05 6.675162e-06 1.724429e-03 1.095706e-03 1.852328e-03 9.965559e-03 1.268754e-02 2.148269e-02
<VARIANCE> 42
 1.183436e-03 3.742887e-03 3.360291e-03 1.798750e-03 1.201695e-03 3.202637e-03 4.821436e-03 4.165524e-03 5.486752e-03 1.807603e-03 2.533810e-03 1.530958e-03 5.913181e-05 4.148527e-05 5.270006e-05 3.716940e-05 4.628443e-05 3.250722e-05 2.109333e-05 7.374013e-05 2.187523e-05 4.065752e-05 2.455703e-05 1.728681e-05 1.968806e-05 1.003512e-05 1.661061e-05 1.067562e-05 1.592121e-05 8.499032e-06 4.551645e-06 2.601508e-05 5.767169e-06 1.211414e-05 6.130092e-06 4.057860e-06 7.800150e-06 4.232672e-05 7.191571e-05 1.178593e-03 2.552469e-03 1.583519e-03
<GCONST> -3.060245e+02
<STATE> 8
<MEAN> 42
 2.544696e-02 9.197535e-03 -1.223688e-02 -1.228589e-02 1.876779e-02 2.050942e-03 1.204886e-02 1.426565e-02 7.156822e-02 8.429606e-02 7.074755e-02 5.193326e-02 5.200975e-03 4.193646e-03 -9.888076e-04 -4.697071e-03 3.133906e-03 1.616847e-03 -1.257373e-03 2.454156e-03 1.211975e-02 1.823457e-02 1.548493e-02 1.258761e-02 1.447290e-03 1.051476e-03 -3.938134e-04 -1.250881e-03 9.225037e-04 3.422629e-04 -9.119105e-04 -2.940136e-04 1.055011e-03 3.234695e-03 3.272579e-03 2.882144e-03 4.549934e-03 -3.763144e-03 -1.386100e-03 5.593707e-02 -1.249945e-03 -1.909989e-02
<VARIANCE> 42
 1.679310e-02 1.815059e-01 2.129836e-01 4.604673e-02 6.961293e-02 1.929255e-01 4.824393e-02 1.197967e-01 1.000768e-01 1.920056e-01 1.932237e-01 1.671694e-01 2.479302e-04 6.296764e-04 8.942751e-04 2.150820e-04 4.144901e-04 7.037167e-04 3.418066e-04 1.208692e-03 1.222640e-03 1.678861e-03 1.475116e-03 1.146203e-03 3.108313e-05 4.297143e-05 6.324708e-05 2.120856e-05 3.646584e-05 4.652629e-05 3.314207e-05 8.979665e-05 8.866488e-05 9.622026e-05 8.949181e-05 7.640824e-05 6.998474e-04 3.424272e-04 5.613639e-04 1.178773e-01 1.596175e-01 5.995664e-02
<GCONST> -1.849333e+02
<STATE> 9
<MEAN> 42
 2.613058e-01 3.005463e-01 4.299348e-02 -2.811864e-01 1.126860e-01 1.743333e-01 -3.901628e-01 -4.563903e-01 4.824845e-02 5.989857e-01 7.052491e-01 6.661460e-01 -1.623752e-03 -5.617524e-04 1.060473e-03 1.092740e-03 -1.354186e-03 2.560252e-04 -1.789125e-02 -3.216085e-02 -3.402733e-02 -2.351832e-02 -1.396197e-02 -5.390327e-03 -1.648361e-03 -2.214849e-03 -5.663509e-04 1.934750e-03 -5.393890e-04 -1.408065e-03 1.829073e-03 2.317104e-03 -3.788596e-04 -4.421163e-03 -4.827489e-03 -4.626909e-03 4.755720e-02 1.396269e-02 8.574893e-03 5.806784e-01 2.362989e-01 3.283595e-01
<VARIANCE> 42
 8.918158e-02 1.758469e-01 1.725076e-01 8.962308e-02 8.816217e-02 1.530805e-01 1.676543e-01 5.961212e-01 6.393635e-01 5.677479e-01 5.680552e-01 4.888830e-01 4.167606e-03 7.680449e-03 4.998759e-03 4.676484e-03 2.667930e-03 5.312890e-03 4.715805e-03 1.029965e-02 1.832290e-02 2.917075e-02 2.435044e-02 1.718166e-02 4.397033e-04 8.100966e-04 6.769749e-04 4.556252e-04 3.567337e-04 6.327726e-04 4.228921e-04 1.082455e-03 2.357450e-03 3.452020e-03 2.104495e-03 1.234670e-03 1.488014e-03 1.897561e-03 1.613245e-03 3.396220e-01 1.322679e-01 2.480040e-01
<GCONST> -1.054841e+02
<STATE> 10
<MEAN> 42
 9.666516e-02 5.833375e-03 -8.647176e-02 -5.240007e-02 9.767646e-02 -3.755753e-02 -2.426521e-01 -3.095082e-01 -1.983041e-01 -7.197404e-03 9.474531e-02 1.620530e-01 -1.274631e-02 -1.108873e-02 1.662273e-03 1.194436e-02 -7.279049e-03 -4.748460e-03 2.589208e-02 3.915322e-02 1.895912e-02 -5.600396e-03 -1.513239e-02 -2.365979e-02 1.672500e-03 3.161364e-03 1.472475e-03 -2.410168e-03 1.176425e-04 2.341249e-03 2.736867e-04 1.000306e-03 4.730278e-03 6.670745e-03 5.933263e-03 5.072069e-03 1.120017e-02 1.531576e-02 1.494474e-02 1.078881e-01 8.122465e-03 2.261855e-01
<VARIANCE> 42
 3.638010e-02 4.362717e-02 4.898728e-02 2.824289e-02 3.394488e-02 3.826866e-02 3.132468e-02 1.414895e-01 2.165632e-01 1.241398e-01 8.393203e-02 8.167332e-02 3.719890e-04 6.482996e-04 9.398402e-04 2.766982e-04 4.931866e-04 7.078265e-04 9.664252e-04 2.688619e-03 3.736158e-03 1.801953e-03 1.109052e-03 1.019432e-03 8.232719e-05 8.309828e-05 1.020295e-04 5.741293e-05 7.175325e-05 7.289091e-05 9.385528e-05 1.543698e-04 2.725747e-04 3.009279e-04 2.580540e-04 1.981727e-04 5.600842e-04 1.219152e-03 1.131797e-03 5.538410e-02 3.195920e-02 6.559754e-02
<GCONST> -1.782536e+02
<STATE> 11
<MEAN> 42
 -5.458925e-02 -5.146813e-02 7.208257e-03 5.271542e-02 -3.010250e-02 -2.106799e-02 -8.386598e-02 -1.801282e-01 -1.713493e-01 -1.183707e-01 -8.679395e-02 -6.791629e-02 5.923031e-03 5.938272e-03 -7.775627e-06 -5.972644e-03 3.053270e-03 2.999497e-03 1.885127e-02 3.389916e-02 3.528910e-02 2.076244e-02 1.432726e-02 9.016971e-03 5.095432e-05 9.221931e-04 8.810740e-04 -4.993297e-04 -4.226913e-04 9.289503e-04 -2.391680e-03 -4.852070e-03 -4.468126e-03 -1.334441e-03 -2.438495e-04 6.592816e-04 -2.788536e-03 6.322789e-03 2.346974e-02 -6.241483e-02 -2.066956e-02 1.060950e-01
<VARIANCE> 42
 3.179589e-03 1.241184e-02 1.114440e-02 5.075694e-03 4.207292e-03 1.096709e-02 1.339998e-02 4.264866e-02 3.678553e-02 2.054206e-02 1.342597e-02 8.778059e-03 1.863565e-04 3.864560e-04 4.618955e-04 1.731234e-04 2.298893e-04 3.809238e-04 2.897873e-04 1.312078e-03 1.717526e-03 1.133822e-03 6.198557e-04 3.535510e-04 3.945428e-05 6.505226e-05 5.764257e-05 3.839959e-05 3.279600e-05 5.171640e-05 4.791907e-05 1.036303e-04 1.898466e-04 1.773891e-04 7.236327e-05 4.898125e-05 6.522686e-05 3.072134e-04 5.302351e-04 7.505867e-03 8.728661e-03 1.286333e-02
<GCONST> -2.236621e+02
<STATE> 12
<MEAN> 42
 -2.565650e-02 -1.896906e-02 1.023900e-02 2.103715e-02 -1.303823e-02 -3.507024e-03 4.566210e-02 6.018196e-02 4.383262e-02 2.248013e-03 -1.013871e-02 -2.484143e-02 -6.387763e-05 -2.140230e-04 -1.511792e-04 1.400040e-04 3.695115e-05 -1.723329e-04 1.667883e-03 3.475085e-03 3.669777e-03 1.406707e-03 4.224127e-04 -1.247214e-05 1.400096e-04 3.402059e-05 -1.064969e-04 -8.847336e-05 1.219898e-04 -3.721377e-05 -3.242976e-04 -4.109495e-04 -4.024583e-04 -2.289744e-04 -7.918924e-05 9.933927e-06 -2.192364e-03 -1.796238e-03 4.721174e-03 -1.749561e-02 -1.584604e-02 -4.577725e-02
<VARIANCE> 42
 1.110106e-03 1.499568e-03 1.935456e-03 7.067745e-04 9.829098e-04 1.401721e-03 3.007585e-03 6.008434e-03 6.404549e-03 1.840984e-03 1.760541e-03 1.405250e-03 6.066672e-05 4.388444e-05 7.463514e-05 3.363293e-05 5.721060e-05 4.492220e-05 2.137389e-05 7.374013e-05 7.807661e-05 8.040441e-05 5.473686e-05 3.391043e-05 2.334853e-05 1.751217e-05 2.564272e-05 1.406528e-05 2.022815e-05 1.600017e-05 7.343155e-06 2.601508e-05 2.194596e-05 2.951159e-05 1.951844e-05 1.164175e-05 7.130334e-06 3.177049e-05 7.642494e-05 1.086540e-03 1.099408e-03 2.632877e-03
<GCONST> -2.990951e+02
<STATE> 13
<MEAN> 42
 3.210004e-02 2.360254e-02 -8.391383e-04 -2.712977e-02 1.782037e-02 1.269046e-02 6.991100e-02 2.262527e-01 2.040586e-01 7.016543e-02 2.491332e-02 1.444371e-03 3.650473e-04 4.605685e-04 9.588581e-05 -4.127678e-04 1.396312e-04 2.749613e-04 -5.896746e-04 -5.659785e-04 -3.965134e-04 3.814279e-06 1.405749e-04 2.239314e-04 -5.415457e-05 -4.105866e-05 1.373592e-05 4.795473e-05 -3.218590e-05 -1.682549e-05 -1.875816e-05 -9.359552e-05 -9.899525e-05 -4.756521e-05 -3.405752e-05 -3.440118e-06 -1.148097e-03 -7.320755e-04 4.203618e-03 2.334214e-02 -8.748231e-03 -1.361269e-01
<VARIANCE> 42
 5.258772e-03 1.125898e-02 4.921582e-03 7.021974e-03 2.262437e-03 6.812741e-03 1.146232e-02 4.670137e-02 6.971458e-02 6.217885e-02 6.101573e-02 4.714280e-02 2.890051e-05 3.781150e-05 2.652689e-05 2.680385e-05 1.826277e-05 2.531103e-05 1.859114e-05 8.334364e-05 1.138402e-04 9.183837e-05 7.174284e-05 4.937661e-05 7.428480e-06 7.670125e-06 7.370123e-06 5.731212e-06 5.469179e-06 5.820225e-06 1.777088e-06 2.601508e-05 3.483627e-06 1.211414e-05 4.245810e-06 2.523559e-06 1.658328e-04 2.659379e-04 2.248173e-04 3.974097e-02 6.290839e-03 1.558016e-02
<GCONST> -2.764202e+02
<STATE> 14
<MEAN> 42
 1.525167e-03 -6.798361e-04 2.344817e-03 -2.991101e-03 2.955762e-03 1.453913e-03 -7.771951e-03 1.610753e-02 3.606093e-03 7.442238e-03 1.073975e-02 8.962380e-03 -5.530068e-05 -1.990547e-04 -1.431443e-04 1.252374e-04 3.873593e-05 -1.784942e-04 7.255658e-05 7.551874e-05 -3.777939e-04 -2.918329e-04 -2.945191e-04 -2.519444e-04 3.924328e-06 2.474062e-05 2.070058e-05 -1.345440e-05 -1.026408e-05 2.380253e-05 1.252379e-05 4.463818e-05 5.705846e-05 6.859440e-05 4.992701e-05 3.144774e-05 4.815003e-04 -5.977978e-04 -1.010676e-03 6.854151e-03 -1.373719e-03 -3.046687e-03
<VARIANCE> 42
 5.349035e-04 5.957676e-04 5.273447e-04 4.068860e-04 3.197183e-04 3.899207e-04 2.239851e-03 1.852290e-03 2.499747e-03 8.064116e-04 8.360771e-04 8.904453e-04 3.448745e-05 2.209019e-05 2.990280e-05 2.114253e-05 2.710253e-05 1.721925e-05 8.636656e-06 7.374013e-05 1.341856e-05 4.065752e-05 1.568776e-05 9.565439e-06 1.402655e-05 7.858596e-06 1.124197e-05 8.281605e-06 1.085479e-05 5.940301e-06 2.606947e-06 2.601508e-05 3.263553e-06 1.211414e-05 4.368505e-06 2.832727e-06 3.749374e-06 7.454227e-06 2.848160e-05 5.384896e-04 3.775829e-04 7.084855e-04
<GCONST> -3.368259e+02
<STATE> 15
<MEAN> 42
 4.784261e-02 2.092731e-02 -2.395796e-02 -3.245958e-02 3.486586e-02 -1.764240e-03 9.791082e-03 9.491344e-02 1.092527e-01 9.694137e-02 8.869289e-02 8.125856e-02 4.598775e-04 -2.781716e-04 -7.425566e-04 -8.680808e-05 5.977658e-04 -5.190797e-04 -7.339042e-04 -1.092021e-03 -1.005380e-03 -2.681881e-04 -9.202483e-05 -4.646165e-05 -5.548948e-05 7.042411e-05 1.301813e-04 -4.632078e-06 -9.833672e-05 9.826341e-05 8.677880e-05 -4.340679e-05 5.429029e-06 3.205385e-05 6.823742e-06 -4.382504e-05 6.976756e-03 -5.816763e-03 3.796889e-03 7.123049e-02 2.803002e-04 -4.780756e-02
<VARIANCE> 42
 1.403419e-03 1.385533e-03 2.224834e-03 8.815332e-04 1.591950e-03 1.312041e-03 1.924804e-03 1.577339e-02 8.092005e-03 3.974389e-03 4.370051e-03 5.864937e-03 2.651579e-05 1.467853e-05 3.142315e-05 1.276669e-05 2.522656e-05 1.669197e-05 1.461842e-05 7.374013e-05 2.109634e-05 4.065752e-05 1.902183e-05 1.428916e-05 8.718822e-06 3.847134e-06 7.195149e-06 4.475998e-06 6.920969e-06 3.503089e-06 2.801481e-06 2.601508e-05 3.115567e-06 1.211414e-05 4.155249e-06 2.990427e-06 5.067799e-05 2.712472e-05 5.940669e-05 2.739682e-03 1.317446e-03 5.010718e-03
<GCONST> -3.150799e+02
<STATE> 16
<MEAN> 42
 9.290120e-03 2.261580e-02 1.726166e-02 -1.523845e-02 -1.758081e-04 1.717049e-02 7.392329e-02 1.562267e-02 -4.289940e-02 1.594431e-02 1.329459e-02 -3.281991e-03 -4.621429e-04 -3.342337e-04 1.316784e-04 4.076284e-04 -3.058363e-04 -1.282574e-04 2.638284e-03 5.350774e-04 -9.960922e-05 -1.970879e-05 -1.311072e-05 -2.146309e-04 -1.971534e-04 -2.034800e-04 -1.408775e-05 2.002973e-04 -8.946153e-05 -1.093030e-04 1.198626e-04 1.736089e-04 9.592128e-05 -1.204047e-04 -1.050913e-04 -1.107707e-04 1.032689e-03 4.627843e-03 3.420436e-03 -1.165765e-02 2.645214e-02 -9.334699e-03
<VARIANCE> 42
 2.030680e-03 5.904142e-03 2.514680e-03 3.343518e-03 8.144909e-04 3.348479e-03 8.806473e-03 3.548084e-03 7.847614e-03 2.698978e-03 2.330283e-03 2.179659e-03 4.091395e-05 5.163356e-05 3.300279e-05 3.834595e-05 2.412498e-05 3.141031e-05 7.670093e-05 7.374013e-05 2.372477e-05 4.065752e-05 2.265974e-05 1.728165e-05 1.409842e-05 1.314372e-05 8.713789e-06 1.162588e-05 8.124587e-06 7.186355e-06 5.949002e-06 2.601508e-05 3.809969e-06 1.211414e-05 4.860329e-06 3.493446e-06 1.930118e-05 1.614175e-04 5.459351e-05 1.669881e-03 4.301062e-03 1.671625e-03
<GCONST> -3.026533e+02
<STATE> 17
<MEAN> 42
 -8.588570e-03 -1.912174e-02 -9.202904e-03 1.305215e-02 1.424807e-03 -1.265401e-02 4.426128e-02 4.717959e-02 9.509658e-03 3.866273e-03 -4.941679e-03 -1.658568e-02 -3.162845e-03 2.980274e-04 3.411709e-03 1.466934e-03 -3.297061e-03 1.924885e-03 5.655925e-03 7.799240e-03 9.091401e-03 7.033205e-03 3.060011e-03 -2.675055e-04 -3.346358e-07 1.471919e-03 1.458826e-03 -7.718819e-04 -6.582437e-04 1.490023e-03 -1.883366e-04 4.285655e-04 2.627383e-03 3.688986e-03 2.887961e-03 1.556393e-03 -1.748932e-03 -1.591256e-03 -1.373268e-04 -1.459830e-02 -1.547672e-02 -3.154700e-02
<VARIANCE> 42
 2.853893e-03 3.090725e-03 4.056285e-03 2.017286e-03 2.713238e-03 2.754024e-03 5.539153e-03 5.719724e-03 6.615287e-03 2.619962e-03 2.896543e-03 2.891105e-03 8.934009e-05 1.153711e-04 2.241608e-04 4.521173e-05 1.266859e-04 1.458034e-04 9.596522e-05 2.788954e-04 2.672368e-04 3.492238e-04 2.363483e-04 1.106459e-04 2.899482e-05 2.646255e-05 6.902056e-05 1.013528e-05 4.238143e-05 4.011466e-05 1.701190e-05 4.404989e-05 2.785093e-05 7.029519e-05 5.852623e-05 3.233373e-05 2.399083e-05 7.927888e-05 1.302212e-04 2.311672e-03 2.686751e-03 2.666535e-03
<GCONST> -2.670188e+02
<STATE> 18
<MEAN> 42
 6.923976e-02 1.254068e-01 6.407013e-02 -9.464272e-02 6.835554e-03 9.596072e-02 -2.023106e-01 -4.939253e-01 -1.832967e-01 2.750050e-01 3.506542e-01 2.077252e-01 -1.548728e-03 7.164241e-04 2.271970e-03 3.998472e-04 -1.909130e-03 1.524565e-03 -7.410492e-03 -1.672832e-02 -1.659253e-02 -7.976672e-03 -3.727699e-03 -1.622353e-03 -1.976658e-04 -8.314790e-05 1.138138e-04 1.300819e-04 -1.455564e-04 1.744000e-05 7.787782e-04 1.698600e-03 1.000424e-03 -5.323007e-04 -6.567557e-04 -4.403413e-04 2.439589e-02 1.189980e-02 1.728241e-02 2.461647e-01 1.310979e-01 2.832470e-01
<VARIANCE> 42
 4.277331e-02 2.427414e-02 4.144410e-02 2.394486e-02 3.581474e-02 2.373635e-02 8.940407e-02 5.151936e-01 2.330698e-01 2.309127e-01 2.698724e-01 1.774941e-01 2.058136e-03 1.200331e-03 1.379581e-03 1.285102e-03 1.435285e-03 7.774710e-04 2.304500e-03 9.072968e-03 4.260712e-03 1.102430e-02 1.226940e-02 7.562138e-03 1.553940e-04 1.798884e-04 1.808117e-04 1.222990e-04 1.252096e-04 1.424876e-04 1.330089e-04 4.848341e-04 4.412608e-04 1.044001e-03 9.072227e-04 5.284221e-04 8.720563e-04 6.278415e-04 7.015134e-04 1.572329e-01 1.810862e-02 1.764537e-01
<GCONST> -1.504258e+02
<STATE> 19
<MEAN> 42
 4.051229e-02 5.958954e-02 3.345681e-02 -4.979907e-02 8.692702e-03 5.417959e-02 -2.513405e-02 4.139537e-02 2.099873e-01 1.876525e-01 1.400284e-01 2.457168e-02 1.113460e-03 1.305036e-03 1.874331e-04 -1.212985e-03 4.745655e-04 7.604146e-04 -1.122757e-03 -6.407197e-04 4.588593e-03 4.395791e-03 3.569450e-03 2.493171e-03 4.051659e-05 7.559946e-05 4.611992e-05 -6.028466e-05 -8.690002e-06 6.171805e-05 -1.024325e-04 -1.356701e-04 -1.966881e-04 5.455138e-05 1.581605e-04 1.286287e-04 5.900255e-03 6.434142e-03 1.210808e-03 1.141836e-01 2.197396e-02 -5.323096e-02
<VARIANCE> 42
 3.135794e-03 4.538257e-03 2.100081e-03 3.313485e-03 1.404721e-03 2.695114e-03 6.707749e-03 1.835126e-02 5.795065e-02 5.090404e-02 3.105670e-02 1.269551e-02 4.796028e-05 4.584164e-05 7.276188e-05 2.883923e-05 4.917761e-05 4.695512e-05 4.016878e-05 2.070265e-04 2.329310e-04 1.643876e-04 9.207211e-05 4.735478e-05 1.460170e-05 1.186569e-05 1.731398e-05 9.051629e-06 1.303833e-05 1.067717e-05 4.910511e-06 2.601508e-05 1.668889e-05 2.748182e-05 2.152266e-05 1.148616e-05 7.359185e-05 2.155949e-04 1.558217e-04 2.295511e-02 2.159068e-03 8.954612e-03
<GCONST> -2.712399e+02
<TRANSP> 20
 0.000000e+00 1.000000e+00 0.000000e+00 0.000000e+00 0.000000e+00 0.000000e+00 0.000000e+00 0.000000e+00 0.000000e+00 0.000000e+00 0.000000e+00 0.000000e+00 0.000000e+00 0.000000e+00 0.000000e+00 0.000000e+00 0.000000e+00 0.000000e+00 0.000000e+00 0.000000e+00
 0.000000e+00 9.953549e-01 4.645137e-03 0.000000e+00 0.000000e+00 0.000000e+00 0.000000e+00 0.000000e+00 0.000000e+00 0.000000e+00 0.000000e+00 0.000000e+00 0.000000e+00 0.000000e+00 0.000000e+00 0.000000e+00 0.000000e+00 0.000000e+00 0.000000e+00 0.000000e+00
 0.000000e+00 0.000000e+00 9.992779e-01 7.221300e-04 0.000000e+00 0.000000e+00 0.000000e+00 0.000000e+00 0.000000e+00 0.000000e+00 0.000000e+00 0.000000e+00 0.000000e+00 0.000000e+00 0.000000e+00 0.000000e+00 0.000000e+00 0.000000e+00 0.000000e+00 0.000000e+00
 0.000000e+00 0.000000e+00 0.000000e+00 9.996213e-01 3.786544e-04 0.000000e+00 0.000000e+00 0.000000e+00 0.000000e+00 0.000000e+00 0.000000e+00 0.000000e+00 0.000000e+00 0.000000e+00 0.000000e+00 0.000000e+00 0.000000e+00 0.000000e+00 0.000000e+00 0.000000e+00
 0.000000e+00 0.000000e+00 0.000000e+00 0.000000e+00 8.714117e-01 1.285883e-01 0.000000e+00 0.000000e+00 0.000000e+00 0.000000e+00 0.000000e+00 0.000000e+00 0.000000e+00 0.000000e+00 0.000000e+00 0.000000e+00 0.000000e+00 0.000000e+00 0.000000e+00 0.000000e+00
 0.000000e+00 0.000000e+00 0.000000e+00 0.000000e+00 0.000000e+00 9.071760e-01 9.282402e-02 0.000000e+00 0.000000e+00 0.000000e+00 0.000000e+00 0.000000e+00 0.000000e+00 0.000000e+00 0.000000e+00 0.000000e+00 0.000000e+00 0.000000e+00 0.000000e+00 0.000000e+00
 0.000000e+00 0.000000e+00 0.000000e+00 0.000000e+00 0.000000e+00 0.000000e+00 9.761807e-01 2.381922e-02 0.000000e+00 0.000000e+00 0.000000e+00 0.000000e+00 0.000000e+00 0.000000e+00 0.000000e+00 0.000000e+00 0.000000e+00 0.000000e+00 0.000000e+00 0.000000e+00
 0.000000e+00 0.000000e+00 0.000000e+00 0.000000e+00 0.000000e+00 0.000000e+00 0.000000e+00 9.145472e-01 8.545273e-02 0.000000e+00 0.000000e+00 0.000000e+00 0.000000e+00 0.000000e+00 0.000000e+00 0.000000e+00 0.000000e+00 0.000000e+00 0.000000e+00 0.000000e+00
 0.000000e+00 0.000000e+00 0.000000e+00 0.000000e+00 0.000000e+00 0.000000e+00 0.000000e+00 0.000000e+00 9.235254e-01 7.647455e-02 0.000000e+00 0.000000e+00 0.000000e+00 0.000000e+00 0.000000e+00 0.000000e+00 0.000000e+00 0.000000e+00 0.000000e+00 0.000000e+00
 0.000000e+00 0.000000e+00 0.000000e+00 0.000000e+00 0.000000e+00 0.000000e+00 0.000000e+00 0.000000e+00 0.000000e+00 7.895914e-01 2.104086e-01 0.000000e+00 0.000000e+00 0.000000e+00 0.000000e+00 0.000000e+00 0.000000e+00 0.000000e+00 0.000000e+00 0.000000e+00
 0.000000e+00 0.000000e+00 0.000000e+00 0.000000e+00 0.000000e+00 0.000000e+00 0.000000e+00 0.000000e+00 0.000000e+00 0.000000e+00 8.195862e-01 1.804138e-01 0.000000e+00 0.000000e+00 0.000000e+00 0.000000e+00 0.000000e+00 0.000000e+00 0.000000e+00 0.000000e+00
 0.000000e+00 0.000000e+00 0.000000e+00 0.000000e+00 0.000000e+00 0.000000e+00 0.000000e+00 0.000000e+00 0.000000e+00 0.000000e+00 0.000000e+00 9.574519e-01 4.254808e-02 0.000000e+00 0.000000e+00 0.000000e+00 0.000000e+00 0.000000e+00 0.000000e+00 0.000000e+00
 0.000000e+00 0.000000e+00 0.000000e+00 0.000000e+00 0.000000e+00 0.000000e+00 0.000000e+00 0.000000e+00 0.000000e+00 0.000000e+00 0.000000e+00 0.000000e+00 9.782025e-01 2.179752e-02 0.000000e+00 0.000000e+00 0.000000e+00 0.000000e+00 0.000000e+00 0.000000e+00
 0.000000e+00 0.000000e+00 0.000000e+00 0.000000e+00 0.000000e+00 0.000000e+00 0.000000e+00 0.000000e+00 0.000000e+00 0.000000e+00 0.000000e+00 0.000000e+00 0.000000e+00 9.836527e-01 1.634732e-02 0.000000e+00 0.000000e+00 0.000000e+00 0.000000e+00 0.000000e+00
 0.000000e+00 0.000000e+00 0.000000e+00 0.000000e+00 0.000000e+00 0.000000e+00 0.000000e+00 0.000000e+00 0.000000e+00 0.000000e+00 0.000000e+00 0.000000e+00 0.000000e+00 0.000000e+00 9.114327e-01 8.856727e-02 0.000000e+00 0.000000e+00 0.000000e+00 0.000000e+00
 0.000000e+00 0.000000e+00 0.000000e+00 0.000000e+00 0.000000e+00 0.000000e+00 0.000000e+00 0.000000e+00 0.000000e+00 0.000000e+00 0.000000e+00 0.000000e+00 0.000000e+00 0.000000e+00 0.000000e+00 8.643915e-01 1.356085e-01 0.000000e+00 0.000000e+00 0.000000e+00
 0.000000e+00 0.000000e+00 0.000000e+00 0.000000e+00 0.000000e+00 0.000000e+00 0.000000e+00 0.000000e+00 0.000000e+00 0.000000e+00 0.000000e+00 0.000000e+00 0.000000e+00 0.000000e+00 0.000000e+00 0.000000e+00 4.468497e-01 5.531503e-01 0.000000e+00 0.000000e+00
 0.000000e+00 0.000000e+00 0.000000e+00 0.000000e+00 0.000000e+00 0.000000e+00 0.000000e+00 0.000000e+00 0.000000e+00 0.000000e+00 0.000000e+00 0.000000e+00 0.000000e+00 0.000000e+00 0.000000e+00 0.000000e+00 0.000000e+00 7.376511e-01 2.623489e-01 0.000000e+00
 0.000000e+00 0.000000e+00 0.000000e+00 0.000000e+00 0.000000e+00 0.000000e+00 0.000000e+00 0.000000e+00 0.000000e+00 0.000000e+00 0.000000e+00 0.000000e+00 0.000000e+00 0.000000e+00 0.000000e+00 0.000000e+00 0.000000e+00 0.000000e+00 8.831043e-01 1.168956e-01
 0.000000e+00 0.000000e+00 0.000000e+00 0.000000e+00 0.000000e+00 0.000000e+00 0.000000e+00 0.000000e+00 0.000000e+00 0.000000e+00 0.000000e+00 0.000000e+00 0.000000e+00 0.000000e+00 0.000000e+00 0.000000e+00 0.000000e+00 0.000000e+00 0.000000e+00 0.000000e+00
<ENDHMM>
