~o
<STREAMINFO> 1 42
<VECSIZE> 42<NULLD><USER><DIAGC>
~h "CONTROL"
<BEGINHMM>
<NUMSTATES> 25
<STATE> 2
<NUMMIXES> 4
<MIXTURE> 1 1.738331e-01
<MEAN> 42
 7.932964e-02 1.040661e-01 1.691288e-02 -9.090327e-02 3.224611e-02 5.694184e-02 -3.046450e-02 2.234554e-02 8.107442e-02 1.164646e-01 1.250100e-01 1.131206e-01 3.272528e-05 2.577224e-03 2.548960e-03 -1.315996e-03 -1.221507e-03 2.563827e-03 8.252893e-04 4.907222e-04 9.589241e-04 1.810354e-03 1.971002e-03 1.970957e-03 -1.315466e-04 8.767363e-04 1.010132e-03 -3.732733e-04 -5.558673e-04 9.537920e-04 8.983219e-04 8.404453e-04 8.553014e-04 9.460643e-04 8.551021e-04 7.919093e-04 6.067538e-03 2.147178e-03 2.092096e-03 1.035382e-01 7.153690e-02 4.220255e-03
<VARIANCE> 42
 2.347698e-03 5.132806e-03 3.510063e-03 2.778501e-03 1.416070e-03 3.427155e-03 3.807362e-03 1.239895e-02 1.759928e-02 6.034674e-03 7.067541e-03 7.090735e-03 7.044982e-05 6.166080e-05 6.133392e-05 5.068240e-05 5.029548e-05 4.444269e-05 2.325667e-05 7.374013e-05 2.447714e-05 4.065752e-05 2.465450e-05 2.331884e-05 2.341914e-05 1.954538e-05 2.706165e-05 1.479204e-05 2.026126e-05 1.764476e-05 5.056426e-06 2.601508e-05 4.243564e-06 1.211414e-05 5.496824e-06 4.457329e-06 2.615720e-05 2.035487e-04 3.224118e-04 2.810967e-03 3.772020e-03 4.718489e-03
<GCONST> -2.875450e+02
<MIXTURE> 2 3.181424e-01
<MEAN> 42
 1.872394e-03 5.660110e-03 -2.971550e-03 -2.643084e-03 1.920587e-03 -2.062425e-03 1.495277e-03 5.761091e-03 8.763802e-03 4.159849e-03 -2.229444e-03 1.831214e-03 8.631755e-04 1.587674e-03 7.298016e-04 -1.228397e-03 5.651073e-05 1.152397e-03 8.220950e-04 8.950260e-04 1.000484e-03 8.805316e-04 9.921747e-04 9.780691e-04 4.511032e-04 8.688129e-04 4.268706e-04 -6.610059e-04 2.154015e-05 6.469204e-04 4.435444e-04 5.450615e-04 6.181634e-04 6.381050e-04 6.238281e-04 5.937980e-04 1.367870e-05 -1.191328e-04 -6.290383e-04 1.404518e-03 3.547265e-03 -3.852628e-03
<VARIANCE> 42
 4.334511e-04 6.777933e-04 6.360399e-04 4.276831e-04 3.705517e-04 6.558902e-04 6.463400e-04 1.370589e-03 1.096867e-03 6.909864e-04 4.191562e-04 1.014916e-03 2.793997e-05 2.087610e-05 2.198504e-05 1.913676e-05 1.965367e-05 1.432820e-05 7.314221e-06 7.374013e-05 9.872299e-06 4.065752e-05 1.131955e-05 1.066193e-05 1.086135e-05 7.686478e-06 7.791429e-06 7.349460e-06 7.324494e-06 4.994087e-06 2.090056e-06 2.601508e-05 2.236360e-06 1.211414e-05 2.271124e-06 2.215297e-06 2.263356e-06 1.071766e-05 4.299600e-05 2.765478e-04 4.545669e-04 3.501121e-04
<GCONST> -3.446999e+02
<MIXTURE> 3 2.974502e-01
<MEAN> 42
 -6.402863e-03 -1.552908e-02 -1.605247e-02 1.213962e-02 4.916159e-03 -2.031798e-02 1.916864e-03 4.173612e-03 -6.046050e-03 -1.372618e-02 -1.970321e-02 -1.769390e-02 -1.199303e-03 -1.953700e-03 -7.613231e-04 1.578480e-03 -2.229434e-04 -1.343508e-03 -6.523205e-04 -9.502488e-04 -1.108738e-03 -1.317152e-03 -1.284178e-03 -1.408829e-03 -2.971910e-04 -7.539403e-04 -4.616551e-04 5.260565e-04 7.111416e-05 -6.065345e-04 -4.769682e-04 -4.755767e-04 -5.322875e-04 -5.362098e-04 -5.141108e-04 -4.703739e-04 -7.940137e-04 5.976714e-04 -1.826030e-03 -1.353215e-02 -1.300518e-02 -4.100149e-03
<VARIANCE> 42
 3.860207e-04 7.278466e-04 6.134136e-04 3.993508e-04 3.437680e-04 6.544052e-04 7.702865e-04 1.370589e-03 8.715467e-04 7.657040e-04 5.338156e-04 9.918440e-04 2.302267e-05 1.947649e-05 1.819335e-05 1.679983e-05 1.584288e-05 1.319539e-05 6.382065e-06 7.374013e-05 9.872299e-06 4.065752e-05 1.131955e-05 8.494042e-06 9.723682e-06 7.383009e-06 7.458156e-06 6.719834e-06 6.785724e-06 5.001161e-06 2.104573e-06 2.601508e-05 2.236937e-06 1.211414e-05 2.361992e-06 2.212100e-06 4.183104e-06 1.027514e-05 4.216621e-05 3.865994e-04 5.078141e-04 4.135704e-04
<GCONST> -3.450530e+02
<MIXTURE> 4 2.105786e-01
<MEAN> 42
 5.753585e-02 7.050289e-02 5.496823e-03 -6.502408e-02 2.751948e-02 3.358496e-02 -3.131364e-02 5.885501e-03 4.750015e-02 7.481014e-02 7.625880e-02 7.955975e-02 2.751942e-05 -1.888692e-03 -1.918397e-03 9.448691e-04 9.500593e-04 -1.921373e-03 -1.346280e-03 -2.453780e-03 -2.758360e-03 -2.386790e-03 -2.144629e-03 -1.913247e-03 -1.675495e-04 -1.081359e-03 -9.197001e-04 6.265936e-04 3.632474e-04 -1.010845e-03 -7.054257e-04 -8.495441e-04 -9.499126e-04 -1.043190e-03 -9.967856e-04 -9.538369e-04 5.019821e-03 3.737523e-04 -7.971679e-05 6.995756e-02 4.784337e-02 1.019205e-02
<VARIANCE> 42
 2.115991e-03 5.547122e-03 4.464885e-03 2.531636e-03 1.637252e-03 4.426090e-03 2.897417e-03 6.164521e-03 5.659360e-03 4.334513e-03 5.368321e-03 7.417203e-03 6.838944e-05 5.561062e-05 5.762891e-05 4.760922e-05 4.890935e-05 3.997853e-05 2.598335e-05 7.374013e-05 2.746794e-05 4.065752e-05 2.863622e-05 2.441528e-05 2.509779e-05 1.762477e-05 2.138406e-05 1.605293e-05 1.865990e-05 1.340935e-05 4.359837e-06 2.601508e-05 4.700548e-06 1.211414e-05 4.696155e-06 4.567810e-06 2.046011e-05 9.270348e-05 2.702362e-04 2.486531e-03 4.268399e-03 2.099108e-03
<GCONST> -2.924012e+02
<STATE> 3
<NUMMIXES> 4
<MIXTURE> 1 1.259377e-01
<MEAN> 42
 6.230947e-02 8.072602e-02 1.898094e-02 -6.970950e-02 2.525952e-02 4.509357e-02 -6.010725e-02 -6.917573e-03 2.203261e-02 4.278172e-02 7.630666e-02 4.280471e-02 2.729559e-03 5.959099e-03 3.229746e-03 -4.343980e-03 -2.481260e-04 4.679371e-03 2.817899e-03 3.786428e-03 4.170634e-03 4.608792e-03 5.463948e-03 4.278549e-03 -3.980786e-04 1.146102e-03 1.538021e-03 -3.755519e-04 -9.823604e-04 1.382829e-03 2.128455e-03 2.245335e-03 2.213822e-03 2.037050e-03 2.438279e-03 1.796816e-03 5.855391e-03 3.567490e-03 1.439599e-03 5.887532e-02 5.607171e-02 2.621841e-02
<VARIANCE> 42
 6.342738e-03 4.077964e-03 2.219745e-03 4.628925e-03 3.030481e-03 1.538991e-03 1.361225e-02 1.370589e-03 4.814350e-03 5.634184e-03 1.311821e-02 4.814554e-03 1.593090e-04 1.237744e-04 1.041055e-04 1.157033e-04 1.011907e-04 7.515852e-05 5.148406e-05 7.374013e-05 4.789799e-05 4.065752e-05 1.539427e-04 3.187827e-05 5.116400e-05 3.594944e-05 3.749002e-05 3.420546e-05 3.578128e-05 2.445632e-05 1.075958e-05 2.601508e-05 1.097517e-05 1.211414e-05 2.842261e-05 9.758726e-06 6.558176e-05 8.143947e-05 2.240503e-04 6.848362e-03 1.618896e-03 9.517772e-04
<GCONST> -2.754635e+02
<MIXTURE> 2 3.991058e-01
<MEAN> 42
 6.525300e-04 5.561423e-03 6.919024e-03 6.708540e-04 5.148072e-04 3.170268e-03 2.299691e-03 -6.964451e-03 1.588399e-03 1.512828e-03 1.284924e-02 4.252547e-03 -5.000361e-04 6.099805e-04 1.109098e-03 -5.350634e-05 -8.035029e-04 8.719544e-04 1.489032e-03 1.226992e-03 1.378378e-03 1.181148e-03 1.946344e-03 8.684708e-04 6.797918e-04 9.279549e-04 2.457236e-04 -8.044895e-04 2.208984e-04 5.843391e-04 5.463007e-04 8.698131e-04 8.620514e-04 6.152049e-04 7.921720e-04 5.612007e-04 1.080328e-04 9.724520e-04 1.683575e-03 4.605199e-03 5.577548e-03 2.893910e-03
<VARIANCE> 42
 6.714725e-04 1.075949e-03 7.646680e-04 6.248708e-04 4.013099e-04 7.075188e-04 8.239052e-04 1.370589e-03 6.824171e-04 6.537745e-04 2.988033e-03 5.932372e-04 1.087123e-04 6.565038e-05 7.219752e-05 6.908082e-05 7.414832e-05 4.256627e-05 1.981263e-05 7.374013e-05 2.607281e-05 4.065752e-05 7.762205e-05 2.088197e-05 4.232123e-05 2.921107e-05 2.947858e-05 2.840286e-05 2.861013e-05 1.919384e-05 7.312799e-06 2.601508e-05 9.034623e-06 1.211414e-05 2.750637e-05 7.934239e-06 2.181480e-06 2.773772e-05 7.961336e-05 3.043912e-04 6.849825e-04 2.838487e-04
<GCONST> -3.136509e+02
<MIXTURE> 3 2.873040e-01
<MEAN> 42
 -1.188705e-02 -1.522115e-02 -2.863112e-03 1.616191e-02 -7.371025e-04 -1.308941e-02 -6.759262e-03 -1.516284e-02 -1.277142e-02 -1.668145e-02 -2.399574e-02 -1.414605e-02 -1.588204e-03 -4.523376e-03 -2.942851e-03 3.061637e-03 6.709307e-04 -3.797381e-03 -1.317426e-03 -2.497725e-03 -3.302817e-03 -3.839192e-03 -4.887796e-03 -3.815037e-03 -7.456238e-05 -7.479391e-04 -6.705444e-04 4.116438e-04 2.950126e-04 -7.148302e-04 -1.132190e-03 -1.432496e-03 -1.462298e-03 -1.337372e-03 -1.542301e-03 -1.323591e-03 -8.524350e-04 -4.143283e-04 -3.546458e-04 -1.330837e-02 -1.084206e-02 5.779442e-03
<VARIANCE> 42
 9.540700e-04 1.392143e-03 1.057580e-03 8.403316e-04 5.138842e-04 9.862413e-04 9.849194e-04 1.370589e-03 1.138345e-03 1.208344e-03 2.757243e-03 1.072419e-03 1.175151e-04 7.219633e-05 9.140897e-05 7.206235e-05 8.613347e-05 5.312176e-05 3.129235e-05 7.374013e-05 2.987715e-05 4.065752e-05 6.411796e-05 2.319681e-05 3.759223e-05 2.740530e-05 3.239730e-05 2.441360e-05 2.798499e-05 2.081307e-05 1.010221e-05 2.601508e-05 1.103104e-05 1.211414e-05 2.120142e-05 9.041489e-06 3.167322e-06 3.123966e-05 1.043367e-04 4.978746e-04 9.047544e-04 2.838487e-04
<GCONST> -3.069510e+02
<MIXTURE> 4 1.876508e-01
<MEAN> 42
 2.761617e-02 5.565249e-02 2.282313e-02 -4.374395e-02 9.972397e-03 2.889095e-02 -2.806633e-02 -1.439691e-02 -2.015730e-02 -3.155513e-03 3.088847e-02 1.857891e-03 -1.228589e-03 -2.061840e-03 -8.281661e-04 1.639288e-03 -1.933137e-04 -1.453450e-03 -2.464255e-04 -2.588269e-04 -6.155403e-04 -9.178268e-04 -2.299742e-03 -1.145127e-03 -1.227377e-03 -1.548619e-03 -3.160961e-04 1.390807e-03 -4.496416e-04 -9.430996e-04 -2.389410e-04 -1.455351e-04 -1.878387e-04 -2.323480e-04 -7.076389e-04 -4.002255e-04 2.712198e-03 3.618786e-03 -3.914693e-03 1.419904e-02 4.533041e-02 2.423137e-02
<VARIANCE> 42
 3.095918e-03 3.523692e-03 2.497601e-03 2.340913e-03 1.527030e-03 2.632810e-03 3.785140e-03 1.610864e-03 3.321921e-03 3.089743e-03 8.201128e-03 3.139090e-03 1.172411e-04 9.915427e-05 1.128389e-04 8.028447e-05 9.173198e-05 7.763016e-05 6.593206e-05 7.374013e-05 3.763840e-05 4.065752e-05 7.867961e-05 3.326939e-05 5.180388e-05 3.814242e-05 4.971613e-05 3.262901e-05 4.193354e-05 3.153210e-05 1.495672e-05 2.601508e-05 1.101759e-05 1.247197e-05 2.227798e-05 1.280730e-05 1.478905e-05 7.007634e-05 2.163224e-04 2.348914e-03 2.154463e-03 5.826642e-04
<GCONST> -2.833677e+02
<STATE> 4
<NUMMIXES> 4
<MIXTURE> 1 2.471443e-01
<MEAN> 42
 2.194019e-02 2.283261e-02 -1.213346e-03 -2.076223e-02 1.078776e-02 1.053896e-02 -1.892319e-03 2.821042e-02 3.135883e-02 3.004785e-02 3.095753e-02 2.656147e-02 6.691747e-04 1.311540e-03 6.404512e-04 -9.861393e-04 2.994624e-05 9.857650e-04 3.085185e-04 8.491984e-04 1.032653e-03 9.990062e-04 1.018292e-03 8.807725e-04 1.439900e-04 5.702426e-04 4.254010e-04 -3.519439e-04 -1.313973e-04 5.080437e-04 3.155984e-04 3.813814e-04 4.663703e-04 4.562504e-04 4.573611e-04 4.276827e-04 2.643246e-03 -1.417007e-03 8.806118e-04 2.475088e-02 1.318737e-02 -1.053630e-02
<VARIANCE> 42
 2.008965e-03 1.490897e-03 6.932907e-04 1.565170e-03 9.684864e-04 6.057537e-04 1.339897e-03 2.834367e-03 4.082779e-03 3.462665e-03 2.999102e-03 3.789451e-03 1.739207e-05 1.184444e-05 1.285305e-05 1.146058e-05 1.230550e-05 8.174541e-06 8.589595e-06 7.374013e-05 1.083176e-05 4.065752e-05 1.149257e-05 1.192604e-05 2.933752e-06 2.125027e-06 3.145305e-06 1.748424e-06 2.566948e-06 1.949774e-06 1.355795e-06 2.601508e-05 1.557776e-06 1.211414e-05 1.370707e-06 1.308353e-06 4.547998e-05 4.201053e-05 9.164876e-05 2.301312e-03 6.362494e-04 8.188184e-04
<GCONST> -3.355100e+02
<MIXTURE> 2 2.711509e-01
<MEAN> 42
 8.813374e-02 1.015628e-01 1.159195e-02 -9.389874e-02 3.665164e-02 5.494311e-02 -3.759555e-02 5.879096e-02 1.118873e-01 1.418083e-01 1.432747e-01 1.365187e-01 2.851128e-03 3.900908e-03 1.050907e-03 -3.379082e-03 9.055806e-04 2.489355e-03 -6.158114e-04 3.003046e-03 5.666811e-03 7.847033e-03 7.642810e-03 6.339661e-03 8.769293e-04 5.101348e-04 -3.629148e-04 -6.932127e-04 6.207342e-04 7.869350e-05 -5.994400e-06 6.199436e-04 8.641325e-04 1.291876e-03 1.317563e-03 1.259939e-03 8.829772e-03 -9.661429e-04 5.839417e-03 1.219846e-01 6.426726e-02 -1.115144e-02
<VARIANCE> 42
 3.122484e-02 3.606372e-02 1.595108e-02 2.958919e-02 1.453378e-02 1.832056e-02 3.493552e-02 1.139155e-01 1.079976e-01 1.147975e-01 9.340303e-02 7.476960e-02 1.095761e-03 7.372458e-04 5.966573e-04 7.677330e-04 6.638868e-04 3.936194e-04 8.112001e-04 1.709059e-03 1.787920e-03 2.054506e-03 1.980140e-03 1.655865e-03 9.413181e-05 6.940188e-05 7.367184e-05 6.341362e-05 6.678588e-05 4.817004e-05 5.776415e-05 1.482021e-04 1.920924e-04 2.154898e-04 1.805625e-04 1.320517e-04 5.095702e-04 5.547003e-04 4.599598e-04 6.457683e-02 2.022326e-02 4.323892e-02
<GCONST> -1.860388e+02
<MIXTURE> 3 3.670378e-01
<MEAN> 42
 2.869804e-03 -4.175687e-04 -5.239639e-03 4.520547e-04 3.288057e-03 -3.308504e-03 3.249465e-03 9.417171e-03 1.664251e-03 6.136895e-03 3.068712e-03 -2.162396e-03 -3.389664e-04 -8.963911e-04 -5.569969e-04 6.149457e-04 9.940739e-05 -7.374707e-04 -2.384383e-04 -5.014313e-04 -6.178390e-04 -7.266615e-04 -6.948027e-04 -7.012701e-04 -7.309649e-05 -3.836494e-04 -3.115702e-04 2.238029e-04 1.140114e-04 -3.550685e-04 -2.628444e-04 -2.642605e-04 -3.073394e-04 -3.028259e-04 -2.840285e-04 -2.580049e-04 2.417716e-04 -7.443035e-04 -7.813524e-04 1.130619e-03 -1.304928e-03 -4.503726e-03
<VARIANCE> 42
 7.076382e-04 7.277100e-04 4.785966e-04 5.716077e-04 4.275385e-04 4.762583e-04 6.221852e-04 1.370589e-03 2.479038e-03 1.593894e-03 1.240031e-03 1.610711e-03 1.300126e-05 9.938372e-06 1.137233e-05 8.646062e-06 9.811812e-06 7.566913e-06 6.133486e-06 7.374013e-05 9.872299e-06 4.065752e-05 1.131955e-05 8.494042e-06 2.836166e-06 2.154981e-06 3.204707e-06 1.702180e-06 2.513894e-06 2.023411e-06 1.218135e-06 2.601508e-05 1.733666e-06 1.211414e-05 1.335157e-06 1.246355e-06 7.519599e-06 1.967162e-05 7.024576e-05 7.038545e-04 4.178802e-04 4.656700e-04
<GCONST> -3.512529e+02
<MIXTURE> 4 1.146646e-01
<MEAN> 42
 6.368779e-02 2.605878e-04 -6.434021e-02 -3.077974e-02 6.279838e-02 -3.572847e-02 -6.405580e-02 -7.589962e-02 -6.177298e-02 -2.530947e-03 3.734085e-02 5.310549e-02 -7.112645e-03 -9.139333e-03 -2.025027e-03 8.132441e-03 -2.559644e-03 -5.597495e-03 1.494344e-03 -7.523886e-03 -1.395330e-02 -1.856371e-02 -1.823591e-02 -1.472929e-02 -2.152566e-03 -1.210634e-03 9.373741e-04 1.684080e-03 -1.550801e-03 -1.470953e-04 1.593821e-04 -1.449515e-03 -2.078914e-03 -3.057562e-03 -3.186586e-03 -3.057182e-03 6.712191e-03 9.997248e-03 2.185496e-03 3.767279e-02 -5.751416e-03 6.277012e-02
<VARIANCE> 42
 5.904780e-02 1.815390e-02 3.419222e-02 3.009425e-02 4.246487e-02 1.146603e-02 3.599754e-02 7.687316e-02 6.629089e-02 7.769839e-02 6.932075e-02 6.498022e-02 1.863800e-03 8.944001e-04 1.135158e-03 1.096511e-03 1.276927e-03 5.511745e-04 6.409219e-04 2.448024e-03 3.510622e-03 4.537223e-03 4.016429e-03 2.859240e-03 2.370794e-04 9.945568e-05 1.696518e-04 1.263318e-04 1.784590e-04 7.563738e-05 8.127493e-05 1.962059e-04 2.325413e-04 3.072433e-04 3.508226e-04 2.866897e-04 6.871315e-04 6.347176e-04 4.624232e-04 4.911637e-02 8.875827e-03 3.399606e-02
<GCONST> -1.748767e+02
<STATE> 5
<MEAN> 42
 9.920109e-03 9.602010e-03 -5.612662e-04 -8.728398e-03 7.049669e-03 -2.548667e-04 4.855050e-03 3.078823e-02 1.669909e-02 1.013050e-02 7.616619e-03 3.233417e-03 2.479070e-05 6.288069e-05 3.798748e-05 -4.369998e-05 -6.142945e-06 5.004718e-05 1.166426e-04 4.909197e-04 3.550122e-04 2.591014e-04 1.374683e-04 7.707940e-05 -3.773108e-06 2.485773e-05 2.871663e-05 -1.019428e-05 -1.600487e-05 2.691531e-05 3.289047e-05 3.549003e-05 4.245562e-05 2.139923e-05 1.367397e-05 1.194276e-07 7.377251e-05 -1.323522e-03 -8.902254e-04 5.163203e-03 4.431391e-03 -1.343656e-02
<VARIANCE> 42
 2.730580e-03 2.678744e-03 1.929286e-03 2.294805e-03 1.581401e-03 1.672848e-03 2.085366e-03 9.658741e-03 6.979418e-03 5.688826e-03 4.245517e-03 2.653045e-03 8.794280e-05 6.401667e-05 7.840718e-05 5.624155e-05 6.753299e-05 4.973375e-05 2.862262e-05 7.374013e-05 3.778350e-05 4.065752e-05 3.432726e-05 2.556934e-05 3.160351e-05 2.233100e-05 2.742757e-05 2.006806e-05 2.408286e-05 1.720038e-05 6.994414e-06 2.601508e-05 8.859940e-06 1.211414e-05 8.279450e-06 6.824423e-06 2.030455e-05 4.460560e-05 1.595585e-04 2.346978e-03 1.504643e-03 2.631101e-03
<GCONST> -2.920515e+02
<STATE> 6
<MEAN> 42
 1.993279e-02 3.702721e-02 2.527104e-02 -2.570970e-02 3.700161e-03 2.586526e-02 -3.898547e-03 2.220032e-02 3.337055e-02 3.299824e-02 3.275078e-02 1.151207e-02 -1.127263e-04 -4.282430e-05 6.927291e-05 7.785166e-05 -9.230250e-05 1.308724e-05 1.590233e-04 1.703857e-04 1.068299e-04 4.858951e-05 1.164779e-05 -5.831088e-05 -1.400798e-05 -1.228872e-05 1.392423e-06 1.290572e-05 -7.524799e-06 -5.412847e-06 2.897048e-05 4.576173e-05 2.350527e-05 1.878331e-05 -1.688044e-06 2.306987e-06 2.587006e-03 2.443693e-03 5.793802e-03 2.352156e-02 2.530652e-02 -9.017494e-03
<VARIANCE> 42
 6.295400e-03 1.586385e-02 4.803227e-03 1.006545e-02 1.714486e-03 8.512878e-03 4.096105e-03 1.507108e-02 1.939594e-02 2.195946e-02 2.193869e-02 1.708091e-02 1.980034e-04 3.090565e-04 1.124817e-04 2.253880e-04 7.860122e-05 1.626329e-04 1.085819e-04 3.342400e-04 4.419592e-04 5.512755e-04 5.309685e-04 4.047978e-04 3.120315e-05 3.461120e-05 2.255739e-05 2.725158e-05 1.833067e-05 2.095834e-05 1.064839e-05 2.601508e-05 3.170154e-05 4.270276e-05 4.395177e-05 3.052359e-05 1.981911e-04 2.236692e-04 2.015442e-04 1.467367e-02 9.109356e-03 4.870133e-03
<GCONST> -2.445017e+02
<STATE> 7
<MEAN> 42
 7.720348e-02 7.087646e-02 -6.268402e-03 -7.276972e-02 4.261743e-02 2.693386e-02 -3.143647e-02 5.869357e-02 8.468828e-02 1.250775e-01 1.101829e-01 9.969155e-02 2.558328e-04 2.539391e-04 -2.855883e-06 -2.550439e-04 1.294045e-04 1.277117e-04 -5.270970e-04 -5.482723e-04 -9.726093e-05 1.166025e-04 1.562376e-04 3.149824e-04 7.215214e-06 -3.998414e-05 -4.746043e-05 1.619649e-05 2.791938e-05 -4.383580e-05 -4.318166e-05 -8.714648e-05 -8.261647e-05 -6.828788e-05 -2.558206e-05 -3.143770e-05 8.057810e-03 1.542346e-03 -1.379605e-03 9.729740e-02 4.000919e-02 -1.395466e-02
<VARIANCE> 42
 3.088546e-02 3.664770e-02 2.742677e-02 2.642460e-02 2.023484e-02 2.481045e-02 3.398268e-02 8.228394e-02 1.023370e-01 1.143230e-01 8.375988e-02 6.106354e-02 9.368186e-04 9.284825e-04 7.242114e-04 7.518830e-04 6.007562e-04 5.938592e-04 7.783228e-04 1.784844e-03 2.498311e-03 3.028604e-03 2.431219e-03 1.716022e-03 1.003283e-04 1.047896e-04 1.012607e-04 7.721980e-05 7.481418e-05 7.817897e-05 6.453843e-05 1.498733e-04 2.034381e-04 2.545496e-04 2.124392e-04 1.513231e-04 4.503649e-04 4.702075e-04 3.595267e-04 5.907381e-02 2.342999e-02 3.529545e-02
<GCONST> -1.826157e+02
<STATE> 8
<MEAN> 42
 3.560206e-02 2.224187e-02 -1.318738e-02 -2.758644e-02 2.410742e-02 2.075755e-04 -2.340059e-02 1.594511e-02 3.163565e-02 3.065563e-02 7.012242e-02 3.211014e-02 1.449036e-05 -2.455394e-05 -3.921307e-05 4.137168e-06 2.624446e-05 -3.228407e-05 2.756804e-04 5.685107e-04 -7.555645e-06 5.016843e-05 5.397008e-05 1.624154e-06 3.622539e-06 2.026446e-05 1.730782e-05 -1.153050e-05 -7.118611e-06 1.929922e-05 -7.446125e-05 -1.361638e-04 -8.840983e-05 -4.131050e-05 -4.450469e-05 -1.336570e-06 3.458329e-03 2.481120e-03 -9.838231e-04 4.210603e-02 1.039854e-02 1.078601e-03
<VARIANCE> 42
 1.025243e-02 1.197770e-02 1.805203e-03 1.067104e-02 3.082058e-03 4.362392e-03 9.550813e-03 1.277331e-02 3.237811e-02 2.584060e-02 2.800099e-02 1.516834e-02 2.897869e-04 3.636739e-04 7.667518e-05 3.074898e-04 9.416615e-05 1.491817e-04 3.348876e-04 3.547190e-04 1.323600e-03 8.201820e-04 6.613462e-04 4.228686e-04 3.451388e-05 3.902912e-05 2.550826e-05 3.037262e-05 2.060798e-05 2.364743e-05 3.154418e-05 3.319947e-05 1.584213e-04 7.321702e-05 9.305911e-05 3.558157e-05 1.622028e-04 2.151224e-04 2.527121e-04 1.816514e-02 4.184804e-03 3.313470e-03
<GCONST> -2.361982e+02
<STATE> 9
<MEAN> 42
 5.754057e-03 9.019659e-03 1.539662e-03 -4.048333e-03 2.186672e-03 1.690234e-03 -1.979551e-03 4.252023e-03 1.978867e-03 5.752610e-03 8.624114e-03 6.163538e-03 -1.928734e-04 -2.344582e-04 -4.053797e-05 2.139482e-04 -7.451419e-05 -1.387561e-04 6.389248e-05 -2.111329e-04 -2.738438e-04 -2.864646e-04 -2.646441e-04 -2.799479e-04 8.393547e-06 1.909396e-05 1.081613e-05 -1.377504e-05 -1.187671e-06 1.479126e-05 1.054653e-05 4.658489e-05 3.563717e-05 2.359474e-05 1.810922e-05 1.425113e-05 5.641243e-04 -2.107586e-05 1.227522e-03 5.660442e-03 6.813767e-03 4.725625e-04
<VARIANCE> 42
 1.045946e-03 1.378321e-03 7.081061e-04 1.029115e-03 5.453725e-04 7.865194e-04 7.917578e-04 1.370589e-03 1.519461e-03 1.168078e-03 1.258915e-03 8.982203e-04 7.384606e-05 5.444816e-05 5.613792e-05 5.003356e-05 5.157033e-05 3.742849e-05 1.722662e-05 7.374013e-05 2.089064e-05 4.065752e-05 3.238155e-05 1.612039e-05 2.768163e-05 1.928690e-05 2.120146e-05 1.812283e-05 1.968419e-05 1.355020e-05 5.071030e-06 2.601508e-05 6.109262e-06 1.211414e-05 8.764898e-06 5.070504e-06 4.788184e-06 1.398560e-05 6.066733e-05 6.427445e-04 7.994900e-04 3.673055e-04
<GCONST> -3.180682e+02
<STATE> 10
<MEAN> 42
 4.030334e-02 5.365574e-03 -2.066514e-02 -2.120528e-02 4.292369e-02 -7.300411e-03 -3.874296e-02 -1.536289e-02 -3.087962e-02 -1.584506e-02 -1.831491e-02 -1.057284e-03 -9.876358e-05 -7.098369e-05 2.931799e-05 8.560548e-05 -6.412790e-05 -2.391508e-05 1.071208e-04 1.225442e-04 1.143426e-04 -1.704489e-05 -5.559796e-05 -8.944057e-05 -2.308742e-05 1.294502e-05 3.638400e-05 5.107528e-06 -2.955771e-05 2.417095e-05 6.840927e-05 7.967490e-05 7.249614e-05 2.512490e-05 1.400749e-07 -1.159701e-05 2.970506e-03 5.385423e-04 -5.336284e-03 2.024432e-03 -3.485914e-03 2.254176e-02
<VARIANCE> 42
 3.053355e-02 6.879581e-03 3.799454e-02 9.217103e-03 3.268596e-02 1.481895e-02 2.047601e-02 5.915258e-03 2.049380e-02 1.360844e-02 1.093425e-02 8.976020e-03 6.813410e-04 3.263311e-04 6.688264e-04 3.366176e-04 5.960194e-04 3.279337e-04 3.454824e-04 1.274398e-04 3.954984e-04 3.723421e-04 3.708217e-04 3.300249e-04 1.070138e-04 8.328808e-05 7.795014e-05 7.565309e-05 7.209258e-05 5.411297e-05 2.660698e-05 2.601508e-05 3.000587e-05 3.218109e-05 3.594072e-05 3.446844e-05 2.107250e-04 2.219417e-04 2.289528e-04 5.351747e-03 6.352036e-03 7.367391e-03
<GCONST> -2.276237e+02
<STATE> 11
<MEAN> 42
 -6.957696e-02 -4.777991e-02 1.533112e-02 5.856607e-02 -4.000836e-02 -2.227270e-02 9.429283e-02 1.124309e-01 5.066522e-02 -1.856074e-02 -4.229461e-02 -6.438575e-02 -7.727885e-03 -2.829523e-03 4.890824e-03 5.314790e-03 -6.421188e-03 1.005544e-03 2.738952e-02 3.985921e-02 2.871585e-02 1.056453e-02 6.218036e-04 -4.940946e-03 1.135160e-03 3.869369e-04 -7.648219e-04 -7.635355e-04 9.226443e-04 -1.696019e-04 4.175740e-03 8.387584e-03 7.009716e-03 5.194783e-03 3.246744e-03 1.839377e-03 -6.339232e-03 -5.632504e-03 9.408840e-04 -5.562006e-02 -3.313505e-02 -8.342509e-02
<VARIANCE> 42
 3.892499e-03 3.092901e-03 5.558439e-03 1.601773e-03 3.380523e-03 3.765352e-03 4.748647e-03 1.011331e-02 7.065207e-03 4.688624e-03 2.840349e-03 2.595348e-03 1.947671e-04 2.293748e-04 3.562423e-04 1.226409e-04 2.178711e-04 2.459460e-04 2.939283e-04 4.666587e-04 4.049439e-04 3.929576e-04 2.997486e-04 2.060248e-04 6.777458e-05 4.844960e-05 6.574880e-05 4.181854e-05 5.481649e-05 4.090439e-05 5.527029e-05 9.772975e-05 8.411372e-05 7.917237e-05 7.127623e-05 5.312775e-05 2.897257e-05 1.302905e-04 2.336148e-04 1.957036e-03 2.485766e-03 3.393727e-03
<GCONST> -2.498754e+02
<STATE> 12
<MEAN> 42
 -1.509025e-02 1.025546e-02 2.106020e-02 3.907976e-03 -1.608060e-02 1.191065e-02 1.833147e-01 3.142655e-01 2.418231e-01 1.366735e-01 5.607797e-02 -1.479603e-03 2.964412e-02 2.802037e-02 -1.676187e-03 -2.884444e-02 1.574968e-02 1.340369e-02 8.429158e-03 4.387399e-02 5.178583e-02 5.470869e-02 4.659678e-02 3.591120e-02 1.214117e-02 9.533960e-03 -2.615926e-03 -1.084499e-02 7.461685e-03 3.497968e-03 -9.899427e-03 -3.504929e-03 3.215899e-03 1.119295e-02 1.453852e-02 1.403424e-02 -6.099849e-03 -1.192058e-02 1.151001e-02 1.694694e-02 -9.412212e-03 -2.038623e-01
<VARIANCE> 42
 5.490659e-03 6.526398e-03 8.031228e-03 3.751971e-03 5.094860e-03 6.486470e-03 5.883459e-03 2.212019e-02 2.010577e-02 1.330098e-02 9.924028e-03 7.272696e-03 5.968672e-04 5.364991e-04 6.361293e-04 4.061157e-04 4.845602e-04 4.413722e-04 6.974002e-04 1.057746e-03 8.798457e-04 6.861445e-04 5.924820e-04 5.386554e-04 9.299594e-05 7.276671e-05 1.289323e-04 5.066472e-05 9.301625e-05 7.772886e-05 1.051273e-04 1.852958e-04 1.339031e-04 9.051998e-05 6.787430e-05 6.476163e-05 6.542599e-05 6.302780e-04 6.323031e-04 6.579293e-03 5.111102e-03 6.356458e-03
<GCONST> -2.207180e+02
<STATE> 13
<MEAN> 42
 7.495475e-02 1.111795e-01 4.617408e-02 -9.947258e-02 1.396143e-02 8.159230e-02 -3.704749e-02 2.544468e-02 4.069716e-02 4.102991e-02 3.362195e-02 2.416991e-02 4.023905e-04 3.215976e-04 -8.154992e-05 -3.623462e-04 2.434150e-04 1.211450e-04 -1.519245e-04 2.760029e-04 4.054350e-04 5.141385e-04 5.404479e-04 4.686498e-04 1.027097e-04 9.873961e-05 -3.691614e-06 -1.008193e-04 5.339250e-05 4.760376e-05 -1.253222e-04 -4.662316e-05 2.377103e-05 8.383553e-05 1.224696e-04 1.222835e-04 3.410919e-03 -4.576630e-03 9.739042e-05 4.223800e-02 7.632853e-02 5.448547e-03
<VARIANCE> 42
 3.815370e-02 1.854948e-01 6.938784e-02 9.476297e-02 7.554952e-03 1.181121e-01 3.791787e-02 2.503710e-02 1.364238e-02 2.530778e-02 2.300571e-02 1.246861e-02 1.113720e-03 5.962593e-03 2.225489e-03 2.985321e-03 1.802283e-04 3.818666e-03 1.373278e-03 3.622588e-04 4.821588e-04 8.379241e-04 7.363610e-04 3.801015e-04 8.228150e-05 5.442684e-04 2.418927e-04 2.527787e-04 2.612905e-05 3.726720e-04 1.482585e-04 3.073797e-05 5.165412e-05 8.054548e-05 6.713959e-05 3.389967e-05 1.976619e-04 1.970086e-04 2.169331e-04 2.849862e-02 1.080548e-01 1.207406e-02
<GCONST> -1.913319e+02
<STATE> 14
<MEAN> 42
 4.007764e-01 4.857005e-01 8.307320e-02 -4.429168e-01 1.602551e-01 2.824020e-01 -1.528395e-01 2.321591e-01 4.964620e-01 6.127300e-01 6.045830e-01 5.082455e-01 7.197592e-02 6.337944e-02 -8.583024e-03 -6.767414e-02 4.043032e-02 2.752716e-02 -6.987732e-02 -3.871860e-02 2.217593e-02 8.340852e-02 1.049981e-01 1.034695e-01 2.884451e-03 2.248040e-03 -6.371972e-04 -2.562404e-03 1.745819e-03 7.902578e-04 -1.119201e-02 -2.069191e-02 -1.364479e-02 -6.189186e-05 5.716698e-03 8.018028e-03 3.940649e-02 -9.251235e-03 1.013384e-02 5.119768e-01 3.097975e-01 -5.119994e-02
<VARIANCE> 42
 9.735294e-02 3.662753e-01 2.231721e-01 1.773804e-01 6.841845e-02 2.724849e-01 1.460945e-01 1.718915e-01 1.546988e-01 1.461507e-01 1.273935e-01 1.058063e-01 5.214956e-03 1.741493e-02 9.930828e-03 8.838318e-03 3.222913e-03 1.238547e-02 6.992390e-03 9.391828e-03 1.080539e-02 8.492230e-03 6.359920e-03 4.800190e-03 3.523033e-04 1.511492e-03 8.600707e-04 7.155016e-04 2.303603e-04 1.100791e-03 6.428872e-04 9.666652e-04 1.009766e-03 5.275166e-04 5.624491e-04 4.626827e-04 1.075730e-03 1.403573e-03 1.304351e-03 1.096350e-01 2.331820e-01 9.435446e-02
<GCONST> -1.171403e+02
<STATE> 15
<MEAN> 42
 3.773629e-01 3.844286e-01 2.423133e-03 -3.803310e-01 1.904575e-01 1.889827e-01 -5.334151e-01 -6.388169e-01 -3.407526e-01 3.417493e-01 5.985624e-01 6.212640e-01 -5.252611e-02 -4.807854e-02 4.450993e-03 5.029244e-02 -2.859329e-02 -2.193137e-02 3.826600e-04 -6.660239e-02 -9.666666e-02 -1.038380e-01 -9.674094e-02 -7.847982e-02 -9.923660e-03 -9.377481e-03 5.508848e-04 9.649003e-03 -5.249551e-03 -4.425721e-03 1.147510e-02 1.382326e-02 3.959976e-03 -9.951949e-03 -1.517957e-02 -1.606074e-02 6.238722e-02 3.208347e-02 2.932893e-04 4.949983e-01 3.200234e-01 5.300115e-01
<VARIANCE> 42
 1.532113e-01 2.351876e-01 3.441747e-01 1.058485e-01 1.900489e-01 2.516223e-01 9.560919e-02 4.110592e-01 8.616855e-01 7.425829e-01 5.950325e-01 4.045652e-01 4.899647e-03 6.791741e-03 6.794966e-03 4.150601e-03 4.160393e-03 5.579045e-03 5.413178e-03 1.473558e-02 1.910472e-02 1.856910e-02 2.485767e-02 1.998676e-02 8.019806e-04 9.240650e-04 8.517584e-04 6.507151e-04 5.971284e-04 6.873537e-04 5.205998e-04 1.423149e-03 2.130538e-03 2.776803e-03 3.500039e-03 2.619017e-03 1.337172e-03 1.815259e-03 1.432171e-03 3.138532e-01 2.194823e-01 2.105059e-01
<GCONST> -9.872842e+01
<STATE> 16
<MEAN> 42
 -9.022338e-02 -7.032494e-02 1.538129e-02 8.026043e-02 -5.038135e-02 -3.298865e-02 -1.342377e-01 -3.330869e-01 -3.164210e-01 -2.479007e-01 -1.860281e-01 -1.221302e-01 -1.857414e-03 -3.074491e-03 -1.225149e-03 2.446226e-03 -2.983606e-04 -2.169495e-03 2.993577e-02 6.075768e-02 5.136812e-02 2.621901e-02 1.260917e-02 1.237056e-03 5.645115e-03 5.978697e-03 3.265091e-04 -5.811446e-03 2.659368e-03 3.162071e-03 -1.756481e-03 -1.001121e-03 3.535246e-03 7.310699e-03 8.380178e-03 8.087644e-03 -1.448263e-03 2.975284e-02 3.462246e-03 -1.296567e-01 -1.771537e-02 1.948750e-01
<VARIANCE> 42
 1.963939e-02 2.330535e-02 3.801913e-02 1.109684e-02 2.259841e-02 2.536467e-02 8.170175e-02 1.394759e-01 1.549021e-01 4.823475e-02 2.495479e-02 1.264139e-02 6.921967e-04 9.961638e-04 1.306220e-03 5.182457e-04 7.523972e-04 9.816979e-04 1.038510e-03 2.405103e-03 3.650930e-03 2.091112e-03 1.390060e-03 9.493906e-04 1.257619e-04 1.480416e-04 1.257195e-04 1.052778e-04 8.932634e-05 1.063431e-04 1.026010e-04 2.358724e-04 4.947797e-04 4.607429e-04 3.517247e-04 2.221417e-04 3.553152e-04 9.142910e-04 1.055654e-03 1.302887e-02 2.155629e-02 7.376015e-02
<GCONST> -1.800840e+02
<STATE> 17
<MEAN> 42
 2.233896e-02 2.344586e-02 -4.913194e-03 -2.552866e-02 1.788161e-02 6.990783e-03 -1.610319e-02 3.336810e-02 4.806766e-02 3.949750e-02 4.056419e-02 4.275906e-02 9.759683e-05 1.048734e-04 7.369192e-06 -1.011139e-04 4.498850e-05 5.651931e-05 1.457780e-04 3.191237e-04 3.725242e-04 2.972841e-04 2.442102e-04 1.879383e-04 -2.715798e-06 -1.999705e-05 -1.719461e-05 1.134251e-05 7.177899e-06 -1.846147e-05 -2.176409e-05 -3.725489e-05 -6.035554e-05 -3.920700e-05 -2.163649e-05 -1.007332e-05 1.041096e-03 9.866898e-04 -2.314204e-03 3.652916e-02 1.192510e-02 -1.123752e-02
<VARIANCE> 42
 1.265628e-02 1.337605e-02 2.562001e-02 6.657063e-03 1.588146e-02 1.626287e-02 6.786535e-03 1.193587e-02 3.129982e-02 2.856529e-02 2.532394e-02 2.451984e-02 2.682878e-04 2.387362e-04 4.287261e-04 1.462823e-04 2.901418e-04 2.673542e-04 1.334771e-04 9.677729e-05 1.684242e-04 2.014865e-04 3.657197e-04 4.324707e-04 5.614640e-05 5.529819e-05 5.675764e-05 4.152122e-05 4.297481e-05 4.231535e-05 2.293413e-05 2.601508e-05 2.391508e-05 1.963288e-05 3.889297e-05 4.068296e-05 8.865556e-05 1.296631e-04 1.596218e-04 1.469063e-02 9.485994e-03 5.423940e-03
<GCONST> -2.364840e+02
<STATE> 18
<MEAN> 42
 4.977795e-02 6.672560e-02 1.751513e-02 -5.331638e-02 1.160934e-02 4.078323e-02 -3.888492e-02 -2.037602e-03 3.606056e-02 6.650636e-02 1.137699e-01 1.066796e-01 -7.926802e-05 1.270520e-05 9.292797e-05 3.401150e-05 -8.658609e-05 5.271985e-05 -2.250645e-04 -4.689490e-04 -3.938592e-04 -1.907121e-04 -1.279984e-04 -8.401596e-05 -1.068249e-05 -1.941526e-06 8.854313e-06 6.596550e-06 -9.606843e-06 3.158016e-06 3.045361e-05 3.991514e-05 5.978718e-05 3.478280e-05 8.637759e-06 -2.022265e-06 5.167933e-03 -2.739016e-03 -1.926093e-03 8.158626e-02 5.020795e-02 2.215531e-02
<VARIANCE> 42
 1.814787e-02 4.272923e-02 1.639852e-02 2.633318e-02 6.597611e-03 2.516315e-02 3.853692e-02 8.510030e-02 1.290438e-01 8.016785e-02 1.149450e-01 1.040583e-01 6.863583e-04 1.366322e-03 5.470128e-04 8.900788e-04 2.760198e-04 7.875340e-04 1.319017e-03 2.574499e-03 3.331749e-03 2.569332e-03 4.603030e-03 4.047219e-03 9.394054e-05 1.478727e-04 1.005879e-04 9.585918e-05 6.037474e-05 1.008538e-04 1.505975e-04 3.059664e-04 2.633001e-04 2.665171e-04 5.673688e-04 4.733324e-04 3.323721e-04 3.165379e-04 2.874383e-04 5.875915e-02 3.161506e-02 5.438434e-02
<GCONST> -1.774315e+02
<STATE> 19
<MEAN> 42
 3.327656e-02 6.467838e-02 2.144843e-02 -4.584160e-02 5.927959e-03 3.301296e-02 -2.735592e-02 1.383654e-02 -3.912830e-03 3.100657e-02 5.166177e-02 5.378440e-02 9.099374e-05 3.645123e-05 -5.514808e-05 -6.402003e-05 7.404149e-05 -9.814363e-06 1.862971e-04 4.350428e-04 4.282045e-04 2.151576e-04 1.088399e-04 4.960516e-05 -2.031246e-06 9.034698e-06 1.080854e-05 -3.619967e-06 -6.747183e-06 1.003512e-05 -4.692057e-05 -8.164199e-05 -7.269997e-05 -4.036006e-05 -1.802162e-05 -9.358588e-06 3.757903e-03 -2.765612e-03 -3.931611e-04 3.769214e-02 5.242619e-02 1.696370e-02
<VARIANCE> 42
 8.479411e-03 3.083680e-02 1.723391e-02 1.535865e-02 5.247173e-03 2.211136e-02 1.896087e-02 4.549512e-02 3.402803e-02 2.642150e-02 3.452903e-02 3.330877e-02 2.329691e-04 9.172173e-04 5.741774e-04 4.321389e-04 1.752960e-04 6.876647e-04 4.983844e-04 1.214933e-03 8.952063e-04 7.637652e-04 1.105784e-03 9.349318e-04 4.504493e-05 1.119392e-04 7.619495e-05 5.943597e-05 3.290158e-05 8.272791e-05 4.865097e-05 1.025585e-04 7.170693e-05 8.383414e-05 1.194800e-04 9.037858e-05 2.113617e-04 2.248437e-04 2.243840e-04 1.713955e-02 2.525098e-02 2.462408e-02
<GCONST> -2.091321e+02
<STATE> 20
<MEAN> 42
 1.939695e-02 1.898463e-02 -6.048426e-03 -1.885528e-02 1.437527e-02 4.494498e-04 -2.235570e-03 2.700818e-02 2.630604e-02 9.239385e-03 2.155435e-02 2.297194e-02 4.046967e-05 4.537716e-05 4.619460e-06 -4.296175e-05 1.752584e-05 2.634877e-05 3.104084e-04 5.574626e-04 4.232397e-04 2.620581e-04 1.606282e-04 1.033619e-04 1.008021e-05 3.209138e-06 -6.713337e-06 -6.693876e-06 8.779524e-06 -1.859208e-06 6.015685e-06 3.204762e-05 1.656236e-05 2.172305e-05 1.949097e-05 2.049961e-05 1.302392e-03 -4.337656e-04 9.750428e-04 1.617362e-02 1.079034e-02 -8.884339e-03
<VARIANCE> 42
 9.545501e-03 6.504827e-03 8.994600e-03 5.808523e-03 7.677689e-03 5.363513e-03 1.053475e-02 1.496083e-02 2.284824e-02 1.424786e-02 1.648525e-02 1.592412e-02 2.930180e-04 1.435291e-04 3.006420e-04 1.433165e-04 2.613378e-04 1.488398e-04 1.881209e-04 1.733188e-04 3.721329e-04 3.192586e-04 5.199353e-04 4.365100e-04 5.074840e-05 2.801765e-05 4.143470e-05 2.907006e-05 3.917108e-05 2.202764e-05 1.909824e-05 2.601508e-05 3.065002e-05 3.199814e-05 6.353961e-05 5.044081e-05 9.448511e-05 1.224932e-04 1.598461e-04 8.237458e-03 4.262927e-03 8.656540e-03
<GCONST> -2.424990e+02
<STATE> 21
<MEAN> 42
 2.289748e-02 1.121816e-01 4.706344e-02 -9.149022e-02 2.308401e-02 3.247298e-02 -6.998339e-02 -4.874473e-02 -7.289214e-02 -1.660516e-02 1.184678e-01 1.465035e-02 -1.080480e-05 -2.691273e-05 -1.698892e-05 1.972384e-05 2.764602e-06 -2.432196e-05 -4.743441e-04 -7.320193e-04 -5.489360e-04 -3.798751e-04 -2.254837e-04 -1.131142e-04 -6.006996e-05 -3.042775e-05 2.950607e-05 4.547239e-05 -4.512563e-05 3.041423e-07 -5.559353e-05 -1.692761e-04 -1.249770e-04 -1.114426e-04 -9.902920e-05 -8.212296e-05 8.518387e-03 5.161799e-03 -9.612964e-03 3.652176e-02 1.048967e-01 7.015893e-02
<VARIANCE> 42
 4.482424e-02 3.437826e-02 4.818719e-02 2.530510e-02 3.560232e-02 3.179550e-02 3.254760e-02 1.643771e-01 1.485969e-01 1.041394e-01 8.000917e-02 7.302415e-02 1.293489e-03 9.065002e-04 1.289991e-03 7.800894e-04 1.069361e-03 7.755691e-04 8.117098e-04 3.290836e-03 2.771766e-03 2.276905e-03 2.373973e-03 1.701021e-03 1.352773e-04 1.066701e-04 1.326572e-04 8.836902e-05 1.077573e-04 8.593037e-05 6.506370e-05 2.282908e-04 2.128140e-04 1.981099e-04 2.165417e-04 1.516391e-04 4.477643e-04 4.235159e-04 2.306005e-04 5.651714e-02 2.775475e-02 5.820503e-02
<GCONST> -1.762197e+02
<STATE> 22
<MEAN> 42
 1.758976e-02 1.776897e-02 -2.968143e-03 -1.559012e-02 1.116173e-02 2.996326e-03 -3.843475e-03 3.042929e-02 2.137337e-02 1.484736e-02 2.186973e-02 1.163159e-02 2.415018e-05 -3.584512e-05 -5.947010e-05 5.247208e-06 4.166974e-05 -4.759344e-05 2.658738e-05 2.541335e-05 -2.744498e-05 -6.332198e-05 -6.101121e-05 -8.997724e-05 7.209899e-06 8.344941e-06 1.196764e-06 -7.941688e-06 3.356789e-06 4.404758e-06 -1.143895e-05 -3.835012e-07 -1.322607e-06 4.235163e-06 8.301648e-06 9.749332e-06 8.615505e-04 -1.115478e-03 1.823259e-04 1.449629e-02 9.833740e-03 -1.008769e-02
<VARIANCE> 42
 3.165479e-03 2.974800e-03 1.424173e-03 2.775166e-03 1.535380e-03 1.405439e-03 2.176117e-03 6.293780e-03 7.179233e-03 3.921413e-03 4.253041e-03 3.135256e-03 7.430812e-05 5.974117e-05 5.577210e-05 5.306179e-05 5.023744e-05 3.941919e-05 2.235967e-05 7.374013e-05 2.708310e-05 4.065752e-05 3.430188e-05 2.183598e-05 2.587952e-05 1.978914e-05 2.089308e-05 1.759005e-05 1.847942e-05 1.395472e-05 5.842473e-06 2.601508e-05 6.489861e-06 1.211414e-05 7.873573e-06 5.457913e-06 2.212397e-05 5.767571e-05 1.185958e-04 2.540733e-03 1.484371e-03 1.964887e-03
<GCONST> -2.967237e+02
<STATE> 23
<MEAN> 42
 4.112794e-02 3.890557e-02 -5.946958e-03 -3.382526e-02 2.386802e-02 1.237777e-02 -2.517500e-02 4.593513e-02 5.081397e-02 4.397931e-02 4.933479e-02 4.693314e-02 5.899147e-05 1.690483e-04 1.099100e-04 -1.149406e-04 -2.549571e-05 1.393763e-04 2.556807e-04 5.090232e-04 5.514012e-04 4.232050e-04 3.046886e-04 2.021783e-04 5.269907e-05 3.635473e-05 -1.660341e-05 -4.450529e-05 3.449021e-05 1.027691e-05 -8.368923e-06 4.458738e-05 5.635065e-05 7.336681e-05 7.801097e-05 6.124281e-05 3.795581e-03 8.933316e-05 -4.367460e-03 4.421242e-02 2.078715e-02 -1.109040e-02
<VARIANCE> 42
 2.352368e-02 1.911041e-02 8.306413e-03 1.908772e-02 1.108926e-02 8.185823e-03 2.466520e-02 6.379798e-02 5.598317e-02 4.594775e-02 4.464092e-02 3.719594e-02 7.816427e-04 4.849199e-04 3.402269e-04 5.483535e-04 4.429484e-04 2.183123e-04 6.305873e-04 1.494162e-03 1.680546e-03 1.553656e-03 1.436257e-03 1.089609e-03 1.024344e-04 6.024698e-05 6.232841e-05 6.573056e-05 6.795746e-05 3.593915e-05 5.238687e-05 1.321235e-04 1.607189e-04 1.533068e-04 1.392422e-04 1.030133e-04 2.454912e-04 2.600994e-04 2.265589e-04 3.223307e-02 9.045026e-03 2.247770e-02
<GCONST> -2.032302e+02
<STATE> 24
<MEAN> 42
 5.308487e-02 4.586565e-02 -1.256997e-02 -5.114640e-02 3.213508e-02 1.178594e-02 -2.518500e-02 1.332110e-02 4.268513e-02 5.312055e-02 6.607860e-02 9.175747e-02 9.968515e-05 3.944118e-05 -5.932662e-05 -6.816306e-05 8.020466e-05 -8.143485e-06 -4.043537e-04 -8.550605e-04 -6.316095e-04 -4.705459e-04 -2.343104e-04 9.288178e-07 -8.024836e-05 -3.970096e-05 4.067879e-05 5.993540e-05 -6.046310e-05 9.038872e-07 -1.522450e-05 -9.896370e-05 -1.169402e-04 -1.165816e-04 -1.056034e-04 -8.224414e-05 2.578374e-03 8.009094e-04 3.553350e-03 6.224083e-02 2.836423e-02 7.181073e-03
<VARIANCE> 42
 2.434864e-02 2.267760e-02 2.054546e-02 1.838668e-02 1.691895e-02 1.569473e-02 2.716947e-02 3.877353e+00 1.218790e-01 8.606821e-01 8.507542e-02 8.770872e-02 9.442256e-04 5.967846e-04 7.418314e-04 5.853880e-04 6.981088e-04 4.347724e-04 5.982663e-04 2.908518e-01 1.940413e-03 1.286570e-01 2.720542e-03 2.292542e-03 1.260075e-04 6.807678e-05 1.273893e-04 6.524433e-05 1.101791e-04 6.636250e-05 6.718734e-05 1.109891e-01 1.444620e-04 4.778314e-02 3.002579e-04 2.431674e-04 3.425099e-04 3.193780e-04 2.938116e-04 1.045442e-01 1.911938e-02 4.086988e-01
<GCONST> -1.561194e+02
<TRANSP> 25
 0.000000e+00 1.000000e+00 0.000000e+00 0.000000e+00 0.000000e+00 0.000000e+00 0.000000e+00 0.000000e+00 0.000000e+00 0.000000e+00 0.000000e+00 0.000000e+00 0.000000e+00 0.000000e+00 0.000000e+00 0.000000e+00 0.000000e+00 0.000000e+00 0.000000e+00 0.000000e+00 0.000000e+00 0.000000e+00 0.000000e+00 0.000000e+00 0.000000e+00
 0.000000e+00 9.916171e-01 8.382844e-03 0.000000e+00 0.000000e+00 0.000000e+00 0.000000e+00 0.000000e+00 0.000000e+00 0.000000e+00 0.000000e+00 0.000000e+00 0.000000e+00 0.000000e+00 0.000000e+00 0.000000e+00 0.000000e+00 0.000000e+00 0.000000e+00 0.000000e+00 0.000000e+00 0.000000e+00 0.000000e+00 0.000000e+00 0.000000e+00
 0.000000e+00 0.000000e+00 9.848301e-01 1.516993e-02 0.000000e+00 0.000000e+00 0.000000e+00 0.000000e+00 0.000000e+00 0.000000e+00 0.000000e+00 0.000000e+00 0.000000e+00 0.000000e+00 0.000000e+00 0.000000e+00 0.000000e+00 0.000000e+00 0.000000e+00 0.000000e+00 0.000000e+00 0.000000e+00 0.000000e+00 0.000000e+00 0.000000e+00
 0.000000e+00 0.000000e+00 0.000000e+00 9.991123e-01 8.876905e-04 0.000000e+00 0.000000e+00 0.000000e+00 0.000000e+00 0.000000e+00 0.000000e+00 0.000000e+00 0.000000e+00 0.000000e+00 0.000000e+00 0.000000e+00 0.000000e+00 0.000000e+00 0.000000e+00 0.000000e+00 0.000000e+00 0.000000e+00 0.000000e+00 0.000000e+00 0.000000e+00
 0.000000e+00 0.000000e+00 0.000000e+00 0.000000e+00 9.946489e-01 5.351072e-03 0.000000e+00 0.000000e+00 0.000000e+00 0.000000e+00 0.000000e+00 0.000000e+00 0.000000e+00 0.000000e+00 0.000000e+00 0.000000e+00 0.000000e+00 0.000000e+00 0.000000e+00 0.000000e+00 0.000000e+00 0.000000e+00 0.000000e+00 0.000000e+00 0.000000e+00
 0.000000e+00 0.000000e+00 0.000000e+00 0.000000e+00 0.000000e+00 9.936099e-01 6.390111e-03 0.000000e+00 0.000000e+00 0.000000e+00 0.000000e+00 0.000000e+00 0.000000e+00 0.000000e+00 0.000000e+00 0.000000e+00 0.000000e+00 0.000000e+00 0.000000e+00 0.000000e+00 0.000000e+00 0.000000e+00 0.000000e+00 0.000000e+00 0.000000e+00
 0.000000e+00 0.000000e+00 0.000000e+00 0.000000e+00 0.000000e+00 0.000000e+00 9.943287e-01 5.671257e-03 0.000000e+00 0.000000e+00 0.000000e+00 0.000000e+00 0.000000e+00 0.000000e+00 0.000000e+00 0.000000e+00 0.000000e+00 0.000000e+00 0.000000e+00 0.000000e+00 0.000000e+00 0.000000e+00 0.000000e+00 0.000000e+00 0.000000e+00
 0.000000e+00 0.000000e+00 0.000000e+00 0.000000e+00 0.000000e+00 0.000000e+00 0.000000e+00 9.908463e-01 9.153694e-03 0.000000e+00 0.000000e+00 0.000000e+00 0.000000e+00 0.000000e+00 0.000000e+00 0.000000e+00 0.000000e+00 0.000000e+00 0.000000e+00 0.000000e+00 0.000000e+00 0.000000e+00 0.000000e+00 0.000000e+00 0.000000e+00
 0.000000e+00 0.000000e+00 0.000000e+00 0.000000e+00 0.000000e+00 0.000000e+00 0.000000e+00 0.000000e+00 9.957386e-01 4.261374e-03 0.000000e+00 0.000000e+00 0.000000e+00 0.000000e+00 0.000000e+00 0.000000e+00 0.000000e+00 0.000000e+00 0.000000e+00 0.000000e+00 0.000000e+00 0.000000e+00 0.000000e+00 0.000000e+00 0.000000e+00
 0.000000e+00 0.000000e+00 0.000000e+00 0.000000e+00 0.000000e+00 0.000000e+00 0.000000e+00 0.000000e+00 0.000000e+00 9.882028e-01 1.179722e-02 0.000000e+00 0.000000e+00 0.000000e+00 0.000000e+00 0.000000e+00 0.000000e+00 0.000000e+00 0.000000e+00 0.000000e+00 0.000000e+00 0.000000e+00 0.000000e+00 0.000000e+00 0.000000e+00
 0.000000e+00 0.000000e+00 0.000000e+00 0.000000e+00 0.000000e+00 0.000000e+00 0.000000e+00 0.000000e+00 0.000000e+00 0.000000e+00 7.644873e-01 2.355127e-01 0.000000e+00 0.000000e+00 0.000000e+00 0.000000e+00 0.000000e+00 0.000000e+00 0.000000e+00 0.000000e+00 0.000000e+00 0.000000e+00 0.000000e+00 0.000000e+00 0.000000e+00
 0.000000e+00 0.000000e+00 0.000000e+00 0.000000e+00 0.000000e+00 0.000000e+00 0.000000e+00 0.000000e+00 0.000000e+00 0.000000e+00 0.000000e+00 6.412512e-01 3.587488e-01 0.000000e+00 0.000000e+00 0.000000e+00 0.000000e+00 0.000000e+00 0.000000e+00 0.000000e+00 0.000000e+00 0.000000e+00 0.000000e+00 0.000000e+00 0.000000e+00
 0.000000e+00 0.000000e+00 0.000000e+00 0.000000e+00 0.000000e+00 0.000000e+00 0.000000e+00 0.000000e+00 0.000000e+00 0.000000e+00 0.000000e+00 0.000000e+00 9.925370e-01 7.462986e-03 0.000000e+00 0.000000e+00 0.000000e+00 0.000000e+00 0.000000e+00 0.000000e+00 0.000000e+00 0.000000e+00 0.000000e+00 0.000000e+00 0.000000e+00
 0.000000e+00 0.000000e+00 0.000000e+00 0.000000e+00 0.000000e+00 0.000000e+00 0.000000e+00 0.000000e+00 0.000000e+00 0.000000e+00 0.000000e+00 0.000000e+00 0.000000e+00 8.491350e-01 1.508650e-01 0.000000e+00 0.000000e+00 0.000000e+00 0.000000e+00 0.000000e+00 0.000000e+00 0.000000e+00 0.000000e+00 0.000000e+00 0.000000e+00
 0.000000e+00 0.000000e+00 0.000000e+00 0.000000e+00 0.000000e+00 0.000000e+00 0.000000e+00 0.000000e+00 0.000000e+00 0.000000e+00 0.000000e+00 0.000000e+00 0.000000e+00 0.000000e+00 9.097770e-01 9.022295e-02 0.000000e+00 0.000000e+00 0.000000e+00 0.000000e+00 0.000000e+00 0.000000e+00 0.000000e+00 0.000000e+00 0.000000e+00
 0.000000e+00 0.000000e+00 0.000000e+00 0.000000e+00 0.000000e+00 0.000000e+00 0.000000e+00 0.000000e+00 0.000000e+00 0.000000e+00 0.000000e+00 0.000000e+00 0.000000e+00 0.000000e+00 0.000000e+00 8.892423e-01 1.107577e-01 0.000000e+00 0.000000e+00 0.000000e+00 0.000000e+00 0.000000e+00 0.000000e+00 0.000000e+00 0.000000e+00
 0.000000e+00 0.000000e+00 0.000000e+00 0.000000e+00 0.000000e+00 0.000000e+00 0.000000e+00 0.000000e+00 0.000000e+00 0.000000e+00 0.000000e+00 0.000000e+00 0.000000e+00 0.000000e+00 0.000000e+00 0.000000e+00 9.972118e-01 2.788164e-03 0.000000e+00 0.000000e+00 0.000000e+00 0.000000e+00 0.000000e+00 0.000000e+00 0.000000e+00
 0.000000e+00 0.000000e+00 0.000000e+00 0.000000e+00 0.000000e+00 0.000000e+00 0.000000e+00 0.000000e+00 0.000000e+00 0.000000e+00 0.000000e+00 0.000000e+00 0.000000e+00 0.000000e+00 0.000000e+00 0.000000e+00 0.000000e+00 9.966484e-01 3.351566e-03 0.000000e+00 0.000000e+00 0.000000e+00 0.000000e+00 0.000000e+00 0.000000e+00
 0.000000e+00 0.000000e+00 0.000000e+00 0.000000e+00 0.000000e+00 0.000000e+00 0.000000e+00 0.000000e+00 0.000000e+00 0.000000e+00 0.000000e+00 0.000000e+00 0.000000e+00 0.000000e+00 0.000000e+00 0.000000e+00 0.000000e+00 0.000000e+00 9.946990e-01 5.301056e-03 0.000000e+00 0.000000e+00 0.000000e+00 0.000000e+00 0.000000e+00
 0.000000e+00 0.000000e+00 0.000000e+00 0.000000e+00 0.000000e+00 0.000000e+00 0.000000e+00 0.000000e+00 0.000000e+00 0.000000e+00 0.000000e+00 0.000000e+00 0.000000e+00 0.000000e+00 0.000000e+00 0.000000e+00 0.000000e+00 0.000000e+00 0.000000e+00 9.969503e-01 3.049752e-03 0.000000e+00 0.000000e+00 0.000000e+00 0.000000e+00
 0.000000e+00 0.000000e+00 0.000000e+00 0.000000e+00 0.000000e+00 0.000000e+00 0.000000e+00 0.000000e+00 0.000000e+00 0.000000e+00 0.000000e+00 0.000000e+00 0.000000e+00 0.000000e+00 0.000000e+00 0.000000e+00 0.000000e+00 0.000000e+00 0.000000e+00 0.000000e+00 9.936345e-01 6.365433e-03 0.000000e+00 0.000000e+00 0.000000e+00
 0.000000e+00 0.000000e+00 0.000000e+00 0.000000e+00 0.000000e+00 0.000000e+00 0.000000e+00 0.000000e+00 0.000000e+00 0.000000e+00 0.000000e+00 0.000000e+00 0.000000e+00 0.000000e+00 0.000000e+00 0.000000e+00 0.000000e+00 0.000000e+00 0.000000e+00 0.000000e+00 0.000000e+00 9.967912e-01 3.208837e-03 0.000000e+00 0.000000e+00
 0.000000e+00 0.000000e+00 0.000000e+00 0.000000e+00 0.000000e+00 0.000000e+00 0.000000e+00 0.000000e+00 0.000000e+00 0.000000e+00 0.000000e+00 0.000000e+00 0.000000e+00 0.000000e+00 0.000000e+00 0.000000e+00 0.000000e+00 0.000000e+00 0.000000e+00 0.000000e+00 0.000000e+00 0.000000e+00 9.957215e-01 4.278433e-03 0.000000e+00
 0.000000e+00 0.000000e+00 0.000000e+00 0.000000e+00 0.000000e+00 0.000000e+00 0.000000e+00 0.000000e+00 0.000000e+00 0.000000e+00 0.000000e+00 0.000000e+00 0.000000e+00 0.000000e+00 0.000000e+00 0.000000e+00 0.000000e+00 0.000000e+00 0.000000e+00 0.000000e+00 0.000000e+00 0.000000e+00 0.000000e+00 9.949003e-01 5.099610e-03
 0.000000e+00 0.000000e+00 0.000000e+00 0.000000e+00 0.000000e+00 0.000000e+00 0.000000e+00 0.000000e+00 0.000000e+00 0.000000e+00 0.000000e+00 0.000000e+00 0.000000e+00 0.000000e+00 0.000000e+00 0.000000e+00 0.000000e+00 0.000000e+00 0.000000e+00 0.000000e+00 0.000000e+00 0.000000e+00 0.000000e+00 0.000000e+00 0.000000e+00
<ENDHMM>
