~o
<STREAMINFO> 1 42
<VECSIZE> 42<NULLD><USER><DIAGC>
~h "CONTROL"
<BEGINHMM>
<NUMSTATES> 25
<STATE> 2
<NUMMIXES> 8
<MIXTURE> 1 4.442329e-02
<MEAN> 42
 8.933067e-02 1.244454e-01 2.386545e-02 -1.051271e-01 3.515785e-02 6.973500e-02 -1.474873e-02 5.139460e-02 1.109961e-01 1.489617e-01 1.493774e-01 1.116614e-01 -1.143291e-03 5.709098e-03 6.874660e-03 -2.298992e-03 -3.952685e-03 6.340163e-03 7.531150e-04 8.527087e-04 2.319277e-03 3.938940e-03 4.032700e-03 3.751072e-03 -5.570656e-04 2.217458e-03 2.780170e-03 -8.245535e-04 -1.638788e-03 2.526606e-03 1.697300e-03 1.429644e-03 1.499941e-03 1.981346e-03 1.963619e-03 1.798711e-03 3.661066e-03 8.782643e-03 3.515190e-03 1.167398e-01 8.472911e-02 -1.431063e-02
<VARIANCE> 42
 2.531352e-03 5.130758e-03 4.010113e-03 2.996036e-03 1.631827e-03 3.684012e-03 4.885060e-03 2.477353e-02 4.063481e-02 9.699990e-03 5.758663e-03 3.511318e-03 1.091669e-04 7.208526e-05 8.663355e-05 6.888368e-05 8.014846e-05 5.264381e-05 3.226485e-05 7.374013e-05 2.117411e-05 4.065752e-05 2.100093e-05 1.623303e-05 4.031809e-05 2.855406e-05 4.939363e-05 2.206416e-05 3.779999e-05 2.913269e-05 8.884075e-06 2.601508e-05 6.067662e-06 1.352595e-05 1.004624e-05 6.370495e-06 2.625948e-05 2.723233e-04 3.354280e-04 3.228954e-03 3.985622e-03 1.083589e-02
<GCONST> -2.777607e+02
<MIXTURE> 2 1.320955e-01
<MEAN> 42
 8.251360e-03 1.931263e-02 5.985177e-03 -1.321193e-02 -6.396339e-04 1.039506e-02 7.200481e-03 1.779220e-02 2.737560e-02 1.515054e-02 7.873449e-03 1.500523e-02 1.665352e-03 3.108835e-03 1.456896e-03 -2.385889e-03 1.204750e-04 2.250414e-03 1.362956e-03 1.563564e-03 1.901115e-03 1.840480e-03 1.872587e-03 1.886446e-03 6.954183e-04 1.312033e-03 6.305416e-04 -1.000239e-03 5.498600e-05 9.648855e-04 4.891694e-04 6.552924e-04 9.206649e-04 7.554767e-04 8.124108e-04 9.025630e-04 3.641256e-04 -1.773885e-03 1.252917e-03 1.017134e-02 1.313756e-02 -1.064835e-02
<VARIANCE> 42
 3.866896e-04 3.756694e-04 3.879593e-04 3.274890e-04 2.595668e-04 3.242641e-04 4.486335e-04 1.370589e-03 1.283559e-03 6.537745e-04 4.191562e-04 1.209397e-03 3.648365e-05 2.562077e-05 2.581632e-05 2.501893e-05 2.486890e-05 1.667531e-05 9.229620e-06 7.374013e-05 1.098843e-05 4.065752e-05 1.131955e-05 1.376505e-05 1.213451e-05 8.631987e-06 7.786593e-06 8.492877e-06 7.713729e-06 5.125495e-06 2.323543e-06 2.601508e-05 3.205889e-06 1.211414e-05 2.118624e-06 2.515190e-06 2.409671e-06 1.185693e-05 4.623097e-05 2.765478e-04 2.248052e-04 3.638419e-04
<GCONST> -3.448888e+02
<MIXTURE> 3 1.364810e-01
<MEAN> 42
 -4.721622e-03 -2.892547e-02 -2.956982e-02 1.806326e-02 1.350296e-02 -3.681508e-02 -1.523284e-03 3.312463e-03 -8.554509e-03 -1.840757e-02 -2.340825e-02 -2.061016e-02 -2.809452e-04 8.764447e-04 1.158201e-03 -3.081743e-04 -7.286209e-04 1.028334e-03 3.317635e-04 7.571568e-04 7.895448e-04 6.223783e-04 7.300129e-04 5.383613e-04 3.330781e-05 8.973801e-04 8.680536e-04 -4.715334e-04 -4.226519e-04 8.911244e-04 5.466852e-04 6.166066e-04 8.515240e-04 8.618903e-04 7.844106e-04 6.778503e-04 -7.325635e-04 1.894369e-03 -3.190957e-03 -1.531915e-02 -2.537215e-02 -3.981551e-03
<VARIANCE> 42
 3.814725e-04 4.431944e-04 6.007458e-04 2.868605e-04 4.148747e-04 4.689148e-04 1.277255e-03 1.370589e-03 1.141899e-03 7.007620e-04 4.742690e-04 8.623005e-04 2.258692e-05 1.502055e-05 2.428325e-05 1.277078e-05 1.975107e-05 1.377054e-05 8.049231e-06 7.374013e-05 9.872299e-06 4.065752e-05 1.131955e-05 8.494042e-06 8.557909e-06 6.391819e-06 9.153252e-06 5.163292e-06 7.333662e-06 5.578334e-06 2.365827e-06 2.601508e-05 2.831260e-06 1.211414e-05 2.648792e-06 2.550639e-06 5.470931e-06 1.327031e-05 5.559018e-05 2.991526e-04 3.139629e-04 5.858383e-04
<GCONST> -3.445206e+02
<MIXTURE> 4 1.737430e-01
<MEAN> 42
 6.160626e-02 7.028493e-02 4.439936e-03 -6.495619e-02 2.856464e-02 3.586637e-02 -3.407399e-02 -1.069814e-02 6.271754e-02 9.273400e-02 8.951894e-02 7.697327e-02 1.258697e-03 2.900803e-04 -9.769525e-04 -7.757627e-04 1.118448e-03 -3.460636e-04 -1.580736e-04 -2.211668e-04 -1.848443e-04 -1.305109e-05 4.004940e-05 2.497347e-04 4.373502e-04 -1.919112e-04 -6.297098e-04 -1.252192e-04 5.242024e-04 -4.108640e-04 3.379333e-05 8.228266e-05 2.052769e-05 -7.003560e-05 -5.690775e-05 -1.071379e-04 6.233602e-03 1.732370e-03 3.775937e-03 8.096101e-02 4.529596e-02 1.160967e-02
<VARIANCE> 42
 9.683060e-04 1.037073e-03 1.819446e-03 5.272905e-04 8.302060e-04 1.183664e-03 2.245859e-03 2.314049e-03 2.651707e-03 1.876412e-03 2.110981e-03 3.642853e-03 4.115577e-05 3.657447e-05 3.816119e-05 2.918812e-05 3.029659e-05 2.719322e-05 1.848740e-05 7.374013e-05 1.430879e-05 4.065752e-05 1.403599e-05 1.547008e-05 1.237993e-05 1.234369e-05 1.480808e-05 8.658855e-06 1.035612e-05 1.054764e-05 3.168433e-06 2.601508e-05 3.494637e-06 1.211414e-05 3.190163e-06 2.942517e-06 1.297505e-05 4.328537e-05 1.101867e-04 9.023070e-04 9.824645e-04 8.129765e-04
<GCONST> -3.185172e+02
<MIXTURE> 5 2.739362e-01
<MEAN> 42
 -2.136586e-03 4.962264e-03 5.773238e-04 -5.404887e-04 -3.250599e-03 1.392373e-03 -2.177804e-03 3.077129e-03 9.268634e-04 5.603416e-03 3.115277e-04 4.017482e-03 -4.103236e-04 -7.418469e-04 -3.352104e-04 5.713895e-04 -3.746992e-05 -5.304350e-04 -2.458612e-04 -5.089078e-04 -5.913756e-04 -6.063496e-04 -5.847513e-04 -5.952709e-04 -1.501093e-04 -4.001184e-04 -2.576688e-04 2.732942e-04 5.531494e-05 -3.289191e-04 -2.130634e-04 -2.139701e-04 -2.877620e-04 -2.465809e-04 -2.699215e-04 -2.617715e-04 1.940646e-04 -4.475923e-04 -1.612738e-03 2.025248e-03 4.688017e-03 -1.260494e-04
<VARIANCE> 42
 2.800310e-04 2.019507e-04 1.901820e-04 1.898104e-04 1.603109e-04 1.436091e-04 3.546543e-04 1.370589e-03 9.218650e-04 6.537745e-04 4.191562e-04 3.380077e-04 1.502885e-05 1.167733e-05 9.537058e-06 1.103645e-05 9.447928e-06 6.790980e-06 3.399867e-06 7.374013e-05 9.872299e-06 4.065752e-05 1.131955e-05 8.494042e-06 6.977525e-06 5.314184e-06 4.109815e-06 5.140709e-06 4.214545e-06 2.934784e-06 1.241983e-06 2.601508e-05 1.919075e-06 1.211414e-05 1.296950e-06 1.381054e-06 2.131001e-06 3.346305e-06 1.969553e-05 2.765478e-04 1.367416e-04 2.838487e-04
<GCONST> -3.657274e+02
<MIXTURE> 6 9.517422e-02
<MEAN> 42
 -1.199358e-02 -2.980237e-02 -2.312637e-02 2.183944e-02 5.650182e-03 -3.179259e-02 8.185355e-03 3.550628e-03 -1.191009e-02 -3.152496e-02 -3.409920e-02 -3.551056e-02 -1.304594e-03 -3.109493e-03 -1.803112e-03 2.224224e-03 2.363049e-04 -2.452709e-03 -6.524342e-04 -1.247780e-03 -1.809495e-03 -2.062619e-03 -1.902145e-03 -2.000394e-03 2.598868e-04 -7.669058e-04 -1.021582e-03 2.565887e-04 6.356316e-04 -9.113182e-04 -7.103337e-04 -6.590324e-04 -8.737571e-04 -7.839146e-04 -7.194909e-04 -6.625694e-04 -1.799037e-03 1.272834e-03 -1.221100e-03 -2.701765e-02 -2.445964e-02 -7.073464e-03
<VARIANCE> 42
 2.964395e-04 4.120406e-04 4.264681e-04 2.454062e-04 2.713650e-04 3.307038e-04 8.819909e-04 1.370589e-03 6.797040e-04 6.537745e-04 4.191562e-04 8.719756e-04 2.594829e-05 1.916801e-05 1.956075e-05 1.781608e-05 1.830125e-05 1.338038e-05 7.344928e-06 7.374013e-05 9.872299e-06 4.065752e-05 1.131955e-05 8.494042e-06 1.001077e-05 5.416183e-06 9.230938e-06 5.450420e-06 8.411427e-06 4.949133e-06 2.297631e-06 2.601508e-05 3.405598e-06 1.211414e-05 2.618081e-06 2.489899e-06 4.448856e-06 1.096744e-05 4.670013e-05 2.908951e-04 2.971310e-04 4.755883e-04
<GCONST> -3.475587e+02
<MIXTURE> 7 8.104981e-02
<MEAN> 42
 4.744497e-02 4.697554e-02 -8.676075e-03 -4.782588e-02 2.910786e-02 1.384220e-02 -1.205184e-02 1.640361e-02 3.909821e-02 5.610991e-02 6.380531e-02 6.228685e-02 -1.343746e-04 -4.868081e-03 -4.729962e-03 2.524999e-03 2.277113e-03 -4.790638e-03 -1.684493e-03 -4.182990e-03 -4.931408e-03 -4.682954e-03 -5.117011e-03 -4.542384e-03 1.068492e-05 -1.947331e-03 -1.968714e-03 9.870679e-04 9.706854e-04 -1.954350e-03 -1.358344e-03 -1.672853e-03 -2.008385e-03 -1.943487e-03 -1.866982e-03 -1.730856e-03 2.971140e-03 1.872009e-03 1.323904e-03 5.285525e-02 3.012572e-02 5.932513e-04
<VARIANCE> 42
 1.800346e-03 4.659065e-03 3.413336e-03 2.280699e-03 1.361130e-03 3.737819e-03 2.965822e-03 3.656494e-03 3.094352e-03 3.868404e-03 4.892099e-03 6.173470e-03 7.945458e-05 5.401151e-05 5.770091e-05 5.229247e-05 5.497363e-05 3.609949e-05 3.187456e-05 7.374013e-05 3.300712e-05 4.065752e-05 3.008288e-05 2.840983e-05 3.436521e-05 2.045339e-05 2.340419e-05 2.157206e-05 2.370583e-05 1.334382e-05 7.214809e-06 2.601508e-05 6.914304e-06 1.211414e-05 7.541775e-06 8.630531e-06 1.707822e-05 6.046275e-05 1.918989e-04 2.217266e-03 3.457035e-03 1.594496e-03
<GCONST> -2.926051e+02
<MIXTURE> 8 6.308896e-02
<MEAN> 42
 1.004790e-01 1.186450e-01 7.024569e-03 -1.103213e-01 4.878479e-02 5.560878e-02 -5.821766e-02 6.680970e-02 7.269001e-02 1.064292e-01 1.488220e-01 1.378601e-01 -3.577990e-03 -1.061828e-03 2.513914e-03 2.326564e-03 -3.075693e-03 6.913713e-04 3.570896e-05 -2.385726e-03 -2.693196e-03 -1.158794e-03 -6.947343e-04 -7.426622e-04 -2.133705e-03 -6.688614e-04 1.469892e-03 1.394142e-03 -1.808732e-03 3.969992e-04 3.389739e-04 4.873573e-05 9.743933e-05 -4.323077e-05 -1.567785e-04 -1.264209e-04 6.746992e-03 -6.422696e-03 -6.640324e-03 1.153243e-01 8.051407e-02 5.420554e-03
<VARIANCE> 42
 2.742333e-03 1.134057e-02 6.139994e-03 5.291652e-03 1.444522e-03 7.804746e-03 4.220031e-03 1.208624e-02 1.688040e-02 7.234659e-03 1.214941e-02 1.051570e-02 7.611203e-05 6.119792e-05 4.437529e-05 5.758003e-05 4.438716e-05 3.472078e-05 3.546074e-05 7.374013e-05 3.955561e-05 4.111425e-05 5.435107e-05 4.626398e-05 2.356175e-05 1.574987e-05 2.040537e-05 1.480069e-05 1.784341e-05 1.269091e-05 3.766357e-06 2.601508e-05 3.803421e-06 1.211414e-05 4.430208e-06 3.950436e-06 4.405247e-05 3.170502e-04 5.277675e-04 4.599439e-03 8.714926e-03 4.753381e-03
<GCONST> -2.804015e+02
<STATE> 3
<NUMMIXES> 8
<MIXTURE> 1 2.313264e-02
<MEAN> 42
 1.584420e-01 1.411498e-01 -1.535358e-02 -1.482147e-01 8.765503e-02 6.049221e-02 -2.084583e-01 6.149408e-03 1.041658e-01 1.377643e-01 1.591827e-01 1.234800e-01 3.055629e-03 6.288595e-03 3.236742e-03 -4.672390e-03 -1.929467e-04 4.842028e-03 2.003220e-03 3.908293e-03 4.387343e-03 5.277156e-03 9.727523e-03 4.986633e-03 -1.532793e-03 5.158547e-04 2.046723e-03 5.076267e-04 -1.843907e-03 1.343756e-03 2.204363e-03 2.127611e-03 1.611002e-03 1.262139e-03 1.293500e-03 1.637714e-03 1.620581e-02 3.917323e-03 4.331342e-03 1.652367e-01 7.561582e-02 5.150063e-02
<VARIANCE> 42
 8.970664e-03 2.626545e-03 2.779635e-03 5.148391e-03 5.036894e-03 4.095231e-04 2.391868e-02 1.370589e-03 6.099875e-03 9.342443e-03 2.435550e-02 6.431829e-03 1.386959e-04 1.026634e-04 7.507424e-05 1.019223e-04 8.310973e-05 5.456744e-05 6.534746e-05 7.374013e-05 9.531862e-05 8.028543e-05 3.745126e-04 5.956614e-05 3.375420e-05 1.372500e-05 3.810256e-05 1.420384e-05 3.368144e-05 1.811434e-05 1.521699e-05 2.601508e-05 1.552698e-05 1.903582e-05 5.908143e-05 1.591299e-05 1.281916e-04 1.035675e-04 1.951640e-04 1.298523e-02 5.028042e-04 1.685480e-03
<GCONST> -2.714234e+02
<MIXTURE> 2 1.549136e-01
<MEAN> 42
 3.726379e-03 1.719194e-02 1.590182e-02 -5.986488e-03 -1.566201e-03 1.386517e-02 4.551252e-03 -5.380391e-03 7.945253e-03 8.595767e-03 2.001072e-02 1.308796e-02 9.952271e-04 5.174468e-03 4.182841e-03 -3.084205e-03 -1.573649e-03 4.723653e-03 4.053057e-03 3.983345e-03 4.364177e-03 4.340704e-03 4.631865e-03 4.147599e-03 1.886616e-03 1.885194e-03 -6.982562e-06 -1.887429e-03 9.526515e-04 9.276218e-04 1.545332e-03 1.893263e-03 1.733024e-03 1.482717e-03 1.631022e-03 1.503817e-03 4.411703e-04 1.102182e-03 1.500798e-03 1.030129e-02 1.518236e-02 2.479283e-03
<VARIANCE> 42
 6.712308e-04 6.558849e-04 8.242606e-04 4.285469e-04 4.870114e-04 5.241891e-04 8.920318e-04 1.370589e-03 5.751270e-04 6.537745e-04 1.873348e-03 4.251257e-04 1.729170e-04 1.003669e-04 8.563988e-05 1.152562e-04 1.039002e-04 5.078081e-05 1.953387e-05 7.374013e-05 2.346614e-05 4.065752e-05 2.562398e-05 2.134175e-05 6.364759e-05 4.191478e-05 3.854462e-05 4.314455e-05 4.054813e-05 2.506041e-05 7.806366e-06 2.601508e-05 8.660968e-06 1.211414e-05 1.072090e-05 9.724703e-06 2.176555e-06 1.102169e-05 1.068095e-04 2.765478e-04 4.324774e-04 2.838487e-04
<GCONST> -3.143994e+02
<MIXTURE> 3 1.733197e-01
<MEAN> 42
 -2.330640e-02 -3.838449e-02 -1.382539e-02 3.281677e-02 -1.704178e-03 -2.921495e-02 -5.986123e-03 -2.390892e-02 -2.204487e-02 -2.939912e-02 -2.649888e-02 -2.815947e-02 -6.319378e-04 1.026128e-03 1.672442e-03 -1.891709e-04 -1.169755e-03 1.336323e-03 9.016829e-04 1.485904e-03 2.138262e-03 1.891449e-03 1.387011e-03 6.380724e-04 1.436548e-03 2.401668e-03 9.654110e-04 -1.913771e-03 2.380146e-04 1.706818e-03 1.160552e-03 2.246173e-03 2.259418e-03 1.849802e-03 1.941103e-03 1.687338e-03 -1.330800e-03 4.602219e-04 3.386708e-03 -2.172994e-02 -2.809798e-02 7.131146e-03
<VARIANCE> 42
 9.916889e-04 7.015762e-04 8.418409e-04 5.235205e-04 6.699637e-04 4.887993e-04 9.640739e-04 1.370589e-03 9.567392e-04 1.145517e-03 9.840203e-04 1.133486e-03 1.097995e-04 6.484770e-05 1.026450e-04 6.179277e-05 8.965413e-05 5.717678e-05 4.430795e-05 7.374013e-05 5.243094e-05 4.065752e-05 3.345053e-05 2.803675e-05 3.896872e-05 3.007802e-05 3.385112e-05 2.608995e-05 2.872875e-05 2.241128e-05 1.366325e-05 2.601508e-05 1.505761e-05 1.211414e-05 1.483136e-05 1.161116e-05 2.851306e-06 1.903708e-05 1.141410e-04 4.368252e-04 4.546314e-04 3.684833e-04
<GCONST> -3.098327e+02
<MIXTURE> 4 1.421697e-01
<MEAN> 42
 4.707344e-02 1.098636e-01 5.903716e-02 -7.924770e-02 -1.013670e-04 7.619731e-02 -2.555855e-02 -9.040688e-03 -1.046312e-02 9.468908e-03 4.105771e-02 1.451903e-02 8.630931e-04 9.865585e-04 1.094559e-04 -9.163661e-04 3.740447e-04 5.519324e-04 2.508413e-04 5.185147e-04 6.941212e-04 1.147191e-03 1.239752e-03 1.286695e-03 -1.615139e-03 -1.279903e-03 3.290532e-04 1.448116e-03 -9.728217e-04 -4.780872e-04 3.549415e-04 3.859651e-04 2.645446e-04 2.259231e-04 1.665821e-04 2.228660e-04 4.451718e-03 2.891365e-03 -6.381739e-03 2.485019e-02 8.875941e-02 2.670084e-02
<VARIANCE> 42
 1.758852e-03 2.253841e-03 2.842912e-03 1.119336e-03 1.658302e-03 2.109246e-03 2.176897e-03 1.370589e-03 3.352093e-03 1.615667e-03 9.113425e-03 1.704831e-03 8.948983e-05 9.258943e-05 8.995589e-05 6.872955e-05 6.714836e-05 7.086523e-05 5.422280e-05 7.374013e-05 2.207042e-05 4.065752e-05 5.304559e-05 2.211368e-05 3.490019e-05 3.123819e-05 3.412281e-05 2.459678e-05 2.725551e-05 2.460474e-05 9.628456e-06 2.601508e-05 6.041826e-06 1.211414e-05 1.737663e-05 6.302499e-06 7.549771e-06 8.757864e-05 3.049008e-04 1.436937e-03 1.754104e-03 7.135250e-04
<GCONST> -2.942032e+02
<MIXTURE> 5 2.318910e-01
<MEAN> 42
 3.328548e-03 3.239905e-03 3.763954e-03 -8.735631e-05 1.119513e-03 2.958303e-04 4.425017e-04 -8.260190e-03 -2.141462e-03 -1.794712e-03 1.685666e-03 5.487902e-03 -9.467141e-04 -1.476241e-03 -5.389442e-04 1.206725e-03 -1.905662e-04 -9.825387e-04 -2.473286e-04 -7.384419e-04 -7.135666e-04 -1.115011e-03 -9.441125e-04 -1.109909e-03 -4.355024e-04 -6.156770e-04 -1.810836e-04 5.235617e-04 -1.300222e-04 -3.933585e-04 -2.335308e-04 -1.642647e-04 -2.920420e-04 -3.704809e-04 -4.695259e-04 -3.967531e-04 7.514805e-06 6.457423e-04 -5.286020e-04 1.813668e-03 2.899404e-03 4.188296e-03
<VARIANCE> 42
 2.892353e-04 2.824517e-04 2.816055e-04 1.733451e-04 1.838326e-04 2.257686e-04 8.720803e-04 1.370589e-03 4.825017e-04 6.537745e-04 6.769239e-03 3.380077e-04 4.619042e-05 3.859656e-05 4.214915e-05 3.172220e-05 3.471867e-05 2.901284e-05 9.546693e-06 7.374013e-05 1.286836e-05 4.065752e-05 1.664875e-04 1.137410e-05 2.024431e-05 1.608777e-05 1.786078e-05 1.367957e-05 1.514506e-05 1.207668e-05 3.393756e-06 2.601508e-05 4.745295e-06 1.211414e-05 5.013133e-05 4.267274e-06 2.131001e-06 6.358253e-05 2.206537e-05 2.832399e-04 1.817870e-04 2.838487e-04
<GCONST> -3.321679e+02
<MIXTURE> 6 1.151392e-01
<MEAN> 42
 -2.532234e-02 -4.405108e-02 -1.870792e-02 3.602157e-02 -7.709205e-04 -3.535436e-02 4.090657e-03 -2.004795e-02 -2.458703e-02 -3.504902e-02 -3.142036e-02 -2.970406e-02 -1.944377e-03 -6.152414e-03 -4.209083e-03 4.060158e-03 1.094453e-03 -5.258520e-03 -5.405472e-04 -2.785688e-03 -4.549800e-03 -5.961743e-03 -6.338132e-03 -5.685430e-03 -3.116745e-04 -3.985709e-04 -7.876939e-05 3.564269e-04 -1.193298e-04 -2.421611e-04 -1.300540e-03 -2.367618e-03 -2.094274e-03 -1.808953e-03 -1.999807e-03 -1.834637e-03 -1.695000e-03 1.420153e-03 1.086353e-03 -2.709778e-02 -3.204783e-02 3.548170e-03
<VARIANCE> 42
 8.810885e-04 7.642630e-04 8.452968e-04 4.848760e-04 5.649471e-04 6.118389e-04 1.491321e-03 1.370589e-03 1.123395e-03 1.074785e-03 8.306944e-04 1.202642e-03 1.284208e-04 8.557236e-05 1.262123e-04 7.555997e-05 1.053754e-04 7.397818e-05 4.898448e-05 7.374013e-05 2.976162e-05 4.065752e-05 2.789481e-05 2.700383e-05 4.343376e-05 2.986661e-05 4.950437e-05 2.433896e-05 3.862744e-05 2.887411e-05 1.621287e-05 2.601508e-05 1.244311e-05 1.211414e-05 1.314232e-05 1.101410e-05 3.388232e-06 2.684965e-05 9.937464e-05 5.067080e-04 5.098884e-04 3.286193e-04
<GCONST> -3.075905e+02
<MIXTURE> 7 1.278624e-01
<MEAN> 42
 2.123287e-02 5.505417e-02 2.863904e-02 -3.813575e-02 4.449812e-03 3.377526e-02 -1.544201e-02 -3.487941e-03 -3.430599e-03 -3.165160e-04 1.639494e-02 8.104908e-03 -2.885042e-03 -7.323618e-03 -4.437539e-03 5.117198e-03 7.782269e-04 -5.959820e-03 -2.437261e-03 -3.388328e-03 -4.604562e-03 -4.949179e-03 -4.813795e-03 -4.679746e-03 -1.322690e-03 -2.884265e-03 -1.551364e-03 2.110068e-03 1.201819e-04 -2.252445e-03 -2.135585e-03 -2.673703e-03 -2.527253e-03 -2.567586e-03 -2.795095e-03 -2.726423e-03 1.784576e-03 1.569804e-03 -4.821188e-03 1.067500e-02 4.463113e-02 1.334105e-02
<VARIANCE> 42
 2.050022e-03 1.406998e-03 2.422829e-03 1.001564e-03 1.468568e-03 1.654324e-03 1.284299e-03 1.459642e-03 2.576260e-03 1.644077e-03 2.129254e-03 1.791513e-03 1.805908e-04 8.882252e-05 1.033422e-04 1.089467e-04 1.211553e-04 5.140271e-05 4.980563e-05 7.374013e-05 3.429846e-05 4.065752e-05 3.567071e-05 3.509391e-05 6.589127e-05 4.270368e-05 5.341294e-05 4.100193e-05 4.970609e-05 3.219808e-05 1.132693e-05 2.601508e-05 1.188969e-05 1.211414e-05 1.042852e-05 1.051911e-05 7.516151e-06 1.466138e-05 1.961843e-04 8.689904e-04 1.022552e-03 5.060037e-04
<GCONST> -2.953226e+02
<MIXTURE> 8 3.156770e-02
<MEAN> 42
 5.171830e-02 4.335321e-02 -9.588580e-03 -4.863760e-02 3.391020e-02 1.007907e-02 -5.830047e-02 1.704660e-03 1.046280e-02 1.573979e-02 1.908173e-02 3.098562e-02 1.944063e-03 5.878786e-03 3.945139e-03 -3.922608e-03 -9.818163e-04 4.923530e-03 2.661951e-03 2.055994e-03 3.395506e-03 2.752149e-03 -2.349013e-03 2.114454e-03 5.801456e-06 1.899212e-03 1.894381e-03 -9.666338e-04 -9.511068e-04 1.922501e-03 1.259583e-03 1.678824e-03 2.551992e-03 2.832593e-03 3.517656e-03 2.191551e-03 3.757655e-03 -4.674906e-04 -3.670477e-03 3.302041e-02 2.417305e-02 1.921265e-02
<VARIANCE> 42
 5.173589e-03 2.450239e-03 2.702979e-03 2.865291e-03 2.824435e-03 1.435183e-03 1.317291e-02 2.454612e-03 4.233019e-03 5.589607e-03 4.820744e-03 6.129039e-03 1.967391e-04 1.185571e-04 1.588515e-04 1.180431e-04 1.504694e-04 9.072632e-05 1.053994e-04 1.132639e-04 1.269483e-04 1.411127e-04 3.367241e-04 8.355454e-05 4.057278e-05 2.256645e-05 3.978446e-05 2.164475e-05 3.448769e-05 2.138400e-05 1.593792e-05 2.601508e-05 1.695259e-05 1.866322e-05 3.858592e-05 1.454478e-05 4.579599e-05 4.489650e-05 1.843730e-04 4.490736e-03 1.207262e-03 1.715177e-03
<GCONST> -2.712176e+02
<STATE> 4
<NUMMIXES> 8
<MIXTURE> 1 1.463203e-01
<MEAN> 42
 4.916116e-02 5.380717e-02 1.562742e-03 -5.121792e-02 2.624010e-02 2.182134e-02 -4.866896e-03 7.671619e-02 6.743690e-02 5.473645e-02 6.188865e-02 4.571888e-02 2.592434e-03 4.660950e-03 2.065448e-03 -3.630540e-03 2.705838e-04 3.375026e-03 8.153939e-04 2.495918e-03 3.086851e-03 3.429137e-03 3.831293e-03 3.246451e-03 3.386369e-04 1.408376e-03 1.069468e-03 -8.752299e-04 -3.659450e-04 1.243070e-03 7.662362e-04 8.927620e-04 9.928304e-04 1.026725e-03 1.116362e-03 9.851173e-04 2.934941e-03 -4.621141e-03 5.430580e-04 4.682346e-02 3.121168e-02 -2.779397e-02
<VARIANCE> 42
 2.964474e-03 2.759556e-03 2.046854e-03 2.542642e-03 1.871300e-03 1.459190e-03 3.214342e-03 1.232559e-02 9.883764e-03 4.934228e-03 4.244136e-03 3.759909e-03 7.361983e-05 5.383994e-05 5.552012e-05 4.986598e-05 5.147574e-05 3.648933e-05 3.069727e-05 7.374013e-05 2.982910e-05 4.065752e-05 3.175628e-05 2.346476e-05 2.628630e-05 1.983134e-05 2.087531e-05 1.784215e-05 1.877576e-05 1.386504e-05 6.407361e-06 2.601508e-05 5.808912e-06 1.211414e-05 7.319681e-06 5.455753e-06 2.638082e-05 1.221077e-04 2.281553e-04 2.083525e-03 1.754861e-03 3.862989e-03
<GCONST> -2.922131e+02
<MIXTURE> 2 7.524363e-02
<MEAN> 42
 1.541862e-01 1.914131e-01 3.348226e-02 -1.720228e-01 6.089135e-02 1.107783e-01 -3.458824e-02 2.308135e-01 2.675716e-01 2.602764e-01 2.606720e-01 2.391555e-01 2.701233e-03 4.004086e-03 1.296557e-03 -3.353566e-03 7.047546e-04 2.668605e-03 2.283172e-03 6.127882e-03 7.944340e-03 7.590922e-03 6.211973e-03 4.447002e-03 9.428864e-04 7.873162e-04 -1.557790e-04 -8.628228e-04 5.504032e-04 3.208485e-04 -2.945586e-04 -3.771123e-05 3.857078e-04 9.282075e-04 1.088804e-03 1.055893e-03 1.067875e-02 -4.992821e-03 -2.542373e-03 2.124721e-01 1.165044e-01 -8.276960e-02
<VARIANCE> 42
 1.662083e-02 2.420738e-02 1.171321e-02 1.710524e-02 7.713647e-03 1.431290e-02 2.146265e-02 6.687765e-02 7.512426e-02 5.720458e-02 5.071188e-02 5.095169e-02 1.840466e-04 1.834948e-04 1.568312e-04 1.446141e-04 1.255805e-04 1.247244e-04 1.947402e-04 5.254514e-04 6.131834e-04 4.566092e-04 3.550362e-04 2.551060e-04 3.935742e-05 2.966349e-05 2.795368e-05 2.753581e-05 2.647208e-05 1.910423e-05 1.693966e-05 2.601508e-05 2.211866e-05 2.750126e-05 3.148382e-05 2.562426e-05 2.599020e-04 6.133281e-04 5.240299e-04 3.013546e-02 1.317442e-02 2.631192e-02
<GCONST> -2.277214e+02
<MIXTURE> 3 2.693585e-01
<MEAN> 42
 5.298325e-03 8.043599e-03 1.268048e-03 -4.964797e-03 1.264452e-03 2.297813e-03 1.441648e-03 8.618116e-03 8.968832e-03 7.129003e-03 7.404579e-03 3.227050e-03 5.552336e-04 1.099540e-03 5.422976e-04 -8.284923e-04 8.608094e-06 8.284904e-04 5.107523e-04 4.782894e-04 5.302712e-04 5.019228e-04 5.289756e-04 4.673823e-04 1.571955e-04 4.142852e-04 2.575611e-04 -2.862546e-04 -4.813857e-05 3.386090e-04 2.531954e-04 2.727766e-04 3.109044e-04 2.945009e-04 3.063711e-04 2.830036e-04 3.975808e-04 -6.278127e-04 4.552007e-04 4.997140e-03 5.201329e-03 -3.964426e-03
<VARIANCE> 42
 2.893954e-04 3.286882e-04 2.488619e-04 2.428597e-04 1.804670e-04 2.203924e-04 3.869049e-04 1.370589e-03 9.576213e-04 6.537745e-04 4.422111e-04 5.207203e-04 2.326700e-05 1.857540e-05 1.825390e-05 1.637684e-05 1.630465e-05 1.282082e-05 7.887361e-06 7.374013e-05 9.872299e-06 4.065752e-05 1.131955e-05 8.494042e-06 9.654297e-06 7.718102e-06 7.329673e-06 6.856798e-06 6.645409e-06 5.203014e-06 2.338234e-06 2.601508e-05 2.119344e-06 1.211414e-05 2.108110e-06 2.044245e-06 2.131001e-06 8.259079e-06 2.893314e-05 2.765478e-04 2.240292e-04 2.838487e-04
<GCONST> -3.535826e+02
<MIXTURE> 4 3.264935e-02
<MEAN> 42
 3.254408e-01 4.351525e-01 1.057644e-01 -3.803360e-01 1.119128e-01 2.664621e-01 -2.070544e-01 3.194824e-03 2.908699e-01 5.694406e-01 6.154130e-01 5.386303e-01 4.619399e-02 4.556131e-02 -6.437846e-04 -4.589459e-02 2.350996e-02 2.253467e-02 -5.085650e-02 -3.643516e-02 1.957055e-03 5.325681e-02 7.532556e-02 7.446638e-02 -1.521045e-03 -5.485797e-03 -3.960607e-03 3.499185e-03 1.213213e-03 -4.731599e-03 -2.174340e-03 -8.841148e-03 -1.163508e-02 -9.952805e-03 -6.468793e-03 -3.654896e-03 4.178834e-02 -4.356897e-03 8.040273e-03 5.003991e-01 3.079691e-01 8.256154e-02
<VARIANCE> 42
 1.317956e-01 2.849379e-01 1.790432e-01 1.625409e-01 8.317839e-02 2.013266e-01 1.905085e-01 3.480703e-01 4.901463e-01 3.747599e-01 3.856338e-01 3.174699e-01 4.018350e-03 7.525167e-03 5.499217e-03 4.398574e-03 2.886559e-03 5.513793e-03 5.790952e-03 1.313205e-02 1.530340e-02 8.657600e-03 8.444659e-03 7.265456e-03 4.368856e-04 9.899164e-04 5.676787e-04 5.716911e-04 2.556282e-04 6.699716e-04 7.118678e-04 1.268021e-03 1.161430e-03 1.072032e-03 1.315022e-03 1.114462e-03 1.848101e-03 1.305964e-03 1.326527e-03 2.444887e-01 1.996401e-01 2.074258e-01
<GCONST> -1.106967e+02
<MIXTURE> 5 1.532351e-01
<MEAN> 42
 -7.759633e-03 -1.101547e-02 -2.726179e-03 1.224860e-02 -2.853322e-03 -1.104464e-02 2.923072e-03 -1.103389e-03 -6.414979e-03 -1.289183e-02 -1.282927e-02 -1.315938e-02 -1.658458e-03 -3.371492e-03 -1.707365e-03 2.516091e-03 1.838744e-05 -2.557371e-03 -9.113009e-04 -1.204279e-03 -1.600510e-03 -1.825567e-03 -2.015928e-03 -1.924124e-03 -2.595495e-04 -1.251153e-03 -9.926354e-04 7.547120e-04 3.630471e-04 -1.128362e-03 -6.854401e-04 -7.085384e-04 -8.925307e-04 -9.216131e-04 -9.441464e-04 -8.776287e-04 -8.916323e-04 3.145952e-04 6.902323e-05 -1.090121e-02 -8.015735e-03 -1.358175e-03
<VARIANCE> 42
 4.621171e-04 5.451727e-04 4.184559e-04 3.649203e-04 2.808772e-04 3.754254e-04 5.625373e-04 1.370589e-03 8.756730e-04 6.537745e-04 5.375178e-04 6.359998e-04 5.220734e-05 3.827455e-05 4.179022e-05 3.480752e-05 3.766154e-05 2.717844e-05 1.677631e-05 7.374013e-05 1.515096e-05 4.065752e-05 1.376210e-05 1.237706e-05 2.292969e-05 1.758865e-05 1.808505e-05 1.572746e-05 1.621337e-05 1.220279e-05 5.454272e-06 2.601508e-05 5.985416e-06 1.211414e-05 5.879287e-06 4.937643e-06 2.417854e-06 8.194468e-06 3.673387e-05 2.772684e-04 3.485873e-04 2.838487e-04
<GCONST> -3.338089e+02
<MIXTURE> 6 8.283122e-02
<MEAN> 42
 1.326408e-04 1.363955e-02 7.176645e-03 -7.744743e-03 1.396619e-03 3.629363e-03 -6.566314e-03 8.685613e-03 6.187670e-04 -7.034523e-03 1.270073e-02 2.685793e-03 -2.072335e-03 -2.612344e-03 -5.369390e-04 2.346669e-03 -7.733023e-04 -1.597674e-03 6.311943e-03 9.785192e-03 8.027125e-03 3.395692e-03 7.948079e-04 -8.090789e-04 -7.602999e-04 -1.403394e-03 -6.433291e-04 1.084112e-03 -6.368336e-05 -1.028201e-03 -2.910185e-04 -9.382158e-04 -9.914879e-04 -1.003112e-03 -1.104090e-03 -8.568387e-04 6.114168e-05 1.211991e-03 -2.512676e-03 2.378115e-03 1.226772e-02 1.484940e-03
<VARIANCE> 42
 6.021917e-03 8.047707e-03 4.573883e-03 5.960625e-03 3.292855e-03 4.286438e-03 6.431921e-03 1.311145e-02 1.526327e-02 1.045807e-02 1.064652e-02 7.708082e-03 2.754806e-04 2.347995e-04 2.854204e-04 1.839418e-04 2.229553e-04 1.920077e-04 2.904509e-04 5.472174e-04 4.143372e-04 2.414738e-04 2.462858e-04 1.458430e-04 8.645898e-05 6.791289e-05 7.713595e-05 5.797646e-05 6.511505e-05 5.113048e-05 3.723733e-05 6.203917e-05 5.658865e-05 4.296931e-05 5.574233e-05 3.386536e-05 3.980416e-05 1.245572e-04 2.452196e-04 5.567537e-03 4.756408e-03 5.056775e-03
<GCONST> -2.419200e+02
<MIXTURE> 7 2.117673e-01
<MEAN> 42
 -9.636101e-04 -2.433232e-03 -5.692069e-03 1.419022e-03 5.753790e-03 -1.068516e-02 2.200495e-03 1.246574e-02 -3.836595e-03 -1.143065e-02 -2.005077e-04 -1.206110e-02 -5.615694e-04 -1.535700e-03 -9.744638e-04 1.049084e-03 2.071564e-04 -1.253665e-03 -2.746239e-04 -3.914562e-04 -7.018877e-04 -1.001586e-03 -1.305034e-03 -1.113691e-03 -2.416983e-05 -1.224949e-04 -9.802414e-05 7.451358e-05 3.886518e-05 -1.102890e-04 -3.683196e-04 -3.005582e-04 -2.723361e-04 -1.989781e-04 -1.932478e-04 -1.615830e-04 -3.316048e-04 -1.416372e-04 -1.794095e-03 -6.923299e-03 -1.980006e-03 -4.287384e-03
<VARIANCE> 42
 2.304772e-03 2.712026e-03 1.663654e-03 2.049597e-03 1.194346e-03 1.741076e-03 1.915459e-03 3.378178e-03 5.348048e-03 4.323140e-03 4.044866e-03 4.328971e-03 8.114228e-05 5.473264e-05 6.567637e-05 5.157219e-05 6.013512e-05 4.010144e-05 3.092148e-05 7.374013e-05 3.465692e-05 4.065752e-05 4.900008e-05 2.378492e-05 2.625957e-05 1.952635e-05 2.250534e-05 1.727597e-05 1.963303e-05 1.453015e-05 7.309085e-06 2.601508e-05 8.518802e-06 1.211414e-05 1.173740e-05 6.413764e-06 1.353295e-05 4.319337e-05 1.736639e-04 2.008632e-03 1.709423e-03 1.351749e-03
<GCONST> -2.962992e+02
<MIXTURE> 8 2.857899e-02
<MEAN> 42
 1.832263e-01 8.403012e-02 -1.051870e-01 -1.358424e-01 1.492516e-01 -1.812404e-02 -3.831959e-01 -5.869589e-01 -4.563252e-01 -1.489388e-01 6.993556e-02 1.814723e-01 -5.904635e-02 -5.955667e-02 -4.841206e-04 5.932972e-02 -2.940482e-02 -3.013333e-02 3.146714e-02 -1.064580e-02 -5.345073e-02 -9.556861e-02 -1.086628e-01 -9.672400e-02 -1.620399e-04 4.764416e-03 4.922800e-03 -2.301023e-03 -2.535608e-03 4.842320e-03 4.116757e-03 1.169997e-02 1.384385e-02 1.018100e-02 5.592802e-03 2.084606e-03 3.257129e-02 4.277508e-02 5.314851e-03 9.893146e-02 8.547759e-02 4.273957e-01
<VARIANCE> 42
 1.534474e-01 1.201475e-01 2.411867e-01 7.501684e-02 1.666307e-01 1.402610e-01 1.055727e-01 2.697070e-01 3.407707e-01 2.976249e-01 2.689815e-01 2.216602e-01 4.384058e-03 6.154946e-03 6.810503e-03 3.572037e-03 4.063214e-03 5.393594e-03 3.101160e-03 1.150109e-02 1.535645e-02 1.443403e-02 1.488942e-02 1.085341e-02 8.096065e-04 6.960949e-04 7.280298e-04 5.718071e-04 5.959395e-04 5.106262e-04 4.210601e-04 9.516196e-04 1.325186e-03 1.830119e-03 2.691512e-03 2.082729e-03 1.476239e-03 1.471850e-03 1.230886e-03 1.580039e-01 1.116079e-01 1.180996e-01
<GCONST> -1.122477e+02
<STATE> 5
<MEAN> 42
 6.730598e-05 -2.378607e-04 2.971522e-03 -6.648952e-04 6.309474e-03 1.621068e-03 -1.751373e-02 5.713142e-04 -2.949275e-02 -1.168864e-02 -1.728001e-02 -1.096545e-02 -1.030743e-04 1.246426e-04 2.281979e-04 -1.060499e-05 -1.662947e-04 1.820309e-04 -8.764250e-05 8.219700e-05 1.129424e-04 7.733428e-05 -3.472170e-04 -5.277339e-06 -3.680149e-06 6.136027e-05 6.429864e-05 -2.984855e-05 -3.245294e-05 6.352544e-05 3.113969e-05 -1.154811e-05 1.816257e-05 4.102661e-05 -2.139591e-06 6.056568e-06 1.837500e-04 1.039830e-03 -2.168085e-03 -9.572459e-03 9.131869e-04 9.667691e-03
<VARIANCE> 42
 2.445761e-03 2.207327e-03 1.269814e-03 2.102854e-03 1.316474e-03 1.121608e-03 2.226833e-03 2.710482e-03 2.142028e-03 1.622508e-03 1.913019e-03 1.317944e-03 2.463976e-04 1.637727e-04 1.304165e-04 1.725544e-04 1.475150e-04 8.598984e-05 7.161626e-05 7.374013e-05 4.049503e-05 4.065752e-05 4.981451e-05 3.103307e-05 9.371370e-05 6.044145e-05 4.739037e-05 6.527673e-05 5.553838e-05 3.077975e-05 1.950843e-05 2.601508e-05 1.145872e-05 1.211414e-05 1.386639e-05 9.610394e-06 5.822335e-06 2.402510e-05 7.768902e-05 9.588894e-04 1.091441e-03 5.421974e-04
<GCONST> -2.901167e+02
<STATE> 6
<MEAN> 42
 4.127307e-02 1.120311e-01 4.022277e-02 -9.311659e-02 2.202790e-02 4.546832e-02 -6.833384e-02 2.097679e-02 -1.518268e-02 3.754409e-02 1.373598e-01 7.224222e-02 2.242885e-04 5.266159e-04 3.093671e-04 -3.680598e-04 -5.616248e-05 4.285979e-04 -1.498056e-05 -4.520022e-04 1.006129e-04 3.800341e-04 7.905401e-04 1.015563e-03 1.409013e-04 -1.100569e-04 -2.538720e-04 -9.687676e-06 1.948144e-04 -1.957152e-04 1.018742e-04 1.924147e-04 2.068142e-04 1.503281e-04 1.559028e-04 -4.038098e-05 4.009253e-03 1.044043e-03 -1.034019e-02 6.918377e-02 9.559199e-02 3.820741e-02
<VARIANCE> 42
 4.158071e-03 5.998251e-03 4.090168e-03 3.788003e-03 2.411670e-03 3.628022e-03 4.769366e-03 6.626846e-03 5.053529e-03 4.935459e-03 1.458956e-02 9.936230e-03 6.685412e-05 8.549848e-05 5.866538e-05 6.212189e-05 4.162220e-05 5.626827e-05 5.546077e-05 7.374013e-05 5.268390e-05 4.065752e-05 9.480779e-05 6.154367e-05 2.072985e-05 2.235806e-05 1.397199e-05 1.823027e-05 1.198263e-05 1.346648e-05 8.151328e-06 2.601508e-05 8.268553e-06 1.211414e-05 1.454974e-05 8.735521e-06 2.708387e-05 2.374091e-04 1.012152e-04 4.499971e-03 4.540221e-03 2.263105e-03
<GCONST> -2.816129e+02
<STATE> 7
<MEAN> 42
 2.075183e-01 -4.145639e-02 -2.629903e-01 -9.482668e-02 2.533148e-01 -1.677962e-01 -2.114057e-01 -2.472158e-01 -2.746001e-01 -2.151108e-01 -5.794226e-02 1.643996e-02 1.285264e-03 -1.315823e-03 -2.594872e-03 2.297078e-05 1.939778e-03 -1.957500e-03 -2.279588e-03 -2.504442e-03 -3.278723e-03 -3.363783e-03 -2.634947e-03 -1.808642e-03 -2.923156e-04 -8.890030e-05 1.970267e-04 1.886516e-04 -2.327838e-04 5.352606e-05 -1.589819e-04 2.166714e-04 4.152310e-04 2.969027e-04 3.179045e-04 3.606851e-04 2.586909e-02 4.457068e-03 -3.328239e-04 -6.407395e-03 -5.897802e-02 2.050784e-01
<VARIANCE> 42
 1.780266e-01 7.514849e-02 3.336536e-01 3.900875e-02 2.329028e-01 1.523279e-01 8.087815e-02 1.945176e-01 1.704942e-01 1.471347e-01 1.389622e-01 1.576823e-01 4.155722e-03 2.204910e-03 6.611397e-03 1.533733e-03 4.847500e-03 3.370043e-03 2.075653e-03 4.873300e-03 4.266558e-03 3.790729e-03 5.229407e-03 5.654796e-03 3.168706e-04 2.960486e-04 4.263090e-04 2.003902e-04 2.982563e-04 2.833072e-04 1.273173e-04 3.683341e-04 3.005095e-04 2.500344e-04 4.250323e-04 4.580950e-04 1.026773e-03 1.116695e-03 4.197840e-04 7.919183e-02 9.006121e-02 7.299566e-02
<GCONST> -1.400360e+02
<STATE> 8
<MEAN> 42
 8.334047e-02 1.342460e-01 2.565309e-02 -1.202226e-01 4.572298e-02 5.857917e-02 -5.870032e-02 5.473023e-02 1.072262e-01 9.423840e-02 1.402670e-01 9.657050e-02 -2.731470e-04 2.400456e-04 5.095336e-04 1.667436e-05 -3.913073e-04 3.709014e-04 9.129127e-05 -5.623998e-04 -1.100004e-04 3.621404e-04 5.150568e-04 7.224474e-05 -1.109056e-04 -1.096081e-04 1.873959e-06 1.062805e-04 -5.429312e-05 -5.030619e-05 5.939115e-05 -1.151287e-04 -2.259471e-04 -2.047293e-04 -1.777576e-04 -1.688939e-04 8.161215e-03 2.921077e-03 -8.336265e-03 1.048141e-01 9.271932e-02 -2.167802e-03
<VARIANCE> 42
 1.362735e-02 1.188456e-02 1.073727e-02 8.360200e-03 7.314430e-03 8.011489e-03 7.221994e-03 4.089773e-02 5.767680e-02 3.563401e-02 1.769888e-02 2.643891e-02 1.186807e-04 1.101441e-04 1.082122e-04 8.753163e-05 8.729834e-05 7.915730e-05 6.356449e-05 8.162818e-05 9.541913e-05 6.857084e-05 8.454777e-05 6.330202e-05 3.815852e-05 3.000333e-05 3.148065e-05 2.647680e-05 2.777808e-05 2.093965e-05 1.236392e-05 2.601508e-05 8.929599e-06 1.211414e-05 1.115087e-05 6.477857e-06 9.289763e-05 2.537787e-04 1.341708e-04 1.718032e-02 7.209004e-03 1.268643e-02
<GCONST> -2.557252e+02
<STATE> 9
<MEAN> 42
 7.115298e-03 1.529212e-02 3.633744e-03 -7.654313e-03 4.591320e-03 7.318546e-03 -3.150702e-03 6.492905e-03 1.312877e-03 5.975514e-03 2.629773e-02 2.060281e-02 -2.538973e-04 -1.665471e-04 8.800468e-05 2.109074e-04 -1.710455e-04 -3.856909e-05 2.317312e-04 2.303421e-05 -1.116464e-04 -2.312277e-04 -1.473752e-04 -2.128675e-04 4.136072e-05 3.056587e-05 -9.370725e-06 -3.466756e-05 2.625288e-05 1.005250e-05 1.618727e-05 4.406233e-05 2.826072e-05 1.994985e-05 2.901836e-05 1.506034e-05 9.732451e-04 2.327034e-04 -1.865495e-03 1.284113e-02 1.344248e-02 3.397100e-03
<VARIANCE> 42
 1.268916e-03 9.891911e-04 7.694003e-04 8.925165e-04 6.943885e-04 5.141497e-04 7.975321e-04 2.376951e-03 1.190005e-03 9.516048e-04 2.651600e-03 7.927443e-04 1.250594e-04 8.551512e-05 8.191255e-05 8.471293e-05 8.209169e-05 5.237622e-05 3.195324e-05 7.374013e-05 2.271530e-05 4.065752e-05 5.759421e-05 2.172992e-05 4.471809e-05 3.252500e-05 3.116803e-05 3.079529e-05 2.982826e-05 2.066616e-05 9.267425e-06 2.601508e-05 7.719968e-06 1.211414e-05 1.558876e-05 7.509504e-06 3.858363e-06 2.199600e-05 5.446571e-05 6.275565e-04 5.863245e-04 4.532168e-04
<GCONST> -3.088954e+02
<STATE> 10
<MEAN> 42
 -3.876138e-03 1.887647e-02 1.483095e-02 -3.179734e-03 -2.839742e-03 1.684627e-02 -7.364796e-03 -7.716920e-03 -1.274178e-02 -5.229789e-03 -1.430122e-02 -6.106254e-04 5.190296e-05 -1.147958e-03 -1.199515e-03 5.544501e-04 6.357774e-04 -1.182013e-03 2.137572e-04 -2.459148e-04 -6.354452e-04 -1.096149e-03 -1.105758e-03 -1.269346e-03 -3.088402e-05 -4.721569e-04 -4.491456e-04 2.480267e-04 2.139419e-04 -4.708037e-04 2.651347e-04 6.583810e-05 -1.286777e-04 -2.817364e-04 -3.099616e-04 -3.255455e-04 -8.564024e-04 1.367080e-04 2.088045e-03 -5.254675e-03 1.820019e-02 8.530327e-03
<VARIANCE> 42
 1.860008e-03 3.828786e-03 2.108126e-03 2.336863e-03 9.654114e-04 2.701674e-03 9.099906e-04 2.162299e-03 1.970146e-03 1.451170e-03 1.565620e-03 1.480569e-03 2.005231e-04 1.983858e-04 1.706797e-04 1.567204e-04 1.362232e-04 1.358661e-04 8.732093e-05 7.405735e-05 6.494633e-05 6.772626e-05 6.750604e-05 6.242879e-05 6.686831e-05 5.553796e-05 5.797359e-05 4.671400e-05 4.859182e-05 4.051691e-05 2.628151e-05 2.601508e-05 2.000438e-05 1.998322e-05 1.990799e-05 1.849086e-05 4.544461e-06 1.560502e-05 9.262306e-05 7.398190e-04 2.230131e-03 4.559598e-04
<GCONST> -2.855976e+02
<STATE> 11
<MEAN> 42
 -3.210996e-02 -5.051126e-02 -2.219638e-02 4.300518e-02 -3.051968e-03 -3.674974e-02 3.932441e-02 1.491087e-02 -9.902612e-03 -5.692957e-02 -7.562457e-02 -5.692816e-02 -4.378260e-03 -2.122996e-03 2.259920e-03 3.241846e-03 -3.324322e-03 3.915650e-05 8.306851e-03 8.857626e-03 7.212438e-03 1.877060e-03 -1.094390e-03 -2.577327e-03 -8.591138e-04 -7.061556e-05 7.913961e-04 4.588559e-04 -8.298877e-04 3.662759e-04 1.610779e-03 2.329763e-03 2.138724e-03 1.192032e-03 3.623909e-04 -3.814329e-05 -2.900009e-03 -1.953800e-03 -1.963048e-03 -5.584852e-02 -3.908736e-02 -2.377123e-02
<VARIANCE> 42
 2.609605e-03 1.780417e-03 2.185272e-03 1.583442e-03 1.779736e-03 1.340790e-03 2.031039e-03 4.992750e-03 3.383633e-03 1.652360e-03 2.578786e-03 1.293872e-03 2.409440e-04 1.490079e-04 2.333041e-04 1.366377e-04 2.000475e-04 1.326266e-04 2.260431e-04 3.981123e-04 2.792098e-04 1.391981e-04 1.486730e-04 1.022338e-04 6.712991e-05 4.283384e-05 5.097633e-05 4.220052e-05 4.840866e-05 3.065765e-05 3.384084e-05 6.247393e-05 6.079353e-05 4.011033e-05 4.708001e-05 2.927820e-05 9.661710e-06 3.088576e-05 5.252528e-05 8.925995e-04 1.217425e-03 1.727422e-03
<GCONST> -2.719918e+02
<STATE> 12
<MEAN> 42
 -4.419234e-02 -9.524354e-03 3.111657e-02 2.676206e-02 -3.533659e-02 7.205758e-03 1.267665e-01 1.361038e-01 1.115305e-01 4.901421e-02 6.790292e-02 -2.207666e-02 1.063842e-02 1.002984e-02 -5.881856e-04 -1.033215e-02 5.728459e-03 4.775713e-03 1.101863e-02 3.243853e-02 3.043870e-02 2.814544e-02 1.984578e-02 1.568526e-02 7.131458e-03 4.972070e-03 -2.148005e-03 -6.051540e-03 4.669759e-03 1.452741e-03 -3.111559e-03 2.027279e-03 2.990874e-03 6.802554e-03 7.590213e-03 7.313137e-03 -5.025448e-03 4.765016e-03 5.500824e-03 -1.799342e-03 -4.952976e-03 -1.023395e-01
<VARIANCE> 42
 4.551776e-03 3.752050e-03 6.837849e-03 2.211132e-03 4.441180e-03 4.336489e-03 9.170674e-03 3.179771e-02 1.994635e-02 9.756040e-03 1.788349e-02 5.737538e-03 4.432918e-04 3.589934e-04 3.181184e-04 3.205075e-04 2.915412e-04 2.293965e-04 4.621124e-04 8.368261e-04 7.819674e-04 8.429388e-04 7.644987e-04 5.178445e-04 8.658972e-05 7.025798e-05 7.026608e-05 6.061618e-05 6.093330e-05 4.853540e-05 6.294670e-05 8.595461e-05 7.123526e-05 7.554234e-05 8.578518e-05 7.532533e-05 4.721074e-05 4.933670e-04 2.722051e-04 4.305516e-03 3.318773e-03 1.212516e-02
<GCONST> -2.297418e+02
<STATE> 13
<MEAN> 42
 5.372208e-02 3.724929e-02 -1.985948e-02 -4.715773e-02 3.929866e-02 5.944645e-03 1.498126e-01 2.705428e-01 2.305355e-01 1.786345e-01 1.217992e-01 6.928085e-02 4.378722e-02 4.200961e-02 -1.827408e-03 -4.295217e-02 2.288049e-02 2.025201e-02 -1.520840e-02 2.235538e-02 3.931016e-02 5.573895e-02 5.516398e-02 4.823345e-02 1.100141e-02 1.265072e-02 1.614735e-03 -1.184681e-02 4.678101e-03 7.160974e-03 -1.339645e-02 -9.742341e-03 2.380410e-04 8.878922e-03 1.193600e-02 1.223673e-02 3.602274e-04 -7.073980e-03 1.457672e-02 7.416055e-02 4.196476e-03 -1.669784e-01
<VARIANCE> 42
 1.414719e-02 3.020128e-02 1.008921e-02 1.941151e-02 5.425963e-03 1.630661e-02 2.497639e-02 4.909129e-02 5.500809e-02 4.678946e-02 3.769209e-02 3.020043e-02 1.783938e-03 2.422232e-03 1.340496e-03 1.766013e-03 9.584964e-04 1.425427e-03 2.660094e-03 2.841165e-03 3.071526e-03 3.006908e-03 2.655328e-03 2.440238e-03 1.200069e-04 1.607176e-04 1.509062e-04 1.023677e-04 9.591231e-05 1.254593e-04 2.219506e-04 3.554052e-04 3.147261e-04 2.598894e-04 2.180248e-04 1.754649e-04 1.489757e-04 7.241766e-04 7.638936e-04 2.543604e-02 1.677294e-02 2.129227e-02
<GCONST> -1.805909e+02
<STATE> 14
<MEAN> 42
 4.241245e-01 4.822302e-01 5.318243e-02 -4.536240e-01 1.890607e-01 2.654330e-01 -1.646695e-01 1.487077e-01 4.238095e-01 6.762214e-01 6.685840e-01 5.802789e-01 7.547050e-02 9.169437e-02 1.620260e-02 -8.362056e-02 2.977843e-02 5.417691e-02 -9.018371e-02 -8.906071e-02 -1.624480e-02 8.247072e-02 1.145727e-01 1.157926e-01 -2.475160e-03 3.008420e-03 5.499375e-03 -2.620846e-04 -3.992655e-03 4.213144e-03 -1.034187e-02 -2.671683e-02 -2.159842e-02 -6.448573e-03 1.856298e-03 4.618456e-03 4.154452e-02 5.721683e-04 5.948256e-03 5.589394e-01 3.147161e-01 2.711784e-03
<VARIANCE> 42
 7.244851e-02 1.306465e-01 9.604825e-02 7.838248e-02 5.289101e-02 9.741956e-02 1.021461e-01 1.985182e-01 2.418903e-01 2.168616e-01 1.909586e-01 1.552965e-01 2.655562e-03 5.593731e-03 6.343834e-03 2.533424e-03 3.114762e-03 5.326770e-03 4.311649e-03 1.374060e-02 1.531531e-02 7.571671e-03 8.216308e-03 6.475590e-03 3.217621e-04 3.657211e-04 4.081579e-04 2.411470e-04 2.742370e-04 3.086048e-04 4.351437e-04 1.163931e-03 1.204708e-03 4.286559e-04 7.480790e-04 6.650693e-04 1.031786e-03 1.257836e-03 1.383825e-03 1.199662e-01 8.796571e-02 1.073622e-01
<GCONST> -1.285711e+02
<STATE> 15
<MEAN> 42
 3.252197e-01 4.018138e-01 7.026258e-02 -3.657094e-01 1.324935e-01 2.318926e-01 -5.302518e-01 -7.163230e-01 -4.763854e-01 1.579476e-01 4.358729e-01 4.714313e-01 -5.420230e-02 -6.058925e-02 -6.361026e-03 5.744038e-02 -2.406928e-02 -3.362178e-02 1.134092e-02 -3.654901e-02 -6.840628e-02 -9.788356e-02 -9.535060e-02 -8.091085e-02 -6.427533e-03 -9.374033e-03 -2.947727e-03 7.901734e-03 -1.767525e-03 -6.154907e-03 1.066816e-02 1.702051e-02 1.027413e-02 -3.389105e-03 -9.550692e-03 -1.103768e-02 5.366064e-02 2.841815e-02 1.460891e-03 3.649263e-01 3.534916e-01 5.737557e-01
<VARIANCE> 42
 1.887497e-01 4.598835e-01 4.682169e-01 2.069928e-01 2.142303e-01 4.180625e-01 1.265809e-01 3.960711e-01 7.459103e-01 7.470019e-01 6.673999e-01 4.371785e-01 4.933982e-03 1.281499e-02 9.241081e-03 6.571980e-03 3.885842e-03 9.807901e-03 5.642414e-03 1.315620e-02 1.769689e-02 1.770162e-02 2.398204e-02 1.666589e-02 7.667713e-04 1.732204e-03 1.123863e-03 9.689102e-04 5.136971e-04 1.240055e-03 6.647396e-04 1.172762e-03 1.627034e-03 2.734102e-03 3.899236e-03 2.659149e-03 1.507644e-03 1.753770e-03 1.732477e-03 3.401152e-01 3.431615e-01 1.912860e-01
<GCONST> -9.216011e+01
<STATE> 16
<MEAN> 42
 -7.369024e-02 -6.742982e-02 1.536181e-03 6.948490e-02 -3.446726e-02 -3.795565e-02 -1.278001e-01 -3.023798e-01 -2.893602e-01 -2.206051e-01 -1.490364e-01 -9.994242e-02 2.753973e-03 1.077437e-03 -1.694023e-03 -1.936171e-03 2.262618e-03 -3.129156e-04 2.456271e-02 5.188467e-02 4.730345e-02 2.753812e-02 1.424360e-02 7.068658e-03 2.497570e-03 3.815010e-03 1.304070e-03 -3.156013e-03 6.134877e-04 2.572921e-03 -1.283837e-03 -2.997207e-03 -1.459057e-03 1.322930e-03 2.831020e-03 3.458707e-03 4.741614e-04 1.477602e-02 1.125085e-02 -1.077340e-01 -2.000410e-02 1.805952e-01
<VARIANCE> 42
 1.386027e-02 1.958665e-02 2.890591e-02 9.040495e-03 1.643492e-02 1.970220e-02 4.475234e-02 9.560516e-02 8.186644e-02 3.926137e-02 2.181713e-02 1.183360e-02 6.538062e-04 6.794018e-04 1.204834e-03 3.655260e-04 7.625291e-04 7.815238e-04 7.901133e-04 2.012716e-03 2.287545e-03 1.353348e-03 9.906088e-04 6.742341e-04 1.121352e-04 1.222611e-04 1.175600e-04 8.766937e-05 8.501147e-05 9.178062e-05 8.534640e-05 1.576969e-04 2.141615e-04 2.060089e-04 1.998143e-04 1.343240e-04 2.366580e-04 7.159520e-04 8.799080e-04 1.054023e-02 1.774672e-02 4.142768e-02
<GCONST> -1.926663e+02
<STATE> 17
<MEAN> 42
 -9.213632e-03 7.596705e-03 -3.277208e-03 -9.881546e-03 1.354965e-02 -1.868102e-02 6.090018e-03 7.789714e-02 1.929746e-02 -1.934396e-03 3.740263e-02 -2.126191e-02 1.112615e-03 1.415111e-03 2.947107e-04 -1.272251e-03 4.151960e-04 8.698884e-04 2.508351e-04 3.651302e-03 2.948485e-03 2.549458e-03 2.475003e-03 2.014512e-03 5.588036e-05 -1.168621e-04 -1.690931e-04 3.102301e-05 1.151295e-04 -1.464760e-04 -6.575825e-05 -1.956818e-04 -2.483684e-04 -1.110983e-04 -7.395514e-06 -4.219089e-05 -1.137208e-03 -1.071921e-03 -7.084516e-03 -1.603216e-03 6.206770e-03 -2.983488e-02
<VARIANCE> 42
 4.764528e-03 4.928869e-03 3.197600e-03 4.038667e-03 2.703210e-03 2.384268e-03 4.556824e-03 2.002569e-02 1.555058e-02 8.576584e-03 9.884069e-03 5.671950e-03 9.341726e-05 9.165057e-05 1.051313e-04 6.623664e-05 7.621270e-05 7.606643e-05 6.661156e-05 7.392482e-05 5.442713e-05 5.148935e-05 8.799702e-05 4.106824e-05 2.753920e-05 3.044832e-05 3.598999e-05 1.991214e-05 2.419825e-05 2.674556e-05 1.099421e-05 2.601508e-05 1.397044e-05 1.591505e-05 2.225907e-05 1.072739e-05 1.787780e-05 5.979646e-05 1.068988e-04 4.050631e-03 3.490983e-03 4.554932e-03
<GCONST> -2.751054e+02
<STATE> 18
<MEAN> 42
 -9.192677e-02 -8.891077e-03 4.955682e-02 3.189421e-02 -4.302940e-02 -1.807647e-02 -1.854032e-02 -1.220511e-01 -1.628592e-01 -1.259708e-01 -8.119740e-03 -7.581526e-02 3.172102e-04 1.170489e-03 8.972040e-04 -7.449542e-04 -2.434046e-04 1.022378e-03 3.187860e-03 4.683476e-03 3.122618e-03 2.168002e-03 1.522012e-03 8.871926e-04 1.488601e-04 -5.582113e-04 -7.085888e-04 1.909846e-04 4.389692e-04 -6.603498e-04 -1.302348e-03 -7.170196e-04 -5.817067e-04 1.835948e-04 4.207984e-05 -1.485023e-04 5.912965e-03 -3.878496e-03 -2.464217e-03 -6.764808e-02 3.030504e-02 7.851698e-02
<VARIANCE> 42
 5.494089e-02 1.862691e-02 5.961500e-02 1.940800e-02 4.963136e-02 2.742298e-02 2.914298e-02 3.113909e-01 1.668124e-01 8.740904e-02 6.273039e-02 3.876958e-02 2.227506e-03 7.782104e-04 2.612409e-03 8.535007e-04 2.228479e-03 1.133979e-03 1.085260e-03 1.001737e-02 4.644266e-03 2.603974e-03 2.278890e-03 1.190343e-03 2.266992e-04 7.558965e-05 2.326887e-04 9.273375e-05 2.115126e-04 9.626518e-05 6.294552e-05 5.719691e-04 2.985511e-04 1.979141e-04 1.873710e-04 1.072844e-04 4.796802e-04 4.835820e-04 3.184470e-04 4.257082e-02 2.405156e-02 9.284317e-02
<GCONST> -1.700812e+02
<STATE> 19
<MEAN> 42
 7.026836e-02 1.172397e-01 2.060157e-02 -1.093563e-01 4.557177e-02 4.351400e-02 -4.627000e-02 1.721168e-01 1.291431e-01 1.145479e-01 1.982004e-01 1.438207e-01 7.682563e-04 1.241392e-03 4.711615e-04 -1.014566e-03 1.504272e-04 8.635373e-04 -3.933108e-04 -6.850426e-04 2.274695e-04 4.744071e-04 2.107656e-04 4.283763e-04 -1.479061e-04 -2.052452e-04 -5.726616e-05 1.752941e-04 -4.966423e-05 -1.322132e-04 -2.180917e-05 -2.953058e-04 -2.707567e-04 -1.952018e-04 -3.644944e-04 -3.496078e-04 3.414229e-03 -2.102289e-03 -6.091251e-03 1.224986e-01 8.095364e-02 -4.180808e-02
<VARIANCE> 42
 2.086446e-02 2.957875e-02 8.729592e-03 2.012041e-02 4.447681e-03 2.046217e-02 1.894247e-02 4.649957e-02 3.638084e-02 3.050337e-02 3.477023e-02 6.347713e-02 1.026844e-04 1.268886e-04 8.728686e-05 9.272352e-05 6.342890e-05 8.248728e-05 7.420006e-05 9.061014e-05 9.983600e-05 8.675487e-05 1.774088e-04 1.588123e-04 2.593341e-05 2.535331e-05 2.338174e-05 1.982903e-05 1.852966e-05 1.827190e-05 1.158943e-05 2.601508e-05 9.383220e-06 1.299539e-05 1.825348e-05 9.111009e-06 1.649991e-04 2.650717e-04 4.497156e-04 2.734717e-02 1.588011e-02 1.814502e-02
<GCONST> -2.468400e+02
<STATE> 20
<MEAN> 42
 9.804944e-03 2.886971e-02 1.700310e-02 -2.225321e-02 4.992036e-03 2.318346e-02 -2.037705e-02 8.762643e-03 2.850263e-02 2.097267e-02 9.850744e-03 2.310375e-02 -4.838338e-04 -4.762996e-04 9.730473e-06 4.833236e-04 -2.485679e-04 -2.485015e-04 5.291675e-04 4.513054e-04 1.726920e-04 4.442145e-05 -3.611318e-04 -4.099193e-04 -4.128907e-05 -4.019794e-05 1.175249e-06 3.994276e-05 -2.402186e-05 -2.166102e-05 -1.093921e-04 -9.463078e-05 -5.149029e-05 -4.411157e-05 -1.321789e-05 -2.175540e-06 -5.805914e-05 1.333145e-03 -1.634471e-03 1.925576e-02 2.008393e-02 -1.855928e-04
<VARIANCE> 42
 3.002903e-03 2.883011e-03 1.372059e-03 2.777129e-03 1.426255e-03 1.425458e-03 1.313742e-03 1.499219e-03 5.244684e-03 2.015492e-03 2.160232e-03 2.117109e-03 1.790901e-04 1.717856e-04 1.544126e-04 1.369209e-04 1.238335e-04 1.184689e-04 8.293866e-05 7.374013e-05 5.802582e-05 4.553334e-05 4.914245e-05 4.356509e-05 6.649215e-05 6.701756e-05 6.166598e-05 5.135828e-05 4.730560e-05 4.768092e-05 2.137775e-05 2.601508e-05 1.572141e-05 1.429778e-05 1.393462e-05 1.482748e-05 7.709775e-06 2.798503e-05 7.491329e-05 1.658453e-03 1.501359e-03 4.396301e-04
<GCONST> -2.854970e+02
<STATE> 21
<MEAN> 42
 1.910942e-01 1.810025e-01 -7.939063e-03 -1.807040e-01 1.036520e-01 8.909858e-02 -1.962231e-01 9.755791e-02 2.016555e-01 3.627244e-01 4.316684e-01 3.998559e-01 4.188568e-03 -7.359046e-03 -1.153447e-02 1.572662e-03 7.825406e-03 -9.499472e-03 -2.139885e-03 -3.101955e-03 -1.062680e-02 -1.117805e-02 -7.574043e-03 -4.792457e-03 -7.137043e-04 1.065723e-04 8.307668e-04 3.149340e-04 -7.899972e-04 4.567292e-04 -1.230385e-04 -9.388645e-04 -1.181525e-03 -1.296751e-03 -1.635192e-03 -1.673071e-03 1.777507e-02 -1.063563e-02 9.961339e-03 3.436636e-01 1.116683e-01 3.182531e-02
<VARIANCE> 42
 8.211298e-02 1.065912e-01 2.484051e-01 3.111180e-02 1.383682e-01 1.577923e-01 4.063536e-02 1.833863e-02 1.225978e-01 2.486179e-01 1.949466e-01 1.437126e-01 1.708935e-03 1.079138e-03 3.085729e-03 6.226713e-04 2.126806e-03 1.660556e-03 7.428922e-04 4.543211e-04 8.907504e-04 1.422109e-03 3.293753e-03 4.344298e-03 1.467234e-04 1.238681e-04 2.825733e-04 6.460142e-05 1.831091e-04 1.679791e-04 5.811718e-05 1.136007e-04 1.040459e-04 5.258933e-05 1.740063e-04 2.527256e-04 5.221122e-04 6.495995e-04 3.314064e-04 1.128930e-01 8.448255e-02 1.514847e-02
<GCONST> -1.685470e+02
<STATE> 22
<MEAN> 42
 -9.817861e-03 -1.394943e-02 -4.940538e-03 1.540050e-02 -1.624273e-03 -1.193587e-02 2.237085e-02 4.051369e-02 1.042406e-02 -1.318068e-02 -1.376097e-02 -1.519914e-02 2.745734e-04 1.962295e-04 -7.709663e-05 -2.360723e-04 1.731844e-04 6.059072e-05 6.763455e-04 1.500949e-03 1.220432e-03 6.712283e-04 5.743419e-04 2.860892e-04 2.714817e-05 1.023485e-04 7.502225e-05 -6.292721e-05 -2.336701e-05 9.264494e-05 -6.594550e-05 2.227501e-06 9.437669e-05 1.299365e-04 1.878423e-04 1.723877e-04 -1.244235e-03 5.394365e-04 1.471830e-03 -1.624838e-02 -1.174784e-02 -2.345334e-02
<VARIANCE> 42
 1.371903e-03 2.483919e-03 2.534189e-03 1.392323e-03 1.329376e-03 2.001369e-03 1.535579e-03 5.588896e-03 8.015704e-03 4.548950e-03 4.470028e-03 2.459429e-03 6.751459e-05 5.287930e-05 5.882238e-05 4.552409e-05 5.030418e-05 3.886207e-05 2.122750e-05 7.374013e-05 3.282417e-05 4.065752e-05 8.974415e-05 3.312957e-05 2.348142e-05 1.757307e-05 1.966009e-05 1.561501e-05 1.735764e-05 1.260114e-05 5.792430e-06 2.601508e-05 8.324686e-06 1.211414e-05 2.215597e-05 9.486240e-06 1.727095e-05 5.222671e-05 5.114787e-05 2.183468e-03 1.632605e-03 2.014792e-03
<GCONST> -2.968098e+02
<STATE> 23
<MEAN> 42
 7.729265e-02 1.249370e-01 3.870127e-02 -9.848201e-02 2.122828e-02 8.114831e-02 6.659761e-02 4.049166e-01 3.401262e-01 2.388300e-01 1.586317e-01 1.475998e-01 5.586472e-04 2.175729e-03 1.618031e-03 -1.362870e-03 -5.210946e-04 1.931038e-03 -3.702254e-04 3.366221e-03 7.216632e-05 2.339147e-03 3.266584e-03 2.794675e-03 3.916498e-04 -8.185349e-05 -4.778725e-04 -1.527399e-04 4.508789e-04 -2.677668e-04 -6.270671e-04 -3.884304e-04 -7.754801e-04 -4.017272e-04 1.081877e-04 2.415224e-04 7.635314e-03 6.120561e-03 -1.172302e-03 1.326019e-01 6.165741e-02 -2.003827e-01
<VARIANCE> 42
 1.946162e-02 1.629759e-02 9.506496e-03 1.441270e-02 1.019947e-02 8.395886e-03 2.404876e-02 8.397293e-02 1.091004e-01 4.717081e-02 5.155050e-02 3.852614e-02 1.355391e-04 9.662755e-05 1.504405e-04 7.837711e-05 1.185983e-04 8.932131e-05 3.392849e-04 3.902847e-04 9.906761e-04 2.917583e-04 1.417010e-04 1.058169e-04 2.810479e-05 2.321064e-05 3.243594e-05 1.753404e-05 2.451896e-05 2.056690e-05 2.326657e-05 4.216654e-05 5.289228e-05 2.484520e-05 2.498543e-05 2.123822e-05 3.207381e-04 3.736630e-04 2.732233e-04 3.504410e-02 7.349634e-03 1.861280e-02
<GCONST> -2.332873e+02
<STATE> 24
<MEAN> 42
 4.771791e-02 2.838862e-02 -2.647355e-02 -4.212785e-02 3.632019e-02 -6.244286e-03 -1.016572e-02 2.594578e-02 4.555663e-02 3.042318e-02 2.747435e-02 5.934107e-02 -7.621922e-06 1.229188e-04 1.314192e-04 -5.629631e-05 -6.969846e-05 1.274841e-04 -2.047402e-04 -8.224725e-04 -3.079461e-04 -1.851184e-04 -9.768638e-05 -2.599324e-05 -3.456292e-05 -1.248417e-05 2.207554e-05 2.342929e-05 -2.802120e-05 4.864755e-06 1.098480e-05 -1.389755e-05 -2.419206e-05 -2.969911e-05 -3.084422e-05 -1.642518e-05 2.107110e-04 3.272797e-04 4.295635e-03 3.765286e-02 1.175280e-02 -6.973349e-03
<VARIANCE> 42
 2.071246e-02 3.982344e-03 1.138825e-02 9.538634e-03 1.521834e-02 2.395952e-03 1.142311e-02 5.481874e+00 8.584087e-02 1.157723e+00 3.437907e-02 5.476259e-02 8.950817e-04 1.065499e-04 6.592413e-04 3.359740e-04 7.557691e-04 1.586990e-04 1.710664e-04 4.145457e-01 8.180279e-04 1.820054e-01 8.106852e-04 7.746338e-04 1.293763e-04 2.347923e-05 1.248711e-04 4.521461e-05 1.219225e-04 4.185728e-05 2.545718e-05 1.586211e-01 5.539137e-05 6.817266e-02 7.746607e-05 7.473965e-05 2.357011e-04 2.383628e-04 2.125530e-04 1.059107e-01 4.766268e-03 5.449000e-01
<GCONST> -1.779063e+02
<TRANSP> 25
 0.000000e+00 1.000000e+00 0.000000e+00 0.000000e+00 0.000000e+00 0.000000e+00 0.000000e+00 0.000000e+00 0.000000e+00 0.000000e+00 0.000000e+00 0.000000e+00 0.000000e+00 0.000000e+00 0.000000e+00 0.000000e+00 0.000000e+00 0.000000e+00 0.000000e+00 0.000000e+00 0.000000e+00 0.000000e+00 0.000000e+00 0.000000e+00 0.000000e+00
 0.000000e+00 9.925092e-01 7.490733e-03 0.000000e+00 0.000000e+00 0.000000e+00 0.000000e+00 0.000000e+00 0.000000e+00 0.000000e+00 0.000000e+00 0.000000e+00 0.000000e+00 0.000000e+00 0.000000e+00 0.000000e+00 0.000000e+00 0.000000e+00 0.000000e+00 0.000000e+00 0.000000e+00 0.000000e+00 0.000000e+00 0.000000e+00 0.000000e+00
 0.000000e+00 0.000000e+00 9.858084e-01 1.419165e-02 0.000000e+00 0.000000e+00 0.000000e+00 0.000000e+00 0.000000e+00 0.000000e+00 0.000000e+00 0.000000e+00 0.000000e+00 0.000000e+00 0.000000e+00 0.000000e+00 0.000000e+00 0.000000e+00 0.000000e+00 0.000000e+00 0.000000e+00 0.000000e+00 0.000000e+00 0.000000e+00 0.000000e+00
 0.000000e+00 0.000000e+00 0.000000e+00 9.997411e-01 2.588346e-04 0.000000e+00 0.000000e+00 0.000000e+00 0.000000e+00 0.000000e+00 0.000000e+00 0.000000e+00 0.000000e+00 0.000000e+00 0.000000e+00 0.000000e+00 0.000000e+00 0.000000e+00 0.000000e+00 0.000000e+00 0.000000e+00 0.000000e+00 0.000000e+00 0.000000e+00 0.000000e+00
 0.000000e+00 0.000000e+00 0.000000e+00 0.000000e+00 9.697728e-01 3.022719e-02 0.000000e+00 0.000000e+00 0.000000e+00 0.000000e+00 0.000000e+00 0.000000e+00 0.000000e+00 0.000000e+00 0.000000e+00 0.000000e+00 0.000000e+00 0.000000e+00 0.000000e+00 0.000000e+00 0.000000e+00 0.000000e+00 0.000000e+00 0.000000e+00 0.000000e+00
 0.000000e+00 0.000000e+00 0.000000e+00 0.000000e+00 0.000000e+00 8.951378e-01 1.048622e-01 0.000000e+00 0.000000e+00 0.000000e+00 0.000000e+00 0.000000e+00 0.000000e+00 0.000000e+00 0.000000e+00 0.000000e+00 0.000000e+00 0.000000e+00 0.000000e+00 0.000000e+00 0.000000e+00 0.000000e+00 0.000000e+00 0.000000e+00 0.000000e+00
 0.000000e+00 0.000000e+00 0.000000e+00 0.000000e+00 0.000000e+00 0.000000e+00 7.732363e-01 2.267637e-01 0.000000e+00 0.000000e+00 0.000000e+00 0.000000e+00 0.000000e+00 0.000000e+00 0.000000e+00 0.000000e+00 0.000000e+00 0.000000e+00 0.000000e+00 0.000000e+00 0.000000e+00 0.000000e+00 0.000000e+00 0.000000e+00 0.000000e+00
 0.000000e+00 0.000000e+00 0.000000e+00 0.000000e+00 0.000000e+00 0.000000e+00 0.000000e+00 9.511980e-01 4.880195e-02 0.000000e+00 0.000000e+00 0.000000e+00 0.000000e+00 0.000000e+00 0.000000e+00 0.000000e+00 0.000000e+00 0.000000e+00 0.000000e+00 0.000000e+00 0.000000e+00 0.000000e+00 0.000000e+00 0.000000e+00 0.000000e+00
 0.000000e+00 0.000000e+00 0.000000e+00 0.000000e+00 0.000000e+00 0.000000e+00 0.000000e+00 0.000000e+00 9.861269e-01 1.387313e-02 0.000000e+00 0.000000e+00 0.000000e+00 0.000000e+00 0.000000e+00 0.000000e+00 0.000000e+00 0.000000e+00 0.000000e+00 0.000000e+00 0.000000e+00 0.000000e+00 0.000000e+00 0.000000e+00 0.000000e+00
 0.000000e+00 0.000000e+00 0.000000e+00 0.000000e+00 0.000000e+00 0.000000e+00 0.000000e+00 0.000000e+00 0.000000e+00 8.821470e-01 1.178530e-01 0.000000e+00 0.000000e+00 0.000000e+00 0.000000e+00 0.000000e+00 0.000000e+00 0.000000e+00 0.000000e+00 0.000000e+00 0.000000e+00 0.000000e+00 0.000000e+00 0.000000e+00 0.000000e+00
 0.000000e+00 0.000000e+00 0.000000e+00 0.000000e+00 0.000000e+00 0.000000e+00 0.000000e+00 0.000000e+00 0.000000e+00 0.000000e+00 8.673953e-01 1.326047e-01 0.000000e+00 0.000000e+00 0.000000e+00 0.000000e+00 0.000000e+00 0.000000e+00 0.000000e+00 0.000000e+00 0.000000e+00 0.000000e+00 0.000000e+00 0.000000e+00 0.000000e+00
 0.000000e+00 0.000000e+00 0.000000e+00 0.000000e+00 0.000000e+00 0.000000e+00 0.000000e+00 0.000000e+00 0.000000e+00 0.000000e+00 0.000000e+00 7.278578e-01 2.721422e-01 0.000000e+00 0.000000e+00 0.000000e+00 0.000000e+00 0.000000e+00 0.000000e+00 0.000000e+00 0.000000e+00 0.000000e+00 0.000000e+00 0.000000e+00 0.000000e+00
 0.000000e+00 0.000000e+00 0.000000e+00 0.000000e+00 0.000000e+00 0.000000e+00 0.000000e+00 0.000000e+00 0.000000e+00 0.000000e+00 0.000000e+00 0.000000e+00 6.017963e-01 3.982037e-01 0.000000e+00 0.000000e+00 0.000000e+00 0.000000e+00 0.000000e+00 0.000000e+00 0.000000e+00 0.000000e+00 0.000000e+00 0.000000e+00 0.000000e+00
 0.000000e+00 0.000000e+00 0.000000e+00 0.000000e+00 0.000000e+00 0.000000e+00 0.000000e+00 0.000000e+00 0.000000e+00 0.000000e+00 0.000000e+00 0.000000e+00 0.000000e+00 7.516788e-01 2.483211e-01 0.000000e+00 0.000000e+00 0.000000e+00 0.000000e+00 0.000000e+00 0.000000e+00 0.000000e+00 0.000000e+00 0.000000e+00 0.000000e+00
 0.000000e+00 0.000000e+00 0.000000e+00 0.000000e+00 0.000000e+00 0.000000e+00 0.000000e+00 0.000000e+00 0.000000e+00 0.000000e+00 0.000000e+00 0.000000e+00 0.000000e+00 0.000000e+00 8.812702e-01 1.187299e-01 0.000000e+00 0.000000e+00 0.000000e+00 0.000000e+00 0.000000e+00 0.000000e+00 0.000000e+00 0.000000e+00 0.000000e+00
 0.000000e+00 0.000000e+00 0.000000e+00 0.000000e+00 0.000000e+00 0.000000e+00 0.000000e+00 0.000000e+00 0.000000e+00 0.000000e+00 0.000000e+00 0.000000e+00 0.000000e+00 0.000000e+00 0.000000e+00 8.643401e-01 1.356599e-01 0.000000e+00 0.000000e+00 0.000000e+00 0.000000e+00 0.000000e+00 0.000000e+00 0.000000e+00 0.000000e+00
 0.000000e+00 0.000000e+00 0.000000e+00 0.000000e+00 0.000000e+00 0.000000e+00 0.000000e+00 0.000000e+00 0.000000e+00 0.000000e+00 0.000000e+00 0.000000e+00 0.000000e+00 0.000000e+00 0.000000e+00 0.000000e+00 9.528891e-01 4.711089e-02 0.000000e+00 0.000000e+00 0.000000e+00 0.000000e+00 0.000000e+00 0.000000e+00 0.000000e+00
 0.000000e+00 0.000000e+00 0.000000e+00 0.000000e+00 0.000000e+00 0.000000e+00 0.000000e+00 0.000000e+00 0.000000e+00 0.000000e+00 0.000000e+00 0.000000e+00 0.000000e+00 0.000000e+00 0.000000e+00 0.000000e+00 0.000000e+00 5.292999e-01 4.707001e-01 0.000000e+00 0.000000e+00 0.000000e+00 0.000000e+00 0.000000e+00 0.000000e+00
 0.000000e+00 0.000000e+00 0.000000e+00 0.000000e+00 0.000000e+00 0.000000e+00 0.000000e+00 0.000000e+00 0.000000e+00 0.000000e+00 0.000000e+00 0.000000e+00 0.000000e+00 0.000000e+00 0.000000e+00 0.000000e+00 0.000000e+00 0.000000e+00 9.429258e-01 5.707421e-02 0.000000e+00 0.000000e+00 0.000000e+00 0.000000e+00 0.000000e+00
 0.000000e+00 0.000000e+00 0.000000e+00 0.000000e+00 0.000000e+00 0.000000e+00 0.000000e+00 0.000000e+00 0.000000e+00 0.000000e+00 0.000000e+00 0.000000e+00 0.000000e+00 0.000000e+00 0.000000e+00 0.000000e+00 0.000000e+00 0.000000e+00 0.000000e+00 9.620007e-01 3.799932e-02 0.000000e+00 0.000000e+00 0.000000e+00 0.000000e+00
 0.000000e+00 0.000000e+00 0.000000e+00 0.000000e+00 0.000000e+00 0.000000e+00 0.000000e+00 0.000000e+00 0.000000e+00 0.000000e+00 0.000000e+00 0.000000e+00 0.000000e+00 0.000000e+00 0.000000e+00 0.000000e+00 0.000000e+00 0.000000e+00 0.000000e+00 0.000000e+00 7.285713e-01 2.714288e-01 0.000000e+00 0.000000e+00 0.000000e+00
 0.000000e+00 0.000000e+00 0.000000e+00 0.000000e+00 0.000000e+00 0.000000e+00 0.000000e+00 0.000000e+00 0.000000e+00 0.000000e+00 0.000000e+00 0.000000e+00 0.000000e+00 0.000000e+00 0.000000e+00 0.000000e+00 0.000000e+00 0.000000e+00 0.000000e+00 0.000000e+00 0.000000e+00 9.714756e-01 2.852441e-02 0.000000e+00 0.000000e+00
 0.000000e+00 0.000000e+00 0.000000e+00 0.000000e+00 0.000000e+00 0.000000e+00 0.000000e+00 0.000000e+00 0.000000e+00 0.000000e+00 0.000000e+00 0.000000e+00 0.000000e+00 0.000000e+00 0.000000e+00 0.000000e+00 0.000000e+00 0.000000e+00 0.000000e+00 0.000000e+00 0.000000e+00 0.000000e+00 8.741133e-01 1.258867e-01 0.000000e+00
 0.000000e+00 0.000000e+00 0.000000e+00 0.000000e+00 0.000000e+00 0.000000e+00 0.000000e+00 0.000000e+00 0.000000e+00 0.000000e+00 0.000000e+00 0.000000e+00 0.000000e+00 0.000000e+00 0.000000e+00 0.000000e+00 0.000000e+00 0.000000e+00 0.000000e+00 0.000000e+00 0.000000e+00 0.000000e+00 0.000000e+00 9.927040e-01 7.295947e-03
 0.000000e+00 0.000000e+00 0.000000e+00 0.000000e+00 0.000000e+00 0.000000e+00 0.000000e+00 0.000000e+00 0.000000e+00 0.000000e+00 0.000000e+00 0.000000e+00 0.000000e+00 0.000000e+00 0.000000e+00 0.000000e+00 0.000000e+00 0.000000e+00 0.000000e+00 0.000000e+00 0.000000e+00 0.000000e+00 0.000000e+00 0.000000e+00 0.000000e+00
<ENDHMM>
