~o
<STREAMINFO> 1 42
<VECSIZE> 42<NULLD><USER><DIAGC>
~h "PACIENTE"
<BEGINHMM>
<NUMSTATES> 45
<STATE> 2
<NUMMIXES> 4
<MIXTURE> 1 1.826844e-01
<MEAN> 42
 4.114726e-02 6.163419e-02 1.973608e-02 -2.807273e-02 1.522291e-02 4.548793e-02 7.094215e-03 5.341995e-02 8.494207e-02 7.258546e-02 7.867467e-02 6.090636e-02 8.642731e-04 2.521774e-03 3.103219e-03 6.898994e-04 2.150288e-04 2.680777e-03 1.682448e-03 3.404156e-03 3.351655e-03 2.935527e-03 2.842543e-03 2.193430e-03 2.935777e-04 1.029204e-03 1.636383e-03 5.571438e-04 1.332476e-04 1.261166e-03 8.808638e-04 1.871472e-03 1.661470e-03 1.283382e-03 1.182670e-03 9.302558e-04 2.152161e-03 3.280014e-03 1.269957e-03 5.985955e-02 4.259917e-02 3.851370e-03
<VARIANCE> 42
 3.230024e-03 3.652827e-03 1.606783e-03 2.875760e-03 1.444559e-03 2.026644e-03 3.090039e-03 1.719004e-02 1.728145e-02 8.854854e-03 7.163374e-03 5.227844e-03 4.117114e-05 4.459899e-05 5.620223e-05 2.882673e-05 3.769578e-05 4.051772e-05 4.473490e-05 1.465298e-04 1.217183e-04 6.968946e-05 7.044430e-05 5.651986e-05 1.231494e-05 1.133898e-05 1.911830e-05 7.055005e-06 1.296335e-05 1.226640e-05 8.971202e-06 4.342557e-05 2.651550e-05 1.598677e-05 1.736031e-05 1.290162e-05 7.386530e-05 2.226993e-04 1.873640e-04 4.683109e-03 1.934450e-03 5.666604e-03
<GCONST> -2.821673e+02
<MIXTURE> 2 3.173152e-01
<MEAN> 42
 -8.085706e-03 -1.101315e-02 -1.091364e-02 2.259418e-02 5.496383e-03 -4.059880e-03 2.458393e-02 2.508376e-02 -7.662200e-03 -2.033391e-02 -1.109800e-02 -1.307713e-02 9.347043e-04 -9.462022e-05 -1.048355e-04 1.061559e-03 1.289571e-03 -2.185752e-04 4.193300e-04 1.010680e-03 5.608947e-04 3.436722e-04 3.015820e-05 8.351100e-05 7.488006e-04 2.713744e-04 1.326798e-04 3.888637e-04 8.230449e-04 1.369060e-04 2.554972e-04 7.212680e-04 5.205154e-04 4.723991e-04 4.035729e-04 3.649397e-04 5.228019e-03 2.377556e-03 5.286956e-03 -1.579392e-02 -5.979375e-03 1.793617e-03
<VARIANCE> 42
 7.762057e-04 1.489647e-03 1.553013e-03 8.034451e-04 6.382919e-04 1.216018e-03 2.049025e-03 4.544007e-03 5.156216e-03 6.870395e-03 5.149452e-03 2.506873e-03 1.755851e-05 1.460098e-05 1.807897e-05 1.157146e-05 1.460005e-05 1.209207e-05 9.511436e-06 7.374013e-05 5.607894e-05 4.065752e-05 2.234718e-05 1.309048e-05 6.676398e-06 5.512679e-06 7.886152e-06 4.118486e-06 6.052409e-06 5.090971e-06 4.071238e-06 2.601508e-05 1.929183e-05 1.396994e-05 9.208368e-06 6.053235e-06 1.185795e-04 4.618135e-05 1.154808e-04 3.280295e-03 8.632855e-04 1.335260e-03
<GCONST> -3.154662e+02
<MIXTURE> 3 3.173152e-01
<MEAN> 42
 -1.922989e-02 -2.645153e-02 -2.667696e-02 1.125614e-02 -4.609392e-03 -1.800846e-02 6.477469e-03 -1.879941e-03 -3.638492e-02 -5.348905e-02 -3.980188e-02 -3.310461e-02 -7.414108e-04 -1.623069e-03 -1.805610e-03 -2.991150e-04 -2.388294e-04 -1.609521e-03 -8.142946e-04 -2.424202e-03 -2.434540e-03 -2.206858e-03 -1.860754e-03 -1.363720e-03 -2.847484e-04 -6.677894e-04 -9.906120e-04 -4.228984e-04 -1.610209e-04 -7.656212e-04 -5.515952e-04 -1.318931e-03 -1.236383e-03 -1.022656e-03 -8.102389e-04 -6.191933e-04 8.722506e-04 -3.407182e-04 9.884762e-04 -3.870346e-02 -1.773206e-02 -1.282287e-02
<VARIANCE> 42
 7.762057e-04 1.489647e-03 1.553013e-03 8.034451e-04 6.382919e-04 1.216018e-03 2.049025e-03 4.544007e-03 5.156216e-03 6.870395e-03 5.149452e-03 2.506873e-03 1.755851e-05 1.460098e-05 1.807897e-05 1.157146e-05 1.460005e-05 1.209207e-05 9.511436e-06 7.374013e-05 5.607894e-05 4.065752e-05 2.234718e-05 1.309048e-05 6.676398e-06 5.512679e-06 7.886152e-06 4.118486e-06 6.052409e-06 5.090971e-06 4.071238e-06 2.601508e-05 1.929183e-05 1.396994e-05 9.208368e-06 6.053235e-06 1.185795e-04 4.618135e-05 1.154808e-04 3.280295e-03 8.632855e-04 1.335260e-03
<GCONST> -3.154662e+02
<MIXTURE> 4 1.826844e-01
<MEAN> 42
 1.841394e-02 3.745874e-02 3.702201e-03 -4.952317e-02 1.996569e-05 2.748062e-02 -1.514103e-02 9.756312e-04 3.235850e-02 3.494536e-02 4.481999e-02 3.198482e-02 -1.702317e-03 -1.495245e-04 1.044930e-04 -1.457722e-03 -2.240847e-03 1.346354e-04 -9.929177e-04 -1.437824e-03 -1.061385e-03 -4.036812e-04 -5.147011e-04 -8.137578e-04 -1.110128e-03 -3.177325e-04 -1.125958e-04 -5.053065e-04 -1.306939e-03 -1.397710e-04 -3.172149e-04 -7.644516e-04 -3.982581e-04 -3.159566e-04 -4.839580e-04 -5.064972e-04 -1.285636e-03 -2.689231e-03 -4.205281e-03 3.248625e-02 2.500622e-02 -2.625937e-02
<VARIANCE> 42
 3.230024e-03 3.652827e-03 1.606783e-03 2.875760e-03 1.444559e-03 2.026644e-03 3.090039e-03 1.719004e-02 1.728145e-02 8.854854e-03 7.163374e-03 5.227844e-03 4.117114e-05 4.459899e-05 5.620223e-05 2.882673e-05 3.769578e-05 4.051772e-05 4.473490e-05 1.465298e-04 1.217183e-04 6.968946e-05 7.044430e-05 5.651986e-05 1.231494e-05 1.133898e-05 1.911830e-05 7.055005e-06 1.296335e-05 1.226640e-05 8.971202e-06 4.342557e-05 2.651550e-05 1.598677e-05 1.736031e-05 1.290162e-05 7.386530e-05 2.226993e-04 1.873640e-04 4.683109e-03 1.934450e-03 5.666604e-03
<GCONST> -2.821673e+02
<STATE> 3
<NUMMIXES> 4
<MIXTURE> 1 3.038425e-01
<MEAN> 42
 3.980006e-02 2.283879e-02 6.854375e-03 -1.740443e-02 2.907285e-02 1.060921e-02 1.675928e-02 5.470049e-03 2.729016e-02 4.022328e-02 2.767847e-02 1.441685e-02 1.886043e-03 3.820426e-03 4.912794e-03 7.790512e-04 5.793341e-04 4.017268e-03 3.027040e-03 3.735167e-03 3.039394e-03 3.095755e-03 2.951405e-03 2.960846e-03 5.798123e-05 1.879658e-03 3.620877e-03 1.223227e-03 -5.467189e-04 2.520596e-03 1.675695e-03 1.989177e-03 1.534203e-03 1.654446e-03 1.432715e-03 1.384941e-03 5.589855e-03 6.350666e-03 3.561920e-03 2.556867e-02 1.160308e-02 1.084024e-03
<VARIANCE> 42
 3.205469e-03 2.861917e-03 2.975797e-03 2.276448e-03 2.390587e-03 2.168598e-03 3.110883e-03 1.613301e-03 1.987424e-03 2.498445e-03 1.912945e-03 2.318478e-03 1.368831e-04 6.380071e-05 1.251532e-04 6.918364e-05 1.158775e-04 6.037560e-05 4.441776e-05 7.374013e-05 4.166836e-05 4.065752e-05 3.890881e-05 4.613338e-05 5.050499e-05 2.209159e-05 4.354855e-05 2.545560e-05 4.164851e-05 2.029967e-05 1.149870e-05 2.601508e-05 8.322444e-06 1.211414e-05 7.276661e-06 7.960835e-06 8.335979e-05 2.117843e-04 8.774055e-05 1.348678e-03 1.822511e-03 5.230873e-04
<GCONST> -2.893019e+02
<MIXTURE> 2 1.961571e-01
<MEAN> 42
 8.929148e-03 -1.434103e-02 1.388030e-02 2.098000e-02 1.723410e-02 -5.542733e-03 2.052952e-02 7.399157e-03 2.346825e-02 2.151279e-02 1.821142e-02 4.424911e-03 4.459392e-03 -1.622008e-03 -3.794197e-04 4.115060e-03 6.058669e-03 -1.649396e-03 9.209258e-04 4.707521e-04 -6.106985e-04 -7.232188e-04 -2.149155e-04 4.937307e-04 3.605028e-03 -4.724864e-04 -2.288585e-03 8.308485e-04 4.248818e-03 -1.614322e-03 -4.082922e-04 -9.159406e-05 -6.040113e-04 -7.310719e-04 -5.255991e-04 -2.732554e-04 3.434476e-03 -8.490796e-04 7.958794e-03 1.385419e-02 -1.241878e-02 5.717296e-03
<VARIANCE> 42
 7.704098e-03 2.416108e-03 7.471295e-03 3.195302e-03 7.040243e-03 3.042304e-03 7.274981e-03 7.547589e-03 3.122379e-03 3.129569e-03 3.760225e-03 6.074028e-03 3.950392e-04 1.021918e-04 3.510698e-04 1.607361e-04 3.494688e-04 1.282816e-04 2.243382e-04 2.640479e-04 1.094442e-04 8.308351e-05 1.282311e-04 2.107830e-04 5.529867e-05 3.027523e-05 4.887614e-05 3.057084e-05 4.464333e-05 2.587417e-05 3.049838e-05 4.608685e-05 1.933232e-05 1.496576e-05 1.831904e-05 2.443901e-05 2.965696e-04 1.440676e-04 3.654244e-04 3.408393e-03 1.805570e-03 2.823638e-03
<GCONST> -2.580803e+02
<MIXTURE> 3 3.038425e-01
<MEAN> 42
 1.715332e-02 1.440032e-03 -1.496597e-02 -3.648929e-02 9.515404e-03 -8.018069e-03 -5.550839e-03 -1.059632e-02 9.457943e-03 2.022950e-02 1.018357e-02 -4.843386e-03 -2.793839e-03 6.254120e-04 4.379184e-04 -2.548017e-03 -3.726522e-03 9.091982e-04 3.611739e-04 3.002845e-04 4.573523e-04 5.452250e-04 4.563285e-04 2.439838e-04 -2.784693e-03 -4.100148e-07 9.812246e-04 -7.949146e-04 -3.128145e-03 7.183899e-04 3.193059e-04 -5.102169e-05 3.802571e-04 2.622312e-04 3.537030e-04 2.563429e-04 1.937791e-03 5.295419e-04 -1.848765e-04 1.087893e-02 -5.473276e-03 -8.064416e-03
<VARIANCE> 42
 3.205469e-03 2.861917e-03 2.975797e-03 2.276448e-03 2.390587e-03 2.168598e-03 3.110883e-03 1.613301e-03 1.987424e-03 2.498445e-03 1.912945e-03 2.318478e-03 1.368831e-04 6.380071e-05 1.251532e-04 6.918364e-05 1.158775e-04 6.037560e-05 4.441776e-05 7.374013e-05 4.166836e-05 4.065752e-05 3.890881e-05 4.613338e-05 5.050499e-05 2.209159e-05 4.354855e-05 2.545560e-05 4.164851e-05 2.029967e-05 1.149870e-05 2.601508e-05 8.322444e-06 1.211414e-05 7.276661e-06 7.960835e-06 8.335979e-05 2.117843e-04 8.774055e-05 1.348678e-03 1.822511e-03 5.230873e-04
<GCONST> -2.893019e+02
<MIXTURE> 4 1.961571e-01
<MEAN> 42
 -2.618005e-02 -3.400259e-02 -2.069437e-02 -1.630803e-03 -1.632836e-02 -2.760557e-02 -1.358788e-02 -2.735159e-02 1.116950e-03 -8.642310e-04 -6.316853e-03 -2.674951e-02 -3.490845e-03 -5.665606e-03 -7.874162e-03 -9.562100e-04 -1.418965e-03 -6.179855e-03 -5.070244e-03 -6.029068e-03 -4.795322e-03 -4.369225e-03 -4.744482e-03 -5.313616e-03 6.305046e-04 -2.673404e-03 -5.085044e-03 -1.380788e-03 1.576192e-03 -3.648988e-03 -2.617306e-03 -2.807086e-03 -2.362753e-03 -2.278496e-03 -2.237629e-03 -2.250689e-03 -3.454003e-03 -5.650206e-03 3.123623e-04 -9.498386e-03 -2.941558e-02 -1.553787e-02
<VARIANCE> 42
 7.704098e-03 2.416108e-03 7.471295e-03 3.195302e-03 7.040243e-03 3.042304e-03 7.274981e-03 7.547589e-03 3.122379e-03 3.129569e-03 3.760225e-03 6.074028e-03 3.950392e-04 1.021918e-04 3.510698e-04 1.607361e-04 3.494688e-04 1.282816e-04 2.243382e-04 2.640479e-04 1.094442e-04 8.308351e-05 1.282311e-04 2.107830e-04 5.529867e-05 3.027523e-05 4.887614e-05 3.057084e-05 4.464333e-05 2.587417e-05 3.049838e-05 4.608685e-05 1.933232e-05 1.496576e-05 1.831904e-05 2.443901e-05 2.965696e-04 1.440676e-04 3.654244e-04 3.408393e-03 1.805570e-03 2.823638e-03
<GCONST> -2.580803e+02
<STATE> 4
<NUMMIXES> 4
<MIXTURE> 1 4.250529e-01
<MEAN> 42
 1.261945e-02 1.144345e-02 7.738587e-03 3.562550e-03 1.123158e-02 8.683631e-03 1.826680e-02 4.189256e-02 3.594724e-02 3.666745e-02 1.991115e-02 1.083256e-02 9.915121e-04 9.553152e-04 9.845116e-04 7.748420e-04 8.078641e-04 8.227213e-04 8.403148e-04 2.067903e-03 1.192170e-03 1.533915e-03 1.031393e-03 7.344596e-04 5.501867e-04 4.573707e-04 5.075242e-04 4.563329e-04 4.614754e-04 3.897660e-04 2.821924e-04 1.034991e-03 3.742150e-04 7.515227e-04 4.593763e-04 3.293364e-04 1.863786e-03 1.047587e-03 2.645939e-03 1.545242e-02 6.442385e-03 -1.069872e-03
<VARIANCE> 42
 1.660527e-03 1.664012e-03 1.255065e-03 1.337326e-03 1.066698e-03 1.045175e-03 2.301475e-03 1.516377e-02 5.808117e-03 1.349999e-02 2.928586e-03 1.191157e-03 2.447215e-05 1.910618e-05 2.054137e-05 1.663461e-05 1.791175e-05 1.380010e-05 1.162742e-05 7.374013e-05 2.237788e-05 4.065752e-05 2.005417e-05 1.036998e-05 8.029330e-06 5.097358e-06 5.902460e-06 5.084263e-06 5.771622e-06 3.537172e-06 1.836950e-06 2.601508e-05 2.772518e-06 1.211414e-05 4.228455e-06 2.340443e-06 4.338634e-05 3.257269e-05 7.308155e-05 2.022533e-03 9.940950e-04 2.942964e-03
<GCONST> -3.191156e+02
<MIXTURE> 2 7.495625e-02
<MEAN> 42
 7.259274e-02 -7.949946e-03 -2.904844e-02 2.465005e-02 8.881457e-02 -2.385398e-02 -5.300831e-03 1.489383e-01 6.386749e-02 1.193760e-01 1.248525e-01 1.060847e-01 6.554650e-03 4.538468e-03 6.413203e-03 4.718970e-03 6.303877e-03 4.556381e-03 6.577375e-03 1.202096e-02 7.984769e-03 8.200757e-03 9.630822e-03 7.670354e-03 2.032517e-03 1.701031e-03 2.333484e-03 1.334376e-03 2.066716e-03 1.801221e-03 2.068286e-03 3.858878e-03 2.361957e-03 2.075809e-03 2.706925e-03 2.058269e-03 1.362131e-02 1.889100e-02 1.801535e-02 1.044885e-01 -1.163397e-02 1.185976e-01
<VARIANCE> 42
 3.622564e-02 1.463463e-02 3.114210e-02 1.756877e-02 3.019989e-02 1.394104e-02 7.103413e-02 1.024258e+00 1.881717e-01 1.350672e-01 1.539263e-01 6.775109e-02 1.061150e-03 5.666607e-04 1.112711e-03 5.359539e-04 9.465246e-04 5.750050e-04 1.419058e-03 4.570535e-03 2.406678e-03 2.175170e-03 2.814255e-03 1.725311e-03 9.613433e-05 6.999183e-05 1.409415e-04 4.787768e-05 1.010957e-04 8.147295e-05 1.139090e-04 3.999909e-04 1.729692e-04 1.489565e-04 2.319361e-04 1.278032e-04 1.508238e-03 1.076008e-03 1.129261e-03 7.665552e-02 1.115993e-02 1.599694e-01
<GCONST> -1.728855e+02
<MIXTURE> 3 4.250529e-01
<MEAN> 42
 -3.680374e-03 -4.873470e-03 -6.432172e-03 -1.106524e-02 -1.832555e-03 -4.248036e-03 -9.226818e-04 -7.363942e-03 5.462840e-03 -9.808332e-03 -1.735419e-03 -2.972696e-03 -9.872613e-04 -7.931095e-04 -8.283920e-04 -8.565799e-04 -8.850270e-04 -6.632181e-04 -5.236453e-04 -1.366980e-03 -7.000410e-04 -1.016615e-03 -7.598823e-04 -5.536386e-04 -5.832562e-04 -4.457225e-04 -4.642749e-04 -4.455995e-04 -4.994926e-04 -3.625288e-04 -2.599442e-04 -1.005208e-03 -2.918203e-04 -6.406922e-04 -3.631520e-04 -2.826038e-04 -7.709466e-04 -1.235312e-03 -7.735710e-04 -2.536614e-03 -6.169323e-03 -2.276951e-02
<VARIANCE> 42
 1.660527e-03 1.664012e-03 1.255065e-03 1.337326e-03 1.066698e-03 1.045175e-03 2.301475e-03 1.516377e-02 5.808117e-03 1.349999e-02 2.928586e-03 1.191157e-03 2.447215e-05 1.910618e-05 2.054137e-05 1.663461e-05 1.791175e-05 1.380010e-05 1.162742e-05 7.374013e-05 2.237788e-05 4.065752e-05 2.005417e-05 1.036998e-05 8.029330e-06 5.097358e-06 5.902460e-06 5.084263e-06 5.771622e-06 3.537172e-06 1.836950e-06 2.601508e-05 2.772518e-06 1.211414e-05 4.228455e-06 2.340443e-06 4.338634e-05 3.257269e-05 7.308155e-05 2.022533e-03 9.940950e-04 2.942964e-03
<GCONST> -3.191156e+02
<MIXTURE> 4 7.495625e-02
<MEAN> 42
 -3.539402e-03 -5.633941e-02 -9.963694e-02 -2.836885e-02 1.930211e-02 -7.108286e-02 -1.119097e-01 -2.558842e-01 -1.096476e-01 -2.762992e-02 -3.208128e-02 1.968522e-03 -6.475470e-03 -4.983387e-03 -6.929727e-03 -4.541302e-03 -6.002380e-03 -5.035324e-03 -8.490780e-03 -1.502133e-02 -1.163839e-02 -1.045473e-02 -1.158900e-02 -8.944392e-03 -1.889407e-03 -1.645414e-03 -2.415268e-03 -1.433372e-03 -1.955138e-03 -1.809274e-03 -2.200841e-03 -4.141031e-03 -2.898753e-03 -2.806100e-03 -3.384854e-03 -2.463734e-03 -1.913106e-03 5.769978e-03 4.573554e-03 -6.258406e-03 -5.389019e-02 -4.138711e-02
<VARIANCE> 42
 3.622564e-02 1.463463e-02 3.114210e-02 1.756877e-02 3.019989e-02 1.394104e-02 7.103413e-02 1.024258e+00 1.881717e-01 1.350672e-01 1.539263e-01 6.775109e-02 1.061150e-03 5.666607e-04 1.112711e-03 5.359539e-04 9.465246e-04 5.750050e-04 1.419058e-03 4.570535e-03 2.406678e-03 2.175170e-03 2.814255e-03 1.725311e-03 9.613433e-05 6.999183e-05 1.409415e-04 4.787768e-05 1.010957e-04 8.147295e-05 1.139090e-04 3.999909e-04 1.729692e-04 1.489565e-04 2.319361e-04 1.278032e-04 1.508238e-03 1.076008e-03 1.129261e-03 7.665552e-02 1.115993e-02 1.599694e-01
<GCONST> -1.728855e+02
<STATE> 5
<MEAN> 42
 -2.036438e-02 -4.103161e-02 -1.674112e-02 3.113965e-02 -1.882288e-03 -2.697249e-02 1.265525e-02 3.173631e-02 -2.871547e-05 -1.448574e-02 -3.371515e-02 -3.363965e-02 -1.201448e-03 -5.251604e-03 -4.067610e-03 3.230780e-03 1.428549e-03 -4.676222e-03 7.559588e-03 1.352532e-02 9.634013e-03 4.428171e-03 2.152266e-04 -2.212798e-03 -3.344132e-05 9.720179e-05 1.477974e-04 -3.984096e-05 -9.337260e-05 1.338279e-04 1.606009e-03 3.891805e-03 4.449011e-03 3.811680e-03 1.940229e-03 8.121112e-04 -1.338955e-03 -1.826428e-03 3.126487e-03 -2.522532e-02 -3.432930e-02 -2.193727e-02
<VARIANCE> 42
 1.092594e-03 1.809222e-03 2.483378e-03 6.978108e-04 1.441534e-03 1.903062e-03 7.083686e-03 3.732002e-03 4.178884e-03 1.851900e-02 2.465017e-03 1.627509e-03 9.603401e-05 1.380860e-04 2.055192e-04 6.535432e-05 1.167495e-04 1.485248e-04 1.116605e-04 2.577541e-04 3.783951e-04 5.389646e-04 2.609525e-04 1.901370e-04 3.169848e-05 4.191737e-05 5.567793e-05 2.303020e-05 3.318999e-05 4.066549e-05 1.782028e-05 4.570661e-05 7.788018e-05 1.367554e-04 6.494799e-05 4.132793e-05 2.914654e-05 6.106384e-05 1.236763e-04 2.144162e-03 1.677376e-03 1.463250e-03
<GCONST> -2.667376e+02
<STATE> 6
<MEAN> 42
 1.510704e-02 1.576266e-02 4.209459e-03 -1.455795e-02 1.293280e-02 1.084243e-02 1.923405e-04 -3.125588e-02 -2.845362e-02 1.784158e-02 3.904368e-02 3.642014e-02 2.539850e-04 1.097529e-03 8.380157e-04 -6.770100e-04 -2.962857e-04 9.812992e-04 2.094350e-04 1.271947e-03 2.429677e-03 2.262342e-03 1.383276e-03 8.779849e-04 4.724014e-05 1.325520e-04 8.473890e-05 -8.944352e-05 -1.790759e-05 1.101340e-04 1.212691e-06 4.332834e-05 1.954683e-04 2.274085e-04 1.133195e-04 8.319984e-05 3.330439e-03 -9.762502e-04 -2.467322e-03 2.152601e-02 1.712971e-02 2.354193e-02
<VARIANCE> 42
 2.380550e-02 2.628017e-01 3.780311e-01 4.887171e-02 1.360539e-01 3.147660e-01 3.881910e-02 1.109296e-01 2.858717e-01 3.240200e-01 2.409452e-01 1.537589e-01 1.551105e-04 6.157722e-04 9.705959e-04 1.435176e-04 4.091753e-04 7.545845e-04 1.748074e-04 4.413039e-04 8.847326e-04 8.673645e-04 7.339463e-04 5.672295e-04 2.629991e-05 2.952999e-05 4.511452e-05 1.681886e-05 2.811927e-05 3.118814e-05 1.592486e-05 2.601508e-05 3.348132e-05 2.981472e-05 3.139373e-05 3.049850e-05 5.698646e-04 1.382888e-03 1.152865e-03 1.246142e-01 2.096453e-01 5.852131e-02
<GCONST> -1.914674e+02
<STATE> 7
<MEAN> 42
 3.336168e-03 -9.644957e-03 -1.043798e-02 4.506777e-03 1.427752e-02 -9.069762e-03 1.198829e-03 -8.855036e-03 -1.888192e-02 -1.294648e-02 -1.928559e-03 -6.050635e-03 -1.315172e-04 -4.050315e-04 -2.734712e-04 2.679838e-04 7.379401e-05 -3.412065e-04 1.288628e-04 5.127671e-04 4.434790e-04 3.292827e-04 4.174013e-05 -1.600360e-04 4.461067e-05 2.069486e-05 -2.393015e-05 -3.349853e-05 3.394557e-05 -2.281668e-06 1.765330e-05 7.270899e-05 9.692290e-05 1.215022e-04 1.022740e-04 9.017847e-05 8.550660e-04 5.085028e-04 1.154018e-04 -5.862944e-03 -7.159030e-03 6.261233e-03
<VARIANCE> 42
 9.814070e-03 8.090679e-03 9.338037e-03 6.527675e-03 7.567799e-03 6.248922e-03 2.537338e-02 8.432581e-02 6.837081e-02 1.275753e-02 4.338321e-03 1.275901e-02 2.139664e-04 1.104468e-04 1.642654e-04 1.211848e-04 1.622847e-04 8.378649e-05 2.274232e-04 4.620017e-04 3.864192e-04 1.022256e-04 8.252254e-05 1.402582e-04 2.798962e-05 1.945310e-05 3.257220e-05 1.558711e-05 2.548194e-05 1.889818e-05 1.342481e-05 2.601508e-05 1.486508e-05 1.423141e-05 1.461987e-05 1.280317e-05 8.157296e-05 1.203012e-04 1.133765e-04 3.321895e-03 7.484128e-03 4.299450e-02
<GCONST> -2.516146e+02
<STATE> 8
<MEAN> 42
 3.083722e-02 3.050218e-02 1.031738e-02 -3.082088e-02 1.379376e-02 2.111916e-02 -1.470187e-02 -1.642943e-02 -1.346978e-02 -2.866875e-02 8.674601e-02 9.813002e-02 5.232387e-04 1.098471e-03 5.746698e-04 -8.110446e-04 -2.074579e-05 8.447429e-04 -1.498550e-05 3.504527e-04 1.465818e-03 8.336334e-04 3.006490e-03 2.190559e-03 3.246904e-04 1.218984e-04 -2.034406e-04 -2.224481e-04 2.654761e-04 -3.984463e-05 -2.070122e-04 -9.920966e-05 -4.640012e-05 3.650917e-04 4.338151e-04 3.777064e-04 1.863540e-03 1.542743e-04 -1.494994e-03 3.975385e-02 2.985479e-02 3.273833e-02
<VARIANCE> 42
 7.097475e-02 1.414837e-01 2.895305e-01 3.419380e-02 1.450180e-01 1.977917e-01 5.496642e-02 9.322445e-02 1.448847e-01 7.455038e-01 2.617646e-01 2.159677e-01 3.580180e-04 4.344188e-04 7.719045e-04 2.033789e-04 4.579753e-04 5.128267e-04 3.062301e-04 7.966227e-04 1.137879e-03 3.704928e-03 1.710223e-03 1.271049e-03 4.660960e-05 3.047463e-05 5.032752e-05 2.600817e-05 4.102172e-05 2.857564e-05 2.044702e-05 4.522856e-05 6.318728e-05 3.319615e-04 8.992532e-05 6.975872e-05 1.279134e-03 5.656758e-04 1.120435e-03 1.613062e-01 1.344618e-01 5.350844e-02
<GCONST> -1.796499e+02
<STATE> 9
<MEAN> 42
 2.328554e-01 2.323555e-01 1.816832e-03 -2.319936e-01 1.171816e-01 1.196868e-01 -2.952828e-01 -2.784532e-01 1.005533e-01 5.257121e-01 5.389617e-01 4.569790e-01 -2.119327e-03 1.119420e-03 3.271373e-03 5.056820e-04 -2.725533e-03 2.196446e-03 -1.771245e-02 -3.345585e-02 -3.441971e-02 -2.201400e-02 -1.286740e-02 -4.642342e-03 -1.855626e-03 -1.969084e-03 -1.091260e-04 1.916445e-03 -8.820401e-04 -1.046156e-03 1.510849e-03 7.221121e-04 -1.893308e-03 -5.467620e-03 -4.817799e-03 -3.886176e-03 3.745908e-02 2.297295e-02 1.137286e-02 4.565690e-01 1.635091e-01 2.039042e-01
<VARIANCE> 42
 8.508646e-02 1.353812e-01 1.474686e-01 7.329581e-02 8.309919e-02 1.213151e-01 1.282713e-01 4.747255e-01 5.363513e-01 4.696192e-01 3.540791e-01 2.464200e-01 4.528439e-03 5.863010e-03 4.476720e-03 4.078396e-03 3.044832e-03 4.045123e-03 4.155491e-03 9.923754e-03 1.586007e-02 2.716880e-02 2.160987e-02 1.457728e-02 4.537917e-04 6.446658e-04 5.985046e-04 3.997032e-04 3.659702e-04 5.090832e-04 4.022478e-04 9.475866e-04 1.737183e-03 3.068151e-03 2.025838e-03 1.251131e-03 1.662576e-03 2.166988e-03 1.438469e-03 2.127320e-01 1.020999e-01 1.988700e-01
<GCONST> -1.117911e+02
<STATE> 10
<MEAN> 42
 -6.486640e-02 -4.726712e-02 1.665711e-02 5.649288e-02 -4.083555e-02 -1.272035e-02 -1.589702e-01 -3.368691e-01 -3.639854e-01 -4.031850e-01 -1.530029e-01 -9.167388e-02 -2.052907e-03 -7.169345e-03 -5.135109e-03 4.611179e-03 1.561526e-03 -6.191992e-03 1.971190e-02 3.259552e-02 2.852558e-02 7.773162e-03 -8.236608e-04 -6.334380e-03 3.268265e-03 3.887753e-03 6.025746e-04 -3.586728e-03 1.337935e-03 2.249426e-03 -9.960912e-04 2.505322e-03 7.911645e-03 1.240903e-02 1.062630e-02 8.057725e-03 -9.707161e-03 2.064222e-02 1.249621e-02 -1.492694e-01 6.917038e-03 2.312100e-01
<VARIANCE> 42
 1.367409e-02 2.999823e-02 2.452967e-02 1.536978e-02 1.215598e-02 2.448095e-02 2.243786e-02 7.521529e-02 1.225715e-01 1.906944e-01 5.587400e-02 4.697908e-02 3.668115e-04 7.001724e-04 6.720706e-04 3.667909e-04 3.428613e-04 5.977628e-04 7.930225e-04 3.025779e-03 3.718587e-03 2.631200e-03 1.573150e-03 1.223193e-03 7.021170e-05 9.408573e-05 7.918593e-05 6.312878e-05 5.129803e-05 6.934968e-05 6.162169e-05 2.458649e-04 4.696368e-04 7.012085e-04 4.497168e-04 2.730496e-04 7.000096e-04 1.288119e-03 9.718825e-04 3.365770e-02 2.036768e-02 3.149123e-02
<GCONST> -1.839679e+02
<STATE> 11
<MEAN> 42
 -5.089310e-02 -3.244425e-02 1.962553e-02 4.175492e-02 -3.490518e-02 -4.589204e-03 -5.633130e-02 -1.320826e-01 -1.713481e-01 -1.271075e-01 -8.721076e-02 -7.691408e-02 6.987044e-03 6.497423e-03 -4.744669e-04 -6.760172e-03 3.759500e-03 3.045470e-03 1.782675e-02 3.790375e-02 4.194473e-02 3.043509e-02 2.272345e-02 1.358717e-02 -6.499750e-04 3.223890e-04 9.853470e-04 1.632835e-04 -8.267821e-04 6.560360e-04 -2.550077e-03 -6.337503e-03 -5.319268e-03 -2.583274e-03 -1.674126e-03 -4.874102e-04 -3.624592e-03 8.164970e-03 1.027899e-02 -7.418299e-02 -4.234996e-03 8.647242e-02
<VARIANCE> 42
 3.234688e-03 5.468384e-03 6.757052e-03 2.619157e-03 3.752170e-03 5.425441e-03 7.526054e-03 2.030416e-02 2.546394e-02 2.091946e-02 1.524061e-02 1.243494e-02 2.200304e-04 1.684552e-04 3.311811e-04 1.119662e-04 2.370731e-04 1.966410e-04 3.002432e-04 7.369310e-04 6.303665e-04 4.706779e-04 3.666304e-04 2.676313e-04 3.582205e-05 4.001890e-05 6.021236e-05 2.307835e-05 3.848315e-05 4.161715e-05 2.906146e-05 6.955324e-05 7.371863e-05 1.009377e-04 7.707999e-05 5.677964e-05 1.040335e-04 4.020729e-04 4.814093e-04 7.774040e-03 4.209539e-03 7.265890e-03
<GCONST> -2.368572e+02
<STATE> 12
<MEAN> 42
 3.900265e-02 2.746185e-02 -7.505536e-03 -3.803939e-02 2.275996e-02 1.148680e-02 -9.280314e-03 3.647416e-02 6.065477e-02 5.389038e-02 5.739895e-02 5.376276e-02 -1.119000e-04 -1.374398e-04 -2.521741e-05 1.248530e-04 -4.434864e-05 -8.255922e-05 2.990344e-04 7.491210e-05 -1.782427e-04 -3.696134e-04 -3.567683e-04 -2.063476e-04 -4.679578e-06 -2.367856e-05 -1.895683e-05 1.427963e-05 7.424258e-06 -2.135064e-05 -3.187497e-05 -3.398019e-05 -5.167900e-05 -6.483126e-05 -5.237875e-05 -2.800809e-05 3.712926e-03 7.862548e-04 6.522493e-03 4.870386e-02 1.160200e-02 -1.487546e-02
<VARIANCE> 42
 1.043219e-02 1.149980e-02 1.643214e-03 1.057806e-02 3.161114e-03 3.976590e-03 1.274132e-02 3.518793e-02 1.162740e-01 5.883431e-02 3.650145e-02 2.968122e-02 3.685336e-04 3.610066e-04 4.242574e-05 3.541523e-04 1.151551e-04 1.096962e-04 3.127511e-04 7.118125e-04 4.016560e-03 2.204522e-03 1.283168e-03 9.282416e-04 3.961055e-05 3.442021e-05 1.179782e-05 3.406082e-05 1.710175e-05 1.329231e-05 3.368669e-05 5.407914e-05 3.287653e-04 1.742807e-04 9.803485e-05 7.156543e-05 2.090286e-04 2.120259e-04 1.359094e-04 3.344361e-02 3.841034e-03 2.183872e-02
<GCONST> -2.246761e+02
<STATE> 13
<MEAN> 42
 1.115053e-02 1.147584e-03 -4.808031e-03 -3.735197e-03 9.288827e-03 -2.450320e-03 4.704896e-02 1.302696e-01 1.147558e-01 1.003051e-01 5.391143e-02 1.003233e-02 2.725531e-04 2.004102e-04 -7.320145e-05 -2.361072e-04 1.719410e-04 6.722580e-05 1.843743e-04 8.976723e-04 8.840149e-04 9.366228e-04 3.550613e-04 3.512215e-04 9.465016e-06 1.566365e-05 5.357605e-06 -1.263910e-05 2.293485e-06 1.145953e-05 -8.669183e-05 -1.740759e-04 -1.509123e-04 -9.999932e-05 -6.135926e-05 -3.356412e-05 3.261418e-03 1.510164e-04 2.004203e-03 3.599737e-02 -1.298552e-02 -8.129604e-02
<VARIANCE> 42
 2.914620e-03 8.106890e-03 6.484279e-03 3.955379e-03 2.624232e-03 6.678101e-03 1.138674e-02 4.399901e-02 3.879620e-02 4.987563e-02 2.277192e-02 1.215141e-02 5.365831e-05 1.006434e-04 1.085588e-04 4.953830e-05 5.635899e-05 9.211862e-05 2.566928e-04 3.781391e-04 2.140826e-04 1.847473e-04 1.814672e-04 1.354147e-04 1.463401e-05 1.910437e-05 2.273686e-05 1.107936e-05 1.403222e-05 1.739221e-05 2.564387e-05 3.514297e-05 1.979820e-05 1.548984e-05 1.509397e-05 1.464336e-05 1.476377e-04 2.193882e-04 2.572845e-04 1.437505e-02 5.921421e-03 1.480929e-02
<GCONST> -2.551867e+02
<STATE> 14
<MEAN> 42
 7.555236e-03 1.544431e-03 -5.078731e-03 -5.032991e-03 7.602411e-03 3.717956e-04 8.288959e-03 1.321188e-02 1.325081e-02 3.223607e-03 8.025527e-03 1.256035e-02 -2.313355e-05 -9.189241e-05 -6.973051e-05 5.727115e-05 2.366740e-05 -8.140213e-05 -1.108453e-05 -1.053389e-04 -1.243386e-04 -9.232571e-05 -9.970784e-05 -4.475987e-05 -1.021425e-05 -9.396197e-07 9.251798e-06 5.488969e-06 -9.616964e-06 4.312655e-06 9.738569e-06 2.150841e-05 1.074521e-05 6.779611e-06 4.217131e-06 -9.113000e-07 1.062464e-03 -4.217458e-04 2.062881e-04 5.475837e-03 -6.672500e-04 -7.334967e-03
<VARIANCE> 42
 1.257404e-03 2.037511e-03 1.407061e-03 1.292861e-03 8.923741e-04 1.417898e-03 2.683928e-03 3.726731e-03 5.595570e-03 3.694412e-03 2.967651e-03 2.947587e-03 3.949777e-05 3.375835e-05 4.609114e-05 2.526089e-05 3.455496e-05 3.019063e-05 1.580393e-05 7.374013e-05 2.587984e-05 4.065752e-05 2.560653e-05 1.969975e-05 1.446801e-05 9.653595e-06 1.529073e-05 8.303326e-06 1.254435e-05 8.895445e-06 3.503295e-06 2.601508e-05 5.470437e-06 1.211414e-05 6.065814e-06 4.592025e-06 2.428833e-05 4.373279e-05 1.021611e-04 1.752904e-03 1.233953e-03 1.490967e-03
<GCONST> -3.094245e+02
<STATE> 15
<MEAN> 42
 1.242977e-02 5.277326e-03 -2.402762e-03 -1.068449e-02 8.770969e-03 2.579838e-03 -9.516077e-03 1.696295e-02 3.344948e-02 4.485675e-02 3.603069e-02 2.306427e-02 -1.622771e-05 -5.331320e-05 -3.726550e-05 3.450663e-05 9.502191e-06 -4.496107e-05 1.768179e-04 2.330971e-04 2.210230e-04 1.781361e-04 8.385726e-05 -1.013813e-04 2.685261e-05 -1.533253e-05 -4.186125e-05 -5.541204e-06 3.453390e-05 -2.836058e-05 1.976998e-05 4.260327e-05 5.727929e-05 5.782272e-05 3.720210e-05 1.918160e-05 3.402259e-03 -4.380721e-04 3.169544e-03 2.979635e-02 -9.534559e-04 -8.849526e-03
<VARIANCE> 42
 3.753315e-03 4.590842e-03 3.273600e-03 3.316331e-03 2.399329e-03 3.007306e-03 3.731898e-03 1.389225e-02 3.204004e-02 4.843981e-02 2.647883e-02 1.332156e-02 1.655443e-04 1.550763e-04 1.192983e-04 1.304258e-04 1.050728e-04 9.674075e-05 1.130129e-04 2.720707e-04 6.257460e-04 1.185389e-03 7.448348e-04 4.532842e-04 2.731497e-05 2.470275e-05 2.990533e-05 1.849363e-05 2.278386e-05 2.056520e-05 1.395809e-05 3.184201e-05 6.034279e-05 1.147402e-04 7.370787e-05 4.755473e-05 1.992528e-04 1.975406e-04 1.888256e-04 1.790639e-02 2.487836e-03 5.610424e-03
<GCONST> -2.460395e+02
<STATE> 16
<MEAN> 42
 5.168635e-02 2.824527e-02 -1.760635e-02 -4.361877e-02 3.310174e-02 9.460856e-03 -3.016784e-02 2.299303e-02 1.070357e-01 1.665792e-01 1.722067e-01 1.193664e-01 4.827391e-04 6.495871e-04 1.673699e-04 -5.655304e-04 1.631461e-04 4.109305e-04 -1.111381e-03 -7.657545e-04 -4.400319e-04 3.548087e-04 7.722280e-04 1.394210e-03 -8.281444e-05 5.924016e-05 1.423902e-04 1.157090e-05 -1.139025e-04 9.918838e-05 1.181075e-05 1.428740e-06 -1.369176e-04 -2.340810e-04 -1.407580e-04 -5.822940e-05 8.697843e-03 1.232251e-03 3.960989e-03 1.271206e-01 8.943962e-03 -1.066338e-02
<VARIANCE> 42
 2.122821e-02 1.684096e-02 1.076598e-02 1.617655e-02 1.183966e-02 8.514596e-03 4.503515e-02 1.858766e-01 1.577407e-01 1.667774e-01 1.459688e-01 9.215743e-02 6.986851e-04 4.361215e-04 3.572410e-04 4.778698e-04 4.224840e-04 2.237610e-04 8.305547e-04 2.098358e-03 2.602219e-03 4.686919e-03 4.053858e-03 2.511752e-03 7.148286e-05 4.400431e-05 5.796405e-05 4.322590e-05 5.416320e-05 3.337943e-05 6.779486e-05 1.254484e-04 2.154273e-04 4.468639e-04 3.477394e-04 1.914326e-04 4.971380e-04 6.231610e-04 4.045511e-04 8.496740e-02 1.063926e-02 7.364872e-02
<GCONST> -1.873577e+02
<STATE> 17
<MEAN> 42
 1.628697e-02 3.977136e-02 1.279599e-02 -3.253861e-02 2.164877e-03 3.411977e-02 -1.494367e-02 1.328531e-02 5.841360e-02 8.191830e-02 7.085164e-02 5.984717e-02 -1.247818e-04 -4.371195e-05 8.277967e-05 8.431762e-05 -1.020925e-04 2.015557e-05 8.529084e-05 -1.036102e-04 -4.568664e-05 -3.448291e-04 -3.865115e-04 -4.484083e-04 -5.370794e-06 -2.848761e-05 -2.385701e-05 1.732922e-05 9.975459e-06 -2.561764e-05 -4.961514e-05 -1.081875e-04 -7.124529e-05 -2.094485e-05 -1.917922e-05 -1.998413e-05 5.077730e-03 -8.768123e-05 9.643986e-04 5.832367e-02 2.825939e-02 -5.451608e-03
<VARIANCE> 42
 6.812762e-03 2.151972e-02 1.364520e-02 1.076978e-02 4.781339e-03 1.583529e-02 8.933123e-03 2.054660e-02 3.666056e-02 5.889972e-02 5.724923e-02 3.997489e-02 3.204787e-04 4.517370e-04 3.225047e-04 3.074160e-04 2.105508e-04 3.073364e-04 1.741201e-04 6.719383e-04 1.116598e-03 2.191058e-03 2.278942e-03 1.484798e-03 6.172471e-05 5.346338e-05 5.516395e-05 4.422744e-05 4.564928e-05 3.890840e-05 2.099574e-05 7.058735e-05 1.177998e-04 2.698046e-04 2.903499e-04 1.783952e-04 2.857276e-04 4.090582e-04 3.346005e-04 3.156256e-02 1.391240e-02 8.073979e-03
<GCONST> -2.110726e+02
<STATE> 18
<MEAN> 42
 4.305168e-03 7.091018e-04 -1.277179e-04 -2.111474e-03 3.094826e-03 1.202204e-03 2.749192e-03 2.680096e-02 1.643807e-02 4.705107e-03 3.182150e-03 2.732943e-04 -1.892248e-05 -2.041052e-05 -1.465962e-06 2.014841e-05 -1.058772e-05 -1.285248e-05 4.145276e-05 -7.846276e-06 -8.488353e-05 -9.011685e-05 -4.922712e-05 -6.879699e-05 1.729012e-05 2.170326e-05 4.803591e-06 -1.951819e-05 5.709146e-06 1.220496e-05 -7.892872e-06 -1.091676e-05 2.645480e-06 1.552522e-05 1.588880e-05 1.260781e-05 1.383731e-04 -2.327399e-04 4.260037e-04 2.114341e-03 -2.403169e-03 -1.290634e-02
<VARIANCE> 42
 7.817983e-04 1.026662e-03 9.047613e-04 6.624285e-04 5.963574e-04 7.706740e-04 2.091982e-03 9.338493e-03 5.989075e-03 3.279401e-03 2.779929e-03 1.284428e-03 2.628567e-05 2.052627e-05 2.565265e-05 1.697045e-05 2.094707e-05 1.668505e-05 8.730831e-06 7.374013e-05 1.677956e-05 4.065752e-05 1.535500e-05 9.200757e-06 9.864534e-06 6.946228e-06 9.428705e-06 6.036025e-06 7.986448e-06 5.761684e-06 2.328975e-06 2.601508e-05 2.922613e-06 1.211414e-05 3.548328e-06 2.330811e-06 1.858849e-05 2.888026e-05 5.951024e-05 1.593597e-03 7.058879e-04 2.656016e-03
<GCONST> -3.242164e+02
<STATE> 19
<MEAN> 42
 6.672970e-03 1.211359e-02 1.856036e-03 -1.178514e-02 4.296966e-03 1.007529e-02 -1.083122e-02 3.491094e-03 1.274713e-02 3.222285e-03 6.725060e-03 6.155390e-03 -6.390867e-04 -8.101241e-04 -1.789380e-04 7.233692e-04 -2.328281e-04 -4.942860e-04 1.189856e-03 1.584540e-03 1.099874e-03 4.642075e-04 -1.366017e-04 -4.572154e-04 -4.913739e-05 -2.246443e-05 2.474210e-05 3.548141e-05 -3.595439e-05 2.794666e-06 2.509369e-04 4.784439e-04 5.265072e-04 4.240368e-04 2.203309e-04 7.699733e-05 7.381138e-04 -5.685493e-04 6.333139e-04 7.625388e-03 7.695368e-03 4.763585e-04
<VARIANCE> 42
 2.133058e-03 3.930299e-03 2.395616e-03 2.460784e-03 1.223103e-03 2.551234e-03 2.770246e-03 4.169947e-03 3.360136e-03 2.765986e-03 2.641546e-03 2.160989e-03 1.266599e-04 8.343076e-05 1.426652e-04 6.929153e-05 1.141611e-04 8.234253e-05 5.778028e-05 9.487693e-05 9.948187e-05 9.480724e-05 6.747192e-05 5.063394e-05 4.804624e-05 2.602465e-05 5.353447e-05 2.364338e-05 4.452292e-05 2.798609e-05 1.228024e-05 2.601508e-05 2.341049e-05 2.737513e-05 2.067522e-05 1.406352e-05 9.171064e-06 6.302753e-05 1.250436e-04 1.628418e-03 2.393903e-03 1.378381e-03
<GCONST> -2.823034e+02
<STATE> 20
<MEAN> 42
 -4.091886e-02 -1.680644e-02 2.140473e-02 2.950749e-02 -3.123789e-02 5.295135e-03 1.027324e-01 1.689817e-01 1.708907e-01 1.253790e-01 6.240960e-02 2.527973e-03 4.518563e-03 4.102237e-03 -3.801109e-04 -4.326353e-03 2.507619e-03 1.836998e-03 1.147844e-02 2.684502e-02 3.652656e-02 3.675730e-02 2.793473e-02 1.688422e-02 3.201350e-03 2.945474e-03 -2.326448e-04 -3.096024e-03 1.750288e-03 1.360141e-03 -2.215883e-03 -7.129165e-04 2.960660e-03 6.877727e-03 8.562442e-03 7.845487e-03 -3.011698e-04 -1.170241e-02 8.851975e-03 2.882716e-02 -2.116609e-02 -1.247572e-01
<VARIANCE> 42
 2.062061e-03 4.116820e-03 6.357732e-03 1.549918e-03 3.043545e-03 4.709723e-03 4.961516e-03 1.205868e-02 1.349361e-02 1.038999e-02 1.034494e-02 8.820196e-03 3.550814e-04 8.430878e-04 1.083377e-03 3.275069e-04 5.087230e-04 8.803668e-04 4.546532e-04 1.157947e-03 1.290698e-03 1.137168e-03 9.255380e-04 7.017145e-04 7.958414e-05 1.377851e-04 1.898346e-04 6.111527e-05 1.007227e-04 1.461222e-04 1.024995e-04 2.358433e-04 2.734069e-04 2.454496e-04 2.149327e-04 1.590546e-04 7.741702e-05 2.995428e-04 4.016196e-04 4.983176e-03 3.177060e-03 5.229032e-03
<GCONST> -2.192807e+02
<STATE> 21
<MEAN> 42
 1.848427e-02 -3.726490e-02 -5.209283e-02 7.929473e-03 3.638360e-02 -4.394163e-02 9.621225e-02 2.132515e-01 2.473173e-01 2.432203e-01 1.930225e-01 1.227602e-01 2.923536e-02 1.105285e-02 -1.819702e-02 -2.016198e-02 2.384894e-02 -3.447931e-03 -1.175678e-02 5.390213e-03 3.784442e-02 5.777878e-02 5.804751e-02 4.901162e-02 7.196825e-03 3.379147e-03 -3.840479e-03 -5.294907e-03 5.547982e-03 -1.823742e-04 -8.082427e-03 -8.743221e-03 6.771441e-04 8.054414e-03 1.103207e-02 1.103128e-02 4.340516e-03 2.822767e-03 1.168978e-02 1.272314e-01 -5.357762e-02 -1.438237e-01
<VARIANCE> 42
 1.876708e-02 1.703755e-02 2.448946e-02 1.198864e-02 1.737119e-02 1.578490e-02 1.305681e-02 3.424607e-02 3.981072e-02 4.138743e-02 3.998428e-02 4.049032e-02 1.149047e-03 1.521051e-03 1.826296e-03 8.789958e-04 1.108126e-03 1.399779e-03 1.044627e-03 2.947074e-03 2.491670e-03 2.809683e-03 2.417406e-03 2.049836e-03 1.044179e-04 9.974316e-05 1.664355e-04 6.064722e-05 1.106784e-04 1.079425e-04 1.261119e-04 3.328814e-04 2.508387e-04 1.799145e-04 1.712402e-04 1.419005e-04 6.348371e-04 9.233865e-04 1.490528e-03 2.752940e-02 1.109413e-02 1.432709e-02
<GCONST> -1.841550e+02
<STATE> 22
<MEAN> 42
 3.129551e-02 7.802390e-02 5.759127e-02 -5.074047e-02 -1.310593e-02 6.686945e-02 -3.567205e-02 1.849643e-02 5.654857e-02 1.083713e-01 7.744273e-02 4.949564e-02 4.119470e-04 2.074854e-04 -2.045331e-04 -3.101857e-04 3.086050e-04 3.882393e-06 -1.787549e-04 -1.426474e-04 4.745180e-04 8.335237e-04 9.127713e-04 8.129415e-04 7.458191e-05 -7.821306e-06 -8.179238e-05 -3.318973e-05 7.720578e-05 -4.479290e-05 -2.188986e-05 -3.987391e-05 4.874220e-05 1.220605e-04 1.039994e-04 9.077321e-05 4.560071e-03 -2.139405e-03 3.288194e-03 6.891233e-02 5.689082e-02 -5.145100e-05
<VARIANCE> 42
 9.243046e-03 4.936539e-02 3.256058e-02 2.118134e-02 8.555384e-03 3.879072e-02 1.853087e-02 2.761354e-02 8.213801e-02 1.105077e-01 4.909920e-02 2.738102e-02 6.658591e-04 2.648579e-03 2.206465e-03 1.105620e-03 7.740640e-04 2.262897e-03 9.153645e-04 1.935263e-03 6.052943e-03 8.660350e-03 3.137251e-03 1.623459e-03 1.364826e-04 3.949130e-04 4.137855e-04 1.622460e-04 1.763881e-04 3.702700e-04 1.185986e-04 2.809764e-04 1.052750e-03 1.674237e-03 4.827279e-04 2.261945e-04 2.092113e-04 2.302717e-04 2.041378e-04 3.945984e-02 3.699569e-02 2.334506e-02
<GCONST> -1.713222e+02
<STATE> 23
<MEAN> 42
 3.293360e-01 3.041606e-01 -2.247659e-02 -3.171956e-01 1.785484e-01 1.431699e-01 -3.899533e-01 -3.892521e-01 1.491968e-01 6.952445e-01 7.670996e-01 6.909094e-01 1.649271e-04 9.663513e-03 9.496144e-03 -4.902597e-03 -4.682626e-03 9.567439e-03 -3.616903e-02 -6.281802e-02 -5.212079e-02 -2.257050e-02 -9.504214e-03 1.586392e-03 -6.604892e-03 -3.975274e-03 2.630019e-03 5.291786e-03 -4.630417e-03 -6.932094e-04 3.536131e-03 1.254818e-03 -6.381922e-03 -1.151632e-02 -1.292997e-02 -1.149927e-02 5.404193e-02 2.413535e-02 -2.898826e-03 6.403871e-01 2.137041e-01 2.845430e-01
<VARIANCE> 42
 8.112930e-02 1.568381e-01 1.667581e-01 7.719598e-02 8.508731e-02 1.433662e-01 1.615581e-01 6.969675e-01 6.939762e-01 5.282868e-01 3.957779e-01 2.928406e-01 5.412366e-03 7.623058e-03 5.698356e-03 5.092455e-03 3.660013e-03 5.320878e-03 4.660715e-03 1.036970e-02 2.042562e-02 3.352562e-02 2.765660e-02 1.907921e-02 5.685868e-04 8.813630e-04 8.030450e-04 5.240824e-04 4.667064e-04 7.013322e-04 5.196448e-04 1.247534e-03 2.583942e-03 3.857058e-03 2.550615e-03 1.591599e-03 1.375513e-03 2.285476e-03 1.214472e-03 2.299737e-01 1.193092e-01 2.746561e-01
<GCONST> -1.040064e+02
<STATE> 24
<MEAN> 42
 5.900561e-02 -6.433856e-02 -1.192799e-01 4.803270e-03 9.053637e-02 -8.909360e-02 -1.764792e-01 -2.891443e-01 -2.333643e-01 -5.866134e-02 -3.724082e-02 -1.682055e-02 -2.283447e-02 -2.737052e-02 -4.519794e-03 2.509897e-02 -9.166772e-03 -1.610747e-02 2.049325e-02 1.287786e-02 -3.317311e-02 -6.086965e-02 -5.846077e-02 -5.014203e-02 4.049438e-03 7.217028e-04 -3.330290e-03 -2.384743e-03 3.707527e-03 -1.310203e-03 2.326115e-03 7.029443e-03 8.150511e-03 5.270092e-03 6.048007e-03 4.896239e-03 3.093221e-02 2.833262e-02 1.743987e-02 7.415347e-03 -5.133599e-02 1.820216e-01
<VARIANCE> 42
 3.381336e-02 3.135798e-01 3.755869e-01 8.205827e-02 1.262568e-01 3.354096e-01 1.195469e-01 4.022856e-01 3.544683e-01 5.148541e-01 4.279884e-01 3.247584e-01 1.160865e-03 1.681281e-03 2.215625e-03 8.665351e-04 1.271316e-03 1.658931e-03 1.096637e-03 4.661547e-03 6.306573e-03 1.036963e-02 7.694375e-03 4.731175e-03 1.807339e-04 1.822746e-04 2.312990e-04 1.235680e-04 1.612621e-04 1.616216e-04 1.043854e-04 2.748394e-04 6.931396e-04 1.424907e-03 1.081684e-03 6.025020e-04 1.105836e-03 2.072586e-03 1.496445e-03 2.416748e-01 2.845763e-01 1.879124e-01
<GCONST> -1.334648e+02
<STATE> 25
<MEAN> 42
 -2.133243e-02 -6.516966e-02 -4.304783e-02 4.242182e-02 1.368083e-02 -5.263149e-02 -1.693262e-01 -3.594137e-01 -4.228505e-01 -2.510376e-01 -1.393190e-01 -3.755540e-02 -4.800226e-03 -1.995314e-03 2.818326e-03 3.401163e-03 -3.861497e-03 4.689842e-04 2.786993e-02 4.816581e-02 4.375547e-02 1.838815e-02 6.294976e-03 -3.007265e-03 3.895807e-03 5.851171e-03 1.963828e-03 -4.867798e-03 9.310948e-04 3.976095e-03 -1.510500e-03 1.462195e-03 7.851106e-03 1.184046e-02 1.121100e-02 9.174203e-03 1.187712e-03 2.240399e-02 1.462756e-02 -9.711602e-02 -1.295515e-02 2.511958e-01
<VARIANCE> 42
 3.611434e-02 3.237719e-02 4.085277e-02 2.456355e-02 3.243733e-02 2.819279e-02 4.811468e-02 8.977103e-02 1.138470e-01 9.188746e-02 9.218309e-02 1.003827e-01 3.743410e-04 7.201679e-04 1.070787e-03 2.801892e-04 5.457510e-04 7.986020e-04 7.850783e-04 2.627135e-03 2.887395e-03 1.876000e-03 1.539058e-03 1.123211e-03 8.287246e-05 5.418412e-05 9.277293e-05 4.542503e-05 7.512964e-05 5.296478e-05 5.145108e-05 2.485958e-04 2.915901e-04 3.718212e-04 3.233526e-04 2.050333e-04 8.136565e-04 1.404603e-03 7.515406e-04 6.379339e-02 2.322953e-02 4.117943e-02
<GCONST> -1.805958e+02
<STATE> 26
<MEAN> 42
 -6.124720e-02 -4.818363e-02 1.737634e-02 5.550820e-02 -3.875890e-02 -1.497868e-02 -5.679606e-02 -1.551468e-01 -1.846272e-01 -1.346322e-01 -1.053975e-01 -7.165771e-02 7.719732e-03 7.435744e-03 -2.587472e-04 -7.572043e-03 4.020637e-03 3.644432e-03 1.242357e-02 3.097533e-02 3.470302e-02 2.415981e-02 1.804849e-02 1.223204e-02 -4.827401e-04 8.816003e-04 1.351415e-03 -1.956642e-04 -8.993023e-04 1.121170e-03 -2.264798e-03 -4.444253e-03 -3.642857e-03 -9.886918e-04 -2.124758e-04 4.462701e-04 -1.764669e-03 8.863064e-03 1.180621e-02 -8.053911e-02 -1.435378e-02 9.520386e-02
<VARIANCE> 42
 4.862086e-03 9.333710e-03 8.244454e-03 4.978624e-03 4.297770e-03 7.684738e-03 1.556197e-02 3.731624e-02 3.949797e-02 2.489234e-02 1.926890e-02 1.354954e-02 1.458449e-04 2.304120e-04 3.103000e-04 1.109861e-04 1.734011e-04 2.337687e-04 4.941138e-04 1.283911e-03 1.106271e-03 7.423111e-04 4.818727e-04 2.947767e-04 2.284548e-05 3.607406e-05 3.586037e-05 2.074519e-05 2.113133e-05 2.983592e-05 5.170758e-05 1.018368e-04 1.148470e-04 8.250429e-05 4.522254e-05 2.939051e-05 1.809694e-04 4.317542e-04 5.441462e-04 1.160512e-02 6.885892e-03 1.324320e-02
<GCONST> -2.300549e+02
<STATE> 27
<MEAN> 42
 2.956288e-02 9.232438e-02 7.078896e-02 -5.981230e-02 -2.167602e-02 8.324524e-02 -2.811501e-02 2.862453e-02 8.415574e-02 1.233051e-01 1.159318e-01 9.465071e-02 2.748043e-05 -1.524992e-04 -1.785557e-04 6.235089e-05 1.031139e-04 -1.651091e-04 3.146414e-04 5.843890e-04 5.616307e-04 1.946781e-04 1.109468e-04 -4.580613e-05 -2.067476e-05 -1.040492e-04 -8.325438e-05 6.220712e-05 3.157290e-05 -9.526229e-05 -5.634771e-06 -6.406293e-05 -1.246610e-04 -1.649984e-04 -1.421924e-04 -1.194437e-04 3.922194e-03 3.735083e-03 -1.251370e-04 9.122658e-02 7.069776e-02 -4.239778e-03
<VARIANCE> 42
 3.706078e-03 4.824960e-02 3.617940e-02 1.667352e-02 8.047448e-03 4.140618e-02 6.307833e-03 3.039609e-02 2.796048e-02 5.248991e-02 5.827159e-02 4.731610e-02 7.937996e-05 6.455526e-04 4.543633e-04 2.490996e-04 1.054257e-04 5.311326e-04 7.522311e-05 4.922135e-04 3.670040e-04 9.601494e-04 1.105338e-03 8.544278e-04 1.445155e-05 4.122267e-05 3.658389e-05 1.875504e-05 1.542835e-05 3.532031e-05 8.036341e-06 4.231324e-05 3.846953e-05 9.802490e-05 1.014804e-04 6.255437e-05 1.902533e-04 2.333345e-04 2.838824e-04 3.136417e-02 3.718204e-02 1.151018e-02
<GCONST> -2.232173e+02
<STATE> 28
<MEAN> 42
 1.076093e-02 4.622614e-03 -4.032211e-03 -9.472721e-03 1.115188e-02 8.587632e-04 2.139775e-02 4.636810e-02 3.868579e-02 2.101223e-02 1.495827e-02 1.058793e-02 -9.081489e-05 -1.581997e-04 -6.851567e-05 1.251512e-04 -1.047587e-05 -1.136885e-04 2.373992e-04 2.390244e-04 2.891568e-04 1.074755e-04 -2.333565e-05 -1.260944e-04 2.229916e-05 3.834120e-05 1.631736e-05 -3.053037e-05 2.670218e-06 2.707104e-05 -6.310559e-06 2.413191e-05 7.262836e-05 9.438442e-05 8.326396e-05 7.360472e-05 5.735906e-04 -1.989303e-03 2.502688e-03 9.723423e-03 -1.445256e-03 -2.744022e-02
<VARIANCE> 42
 7.715314e-03 2.328862e-03 8.828665e-03 2.845968e-03 7.741884e-03 3.691772e-03 1.526546e-02 1.530996e-02 1.805887e-02 1.622569e-02 1.510512e-02 1.404203e-02 2.085632e-04 5.456145e-05 2.070135e-04 7.973428e-05 1.949981e-04 7.976919e-05 1.098646e-04 1.834864e-04 3.745032e-04 4.807665e-04 4.244157e-04 3.668640e-04 5.108510e-05 1.985792e-05 4.557665e-05 2.405423e-05 4.383182e-05 2.044928e-05 9.950399e-06 2.611326e-05 3.677276e-05 4.238891e-05 3.638288e-05 3.043732e-05 6.969138e-05 8.643001e-05 1.190021e-04 1.189431e-02 2.021179e-03 7.305401e-03
<GCONST> -2.515239e+02
<STATE> 29
<MEAN> 42
 1.160962e-01 1.398308e-01 2.703152e-02 -1.285109e-01 4.740897e-02 8.548250e-02 -2.186272e-01 -2.883289e-01 -2.151288e-03 2.418348e-01 3.260055e-01 3.045166e-01 -1.342525e-03 3.745888e-04 1.718979e-03 4.780413e-04 -1.522177e-03 1.044793e-03 -2.062565e-03 -5.975082e-03 -7.701946e-03 -5.706072e-03 -4.193959e-03 -1.985036e-03 -1.494895e-04 -3.061023e-04 -1.598688e-04 2.297889e-04 7.995157e-06 -2.379162e-04 3.190168e-04 3.425677e-04 -3.545982e-06 -4.016223e-04 -4.636455e-04 -4.881312e-04 2.762573e-02 1.299704e-02 4.103429e-03 2.682464e-01 1.135828e-01 1.923763e-01
<VARIANCE> 42
 1.666878e-01 1.877878e-01 1.178164e-01 1.459889e-01 9.428407e-02 1.121994e-01 2.248892e-01 4.165803e-01 4.616013e-01 5.704276e-01 6.980466e-01 6.545249e-01 2.962087e-03 3.269330e-03 2.470077e-03 2.499839e-03 1.905627e-03 2.135655e-03 2.782249e-03 7.133520e-03 9.817593e-03 1.418805e-02 1.570329e-02 1.192512e-02 2.391794e-04 2.545959e-04 2.234142e-04 1.913044e-04 1.685766e-04 1.797416e-04 1.423034e-04 4.823078e-04 7.961018e-04 1.281541e-03 1.363295e-03 9.229354e-04 2.055568e-03 1.317823e-03 1.639362e-03 4.242246e-01 1.236101e-01 2.204906e-01
<GCONST> -1.220745e+02
<STATE> 30
<MEAN> 42
 4.244740e-02 3.744612e-02 8.122297e-03 -4.095425e-02 1.861635e-02 2.348907e-02 -3.702845e-03 4.236344e-02 5.639528e-02 7.953580e-02 7.913934e-02 8.590426e-02 4.245373e-04 4.003871e-04 -2.536465e-05 -4.121655e-04 2.252496e-04 1.907580e-04 2.632478e-05 1.071332e-03 1.214224e-03 9.630655e-04 7.459303e-04 4.909938e-04 -4.476128e-05 -4.235517e-05 2.239049e-06 4.346327e-05 -2.505986e-05 -2.019729e-05 -9.269386e-05 -2.061568e-04 -2.042208e-04 -1.527002e-04 -1.077238e-04 -5.793026e-05 2.213649e-03 -8.364700e-04 -3.357073e-04 6.458210e-02 2.220356e-02 -1.278509e-02
<VARIANCE> 42
 1.416948e-02 1.806819e-02 6.733856e-03 1.498137e-02 6.439915e-03 8.952688e-03 3.616865e-02 7.117100e-02 8.481631e-02 7.340335e-02 9.294241e-02 8.787894e-02 1.511532e-04 1.435324e-04 1.253594e-04 1.160064e-04 1.030310e-04 9.693793e-05 1.618430e-04 2.789601e-04 4.248451e-04 6.607594e-04 8.665043e-04 6.819468e-04 2.746359e-05 1.655398e-05 2.392107e-05 1.602723e-05 2.165943e-05 1.331518e-05 1.100587e-05 2.601508e-05 2.972681e-05 4.493856e-05 5.082391e-05 3.456236e-05 2.799481e-04 1.935621e-04 1.892458e-04 5.509641e-02 1.231802e-02 4.071387e-02
<GCONST> -2.298735e+02
<STATE> 31
<MEAN> 42
 -1.037419e-03 2.250154e-02 2.163007e-02 -1.054257e-02 -7.445509e-03 2.146043e-02 9.817299e-02 1.569807e-01 1.149176e-01 4.889007e-02 2.054427e-02 3.391774e-03 1.044068e-04 -2.846044e-04 -3.931946e-04 8.857198e-05 2.298997e-04 -3.389342e-04 1.344257e-03 1.625216e-03 1.615271e-03 6.044866e-04 2.035010e-05 -1.030051e-04 -1.210035e-05 8.888162e-05 1.015083e-04 -4.088150e-05 -6.189858e-05 1.046035e-04 -3.542058e-04 -6.060936e-04 -6.646269e-04 -2.963392e-04 -1.275940e-04 -4.267244e-05 -2.832576e-03 -6.238004e-03 2.407083e-03 1.992404e-03 1.055586e-02 -9.872677e-02
<VARIANCE> 42
 2.491888e-03 2.356443e-03 4.917820e-03 1.280817e-03 3.074154e-03 3.375639e-03 1.333452e-02 3.076988e-02 1.832797e-02 4.928824e-03 2.196615e-03 1.906142e-03 9.335995e-05 5.909901e-05 1.124110e-04 4.822273e-05 8.935630e-05 6.260788e-05 5.513497e-05 1.263861e-04 1.413919e-04 9.227652e-05 6.031196e-05 4.335141e-05 3.713755e-05 2.001470e-05 4.131564e-05 1.827314e-05 3.481838e-05 2.118456e-05 9.481619e-06 2.601508e-05 1.990941e-05 2.483345e-05 1.704331e-05 1.183224e-05 2.489392e-05 1.278632e-04 1.738782e-04 1.705738e-03 2.171247e-03 1.194478e-02
<GCONST> -2.756315e+02
<STATE> 32
<MEAN> 42
 -2.858497e-03 -7.541428e-03 -3.603969e-03 4.899338e-03 1.922576e-03 -3.602221e-03 9.192739e-03 6.003051e-03 3.273979e-03 7.109744e-04 3.620787e-04 -5.012993e-03 3.980831e-05 7.544418e-05 3.622661e-05 -5.779453e-05 2.710760e-06 5.375480e-05 1.322648e-04 1.164078e-04 1.470496e-04 7.317365e-05 1.665521e-05 -3.124854e-05 3.055777e-05 3.390996e-05 3.989453e-06 -3.205012e-05 1.437229e-05 1.853825e-05 -6.932016e-06 1.283622e-05 2.904253e-05 3.629838e-05 3.140452e-05 3.090304e-05 7.228024e-05 1.023773e-04 1.310853e-03 -2.718213e-03 -6.218914e-03 -6.169880e-03
<VARIANCE> 42
 7.929811e-04 7.503459e-04 6.643312e-04 5.734377e-04 4.950546e-04 5.004843e-04 9.048374e-04 1.370589e-03 1.787058e-03 7.358447e-04 6.083893e-04 5.308140e-04 5.692277e-05 3.125502e-05 5.649776e-05 2.998245e-05 4.944425e-05 2.964592e-05 1.289492e-05 7.374013e-05 1.690318e-05 4.065752e-05 1.631109e-05 1.366810e-05 2.336437e-05 1.221511e-05 2.211897e-05 1.226978e-05 1.988650e-05 1.134942e-05 4.209548e-06 2.601508e-05 5.223937e-06 1.211414e-05 5.486176e-06 4.590223e-06 4.867723e-06 1.815557e-05 4.993256e-05 3.687756e-04 4.800993e-04 5.056649e-04
<GCONST> -3.272336e+02
<STATE> 33
<MEAN> 42
 5.738364e-02 6.795697e-02 1.260581e-02 -6.358740e-02 2.367227e-02 4.351686e-02 2.297725e-03 6.921450e-02 1.119414e-01 9.976283e-02 8.702548e-02 6.895386e-02 4.878071e-04 4.363140e-04 -4.972737e-05 -4.637812e-04 2.749621e-04 2.049857e-04 -8.984088e-04 -6.154351e-04 -1.646435e-04 1.166859e-04 5.491892e-04 6.352469e-04 -1.340972e-04 -2.589425e-04 -1.247679e-04 1.960340e-04 -5.301143e-06 -1.926377e-04 -4.586511e-05 -1.414751e-04 -2.555330e-04 -2.689448e-04 -2.163719e-04 -1.742532e-04 7.730573e-03 -1.979798e-03 2.554484e-03 7.363339e-02 3.888497e-02 -3.537785e-02
<VARIANCE> 42
 4.328524e-03 1.292305e-02 6.161137e-03 7.119959e-03 1.745452e-03 8.156591e-03 7.980088e-03 1.447397e-02 2.216844e-02 2.355066e-02 1.584725e-02 1.064521e-02 7.109276e-05 1.049303e-04 1.007507e-04 6.277334e-05 5.961493e-05 8.565919e-05 5.836302e-05 8.628491e-05 8.455019e-05 9.746410e-05 9.105113e-05 7.252028e-05 2.085818e-05 1.536233e-05 2.062137e-05 1.298614e-05 1.691805e-05 1.297766e-05 6.772440e-06 2.601508e-05 1.088081e-05 1.211414e-05 1.191768e-05 9.313171e-06 1.066367e-04 3.082906e-04 2.412216e-04 1.141834e-02 7.253308e-03 4.603004e-03
<GCONST> -2.669602e+02
<STATE> 34
<MEAN> 42
 8.134414e-03 3.762038e-03 -1.767334e-03 -6.649196e-03 6.276957e-03 1.643206e-03 6.275250e-03 2.409479e-02 1.583925e-02 1.078327e-02 1.128032e-02 9.304564e-03 -1.590265e-04 -1.993666e-04 -4.025043e-05 1.793966e-04 -6.182431e-05 -1.215466e-04 -6.458621e-05 -1.783929e-04 -2.823602e-04 -1.505409e-04 -1.729040e-04 -1.388683e-04 1.136617e-05 1.882424e-05 7.205270e-06 -1.487769e-05 2.688862e-06 1.252902e-05 -5.076524e-06 -2.785911e-06 7.519342e-06 1.275456e-05 1.317293e-05 5.085104e-06 1.132140e-03 -7.670588e-04 3.922103e-04 7.293411e-03 3.832320e-04 -1.129424e-02
<VARIANCE> 42
 1.205927e-03 1.989962e-03 1.060612e-03 1.273128e-03 6.738932e-04 1.182757e-03 2.305057e-03 7.307730e-03 6.808669e-03 5.434521e-03 4.301094e-03 2.947304e-03 1.824927e-05 1.718239e-05 1.664302e-05 1.355464e-05 1.330073e-05 1.247775e-05 7.462424e-06 7.374013e-05 1.485946e-05 4.065752e-05 1.417310e-05 8.615637e-06 5.733505e-06 4.458081e-06 5.181312e-06 3.800046e-06 4.408847e-06 3.434734e-06 1.575942e-06 2.601508e-05 2.503879e-06 1.211414e-05 2.895532e-06 1.694232e-06 2.782134e-05 3.542704e-05 8.384470e-05 2.988935e-03 1.073668e-03 2.331343e-03
<GCONST> -3.247335e+02
<STATE> 35
<MEAN> 42
 -1.682038e-02 -2.070322e-02 -7.358305e-03 1.598171e-02 -3.134680e-03 -9.272521e-03 -1.231679e-02 -8.628942e-03 -1.500843e-02 -9.950266e-03 -7.106865e-03 -9.170882e-03 -1.302585e-03 -1.651787e-03 -3.536540e-04 1.470704e-03 -4.706614e-04 -1.008058e-03 2.296607e-03 2.688738e-03 1.593114e-03 2.436005e-04 -7.377266e-04 -1.329085e-03 -1.592432e-04 3.429037e-05 1.931781e-04 6.017298e-05 -1.840090e-04 1.200845e-04 6.292209e-04 1.022682e-03 1.020632e-03 7.343523e-04 3.086887e-04 8.820805e-05 -3.398194e-04 -1.425678e-04 2.542333e-03 -7.267127e-03 -1.400538e-02 5.951337e-03
<VARIANCE> 42
 1.039712e-03 1.779315e-03 1.672171e-03 1.070987e-03 1.087771e-03 1.315624e-03 1.395752e-03 1.444092e-03 1.263485e-03 1.110625e-03 9.540817e-04 1.289170e-03 1.016675e-04 6.769258e-05 1.436349e-04 5.022014e-05 1.079383e-04 7.964172e-05 6.795764e-05 1.170119e-04 1.098676e-04 1.295459e-04 9.013966e-05 7.146163e-05 3.815008e-05 1.870135e-05 4.569164e-05 1.768616e-05 3.832325e-05 2.232130e-05 1.440435e-05 2.601508e-05 2.921667e-05 4.274673e-05 2.885782e-05 2.060442e-05 6.251836e-06 1.733390e-05 1.005750e-04 7.292532e-04 1.278422e-03 6.634298e-04
<GCONST> -2.942703e+02
<STATE> 36
<MEAN> 42
 1.681221e-02 1.920796e-02 1.301336e-02 -1.957394e-02 1.788198e-03 1.571098e-02 -6.852466e-03 1.046615e-03 9.840090e-03 2.879457e-02 2.996358e-02 3.499952e-02 -4.211246e-05 -5.815384e-05 -1.673921e-05 5.026075e-05 -1.480040e-05 -3.906179e-05 3.442724e-04 3.789330e-04 4.961427e-04 5.187426e-04 3.391330e-04 1.901942e-04 7.992525e-05 2.555401e-05 -5.457744e-05 -5.302833e-05 6.833635e-05 -1.594440e-05 -1.801758e-05 -1.957273e-06 6.396190e-05 1.427395e-04 1.410622e-04 1.230395e-04 2.144261e-03 8.542141e-04 -9.960228e-04 2.533493e-02 1.404252e-02 4.767078e-03
<VARIANCE> 42
 9.713343e-03 1.071330e-02 4.240675e-03 9.252316e-03 4.162482e-03 5.348291e-03 1.594920e-02 2.973091e-02 3.428192e-02 3.628458e-02 4.628381e-02 4.559060e-02 2.905482e-04 2.298246e-04 1.384434e-04 2.255132e-04 1.592483e-04 1.132997e-04 3.521351e-04 7.322775e-04 7.757542e-04 1.000695e-03 1.131109e-03 9.461737e-04 3.602247e-05 2.695849e-05 3.352733e-05 2.303959e-05 2.848342e-05 2.164963e-05 3.010994e-05 5.404855e-05 5.677498e-05 7.944415e-05 8.206413e-05 6.196849e-05 1.289240e-04 2.430052e-04 1.599066e-04 2.899578e-02 6.468509e-03 1.663208e-02
<GCONST> -2.281528e+02
<STATE> 37
<MEAN> 42
 1.141097e-01 1.171008e-01 6.238314e-03 -1.156669e-01 5.580264e-02 6.335129e-02 -2.102429e-01 -2.613100e-01 -4.161222e-02 2.339432e-01 2.647935e-01 2.518494e-01 3.467252e-04 1.145591e-03 8.007099e-04 -7.381376e-04 -2.251135e-04 9.756986e-04 -2.634577e-03 -3.916144e-03 -3.506628e-03 -2.025966e-03 -7.564027e-04 2.699179e-04 4.115031e-05 -1.048644e-05 -5.087765e-05 -1.334789e-05 4.735357e-05 -2.588442e-05 -1.023634e-05 -1.266107e-05 -1.525438e-04 -3.927630e-04 -2.732507e-04 -1.811011e-04 2.080280e-02 1.412482e-02 1.061491e-02 2.332371e-01 9.315614e-02 1.808677e-01
<VARIANCE> 42
 6.854100e-02 9.013253e-02 8.070885e-02 5.908624e-02 5.277540e-02 6.892998e-02 9.831247e-02 3.329573e-01 3.539449e-01 3.509960e-01 2.929296e-01 2.175307e-01 2.474821e-03 2.951392e-03 2.453357e-03 2.100636e-03 1.731963e-03 2.087923e-03 2.597902e-03 6.680406e-03 9.294575e-03 1.355090e-02 1.117251e-02 7.634944e-03 2.552512e-04 3.331833e-04 3.280636e-04 2.123669e-04 2.088461e-04 2.670773e-04 2.178489e-04 5.210562e-04 9.197875e-04 1.539454e-03 1.098888e-03 6.921993e-04 1.345875e-03 1.570155e-03 1.065933e-03 1.799405e-01 6.261941e-02 1.410400e-01
<GCONST> -1.323250e+02
<STATE> 38
<MEAN> 42
 5.344863e-03 5.254564e-03 1.273733e-03 -5.990301e-03 3.583009e-03 4.974236e-03 1.578046e-02 4.214568e-02 3.499509e-02 1.823648e-02 1.698368e-02 9.721437e-03 7.567517e-06 -5.403390e-05 -6.158298e-05 2.307204e-05 3.412005e-05 -5.795249e-05 1.772237e-04 2.839679e-04 2.438614e-04 1.073123e-04 4.077376e-05 -2.620845e-05 -1.266442e-05 -3.354042e-06 9.309243e-06 8.013300e-06 -1.102138e-05 2.489425e-06 -6.249019e-06 -1.272673e-05 -1.251273e-05 -1.915463e-06 -7.357244e-06 -6.811913e-06 9.101126e-04 -1.005945e-03 9.852898e-04 9.375338e-03 5.984930e-04 -2.379899e-02
<VARIANCE> 42
 1.572861e-03 2.482179e-03 1.543896e-03 1.616081e-03 9.069217e-04 1.610215e-03 2.572384e-03 1.096429e-02 1.184541e-02 7.447765e-03 5.173035e-03 3.009903e-03 4.481467e-05 3.191286e-05 4.624670e-05 2.695599e-05 3.780184e-05 2.800531e-05 1.618722e-05 7.374013e-05 3.505705e-05 4.065752e-05 2.702682e-05 1.938272e-05 1.608548e-05 9.944693e-06 1.615055e-05 9.028805e-06 1.373596e-05 9.052641e-06 3.743609e-06 2.601508e-05 5.910882e-06 1.211414e-05 6.586980e-06 4.816473e-06 3.301646e-05 5.986161e-05 8.033044e-05 3.405140e-03 1.453561e-03 3.793150e-03
<GCONST> -3.021628e+02
<STATE> 39
<MEAN> 42
 1.517544e-01 1.233445e-01 -2.395904e-02 -1.369674e-01 8.910046e-02 5.244143e-02 -1.957072e-01 -1.744827e-01 9.019896e-02 3.633102e-01 3.726078e-01 3.188786e-01 -1.031067e-03 -8.901976e-04 1.523911e-04 9.660885e-04 -5.979481e-04 -3.667711e-04 -8.102758e-03 -1.537245e-02 -1.551167e-02 -9.554308e-03 -6.091774e-03 -3.040004e-03 6.957029e-05 -1.605639e-04 -2.311073e-04 4.502155e-05 1.463038e-04 -1.901296e-04 4.294252e-04 1.119691e-03 9.163750e-04 2.977709e-04 2.455709e-04 4.544033e-05 3.132676e-02 1.870359e-02 6.719071e-03 3.148586e-01 8.014678e-02 1.246818e-01
<VARIANCE> 42
 7.320849e-02 1.948582e-01 1.759223e-01 9.075633e-02 7.591701e-02 1.675892e-01 1.272908e-01 3.593529e-01 4.010740e-01 5.270556e-01 4.850375e-01 3.760379e-01 3.215831e-03 4.735168e-03 3.262364e-03 3.161114e-03 2.060118e-03 3.204951e-03 2.989188e-03 7.694745e-03 1.297380e-02 2.229839e-02 1.818757e-02 1.259846e-02 3.593753e-04 5.269988e-04 4.330654e-04 3.349396e-04 2.648601e-04 3.915026e-04 2.817723e-04 6.829599e-04 1.383049e-03 2.605571e-03 1.760701e-03 1.116381e-03 1.481159e-03 1.735852e-03 1.086673e-03 2.920898e-01 1.479433e-01 1.582490e-01
<GCONST> -1.167382e+02
<STATE> 40
<MEAN> 42
 2.548507e-02 6.183692e-02 3.187264e-02 -3.750661e-02 -8.587223e-04 2.417370e-02 -3.292349e-02 -1.644120e-02 2.550224e-02 5.197199e-02 6.654233e-02 4.969629e-02 4.160023e-04 1.062530e-03 6.429559e-04 -7.432733e-04 -1.142298e-04 7.947236e-04 1.097277e-03 2.696695e-03 3.300814e-03 2.544015e-03 1.855300e-03 1.263263e-03 1.556148e-05 7.644517e-05 5.892653e-05 -4.786912e-05 -2.176643e-05 7.843947e-05 -6.583658e-05 -2.101307e-04 -9.382592e-05 5.924116e-05 1.011255e-04 1.204493e-04 2.848839e-04 2.996474e-03 -1.739630e-03 5.089826e-02 4.876719e-02 1.898351e-02
<VARIANCE> 42
 1.756848e-02 6.824382e-02 1.051869e-01 1.668300e-02 4.439944e-02 5.058738e-02 4.432617e-02 2.433646e-01 1.323065e-01 5.683482e-02 4.759640e-02 4.136522e-02 3.885123e-04 3.081820e-04 6.523672e-04 1.854428e-04 4.455651e-04 3.572213e-04 3.403385e-04 1.491395e-03 9.864999e-04 9.183867e-04 9.388204e-04 7.214514e-04 3.831505e-05 3.102974e-05 4.280829e-05 2.398648e-05 3.296330e-05 2.645954e-05 1.895330e-05 6.662105e-05 5.884528e-05 8.875741e-05 7.618690e-05 5.591327e-05 2.817959e-04 4.214798e-04 4.544456e-04 3.322303e-02 7.403061e-02 9.608763e-02
<GCONST> -2.006954e+02
<STATE> 41
<MEAN> 42
 1.283946e-02 8.420807e-03 -1.121487e-03 -8.716572e-03 8.182926e-03 6.008910e-03 1.291167e-02 4.057866e-02 4.148380e-02 2.602895e-02 2.344571e-02 1.257639e-02 9.863458e-05 -8.823298e-05 -1.875827e-04 -5.741589e-06 1.442642e-04 -1.215899e-04 4.893395e-04 7.434445e-04 7.933821e-04 6.217719e-04 4.494459e-04 2.385521e-04 3.355968e-05 4.059890e-05 7.329521e-06 -3.662256e-05 1.389220e-05 2.155164e-05 -4.341584e-05 -6.570737e-05 -4.383386e-06 7.429280e-05 7.872557e-05 7.623063e-05 2.777276e-04 -3.424857e-04 9.311875e-05 1.581220e-02 1.114639e-03 -2.359195e-02
<VARIANCE> 42
 4.199554e-03 3.681534e-03 3.570568e-03 3.069902e-03 3.007055e-03 2.467887e-03 1.106444e-02 5.087672e-02 4.562752e-02 1.589624e-02 1.804289e-02 1.397476e-02 1.416405e-04 6.511101e-05 1.022911e-04 7.783379e-05 1.064264e-04 4.493242e-05 1.081755e-04 4.142110e-04 2.471441e-04 3.471143e-04 4.521894e-04 3.536145e-04 3.063010e-05 1.777557e-05 2.520068e-05 1.791018e-05 2.360495e-05 1.319163e-05 9.086330e-06 2.601508e-05 2.092850e-05 3.935317e-05 3.915562e-05 2.812463e-05 4.918780e-05 8.484240e-05 1.336510e-04 1.103665e-02 2.474210e-03 1.844393e-02
<GCONST> -2.564311e+02
<STATE> 42
<MEAN> 42
 2.017572e-01 2.212070e-01 2.405225e-02 -2.110985e-01 9.148981e-02 1.245346e-01 -3.292841e-01 -4.306029e-01 -1.264867e-02 4.020439e-01 5.014822e-01 4.885409e-01 -1.037929e-03 2.324353e-04 1.277342e-03 4.018988e-04 -1.165734e-03 7.636145e-04 -4.544654e-03 -8.711731e-03 -8.959875e-03 -6.965134e-03 -4.220935e-03 -2.174308e-03 -4.956341e-04 -4.069649e-04 9.255804e-05 4.506465e-04 -2.953065e-04 -1.633348e-04 7.886431e-04 1.019317e-03 1.611835e-04 -1.018610e-03 -1.246943e-03 -1.174054e-03 3.526794e-02 1.049049e-02 8.439126e-03 4.237234e-01 1.763310e-01 2.940209e-01
<VARIANCE> 42
 8.639909e-02 1.533524e-01 1.439622e-01 8.412903e-02 7.806372e-02 1.284515e-01 1.490232e-01 5.115079e-01 5.240574e-01 5.330256e-01 5.339479e-01 4.532625e-01 3.136641e-03 5.261179e-03 3.944501e-03 3.212835e-03 2.229180e-03 3.827912e-03 4.000648e-03 1.003246e-02 1.443164e-02 2.116690e-02 1.763371e-02 1.262513e-02 3.456141e-04 5.706256e-04 5.049736e-04 3.317942e-04 2.827787e-04 4.504102e-04 3.268252e-04 8.510238e-04 1.657265e-03 2.436275e-03 1.597811e-03 1.025108e-03 1.589175e-03 1.651479e-03 1.646382e-03 3.222128e-01 1.111980e-01 2.051787e-01
<GCONST> -1.139305e+02
<STATE> 43
<MEAN> 42
 1.960375e-02 2.514867e-02 1.637780e-02 -1.952422e-02 7.007875e-03 2.346644e-02 -2.032694e-03 4.397769e-02 1.107987e-01 7.693981e-02 6.362420e-02 1.206154e-02 2.251793e-04 2.957233e-04 7.007497e-05 -2.594471e-04 8.139681e-05 1.841787e-04 4.694301e-04 1.188833e-03 1.315398e-03 9.326790e-04 6.141698e-04 3.337741e-04 -2.691928e-05 4.561375e-06 3.128162e-05 1.157285e-05 -2.900918e-05 1.818439e-05 -1.192979e-04 -2.400922e-04 -2.205918e-04 -1.171704e-04 -6.648326e-05 -2.793903e-05 2.054597e-03 2.625685e-03 5.425467e-03 4.873873e-02 6.655589e-03 -3.747288e-02
<VARIANCE> 42
 6.950467e-03 8.417749e-03 4.484485e-03 6.562487e-03 3.683031e-03 4.930119e-03 2.632362e-02 1.481319e-01 9.267040e-02 6.474810e-02 6.220152e-02 3.635442e-02 1.297364e-04 1.259250e-04 1.223940e-04 9.723775e-05 9.578393e-05 9.277984e-05 2.535186e-04 1.138342e-03 6.234816e-04 6.540006e-04 7.915765e-04 4.104495e-04 1.653468e-05 2.285627e-05 2.447282e-05 1.358416e-05 1.499084e-05 1.973168e-05 1.705776e-05 4.974362e-05 4.350999e-05 4.821531e-05 5.300628e-05 3.117692e-05 2.031905e-04 2.111934e-04 1.758523e-04 3.831476e-02 5.231282e-03 4.891263e-02
<GCONST> -2.337817e+02
<STATE> 44
<MEAN> 42
 1.398951e-02 2.311770e-02 1.134191e-02 -1.835544e-02 3.164926e-03 2.364118e-02 -2.086975e-03 2.040982e-02 3.741813e-02 3.520443e-02 2.492168e-02 1.805380e-02 1.783974e-05 -5.222246e-05 -7.059785e-05 1.702063e-05 4.341439e-05 -6.156640e-05 1.013643e-04 1.519735e-04 1.132022e-04 3.531993e-05 -1.853185e-05 -3.742362e-05 1.461181e-05 8.552760e-06 -5.872987e-06 -1.191284e-05 9.979143e-06 1.266566e-06 -2.276948e-05 -1.382973e-05 -5.129229e-06 1.386242e-05 2.065543e-05 1.893077e-05 2.213685e-03 -1.501086e-03 4.643909e-04 2.295578e-02 1.397060e-02 -1.128558e-02
<VARIANCE> 42
 7.414699e-03 1.783370e-02 5.200457e-03 1.121825e-02 1.851456e-03 9.758351e-03 1.055885e-02 1.532090e-02 2.333368e-02 2.098431e-02 9.565039e-03 5.228706e-03 2.208908e-04 4.251764e-04 1.520459e-04 2.850911e-04 8.048755e-05 2.341795e-04 1.827904e-04 2.245046e-04 2.909153e-04 4.402865e-04 1.874160e-04 6.727111e-05 3.630839e-05 4.830474e-05 2.640684e-05 3.574073e-05 1.940211e-05 2.834226e-05 2.350055e-05 2.601508e-05 2.203869e-05 3.997377e-05 2.026481e-05 8.821997e-06 1.223316e-04 1.306665e-04 1.633469e-04 9.993396e-03 9.393745e-03 8.112483e-03
<GCONST> -2.481884e+02
<TRANSP> 45
 0.000000e+00 1.000000e+00 0.000000e+00 0.000000e+00 0.000000e+00 0.000000e+00 0.000000e+00 0.000000e+00 0.000000e+00 0.000000e+00 0.000000e+00 0.000000e+00 0.000000e+00 0.000000e+00 0.000000e+00 0.000000e+00 0.000000e+00 0.000000e+00 0.000000e+00 0.000000e+00 0.000000e+00 0.000000e+00 0.000000e+00 0.000000e+00 0.000000e+00 0.000000e+00 0.000000e+00 0.000000e+00 0.000000e+00 0.000000e+00 0.000000e+00 0.000000e+00 0.000000e+00 0.000000e+00 0.000000e+00 0.000000e+00 0.000000e+00 0.000000e+00 0.000000e+00 0.000000e+00 0.000000e+00 0.000000e+00 0.000000e+00 0.000000e+00 0.000000e+00
 0.000000e+00 9.960697e-01 3.930260e-03 0.000000e+00 0.000000e+00 0.000000e+00 0.000000e+00 0.000000e+00 0.000000e+00 0.000000e+00 0.000000e+00 0.000000e+00 0.000000e+00 0.000000e+00 0.000000e+00 0.000000e+00 0.000000e+00 0.000000e+00 0.000000e+00 0.000000e+00 0.000000e+00 0.000000e+00 0.000000e+00 0.000000e+00 0.000000e+00 0.000000e+00 0.000000e+00 0.000000e+00 0.000000e+00 0.000000e+00 0.000000e+00 0.000000e+00 0.000000e+00 0.000000e+00 0.000000e+00 0.000000e+00 0.000000e+00 0.000000e+00 0.000000e+00 0.000000e+00 0.000000e+00 0.000000e+00 0.000000e+00 0.000000e+00 0.000000e+00
 0.000000e+00 0.000000e+00 9.937254e-01 6.274593e-03 0.000000e+00 0.000000e+00 0.000000e+00 0.000000e+00 0.000000e+00 0.000000e+00 0.000000e+00 0.000000e+00 0.000000e+00 0.000000e+00 0.000000e+00 0.000000e+00 0.000000e+00 0.000000e+00 0.000000e+00 0.000000e+00 0.000000e+00 0.000000e+00 0.000000e+00 0.000000e+00 0.000000e+00 0.000000e+00 0.000000e+00 0.000000e+00 0.000000e+00 0.000000e+00 0.000000e+00 0.000000e+00 0.000000e+00 0.000000e+00 0.000000e+00 0.000000e+00 0.000000e+00 0.000000e+00 0.000000e+00 0.000000e+00 0.000000e+00 0.000000e+00 0.000000e+00 0.000000e+00 0.000000e+00
 0.000000e+00 0.000000e+00 0.000000e+00 9.978175e-01 2.182505e-03 0.000000e+00 0.000000e+00 0.000000e+00 0.000000e+00 0.000000e+00 0.000000e+00 0.000000e+00 0.000000e+00 0.000000e+00 0.000000e+00 0.000000e+00 0.000000e+00 0.000000e+00 0.000000e+00 0.000000e+00 0.000000e+00 0.000000e+00 0.000000e+00 0.000000e+00 0.000000e+00 0.000000e+00 0.000000e+00 0.000000e+00 0.000000e+00 0.000000e+00 0.000000e+00 0.000000e+00 0.000000e+00 0.000000e+00 0.000000e+00 0.000000e+00 0.000000e+00 0.000000e+00 0.000000e+00 0.000000e+00 0.000000e+00 0.000000e+00 0.000000e+00 0.000000e+00 0.000000e+00
 0.000000e+00 0.000000e+00 0.000000e+00 0.000000e+00 7.648308e-01 2.351692e-01 0.000000e+00 0.000000e+00 0.000000e+00 0.000000e+00 0.000000e+00 0.000000e+00 0.000000e+00 0.000000e+00 0.000000e+00 0.000000e+00 0.000000e+00 0.000000e+00 0.000000e+00 0.000000e+00 0.000000e+00 0.000000e+00 0.000000e+00 0.000000e+00 0.000000e+00 0.000000e+00 0.000000e+00 0.000000e+00 0.000000e+00 0.000000e+00 0.000000e+00 0.000000e+00 0.000000e+00 0.000000e+00 0.000000e+00 0.000000e+00 0.000000e+00 0.000000e+00 0.000000e+00 0.000000e+00 0.000000e+00 0.000000e+00 0.000000e+00 0.000000e+00 0.000000e+00
 0.000000e+00 0.000000e+00 0.000000e+00 0.000000e+00 0.000000e+00 9.522681e-01 4.773188e-02 0.000000e+00 0.000000e+00 0.000000e+00 0.000000e+00 0.000000e+00 0.000000e+00 0.000000e+00 0.000000e+00 0.000000e+00 0.000000e+00 0.000000e+00 0.000000e+00 0.000000e+00 0.000000e+00 0.000000e+00 0.000000e+00 0.000000e+00 0.000000e+00 0.000000e+00 0.000000e+00 0.000000e+00 0.000000e+00 0.000000e+00 0.000000e+00 0.000000e+00 0.000000e+00 0.000000e+00 0.000000e+00 0.000000e+00 0.000000e+00 0.000000e+00 0.000000e+00 0.000000e+00 0.000000e+00 0.000000e+00 0.000000e+00 0.000000e+00 0.000000e+00
 0.000000e+00 0.000000e+00 0.000000e+00 0.000000e+00 0.000000e+00 0.000000e+00 9.868306e-01 1.316937e-02 0.000000e+00 0.000000e+00 0.000000e+00 0.000000e+00 0.000000e+00 0.000000e+00 0.000000e+00 0.000000e+00 0.000000e+00 0.000000e+00 0.000000e+00 0.000000e+00 0.000000e+00 0.000000e+00 0.000000e+00 0.000000e+00 0.000000e+00 0.000000e+00 0.000000e+00 0.000000e+00 0.000000e+00 0.000000e+00 0.000000e+00 0.000000e+00 0.000000e+00 0.000000e+00 0.000000e+00 0.000000e+00 0.000000e+00 0.000000e+00 0.000000e+00 0.000000e+00 0.000000e+00 0.000000e+00 0.000000e+00 0.000000e+00 0.000000e+00
 0.000000e+00 0.000000e+00 0.000000e+00 0.000000e+00 0.000000e+00 0.000000e+00 0.000000e+00 9.736854e-01 2.631459e-02 0.000000e+00 0.000000e+00 0.000000e+00 0.000000e+00 0.000000e+00 0.000000e+00 0.000000e+00 0.000000e+00 0.000000e+00 0.000000e+00 0.000000e+00 0.000000e+00 0.000000e+00 0.000000e+00 0.000000e+00 0.000000e+00 0.000000e+00 0.000000e+00 0.000000e+00 0.000000e+00 0.000000e+00 0.000000e+00 0.000000e+00 0.000000e+00 0.000000e+00 0.000000e+00 0.000000e+00 0.000000e+00 0.000000e+00 0.000000e+00 0.000000e+00 0.000000e+00 0.000000e+00 0.000000e+00 0.000000e+00 0.000000e+00
 0.000000e+00 0.000000e+00 0.000000e+00 0.000000e+00 0.000000e+00 0.000000e+00 0.000000e+00 0.000000e+00 9.429286e-01 5.707144e-02 0.000000e+00 0.000000e+00 0.000000e+00 0.000000e+00 0.000000e+00 0.000000e+00 0.000000e+00 0.000000e+00 0.000000e+00 0.000000e+00 0.000000e+00 0.000000e+00 0.000000e+00 0.000000e+00 0.000000e+00 0.000000e+00 0.000000e+00 0.000000e+00 0.000000e+00 0.000000e+00 0.000000e+00 0.000000e+00 0.000000e+00 0.000000e+00 0.000000e+00 0.000000e+00 0.000000e+00 0.000000e+00 0.000000e+00 0.000000e+00 0.000000e+00 0.000000e+00 0.000000e+00 0.000000e+00 0.000000e+00
 0.000000e+00 0.000000e+00 0.000000e+00 0.000000e+00 0.000000e+00 0.000000e+00 0.000000e+00 0.000000e+00 0.000000e+00 8.494021e-01 1.505979e-01 0.000000e+00 0.000000e+00 0.000000e+00 0.000000e+00 0.000000e+00 0.000000e+00 0.000000e+00 0.000000e+00 0.000000e+00 0.000000e+00 0.000000e+00 0.000000e+00 0.000000e+00 0.000000e+00 0.000000e+00 0.000000e+00 0.000000e+00 0.000000e+00 0.000000e+00 0.000000e+00 0.000000e+00 0.000000e+00 0.000000e+00 0.000000e+00 0.000000e+00 0.000000e+00 0.000000e+00 0.000000e+00 0.000000e+00 0.000000e+00 0.000000e+00 0.000000e+00 0.000000e+00 0.000000e+00
 0.000000e+00 0.000000e+00 0.000000e+00 0.000000e+00 0.000000e+00 0.000000e+00 0.000000e+00 0.000000e+00 0.000000e+00 0.000000e+00 8.121238e-01 1.878762e-01 0.000000e+00 0.000000e+00 0.000000e+00 0.000000e+00 0.000000e+00 0.000000e+00 0.000000e+00 0.000000e+00 0.000000e+00 0.000000e+00 0.000000e+00 0.000000e+00 0.000000e+00 0.000000e+00 0.000000e+00 0.000000e+00 0.000000e+00 0.000000e+00 0.000000e+00 0.000000e+00 0.000000e+00 0.000000e+00 0.000000e+00 0.000000e+00 0.000000e+00 0.000000e+00 0.000000e+00 0.000000e+00 0.000000e+00 0.000000e+00 0.000000e+00 0.000000e+00 0.000000e+00
 0.000000e+00 0.000000e+00 0.000000e+00 0.000000e+00 0.000000e+00 0.000000e+00 0.000000e+00 0.000000e+00 0.000000e+00 0.000000e+00 0.000000e+00 9.828487e-01 1.715125e-02 0.000000e+00 0.000000e+00 0.000000e+00 0.000000e+00 0.000000e+00 0.000000e+00 0.000000e+00 0.000000e+00 0.000000e+00 0.000000e+00 0.000000e+00 0.000000e+00 0.000000e+00 0.000000e+00 0.000000e+00 0.000000e+00 0.000000e+00 0.000000e+00 0.000000e+00 0.000000e+00 0.000000e+00 0.000000e+00 0.000000e+00 0.000000e+00 0.000000e+00 0.000000e+00 0.000000e+00 0.000000e+00 0.000000e+00 0.000000e+00 0.000000e+00 0.000000e+00
 0.000000e+00 0.000000e+00 0.000000e+00 0.000000e+00 0.000000e+00 0.000000e+00 0.000000e+00 0.000000e+00 0.000000e+00 0.000000e+00 0.000000e+00 0.000000e+00 9.885623e-01 1.143776e-02 0.000000e+00 0.000000e+00 0.000000e+00 0.000000e+00 0.000000e+00 0.000000e+00 0.000000e+00 0.000000e+00 0.000000e+00 0.000000e+00 0.000000e+00 0.000000e+00 0.000000e+00 0.000000e+00 0.000000e+00 0.000000e+00 0.000000e+00 0.000000e+00 0.000000e+00 0.000000e+00 0.000000e+00 0.000000e+00 0.000000e+00 0.000000e+00 0.000000e+00 0.000000e+00 0.000000e+00 0.000000e+00 0.000000e+00 0.000000e+00 0.000000e+00
 0.000000e+00 0.000000e+00 0.000000e+00 0.000000e+00 0.000000e+00 0.000000e+00 0.000000e+00 0.000000e+00 0.000000e+00 0.000000e+00 0.000000e+00 0.000000e+00 0.000000e+00 9.972436e-01 2.756401e-03 0.000000e+00 0.000000e+00 0.000000e+00 0.000000e+00 0.000000e+00 0.000000e+00 0.000000e+00 0.000000e+00 0.000000e+00 0.000000e+00 0.000000e+00 0.000000e+00 0.000000e+00 0.000000e+00 0.000000e+00 0.000000e+00 0.000000e+00 0.000000e+00 0.000000e+00 0.000000e+00 0.000000e+00 0.000000e+00 0.000000e+00 0.000000e+00 0.000000e+00 0.000000e+00 0.000000e+00 0.000000e+00 0.000000e+00 0.000000e+00
 0.000000e+00 0.000000e+00 0.000000e+00 0.000000e+00 0.000000e+00 0.000000e+00 0.000000e+00 0.000000e+00 0.000000e+00 0.000000e+00 0.000000e+00 0.000000e+00 0.000000e+00 0.000000e+00 9.965588e-01 3.441226e-03 0.000000e+00 0.000000e+00 0.000000e+00 0.000000e+00 0.000000e+00 0.000000e+00 0.000000e+00 0.000000e+00 0.000000e+00 0.000000e+00 0.000000e+00 0.000000e+00 0.000000e+00 0.000000e+00 0.000000e+00 0.000000e+00 0.000000e+00 0.000000e+00 0.000000e+00 0.000000e+00 0.000000e+00 0.000000e+00 0.000000e+00 0.000000e+00 0.000000e+00 0.000000e+00 0.000000e+00 0.000000e+00 0.000000e+00
 0.000000e+00 0.000000e+00 0.000000e+00 0.000000e+00 0.000000e+00 0.000000e+00 0.000000e+00 0.000000e+00 0.000000e+00 0.000000e+00 0.000000e+00 0.000000e+00 0.000000e+00 0.000000e+00 0.000000e+00 9.881136e-01 1.188635e-02 0.000000e+00 0.000000e+00 0.000000e+00 0.000000e+00 0.000000e+00 0.000000e+00 0.000000e+00 0.000000e+00 0.000000e+00 0.000000e+00 0.000000e+00 0.000000e+00 0.000000e+00 0.000000e+00 0.000000e+00 0.000000e+00 0.000000e+00 0.000000e+00 0.000000e+00 0.000000e+00 0.000000e+00 0.000000e+00 0.000000e+00 0.000000e+00 0.000000e+00 0.000000e+00 0.000000e+00 0.000000e+00
 0.000000e+00 0.000000e+00 0.000000e+00 0.000000e+00 0.000000e+00 0.000000e+00 0.000000e+00 0.000000e+00 0.000000e+00 0.000000e+00 0.000000e+00 0.000000e+00 0.000000e+00 0.000000e+00 0.000000e+00 0.000000e+00 9.938631e-01 6.136914e-03 0.000000e+00 0.000000e+00 0.000000e+00 0.000000e+00 0.000000e+00 0.000000e+00 0.000000e+00 0.000000e+00 0.000000e+00 0.000000e+00 0.000000e+00 0.000000e+00 0.000000e+00 0.000000e+00 0.000000e+00 0.000000e+00 0.000000e+00 0.000000e+00 0.000000e+00 0.000000e+00 0.000000e+00 0.000000e+00 0.000000e+00 0.000000e+00 0.000000e+00 0.000000e+00 0.000000e+00
 0.000000e+00 0.000000e+00 0.000000e+00 0.000000e+00 0.000000e+00 0.000000e+00 0.000000e+00 0.000000e+00 0.000000e+00 0.000000e+00 0.000000e+00 0.000000e+00 0.000000e+00 0.000000e+00 0.000000e+00 0.000000e+00 0.000000e+00 9.959036e-01 4.096406e-03 0.000000e+00 0.000000e+00 0.000000e+00 0.000000e+00 0.000000e+00 0.000000e+00 0.000000e+00 0.000000e+00 0.000000e+00 0.000000e+00 0.000000e+00 0.000000e+00 0.000000e+00 0.000000e+00 0.000000e+00 0.000000e+00 0.000000e+00 0.000000e+00 0.000000e+00 0.000000e+00 0.000000e+00 0.000000e+00 0.000000e+00 0.000000e+00 0.000000e+00 0.000000e+00
 0.000000e+00 0.000000e+00 0.000000e+00 0.000000e+00 0.000000e+00 0.000000e+00 0.000000e+00 0.000000e+00 0.000000e+00 0.000000e+00 0.000000e+00 0.000000e+00 0.000000e+00 0.000000e+00 0.000000e+00 0.000000e+00 0.000000e+00 0.000000e+00 9.810920e-01 1.890804e-02 0.000000e+00 0.000000e+00 0.000000e+00 0.000000e+00 0.000000e+00 0.000000e+00 0.000000e+00 0.000000e+00 0.000000e+00 0.000000e+00 0.000000e+00 0.000000e+00 0.000000e+00 0.000000e+00 0.000000e+00 0.000000e+00 0.000000e+00 0.000000e+00 0.000000e+00 0.000000e+00 0.000000e+00 0.000000e+00 0.000000e+00 0.000000e+00 0.000000e+00
 0.000000e+00 0.000000e+00 0.000000e+00 0.000000e+00 0.000000e+00 0.000000e+00 0.000000e+00 0.000000e+00 0.000000e+00 0.000000e+00 0.000000e+00 0.000000e+00 0.000000e+00 0.000000e+00 0.000000e+00 0.000000e+00 0.000000e+00 0.000000e+00 0.000000e+00 6.498272e-01 3.501728e-01 0.000000e+00 0.000000e+00 0.000000e+00 0.000000e+00 0.000000e+00 0.000000e+00 0.000000e+00 0.000000e+00 0.000000e+00 0.000000e+00 0.000000e+00 0.000000e+00 0.000000e+00 0.000000e+00 0.000000e+00 0.000000e+00 0.000000e+00 0.000000e+00 0.000000e+00 0.000000e+00 0.000000e+00 0.000000e+00 0.000000e+00 0.000000e+00
 0.000000e+00 0.000000e+00 0.000000e+00 0.000000e+00 0.000000e+00 0.000000e+00 0.000000e+00 0.000000e+00 0.000000e+00 0.000000e+00 0.000000e+00 0.000000e+00 0.000000e+00 0.000000e+00 0.000000e+00 0.000000e+00 0.000000e+00 0.000000e+00 0.000000e+00 0.000000e+00 7.088808e-01 2.911191e-01 0.000000e+00 0.000000e+00 0.000000e+00 0.000000e+00 0.000000e+00 0.000000e+00 0.000000e+00 0.000000e+00 0.000000e+00 0.000000e+00 0.000000e+00 0.000000e+00 0.000000e+00 0.000000e+00 0.000000e+00 0.000000e+00 0.000000e+00 0.000000e+00 0.000000e+00 0.000000e+00 0.000000e+00 0.000000e+00 0.000000e+00
 0.000000e+00 0.000000e+00 0.000000e+00 0.000000e+00 0.000000e+00 0.000000e+00 0.000000e+00 0.000000e+00 0.000000e+00 0.000000e+00 0.000000e+00 0.000000e+00 0.000000e+00 0.000000e+00 0.000000e+00 0.000000e+00 0.000000e+00 0.000000e+00 0.000000e+00 0.000000e+00 0.000000e+00 9.890411e-01 1.095892e-02 0.000000e+00 0.000000e+00 0.000000e+00 0.000000e+00 0.000000e+00 0.000000e+00 0.000000e+00 0.000000e+00 0.000000e+00 0.000000e+00 0.000000e+00 0.000000e+00 0.000000e+00 0.000000e+00 0.000000e+00 0.000000e+00 0.000000e+00 0.000000e+00 0.000000e+00 0.000000e+00 0.000000e+00 0.000000e+00
 0.000000e+00 0.000000e+00 0.000000e+00 0.000000e+00 0.000000e+00 0.000000e+00 0.000000e+00 0.000000e+00 0.000000e+00 0.000000e+00 0.000000e+00 0.000000e+00 0.000000e+00 0.000000e+00 0.000000e+00 0.000000e+00 0.000000e+00 0.000000e+00 0.000000e+00 0.000000e+00 0.000000e+00 0.000000e+00 9.144483e-01 8.555177e-02 0.000000e+00 0.000000e+00 0.000000e+00 0.000000e+00 0.000000e+00 0.000000e+00 0.000000e+00 0.000000e+00 0.000000e+00 0.000000e+00 0.000000e+00 0.000000e+00 0.000000e+00 0.000000e+00 0.000000e+00 0.000000e+00 0.000000e+00 0.000000e+00 0.000000e+00 0.000000e+00 0.000000e+00
 0.000000e+00 0.000000e+00 0.000000e+00 0.000000e+00 0.000000e+00 0.000000e+00 0.000000e+00 0.000000e+00 0.000000e+00 0.000000e+00 0.000000e+00 0.000000e+00 0.000000e+00 0.000000e+00 0.000000e+00 0.000000e+00 0.000000e+00 0.000000e+00 0.000000e+00 0.000000e+00 0.000000e+00 0.000000e+00 0.000000e+00 8.441253e-01 1.558747e-01 0.000000e+00 0.000000e+00 0.000000e+00 0.000000e+00 0.000000e+00 0.000000e+00 0.000000e+00 0.000000e+00 0.000000e+00 0.000000e+00 0.000000e+00 0.000000e+00 0.000000e+00 0.000000e+00 0.000000e+00 0.000000e+00 0.000000e+00 0.000000e+00 0.000000e+00 0.000000e+00
 0.000000e+00 0.000000e+00 0.000000e+00 0.000000e+00 0.000000e+00 0.000000e+00 0.000000e+00 0.000000e+00 0.000000e+00 0.000000e+00 0.000000e+00 0.000000e+00 0.000000e+00 0.000000e+00 0.000000e+00 0.000000e+00 0.000000e+00 0.000000e+00 0.000000e+00 0.000000e+00 0.000000e+00 0.000000e+00 0.000000e+00 0.000000e+00 7.527301e-01 2.472699e-01 0.000000e+00 0.000000e+00 0.000000e+00 0.000000e+00 0.000000e+00 0.000000e+00 0.000000e+00 0.000000e+00 0.000000e+00 0.000000e+00 0.000000e+00 0.000000e+00 0.000000e+00 0.000000e+00 0.000000e+00 0.000000e+00 0.000000e+00 0.000000e+00 0.000000e+00
 0.000000e+00 0.000000e+00 0.000000e+00 0.000000e+00 0.000000e+00 0.000000e+00 0.000000e+00 0.000000e+00 0.000000e+00 0.000000e+00 0.000000e+00 0.000000e+00 0.000000e+00 0.000000e+00 0.000000e+00 0.000000e+00 0.000000e+00 0.000000e+00 0.000000e+00 0.000000e+00 0.000000e+00 0.000000e+00 0.000000e+00 0.000000e+00 0.000000e+00 8.616269e-01 1.383731e-01 0.000000e+00 0.000000e+00 0.000000e+00 0.000000e+00 0.000000e+00 0.000000e+00 0.000000e+00 0.000000e+00 0.000000e+00 0.000000e+00 0.000000e+00 0.000000e+00 0.000000e+00 0.000000e+00 0.000000e+00 0.000000e+00 0.000000e+00 0.000000e+00
 0.000000e+00 0.000000e+00 0.000000e+00 0.000000e+00 0.000000e+00 0.000000e+00 0.000000e+00 0.000000e+00 0.000000e+00 0.000000e+00 0.000000e+00 0.000000e+00 0.000000e+00 0.000000e+00 0.000000e+00 0.000000e+00 0.000000e+00 0.000000e+00 0.000000e+00 0.000000e+00 0.000000e+00 0.000000e+00 0.000000e+00 0.000000e+00 0.000000e+00 0.000000e+00 9.894165e-01 1.058355e-02 0.000000e+00 0.000000e+00 0.000000e+00 0.000000e+00 0.000000e+00 0.000000e+00 0.000000e+00 0.000000e+00 0.000000e+00 0.000000e+00 0.000000e+00 0.000000e+00 0.000000e+00 0.000000e+00 0.000000e+00 0.000000e+00 0.000000e+00
 0.000000e+00 0.000000e+00 0.000000e+00 0.000000e+00 0.000000e+00 0.000000e+00 0.000000e+00 0.000000e+00 0.000000e+00 0.000000e+00 0.000000e+00 0.000000e+00 0.000000e+00 0.000000e+00 0.000000e+00 0.000000e+00 0.000000e+00 0.000000e+00 0.000000e+00 0.000000e+00 0.000000e+00 0.000000e+00 0.000000e+00 0.000000e+00 0.000000e+00 0.000000e+00 0.000000e+00 9.944997e-01 5.500304e-03 0.000000e+00 0.000000e+00 0.000000e+00 0.000000e+00 0.000000e+00 0.000000e+00 0.000000e+00 0.000000e+00 0.000000e+00 0.000000e+00 0.000000e+00 0.000000e+00 0.000000e+00 0.000000e+00 0.000000e+00 0.000000e+00
 0.000000e+00 0.000000e+00 0.000000e+00 0.000000e+00 0.000000e+00 0.000000e+00 0.000000e+00 0.000000e+00 0.000000e+00 0.000000e+00 0.000000e+00 0.000000e+00 0.000000e+00 0.000000e+00 0.000000e+00 0.000000e+00 0.000000e+00 0.000000e+00 0.000000e+00 0.000000e+00 0.000000e+00 0.000000e+00 0.000000e+00 0.000000e+00 0.000000e+00 0.000000e+00 0.000000e+00 0.000000e+00 9.445885e-01 5.541154e-02 0.000000e+00 0.000000e+00 0.000000e+00 0.000000e+00 0.000000e+00 0.000000e+00 0.000000e+00 0.000000e+00 0.000000e+00 0.000000e+00 0.000000e+00 0.000000e+00 0.000000e+00 0.000000e+00 0.000000e+00
 0.000000e+00 0.000000e+00 0.000000e+00 0.000000e+00 0.000000e+00 0.000000e+00 0.000000e+00 0.000000e+00 0.000000e+00 0.000000e+00 0.000000e+00 0.000000e+00 0.000000e+00 0.000000e+00 0.000000e+00 0.000000e+00 0.000000e+00 0.000000e+00 0.000000e+00 0.000000e+00 0.000000e+00 0.000000e+00 0.000000e+00 0.000000e+00 0.000000e+00 0.000000e+00 0.000000e+00 0.000000e+00 0.000000e+00 9.847618e-01 1.523815e-02 0.000000e+00 0.000000e+00 0.000000e+00 0.000000e+00 0.000000e+00 0.000000e+00 0.000000e+00 0.000000e+00 0.000000e+00 0.000000e+00 0.000000e+00 0.000000e+00 0.000000e+00 0.000000e+00
 0.000000e+00 0.000000e+00 0.000000e+00 0.000000e+00 0.000000e+00 0.000000e+00 0.000000e+00 0.000000e+00 0.000000e+00 0.000000e+00 0.000000e+00 0.000000e+00 0.000000e+00 0.000000e+00 0.000000e+00 0.000000e+00 0.000000e+00 0.000000e+00 0.000000e+00 0.000000e+00 0.000000e+00 0.000000e+00 0.000000e+00 0.000000e+00 0.000000e+00 0.000000e+00 0.000000e+00 0.000000e+00 0.000000e+00 0.000000e+00 9.520602e-01 4.793979e-02 0.000000e+00 0.000000e+00 0.000000e+00 0.000000e+00 0.000000e+00 0.000000e+00 0.000000e+00 0.000000e+00 0.000000e+00 0.000000e+00 0.000000e+00 0.000000e+00 0.000000e+00
 0.000000e+00 0.000000e+00 0.000000e+00 0.000000e+00 0.000000e+00 0.000000e+00 0.000000e+00 0.000000e+00 0.000000e+00 0.000000e+00 0.000000e+00 0.000000e+00 0.000000e+00 0.000000e+00 0.000000e+00 0.000000e+00 0.000000e+00 0.000000e+00 0.000000e+00 0.000000e+00 0.000000e+00 0.000000e+00 0.000000e+00 0.000000e+00 0.000000e+00 0.000000e+00 0.000000e+00 0.000000e+00 0.000000e+00 0.000000e+00 0.000000e+00 9.940861e-01 5.913858e-03 0.000000e+00 0.000000e+00 0.000000e+00 0.000000e+00 0.000000e+00 0.000000e+00 0.000000e+00 0.000000e+00 0.000000e+00 0.000000e+00 0.000000e+00 0.000000e+00
 0.000000e+00 0.000000e+00 0.000000e+00 0.000000e+00 0.000000e+00 0.000000e+00 0.000000e+00 0.000000e+00 0.000000e+00 0.000000e+00 0.000000e+00 0.000000e+00 0.000000e+00 0.000000e+00 0.000000e+00 0.000000e+00 0.000000e+00 0.000000e+00 0.000000e+00 0.000000e+00 0.000000e+00 0.000000e+00 0.000000e+00 0.000000e+00 0.000000e+00 0.000000e+00 0.000000e+00 0.000000e+00 0.000000e+00 0.000000e+00 0.000000e+00 0.000000e+00 9.717672e-01 2.823280e-02 0.000000e+00 0.000000e+00 0.000000e+00 0.000000e+00 0.000000e+00 0.000000e+00 0.000000e+00 0.000000e+00 0.000000e+00 0.000000e+00 0.000000e+00
 0.000000e+00 0.000000e+00 0.000000e+00 0.000000e+00 0.000000e+00 0.000000e+00 0.000000e+00 0.000000e+00 0.000000e+00 0.000000e+00 0.000000e+00 0.000000e+00 0.000000e+00 0.000000e+00 0.000000e+00 0.000000e+00 0.000000e+00 0.000000e+00 0.000000e+00 0.000000e+00 0.000000e+00 0.000000e+00 0.000000e+00 0.000000e+00 0.000000e+00 0.000000e+00 0.000000e+00 0.000000e+00 0.000000e+00 0.000000e+00 0.000000e+00 0.000000e+00 0.000000e+00 9.942909e-01 5.709103e-03 0.000000e+00 0.000000e+00 0.000000e+00 0.000000e+00 0.000000e+00 0.000000e+00 0.000000e+00 0.000000e+00 0.000000e+00 0.000000e+00
 0.000000e+00 0.000000e+00 0.000000e+00 0.000000e+00 0.000000e+00 0.000000e+00 0.000000e+00 0.000000e+00 0.000000e+00 0.000000e+00 0.000000e+00 0.000000e+00 0.000000e+00 0.000000e+00 0.000000e+00 0.000000e+00 0.000000e+00 0.000000e+00 0.000000e+00 0.000000e+00 0.000000e+00 0.000000e+00 0.000000e+00 0.000000e+00 0.000000e+00 0.000000e+00 0.000000e+00 0.000000e+00 0.000000e+00 0.000000e+00 0.000000e+00 0.000000e+00 0.000000e+00 0.000000e+00 9.588091e-01 4.119091e-02 0.000000e+00 0.000000e+00 0.000000e+00 0.000000e+00 0.000000e+00 0.000000e+00 0.000000e+00 0.000000e+00 0.000000e+00
 0.000000e+00 0.000000e+00 0.000000e+00 0.000000e+00 0.000000e+00 0.000000e+00 0.000000e+00 0.000000e+00 0.000000e+00 0.000000e+00 0.000000e+00 0.000000e+00 0.000000e+00 0.000000e+00 0.000000e+00 0.000000e+00 0.000000e+00 0.000000e+00 0.000000e+00 0.000000e+00 0.000000e+00 0.000000e+00 0.000000e+00 0.000000e+00 0.000000e+00 0.000000e+00 0.000000e+00 0.000000e+00 0.000000e+00 0.000000e+00 0.000000e+00 0.000000e+00 0.000000e+00 0.000000e+00 0.000000e+00 9.866733e-01 1.332671e-02 0.000000e+00 0.000000e+00 0.000000e+00 0.000000e+00 0.000000e+00 0.000000e+00 0.000000e+00 0.000000e+00
 0.000000e+00 0.000000e+00 0.000000e+00 0.000000e+00 0.000000e+00 0.000000e+00 0.000000e+00 0.000000e+00 0.000000e+00 0.000000e+00 0.000000e+00 0.000000e+00 0.000000e+00 0.000000e+00 0.000000e+00 0.000000e+00 0.000000e+00 0.000000e+00 0.000000e+00 0.000000e+00 0.000000e+00 0.000000e+00 0.000000e+00 0.000000e+00 0.000000e+00 0.000000e+00 0.000000e+00 0.000000e+00 0.000000e+00 0.000000e+00 0.000000e+00 0.000000e+00 0.000000e+00 0.000000e+00 0.000000e+00 0.000000e+00 9.742449e-01 2.575512e-02 0.000000e+00 0.000000e+00 0.000000e+00 0.000000e+00 0.000000e+00 0.000000e+00 0.000000e+00
 0.000000e+00 0.000000e+00 0.000000e+00 0.000000e+00 0.000000e+00 0.000000e+00 0.000000e+00 0.000000e+00 0.000000e+00 0.000000e+00 0.000000e+00 0.000000e+00 0.000000e+00 0.000000e+00 0.000000e+00 0.000000e+00 0.000000e+00 0.000000e+00 0.000000e+00 0.000000e+00 0.000000e+00 0.000000e+00 0.000000e+00 0.000000e+00 0.000000e+00 0.000000e+00 0.000000e+00 0.000000e+00 0.000000e+00 0.000000e+00 0.000000e+00 0.000000e+00 0.000000e+00 0.000000e+00 0.000000e+00 0.000000e+00 0.000000e+00 9.975463e-01 2.453672e-03 0.000000e+00 0.000000e+00 0.000000e+00 0.000000e+00 0.000000e+00 0.000000e+00
 0.000000e+00 0.000000e+00 0.000000e+00 0.000000e+00 0.000000e+00 0.000000e+00 0.000000e+00 0.000000e+00 0.000000e+00 0.000000e+00 0.000000e+00 0.000000e+00 0.000000e+00 0.000000e+00 0.000000e+00 0.000000e+00 0.000000e+00 0.000000e+00 0.000000e+00 0.000000e+00 0.000000e+00 0.000000e+00 0.000000e+00 0.000000e+00 0.000000e+00 0.000000e+00 0.000000e+00 0.000000e+00 0.000000e+00 0.000000e+00 0.000000e+00 0.000000e+00 0.000000e+00 0.000000e+00 0.000000e+00 0.000000e+00 0.000000e+00 0.000000e+00 9.562866e-01 4.371340e-02 0.000000e+00 0.000000e+00 0.000000e+00 0.000000e+00 0.000000e+00
 0.000000e+00 0.000000e+00 0.000000e+00 0.000000e+00 0.000000e+00 0.000000e+00 0.000000e+00 0.000000e+00 0.000000e+00 0.000000e+00 0.000000e+00 0.000000e+00 0.000000e+00 0.000000e+00 0.000000e+00 0.000000e+00 0.000000e+00 0.000000e+00 0.000000e+00 0.000000e+00 0.000000e+00 0.000000e+00 0.000000e+00 0.000000e+00 0.000000e+00 0.000000e+00 0.000000e+00 0.000000e+00 0.000000e+00 0.000000e+00 0.000000e+00 0.000000e+00 0.000000e+00 0.000000e+00 0.000000e+00 0.000000e+00 0.000000e+00 0.000000e+00 0.000000e+00 9.809260e-01 1.907402e-02 0.000000e+00 0.000000e+00 0.000000e+00 0.000000e+00
 0.000000e+00 0.000000e+00 0.000000e+00 0.000000e+00 0.000000e+00 0.000000e+00 0.000000e+00 0.000000e+00 0.000000e+00 0.000000e+00 0.000000e+00 0.000000e+00 0.000000e+00 0.000000e+00 0.000000e+00 0.000000e+00 0.000000e+00 0.000000e+00 0.000000e+00 0.000000e+00 0.000000e+00 0.000000e+00 0.000000e+00 0.000000e+00 0.000000e+00 0.000000e+00 0.000000e+00 0.000000e+00 0.000000e+00 0.000000e+00 0.000000e+00 0.000000e+00 0.000000e+00 0.000000e+00 0.000000e+00 0.000000e+00 0.000000e+00 0.000000e+00 0.000000e+00 0.000000e+00 9.946982e-01 5.301800e-03 0.000000e+00 0.000000e+00 0.000000e+00
 0.000000e+00 0.000000e+00 0.000000e+00 0.000000e+00 0.000000e+00 0.000000e+00 0.000000e+00 0.000000e+00 0.000000e+00 0.000000e+00 0.000000e+00 0.000000e+00 0.000000e+00 0.000000e+00 0.000000e+00 0.000000e+00 0.000000e+00 0.000000e+00 0.000000e+00 0.000000e+00 0.000000e+00 0.000000e+00 0.000000e+00 0.000000e+00 0.000000e+00 0.000000e+00 0.000000e+00 0.000000e+00 0.000000e+00 0.000000e+00 0.000000e+00 0.000000e+00 0.000000e+00 0.000000e+00 0.000000e+00 0.000000e+00 0.000000e+00 0.000000e+00 0.000000e+00 0.000000e+00 0.000000e+00 9.473290e-01 5.267099e-02 0.000000e+00 0.000000e+00
 0.000000e+00 0.000000e+00 0.000000e+00 0.000000e+00 0.000000e+00 0.000000e+00 0.000000e+00 0.000000e+00 0.000000e+00 0.000000e+00 0.000000e+00 0.000000e+00 0.000000e+00 0.000000e+00 0.000000e+00 0.000000e+00 0.000000e+00 0.000000e+00 0.000000e+00 0.000000e+00 0.000000e+00 0.000000e+00 0.000000e+00 0.000000e+00 0.000000e+00 0.000000e+00 0.000000e+00 0.000000e+00 0.000000e+00 0.000000e+00 0.000000e+00 0.000000e+00 0.000000e+00 0.000000e+00 0.000000e+00 0.000000e+00 0.000000e+00 0.000000e+00 0.000000e+00 0.000000e+00 0.000000e+00 0.000000e+00 9.914641e-01 8.535840e-03 0.000000e+00
 0.000000e+00 0.000000e+00 0.000000e+00 0.000000e+00 0.000000e+00 0.000000e+00 0.000000e+00 0.000000e+00 0.000000e+00 0.000000e+00 0.000000e+00 0.000000e+00 0.000000e+00 0.000000e+00 0.000000e+00 0.000000e+00 0.000000e+00 0.000000e+00 0.000000e+00 0.000000e+00 0.000000e+00 0.000000e+00 0.000000e+00 0.000000e+00 0.000000e+00 0.000000e+00 0.000000e+00 0.000000e+00 0.000000e+00 0.000000e+00 0.000000e+00 0.000000e+00 0.000000e+00 0.000000e+00 0.000000e+00 0.000000e+00 0.000000e+00 0.000000e+00 0.000000e+00 0.000000e+00 0.000000e+00 0.000000e+00 0.000000e+00 9.964666e-01 3.533433e-03
 0.000000e+00 0.000000e+00 0.000000e+00 0.000000e+00 0.000000e+00 0.000000e+00 0.000000e+00 0.000000e+00 0.000000e+00 0.000000e+00 0.000000e+00 0.000000e+00 0.000000e+00 0.000000e+00 0.000000e+00 0.000000e+00 0.000000e+00 0.000000e+00 0.000000e+00 0.000000e+00 0.000000e+00 0.000000e+00 0.000000e+00 0.000000e+00 0.000000e+00 0.000000e+00 0.000000e+00 0.000000e+00 0.000000e+00 0.000000e+00 0.000000e+00 0.000000e+00 0.000000e+00 0.000000e+00 0.000000e+00 0.000000e+00 0.000000e+00 0.000000e+00 0.000000e+00 0.000000e+00 0.000000e+00 0.000000e+00 0.000000e+00 0.000000e+00 0.000000e+00
<ENDHMM>
