~o
<STREAMINFO> 1 42
<VECSIZE> 42<NULLD><USER><DIAGC>
~h "CONTROL"
<BEGINHMM>
<NUMSTATES> 55
<STATE> 2
<NUMMIXES> 16
<MIXTURE> 1 2.184082e-02
<MEAN> 42
 9.211298e-02 1.353471e-01 3.136185e-02 -1.107131e-01 3.283535e-02 8.068646e-02 2.157892e-03 6.803411e-02 1.434382e-01 1.716377e-01 1.597256e-01 1.183119e-01 -1.358129e-03 7.222415e-03 8.587130e-03 -2.939168e-03 -4.914755e-03 7.954412e-03 1.776051e-03 2.016582e-03 3.601919e-03 5.391180e-03 5.170852e-03 4.673736e-03 -3.763802e-04 2.541478e-03 2.913881e-03 -1.081280e-03 -1.615557e-03 2.749028e-03 1.998176e-03 1.652316e-03 1.695572e-03 2.508781e-03 2.303624e-03 2.051571e-03 2.956319e-03 1.398496e-02 7.181193e-03 1.258851e-01 9.122042e-02 -3.028933e-02
<VARIANCE> 42
 2.512979e-03 5.027081e-03 3.758912e-03 3.062445e-03 1.593426e-03 3.500664e-03 4.415584e-03 3.204739e-02 5.342659e-02 1.008732e-02 4.419997e-03 2.321111e-03 1.089270e-04 7.538406e-05 8.996614e-05 6.963508e-05 8.057289e-05 5.598050e-05 3.453031e-05 7.374013e-05 1.906115e-05 4.065752e-05 1.808884e-05 1.214518e-05 4.325795e-05 3.124295e-05 4.890883e-05 2.501554e-05 3.831343e-05 2.938566e-05 1.129764e-05 2.601508e-05 5.802191e-06 2.111039e-05 1.373766e-05 6.659654e-06 3.131895e-05 2.103159e-04 2.717015e-04 3.040140e-03 3.779741e-03 1.449717e-02
<GCONST> -2.772528e+02
<MIXTURE> 2 5.313037e-02
<MEAN> 42
 6.322576e-03 2.066030e-02 7.997982e-03 -1.341844e-02 -2.274840e-03 1.155224e-02 5.595013e-03 1.148438e-02 1.995993e-02 1.177141e-02 4.658666e-03 2.220858e-02 2.449099e-03 5.505082e-03 3.082806e-03 -3.976007e-03 -2.723454e-04 4.250160e-03 2.272658e-03 2.747614e-03 3.476712e-03 3.590530e-03 3.359646e-03 3.360562e-03 1.461488e-03 2.641996e-03 1.197100e-03 -2.054071e-03 1.792766e-04 1.910141e-03 8.663981e-04 1.167106e-03 1.638716e-03 1.447287e-03 1.395953e-03 1.434959e-03 1.318031e-04 -5.692791e-04 2.054557e-03 9.543691e-03 1.587350e-02 -5.591942e-03
<VARIANCE> 42
 3.553438e-04 4.470728e-04 4.390060e-04 3.214673e-04 2.541761e-04 3.587611e-04 5.499623e-04 1.370589e-03 1.180958e-03 6.550460e-04 4.191562e-04 2.574342e-03 5.293895e-05 3.411956e-05 3.215374e-05 3.563897e-05 3.393357e-05 2.022097e-05 1.225329e-05 7.374013e-05 1.259224e-05 4.065752e-05 1.131955e-05 1.859847e-05 1.644158e-05 1.098775e-05 1.000021e-05 1.116232e-05 1.033852e-05 6.391511e-06 2.676270e-06 2.601508e-05 3.904441e-06 1.211414e-05 2.246483e-06 2.579298e-06 2.131001e-06 1.170754e-05 5.103094e-05 2.952833e-04 2.625898e-04 3.379838e-04
<GCONST> -3.391653e+02
<MIXTURE> 3 7.086378e-02
<MEAN> 42
 6.421702e-05 -2.565183e-02 -3.074897e-02 1.405003e-02 1.655831e-02 -3.680646e-02 -1.811730e-03 4.380231e-03 -2.164747e-03 -1.404601e-02 -1.718168e-02 -1.595943e-02 -2.615862e-04 1.550801e-03 1.809559e-03 -6.705114e-04 -1.040358e-03 1.665321e-03 8.261120e-04 1.551925e-03 1.635452e-03 1.419462e-03 1.587927e-03 1.475555e-03 -2.541287e-04 1.423331e-03 1.684414e-03 -5.946474e-04 -9.776343e-04 1.556350e-03 1.009790e-03 1.044134e-03 1.438421e-03 1.387902e-03 1.276278e-03 1.177432e-03 -3.901389e-04 2.021183e-03 -2.447292e-03 -1.045720e-02 -2.388630e-02 -4.809230e-03
<VARIANCE> 42
 4.613858e-04 4.436883e-04 6.159521e-04 3.262796e-04 4.650954e-04 4.677125e-04 1.357185e-03 1.370589e-03 1.450207e-03 8.291356e-04 4.809205e-04 8.481458e-04 2.747742e-05 1.561308e-05 2.770076e-05 1.473243e-05 2.377890e-05 1.444397e-05 9.417686e-06 7.374013e-05 9.872299e-06 4.065752e-05 1.131955e-05 8.494042e-06 1.109128e-05 6.869983e-06 1.023015e-05 6.446833e-06 9.022533e-06 5.732157e-06 2.452546e-06 2.601508e-05 3.352151e-06 1.211414e-05 3.198639e-06 2.796584e-06 5.198008e-06 1.550221e-05 5.652328e-05 2.765478e-04 3.168999e-04 6.346953e-04
<GCONST> -3.411824e+02
<MIXTURE> 4 8.983553e-02
<MEAN> 42
 6.676769e-02 7.643737e-02 5.791432e-03 -7.000544e-02 3.051658e-02 3.983951e-02 -3.071392e-02 -1.976172e-02 6.937952e-02 1.079761e-01 1.033320e-01 8.540674e-02 8.695096e-04 1.474203e-03 6.021145e-04 -1.177313e-03 1.781576e-04 1.022418e-03 1.042188e-03 1.172033e-03 1.184263e-03 1.367090e-03 1.410237e-03 1.430666e-03 3.078885e-04 4.871277e-04 1.806992e-04 -3.973726e-04 6.900250e-05 3.331557e-04 5.493761e-04 6.652292e-04 6.249758e-04 5.740721e-04 5.549907e-04 5.183271e-04 6.997607e-03 2.522826e-03 5.569423e-03 9.106860e-02 4.987499e-02 1.346250e-02
<VARIANCE> 42
 8.143504e-04 1.003975e-03 1.948321e-03 4.224315e-04 7.707683e-04 1.236037e-03 2.535750e-03 2.216737e-03 2.585883e-03 1.198178e-03 1.701371e-03 3.724479e-03 3.776392e-05 3.888973e-05 3.645196e-05 2.906274e-05 2.729299e-05 2.830655e-05 1.329289e-05 7.374013e-05 1.076213e-05 4.065752e-05 1.131955e-05 1.284087e-05 1.034765e-05 1.354482e-05 1.418490e-05 8.392051e-06 8.765377e-06 1.127549e-05 2.759040e-06 2.601508e-05 3.132817e-06 1.211414e-05 2.925224e-06 2.950942e-06 1.319912e-05 4.035819e-05 1.178801e-04 6.020888e-04 1.005436e-03 8.226935e-04
<GCONST> -3.215982e+02
<MIXTURE> 5 1.340305e-01
<MEAN> 42
 -4.480610e-04 1.103205e-02 5.251703e-03 -3.815025e-03 -4.427136e-03 6.936076e-03 4.634372e-03 3.947276e-04 1.078712e-02 8.265598e-03 3.439203e-03 4.708584e-03 4.152794e-04 2.791307e-04 -1.210862e-04 -3.401831e-04 2.656762e-04 8.288720e-05 4.484290e-04 2.170170e-04 1.990061e-04 2.953311e-05 1.688801e-04 1.840807e-04 1.613678e-04 4.888702e-05 -1.079285e-04 -1.047243e-04 1.439173e-04 -3.208959e-05 1.552432e-04 1.719876e-04 1.976629e-04 1.340235e-04 1.147712e-04 1.657322e-04 1.688023e-04 -4.495603e-04 -1.593927e-03 3.954268e-03 9.185532e-03 -2.544909e-03
<VARIANCE> 42
 3.467817e-04 2.019507e-04 2.132926e-04 2.333239e-04 1.937542e-04 1.436091e-04 2.146833e-04 1.370589e-03 7.467280e-04 6.537745e-04 4.191562e-04 3.380077e-04 1.504902e-05 1.123429e-05 9.721065e-06 1.081789e-05 9.761458e-06 6.624339e-06 3.487483e-06 7.374013e-05 9.872299e-06 4.065752e-05 1.131955e-05 8.494042e-06 7.483813e-06 4.840811e-06 4.727056e-06 5.009855e-06 4.891308e-06 2.901741e-06 1.446291e-06 2.601508e-05 1.968034e-06 1.211414e-05 1.390534e-06 1.528095e-06 2.131001e-06 2.473286e-06 2.271421e-05 2.765478e-04 1.367416e-04 2.838487e-04
<GCONST> -3.653035e+02
<MIXTURE> 6 5.466307e-02
<MEAN> 42
 -9.736182e-03 -2.428093e-02 -1.997196e-02 1.811084e-02 5.339323e-03 -2.844650e-02 7.882997e-03 9.788992e-03 -7.413486e-03 -2.560317e-02 -3.191081e-02 -3.036215e-02 8.899980e-06 -1.789486e-03 -1.793878e-03 9.031924e-04 9.141589e-04 -1.763381e-03 1.184181e-04 -2.455478e-04 -5.293478e-04 -8.128015e-04 -6.914121e-04 -1.002020e-03 1.052231e-03 -5.035989e-04 -1.551356e-03 -2.758957e-04 1.319886e-03 -1.041347e-03 -1.656402e-04 -2.033382e-04 -1.982200e-04 -1.312646e-04 -2.811969e-04 -2.975042e-04 -1.594521e-03 1.119718e-03 -8.072294e-04 -2.369202e-02 -2.048037e-02 -9.128114e-03
<VARIANCE> 42
 2.254972e-04 3.059036e-04 2.660257e-04 1.930091e-04 1.790513e-04 1.948627e-04 9.555050e-04 1.370589e-03 6.997035e-04 6.711768e-04 4.191562e-04 6.906948e-04 2.300672e-05 1.751979e-05 1.777433e-05 1.588205e-05 1.593074e-05 1.216946e-05 6.665919e-06 7.374013e-05 9.872299e-06 4.065752e-05 1.131955e-05 8.494042e-06 7.935470e-06 4.974751e-06 8.390144e-06 4.385342e-06 6.889482e-06 4.778236e-06 1.578382e-06 2.601508e-05 2.504998e-06 1.211414e-05 2.212907e-06 2.210381e-06 3.583596e-06 1.101396e-05 3.362643e-05 2.765478e-04 2.117745e-04 5.093188e-04
<GCONST> -3.533321e+02
<MIXTURE> 7 4.475303e-02
<MEAN> 42
 5.125459e-02 5.149333e-02 -8.461848e-03 -5.103542e-02 3.242494e-02 1.640229e-02 4.135480e-04 1.159148e-02 3.566262e-02 8.515049e-02 1.014424e-01 8.113085e-02 3.379464e-03 -1.922880e-03 -5.296887e-03 -7.147982e-04 4.331100e-03 -3.605046e-03 -9.659457e-04 -2.375114e-03 -3.027946e-03 -2.176687e-03 -2.986271e-03 -2.992403e-03 1.310694e-03 -7.644250e-04 -2.070686e-03 -2.707753e-04 1.675181e-03 -1.415015e-03 -1.208278e-03 -1.018463e-03 -9.147798e-04 -1.230554e-03 -1.308248e-03 -1.085992e-03 3.069528e-03 4.856434e-03 5.688058e-03 7.055658e-02 3.624301e-02 2.895807e-03
<VARIANCE> 42
 2.168725e-03 7.827546e-03 5.285757e-03 3.379041e-03 1.558358e-03 6.513487e-03 3.559710e-03 5.483118e-03 3.228931e-03 4.796817e-03 6.378935e-03 6.775198e-03 1.010780e-04 7.983523e-05 1.034828e-04 6.444525e-05 8.204937e-05 6.627606e-05 3.685707e-05 7.374013e-05 3.367007e-05 4.842297e-05 5.254871e-05 4.035617e-05 4.486710e-05 2.616033e-05 3.730310e-05 2.620285e-05 3.430232e-05 2.043141e-05 6.767394e-06 2.601508e-05 7.620181e-06 1.211414e-05 8.265074e-06 7.121235e-06 2.387100e-05 6.274194e-05 2.469515e-04 2.735514e-03 5.918419e-03 2.396243e-03
<GCONST> -2.818133e+02
<MIXTURE> 8 2.922324e-02
<MEAN> 42
 1.233698e-01 1.560705e-01 2.160745e-02 -1.393561e-01 5.212134e-02 8.244507e-02 -7.376797e-02 9.567385e-02 1.040966e-01 1.319126e-01 1.957557e-01 1.906236e-01 -2.330364e-03 -2.961902e-04 2.046869e-03 1.241856e-03 -2.196918e-03 9.034828e-04 4.929455e-05 -2.554445e-03 -2.824019e-03 -1.012783e-03 -3.032158e-04 8.801153e-05 -1.014743e-03 -6.823235e-05 9.767488e-04 5.459232e-04 -9.667291e-04 4.577721e-04 8.918923e-04 4.268515e-04 4.234125e-04 4.177237e-04 1.962129e-04 1.881108e-04 8.657578e-03 -9.797124e-03 -8.358543e-03 1.502313e-01 1.076467e-01 3.302928e-03
<VARIANCE> 42
 1.875379e-03 6.303412e-03 4.013937e-03 2.846063e-03 1.328139e-03 4.313981e-03 3.674996e-03 1.272595e-02 2.467204e-02 8.480204e-03 1.121736e-02 8.867959e-03 6.996618e-05 5.439283e-05 3.649160e-05 5.335290e-05 3.957937e-05 2.922314e-05 3.025060e-05 7.374013e-05 3.585852e-05 4.065752e-05 5.174764e-05 5.379409e-05 1.947234e-05 1.363074e-05 1.389107e-05 1.346086e-05 1.336746e-05 9.354341e-06 2.243279e-06 2.601508e-05 2.820314e-06 1.211414e-05 2.738636e-06 2.519569e-06 3.915141e-05 4.348973e-04 6.458521e-04 3.159301e-03 5.320433e-03 6.044069e-03
<GCONST> -2.872021e+02
<MIXTURE> 9 1.300254e-01
<MEAN> 42
 -5.633551e-03 3.646214e-03 1.028790e-03 2.271365e-03 -4.607016e-03 5.511343e-04 1.288994e-04 -1.056964e-03 1.363454e-03 1.253995e-03 -3.326262e-03 1.099417e-03 -1.928588e-03 -2.712629e-03 -8.026939e-04 2.311311e-03 -5.478701e-04 -1.749639e-03 -9.747613e-04 -1.284516e-03 -1.628493e-03 -1.520596e-03 -1.523485e-03 -1.570116e-03 -6.872757e-04 -1.302180e-03 -6.270895e-04 9.946823e-04 -2.728309e-05 -9.604386e-04 -6.897163e-04 -6.719857e-04 -9.747400e-04 -7.789131e-04 -7.870420e-04 -8.187018e-04 8.068586e-06 -5.072593e-04 -8.635934e-04 -9.849342e-04 4.284712e-03 6.750366e-05
<VARIANCE> 42
 3.200102e-04 2.019507e-04 1.692489e-04 2.228048e-04 1.758590e-04 1.436091e-04 2.608222e-04 1.370589e-03 8.756437e-04 6.537745e-04 4.191562e-04 3.380077e-04 2.098127e-05 1.508622e-05 1.094902e-05 1.534907e-05 1.242348e-05 7.736980e-06 4.183032e-06 7.374013e-05 9.872299e-06 4.065752e-05 1.131955e-05 8.494042e-06 9.638933e-06 6.904289e-06 5.069173e-06 7.034732e-06 5.700131e-06 3.525022e-06 1.504695e-06 2.601508e-05 2.896270e-06 1.211414e-05 1.618700e-06 1.675545e-06 2.131001e-06 2.984684e-06 1.402398e-05 2.765478e-04 1.367416e-04 2.838487e-04
<GCONST> -3.619893e+02
<MIXTURE> 10 1.044483e-01
<MEAN> 42
 5.938309e-02 5.817632e-02 -5.786206e-03 -5.795304e-02 3.205968e-02 2.390118e-02 -4.245325e-02 1.232274e-03 6.191462e-02 7.684828e-02 7.303203e-02 6.125130e-02 7.309348e-04 -1.257726e-03 -1.991299e-03 2.778583e-04 1.319059e-03 -1.623193e-03 -7.371934e-04 -1.424801e-03 -1.640871e-03 -1.661163e-03 -1.585301e-03 -1.194034e-03 3.766298e-05 -6.963927e-04 -7.322498e-04 3.336786e-04 3.640262e-04 -7.080375e-04 -4.154990e-04 -5.205324e-04 -5.848055e-04 -6.696252e-04 -6.211083e-04 -6.466320e-04 5.467754e-03 3.513938e-05 8.844869e-04 7.053562e-02 3.335996e-02 7.139646e-03
<VARIANCE> 42
 1.071278e-03 7.230184e-04 1.687130e-03 4.649078e-04 9.204487e-04 9.484298e-04 2.151541e-03 2.349892e-03 2.568755e-03 2.117391e-03 1.763456e-03 2.639350e-03 3.721118e-05 2.756197e-05 3.138827e-05 2.443674e-05 2.719884e-05 2.022737e-05 1.490494e-05 7.374013e-05 1.371844e-05 4.065752e-05 1.374567e-05 1.386690e-05 1.196322e-05 9.937903e-06 1.243042e-05 7.830437e-06 9.511577e-06 8.260993e-06 2.907884e-06 2.601508e-05 3.189996e-06 1.211414e-05 3.132654e-06 2.508729e-06 1.281409e-05 4.579459e-05 1.029804e-04 1.156379e-03 7.280947e-04 7.782734e-04
<GCONST> -3.224152e+02
<MIXTURE> 11 7.350010e-02
<MEAN> 42
 -6.463982e-03 -3.886648e-02 -3.761705e-02 2.371366e-02 1.698025e-02 -4.508476e-02 3.459584e-05 4.422598e-03 -1.319490e-02 -2.347130e-02 -2.889021e-02 -2.566018e-02 -5.194316e-04 3.908212e-04 9.154749e-04 5.441648e-05 -7.388453e-04 6.789064e-04 -3.707767e-04 -1.377711e-04 -1.143822e-04 -2.686372e-04 -1.466706e-04 -3.829152e-04 -3.937769e-04 6.274392e-04 1.013336e-03 -1.236802e-04 -7.126968e-04 8.347912e-04 6.385290e-05 2.125442e-04 2.842284e-04 3.175894e-04 3.474143e-04 2.315982e-04 -9.274774e-04 1.857452e-03 -4.807183e-03 -1.986742e-02 -3.359050e-02 -5.121130e-03
<VARIANCE> 42
 4.046555e-04 3.777200e-04 5.693224e-04 2.788323e-04 4.130756e-04 4.144317e-04 1.195940e-03 1.370589e-03 8.570877e-04 6.537745e-04 4.938566e-04 1.125546e-03 1.767696e-05 1.380178e-05 2.254232e-05 1.004995e-05 1.691592e-05 1.393090e-05 7.901288e-06 7.374013e-05 9.872299e-06 4.065752e-05 1.131955e-05 8.494042e-06 7.532330e-06 5.927862e-06 7.464678e-06 4.841313e-06 6.072744e-06 4.867700e-06 2.776344e-06 2.601508e-05 2.050736e-06 1.211414e-05 2.307199e-06 2.390007e-06 6.975465e-06 1.388883e-05 6.903388e-05 3.973418e-04 2.448735e-04 5.259055e-04
<GCONST> -3.464816e+02
<MIXTURE> 12 6.316716e-02
<MEAN> 42
 3.022943e-03 1.237440e-02 3.439440e-03 -7.240559e-03 -1.394598e-03 4.816905e-03 6.494109e-03 1.195737e-02 1.783505e-02 4.127510e-03 -3.073345e-03 5.802392e-03 1.620125e-03 2.838071e-03 1.198486e-03 -2.227676e-03 1.697800e-04 2.013039e-03 3.902510e-04 6.550376e-04 1.144588e-03 9.628494e-04 1.092513e-03 9.793077e-04 5.635225e-04 9.412600e-04 3.711686e-04 -7.462515e-04 7.086166e-05 6.614157e-04 2.049914e-04 3.158543e-04 5.103247e-04 3.421024e-04 5.269004e-04 6.164013e-04 -3.643573e-04 -1.211457e-03 6.832636e-04 1.866465e-03 8.604052e-03 -8.055090e-03
<VARIANCE> 42
 4.455002e-04 4.154619e-04 4.746134e-04 3.614436e-04 3.170253e-04 3.684514e-04 6.534593e-04 1.370589e-03 1.345875e-03 6.537745e-04 4.191562e-04 1.443447e-03 4.444669e-05 2.524564e-05 3.564328e-05 2.649244e-05 3.373758e-05 1.897003e-05 1.128319e-05 7.374013e-05 9.915811e-06 4.065752e-05 1.131955e-05 1.787910e-05 1.550527e-05 9.541923e-06 1.079711e-05 9.832898e-06 1.059535e-05 6.153178e-06 2.877650e-06 2.601508e-05 3.158405e-06 1.211414e-05 2.413662e-06 2.843925e-06 2.131001e-06 1.446561e-05 4.430248e-05 2.765478e-04 2.600065e-04 5.060974e-04
<GCONST> -3.397821e+02
<MIXTURE> 13 4.093787e-02
<MEAN> 42
 -1.378984e-02 -3.328069e-02 -2.498874e-02 2.435863e-02 6.000529e-03 -3.483087e-02 1.000968e-02 4.136235e-03 -1.362702e-02 -3.823614e-02 -3.993820e-02 -4.685514e-02 -1.007646e-03 -3.362161e-03 -2.335197e-03 2.216231e-03 6.286589e-04 -2.877198e-03 -6.407870e-04 -1.633454e-03 -2.316664e-03 -2.753387e-03 -2.659247e-03 -2.523413e-03 3.424742e-04 -1.000253e-03 -1.318091e-03 3.326874e-04 7.970150e-04 -1.188108e-03 -9.337249e-04 -8.909742e-04 -1.146982e-03 -1.213403e-03 -1.046501e-03 -8.109882e-04 -2.275566e-03 1.581801e-03 -4.658201e-04 -3.297631e-02 -2.749860e-02 -8.768265e-03
<VARIANCE> 42
 3.363601e-04 3.696394e-04 3.469698e-04 2.703290e-04 2.449976e-04 2.392857e-04 9.675244e-04 1.370589e-03 7.480708e-04 6.537745e-04 4.191562e-04 6.427430e-04 2.536850e-05 1.814306e-05 1.664799e-05 1.776001e-05 1.696075e-05 1.157219e-05 7.606239e-06 7.374013e-05 9.872299e-06 4.065752e-05 1.131955e-05 9.495623e-06 9.242489e-06 4.311704e-06 7.128410e-06 5.034082e-06 7.350532e-06 3.571477e-06 2.763691e-06 2.601508e-05 2.400985e-06 1.211414e-05 2.624254e-06 2.412661e-06 4.216500e-06 1.271726e-05 4.752159e-05 2.765478e-04 2.593041e-04 5.240654e-04
<GCONST> -3.497884e+02
<MIXTURE> 14 3.242127e-02
<MEAN> 42
 3.459165e-02 2.174079e-02 -2.166930e-02 -2.827055e-02 2.929438e-02 -6.741447e-03 -1.704641e-03 2.327630e-02 3.438067e-02 3.028028e-02 3.700684e-02 4.082305e-02 -1.897367e-03 -6.046129e-03 -4.174398e-03 4.003315e-03 1.118260e-03 -5.096005e-03 -2.490976e-03 -4.991096e-03 -5.781691e-03 -5.190414e-03 -5.830558e-03 -5.212973e-03 -3.403829e-04 -2.958200e-03 -2.634466e-03 1.681327e-03 1.134972e-03 -2.797941e-03 -1.592879e-03 -2.283148e-03 -3.044558e-03 -2.928821e-03 -2.728740e-03 -2.592145e-03 1.341625e-03 6.494178e-04 1.771728e-03 3.170320e-02 1.005871e-02 -7.767756e-03
<VARIANCE> 42
 1.507526e-03 5.751481e-03 3.950801e-03 2.554517e-03 1.304835e-03 4.612472e-03 3.101046e-03 3.529937e-03 3.222949e-03 2.616140e-03 4.219734e-03 6.499968e-03 7.014648e-05 5.970621e-05 5.375743e-05 5.176439e-05 4.706851e-05 3.967225e-05 3.906054e-05 7.374013e-05 3.887525e-05 4.065752e-05 3.821971e-05 3.276850e-05 3.862460e-05 2.345574e-05 2.333296e-05 2.538898e-05 2.525031e-05 1.385423e-05 1.126979e-05 2.601508e-05 7.362443e-06 1.211414e-05 9.494746e-06 1.342238e-05 1.930405e-05 4.120597e-05 2.440333e-04 1.805749e-03 4.325306e-03 2.084882e-03
<GCONST> -2.900374e+02
<MIXTURE> 15 3.033527e-02
<MEAN> 42
 1.063201e-01 1.457182e-01 2.703526e-02 -1.281150e-01 4.252654e-02 7.920127e-02 -6.293064e-02 7.774410e-02 7.576822e-02 1.120132e-01 1.551618e-01 1.462083e-01 -5.341388e-03 -4.990041e-03 3.365244e-04 5.201431e-03 -2.872125e-03 -2.403875e-03 -1.697813e-03 -5.899312e-03 -6.186973e-03 -4.878372e-03 -4.024799e-03 -3.396882e-03 -2.450160e-03 -2.100200e-03 3.185820e-04 2.263121e-03 -1.407434e-03 -9.311883e-04 -3.802297e-04 -7.596052e-04 -7.831425e-04 -9.132486e-04 -1.013000e-03 -9.958413e-04 7.359291e-03 -6.226647e-03 -9.280797e-03 1.207664e-01 1.029371e-01 6.141521e-03
<VARIANCE> 42
 1.754358e-03 5.496493e-03 4.171866e-03 2.588871e-03 1.480393e-03 3.753109e-03 2.500430e-03 1.154765e-02 1.833114e-02 6.421587e-03 9.351045e-03 8.328948e-03 6.276103e-05 4.678488e-05 2.922977e-05 4.749191e-05 3.378686e-05 2.284485e-05 3.879843e-05 7.374013e-05 4.081901e-05 4.065752e-05 4.653248e-05 3.883598e-05 1.757507e-05 1.091173e-05 1.215290e-05 1.137837e-05 1.196175e-05 7.569548e-06 2.389306e-06 2.601508e-05 2.643523e-06 1.211414e-05 3.136111e-06 3.120237e-06 2.753324e-05 3.515108e-04 4.255828e-04 2.869172e-03 5.079390e-03 4.920944e-03
<GCONST> -2.917827e+02
<MIXTURE> 16 2.681753e-02
<MEAN> 42
 7.647891e-02 1.075727e-01 2.046060e-02 -9.170774e-02 3.186022e-02 5.762636e-02 -2.853291e-02 1.400783e-02 6.041808e-02 1.216883e-01 1.248517e-01 9.624767e-02 -2.382813e-03 3.539715e-03 5.955677e-03 -5.916494e-04 -4.144246e-03 4.788427e-03 -1.807913e-04 -6.836280e-05 1.360242e-03 2.254050e-03 2.516011e-03 2.295608e-03 -1.690027e-03 1.113730e-03 2.818771e-03 2.716160e-04 -2.229885e-03 1.997684e-03 1.006201e-03 9.040420e-04 9.322233e-04 1.205825e-03 1.346424e-03 1.275322e-03 3.870402e-03 5.898920e-03 -8.342451e-04 9.871840e-02 7.682107e-02 9.578954e-03
<VARIANCE> 42
 2.422543e-03 6.152773e-03 5.030764e-03 3.257281e-03 1.769514e-03 4.604032e-03 4.372519e-03 1.736757e-02 2.238966e-02 6.900028e-03 4.884363e-03 2.811709e-03 1.338980e-04 7.225767e-05 8.362388e-05 8.246347e-05 9.050721e-05 4.542562e-05 2.887754e-05 7.374013e-05 1.486664e-05 4.065752e-05 1.517472e-05 1.509873e-05 4.537017e-05 2.814030e-05 6.416775e-05 2.081017e-05 4.769604e-05 3.517062e-05 7.658094e-06 2.601508e-05 6.639602e-06 1.211414e-05 6.996577e-06 6.721067e-06 2.262405e-05 1.771325e-04 2.692419e-04 2.352366e-03 5.164501e-03 6.541777e-03
<GCONST> -2.804454e+02
<STATE> 3
<NUMMIXES> 16
<MIXTURE> 1 7.356498e-03
<MEAN> 42
 2.334176e-01 1.821861e-01 -5.047870e-02 -2.066559e-01 1.415139e-01 6.451462e-02 -3.223873e-01 7.100550e-03 1.542576e-01 2.116800e-01 2.681253e-01 1.874591e-01 -2.173856e-04 1.236346e-03 1.453724e-03 -5.094795e-04 -8.554446e-04 1.356941e-03 4.671896e-04 1.368381e-03 -3.710897e-04 1.516064e-03 1.769729e-02 2.067768e-03 -1.716724e-03 -5.910372e-04 1.125720e-03 1.153892e-03 -1.436920e-03 2.857153e-04 1.160788e-03 5.448384e-04 -1.056555e-04 -2.108708e-04 5.935458e-05 -1.336660e-04 2.531396e-02 7.516396e-03 7.327177e-03 2.576832e-01 8.908507e-02 7.905291e-02
<VARIANCE> 42
 1.079502e-03 4.251128e-04 1.662513e-04 7.163738e-04 4.193853e-04 1.436091e-04 4.991770e-03 1.370589e-03 3.536368e-03 4.101883e-03 2.073075e-02 2.183174e-03 3.573922e-05 3.612425e-05 3.097568e-05 2.818787e-05 2.484918e-05 2.452716e-05 2.687078e-05 7.374013e-05 2.862211e-05 4.065752e-05 3.231713e-04 2.483677e-05 1.494671e-05 4.611023e-06 1.295836e-05 6.539691e-06 1.329871e-05 5.313193e-06 1.947851e-06 2.601508e-05 4.314295e-06 1.211414e-05 6.630924e-05 4.444912e-06 3.095590e-05 1.143321e-04 1.136068e-04 5.360104e-03 1.367416e-04 2.838487e-04
<GCONST> -3.149287e+02
<MIXTURE> 2 7.113653e-02
<MEAN> 42
 6.909360e-03 2.607643e-02 2.189893e-02 -1.171682e-02 -1.595045e-03 2.171447e-02 4.160984e-03 -1.007406e-03 9.938851e-03 1.407214e-02 1.746361e-02 1.874521e-02 3.860213e-03 9.178680e-03 5.321322e-03 -6.526972e-03 -7.093714e-04 7.347017e-03 5.644995e-03 5.653094e-03 5.983564e-03 5.681688e-03 5.751962e-03 5.585643e-03 2.621660e-03 3.349744e-03 7.224666e-04 -2.986915e-03 9.638593e-04 2.042047e-03 2.291258e-03 2.566836e-03 2.497521e-03 2.390650e-03 2.524892e-03 2.443480e-03 6.203713e-04 9.132310e-04 5.176477e-04 1.244952e-02 2.207034e-02 1.824719e-03
<VARIANCE> 42
 7.198268e-04 7.331352e-04 8.455289e-04 5.261409e-04 5.122571e-04 5.726747e-04 7.753423e-04 1.370589e-03 6.496048e-04 6.537745e-04 7.107639e-04 4.295674e-04 1.913816e-04 1.160331e-04 8.557378e-05 1.324344e-04 1.097828e-04 5.376693e-05 1.830474e-05 7.374013e-05 2.036789e-05 4.065752e-05 1.710134e-05 1.675302e-05 6.104098e-05 4.442765e-05 3.434343e-05 4.413849e-05 3.654955e-05 2.490949e-05 7.109675e-06 2.601508e-05 6.683198e-06 1.211414e-05 6.491863e-06 6.855661e-06 2.667367e-06 5.593099e-06 1.103070e-04 2.765478e-04 4.615240e-04 2.838487e-04
<GCONST> -3.169496e+02
<MIXTURE> 3 8.006635e-02
<MEAN> 42
 -1.969023e-02 -3.697044e-02 -1.545648e-02 3.081036e-02 2.068726e-03 -2.886206e-02 -5.891254e-03 -2.245781e-02 -1.943988e-02 -2.085314e-02 -1.772285e-02 -2.040913e-02 1.348509e-04 3.722286e-03 3.603023e-03 -1.922990e-03 -1.742248e-03 3.683191e-03 1.374709e-03 3.201809e-03 4.474595e-03 4.557561e-03 4.259887e-03 3.165153e-03 1.517388e-03 3.529624e-03 2.009086e-03 -2.509351e-03 -2.530495e-04 2.798862e-03 2.240069e-03 3.838305e-03 3.663211e-03 3.118538e-03 3.359147e-03 3.057359e-03 -9.675442e-04 -1.870345e-04 4.931791e-03 -1.541067e-02 -2.741908e-02 7.023864e-03
<VARIANCE> 42
 1.008315e-03 5.441409e-04 7.126968e-04 4.848714e-04 6.889240e-04 3.335449e-04 7.295097e-04 1.370589e-03 5.390603e-04 9.519450e-04 7.042337e-04 1.000310e-03 1.069912e-04 6.595307e-05 9.987032e-05 6.148957e-05 8.640419e-05 5.734370e-05 3.683778e-05 7.374013e-05 4.690126e-05 4.065752e-05 3.297204e-05 2.804749e-05 4.901495e-05 3.070151e-05 3.691834e-05 3.062225e-05 3.516105e-05 2.194031e-05 1.241050e-05 2.601508e-05 1.370823e-05 1.211414e-05 1.550669e-05 1.271342e-05 2.488942e-06 1.423137e-05 9.507736e-05 3.307902e-04 3.501232e-04 2.921373e-04
<GCONST> -3.133086e+02
<MIXTURE> 4 7.344434e-02
<MEAN> 42
 5.668929e-02 1.159553e-01 5.797104e-02 -8.524548e-02 2.353401e-03 8.017483e-02 -2.145809e-02 -3.068433e-03 7.052610e-03 2.350430e-02 6.230579e-02 2.921278e-02 1.917739e-03 3.036667e-03 1.098515e-03 -2.461494e-03 3.880387e-04 2.119283e-03 1.249932e-03 1.871672e-03 2.231905e-03 3.299995e-03 4.308461e-03 3.447618e-03 -1.213882e-03 -5.997614e-04 6.015620e-04 9.035836e-04 -9.220127e-04 3.198598e-05 1.150260e-03 1.081620e-03 9.138320e-04 8.408757e-04 1.258822e-03 7.659248e-04 5.151107e-03 2.746517e-03 -1.921544e-03 3.845005e-02 9.151138e-02 2.230585e-02
<VARIANCE> 42
 1.444453e-03 1.845748e-03 1.960450e-03 1.035432e-03 1.263903e-03 1.530893e-03 2.429565e-03 1.515799e-03 3.587685e-03 1.286071e-03 8.914657e-03 1.232659e-03 7.935233e-05 9.139281e-05 6.835058e-05 6.857864e-05 5.089604e-05 6.136516e-05 5.128992e-05 7.374013e-05 1.918603e-05 4.065752e-05 5.627085e-05 1.916267e-05 2.539692e-05 2.658766e-05 2.641471e-05 1.951592e-05 1.963378e-05 2.048036e-05 8.996145e-06 2.601508e-05 5.245854e-06 1.211414e-05 1.930936e-05 5.573726e-06 5.733655e-06 1.006065e-04 2.898323e-04 1.178277e-03 1.288910e-03 8.214811e-04
<GCONST> -2.993062e+02
<MIXTURE> 5 1.104246e-01
<MEAN> 42
 5.532544e-03 6.046680e-03 4.449963e-03 -2.472719e-03 1.070148e-03 1.880957e-03 6.299844e-03 -7.921640e-03 -2.347464e-03 -2.581835e-03 4.195839e-02 6.264244e-03 -1.633198e-04 -5.346789e-04 -3.738554e-04 3.460438e-04 1.058234e-04 -4.212865e-04 2.951694e-04 3.455207e-07 -9.916759e-06 -7.581234e-05 2.335992e-03 -2.127211e-04 1.069997e-05 2.063421e-04 1.951338e-04 -1.092075e-04 -1.024776e-04 2.027450e-04 1.730337e-04 3.437118e-04 4.290929e-04 2.996230e-04 3.927352e-04 2.392733e-04 3.955663e-04 4.132855e-03 1.093083e-03 1.066570e-02 6.943729e-03 5.475910e-03
<VARIANCE> 42
 2.192700e-04 2.142660e-04 1.757402e-04 1.277049e-04 1.052582e-04 1.559574e-04 1.012518e-03 1.370589e-03 4.825017e-04 6.537745e-04 8.992298e-03 3.380077e-04 2.914794e-05 2.702248e-05 2.818151e-05 2.100623e-05 2.191658e-05 2.044209e-05 6.415025e-06 7.374013e-05 1.020419e-05 4.065752e-05 1.930470e-04 9.077410e-06 1.332594e-05 1.259034e-05 1.245256e-05 9.849679e-06 9.789120e-06 9.285846e-06 2.330147e-06 2.601508e-05 3.640918e-06 1.211414e-05 6.323207e-05 2.891078e-06 2.131001e-06 8.276876e-05 1.681210e-05 3.731244e-04 1.367416e-04 2.838487e-04
<GCONST> -3.400083e+02
<MIXTURE> 6 6.850623e-02
<MEAN> 42
 -2.010465e-02 -4.125723e-02 -1.617277e-02 3.236969e-02 1.778775e-03 -3.182674e-02 1.010052e-02 -1.389696e-02 -1.507185e-02 -1.503013e-02 -1.602545e-02 -1.283813e-02 -9.386613e-04 -5.664413e-03 -4.723437e-03 3.316552e-03 1.843319e-03 -5.280449e-03 2.190968e-04 -1.676817e-03 -3.392735e-03 -4.483717e-03 -4.912814e-03 -4.464208e-03 4.138880e-04 4.048073e-04 -2.181274e-06 -3.952209e-04 2.155389e-04 2.257891e-04 -6.122178e-04 -1.243168e-03 -1.553886e-03 -1.600747e-03 -1.496277e-03 -1.335592e-03 -1.218708e-03 7.227996e-04 5.166491e-03 -1.506404e-02 -3.053667e-02 -2.688137e-04
<VARIANCE> 42
 7.490227e-04 7.587976e-04 7.444216e-04 4.868394e-04 5.827365e-04 5.387636e-04 1.293334e-03 1.370589e-03 1.149090e-03 9.821487e-04 6.655633e-04 8.345654e-04 1.339023e-04 7.892324e-05 1.178148e-04 7.718457e-05 1.060034e-04 6.511370e-05 4.587758e-05 7.374013e-05 2.231699e-05 4.065752e-05 2.370399e-05 2.261751e-05 4.281558e-05 3.311584e-05 4.682914e-05 2.634843e-05 3.629765e-05 2.954109e-05 1.353028e-05 2.601508e-05 1.099065e-05 1.211414e-05 1.116087e-05 9.207712e-06 2.970093e-06 2.532067e-05 1.043221e-04 4.339704e-04 4.697979e-04 2.838487e-04
<GCONST> -3.107774e+02
<MIXTURE> 7 8.185308e-02
<MEAN> 42
 3.197740e-02 6.559221e-02 3.003299e-02 -4.633809e-02 6.548205e-03 4.340997e-02 -1.377650e-02 5.059177e-05 1.224155e-02 1.522787e-02 1.895482e-02 1.944905e-02 -1.706868e-03 -5.060858e-03 -3.339298e-03 3.385514e-03 8.408444e-04 -4.259919e-03 -6.362651e-04 -1.527210e-03 -2.169662e-03 -2.676522e-03 -2.546455e-03 -2.426333e-03 -1.987857e-03 -2.697669e-03 -7.039813e-04 2.345094e-03 -6.356852e-04 -1.723266e-03 -1.524794e-03 -1.622726e-03 -1.686618e-03 -1.576694e-03 -1.664043e-03 -1.613893e-03 2.263493e-03 1.677147e-03 -1.296834e-03 2.001278e-02 5.021336e-02 9.705259e-03
<VARIANCE> 42
 1.483549e-03 8.141527e-04 1.609610e-03 7.781429e-04 1.222954e-03 8.336852e-04 9.963623e-04 1.370589e-03 1.615238e-03 7.358557e-04 9.917134e-04 1.062577e-03 1.880969e-04 9.268084e-05 1.107691e-04 1.127810e-04 1.272717e-04 5.513443e-05 4.535055e-05 7.374013e-05 2.466011e-05 4.065752e-05 2.565233e-05 2.485869e-05 7.429352e-05 4.140447e-05 5.055456e-05 4.523345e-05 5.267304e-05 2.798010e-05 1.276608e-05 2.601508e-05 6.787969e-06 1.211414e-05 7.268995e-06 7.390658e-06 7.519591e-06 1.195154e-05 1.654608e-04 5.435870e-04 5.245473e-04 3.078774e-04
<GCONST> -3.045009e+02
<MIXTURE> 8 1.376633e-02
<MEAN> 42
 6.672950e-02 6.096917e-02 -4.889584e-03 -6.311962e-02 3.777950e-02 2.538900e-02 -5.942465e-02 -3.244588e-03 2.268373e-02 2.414641e-02 2.156563e-02 3.900021e-02 5.063825e-03 9.508533e-03 4.469840e-03 -7.286172e-03 5.829195e-05 7.046659e-03 1.169081e-03 3.062799e-03 8.234997e-03 8.850489e-03 5.134149e-03 7.561743e-03 -5.812808e-04 2.883064e-03 3.440360e-03 -1.168489e-03 -2.139559e-03 3.250725e-03 3.898898e-03 5.000340e-03 4.868976e-03 4.457646e-03 5.714681e-03 4.854793e-03 3.419835e-03 -7.824635e-05 -3.033172e-03 4.132681e-02 3.542699e-02 2.059759e-02
<VARIANCE> 42
 3.873351e-03 1.145637e-03 3.266510e-03 1.546556e-03 3.174842e-03 1.234367e-03 8.041532e-03 1.833324e-03 3.219420e-03 2.785346e-03 1.416925e-03 2.956307e-03 2.266569e-04 8.462180e-05 1.398177e-04 1.206853e-04 1.661854e-04 5.614609e-05 8.646788e-05 7.374013e-05 1.084096e-04 1.582610e-04 1.731424e-04 6.947713e-05 7.284012e-05 1.848747e-05 6.279474e-05 2.990209e-05 6.428630e-05 2.320453e-05 3.275823e-05 2.601508e-05 2.912167e-05 4.563756e-05 3.777029e-05 2.502060e-05 2.687202e-05 3.285394e-05 2.211803e-04 1.373881e-03 6.945794e-04 1.336878e-03
<GCONST> -2.767423e+02
<MIXTURE> 9 1.023769e-01
<MEAN> 42
 1.940971e-03 -1.534452e-03 9.115061e-04 2.681698e-03 1.551072e-03 -3.823400e-03 -4.706119e-03 -1.076660e-02 -5.800406e-03 -2.830226e-03 -3.206847e-02 4.469153e-03 -1.216603e-03 -2.230648e-03 -1.030427e-03 1.714800e-03 -7.848814e-05 -1.620033e-03 -7.191026e-04 -1.532879e-03 -1.603698e-03 -2.171180e-03 -3.868041e-03 -1.868580e-03 -6.554337e-04 -9.303896e-04 -2.736485e-04 7.915043e-04 -1.877655e-04 -5.982412e-04 -4.265250e-04 -4.876193e-04 -7.136575e-04 -5.373111e-04 -8.169073e-04 -5.784307e-04 -2.999421e-04 -2.051180e-03 -2.376967e-03 -6.234452e-03 -2.288519e-03 4.625646e-03
<VARIANCE> 42
 2.489590e-04 2.118768e-04 2.445652e-04 1.504206e-04 1.540249e-04 1.806197e-04 9.817730e-04 1.370589e-03 4.825017e-04 6.537745e-04 6.190619e-03 3.380077e-04 3.364221e-05 3.538726e-05 3.504469e-05 2.558387e-05 2.543986e-05 2.704492e-05 1.005087e-05 7.374013e-05 1.366974e-05 4.065752e-05 1.777056e-04 1.157836e-05 1.529514e-05 1.441898e-05 1.349173e-05 1.144243e-05 1.081446e-05 1.033090e-05 2.951397e-06 2.601508e-05 4.681693e-06 1.211414e-05 5.274719e-05 4.045788e-06 2.131001e-06 6.201474e-05 1.999199e-05 2.765478e-04 1.367416e-04 2.838487e-04
<GCONST> -3.361787e+02
<MIXTURE> 10 7.885390e-02
<MEAN> 42
 -2.982528e-02 -4.954189e-02 -2.014620e-02 4.142410e-02 -2.896963e-03 -3.789341e-02 -7.708592e-03 -2.664441e-02 -3.124422e-02 -4.218625e-02 -3.876404e-02 -4.022465e-02 -1.167535e-03 3.993200e-04 1.581851e-03 3.805162e-04 -1.371397e-03 9.585612e-04 -5.712797e-04 -1.315957e-03 -4.899148e-04 5.206011e-04 4.204162e-05 -4.477665e-04 1.153561e-03 1.821794e-03 6.701644e-04 -1.497395e-03 2.435587e-04 1.250778e-03 3.104086e-04 1.096515e-03 1.520127e-03 1.685432e-03 1.683890e-03 1.274731e-03 -1.729229e-03 9.654607e-04 1.440531e-03 -3.148478e-02 -3.638657e-02 8.183161e-03
<VARIANCE> 42
 1.127527e-03 5.659614e-04 6.179757e-04 4.800301e-04 5.669207e-04 3.218454e-04 1.084830e-03 1.370589e-03 7.185238e-04 8.332012e-04 5.104637e-04 1.028039e-03 9.455913e-05 5.328052e-05 8.962507e-05 5.187048e-05 7.822554e-05 4.785499e-05 3.815319e-05 7.374013e-05 4.414290e-05 4.065752e-05 1.973216e-05 1.527264e-05 2.810024e-05 2.662685e-05 3.253556e-05 1.938504e-05 2.339640e-05 2.238202e-05 1.207645e-05 2.601508e-05 1.178924e-05 1.211414e-05 1.062702e-05 7.546520e-06 2.325842e-06 2.247175e-05 1.087673e-04 3.591167e-04 3.298281e-04 2.972240e-04
<GCONST> -3.175107e+02
<MIXTURE> 11 1.037617e-01
<MEAN> 42
 -1.354876e-03 1.466150e-02 1.872490e-02 -2.094610e-03 -4.901045e-03 1.398274e-02 -1.779956e-03 -5.717086e-03 7.538299e-03 4.002807e-03 4.858961e-03 7.572018e-03 -1.883488e-03 1.760057e-03 3.640488e-03 6.889086e-05 -2.734618e-03 2.705789e-03 2.636181e-03 2.256377e-03 2.516114e-03 2.413207e-03 2.329997e-03 2.041251e-03 1.022112e-03 2.898099e-04 -7.355753e-04 -6.587328e-04 8.815076e-04 -2.349088e-04 5.186850e-04 5.463060e-04 4.310220e-04 2.502204e-04 2.460272e-04 2.730691e-04 3.200563e-06 4.571626e-04 -6.981968e-04 4.845833e-03 1.299503e-02 2.623996e-03
<VARIANCE> 42
 7.777719e-04 4.942220e-04 7.749454e-04 4.034148e-04 5.517607e-04 4.282715e-04 6.008713e-04 1.370589e-03 5.120571e-04 6.537745e-04 4.191562e-04 4.227503e-04 1.904279e-04 9.433407e-05 1.029357e-04 1.165023e-04 1.231528e-04 5.213360e-05 2.023192e-05 7.374013e-05 1.639242e-05 4.065752e-05 1.654215e-05 1.733968e-05 7.460995e-05 4.201928e-05 4.779359e-05 4.634023e-05 5.066004e-05 2.688130e-05 7.823519e-06 2.601508e-05 7.992231e-06 1.211414e-05 9.105361e-06 8.948994e-06 2.131001e-06 2.856374e-06 6.524151e-05 2.765478e-04 3.506585e-04 2.838487e-04
<GCONST> -3.189501e+02
<MIXTURE> 12 7.367922e-02
<MEAN> 42
 3.755834e-02 1.187244e-01 7.531955e-02 -8.184766e-02 -1.110900e-02 8.874172e-02 -3.529514e-02 -1.508719e-02 -2.771639e-02 -1.881400e-03 1.719938e-02 2.721898e-03 4.451768e-05 -8.805997e-04 -9.269489e-04 4.181718e-04 4.725881e-04 -9.399111e-04 -2.400054e-03 -1.199344e-03 -9.976779e-04 -9.312264e-04 -1.579564e-03 -7.261006e-04 -9.969081e-04 -1.561208e-03 -5.573562e-04 1.280379e-03 -2.158510e-04 -1.092230e-03 -5.593662e-04 -5.030794e-04 -5.881838e-04 -7.009691e-04 -9.022157e-04 -5.856071e-04 4.381635e-03 2.246913e-03 -1.221387e-02 1.268179e-02 9.887269e-02 3.387246e-02
<VARIANCE> 42
 1.812028e-03 2.156772e-03 3.091568e-03 9.655610e-04 1.834202e-03 2.094493e-03 1.906277e-03 1.370589e-03 2.786474e-03 1.848661e-03 7.965869e-03 2.059801e-03 6.359343e-05 8.353089e-05 8.747997e-05 5.176388e-05 5.597384e-05 7.222980e-05 6.695947e-05 7.374013e-05 2.096723e-05 4.065752e-05 4.149408e-05 1.591360e-05 2.396191e-05 3.142830e-05 3.305579e-05 1.942273e-05 2.153654e-05 2.718783e-05 8.154885e-06 2.601508e-05 5.333061e-06 1.211414e-05 1.356365e-05 5.206770e-06 7.534342e-06 7.291210e-05 2.876194e-04 1.575506e-03 1.875626e-03 6.104049e-04
<GCONST> -2.973937e+02
<MIXTURE> 13 6.028694e-02
<MEAN> 42
 1.352790e-02 4.211301e-02 2.687889e-02 -2.510844e-02 6.672766e-04 3.028137e-02 -1.369051e-02 1.344556e-03 3.627431e-03 4.344136e-03 1.143524e-02 1.220757e-02 -2.256723e-03 -9.669401e-03 -7.382880e-03 5.973618e-03 2.556722e-03 -8.615159e-03 -3.484898e-03 -4.756031e-03 -6.211072e-03 -6.309210e-03 -6.245980e-03 -6.149909e-03 -5.687256e-04 -3.821419e-03 -3.247215e-03 2.199869e-03 1.344336e-03 -3.582354e-03 -2.822116e-03 -3.338777e-03 -3.221296e-03 -3.364941e-03 -3.659193e-03 -3.626266e-03 8.966287e-04 1.174511e-03 -5.187050e-03 1.049183e-02 3.405229e-02 8.092801e-03
<VARIANCE> 42
 1.739445e-03 1.020346e-03 1.877730e-03 1.007233e-03 1.266852e-03 9.625811e-04 9.892152e-04 1.370589e-03 1.179022e-03 8.343358e-04 1.383478e-03 1.034822e-03 2.142403e-04 9.398794e-05 9.544294e-05 1.305582e-04 1.324768e-04 4.170645e-05 3.297358e-05 7.374013e-05 2.449096e-05 4.065752e-05 2.527772e-05 2.658862e-05 6.592547e-05 4.319199e-05 4.978842e-05 4.222803e-05 4.780633e-05 3.089915e-05 8.195720e-06 2.601508e-05 7.068962e-06 1.211414e-05 8.656068e-06 9.053751e-06 6.859661e-06 1.071373e-05 1.493114e-04 4.993154e-04 6.845772e-04 2.918761e-04
<GCONST> -3.041453e+02
<MIXTURE> 14 4.670287e-02
<MEAN> 42
 -2.885695e-02 -4.899814e-02 -2.241152e-02 4.021844e-02 -6.548911e-04 -3.953843e-02 -1.603328e-04 -1.904177e-02 -2.498861e-02 -4.191006e-02 -3.710188e-02 -3.673367e-02 -2.384919e-03 -7.608949e-03 -5.247699e-03 5.010523e-03 1.398863e-03 -6.490042e-03 -1.770459e-03 -3.423902e-03 -5.833070e-03 -7.668405e-03 -7.921103e-03 -7.045148e-03 -9.510980e-04 -1.119614e-03 -1.609350e-04 1.031739e-03 -3.896888e-04 -6.512376e-04 -2.215058e-03 -3.512122e-03 -2.859411e-03 -2.417750e-03 -2.725980e-03 -2.427998e-03 -1.843493e-03 1.024737e-03 -2.718756e-04 -3.129852e-02 -3.627182e-02 3.086699e-03
<VARIANCE> 42
 8.673733e-04 6.200077e-04 7.893060e-04 3.814330e-04 4.868324e-04 5.692246e-04 1.396924e-03 1.370589e-03 8.809327e-04 8.827391e-04 6.708049e-04 1.181622e-03 1.402049e-04 8.289830e-05 1.215595e-04 8.130887e-05 1.085956e-04 6.766800e-05 4.942493e-05 7.374013e-05 2.808861e-05 4.065752e-05 2.398965e-05 2.529829e-05 5.016211e-05 2.835290e-05 5.394878e-05 2.584757e-05 4.421011e-05 2.846324e-05 1.586205e-05 2.601508e-05 1.391172e-05 1.211414e-05 1.086623e-05 9.261533e-06 2.959953e-06 2.592904e-05 9.909149e-05 4.173234e-04 4.386389e-04 2.889647e-04
<GCONST> -3.098750e+02
<MIXTURE> 15 1.492406e-02
<MEAN> 42
 7.459329e-02 3.467133e-02 -4.112609e-02 -5.489090e-02 5.798684e-02 -6.993691e-03 -6.723854e-02 -4.898193e-03 1.897931e-02 1.818736e-02 1.349125e-02 5.426579e-02 -1.483017e-03 -2.224588e-03 -7.313582e-04 1.848298e-03 -2.449972e-04 -1.524467e-03 -2.937966e-03 -5.248947e-03 -5.109659e-03 -6.364623e-03 -1.286242e-02 -5.594211e-03 -1.559359e-03 1.073311e-03 2.631696e-03 2.343017e-04 -2.004401e-03 1.850629e-03 -4.744648e-04 -1.517169e-03 -2.332550e-04 -1.440661e-04 -1.305930e-03 -8.734617e-04 3.758442e-03 -3.224327e-03 -2.637573e-03 4.348633e-02 1.082710e-02 2.288155e-02
<VARIANCE> 42
 2.220469e-03 1.399483e-03 1.768889e-03 1.242566e-03 1.345839e-03 9.469984e-04 7.594408e-03 6.791864e-03 3.935586e-03 3.887429e-03 3.095977e-03 4.682423e-03 1.269405e-04 5.860863e-05 1.003038e-04 6.767127e-05 1.016305e-04 4.892045e-05 1.536643e-04 1.603061e-04 1.693552e-04 1.647386e-04 2.285522e-04 1.421048e-04 4.343823e-05 2.339026e-05 3.482542e-05 2.478119e-05 3.403263e-05 1.848226e-05 1.424766e-05 3.904162e-05 5.481292e-05 2.876529e-05 4.439839e-05 2.852461e-05 2.005033e-05 3.268931e-05 1.162675e-04 1.667375e-03 8.357317e-04 2.122783e-03
<GCONST> -2.776677e+02
<MIXTURE> 16 1.285505e-02
<MEAN> 42
 1.830257e-01 1.479986e-01 -3.385656e-02 -1.643949e-01 1.081290e-01 5.553916e-02 -2.704464e-01 5.460403e-03 1.070867e-01 1.579366e-01 1.568156e-01 1.434822e-01 -8.622483e-04 9.281666e-04 1.790432e-03 -3.294041e-05 -1.346659e-03 1.361969e-03 1.343897e-03 1.182378e-03 -4.163706e-04 1.184065e-04 -5.966939e-03 5.881763e-04 -1.013842e-03 -6.959600e-04 3.178932e-04 8.549039e-04 -6.813114e-04 -1.805138e-04 7.082807e-04 3.628875e-04 2.026936e-04 1.640938e-04 2.974393e-04 2.881362e-04 1.932376e-02 1.725657e-03 3.443502e-03 1.880471e-01 7.269949e-02 6.718977e-02
<VARIANCE> 42
 1.781388e-03 9.506121e-04 2.162058e-04 1.312972e-03 7.319932e-04 1.484888e-04 4.915908e-03 1.370589e-03 3.807511e-03 4.071026e-03 1.999151e-02 2.101653e-03 8.599071e-05 7.329080e-05 3.922030e-05 6.983620e-05 4.492503e-05 3.469837e-05 8.665907e-05 7.374013e-05 5.629884e-05 7.879985e-05 6.047995e-04 4.859536e-05 1.359939e-05 4.028895e-06 1.495225e-05 5.076388e-06 1.370732e-05 6.416334e-06 2.279976e-06 2.601508e-05 4.054022e-06 1.211414e-05 6.058501e-05 3.777227e-06 3.335981e-05 1.199624e-04 1.343430e-04 5.195894e-03 3.568808e-04 2.838487e-04
<GCONST> -3.037723e+02
<STATE> 4
<NUMMIXES> 16
<MIXTURE> 1 4.943695e-02
<MEAN> 42
 8.193561e-02 8.947087e-02 2.503417e-03 -8.679737e-02 4.298187e-02 3.822340e-02 -8.879692e-03 1.333106e-01 1.219989e-01 1.018149e-01 1.092680e-01 8.617356e-02 3.970367e-03 5.408945e-03 1.436722e-03 -4.691503e-03 1.281986e-03 3.438025e-03 9.249081e-05 3.433145e-03 4.084451e-03 4.636222e-03 5.059760e-03 4.509856e-03 5.362141e-04 1.350142e-03 8.166186e-04 -9.445990e-04 -1.407219e-04 1.088168e-03 7.085209e-04 7.343860e-04 8.198109e-04 8.712569e-04 9.204211e-04 8.463735e-04 5.329092e-03 -6.501574e-03 2.742141e-03 8.478547e-02 5.116661e-02 -4.947402e-02
<VARIANCE> 42
 3.506935e-03 2.454345e-03 2.767479e-03 2.371404e-03 2.540247e-03 1.431809e-03 4.600619e-03 1.475465e-02 1.380352e-02 5.398666e-03 4.188926e-03 4.828274e-03 5.057826e-05 4.042366e-05 3.644970e-05 3.643250e-05 3.377455e-05 2.600441e-05 2.480021e-05 7.374013e-05 2.562714e-05 4.065752e-05 2.396697e-05 1.960794e-05 1.559317e-05 1.252856e-05 1.258394e-05 1.094621e-05 1.110221e-05 8.785972e-06 3.991483e-06 2.601508e-05 2.937087e-06 1.211414e-05 3.675347e-06 3.044630e-06 5.370694e-05 2.119472e-04 2.705141e-04 2.307438e-03 1.820549e-03 5.328727e-03
<GCONST> -2.969194e+02
<MIXTURE> 2 2.979708e-02
<MEAN> 42
 1.942471e-01 2.585291e-01 6.093614e-02 -2.254665e-01 6.676742e-02 1.591227e-01 -4.167952e-02 3.076059e-01 3.572282e-01 3.553607e-01 3.521761e-01 3.282750e-01 3.905389e-03 6.266472e-03 2.357114e-03 -5.090648e-03 7.867458e-04 4.323980e-03 3.219862e-05 3.514439e-03 5.274763e-03 6.980118e-03 7.399211e-03 6.461959e-03 4.879516e-04 8.238262e-04 3.338372e-04 -6.530872e-04 8.027034e-05 5.808850e-04 5.524973e-04 2.046184e-04 3.852244e-04 6.023984e-04 6.322184e-04 5.296806e-04 1.442942e-02 -9.760079e-03 -1.227958e-03 2.856488e-01 1.615131e-01 -1.106124e-01
<VARIANCE> 42
 1.136089e-02 1.922189e-02 8.596513e-03 1.285550e-02 4.704996e-03 1.148196e-02 1.956136e-02 6.519203e-02 7.250023e-02 5.330370e-02 4.215684e-02 5.066502e-02 1.118161e-04 9.608202e-05 6.354399e-05 8.814626e-05 6.428314e-05 5.235947e-05 1.019999e-04 2.807579e-04 2.921740e-04 2.357470e-04 1.764289e-04 1.437817e-04 3.060227e-05 1.981589e-05 2.033470e-05 2.012610e-05 2.074976e-05 1.250412e-05 8.062183e-06 2.601508e-05 9.333084e-06 1.268761e-05 1.301262e-05 1.127496e-05 2.216669e-04 5.936742e-04 5.018337e-04 2.431239e-02 1.122032e-02 2.876776e-02
<GCONST> -2.446456e+02
<MIXTURE> 3 9.892095e-02
<MEAN> 42
 1.015354e-02 1.671813e-02 4.221748e-03 -1.156223e-02 1.971455e-03 8.265981e-03 2.869691e-03 1.453492e-02 1.795034e-02 1.602402e-02 1.674713e-02 1.199624e-02 1.602392e-03 2.676637e-03 1.071697e-03 -2.139756e-03 2.832880e-04 1.897684e-03 1.181936e-03 1.264202e-03 1.354558e-03 1.326247e-03 1.375518e-03 1.291435e-03 4.350464e-04 9.405066e-04 5.049759e-04 -6.866619e-04 -2.621693e-05 7.311394e-04 5.340886e-04 5.248441e-04 6.146021e-04 5.951016e-04 6.019794e-04 5.733319e-04 8.997510e-04 -1.009892e-03 1.198380e-03 1.206893e-02 1.141870e-02 -6.443087e-03
<VARIANCE> 42
 2.848331e-04 3.018702e-04 2.438123e-04 2.319448e-04 1.842366e-04 1.987622e-04 3.944733e-04 1.370589e-03 1.035466e-03 6.537745e-04 4.676374e-04 5.886028e-04 2.172379e-05 1.891357e-05 1.481397e-05 1.664473e-05 1.375617e-05 1.163824e-05 7.046556e-06 7.374013e-05 9.872299e-06 4.065752e-05 1.131955e-05 8.494042e-06 7.830130e-06 6.412618e-06 5.659142e-06 5.710282e-06 5.228114e-06 4.167087e-06 1.929740e-06 2.601508e-05 1.708304e-06 1.211414e-05 1.691723e-06 1.711125e-06 2.131001e-06 8.943703e-06 3.234407e-05 2.765478e-04 2.134861e-04 2.838487e-04
<GCONST> -3.561403e+02
<MIXTURE> 4 1.392310e-02
<MEAN> 42
 4.406268e-01 5.810037e-01 1.397344e-01 -5.090510e-01 1.497340e-01 3.586774e-01 -2.331966e-01 1.508948e-01 5.177013e-01 8.024129e-01 8.144518e-01 6.930687e-01 6.985994e-02 8.919699e-02 1.930037e-02 -7.955845e-02 2.542838e-02 5.437658e-02 -8.088062e-02 -4.783594e-02 3.006760e-02 1.077019e-01 1.308376e-01 1.214136e-01 -1.278131e-03 -2.033350e-03 -7.508569e-04 1.654596e-03 -2.650707e-04 -1.409257e-03 -3.968178e-03 -8.983997e-03 -5.942114e-03 -2.198594e-03 1.768664e-04 1.034240e-03 5.076918e-02 -1.265087e-02 9.270349e-03 6.694978e-01 3.933000e-01 1.732089e-02
<VARIANCE> 42
 9.207446e-02 3.208324e-01 1.947719e-01 1.592123e-01 6.284998e-02 2.367849e-01 1.702049e-01 2.705743e-01 3.459591e-01 2.872062e-01 3.073761e-01 2.563798e-01 2.726539e-03 6.080948e-03 6.255265e-03 2.840768e-03 2.979774e-03 5.490839e-03 4.682561e-03 1.287673e-02 1.563769e-02 6.042827e-03 5.364063e-03 5.205509e-03 3.804443e-04 8.538904e-04 4.845834e-04 4.961123e-04 2.199255e-04 5.749813e-04 6.529973e-04 1.320811e-03 9.942750e-04 7.185811e-04 9.179661e-04 8.430580e-04 1.289729e-03 1.025712e-03 1.290198e-03 1.899047e-01 2.269067e-01 1.755231e-01
<GCONST> -1.176994e+02
<MIXTURE> 5 9.764786e-02
<MEAN> 42
 -4.317110e-03 -5.414433e-03 3.439459e-05 7.559508e-03 -2.733938e-03 -7.216746e-03 1.909575e-03 5.130791e-04 -1.506197e-03 -5.764892e-03 -5.623669e-03 -7.321825e-03 -9.376492e-04 -1.025575e-03 -9.172795e-05 9.834913e-04 -4.242209e-04 -5.679206e-04 4.084785e-04 3.661557e-04 3.414535e-04 2.750301e-04 1.969216e-04 1.120276e-04 4.698009e-04 4.463476e-04 -2.377845e-05 -4.564337e-04 2.479726e-04 2.095559e-04 3.267744e-04 4.268410e-04 4.313496e-04 3.992240e-04 3.769645e-04 3.168895e-04 -4.821847e-04 4.401010e-04 4.444657e-04 -5.265680e-03 -4.019086e-03 -1.610129e-03
<VARIANCE> 42
 3.246101e-04 3.389711e-04 3.098051e-04 2.369961e-04 2.170615e-04 2.535781e-04 5.085246e-04 1.370589e-03 6.420900e-04 6.537745e-04 4.191562e-04 4.788282e-04 4.594685e-05 3.136504e-05 3.875819e-05 2.899495e-05 3.467447e-05 2.380346e-05 1.350346e-05 7.374013e-05 1.084820e-05 4.065752e-05 1.131955e-05 9.524369e-06 2.334751e-05 1.844013e-05 1.763440e-05 1.648126e-05 1.597089e-05 1.232348e-05 4.965316e-06 2.601508e-05 5.031455e-06 1.211414e-05 5.119296e-06 4.525563e-06 2.131001e-06 5.718714e-06 2.845307e-05 2.765478e-04 2.355116e-04 2.838487e-04
<GCONST> -3.403196e+02
<MIXTURE> 6 5.197828e-02
<MEAN> 42
 -9.105452e-04 1.481928e-02 9.165149e-03 -6.977270e-03 -2.116968e-03 4.719914e-03 5.126338e-03 1.800996e-02 1.489590e-02 1.988090e-03 2.353493e-02 1.179577e-03 6.140225e-04 3.742576e-03 3.120821e-03 -2.175627e-03 -1.245264e-03 3.433657e-03 5.764657e-03 1.046736e-02 9.936268e-03 7.782808e-03 6.803794e-03 4.200618e-03 4.992723e-04 1.506430e-03 1.000721e-03 -1.003186e-03 -2.494988e-04 1.259337e-03 1.245033e-03 2.413682e-03 2.591036e-03 2.574622e-03 2.360374e-03 1.998232e-03 -9.898911e-05 3.752842e-04 6.567510e-04 5.625534e-03 1.270030e-02 -7.633447e-03
<VARIANCE> 42
 2.946437e-03 3.835810e-03 2.604283e-03 2.767018e-03 1.819794e-03 2.265232e-03 3.842319e-03 7.017201e-03 7.338990e-03 5.056714e-03 6.871321e-03 3.628322e-03 2.099937e-04 1.501040e-04 2.018098e-04 1.298664e-04 1.690752e-04 1.235706e-04 1.866162e-04 3.800012e-04 2.742047e-04 1.659787e-04 1.934127e-04 9.346296e-05 7.755929e-05 5.401663e-05 6.856472e-05 4.868924e-05 5.979979e-05 4.194948e-05 2.625540e-05 4.100076e-05 3.801096e-05 3.434174e-05 5.300578e-05 2.787368e-05 1.756870e-05 8.024019e-05 1.842349e-04 2.326191e-03 2.539421e-03 2.864222e-03
<GCONST> -2.602961e+02
<MIXTURE> 7 1.229348e-01
<MEAN> 42
 5.396015e-03 9.367513e-03 1.892094e-04 -6.925001e-03 4.219352e-03 -7.005370e-04 5.701161e-03 1.599678e-02 7.709116e-03 7.425705e-04 1.284553e-02 8.107675e-04 1.024559e-04 8.376293e-04 7.359122e-04 -4.717479e-04 -3.152841e-04 7.929318e-04 1.185132e-03 1.208080e-03 1.304240e-03 1.130840e-03 1.120231e-03 7.604280e-04 1.251869e-04 6.807679e-04 5.576406e-04 -4.018740e-04 -2.146285e-04 6.214508e-04 4.659725e-04 7.510646e-04 8.633706e-04 8.299454e-04 8.795810e-04 7.356890e-04 7.913474e-05 6.263042e-04 1.490749e-03 2.923161e-03 6.837147e-03 -6.339950e-03
<VARIANCE> 42
 1.410963e-03 1.921983e-03 1.336493e-03 1.321979e-03 8.664550e-04 1.307400e-03 1.590805e-03 2.316808e-03 3.227423e-03 2.994502e-03 3.283351e-03 3.665758e-03 6.402923e-05 5.002560e-05 5.515810e-05 4.319431e-05 4.729705e-05 3.671950e-05 2.358355e-05 7.374013e-05 2.718779e-05 4.065752e-05 4.189722e-05 2.091465e-05 2.104592e-05 1.613439e-05 1.889792e-05 1.384770e-05 1.601522e-05 1.231677e-05 5.991831e-06 2.601508e-05 6.542973e-06 1.211414e-05 1.017613e-05 5.491472e-06 9.589899e-06 3.779047e-05 1.429352e-04 1.308312e-03 1.249187e-03 9.819401e-04
<GCONST> -3.056872e+02
<MIXTURE> 8 2.170423e-02
<MEAN> 42
 1.505311e-02 7.548418e-02 5.467049e-02 -4.661024e-02 -1.698016e-02 5.800416e-02 -2.529685e-01 -4.973643e-01 -3.669552e-01 -1.414362e-01 -1.734877e-02 6.277071e-02 -3.130268e-02 -3.649755e-02 -5.171973e-03 3.391304e-02 -1.312768e-02 -2.088379e-02 3.986858e-02 3.905228e-02 1.201120e-02 -2.807479e-02 -4.322244e-02 -4.618224e-02 6.870625e-03 7.949256e-03 1.077945e-03 -7.417790e-03 2.919177e-03 4.526204e-03 2.144899e-03 1.402329e-02 1.689269e-02 1.538961e-02 1.344551e-02 9.827770e-03 1.724460e-02 3.449556e-02 1.124142e-02 1.249997e-02 1.028787e-01 3.251497e-01
<VARIANCE> 42
 8.015519e-02 9.242442e-02 1.146514e-01 5.650749e-02 7.331829e-02 8.276305e-02 1.353293e-01 2.882070e-01 3.364991e-01 2.005156e-01 1.952956e-01 1.708204e-01 3.252815e-03 5.645721e-03 4.592093e-03 3.306089e-03 2.515399e-03 4.310661e-03 2.201894e-03 7.422736e-03 1.157732e-02 1.064780e-02 8.700839e-03 5.899248e-03 4.581764e-04 5.806946e-04 5.526982e-04 3.815567e-04 3.609124e-04 4.528321e-04 3.554307e-04 6.660240e-04 9.581531e-04 1.336418e-03 1.822375e-03 1.411819e-03 1.284114e-03 1.355826e-03 1.352131e-03 1.125473e-01 8.313692e-02 1.604627e-01
<GCONST> -1.247332e+02
<MIXTURE> 9 1.408916e-01
<MEAN> 42
 3.348061e-03 4.541520e-03 -1.400297e-03 -3.014823e-03 1.654720e-03 6.987393e-05 5.152449e-04 7.226633e-03 4.999572e-03 4.212949e-03 4.251335e-03 -8.781776e-05 2.181777e-04 1.785397e-04 -3.956732e-05 -2.008792e-04 1.210981e-04 6.854019e-05 -2.762187e-04 -3.469154e-04 -3.513879e-04 -3.719039e-04 -3.599475e-04 -3.822205e-04 -1.423777e-04 -1.725064e-04 -2.908071e-05 1.549016e-04 -5.902647e-05 -1.012034e-04 -1.811991e-04 -1.503098e-04 -1.679132e-04 -1.751671e-04 -1.659683e-04 -1.658411e-04 2.841225e-04 -7.401491e-04 -1.941432e-04 2.435665e-03 2.707832e-03 -3.092213e-03
<VARIANCE> 42
 1.999885e-04 2.167547e-04 1.685481e-04 1.543981e-04 1.301316e-04 1.450092e-04 3.173739e-04 1.370589e-03 1.034852e-03 6.537745e-04 4.191562e-04 4.094902e-04 1.167302e-05 1.038495e-05 9.745530e-06 8.601210e-06 8.288624e-06 7.379169e-06 4.587426e-06 7.374013e-05 9.872299e-06 4.065752e-05 1.131955e-05 8.494042e-06 4.686189e-06 4.132778e-06 3.788118e-06 3.470313e-06 3.281686e-06 2.874643e-06 1.286874e-06 2.601508e-05 1.099664e-06 1.211414e-05 1.159081e-06 1.075497e-06 2.131001e-06 9.265550e-06 2.211155e-05 2.765478e-04 1.558794e-04 2.838487e-04
<GCONST> -3.676823e+02
<MIXTURE> 10 1.015645e-01
<MEAN> 42
 -1.452963e-02 -1.963550e-02 -1.037902e-02 1.594437e-02 1.811328e-03 -2.405418e-02 4.975214e-03 4.151376e-03 -2.081454e-02 -3.234804e-02 -2.120832e-02 -3.422195e-02 -1.062448e-03 -2.743933e-03 -1.681819e-03 1.900797e-03 3.102525e-04 -2.219983e-03 -7.579168e-04 -1.031113e-03 -1.745108e-03 -2.139984e-03 -2.570531e-03 -2.089091e-03 -2.989743e-04 -7.846485e-04 -4.875106e-04 5.410140e-04 9.482022e-05 -6.380866e-04 -7.939654e-04 -9.379166e-04 -1.014158e-03 -8.242513e-04 -8.096782e-04 -6.792825e-04 -1.354391e-03 -2.180904e-04 -3.441201e-03 -2.495292e-02 -1.350787e-02 -2.452453e-03
<VARIANCE> 42
 1.920011e-03 2.110153e-03 1.482939e-03 1.506420e-03 1.011221e-03 1.473292e-03 1.324148e-03 2.360281e-03 4.710214e-03 3.711695e-03 2.862614e-03 3.937086e-03 6.259728e-05 4.684548e-05 5.233000e-05 4.166448e-05 4.605599e-05 3.403830e-05 2.439146e-05 7.374013e-05 2.974915e-05 4.065752e-05 3.467361e-05 1.992589e-05 2.044905e-05 1.560869e-05 1.738919e-05 1.366794e-05 1.509483e-05 1.144752e-05 6.096805e-06 2.601508e-05 7.160995e-06 1.211414e-05 8.134364e-06 5.251333e-06 1.139891e-05 3.192131e-05 1.498196e-04 1.562856e-03 1.460876e-03 1.026590e-03
<GCONST> -3.048301e+02
<MIXTURE> 11 7.333695e-02
<MEAN> 42
 -9.569644e-03 -1.435475e-02 -4.823425e-03 1.426627e-02 -3.285717e-03 -1.410273e-02 2.002996e-03 -3.916882e-03 -8.880633e-03 -1.673120e-02 -1.622592e-02 -1.598086e-02 -2.143045e-03 -3.950922e-03 -1.798793e-03 3.047834e-03 -1.801546e-04 -2.895767e-03 -1.417517e-03 -1.828411e-03 -2.274649e-03 -2.467320e-03 -2.634090e-03 -2.455592e-03 -4.775532e-04 -1.451402e-03 -9.759192e-04 9.628623e-04 2.436743e-04 -1.224443e-03 -9.141926e-04 -9.877847e-04 -1.203876e-03 -1.221356e-03 -1.213918e-03 -1.094970e-03 -1.074304e-03 3.711776e-04 -3.943350e-04 -1.333059e-02 -1.049465e-02 -2.987008e-04
<VARIANCE> 42
 3.555267e-04 4.052682e-04 3.125787e-04 2.658282e-04 2.076566e-04 2.725294e-04 5.149963e-04 1.370589e-03 7.593234e-04 6.537745e-04 4.191562e-04 5.004305e-04 3.944826e-05 3.096780e-05 3.043015e-05 2.764900e-05 2.746570e-05 2.105224e-05 1.456048e-05 7.374013e-05 1.190630e-05 4.065752e-05 1.139154e-05 9.992678e-06 1.791069e-05 1.427922e-05 1.400413e-05 1.259260e-05 1.250219e-05 9.779786e-06 4.558289e-06 2.601508e-05 4.851745e-06 1.211414e-05 4.714652e-06 3.925168e-06 2.131001e-06 7.063871e-06 2.890395e-05 2.765478e-04 2.538854e-04 2.838487e-04
<GCONST> -3.418028e+02
<MIXTURE> 12 7.390472e-02
<MEAN> 42
 6.818299e-02 6.411409e-02 -8.863238e-03 -6.766998e-02 4.157911e-02 2.106406e-02 -1.877373e-02 8.377225e-02 7.114956e-02 6.413680e-02 7.851551e-02 5.911255e-02 1.334458e-03 8.635137e-04 -4.728839e-04 -1.100822e-03 8.974389e-04 1.887785e-04 -1.264820e-03 -4.596046e-04 -1.181222e-04 2.605751e-04 3.905224e-04 3.599784e-04 -3.103863e-04 -4.803349e-04 -1.704521e-04 3.949474e-04 -7.403846e-05 -3.277967e-04 -3.142833e-04 -3.832593e-04 -4.213886e-04 -4.187489e-04 -4.327140e-04 -3.899630e-04 4.190607e-03 -6.627669e-03 -2.297569e-03 6.075425e-02 3.583368e-02 -2.447100e-02
<VARIANCE> 42
 2.328068e-03 2.205306e-03 2.163582e-03 1.913667e-03 1.825766e-03 1.402123e-03 4.214818e-03 1.484957e-02 1.161806e-02 4.951908e-03 2.938723e-03 3.301247e-03 4.751718e-05 3.666830e-05 3.164700e-05 3.422662e-05 3.077706e-05 2.245146e-05 2.875351e-05 7.374013e-05 2.753652e-05 4.065752e-05 2.470056e-05 2.252616e-05 1.307328e-05 1.075938e-05 1.115146e-05 9.133803e-06 9.565531e-06 7.775136e-06 3.879313e-06 2.601508e-05 2.801783e-06 1.211414e-05 3.249719e-06 2.688929e-06 2.550874e-05 1.402809e-04 2.710866e-04 1.343735e-03 1.730614e-03 5.243018e-03
<GCONST> -3.025245e+02
<MIXTURE> 13 4.630411e-02
<MEAN> 42
 -2.300320e-02 -1.657325e-02 -1.925524e-03 1.816356e-02 -5.825373e-03 -1.885337e-02 4.540695e-03 -5.975055e-03 -2.809213e-02 -4.294254e-02 -2.155965e-02 -3.113516e-02 -1.524033e-03 -3.920847e-03 -2.392071e-03 2.728061e-03 4.316536e-04 -3.165188e-03 4.135875e-03 5.823486e-03 3.949677e-03 -1.600635e-04 -2.885219e-03 -3.025656e-03 -7.634326e-04 -1.855125e-03 -1.088187e-03 1.313841e-03 1.536878e-04 -1.469061e-03 -1.045763e-03 -2.699498e-03 -2.866140e-03 -2.696277e-03 -2.679148e-03 -2.161356e-03 -1.149885e-03 -2.053427e-05 -3.347921e-03 -2.830157e-02 -7.562338e-03 3.683726e-03
<VARIANCE> 42
 3.398008e-03 3.284972e-03 2.526534e-03 2.376741e-03 1.730814e-03 2.067698e-03 3.157134e-03 5.474659e-03 8.875631e-03 6.073156e-03 5.165926e-03 3.903452e-03 2.101263e-04 1.846527e-04 2.137889e-04 1.441753e-04 1.667635e-04 1.473481e-04 2.184843e-04 3.259490e-04 2.255491e-04 1.491821e-04 1.911778e-04 9.876349e-05 7.157819e-05 5.905683e-05 6.489525e-05 4.919902e-05 5.373170e-05 4.414327e-05 3.279042e-05 5.303448e-05 4.477390e-05 3.474201e-05 4.906489e-05 2.741566e-05 1.692771e-05 6.307331e-05 1.956349e-04 2.581801e-03 2.220114e-03 2.280106e-03
<GCONST> -2.606445e+02
<MIXTURE> 14 4.308196e-02
<MEAN> 42
 1.475661e-01 1.755281e-01 2.054098e-02 -1.634568e-01 6.612692e-02 9.138752e-02 -5.408388e-02 1.667762e-01 1.808619e-01 1.954135e-01 2.231877e-01 1.985532e-01 -2.522297e-03 -3.469769e-03 -9.490902e-04 3.004055e-03 -8.007196e-04 -2.208686e-03 1.048306e-03 -1.269865e-03 -7.056796e-04 -2.661348e-03 -3.824967e-03 -3.752993e-03 -6.862573e-04 -1.255073e-03 -5.667277e-04 9.718131e-04 -5.771226e-05 -9.163108e-04 -5.248953e-04 -9.490452e-04 -1.066839e-03 -1.000402e-03 -9.968776e-04 -8.452993e-04 1.025017e-02 -1.766706e-03 -6.021807e-03 1.772929e-01 1.111552e-01 -4.124882e-02
<VARIANCE> 42
 1.174779e-02 1.480307e-02 1.027438e-02 1.029502e-02 6.842750e-03 9.427545e-03 1.310136e-02 4.659363e-02 4.673241e-02 2.967834e-02 2.358172e-02 2.927420e-02 1.168619e-04 1.319954e-04 7.958153e-05 1.046640e-04 6.564674e-05 7.685855e-05 1.030302e-04 3.068425e-04 3.066103e-04 1.831573e-04 1.872821e-04 1.609542e-04 2.258905e-05 1.845305e-05 1.891237e-05 1.584842e-05 1.619832e-05 1.311456e-05 7.624030e-06 2.601508e-05 7.625194e-06 1.211414e-05 1.200480e-05 6.970648e-06 1.965104e-04 4.634248e-04 4.373539e-04 1.459892e-02 8.690570e-03 1.751439e-02
<GCONST> -2.499195e+02
<MIXTURE> 15 1.835385e-02
<MEAN> 42
 1.141111e-01 4.967214e-02 -7.449810e-02 -8.693971e-02 1.015390e-01 -2.312116e-02 -2.782549e-01 -4.849936e-01 -3.823344e-01 -1.648845e-01 3.312851e-02 1.234815e-01 -5.544638e-02 -5.212424e-02 3.344763e-03 5.381601e-02 -2.949980e-02 -2.450143e-02 2.876550e-02 -1.346706e-02 -5.367482e-02 -9.050387e-02 -1.029244e-01 -9.092744e-02 -3.014752e-03 6.916698e-04 3.697995e-03 1.168393e-03 -3.362659e-03 2.186635e-03 3.034192e-03 4.711139e-03 5.200162e-03 2.136135e-03 -2.511217e-03 -4.097388e-03 2.515181e-02 3.581829e-02 2.396712e-03 4.819399e-02 6.295059e-02 3.412453e-01
<VARIANCE> 42
 1.376088e-01 1.195745e-01 2.104264e-01 7.383177e-02 1.415153e-01 1.274912e-01 1.416439e-01 2.953429e-01 3.323760e-01 2.631807e-01 2.332513e-01 2.009884e-01 4.574447e-03 6.285054e-03 5.805361e-03 3.982971e-03 3.624998e-03 4.910520e-03 2.646372e-03 1.125154e-02 1.620113e-02 1.738895e-02 1.886540e-02 1.373904e-02 6.811655e-04 5.362116e-04 6.193206e-04 4.549553e-04 5.167208e-04 4.083851e-04 4.074073e-04 8.096243e-04 1.032559e-03 1.306386e-03 2.060293e-03 1.644117e-03 1.561184e-03 1.412440e-03 9.930887e-04 1.422208e-01 1.069448e-01 1.436627e-01
<GCONST> -1.150668e+02
<MIXTURE> 16 1.618871e-02
<MEAN> 42
 3.335141e-01 3.834536e-01 4.340768e-02 -3.605183e-01 1.494533e-01 2.069338e-01 -1.836406e-01 2.718659e-02 2.908663e-01 5.433264e-01 5.903661e-01 5.210236e-01 3.874490e-02 2.559018e-02 -1.315619e-02 -3.218218e-02 2.599111e-02 6.287828e-03 -4.961493e-02 -5.896345e-02 -3.995617e-02 1.197799e-02 4.122280e-02 5.210064e-02 -4.582930e-03 -9.913186e-03 -5.321912e-03 7.245204e-03 3.485119e-04 -7.621413e-03 -2.379132e-03 -1.476124e-02 -2.177743e-02 -2.109515e-02 -1.524188e-02 -9.534173e-03 3.975725e-02 -3.440067e-03 6.889077e-03 4.809382e-01 2.598610e-01 6.303342e-02
<VARIANCE> 42
 1.230408e-01 2.299199e-01 1.775167e-01 1.305017e-01 9.253787e-02 1.761256e-01 1.945128e-01 2.722117e-01 3.164926e-01 2.710750e-01 2.745729e-01 2.612942e-01 3.767615e-03 5.475251e-03 4.460773e-03 3.507681e-03 2.749169e-03 4.032186e-03 4.002595e-03 9.918232e-03 1.041428e-02 5.872372e-03 5.887246e-03 5.277632e-03 5.657805e-04 1.148485e-03 6.635226e-04 6.917992e-04 3.282781e-04 7.644380e-04 7.795589e-04 1.168723e-03 1.064661e-03 1.152273e-03 1.437663e-03 1.244998e-03 2.189755e-03 1.305616e-03 1.207095e-03 1.997711e-01 1.665757e-01 1.688161e-01
<GCONST> -1.152229e+02
<STATE> 5
<MEAN> 42
 6.652576e-03 1.781638e-02 6.993772e-03 -1.182244e-02 9.235914e-03 1.136142e-02 -8.259302e-03 -7.120892e-03 -2.124742e-03 2.218262e-03 -3.892969e-03 6.633110e-03 -5.890003e-04 -2.409407e-04 3.492900e-04 4.119596e-04 -4.748309e-04 5.930753e-05 1.570805e-04 -5.598492e-05 -1.472530e-04 -1.542069e-04 -3.934134e-05 -2.302170e-04 -6.565559e-05 -6.653838e-05 1.120532e-06 6.574522e-05 -3.512317e-05 -3.449415e-05 -2.969713e-05 1.650375e-05 1.956753e-05 -1.410138e-05 -4.084437e-05 -9.156127e-06 1.624262e-04 7.434005e-04 -3.584967e-03 3.416796e-03 1.429270e-02 6.947693e-03
<VARIANCE> 42
 2.359878e-03 1.622559e-03 1.543239e-03 1.792722e-03 1.474790e-03 9.789813e-04 1.181280e-03 1.624513e-03 1.182489e-03 9.237690e-04 1.288381e-03 5.715156e-04 2.155660e-04 1.464554e-04 1.785913e-04 1.364259e-04 1.624832e-04 1.105130e-04 5.207660e-05 7.374013e-05 4.273849e-05 4.065752e-05 6.401871e-05 4.414532e-05 8.246845e-05 5.815375e-05 6.164591e-05 5.491390e-05 5.832787e-05 4.005632e-05 1.686682e-05 2.601508e-05 1.509924e-05 1.352852e-05 1.902635e-05 1.616469e-05 6.343197e-06 1.618944e-05 9.108797e-05 4.655128e-04 8.380000e-04 3.659150e-04
<GCONST> -2.936779e+02
<STATE> 6
<MEAN> 42
 -2.744635e-02 -4.241859e-02 -1.480954e-02 3.729514e-02 -1.193215e-03 -2.549968e-02 2.715602e-03 -4.058463e-02 -4.923278e-02 -2.911343e-02 -3.518429e-02 -7.006718e-03 -1.227573e-03 1.190131e-05 1.249729e-03 6.047620e-04 -1.236216e-03 6.502843e-04 8.764134e-04 1.196315e-03 1.160244e-03 1.070686e-03 6.855574e-04 2.115795e-04 3.932243e-04 3.653652e-04 -2.250598e-05 -3.742295e-04 2.048295e-04 1.763886e-04 7.845318e-05 3.655834e-04 3.710322e-04 4.728199e-04 5.346761e-04 4.828471e-04 -1.238588e-03 9.022605e-04 -4.772936e-03 -2.382122e-02 -2.638884e-02 1.828240e-02
<VARIANCE> 42
 2.051223e-03 4.688988e-03 3.905024e-03 2.708519e-03 1.808509e-03 3.669057e-03 2.826620e-03 4.071782e-03 2.017332e-03 1.754212e-03 1.567969e-03 1.269535e-03 2.238804e-04 2.398842e-04 1.649233e-04 1.908638e-04 1.344388e-04 1.504731e-04 1.101989e-04 1.219681e-04 9.200296e-05 7.790141e-05 9.301248e-05 9.542699e-05 8.193720e-05 7.713669e-05 6.073028e-05 6.440716e-05 5.159003e-05 4.934530e-05 2.945109e-05 2.601508e-05 2.025188e-05 1.928441e-05 3.211957e-05 3.187462e-05 4.608301e-06 1.545158e-05 1.262235e-04 9.498339e-04 3.014885e-03 1.146030e-03
<GCONST> -2.751989e+02
<STATE> 7
<MEAN> 42
 3.017384e-01 1.788162e-03 -3.075823e-01 -1.543356e-01 3.141266e-01 -1.527845e-01 -2.327079e-01 -5.158087e-02 -1.234328e-01 -6.416377e-02 8.754668e-02 1.675198e-01 1.887974e-03 -1.277084e-03 -3.140293e-03 -2.981390e-04 2.522909e-03 -2.247230e-03 -3.442056e-03 -3.862923e-03 -4.952393e-03 -4.003996e-03 -1.849934e-03 -8.484404e-04 -2.460428e-04 1.213369e-04 3.718814e-04 7.556772e-05 -3.188030e-04 2.339710e-04 -1.717504e-05 -1.530769e-04 -3.338088e-04 -3.297173e-04 -4.915340e-04 -4.556715e-04 2.521500e-02 1.068449e-02 5.100583e-03 1.144376e-01 -5.306689e-02 1.334149e-01
<VARIANCE> 42
 1.311515e-01 1.084591e-01 2.342252e-01 5.906825e-02 1.585229e-01 1.375105e-01 1.012821e-01 1.917337e-01 2.222702e-01 2.046487e-01 1.910458e-01 1.920410e-01 3.858226e-03 2.345084e-03 5.126491e-03 1.820480e-03 3.915877e-03 2.774470e-03 2.464872e-03 6.341835e-03 6.293505e-03 4.988286e-03 6.164004e-03 6.069752e-03 2.608863e-04 2.331513e-04 4.335705e-04 1.387043e-04 2.869876e-04 2.699752e-04 1.320710e-04 5.360408e-04 4.712686e-04 3.054229e-04 4.216283e-04 4.121341e-04 1.074707e-03 1.494650e-03 5.221631e-04 1.027360e-01 8.409423e-02 8.226872e-02
<GCONST> -1.373053e+02
<STATE> 8
<MEAN> 42
 4.596420e-02 1.419497e-01 6.474206e-02 -1.080791e-01 1.268796e-02 8.152391e-02 -3.900045e-02 7.020926e-02 8.725502e-02 9.382239e-02 1.498400e-01 9.472041e-02 -9.411460e-05 2.245537e-04 3.230266e-04 -5.832518e-05 -2.183436e-04 2.695013e-04 8.545057e-04 7.771304e-04 9.506813e-04 7.519742e-04 5.805549e-04 4.412942e-04 -9.714222e-06 -2.782848e-04 -2.711874e-04 1.455418e-04 1.301345e-04 -2.751363e-04 -3.469007e-05 -1.293820e-04 -1.817068e-04 -1.480004e-04 -1.226018e-04 -1.174552e-04 4.192763e-03 9.239733e-03 -1.134098e-02 9.376905e-02 1.112954e-01 -6.248448e-03
<VARIANCE> 42
 7.091190e-03 1.412331e-02 5.455232e-03 9.705007e-03 2.946769e-03 6.724356e-03 4.543141e-03 3.141273e-02 4.628452e-02 3.547628e-02 2.232112e-02 2.404570e-02 1.909022e-04 1.914176e-04 1.622197e-04 1.510375e-04 1.306313e-04 1.309603e-04 8.412237e-05 1.300956e-04 1.099571e-04 8.954765e-05 9.039127e-05 8.008671e-05 6.562433e-05 6.125055e-05 5.346434e-05 5.042955e-05 4.483713e-05 4.160629e-05 1.966163e-05 2.601508e-05 1.230718e-05 1.211414e-05 9.863903e-06 9.377108e-06 7.745087e-05 1.255272e-04 1.136994e-04 1.593016e-02 8.455340e-03 1.059822e-02
<GCONST> -2.508111e+02
<STATE> 9
<MEAN> 42
 2.969181e-03 -3.039283e-03 -4.548653e-03 2.990402e-03 7.664638e-03 -5.215177e-03 -1.072004e-02 -3.296568e-03 1.988110e-03 3.990320e-03 -5.706333e-03 2.960098e-03 -1.655478e-04 3.934796e-05 2.057826e-04 6.371099e-05 -1.843937e-04 1.283296e-04 1.354979e-05 -2.254210e-04 -1.338430e-04 -1.789438e-04 -1.885164e-04 -1.874520e-04 3.495076e-05 6.268424e-05 2.764990e-05 -4.988914e-05 5.782773e-06 4.832696e-05 1.026437e-05 9.102646e-06 2.899185e-05 2.156347e-05 2.745645e-05 2.301586e-05 3.276958e-04 -1.328180e-04 1.088221e-03 2.956138e-03 -4.308662e-03 2.497515e-03
<VARIANCE> 42
 1.669253e-03 1.280789e-03 8.637546e-04 1.099419e-03 9.286311e-04 6.642899e-04 8.260478e-04 1.370589e-03 8.276975e-04 6.537745e-04 6.132906e-04 5.278459e-04 1.247595e-04 8.518290e-05 1.076018e-04 7.800129e-05 9.533787e-05 6.635219e-05 4.295235e-05 7.374013e-05 2.533387e-05 4.065752e-05 2.640494e-05 2.628229e-05 4.779897e-05 3.282335e-05 3.995248e-05 3.031833e-05 3.575390e-05 2.495724e-05 1.293373e-05 2.601508e-05 8.397072e-06 1.211414e-05 9.433701e-06 8.898492e-06 3.297556e-06 8.471275e-06 7.542159e-05 2.870781e-04 7.053010e-04 2.838487e-04
<GCONST> -3.113190e+02
<STATE> 10
<MEAN> 42
 1.877822e-02 6.138631e-02 4.934927e-02 -3.208767e-02 -1.189734e-02 5.621288e-02 -2.991795e-02 -8.345921e-03 2.380613e-03 1.831886e-02 2.067021e-02 2.374787e-02 -2.526754e-04 -2.999189e-04 -4.471810e-05 2.768257e-04 -9.707699e-05 -1.618696e-04 -8.952108e-05 -3.447096e-04 -4.164765e-04 -5.379720e-04 -7.889001e-04 -4.160681e-04 -7.573112e-05 -2.534372e-04 -1.797130e-04 1.632439e-04 5.414263e-05 -2.218501e-04 -9.725591e-07 -5.282109e-05 -1.174029e-04 -1.272538e-04 -1.378229e-04 -1.671279e-04 1.646688e-03 1.130540e-04 3.690405e-03 2.214839e-02 4.997224e-02 1.807488e-02
<VARIANCE> 42
 1.585991e-03 2.093466e-03 2.085780e-03 1.402802e-03 1.115008e-03 1.798974e-03 2.340150e-03 2.645233e-03 1.260082e-03 9.552213e-04 3.546402e-03 7.732405e-04 1.646710e-04 1.360919e-04 1.136089e-04 1.219915e-04 1.050641e-04 8.411716e-05 5.058083e-05 7.374013e-05 3.670644e-05 4.065752e-05 9.142582e-05 3.461551e-05 5.377928e-05 4.910991e-05 3.982691e-05 4.147962e-05 3.466054e-05 3.119141e-05 1.420573e-05 2.601508e-05 1.158471e-05 1.211414e-05 1.980688e-05 1.139424e-05 8.507214e-06 4.304328e-05 1.461332e-04 8.223701e-04 1.430319e-03 7.126367e-04
<GCONST> -2.919635e+02
<STATE> 11
<MEAN> 42
 -2.144963e-02 -4.176000e-02 -1.897718e-02 3.582959e-02 -1.374325e-03 -3.299531e-02 2.105172e-03 -2.092700e-02 -3.082068e-02 -4.924551e-02 -5.355982e-02 -3.837337e-02 -1.685275e-03 -1.014864e-03 6.620161e-04 1.333284e-03 -1.181121e-03 -1.729437e-04 3.095295e-03 3.171041e-03 2.117027e-03 1.117489e-04 -3.621830e-04 -1.552429e-03 -3.740481e-04 4.241004e-04 7.940335e-04 -2.478871e-05 -5.994063e-04 6.153848e-04 9.305194e-04 1.107794e-03 1.099866e-03 6.418497e-04 2.762959e-04 3.007621e-05 -2.031340e-03 1.544493e-03 -2.041395e-03 -3.712305e-02 -3.134192e-02 4.868058e-03
<VARIANCE> 42
 9.009488e-04 1.528538e-03 1.357007e-03 9.412752e-04 7.695282e-04 1.118054e-03 1.730631e-03 2.725848e-03 1.239291e-03 1.341150e-03 1.228103e-03 7.191729e-04 1.550017e-04 1.278015e-04 1.598784e-04 1.014393e-04 1.266473e-04 1.067025e-04 1.010440e-04 1.462452e-04 1.069604e-04 8.436173e-05 9.865095e-05 6.606770e-05 6.019637e-05 4.241583e-05 5.309438e-05 3.807215e-05 4.667335e-05 3.297128e-05 2.129856e-05 3.576123e-05 2.977482e-05 2.542080e-05 2.745087e-05 1.942949e-05 3.948368e-06 1.882241e-05 6.724583e-05 5.935536e-04 1.066224e-03 8.380484e-04
<GCONST> -2.902829e+02
<STATE> 12
<MEAN> 42
 -5.549525e-02 -1.848977e-02 3.448733e-02 3.677342e-02 -4.260970e-02 5.288265e-03 1.230514e-01 1.406219e-01 1.208312e-01 5.035188e-02 1.842836e-04 -4.097533e-02 6.307142e-03 7.997925e-03 1.718501e-03 -7.112648e-03 2.367047e-03 4.854432e-03 1.518313e-02 3.613786e-02 3.434103e-02 2.839298e-02 2.048082e-02 1.171198e-02 7.377880e-03 3.924950e-03 -3.448966e-03 -5.631403e-03 5.459758e-03 2.195838e-04 -3.817326e-03 4.182874e-03 5.432571e-03 8.374795e-03 8.581566e-03 7.782453e-03 -5.508868e-03 -5.941141e-03 -2.799780e-03 -2.157569e-02 -1.533563e-02 -1.121902e-01
<VARIANCE> 42
 3.585835e-03 9.642905e-03 1.189004e-02 3.385415e-03 5.173594e-03 1.007887e-02 7.253139e-03 2.549869e-02 1.707136e-02 9.059567e-03 6.018881e-03 4.998086e-03 4.109234e-04 4.120414e-04 4.948431e-04 2.870223e-04 3.510085e-04 3.564207e-04 5.673527e-04 8.485056e-04 7.471394e-04 6.586182e-04 5.908246e-04 5.011723e-04 8.291363e-05 9.127463e-05 8.875311e-05 6.508842e-05 6.276360e-05 7.045973e-05 9.660177e-05 1.374672e-04 1.019289e-04 7.944872e-05 8.571078e-05 7.475980e-05 4.250080e-05 1.191635e-04 3.073317e-04 3.178867e-03 7.770712e-03 9.439192e-03
<GCONST> -2.272010e+02
<STATE> 13
<MEAN> 42
 1.249725e-01 1.106686e-01 -1.871526e-02 -1.190745e-01 7.558949e-02 4.141033e-02 5.724478e-02 2.506816e-01 2.562110e-01 2.706787e-01 2.430708e-01 1.762033e-01 6.074553e-02 3.574102e-02 -2.505577e-02 -4.823560e-02 4.312074e-02 5.517908e-03 -2.975220e-02 1.957790e-02 3.647965e-02 6.132008e-02 6.836686e-02 6.389760e-02 1.270306e-02 8.690506e-03 -4.030054e-03 -1.071949e-02 8.381975e-03 2.352494e-03 -1.241264e-02 -8.581251e-03 -2.051496e-04 6.857620e-03 1.074049e-02 1.160045e-02 8.324901e-03 -4.670187e-03 5.873637e-03 1.760542e-01 5.360457e-02 -1.244644e-01
<VARIANCE> 42
 1.786158e-02 1.166825e-02 1.309930e-02 1.187685e-02 1.295038e-02 8.769424e-03 2.277403e-02 7.053337e-02 6.338038e-02 3.812330e-02 3.225776e-02 2.977695e-02 1.905553e-03 1.011321e-03 1.386965e-03 1.112443e-03 1.407300e-03 7.203408e-04 2.457323e-03 3.842579e-03 4.938609e-03 3.371405e-03 2.495408e-03 2.280980e-03 1.298807e-04 1.373510e-04 1.458575e-04 9.790393e-05 1.036240e-04 1.090175e-04 2.205507e-04 4.063824e-04 3.972998e-04 3.144372e-04 2.420023e-04 1.878663e-04 1.977712e-04 6.179704e-04 8.307591e-04 1.944977e-02 8.799044e-03 2.930716e-02
<GCONST> -1.819851e+02
<STATE> 14
<MEAN> 42
 5.594921e-01 6.093439e-01 4.876602e-02 -5.844566e-01 2.562289e-01 3.277446e-01 -3.397584e-01 6.384496e-02 4.868373e-01 7.299753e-01 7.878610e-01 7.016212e-01 5.836122e-02 4.509825e-02 -1.325766e-02 -5.177139e-02 3.581977e-02 1.593459e-02 -7.121654e-02 -7.461508e-02 -1.173632e-02 5.837334e-02 9.568936e-02 1.003115e-01 -8.904132e-03 -6.707055e-03 2.208244e-03 7.805521e-03 -5.610931e-03 -2.305166e-03 -2.206487e-03 -2.032462e-02 -2.075773e-02 -1.267246e-02 -5.685687e-03 -2.865174e-03 5.243811e-02 1.640889e-03 1.314183e-03 6.873330e-01 3.912211e-01 8.583137e-02
<VARIANCE> 42
 1.426309e-01 5.365282e-01 3.801970e-01 2.467048e-01 1.270577e-01 4.251487e-01 1.896624e-01 2.523053e-01 3.312007e-01 2.646969e-01 2.575173e-01 2.386233e-01 7.720110e-03 2.729157e-02 1.372138e-02 1.408000e-02 3.907585e-03 1.858846e-02 9.880282e-03 1.353227e-02 1.657477e-02 1.008659e-02 1.284642e-02 1.134053e-02 5.846516e-04 2.324033e-03 1.324880e-03 1.121869e-03 3.742234e-04 1.679812e-03 8.814918e-04 1.159707e-03 1.214896e-03 8.094133e-04 1.147971e-03 9.893081e-04 1.323711e-03 1.243338e-03 1.320979e-03 1.805572e-01 3.534963e-01 1.482867e-01
<GCONST> -9.905380e+01
<STATE> 15
<MEAN> 42
 3.003869e-01 1.773774e-01 -1.278996e-01 -2.402189e-01 2.193639e-01 1.814519e-02 -4.788180e-01 -7.076613e-01 -5.095596e-01 -8.580372e-03 3.207398e-01 3.875568e-01 -6.390692e-02 -5.305481e-02 1.086419e-02 5.849635e-02 -3.753355e-02 -2.121160e-02 1.795286e-02 -3.764652e-02 -7.981445e-02 -1.117943e-01 -1.192574e-01 -1.060263e-01 -4.494403e-03 -2.464656e-03 2.021545e-03 3.479502e-03 -3.249551e-03 -2.267435e-04 9.543298e-03 1.852415e-02 1.324638e-02 2.046117e-03 -5.314850e-03 -7.640983e-03 4.584817e-02 3.792484e-02 -1.946990e-03 2.675049e-01 1.612539e-01 5.391151e-01
<VARIANCE> 42
 1.681285e-01 1.896815e-01 3.119380e-01 9.829761e-02 1.917005e-01 2.073475e-01 1.070440e-01 3.719039e-01 6.636912e-01 5.773711e-01 6.692386e-01 5.075935e-01 3.705606e-03 4.054140e-03 4.537812e-03 2.748624e-03 3.112215e-03 3.365990e-03 3.794362e-03 1.381079e-02 1.794945e-02 1.502746e-02 2.219199e-02 1.721420e-02 8.136352e-04 8.281599e-04 6.485275e-04 6.593489e-04 5.250358e-04 5.338054e-04 6.175941e-04 1.512059e-03 1.831247e-03 2.750719e-03 4.556861e-03 3.636197e-03 1.543949e-03 1.471168e-03 1.460559e-03 3.125789e-01 1.937298e-01 1.845182e-01
<GCONST> -1.031077e+02
<STATE> 16
<MEAN> 42
 -7.544239e-02 -7.470433e-02 -4.489555e-03 7.334734e-02 -3.148110e-02 -4.580777e-02 -6.520315e-02 -2.229704e-01 -1.913751e-01 -1.902141e-01 -1.474183e-01 -1.231158e-01 1.519712e-03 4.881441e-03 3.340369e-03 -3.196228e-03 -8.675330e-04 4.063355e-03 2.260361e-02 4.659195e-02 4.340274e-02 2.856192e-02 1.775940e-02 9.376563e-03 2.180528e-03 1.750885e-03 -4.366825e-04 -1.967215e-03 1.320508e-03 6.548667e-04 -2.209263e-03 -3.822820e-03 -2.195857e-03 -2.663159e-04 1.100765e-03 1.810565e-03 -2.707724e-03 1.859749e-02 -4.185933e-03 -1.097120e-01 -3.610089e-02 1.124297e-01
<VARIANCE> 42
 1.724838e-02 1.609505e-02 2.647530e-02 9.218881e-03 1.771493e-02 1.648284e-02 7.435085e-02 1.186131e-01 1.473349e-01 3.626294e-02 2.086614e-02 1.075205e-02 6.254418e-04 5.171935e-04 1.087240e-03 3.002894e-04 7.334396e-04 6.464322e-04 1.215099e-03 2.648887e-03 3.269770e-03 1.341517e-03 6.896254e-04 4.141393e-04 9.565768e-05 9.102866e-05 7.059814e-05 7.577261e-05 6.128610e-05 5.683264e-05 8.650750e-05 1.351836e-04 2.354729e-04 1.669393e-04 1.406923e-04 1.040882e-04 2.697967e-04 5.957758e-04 5.805459e-04 8.966547e-03 1.439291e-02 6.684334e-02
<GCONST> -1.955050e+02
<STATE> 17
<MEAN> 42
 1.409934e-02 1.711736e-02 -7.004641e-04 -1.892012e-02 1.871266e-02 -1.918956e-04 7.645235e-03 5.680694e-02 3.307275e-02 1.133477e-02 1.967504e-02 2.807849e-03 9.419892e-04 1.140638e-03 1.985961e-04 -1.045403e-03 3.702979e-04 6.703597e-04 4.294920e-04 2.391068e-03 2.321828e-03 2.026769e-03 1.664707e-03 1.410924e-03 -8.117064e-06 -2.048024e-05 -1.039607e-05 1.553910e-05 -1.533353e-07 -1.720994e-05 -1.307088e-04 -2.031522e-04 -1.750103e-04 -6.339366e-05 -4.098051e-05 -1.141101e-05 1.934175e-04 -2.006672e-03 -5.792328e-03 8.409907e-03 8.525327e-03 -2.476935e-02
<VARIANCE> 42
 4.130905e-03 4.351860e-03 2.914854e-03 3.732048e-03 2.434548e-03 2.453220e-03 3.293198e-03 9.117748e-03 1.186204e-02 6.541740e-03 4.455523e-03 4.331717e-03 1.373244e-04 1.160778e-04 1.172818e-04 9.777902e-05 1.012116e-04 8.230389e-05 5.284583e-05 7.374013e-05 5.460169e-05 4.635914e-05 5.060485e-05 3.975548e-05 4.866784e-05 4.427252e-05 4.304490e-05 3.582772e-05 3.572205e-05 3.142636e-05 1.308991e-05 2.601508e-05 1.726432e-05 1.521220e-05 1.764165e-05 1.370965e-05 1.630200e-05 6.011980e-05 2.419957e-04 2.696076e-03 2.811596e-03 3.498281e-03
<GCONST> -2.753210e+02
<STATE> 18
<MEAN> 42
 2.596215e-01 -5.336216e-02 -3.067584e-01 -1.021771e-01 2.910557e-01 -1.817957e-01 -1.903436e-01 -6.703624e-02 -1.661584e-01 -7.729269e-02 -2.196516e-02 1.044771e-02 9.846995e-04 -1.687874e-03 -2.689129e-03 3.645401e-04 1.847727e-03 -2.245524e-03 -1.884115e-03 1.974936e-03 -2.670923e-05 3.537366e-04 -5.777343e-05 -3.389787e-04 -9.419222e-04 -8.478716e-04 9.969520e-05 9.032372e-04 -5.150964e-04 -3.115208e-04 1.075450e-04 -3.122410e-05 -5.638524e-05 2.217745e-04 2.053562e-04 3.679737e-04 2.267852e-02 -1.107469e-03 1.265573e-02 3.738524e-02 -9.692799e-02 1.103035e-01
<VARIANCE> 42
 1.363478e-01 3.237569e-02 1.962177e-01 3.384938e-02 1.616526e-01 7.970982e-02 9.461384e-02 3.497016e-02 1.249056e-01 8.669563e-02 7.121400e-02 5.731253e-02 3.106287e-03 1.008799e-03 3.412216e-03 1.204178e-03 3.011042e-03 1.426609e-03 2.086666e-03 7.122075e-04 2.550170e-03 2.338876e-03 2.282988e-03 1.958139e-03 1.745794e-04 1.263018e-04 1.604990e-04 1.101907e-04 1.357449e-04 1.003125e-04 1.151925e-04 7.459693e-05 1.353891e-04 1.426548e-04 1.597857e-04 1.478508e-04 1.023916e-03 1.332071e-03 5.066918e-04 3.398675e-02 3.385155e-02 3.683518e-02
<GCONST> -1.671866e+02
<STATE> 19
<MEAN> 42
 1.939778e-01 2.585349e-01 6.233737e-02 -2.233501e-01 6.774416e-02 1.632102e-01 -6.766523e-02 2.414082e-01 3.220850e-01 3.399997e-01 3.589474e-01 3.380312e-01 -4.672799e-04 1.553889e-04 6.141801e-04 1.548718e-04 -5.427328e-04 3.957509e-04 -4.140505e-04 -2.038714e-03 -1.770532e-03 -7.464255e-04 -3.172790e-04 -3.671350e-04 -1.437925e-04 -3.572243e-04 -2.105523e-04 2.502336e-04 3.240283e-05 -2.754063e-04 2.424895e-05 -2.583449e-04 -3.764317e-04 -3.678915e-04 -4.180909e-04 -4.076981e-04 1.385694e-02 -9.496290e-03 -3.897702e-03 2.906501e-01 1.661651e-01 -7.310664e-02
<VARIANCE> 42
 1.252206e-02 2.457248e-02 1.394238e-02 1.509994e-02 6.216823e-03 1.668563e-02 1.783909e-02 5.005778e-02 6.884399e-02 6.981253e-02 6.533670e-02 6.164846e-02 1.991554e-04 1.935817e-04 1.296216e-04 1.637173e-04 1.178962e-04 1.110814e-04 1.170666e-04 1.463482e-04 2.054962e-04 2.150167e-04 2.830875e-04 2.812324e-04 4.008140e-05 2.627316e-05 2.979464e-05 2.571478e-05 2.899508e-05 1.782691e-05 1.680291e-05 2.601508e-05 1.575365e-05 1.302223e-05 1.211291e-05 1.248361e-05 1.514147e-04 4.043348e-04 4.030496e-04 3.660277e-02 1.462230e-02 2.425145e-02
<GCONST> -2.356543e+02
<STATE> 20
<MEAN> 42
 -6.030865e-03 6.905354e-03 1.789029e-02 1.666812e-04 -3.801709e-03 1.440856e-02 -2.415877e-02 -6.829576e-03 -1.220266e-02 -1.277215e-02 -1.717621e-02 -1.461464e-02 -2.473723e-04 2.843575e-05 2.771300e-04 1.101410e-04 -2.624861e-04 1.625029e-04 2.028614e-04 1.742036e-04 2.238715e-04 -5.009973e-05 -4.002542e-04 -2.092204e-04 -4.540471e-05 5.651840e-06 5.219854e-05 1.978314e-05 -4.873730e-05 3.005920e-05 2.959881e-05 -7.715571e-05 -5.363477e-05 -5.060026e-05 2.300581e-05 -1.445659e-05 -4.588182e-04 1.611554e-03 -6.245167e-03 -7.728627e-03 6.415522e-03 9.504648e-03
<VARIANCE> 42
 2.240449e-03 2.924989e-03 2.068267e-03 2.285020e-03 1.337725e-03 1.944974e-03 2.548320e-03 1.370589e-03 5.221071e-03 1.668646e-03 2.386818e-03 1.254158e-03 2.400637e-04 1.675946e-04 1.395354e-04 1.689336e-04 1.487119e-04 9.470332e-05 8.111922e-05 7.374013e-05 5.861709e-05 4.633307e-05 5.158502e-05 4.359948e-05 9.270432e-05 6.461963e-05 4.830071e-05 6.659031e-05 5.464863e-05 3.359291e-05 2.220265e-05 2.601508e-05 1.812684e-05 1.542958e-05 1.700949e-05 1.531270e-05 6.567253e-06 2.164762e-05 1.325046e-04 1.062828e-03 1.633912e-03 3.793857e-04
<GCONST> -2.847280e+02
<STATE> 21
<MEAN> 42
 2.246506e-01 7.431881e-04 -2.173016e-01 -1.117077e-01 2.296692e-01 -1.100529e-01 -1.934327e-01 -1.022348e-01 -1.704424e-01 -8.134288e-02 -3.616614e-02 -2.665431e-04 1.307925e-04 -1.150455e-03 -1.257265e-03 5.192420e-04 6.863931e-04 -1.177258e-03 -2.460229e-04 -4.273024e-07 -1.384839e-03 -1.220559e-03 -8.836374e-04 -1.775515e-03 7.287913e-04 3.195188e-04 -4.036762e-04 -5.238465e-04 5.694296e-04 -4.609207e-05 -3.325623e-05 2.312472e-04 6.604650e-04 1.939958e-04 4.195861e-04 4.015394e-04 1.895811e-02 2.283222e-03 -4.928510e-03 2.759375e-02 -4.105874e-02 1.260427e-01
<VARIANCE> 42
 1.317388e-01 2.353506e-02 1.662418e-01 3.499692e-02 1.463867e-01 6.228692e-02 9.743577e-02 2.721041e-02 1.056991e-01 7.423669e-02 6.333739e-02 5.093449e-02 2.821527e-03 7.991441e-04 3.341165e-03 9.754358e-04 2.901213e-03 1.368345e-03 2.083539e-03 5.777893e-04 2.218233e-03 2.044646e-03 2.042274e-03 1.748655e-03 1.462285e-04 7.530126e-05 1.700831e-04 6.826752e-05 1.412747e-04 8.691127e-05 1.262589e-04 7.208787e-05 1.091895e-04 1.111897e-04 1.240985e-04 1.165246e-04 9.447859e-04 1.197472e-03 1.954205e-04 3.048749e-02 2.469585e-02 3.544900e-02
<GCONST> -1.738641e+02
<STATE> 22
<MEAN> 42
 6.222322e-03 3.654470e-03 1.354767e-03 -5.519482e-03 1.144121e-02 -1.183907e-03 -5.784464e-03 1.177957e-03 -1.626382e-02 1.346644e-03 7.071495e-04 3.912691e-04 -1.741963e-04 -2.342629e-04 -5.657451e-05 2.068026e-04 -6.241794e-05 -1.437096e-04 9.193804e-05 2.609284e-04 6.315924e-06 8.177994e-05 1.366104e-04 2.103215e-04 2.477688e-05 -3.262642e-05 -5.867702e-05 3.658788e-06 4.043892e-05 -4.654472e-05 -5.116088e-05 -5.487516e-05 -1.330017e-05 -5.278338e-05 -3.493926e-05 -7.313000e-06 5.086293e-04 -1.470622e-03 1.819293e-03 4.137172e-04 3.219070e-03 5.466340e-03
<VARIANCE> 42
 3.503775e-03 2.746179e-03 1.234410e-03 2.970533e-03 1.907052e-03 9.801611e-04 2.126130e-03 5.198008e-03 2.994805e-03 2.825745e-03 2.454214e-03 2.331736e-03 1.475020e-04 1.282318e-04 1.243928e-04 1.068291e-04 1.038361e-04 8.954644e-05 3.089833e-05 7.374013e-05 3.098776e-05 4.065752e-05 3.169269e-05 2.858381e-05 4.980505e-05 4.254390e-05 5.010433e-05 3.363178e-05 3.925534e-05 3.402007e-05 8.544450e-06 2.601508e-05 9.748703e-06 1.211414e-05 9.679175e-06 9.293413e-06 1.261284e-05 2.874881e-05 1.333270e-04 1.326522e-03 1.557025e-03 1.462422e-03
<GCONST> -2.899622e+02
<STATE> 23
<MEAN> 42
 2.192545e-01 -2.723313e-02 -2.395112e-01 -9.497542e-02 2.379729e-01 -1.347998e-01 -1.855230e-01 -7.656690e-02 -1.330229e-01 -7.378847e-02 -2.805735e-02 1.297422e-03 -1.672685e-04 -1.198043e-03 -1.034542e-03 6.855364e-04 4.130651e-04 -1.097834e-03 -5.452263e-04 -7.170369e-04 -7.830350e-04 -9.260672e-04 -8.784207e-04 -1.022582e-03 7.060590e-04 3.972599e-04 -3.236764e-04 -5.554019e-04 5.132961e-04 3.824718e-05 -1.855603e-04 -1.478463e-04 2.100989e-04 1.301329e-04 1.389188e-04 2.950015e-04 1.886206e-02 1.439962e-03 5.164937e-03 3.232432e-02 -6.841159e-02 1.042355e-01
<VARIANCE> 42
 1.335164e-01 2.521320e-02 1.721504e-01 3.525749e-02 1.495952e-01 6.555465e-02 9.837428e-02 2.325576e-02 9.607230e-02 7.172913e-02 6.287182e-02 5.072860e-02 2.889022e-03 1.053642e-03 3.331247e-03 1.138726e-03 2.857153e-03 1.475461e-03 2.026652e-03 6.019779e-04 2.187598e-03 2.046957e-03 2.033864e-03 1.813591e-03 1.986722e-04 1.415844e-04 2.145017e-04 1.165052e-04 1.716301e-04 1.284806e-04 1.079711e-04 8.111713e-05 1.185909e-04 1.337858e-04 1.514022e-04 1.475300e-04 9.526195e-04 1.204010e-03 2.298694e-04 2.992560e-02 2.721352e-02 3.281979e-02
<GCONST> -1.702792e+02
<STATE> 24
<MEAN> 42
 9.420367e-03 1.182376e-02 3.831814e-03 -6.748813e-03 4.633921e-03 7.985046e-03 5.639927e-04 4.756724e-03 1.838484e-04 5.365591e-03 7.302957e-03 2.725457e-03 -1.512749e-04 -2.395320e-04 -8.669342e-05 1.960420e-04 -3.175140e-05 -1.638327e-04 6.751422e-05 9.638410e-06 -4.157175e-05 -1.382159e-04 -2.896379e-04 -1.906477e-04 8.324205e-06 -1.903952e-05 -2.723932e-05 5.546501e-06 1.796857e-05 -2.315686e-05 2.003137e-05 4.682345e-05 2.438113e-06 -1.610001e-05 -5.256540e-05 -1.832880e-05 3.085087e-04 -1.789793e-04 -1.127054e-03 4.438374e-03 8.583725e-03 1.222803e-04
<VARIANCE> 42
 1.643358e-03 1.657318e-03 1.132279e-03 1.495536e-03 8.272039e-04 1.038123e-03 2.255755e-03 1.370589e-03 8.781699e-04 9.321782e-04 1.462035e-03 7.253514e-04 1.419829e-04 9.276592e-05 1.071444e-04 9.079087e-05 1.018283e-04 6.469271e-05 3.389485e-05 7.374013e-05 2.967449e-05 4.065752e-05 3.224626e-05 2.637021e-05 5.033908e-05 3.299617e-05 3.824978e-05 3.216404e-05 3.620300e-05 2.318334e-05 9.413990e-06 2.601508e-05 9.618709e-06 1.211414e-05 1.066947e-05 8.662144e-06 3.973176e-06 1.092857e-05 1.573089e-04 5.682962e-04 9.032672e-04 3.741857e-04
<GCONST> -3.047269e+02
<STATE> 25
<MEAN> 42
 2.080316e-01 9.686988e-02 -1.139584e-01 -1.491708e-01 1.650620e-01 -7.158602e-03 -2.086539e-01 -2.397449e-01 -1.904471e-01 1.041828e-01 2.132782e-01 2.491097e-01 1.261816e-03 -5.895771e-05 -1.319813e-03 -5.995445e-04 1.285052e-03 -6.857394e-04 -1.323002e-03 -1.841296e-03 -1.639144e-03 -8.747322e-04 -1.590121e-04 4.297832e-04 3.121714e-04 1.141088e-04 -1.972406e-04 -2.134947e-04 2.603639e-04 -4.563267e-05 2.231841e-04 4.697980e-04 5.450325e-04 5.349119e-04 4.455228e-04 2.939859e-04 2.204953e-02 1.577680e-02 1.049329e-03 1.852454e-01 6.995891e-02 2.154800e-01
<VARIANCE> 42
 1.596675e-01 1.103837e-01 2.214667e-01 7.963432e-02 1.646250e-01 1.262719e-01 9.335252e-02 4.202951e-01 5.792254e-01 3.811505e-01 4.127605e-01 2.981847e-01 4.442687e-03 2.790171e-03 4.019920e-03 2.611471e-03 3.552794e-03 2.301858e-03 2.323972e-03 1.096498e-02 1.414200e-02 1.245502e-02 1.539775e-02 1.139328e-02 3.109431e-04 2.517450e-04 3.081593e-04 2.043380e-04 2.477412e-04 2.034054e-04 1.564586e-04 7.751465e-04 9.654945e-04 9.905164e-04 1.284659e-03 9.094265e-04 1.488361e-03 1.442985e-03 9.106020e-04 1.978713e-01 1.126976e-01 2.006939e-01
<GCONST> -1.226031e+02
<STATE> 26
<MEAN> 42
 7.355520e-03 1.631503e-03 1.117811e-04 -1.141391e-03 6.598226e-03 -1.764635e-05 1.971407e-02 7.052944e-02 6.490649e-02 2.820435e-02 1.164764e-02 6.073290e-03 6.817036e-04 6.966154e-04 1.336665e-05 -6.901824e-04 3.366588e-04 3.511323e-04 4.789275e-04 2.099467e-03 2.028495e-03 1.507260e-03 1.186233e-03 9.545764e-04 5.779664e-05 1.460243e-04 8.772141e-05 -1.029179e-04 -1.710133e-05 1.132124e-04 -1.319676e-04 -1.829444e-04 -1.646188e-04 -5.511231e-05 1.966463e-05 1.423152e-05 -3.289987e-04 -3.327198e-03 -2.536523e-04 1.091693e-02 -7.170442e-03 -4.249772e-02
<VARIANCE> 42
 2.931373e-03 1.611142e-03 1.950761e-03 1.679569e-03 1.948231e-03 1.135513e-03 2.453601e-03 8.313037e-03 6.125338e-03 2.828891e-03 1.908563e-03 1.887799e-03 1.743982e-04 1.140732e-04 1.183713e-04 1.147633e-04 1.183887e-04 7.305350e-05 3.486283e-05 7.374013e-05 5.390632e-05 4.215516e-05 4.046088e-05 3.245867e-05 6.739191e-05 4.509117e-05 4.200071e-05 4.583805e-05 4.365727e-05 2.692689e-05 9.436188e-06 2.601508e-05 1.409432e-05 1.327512e-05 1.286856e-05 1.035127e-05 1.687933e-05 4.708409e-05 1.757940e-04 1.210899e-03 9.035661e-04 2.537838e-03
<GCONST> -2.863738e+02
<STATE> 27
<MEAN> 42
 1.380086e-01 1.596893e-01 1.403781e-02 -1.494577e-01 6.453217e-02 8.485018e-02 8.134261e-03 2.698176e-01 3.009390e-01 2.600527e-01 2.358043e-01 2.064992e-01 6.098915e-04 1.023979e-03 4.136061e-04 -8.109405e-04 9.783938e-05 7.075325e-04 -7.008502e-04 -1.123642e-03 -1.442769e-04 5.107119e-04 1.129775e-03 8.022299e-04 -3.388874e-04 -2.292671e-04 1.083851e-04 2.847634e-04 -2.220196e-04 -5.403586e-05 -8.605275e-06 -2.369711e-04 -2.399498e-04 -2.062298e-04 -2.564827e-04 -2.064023e-04 8.693815e-03 -2.379511e-03 -9.510053e-03 1.917715e-01 8.761271e-02 -1.213247e-01
<VARIANCE> 42
 8.719918e-03 8.536412e-03 6.605092e-03 6.341492e-03 5.038913e-03 5.725432e-03 1.074689e-02 4.881579e-02 5.520539e-02 3.055225e-02 1.985810e-02 1.971678e-02 1.579014e-04 1.370618e-04 9.558946e-05 1.235383e-04 9.382495e-05 7.674781e-05 6.631509e-05 1.288894e-04 1.474887e-04 1.212921e-04 1.455625e-04 9.948931e-05 4.269003e-05 3.126884e-05 3.308540e-05 2.866112e-05 3.045818e-05 2.160462e-05 1.315870e-05 2.601508e-05 9.210878e-06 1.211414e-05 1.564323e-05 8.035189e-06 2.009042e-04 3.049679e-04 1.794628e-04 1.349403e-02 4.138397e-03 1.596188e-02
<GCONST> -2.527765e+02
<STATE> 28
<MEAN> 42
 2.186186e-01 1.861604e-01 -2.324378e-02 -1.935891e-01 1.268997e-01 8.366552e-02 -1.920221e-01 6.739309e-02 1.719571e-01 3.173217e-01 3.337758e-01 2.837946e-01 -2.203256e-03 -3.497629e-03 -1.308076e-03 2.841345e-03 -4.456236e-04 -2.360837e-03 3.730395e-04 -4.054298e-03 -6.496325e-03 -4.962651e-03 -4.382510e-03 -3.541338e-03 -5.047430e-04 -6.352525e-04 -1.366520e-04 5.613544e-04 -1.758082e-04 -3.784827e-04 2.051250e-04 3.425693e-04 9.308860e-05 -1.093796e-04 -4.414326e-05 -1.384909e-04 1.868362e-02 -1.377369e-02 8.804009e-03 2.893931e-01 1.053702e-01 3.359389e-02
<VARIANCE> 42
 7.547867e-02 7.402057e-02 1.488944e-01 3.578914e-02 9.575847e-02 9.484122e-02 5.386283e-02 5.690607e-02 2.055125e-01 2.502068e-01 2.157749e-01 1.364237e-01 1.852746e-03 8.483510e-04 1.926188e-03 8.692626e-04 1.680524e-03 9.287721e-04 1.071462e-03 2.970054e-04 1.299486e-03 1.427126e-03 1.515495e-03 1.310109e-03 1.515883e-04 1.103752e-04 1.316989e-04 9.799520e-05 1.140502e-04 8.399579e-05 4.868508e-05 3.220067e-05 6.572925e-05 8.121016e-05 9.675918e-05 9.657101e-05 5.290287e-04 1.048157e-03 2.409997e-04 1.121684e-01 5.131862e-02 2.936925e-02
<GCONST> -1.753021e+02
<STATE> 29
<MEAN> 42
 5.962939e-03 4.535568e-03 1.441460e-05 -1.202097e-03 3.379669e-03 9.170475e-04 3.420304e-03 5.219952e-03 -1.831068e-03 -1.103480e-03 5.715690e-03 -8.299216e-04 -2.915536e-04 -1.860778e-04 1.062026e-04 2.396773e-04 -1.993940e-04 -3.805113e-05 1.042965e-04 -2.415071e-04 -2.576705e-04 -2.938596e-04 -3.299224e-04 -3.478327e-04 3.226259e-05 3.830808e-05 6.515817e-06 -3.487403e-05 1.363239e-05 2.111711e-05 2.875336e-06 4.353220e-05 4.561680e-05 3.422656e-05 5.992959e-05 4.454547e-05 1.117725e-04 6.967082e-04 -1.242529e-04 6.370452e-04 3.178125e-03 -1.062925e-03
<VARIANCE> 42
 1.208543e-03 1.081361e-03 6.755450e-04 1.034348e-03 6.618458e-04 5.899633e-04 1.058170e-03 1.370589e-03 1.453434e-03 9.046413e-04 1.911119e-03 7.678000e-04 1.230356e-04 8.264725e-05 9.980800e-05 7.791854e-05 9.086515e-05 6.063096e-05 3.361511e-05 7.374013e-05 2.641059e-05 4.065752e-05 5.058158e-05 2.562513e-05 4.525426e-05 2.917635e-05 3.801340e-05 2.772619e-05 3.439123e-05 2.232586e-05 9.900504e-06 2.601508e-05 8.382679e-06 1.211414e-05 1.357571e-05 8.354958e-06 2.996403e-06 1.488135e-05 6.221765e-05 5.398156e-04 5.936036e-04 2.838487e-04
<GCONST> -3.094616e+02
<STATE> 30
<MEAN> 42
 -4.690215e-03 1.259738e-02 1.694064e-02 -3.549171e-03 -1.112991e-02 1.279802e-02 3.676084e-03 1.751861e-02 -3.016111e-02 -2.738297e-02 -1.843642e-02 -3.339849e-02 -9.144709e-05 -5.398583e-04 -4.503825e-04 3.116834e-04 1.891853e-04 -5.177552e-04 6.474719e-04 1.932165e-03 1.168954e-05 -2.000741e-04 -4.272610e-04 -3.264084e-04 -2.585390e-04 -1.178325e-04 1.385928e-04 1.847376e-04 -1.988775e-04 1.420217e-05 3.102678e-04 2.074542e-04 1.539943e-04 7.655094e-05 -1.960433e-04 -6.593690e-05 -4.095539e-04 3.282687e-03 6.365101e-04 -2.367700e-02 1.355572e-02 -5.671346e-04
<VARIANCE> 42
 2.169400e-03 5.536617e-03 2.158859e-03 3.275694e-03 7.363219e-04 3.256612e-03 1.853468e-03 1.545725e-02 4.071833e-03 3.059511e-03 1.336588e-02 2.328627e-03 1.619767e-04 1.679643e-04 1.008518e-04 1.396971e-04 8.951234e-05 9.451419e-05 8.345383e-05 8.193793e-05 5.864928e-05 4.065752e-05 8.223937e-05 4.914023e-05 5.199476e-05 4.925828e-05 3.166017e-05 4.274596e-05 2.969953e-05 2.753249e-05 2.026678e-05 2.601508e-05 1.741445e-05 1.211414e-05 1.545177e-05 1.434516e-05 8.290550e-06 8.723212e-05 6.423289e-05 2.755976e-03 3.329741e-03 1.146415e-03
<GCONST> -2.792085e+02
<STATE> 31
<MEAN> 42
 -4.584214e-02 -3.149700e-02 1.060228e-02 4.096905e-02 -2.681305e-02 -1.345756e-02 4.336276e-02 2.991805e-01 -4.135723e-02 -2.090759e-02 -7.482015e-02 -3.291133e-02 -5.843844e-03 -1.963405e-03 3.889028e-03 3.872267e-03 -4.862187e-03 9.809347e-04 1.224492e-02 2.186996e-02 1.231474e-02 3.847919e-03 -5.077259e-04 -1.469036e-03 -2.849053e-04 7.094901e-05 3.731458e-04 9.988736e-05 -3.506170e-04 2.224460e-04 2.243460e-03 4.141998e-03 3.490799e-03 1.592375e-03 6.815318e-04 -9.902538e-05 -1.743221e-03 1.255639e-04 -2.900370e-03 -7.057634e-02 -2.054794e-02 -1.030759e-01
<VARIANCE> 42
 2.866945e-03 3.417891e-03 3.972445e-03 2.345476e-03 2.577686e-03 2.780768e-03 3.739328e-03 1.772805e-01 8.417140e-03 3.802096e-03 5.711083e-03 2.749770e-03 1.523383e-04 9.596557e-05 2.454752e-04 6.248435e-05 1.769184e-04 1.337894e-04 2.082129e-04 6.021481e-04 2.850531e-04 1.318616e-04 1.524090e-04 1.203373e-04 3.693784e-05 1.814168e-05 4.133151e-05 1.728877e-05 3.539710e-05 2.089493e-05 2.389001e-05 1.093698e-04 5.563425e-05 3.575581e-05 3.097221e-05 2.106420e-05 4.156143e-05 6.621651e-05 1.050304e-04 2.990133e-03 2.337252e-03 1.382589e-02
<GCONST> -2.600788e+02
<STATE> 32
<MEAN> 42
 -3.711150e-02 -1.552499e-02 1.783120e-02 2.780938e-02 -2.512931e-02 -2.577456e-03 1.199018e-01 1.884009e-01 1.031270e-01 2.711276e-02 -1.895965e-02 -4.381142e-02 5.698286e-03 9.365916e-03 3.693074e-03 -7.545589e-03 1.041737e-03 6.616256e-03 1.596029e-02 3.455137e-02 3.294417e-02 2.343666e-02 1.349674e-02 7.308432e-03 8.205926e-03 7.593086e-03 -6.184933e-04 -7.884031e-03 4.413592e-03 3.555939e-03 -2.373245e-03 2.149285e-03 5.210094e-03 7.834112e-03 7.729124e-03 6.527779e-03 -6.900270e-03 -2.633213e-03 3.494578e-03 -3.438533e-02 -1.649981e-02 -1.211141e-01
<VARIANCE> 42
 6.106373e-03 5.811583e-03 8.315821e-03 3.966412e-03 5.590859e-03 5.561402e-03 1.281553e-02 6.236393e-02 9.013426e-03 4.417819e-03 6.651954e-03 5.540869e-03 1.372442e-04 1.414425e-04 1.437532e-04 1.026454e-04 1.076161e-04 1.079356e-04 2.696706e-04 9.778739e-04 8.707305e-04 4.511792e-04 2.207073e-04 1.540911e-04 5.591390e-05 3.703920e-05 7.382191e-05 2.811920e-05 5.692714e-05 4.206146e-05 3.823293e-05 9.593327e-05 5.448149e-05 5.688423e-05 4.109153e-05 3.686502e-05 6.949044e-05 4.577837e-04 3.700170e-04 4.583873e-03 5.063575e-03 1.347443e-02
<GCONST> -2.416851e+02
<STATE> 33
<MEAN> 42
 3.533260e-03 4.088976e-02 3.317405e-02 -2.179900e-02 -1.228477e-02 3.372864e-02 1.179253e-01 2.402235e-01 1.728931e-01 1.049606e-01 4.622116e-02 1.316096e-02 2.379878e-02 2.370649e-02 -7.831538e-05 -2.375123e-02 1.196048e-02 1.192779e-02 4.530679e-03 3.038053e-02 3.492133e-02 3.456926e-02 3.143230e-02 2.584464e-02 7.945881e-03 6.533538e-03 -1.419057e-03 -7.221429e-03 4.656665e-03 2.535949e-03 -4.740302e-03 -5.208756e-04 1.651799e-03 5.628843e-03 8.245876e-03 8.314472e-03 -3.798016e-03 -4.019455e-03 6.885556e-03 2.102148e-02 1.951554e-02 -1.424067e-01
<VARIANCE> 42
 3.823543e-03 4.193829e-03 6.432427e-03 2.288598e-03 3.812485e-03 4.449423e-03 1.378242e-02 1.271844e-01 2.388339e-02 8.442355e-03 4.970604e-03 4.177755e-03 3.807769e-04 3.806226e-04 3.377426e-04 2.963176e-04 2.697200e-04 2.662067e-04 2.953716e-04 1.425529e-03 1.033873e-03 9.174611e-04 5.905482e-04 4.646765e-04 7.862144e-05 5.118479e-05 5.991364e-05 5.041474e-05 5.689809e-05 3.476362e-05 5.194631e-05 1.129771e-04 3.383581e-05 4.424672e-05 6.654127e-05 6.888706e-05 5.862725e-05 4.829328e-04 4.758878e-04 3.245944e-03 4.014580e-03 2.356825e-02
<GCONST> -2.310597e+02
<STATE> 34
<MEAN> 42
 8.428232e-02 1.238246e-01 3.456683e-02 -1.033151e-01 2.855359e-02 7.515640e-02 1.113352e-01 3.642680e-01 2.885038e-01 2.372389e-01 1.893389e-01 1.413259e-01 3.699330e-02 3.728546e-02 2.615929e-04 -3.711562e-02 1.845168e-02 1.873909e-02 -1.546575e-02 1.750557e-02 3.238017e-02 4.812653e-02 5.915070e-02 5.380525e-02 7.369925e-03 6.246720e-03 -1.137169e-03 -6.787030e-03 4.308091e-03 2.534307e-03 -1.123364e-02 -1.264419e-02 -5.900660e-03 2.967303e-03 9.393056e-03 1.062529e-02 2.982268e-03 -5.757048e-03 1.353399e-02 1.284726e-01 6.887121e-02 -1.841759e-01
<VARIANCE> 42
 5.402831e-03 8.671697e-03 6.336437e-03 5.110101e-03 3.632213e-03 6.130863e-03 1.507404e-02 2.479585e-01 5.821036e-02 3.405781e-02 2.070567e-02 1.806674e-02 8.693140e-04 1.089500e-03 1.113032e-03 7.013578e-04 7.223874e-04 8.722710e-04 6.777903e-04 1.829349e-03 2.160650e-03 2.363826e-03 1.830297e-03 1.407193e-03 1.064373e-04 1.240007e-04 8.789758e-05 9.365233e-05 6.727051e-05 7.922920e-05 9.840706e-05 2.017750e-04 2.655554e-04 1.495792e-04 1.399976e-04 1.263700e-04 9.981545e-05 1.070217e-03 7.323904e-04 1.153206e-02 5.516675e-03 4.043665e-02
<GCONST> -1.989734e+02
<STATE> 35
<MEAN> 42
 2.343126e-01 3.037856e-01 5.872101e-02 -2.670358e-01 9.177244e-02 1.796215e-01 -3.648551e-01 -3.403533e-01 -5.422366e-01 1.489932e-01 3.937401e-01 4.448657e-01 -2.969565e-03 -3.252935e-03 -2.733262e-04 3.112569e-03 -1.397440e-03 -1.766535e-03 -1.394342e-02 -2.483348e-02 -3.089423e-02 -1.575348e-02 -1.396751e-02 -7.750836e-03 -2.193900e-03 -2.709062e-03 -5.126024e-04 2.457527e-03 -8.530081e-04 -1.633494e-03 1.808840e-03 2.731137e-03 1.645296e-03 -1.533197e-03 -3.033457e-03 -2.897483e-03 4.183706e-02 1.507019e-02 9.917451e-03 2.701287e-01 2.936350e-01 4.189058e-01
<VARIANCE> 42
 1.162669e-01 2.340612e-01 4.025384e-01 7.393812e-02 2.043959e-01 2.868611e-01 1.398097e-01 1.217244e+00 8.231950e-01 4.740083e-01 5.290099e-01 3.376499e-01 3.995691e-03 5.966798e-03 7.251253e-03 3.167437e-03 4.154074e-03 5.617658e-03 4.648923e-03 2.094189e-02 2.378280e-02 1.563595e-02 2.373463e-02 1.641987e-02 3.281786e-04 4.562611e-04 5.806808e-04 2.470849e-04 3.424553e-04 4.383413e-04 3.501548e-04 1.821464e-03 1.785161e-03 1.435303e-03 2.174740e-03 1.357319e-03 1.507184e-03 1.705433e-03 1.827975e-03 2.187953e-01 2.696656e-01 4.173863e-01
<GCONST> -1.041101e+02
<STATE> 36
<MEAN> 42
 5.014688e-02 9.621080e-02 3.666820e-02 -7.117862e-02 1.339505e-02 6.817518e-02 -1.133032e-02 1.278751e-01 2.219590e-01 1.881180e-01 1.460704e-01 1.414543e-01 2.805578e-03 3.001538e-03 1.951512e-04 -2.898655e-03 1.309605e-03 1.599557e-03 -2.810392e-04 4.225746e-03 6.006694e-03 5.601304e-03 5.347470e-03 4.587362e-03 3.746848e-04 -1.343959e-04 -5.098119e-04 -1.203199e-04 4.443846e-04 -3.216059e-04 -8.171601e-04 -9.935523e-04 -9.341898e-04 -5.793137e-04 -2.350391e-04 4.841417e-05 1.952153e-03 1.988634e-03 -9.201004e-03 1.322341e-01 5.599276e-02 -6.927233e-02
<VARIANCE> 42
 1.010831e-02 1.861221e-02 6.067945e-03 1.290846e-02 3.549014e-03 9.654659e-03 5.322897e-03 4.229857e-02 4.664563e-02 3.911831e-02 3.530524e-02 2.935428e-02 4.508603e-04 3.117554e-04 2.500566e-04 3.189997e-04 2.744208e-04 1.679613e-04 3.306572e-04 4.627238e-04 3.940876e-04 2.808459e-04 3.343477e-04 3.316140e-04 8.311737e-05 5.840751e-05 6.188992e-05 5.532113e-05 5.843765e-05 3.919822e-05 3.228713e-05 3.344487e-05 2.775227e-05 2.122240e-05 1.854991e-05 1.760730e-05 1.102124e-04 2.636859e-04 2.275046e-04 2.346646e-02 9.437134e-03 7.746954e-03
<GCONST> -2.307289e+02
<STATE> 37
<MEAN> 42
 1.494327e-01 1.672080e-01 1.658942e-02 -1.556904e-01 6.736636e-02 8.895347e-02 -7.022115e-03 6.746073e-01 4.585349e-01 4.188707e-01 2.705158e-01 4.808171e-01 4.319275e-03 7.437162e-04 -3.579837e-03 -2.522966e-03 3.972096e-03 -1.425095e-03 -2.336061e-03 -2.875797e-02 2.116926e-03 1.654176e-03 3.438232e-03 3.060135e-03 -2.168826e-04 -4.825757e-04 -2.689277e-04 3.492644e-04 3.068802e-05 -3.515421e-04 -3.850442e-04 -6.351156e-04 -1.001145e-03 -5.659763e-04 -2.979148e-04 -1.459455e-04 1.094669e-02 -7.904640e-03 2.031831e-02 2.835582e-01 7.752509e-02 -2.595592e-01
<VARIANCE> 42
 1.752789e-02 4.559908e-02 2.529119e-02 2.363341e-02 9.231112e-03 3.325766e-02 2.569116e-02 9.478524e+00 6.461333e-02 9.239856e-02 1.440818e-01 7.030962e-02 7.074268e-04 4.036875e-04 3.491851e-04 4.683688e-04 4.294638e-04 2.027654e-04 5.489834e-04 5.862811e-01 9.085390e-04 5.200107e-04 8.351229e-04 1.040601e-03 8.242302e-05 4.346345e-05 6.218949e-05 4.741319e-05 6.122290e-05 3.320905e-05 3.245980e-05 1.809092e-01 4.655756e-05 3.134153e-05 2.558057e-05 3.180391e-05 4.996111e-04 3.549216e-04 2.027140e-04 1.252663e-01 3.574920e-02 9.351621e-01
<GCONST> -1.820395e+02
<STATE> 38
<MEAN> 42
 5.195934e-01 3.542347e-01 -1.659953e-01 -4.357681e-01 3.475678e-01 9.066692e-02 -3.548407e-01 -1.766202e-01 9.185611e-02 2.923756e-01 4.540146e-01 5.177048e-01 -1.140132e-02 -2.064743e-02 -9.268237e-03 1.602506e-02 -1.110451e-03 -1.491856e-02 -1.709366e-02 -5.366065e-02 -5.257450e-02 -5.380931e-02 -3.986146e-02 -2.654863e-02 -1.657837e-02 -1.081589e-02 5.764395e-03 1.368396e-02 -1.119786e-02 -2.537439e-03 1.022454e-02 -2.156383e-04 -8.513986e-03 -1.362777e-02 -1.718688e-02 -1.818390e-02 6.312457e-02 1.095059e-02 -2.716621e-03 4.393061e-01 2.066833e-01 2.234406e-01
<VARIANCE> 42
 1.301981e-01 1.145524e-01 2.008505e-01 7.242285e-02 1.380441e-01 1.245143e-01 7.149525e-02 1.834012e-01 3.571291e-01 2.249940e-01 1.872881e-01 1.757710e-01 9.235162e-03 4.390621e-03 5.429447e-03 5.454275e-03 6.253050e-03 2.620623e-03 3.863452e-03 5.902300e-03 1.025641e-02 8.010978e-03 9.888386e-03 1.054795e-02 5.751983e-04 3.115008e-04 6.297541e-04 2.867970e-04 5.274046e-04 3.278556e-04 2.446317e-04 6.637101e-04 9.788634e-04 5.115828e-04 6.188559e-04 6.182958e-04 1.294121e-03 1.738533e-03 8.004764e-04 1.108978e-01 8.901780e-02 7.662870e-02
<GCONST> -1.252715e+02
<STATE> 39
<MEAN> 42
 -2.808527e-02 -4.287250e-02 -1.478168e-02 3.721152e-02 -2.673300e-03 -3.358237e-02 -1.327284e-01 -3.341846e-01 -2.939082e-01 -2.714200e-01 -1.776233e-01 -1.094815e-01 -2.170398e-02 -1.364118e-02 8.044576e-03 1.764133e-02 -1.491072e-02 -2.896387e-03 1.930305e-02 2.698605e-02 1.325051e-02 4.125404e-03 -9.336190e-03 -1.721821e-02 9.430542e-03 5.972578e-03 -3.461869e-03 -7.705696e-03 6.473399e-03 1.262426e-03 -3.345725e-03 4.336778e-03 8.223508e-03 1.052401e-02 1.157846e-02 1.107429e-02 -4.808737e-04 3.116759e-02 5.138737e-03 -1.186400e-01 -8.280953e-03 1.968087e-01
<VARIANCE> 42
 1.930655e-02 3.421596e-02 5.298379e-02 1.416046e-02 2.812654e-02 3.863341e-02 3.460832e-02 1.045757e-01 7.462638e-02 7.843319e-02 5.036774e-02 2.066324e-02 2.340480e-03 1.748337e-03 2.822056e-03 1.340014e-03 2.148649e-03 1.707045e-03 6.023429e-04 1.523815e-03 4.377504e-03 3.391791e-03 3.772132e-03 3.221561e-03 3.079273e-04 1.543581e-04 2.050282e-04 1.800664e-04 2.195461e-04 1.029324e-04 9.139490e-05 3.249793e-04 5.871791e-04 3.654274e-04 3.768004e-04 3.064072e-04 3.457256e-04 1.842474e-03 8.136750e-04 2.187937e-02 2.909915e-02 2.540370e-02
<GCONST> -1.681815e+02
<STATE> 40
<MEAN> 42
 -1.279518e-03 1.701789e-03 2.954445e-03 3.055885e-03 3.585011e-03 3.259978e-03 -5.325290e-03 4.759139e-03 -1.116902e-02 -4.394050e-03 -6.509996e-03 7.352905e-03 -4.872480e-04 -6.469355e-04 -1.570531e-04 5.683551e-04 -1.628259e-04 -4.032075e-04 2.932778e-04 1.687643e-04 -2.941504e-04 -5.257423e-04 -5.574764e-04 -5.853027e-04 7.348743e-05 6.041001e-05 -1.204634e-05 -6.528331e-05 4.153283e-05 2.234422e-05 -1.067732e-06 -3.644076e-05 4.498506e-05 6.857292e-06 -3.785181e-06 -1.161078e-06 -7.385373e-06 7.494688e-04 -1.682265e-03 -2.159921e-03 2.772559e-03 3.350043e-03
<VARIANCE> 42
 2.227699e-03 2.106505e-03 1.314167e-03 1.894059e-03 1.156033e-03 1.225195e-03 1.106205e-03 7.696677e-03 2.257448e-03 1.925818e-03 2.050085e-03 1.469556e-03 2.158235e-04 1.448617e-04 1.319009e-04 1.473693e-04 1.377143e-04 8.481267e-05 6.208990e-05 7.374013e-05 4.608315e-05 4.215112e-05 4.027504e-05 3.784788e-05 7.324045e-05 4.882126e-05 4.687511e-05 4.930315e-05 4.793584e-05 2.968982e-05 1.663668e-05 2.601508e-05 1.420132e-05 1.283565e-05 1.285612e-05 1.190669e-05 5.319183e-06 1.803407e-05 5.955951e-05 1.177922e-03 1.093631e-03 8.992771e-04
<GCONST> -2.907106e+02
<STATE> 41
<MEAN> 42
 -5.725085e-02 -6.361400e-02 -1.544358e-02 5.828670e-02 -1.285323e-02 -5.051734e-02 6.724577e-02 6.686398e-02 2.240666e-02 -4.239734e-02 -4.436538e-02 -7.356304e-02 -5.300696e-03 -2.407892e-03 2.886091e-03 3.836184e-03 -4.136685e-03 2.188670e-04 1.285893e-02 1.671040e-02 1.428813e-02 6.355568e-03 6.911208e-04 -2.666214e-03 -9.797238e-05 8.991317e-05 1.903711e-04 1.523600e-06 -1.414801e-04 1.291914e-04 1.606064e-03 2.603335e-03 2.748846e-03 2.265266e-03 1.475084e-03 9.011946e-04 -5.399444e-03 -3.416301e-03 -5.445673e-03 -5.674406e-02 -4.765964e-02 -5.710116e-02
<VARIANCE> 42
