~o
<STREAMINFO> 1 42
<VECSIZE> 42<NULLD><USER><DIAGC>
~h "CONTROL"
<BEGINHMM>
<NUMSTATES> 35
<STATE> 2
<NUMMIXES> 8
<MIXTURE> 1 7.839725e-02
<MEAN> 42
 9.434666e-02 1.222754e-01 2.669021e-02 -8.448330e-02 4.350469e-02 6.911176e-02 -2.367891e-02 5.736810e-02 1.124128e-01 1.344899e-01 1.509466e-01 1.339867e-01 9.086684e-04 4.314334e-03 5.040599e-03 4.846461e-04 -7.448442e-04 4.418977e-03 1.737923e-03 1.972082e-03 1.833922e-03 3.148333e-03 3.174748e-03 3.094003e-03 3.994867e-04 1.914449e-03 2.623395e-03 5.560840e-04 -1.727162e-04 2.157625e-03 1.488065e-03 1.946465e-03 1.412053e-03 1.802597e-03 1.465687e-03 1.330132e-03 6.960794e-03 3.907637e-03 3.659473e-03 1.192033e-01 8.584098e-02 1.742999e-02
<VARIANCE> 42
 2.325095e-03 5.398723e-03 3.684314e-03 2.878291e-03 1.422809e-03 3.637570e-03 4.137757e-03 1.466264e-02 1.977595e-02 6.537105e-03 7.847474e-03 7.188696e-03 7.337109e-05 6.163445e-05 5.530759e-05 5.355247e-05 4.882053e-05 4.081868e-05 2.363499e-05 7.374013e-05 2.807935e-05 4.065752e-05 2.697314e-05 2.471927e-05 2.373599e-05 1.990150e-05 2.637122e-05 1.533276e-05 2.003452e-05 1.748390e-05 4.833185e-06 2.601508e-05 4.303934e-06 1.211414e-05 5.594589e-06 4.404043e-06 2.821652e-05 2.610935e-04 3.746562e-04 3.065098e-03 4.105870e-03 5.419421e-03
<GCONST> -2.858310e+02
<MIXTURE> 2 1.595915e-01
<MEAN> 42
 6.032883e-03 1.316974e-02 5.061151e-03 -6.137292e-04 3.187801e-03 6.147593e-03 7.295349e-03 1.241665e-02 1.844376e-02 1.005708e-02 3.909900e-03 9.307381e-03 2.036040e-03 2.618423e-03 1.722638e-03 -4.631863e-04 9.957239e-04 1.988404e-03 1.269220e-03 2.514533e-03 1.640638e-03 2.117923e-03 1.603963e-03 1.616568e-03 1.063175e-03 1.402935e-03 1.027020e-03 -8.040207e-05 5.184741e-04 1.096761e-03 7.009978e-04 1.525193e-03 1.038797e-03 1.271321e-03 8.805197e-04 9.192440e-04 2.974635e-04 5.418615e-05 6.028823e-04 5.930997e-03 9.756051e-03 -5.042534e-04
<VARIANCE> 42
 4.100506e-04 4.603794e-04 4.832585e-04 3.481149e-04 3.162789e-04 4.369365e-04 5.202363e-04 1.370589e-03 1.102915e-03 6.537745e-04 4.191562e-04 8.296618e-04 2.930977e-05 2.019803e-05 2.274683e-05 1.931724e-05 2.100354e-05 1.402109e-05 7.235863e-06 7.374013e-05 9.872299e-06 4.065752e-05 1.131955e-05 1.138118e-05 1.124773e-05 7.493616e-06 7.796326e-06 7.458531e-06 7.592947e-06 4.782173e-06 2.163120e-06 2.601508e-05 3.177638e-06 1.211414e-05 2.365375e-06 2.480611e-06 2.131001e-06 8.279681e-06 3.657524e-05 2.765478e-04 3.005866e-04 3.182873e-04
<GCONST> -3.469302e+02
<MIXTURE> 3 1.475610e-01
<MEAN> 42
 -4.064098e-03 -1.433023e-02 -1.346803e-02 1.846795e-02 9.069246e-03 -1.891826e-02 7.996570e-03 1.093978e-02 -4.159324e-04 -1.100457e-02 -1.643856e-02 -1.235740e-02 -3.544122e-04 -1.152163e-03 1.358876e-04 2.464177e-03 5.074377e-04 -6.309673e-04 -3.420928e-05 9.325008e-04 -4.617476e-04 8.357002e-05 -4.764642e-04 -7.230642e-04 4.103627e-04 -1.089030e-04 1.048509e-04 9.154183e-04 6.438375e-04 -9.098367e-05 -1.294022e-04 6.088053e-04 -1.881701e-04 2.738605e-04 -9.980326e-05 -1.191827e-04 -4.372068e-04 1.599064e-03 -5.691006e-04 -1.103891e-02 -1.181763e-02 -1.648506e-04
<VARIANCE> 42
 3.273314e-04 6.487855e-04 5.917768e-04 3.328938e-04 3.369556e-04 6.086301e-04 8.362873e-04 1.370589e-03 8.931989e-04 7.376348e-04 5.228563e-04 9.841647e-04 2.240923e-05 1.877736e-05 1.833808e-05 1.602142e-05 1.588926e-05 1.307201e-05 6.867143e-06 7.374013e-05 9.872299e-06 4.065752e-05 1.131955e-05 8.494042e-06 9.139629e-06 7.037886e-06 7.652936e-06 6.179106e-06 6.740073e-06 5.080808e-06 2.315425e-06 2.601508e-05 3.138996e-06 1.211414e-05 2.575618e-06 2.453967e-06 4.095660e-06 1.057445e-05 4.188351e-05 3.649461e-04 4.677551e-04 4.301128e-04
<GCONST> -3.452728e+02
<MIXTURE> 4 1.144486e-01
<MEAN> 42
 6.388228e-02 7.914547e-02 1.568482e-02 -5.122659e-02 3.447667e-02 4.303405e-02 -1.408225e-02 1.575113e-02 6.247777e-02 8.616674e-02 8.546803e-02 9.398426e-02 1.824924e-03 -9.679771e-04 -1.196804e-03 2.480487e-03 2.762646e-03 -1.322315e-03 5.102332e-05 -5.460274e-04 -1.664487e-03 -1.199003e-03 -1.436472e-03 -1.258927e-03 1.059800e-03 -3.522295e-04 -3.612477e-04 1.351181e-03 1.483051e-03 -5.172751e-04 -2.545765e-04 1.621962e-04 -5.533253e-04 -3.997785e-04 -5.519064e-04 -4.985856e-04 5.846955e-03 2.706816e-03 5.008912e-03 7.636134e-02 5.570221e-02 1.582769e-02
<VARIANCE> 42
 1.843336e-03 4.899185e-03 3.820439e-03 2.265208e-03 1.390713e-03 3.909349e-03 2.687447e-03 3.786020e-03 4.084439e-03 3.609650e-03 4.130717e-03 6.734122e-03 6.484552e-05 5.376159e-05 5.281791e-05 4.619892e-05 4.520048e-05 3.747132e-05 2.908684e-05 7.374013e-05 2.678514e-05 4.065752e-05 2.815438e-05 2.664457e-05 2.441945e-05 1.682478e-05 1.960609e-05 1.577151e-05 1.763421e-05 1.224107e-05 5.386278e-06 2.601508e-05 5.303619e-06 1.211414e-05 5.375155e-06 5.769251e-06 1.938787e-05 5.585233e-05 2.153006e-04 1.954012e-03 3.676463e-03 1.584113e-03
<GCONST> -2.959231e+02
<MIXTURE> 5 1.595915e-01
<MEAN> 42
 -2.066999e-03 4.587156e-03 -3.732106e-03 -8.076864e-03 -3.925892e-03 -2.213618e-03 -1.828127e-03 -2.391940e-03 5.159697e-03 -1.705228e-04 -4.279421e-03 -2.214159e-03 -1.294996e-04 8.207346e-04 -1.851069e-04 -2.221242e-03 -8.374609e-04 4.906140e-04 1.932381e-04 -9.203500e-04 3.838297e-04 -4.326074e-04 2.581809e-04 2.671278e-04 -2.783300e-04 3.079567e-04 -8.985581e-05 -1.172815e-03 -5.837380e-04 2.220340e-04 1.126958e-04 -5.150062e-04 3.257598e-04 -1.208939e-04 2.653287e-04 2.892458e-04 -2.864545e-04 -1.096791e-03 -1.816216e-03 -7.208933e-04 2.821077e-03 -7.640497e-03
<VARIANCE> 42
 4.100506e-04 4.603794e-04 4.832585e-04 3.481149e-04 3.162789e-04 4.369365e-04 5.202363e-04 1.370589e-03 1.102915e-03 6.537745e-04 4.191562e-04 8.296618e-04 2.930977e-05 2.019803e-05 2.274683e-05 1.931724e-05 2.100354e-05 1.402109e-05 7.235863e-06 7.374013e-05 9.872299e-06 4.065752e-05 1.131955e-05 1.138118e-05 1.124773e-05 7.493616e-06 7.796326e-06 7.458531e-06 7.592947e-06 4.782173e-06 2.163120e-06 2.601508e-05 3.177638e-06 1.211414e-05 2.365375e-06 2.480611e-06 2.131001e-06 8.279681e-06 3.657524e-05 2.765478e-04 3.005866e-04 3.182873e-04
<GCONST> -3.469302e+02
<MIXTURE> 6 1.475610e-01
<MEAN> 42
 -1.130102e-02 -2.451873e-02 -2.319861e-02 1.116979e-02 1.726706e-03 -2.878643e-02 -3.570882e-03 -3.868807e-03 -1.237051e-02 -2.186835e-02 -2.558498e-02 -2.490596e-02 -2.247948e-03 -2.885477e-03 -1.577032e-03 8.631067e-04 -1.087016e-03 -2.077177e-03 -1.082419e-03 -2.502382e-03 -1.718556e-03 -2.466960e-03 -1.822246e-03 -1.888846e-03 -7.989101e-04 -1.170064e-03 -1.001707e-03 -7.889408e-05 -3.946285e-04 -9.926095e-04 -7.380630e-04 -1.431394e-03 -8.968586e-04 -1.118354e-03 -7.417526e-04 -7.457884e-04 -1.246716e-03 2.983290e-04 -3.157800e-03 -1.868033e-02 -2.046869e-02 -8.460515e-03
<VARIANCE> 42
 3.273314e-04 6.487855e-04 5.917768e-04 3.328938e-04 3.369556e-04 6.086301e-04 8.362873e-04 1.370589e-03 8.931989e-04 7.376348e-04 5.228563e-04 9.841647e-04 2.240923e-05 1.877736e-05 1.833808e-05 1.602142e-05 1.588926e-05 1.307201e-05 6.867143e-06 7.374013e-05 9.872299e-06 4.065752e-05 1.131955e-05 8.494042e-06 9.139629e-06 7.037886e-06 7.652936e-06 6.179106e-06 6.740073e-06 5.080808e-06 2.315425e-06 2.601508e-05 3.138996e-06 1.211414e-05 2.575618e-06 2.453967e-06 4.095660e-06 1.057445e-05 4.188351e-05 3.649461e-04 4.677551e-04 4.301128e-04
<GCONST> -3.452728e+02
<MIXTURE> 7 1.144486e-01
<MEAN> 42
 4.670864e-02 5.114780e-02 -9.039060e-03 -7.026427e-02 1.955977e-02 1.802413e-02 -3.481849e-02 -8.861124e-03 3.691392e-02 6.213459e-02 5.975977e-02 6.115958e-02 -1.396144e-03 -3.900869e-03 -4.103842e-03 -2.383048e-04 7.339392e-05 -3.770868e-03 -2.106265e-03 -3.980910e-03 -3.734661e-03 -3.749533e-03 -3.558900e-03 -3.323663e-03 -9.168412e-04 -1.992950e-03 -2.132398e-03 -2.373538e-04 -1.966733e-04 -1.916765e-03 -1.182911e-03 -1.878003e-03 -1.474509e-03 -1.791993e-03 -1.479282e-03 -1.459356e-03 4.085689e-03 -2.825604e-04 -8.603381e-04 5.867965e-02 3.144867e-02 -9.267870e-05
<VARIANCE> 42
 1.843336e-03 4.899185e-03 3.820439e-03 2.265208e-03 1.390713e-03 3.909349e-03 2.687447e-03 3.786020e-03 4.084439e-03 3.609650e-03 4.130717e-03 6.734122e-03 6.484552e-05 5.376159e-05 5.281791e-05 4.619892e-05 4.520048e-05 3.747132e-05 2.908684e-05 7.374013e-05 2.678514e-05 4.065752e-05 2.815438e-05 2.664457e-05 2.441945e-05 1.682478e-05 1.960609e-05 1.577151e-05 1.763421e-05 1.224107e-05 5.386278e-06 2.601508e-05 5.303619e-06 1.211414e-05 5.375155e-06 5.769251e-06 1.938787e-05 5.585233e-05 2.153006e-04 1.954012e-03 3.676463e-03 1.584113e-03
<GCONST> -2.959231e+02
<MIXTURE> 8 7.839725e-02
<MEAN> 42
 7.505897e-02 9.288500e-02 2.410789e-03 -1.059432e-01 2.841663e-02 4.498684e-02 -4.940907e-02 8.932341e-03 5.616205e-02 1.021489e-01 1.155122e-01 1.000723e-01 -2.517609e-03 1.174030e-03 2.065836e-03 -2.442536e-03 -3.539712e-03 1.863397e-03 -2.067105e-04 -1.462801e-03 -2.856766e-04 5.978030e-04 1.097321e-03 1.105263e-03 -1.549297e-03 1.300051e-04 5.692786e-04 -1.010199e-03 -1.963114e-03 4.850749e-04 6.086850e-04 -9.373430e-05 5.822164e-04 4.103826e-04 5.195713e-04 4.906991e-04 4.836026e-03 -2.555718e-03 -4.082942e-03 9.705793e-02 6.021015e-02 -1.201670e-02
<VARIANCE> 42
 2.325095e-03 5.398723e-03 3.684314e-03 2.878291e-03 1.422809e-03 3.637570e-03 4.137757e-03 1.466264e-02 1.977595e-02 6.537105e-03 7.847474e-03 7.188696e-03 7.337109e-05 6.163445e-05 5.530759e-05 5.355247e-05 4.882053e-05 4.081868e-05 2.363499e-05 7.374013e-05 2.807935e-05 4.065752e-05 2.697314e-05 2.471927e-05 2.373599e-05 1.990150e-05 2.637122e-05 1.533276e-05 2.003452e-05 1.748390e-05 4.833185e-06 2.601508e-05 4.303934e-06 1.211414e-05 5.594589e-06 4.404043e-06 2.821652e-05 2.610935e-04 3.746562e-04 3.065098e-03 4.105870e-03 5.419421e-03
<GCONST> -2.858310e+02
<STATE> 3
<NUMMIXES> 8
<MIXTURE> 1 4.476217e-02
<MEAN> 42
 8.787385e-02 9.475679e-02 2.166389e-02 -6.004745e-02 4.509627e-02 4.918507e-02 -5.225082e-02 5.189542e-03 4.760680e-02 6.555501e-02 9.726693e-02 6.958225e-02 5.514330e-03 9.288969e-03 6.310072e-03 -2.883916e-03 1.399370e-03 7.450835e-03 4.907936e-03 6.410804e-03 7.209124e-03 7.278011e-03 9.099679e-03 6.360477e-03 9.173546e-04 2.341019e-03 2.928781e-03 6.299550e-04 8.343370e-05 2.465645e-03 3.013386e-03 3.501824e-03 3.195303e-03 3.096647e-03 4.040957e-03 2.760196e-03 8.550679e-03 4.361059e-03 3.259066e-03 8.539064e-02 6.106343e-02 3.492143e-02
<VARIANCE> 42
 8.275959e-03 4.575012e-03 2.536429e-03 5.563960e-03 3.848842e-03 1.647790e-03 1.751848e-02 1.404682e-03 6.043418e-03 7.644546e-03 1.439300e-02 7.458284e-03 1.694075e-04 1.152700e-04 1.068702e-04 1.157255e-04 1.104315e-04 6.951830e-05 6.308337e-05 7.374013e-05 7.550316e-05 6.515011e-05 2.161868e-04 4.335879e-05 4.538368e-05 2.843419e-05 3.730982e-05 2.760156e-05 3.476209e-05 2.197816e-05 1.399149e-05 2.601508e-05 1.434614e-05 1.567715e-05 3.606838e-05 1.257547e-05 8.617659e-05 8.492265e-05 2.242715e-04 8.974453e-03 1.686939e-03 1.442516e-03
<GCONST> -2.697009e+02
<MIXTURE> 2 2.029908e-01
<MEAN> 42
 5.476000e-03 1.001969e-02 1.131505e-02 5.143315e-03 4.018493e-03 6.919060e-03 8.518396e-03 -9.286683e-06 5.354541e-03 5.711542e-03 2.155760e-02 1.013767e-02 1.883609e-03 3.389472e-03 3.549012e-03 8.285572e-04 6.553869e-04 3.154760e-03 2.527609e-03 3.414739e-03 3.061505e-03 3.160356e-03 4.243799e-03 2.504536e-03 1.921441e-03 1.929125e-03 1.264222e-03 3.415031e-04 1.263176e-03 1.392406e-03 1.271983e-03 2.088415e-03 1.538303e-03 1.401618e-03 1.888652e-03 1.247165e-03 3.896477e-04 1.998305e-03 2.738022e-03 7.135680e-03 9.154579e-03 6.429643e-03
<VARIANCE> 42
 5.666312e-04 7.731048e-04 6.301430e-04 4.524033e-04 3.586219e-04 5.366540e-04 8.031319e-04 1.370589e-03 5.264758e-04 6.537745e-04 3.552451e-03 4.433937e-04 1.014111e-04 6.702909e-05 6.936477e-05 6.681465e-05 6.858125e-05 4.357236e-05 1.957153e-05 7.374013e-05 2.494905e-05 4.065752e-05 1.011160e-04 2.080035e-05 4.168729e-05 3.008193e-05 2.831241e-05 2.878732e-05 2.746465e-05 1.920022e-05 6.861995e-06 2.601508e-05 8.521102e-06 1.211414e-05 3.375683e-05 8.434823e-06 2.131001e-06 3.222733e-05 6.386291e-05 2.765478e-04 5.002845e-04 2.838487e-04
<GCONST> -3.158456e+02
<MIXTURE> 3 1.433340e-01
<MEAN> 42
 -1.367213e-02 -2.255562e-02 -3.022348e-03 3.225145e-02 2.687398e-03 -1.695135e-02 4.308089e-03 -1.055267e-02 -1.076468e-02 -1.907212e-02 -1.804220e-02 -1.604853e-02 9.705001e-04 -2.232940e-03 -6.961685e-04 4.299848e-03 2.720755e-03 -1.833529e-03 5.881935e-04 -1.050745e-04 -1.249731e-03 -2.176382e-03 -2.856102e-03 -2.684016e-03 1.508791e-03 1.120946e-03 9.608699e-04 8.207139e-04 1.368595e-03 8.772654e-04 -6.824936e-05 6.082153e-05 -6.324984e-05 -9.303703e-05 -4.295685e-05 -1.942017e-04 -9.270890e-04 1.515172e-03 3.118833e-03 -1.547340e-02 -1.571055e-02 8.331615e-03
<VARIANCE> 42
 9.879016e-04 1.253877e-03 9.903191e-04 7.469191e-04 5.492904e-04 9.001413e-04 1.173235e-03 1.370589e-03 1.178644e-03 1.259444e-03 1.933685e-03 1.316881e-03 1.189694e-04 7.824086e-05 1.097769e-04 7.135789e-05 9.437867e-05 6.484886e-05 4.383252e-05 7.374013e-05 4.197304e-05 4.065752e-05 3.919095e-05 2.874700e-05 3.669475e-05 3.012799e-05 3.780115e-05 2.402468e-05 2.953315e-05 2.493182e-05 1.339291e-05 2.601508e-05 1.546171e-05 1.296563e-05 1.613482e-05 1.212320e-05 3.218274e-06 2.826476e-05 1.087693e-04 5.544316e-04 7.911953e-04 3.334369e-04
<GCONST> -3.049283e+02
<MIXTURE> 4 1.089115e-01
<MEAN> 42
 4.161372e-02 7.896440e-02 4.160365e-02 -4.311894e-02 1.646164e-02 4.987193e-02 -1.588449e-02 -3.999843e-03 -4.656707e-03 1.006922e-02 5.154283e-02 1.617425e-02 6.298316e-04 -1.391376e-03 2.580755e-04 4.253275e-03 1.951517e-03 -9.425837e-04 8.998662e-04 7.428786e-04 -2.747005e-04 -5.344760e-04 -9.447989e-04 -5.793362e-04 -2.077291e-04 -7.022513e-04 1.143455e-03 2.912368e-03 6.245846e-04 3.076042e-06 1.196248e-04 3.099979e-04 5.750859e-06 -2.085563e-05 -2.299705e-04 -1.674241e-04 3.613748e-03 4.992292e-03 -1.636961e-03 2.540620e-02 6.439360e-02 2.879914e-02
<VARIANCE> 42
 2.512385e-03 3.114278e-03 3.126114e-03 1.733259e-03 1.612965e-03 2.821996e-03 2.583877e-03 1.602856e-03 3.134176e-03 2.618422e-03 7.680023e-03 2.623547e-03 1.226610e-04 8.976974e-05 9.668901e-05 8.219336e-05 8.852583e-05 6.366240e-05 6.369474e-05 7.374013e-05 4.099473e-05 4.065752e-05 6.664576e-05 3.434346e-05 5.173212e-05 3.711196e-05 5.026195e-05 3.189186e-05 4.244170e-05 3.131813e-05 1.246464e-05 2.601508e-05 1.254079e-05 1.211414e-05 1.946784e-05 1.152942e-05 9.659221e-06 6.310127e-05 2.387199e-04 1.797390e-03 2.169755e-03 6.448463e-04
<GCONST> -2.859586e+02
<MIXTURE> 5 2.029908e-01
<MEAN> 42
 -4.045606e-03 -1.102210e-03 1.273988e-03 -3.364596e-03 -3.556434e-03 -2.347258e-03 -2.817438e-03 -1.481787e-02 -3.823482e-03 -4.516064e-03 -2.283374e-03 1.714902e-03 -2.144515e-03 1.146201e-04 2.175918e-04 -2.441052e-03 -2.657165e-03 5.143858e-04 7.580196e-04 -2.014346e-05 1.063543e-03 6.098259e-04 2.215412e-04 6.802400e-04 -6.611869e-04 -2.647546e-04 -8.641539e-04 -1.804650e-03 -8.330930e-04 -3.603165e-04 2.241665e-04 4.821538e-05 3.706657e-04 9.403448e-06 -4.353728e-04 8.545473e-05 -1.942703e-04 -2.724595e-04 -4.585485e-04 4.837897e-04 2.077627e-04 -3.094811e-04
<VARIANCE> 42
 5.666312e-04 7.731048e-04 6.301430e-04 4.524033e-04 3.586219e-04 5.366540e-04 8.031319e-04 1.370589e-03 5.264758e-04 6.537745e-04 3.552451e-03 4.433937e-04 1.014111e-04 6.702909e-05 6.936477e-05 6.681465e-05 6.858125e-05 4.357236e-05 1.957153e-05 7.374013e-05 2.494905e-05 4.065752e-05 1.011160e-04 2.080035e-05 4.168729e-05 3.008193e-05 2.831241e-05 2.878732e-05 2.746465e-05 1.920022e-05 6.861995e-06 2.601508e-05 8.521102e-06 1.211414e-05 3.375683e-05 8.434823e-06 2.131001e-06 3.222733e-05 6.386291e-05 2.765478e-04 5.002845e-04 2.838487e-04
<GCONST> -3.158456e+02
<MIXTURE> 6 1.433340e-01
<MEAN> 42
 -2.624449e-02 -3.671966e-02 -1.561008e-02 2.131953e-02 -6.687380e-03 -2.895229e-02 -9.392919e-03 -2.536125e-02 -2.449724e-02 -3.326758e-02 -3.563168e-02 -3.056407e-02 -3.392424e-03 -5.771094e-03 -4.887148e-03 9.209041e-04 -1.165192e-03 -5.054681e-03 -2.060052e-03 -3.539958e-03 -3.841195e-03 -4.726912e-03 -5.360208e-03 -4.828665e-03 -9.142570e-04 -1.074612e-03 -1.498436e-03 -1.139885e-03 -8.051816e-04 -1.120005e-03 -1.532102e-03 -1.979378e-03 -1.636105e-03 -1.533350e-03 -1.649684e-03 -1.586937e-03 -1.644671e-03 -6.114129e-04 -1.052869e-03 -2.489194e-02 -2.696183e-02 1.027514e-03
<VARIANCE> 42
 9.879016e-04 1.253877e-03 9.903191e-04 7.469191e-04 5.492904e-04 9.001413e-04 1.173235e-03 1.370589e-03 1.178644e-03 1.259444e-03 1.933685e-03 1.316881e-03 1.189694e-04 7.824086e-05 1.097769e-04 7.135789e-05 9.437867e-05 6.484886e-05 4.383252e-05 7.374013e-05 4.197304e-05 4.065752e-05 3.919095e-05 2.874700e-05 3.669475e-05 3.012799e-05 3.780115e-05 2.402468e-05 2.953315e-05 2.493182e-05 1.339291e-05 2.601508e-05 1.546171e-05 1.296563e-05 1.613482e-05 1.212320e-05 3.218274e-06 2.826476e-05 1.087693e-04 5.544316e-04 7.911953e-04 3.334369e-04
<GCONST> -3.049283e+02
<MIXTURE> 7 1.089115e-01
<MEAN> 42
 2.156424e-02 5.664212e-02 1.923899e-02 -5.977191e-02 3.969492e-04 2.862295e-02 -3.621723e-02 -2.001412e-02 -2.705019e-02 -1.039898e-02 1.648853e-02 -4.313975e-03 -3.800265e-03 -5.181252e-03 -3.675147e-03 6.268530e-04 -1.812010e-03 -4.134133e-03 -2.292493e-03 -2.692004e-03 -2.835786e-03 -3.085006e-03 -4.210273e-03 -2.923468e-03 -3.084731e-03 -3.139035e-03 -1.692371e-03 6.534524e-04 -1.981307e-03 -2.235428e-03 -1.292587e-03 -1.730201e-03 -1.410768e-03 -1.413071e-03 -1.994865e-03 -1.525624e-03 2.370576e-03 1.814840e-03 -7.817186e-03 8.447943e-03 4.576135e-02 1.864161e-02
<VARIANCE> 42
 2.512385e-03 3.114278e-03 3.126114e-03 1.733259e-03 1.612965e-03 2.821996e-03 2.583877e-03 1.602856e-03 3.134176e-03 2.618422e-03 7.680023e-03 2.623547e-03 1.226610e-04 8.976974e-05 9.668901e-05 8.219336e-05 8.852583e-05 6.366240e-05 6.369474e-05 7.374013e-05 4.099473e-05 4.065752e-05 6.664576e-05 3.434346e-05 5.173212e-05 3.711196e-05 5.026195e-05 3.189186e-05 4.244170e-05 3.131813e-05 1.246464e-05 2.601508e-05 1.254079e-05 1.211414e-05 1.946784e-05 1.152942e-05 9.659221e-06 6.310127e-05 2.387199e-04 1.797390e-03 2.169755e-03 6.448463e-04
<GCONST> -2.859586e+02
<MIXTURE> 8 4.476217e-02
<MEAN> 42
 5.148493e-02 6.770126e-02 1.518706e-03 -8.988424e-02 2.028065e-02 3.294788e-02 -1.051938e-01 -9.802094e-03 1.651102e-02 3.058177e-02 4.927859e-02 3.503771e-02 3.080643e-04 4.994414e-03 2.174950e-03 -7.186948e-03 -2.804086e-03 4.115730e-03 1.730934e-03 2.975920e-03 3.733422e-03 4.049387e-03 3.218362e-03 3.726581e-03 -1.777342e-03 2.080706e-04 4.855107e-04 -1.471533e-03 -2.274942e-03 5.904107e-04 1.517178e-03 1.461624e-03 1.680251e-03 1.512871e-03 1.638679e-03 1.341720e-03 4.837426e-03 6.749192e-04 -2.731213e-03 4.749721e-02 4.463449e-02 1.972925e-02
<VARIANCE> 42
 8.275959e-03 4.575012e-03 2.536429e-03 5.563960e-03 3.848842e-03 1.647790e-03 1.751848e-02 1.404682e-03 6.043418e-03 7.644546e-03 1.439300e-02 7.458284e-03 1.694075e-04 1.152700e-04 1.068702e-04 1.157255e-04 1.104315e-04 6.951830e-05 6.308337e-05 7.374013e-05 7.550316e-05 6.515011e-05 2.161868e-04 4.335879e-05 4.538368e-05 2.843419e-05 3.730982e-05 2.760156e-05 3.476209e-05 2.197816e-05 1.399149e-05 2.601508e-05 1.434614e-05 1.567715e-05 3.606838e-05 1.257547e-05 8.617659e-05 8.492265e-05 2.242715e-04 8.974453e-03 1.686939e-03 1.442516e-03
<GCONST> -2.697009e+02
<STATE> 4
<NUMMIXES> 8
<MIXTURE> 1 1.212791e-01
<MEAN> 42
 3.769205e-02 3.489130e-02 3.787225e-03 -1.582697e-02 2.254709e-02 1.511636e-02 7.438867e-03 5.822908e-02 5.425265e-02 4.469733e-02 4.671023e-02 3.931773e-02 2.307180e-03 3.050248e-03 2.016813e-03 -4.230232e-04 1.114318e-03 2.338714e-03 1.138326e-03 2.575127e-03 2.027244e-03 2.381782e-03 2.250217e-03 1.832511e-03 8.843732e-04 1.507575e-03 1.268722e-03 -1.361191e-04 3.221294e-04 1.306442e-03 6.962343e-04 1.421092e-03 8.697023e-04 1.236959e-03 1.004008e-03 8.766617e-04 3.053389e-03 -8.367150e-04 2.903114e-03 3.591236e-02 1.995636e-02 -7.860321e-03
<VARIANCE> 42
 2.718953e-03 2.398924e-03 1.350961e-03 2.211582e-03 1.441993e-03 1.223181e-03 2.057093e-03 6.163866e-03 6.148988e-03 4.601007e-03 4.335458e-03 4.900692e-03 4.117473e-05 3.046089e-05 3.008915e-05 2.829425e-05 2.821814e-05 2.017234e-05 1.946137e-05 7.374013e-05 2.258089e-05 4.065752e-05 2.707536e-05 2.023139e-05 9.140441e-06 7.067335e-06 8.212831e-06 6.038412e-06 6.995514e-06 5.423304e-06 3.452809e-06 2.601508e-05 3.232846e-06 1.211414e-05 4.130708e-06 3.039183e-06 3.143996e-05 7.209844e-05 1.648553e-04 2.475989e-03 1.214267e-03 1.874937e-03
<GCONST> -3.093816e+02
<MIXTURE> 2 1.418265e-01
<MEAN> 42
 9.661283e-02 1.217794e-01 3.409059e-02 -4.275814e-02 4.257224e-02 7.290107e-02 1.107233e-02 1.275518e-01 1.526000e-01 1.567750e-01 1.590394e-01 1.453283e-01 6.602662e-03 9.068750e-03 4.833747e-03 2.968318e-04 3.418710e-03 6.585686e-03 4.383707e-03 8.786732e-03 1.178136e-02 1.313652e-02 1.257520e-02 1.084994e-02 1.539515e-03 1.347907e-03 1.125325e-03 1.315719e-03 1.354415e-03 1.045388e-03 9.232330e-04 1.019046e-03 1.268880e-03 1.415336e-03 1.655370e-03 1.512294e-03 9.170063e-03 1.552291e-04 4.584576e-03 1.295383e-01 8.037060e-02 3.928239e-03
<VARIANCE> 42
 1.866629e-02 3.721736e-02 1.152651e-02 2.515191e-02 5.795889e-03 2.000973e-02 2.226028e-02 5.356314e-02 6.329843e-02 6.349434e-02 5.754106e-02 4.953659e-02 3.425110e-04 5.654965e-04 2.929505e-04 3.807942e-04 1.772568e-04 3.446196e-04 5.885200e-04 7.921024e-04 7.329543e-04 8.584037e-04 8.120300e-04 6.554793e-04 5.213422e-05 5.486641e-05 4.584126e-05 4.202416e-05 3.544065e-05 3.751797e-05 3.622806e-05 5.579018e-05 5.828785e-05 5.770010e-05 6.293003e-05 4.339985e-05 2.902847e-04 3.024695e-04 3.852299e-04 3.840163e-02 2.060298e-02 2.202079e-02
<GCONST> -2.112729e+02
<MIXTURE> 3 2.112307e-01
<MEAN> 42
 3.699239e-03 2.496050e-03 4.862552e-04 6.442357e-03 3.871199e-03 -6.204364e-04 7.318345e-03 1.337384e-02 8.855376e-03 5.282023e-03 4.986504e-03 1.331144e-03 4.263918e-04 -2.401226e-04 2.217986e-04 1.440576e-03 8.397289e-04 -1.270025e-04 4.253547e-04 1.432589e-03 2.155702e-04 7.430788e-04 5.930162e-05 8.308038e-06 4.467076e-04 3.026158e-06 1.469470e-04 7.099672e-04 6.212082e-04 -8.378120e-07 9.254680e-05 8.305431e-04 8.349013e-05 4.423884e-04 4.362402e-05 4.870605e-05 2.574059e-04 4.436717e-04 1.251397e-03 1.876286e-03 1.500111e-03 -1.514379e-04
<VARIANCE> 42
 3.980633e-04 5.768728e-04 3.565207e-04 3.815561e-04 2.414565e-04 3.865423e-04 4.503334e-04 1.370589e-03 1.366142e-03 9.599746e-04 8.152040e-04 9.474307e-04 1.805265e-05 1.586777e-05 1.738176e-05 1.261582e-05 1.389890e-05 1.235577e-05 6.879548e-06 7.374013e-05 9.928478e-06 4.065752e-05 1.131955e-05 8.494042e-06 7.190998e-06 5.549310e-06 6.889968e-06 4.651300e-06 5.710870e-06 4.518211e-06 2.165814e-06 2.601508e-05 2.802057e-06 1.211414e-05 2.565163e-06 2.107220e-06 3.600663e-06 1.324935e-05 4.235500e-05 4.021937e-04 3.639156e-04 3.076656e-04
<GCONST> -3.486036e+02
<MIXTURE> 4 2.566691e-02
<MEAN> 42
 3.075195e-01 2.592275e-01 2.275363e-02 -1.370043e-01 2.097470e-01 1.287464e-01 -2.059408e-01 -1.818016e-01 3.896120e-02 2.924696e-01 4.084668e-01 4.342022e-01 -1.622997e-04 -6.477216e-03 7.832237e-03 3.603664e-02 8.124067e-03 -1.672879e-03 1.636894e-02 1.989733e-03 -1.188089e-02 -1.535054e-02 -1.087461e-02 -5.851962e-03 4.259668e-03 5.780132e-03 6.417396e-03 5.523423e-03 3.419044e-03 5.414476e-03 6.536210e-03 9.169746e-03 8.793404e-03 8.377770e-03 8.446444e-03 6.878928e-03 4.052401e-02 3.629200e-02 1.423750e-02 3.582986e-01 1.955481e-01 3.185284e-01
<VARIANCE> 42
 1.413248e-01 1.667550e-01 1.568497e-01 1.144613e-01 1.076134e-01 1.270539e-01 1.374501e-01 3.055311e-01 4.260967e-01 4.267239e-01 3.696555e-01 2.849586e-01 7.121267e-03 7.647960e-03 5.441689e-03 6.030185e-03 4.380190e-03 4.775398e-03 5.340787e-03 1.132522e-02 1.569230e-02 1.618563e-02 1.890378e-02 1.581008e-02 7.227050e-04 8.529813e-04 7.193676e-04 6.088945e-04 5.084972e-04 6.066398e-04 6.033857e-04 1.225435e-03 1.526746e-03 1.731666e-03 2.222228e-03 1.798442e-03 1.772688e-03 1.752201e-03 1.317558e-03 2.291068e-01 1.141682e-01 1.484519e-01
<GCONST> -1.072073e+02
<MIXTURE> 5 2.112307e-01
<MEAN> 42
 -4.281370e-03 -7.111220e-03 -7.066447e-03 -1.371027e-03 -2.344349e-03 -8.484708e-03 -1.170079e-03 -1.434745e-03 -5.929166e-03 -7.111361e-03 -6.434207e-03 -1.098100e-02 -1.273145e-03 -1.833497e-03 -1.445859e-03 1.982547e-05 -6.515203e-04 -1.533034e-03 -6.238011e-04 -2.002293e-03 -1.044809e-03 -1.807451e-03 -1.286480e-03 -1.157474e-03 -6.259339e-04 -9.392528e-04 -9.030029e-04 -1.527077e-04 -3.346888e-04 -8.510812e-04 -4.961214e-04 -1.209656e-03 -5.860837e-04 -9.498266e-04 -5.970210e-04 -5.319447e-04 -5.016107e-04 -1.012315e-03 -1.351832e-03 -6.145621e-03 -6.130518e-03 -7.167598e-03
<VARIANCE> 42
 3.980633e-04 5.768728e-04 3.565207e-04 3.815561e-04 2.414565e-04 3.865423e-04 4.503334e-04 1.370589e-03 1.366142e-03 9.599746e-04 8.152040e-04 9.474307e-04 1.805265e-05 1.586777e-05 1.738176e-05 1.261582e-05 1.389890e-05 1.235577e-05 6.879548e-06 7.374013e-05 9.928478e-06 4.065752e-05 1.131955e-05 8.494042e-06 7.190998e-06 5.549310e-06 6.889968e-06 4.651300e-06 5.710870e-06 4.518211e-06 2.165814e-06 2.601508e-05 2.802057e-06 1.211414e-05 2.565163e-06 2.107220e-06 3.600663e-06 1.324935e-05 4.235500e-05 4.021937e-04 3.639156e-04 3.076656e-04
<GCONST> -3.486036e+02
<MIXTURE> 6 1.418265e-01
<MEAN> 42
 4.196298e-02 4.461220e-02 -8.854048e-03 -1.061956e-01 1.211994e-02 1.631877e-02 -4.860719e-02 3.497691e-02 5.196324e-02 5.598263e-02 6.308857e-02 5.630106e-02 -8.001595e-04 -4.433184e-04 -2.012572e-03 -7.508748e-03 -1.906803e-03 -8.398877e-04 -5.320066e-03 -2.470994e-03 9.521074e-04 1.417107e-03 1.176746e-03 6.090049e-04 -1.348646e-03 -1.614968e-03 -1.582922e-03 -1.277323e-03 -1.026867e-03 -1.404689e-03 -1.484357e-03 -1.968667e-03 -1.784979e-03 -1.623087e-03 -1.517768e-03 -1.122849e-03 2.354966e-03 -6.801431e-03 -3.266334e-03 5.115297e-02 2.295565e-02 -5.542938e-02
<VARIANCE> 42
 1.866629e-02 3.721736e-02 1.152651e-02 2.515191e-02 5.795889e-03 2.000973e-02 2.226028e-02 5.356314e-02 6.329843e-02 6.349434e-02 5.754106e-02 4.953659e-02 3.425110e-04 5.654965e-04 2.929505e-04 3.807942e-04 1.772568e-04 3.446196e-04 5.885200e-04 7.921024e-04 7.329543e-04 8.584037e-04 8.120300e-04 6.554793e-04 5.213422e-05 5.486641e-05 4.584126e-05 4.202416e-05 3.544065e-05 3.751797e-05 3.622806e-05 5.579018e-05 5.828785e-05 5.770010e-05 6.293003e-05 4.339985e-05 2.902847e-04 3.024695e-04 3.852299e-04 3.840163e-02 2.060298e-02 2.202079e-02
<GCONST> -2.112729e+02
<MIXTURE> 7 1.212791e-01
<MEAN> 42
 1.683461e-02 1.529978e-02 -1.091494e-02 -3.463795e-02 7.357653e-03 1.126757e-03 -1.070321e-02 2.682496e-02 2.288646e-02 1.756503e-02 2.037255e-02 1.131575e-02 -2.595219e-04 8.425922e-04 -1.773296e-04 -2.550717e-03 -1.010512e-03 5.421684e-04 -6.262754e-04 -8.597560e-04 1.264699e-04 -1.687480e-04 1.688573e-04 3.333803e-05 -3.249534e-04 4.441966e-04 1.224004e-04 -1.119046e-03 -7.358320e-04 3.749220e-04 -4.703514e-05 -6.191072e-04 1.504976e-04 -1.552564e-04 1.910421e-04 1.793316e-04 8.105350e-04 -4.233147e-03 -2.232726e-03 1.600864e-02 6.017823e-03 -2.518054e-02
<VARIANCE> 42
 2.718953e-03 2.398924e-03 1.350961e-03 2.211582e-03 1.441993e-03 1.223181e-03 2.057093e-03 6.163866e-03 6.148988e-03 4.601007e-03 4.335458e-03 4.900692e-03 4.117473e-05 3.046089e-05 3.008915e-05 2.829425e-05 2.821814e-05 2.017234e-05 1.946137e-05 7.374013e-05 2.258089e-05 4.065752e-05 2.707536e-05 2.023139e-05 9.140441e-06 7.067335e-06 8.212831e-06 6.038412e-06 6.995514e-06 5.423304e-06 3.452809e-06 2.601508e-05 3.232846e-06 1.211414e-05 4.130708e-06 3.039183e-06 3.143996e-05 7.209844e-05 1.648553e-04 2.475989e-03 1.214267e-03 1.874937e-03
<GCONST> -3.093816e+02
<MIXTURE> 8 2.566691e-02
<MEAN> 42
 1.571467e-01 9.588490e-02 -1.356634e-01 -2.723328e-01 7.852903e-02 -1.383212e-02 -3.542378e-01 -4.029011e-01 -2.221431e-01 3.117318e-02 1.652696e-01 2.206762e-01 -3.391734e-02 -4.145826e-02 -2.167489e-02 4.974936e-03 -1.834914e-02 -2.931458e-02 -1.286333e-02 -4.057827e-02 -6.198845e-02 -6.623964e-02 -6.587102e-02 -5.614722e-02 -6.493601e-03 -5.902205e-03 -4.311016e-03 -4.346892e-03 -5.600909e-03 -4.437548e-03 -3.289354e-03 -4.832739e-03 -6.836035e-03 -8.267546e-03 -1.040976e-02 -1.008429e-02 2.368269e-02 1.954828e-02 -2.817735e-04 1.668382e-01 6.039293e-02 1.644106e-01
<VARIANCE> 42
 1.413248e-01 1.667550e-01 1.568497e-01 1.144613e-01 1.076134e-01 1.270539e-01 1.374501e-01 3.055311e-01 4.260967e-01 4.267239e-01 3.696555e-01 2.849586e-01 7.121267e-03 7.647960e-03 5.441689e-03 6.030185e-03 4.380190e-03 4.775398e-03 5.340787e-03 1.132522e-02 1.569230e-02 1.618563e-02 1.890378e-02 1.581008e-02 7.227050e-04 8.529813e-04 7.193676e-04 6.088945e-04 5.084972e-04 6.066398e-04 6.033857e-04 1.225435e-03 1.526746e-03 1.731666e-03 2.222228e-03 1.798442e-03 1.772688e-03 1.752201e-03 1.317558e-03 2.291068e-01 1.141682e-01 1.484519e-01
<GCONST> -1.072073e+02
<STATE> 5
<MEAN> 42
 9.477610e-03 1.249701e-02 4.068221e-03 -8.339594e-03 4.064200e-03 4.208803e-03 -2.047588e-03 7.153455e-03 5.289252e-03 -9.117876e-04 5.269190e-03 1.637486e-03 -1.073491e-04 -1.481280e-04 -4.064916e-05 1.267843e-04 -3.373140e-05 -9.485396e-05 1.442479e-04 1.278561e-04 -3.363844e-05 -9.510820e-05 -1.324436e-04 -1.197056e-04 3.098512e-05 3.393330e-05 2.914196e-06 -3.232825e-05 1.436699e-05 1.835085e-05 -8.451439e-06 3.115997e-05 3.014007e-05 2.652978e-05 3.524563e-05 1.862278e-05 3.220911e-04 -3.429134e-04 -5.077871e-04 3.188043e-03 8.434838e-03 -1.042523e-03
<VARIANCE> 42
 1.685710e-03 1.847182e-03 9.983586e-04 1.588304e-03 8.594962e-04 1.027005e-03 9.032966e-04 2.761190e-03 2.951141e-03 2.062508e-03 2.351884e-03 1.499844e-03 1.029706e-04 7.593341e-05 7.338270e-05 7.099804e-05 6.944554e-05 4.920048e-05 3.650292e-05 7.374013e-05 2.985036e-05 4.065752e-05 3.599009e-05 2.362408e-05 3.802145e-05 2.787002e-05 2.629433e-05 2.633372e-05 2.527699e-05 1.769475e-05 9.991440e-06 2.601508e-05 8.995513e-06 1.211414e-05 1.037185e-05 7.484359e-06 7.491182e-06 2.673928e-05 9.041686e-05 1.049611e-03 1.053053e-03 8.740326e-04
<GCONST> -3.026053e+02
<STATE> 6
<MEAN> 42
 1.257243e-02 5.164883e-02 1.710324e-02 -4.262422e-02 1.526187e-02 7.737738e-03 -7.387436e-03 3.685381e-02 3.161747e-03 -1.566220e-02 7.035333e-02 -7.193990e-03 -2.144578e-03 -7.623688e-04 1.375726e-03 1.452068e-03 -1.757965e-03 3.062010e-04 4.092237e-03 4.956835e-03 3.760914e-03 1.260600e-03 -2.009683e-04 -1.210316e-03 -2.402233e-04 -2.388591e-04 5.607044e-07 2.400533e-04 -1.152684e-04 -1.170114e-04 8.808473e-04 1.181655e-03 8.367429e-04 3.281268e-04 -7.667806e-05 -1.681642e-04 1.548277e-03 2.436234e-03 -6.749398e-03 1.217488e-02 4.438579e-02 -8.868165e-04
<VARIANCE> 42
 7.295246e-03 1.023997e-02 3.511831e-03 8.872559e-03 3.306555e-03 2.444246e-03 3.698653e-03 1.062198e-02 8.136475e-03 5.802220e-03 1.335196e-02 5.356981e-03 9.854420e-05 9.756949e-05 1.040737e-04 7.216768e-05 7.607225e-05 7.667400e-05 1.387097e-04 2.860254e-04 2.047747e-04 1.439974e-04 1.956994e-04 9.729360e-05 2.895135e-05 2.384111e-05 3.152110e-05 1.834503e-05 2.398122e-05 2.047559e-05 1.579521e-05 3.409026e-05 3.507514e-05 3.163459e-05 3.798223e-05 2.257737e-05 3.424329e-05 1.777767e-04 9.964420e-05 4.624246e-03 6.445322e-03 3.545939e-03
<GCONST> -2.631814e+02
<STATE> 7
<MEAN> 42
 1.670065e-01 2.059426e-01 3.681663e-02 -1.830412e-01 6.845649e-02 1.191952e-01 -1.642075e-01 -1.047084e-01 3.583654e-02 2.203400e-01 2.779464e-01 2.660052e-01 1.352353e-04 -3.625959e-04 -4.899807e-04 1.119272e-04 3.018648e-04 -4.231718e-04 -3.188838e-03 -5.354802e-03 -4.587678e-03 -2.293708e-03 -8.281987e-04 -7.613454e-05 1.154871e-04 8.302681e-05 -3.220762e-05 -1.004179e-04 6.959292e-05 2.116005e-05 -7.911980e-05 9.086131e-05 1.534223e-04 1.162452e-04 1.469369e-04 1.335349e-04 2.335382e-02 7.363990e-03 2.535350e-03 2.332907e-01 1.529083e-01 1.160619e-01
<VARIANCE> 42
 1.081878e-01 1.963199e-01 1.593608e-01 1.118928e-01 8.453623e-02 1.514431e-01 1.348282e-01 3.633234e-01 4.650277e-01 3.138906e-01 2.991177e-01 2.302579e-01 4.082167e-03 6.820457e-03 4.151227e-03 4.415755e-03 2.418376e-03 4.475292e-03 4.058043e-03 9.192841e-03 1.146011e-02 1.064782e-02 1.241033e-02 9.800530e-03 3.707226e-04 6.408066e-04 4.365086e-04 3.962914e-04 2.439351e-04 4.465834e-04 3.550678e-04 7.780658e-04 9.047631e-04 9.762869e-04 1.237585e-03 9.445212e-04 1.362606e-03 1.373669e-03 8.861499e-04 1.761087e-01 1.446070e-01 1.866448e-01
<GCONST> -1.188365e+02
<STATE> 8
<MEAN> 42
 4.676027e-02 5.878037e-02 5.484222e-03 -5.469699e-02 2.363796e-02 2.409624e-02 -1.062556e-02 1.018975e-01 8.194222e-02 6.226903e-02 7.697507e-02 5.002644e-02 5.408708e-04 7.150510e-04 1.709578e-04 -6.252555e-04 1.872443e-04 4.452316e-04 4.261977e-04 1.497949e-03 1.660028e-03 1.334647e-03 8.828396e-04 6.947476e-04 -1.038976e-04 -9.193490e-05 1.151256e-05 9.798273e-05 -5.816060e-05 -4.038627e-05 -1.168906e-04 -3.355344e-04 -3.131086e-04 -2.006455e-04 -1.389329e-04 -8.370994e-05 1.787209e-03 -3.073018e-03 -1.334484e-03 5.347724e-02 3.448331e-02 -3.657496e-02
<VARIANCE> 42
 9.857044e-03 1.335882e-02 3.617920e-03 1.058831e-02 3.129192e-03 6.197525e-03 6.662213e-03 2.076068e-02 2.598315e-02 1.867929e-02 1.946837e-02 1.972338e-02 9.658909e-05 9.060182e-05 6.859627e-05 7.640554e-05 6.053477e-05 5.588126e-05 5.910484e-05 1.057929e-04 8.849455e-05 7.069394e-05 1.036378e-04 6.319496e-05 2.916104e-05 2.349164e-05 2.375111e-05 2.036233e-05 2.076446e-05 1.644216e-05 1.007610e-05 2.601508e-05 1.302363e-05 1.211414e-05 1.986104e-05 9.602016e-06 7.113613e-05 2.209208e-04 2.648080e-04 1.206294e-02 6.736327e-03 7.095107e-03
<GCONST> -2.628284e+02
<STATE> 9
<MEAN> 42
 5.392292e-03 8.236572e-03 1.023236e-03 -4.093247e-03 2.600661e-03 1.168966e-03 -4.459233e-03 -1.340655e-03 1.146220e-03 3.700549e-03 6.168771e-03 5.425791e-03 -1.995578e-04 -2.652975e-04 -6.507219e-05 2.314912e-04 -6.725862e-05 -1.666222e-04 4.206246e-05 -2.237875e-04 -3.218042e-04 -3.203576e-04 -2.778768e-04 -2.628206e-04 1.628397e-05 2.099752e-05 5.024311e-06 -1.883137e-05 5.928041e-06 1.302740e-05 5.901074e-06 3.938400e-05 2.909943e-05 2.238067e-05 1.894210e-05 1.459118e-05 4.727888e-04 4.142336e-04 7.294916e-04 5.146636e-03 6.163533e-03 2.805690e-03
<VARIANCE> 42
 1.086274e-03 1.346695e-03 7.456847e-04 1.033363e-03 5.825252e-04 7.779857e-04 8.586891e-04 1.370589e-03 1.425103e-03 1.073119e-03 1.147003e-03 9.101944e-04 8.234982e-05 6.020948e-05 6.022236e-05 5.635562e-05 5.698246e-05 4.035545e-05 2.465401e-05 7.374013e-05 2.383793e-05 4.065752e-05 3.435813e-05 1.785692e-05 2.921121e-05 2.134462e-05 2.248020e-05 1.967948e-05 2.080516e-05 1.488737e-05 7.006479e-06 2.601508e-05 7.595876e-06 1.211414e-05 9.611577e-06 5.832958e-06 3.670594e-06 1.256669e-05 6.213952e-05 5.856500e-04 7.745768e-04 3.173400e-04
<GCONST> -3.162652e+02
<STATE> 10
<MEAN> 42
 3.561907e-02 8.751979e-03 -1.410098e-02 -2.103955e-02 3.684502e-02 -2.185107e-03 -3.324019e-02 -1.350339e-02 -3.185643e-02 -1.413786e-02 -1.366714e-02 1.853387e-03 -1.530046e-04 -2.566867e-04 -1.023827e-04 2.029982e-04 -2.163646e-05 -1.805900e-04 2.698076e-04 1.582568e-04 -1.803747e-04 -2.165242e-04 -3.151784e-04 -3.161974e-04 -8.156886e-06 -1.520692e-05 -6.271668e-06 1.173216e-05 6.642313e-07 -8.569417e-06 7.819007e-05 8.402197e-05 4.655866e-05 -5.015063e-06 -4.222404e-05 -5.464430e-05 2.605147e-03 5.776088e-04 -3.796241e-03 2.126364e-03 1.255784e-03 2.165024e-02
<VARIANCE> 42
 2.804525e-02 7.405374e-03 3.511159e-02 8.878071e-03 2.991221e-02 1.430362e-02 1.924297e-02 5.723739e-03 2.072065e-02 1.276771e-02 1.048824e-02 8.668184e-03 6.211197e-04 3.089943e-04 6.066535e-04 3.133372e-04 5.398644e-04 3.025748e-04 3.287274e-04 1.233278e-04 3.697171e-04 3.460693e-04 3.401846e-04 2.994157e-04 9.852580e-05 7.992678e-05 7.113018e-05 7.144448e-05 6.559576e-05 5.093333e-05 2.927599e-05 2.601508e-05 2.913253e-05 3.083791e-05 3.302161e-05 3.103847e-05 1.919572e-04 2.048094e-04 3.363886e-04 5.050445e-03 6.506050e-03 7.025759e-03
<GCONST> -2.294664e+02
<STATE> 11
<MEAN> 42
 -4.447955e-02 -4.076114e-02 2.118332e-03 4.559536e-02 -2.247598e-02 -2.367149e-02 6.471578e-02 6.191857e-02 1.246546e-02 -3.775230e-02 -4.558892e-02 -5.787057e-02 -4.741337e-03 -7.145462e-04 4.060280e-03 2.772582e-03 -4.454665e-03 1.659241e-03 1.896230e-02 2.597553e-02 1.993427e-02 6.941357e-03 8.011857e-04 -2.962814e-03 6.498198e-04 7.983048e-04 1.439115e-04 -7.095194e-04 2.219790e-04 4.964375e-04 3.439958e-03 5.940055e-03 5.708854e-03 3.915497e-03 2.407912e-03 1.333461e-03 -4.931088e-03 -2.201120e-03 -1.152804e-03 -5.156685e-02 -2.868358e-02 -4.859623e-02
<VARIANCE> 42
 2.063564e-03 2.832224e-03 4.723775e-03 1.184054e-03 2.466675e-03 3.262945e-03 4.816870e-03 7.755910e-03 5.700100e-03 3.446254e-03 2.698467e-03 2.622781e-03 2.197127e-04 1.610921e-04 3.260949e-04 1.075057e-04 2.331581e-04 1.895837e-04 4.181351e-04 6.422162e-04 4.371599e-04 2.759035e-04 2.436556e-04 1.765992e-04 6.494646e-05 3.214788e-05 7.226901e-05 3.020505e-05 6.058677e-05 3.590481e-05 4.964163e-05 8.263579e-05 7.036700e-05 5.824925e-05 6.283932e-05 4.422680e-05 2.174593e-05 6.882474e-05 1.204591e-04 1.614360e-03 2.488656e-03 3.344353e-03
<GCONST> -2.565250e+02
<STATE> 12
<MEAN> 42
 -1.578521e-02 1.070733e-02 2.283077e-02 4.004708e-03 -1.727887e-02 1.320415e-02 1.832074e-01 2.911890e-01 2.207973e-01 1.238715e-01 5.176913e-02 -7.774997e-03 2.688531e-02 2.520176e-02 -1.752595e-03 -2.607197e-02 1.431652e-02 1.187155e-02 8.858948e-03 4.518836e-02 5.255747e-02 5.368817e-02 4.505861e-02 3.413494e-02 1.159081e-02 8.380316e-03 -3.241242e-03 -9.996995e-03 7.435514e-03 2.559559e-03 -9.700968e-03 -1.987151e-03 4.280789e-03 1.179788e-02 1.437536e-02 1.353354e-02 -5.882848e-03 -9.732767e-03 1.092168e-02 1.078698e-02 -6.389361e-03 -1.915914e-01
<VARIANCE> 42
 5.624001e-03 6.909650e-03 7.951503e-03 4.129217e-03 5.122661e-03 6.219190e-03 1.171087e-02 2.553304e-02 2.180834e-02 1.381664e-02 1.079156e-02 8.546760e-03 4.712733e-04 4.850907e-04 6.158027e-04 3.242053e-04 4.247898e-04 4.337642e-04 6.662084e-04 8.900410e-04 7.759203e-04 6.501310e-04 5.427153e-04 5.062647e-04 8.576184e-05 6.860864e-05 1.307259e-04 4.471228e-05 9.132574e-05 7.791797e-05 1.082626e-04 1.890790e-04 1.218597e-04 8.415089e-05 5.568546e-05 5.373823e-05 7.415532e-05 6.139091e-04 5.727016e-04 7.787596e-03 5.404187e-03 9.356693e-03
<GCONST> -2.208410e+02
<STATE> 13
<MEAN> 42
 5.084529e-02 2.481394e-02 -2.672442e-02 -3.940532e-02 4.018596e-02 -4.090145e-03 1.299616e-01 2.611719e-01 2.193749e-01 1.799801e-01 1.261112e-01 7.026111e-02 4.055568e-02 3.135576e-02 -9.259383e-03 -3.600678e-02 2.491351e-02 1.108529e-02 -1.691036e-02 2.674383e-02 4.212953e-02 5.375259e-02 5.481421e-02 4.670339e-02 1.006416e-02 9.544554e-03 -5.008650e-04 -9.817205e-03 5.316417e-03 4.530977e-03 -1.208116e-02 -5.461448e-03 1.805070e-03 8.245292e-03 1.132484e-02 1.115444e-02 2.480550e-04 -1.119443e-02 8.801941e-03 7.811397e-02 -5.755797e-03 -1.578551e-01
<VARIANCE> 42
 7.316733e-03 2.561488e-02 1.610199e-02 1.151616e-02 5.878555e-03 1.889382e-02 1.071065e-02 4.118104e-02 5.059189e-02 3.478415e-02 2.648888e-02 1.834135e-02 1.122503e-03 1.789562e-03 1.481151e-03 1.087136e-03 8.610416e-04 1.356835e-03 1.228430e-03 2.067449e-03 2.230247e-03 2.137118e-03 1.842136e-03 1.676074e-03 9.973803e-05 1.633056e-04 1.579732e-04 9.209863e-05 8.709931e-05 1.349687e-04 1.580370e-04 3.303644e-04 2.539762e-04 1.974890e-04 1.424118e-04 1.432617e-04 9.740768e-05 6.741422e-04 8.011286e-04 1.524762e-02 1.588192e-02 1.434804e-02
<GCONST> -1.904900e+02
<STATE> 14
<MEAN> 42
 4.163186e-01 5.184078e-01 9.994613e-02 -4.668329e-01 1.597059e-01 3.068748e-01 -1.792625e-01 1.996789e-01 4.903390e-01 6.555954e-01 6.426640e-01 5.353432e-01 7.040273e-02 6.627461e-02 -4.174531e-03 -6.834038e-02 3.743162e-02 3.119559e-02 -7.491238e-02 -5.339788e-02 9.280124e-03 8.191054e-02 1.059292e-01 1.046089e-01 1.913256e-03 1.994626e-03 8.740608e-05 -1.951772e-03 9.192810e-04 1.022100e-03 -1.159408e-02 -2.331335e-02 -1.765624e-02 -2.897983e-03 4.106625e-03 6.791341e-03 4.185301e-02 -9.418078e-03 1.118557e-02 5.445361e-01 3.369578e-01 -2.757532e-02
<VARIANCE> 42
 9.845190e-02 3.780240e-01 2.350705e-01 1.809019e-01 7.230014e-02 2.843997e-01 1.501639e-01 1.834074e-01 1.877375e-01 1.556001e-01 1.357820e-01 1.124683e-01 5.361738e-03 1.773249e-02 9.774016e-03 9.109965e-03 3.142551e-03 1.242968e-02 7.834895e-03 1.157354e-02 1.323838e-02 8.501801e-03 6.992007e-03 5.486312e-03 3.898292e-04 1.506080e-03 8.104474e-04 7.461986e-04 2.229770e-04 1.063530e-03 7.188256e-04 1.013030e-03 1.103280e-03 5.515062e-04 6.359490e-04 5.277057e-04 1.088498e-03 1.414258e-03 1.319370e-03 1.125119e-01 2.426594e-01 1.010374e-01
<GCONST> -1.149369e+02
<STATE> 15
<MEAN> 42
 3.798127e-01 3.691490e-01 -1.562783e-02 -3.740130e-01 2.008749e-01 1.720535e-01 -5.444313e-01 -6.688715e-01 -4.091521e-01 2.934583e-01 5.694832e-01 5.945443e-01 -5.590234e-02 -5.430689e-02 1.615936e-03 5.511675e-02 -2.886105e-02 -2.647799e-02 5.108502e-03 -5.924021e-02 -9.429244e-02 -1.113503e-01 -1.056867e-01 -8.663516e-02 -9.812371e-03 -9.397727e-03 4.247431e-04 9.606776e-03 -5.122517e-03 -4.502104e-03 1.260346e-02 1.627136e-02 6.875647e-03 -8.995694e-03 -1.518789e-02 -1.620428e-02 6.186590e-02 3.325500e-02 2.826522e-03 4.680188e-01 3.116947e-01 5.557287e-01
<VARIANCE> 42
 1.608545e-01 2.398403e-01 3.769093e-01 1.039874e-01 2.093627e-01 2.675578e-01 1.046950e-01 3.963277e-01 8.069841e-01 7.307929e-01 6.100426e-01 4.070316e-01 4.766072e-03 6.136097e-03 7.257986e-03 3.641807e-03 4.480342e-03 5.510005e-03 5.350822e-03 1.493303e-02 1.791692e-02 1.728426e-02 2.401988e-02 1.866468e-02 8.129370e-04 9.386004e-04 9.066719e-04 6.509432e-04 6.249087e-04 7.182534e-04 5.740401e-04 1.494064e-03 1.969647e-03 2.817898e-03 3.775568e-03 2.723130e-03 1.381796e-03 1.737359e-03 1.508584e-03 3.178178e-01 2.274420e-01 1.983529e-01
<GCONST> -9.838605e+01
<STATE> 16
<MEAN> 42
 -8.343117e-02 -6.267360e-02 1.558826e-02 7.308620e-02 -4.679040e-02 -2.886194e-02 -1.417207e-01 -3.541954e-01 -3.366901e-01 -2.690117e-01 -2.008375e-01 -1.340756e-01 -1.542964e-03 -1.842317e-03 -3.102742e-04 1.680596e-03 -5.970675e-04 -1.042265e-03 3.143007e-02 6.197989e-02 5.324377e-02 2.814976e-02 1.367066e-02 1.920805e-03 6.190189e-03 6.178576e-03 -2.274837e-05 -6.193510e-03 3.111557e-03 3.085460e-03 -1.518702e-03 3.094345e-04 4.382369e-03 8.730792e-03 9.671386e-03 9.034189e-03 -7.902699e-04 3.015842e-02 6.767645e-03 -1.390311e-01 -1.106343e-02 2.082737e-01
<VARIANCE> 42
 2.114740e-02 2.352250e-02 4.488152e-02 1.044923e-02 2.701106e-02 2.829106e-02 9.607643e-02 1.510436e-01 1.762743e-01 5.234840e-02 2.738193e-02 1.160015e-02 8.243121e-04 1.003767e-03 1.497132e-03 5.405532e-04 9.147159e-04 1.044972e-03 1.063970e-03 2.550418e-03 3.900757e-03 2.265130e-03 1.486430e-03 1.018607e-03 1.353797e-04 1.533731e-04 1.368917e-04 1.097817e-04 9.771479e-05 1.119949e-04 1.142641e-04 2.508918e-04 5.059730e-04 4.941283e-04 3.735864e-04 2.264678e-04 4.137429e-04 9.596875e-04 1.041956e-03 1.405649e-02 2.184132e-02 8.177722e-02
<GCONST> -1.770638e+02
<STATE> 17
<MEAN> 42
 2.786862e-02 2.171546e-02 -1.858111e-02 -3.206991e-02 3.064743e-02 3.198319e-03 -2.852262e-02 3.956631e-02 7.059745e-02 5.208707e-02 4.174843e-02 6.009382e-02 4.076839e-04 6.119598e-04 2.051282e-04 -5.113374e-04 9.823654e-05 4.087274e-04 2.021964e-04 1.227808e-03 1.477248e-03 1.086332e-03 8.673450e-04 5.940655e-04 -4.624936e-05 -8.365252e-06 3.762088e-05 2.880191e-05 -4.283043e-05 1.631423e-05 -1.052120e-04 -2.061826e-04 -1.855317e-04 -1.240241e-04 -9.653649e-05 -4.936613e-05 1.175294e-03 2.455576e-03 -5.110044e-03 4.838936e-02 6.524752e-03 -1.476802e-02
<VARIANCE> 42
 2.231283e-02 2.019084e-02 5.042784e-02 8.568799e-03 3.148751e-02 2.964713e-02 9.771237e-03 1.354209e-02 4.636535e-02 4.032933e-02 3.082773e-02 3.384494e-02 4.800652e-04 4.002112e-04 8.191304e-04 2.354342e-04 5.512560e-04 4.900123e-04 2.269313e-04 1.679340e-04 3.075850e-04 3.722775e-04 6.242192e-04 7.776082e-04 8.712186e-05 8.610654e-05 9.974724e-05 6.171835e-05 7.215352e-05 7.142892e-05 3.672053e-05 3.676685e-05 3.751875e-05 2.726428e-05 5.695790e-05 6.804119e-05 1.489991e-04 1.599539e-04 1.866786e-04 1.865056e-02 1.571359e-02 6.882472e-03
<GCONST> -2.174117e+02
<STATE> 18
<MEAN> 42
 1.647286e-01 2.862234e-01 1.161117e-01 -2.212648e-01 3.014401e-02 2.034557e-01 -1.270736e-01 1.536067e-01 3.776863e-01 4.704528e-01 4.697767e-01 4.103679e-01 1.479407e-03 1.998253e-03 5.201270e-04 -1.727953e-03 4.833558e-04 1.245781e-03 -1.058563e-03 -3.425505e-04 6.481401e-04 2.199032e-03 2.708383e-03 3.153851e-03 -6.839408e-04 -4.488170e-04 2.396407e-04 5.728960e-04 -4.688385e-04 -1.124167e-04 -1.296836e-04 -1.012741e-03 -1.086620e-03 -1.163231e-03 -9.768726e-04 -6.834131e-04 9.658106e-03 1.499012e-03 2.648065e-03 3.799659e-01 1.948987e-01 -3.809141e-02
<VARIANCE> 42
 3.974634e-02 5.138611e-02 1.751128e-02 4.007975e-02 1.556940e-02 2.565311e-02 4.469186e-02 1.965080e-01 1.981299e-01 1.919742e-01 1.727794e-01 1.185764e-01 1.153584e-03 8.463759e-04 3.810328e-04 9.046801e-04 5.615163e-04 3.256623e-04 9.146217e-04 5.462152e-03 4.471760e-03 2.824155e-03 2.750472e-03 1.927770e-03 1.148427e-04 9.019898e-05 6.767978e-05 8.576015e-05 6.929284e-05 4.968916e-05 5.958311e-05 4.354494e-04 3.478533e-04 1.915731e-04 1.730232e-04 1.109166e-04 5.049774e-04 1.320867e-03 3.683007e-04 1.012452e-01 2.418326e-02 6.538174e-02
<GCONST> -1.753146e+02
<STATE> 19
<MEAN> 42
 1.431270e-01 2.074914e-01 5.285410e-02 -1.725603e-01 4.767191e-02 1.288182e-01 -6.390502e-02 2.007009e-01 1.412859e-01 1.466218e-01 1.449885e-01 1.509326e-01 9.986320e-05 5.752177e-04 4.861273e-04 -3.300691e-04 -1.892098e-04 5.180197e-04 3.373548e-03 3.847351e-03 3.905820e-03 1.794233e-03 1.388759e-03 8.692904e-04 -5.574207e-04 -5.842960e-04 -2.162791e-05 5.714315e-04 -2.618944e-04 -2.950612e-04 -2.706211e-04 -1.063434e-03 -9.685064e-04 -5.379795e-04 -3.027032e-04 -2.981542e-04 1.061378e-02 -9.876153e-03 -1.609724e-03 1.314321e-01 1.390862e-01 -4.298855e-02
<VARIANCE> 42
 2.050702e-02 4.100798e-02 7.572942e-03 2.985067e-02 2.824050e-03 2.017949e-02 7.188180e-03 3.979631e-02 2.338827e-02 2.663794e-02 2.814025e-02 2.457461e-02 2.087769e-04 2.291900e-04 1.512280e-04 1.809781e-04 1.229451e-04 1.368826e-04 1.488905e-04 3.248971e-04 1.921962e-04 1.731536e-04 1.748350e-04 1.293965e-04 6.600895e-05 3.101181e-05 4.670035e-05 3.684974e-05 4.872141e-05 2.153377e-05 1.368207e-05 3.013889e-05 2.197397e-05 1.719003e-05 2.437632e-05 1.700460e-05 1.022472e-04 2.731214e-04 4.475474e-04 1.715064e-02 1.939120e-02 5.545462e-03
<GCONST> -2.387918e+02
<STATE> 20
<MEAN> 42
 -1.548018e-03 1.919279e-02 1.043298e-02 -1.172716e-02 7.318659e-03 6.169059e-03 -8.853884e-03 -1.631707e-03 -6.446270e-03 -1.234362e-03 1.649210e-02 5.214376e-03 -9.136029e-05 -4.571446e-05 4.421206e-05 7.077724e-05 -6.815329e-05 -4.165584e-06 5.236834e-04 9.508902e-04 8.845651e-04 5.539532e-04 3.933223e-04 2.266582e-04 1.626299e-05 -2.111456e-05 -3.939139e-05 1.235581e-06 2.885603e-05 -3.112903e-05 -7.096035e-05 -6.863527e-05 -4.759565e-05 1.477059e-06 6.951900e-05 7.384448e-05 5.043740e-04 1.134064e-03 -6.486648e-03 5.091851e-03 1.853867e-02 7.590755e-03
<VARIANCE> 42
 3.035811e-03 5.003771e-03 2.701267e-03 3.755742e-03 1.695800e-03 2.502769e-03 2.192268e-03 4.373792e-03 6.583002e-03 4.056964e-03 5.672743e-03 4.402965e-03 1.783813e-04 1.573030e-04 1.490918e-04 1.307047e-04 1.251723e-04 1.099592e-04 7.635978e-05 8.185792e-05 7.404492e-05 6.853283e-05 7.712586e-05 6.458505e-05 6.397779e-05 5.434502e-05 5.177011e-05 4.627175e-05 4.459533e-05 3.749528e-05 2.000278e-05 2.601508e-05 1.842110e-05 1.682104e-05 1.995834e-05 1.651597e-05 1.085257e-05 3.657891e-05 1.036885e-04 2.633283e-03 3.181442e-03 1.472209e-03
<GCONST> -2.744790e+02
<STATE> 21
<MEAN> 42
 -4.559726e-03 9.916446e-02 5.014915e-02 -7.868993e-02 1.735689e-02 1.536903e-02 -6.104254e-02 -5.748469e-02 -1.196242e-01 -8.077049e-02 8.532614e-02 -3.347082e-02 2.914737e-05 2.976376e-06 -2.663929e-05 -1.658776e-05 2.852581e-05 -1.154560e-05 -4.050338e-05 -1.129349e-04 -1.408470e-04 -1.540748e-04 -1.271408e-04 -8.933246e-05 -2.649078e-05 -1.806714e-05 8.223258e-06 2.199778e-05 -1.790917e-05 -4.752845e-06 -1.663307e-05 -7.059787e-05 -7.610342e-05 -6.414911e-05 -7.700337e-05 -6.527595e-05 6.952997e-03 5.409344e-03 -1.177001e-02 -6.302346e-03 1.029556e-01 7.740768e-02
<VARIANCE> 42
 3.162570e-02 1.779089e-02 3.840490e-02 1.382176e-02 2.917828e-02 2.041255e-02 1.648699e-02 1.366409e-01 9.079105e-02 5.292239e-02 3.867971e-02 3.897003e-02 8.443335e-04 3.562570e-04 1.022837e-03 3.473477e-04 8.482236e-04 4.788164e-04 3.271934e-04 2.499260e-03 1.342786e-03 7.894513e-04 7.688780e-04 5.089924e-04 9.475120e-05 5.975209e-05 1.033337e-04 5.193742e-05 8.446518e-05 5.800505e-05 2.200141e-05 1.528533e-04 9.361883e-05 6.132908e-05 6.390306e-05 4.414076e-05 2.525176e-04 2.435853e-04 9.520716e-05 2.762339e-02 1.604969e-02 4.081622e-02
<GCONST> -2.024238e+02
<STATE> 22
<MEAN> 42
 1.491216e-02 1.544287e-02 -8.265394e-04 -1.376650e-02 9.020259e-03 1.824228e-03 9.527670e-04 3.633604e-02 2.939953e-02 1.623037e-02 2.085538e-02 1.445778e-02 1.431940e-05 -4.289606e-05 -5.642304e-05 1.435186e-05 3.669227e-05 -4.911677e-05 5.832607e-05 1.563760e-04 2.255046e-04 1.700927e-04 3.993191e-05 1.226304e-05 -1.063288e-06 1.698295e-05 1.809083e-05 -7.804510e-06 -9.428082e-06 1.739969e-05 -2.920712e-06 -4.147478e-08 -1.736970e-06 2.757924e-06 6.340417e-06 3.607654e-06 4.146611e-04 -9.393139e-04 -2.170090e-04 1.444433e-02 7.752295e-03 -1.512542e-02
<VARIANCE> 42
 3.026839e-03 3.219084e-03 1.668683e-03 2.772366e-03 1.497180e-03 1.725325e-03 2.777243e-03 9.709136e-03 8.597911e-03 5.070770e-03 6.390208e-03 5.399349e-03 9.252639e-05 6.709134e-05 6.817737e-05 6.273090e-05 6.394136e-05 4.457760e-05 3.149930e-05 7.374013e-05 3.455832e-05 4.065752e-05 5.423233e-05 2.802833e-05 3.432351e-05 2.362589e-05 2.548728e-05 2.256305e-05 2.412501e-05 1.603545e-05 7.722341e-06 2.601508e-05 8.042347e-06 1.211414e-05 1.174519e-05 7.159819e-06 2.028017e-05 7.987681e-05 1.670350e-04 3.036674e-03 1.675411e-03 2.637151e-03
<GCONST> -2.882724e+02
<STATE> 23
<MEAN> 42
 1.248259e-01 1.325785e-01 7.176130e-03 -1.256545e-01 5.832333e-02 6.820756e-02 -6.681994e-02 4.782727e-02 1.046255e-01 1.640960e-01 1.882127e-01 1.766090e-01 2.530763e-04 4.811377e-04 2.252474e-04 -3.678536e-04 1.530063e-05 3.541819e-04 -1.848511e-04 3.219233e-06 3.912896e-05 3.510222e-04 4.869155e-04 4.339330e-04 -1.179222e-05 -9.816393e-05 -8.504024e-05 5.495650e-05 3.506389e-05 -9.104720e-05 -2.568687e-05 -9.074478e-05 -9.196086e-05 -9.595197e-05 -1.094927e-04 -6.776029e-05 1.232781e-02 2.900423e-04 -1.438584e-03 1.560164e-01 8.603784e-02 1.009403e-02
<VARIANCE> 42
 5.669971e-02 9.496567e-02 7.394626e-02 5.730020e-02 4.185546e-02 7.068496e-02 5.620309e-02 1.350720e-01 1.949097e-01 1.365715e-01 1.475542e-01 1.175894e-01 1.780619e-03 2.881257e-03 1.860070e-03 1.867296e-03 1.104772e-03 1.924908e-03 1.606462e-03 3.330232e-03 4.569142e-03 3.999804e-03 5.420808e-03 4.292221e-03 1.727806e-04 2.889859e-04 2.058678e-04 1.794234e-04 1.178728e-04 2.035964e-04 1.585178e-04 3.127683e-04 3.676578e-04 3.740957e-04 5.770660e-04 4.275788e-04 6.514219e-04 7.207819e-04 5.304543e-04 8.323886e-02 6.676906e-02 7.164857e-02
<GCONST> -1.526576e+02
<STATE> 24
<MEAN> 42
 8.007302e-03 1.007942e-02 2.495440e-03 -6.091315e-03 3.365285e-03 3.134851e-03 -2.298278e-04 8.860512e-03 4.858737e-03 2.081246e-03 5.192327e-03 3.995183e-04 -1.031715e-04 -2.031433e-04 -9.914652e-05 1.528683e-04 -4.045978e-06 -1.527208e-04 1.278974e-04 -2.182792e-05 -1.172950e-04 -2.163718e-04 -2.042815e-04 -2.118963e-04 1.784633e-05 3.710876e-05 1.931253e-05 -2.753305e-05 -9.188179e-07 2.810219e-05 1.348961e-05 4.330726e-05 3.778953e-05 3.241420e-05 3.421215e-05 2.445374e-05 2.844750e-04 -5.213732e-04 1.231356e-03 2.924196e-03 6.612587e-03 -2.487507e-03
<VARIANCE> 42
 1.490008e-03 1.704989e-03 9.765736e-04 1.397587e-03 7.855357e-04 9.834863e-04 1.206209e-03 2.065048e-03 2.599336e-03 1.989723e-03 2.147888e-03 1.099171e-03 9.564904e-05 6.975086e-05 7.010632e-05 6.519263e-05 6.587862e-05 4.617964e-05 2.954681e-05 7.374013e-05 2.700785e-05 4.065752e-05 3.641388e-05 2.247057e-05 3.618054e-05 2.485333e-05 2.550950e-05 2.415007e-05 2.481913e-05 1.620933e-05 7.873151e-06 2.601508e-05 7.306330e-06 1.211414e-05 9.727478e-06 6.660423e-06 5.950977e-06 2.739585e-05 8.300004e-05 8.743462e-04 9.417848e-04 7.555844e-04
<GCONST> -3.061590e+02
<STATE> 25
<MEAN> 42
 1.303112e-01 1.494856e-01 1.591250e-02 -1.374026e-01 5.863845e-02 8.012665e-02 -1.012404e-01 -4.551262e-04 8.788963e-02 1.605989e-01 2.036699e-01 1.928566e-01 2.825490e-04 6.318158e-04 3.491715e-04 -4.565780e-04 -3.228688e-05 4.935271e-04 -5.383904e-04 -3.476451e-04 -1.746084e-04 1.331972e-04 3.200087e-04 4.227507e-04 1.337501e-05 -5.338623e-05 -6.715365e-05 2.073526e-05 4.173682e-05 -6.079547e-05 -1.038583e-05 -3.271911e-06 6.800121e-06 3.715380e-06 -2.477151e-05 -1.257043e-05 1.398319e-02 1.312021e-03 -2.822939e-03 1.701929e-01 1.020090e-01 4.173136e-02
<VARIANCE> 42
 7.008217e-02 1.155651e-01 8.397664e-02 7.159069e-02 4.805499e-02 8.324008e-02 8.159143e-02 2.048684e-01 2.442657e-01 1.765215e-01 1.760805e-01 1.451737e-01 2.381295e-03 3.555084e-03 2.133022e-03 2.437190e-03 1.374218e-03 2.253716e-03 2.367554e-03 4.906164e-03 5.853999e-03 5.552326e-03 6.478159e-03 5.334388e-03 2.243951e-04 3.413067e-04 2.298452e-04 2.254339e-04 1.423817e-04 2.300124e-04 2.167008e-04 4.321847e-04 4.710586e-04 5.011955e-04 6.453422e-04 5.237430e-04 8.471684e-04 9.205893e-04 5.957669e-04 1.070529e-01 7.833418e-02 9.916036e-02
<GCONST> -1.429841e+02
<STATE> 26
<MEAN> 42
 6.557091e-03 7.183420e-03 2.436665e-04 -3.674991e-03 4.738493e-03 -1.501448e-04 -3.955588e-04 1.884070e-02 5.792472e-03 4.177718e-03 3.870074e-03 2.674461e-03 3.258244e-05 -9.444378e-05 -1.271033e-04 3.108544e-05 8.112693e-05 -1.089100e-04 9.178392e-05 1.930274e-04 1.290280e-04 3.183483e-05 -6.966912e-05 -8.852739e-05 7.864228e-06 1.065390e-05 2.769229e-06 -9.630493e-06 3.816262e-06 7.580635e-06 -1.484982e-05 -2.190987e-05 -1.069750e-05 -4.662588e-06 8.879139e-06 5.948844e-06 2.075396e-04 -7.315603e-04 -5.508268e-04 2.740413e-03 4.083840e-03 -6.059499e-03
<VARIANCE> 42
 1.783193e-03 1.850505e-03 9.818667e-04 1.629348e-03 9.433032e-04 9.572528e-04 1.347981e-03 4.477009e-03 3.447839e-03 2.026965e-03 2.093652e-03 1.876520e-03 8.929620e-05 7.154937e-05 6.746814e-05 6.370690e-05 6.082085e-05 4.728630e-05 3.322641e-05 7.374013e-05 3.004074e-05 4.065752e-05 2.791152e-05 2.382093e-05 3.151573e-05 2.548278e-05 2.470115e-05 2.239841e-05 2.184162e-05 1.725936e-05 9.076313e-06 2.601508e-05 8.678907e-06 1.211414e-05 8.036925e-06 7.071799e-06 1.106057e-05 3.221932e-05 8.496377e-05 1.197668e-03 1.045772e-03 1.285402e-03
<GCONST> -3.023781e+02
<STATE> 27
<MEAN> 42
 9.519228e-02 6.217531e-02 -3.506362e-02 -7.553520e-02 6.454998e-02 1.329875e-02 -1.695553e-02 1.415222e-01 1.449053e-01 1.170751e-01 9.382494e-02 6.829110e-02 1.024809e-03 1.871872e-03 8.476228e-04 -1.449286e-03 9.214331e-05 1.366939e-03 4.411366e-03 9.265094e-03 8.787996e-03 6.713547e-03 4.382855e-03 3.092458e-03 5.891640e-04 3.566872e-04 -2.303055e-04 -4.727115e-04 4.002858e-04 5.919950e-05 5.641522e-04 1.602710e-03 1.456838e-03 1.269546e-03 1.089380e-03 9.685295e-04 4.643979e-03 1.337625e-03 -9.949924e-04 8.706734e-02 1.907467e-02 -6.203940e-02
<VARIANCE> 42
 1.628114e-02 8.253010e-03 7.489907e-03 1.048253e-02 9.392831e-03 3.641894e-03 1.778255e-02 3.158981e-02 3.166354e-02 2.141314e-02 1.507387e-02 9.862856e-03 2.192206e-04 1.589716e-04 1.494940e-04 1.516391e-04 1.452039e-04 9.976591e-05 1.921300e-04 5.153951e-04 4.410313e-04 2.993465e-04 3.377566e-04 2.119649e-04 4.714107e-05 3.854726e-05 3.409036e-05 3.436595e-05 3.113168e-05 2.455282e-05 2.511205e-05 5.456372e-05 4.389499e-05 4.026639e-05 5.534503e-05 3.573738e-05 1.701959e-04 2.547312e-04 2.241348e-04 1.160217e-02 3.176346e-03 1.294935e-02
<GCONST> -2.384976e+02
<STATE> 28
<MEAN> 42
 1.364166e-01 1.709726e-01 3.219927e-02 -1.505135e-01 5.289592e-02 1.003463e-01 -1.040392e-01 2.267400e-02 9.197254e-02 1.653135e-01 2.158825e-01 2.144479e-01 -1.234928e-04 1.932506e-05 1.396832e-04 5.030424e-05 -1.291270e-04 7.338816e-05 -1.698951e-03 -2.848743e-03 -2.375615e-03 -1.608715e-03 -8.671000e-04 -3.144560e-04 -2.619664e-04 -2.280838e-04 3.370869e-05 2.449398e-04 -1.459313e-04 -9.846153e-05 -1.216076e-04 -5.331633e-04 -5.183474e-04 -4.473402e-04 -4.213014e-04 -3.683046e-04 1.424558e-02 1.101754e-03 -1.896163e-03 1.783949e-01 1.200837e-01 3.923025e-02
<VARIANCE> 42
 6.123951e-02 1.179148e-01 9.296234e-02 6.639579e-02 4.789076e-02 9.051856e-02 7.517435e-02 1.875795e-01 2.430142e-01 1.598712e-01 1.825825e-01 1.490257e-01 2.100034e-03 3.836233e-03 2.374583e-03 2.376016e-03 1.284178e-03 2.581826e-03 2.271499e-03 4.381532e-03 5.380427e-03 4.877718e-03 7.003033e-03 5.780025e-03 2.136414e-04 3.683305e-04 2.536096e-04 2.277184e-04 1.424633e-04 2.575844e-04 2.222249e-04 4.150246e-04 4.133870e-04 4.399826e-04 7.270679e-04 5.798757e-04 8.171072e-04 8.960436e-04 5.623561e-04 9.755699e-02 8.416075e-02 9.827727e-02
<GCONST> -1.432705e+02
<STATE> 29
<MEAN> 42
 1.078417e-02 1.254713e-02 -2.534897e-04 -8.467886e-03 6.472312e-03 2.364233e-03 -4.217582e-03 1.592004e-02 1.095909e-02 7.922598e-03 1.324831e-02 8.804329e-03 -1.260541e-04 -1.758745e-04 -4.895663e-05 1.521795e-04 -3.972622e-05 -1.119126e-04 1.490732e-04 -4.916498e-05 -9.970972e-05 -1.410634e-04 -1.175943e-04 -1.196397e-04 1.960463e-05 2.927289e-05 9.765510e-06 -2.435845e-05 3.886577e-06 1.943015e-05 -2.168783e-05 3.926532e-06 1.352470e-05 1.101903e-05 2.320663e-05 2.123278e-05 4.708676e-04 -1.014933e-03 -3.942846e-04 9.145738e-03 7.768248e-03 -3.967863e-03
<VARIANCE> 42
 1.580934e-03 2.018342e-03 1.084117e-03 1.620309e-03 8.375197e-04 1.149443e-03 1.278801e-03 3.400342e-03 3.508562e-03 2.099366e-03 2.957637e-03 2.039463e-03 8.780396e-05 6.376229e-05 6.035943e-05 6.073029e-05 5.835659e-05 4.031197e-05 2.134933e-05 7.374013e-05 2.413537e-05 4.065752e-05 2.921383e-05 2.162209e-05 3.177131e-05 2.200178e-05 2.253037e-05 2.124364e-05 2.175433e-05 1.440147e-05 6.032227e-06 2.601508e-05 6.482174e-06 1.211414e-05 7.705242e-06 6.105203e-06 9.829148e-06 3.633638e-05 1.120675e-04 1.352699e-03 1.262470e-03 1.212927e-03
<GCONST> -3.041324e+02
<STATE> 30
<MEAN> 42
 -2.048411e-02 1.099577e-02 1.016690e-02 -8.746344e-03 8.353416e-04 -7.851155e-03 1.087651e-02 1.425745e-01 8.110325e-03 -1.895592e-03 1.326044e-02 -2.539412e-02 -1.131414e-03 -5.300242e-04 6.039741e-04 8.201967e-04 -8.829074e-04 3.980790e-05 2.313239e-03 3.810374e-03 1.965554e-03 4.773226e-04 -3.383297e-04 -9.507381e-04 -1.511660e-04 1.888168e-05 1.687915e-04 6.534950e-05 -1.612127e-04 9.271930e-05 4.676279e-04 6.753260e-04 5.403552e-04 2.883733e-04 2.462312e-05 -9.133547e-05 -2.309361e-03 2.548168e-05 -6.569763e-03 -1.693244e-02 1.082101e-02 -4.990686e-02
<VARIANCE> 42
 4.861852e-03 1.080674e-02 5.293450e-03 6.669642e-03 2.407717e-03 8.361804e-03 6.423807e-03 6.828412e-02 9.217437e-03 5.373973e-03 9.602478e-03 6.061703e-03 1.482613e-04 1.613394e-04 1.445521e-04 1.183428e-04 1.061769e-04 1.164987e-04 1.519396e-04 2.231398e-04 1.385417e-04 6.884477e-05 8.968447e-05 5.999359e-05 4.748654e-05 5.334109e-05 4.388569e-05 3.937931e-05 3.261770e-05 3.715969e-05 2.522871e-05 3.552020e-05 2.501655e-05 1.715261e-05 2.345670e-05 1.578972e-05 3.791359e-05 7.086692e-05 1.254475e-04 4.785229e-03 7.081615e-03 1.079272e-02
<GCONST> -2.576321e+02
<STATE> 31
<MEAN> 42
 -2.138607e-02 1.910735e-03 1.596241e-02 8.292923e-03 -1.595498e-02 4.872253e-03 1.625300e-01 3.126551e-01 1.968868e-01 1.032670e-01 4.288137e-02 -6.744904e-03 2.579971e-02 2.586326e-02 2.635550e-05 -2.584662e-02 1.295745e-02 1.293838e-02 3.696622e-03 4.481297e-02 4.676500e-02 4.534974e-02 4.219878e-02 3.226433e-02 1.091900e-02 9.320701e-03 -1.595928e-03 -1.011617e-02 6.290455e-03 3.910969e-03 -7.545345e-03 1.925222e-03 6.425595e-03 1.109745e-02 1.360469e-02 1.270743e-02 -3.471649e-03 -4.425225e-03 6.150798e-03 2.368217e-03 -1.183453e-02 -1.877282e-01
<VARIANCE> 42
 7.479512e-03 1.170144e-02 7.684564e-03 7.402466e-03 4.863096e-03 7.652226e-03 1.497302e-02 1.343401e-01 3.404910e-02 2.544557e-02 1.863579e-02 1.309227e-02 1.061610e-03 1.244363e-03 7.702542e-04 9.612640e-04 6.037229e-04 7.420222e-04 1.346602e-03 1.620080e-03 1.591302e-03 1.714455e-03 1.484374e-03 1.266771e-03 1.158307e-04 1.478068e-04 8.569464e-05 1.104012e-04 6.372853e-05 8.747051e-05 1.648962e-04 2.398677e-04 1.929651e-04 1.614996e-04 1.287077e-04 1.202755e-04 9.052625e-05 6.196377e-04 4.023325e-04 1.255707e-02 7.012117e-03 2.152274e-02
<GCONST> -2.003758e+02
<STATE> 32
<MEAN> 42
 3.132502e-01 4.497761e-01 1.291133e-01 -3.823546e-01 9.502633e-02 2.866468e-01 -3.711267e-01 -2.794006e-01 -1.255939e-01 3.787275e-01 5.570294e-01 5.409107e-01 -6.155252e-03 -7.211974e-03 -1.031466e-03 6.713049e-03 -2.588669e-03 -4.129385e-03 -2.397855e-02 -5.073711e-02 -4.732528e-02 -3.191354e-02 -2.274964e-02 -1.114630e-02 -4.689265e-03 -4.262201e-03 4.289258e-04 4.477561e-03 -2.567010e-03 -1.933016e-03 2.855692e-03 1.577423e-04 -1.753913e-03 -4.503294e-03 -5.831397e-03 -5.562626e-03 4.324026e-02 2.244268e-02 6.136981e-03 4.391100e-01 3.657815e-01 3.204616e-01
<VARIANCE> 42
 1.236927e-01 3.763890e-01 2.872228e-01 1.798581e-01 1.127383e-01 3.024723e-01 1.718744e-01 8.286276e-01 8.229969e-01 6.279983e-01 5.110359e-01 3.157153e-01 6.913033e-03 1.768477e-02 8.264381e-03 1.024057e-02 3.179811e-03 1.128576e-02 8.187794e-03 1.687473e-02 2.062753e-02 2.440304e-02 3.234038e-02 2.371782e-02 5.344036e-04 1.556060e-03 9.387080e-04 8.105604e-04 3.479324e-04 1.117812e-03 8.253451e-04 1.994065e-03 1.874133e-03 2.215936e-03 3.336885e-03 2.300992e-03 1.505024e-03 1.730423e-03 1.645698e-03 2.686259e-01 2.659261e-01 3.129261e-01
<GCONST> -9.233039e+01
<STATE> 33
<MEAN> 42
 7.320591e-02 9.617482e-02 2.094810e-02 -8.005235e-02 2.800851e-02 5.984909e-02 -3.727621e-02 8.558389e-02 1.308260e-01 1.197393e-01 1.269824e-01 1.263252e-01 9.373898e-04 1.123306e-03 1.838144e-04 -1.039245e-03 3.877277e-04 6.566261e-04 5.198958e-03 9.994641e-03 8.620542e-03 5.164481e-03 3.385342e-03 1.739909e-03 3.251402e-04 4.219518e-04 9.421333e-05 -3.714635e-04 1.134264e-04 2.618668e-04 -5.969565e-04 -8.545339e-04 -8.675244e-04 -4.347868e-05 3.629508e-04 5.141501e-04 5.708302e-03 -4.780860e-03 6.568677e-04 1.090133e-01 5.970657e-02 -2.567397e-02
<VARIANCE> 42
 1.873892e-02 3.460823e-02 1.192313e-02 2.355416e-02 6.449404e-03 1.903751e-02 2.995333e-02 8.098447e-02 9.613293e-02 8.232864e-02 8.343011e-02 6.485663e-02 2.732502e-04 2.450500e-04 2.659871e-04 1.929257e-04 2.086287e-04 1.880244e-04 3.990548e-04 9.382417e-04 1.177144e-03 5.791717e-04 3.949104e-04 2.799351e-04 4.811179e-05 4.680123e-05 5.263107e-05 3.428730e-05 3.881593e-05 3.770239e-05 2.869401e-05 6.381350e-05 6.370688e-05 6.312970e-05 5.514615e-05 3.703368e-05 1.992569e-04 3.292039e-04 3.557177e-04 4.680334e-02 1.874477e-02 3.247150e-02
<GCONST> -2.135787e+02
<STATE> 34
<MEAN> 42
 3.737818e-02 2.350768e-02 -2.071165e-02 -3.242700e-02 2.801808e-02 -4.646692e-03 -2.211638e-03 2.845531e-02 4.801841e-02 2.615512e-02 2.203042e-02 4.988244e-02 9.582962e-05 8.384537e-05 -1.181649e-05 -8.920888e-05 5.453750e-05 3.698497e-05 1.060969e-04 -3.279548e-05 3.171161e-04 1.773386e-04 1.803287e-04 1.100565e-04 2.150282e-05 1.668142e-05 -4.721709e-06 -1.924083e-05 1.407657e-05 6.594013e-06 -2.433067e-05 -4.269008e-05 -4.461210e-06 1.885763e-06 1.478224e-05 1.642689e-05 -2.066389e-05 3.318840e-04 3.886120e-03 3.071319e-02 9.331964e-03 -1.195582e-02
<VARIANCE> 42
 1.669163e-02 4.129079e-03 8.985712e-03 8.251545e-03 1.190538e-02 2.304622e-03 8.901462e-03 4.368915e+00 7.151987e-02 9.278182e-01 2.796708e-02 4.534591e-02 6.884132e-04 9.026684e-05 5.093045e-04 2.620486e-04 5.804168e-04 1.273565e-04 1.297077e-04 3.315555e-01 5.949382e-04 1.456102e-01 5.926593e-04 5.755784e-04 1.068721e-04 2.208156e-05 1.036919e-04 3.856801e-05 1.003549e-04 3.613789e-05 2.075621e-05 1.268972e-01 4.216744e-05 5.454466e-02 5.827885e-05 5.608748e-05 1.891494e-04 2.080376e-04 1.910033e-04 8.561999e-02 3.958750e-03 4.342767e-01
<GCONST> -1.866204e+02
<TRANSP> 35
 0.000000e+00 1.000000e+00 0.000000e+00 0.000000e+00 0.000000e+00 0.000000e+00 0.000000e+00 0.000000e+00 0.000000e+00 0.000000e+00 0.000000e+00 0.000000e+00 0.000000e+00 0.000000e+00 0.000000e+00 0.000000e+00 0.000000e+00 0.000000e+00 0.000000e+00 0.000000e+00 0.000000e+00 0.000000e+00 0.000000e+00 0.000000e+00 0.000000e+00 0.000000e+00 0.000000e+00 0.000000e+00 0.000000e+00 0.000000e+00 0.000000e+00 0.000000e+00 0.000000e+00 0.000000e+00 0.000000e+00
 0.000000e+00 9.919249e-01 8.075031e-03 0.000000e+00 0.000000e+00 0.000000e+00 0.000000e+00 0.000000e+00 0.000000e+00 0.000000e+00 0.000000e+00 0.000000e+00 0.000000e+00 0.000000e+00 0.000000e+00 0.000000e+00 0.000000e+00 0.000000e+00 0.000000e+00 0.000000e+00 0.000000e+00 0.000000e+00 0.000000e+00 0.000000e+00 0.000000e+00 0.000000e+00 0.000000e+00 0.000000e+00 0.000000e+00 0.000000e+00 0.000000e+00 0.000000e+00 0.000000e+00 0.000000e+00 0.000000e+00
 0.000000e+00 0.000000e+00 9.858472e-01 1.415284e-02 0.000000e+00 0.000000e+00 0.000000e+00 0.000000e+00 0.000000e+00 0.000000e+00 0.000000e+00 0.000000e+00 0.000000e+00 0.000000e+00 0.000000e+00 0.000000e+00 0.000000e+00 0.000000e+00 0.000000e+00 0.000000e+00 0.000000e+00 0.000000e+00 0.000000e+00 0.000000e+00 0.000000e+00 0.000000e+00 0.000000e+00 0.000000e+00 0.000000e+00 0.000000e+00 0.000000e+00 0.000000e+00 0.000000e+00 0.000000e+00 0.000000e+00
 0.000000e+00 0.000000e+00 0.000000e+00 9.995159e-01 4.840643e-04 0.000000e+00 0.000000e+00 0.000000e+00 0.000000e+00 0.000000e+00 0.000000e+00 0.000000e+00 0.000000e+00 0.000000e+00 0.000000e+00 0.000000e+00 0.000000e+00 0.000000e+00 0.000000e+00 0.000000e+00 0.000000e+00 0.000000e+00 0.000000e+00 0.000000e+00 0.000000e+00 0.000000e+00 0.000000e+00 0.000000e+00 0.000000e+00 0.000000e+00 0.000000e+00 0.000000e+00 0.000000e+00 0.000000e+00 0.000000e+00
 0.000000e+00 0.000000e+00 0.000000e+00 0.000000e+00 9.951137e-01 4.886323e-03 0.000000e+00 0.000000e+00 0.000000e+00 0.000000e+00 0.000000e+00 0.000000e+00 0.000000e+00 0.000000e+00 0.000000e+00 0.000000e+00 0.000000e+00 0.000000e+00 0.000000e+00 0.000000e+00 0.000000e+00 0.000000e+00 0.000000e+00 0.000000e+00 0.000000e+00 0.000000e+00 0.000000e+00 0.000000e+00 0.000000e+00 0.000000e+00 0.000000e+00 0.000000e+00 0.000000e+00 0.000000e+00 0.000000e+00
 0.000000e+00 0.000000e+00 0.000000e+00 0.000000e+00 0.000000e+00 9.242249e-01 7.577515e-02 0.000000e+00 0.000000e+00 0.000000e+00 0.000000e+00 0.000000e+00 0.000000e+00 0.000000e+00 0.000000e+00 0.000000e+00 0.000000e+00 0.000000e+00 0.000000e+00 0.000000e+00 0.000000e+00 0.000000e+00 0.000000e+00 0.000000e+00 0.000000e+00 0.000000e+00 0.000000e+00 0.000000e+00 0.000000e+00 0.000000e+00 0.000000e+00 0.000000e+00 0.000000e+00 0.000000e+00 0.000000e+00
 0.000000e+00 0.000000e+00 0.000000e+00 0.000000e+00 0.000000e+00 0.000000e+00 9.715897e-01 2.841024e-02 0.000000e+00 0.000000e+00 0.000000e+00 0.000000e+00 0.000000e+00 0.000000e+00 0.000000e+00 0.000000e+00 0.000000e+00 0.000000e+00 0.000000e+00 0.000000e+00 0.000000e+00 0.000000e+00 0.000000e+00 0.000000e+00 0.000000e+00 0.000000e+00 0.000000e+00 0.000000e+00 0.000000e+00 0.000000e+00 0.000000e+00 0.000000e+00 0.000000e+00 0.000000e+00 0.000000e+00
 0.000000e+00 0.000000e+00 0.000000e+00 0.000000e+00 0.000000e+00 0.000000e+00 0.000000e+00 9.890731e-01 1.092692e-02 0.000000e+00 0.000000e+00 0.000000e+00 0.000000e+00 0.000000e+00 0.000000e+00 0.000000e+00 0.000000e+00 0.000000e+00 0.000000e+00 0.000000e+00 0.000000e+00 0.000000e+00 0.000000e+00 0.000000e+00 0.000000e+00 0.000000e+00 0.000000e+00 0.000000e+00 0.000000e+00 0.000000e+00 0.000000e+00 0.000000e+00 0.000000e+00 0.000000e+00 0.000000e+00
 0.000000e+00 0.000000e+00 0.000000e+00 0.000000e+00 0.000000e+00 0.000000e+00 0.000000e+00 0.000000e+00 9.954641e-01 4.535852e-03 0.000000e+00 0.000000e+00 0.000000e+00 0.000000e+00 0.000000e+00 0.000000e+00 0.000000e+00 0.000000e+00 0.000000e+00 0.000000e+00 0.000000e+00 0.000000e+00 0.000000e+00 0.000000e+00 0.000000e+00 0.000000e+00 0.000000e+00 0.000000e+00 0.000000e+00 0.000000e+00 0.000000e+00 0.000000e+00 0.000000e+00 0.000000e+00 0.000000e+00
 0.000000e+00 0.000000e+00 0.000000e+00 0.000000e+00 0.000000e+00 0.000000e+00 0.000000e+00 0.000000e+00 0.000000e+00 9.783967e-01 2.160328e-02 0.000000e+00 0.000000e+00 0.000000e+00 0.000000e+00 0.000000e+00 0.000000e+00 0.000000e+00 0.000000e+00 0.000000e+00 0.000000e+00 0.000000e+00 0.000000e+00 0.000000e+00 0.000000e+00 0.000000e+00 0.000000e+00 0.000000e+00 0.000000e+00 0.000000e+00 0.000000e+00 0.000000e+00 0.000000e+00 0.000000e+00 0.000000e+00
 0.000000e+00 0.000000e+00 0.000000e+00 0.000000e+00 0.000000e+00 0.000000e+00 0.000000e+00 0.000000e+00 0.000000e+00 0.000000e+00 8.303323e-01 1.696677e-01 0.000000e+00 0.000000e+00 0.000000e+00 0.000000e+00 0.000000e+00 0.000000e+00 0.000000e+00 0.000000e+00 0.000000e+00 0.000000e+00 0.000000e+00 0.000000e+00 0.000000e+00 0.000000e+00 0.000000e+00 0.000000e+00 0.000000e+00 0.000000e+00 0.000000e+00 0.000000e+00 0.000000e+00 0.000000e+00 0.000000e+00
 0.000000e+00 0.000000e+00 0.000000e+00 0.000000e+00 0.000000e+00 0.000000e+00 0.000000e+00 0.000000e+00 0.000000e+00 0.000000e+00 0.000000e+00 6.734821e-01 3.265179e-01 0.000000e+00 0.000000e+00 0.000000e+00 0.000000e+00 0.000000e+00 0.000000e+00 0.000000e+00 0.000000e+00 0.000000e+00 0.000000e+00 0.000000e+00 0.000000e+00 0.000000e+00 0.000000e+00 0.000000e+00 0.000000e+00 0.000000e+00 0.000000e+00 0.000000e+00 0.000000e+00 0.000000e+00 0.000000e+00
 0.000000e+00 0.000000e+00 0.000000e+00 0.000000e+00 0.000000e+00 0.000000e+00 0.000000e+00 0.000000e+00 0.000000e+00 0.000000e+00 0.000000e+00 0.000000e+00 2.433284e-01 7.566716e-01 0.000000e+00 0.000000e+00 0.000000e+00 0.000000e+00 0.000000e+00 0.000000e+00 0.000000e+00 0.000000e+00 0.000000e+00 0.000000e+00 0.000000e+00 0.000000e+00 0.000000e+00 0.000000e+00 0.000000e+00 0.000000e+00 0.000000e+00 0.000000e+00 0.000000e+00 0.000000e+00 0.000000e+00
 0.000000e+00 0.000000e+00 0.000000e+00 0.000000e+00 0.000000e+00 0.000000e+00 0.000000e+00 0.000000e+00 0.000000e+00 0.000000e+00 0.000000e+00 0.000000e+00 0.000000e+00 8.506706e-01 1.493294e-01 0.000000e+00 0.000000e+00 0.000000e+00 0.000000e+00 0.000000e+00 0.000000e+00 0.000000e+00 0.000000e+00 0.000000e+00 0.000000e+00 0.000000e+00 0.000000e+00 0.000000e+00 0.000000e+00 0.000000e+00 0.000000e+00 0.000000e+00 0.000000e+00 0.000000e+00 0.000000e+00
 0.000000e+00 0.000000e+00 0.000000e+00 0.000000e+00 0.000000e+00 0.000000e+00 0.000000e+00 0.000000e+00 0.000000e+00 0.000000e+00 0.000000e+00 0.000000e+00 0.000000e+00 0.000000e+00 9.035921e-01 9.640790e-02 0.000000e+00 0.000000e+00 0.000000e+00 0.000000e+00 0.000000e+00 0.000000e+00 0.000000e+00 0.000000e+00 0.000000e+00 0.000000e+00 0.000000e+00 0.000000e+00 0.000000e+00 0.000000e+00 0.000000e+00 0.000000e+00 0.000000e+00 0.000000e+00 0.000000e+00
 0.000000e+00 0.000000e+00 0.000000e+00 0.000000e+00 0.000000e+00 0.000000e+00 0.000000e+00 0.000000e+00 0.000000e+00 0.000000e+00 0.000000e+00 0.000000e+00 0.000000e+00 0.000000e+00 0.000000e+00 8.772554e-01 1.227446e-01 0.000000e+00 0.000000e+00 0.000000e+00 0.000000e+00 0.000000e+00 0.000000e+00 0.000000e+00 0.000000e+00 0.000000e+00 0.000000e+00 0.000000e+00 0.000000e+00 0.000000e+00 0.000000e+00 0.000000e+00 0.000000e+00 0.000000e+00 0.000000e+00
 0.000000e+00 0.000000e+00 0.000000e+00 0.000000e+00 0.000000e+00 0.000000e+00 0.000000e+00 0.000000e+00 0.000000e+00 0.000000e+00 0.000000e+00 0.000000e+00 0.000000e+00 0.000000e+00 0.000000e+00 0.000000e+00 9.845444e-01 1.545563e-02 0.000000e+00 0.000000e+00 0.000000e+00 0.000000e+00 0.000000e+00 0.000000e+00 0.000000e+00 0.000000e+00 0.000000e+00 0.000000e+00 0.000000e+00 0.000000e+00 0.000000e+00 0.000000e+00 0.000000e+00 0.000000e+00 0.000000e+00
 0.000000e+00 0.000000e+00 0.000000e+00 0.000000e+00 0.000000e+00 0.000000e+00 0.000000e+00 0.000000e+00 0.000000e+00 0.000000e+00 0.000000e+00 0.000000e+00 0.000000e+00 0.000000e+00 0.000000e+00 0.000000e+00 0.000000e+00 8.028386e-01 1.971614e-01 0.000000e+00 0.000000e+00 0.000000e+00 0.000000e+00 0.000000e+00 0.000000e+00 0.000000e+00 0.000000e+00 0.000000e+00 0.000000e+00 0.000000e+00 0.000000e+00 0.000000e+00 0.000000e+00 0.000000e+00 0.000000e+00
 0.000000e+00 0.000000e+00 0.000000e+00 0.000000e+00 0.000000e+00 0.000000e+00 0.000000e+00 0.000000e+00 0.000000e+00 0.000000e+00 0.000000e+00 0.000000e+00 0.000000e+00 0.000000e+00 0.000000e+00 0.000000e+00 0.000000e+00 0.000000e+00 8.742266e-01 1.257734e-01 0.000000e+00 0.000000e+00 0.000000e+00 0.000000e+00 0.000000e+00 0.000000e+00 0.000000e+00 0.000000e+00 0.000000e+00 0.000000e+00 0.000000e+00 0.000000e+00 0.000000e+00 0.000000e+00 0.000000e+00
 0.000000e+00 0.000000e+00 0.000000e+00 0.000000e+00 0.000000e+00 0.000000e+00 0.000000e+00 0.000000e+00 0.000000e+00 0.000000e+00 0.000000e+00 0.000000e+00 0.000000e+00 0.000000e+00 0.000000e+00 0.000000e+00 0.000000e+00 0.000000e+00 0.000000e+00 9.798873e-01 2.011275e-02 0.000000e+00 0.000000e+00 0.000000e+00 0.000000e+00 0.000000e+00 0.000000e+00 0.000000e+00 0.000000e+00 0.000000e+00 0.000000e+00 0.000000e+00 0.000000e+00 0.000000e+00 0.000000e+00
 0.000000e+00 0.000000e+00 0.000000e+00 0.000000e+00 0.000000e+00 0.000000e+00 0.000000e+00 0.000000e+00 0.000000e+00 0.000000e+00 0.000000e+00 0.000000e+00 0.000000e+00 0.000000e+00 0.000000e+00 0.000000e+00 0.000000e+00 0.000000e+00 0.000000e+00 0.000000e+00 9.913329e-01 8.667073e-03 0.000000e+00 0.000000e+00 0.000000e+00 0.000000e+00 0.000000e+00 0.000000e+00 0.000000e+00 0.000000e+00 0.000000e+00 0.000000e+00 0.000000e+00 0.000000e+00 0.000000e+00
 0.000000e+00 0.000000e+00 0.000000e+00 0.000000e+00 0.000000e+00 0.000000e+00 0.000000e+00 0.000000e+00 0.000000e+00 0.000000e+00 0.000000e+00 0.000000e+00 0.000000e+00 0.000000e+00 0.000000e+00 0.000000e+00 0.000000e+00 0.000000e+00 0.000000e+00 0.000000e+00 0.000000e+00 9.958380e-01 4.161969e-03 0.000000e+00 0.000000e+00 0.000000e+00 0.000000e+00 0.000000e+00 0.000000e+00 0.000000e+00 0.000000e+00 0.000000e+00 0.000000e+00 0.000000e+00 0.000000e+00
 0.000000e+00 0.000000e+00 0.000000e+00 0.000000e+00 0.000000e+00 0.000000e+00 0.000000e+00 0.000000e+00 0.000000e+00 0.000000e+00 0.000000e+00 0.000000e+00 0.000000e+00 0.000000e+00 0.000000e+00 0.000000e+00 0.000000e+00 0.000000e+00 0.000000e+00 0.000000e+00 0.000000e+00 0.000000e+00 9.862951e-01 1.370487e-02 0.000000e+00 0.000000e+00 0.000000e+00 0.000000e+00 0.000000e+00 0.000000e+00 0.000000e+00 0.000000e+00 0.000000e+00 0.000000e+00 0.000000e+00
 0.000000e+00 0.000000e+00 0.000000e+00 0.000000e+00 0.000000e+00 0.000000e+00 0.000000e+00 0.000000e+00 0.000000e+00 0.000000e+00 0.000000e+00 0.000000e+00 0.000000e+00 0.000000e+00 0.000000e+00 0.000000e+00 0.000000e+00 0.000000e+00 0.000000e+00 0.000000e+00 0.000000e+00 0.000000e+00 0.000000e+00 9.958174e-01 4.182573e-03 0.000000e+00 0.000000e+00 0.000000e+00 0.000000e+00 0.000000e+00 0.000000e+00 0.000000e+00 0.000000e+00 0.000000e+00 0.000000e+00
 0.000000e+00 0.000000e+00 0.000000e+00 0.000000e+00 0.000000e+00 0.000000e+00 0.000000e+00 0.000000e+00 0.000000e+00 0.000000e+00 0.000000e+00 0.000000e+00 0.000000e+00 0.000000e+00 0.000000e+00 0.000000e+00 0.000000e+00 0.000000e+00 0.000000e+00 0.000000e+00 0.000000e+00 0.000000e+00 0.000000e+00 0.000000e+00 9.847144e-01 1.528557e-02 0.000000e+00 0.000000e+00 0.000000e+00 0.000000e+00 0.000000e+00 0.000000e+00 0.000000e+00 0.000000e+00 0.000000e+00
 0.000000e+00 0.000000e+00 0.000000e+00 0.000000e+00 0.000000e+00 0.000000e+00 0.000000e+00 0.000000e+00 0.000000e+00 0.000000e+00 0.000000e+00 0.000000e+00 0.000000e+00 0.000000e+00 0.000000e+00 0.000000e+00 0.000000e+00 0.000000e+00 0.000000e+00 0.000000e+00 0.000000e+00 0.000000e+00 0.000000e+00 0.000000e+00 0.000000e+00 9.951001e-01 4.899897e-03 0.000000e+00 0.000000e+00 0.000000e+00 0.000000e+00 0.000000e+00 0.000000e+00 0.000000e+00 0.000000e+00
 0.000000e+00 0.000000e+00 0.000000e+00 0.000000e+00 0.000000e+00 0.000000e+00 0.000000e+00 0.000000e+00 0.000000e+00 0.000000e+00 0.000000e+00 0.000000e+00 0.000000e+00 0.000000e+00 0.000000e+00 0.000000e+00 0.000000e+00 0.000000e+00 0.000000e+00 0.000000e+00 0.000000e+00 0.000000e+00 0.000000e+00 0.000000e+00 0.000000e+00 0.000000e+00 9.384698e-01 6.153015e-02 0.000000e+00 0.000000e+00 0.000000e+00 0.000000e+00 0.000000e+00 0.000000e+00 0.000000e+00
 0.000000e+00 0.000000e+00 0.000000e+00 0.000000e+00 0.000000e+00 0.000000e+00 0.000000e+00 0.000000e+00 0.000000e+00 0.000000e+00 0.000000e+00 0.000000e+00 0.000000e+00 0.000000e+00 0.000000e+00 0.000000e+00 0.000000e+00 0.000000e+00 0.000000e+00 0.000000e+00 0.000000e+00 0.000000e+00 0.000000e+00 0.000000e+00 0.000000e+00 0.000000e+00 0.000000e+00 9.824148e-01 1.758521e-02 0.000000e+00 0.000000e+00 0.000000e+00 0.000000e+00 0.000000e+00 0.000000e+00
 0.000000e+00 0.000000e+00 0.000000e+00 0.000000e+00 0.000000e+00 0.000000e+00 0.000000e+00 0.000000e+00 0.000000e+00 0.000000e+00 0.000000e+00 0.000000e+00 0.000000e+00 0.000000e+00 0.000000e+00 0.000000e+00 0.000000e+00 0.000000e+00 0.000000e+00 0.000000e+00 0.000000e+00 0.000000e+00 0.000000e+00 0.000000e+00 0.000000e+00 0.000000e+00 0.000000e+00 0.000000e+00 9.954072e-01 4.592811e-03 0.000000e+00 0.000000e+00 0.000000e+00 0.000000e+00 0.000000e+00
 0.000000e+00 0.000000e+00 0.000000e+00 0.000000e+00 0.000000e+00 0.000000e+00 0.000000e+00 0.000000e+00 0.000000e+00 0.000000e+00 0.000000e+00 0.000000e+00 0.000000e+00 0.000000e+00 0.000000e+00 0.000000e+00 0.000000e+00 0.000000e+00 0.000000e+00 0.000000e+00 0.000000e+00 0.000000e+00 0.000000e+00 0.000000e+00 0.000000e+00 0.000000e+00 0.000000e+00 0.000000e+00 0.000000e+00 9.594080e-01 4.059205e-02 0.000000e+00 0.000000e+00 0.000000e+00 0.000000e+00
 0.000000e+00 0.000000e+00 0.000000e+00 0.000000e+00 0.000000e+00 0.000000e+00 0.000000e+00 0.000000e+00 0.000000e+00 0.000000e+00 0.000000e+00 0.000000e+00 0.000000e+00 0.000000e+00 0.000000e+00 0.000000e+00 0.000000e+00 0.000000e+00 0.000000e+00 0.000000e+00 0.000000e+00 0.000000e+00 0.000000e+00 0.000000e+00 0.000000e+00 0.000000e+00 0.000000e+00 0.000000e+00 0.000000e+00 0.000000e+00 7.095200e-01 2.904799e-01 0.000000e+00 0.000000e+00 0.000000e+00
 0.000000e+00 0.000000e+00 0.000000e+00 0.000000e+00 0.000000e+00 0.000000e+00 0.000000e+00 0.000000e+00 0.000000e+00 0.000000e+00 0.000000e+00 0.000000e+00 0.000000e+00 0.000000e+00 0.000000e+00 0.000000e+00 0.000000e+00 0.000000e+00 0.000000e+00 0.000000e+00 0.000000e+00 0.000000e+00 0.000000e+00 0.000000e+00 0.000000e+00 0.000000e+00 0.000000e+00 0.000000e+00 0.000000e+00 0.000000e+00 0.000000e+00 9.076952e-01 9.230476e-02 0.000000e+00 0.000000e+00
 0.000000e+00 0.000000e+00 0.000000e+00 0.000000e+00 0.000000e+00 0.000000e+00 0.000000e+00 0.000000e+00 0.000000e+00 0.000000e+00 0.000000e+00 0.000000e+00 0.000000e+00 0.000000e+00 0.000000e+00 0.000000e+00 0.000000e+00 0.000000e+00 0.000000e+00 0.000000e+00 0.000000e+00 0.000000e+00 0.000000e+00 0.000000e+00 0.000000e+00 0.000000e+00 0.000000e+00 0.000000e+00 0.000000e+00 0.000000e+00 0.000000e+00 0.000000e+00 9.631293e-01 3.687066e-02 0.000000e+00
 0.000000e+00 0.000000e+00 0.000000e+00 0.000000e+00 0.000000e+00 0.000000e+00 0.000000e+00 0.000000e+00 0.000000e+00 0.000000e+00 0.000000e+00 0.000000e+00 0.000000e+00 0.000000e+00 0.000000e+00 0.000000e+00 0.000000e+00 0.000000e+00 0.000000e+00 0.000000e+00 0.000000e+00 0.000000e+00 0.000000e+00 0.000000e+00 0.000000e+00 0.000000e+00 0.000000e+00 0.000000e+00 0.000000e+00 0.000000e+00 0.000000e+00 0.000000e+00 0.000000e+00 9.941627e-01 5.837341e-03
 0.000000e+00 0.000000e+00 0.000000e+00 0.000000e+00 0.000000e+00 0.000000e+00 0.000000e+00 0.000000e+00 0.000000e+00 0.000000e+00 0.000000e+00 0.000000e+00 0.000000e+00 0.000000e+00 0.000000e+00 0.000000e+00 0.000000e+00 0.000000e+00 0.000000e+00 0.000000e+00 0.000000e+00 0.000000e+00 0.000000e+00 0.000000e+00 0.000000e+00 0.000000e+00 0.000000e+00 0.000000e+00 0.000000e+00 0.000000e+00 0.000000e+00 0.000000e+00 0.000000e+00 0.000000e+00 0.000000e+00
<ENDHMM>
