~o
<STREAMINFO> 1 42
<VECSIZE> 42<NULLD><USER><DIAGC>
~h "CONTROL"
<BEGINHMM>
<NUMSTATES> 30
<STATE> 2
<NUMMIXES> 4
<MIXTURE> 1 1.577902e-01
<MEAN> 42
 7.919987e-02 1.036543e-01 1.667897e-02 -9.064890e-02 3.225442e-02 5.663504e-02 -3.029563e-02 2.221280e-02 8.087214e-02 1.158722e-01 1.242946e-01 1.124900e-01 3.840856e-05 2.572635e-03 2.538716e-03 -1.316449e-03 -1.213792e-03 2.556381e-03 8.186980e-04 4.835448e-04 9.526077e-04 1.797868e-03 1.957813e-03 1.955754e-03 -1.328096e-04 8.746416e-04 1.009281e-03 -3.715438e-04 -5.561346e-04 9.522708e-04 8.876590e-04 8.355251e-04 8.550909e-04 9.410934e-04 8.536155e-04 7.912766e-04 6.068815e-03 2.109005e-03 2.062441e-03 1.030480e-01 7.118802e-02 4.157540e-03
<VARIANCE> 42
 2.337330e-03 5.107013e-03 3.485830e-03 2.765581e-03 1.407676e-03 3.406490e-03 3.784233e-03 1.237827e-02 1.747994e-02 6.037063e-03 7.065895e-03 7.079422e-03 7.013923e-05 6.138096e-05 6.086938e-05 5.050337e-05 4.997919e-05 4.414256e-05 2.321735e-05 7.374013e-05 2.445808e-05 4.065752e-05 2.461234e-05 2.331073e-05 2.326393e-05 1.939684e-05 2.688292e-05 1.468350e-05 2.013250e-05 1.751803e-05 5.040675e-06 2.601508e-05 4.220275e-06 1.211414e-05 5.455735e-06 4.425467e-06 2.601775e-05 2.019525e-04 3.197583e-04 2.820859e-03 3.750944e-03 4.691579e-03
<GCONST> -2.877263e+02
<MIXTURE> 2 3.412442e-01
<MEAN> 42
 3.165197e-03 6.279473e-03 -2.872875e-03 -3.948757e-03 1.945154e-03 -1.316466e-03 2.541789e-04 9.550134e-03 9.667816e-03 6.819189e-03 4.211557e-04 5.005151e-03 7.266148e-04 1.321983e-03 5.998199e-04 -1.026783e-03 5.490985e-05 9.554181e-04 7.511759e-04 7.911753e-04 8.088389e-04 7.360817e-04 8.119104e-04 7.986340e-04 3.873032e-04 7.296822e-04 3.502324e-04 -5.594494e-04 2.651091e-05 5.391508e-04 3.713339e-04 4.746063e-04 5.388128e-04 5.497516e-04 5.356254e-04 5.092808e-04 2.562158e-04 -4.148658e-04 -3.825359e-04 3.506916e-03 3.767128e-03 -4.552781e-03
<VARIANCE> 42
 3.999060e-04 6.213614e-04 5.512389e-04 4.022666e-04 3.209575e-04 5.803046e-04 6.185842e-04 1.370589e-03 1.239722e-03 6.584055e-04 4.191562e-04 9.490979e-04 2.380366e-05 1.870678e-05 1.910816e-05 1.666787e-05 1.670062e-05 1.285849e-05 6.469847e-06 7.374013e-05 9.872299e-06 4.065752e-05 1.131955e-05 9.413157e-06 9.140112e-06 6.726124e-06 6.758215e-06 6.263689e-06 6.199631e-06 4.433655e-06 1.810956e-06 2.601508e-05 1.979947e-06 1.211414e-05 1.983590e-06 1.945630e-06 2.503737e-06 1.074018e-05 4.312941e-05 2.770860e-04 4.006008e-04 3.515494e-04
<GCONST> -3.478797e+02
<MIXTURE> 3 2.946461e-01
<MEAN> 42
 -5.950283e-03 -1.515417e-02 -1.571276e-02 1.153706e-02 4.607148e-03 -1.966034e-02 1.891269e-04 3.778282e-03 -8.284713e-03 -1.251455e-02 -1.867568e-02 -1.620159e-02 -1.149824e-03 -1.835324e-03 -6.908239e-04 1.494172e-03 -2.335259e-04 -1.250128e-03 -5.770297e-04 -9.074286e-04 -1.048823e-03 -1.245104e-03 -1.223740e-03 -1.325367e-03 -2.724194e-04 -6.726753e-04 -4.048187e-04 4.726287e-04 5.591643e-05 -5.376764e-04 -4.373347e-04 -4.506654e-04 -5.001679e-04 -4.980942e-04 -4.783368e-04 -4.352040e-04 -7.383550e-04 6.224187e-04 -2.143427e-03 -1.259702e-02 -1.254195e-02 -2.841692e-03
<VARIANCE> 42
 3.632656e-04 6.791863e-04 5.676214e-04 3.790627e-04 3.181982e-04 6.116307e-04 7.869304e-04 1.370589e-03 8.634234e-04 7.355137e-04 5.228415e-04 9.617832e-04 2.137959e-05 1.840078e-05 1.732718e-05 1.564387e-05 1.484839e-05 1.261667e-05 5.999861e-06 7.374013e-05 9.872299e-06 4.065752e-05 1.131955e-05 8.494042e-06 8.901604e-06 6.902261e-06 7.023520e-06 6.173818e-06 6.273352e-06 4.747228e-06 1.946903e-06 2.601508e-05 2.199729e-06 1.211414e-05 2.211649e-06 2.061992e-06 4.009514e-06 9.672881e-06 3.994657e-05 3.803324e-04 4.726035e-04 4.013061e-04
<GCONST> -3.468966e+02
<MIXTURE> 4 2.063201e-01
<MEAN> 42
 5.319497e-02 6.640130e-02 5.924009e-03 -6.095742e-02 2.482381e-02 3.171158e-02 -3.071682e-02 -8.020368e-03 4.084206e-02 6.602198e-02 7.121768e-02 7.165277e-02 -5.435245e-05 -1.823793e-03 -1.771781e-03 9.522988e-04 8.357450e-04 -1.813164e-03 -1.203579e-03 -2.180687e-03 -2.681172e-03 -2.266183e-03 -2.164806e-03 -1.864336e-03 -1.524967e-04 -1.000472e-03 -8.534016e-04 5.785174e-04 3.396790e-04 -9.367507e-04 -6.445859e-04 -7.853903e-04 -8.884957e-04 -9.699192e-04 -9.350863e-04 -8.859832e-04 4.753463e-03 2.606167e-04 -3.413400e-04 6.466665e-02 4.580173e-02 1.491264e-02
<VARIANCE> 42
 2.409138e-03 5.372940e-03 4.160419e-03 2.656667e-03 1.708161e-03 4.123365e-03 2.685345e-03 9.751053e-03 6.356591e-03 5.301076e-03 5.338714e-03 7.818261e-03 6.862120e-05 5.291678e-05 5.899909e-05 4.603568e-05 5.037596e-05 3.916464e-05 2.539317e-05 7.374013e-05 2.668199e-05 4.065752e-05 2.737061e-05 2.338274e-05 2.518654e-05 1.691889e-05 2.223087e-05 1.553009e-05 1.929074e-05 1.344605e-05 4.335503e-06 2.601508e-05 4.827620e-06 1.211414e-05 4.655521e-06 4.523639e-06 2.126458e-05 8.560144e-05 2.509827e-04 2.772552e-03 3.976815e-03 2.483111e-03
<GCONST> -2.916968e+02
<STATE> 3
<NUMMIXES> 4
<MIXTURE> 1 1.236211e-01
<MEAN> 42
 6.322645e-02 8.115505e-02 1.858382e-02 -7.029152e-02 2.587401e-02 4.513926e-02 -6.079365e-02 -6.977594e-03 2.161168e-02 4.317896e-02 7.694551e-02 4.355658e-02 2.719984e-03 5.806222e-03 3.086626e-03 -4.262417e-03 -1.789957e-04 4.535188e-03 2.768577e-03 3.851125e-03 4.119657e-03 4.541231e-03 5.402776e-03 4.349415e-03 -4.166225e-04 1.102807e-03 1.513023e-03 -3.445598e-04 -9.821575e-04 1.350689e-03 2.161621e-03 2.298891e-03 2.237827e-03 2.039086e-03 2.440909e-03 1.810375e-03 5.924828e-03 3.625906e-03 1.452953e-03 5.947554e-02 5.630428e-02 2.665301e-02
<VARIANCE> 42
 6.279819e-03 4.094925e-03 2.238353e-03 4.622259e-03 3.013081e-03 1.561564e-03 1.368837e-02 1.370589e-03 4.838177e-03 5.641028e-03 1.315928e-02 4.705238e-03 1.599593e-04 1.223809e-04 1.019953e-04 1.158580e-04 1.007957e-04 7.338931e-05 5.118111e-05 7.374013e-05 4.693736e-05 4.065752e-05 1.534852e-04 3.167790e-05 5.153607e-05 3.583781e-05 3.747458e-05 3.433887e-05 3.601393e-05 2.430276e-05 1.073214e-05 2.601508e-05 1.107151e-05 1.211414e-05 2.844661e-05 9.771826e-06 6.530434e-05 8.146648e-05 2.274251e-04 6.840832e-03 1.632265e-03 9.447954e-04
<GCONST> -2.755243e+02
<MIXTURE> 2 3.885219e-01
<MEAN> 42
 8.091175e-04 6.112633e-03 7.360893e-03 3.320929e-04 3.965506e-04 3.714916e-03 2.512295e-03 -6.669745e-03 2.096426e-03 2.088524e-03 1.369604e-02 4.750212e-03 -4.715366e-04 6.606401e-04 1.131393e-03 -9.323261e-05 -8.003758e-04 9.093069e-04 1.515687e-03 1.236302e-03 1.388057e-03 1.197247e-03 1.988642e-03 8.987237e-04 6.976535e-04 9.338565e-04 2.332439e-04 -8.163551e-04 2.364183e-04 5.801609e-04 5.429849e-04 8.595833e-04 8.530010e-04 6.113330e-04 7.929666e-04 5.647108e-04 1.258700e-04 9.913059e-04 1.695550e-03 5.059632e-03 6.029535e-03 2.752610e-03
<VARIANCE> 42
 6.675948e-04 1.075449e-03 7.574048e-04 6.237285e-04 3.977207e-04 7.048508e-04 8.156155e-04 1.370589e-03 6.775413e-04 6.537745e-04 2.989709e-03 5.748923e-04 1.094162e-04 6.650534e-05 7.181183e-05 6.995295e-05 7.410232e-05 4.262962e-05 1.967421e-05 7.374013e-05 2.524649e-05 4.065752e-05 7.738025e-05 2.067590e-05 4.245720e-05 2.945155e-05 2.945964e-05 2.859641e-05 2.861234e-05 1.927837e-05 7.312542e-06 2.601508e-05 8.896610e-06 1.211414e-05 2.740222e-05 7.889641e-06 2.162179e-06 2.805782e-05 7.839829e-05 2.970437e-04 6.825610e-04 2.838487e-04
<GCONST> -3.137979e+02
<MIXTURE> 3 2.919792e-01
<MEAN> 42
 -1.155897e-02 -1.492216e-02 -2.750025e-03 1.595628e-02 -7.994587e-04 -1.270621e-02 -6.399889e-03 -1.490935e-02 -1.214326e-02 -1.608951e-02 -2.380600e-02 -1.391843e-02 -1.595796e-03 -4.469336e-03 -2.883849e-03 3.038657e-03 6.330741e-04 -3.738337e-03 -1.317568e-03 -2.509609e-03 -3.313270e-03 -3.807137e-03 -4.824933e-03 -3.779165e-03 -8.102285e-05 -7.405930e-04 -6.591973e-04 4.121322e-04 2.866730e-04 -7.050534e-04 -1.104685e-03 -1.413657e-03 -1.449693e-03 -1.310991e-03 -1.514010e-03 -1.294089e-03 -8.577500e-04 -4.084619e-04 -2.892589e-04 -1.303787e-02 -1.069656e-02 5.499489e-03
<VARIANCE> 42
 9.336139e-04 1.378844e-03 1.050759e-03 8.324754e-04 5.086646e-04 9.869875e-04 9.663787e-04 1.370589e-03 1.091883e-03 1.175540e-03 2.735109e-03 1.090162e-03 1.174005e-04 7.172670e-05 9.094812e-05 7.187611e-05 8.594351e-05 5.269418e-05 3.058716e-05 7.374013e-05 2.931916e-05 4.065752e-05 6.471203e-05 2.296111e-05 3.723729e-05 2.710789e-05 3.223818e-05 2.413345e-05 2.780011e-05 2.069559e-05 9.831067e-06 2.601508e-05 1.085913e-05 1.211414e-05 2.124589e-05 8.798255e-06 3.196850e-06 3.078967e-05 1.033137e-04 4.965175e-04 8.906659e-04 2.838487e-04
<GCONST> -3.073062e+02
<MIXTURE> 4 1.958771e-01
<MEAN> 42
 2.354189e-02 5.165207e-02 2.271051e-02 -3.975270e-02 7.653922e-03 2.680097e-02 -2.669983e-02 -1.625879e-02 -2.525732e-02 -7.211623e-03 2.447375e-02 -2.098346e-03 -1.340128e-03 -2.027780e-03 -6.807258e-04 1.676484e-03 -3.161178e-04 -1.365465e-03 -2.314340e-04 3.707444e-05 -7.408441e-04 -9.519143e-04 -2.297622e-03 -1.060062e-03 -1.151121e-03 -1.445890e-03 -2.883237e-04 1.301513e-03 -4.236475e-04 -8.784787e-04 -2.234506e-04 -9.562008e-05 -1.603870e-04 -2.159241e-04 -6.449402e-04 -3.629178e-04 2.510312e-03 3.591313e-03 -4.062315e-03 9.646408e-03 4.299710e-02 2.472801e-02
<VARIANCE> 42
 3.314520e-03 3.678802e-03 2.536131e-03 2.540581e-03 1.671797e-03 2.657020e-03 3.713618e-03 1.476778e-03 3.476405e-03 3.169325e-03 8.493890e-03 3.223101e-03 1.176161e-04 9.402056e-05 1.138858e-04 7.766164e-05 9.353476e-05 7.556935e-05 6.413530e-05 7.374013e-05 3.476745e-05 4.065752e-05 7.504028e-05 3.267785e-05 5.142328e-05 3.765765e-05 4.922076e-05 3.230892e-05 4.159363e-05 3.112921e-05 1.468469e-05 2.601508e-05 1.106199e-05 1.211414e-05 2.142238e-05 1.254371e-05 1.485740e-05 6.733128e-05 2.072567e-04 2.556200e-03 2.208568e-03 5.576415e-04
<GCONST> -2.834638e+02
<STATE> 4
<NUMMIXES> 4
<MIXTURE> 1 2.548949e-01
<MEAN> 42
 2.407315e-02 2.430824e-02 -1.695774e-03 -2.267105e-02 1.238168e-02 1.131196e-02 -3.221382e-03 2.949543e-02 3.294095e-02 3.242217e-02 3.379264e-02 2.973050e-02 5.789768e-04 1.218127e-03 6.405755e-04 -8.926592e-04 -1.615222e-05 9.392324e-04 2.744668e-04 7.728604e-04 9.434269e-04 9.296007e-04 9.324080e-04 7.942778e-04 1.274560e-04 5.367449e-04 4.083071e-04 -3.264885e-04 -1.293670e-04 4.815444e-04 2.900151e-04 3.515824e-04 4.262519e-04 4.239563e-04 4.288040e-04 4.023591e-04 3.009029e-03 -1.262609e-03 4.978680e-04 2.723623e-02 1.396031e-02 -1.047343e-02
<VARIANCE> 42
 2.317794e-03 1.628806e-03 7.482721e-04 1.772071e-03 1.113145e-03 6.231921e-04 1.367135e-03 2.870843e-03 4.303542e-03 3.820453e-03 3.304158e-03 4.319487e-03 1.769384e-05 1.194624e-05 1.257466e-05 1.173219e-05 1.229691e-05 7.997851e-06 8.788797e-06 7.374013e-05 1.083637e-05 4.065752e-05 1.227385e-05 1.296013e-05 2.692031e-06 1.998427e-06 3.014784e-06 1.593341e-06 2.410236e-06 1.884186e-06 1.318520e-06 2.601508e-05 1.468657e-06 1.211414e-05 1.348263e-06 1.287709e-06 5.338363e-05 4.499424e-05 9.816227e-05 2.600649e-03 6.693162e-04 8.095143e-04
<GCONST> -3.343619e+02
<MIXTURE> 2 2.649779e-01
<MEAN> 42
 8.645414e-02 1.003651e-01 1.206628e-02 -9.279241e-02 3.645873e-02 5.454043e-02 -3.908237e-02 6.125648e-02 1.101917e-01 1.400119e-01 1.427777e-01 1.396541e-01 2.972281e-03 3.766866e-03 7.954170e-04 -3.374379e-03 1.093455e-03 2.294001e-03 -4.632152e-04 3.575162e-03 5.883455e-03 7.872555e-03 7.621177e-03 6.330564e-03 9.387968e-04 6.165688e-04 -3.171653e-04 -7.783284e-04 6.277241e-04 1.542879e-04 -7.298932e-05 5.856084e-04 8.684641e-04 1.343078e-03 1.390384e-03 1.336295e-03 8.610830e-03 -9.037368e-05 5.347848e-03 1.216755e-01 6.380381e-02 -1.089309e-02
<VARIANCE> 42
 2.901463e-02 3.433295e-02 1.380418e-02 2.814846e-02 1.284045e-02 1.692184e-02 3.318433e-02 1.187969e-01 1.066527e-01 1.129607e-01 9.176757e-02 7.464954e-02 1.095977e-03 7.182452e-04 5.564341e-04 7.685106e-04 6.483356e-04 3.642426e-04 7.834284e-04 1.673675e-03 1.760685e-03 2.010543e-03 1.999749e-03 1.694243e-03 9.396784e-05 6.725129e-05 7.064998e-05 6.303344e-05 6.568952e-05 4.570635e-05 5.417618e-05 1.475284e-04 1.939760e-04 2.122108e-04 1.806369e-04 1.323962e-04 5.113805e-04 5.622161e-04 4.730446e-04 6.208438e-02 1.877686e-02 4.349612e-02
<GCONST> -1.871564e+02
<MIXTURE> 3 3.758969e-01
<MEAN> 42
 2.739968e-03 -7.216982e-04 -5.277699e-03 6.158315e-04 3.559255e-03 -3.284930e-03 3.628649e-03 1.008555e-02 1.526186e-03 6.334988e-03 2.776178e-03 -2.588864e-03 -2.959499e-04 -8.365015e-04 -5.418304e-04 5.626447e-04 1.133210e-04 -6.987295e-04 -2.307393e-04 -4.586882e-04 -5.613186e-04 -6.809758e-04 -6.323594e-04 -6.486893e-04 -6.665121e-05 -3.618667e-04 -2.965874e-04 2.097449e-04 1.087308e-04 -3.356076e-04 -2.428388e-04 -2.407397e-04 -2.785876e-04 -2.798974e-04 -2.618243e-04 -2.370177e-04 2.312991e-04 -7.817703e-04 -8.863721e-04 8.750139e-04 -1.558470e-03 -4.872262e-03
<VARIANCE> 42
 7.436966e-04 7.451204e-04 4.951850e-04 5.891150e-04 4.530037e-04 4.908826e-04 5.493616e-04 1.370589e-03 2.628134e-03 1.717972e-03 1.259609e-03 1.762216e-03 1.252124e-05 9.626638e-06 1.097075e-05 8.351651e-06 9.440803e-06 7.331574e-06 6.104638e-06 7.374013e-05 9.872299e-06 4.065752e-05 1.131955e-05 8.494042e-06 2.626604e-06 2.004202e-06 3.076809e-06 1.551959e-06 2.378790e-06 1.934843e-06 1.173982e-06 2.601508e-05 1.678087e-06 1.211414e-05 1.290226e-06 1.199643e-06 8.031106e-06 2.105936e-05 7.462862e-05 7.301691e-04 4.230442e-04 4.639275e-04
<GCONST> -3.514123e+02
<MIXTURE> 4 1.042281e-01
<MEAN> 42
 6.601820e-02 -5.773082e-05 -6.697202e-02 -3.209016e-02 6.613605e-02 -3.749406e-02 -6.827700e-02 -8.823427e-02 -7.285424e-02 -6.248038e-03 3.974939e-02 6.041414e-02 -7.804764e-03 -9.396515e-03 -1.591699e-03 8.609978e-03 -3.121646e-03 -5.513608e-03 1.248453e-03 -9.431943e-03 -1.544164e-02 -1.992417e-02 -1.945927e-02 -1.570079e-02 -2.454421e-03 -1.567591e-03 8.805229e-04 2.015168e-03 -1.671760e-03 -3.546050e-04 3.304673e-04 -1.506837e-03 -2.266296e-03 -3.425551e-03 -3.637764e-03 -3.511047e-03 6.966721e-03 1.149618e-02 1.812347e-03 3.946109e-02 -4.863128e-03 7.146108e-02
<VARIANCE> 42
 6.231299e-02 1.994484e-02 3.327238e-02 3.288252e-02 4.296292e-02 1.103929e-02 3.739217e-02 8.702546e-02 7.140112e-02 8.354197e-02 7.605362e-02 7.275391e-02 2.025850e-03 9.163640e-04 1.191506e-03 1.174962e-03 1.380107e-03 5.503994e-04 6.640629e-04 3.000751e-03 3.875484e-03 4.874276e-03 4.344175e-03 3.090156e-03 2.704456e-04 1.116044e-04 1.898236e-04 1.442042e-04 2.020280e-04 8.365363e-05 8.723082e-05 2.321747e-04 2.592672e-04 3.373140e-04 3.942773e-04 3.259974e-04 7.603228e-04 6.827606e-04 5.044612e-04 5.353836e-02 9.507777e-03 3.839814e-02
<GCONST> -1.713712e+02
<STATE> 5
<MEAN> 42
 6.053147e-03 2.696796e-03 -2.598197e-03 -9.137215e-04 4.860142e-03 -5.265920e-03 9.258013e-03 3.353098e-02 1.296193e-02 3.549203e-03 4.486199e-04 1.664367e-04 6.008375e-05 1.371813e-04 7.569254e-05 -9.680312e-05 -7.385155e-06 1.041032e-04 2.198073e-04 7.496020e-04 6.307061e-04 5.015822e-04 3.479999e-04 1.776393e-04 -2.195331e-05 2.352309e-05 4.606345e-05 -2.083252e-07 -3.488146e-05 3.515437e-05 6.021210e-05 8.231844e-05 7.637509e-05 3.501272e-05 2.861768e-05 9.779993e-06 -1.458498e-04 -1.509007e-03 1.941253e-04 -6.155912e-04 -5.170544e-04 -1.547614e-02
<VARIANCE> 42
 2.076823e-03 2.074550e-03 1.474755e-03 1.713321e-03 1.196477e-03 1.306279e-03 1.723862e-03 6.060894e-03 5.453352e-03 4.116242e-03 3.038656e-03 2.781478e-03 9.022301e-05 6.235385e-05 8.297415e-05 5.523643e-05 7.126802e-05 5.024622e-05 3.013445e-05 7.374013e-05 4.250311e-05 4.065752e-05 3.752350e-05 2.735496e-05 3.192340e-05 2.109118e-05 2.870793e-05 1.922547e-05 2.512622e-05 1.697780e-05 7.235455e-06 2.601508e-05 9.720816e-06 1.211414e-05 9.363443e-06 7.148183e-06 1.170770e-05 4.042320e-05 1.443001e-04 1.865436e-03 1.207424e-03 1.696430e-03
<GCONST> -2.961114e+02
<STATE> 6
<MEAN> 42
 2.308663e-02 3.627310e-02 2.294853e-02 -2.731700e-02 6.311811e-03 2.316842e-02 -6.576455e-03 2.638845e-02 3.198218e-02 3.386985e-02 3.452155e-02 1.683720e-02 -1.979538e-04 -1.034584e-04 9.556072e-05 1.505728e-04 -1.486937e-04 -4.461440e-06 1.874355e-04 1.178760e-04 1.073342e-04 -4.902353e-05 -7.865810e-05 -1.192679e-04 -1.002976e-05 -1.116753e-05 -1.463542e-06 1.017802e-05 -4.024799e-06 -5.984677e-06 2.685366e-05 4.246045e-05 2.769268e-05 2.530401e-05 -4.329827e-06 5.822722e-07 2.322905e-03 1.934488e-03 4.971122e-03 2.566003e-02 2.414569e-02 -8.750981e-03
<VARIANCE> 42
 5.989629e-03 1.426011e-02 4.986945e-03 9.178683e-03 2.063625e-03 7.785654e-03 4.116718e-03 1.812852e-02 1.846159e-02 2.093802e-02 2.111200e-02 1.811106e-02 1.764272e-04 2.632090e-04 1.162131e-04 1.907371e-04 8.100778e-05 1.466674e-04 9.570019e-05 3.164222e-04 4.052922e-04 4.970670e-04 4.927127e-04 3.748253e-04 3.048838e-05 3.153552e-05 2.390651e-05 2.501407e-05 1.942276e-05 2.028444e-05 1.012718e-05 2.601508e-05 2.954775e-05 3.955499e-05 4.313694e-05 2.891847e-05 1.818458e-04 2.140321e-04 1.986169e-04 1.347784e-02 8.539324e-03 5.406382e-03
<GCONST> -2.460885e+02
<STATE> 7
<MEAN> 42
 7.567027e-02 6.956115e-02 -4.075501e-03 -7.016052e-02 4.026242e-02 2.672825e-02 -3.075331e-02 5.240478e-02 7.420564e-02 1.217112e-01 1.061934e-01 9.203030e-02 1.292581e-04 1.002619e-04 -2.950370e-05 -1.156028e-04 7.980906e-05 3.722818e-05 -4.413574e-04 -5.516853e-04 -4.367573e-04 -1.366905e-04 2.364779e-05 1.240425e-04 3.425337e-05 -1.572295e-06 -3.583376e-05 -1.661159e-05 3.551550e-05 -1.888697e-05 -6.742723e-05 -8.884187e-05 -7.508819e-05 -3.349079e-05 -4.636203e-06 -2.194678e-06 7.974707e-03 8.726524e-04 -5.642065e-04 9.292308e-02 4.000297e-02 -1.058547e-02
<VARIANCE> 42
 2.886819e-02 3.574602e-02 2.545186e-02 2.556446e-02 1.851950e-02 2.384320e-02 3.217257e-02 7.297099e-02 9.747960e-02 1.140324e-01 8.487187e-02 6.162847e-02 8.618017e-04 9.204918e-04 6.755234e-04 7.226504e-04 5.408946e-04 5.839281e-04 7.249251e-04 1.593410e-03 2.471665e-03 3.073887e-03 2.444108e-03 1.734674e-03 9.417783e-05 1.017741e-04 9.881495e-05 7.323595e-05 7.127707e-05 7.687182e-05 6.085043e-05 1.321535e-04 2.047335e-04 2.536176e-04 2.054555e-04 1.451080e-04 4.318332e-04 4.452765e-04 3.675563e-04 5.922063e-02 2.313100e-02 3.252536e-02
<GCONST> -1.842945e+02
<STATE> 8
<MEAN> 42
 3.695855e-02 2.568424e-02 -9.728478e-03 -2.980619e-02 2.328187e-02 3.764903e-03 -2.207520e-02 1.958988e-02 3.549529e-02 3.284347e-02 6.666481e-02 3.475817e-02 2.096326e-04 2.524691e-04 4.267456e-05 -2.307631e-04 8.598327e-05 1.470055e-04 1.514093e-04 4.266274e-04 4.119612e-04 3.892655e-04 2.001779e-04 2.414767e-04 -3.266642e-05 -3.668873e-05 -3.758934e-06 3.456340e-05 -1.397774e-05 -2.045920e-05 -3.465577e-05 -1.084295e-04 -8.882432e-05 -9.315237e-05 -7.722629e-05 -5.625402e-05 3.228127e-03 1.322375e-03 -5.965206e-04 4.244919e-02 1.267838e-02 -9.653354e-04
<VARIANCE> 42
 9.707517e-03 1.105257e-02 1.822773e-03 9.970997e-03 3.081704e-03 4.006660e-03 8.694941e-03 1.065841e-02 2.830555e-02 2.285945e-02 2.536764e-02 1.316263e-02 2.582192e-04 3.153984e-04 7.637063e-05 2.675740e-04 9.008154e-05 1.326422e-04 2.804781e-04 3.042143e-04 1.015859e-03 6.531762e-04 5.842376e-04 3.440736e-04 3.642322e-05 3.846537e-05 2.586937e-05 3.095708e-05 2.180162e-05 2.306536e-05 2.805595e-05 2.980277e-05 1.224070e-04 5.927260e-05 8.336505e-05 3.006343e-05 1.423795e-04 2.049242e-04 2.306357e-04 1.601137e-02 3.971762e-03 2.942778e-03
<GCONST> -2.404015e+02
<STATE> 9
<MEAN> 42
 4.123448e-03 1.032527e-02 4.097056e-03 -3.816940e-03 1.486852e-04 3.891677e-03 -1.093069e-03 2.350641e-03 6.204927e-04 2.563124e-03 5.271574e-03 4.077061e-03 -2.108448e-04 -2.559303e-04 -4.425543e-05 2.340183e-04 -8.395199e-05 -1.504016e-04 4.127846e-05 -2.150355e-04 -3.148617e-04 -3.346328e-04 -2.908506e-04 -3.190776e-04 1.740848e-05 2.804329e-05 1.070600e-05 -2.247491e-05 3.274932e-06 2.000821e-05 1.388322e-05 4.496799e-05 3.166727e-05 2.544803e-05 2.258754e-05 2.324971e-05 3.092061e-04 3.221562e-04 9.151173e-04 3.272711e-03 8.405194e-03 1.081642e-03
<VARIANCE> 42
 8.140798e-04 1.180616e-03 7.309585e-04 8.169737e-04 4.490818e-04 7.574859e-04 6.089094e-04 1.370589e-03 1.332052e-03 9.638665e-04 1.062044e-03 7.956763e-04 7.176969e-05 5.357960e-05 5.409309e-05 4.912362e-05 4.975240e-05 3.636938e-05 1.726952e-05 7.374013e-05 1.990394e-05 4.065752e-05 3.311279e-05 1.584513e-05 2.701307e-05 1.908310e-05 2.000132e-05 1.799133e-05 1.880903e-05 1.297251e-05 5.191365e-06 2.601508e-05 6.128367e-06 1.211414e-05 9.019859e-06 5.074992e-06 3.400460e-06 9.989544e-06 5.104177e-05 5.107808e-04 7.029407e-04 2.838487e-04
<GCONST> -3.215891e+02
<STATE> 10
<MEAN> 42
 4.104204e-02 2.775955e-03 -2.401331e-02 -2.014776e-02 4.440339e-02 -1.052988e-02 -3.951699e-02 -1.604499e-02 -3.160716e-02 -1.486025e-02 -1.673855e-02 1.877329e-04 -1.552685e-04 -1.342727e-04 2.228664e-05 1.449309e-04 -8.915194e-05 -5.688016e-05 8.456084e-05 6.798147e-05 6.264319e-05 -2.757857e-05 -7.954359e-05 -1.166050e-04 -4.764843e-05 2.418889e-06 5.024300e-05 2.185033e-05 -4.930270e-05 2.593758e-05 6.430998e-05 6.471383e-05 6.601487e-05 1.987597e-05 -3.278634e-06 -1.995673e-05 3.113382e-03 3.761247e-04 -4.179022e-03 3.106183e-03 -5.801903e-03 2.302066e-02
<VARIANCE> 42
 3.025711e-02 6.920707e-03 3.734548e-02 9.259116e-03 3.226019e-02 1.456690e-02 2.034325e-02 5.619704e-03 2.010877e-02 1.348292e-02 1.076048e-02 8.969878e-03 6.688544e-04 3.153856e-04 6.615981e-04 3.267163e-04 5.886935e-04 3.222557e-04 3.445736e-04 1.256117e-04 3.904007e-04 3.695287e-04 3.667201e-04 3.273879e-04 1.038550e-04 7.976702e-05 7.644417e-05 7.269531e-05 7.051886e-05 5.256819e-05 2.638749e-05 2.601508e-05 2.963885e-05 3.177585e-05 3.526991e-05 3.396304e-05 2.081568e-04 2.218598e-04 2.171561e-04 5.358373e-03 6.298064e-03 7.213353e-03
<GCONST> -2.282969e+02
<STATE> 11
<MEAN> 42
 -6.746119e-02 -4.587584e-02 1.562474e-02 5.688202e-02 -4.005405e-02 -2.088732e-02 8.857208e-02 1.073823e-01 4.049475e-02 -2.497883e-02 -4.153632e-02 -6.470350e-02 -7.099567e-03 -2.212365e-03 4.861400e-03 4.656640e-03 -6.025779e-03 1.289729e-03 2.657940e-02 3.889014e-02 2.814618e-02 9.540855e-03 5.561090e-04 -4.782426e-03 1.094095e-03 2.670169e-04 -8.381592e-04 -6.864665e-04 9.761681e-04 -2.911999e-04 4.163620e-03 8.372443e-03 7.176183e-03 5.054050e-03 3.101284e-03 1.700508e-03 -6.081701e-03 -6.062659e-03 1.433029e-03 -5.655532e-02 -3.092151e-02 -7.739560e-02
<VARIANCE> 42
 4.039502e-03 3.412029e-03 5.542608e-03 1.826982e-03 3.369543e-03 3.857905e-03 5.204041e-03 9.347003e-03 6.632037e-03 3.873389e-03 2.949226e-03 2.533404e-03 1.786314e-04 2.227291e-04 3.300745e-04 1.190651e-04 1.978913e-04 2.349522e-04 3.679512e-04 4.942262e-04 3.980788e-04 3.724833e-04 2.833318e-04 2.048690e-04 5.818217e-05 4.066079e-05 6.457536e-05 3.350665e-05 5.122007e-05 3.919557e-05 5.759009e-05 9.552927e-05 8.665920e-05 7.945248e-05 6.762129e-05 5.149554e-05 3.024602e-05 1.130280e-04 2.418543e-04 2.097667e-03 2.716809e-03 3.564548e-03
<GCONST> -2.505999e+02
<STATE> 12
<MEAN> 42
 -1.631224e-02 1.291648e-02 2.513749e-02 3.156990e-03 -1.847667e-02 1.498930e-02 1.779261e-01 3.068860e-01 2.368762e-01 1.285151e-01 5.692849e-02 -3.467066e-03 3.041788e-02 2.780722e-02 -2.641288e-03 -2.914261e-02 1.668732e-02 1.274275e-02 8.887128e-03 4.501701e-02 5.333210e-02 5.551889e-02 4.718864e-02 3.645821e-02 1.253725e-02 9.134863e-03 -3.414470e-03 -1.083079e-02 8.049252e-03 2.896155e-03 -9.431876e-03 -2.702324e-03 4.065633e-03 1.210963e-02 1.509432e-02 1.448744e-02 -5.979741e-03 -1.092438e-02 1.053587e-02 1.553210e-02 -6.298250e-03 -1.985327e-01
<VARIANCE> 42
 6.335001e-03 6.994761e-03 8.663165e-03 4.197181e-03 5.707365e-03 6.784665e-03 7.363920e-03 2.293397e-02 2.061027e-02 1.246867e-02 9.695194e-03 7.536795e-03 5.977839e-04 5.050239e-04 6.495785e-04 3.874725e-04 4.977151e-04 4.305090e-04 7.131931e-04 9.990889e-04 8.058471e-04 6.525112e-04 5.748027e-04 5.186690e-04 9.209084e-05 6.991891e-05 1.290627e-04 4.887443e-05 9.353684e-05 7.647349e-05 9.817714e-05 1.701916e-04 1.352372e-04 8.449814e-05 6.470540e-05 6.135806e-05 7.734745e-05 6.780571e-04 6.476530e-04 6.902380e-03 5.398167e-03 7.194609e-03
<GCONST> -2.201689e+02
<STATE> 13
<MEAN> 42
 7.490446e-02 1.108473e-01 4.586492e-02 -9.928576e-02 1.410925e-02 8.124629e-02 -3.638209e-02 2.609016e-02 4.143794e-02 4.162197e-02 3.405656e-02 2.436687e-02 5.488490e-04 4.082580e-04 -1.419033e-04 -4.790614e-04 3.477157e-04 1.349362e-04 -2.047846e-04 3.752505e-04 5.644913e-04 7.115280e-04 7.341931e-04 6.377538e-04 1.326357e-04 1.248143e-04 -7.833585e-06 -1.285796e-04 7.013990e-05 5.891805e-05 -1.718083e-04 -6.818476e-05 2.755161e-05 1.124272e-04 1.625012e-04 1.635306e-04 3.399499e-03 -4.591616e-03 8.067961e-05 4.244054e-02 7.600667e-02 4.886738e-03
<VARIANCE> 42
 3.797971e-02 1.856047e-01 6.961863e-02 9.465034e-02 7.545574e-03 1.183318e-01 3.801422e-02 2.509562e-02 1.394273e-02 2.567995e-02 2.327616e-02 1.260979e-02 1.125401e-03 5.970861e-03 2.233990e-03 2.993000e-03 1.881473e-04 3.823809e-03 1.376725e-03 3.733187e-04 4.970746e-04 8.611848e-04 7.573612e-04 3.963209e-04 8.318269e-05 5.451981e-04 2.436757e-04 2.532583e-04 2.723590e-05 3.736506e-04 1.498374e-04 3.208360e-05 5.274314e-05 8.198550e-05 6.844600e-05 3.518299e-05 1.983275e-04 1.963671e-04 2.221454e-04 2.866581e-02 1.082160e-01 1.222973e-02
<GCONST> -1.907877e+02
<STATE> 14
<MEAN> 42
 3.981916e-01 4.927155e-01 9.275378e-02 -4.452675e-01 1.543096e-01 2.908337e-01 -1.493268e-01 2.388911e-01 5.015635e-01 6.134952e-01 6.049734e-01 5.058869e-01 7.208689e-02 6.474622e-02 -7.311159e-03 -6.839851e-02 3.981944e-02 2.889101e-02 -6.894552e-02 -3.766062e-02 2.303267e-02 8.427738e-02 1.055323e-01 1.040825e-01 2.985966e-03 2.576742e-03 -3.951687e-04 -2.768998e-03 1.652273e-03 1.080190e-03 -1.167530e-02 -2.106798e-02 -1.382474e-02 -1.911335e-04 5.712433e-03 8.003304e-03 3.926033e-02 -1.011733e-02 1.377514e-02 5.108358e-01 3.160238e-01 -5.496869e-02
<VARIANCE> 42
 9.706208e-02 3.840078e-01 2.327881e-01 1.839603e-01 6.879821e-02 2.863827e-01 1.496162e-01 1.678336e-01 1.544247e-01 1.419195e-01 1.253623e-01 1.036864e-01 5.332725e-03 1.776742e-02 1.029255e-02 8.991610e-03 3.384838e-03 1.272212e-02 7.227751e-03 9.138586e-03 1.076669e-02 8.357152e-03 6.241491e-03 4.676161e-03 3.431231e-04 1.530041e-03 8.745835e-04 7.172885e-04 2.269989e-04 1.118778e-03 6.954109e-04 9.814386e-04 1.002138e-03 5.303429e-04 5.644881e-04 4.666558e-04 1.077867e-03 1.384915e-03 1.227677e-03 1.075467e-01 2.444698e-01 9.452396e-02
<GCONST> -1.168493e+02
<STATE> 15
<MEAN> 42
 3.798844e-01 3.911242e-01 6.737521e-03 -3.848841e-01 1.896300e-01 1.945673e-01 -5.324009e-01 -6.323469e-01 -3.349952e-01 3.547225e-01 6.120637e-01 6.289095e-01 -5.146880e-02 -4.780115e-02 3.669074e-03 4.962923e-02 -2.766591e-02 -2.218075e-02 -2.525286e-04 -6.725945e-02 -9.586434e-02 -1.026470e-01 -9.495316e-02 -7.693753e-02 -1.009428e-02 -9.443212e-03 6.515908e-04 9.762457e-03 -5.375574e-03 -4.408791e-03 1.154678e-02 1.328232e-02 3.489893e-03 -1.032493e-02 -1.541156e-02 -1.620376e-02 6.277250e-02 3.227952e-02 3.104248e-03 5.030807e-01 3.253495e-01 5.278471e-01
<VARIANCE> 42
 1.500081e-01 2.387394e-01 3.473282e-01 1.052937e-01 1.890990e-01 2.557216e-01 9.569751e-02 4.133832e-01 8.665114e-01 7.383213e-01 5.852008e-01 3.961405e-01 4.904740e-03 6.970959e-03 6.885654e-03 4.220529e-03 4.158129e-03 5.711483e-03 5.682508e-03 1.501542e-02 1.941486e-02 1.855853e-02 2.484243e-02 2.003331e-02 7.868528e-04 9.090598e-04 8.480626e-04 6.366936e-04 5.919132e-04 6.826557e-04 5.187764e-04 1.443040e-03 2.140496e-03 2.727409e-03 3.413158e-03 2.557004e-03 1.336789e-03 1.826914e-03 1.479440e-03 3.101975e-01 2.223030e-01 2.135141e-01
<GCONST> -9.866164e+01
<STATE> 16
<MEAN> 42
 -1.025549e-01 -7.226858e-02 2.508431e-02 8.694687e-02 -6.118704e-02 -2.908061e-02 -1.471342e-01 -3.834811e-01 -3.430527e-01 -2.750421e-01 -2.007063e-01 -1.344605e-01 -2.645402e-03 -4.141064e-03 -1.500263e-03 3.373985e-03 -5.993226e-04 -2.804939e-03 2.996214e-02 6.300139e-02 5.233268e-02 2.681474e-02 1.211419e-02 -3.743137e-05 7.102017e-03 7.483859e-03 3.575834e-04 -7.292690e-03 3.389399e-03 3.929483e-03 -1.750369e-03 5.260049e-04 5.674978e-03 1.016523e-02 1.114481e-02 1.048394e-02 -2.103859e-03 3.309717e-02 4.432781e-03 -1.410325e-01 -1.419106e-02 2.191035e-01
<VARIANCE> 42
 2.272308e-02 2.553151e-02 4.543389e-02 1.168765e-02 2.711848e-02 2.942122e-02 9.273697e-02 1.327055e-01 1.826598e-01 5.411435e-02 2.675341e-02 1.338951e-02 7.874622e-04 1.105423e-03 1.534284e-03 5.627264e-04 8.872901e-04 1.126847e-03 1.166448e-03 2.596078e-03 4.353612e-03 2.507264e-03 1.681439e-03 1.131622e-03 1.314692e-04 1.519773e-04 1.330083e-04 1.084563e-04 9.426608e-05 1.104395e-04 1.185667e-04 2.432780e-04 5.557634e-04 4.671170e-04 3.605261e-04 2.319276e-04 4.197693e-04 9.419997e-04 1.218787e-03 1.385662e-02 2.422610e-02 7.904734e-02
<GCONST> -1.758977e+02
<STATE> 17
<MEAN> 42
 2.747287e-02 1.524629e-02 -2.284981e-02 -3.247908e-02 3.150205e-02 -1.809443e-03 -3.807341e-02 1.702544e-02 6.462391e-02 5.240381e-02 4.405211e-02 6.468308e-02 9.376528e-05 2.091550e-04 1.157100e-04 -1.519370e-04 -1.027914e-05 1.608428e-04 1.991467e-04 3.450448e-04 4.869928e-04 3.742344e-04 2.954475e-04 2.232681e-04 -2.308152e-05 -3.951332e-05 -1.592108e-05 3.125008e-05 -3.619567e-06 -2.850060e-05 -3.774370e-05 -8.745181e-05 -1.010337e-04 -6.794545e-05 -5.429785e-05 -3.658993e-05 1.010997e-03 4.043550e-03 -4.090115e-03 5.248840e-02 1.701322e-03 -4.189844e-03
<VARIANCE> 42
 2.560740e-02 2.368897e-02 6.400918e-02 8.667340e-03 3.915301e-02 3.735541e-02 1.166408e-02 1.066023e-02 5.349626e-02 4.933472e-02 4.000475e-02 4.371251e-02 5.049297e-04 4.854407e-04 9.766809e-04 2.510153e-04 6.216432e-04 6.058700e-04 2.856200e-04 1.813507e-04 3.552214e-04 4.524014e-04 8.150967e-04 1.033319e-03 8.538939e-05 9.874652e-05 1.022762e-04 6.648968e-05 6.957206e-05 7.975420e-05 4.593317e-05 4.232560e-05 4.506874e-05 3.354597e-05 7.546774e-05 9.041368e-05 1.727174e-04 1.952754e-04 2.341830e-04 2.306066e-02 1.922845e-02 7.823534e-03
<GCONST> -2.108761e+02
<STATE> 18
<MEAN> 42
 3.381569e-02 4.957853e-02 1.177453e-02 -3.788601e-02 3.395922e-03 2.740521e-02 -1.855050e-02 4.053023e-02 7.310361e-02 5.551650e-02 5.862089e-02 4.243150e-02 4.116310e-05 8.175748e-07 -4.018931e-05 -2.080866e-05 4.062694e-05 -2.099895e-05 5.618058e-06 1.021583e-04 1.362823e-04 1.188394e-04 4.841374e-05 3.998390e-05 -2.745803e-05 -8.802675e-06 1.922733e-05 1.845436e-05 -2.408848e-05 5.001840e-06 -9.382298e-06 -2.656699e-05 -2.639226e-05 -4.751384e-05 -5.227211e-05 -4.198175e-05 3.388413e-03 -3.757783e-03 -3.008008e-03 4.895594e-02 2.994238e-02 -1.618964e-02
<VARIANCE> 42
 1.125175e-02 4.122430e-02 1.148458e-02 2.322258e-02 1.047362e-03 2.360379e-02 3.276725e-02 3.937294e-02 5.322783e-02 5.233853e-02 4.617672e-02 3.464511e-02 4.412301e-04 1.446610e-03 5.357640e-04 8.099843e-04 1.268828e-04 8.834146e-04 1.156839e-03 1.249583e-03 1.691354e-03 1.786579e-03 1.546512e-03 1.149724e-03 6.919733e-05 1.454447e-04 9.543823e-05 8.346293e-05 4.594080e-05 1.031571e-04 1.112359e-04 1.473512e-04 1.577119e-04 1.636336e-04 1.406563e-04 1.076327e-04 2.446304e-04 2.264933e-04 2.217855e-04 4.097385e-02 2.083751e-02 1.554249e-02
<GCONST> -1.985992e+02
<STATE> 19
<MEAN> 42
 3.404722e-02 7.352886e-02 3.387062e-02 -4.595152e-02 -4.820109e-03 4.589365e-02 -3.075794e-02 2.872178e-02 2.008729e-02 4.688447e-02 6.185239e-02 5.785007e-02 4.275198e-05 2.353467e-05 -1.956811e-05 -3.335195e-05 3.181808e-05 9.207197e-07 1.890099e-04 3.652602e-04 3.156075e-04 1.620345e-04 7.123582e-05 2.840992e-05 -1.430489e-05 -8.175463e-06 6.179998e-06 1.128341e-05 -9.768633e-06 -1.072216e-06 -3.502197e-05 -6.917649e-05 -5.978930e-05 -3.111142e-05 -2.074114e-05 -1.102626e-05 3.944980e-03 -3.995425e-03 -2.933994e-03 4.702759e-02 5.734454e-02 8.143339e-03
<VARIANCE> 42
 7.826408e-03 3.423768e-02 1.958388e-02 1.607962e-02 5.042623e-03 2.511393e-02 1.494733e-02 5.263069e-02 3.351582e-02 2.248286e-02 3.257586e-02 3.026218e-02 2.130456e-04 1.019752e-03 6.410348e-04 4.572606e-04 1.736686e-04 7.769144e-04 5.110755e-04 1.540428e-03 9.325826e-04 7.445412e-04 1.045734e-03 8.366992e-04 4.364814e-05 1.322656e-04 7.657632e-05 6.879555e-05 2.743635e-05 9.351457e-05 5.328051e-05 1.359014e-04 7.835688e-05 9.852657e-05 1.295594e-04 9.417129e-05 2.077123e-04 2.077181e-04 2.195570e-04 1.854103e-02 2.645094e-02 2.214904e-02
<GCONST> -2.079894e+02
<STATE> 20
<MEAN> 42
 1.847285e-02 2.357800e-02 -6.440972e-03 -2.394570e-02 1.709898e-02 -1.117536e-04 -4.742924e-03 2.429835e-02 1.960372e-02 7.135179e-04 1.916460e-02 1.786271e-02 4.272633e-05 6.648443e-06 -3.595969e-05 -2.426333e-05 3.882108e-05 -1.409391e-05 2.525015e-04 4.449071e-04 3.518498e-04 2.224712e-04 1.166221e-04 3.530396e-05 1.163836e-05 8.921505e-06 -2.785099e-06 -1.026636e-05 7.185547e-06 3.426980e-06 -6.289247e-06 7.550489e-06 2.899696e-06 1.361067e-05 2.115549e-05 1.805366e-05 1.308733e-03 -1.923725e-04 5.601798e-04 1.226586e-02 1.553782e-02 -5.519250e-03
<VARIANCE> 42
 1.052518e-02 8.301272e-03 1.033374e-02 6.858255e-03 8.407577e-03 6.613764e-03 1.384143e-02 1.698953e-02 2.619240e-02 1.589045e-02 1.766684e-02 1.768890e-02 3.329754e-04 2.062751e-04 3.566692e-04 1.805353e-04 2.936677e-04 1.985973e-04 2.550017e-04 2.158917e-04 4.284407e-04 3.480960e-04 6.041427e-04 5.555092e-04 5.588537e-05 3.358191e-05 4.883602e-05 3.255911e-05 4.409467e-05 2.731137e-05 2.411479e-05 2.601508e-05 3.310473e-05 3.305006e-05 7.096030e-05 6.162615e-05 1.151701e-04 1.336684e-04 1.668796e-04 8.024979e-03 6.130799e-03 1.190695e-02
<GCONST> -2.357659e+02
<STATE> 21
<MEAN> 42
 1.024872e-03 1.116177e-01 5.927972e-02 -8.607940e-02 1.359825e-02 2.714509e-02 -7.385395e-02 -8.295273e-02 -1.212497e-01 -6.730384e-02 9.455629e-02 -2.382170e-02 -3.328049e-05 7.291685e-05 1.055363e-04 -1.936359e-05 -6.734390e-05 8.798882e-05 -5.827344e-04 -9.318154e-04 -6.875921e-04 -4.404982e-04 -2.135551e-04 -1.281686e-05 -2.972271e-05 -2.262222e-05 6.668406e-06 2.642762e-05 -1.789734e-05 -8.458286e-06 4.985632e-07 -6.348295e-05 -5.892115e-05 -5.681568e-05 -5.432912e-05 -4.752591e-05 8.387342e-03 6.733840e-03 -1.006018e-02 5.522917e-03 1.132052e-01 9.073083e-02
<VARIANCE> 42
 4.050432e-02 2.954817e-02 3.994562e-02 2.342425e-02 3.108385e-02 2.620415e-02 3.058778e-02 1.660051e-01 1.224692e-01 8.238358e-02 6.348722e-02 5.671634e-02 1.312211e-03 9.091924e-04 1.333998e-03 7.806165e-04 1.099909e-03 7.939252e-04 8.075502e-04 3.661586e-03 2.694987e-03 2.115272e-03 2.119344e-03 1.530283e-03 1.372969e-04 1.058797e-04 1.404388e-04 8.711204e-05 1.127765e-04 8.884218e-05 6.231241e-05 2.500397e-04 2.046493e-04 1.876054e-04 1.969588e-04 1.392027e-04 4.120584e-04 3.814864e-04 1.991970e-04 4.726037e-02 2.361182e-02 5.536004e-02
<GCONST> -1.789685e+02
<STATE> 22
<MEAN> 42
 1.966990e-02 2.131296e-02 -4.919076e-03 -1.998277e-02 1.512889e-02 2.387608e-03 4.360650e-03 5.097361e-02 3.854509e-02 2.650595e-02 3.087829e-02 2.365187e-02 2.425388e-04 2.368638e-04 -6.146547e-06 -2.399724e-04 1.238032e-04 1.153796e-04 2.239869e-04 8.157019e-04 7.468267e-04 5.623924e-04 4.283354e-04 3.000337e-04 -1.600386e-05 -1.224675e-05 3.786343e-06 1.365710e-05 -1.011410e-05 -4.503175e-06 -9.515510e-06 -3.275491e-05 -3.561788e-05 -2.101659e-05 -1.371353e-05 -9.518227e-06 8.897395e-04 -1.309672e-03 -1.564145e-05 2.112699e-02 1.145196e-02 -2.109302e-02
<VARIANCE> 42
 3.931914e-03 4.151050e-03 1.699765e-03 3.672480e-03 1.709702e-03 1.986491e-03 3.035655e-03 1.172037e-02 1.066074e-02 6.422299e-03 7.931214e-03 7.442361e-03 6.286739e-05 5.711048e-05 5.732148e-05 4.574855e-05 4.607006e-05 4.171421e-05 2.717308e-05 7.374013e-05 3.971059e-05 4.065752e-05 6.075144e-05 2.872355e-05 2.222008e-05 1.877061e-05 2.116767e-05 1.523913e-05 1.713117e-05 1.450482e-05 5.906203e-06 2.601508e-05 7.723127e-06 1.211414e-05 1.186134e-05 6.164623e-06 3.325500e-05 9.742736e-05 1.815589e-04 4.261884e-03 2.060398e-03 3.255649e-03
<GCONST> -2.878204e+02
<STATE> 23
<MEAN> 42
 1.064160e-01 1.438527e-01 3.165066e-02 -1.224221e-01 3.898283e-02 8.453744e-02 -6.217003e-02 8.235002e-02 1.276819e-01 1.746076e-01 1.891346e-01 1.604057e-01 5.867207e-05 2.695894e-04 2.124593e-04 -1.648789e-04 -7.211708e-05 2.458659e-04 -5.216808e-04 -1.004753e-03 -5.721089e-04 -6.161755e-05 1.712560e-04 2.059222e-04 -9.561348e-05 -9.445745e-05 2.636843e-06 9.457306e-05 -4.830201e-05 -4.440463e-05 -8.887793e-05 -2.585433e-04 -1.983478e-04 -1.555922e-04 -1.429400e-04 -8.583011e-05 1.140525e-02 -2.453190e-03 1.530568e-04 1.519952e-01 9.641094e-02 -8.961284e-03
<VARIANCE> 42
 2.391009e-02 5.517861e-02 2.524300e-02 3.297536e-02 1.076372e-02 3.493231e-02 4.262796e-02 1.181219e-01 1.450235e-01 1.071941e-01 9.340045e-02 7.525412e-02 6.265435e-04 1.233407e-03 5.985453e-04 7.798528e-04 3.065812e-04 7.612878e-04 9.036353e-04 2.115373e-03 2.998551e-03 2.609573e-03 2.369326e-03 1.764337e-03 6.666256e-05 1.053668e-04 7.228797e-05 6.786035e-05 4.363510e-05 7.197567e-05 6.843085e-05 1.596988e-04 2.400972e-04 2.128788e-04 1.961626e-04 1.354543e-04 5.036686e-04 6.631935e-04 4.951952e-04 6.049665e-02 3.839777e-02 5.709948e-02
<GCONST> -1.815628e+02
<STATE> 24
<MEAN> 42
 4.798545e-03 8.670341e-03 3.160186e-03 -3.834366e-03 1.392356e-03 2.829314e-03 -1.117509e-03 4.690758e-03 2.670881e-03 5.068634e-03 5.207803e-03 3.427548e-03 -2.009891e-04 -2.825422e-04 -8.172186e-05 2.419909e-04 -6.069594e-05 -1.823384e-04 1.074079e-04 -1.782441e-04 -2.820804e-04 -3.301259e-04 -3.127337e-04 -2.926847e-04 2.167504e-05 1.955957e-05 -2.082340e-06 -2.060051e-05 1.161163e-05 9.268060e-06 1.038794e-05 5.133974e-05 4.812235e-05 3.280135e-05 3.189689e-05 1.946059e-05 3.619013e-04 9.957537e-05 6.303847e-05 3.913277e-03 6.431922e-03 -5.280345e-04
<VARIANCE> 42
 1.089466e-03 1.458295e-03 7.685096e-04 1.132839e-03 5.486523e-04 8.575009e-04 6.559108e-04 1.604199e-03 1.731448e-03 1.293563e-03 1.635528e-03 9.669089e-04 7.708136e-05 6.254837e-05 5.285004e-05 5.672395e-05 4.992836e-05 3.887576e-05 2.401065e-05 7.374013e-05 2.272199e-05 4.065752e-05 2.961006e-05 1.860803e-05 2.769267e-05 2.236240e-05 1.928939e-05 2.026191e-05 1.811232e-05 1.404044e-05 6.751075e-06 2.601508e-05 6.927475e-06 1.211414e-05 8.048779e-06 5.679972e-06 5.507799e-06 1.607194e-05 5.724902e-05 7.336642e-04 8.176203e-04 3.930671e-04
<GCONST> -3.154397e+02
<STATE> 25
<MEAN> 42
 7.949329e-02 9.957286e-02 1.585256e-02 -8.547383e-02 3.425682e-02 5.655834e-02 -4.415077e-02 4.646232e-02 8.374021e-02 1.310673e-01 1.479564e-01 1.272703e-01 2.753770e-04 3.580108e-04 8.218198e-05 -3.169227e-04 9.846863e-05 2.204132e-04 -2.178704e-04 1.679793e-04 3.024112e-04 3.306222e-04 2.889017e-04 3.371761e-04 -2.297888e-05 -3.852074e-05 -1.572689e-05 3.132160e-05 -3.598641e-06 -2.801385e-05 1.453652e-07 -5.230620e-05 -5.253086e-05 -4.159102e-05 -4.877203e-05 -3.095355e-05 8.578331e-03 6.658100e-04 -6.905463e-04 1.161057e-01 6.729198e-02 6.379504e-04
<VARIANCE> 42
 3.964513e-02 6.577232e-02 4.307195e-02 4.181160e-02 2.465747e-02 4.536022e-02 4.716166e-02 1.351658e-01 1.606287e-01 1.234089e-01 1.199520e-01 9.475042e-02 1.198414e-03 1.750673e-03 1.083884e-03 1.204143e-03 7.073501e-04 1.119197e-03 1.141725e-03 2.783409e-03 3.368113e-03 3.336498e-03 3.774160e-03 2.918295e-03 1.326287e-04 1.737212e-04 1.333310e-04 1.199136e-04 9.019092e-05 1.205484e-04 1.040605e-04 2.386407e-04 2.652083e-04 2.923335e-04 3.641938e-04 2.786028e-04 5.335397e-04 5.324198e-04 4.028929e-04 7.195073e-02 4.504068e-02 6.370174e-02
<GCONST> -1.667101e+02
<STATE> 26
<MEAN> 42
 1.169248e-02 1.214223e-02 -8.738911e-04 -9.365864e-03 6.580635e-03 2.422230e-03 -3.301318e-03 1.649004e-02 1.079801e-02 7.529122e-03 1.268340e-02 7.830394e-03 -1.353021e-04 -1.863012e-04 -4.982328e-05 1.612639e-04 -4.383184e-05 -1.185407e-04 9.746051e-05 -1.008754e-04 -1.818225e-04 -2.129245e-04 -2.062128e-04 -2.006870e-04 2.243763e-05 2.989480e-05 7.464135e-06 -2.626678e-05 7.859540e-06 1.830028e-05 -1.291532e-05 1.093977e-05 1.715553e-05 1.787305e-05 2.307534e-05 1.700985e-05 3.670999e-04 -1.264517e-03 4.998973e-04 8.657183e-03 7.200127e-03 -4.447535e-03
<VARIANCE> 42
 1.719251e-03 2.023178e-03 1.034077e-03 1.691918e-03 8.837897e-04 1.105625e-03 1.128064e-03 2.935892e-03 3.288563e-03 2.018173e-03 2.557120e-03 1.891062e-03 7.520634e-05 5.792503e-05 5.767712e-05 5.218969e-05 5.202641e-05 3.912149e-05 2.435072e-05 7.374013e-05 2.389195e-05 4.065752e-05 2.703735e-05 2.057905e-05 2.738297e-05 2.005683e-05 2.195508e-05 1.823482e-05 1.966533e-05 1.419721e-05 6.633731e-06 2.601508e-05 6.395262e-06 1.211414e-05 7.058354e-06 5.666383e-06 8.260926e-06 3.638842e-05 1.025058e-04 1.262877e-03 1.178077e-03 9.716934e-04
<GCONST> -3.064679e+02
<STATE> 27
<MEAN> 42
 4.343099e-02 1.827823e-02 -2.171434e-02 -2.431627e-02 2.704160e-02 -5.341918e-03 -1.911548e-02 3.641981e-02 3.755578e-02 2.864952e-02 3.406385e-02 2.884091e-02 -1.660333e-05 6.730246e-05 8.359304e-05 -2.619246e-05 -5.129280e-05 7.442539e-05 4.380382e-04 7.493824e-04 6.821220e-04 4.516023e-04 2.641509e-04 1.194428e-04 5.683903e-05 2.883487e-05 -2.793512e-05 -4.263374e-05 4.162217e-05 1.255726e-06 2.203621e-05 1.258349e-04 1.142963e-04 1.164964e-04 1.034472e-04 8.501006e-05 2.902621e-03 -6.614773e-04 -2.650919e-03 3.212154e-02 2.742177e-03 -1.014818e-02
<VARIANCE> 42
 2.954742e-02 1.013821e-02 9.663985e-03 1.750448e-02 1.707712e-02 2.340493e-03 2.380039e-02 4.331890e-02 3.708305e-02 3.739400e-02 3.735745e-02 2.948760e-02 9.550028e-04 3.077803e-04 3.401468e-04 5.465334e-04 5.743398e-04 8.540828e-05 6.008216e-04 1.128829e-03 1.380251e-03 1.488190e-03 1.369234e-03 1.016340e-03 1.108578e-04 4.300486e-05 5.537077e-05 6.307869e-05 7.300901e-05 2.163154e-05 5.018915e-05 1.170463e-04 1.536306e-04 1.648286e-04 1.479512e-04 1.049455e-04 2.252160e-04 2.368954e-04 2.431878e-04 2.959970e-02 3.179794e-03 1.446492e-02
<GCONST> -2.100566e+02
<STATE> 28
<MEAN> 42
 5.835278e-02 7.560676e-02 1.860112e-02 -6.267790e-02 1.834240e-02 4.709020e-02 -4.781489e-02 -1.003959e-02 2.321625e-02 6.531932e-02 1.313944e-01 1.346376e-01 1.885060e-04 1.795245e-04 -8.617877e-06 -1.836556e-04 9.939798e-05 8.706594e-05 -3.936807e-04 -4.761996e-04 -5.176828e-04 -2.601933e-04 -9.547372e-05 1.074742e-04 -7.323075e-05 -1.954613e-05 5.369609e-05 4.640831e-05 -6.348846e-05 1.756421e-05 -3.741090e-05 -1.356936e-04 -1.377177e-04 -1.066439e-04 -9.681136e-05 -7.920908e-05 5.745556e-03 -1.295044e-03 -5.585750e-04 9.275819e-02 5.923432e-02 3.499868e-02
<VARIANCE> 42
 2.318723e-02 5.050158e-02 2.104852e-02 3.191832e-02 9.565447e-03 3.007976e-02 3.848853e-02 1.085110e-01 1.423391e-01 8.680699e-02 1.365276e-01 1.260835e-01 7.958675e-04 1.538882e-03 6.341639e-04 1.009245e-03 3.314717e-04 8.913945e-04 1.269878e-03 2.743338e-03 3.403292e-03 2.565509e-03 5.538981e-03 4.929171e-03 9.581710e-05 1.651749e-04 1.079819e-04 1.035021e-04 6.072183e-05 1.129953e-04 1.563268e-04 3.354140e-04 2.535793e-04 2.699014e-04 7.059887e-04 5.862091e-04 3.251322e-04 3.259155e-04 3.050592e-04 6.263010e-02 3.830430e-02 6.499869e-02
<GCONST> -1.725342e+02
<STATE> 29
<MEAN> 42
 4.576366e-02 2.687911e-02 -2.585546e-02 -4.028796e-02 3.485406e-02 -6.481432e-03 -8.778481e-03 2.049390e-02 4.681878e-02 3.096875e-02 2.566782e-02 5.743007e-02 -2.489377e-05 -1.065632e-05 1.426802e-05 1.794941e-05 -1.941905e-05 2.490997e-06 -6.301798e-06 -3.706079e-04 1.014575e-04 -3.899084e-05 5.418219e-05 1.071906e-05 2.590205e-05 -1.035163e-06 -2.714285e-05 -1.256257e-05 2.708607e-05 -1.408388e-05 3.081490e-06 3.368430e-05 3.320353e-05 4.582947e-06 2.483997e-05 2.615684e-05 5.852390e-05 1.648155e-04 4.132615e-03 3.700543e-02 1.072856e-02 -6.448502e-03
<VARIANCE> 42
 1.987642e-02 3.480696e-03 1.086236e-02 8.958844e-03 1.461169e-02 2.172498e-03 1.064839e-02 5.499865e+00 8.399062e-02 1.166195e+00 3.340227e-02 5.389991e-02 8.449649e-04 9.544490e-05 6.232845e-04 3.143963e-04 7.153884e-04 1.477502e-04 1.568578e-04 4.175875e-01 7.354704e-04 1.833861e-01 7.370919e-04 7.127086e-04 1.258161e-04 2.208909e-05 1.230921e-04 4.317760e-05 1.196170e-04 4.114934e-05 2.445910e-05 1.598313e-01 5.098275e-05 6.869698e-02 7.173219e-05 6.892692e-05 2.311967e-04 2.313481e-04 2.067172e-04 1.063850e-01 4.324866e-03 5.455518e-01
<GCONST> -1.798497e+02
<TRANSP> 30
 0.000000e+00 1.000000e+00 0.000000e+00 0.000000e+00 0.000000e+00 0.000000e+00 0.000000e+00 0.000000e+00 0.000000e+00 0.000000e+00 0.000000e+00 0.000000e+00 0.000000e+00 0.000000e+00 0.000000e+00 0.000000e+00 0.000000e+00 0.000000e+00 0.000000e+00 0.000000e+00 0.000000e+00 0.000000e+00 0.000000e+00 0.000000e+00 0.000000e+00 0.000000e+00 0.000000e+00 0.000000e+00 0.000000e+00 0.000000e+00
 0.000000e+00 9.924603e-01 7.539690e-03 0.000000e+00 0.000000e+00 0.000000e+00 0.000000e+00 0.000000e+00 0.000000e+00 0.000000e+00 0.000000e+00 0.000000e+00 0.000000e+00 0.000000e+00 0.000000e+00 0.000000e+00 0.000000e+00 0.000000e+00 0.000000e+00 0.000000e+00 0.000000e+00 0.000000e+00 0.000000e+00 0.000000e+00 0.000000e+00 0.000000e+00 0.000000e+00 0.000000e+00 0.000000e+00 0.000000e+00
 0.000000e+00 0.000000e+00 9.849511e-01 1.504890e-02 0.000000e+00 0.000000e+00 0.000000e+00 0.000000e+00 0.000000e+00 0.000000e+00 0.000000e+00 0.000000e+00 0.000000e+00 0.000000e+00 0.000000e+00 0.000000e+00 0.000000e+00 0.000000e+00 0.000000e+00 0.000000e+00 0.000000e+00 0.000000e+00 0.000000e+00 0.000000e+00 0.000000e+00 0.000000e+00 0.000000e+00 0.000000e+00 0.000000e+00 0.000000e+00
 0.000000e+00 0.000000e+00 0.000000e+00 9.989648e-01 1.035168e-03 0.000000e+00 0.000000e+00 0.000000e+00 0.000000e+00 0.000000e+00 0.000000e+00 0.000000e+00 0.000000e+00 0.000000e+00 0.000000e+00 0.000000e+00 0.000000e+00 0.000000e+00 0.000000e+00 0.000000e+00 0.000000e+00 0.000000e+00 0.000000e+00 0.000000e+00 0.000000e+00 0.000000e+00 0.000000e+00 0.000000e+00 0.000000e+00 0.000000e+00
 0.000000e+00 0.000000e+00 0.000000e+00 0.000000e+00 9.918213e-01 8.178731e-03 0.000000e+00 0.000000e+00 0.000000e+00 0.000000e+00 0.000000e+00 0.000000e+00 0.000000e+00 0.000000e+00 0.000000e+00 0.000000e+00 0.000000e+00 0.000000e+00 0.000000e+00 0.000000e+00 0.000000e+00 0.000000e+00 0.000000e+00 0.000000e+00 0.000000e+00 0.000000e+00 0.000000e+00 0.000000e+00 0.000000e+00 0.000000e+00
 0.000000e+00 0.000000e+00 0.000000e+00 0.000000e+00 0.000000e+00 9.915369e-01 8.463160e-03 0.000000e+00 0.000000e+00 0.000000e+00 0.000000e+00 0.000000e+00 0.000000e+00 0.000000e+00 0.000000e+00 0.000000e+00 0.000000e+00 0.000000e+00 0.000000e+00 0.000000e+00 0.000000e+00 0.000000e+00 0.000000e+00 0.000000e+00 0.000000e+00 0.000000e+00 0.000000e+00 0.000000e+00 0.000000e+00 0.000000e+00
 0.000000e+00 0.000000e+00 0.000000e+00 0.000000e+00 0.000000e+00 0.000000e+00 9.946201e-01 5.379885e-03 0.000000e+00 0.000000e+00 0.000000e+00 0.000000e+00 0.000000e+00 0.000000e+00 0.000000e+00 0.000000e+00 0.000000e+00 0.000000e+00 0.000000e+00 0.000000e+00 0.000000e+00 0.000000e+00 0.000000e+00 0.000000e+00 0.000000e+00 0.000000e+00 0.000000e+00 0.000000e+00 0.000000e+00 0.000000e+00
 0.000000e+00 0.000000e+00 0.000000e+00 0.000000e+00 0.000000e+00 0.000000e+00 0.000000e+00 9.917306e-01 8.269321e-03 0.000000e+00 0.000000e+00 0.000000e+00 0.000000e+00 0.000000e+00 0.000000e+00 0.000000e+00 0.000000e+00 0.000000e+00 0.000000e+00 0.000000e+00 0.000000e+00 0.000000e+00 0.000000e+00 0.000000e+00 0.000000e+00 0.000000e+00 0.000000e+00 0.000000e+00 0.000000e+00 0.000000e+00
 0.000000e+00 0.000000e+00 0.000000e+00 0.000000e+00 0.000000e+00 0.000000e+00 0.000000e+00 0.000000e+00 9.954146e-01 4.585408e-03 0.000000e+00 0.000000e+00 0.000000e+00 0.000000e+00 0.000000e+00 0.000000e+00 0.000000e+00 0.000000e+00 0.000000e+00 0.000000e+00 0.000000e+00 0.000000e+00 0.000000e+00 0.000000e+00 0.000000e+00 0.000000e+00 0.000000e+00 0.000000e+00 0.000000e+00 0.000000e+00
 0.000000e+00 0.000000e+00 0.000000e+00 0.000000e+00 0.000000e+00 0.000000e+00 0.000000e+00 0.000000e+00 0.000000e+00 9.899759e-01 1.002406e-02 0.000000e+00 0.000000e+00 0.000000e+00 0.000000e+00 0.000000e+00 0.000000e+00 0.000000e+00 0.000000e+00 0.000000e+00 0.000000e+00 0.000000e+00 0.000000e+00 0.000000e+00 0.000000e+00 0.000000e+00 0.000000e+00 0.000000e+00 0.000000e+00 0.000000e+00
 0.000000e+00 0.000000e+00 0.000000e+00 0.000000e+00 0.000000e+00 0.000000e+00 0.000000e+00 0.000000e+00 0.000000e+00 0.000000e+00 7.744178e-01 2.255822e-01 0.000000e+00 0.000000e+00 0.000000e+00 0.000000e+00 0.000000e+00 0.000000e+00 0.000000e+00 0.000000e+00 0.000000e+00 0.000000e+00 0.000000e+00 0.000000e+00 0.000000e+00 0.000000e+00 0.000000e+00 0.000000e+00 0.000000e+00 0.000000e+00
 0.000000e+00 0.000000e+00 0.000000e+00 0.000000e+00 0.000000e+00 0.000000e+00 0.000000e+00 0.000000e+00 0.000000e+00 0.000000e+00 0.000000e+00 6.497813e-01 3.502187e-01 0.000000e+00 0.000000e+00 0.000000e+00 0.000000e+00 0.000000e+00 0.000000e+00 0.000000e+00 0.000000e+00 0.000000e+00 0.000000e+00 0.000000e+00 0.000000e+00 0.000000e+00 0.000000e+00 0.000000e+00 0.000000e+00 0.000000e+00
 0.000000e+00 0.000000e+00 0.000000e+00 0.000000e+00 0.000000e+00 0.000000e+00 0.000000e+00 0.000000e+00 0.000000e+00 0.000000e+00 0.000000e+00 0.000000e+00 9.900299e-01 9.970147e-03 0.000000e+00 0.000000e+00 0.000000e+00 0.000000e+00 0.000000e+00 0.000000e+00 0.000000e+00 0.000000e+00 0.000000e+00 0.000000e+00 0.000000e+00 0.000000e+00 0.000000e+00 0.000000e+00 0.000000e+00 0.000000e+00
 0.000000e+00 0.000000e+00 0.000000e+00 0.000000e+00 0.000000e+00 0.000000e+00 0.000000e+00 0.000000e+00 0.000000e+00 0.000000e+00 0.000000e+00 0.000000e+00 0.000000e+00 8.460653e-01 1.539346e-01 0.000000e+00 0.000000e+00 0.000000e+00 0.000000e+00 0.000000e+00 0.000000e+00 0.000000e+00 0.000000e+00 0.000000e+00 0.000000e+00 0.000000e+00 0.000000e+00 0.000000e+00 0.000000e+00 0.000000e+00
 0.000000e+00 0.000000e+00 0.000000e+00 0.000000e+00 0.000000e+00 0.000000e+00 0.000000e+00 0.000000e+00 0.000000e+00 0.000000e+00 0.000000e+00 0.000000e+00 0.000000e+00 0.000000e+00 9.106154e-01 8.938457e-02 0.000000e+00 0.000000e+00 0.000000e+00 0.000000e+00 0.000000e+00 0.000000e+00 0.000000e+00 0.000000e+00 0.000000e+00 0.000000e+00 0.000000e+00 0.000000e+00 0.000000e+00 0.000000e+00
 0.000000e+00 0.000000e+00 0.000000e+00 0.000000e+00 0.000000e+00 0.000000e+00 0.000000e+00 0.000000e+00 0.000000e+00 0.000000e+00 0.000000e+00 0.000000e+00 0.000000e+00 0.000000e+00 0.000000e+00 8.703662e-01 1.296338e-01 0.000000e+00 0.000000e+00 0.000000e+00 0.000000e+00 0.000000e+00 0.000000e+00 0.000000e+00 0.000000e+00 0.000000e+00 0.000000e+00 0.000000e+00 0.000000e+00 0.000000e+00
 0.000000e+00 0.000000e+00 0.000000e+00 0.000000e+00 0.000000e+00 0.000000e+00 0.000000e+00 0.000000e+00 0.000000e+00 0.000000e+00 0.000000e+00 0.000000e+00 0.000000e+00 0.000000e+00 0.000000e+00 0.000000e+00 9.926260e-01 7.373971e-03 0.000000e+00 0.000000e+00 0.000000e+00 0.000000e+00 0.000000e+00 0.000000e+00 0.000000e+00 0.000000e+00 0.000000e+00 0.000000e+00 0.000000e+00 0.000000e+00
 0.000000e+00 0.000000e+00 0.000000e+00 0.000000e+00 0.000000e+00 0.000000e+00 0.000000e+00 0.000000e+00 0.000000e+00 0.000000e+00 0.000000e+00 0.000000e+00 0.000000e+00 0.000000e+00 0.000000e+00 0.000000e+00 0.000000e+00 9.913870e-01 8.613048e-03 0.000000e+00 0.000000e+00 0.000000e+00 0.000000e+00 0.000000e+00 0.000000e+00 0.000000e+00 0.000000e+00 0.000000e+00 0.000000e+00 0.000000e+00
 0.000000e+00 0.000000e+00 0.000000e+00 0.000000e+00 0.000000e+00 0.000000e+00 0.000000e+00 0.000000e+00 0.000000e+00 0.000000e+00 0.000000e+00 0.000000e+00 0.000000e+00 0.000000e+00 0.000000e+00 0.000000e+00 0.000000e+00 0.000000e+00 9.915383e-01 8.461737e-03 0.000000e+00 0.000000e+00 0.000000e+00 0.000000e+00 0.000000e+00 0.000000e+00 0.000000e+00 0.000000e+00 0.000000e+00 0.000000e+00
 0.000000e+00 0.000000e+00 0.000000e+00 0.000000e+00 0.000000e+00 0.000000e+00 0.000000e+00 0.000000e+00 0.000000e+00 0.000000e+00 0.000000e+00 0.000000e+00 0.000000e+00 0.000000e+00 0.000000e+00 0.000000e+00 0.000000e+00 0.000000e+00 0.000000e+00 9.969571e-01 3.042858e-03 0.000000e+00 0.000000e+00 0.000000e+00 0.000000e+00 0.000000e+00 0.000000e+00 0.000000e+00 0.000000e+00 0.000000e+00
 0.000000e+00 0.000000e+00 0.000000e+00 0.000000e+00 0.000000e+00 0.000000e+00 0.000000e+00 0.000000e+00 0.000000e+00 0.000000e+00 0.000000e+00 0.000000e+00 0.000000e+00 0.000000e+00 0.000000e+00 0.000000e+00 0.000000e+00 0.000000e+00 0.000000e+00 0.000000e+00 9.921622e-01 7.837835e-03 0.000000e+00 0.000000e+00 0.000000e+00 0.000000e+00 0.000000e+00 0.000000e+00 0.000000e+00 0.000000e+00
 0.000000e+00 0.000000e+00 0.000000e+00 0.000000e+00 0.000000e+00 0.000000e+00 0.000000e+00 0.000000e+00 0.000000e+00 0.000000e+00 0.000000e+00 0.000000e+00 0.000000e+00 0.000000e+00 0.000000e+00 0.000000e+00 0.000000e+00 0.000000e+00 0.000000e+00 0.000000e+00 0.000000e+00 9.952515e-01 4.748553e-03 0.000000e+00 0.000000e+00 0.000000e+00 0.000000e+00 0.000000e+00 0.000000e+00 0.000000e+00
 0.000000e+00 0.000000e+00 0.000000e+00 0.000000e+00 0.000000e+00 0.000000e+00 0.000000e+00 0.000000e+00 0.000000e+00 0.000000e+00 0.000000e+00 0.000000e+00 0.000000e+00 0.000000e+00 0.000000e+00 0.000000e+00 0.000000e+00 0.000000e+00 0.000000e+00 0.000000e+00 0.000000e+00 0.000000e+00 9.851050e-01 1.489499e-02 0.000000e+00 0.000000e+00 0.000000e+00 0.000000e+00 0.000000e+00 0.000000e+00
 0.000000e+00 0.000000e+00 0.000000e+00 0.000000e+00 0.000000e+00 0.000000e+00 0.000000e+00 0.000000e+00 0.000000e+00 0.000000e+00 0.000000e+00 0.000000e+00 0.000000e+00 0.000000e+00 0.000000e+00 0.000000e+00 0.000000e+00 0.000000e+00 0.000000e+00 0.000000e+00 0.000000e+00 0.000000e+00 0.000000e+00 9.960491e-01 3.950909e-03 0.000000e+00 0.000000e+00 0.000000e+00 0.000000e+00 0.000000e+00
 0.000000e+00 0.000000e+00 0.000000e+00 0.000000e+00 0.000000e+00 0.000000e+00 0.000000e+00 0.000000e+00 0.000000e+00 0.000000e+00 0.000000e+00 0.000000e+00 0.000000e+00 0.000000e+00 0.000000e+00 0.000000e+00 0.000000e+00 0.000000e+00 0.000000e+00 0.000000e+00 0.000000e+00 0.000000e+00 0.000000e+00 0.000000e+00 9.938797e-01 6.120295e-03 0.000000e+00 0.000000e+00 0.000000e+00 0.000000e+00
 0.000000e+00 0.000000e+00 0.000000e+00 0.000000e+00 0.000000e+00 0.000000e+00 0.000000e+00 0.000000e+00 0.000000e+00 0.000000e+00 0.000000e+00 0.000000e+00 0.000000e+00 0.000000e+00 0.000000e+00 0.000000e+00 0.000000e+00 0.000000e+00 0.000000e+00 0.000000e+00 0.000000e+00 0.000000e+00 0.000000e+00 0.000000e+00 0.000000e+00 9.963387e-01 3.661316e-03 0.000000e+00 0.000000e+00 0.000000e+00
 0.000000e+00 0.000000e+00 0.000000e+00 0.000000e+00 0.000000e+00 0.000000e+00 0.000000e+00 0.000000e+00 0.000000e+00 0.000000e+00 0.000000e+00 0.000000e+00 0.000000e+00 0.000000e+00 0.000000e+00 0.000000e+00 0.000000e+00 0.000000e+00 0.000000e+00 0.000000e+00 0.000000e+00 0.000000e+00 0.000000e+00 0.000000e+00 0.000000e+00 0.000000e+00 9.940464e-01 5.953616e-03 0.000000e+00 0.000000e+00
 0.000000e+00 0.000000e+00 0.000000e+00 0.000000e+00 0.000000e+00 0.000000e+00 0.000000e+00 0.000000e+00 0.000000e+00 0.000000e+00 0.000000e+00 0.000000e+00 0.000000e+00 0.000000e+00 0.000000e+00 0.000000e+00 0.000000e+00 0.000000e+00 0.000000e+00 0.000000e+00 0.000000e+00 0.000000e+00 0.000000e+00 0.000000e+00 0.000000e+00 0.000000e+00 0.000000e+00 9.958225e-01 4.177435e-03 0.000000e+00
 0.000000e+00 0.000000e+00 0.000000e+00 0.000000e+00 0.000000e+00 0.000000e+00 0.000000e+00 0.000000e+00 0.000000e+00 0.000000e+00 0.000000e+00 0.000000e+00 0.000000e+00 0.000000e+00 0.000000e+00 0.000000e+00 0.000000e+00 0.000000e+00 0.000000e+00 0.000000e+00 0.000000e+00 0.000000e+00 0.000000e+00 0.000000e+00 0.000000e+00 0.000000e+00 0.000000e+00 0.000000e+00 9.926478e-01 7.352178e-03
 0.000000e+00 0.000000e+00 0.000000e+00 0.000000e+00 0.000000e+00 0.000000e+00 0.000000e+00 0.000000e+00 0.000000e+00 0.000000e+00 0.000000e+00 0.000000e+00 0.000000e+00 0.000000e+00 0.000000e+00 0.000000e+00 0.000000e+00 0.000000e+00 0.000000e+00 0.000000e+00 0.000000e+00 0.000000e+00 0.000000e+00 0.000000e+00 0.000000e+00 0.000000e+00 0.000000e+00 0.000000e+00 0.000000e+00 0.000000e+00
<ENDHMM>
