~o
<STREAMINFO> 1 42
<VECSIZE> 42<NULLD><USER><DIAGC>
~h "CONTROL"
<BEGINHMM>
<NUMSTATES> 50
<STATE> 2
<NUMMIXES> 4
<MIXTURE> 1 1.539771e-01
<MEAN> 42
 7.924121e-02 1.036394e-01 1.670664e-02 -9.063636e-02 3.221104e-02 5.663470e-02 -3.042149e-02 2.233520e-02 8.087178e-02 1.151697e-01 1.239619e-01 1.123301e-01 -1.299311e-06 2.493427e-03 2.497192e-03 -1.257047e-03 -1.215912e-03 2.497514e-03 8.838163e-04 5.171430e-04 9.471853e-04 1.807593e-03 1.878954e-03 1.832386e-03 -1.277585e-04 8.941471e-04 1.022188e-03 -3.845463e-04 -5.633218e-04 9.697749e-04 8.886139e-04 8.228639e-04 8.876796e-04 9.728110e-04 8.642181e-04 8.011544e-04 6.054501e-03 2.039142e-03 1.960082e-03 1.027944e-01 7.115014e-02 4.156578e-03
<VARIANCE> 42
 2.307943e-03 5.058378e-03 3.465818e-03 2.733273e-03 1.397308e-03 3.382584e-03 3.759379e-03 1.224978e-02 1.730804e-02 6.037153e-03 7.019857e-03 7.019972e-03 7.021421e-05 6.160619e-05 6.102734e-05 5.063766e-05 4.998002e-05 4.428241e-05 2.447760e-05 7.374013e-05 2.440436e-05 4.065752e-05 2.549235e-05 2.590245e-05 2.319430e-05 1.942353e-05 2.672542e-05 1.470968e-05 2.000778e-05 1.747409e-05 5.118140e-06 2.601508e-05 4.397962e-06 1.211414e-05 5.462990e-06 4.428243e-06 2.584696e-05 2.006942e-04 3.181305e-04 2.800823e-03 3.723216e-03 4.647845e-03
<GCONST> -2.876157e+02
<MIXTURE> 2 3.444851e-01
<MEAN> 42
 2.964962e-03 6.230691e-03 -2.297775e-03 -3.814073e-03 1.395574e-03 -1.004702e-03 8.887504e-04 8.949559e-03 1.144782e-02 6.228060e-03 1.065658e-03 5.366178e-03 6.557377e-04 1.274432e-03 6.222622e-04 -9.677785e-04 1.029385e-05 9.440390e-04 7.712189e-04 8.073171e-04 8.917723e-04 7.871578e-04 8.309046e-04 8.126852e-04 3.514318e-04 7.262478e-04 3.811219e-04 -5.393327e-04 -8.920091e-06 5.531324e-04 3.923603e-04 4.886454e-04 6.417992e-04 5.661744e-04 5.471811e-04 5.593812e-04 2.415787e-04 -4.583716e-04 -3.470120e-04 3.716151e-03 3.684973e-03 -4.847494e-03
<VARIANCE> 42
 3.890316e-04 6.010237e-04 5.317133e-04 3.898589e-04 3.136871e-04 5.570410e-04 5.993340e-04 1.370589e-03 1.266530e-03 6.758781e-04 4.191562e-04 9.051359e-04 2.455183e-05 1.872071e-05 1.956250e-05 1.691583e-05 1.742116e-05 1.291313e-05 6.684227e-06 7.374013e-05 9.872299e-06 4.065752e-05 1.131955e-05 9.692515e-06 9.257114e-06 6.647020e-06 6.965678e-06 6.230194e-06 6.423575e-06 4.472182e-06 1.928827e-06 2.601508e-05 2.816859e-06 1.211414e-05 2.132227e-06 2.206963e-06 2.388445e-06 1.041365e-05 4.120587e-05 2.765478e-04 3.859600e-04 3.428365e-04
<GCONST> -3.474290e+02
<MIXTURE> 3 3.034195e-01
<MEAN> 42
 -5.639438e-03 -1.422383e-02 -1.462245e-02 1.090518e-02 3.981971e-03 -1.853883e-02 5.234154e-04 3.266185e-03 -6.432277e-03 -1.254894e-02 -1.749900e-02 -1.459964e-02 -1.122462e-03 -1.826306e-03 -7.117283e-04 1.475120e-03 -2.100782e-04 -1.253861e-03 -5.930654e-04 -9.608746e-04 -1.214519e-03 -1.329830e-03 -1.271320e-03 -1.365170e-03 -2.247148e-04 -6.508088e-04 -4.307644e-04 4.383601e-04 9.582515e-05 -5.396387e-04 -4.658815e-04 -4.547355e-04 -5.988519e-04 -5.053156e-04 -4.714134e-04 -4.700656e-04 -6.931242e-04 5.550178e-04 -2.112499e-03 -1.176738e-02 -1.182896e-02 -2.873546e-03
<VARIANCE> 42
 3.568019e-04 6.551122e-04 5.561932e-04 3.690477e-04 3.152820e-04 5.931940e-04 7.585855e-04 1.370589e-03 9.265204e-04 7.199830e-04 5.223495e-04 9.229191e-04 2.218907e-05 1.826222e-05 1.783730e-05 1.581529e-05 1.560221e-05 1.260687e-05 6.299109e-06 7.374013e-05 9.872299e-06 4.065752e-05 1.131955e-05 8.494042e-06 8.992583e-06 6.812232e-06 7.206177e-06 6.127313e-06 6.471330e-06 4.780875e-06 2.053267e-06 2.601508e-05 3.056550e-06 1.211414e-05 2.320136e-06 2.227021e-06 3.802209e-06 9.186915e-06 3.821434e-05 3.673577e-04 4.520188e-04 3.864851e-04
<GCONST> -3.466059e+02
<MIXTURE> 4 1.981201e-01
<MEAN> 42
 5.510036e-02 6.830990e-02 6.109860e-03 -6.270005e-02 2.561160e-02 3.284842e-02 -3.099502e-02 -2.969351e-03 4.456025e-02 6.844597e-02 7.328387e-02 7.484239e-02 -2.234735e-04 -2.094843e-03 -1.866729e-03 1.172744e-03 8.026449e-04 -1.999821e-03 -1.107331e-03 -2.322246e-03 -2.767432e-03 -2.395498e-03 -2.324114e-03 -2.107916e-03 -1.940943e-04 -1.066505e-03 -8.763404e-04 6.332964e-04 3.319832e-04 -9.831536e-04 -6.318848e-04 -8.085306e-04 -9.401958e-04 -1.025464e-03 -9.643680e-04 -9.241484e-04 4.843574e-03 1.725507e-04 -4.214530e-04 6.674503e-02 4.674067e-02 1.303787e-02
<VARIANCE> 42
 2.281066e-03 5.310673e-03 4.181462e-03 2.562589e-03 1.663941e-03 4.133942e-03 2.696872e-03 8.747401e-03 5.959657e-03 4.871512e-03 5.168003e-03 7.470639e-03 6.708349e-05 5.534597e-05 5.664219e-05 4.710575e-05 4.796815e-05 3.964375e-05 2.764756e-05 7.374013e-05 2.736876e-05 4.065752e-05 2.913346e-05 2.623890e-05 2.489836e-05 1.738747e-05 2.122079e-05 1.588704e-05 1.856189e-05 1.324261e-05 5.290148e-06 2.601508e-05 5.170212e-06 1.211414e-05 5.242162e-06 5.807602e-06 2.072550e-05 8.654612e-05 2.531016e-04 2.567178e-03 3.985854e-03 2.354056e-03
<GCONST> -2.914532e+02
<STATE> 3
<NUMMIXES> 4
<MIXTURE> 1 1.195965e-01
<MEAN> 42
 6.592361e-02 8.370319e-02 1.919259e-02 -7.269960e-02 2.654599e-02 4.740690e-02 -6.223333e-02 -6.904224e-03 2.436793e-02 4.606967e-02 7.974872e-02 4.614703e-02 2.692987e-03 5.965794e-03 3.275261e-03 -4.325251e-03 -2.825271e-04 4.702677e-03 2.633904e-03 3.422740e-03 3.769509e-03 4.319237e-03 5.279005e-03 4.269319e-03 -4.340879e-04 1.137946e-03 1.570278e-03 -3.512434e-04 -1.010738e-03 1.393247e-03 2.036848e-03 2.043725e-03 1.956451e-03 1.859729e-03 2.325443e-03 1.730249e-03 6.094993e-03 3.815476e-03 1.729178e-03 6.228954e-02 5.775228e-02 2.685300e-02
<VARIANCE> 42
 6.192589e-03 3.925213e-03 2.295784e-03 4.515531e-03 3.092284e-03 1.446883e-03 1.410097e-02 1.370589e-03 4.640668e-03 5.430667e-03 1.349156e-02 4.482144e-03 1.607272e-04 1.245420e-04 1.005184e-04 1.176248e-04 1.000123e-04 7.361114e-05 4.982609e-05 7.374013e-05 4.154553e-05 4.065752e-05 1.557999e-04 3.065228e-05 5.117552e-05 3.548444e-05 3.780010e-05 3.387570e-05 3.617715e-05 2.437433e-05 1.059495e-05 2.601508e-05 9.562998e-06 1.211414e-05 2.870152e-05 9.372610e-06 6.650484e-05 8.430218e-05 2.293474e-04 6.796157e-03 1.541231e-03 9.624645e-04
<GCONST> -2.760424e+02
<MIXTURE> 2 4.241734e-01
<MEAN> 42
 -5.780066e-04 3.344184e-03 5.984445e-03 2.094484e-03 2.481514e-04 1.638872e-03 2.366695e-03 -7.718052e-03 -2.553216e-04 -8.067613e-04 1.027876e-02 3.264435e-03 -3.791014e-04 7.325066e-04 1.108847e-03 -1.759464e-04 -7.395039e-04 9.270378e-04 1.398569e-03 1.153485e-03 1.312663e-03 1.147904e-03 1.821573e-03 8.283551e-04 6.783045e-04 9.413561e-04 2.618052e-04 -8.121746e-04 2.112775e-04 6.007539e-04 5.605207e-04 8.427500e-04 8.414951e-04 6.162508e-04 7.685391e-04 5.628705e-04 3.936113e-05 9.958517e-04 1.729515e-03 2.912856e-03 4.001971e-03 3.210549e-03
<VARIANCE> 42
 7.046575e-04 1.107793e-03 7.664624e-04 6.433247e-04 4.140210e-04 7.064425e-04 8.160925e-04 1.370589e-03 6.667840e-04 6.537745e-04 2.917268e-03 6.290757e-04 1.079254e-04 6.636237e-05 7.402100e-05 6.865973e-05 7.441191e-05 4.401143e-05 2.167818e-05 7.374013e-05 2.451165e-05 4.065752e-05 7.708311e-05 2.068700e-05 4.189960e-05 2.936282e-05 2.991899e-05 2.816909e-05 2.856831e-05 1.956830e-05 7.703949e-06 2.601508e-05 8.924055e-06 1.211414e-05 2.712901e-05 7.765675e-06 2.231109e-06 2.644381e-05 7.896736e-05 3.235204e-04 7.009071e-04 2.838487e-04
<GCONST> -3.133646e+02
<MIXTURE> 3 2.878782e-01
<MEAN> 42
 -1.419562e-02 -1.927790e-02 -4.511023e-03 1.893728e-02 -1.486508e-03 -1.566875e-02 -4.322571e-03 -1.560536e-02 -1.449416e-02 -1.962295e-02 -2.594475e-02 -1.663806e-02 -1.531476e-03 -4.494836e-03 -2.965337e-03 3.020155e-03 7.068102e-04 -3.791421e-03 -1.244683e-03 -2.480491e-03 -3.341336e-03 -3.770927e-03 -4.726653e-03 -3.634504e-03 -1.186926e-04 -7.380992e-04 -6.142085e-04 4.295180e-04 2.465103e-04 -6.838980e-04 -1.138241e-03 -1.422941e-03 -1.480649e-03 -1.274543e-03 -1.459685e-03 -1.258767e-03 -9.949355e-04 -1.286063e-05 -1.256319e-04 -1.585321e-02 -1.372127e-02 5.126825e-03
<VARIANCE> 42
 9.385223e-04 1.405269e-03 1.042271e-03 8.337816e-04 5.148254e-04 1.000584e-03 1.079003e-03 1.370589e-03 1.081741e-03 1.215418e-03 2.565444e-03 1.168531e-03 1.126986e-04 7.274037e-05 9.081035e-05 7.013109e-05 8.319993e-05 5.421766e-05 3.282825e-05 7.374013e-05 2.854377e-05 4.065752e-05 6.035141e-05 2.295729e-05 3.628017e-05 2.800620e-05 3.314102e-05 2.393006e-05 2.755302e-05 2.175346e-05 1.036648e-05 2.601508e-05 1.090438e-05 1.211414e-05 1.959291e-05 8.681145e-06 3.223386e-06 3.227932e-05 9.852865e-05 5.231905e-04 8.913583e-04 2.860946e-04
<GCONST> -3.071076e+02
<MIXTURE> 4 1.683505e-01
<MEAN> 42
 3.427125e-02 6.032367e-02 2.359460e-02 -4.777228e-02 1.100387e-02 3.455108e-02 -3.061817e-02 -1.354421e-02 -1.418378e-02 3.964722e-03 3.190839e-02 8.020794e-03 -1.160619e-03 -2.081438e-03 -9.248331e-04 1.616277e-03 -1.133787e-04 -1.512853e-03 -4.826465e-04 -4.860795e-04 -8.705178e-04 -1.113170e-03 -2.448257e-03 -9.915309e-04 -1.251616e-03 -1.729138e-03 -4.757621e-04 1.490782e-03 -3.836517e-04 -1.112539e-03 -4.033626e-04 -3.475594e-04 -3.411226e-04 -3.536198e-04 -8.339850e-04 -4.184236e-04 2.850765e-03 4.069184e-03 -3.511267e-03 1.937924e-02 4.734926e-02 2.397789e-02
<VARIANCE> 42
 2.515770e-03 3.258137e-03 2.618860e-03 2.136323e-03 1.597372e-03 2.390555e-03 3.919037e-03 1.466273e-03 2.717974e-03 2.518156e-03 8.722128e-03 2.517010e-03 1.201554e-04 9.540489e-05 1.137048e-04 7.957678e-05 9.439122e-05 7.556798e-05 6.384762e-05 7.374013e-05 3.091013e-05 4.065752e-05 7.883515e-05 2.975311e-05 5.113648e-05 3.742772e-05 5.117238e-05 3.150286e-05 4.257077e-05 3.209933e-05 1.301174e-05 2.601508e-05 9.371253e-06 1.211414e-05 2.078568e-05 9.597538e-06 1.484691e-05 7.286944e-05 2.272792e-04 2.057529e-03 2.063586e-03 5.821894e-04
<GCONST> -2.855025e+02
<STATE> 4
<NUMMIXES> 4
<MIXTURE> 1 2.615898e-01
<MEAN> 42
 3.047016e-02 2.661466e-02 -5.251994e-03 -2.708959e-02 1.782511e-02 1.126940e-02 -9.831808e-03 2.847707e-02 3.634446e-02 3.884634e-02 4.193028e-02 3.768944e-02 4.205296e-04 1.011825e-03 5.963877e-04 -7.095384e-04 -7.064769e-05 8.149408e-04 1.811105e-04 5.365829e-04 8.127657e-04 8.195547e-04 8.352436e-04 6.351125e-04 8.816625e-05 4.068937e-04 3.209931e-04 -2.393808e-04 -1.047309e-04 3.729769e-04 2.077268e-04 2.430223e-04 3.127431e-04 3.045580e-04 3.301364e-04 2.945099e-04 4.552243e-03 -7.679594e-04 -9.952994e-04 3.481165e-02 1.441011e-02 -8.202760e-03
<VARIANCE> 42
 2.870393e-03 1.907938e-03 6.722379e-04 2.227917e-03 1.282671e-03 5.855619e-04 1.641204e-03 2.417902e-03 4.357230e-03 4.700167e-03 4.456079e-03 5.742252e-03 1.594035e-05 1.065878e-05 1.098957e-05 1.060262e-05 1.088703e-05 7.027204e-06 8.667223e-06 7.374013e-05 9.872299e-06 4.065752e-05 1.495706e-05 1.505325e-05 2.082206e-06 1.666796e-06 2.586385e-06 1.231371e-06 1.957398e-06 1.657295e-06 1.039145e-06 2.601508e-05 1.216675e-06 1.211414e-05 1.177609e-06 1.068412e-06 8.015115e-05 5.391442e-05 1.193671e-04 3.423317e-03 7.311373e-04 6.737089e-04
<GCONST> -3.344111e+02
<MIXTURE> 2 2.213957e-01
<MEAN> 42
 9.682459e-02 9.363570e-02 -6.550382e-03 -9.556718e-02 5.183367e-02 4.316714e-02 -4.495098e-02 5.018430e-02 9.568153e-02 1.204789e-01 1.436944e-01 1.518421e-01 3.720516e-03 4.231101e-03 5.112381e-04 -3.983445e-03 1.617313e-03 2.384920e-03 -6.159241e-04 3.943830e-03 6.635706e-03 8.418364e-03 8.321295e-03 7.184452e-03 9.756071e-04 5.891729e-04 -3.803964e-04 -7.834793e-04 6.798672e-04 1.079469e-04 -8.507574e-05 4.669543e-04 9.017088e-04 1.291369e-03 1.324329e-03 1.332407e-03 9.768303e-03 1.024507e-03 6.163241e-03 1.214902e-01 5.794716e-02 -4.080012e-04
<VARIANCE> 42
 3.479255e-02 3.021458e-02 1.365209e-02 2.895718e-02 1.660544e-02 1.321276e-02 2.913678e-02 1.119919e-01 9.329342e-02 9.632408e-02 8.155762e-02 7.895834e-02 1.261991e-03 7.035822e-04 6.019383e-04 8.325155e-04 7.584912e-04 3.383130e-04 7.261698e-04 1.671010e-03 1.802857e-03 1.785522e-03 1.880329e-03 1.697466e-03 1.030854e-04 6.752529e-05 7.928160e-05 6.558663e-05 7.466196e-05 4.793243e-05 5.349474e-05 1.502688e-04 1.977918e-04 1.884009e-04 1.750651e-04 1.343102e-04 5.605139e-04 6.262693e-04 6.053427e-04 5.641107e-02 1.486706e-02 3.720827e-02
<GCONST> -1.872125e+02
<MIXTURE> 3 4.313484e-01
<MEAN> 42
 3.660007e-03 -5.035913e-04 -5.294955e-03 4.912727e-05 4.413066e-03 -2.433867e-03 2.813146e-03 9.614707e-03 2.795961e-04 7.211073e-03 1.227552e-03 -5.627819e-03 -2.191409e-04 -5.893178e-04 -3.723242e-04 4.021028e-04 6.659236e-05 -4.884764e-04 -1.321248e-04 -3.455869e-04 -4.237757e-04 -5.434164e-04 -5.146761e-04 -5.145193e-04 -2.602809e-05 -2.403916e-04 -2.168176e-04 1.277447e-04 8.896597e-05 -2.347264e-04 -1.714391e-04 -1.619930e-04 -2.049299e-04 -2.029250e-04 -1.885763e-04 -1.564235e-04 3.105795e-04 -9.587895e-04 -1.287512e-03 2.820650e-04 -1.707910e-03 -4.658973e-03
<VARIANCE> 42
 7.684320e-04 6.455414e-04 4.076423e-04 5.703452e-04 4.510960e-04 3.740710e-04 4.945063e-04 1.370589e-03 3.137732e-03 1.896179e-03 1.397299e-03 1.985495e-03 9.366483e-06 7.552623e-06 8.775672e-06 6.273269e-06 7.274877e-06 5.941561e-06 5.016795e-06 7.374013e-05 9.872299e-06 4.065752e-05 1.131955e-05 8.494042e-06 1.983963e-06 1.567767e-06 2.564131e-06 1.139987e-06 1.906582e-06 1.617738e-06 9.360597e-07 2.601508e-05 1.457306e-06 1.211414e-05 1.159081e-06 9.540232e-07 9.549771e-06 2.521656e-05 8.738034e-05 7.541719e-04 3.519047e-04 4.454986e-04
<GCONST> -3.551439e+02
<MIXTURE> 4 8.566840e-02
<MEAN> 42
 7.481359e-02 -4.979879e-03 -8.265747e-02 -3.529036e-02 7.927818e-02 -4.610666e-02 -7.968442e-02 -1.348751e-01 -1.076727e-01 -3.199904e-02 3.426646e-02 6.091271e-02 -9.649387e-03 -1.081971e-02 -1.179136e-03 1.024545e-02 -4.267145e-03 -6.029237e-03 1.624060e-03 -1.001780e-02 -1.770137e-02 -2.159355e-02 -2.156670e-02 -1.808741e-02 -2.651408e-03 -1.581371e-03 1.058496e-03 2.122210e-03 -1.863581e-03 -2.696028e-04 4.210167e-04 -1.137834e-03 -2.256131e-03 -3.222475e-03 -3.509947e-03 -3.540353e-03 7.294798e-03 1.650491e-02 1.570558e-03 3.488611e-02 -6.933386e-03 9.816346e-02
<VARIANCE> 42
 7.681328e-02 2.472958e-02 3.938391e-02 4.095626e-02 5.210695e-02 1.281385e-02 3.863109e-02 1.017154e-01 8.986376e-02 8.528218e-02 7.807153e-02 8.350801e-02 2.682506e-03 1.010292e-03 1.696510e-03 1.423101e-03 1.936529e-03 6.865442e-04 8.274619e-04 3.587125e-03 4.317554e-03 4.427498e-03 4.343943e-03 3.474993e-03 3.451342e-04 1.275678e-04 2.656577e-04 1.706870e-04 2.731257e-04 1.111741e-04 1.070611e-04 2.753054e-04 3.142860e-04 3.175883e-04 4.111287e-04 3.754217e-04 1.009370e-03 8.922942e-04 7.073766e-04 5.612184e-02 1.100358e-02 4.386220e-02
<GCONST> -1.642289e+02
<STATE> 5
<MEAN> 42
 1.260662e-02 9.873001e-03 5.119530e-04 -8.993097e-03 5.566056e-03 -5.672462e-04 8.886706e-03 3.166212e-02 1.228701e-02 1.401625e-02 5.815933e-03 4.941769e-03 -1.678921e-05 9.698700e-05 1.133929e-04 -4.009739e-05 -6.550719e-05 1.065196e-04 2.120304e-04 5.369587e-04 5.822186e-04 4.082529e-04 2.875957e-04 1.389447e-04 -4.355115e-05 3.533411e-05 7.855533e-05 3.956578e-06 -6.093040e-05 5.814133e-05 8.004886e-05 9.753066e-05 1.091256e-04 5.898764e-05 4.427819e-05 1.259589e-05 2.989394e-05 -1.662295e-03 2.300463e-03 5.081911e-03 4.665475e-03 -1.361800e-02
<VARIANCE> 42
 2.890749e-03 2.413674e-03 1.713831e-03 2.252226e-03 1.657218e-03 1.351871e-03 2.587958e-03 6.947032e-03 5.355231e-03 4.795243e-03 4.102554e-03 2.389203e-03 8.464307e-05 5.984490e-05 7.671044e-05 5.302385e-05 6.572210e-05 4.707497e-05 3.441196e-05 7.374013e-05 4.110755e-05 4.065752e-05 6.126640e-05 2.899501e-05 3.027101e-05 1.922779e-05 2.569488e-05 1.830716e-05 2.317191e-05 1.485260e-05 7.394529e-06 2.601508e-05 8.843534e-06 1.211414e-05 1.437876e-05 7.590956e-06 1.799671e-05 4.968737e-05 1.352559e-04 2.367479e-03 1.247191e-03 1.940390e-03
<GCONST> -2.928699e+02
<STATE> 6
<MEAN> 42
 1.660056e-02 2.221535e-02 2.910187e-02 -1.246324e-02 -7.139985e-05 2.251433e-02 1.048415e-02 3.833222e-02 4.774523e-02 4.133359e-02 2.497454e-02 2.484076e-02 -1.913926e-04 8.770069e-05 2.861621e-04 5.101349e-05 -2.367385e-04 1.839348e-04 1.124524e-03 1.269135e-03 1.456784e-03 7.384723e-04 2.425754e-04 5.019079e-05 3.891970e-05 4.155200e-05 3.875420e-06 -4.114987e-05 1.754944e-05 2.238271e-05 1.733909e-04 3.484132e-04 2.347724e-04 1.958703e-04 6.690776e-05 2.921911e-05 5.271302e-04 2.238544e-04 4.060707e-03 2.388874e-02 1.205208e-02 -2.194568e-02
<VARIANCE> 42
 4.279154e-03 1.392640e-02 7.564306e-03 7.471984e-03 2.460683e-03 9.656310e-03 3.329070e-03 3.278062e-02 2.559750e-02 2.569536e-02 2.218777e-02 1.970845e-02 2.086575e-04 2.596415e-04 1.722894e-04 1.911072e-04 1.261672e-04 1.644476e-04 1.318037e-04 5.436683e-04 6.131618e-04 6.854886e-04 6.091302e-04 5.263425e-04 4.432128e-05 3.106489e-05 2.954369e-05 3.030676e-05 2.934898e-05 1.933842e-05 1.403745e-05 3.390518e-05 4.226066e-05 5.659865e-05 5.110407e-05 4.276954e-05 2.105607e-04 2.354676e-04 2.344777e-04 1.356998e-02 9.758789e-03 1.007393e-02
<GCONST> -2.373779e+02
<STATE> 7
<MEAN> 42
 8.740944e-02 8.122283e-02 -1.319755e-03 -8.003823e-02 4.305263e-02 3.458789e-02 -4.325894e-02 3.839473e-02 8.069287e-02 1.328836e-01 1.272721e-01 1.106455e-01 2.853696e-04 3.202928e-04 3.514636e-05 -3.028529e-04 1.244382e-04 1.795478e-04 -1.086801e-03 -1.399222e-03 -8.076960e-04 -1.685483e-04 2.702376e-05 3.196562e-04 3.965033e-08 -6.500200e-05 -6.553775e-05 3.241926e-05 3.234042e-05 -6.499096e-05 -2.925364e-05 -5.640711e-05 -6.235226e-05 -7.745486e-05 -2.212161e-05 -4.782022e-05 9.669414e-03 7.130092e-04 9.549282e-04 1.098470e-01 4.805980e-02 -1.060835e-03
<VARIANCE> 42
 3.657412e-02 4.483336e-02 3.436994e-02 3.189661e-02 2.476468e-02 3.084651e-02 4.046826e-02 9.252582e-02 1.155673e-01 1.296351e-01 1.088072e-01 7.985137e-02 1.154585e-03 1.183128e-03 9.144721e-04 9.414009e-04 7.408384e-04 7.614250e-04 9.409942e-04 2.107538e-03 2.985304e-03 3.794590e-03 3.300487e-03 2.339718e-03 1.253898e-04 1.243381e-04 1.216190e-04 9.450425e-05 9.260442e-05 9.170263e-05 7.921818e-05 1.809786e-04 2.422311e-04 3.163346e-04 2.814656e-04 1.968647e-04 5.444849e-04 5.545059e-04 4.136518e-04 7.414852e-02 2.943459e-02 4.096600e-02
<GCONST> -1.740182e+02
<STATE> 8
<MEAN> 42
 4.411267e-02 3.485660e-02 -1.270156e-02 -3.836557e-02 2.850936e-02 6.506072e-03 -2.337050e-02 4.715009e-02 5.115597e-02 4.363384e-02 7.606132e-02 4.435372e-02 2.298690e-05 -7.332562e-05 -9.884669e-05 2.528985e-05 6.306212e-05 -9.003462e-05 7.811115e-04 1.581651e-03 6.408442e-04 2.520093e-04 2.773137e-04 -5.704631e-05 -2.087262e-05 2.122476e-05 4.332196e-05 4.417197e-07 -3.277532e-05 3.114419e-05 -1.705240e-04 -3.235828e-04 -2.466306e-04 -1.246932e-04 -1.445396e-04 -2.724645e-05 3.415611e-03 8.868170e-04 -2.385119e-03 5.016725e-02 1.754123e-02 -1.109853e-02
<VARIANCE> 42
 9.643686e-03 1.258168e-02 2.409848e-03 1.034968e-02 2.890220e-03 5.208382e-03 8.676085e-03 1.721468e-02 3.050083e-02 2.230609e-02 2.411437e-02 1.413611e-02 2.200569e-04 2.825781e-04 6.726976e-05 2.341968e-04 7.474810e-05 1.211111e-04 2.679904e-04 2.960254e-04 1.043544e-03 6.183182e-04 4.656868e-04 3.154241e-04 2.907043e-05 3.296928e-05 2.116219e-05 2.561233e-05 1.730258e-05 1.981830e-05 2.366422e-05 2.660345e-05 1.252103e-04 5.507134e-05 6.089742e-05 2.606824e-05 1.280880e-04 2.544999e-04 2.675880e-04 1.522215e-02 5.121585e-03 5.047259e-03
<GCONST> -2.413793e+02
<STATE> 9
<MEAN> 42
 5.057243e-03 8.276078e-03 2.120705e-03 -2.871056e-03 1.675403e-03 1.421671e-03 1.880755e-04 9.849722e-03 3.927552e-03 3.306233e-03 6.469123e-03 4.102914e-03 -1.880709e-04 -2.511680e-04 -6.290131e-05 2.199478e-04 -6.322650e-05 -1.565923e-04 6.980932e-05 -1.668228e-04 -2.502165e-04 -2.687858e-04 -3.035528e-04 -2.284677e-04 1.602766e-05 1.913805e-05 3.240042e-06 -1.773786e-05 6.686154e-06 1.186355e-05 1.089802e-05 3.909600e-05 2.898169e-05 2.272538e-05 2.747475e-05 1.963600e-05 2.683791e-04 -1.005816e-04 7.369869e-04 3.529933e-03 5.989586e-03 -2.516614e-03
<VARIANCE> 42
 1.098962e-03 1.612852e-03 8.514763e-04 1.177897e-03 5.545271e-04 9.505390e-04 5.873165e-04 1.890652e-03 2.067966e-03 1.702577e-03 1.991290e-03 1.510683e-03 7.527258e-05 5.700630e-05 6.308228e-05 5.035288e-05 5.511106e-05 4.171686e-05 1.736826e-05 7.374013e-05 2.122256e-05 4.065752e-05 3.207361e-05 1.724984e-05 2.738414e-05 2.028880e-05 2.319708e-05 1.800247e-05 2.028928e-05 1.511145e-05 5.237962e-06 2.601508e-05 6.207201e-06 1.211414e-05 8.681916e-06 5.368813e-06 5.599590e-06 2.369862e-05 7.095744e-05 8.508104e-04 9.417033e-04 5.434104e-04
<GCONST> -3.131699e+02
<STATE> 10
<MEAN> 42
 3.957392e-02 -6.939312e-04 -2.615464e-02 -1.784239e-02 4.528976e-02 -1.309758e-02 -3.776268e-02 -1.359468e-02 -3.027559e-02 -1.545273e-02 -1.690472e-02 -8.014513e-04 -2.609339e-04 -3.889465e-06 2.597040e-04 1.321078e-04 -2.623438e-04 1.283122e-04 3.644400e-04 4.544997e-04 4.815168e-04 2.459391e-04 8.614841e-05 -5.627525e-05 -1.148112e-04 -8.521467e-06 1.067431e-04 6.163871e-05 -1.116111e-04 4.805594e-05 1.569132e-04 1.970956e-04 1.828053e-04 8.326683e-05 2.490927e-05 -1.501662e-05 3.084355e-03 3.649246e-04 -3.649764e-03 2.222729e-03 -8.675382e-03 2.106687e-02
<VARIANCE> 42
 3.127993e-02 7.454121e-03 3.867608e-02 9.689701e-03 3.331931e-02 1.524568e-02 2.130166e-02 5.945322e-03 2.135334e-02 1.402938e-02 1.112456e-02 9.341164e-03 6.775090e-04 3.154668e-04 6.844147e-04 3.253810e-04 6.051563e-04 3.312195e-04 3.638681e-04 1.349001e-04 4.125355e-04 3.857680e-04 3.776507e-04 3.348739e-04 1.032222e-04 8.009255e-05 7.727963e-05 7.234587e-05 7.076082e-05 5.335418e-05 2.964489e-05 2.601508e-05 3.196414e-05 3.320528e-05 3.570285e-05 3.392371e-05 2.156282e-04 2.275146e-04 2.916453e-04 5.494874e-03 6.654740e-03 7.670670e-03
<GCONST> -2.266148e+02
<STATE> 11
<MEAN> 42
 -6.404198e-02 -5.310313e-02 5.618522e-03 5.935823e-02 -3.333737e-02 -2.886083e-02 1.141275e-01 1.344689e-01 6.290734e-02 -1.473147e-02 -4.418759e-02 -6.460031e-02 -5.942032e-03 -2.548213e-03 3.410413e-03 4.264189e-03 -4.746287e-03 3.960573e-04 3.000286e-02 4.413750e-02 3.116283e-02 1.169564e-02 6.064130e-04 -4.342187e-03 2.866797e-03 1.163835e-03 -1.718068e-03 -2.008911e-03 2.300066e-03 -2.746180e-04 3.288890e-03 7.699328e-03 6.646338e-03 5.674170e-03 3.656483e-03 2.450848e-03 -6.927598e-03 -7.383980e-03 3.166130e-03 -5.786155e-02 -3.987125e-02 -9.860025e-02
<VARIANCE> 42
 3.582891e-03 3.177231e-03 5.625772e-03 1.769518e-03 3.706840e-03 3.687568e-03 5.958995e-03 9.828410e-03 6.064173e-03 5.020920e-03 3.837811e-03 2.700923e-03 2.046411e-04 2.237504e-04 3.168170e-04 1.359120e-04 2.049339e-04 2.210281e-04 3.745397e-04 5.069480e-04 4.471211e-04 5.159517e-04 3.802848e-04 2.639871e-04 5.998362e-05 4.072877e-05 6.748661e-05 3.382845e-05 5.372113e-05 4.021740e-05 6.361546e-05 1.142673e-04 1.003538e-04 9.166177e-05 8.186686e-05 6.260889e-05 3.258933e-05 1.546682e-04 2.722030e-04 2.767589e-03 2.620504e-03 3.772039e-03
<GCONST> -2.469180e+02
<STATE> 12
<MEAN> 42
 -1.323849e-02 5.489548e-03 1.363391e-02 5.069710e-03 -1.133707e-02 5.845710e-03 1.953128e-01 3.184065e-01 2.495143e-01 1.331293e-01 5.223129e-02 1.542763e-03 3.090142e-02 2.888662e-02 -2.076769e-03 -2.990784e-02 1.657483e-02 1.366794e-02 5.262479e-03 4.191914e-02 5.294644e-02 5.675169e-02 4.774490e-02 3.860294e-02 1.276416e-02 9.759800e-03 -3.028144e-03 -1.127640e-02 7.969309e-03 3.437569e-03 -1.156836e-02 -4.335229e-03 3.948377e-03 1.242562e-02 1.558163e-02 1.535671e-02 -5.663302e-03 -1.513710e-02 1.146938e-02 1.470004e-02 -1.420447e-02 -2.098923e-01
<VARIANCE> 42
 6.587494e-03 6.907679e-03 8.046362e-03 4.472635e-03 5.695804e-03 6.289111e-03 1.135485e-02 2.567421e-02 1.940363e-02 1.507975e-02 1.292980e-02 8.585215e-03 5.582634e-04 5.439610e-04 7.386723e-04 3.653445e-04 5.150523e-04 5.011833e-04 6.635134e-04 1.154892e-03 8.792521e-04 6.191941e-04 6.236846e-04 5.325070e-04 9.268695e-05 9.534015e-05 1.394483e-04 5.929796e-05 9.192349e-05 9.426977e-05 1.396812e-04 2.077404e-04 1.342516e-04 1.046022e-04 7.894445e-05 7.301772e-05 8.897335e-05 5.530936e-04 6.930415e-04 9.122849e-03 5.063852e-03 8.512938e-03
<GCONST> -2.163620e+02
<STATE> 13
<MEAN> 42
 7.442556e-02 1.096808e-01 4.512597e-02 -9.842143e-02 1.428411e-02 8.023147e-02 -3.500858e-02 2.745160e-02 4.285583e-02 4.278086e-02 3.462850e-02 2.498884e-02 8.551367e-04 6.599773e-04 -1.961777e-04 -7.586697e-04 5.277197e-04 2.355284e-04 -4.099158e-04 4.774297e-04 8.437615e-04 1.122352e-03 1.152235e-03 1.033021e-03 1.994892e-04 1.881737e-04 -1.157119e-05 -1.937836e-04 1.055545e-04 8.846670e-05 -2.513041e-04 -1.128153e-04 3.597009e-05 1.632532e-04 2.374122e-04 2.435077e-04 3.367053e-03 -4.628037e-03 1.112629e-04 4.273846e-02 7.501064e-02 3.697455e-03
<VARIANCE> 42
 3.768430e-02 1.847435e-01 6.968623e-02 9.406640e-02 7.626339e-03 1.179981e-01 3.797544e-02 2.559281e-02 1.457256e-02 2.604074e-02 2.360702e-02 1.280989e-02 1.130621e-03 5.943306e-03 2.241441e-03 2.980536e-03 2.010548e-04 3.813117e-03 1.382941e-03 3.945774e-04 5.206456e-04 9.003141e-04 7.947266e-04 4.306411e-04 8.314645e-05 5.416259e-04 2.446427e-04 2.512497e-04 2.851339e-05 3.724425e-04 1.498422e-04 3.441960e-05 5.393303e-05 8.335103e-05 6.979529e-05 3.685554e-05 1.981131e-04 1.997263e-04 2.305541e-04 2.871172e-02 1.078460e-01 1.250277e-02
<GCONST> -1.900663e+02
<STATE> 14
<MEAN> 42
 4.067166e-01 4.997386e-01 9.115925e-02 -4.527984e-01 1.594209e-01 2.933096e-01 -1.583673e-01 2.286531e-01 5.109354e-01 6.373761e-01 6.142592e-01 5.308685e-01 7.237476e-02 6.535239e-02 -7.006131e-03 -6.885996e-02 3.982004e-02 2.930854e-02 -6.932557e-02 -4.068022e-02 2.115894e-02 8.503135e-02 1.064801e-01 1.061417e-01 2.857993e-03 2.538794e-03 -2.932958e-04 -2.708952e-03 1.548168e-03 1.108644e-03 -1.100931e-02 -2.112550e-02 -1.451794e-02 -8.660669e-04 5.585031e-03 7.624492e-03 4.089125e-02 -9.739297e-03 1.367767e-02 5.281346e-01 3.200577e-01 -4.942207e-02
<VARIANCE> 42
 9.441232e-02 3.902251e-01 2.400437e-01 1.839623e-01 6.957681e-02 2.942406e-01 1.429929e-01 1.693534e-01 1.572515e-01 1.376236e-01 1.210301e-01 9.975722e-02 5.499720e-03 1.860281e-02 1.029102e-02 9.482139e-03 3.256301e-03 1.308791e-02 7.300371e-03 9.540650e-03 1.118869e-02 8.429606e-03 6.361007e-03 4.773622e-03 3.481292e-04 1.581165e-03 8.794659e-04 7.451954e-04 2.194376e-04 1.142287e-03 7.073822e-04 1.009284e-03 1.035421e-03 5.099300e-04 5.598504e-04 4.683259e-04 1.062125e-03 1.408297e-03 1.194470e-03 9.946264e-02 2.492717e-01 9.434605e-02
<GCONST> -1.166296e+02
<STATE> 15
<MEAN> 42
 3.853362e-01 3.915375e-01 1.858941e-03 -3.879688e-01 1.946231e-01 1.925831e-01 -5.245401e-01 -6.380860e-01 -3.340004e-01 3.568357e-01 6.018795e-01 6.348405e-01 -5.112280e-02 -4.790523e-02 3.216034e-03 4.950598e-02 -2.729061e-02 -2.245751e-02 -5.017053e-04 -6.754886e-02 -9.689133e-02 -1.043949e-01 -9.658737e-02 -7.864409e-02 -1.011322e-02 -9.854188e-03 2.543218e-04 9.995263e-03 -5.197144e-03 -4.833328e-03 1.157107e-02 1.352532e-02 3.617447e-03 -1.045681e-02 -1.585512e-02 -1.656132e-02 6.298360e-02 3.172959e-02 4.820229e-03 5.023255e-01 3.247511e-01 5.276904e-01
<VARIANCE> 42
 1.500691e-01 2.367254e-01 3.533315e-01 1.028528e-01 1.927411e-01 2.577545e-01 9.157798e-02 4.175750e-01 8.678008e-01 7.428942e-01 5.858480e-01 3.958927e-01 5.007791e-03 6.921169e-03 6.875396e-03 4.250471e-03 4.216974e-03 5.658223e-03 5.527087e-03 1.491045e-02 1.927556e-02 1.841035e-02 2.476404e-02 1.992717e-02 8.032290e-04 9.138115e-04 8.711779e-04 6.410506e-04 6.089280e-04 6.909971e-04 5.047839e-04 1.432699e-03 2.141352e-03 2.757370e-03 3.442883e-03 2.578984e-03 1.320437e-03 1.858878e-03 1.651962e-03 3.107197e-01 2.218034e-01 2.121152e-01
<GCONST> -9.850713e+01
<STATE> 16
<MEAN> 42
 -9.594638e-02 -7.401394e-02 1.673251e-02 8.465102e-02 -5.377669e-02 -3.411656e-02 -1.445726e-01 -3.898759e-01 -3.471657e-01 -2.752020e-01 -2.139580e-01 -1.346566e-01 -2.868443e-03 -4.251058e-03 -1.345124e-03 3.569556e-03 -7.519018e-04 -2.790189e-03 2.984524e-02 6.295403e-02 5.253835e-02 2.653321e-02 1.175947e-02 -5.890464e-05 7.112991e-03 7.626338e-03 5.111657e-04 -7.379913e-03 3.328135e-03 4.101322e-03 -1.678267e-03 8.296949e-04 6.000530e-03 1.042922e-02 1.157594e-02 1.077166e-02 -1.870197e-03 3.214073e-02 4.414943e-03 -1.436956e-01 -1.708521e-02 2.207386e-01
<VARIANCE> 42
 2.032604e-02 2.762150e-02 4.821119e-02 1.108577e-02 2.703557e-02 3.233052e-02 9.181879e-02 1.344697e-01 1.850736e-01 5.622208e-02 2.549122e-02 1.380772e-02 8.135585e-04 1.146460e-03 1.560728e-03 5.898420e-04 9.017360e-04 1.151920e-03 1.137375e-03 2.524011e-03 4.380500e-03 2.556835e-03 1.717643e-03 1.154329e-03 1.290944e-04 1.470653e-04 1.420425e-04 1.020454e-04 9.932651e-05 1.124521e-04 1.147371e-04 2.525835e-04 5.439350e-04 4.719632e-04 3.526441e-04 2.242436e-04 4.412089e-04 1.004256e-03 1.177607e-03 1.443357e-02 2.675840e-02 8.046813e-02
<GCONST> -1.754117e+02
<STATE> 17
<MEAN> 42
 2.854664e-02 1.921825e-02 -1.920768e-02 -3.079156e-02 2.916329e-02 2.781209e-04 -2.319077e-02 2.979306e-02 5.836383e-02 4.593679e-02 4.046017e-02 5.457046e-02 7.048259e-05 1.447068e-04 7.643886e-05 -1.082552e-04 -2.763962e-06 1.075423e-04 3.853804e-04 4.994256e-04 4.960829e-04 3.904308e-04 2.953616e-04 1.730817e-04 -4.060801e-05 -5.025930e-05 -9.520191e-06 4.539318e-05 -1.550446e-05 -3.093453e-05 -5.150885e-05 -1.072055e-04 -1.187701e-04 -8.531605e-05 -6.064773e-05 -3.916523e-05 1.606179e-03 2.134742e-03 -3.041011e-03 4.403364e-02 5.759585e-03 -1.046946e-02
<VARIANCE> 42
 1.993649e-02 1.898953e-02 4.723329e-02 7.600860e-03 2.907183e-02 2.800715e-02 9.280918e-03 1.398234e-02 5.139994e-02 4.836510e-02 3.077099e-02 3.332663e-02 4.103730e-04 3.640231e-04 7.454511e-04 2.008122e-04 4.888201e-04 4.526225e-04 2.154070e-04 1.585673e-04 2.864572e-04 3.599065e-04 6.103508e-04 7.619368e-04 7.364613e-05 7.514551e-05 8.528556e-05 5.306071e-05 6.114347e-05 6.217883e-05 3.479847e-05 3.437390e-05 3.555303e-05 2.731587e-05 5.750251e-05 6.852674e-05 1.482776e-04 1.551201e-04 2.659809e-04 1.967457e-02 1.460625e-02 7.966316e-03
<GCONST> -2.192489e+02
<STATE> 18
<MEAN> 42
 3.697720e-02 5.581433e-02 1.472783e-02 -4.363317e-02 4.665397e-03 3.274116e-02 -2.643550e-02 2.872048e-02 6.428193e-02 6.372105e-02 6.689566e-02 5.271961e-02 1.362136e-04 8.074399e-05 -5.556495e-05 -1.085917e-04 9.699639e-05 1.166369e-05 -3.919904e-04 -3.595976e-05 1.153373e-04 -1.928022e-04 -7.839376e-05 7.022691e-05 -2.450141e-05 -2.417574e-05 -4.105732e-07 2.466131e-05 -1.141276e-05 -1.265578e-05 -2.274239e-05 7.343293e-06 -2.303734e-06 -4.921960e-05 -7.475750e-05 -7.696965e-05 3.871017e-03 -3.183010e-03 -3.031678e-03 5.640947e-02 3.611853e-02 -6.797843e-03
<VARIANCE> 42
 1.344142e-02 4.811710e-02 1.378889e-02 2.721661e-02 1.612301e-03 2.765001e-02 4.029221e-02 4.983557e-02 6.888349e-02 7.008956e-02 6.126911e-02 4.706997e-02 5.299160e-04 1.673169e-03 6.224222e-04 9.459261e-04 1.578204e-04 1.018908e-03 1.318488e-03 1.507398e-03 2.186219e-03 2.412765e-03 2.113618e-03 1.601829e-03 7.735261e-05 1.604527e-04 1.055972e-04 9.250169e-05 5.125459e-05 1.138017e-04 1.227789e-04 1.603748e-04 1.911989e-04 2.096091e-04 1.816503e-04 1.402450e-04 3.009173e-04 2.896675e-04 2.638002e-04 4.985085e-02 2.610673e-02 2.353127e-02
<GCONST> -1.900118e+02
<STATE> 19
<MEAN> 42
 4.636059e-02 8.103160e-02 3.546210e-02 -5.451567e-02 -1.765150e-03 5.323806e-02 -3.464136e-02 4.973048e-02 4.161949e-02 5.969162e-02 6.235328e-02 6.127542e-02 1.416261e-05 3.229532e-05 1.896386e-05 -2.093055e-05 6.597184e-07 2.562422e-05 2.222015e-04 4.911869e-04 5.432373e-04 4.532102e-04 1.295485e-04 -5.568374e-05 -7.398351e-05 8.230742e-06 8.041911e-05 3.334599e-05 -7.639483e-05 4.533216e-05 -5.294003e-05 -1.967331e-04 -2.253960e-04 -1.020780e-04 -6.629352e-05 -5.271199e-05 4.352001e-03 -4.108226e-03 -2.561799e-03 5.435638e-02 5.820452e-02 -2.150236e-03
<VARIANCE> 42
 1.024558e-02 3.661539e-02 1.551597e-02 1.952060e-02 3.749951e-03 2.353004e-02 1.644621e-02 5.443262e-02 1.605465e-02 2.946438e-02 3.170960e-02 2.811188e-02 2.821867e-04 1.139488e-03 5.780326e-04 5.676908e-04 1.478326e-04 7.882720e-04 6.066944e-04 1.711902e-03 5.379068e-04 9.116804e-04 1.019154e-03 8.891294e-04 5.652216e-05 1.586782e-04 7.849518e-05 8.780975e-05 2.848893e-05 1.045451e-04 6.961165e-05 1.671558e-04 6.089822e-05 1.203345e-04 1.321192e-04 1.087199e-04 1.929285e-04 2.138206e-04 2.296271e-04 2.176916e-02 2.315978e-02 1.548538e-02
<GCONST> -2.070538e+02
<STATE> 20
<MEAN> 42
 1.422684e-02 2.226479e-02 -9.156538e-03 -2.505529e-02 2.005076e-02 -4.043950e-03 -6.219373e-03 1.672490e-02 1.982021e-02 -7.365101e-03 1.577090e-02 1.454013e-02 3.196817e-04 2.438398e-04 -7.678085e-05 -2.820883e-04 2.000542e-04 8.355596e-05 2.016425e-04 7.792788e-04 7.001761e-04 8.228187e-04 7.383091e-04 5.740783e-04 8.940293e-05 4.507946e-05 -4.430283e-05 -6.737465e-05 6.686542e-05 1.026534e-06 -1.310180e-04 -6.337748e-05 -5.083539e-05 2.485882e-05 9.329093e-05 1.167327e-04 1.126420e-03 1.385812e-03 1.185739e-04 9.135585e-03 1.525270e-02 -3.150564e-03
<VARIANCE> 42
 1.312973e-02 8.013535e-03 1.415068e-02 7.122940e-03 1.173824e-02 7.555346e-03 1.648108e-02 1.709915e-02 2.994478e-02 1.648078e-02 1.928010e-02 1.893303e-02 4.576666e-04 2.162915e-04 4.867024e-04 2.152848e-04 4.186080e-04 2.372327e-04 3.427967e-04 2.625383e-04 5.617214e-04 4.354886e-04 7.803096e-04 7.017463e-04 6.710004e-05 3.500729e-05 5.980038e-05 3.608331e-05 5.480519e-05 3.065893e-05 3.151972e-05 2.601508e-05 4.229434e-05 4.139596e-05 9.259035e-05 7.890381e-05 1.345180e-04 1.445994e-04 1.790224e-04 8.438092e-03 6.236565e-03 1.308762e-02
<GCONST> -2.288138e+02
<STATE> 21
<MEAN> 42
 -1.267704e-02 9.834581e-02 5.533947e-02 -7.577489e-02 1.256689e-02 1.382362e-02 -6.628543e-02 -7.405531e-02 -1.376114e-01 -9.752573e-02 7.392734e-02 -5.210046e-02 -4.606070e-04 -2.062815e-04 2.533860e-04 3.337034e-04 -3.581354e-04 2.431611e-05 4.280112e-05 -5.695199e-04 -4.850442e-04 -8.315810e-04 -8.247459e-04 -6.968412e-04 -1.566096e-04 -6.392066e-05 9.226420e-05 1.105874e-04 -1.252775e-04 1.336130e-05 1.767260e-04 -3.020730e-05 -1.638597e-05 -8.607395e-05 -1.500325e-04 -1.746603e-04 6.928282e-03 6.526892e-03 -1.154110e-02 -1.783582e-02 1.050018e-01 8.632459e-02
<VARIANCE> 42
 3.593374e-02 1.691943e-02 3.181087e-02 1.743555e-02 2.838060e-02 1.577964e-02 2.410787e-02 1.569343e-01 9.539945e-02 5.240650e-02 3.864683e-02 3.326865e-02 1.153002e-03 4.370314e-04 1.090781e-03 5.248536e-04 1.015747e-03 4.767483e-04 5.059261e-04 3.175193e-03 1.778930e-03 1.122815e-03 1.065427e-03 7.322726e-04 1.282585e-04 6.805809e-05 1.167008e-04 6.946471e-05 1.057451e-04 6.049617e-05 3.425136e-05 2.005336e-04 1.362993e-04 1.045482e-04 1.067441e-04 7.578588e-05 3.089620e-04 2.769798e-04 1.121115e-04 2.799779e-02 1.435234e-02 4.847584e-02
<GCONST> -1.946646e+02
<STATE> 22
<MEAN> 42
 2.321337e-02 2.598336e-02 -6.789349e-04 -2.261799e-02 1.299524e-02 7.408725e-03 -1.391485e-03 4.892833e-02 3.720268e-02 2.483660e-02 3.206557e-02 2.415690e-02 1.437253e-04 1.350469e-04 -9.505256e-06 -1.398859e-04 7.590402e-05 6.412470e-05 1.989329e-04 5.451138e-04 5.399737e-04 4.415444e-04 3.020791e-04 1.854837e-04 -1.812111e-05 -1.125146e-05 7.390589e-06 1.471855e-05 -1.278637e-05 -1.974688e-06 2.216370e-05 1.446412e-05 -3.933383e-06 -1.250046e-05 -2.811208e-05 -1.992390e-05 1.255459e-03 -1.492099e-03 1.520854e-04 2.260619e-02 1.475319e-02 -1.803214e-02
<VARIANCE> 42
 4.402898e-03 5.417769e-03 1.784881e-03 4.498725e-03 1.748173e-03 2.468438e-03 2.463542e-03 1.252111e-02 1.115416e-02 7.462211e-03 8.027877e-03 7.455489e-03 6.798239e-05 5.863417e-05 5.655867e-05 4.916581e-05 4.792626e-05 4.090137e-05 2.842432e-05 7.374013e-05 3.959020e-05 4.065752e-05 5.547050e-05 2.993167e-05 2.400366e-05 1.830817e-05 2.119332e-05 1.586155e-05 1.811628e-05 1.385594e-05 6.121822e-06 2.601508e-05 6.980000e-06 1.211414e-05 1.197429e-05 6.196568e-06 3.469612e-05 9.752643e-05 1.416929e-04 4.597701e-03 2.597409e-03 3.154633e-03
<GCONST> -2.865836e+02
<STATE> 23
<MEAN> 42
 1.128123e-01 1.469908e-01 3.121442e-02 -1.275518e-01 4.068558e-02 8.627058e-02 -7.092585e-02 8.071788e-02 1.424055e-01 1.961990e-01 2.063794e-01 1.886698e-01 2.430545e-04 3.438565e-04 9.942360e-05 -2.941430e-04 7.644441e-05 2.217182e-04 -7.371542e-04 -9.817798e-04 -6.150369e-04 -1.482178e-04 2.720734e-04 1.978715e-04 -5.019098e-05 -1.208859e-04 -7.012015e-05 8.531253e-05 9.538971e-06 -9.736097e-05 -1.455102e-04 -2.917612e-04 -2.259838e-04 -1.315711e-04 -5.228441e-05 -4.098838e-05 1.163969e-02 -1.920365e-03 -2.268570e-03 1.709770e-01 9.730232e-02 -6.970637e-03
<VARIANCE> 42
 3.060513e-02 5.734225e-02 2.685058e-02 3.704579e-02 1.439963e-02 3.514247e-02 5.338253e-02 1.347114e-01 1.390487e-01 1.212094e-01 1.120842e-01 8.966592e-02 1.007147e-03 1.593568e-03 7.502928e-04 1.113992e-03 4.832321e-04 9.239959e-04 1.316815e-03 2.810241e-03 3.373965e-03 3.416068e-03 3.448669e-03 2.663432e-03 1.089986e-04 1.576000e-04 1.039987e-04 1.074711e-04 6.729450e-05 1.039790e-04 1.058770e-04 2.299358e-04 2.864336e-04 3.014965e-04 3.105780e-04 2.304411e-04 5.914699e-04 6.895559e-04 4.393038e-04 7.393951e-02 3.592829e-02 5.743627e-02
<GCONST> -1.711552e+02
<STATE> 24
<MEAN> 42
 6.236615e-03 1.008040e-02 2.910197e-03 -5.454690e-03 2.107139e-03 3.605762e-03 -1.718737e-03 7.671627e-03 5.629184e-03 3.621542e-03 8.279109e-03 6.576332e-04 -1.564098e-04 -1.908755e-04 -3.415427e-05 1.732372e-04 -6.217986e-05 -1.136376e-04 1.120540e-04 -6.616089e-05 -1.558637e-04 -2.222992e-04 -2.436710e-04 -2.004694e-04 1.060320e-05 2.657319e-05 1.570658e-05 -1.870916e-05 -2.580020e-06 2.178889e-05 1.398025e-05 4.313599e-05 3.619628e-05 2.074664e-05 1.568776e-05 1.200332e-05 2.984085e-04 -2.659339e-04 1.669832e-04 4.229656e-03 6.976525e-03 -1.905764e-03
<VARIANCE> 42
 1.177071e-03 1.549552e-03 8.264884e-04 1.186818e-03 5.817174e-04 9.016236e-04 8.804590e-04 2.382646e-03 2.161846e-03 1.630859e-03 2.222495e-03 1.674572e-03 7.381166e-05 5.699778e-05 5.443347e-05 5.183777e-05 5.027408e-05 3.801691e-05 2.485631e-05 7.374013e-05 2.192848e-05 4.065752e-05 3.070320e-05 1.845911e-05 2.603160e-05 2.039210e-05 2.015193e-05 1.817142e-05 1.811020e-05 1.404875e-05 6.824664e-06 2.601508e-05 6.378417e-06 1.211414e-05 8.107838e-06 5.608635e-06 6.251993e-06 2.702239e-05 8.802173e-05 9.141277e-04 8.615570e-04 5.871211e-04
<GCONST> -3.118050e+02
<STATE> 25
<MEAN> 42
 1.132260e-01 1.326099e-01 1.626479e-02 -1.216621e-01 4.847688e-02 7.274845e-02 -6.632965e-02 3.994880e-02 9.587118e-02 1.620403e-01 1.783300e-01 1.772729e-01 4.289106e-04 5.849224e-04 1.570150e-04 -5.053928e-04 1.385393e-04 3.744100e-04 -3.328788e-04 1.872857e-04 3.863558e-04 5.639460e-04 5.799918e-04 6.889560e-04 -3.285478e-05 -6.243715e-05 -2.910609e-05 4.795440e-05 -7.558131e-07 -4.683501e-05 1.053275e-06 -7.171672e-05 -5.693593e-05 -3.995612e-05 -4.946319e-05 -3.859893e-05 1.204405e-02 1.168778e-03 1.747129e-03 1.509291e-01 8.947636e-02 1.398329e-02
<VARIANCE> 42
 5.381512e-02 8.771334e-02 6.212833e-02 5.493242e-02 3.603091e-02 6.191218e-02 6.462035e-02 1.651431e-01 1.976048e-01 1.617448e-01 1.493634e-01 1.195304e-01 1.789800e-03 2.624390e-03 1.679229e-03 1.788784e-03 1.083745e-03 1.706219e-03 1.667500e-03 3.673578e-03 4.610430e-03 4.703249e-03 5.219638e-03 4.130946e-03 1.741049e-04 2.499409e-04 1.941542e-04 1.636477e-04 1.224329e-04 1.786306e-04 1.534305e-04 3.335423e-04 3.794008e-04 4.102032e-04 5.133619e-04 3.972116e-04 7.354803e-04 7.795229e-04 5.356882e-04 9.233239e-02 5.981474e-02 7.996988e-02
<GCONST> -1.529822e+02
<STATE> 26
<MEAN> 42
 8.709887e-03 1.208823e-02 1.318369e-03 -8.445755e-03 4.998497e-03 2.538077e-03 -5.071601e-03 1.386595e-02 7.637987e-03 5.974562e-03 1.045280e-02 6.155411e-03 -1.037884e-04 -1.765011e-04 -7.276026e-05 1.403202e-04 -1.649929e-05 -1.262373e-04 8.645045e-05 -4.652805e-05 -1.001042e-04 -1.744051e-04 -1.588667e-04 -2.161984e-04 1.902065e-05 2.561345e-05 6.550344e-06 -2.247487e-05 5.606162e-06 1.638570e-05 -9.016762e-06 1.285745e-05 1.598828e-05 1.181922e-05 1.734638e-05 1.602061e-05 5.062170e-04 -7.710411e-04 -2.735353e-04 7.088423e-03 7.975546e-03 -2.728091e-03
<VARIANCE> 42
 1.642053e-03 2.504195e-03 1.239610e-03 1.827733e-03 8.361752e-04 1.447962e-03 1.393430e-03 2.788574e-03 3.233735e-03 2.371738e-03 3.206038e-03 2.125713e-03 8.395944e-05 6.401453e-05 5.949975e-05 5.910355e-05 5.605235e-05 4.105880e-05 2.675039e-05 7.374013e-05 2.617738e-05 4.065752e-05 3.748400e-05 2.163991e-05 3.088117e-05 2.200785e-05 2.257875e-05 2.077266e-05 2.134394e-05 1.469178e-05 7.063709e-06 2.601508e-05 7.070935e-06 1.211414e-05 9.326856e-06 5.923615e-06 1.061262e-05 3.860225e-05 8.756515e-05 1.464723e-03 1.484390e-03 8.588430e-04
<GCONST> -3.027476e+02
<STATE> 27
<MEAN> 42
 3.006616e-02 1.332640e-03 -2.065022e-02 -6.247507e-03 2.171303e-02 -1.430149e-02 -2.660999e-02 3.195206e-02 3.007306e-02 7.211497e-03 6.892279e-03 1.212369e-02 2.216609e-03 9.750869e-04 -1.241540e-03 -1.596344e-03 1.729273e-03 -1.280324e-04 1.208592e-03 4.438455e-03 3.722110e-03 3.248078e-03 2.719553e-03 2.069609e-03 7.640881e-04 3.662095e-04 -3.963127e-04 -5.642675e-04 5.820214e-04 -1.352939e-05 -1.757078e-04 4.889692e-04 5.357524e-04 7.624625e-04 7.821264e-04 7.171163e-04 1.604000e-03 -4.015063e-04 -7.824517e-03 1.622341e-02 -1.024863e-02 -9.178029e-03
<VARIANCE> 42
 2.191238e-02 1.005941e-02 5.929093e-03 1.450652e-02 1.141400e-02 2.199861e-03 3.247389e-02 3.326946e-02 3.274207e-02 2.801738e-02 2.865864e-02 2.349325e-02 1.012178e-03 4.300176e-04 2.914362e-04 6.484395e-04 5.482967e-04 1.089575e-04 9.415629e-04 1.324359e-03 1.676944e-03 1.678298e-03 1.512632e-03 1.147626e-03 1.188615e-04 6.101987e-05 4.417130e-05 7.892179e-05 6.694295e-05 2.334048e-05 7.387806e-05 1.434688e-04 2.088147e-04 2.085492e-04 1.820995e-04 1.298592e-04 2.031835e-04 2.447297e-04 1.747492e-04 2.329217e-02 3.634617e-03 1.640964e-02
<GCONST> -2.090329e+02
<STATE> 28
<MEAN> 42
 2.176953e-01 2.646686e-01 4.311603e-02 -2.410686e-01 8.980481e-02 1.492846e-01 -2.898553e-01 -3.032529e-01 -1.050412e-01 2.207186e-01 3.398030e-01 3.316138e-01 -5.910890e-03 -3.338376e-03 2.573993e-03 4.630057e-03 -4.254518e-03 -3.986442e-04 -5.398210e-03 -1.613867e-02 -1.445392e-02 -1.115606e-02 -8.451472e-03 -6.039733e-03 -1.407262e-03 -7.074884e-04 6.946082e-04 1.055599e-03 -1.050938e-03 -1.479799e-05 1.017643e-03 2.799304e-04 7.235575e-05 -8.877158e-04 -1.207678e-03 -1.235079e-03 3.427859e-02 1.754407e-02 7.031980e-03 2.873265e-01 2.107124e-01 2.586090e-01
<VARIANCE> 42
 1.408997e-01 2.681403e-01 2.215226e-01 1.481484e-01 1.141729e-01 2.105372e-01 1.566088e-01 3.835835e-01 5.874695e-01 4.862280e-01 4.428861e-01 3.161964e-01 5.372055e-03 1.012202e-02 5.671280e-03 6.335867e-03 3.001980e-03 6.568158e-03 5.967256e-03 1.236054e-02 1.663314e-02 1.744767e-02 2.008004e-02 1.525397e-02 4.788479e-04 9.111869e-04 6.021057e-04 5.447135e-04 3.128956e-04 6.382373e-04 5.313373e-04 1.124690e-03 1.341689e-03 1.551483e-03 1.999833e-03 1.460380e-03 1.721967e-03 1.735604e-03 1.302216e-03 2.558334e-01 1.938980e-01 2.013009e-01
<GCONST> -1.050282e+02
<STATE> 29
<MEAN> 42
 7.291286e-02 8.830999e-02 7.871940e-03 -8.115292e-02 3.531050e-02 4.176395e-02 -7.421523e-04 1.226947e-01 1.361216e-01 1.192816e-01 1.334679e-01 9.575304e-02 5.759242e-04 7.791738e-04 2.013954e-04 -6.791325e-04 1.928619e-04 4.903001e-04 6.680213e-04 2.017693e-03 2.026663e-03 1.651145e-03 1.232737e-03 9.795346e-04 -1.069272e-04 -1.058326e-04 1.398105e-06 1.064284e-04 -5.426256e-05 -5.065363e-05 -1.791559e-04 -4.253479e-04 -4.054584e-04 -2.568594e-04 -2.008579e-04 -1.221536e-04 4.912721e-03 -3.218962e-03 -2.501952e-03 9.617533e-02 5.242143e-02 -5.057228e-02
<VARIANCE> 42
 1.137401e-02 1.878995e-02 6.516850e-03 1.320607e-02 3.882364e-03 1.003484e-02 8.770400e-03 3.251650e-02 4.470404e-02 4.085981e-02 3.482861e-02 3.170003e-02 1.002340e-04 9.882588e-05 7.486014e-05 8.101475e-05 6.364650e-05 6.180086e-05 7.179789e-05 1.389796e-04 1.238438e-04 1.006361e-04 1.337642e-04 8.393716e-05 2.809582e-05 2.202701e-05 2.244192e-05 1.958182e-05 2.008077e-05 1.513019e-05 9.889558e-06 2.601508e-05 1.386398e-05 1.317845e-05 1.760864e-05 9.498087e-06 1.124081e-04 2.702017e-04 2.869685e-04 2.269186e-02 9.776817e-03 1.067926e-02
<GCONST> -2.537803e+02
<STATE> 30
<MEAN> 42
 7.267189e-03 9.616662e-03 1.707372e-03 -5.920743e-03 3.140433e-03 3.340799e-03 -3.231213e-03 8.839987e-03 2.622154e-03 4.777209e-03 4.424646e-03 4.597758e-03 -1.288300e-04 -1.820530e-04 -5.321753e-05 1.558833e-04 -3.831079e-05 -1.170531e-04 3.471657e-05 -1.265396e-04 -2.106141e-04 -2.567566e-04 -2.702449e-04 -2.297280e-04 1.730882e-05 2.190391e-05 4.616099e-06 -1.968729e-05 6.336408e-06 1.316438e-05 1.138882e-06 1.807117e-05 1.492512e-05 8.170182e-06 1.412232e-05 4.786743e-06 3.620997e-04 -4.811104e-04 2.788756e-04 4.312026e-03 6.547245e-03 -1.065766e-03
<VARIANCE> 42
 1.287683e-03 1.596187e-03 8.731855e-04 1.276552e-03 6.782045e-04 9.330346e-04 1.228685e-03 2.195317e-03 2.452211e-03 1.891392e-03 1.771511e-03 1.148389e-03 7.632919e-05 5.615976e-05 5.511101e-05 5.248282e-05 5.192136e-05 3.669423e-05 2.414370e-05 7.374013e-05 2.169577e-05 4.065752e-05 2.919376e-05 1.734352e-05 2.836476e-05 1.975696e-05 2.034950e-05 1.897792e-05 1.952393e-05 1.303653e-05 6.403694e-06 2.601508e-05 5.958694e-06 1.211414e-05 7.324599e-06 5.180017e-06 5.867168e-06 2.386368e-05 7.931695e-05 8.463294e-04 9.020194e-04 7.416150e-04
<GCONST> -3.118552e+02
<STATE> 31
<MEAN> 42
 -2.966086e-02 -3.817701e-02 -1.032009e-02 3.684571e-02 -8.588612e-03 -2.617584e-02 4.377434e-02 1.120701e-01 -6.657260e-03 -3.508294e-02 -5.967383e-02 -4.000448e-02 -4.949566e-03 -2.915191e-03 2.041273e-03 3.935255e-03 -3.505560e-03 -4.492720e-04 1.226689e-02 1.636522e-02 9.960115e-03 2.248740e-03 -1.199032e-03 -3.519472e-03 -5.062013e-04 1.404226e-04 6.492282e-04 1.904326e-04 -5.851488e-04 3.952565e-04 2.047618e-03 3.376779e-03 3.016043e-03 1.652447e-03 8.174093e-04 6.152119e-05 -2.567988e-03 -1.136666e-03 -2.347992e-03 -5.100696e-02 -2.965353e-02 -5.306733e-02
<VARIANCE> 42
 3.595103e-03 3.783447e-03 4.596253e-03 2.335335e-03 3.032819e-03 3.313463e-03 5.344532e-03 8.762776e-02 6.007598e-03 2.793828e-03 4.018831e-03 3.460601e-03 1.855946e-04 2.067913e-04 2.824604e-04 1.263060e-04 1.824212e-04 1.988654e-04 3.808406e-04 6.275519e-04 3.534896e-04 1.899191e-04 1.818786e-04 1.484669e-04 5.640423e-05 4.424405e-05 5.727600e-05 3.627675e-05 4.635747e-05 3.692929e-05 4.205126e-05 7.968031e-05 5.236990e-05 4.702131e-05 4.564582e-05 3.873196e-05 2.847959e-05 6.448227e-05 1.149609e-04 2.842192e-03 2.560493e-03 8.660104e-03
<GCONST> -2.525985e+02
<STATE> 32
<MEAN> 42
 -5.655625e-02 -4.147016e-02 1.164458e-02 5.076962e-02 -3.288073e-02 -1.833524e-02 1.798939e-01 2.599071e-01 1.646941e-01 3.887647e-02 -2.530337e-02 -6.526362e-02 8.672173e-03 1.224376e-02 3.577843e-03 -1.045966e-02 2.571201e-03 7.974372e-03 1.983511e-02 4.867869e-02 4.901617e-02 3.760962e-02 2.483310e-02 1.251969e-02 9.589877e-03 8.096620e-03 -1.493353e-03 -8.858343e-03 5.586197e-03 3.333801e-03 -6.533923e-03 2.243141e-03 7.144991e-03 1.319295e-02 1.297251e-02 1.145797e-02 -8.525890e-03 -1.047529e-02 7.194531e-03 -4.821871e-02 -4.111315e-02 -1.786455e-01
<VARIANCE> 42
 4.563313e-03 8.045120e-03 1.084469e-02 3.360586e-03 5.750668e-03 8.391936e-03 1.248058e-02 4.723893e-02 1.093378e-02 7.011490e-03 6.053616e-03 5.929862e-03 1.404988e-04 1.582470e-04 2.045068e-04 9.827737e-05 1.354334e-04 1.482172e-04 3.324270e-04 5.556963e-04 5.356845e-04 3.828025e-04 2.074620e-04 1.887363e-04 7.497104e-05 7.999295e-05 1.145197e-04 4.897576e-05 7.480005e-05 7.914086e-05 1.091803e-04 1.933226e-04 8.724588e-05 5.274385e-05 4.891717e-05 3.721512e-05 7.048476e-05 3.720350e-04 4.492387e-04 5.592295e-03 6.599222e-03 9.426897e-03
<GCONST> -2.352620e+02
<STATE> 33
<MEAN> 42
 -2.256681e-02 9.657217e-03 2.866239e-02 6.775976e-03 -2.348157e-02 1.478391e-02 1.777508e-01 3.080093e-01 2.223566e-01 1.204953e-01 5.148935e-02 -2.903709e-03 2.779607e-02 2.664528e-02 -1.140923e-03 -2.725478e-02 1.451410e-02 1.286769e-02 6.289327e-03 4.749924e-02 5.394723e-02 5.507224e-02 4.706541e-02 3.578342e-02 1.370981e-02 9.554441e-03 -4.181722e-03 -1.166044e-02 8.967842e-03 2.723940e-03 -8.303165e-03 1.950175e-03 6.397638e-03 1.322926e-02 1.526577e-02 1.531742e-02 -4.957754e-03 -1.122424e-02 9.117830e-03 9.721480e-03 -6.280939e-03 -1.954721e-01
<VARIANCE> 42
 3.477060e-03 6.928804e-03 8.613857e-03 2.847288e-03 4.378951e-03 7.138675e-03 1.219627e-02 7.725112e-02 1.740174e-02 8.689566e-03 6.676605e-03 6.689278e-03 3.410832e-04 3.571027e-04 5.110185e-04 2.213702e-04 3.400719e-04 3.498970e-04 5.568177e-04 1.170619e-03 9.098036e-04 5.238641e-04 3.288966e-04 3.197623e-04 9.195173e-05 8.014256e-05 1.111873e-04 5.861228e-05 8.264955e-05 7.177921e-05 1.683661e-04 3.007030e-04 1.384476e-04 5.943652e-05 4.886889e-05 4.997204e-05 7.112308e-05 5.403968e-04 5.523765e-04 5.524130e-03 5.879244e-03 1.401249e-02
<GCONST> -2.238807e+02
<STATE> 34
<MEAN> 42
 5.472361e-02 6.788591e-02 8.518442e-03 -6.073216e-02 2.567247e-02 3.299312e-02 1.669505e-01 3.829786e-01 3.210430e-01 2.306850e-01 1.521739e-01 7.577768e-02 4.846390e-02 4.424356e-02 -4.203700e-03 -4.642674e-02 2.640203e-02 2.009126e-02 -1.478325e-02 3.443636e-02 6.040444e-02 7.667329e-02 7.265586e-02 6.257901e-02 1.340481e-02 1.173308e-02 -1.688873e-03 -1.258310e-02 7.592662e-03 5.012682e-03 -1.333700e-02 -7.464678e-03 3.748699e-03 1.308689e-02 1.750284e-02 1.804919e-02 1.185038e-03 -1.496551e-02 1.547820e-02 9.432771e-02 2.080274e-02 -2.257828e-01
<VARIANCE> 42
 4.899106e-03 7.108336e-03 7.271677e-03 4.051462e-03 4.688455e-03 6.376782e-03 1.234157e-02 7.054590e-02 3.006334e-02 1.475506e-02 1.005600e-02 8.734721e-03 8.337147e-04 7.749435e-04 1.231422e-03 4.983688e-04 8.469897e-04 7.818924e-04 1.176101e-03 2.365703e-03 1.467647e-03 8.833524e-04 6.145293e-04 6.390655e-04 1.045113e-04 8.514341e-05 1.331345e-04 6.145841e-05 9.924902e-05 8.201583e-05 1.632319e-04 3.411933e-04 2.557246e-04 1.465976e-04 8.248076e-05 7.395326e-05 1.099940e-04 9.239611e-04 8.942853e-04 7.324947e-03 5.423936e-03 1.486508e-02
<GCONST> -2.078798e+02
<STATE> 35
<MEAN> 42
 1.789223e-01 2.299331e-01 5.008397e-02 -2.036845e-01 6.509816e-02 1.356141e-01 7.977880e-02 3.323414e-01 3.528446e-01 4.065040e-01 4.162308e-01 3.537102e-01 6.137101e-02 6.559303e-02 4.174986e-03 -6.347223e-02 2.882057e-02 3.495540e-02 -5.360238e-02 -2.128785e-02 2.166046e-03 6.901976e-02 1.156695e-01 1.173595e-01 8.487267e-03 7.245576e-03 -1.257697e-03 -7.821014e-03 4.934304e-03 3.030847e-03 -1.601060e-02 -1.569387e-02 -1.119800e-02 2.297129e-03 1.490838e-02 1.667939e-02 1.317269e-02 -2.285428e-02 1.475301e-02 2.923464e-01 1.492699e-01 -1.452210e-01
<VARIANCE> 42
 4.804024e-02 7.421824e-02 1.508617e-02 5.720115e-02 1.314182e-02 3.307121e-02 1.134610e-01 2.694314e-01 2.403747e-01 3.001956e-02 2.544910e-01 3.659242e-01 2.239161e-03 2.800167e-03 2.439406e-03 1.909289e-03 1.648919e-03 2.053639e-03 7.087664e-03 1.807190e-02 2.349244e-02 3.461446e-03 7.975598e-03 1.252318e-02 4.182264e-04 6.352270e-04 4.739887e-04 4.081907e-04 2.884043e-04 4.487969e-04 8.433458e-04 1.944230e-03 1.103178e-03 3.307119e-04 6.453106e-04 1.000849e-03 6.535443e-04 8.127773e-04 1.107127e-03 1.039030e-01 7.621463e-02 2.038082e-01
<GCONST> -1.350188e+02
<STATE> 36
<MEAN> 42
 6.397376e-02 6.522893e-02 3.178848e-03 -6.411288e-02 2.549616e-02 3.167936e-02 -5.183442e-02 -4.452212e-02 1.727106e-03 2.047806e-02 1.470199e-01 1.611991e-01 6.459538e-04 4.048835e-04 -2.415782e-04 -5.245988e-04 4.473253e-04 8.405141e-05 -2.616477e-04 5.082575e-04 1.280930e-03 9.726592e-04 4.244777e-04 2.100865e-04 1.422220e-04 1.227164e-04 -1.941946e-05 -1.318353e-04 8.081631e-05 5.261165e-05 -1.495962e-04 -1.365466e-04 8.392779e-05 1.187189e-04 6.601647e-05 6.504743e-05 4.998481e-03 -3.332096e-03 -2.766399e-03 9.288933e-02 5.435925e-02 5.751324e-02
<VARIANCE> 42
 1.846301e-02 2.439695e-02 3.914475e-03 2.044619e-02 5.121681e-03 9.624547e-03 2.983720e-02 5.798559e-02 1.157733e-01 3.654093e-02 1.324128e-01 1.547820e-01 7.412479e-04 1.094242e-03 2.945624e-04 8.439859e-04 2.452781e-04 5.109984e-04 1.444103e-03 2.763572e-03 3.603304e-03 1.888942e-03 7.055536e-03 7.120001e-03 8.094558e-05 1.354021e-04 8.540231e-05 8.682458e-05 4.933436e-05 9.022209e-05 2.151199e-04 4.457768e-04 2.772992e-04 2.620789e-04 1.056698e-03 9.474655e-04 1.965934e-04 2.215813e-04 2.175486e-04 4.733542e-02 2.378515e-02 5.981509e-02
<GCONST> -1.826086e+02
<STATE> 37
<MEAN> 42
 1.802470e-01 9.785192e-02 -8.875886e-02 -1.421831e-01 1.351573e-01 -1.603981e-03 5.590237e-02 5.382575e-01 4.239255e-01 3.558485e-01 1.676978e-01 4.012265e-01 2.150828e-02 1.528001e-02 -6.232172e-03 -1.837246e-02 1.388039e-02 4.585238e-03 -1.598422e-02 -2.679640e-02 6.000432e-03 2.068240e-02 2.154104e-02 2.148992e-02 2.434515e-03 2.545743e-03 1.098198e-04 -2.486418e-03 1.154742e-03 1.324553e-03 -3.950216e-03 -5.947310e-03 -3.897249e-03 3.209228e-04 1.524384e-03 2.539519e-03 8.689031e-03 2.003361e-04 2.082573e-02 2.295313e-01 1.220775e-02 -2.398632e-01
<VARIANCE> 42
 3.808249e-02 1.942545e-02 1.841954e-02 2.384705e-02 2.381423e-02 9.673608e-03 2.219525e-02 1.078752e+01 9.720803e-02 4.253747e-02 7.678578e-02 8.592313e-02 3.010389e-03 1.527346e-03 1.653988e-03 1.853782e-03 1.963455e-03 8.439485e-04 1.847047e-03 5.779532e-01 3.882410e-03 2.578367e-03 4.111778e-03 4.143680e-03 1.797292e-04 1.012491e-04 1.385904e-04 1.060448e-04 1.341260e-04 7.622269e-05 1.398180e-04 1.779276e-01 3.048908e-04 1.348498e-04 2.254056e-04 2.535255e-04 7.125220e-04 3.889087e-04 4.209528e-04 9.383346e-02 1.598148e-02 1.045895e+00
<GCONST> -1.535651e+02
<STATE> 38
<MEAN> 42
 5.899044e-01 6.752535e-01 8.339380e-02 -6.311901e-01 2.542211e-01 3.779209e-01 -5.229815e-01 -3.442855e-01 1.368227e-01 8.021462e-01 9.956133e-01 9.267086e-01 -2.592314e-03 -4.442403e-03 -1.847366e-03 3.501300e-03 -4.358915e-04 -3.172691e-03 -4.548045e-02 -1.002605e-01 -9.032777e-02 -4.119080e-02 -1.194242e-02 4.031930e-03 -2.037873e-02 -1.998665e-02 4.019951e-04 2.017936e-02 -1.042708e-02 -9.835966e-03 1.259574e-02 -2.419675e-03 -1.657903e-02 -3.175702e-02 -3.589570e-02 -3.190216e-02 7.636373e-02 1.838342e-02 1.892900e-03 8.204247e-01 4.949250e-01 3.789932e-01
<VARIANCE> 42
 1.142019e-01 3.276387e-01 4.358476e-01 1.125224e-01 1.939610e-01 3.542019e-01 1.189945e-01 4.703442e-01 8.517097e-01 4.333450e-01 2.804228e-01 1.880872e-01 8.965012e-03 1.922566e-02 1.030162e-02 1.152896e-02 4.841944e-03 1.253840e-02 8.643596e-03 1.328924e-02 1.914260e-02 2.391028e-02 3.103538e-02 2.483519e-02 4.926454e-04 1.422643e-03 1.218925e-03 6.534761e-04 5.012525e-04 1.197222e-03 8.090106e-04 1.956436e-03 1.829535e-03 1.120769e-03 1.828001e-03 1.550911e-03 7.801506e-04 1.527493e-03 1.260850e-03 1.313440e-01 2.794982e-01 2.446570e-01
<GCONST> -9.674869e+01
<STATE> 39
<MEAN> 42
 -1.062035e-02 -1.756688e-02 -1.278121e-02 1.298514e-02 4.991502e-03 -2.178179e-02 -2.739045e-01 -5.668663e-01 -4.964808e-01 -3.063855e-01 -1.709591e-01 -7.139416e-02 -3.386018e-02 -2.881248e-02 5.083106e-03 3.133368e-02 -1.952494e-02 -1.192394e-02 3.482215e-02 3.769839e-02 1.374545e-02 -2.861561e-02 -4.617275e-02 -4.903696e-02 9.136109e-03 9.322373e-03 1.819832e-04 -9.239368e-03 4.499382e-03 4.773221e-03 -1.227356e-03 9.584418e-03 1.545803e-02 2.022691e-02 2.064729e-02 1.686322e-02 1.269412e-02 3.577741e-02 7.750905e-03 -9.847664e-02 3.091820e-02 3.607504e-01
<VARIANCE> 42
 5.880551e-02 6.819773e-02 1.417048e-01 2.715920e-02 8.359027e-02 8.804125e-02 1.120811e-01 2.604757e-01 2.878597e-01 1.179889e-01 7.243718e-02 5.059415e-02 3.185716e-03 3.027373e-03 3.875843e-03 2.139719e-03 2.782705e-03 2.658005e-03 1.556906e-03 6.319377e-03 1.189601e-02 1.188701e-02 1.120896e-02 7.822872e-03 2.835495e-04 2.542491e-04 3.062109e-04 1.921855e-04 2.321744e-04 2.093853e-04 2.123427e-04 6.521655e-04 8.672195e-04 1.008832e-03 1.092868e-03 7.574620e-04 9.043764e-04 1.623359e-03 1.386150e-03 4.235022e-02 7.471377e-02 1.319562e-01
<GCONST> -1.375966e+02
<STATE> 40
<MEAN> 42
 1.980364e-02 2.617921e-02 3.958127e-03 -2.137107e-02 8.989222e-03 1.103233e-02 1.643980e-04 4.208292e-02 3.910457e-02 3.192446e-02 3.415101e-02 2.808459e-02 4.188059e-05 4.734909e-05 4.412959e-06 -4.516015e-05 1.928237e-05 2.643881e-05 3.889399e-04 7.001000e-04 6.300241e-04 3.599788e-04 1.769401e-04 7.128423e-05 -1.605557e-05 -9.290669e-06 6.739654e-06 1.271274e-05 -1.138497e-05 -1.510173e-06 -1.606320e-05 -7.164211e-05 -7.776516e-05 -5.961794e-05 -4.574088e-05 -3.334772e-05 1.127322e-03 -1.380801e-03 -3.693466e-04 2.544096e-02 1.583618e-02 -1.669690e-02
<VARIANCE> 42
 4.757076e-03 7.426011e-03 2.001182e-03 5.597287e-03 1.463023e-03 3.641638e-03 3.048949e-03 1.433612e-02 1.680756e-02 1.401182e-02 1.367078e-02 1.205328e-02 8.869451e-05 7.824774e-05 6.945369e-05 6.625225e-05 5.999525e-05 5.180517e-05 4.318857e-05 7.374013e-05 6.350889e-05 4.887051e-05 5.853241e-05 4.113434e-05 2.950322e-05 2.447563e-05 2.321827e-05 2.125294e-05 2.042928e-05 1.652699e-05 8.683471e-06 2.601508e-05 1.019616e-05 1.211414e-05 1.145828e-05 7.712092e-06 3.423217e-05 9.338809e-05 1.302773e-04 8.413902e-03 3.488609e-03 3.682133e-03
<GCONST> -2.772869e+02
<STATE> 41
<MEAN> 42
 -5.750448e-02 -5.497616e-02 -3.203264e-03 5.580489e-02 -2.277553e-02 -3.482880e-02 1.329791e-01 1.380362e-01 1.017124e-01 2.444646e-02 -2.588375e-02 -5.647989e-02 2.119088e-03 5.007477e-03 2.914572e-03 -3.557059e-03 -4.262765e-04 4.024910e-03 2.174193e-02 4.063920e-02 3.700843e-02 2.543656e-02 1.404590e-02 7.101773e-03 4.107845e-03 4.207515e-03 9.554197e-05 -4.145698e-03 1.994913e-03 2.183001e-03 -8.308542e-04 4.984255e-03 6.065028e-03 8.025959e-03 7.400051e-03 6.126552e-03 -8.377007e-03 -5.289284e-03 -3.381506e-04 -4.059529e-02 -4.584491e-02 -1.142006e-01
<VARIANCE> 42
 5.699792e-03 9.450179e-03 1.245906e-02 3.687828e-03 6.252701e-03 1.065682e-02 6.700942e-03 1.069239e-01 2.136695e-02 1.244648e-02 9.155684e-03 5.737733e-03 4.359179e-04 5.908358e-04 5.940507e-04 3.644333e-04 3.712118e-04 4.857926e-04 3.206064e-04 6.514939e-04 6.829841e-04 8.287747e-04 5.976115e-04 4.341892e-04 9.853455e-05 1.094661e-04 1.238685e-04 7.277061e-05 8.521097e-05 9.183167e-05 5.465757e-05 7.577008e-05 5.904737e-05 6.134104e-05 6.067906e-05 5.127727e-05 4.076938e-05 2.549160e-04 2.937278e-04 5.685654e-03 7.486458e-03 1.745788e-02
<GCONST> -2.230365e+02
<STATE> 42
<MEAN> 42
 -7.620357e-03 5.834348e-03 9.660699e-03 -1.609735e-04 -7.197294e-03 3.802184e-03 1.909329e-01 2.697083e-01 2.367820e-01 1.495482e-01 7.788980e-02 2.159860e-02 3.435633e-02 2.969569e-02 -4.671772e-03 -3.199062e-02 1.965012e-02 1.263048e-02 2.978818e-03 4.596992e-02 5.204732e-02 5.609658e-02 5.246658e-02 4.291682e-02 1.285914e-02 9.480969e-03 -3.393211e-03 -1.117076e-02 8.189164e-03 3.023437e-03 -1.044116e-02 -1.158572e-03 5.189229e-03 1.238553e-02 1.499097e-02 1.395114e-02 -5.166074e-03 -1.072005e-02 1.277443e-02 3.219305e-02 -1.149524e-02 -1.879588e-01
<VARIANCE> 42
 9.142385e-03 1.549181e-02 9.039359e-03 9.331157e-03 5.451623e-03 1.103378e-02 2.350662e-02 1.623551e-01 3.392651e-02 3.132381e-02 2.469941e-02 1.833545e-02 9.137637e-04 9.837744e-04 7.428470e-04 7.642518e-04 5.829087e-04 6.341263e-04 1.352826e-03 1.262740e-03 1.188488e-03 1.501191e-03 1.340314e-03 1.095189e-03 1.147613e-04 1.038412e-04 9.597566e-05 8.538442e-05 7.964990e-05 7.064438e-05 2.084580e-04 3.521771e-04 2.327093e-04 1.655837e-04 1.281938e-04 1.106939e-04 1.224799e-04 6.777027e-04 8.530895e-04 1.958847e-02 8.777609e-03 2.673738e-02
<GCONST> -1.970401e+02
<STATE> 43
<MEAN> 42
 3.162710e-01 3.534556e-01 3.741481e-02 -3.305629e-01 1.423079e-01 1.939137e-01 -3.075243e-01 -1.930595e-01 4.908141e-02 4.131624e-01 5.106968e-01 4.717227e-01 -2.958522e-03 -1.737065e-03 1.228299e-03 2.352332e-03 -2.114025e-03 -2.874078e-04 -1.882617e-02 -4.009661e-02 -3.300339e-02 -1.892751e-02 -1.071070e-02 -4.589940e-03 -3.780354e-03 -4.015797e-03 -2.312761e-04 3.898180e-03 -1.787148e-03 -2.133238e-03 2.115508e-03 -1.622032e-04 -3.060817e-03 -5.682670e-03 -6.015544e-03 -5.466239e-03 4.146783e-02 6.968668e-03 4.787606e-03 4.279832e-01 2.571496e-01 2.142133e-01
<VARIANCE> 42
 1.318821e-01 2.563169e-01 2.567944e-01 1.308630e-01 1.306676e-01 2.240110e-01 1.483491e-01 4.306185e-01 6.302818e-01 4.594092e-01 3.956742e-01 2.759392e-01 6.709080e-03 1.059045e-02 6.260501e-03 7.089098e-03 3.852774e-03 6.758096e-03 6.163724e-03 1.155953e-02 1.573394e-02 1.721109e-02 2.148760e-02 1.622439e-02 5.421784e-04 9.138489e-04 6.365122e-04 5.690827e-04 3.624840e-04 6.407631e-04 5.710036e-04 1.239895e-03 1.322692e-03 1.437239e-03 2.036771e-03 1.437214e-03 1.505763e-03 1.728824e-03 1.203331e-03 2.241419e-01 1.970722e-01 2.185566e-01
<GCONST> -1.041025e+02
<STATE> 44
<MEAN> 42
 -4.765388e-03 3.630769e-02 3.611104e-02 -1.142813e-02 -1.738790e-02 3.427103e-02 -5.925199e-02 -9.863770e-02 1.137248e-02 -2.620518e-04 9.247035e-03 3.326817e-02 -6.050655e-03 -9.914317e-03 -3.866552e-03 7.995650e-03 -1.090890e-03 -6.931969e-03 1.659042e-02 3.248158e-02 1.913018e-02 1.497337e-03 -4.390084e-03 -8.375615e-03 4.286084e-03 5.105129e-03 8.129142e-04 -4.691464e-03 1.764144e-03 2.987047e-03 -9.942509e-04 2.724478e-03 6.279882e-03 9.257352e-03 8.603984e-03 7.498451e-03 5.948613e-03 1.840320e-02 -2.604350e-03 2.637523e-02 3.255949e-02 4.906550e-02
<VARIANCE> 42
 2.883816e-02 3.053744e-02 2.262498e-02 2.228464e-02 1.788244e-02 2.023330e-02 8.046736e-02 2.894855e-01 2.941472e-01 1.332065e-01 7.976800e-02 5.785839e-02 6.516313e-04 8.679308e-04 8.695677e-04 5.424310e-04 5.459344e-04 7.103503e-04 9.606141e-04 2.677327e-03 3.980026e-03 3.784453e-03 1.964348e-03 1.102223e-03 1.022654e-04 1.268161e-04 1.369330e-04 8.016717e-05 8.900868e-05 1.068353e-04 8.262185e-05 2.120166e-04 4.405426e-04 4.960157e-04 3.014159e-04 1.841581e-04 4.714776e-04 9.522503e-04 8.027973e-04 5.074893e-02 1.606146e-02 1.080530e-01
<GCONST> -1.744142e+02
<STATE> 45
<MEAN> 42
 -6.010052e-02 -6.222560e-02 -4.875606e-03 6.192447e-02 -2.776191e-02 -3.896571e-02 -5.746032e-02 -1.663110e-01 -1.488838e-01 -1.165700e-01 -9.515266e-02 -7.635089e-02 5.694153e-03 5.749658e-03 5.083508e-05 -5.730205e-03 2.888604e-03 2.926708e-03 2.168326e-02 4.399113e-02 3.868934e-02 2.647873e-02 1.744635e-02 1.045777e-02 4.027766e-04 1.499829e-03 1.093782e-03 -9.572458e-04 -3.838238e-04 1.294836e-03 -2.359829e-03 -6.105587e-03 -4.540091e-03 -2.392523e-03 -8.058198e-04 -7.495557e-06 -1.844689e-03 1.284583e-02 1.268477e-03 -6.920838e-02 -3.088654e-02 8.753543e-02
<VARIANCE> 42
 4.871150e-03 1.014273e-02 8.413985e-03 4.918823e-03 4.210778e-03 7.983490e-03 2.099699e-02 7.048333e-02 2.001354e-02 1.461653e-02 7.034666e-03 4.774562e-03 3.488054e-04 3.013422e-04 5.119416e-04 1.972391e-04 3.517028e-04 3.209586e-04 6.450569e-04 1.327774e-03 9.473179e-04 6.477608e-04 5.165378e-04 2.628266e-04 7.227881e-05 8.685050e-05 9.653515e-05 5.570209e-05 6.205567e-05 7.377700e-05 4.781167e-05 1.190309e-04 1.235466e-04 1.147490e-04 1.362119e-04 8.097735e-05 5.812238e-05 3.104491e-04 4.889584e-04 5.943306e-03 6.771411e-03 1.580333e-02
<GCONST> -2.225617e+02
<STATE> 46
<MEAN> 42
 -3.593040e-02 -5.867355e-02 -2.848617e-02 4.789646e-02 5.340475e-03 -5.514728e-02 4.112130e-02 7.089622e-02 -2.463937e-02 -4.416796e-02 -2.116711e-02 -5.710484e-02 1.809690e-03 1.688925e-03 -1.345311e-04 -1.751138e-03 9.794335e-04 8.061949e-04 9.415247e-04 4.080840e-03 4.098191e-03 2.854950e-03 1.583123e-03 9.752245e-04 -3.151836e-04 -2.946985e-04 1.984389e-05 3.001763e-04 -1.678758e-04 -1.303078e-04 -6.310497e-04 -1.333263e-03 -1.158955e-03 -7.697422e-04 -7.182190e-04 -3.738307e-04 -4.093113e-03 -3.931089e-04 -7.840627e-03 -4.668361e-02 -4.291573e-02 -3.665745e-02
<VARIANCE> 42
 3.866346e-03 4.355428e-03 2.638598e-03 2.632732e-03 1.844336e-03 5.529659e-03 4.369675e-03 4.603818e-02 5.610482e-03 3.314727e-03 3.883520e-03 3.844680e-03 2.311953e-04 1.744938e-04 1.458370e-04 1.662702e-04 1.455474e-04 1.039747e-04 1.135347e-04 1.499478e-04 1.019273e-04 9.260161e-05 8.049853e-05 4.435139e-05 7.809750e-05 4.924608e-05 4.270502e-05 5.289553e-05 4.834490e-05 2.709173e-05 1.830066e-05 2.625176e-05 2.601132e-05 2.289060e-05 2.481725e-05 1.362945e-05 2.301305e-05 8.751875e-05 1.465468e-04 2.150092e-03 2.544411e-03 8.619277e-03
<GCONST> -2.660368e+02
<STATE> 47
<MEAN> 42
 2.562659e-02 3.011931e-02 1.271681e-03 -2.639470e-02 1.292522e-02 1.195939e-02 -6.100911e-03 4.353193e-02 4.224172e-02 3.566514e-02 3.786505e-02 2.511360e-02 5.865110e-05 1.078189e-04 4.941722e-05 -8.358488e-05 4.372631e-06 7.813298e-05 -2.023480e-05 3.873094e-06 4.064024e-05 2.638889e-05 6.500151e-05 7.533024e-05 -3.358812e-06 3.350003e-06 7.011352e-06 8.808740e-08 -4.953754e-06 4.520685e-06 8.420428e-06 5.689177e-06 1.101713e-05 2.840333e-06 6.411268e-06 4.434702e-06 1.369815e-03 -1.482124e-03 6.832266e-05 2.883846e-02 1.721941e-02 -1.630534e-02
<VARIANCE> 42
 4.168089e-03 5.099163e-03 1.866218e-03 4.218368e-03 1.711692e-03 2.442649e-03 2.579375e-03 1.274415e-02 1.302840e-02 9.389498e-03 8.594497e-03 6.206730e-03 6.683224e-05 5.919884e-05 5.124248e-05 5.022101e-05 4.435733e-05 3.867415e-05 2.275082e-05 7.374013e-05 3.141220e-05 4.065752e-05 3.962957e-05 2.568405e-05 2.278337e-05 1.891997e-05 1.953077e-05 1.597806e-05 1.647827e-05 1.357267e-05 5.880451e-06 2.601508e-05 5.858582e-06 1.211414e-05 7.761322e-06 5.257492e-06 3.413809e-05 8.230899e-05 1.298876e-04 5.219715e-03 2.412294e-03 3.244242e-03
<GCONST> -2.887928e+02
<STATE> 48
<MEAN> 42
 1.147858e-01 1.484670e-01 2.975182e-02 -1.326416e-01 4.150221e-02 8.568401e-02 -1.236593e-01 -7.428358e-02 -4.241022e-02 6.809421e-02 2.611736e-01 1.854769e-01 -5.110982e-05 1.534745e-03 1.585185e-03 -7.469011e-04 -8.301156e-04 1.559967e-03 -4.377873e-03 -2.176540e-03 -5.219543e-03 -1.984767e-03 -2.516252e-04 1.128603e-03 1.085809e-04 1.041330e-04 -4.883637e-06 -1.070909e-04 5.779283e-05 5.231044e-05 3.115647e-04 7.559768e-04 8.007376e-04 5.148049e-04 3.779188e-04 1.275210e-04 1.518251e-02 4.120849e-03 2.079022e-03 1.521477e-01 1.226048e-01 1.095537e-01
<VARIANCE> 42
 6.451844e-02 8.901764e-02 4.328999e-02 6.557442e-02 3.137881e-02 5.114013e-02 1.143696e-01 8.128645e-01 5.115431e-01 5.929808e+00 3.039834e-01 3.350380e-01 2.385053e-03 2.785480e-03 1.254359e-03 2.274226e-03 1.133219e-03 1.431004e-03 1.972843e-03 5.457380e-03 7.726976e-03 9.247961e-01 1.051302e-02 7.209428e-03 2.139853e-04 2.164887e-04 1.659950e-04 1.739584e-04 1.370787e-04 1.381433e-04 1.643438e-04 4.362912e-04 5.877682e-04 3.440134e-01 8.618326e-04 5.776013e-04 1.027182e-03 1.963459e-03 9.343110e-04 4.648077e-01 6.667180e-02 2.082294e-01
<GCONST> -1.243402e+02
<STATE> 49
<MEAN> 42
 4.335538e-02 3.167264e-02 -1.529735e-02 -3.839238e-02 2.800888e-02 3.189988e-03 -1.014530e-02 2.209232e-02 5.124757e-02 4.836403e-02 3.156887e-02 5.485898e-02 1.338958e-04 -8.524272e-05 -2.179352e-04 -2.319480e-05 1.776337e-04 -1.499091e-04 5.335480e-04 5.995397e-04 6.447709e-04 1.292481e-04 6.142515e-05 -3.637909e-05 -3.232424e-05 -2.676265e-05 5.489829e-06 2.998013e-05 -1.904054e-05 -1.018987e-05 -8.508861e-05 -1.656152e-04 -1.747318e-04 -1.161301e-04 -6.964062e-05 -3.380932e-05 1.071061e-03 2.288827e-04 4.309805e-03 4.216878e-02 1.468522e-02 -8.333622e-03
<VARIANCE> 42
 2.079758e-02 1.074055e-02 1.748586e-02 1.149993e-02 1.655850e-02 8.906934e-03 9.552532e-03 3.452432e+00 4.171592e-02 4.335670e-02 3.197994e-02 2.756111e-02 7.666343e-04 1.918115e-04 6.514885e-04 3.164843e-04 6.644938e-04 2.299168e-04 2.336547e-04 2.761897e-01 6.691306e-04 5.005585e-04 7.076185e-04 6.931786e-04 1.091906e-04 3.267661e-05 1.065426e-04 4.429748e-05 1.001185e-04 4.235775e-05 2.727563e-05 1.070981e-01 4.899565e-05 4.660368e-05 7.242108e-05 6.922831e-05 2.196635e-04 9.824874e-05 1.816292e-04 3.988270e-02 7.798730e-03 3.439115e-01
<GCONST> -1.962787e+02
<TRANSP> 50
 0.000000e+00 1.000000e+00 0.000000e+00 0.000000e+00 0.000000e+00 0.000000e+00 0.000000e+00 0.000000e+00 0.000000e+00 0.000000e+00 0.000000e+00 0.000000e+00 0.000000e+00 0.000000e+00 0.000000e+00 0.000000e+00 0.000000e+00 0.000000e+00 0.000000e+00 0.000000e+00 0.000000e+00 0.000000e+00 0.000000e+00 0.000000e+00 0.000000e+00 0.000000e+00 0.000000e+00 0.000000e+00 0.000000e+00 0.000000e+00 0.000000e+00 0.000000e+00 0.000000e+00 0.000000e+00 0.000000e+00 0.000000e+00 0.000000e+00 0.000000e+00 0.000000e+00 0.000000e+00 0.000000e+00 0.000000e+00 0.000000e+00 0.000000e+00 0.000000e+00 0.000000e+00 0.000000e+00 0.000000e+00 0.000000e+00 0.000000e+00
 0.000000e+00 9.927188e-01 7.281165e-03 0.000000e+00 0.000000e+00 0.000000e+00 0.000000e+00 0.000000e+00 0.000000e+00 0.000000e+00 0.000000e+00 0.000000e+00 0.000000e+00 0.000000e+00 0.000000e+00 0.000000e+00 0.000000e+00 0.000000e+00 0.000000e+00 0.000000e+00 0.000000e+00 0.000000e+00 0.000000e+00 0.000000e+00 0.000000e+00 0.000000e+00 0.000000e+00 0.000000e+00 0.000000e+00 0.000000e+00 0.000000e+00 0.000000e+00 0.000000e+00 0.000000e+00 0.000000e+00 0.000000e+00 0.000000e+00 0.000000e+00 0.000000e+00 0.000000e+00 0.000000e+00 0.000000e+00 0.000000e+00 0.000000e+00 0.000000e+00 0.000000e+00 0.000000e+00 0.000000e+00 0.000000e+00 0.000000e+00
 0.000000e+00 0.000000e+00 9.849152e-01 1.508477e-02 0.000000e+00 0.000000e+00 0.000000e+00 0.000000e+00 0.000000e+00 0.000000e+00 0.000000e+00 0.000000e+00 0.000000e+00 0.000000e+00 0.000000e+00 0.000000e+00 0.000000e+00 0.000000e+00 0.000000e+00 0.000000e+00 0.000000e+00 0.000000e+00 0.000000e+00 0.000000e+00 0.000000e+00 0.000000e+00 0.000000e+00 0.000000e+00 0.000000e+00 0.000000e+00 0.000000e+00 0.000000e+00 0.000000e+00 0.000000e+00 0.000000e+00 0.000000e+00 0.000000e+00 0.000000e+00 0.000000e+00 0.000000e+00 0.000000e+00 0.000000e+00 0.000000e+00 0.000000e+00 0.000000e+00 0.000000e+00 0.000000e+00 0.000000e+00 0.000000e+00 0.000000e+00
 0.000000e+00 0.000000e+00 0.000000e+00 9.980807e-01 1.919326e-03 0.000000e+00 0.000000e+00 0.000000e+00 0.000000e+00 0.000000e+00 0.000000e+00 0.000000e+00 0.000000e+00 0.000000e+00 0.000000e+00 0.000000e+00 0.000000e+00 0.000000e+00 0.000000e+00 0.000000e+00 0.000000e+00 0.000000e+00 0.000000e+00 0.000000e+00 0.000000e+00 0.000000e+00 0.000000e+00 0.000000e+00 0.000000e+00 0.000000e+00 0.000000e+00 0.000000e+00 0.000000e+00 0.000000e+00 0.000000e+00 0.000000e+00 0.000000e+00 0.000000e+00 0.000000e+00 0.000000e+00 0.000000e+00 0.000000e+00 0.000000e+00 0.000000e+00 0.000000e+00 0.000000e+00 0.000000e+00 0.000000e+00 0.000000e+00 0.000000e+00
 0.000000e+00 0.000000e+00 0.000000e+00 0.000000e+00 9.903073e-01 9.692733e-03 0.000000e+00 0.000000e+00 0.000000e+00 0.000000e+00 0.000000e+00 0.000000e+00 0.000000e+00 0.000000e+00 0.000000e+00 0.000000e+00 0.000000e+00 0.000000e+00 0.000000e+00 0.000000e+00 0.000000e+00 0.000000e+00 0.000000e+00 0.000000e+00 0.000000e+00 0.000000e+00 0.000000e+00 0.000000e+00 0.000000e+00 0.000000e+00 0.000000e+00 0.000000e+00 0.000000e+00 0.000000e+00 0.000000e+00 0.000000e+00 0.000000e+00 0.000000e+00 0.000000e+00 0.000000e+00 0.000000e+00 0.000000e+00 0.000000e+00 0.000000e+00 0.000000e+00 0.000000e+00 0.000000e+00 0.000000e+00 0.000000e+00 0.000000e+00
 0.000000e+00 0.000000e+00 0.000000e+00 0.000000e+00 0.000000e+00 9.668476e-01 3.315238e-02 0.000000e+00 0.000000e+00 0.000000e+00 0.000000e+00 0.000000e+00 0.000000e+00 0.000000e+00 0.000000e+00 0.000000e+00 0.000000e+00 0.000000e+00 0.000000e+00 0.000000e+00 0.000000e+00 0.000000e+00 0.000000e+00 0.000000e+00 0.000000e+00 0.000000e+00 0.000000e+00 0.000000e+00 0.000000e+00 0.000000e+00 0.000000e+00 0.000000e+00 0.000000e+00 0.000000e+00 0.000000e+00 0.000000e+00 0.000000e+00 0.000000e+00 0.000000e+00 0.000000e+00 0.000000e+00 0.000000e+00 0.000000e+00 0.000000e+00 0.000000e+00 0.000000e+00 0.000000e+00 0.000000e+00 0.000000e+00 0.000000e+00
 0.000000e+00 0.000000e+00 0.000000e+00 0.000000e+00 0.000000e+00 0.000000e+00 9.922392e-01 7.760778e-03 0.000000e+00 0.000000e+00 0.000000e+00 0.000000e+00 0.000000e+00 0.000000e+00 0.000000e+00 0.000000e+00 0.000000e+00 0.000000e+00 0.000000e+00 0.000000e+00 0.000000e+00 0.000000e+00 0.000000e+00 0.000000e+00 0.000000e+00 0.000000e+00 0.000000e+00 0.000000e+00 0.000000e+00 0.000000e+00 0.000000e+00 0.000000e+00 0.000000e+00 0.000000e+00 0.000000e+00 0.000000e+00 0.000000e+00 0.000000e+00 0.000000e+00 0.000000e+00 0.000000e+00 0.000000e+00 0.000000e+00 0.000000e+00 0.000000e+00 0.000000e+00 0.000000e+00 0.000000e+00 0.000000e+00 0.000000e+00
 0.000000e+00 0.000000e+00 0.000000e+00 0.000000e+00 0.000000e+00 0.000000e+00 0.000000e+00 9.865875e-01 1.341247e-02 0.000000e+00 0.000000e+00 0.000000e+00 0.000000e+00 0.000000e+00 0.000000e+00 0.000000e+00 0.000000e+00 0.000000e+00 0.000000e+00 0.000000e+00 0.000000e+00 0.000000e+00 0.000000e+00 0.000000e+00 0.000000e+00 0.000000e+00 0.000000e+00 0.000000e+00 0.000000e+00 0.000000e+00 0.000000e+00 0.000000e+00 0.000000e+00 0.000000e+00 0.000000e+00 0.000000e+00 0.000000e+00 0.000000e+00 0.000000e+00 0.000000e+00 0.000000e+00 0.000000e+00 0.000000e+00 0.000000e+00 0.000000e+00 0.000000e+00 0.000000e+00 0.000000e+00 0.000000e+00 0.000000e+00
 0.000000e+00 0.000000e+00 0.000000e+00 0.000000e+00 0.000000e+00 0.000000e+00 0.000000e+00 0.000000e+00 9.957605e-01 4.239501e-03 0.000000e+00 0.000000e+00 0.000000e+00 0.000000e+00 0.000000e+00 0.000000e+00 0.000000e+00 0.000000e+00 0.000000e+00 0.000000e+00 0.000000e+00 0.000000e+00 0.000000e+00 0.000000e+00 0.000000e+00 0.000000e+00 0.000000e+00 0.000000e+00 0.000000e+00 0.000000e+00 0.000000e+00 0.000000e+00 0.000000e+00 0.000000e+00 0.000000e+00 0.000000e+00 0.000000e+00 0.000000e+00 0.000000e+00 0.000000e+00 0.000000e+00 0.000000e+00 0.000000e+00 0.000000e+00 0.000000e+00 0.000000e+00 0.000000e+00 0.000000e+00 0.000000e+00 0.000000e+00
 0.000000e+00 0.000000e+00 0.000000e+00 0.000000e+00 0.000000e+00 0.000000e+00 0.000000e+00 0.000000e+00 0.000000e+00 9.816655e-01 1.833456e-02 0.000000e+00 0.000000e+00 0.000000e+00 0.000000e+00 0.000000e+00 0.000000e+00 0.000000e+00 0.000000e+00 0.000000e+00 0.000000e+00 0.000000e+00 0.000000e+00 0.000000e+00 0.000000e+00 0.000000e+00 0.000000e+00 0.000000e+00 0.000000e+00 0.000000e+00 0.000000e+00 0.000000e+00 0.000000e+00 0.000000e+00 0.000000e+00 0.000000e+00 0.000000e+00 0.000000e+00 0.000000e+00 0.000000e+00 0.000000e+00 0.000000e+00 0.000000e+00 0.000000e+00 0.000000e+00 0.000000e+00 0.000000e+00 0.000000e+00 0.000000e+00 0.000000e+00
 0.000000e+00 0.000000e+00 0.000000e+00 0.000000e+00 0.000000e+00 0.000000e+00 0.000000e+00 0.000000e+00 0.000000e+00 0.000000e+00 7.484596e-01 2.515404e-01 0.000000e+00 0.000000e+00 0.000000e+00 0.000000e+00 0.000000e+00 0.000000e+00 0.000000e+00 0.000000e+00 0.000000e+00 0.000000e+00 0.000000e+00 0.000000e+00 0.000000e+00 0.000000e+00 0.000000e+00 0.000000e+00 0.000000e+00 0.000000e+00 0.000000e+00 0.000000e+00 0.000000e+00 0.000000e+00 0.000000e+00 0.000000e+00 0.000000e+00 0.000000e+00 0.000000e+00 0.000000e+00 0.000000e+00 0.000000e+00 0.000000e+00 0.000000e+00 0.000000e+00 0.000000e+00 0.000000e+00 0.000000e+00 0.000000e+00 0.000000e+00
 0.000000e+00 0.000000e+00 0.000000e+00 0.000000e+00 0.000000e+00 0.000000e+00 0.000000e+00 0.000000e+00 0.000000e+00 0.000000e+00 0.000000e+00 6.396257e-01 3.603743e-01 0.000000e+00 0.000000e+00 0.000000e+00 0.000000e+00 0.000000e+00 0.000000e+00 0.000000e+00 0.000000e+00 0.000000e+00 0.000000e+00 0.000000e+00 0.000000e+00 0.000000e+00 0.000000e+00 0.000000e+00 0.000000e+00 0.000000e+00 0.000000e+00 0.000000e+00 0.000000e+00 0.000000e+00 0.000000e+00 0.000000e+00 0.000000e+00 0.000000e+00 0.000000e+00 0.000000e+00 0.000000e+00 0.000000e+00 0.000000e+00 0.000000e+00 0.000000e+00 0.000000e+00 0.000000e+00 0.000000e+00 0.000000e+00 0.000000e+00
 0.000000e+00 0.000000e+00 0.000000e+00 0.000000e+00 0.000000e+00 0.000000e+00 0.000000e+00 0.000000e+00 0.000000e+00 0.000000e+00 0.000000e+00 0.000000e+00 9.851091e-01 1.489088e-02 0.000000e+00 0.000000e+00 0.000000e+00 0.000000e+00 0.000000e+00 0.000000e+00 0.000000e+00 0.000000e+00 0.000000e+00 0.000000e+00 0.000000e+00 0.000000e+00 0.000000e+00 0.000000e+00 0.000000e+00 0.000000e+00 0.000000e+00 0.000000e+00 0.000000e+00 0.000000e+00 0.000000e+00 0.000000e+00 0.000000e+00 0.000000e+00 0.000000e+00 0.000000e+00 0.000000e+00 0.000000e+00 0.000000e+00 0.000000e+00 0.000000e+00 0.000000e+00 0.000000e+00 0.000000e+00 0.000000e+00 0.000000e+00
 0.000000e+00 0.000000e+00 0.000000e+00 0.000000e+00 0.000000e+00 0.000000e+00 0.000000e+00 0.000000e+00 0.000000e+00 0.000000e+00 0.000000e+00 0.000000e+00 0.000000e+00 8.421946e-01 1.578054e-01 0.000000e+00 0.000000e+00 0.000000e+00 0.000000e+00 0.000000e+00 0.000000e+00 0.000000e+00 0.000000e+00 0.000000e+00 0.000000e+00 0.000000e+00 0.000000e+00 0.000000e+00 0.000000e+00 0.000000e+00 0.000000e+00 0.000000e+00 0.000000e+00 0.000000e+00 0.000000e+00 0.000000e+00 0.000000e+00 0.000000e+00 0.000000e+00 0.000000e+00 0.000000e+00 0.000000e+00 0.000000e+00 0.000000e+00 0.000000e+00 0.000000e+00 0.000000e+00 0.000000e+00 0.000000e+00 0.000000e+00
 0.000000e+00 0.000000e+00 0.000000e+00 0.000000e+00 0.000000e+00 0.000000e+00 0.000000e+00 0.000000e+00 0.000000e+00 0.000000e+00 0.000000e+00 0.000000e+00 0.000000e+00 0.000000e+00 9.098870e-01 9.011299e-02 0.000000e+00 0.000000e+00 0.000000e+00 0.000000e+00 0.000000e+00 0.000000e+00 0.000000e+00 0.000000e+00 0.000000e+00 0.000000e+00 0.000000e+00 0.000000e+00 0.000000e+00 0.000000e+00 0.000000e+00 0.000000e+00 0.000000e+00 0.000000e+00 0.000000e+00 0.000000e+00 0.000000e+00 0.000000e+00 0.000000e+00 0.000000e+00 0.000000e+00 0.000000e+00 0.000000e+00 0.000000e+00 0.000000e+00 0.000000e+00 0.000000e+00 0.000000e+00 0.000000e+00 0.000000e+00
 0.000000e+00 0.000000e+00 0.000000e+00 0.000000e+00 0.000000e+00 0.000000e+00 0.000000e+00 0.000000e+00 0.000000e+00 0.000000e+00 0.000000e+00 0.000000e+00 0.000000e+00 0.000000e+00 0.000000e+00 8.707561e-01 1.292439e-01 0.000000e+00 0.000000e+00 0.000000e+00 0.000000e+00 0.000000e+00 0.000000e+00 0.000000e+00 0.000000e+00 0.000000e+00 0.000000e+00 0.000000e+00 0.000000e+00 0.000000e+00 0.000000e+00 0.000000e+00 0.000000e+00 0.000000e+00 0.000000e+00 0.000000e+00 0.000000e+00 0.000000e+00 0.000000e+00 0.000000e+00 0.000000e+00 0.000000e+00 0.000000e+00 0.000000e+00 0.000000e+00 0.000000e+00 0.000000e+00 0.000000e+00 0.000000e+00 0.000000e+00
 0.000000e+00 0.000000e+00 0.000000e+00 0.000000e+00 0.000000e+00 0.000000e+00 0.000000e+00 0.000000e+00 0.000000e+00 0.000000e+00 0.000000e+00 0.000000e+00 0.000000e+00 0.000000e+00 0.000000e+00 0.000000e+00 9.913240e-01 8.675983e-03 0.000000e+00 0.000000e+00 0.000000e+00 0.000000e+00 0.000000e+00 0.000000e+00 0.000000e+00 0.000000e+00 0.000000e+00 0.000000e+00 0.000000e+00 0.000000e+00 0.000000e+00 0.000000e+00 0.000000e+00 0.000000e+00 0.000000e+00 0.000000e+00 0.000000e+00 0.000000e+00 0.000000e+00 0.000000e+00 0.000000e+00 0.000000e+00 0.000000e+00 0.000000e+00 0.000000e+00 0.000000e+00 0.000000e+00 0.000000e+00 0.000000e+00 0.000000e+00
 0.000000e+00 0.000000e+00 0.000000e+00 0.000000e+00 0.000000e+00 0.000000e+00 0.000000e+00 0.000000e+00 0.000000e+00 0.000000e+00 0.000000e+00 0.000000e+00 0.000000e+00 0.000000e+00 0.000000e+00 0.000000e+00 0.000000e+00 9.874610e-01 1.253896e-02 0.000000e+00 0.000000e+00 0.000000e+00 0.000000e+00 0.000000e+00 0.000000e+00 0.000000e+00 0.000000e+00 0.000000e+00 0.000000e+00 0.000000e+00 0.000000e+00 0.000000e+00 0.000000e+00 0.000000e+00 0.000000e+00 0.000000e+00 0.000000e+00 0.000000e+00 0.000000e+00 0.000000e+00 0.000000e+00 0.000000e+00 0.000000e+00 0.000000e+00 0.000000e+00 0.000000e+00 0.000000e+00 0.000000e+00 0.000000e+00 0.000000e+00
 0.000000e+00 0.000000e+00 0.000000e+00 0.000000e+00 0.000000e+00 0.000000e+00 0.000000e+00 0.000000e+00 0.000000e+00 0.000000e+00 0.000000e+00 0.000000e+00 0.000000e+00 0.000000e+00 0.000000e+00 0.000000e+00 0.000000e+00 0.000000e+00 9.755988e-01 2.440125e-02 0.000000e+00 0.000000e+00 0.000000e+00 0.000000e+00 0.000000e+00 0.000000e+00 0.000000e+00 0.000000e+00 0.000000e+00 0.000000e+00 0.000000e+00 0.000000e+00 0.000000e+00 0.000000e+00 0.000000e+00 0.000000e+00 0.000000e+00 0.000000e+00 0.000000e+00 0.000000e+00 0.000000e+00 0.000000e+00 0.000000e+00 0.000000e+00 0.000000e+00 0.000000e+00 0.000000e+00 0.000000e+00 0.000000e+00 0.000000e+00
 0.000000e+00 0.000000e+00 0.000000e+00 0.000000e+00 0.000000e+00 0.000000e+00 0.000000e+00 0.000000e+00 0.000000e+00 0.000000e+00 0.000000e+00 0.000000e+00 0.000000e+00 0.000000e+00 0.000000e+00 0.000000e+00 0.000000e+00 0.000000e+00 0.000000e+00 9.938803e-01 6.119671e-03 0.000000e+00 0.000000e+00 0.000000e+00 0.000000e+00 0.000000e+00 0.000000e+00 0.000000e+00 0.000000e+00 0.000000e+00 0.000000e+00 0.000000e+00 0.000000e+00 0.000000e+00 0.000000e+00 0.000000e+00 0.000000e+00 0.000000e+00 0.000000e+00 0.000000e+00 0.000000e+00 0.000000e+00 0.000000e+00 0.000000e+00 0.000000e+00 0.000000e+00 0.000000e+00 0.000000e+00 0.000000e+00 0.000000e+00
 0.000000e+00 0.000000e+00 0.000000e+00 0.000000e+00 0.000000e+00 0.000000e+00 0.000000e+00 0.000000e+00 0.000000e+00 0.000000e+00 0.000000e+00 0.000000e+00 0.000000e+00 0.000000e+00 0.000000e+00 0.000000e+00 0.000000e+00 0.000000e+00 0.000000e+00 0.000000e+00 9.901351e-01 9.864875e-03 0.000000e+00 0.000000e+00 0.000000e+00 0.000000e+00 0.000000e+00 0.000000e+00 0.000000e+00 0.000000e+00 0.000000e+00 0.000000e+00 0.000000e+00 0.000000e+00 0.000000e+00 0.000000e+00 0.000000e+00 0.000000e+00 0.000000e+00 0.000000e+00 0.000000e+00 0.000000e+00 0.000000e+00 0.000000e+00 0.000000e+00 0.000000e+00 0.000000e+00 0.000000e+00 0.000000e+00 0.000000e+00
 0.000000e+00 0.000000e+00 0.000000e+00 0.000000e+00 0.000000e+00 0.000000e+00 0.000000e+00 0.000000e+00 0.000000e+00 0.000000e+00 0.000000e+00 0.000000e+00 0.000000e+00 0.000000e+00 0.000000e+00 0.000000e+00 0.000000e+00 0.000000e+00 0.000000e+00 0.000000e+00 0.000000e+00 9.959304e-01 4.069614e-03 0.000000e+00 0.000000e+00 0.000000e+00 0.000000e+00 0.000000e+00 0.000000e+00 0.000000e+00 0.000000e+00 0.000000e+00 0.000000e+00 0.000000e+00 0.000000e+00 0.000000e+00 0.000000e+00 0.000000e+00 0.000000e+00 0.000000e+00 0.000000e+00 0.000000e+00 0.000000e+00 0.000000e+00 0.000000e+00 0.000000e+00 0.000000e+00 0.000000e+00 0.000000e+00 0.000000e+00
 0.000000e+00 0.000000e+00 0.000000e+00 0.000000e+00 0.000000e+00 0.000000e+00 0.000000e+00 0.000000e+00 0.000000e+00 0.000000e+00 0.000000e+00 0.000000e+00 0.000000e+00 0.000000e+00 0.000000e+00 0.000000e+00 0.000000e+00 0.000000e+00 0.000000e+00 0.000000e+00 0.000000e+00 0.000000e+00 9.865108e-01 1.348919e-02 0.000000e+00 0.000000e+00 0.000000e+00 0.000000e+00 0.000000e+00 0.000000e+00 0.000000e+00 0.000000e+00 0.000000e+00 0.000000e+00 0.000000e+00 0.000000e+00 0.000000e+00 0.000000e+00 0.000000e+00 0.000000e+00 0.000000e+00 0.000000e+00 0.000000e+00 0.000000e+00 0.000000e+00 0.000000e+00 0.000000e+00 0.000000e+00 0.000000e+00 0.000000e+00
 0.000000e+00 0.000000e+00 0.000000e+00 0.000000e+00 0.000000e+00 0.000000e+00 0.000000e+00 0.000000e+00 0.000000e+00 0.000000e+00 0.000000e+00 0.000000e+00 0.000000e+00 0.000000e+00 0.000000e+00 0.000000e+00 0.000000e+00 0.000000e+00 0.000000e+00 0.000000e+00 0.000000e+00 0.000000e+00 0.000000e+00 9.965280e-01 3.472020e-03 0.000000e+00 0.000000e+00 0.000000e+00 0.000000e+00 0.000000e+00 0.000000e+00 0.000000e+00 0.000000e+00 0.000000e+00 0.000000e+00 0.000000e+00 0.000000e+00 0.000000e+00 0.000000e+00 0.000000e+00 0.000000e+00 0.000000e+00 0.000000e+00 0.000000e+00 0.000000e+00 0.000000e+00 0.000000e+00 0.000000e+00 0.000000e+00 0.000000e+00
 0.000000e+00 0.000000e+00 0.000000e+00 0.000000e+00 0.000000e+00 0.000000e+00 0.000000e+00 0.000000e+00 0.000000e+00 0.000000e+00 0.000000e+00 0.000000e+00 0.000000e+00 0.000000e+00 0.000000e+00 0.000000e+00 0.000000e+00 0.000000e+00 0.000000e+00 0.000000e+00 0.000000e+00 0.000000e+00 0.000000e+00 0.000000e+00 9.901733e-01 9.826685e-03 0.000000e+00 0.000000e+00 0.000000e+00 0.000000e+00 0.000000e+00 0.000000e+00 0.000000e+00 0.000000e+00 0.000000e+00 0.000000e+00 0.000000e+00 0.000000e+00 0.000000e+00 0.000000e+00 0.000000e+00 0.000000e+00 0.000000e+00 0.000000e+00 0.000000e+00 0.000000e+00 0.000000e+00 0.000000e+00 0.000000e+00 0.000000e+00
 0.000000e+00 0.000000e+00 0.000000e+00 0.000000e+00 0.000000e+00 0.000000e+00 0.000000e+00 0.000000e+00 0.000000e+00 0.000000e+00 0.000000e+00 0.000000e+00 0.000000e+00 0.000000e+00 0.000000e+00 0.000000e+00 0.000000e+00 0.000000e+00 0.000000e+00 0.000000e+00 0.000000e+00 0.000000e+00 0.000000e+00 0.000000e+00 0.000000e+00 9.966806e-01 3.319443e-03 0.000000e+00 0.000000e+00 0.000000e+00 0.000000e+00 0.000000e+00 0.000000e+00 0.000000e+00 0.000000e+00 0.000000e+00 0.000000e+00 0.000000e+00 0.000000e+00 0.000000e+00 0.000000e+00 0.000000e+00 0.000000e+00 0.000000e+00 0.000000e+00 0.000000e+00 0.000000e+00 0.000000e+00 0.000000e+00 0.000000e+00
 0.000000e+00 0.000000e+00 0.000000e+00 0.000000e+00 0.000000e+00 0.000000e+00 0.000000e+00 0.000000e+00 0.000000e+00 0.000000e+00 0.000000e+00 0.000000e+00 0.000000e+00 0.000000e+00 0.000000e+00 0.000000e+00 0.000000e+00 0.000000e+00 0.000000e+00 0.000000e+00 0.000000e+00 0.000000e+00 0.000000e+00 0.000000e+00 0.000000e+00 0.000000e+00 9.820983e-01 1.790169e-02 0.000000e+00 0.000000e+00 0.000000e+00 0.000000e+00 0.000000e+00 0.000000e+00 0.000000e+00 0.000000e+00 0.000000e+00 0.000000e+00 0.000000e+00 0.000000e+00 0.000000e+00 0.000000e+00 0.000000e+00 0.000000e+00 0.000000e+00 0.000000e+00 0.000000e+00 0.000000e+00 0.000000e+00 0.000000e+00
 0.000000e+00 0.000000e+00 0.000000e+00 0.000000e+00 0.000000e+00 0.000000e+00 0.000000e+00 0.000000e+00 0.000000e+00 0.000000e+00 0.000000e+00 0.000000e+00 0.000000e+00 0.000000e+00 0.000000e+00 0.000000e+00 0.000000e+00 0.000000e+00 0.000000e+00 0.000000e+00 0.000000e+00 0.000000e+00 0.000000e+00 0.000000e+00 0.000000e+00 0.000000e+00 0.000000e+00 9.606118e-01 3.938824e-02 0.000000e+00 0.000000e+00 0.000000e+00 0.000000e+00 0.000000e+00 0.000000e+00 0.000000e+00 0.000000e+00 0.000000e+00 0.000000e+00 0.000000e+00 0.000000e+00 0.000000e+00 0.000000e+00 0.000000e+00 0.000000e+00 0.000000e+00 0.000000e+00 0.000000e+00 0.000000e+00 0.000000e+00
 0.000000e+00 0.000000e+00 0.000000e+00 0.000000e+00 0.000000e+00 0.000000e+00 0.000000e+00 0.000000e+00 0.000000e+00 0.000000e+00 0.000000e+00 0.000000e+00 0.000000e+00 0.000000e+00 0.000000e+00 0.000000e+00 0.000000e+00 0.000000e+00 0.000000e+00 0.000000e+00 0.000000e+00 0.000000e+00 0.000000e+00 0.000000e+00 0.000000e+00 0.000000e+00 0.000000e+00 0.000000e+00 9.897820e-01 1.021803e-02 0.000000e+00 0.000000e+00 0.000000e+00 0.000000e+00 0.000000e+00 0.000000e+00 0.000000e+00 0.000000e+00 0.000000e+00 0.000000e+00 0.000000e+00 0.000000e+00 0.000000e+00 0.000000e+00 0.000000e+00 0.000000e+00 0.000000e+00 0.000000e+00 0.000000e+00 0.000000e+00
 0.000000e+00 0.000000e+00 0.000000e+00 0.000000e+00 0.000000e+00 0.000000e+00 0.000000e+00 0.000000e+00 0.000000e+00 0.000000e+00 0.000000e+00 0.000000e+00 0.000000e+00 0.000000e+00 0.000000e+00 0.000000e+00 0.000000e+00 0.000000e+00 0.000000e+00 0.000000e+00 0.000000e+00 0.000000e+00 0.000000e+00 0.000000e+00 0.000000e+00 0.000000e+00 0.000000e+00 0.000000e+00 0.000000e+00 9.964572e-01 3.542828e-03 0.000000e+00 0.000000e+00 0.000000e+00 0.000000e+00 0.000000e+00 0.000000e+00 0.000000e+00 0.000000e+00 0.000000e+00 0.000000e+00 0.000000e+00 0.000000e+00 0.000000e+00 0.000000e+00 0.000000e+00 0.000000e+00 0.000000e+00 0.000000e+00 0.000000e+00
 0.000000e+00 0.000000e+00 0.000000e+00 0.000000e+00 0.000000e+00 0.000000e+00 0.000000e+00 0.000000e+00 0.000000e+00 0.000000e+00 0.000000e+00 0.000000e+00 0.000000e+00 0.000000e+00 0.000000e+00 0.000000e+00 0.000000e+00 0.000000e+00 0.000000e+00 0.000000e+00 0.000000e+00 0.000000e+00 0.000000e+00 0.000000e+00 0.000000e+00 0.000000e+00 0.000000e+00 0.000000e+00 0.000000e+00 0.000000e+00 9.039837e-01 9.601630e-02 0.000000e+00 0.000000e+00 0.000000e+00 0.000000e+00 0.000000e+00 0.000000e+00 0.000000e+00 0.000000e+00 0.000000e+00 0.000000e+00 0.000000e+00 0.000000e+00 0.000000e+00 0.000000e+00 0.000000e+00 0.000000e+00 0.000000e+00 0.000000e+00
 0.000000e+00 0.000000e+00 0.000000e+00 0.000000e+00 0.000000e+00 0.000000e+00 0.000000e+00 0.000000e+00 0.000000e+00 0.000000e+00 0.000000e+00 0.000000e+00 0.000000e+00 0.000000e+00 0.000000e+00 0.000000e+00 0.000000e+00 0.000000e+00 0.000000e+00 0.000000e+00 0.000000e+00 0.000000e+00 0.000000e+00 0.000000e+00 0.000000e+00 0.000000e+00 0.000000e+00 0.000000e+00 0.000000e+00 0.000000e+00 0.000000e+00 4.189285e-01 5.810715e-01 0.000000e+00 0.000000e+00 0.000000e+00 0.000000e+00 0.000000e+00 0.000000e+00 0.000000e+00 0.000000e+00 0.000000e+00 0.000000e+00 0.000000e+00 0.000000e+00 0.000000e+00 0.000000e+00 0.000000e+00 0.000000e+00 0.000000e+00
 0.000000e+00 0.000000e+00 0.000000e+00 0.000000e+00 0.000000e+00 0.000000e+00 0.000000e+00 0.000000e+00 0.000000e+00 0.000000e+00 0.000000e+00 0.000000e+00 0.000000e+00 0.000000e+00 0.000000e+00 0.000000e+00 0.000000e+00 0.000000e+00 0.000000e+00 0.000000e+00 0.000000e+00 0.000000e+00 0.000000e+00 0.000000e+00 0.000000e+00 0.000000e+00 0.000000e+00 0.000000e+00 0.000000e+00 0.000000e+00 0.000000e+00 0.000000e+00 1.425802e-01 8.574198e-01 0.000000e+00 0.000000e+00 0.000000e+00 0.000000e+00 0.000000e+00 0.000000e+00 0.000000e+00 0.000000e+00 0.000000e+00 0.000000e+00 0.000000e+00 0.000000e+00 0.000000e+00 0.000000e+00 0.000000e+00 0.000000e+00
 0.000000e+00 0.000000e+00 0.000000e+00 0.000000e+00 0.000000e+00 0.000000e+00 0.000000e+00 0.000000e+00 0.000000e+00 0.000000e+00 0.000000e+00 0.000000e+00 0.000000e+00 0.000000e+00 0.000000e+00 0.000000e+00 0.000000e+00 0.000000e+00 0.000000e+00 0.000000e+00 0.000000e+00 0.000000e+00 0.000000e+00 0.000000e+00 0.000000e+00 0.000000e+00 0.000000e+00 0.000000e+00 0.000000e+00 0.000000e+00 0.000000e+00 0.000000e+00 0.000000e+00 3.816103e-01 6.183897e-01 0.000000e+00 0.000000e+00 0.000000e+00 0.000000e+00 0.000000e+00 0.000000e+00 0.000000e+00 0.000000e+00 0.000000e+00 0.000000e+00 0.000000e+00 0.000000e+00 0.000000e+00 0.000000e+00 0.000000e+00
 0.000000e+00 0.000000e+00 0.000000e+00 0.000000e+00 0.000000e+00 0.000000e+00 0.000000e+00 0.000000e+00 0.000000e+00 0.000000e+00 0.000000e+00 0.000000e+00 0.000000e+00 0.000000e+00 0.000000e+00 0.000000e+00 0.000000e+00 0.000000e+00 0.000000e+00 0.000000e+00 0.000000e+00 0.000000e+00 0.000000e+00 0.000000e+00 0.000000e+00 0.000000e+00 0.000000e+00 0.000000e+00 0.000000e+00 0.000000e+00 0.000000e+00 0.000000e+00 0.000000e+00 0.000000e+00 4.106571e-01 5.893430e-01 0.000000e+00 0.000000e+00 0.000000e+00 0.000000e+00 0.000000e+00 0.000000e+00 0.000000e+00 0.000000e+00 0.000000e+00 0.000000e+00 0.000000e+00 0.000000e+00 0.000000e+00 0.000000e+00
 0.000000e+00 0.000000e+00 0.000000e+00 0.000000e+00 0.000000e+00 0.000000e+00 0.000000e+00 0.000000e+00 0.000000e+00 0.000000e+00 0.000000e+00 0.000000e+00 0.000000e+00 0.000000e+00 0.000000e+00 0.000000e+00 0.000000e+00 0.000000e+00 0.000000e+00 0.000000e+00 0.000000e+00 0.000000e+00 0.000000e+00 0.000000e+00 0.000000e+00 0.000000e+00 0.000000e+00 0.000000e+00 0.000000e+00 0.000000e+00 0.000000e+00 0.000000e+00 0.000000e+00 0.000000e+00 0.000000e+00 9.877902e-01 1.220977e-02 0.000000e+00 0.000000e+00 0.000000e+00 0.000000e+00 0.000000e+00 0.000000e+00 0.000000e+00 0.000000e+00 0.000000e+00 0.000000e+00 0.000000e+00 0.000000e+00 0.000000e+00
 0.000000e+00 0.000000e+00 0.000000e+00 0.000000e+00 0.000000e+00 0.000000e+00 0.000000e+00 0.000000e+00 0.000000e+00 0.000000e+00 0.000000e+00 0.000000e+00 0.000000e+00 0.000000e+00 0.000000e+00 0.000000e+00 0.000000e+00 0.000000e+00 0.000000e+00 0.000000e+00 0.000000e+00 0.000000e+00 0.000000e+00 0.000000e+00 0.000000e+00 0.000000e+00 0.000000e+00 0.000000e+00 0.000000e+00 0.000000e+00 0.000000e+00 0.000000e+00 0.000000e+00 0.000000e+00 0.000000e+00 0.000000e+00 8.486961e-01 1.513039e-01 0.000000e+00 0.000000e+00 0.000000e+00 0.000000e+00 0.000000e+00 0.000000e+00 0.000000e+00 0.000000e+00 0.000000e+00 0.000000e+00 0.000000e+00 0.000000e+00
 0.000000e+00 0.000000e+00 0.000000e+00 0.000000e+00 0.000000e+00 0.000000e+00 0.000000e+00 0.000000e+00 0.000000e+00 0.000000e+00 0.000000e+00 0.000000e+00 0.000000e+00 0.000000e+00 0.000000e+00 0.000000e+00 0.000000e+00 0.000000e+00 0.000000e+00 0.000000e+00 0.000000e+00 0.000000e+00 0.000000e+00 0.000000e+00 0.000000e+00 0.000000e+00 0.000000e+00 0.000000e+00 0.000000e+00 0.000000e+00 0.000000e+00 0.000000e+00 0.000000e+00 0.000000e+00 0.000000e+00 0.000000e+00 0.000000e+00 8.957235e-01 1.042765e-01 0.000000e+00 0.000000e+00 0.000000e+00 0.000000e+00 0.000000e+00 0.000000e+00 0.000000e+00 0.000000e+00 0.000000e+00 0.000000e+00 0.000000e+00
 0.000000e+00 0.000000e+00 0.000000e+00 0.000000e+00 0.000000e+00 0.000000e+00 0.000000e+00 0.000000e+00 0.000000e+00 0.000000e+00 0.000000e+00 0.000000e+00 0.000000e+00 0.000000e+00 0.000000e+00 0.000000e+00 0.000000e+00 0.000000e+00 0.000000e+00 0.000000e+00 0.000000e+00 0.000000e+00 0.000000e+00 0.000000e+00 0.000000e+00 0.000000e+00 0.000000e+00 0.000000e+00 0.000000e+00 0.000000e+00 0.000000e+00 0.000000e+00 0.000000e+00 0.000000e+00 0.000000e+00 0.000000e+00 0.000000e+00 0.000000e+00 9.149270e-01 8.507295e-02 0.000000e+00 0.000000e+00 0.000000e+00 0.000000e+00 0.000000e+00 0.000000e+00 0.000000e+00 0.000000e+00 0.000000e+00 0.000000e+00
 0.000000e+00 0.000000e+00 0.000000e+00 0.000000e+00 0.000000e+00 0.000000e+00 0.000000e+00 0.000000e+00 0.000000e+00 0.000000e+00 0.000000e+00 0.000000e+00 0.000000e+00 0.000000e+00 0.000000e+00 0.000000e+00 0.000000e+00 0.000000e+00 0.000000e+00 0.000000e+00 0.000000e+00 0.000000e+00 0.000000e+00 0.000000e+00 0.000000e+00 0.000000e+00 0.000000e+00 0.000000e+00 0.000000e+00 0.000000e+00 0.000000e+00 0.000000e+00 0.000000e+00 0.000000e+00 0.000000e+00 0.000000e+00 0.000000e+00 0.000000e+00 0.000000e+00 9.972441e-01 2.755958e-03 0.000000e+00 0.000000e+00 0.000000e+00 0.000000e+00 0.000000e+00 0.000000e+00 0.000000e+00 0.000000e+00 0.000000e+00
 0.000000e+00 0.000000e+00 0.000000e+00 0.000000e+00 0.000000e+00 0.000000e+00 0.000000e+00 0.000000e+00 0.000000e+00 0.000000e+00 0.000000e+00 0.000000e+00 0.000000e+00 0.000000e+00 0.000000e+00 0.000000e+00 0.000000e+00 0.000000e+00 0.000000e+00 0.000000e+00 0.000000e+00 0.000000e+00 0.000000e+00 0.000000e+00 0.000000e+00 0.000000e+00 0.000000e+00 0.000000e+00 0.000000e+00 0.000000e+00 0.000000e+00 0.000000e+00 0.000000e+00 0.000000e+00 0.000000e+00 0.000000e+00 0.000000e+00 0.000000e+00 0.000000e+00 0.000000e+00 7.456018e-01 2.543982e-01 0.000000e+00 0.000000e+00 0.000000e+00 0.000000e+00 0.000000e+00 0.000000e+00 0.000000e+00 0.000000e+00
 0.000000e+00 0.000000e+00 0.000000e+00 0.000000e+00 0.000000e+00 0.000000e+00 0.000000e+00 0.000000e+00 0.000000e+00 0.000000e+00 0.000000e+00 0.000000e+00 0.000000e+00 0.000000e+00 0.000000e+00 0.000000e+00 0.000000e+00 0.000000e+00 0.000000e+00 0.000000e+00 0.000000e+00 0.000000e+00 0.000000e+00 0.000000e+00 0.000000e+00 0.000000e+00 0.000000e+00 0.000000e+00 0.000000e+00 0.000000e+00 0.000000e+00 0.000000e+00 0.000000e+00 0.000000e+00 0.000000e+00 0.000000e+00 0.000000e+00 0.000000e+00 0.000000e+00 0.000000e+00 0.000000e+00 6.223969e-01 3.776031e-01 0.000000e+00 0.000000e+00 0.000000e+00 0.000000e+00 0.000000e+00 0.000000e+00 0.000000e+00
 0.000000e+00 0.000000e+00 0.000000e+00 0.000000e+00 0.000000e+00 0.000000e+00 0.000000e+00 0.000000e+00 0.000000e+00 0.000000e+00 0.000000e+00 0.000000e+00 0.000000e+00 0.000000e+00 0.000000e+00 0.000000e+00 0.000000e+00 0.000000e+00 0.000000e+00 0.000000e+00 0.000000e+00 0.000000e+00 0.000000e+00 0.000000e+00 0.000000e+00 0.000000e+00 0.000000e+00 0.000000e+00 0.000000e+00 0.000000e+00 0.000000e+00 0.000000e+00 0.000000e+00 0.000000e+00 0.000000e+00 0.000000e+00 0.000000e+00 0.000000e+00 0.000000e+00 0.000000e+00 0.000000e+00 0.000000e+00 9.553662e-01 4.463383e-02 0.000000e+00 0.000000e+00 0.000000e+00 0.000000e+00 0.000000e+00 0.000000e+00
 0.000000e+00 0.000000e+00 0.000000e+00 0.000000e+00 0.000000e+00 0.000000e+00 0.000000e+00 0.000000e+00 0.000000e+00 0.000000e+00 0.000000e+00 0.000000e+00 0.000000e+00 0.000000e+00 0.000000e+00 0.000000e+00 0.000000e+00 0.000000e+00 0.000000e+00 0.000000e+00 0.000000e+00 0.000000e+00 0.000000e+00 0.000000e+00 0.000000e+00 0.000000e+00 0.000000e+00 0.000000e+00 0.000000e+00 0.000000e+00 0.000000e+00 0.000000e+00 0.000000e+00 0.000000e+00 0.000000e+00 0.000000e+00 0.000000e+00 0.000000e+00 0.000000e+00 0.000000e+00 0.000000e+00 0.000000e+00 0.000000e+00 8.951823e-01 1.048177e-01 0.000000e+00 0.000000e+00 0.000000e+00 0.000000e+00 0.000000e+00
 0.000000e+00 0.000000e+00 0.000000e+00 0.000000e+00 0.000000e+00 0.000000e+00 0.000000e+00 0.000000e+00 0.000000e+00 0.000000e+00 0.000000e+00 0.000000e+00 0.000000e+00 0.000000e+00 0.000000e+00 0.000000e+00 0.000000e+00 0.000000e+00 0.000000e+00 0.000000e+00 0.000000e+00 0.000000e+00 0.000000e+00 0.000000e+00 0.000000e+00 0.000000e+00 0.000000e+00 0.000000e+00 0.000000e+00 0.000000e+00 0.000000e+00 0.000000e+00 0.000000e+00 0.000000e+00 0.000000e+00 0.000000e+00 0.000000e+00 0.000000e+00 0.000000e+00 0.000000e+00 0.000000e+00 0.000000e+00 0.000000e+00 0.000000e+00 8.109108e-01 1.890892e-01 0.000000e+00 0.000000e+00 0.000000e+00 0.000000e+00
 0.000000e+00 0.000000e+00 0.000000e+00 0.000000e+00 0.000000e+00 0.000000e+00 0.000000e+00 0.000000e+00 0.000000e+00 0.000000e+00 0.000000e+00 0.000000e+00 0.000000e+00 0.000000e+00 0.000000e+00 0.000000e+00 0.000000e+00 0.000000e+00 0.000000e+00 0.000000e+00 0.000000e+00 0.000000e+00 0.000000e+00 0.000000e+00 0.000000e+00 0.000000e+00 0.000000e+00 0.000000e+00 0.000000e+00 0.000000e+00 0.000000e+00 0.000000e+00 0.000000e+00 0.000000e+00 0.000000e+00 0.000000e+00 0.000000e+00 0.000000e+00 0.000000e+00 0.000000e+00 0.000000e+00 0.000000e+00 0.000000e+00 0.000000e+00 0.000000e+00 9.391680e-01 6.083200e-02 0.000000e+00 0.000000e+00 0.000000e+00
 0.000000e+00 0.000000e+00 0.000000e+00 0.000000e+00 0.000000e+00 0.000000e+00 0.000000e+00 0.000000e+00 0.000000e+00 0.000000e+00 0.000000e+00 0.000000e+00 0.000000e+00 0.000000e+00 0.000000e+00 0.000000e+00 0.000000e+00 0.000000e+00 0.000000e+00 0.000000e+00 0.000000e+00 0.000000e+00 0.000000e+00 0.000000e+00 0.000000e+00 0.000000e+00 0.000000e+00 0.000000e+00 0.000000e+00 0.000000e+00 0.000000e+00 0.000000e+00 0.000000e+00 0.000000e+00 0.000000e+00 0.000000e+00 0.000000e+00 0.000000e+00 0.000000e+00 0.000000e+00 0.000000e+00 0.000000e+00 0.000000e+00 0.000000e+00 0.000000e+00 0.000000e+00 9.967451e-01 3.254912e-03 0.000000e+00 0.000000e+00
 0.000000e+00 0.000000e+00 0.000000e+00 0.000000e+00 0.000000e+00 0.000000e+00 0.000000e+00 0.000000e+00 0.000000e+00 0.000000e+00 0.000000e+00 0.000000e+00 0.000000e+00 0.000000e+00 0.000000e+00 0.000000e+00 0.000000e+00 0.000000e+00 0.000000e+00 0.000000e+00 0.000000e+00 0.000000e+00 0.000000e+00 0.000000e+00 0.000000e+00 0.000000e+00 0.000000e+00 0.000000e+00 0.000000e+00 0.000000e+00 0.000000e+00 0.000000e+00 0.000000e+00 0.000000e+00 0.000000e+00 0.000000e+00 0.000000e+00 0.000000e+00 0.000000e+00 0.000000e+00 0.000000e+00 0.000000e+00 0.000000e+00 0.000000e+00 0.000000e+00 0.000000e+00 0.000000e+00 9.632508e-01 3.674924e-02 0.000000e+00
 0.000000e+00 0.000000e+00 0.000000e+00 0.000000e+00 0.000000e+00 0.000000e+00 0.000000e+00 0.000000e+00 0.000000e+00 0.000000e+00 0.000000e+00 0.000000e+00 0.000000e+00 0.000000e+00 0.000000e+00 0.000000e+00 0.000000e+00 0.000000e+00 0.000000e+00 0.000000e+00 0.000000e+00 0.000000e+00 0.000000e+00 0.000000e+00 0.000000e+00 0.000000e+00 0.000000e+00 0.000000e+00 0.000000e+00 0.000000e+00 0.000000e+00 0.000000e+00 0.000000e+00 0.000000e+00 0.000000e+00 0.000000e+00 0.000000e+00 0.000000e+00 0.000000e+00 0.000000e+00 0.000000e+00 0.000000e+00 0.000000e+00 0.000000e+00 0.000000e+00 0.000000e+00 0.000000e+00 0.000000e+00 9.947933e-01 5.206717e-03
 0.000000e+00 0.000000e+00 0.000000e+00 0.000000e+00 0.000000e+00 0.000000e+00 0.000000e+00 0.000000e+00 0.000000e+00 0.000000e+00 0.000000e+00 0.000000e+00 0.000000e+00 0.000000e+00 0.000000e+00 0.000000e+00 0.000000e+00 0.000000e+00 0.000000e+00 0.000000e+00 0.000000e+00 0.000000e+00 0.000000e+00 0.000000e+00 0.000000e+00 0.000000e+00 0.000000e+00 0.000000e+00 0.000000e+00 0.000000e+00 0.000000e+00 0.000000e+00 0.000000e+00 0.000000e+00 0.000000e+00 0.000000e+00 0.000000e+00 0.000000e+00 0.000000e+00 0.000000e+00 0.000000e+00 0.000000e+00 0.000000e+00 0.000000e+00 0.000000e+00 0.000000e+00 0.000000e+00 0.000000e+00 0.000000e+00 0.000000e+00
<ENDHMM>
