~o
<STREAMINFO> 1 42
<VECSIZE> 42<NULLD><USER><DIAGC>
~h "CONTROL"
<BEGINHMM>
<NUMSTATES> 55
<STATE> 2
<NUMMIXES> 4
<MIXTURE> 1 1.670102e-01
<MEAN> 42
 7.921828e-02 1.038950e-01 1.693218e-02 -9.074571e-02 3.213103e-02 5.685590e-02 -3.054877e-02 2.213544e-02 8.084947e-02 1.155378e-01 1.245127e-01 1.128167e-01 -5.437410e-06 2.506384e-03 2.514448e-03 -1.261478e-03 -1.225952e-03 2.512451e-03 8.884319e-04 5.323007e-04 9.574591e-04 1.822978e-03 1.896187e-03 1.853791e-03 -1.319424e-04 8.974443e-04 1.029901e-03 -3.841399e-04 -5.689593e-04 9.753251e-04 8.991525e-04 8.317184e-04 8.899498e-04 9.777326e-04 8.672422e-04 8.044667e-04 6.041717e-03 2.079140e-03 1.995062e-03 1.031333e-01 7.141881e-02 4.338317e-03
<VARIANCE> 42
 2.331485e-03 5.099426e-03 3.488642e-03 2.759114e-03 1.408346e-03 3.407272e-03 3.779940e-03 1.235774e-02 1.744553e-02 6.075462e-03 7.040749e-03 7.067036e-03 7.051694e-05 6.183305e-05 6.145167e-05 5.079405e-05 5.029267e-05 4.453924e-05 2.449881e-05 7.374013e-05 2.440399e-05 4.065752e-05 2.549985e-05 2.587292e-05 2.337792e-05 1.956065e-05 2.693684e-05 1.481821e-05 2.017088e-05 1.760447e-05 5.128037e-06 2.601508e-05 4.420154e-06 1.211414e-05 5.505530e-06 4.466756e-06 2.601566e-05 2.021193e-04 3.206869e-04 2.807009e-03 3.747562e-03 4.684609e-03
<GCONST> -2.873909e+02
<MIXTURE> 2 3.186589e-01
<MEAN> 42
 1.696666e-03 5.571567e-03 -2.336437e-03 -2.525930e-03 1.287434e-03 -1.711680e-03 2.110076e-03 5.263346e-03 1.075990e-02 3.587231e-03 -1.360794e-03 2.422178e-03 7.714243e-04 1.517223e-03 7.500872e-04 -1.147496e-03 2.919522e-06 1.128523e-03 8.436587e-04 9.100895e-04 1.088175e-03 9.322897e-04 1.003605e-03 9.838840e-04 4.045612e-04 8.565488e-04 4.594714e-04 -6.311464e-04 -2.056587e-05 6.573292e-04 4.656471e-04 5.578419e-04 7.340094e-04 6.521576e-04 6.320939e-04 6.469819e-04 9.056530e-06 -1.798085e-04 -5.844851e-04 1.742582e-03 3.418115e-03 -4.195394e-03
<VARIANCE> 42
 4.172715e-04 6.498072e-04 6.070505e-04 4.104355e-04 3.583699e-04 6.235655e-04 6.212288e-04 1.370589e-03 1.138792e-03 7.051686e-04 4.191562e-04 9.628612e-04 2.852391e-05 2.074288e-05 2.230324e-05 1.925849e-05 2.028166e-05 1.428626e-05 7.478589e-06 7.374013e-05 9.872299e-06 4.065752e-05 1.131955e-05 1.089492e-05 1.088582e-05 7.526028e-06 7.966643e-06 7.237075e-06 7.514530e-06 5.001276e-06 2.202811e-06 2.601508e-05 3.178315e-06 1.211414e-05 2.423219e-06 2.489986e-06 2.131001e-06 1.034506e-05 4.069718e-05 2.765478e-04 4.339656e-04 3.402352e-04
<GCONST> -3.445038e+02
<MIXTURE> 3 3.031422e-01
<MEAN> 42
 -6.109608e-03 -1.461854e-02 -1.493241e-02 1.152037e-02 4.237761e-03 -1.918563e-02 2.310985e-03 3.531313e-03 -4.186520e-03 -1.384254e-02 -1.847463e-02 -1.609661e-02 -1.165973e-03 -1.946170e-03 -7.885685e-04 1.556895e-03 -1.939656e-04 -1.350753e-03 -6.582442e-04 -9.984548e-04 -1.286841e-03 -1.408552e-03 -1.341358e-03 -1.449929e-03 -2.456532e-04 -7.231558e-04 -4.826198e-04 4.850667e-04 1.105662e-04 -6.016369e-04 -5.044686e-04 -4.824409e-04 -6.428019e-04 -5.462581e-04 -5.101913e-04 -5.087329e-04 -7.510763e-04 5.402206e-04 -1.807391e-03 -1.271229e-02 -1.229693e-02 -4.101988e-03
<VARIANCE> 42
 3.785760e-04 7.046060e-04 6.036466e-04 3.906512e-04 3.402760e-04 6.396470e-04 7.404675e-04 1.370589e-03 9.340691e-04 7.533301e-04 5.376841e-04 9.690762e-04 2.379021e-05 1.932984e-05 1.877787e-05 1.692108e-05 1.662074e-05 1.322055e-05 6.682805e-06 7.374013e-05 9.872299e-06 4.065752e-05 1.131955e-05 8.494042e-06 9.785308e-06 7.273297e-06 7.663238e-06 6.642502e-06 6.988404e-06 5.043004e-06 2.205676e-06 2.601508e-05 3.168157e-06 1.211414e-05 2.477629e-06 2.379295e-06 3.968727e-06 9.807940e-06 4.016336e-05 3.786840e-04 4.877754e-04 3.995123e-04
<GCONST> -3.447016e+02
<MIXTURE> 4 2.111847e-01
<MEAN> 42
 5.387172e-02 6.797774e-02 6.837791e-03 -6.194741e-02 2.478837e-02 3.292631e-02 -3.112306e-02 -5.744142e-03 4.253262e-02 6.753750e-02 7.339621e-02 7.438350e-02 -1.454838e-04 -2.058084e-03 -1.908298e-03 1.115616e-03 8.618524e-04 -2.002916e-03 -1.143120e-03 -2.219778e-03 -2.711904e-03 -2.356851e-03 -2.280716e-03 -2.066847e-03 -1.868157e-04 -1.075562e-03 -8.929104e-04 6.340874e-04 3.439304e-04 -9.961897e-04 -6.517772e-04 -8.173455e-04 -9.456972e-04 -1.035448e-03 -9.753555e-04 -9.366911e-04 4.712660e-03 2.179937e-04 -4.272568e-04 6.626464e-02 4.698787e-02 1.437905e-02
<VARIANCE> 42
 2.374391e-03 5.473937e-03 4.278220e-03 2.660856e-03 1.719419e-03 4.240758e-03 2.753145e-03 9.468163e-03 6.120923e-03 5.142214e-03 5.300577e-03 7.756702e-03 6.849542e-05 5.622526e-05 5.812434e-05 4.787925e-05 4.920542e-05 4.047385e-05 2.754065e-05 7.374013e-05 2.774008e-05 4.065752e-05 2.953355e-05 2.655327e-05 2.570173e-05 1.778582e-05 2.196126e-05 1.630251e-05 1.923256e-05 1.361582e-05 5.391493e-06 2.601508e-05 5.278026e-06 1.211414e-05 5.356887e-06 5.951243e-06 2.114170e-05 8.834567e-05 2.579198e-04 2.668307e-03 4.086157e-03 2.466164e-03
<GCONST> -2.904277e+02
<STATE> 3
<NUMMIXES> 4
<MIXTURE> 1 1.213463e-01
<MEAN> 42
 6.488252e-02 8.222813e-02 1.879619e-02 -7.131884e-02 2.613630e-02 4.651446e-02 -6.153717e-02 -6.825156e-03 2.410466e-02 4.548634e-02 7.864705e-02 4.570286e-02 2.738075e-03 5.937064e-03 3.201440e-03 -4.333706e-03 -2.282222e-04 4.651654e-03 2.676716e-03 3.654212e-03 3.972604e-03 4.438302e-03 5.343236e-03 4.299088e-03 -3.623217e-04 1.126129e-03 1.486541e-03 -3.814378e-04 -9.366183e-04 1.347377e-03 2.029561e-03 2.137772e-03 2.077603e-03 1.913249e-03 2.343737e-03 1.737631e-03 6.018536e-03 3.767131e-03 1.693904e-03 6.149995e-02 5.669265e-02 2.648865e-02
<VARIANCE> 42
 6.184691e-03 4.022284e-03 2.269254e-03 4.588928e-03 3.061268e-03 1.478861e-03 1.391056e-02 1.370589e-03 4.657655e-03 5.413756e-03 1.336532e-02 4.504439e-03 1.594312e-04 1.232756e-04 1.003455e-04 1.163894e-04 9.952689e-05 7.319545e-05 5.055797e-05 7.374013e-05 4.560695e-05 4.065752e-05 1.553787e-04 3.156669e-05 5.114421e-05 3.551763e-05 3.789252e-05 3.385611e-05 3.614268e-05 2.443722e-05 1.054902e-05 2.601508e-05 1.050825e-05 1.211414e-05 2.865189e-05 9.529475e-06 6.608248e-05 8.318853e-05 2.264542e-04 6.754604e-03 1.593646e-03 9.637359e-04
<GCONST> -2.758222e+02
<MIXTURE> 2 4.226134e-01
<MEAN> 42
 -5.678047e-04 3.310063e-03 5.982689e-03 2.126738e-03 2.223728e-04 1.630370e-03 2.330431e-03 -7.673505e-03 -2.258132e-04 -7.530285e-04 1.037476e-02 3.307962e-03 -3.687645e-04 7.443497e-04 1.109999e-03 -1.872177e-04 -7.361808e-04 9.340105e-04 1.400048e-03 1.187825e-03 1.353717e-03 1.176681e-03 1.844781e-03 8.444794e-04 6.758288e-04 9.336100e-04 2.563166e-04 -8.071794e-04 2.126569e-04 5.944264e-04 5.662013e-04 8.484731e-04 8.491217e-04 6.102759e-04 7.599175e-04 5.548885e-04 4.255352e-05 1.002389e-03 1.718750e-03 2.965132e-03 3.968196e-03 3.201118e-03
<VARIANCE> 42
 7.022473e-04 1.107593e-03 7.631296e-04 6.433482e-04 4.125001e-04 7.046139e-04 8.182083e-04 1.370589e-03 6.655497e-04 6.537745e-04 2.913509e-03 6.236136e-04 1.077915e-04 6.630678e-05 7.378690e-05 6.862162e-05 7.423160e-05 4.390017e-05 2.166695e-05 7.374013e-05 2.534927e-05 4.065752e-05 7.710698e-05 2.076266e-05 4.188810e-05 2.933072e-05 2.984104e-05 2.816763e-05 2.852848e-05 1.951439e-05 7.728184e-06 2.601508e-05 8.963780e-06 1.211414e-05 2.720422e-05 7.864491e-06 2.218769e-06 2.641604e-05 7.888036e-05 3.215626e-04 7.004574e-04 2.838487e-04
<GCONST> -3.133614e+02
<MIXTURE> 3 2.871892e-01
<MEAN> 42
 -1.401260e-02 -1.908839e-02 -4.431616e-03 1.878552e-02 -1.439686e-03 -1.551197e-02 -4.527907e-03 -1.527772e-02 -1.425218e-02 -1.938286e-02 -2.564146e-02 -1.635041e-02 -1.492557e-03 -4.520138e-03 -3.029710e-03 3.014062e-03 7.580442e-04 -3.836596e-03 -1.243300e-03 -2.430914e-03 -3.282826e-03 -3.753013e-03 -4.708634e-03 -3.621503e-03 -1.105976e-04 -7.656311e-04 -6.497637e-04 4.395338e-04 2.686359e-04 -7.154633e-04 -1.137164e-03 -1.424138e-03 -1.467742e-03 -1.281459e-03 -1.470083e-03 -1.268465e-03 -9.742238e-04 -3.858114e-05 -1.295919e-04 -1.560223e-02 -1.361733e-02 5.068728e-03
<VARIANCE> 42
 9.327485e-04 1.402502e-03 1.040850e-03 8.309717e-04 5.119438e-04 9.982637e-04 1.068062e-03 1.370589e-03 1.076781e-03 1.211110e-03 2.560177e-03 1.157824e-03 1.124227e-04 7.291012e-05 8.979678e-05 7.033139e-05 8.252028e-05 5.385986e-05 3.310749e-05 7.374013e-05 2.915251e-05 4.065752e-05 6.059408e-05 2.300251e-05 3.642448e-05 2.814149e-05 3.282763e-05 2.414902e-05 2.742964e-05 2.163172e-05 1.048159e-05 2.601508e-05 1.086539e-05 1.211414e-05 1.984270e-05 8.850020e-06 3.148979e-06 3.208605e-05 9.874019e-05 5.165998e-04 8.902570e-04 2.855791e-04
<GCONST> -3.071510e+02
<MIXTURE> 4 1.688476e-01
<MEAN> 42
 3.437738e-02 6.009946e-02 2.326443e-02 -4.768845e-02 1.122583e-02 3.423693e-02 -3.081417e-02 -1.330551e-02 -1.402574e-02 3.916938e-03 3.181269e-02 7.970383e-03 -1.120856e-03 -2.095589e-03 -9.777981e-04 1.603137e-03 -6.612320e-05 -1.546527e-03 -5.223480e-04 -5.266154e-04 -8.559901e-04 -1.080057e-03 -2.416017e-03 -9.751573e-04 -1.231857e-03 -1.709864e-03 -4.756324e-04 1.471622e-03 -3.741422e-04 -1.102822e-03 -4.225404e-04 -3.766479e-04 -3.458695e-04 -3.386069e-04 -8.151145e-04 -4.021578e-04 2.866923e-03 4.046676e-03 -3.558659e-03 1.938968e-02 4.708850e-02 2.388167e-02
<VARIANCE> 42
 2.511701e-03 3.294364e-03 2.625616e-03 2.152545e-03 1.584391e-03 2.415939e-03 3.892015e-03 1.444553e-03 2.758744e-03 2.540946e-03 8.692366e-03 2.534340e-03 1.194502e-04 9.577618e-05 1.132352e-04 7.953238e-05 9.369203e-05 7.568907e-05 6.304964e-05 7.374013e-05 3.130123e-05 4.065752e-05 7.874036e-05 2.979671e-05 5.131023e-05 3.765132e-05 5.136441e-05 3.165621e-05 4.268113e-05 3.225548e-05 1.290074e-05 2.601508e-05 9.389286e-06 1.211414e-05 2.094147e-05 9.741723e-06 1.476419e-05 7.290964e-05 2.260032e-04 2.066149e-03 2.088997e-03 5.808425e-04
<GCONST> -2.854427e+02
<STATE> 4
<NUMMIXES> 4
<MIXTURE> 1 2.567856e-01
<MEAN> 42
 3.038398e-02 2.582293e-02 -4.424316e-03 -2.628705e-02 1.654734e-02 1.150923e-02 -8.541523e-03 2.929228e-02 3.684318e-02 3.776611e-02 4.027759e-02 3.601156e-02 5.165093e-04 1.042616e-03 5.291775e-04 -7.726824e-04 9.093550e-06 7.903542e-04 1.801199e-04 4.633017e-04 7.390871e-04 7.744789e-04 7.809581e-04 5.893332e-04 1.165610e-04 4.249490e-04 3.100393e-04 -2.628471e-04 -8.507054e-05 3.760107e-04 2.094920e-04 2.326773e-04 3.068124e-04 3.026681e-04 3.245556e-04 2.899472e-04 4.302582e-03 -9.713675e-04 -4.192499e-04 3.361464e-02 1.360807e-02 -9.160380e-03
<VARIANCE> 42
 2.671306e-03 1.834214e-03 6.404184e-04 2.113320e-03 1.204542e-03 5.668186e-04 1.564663e-03 2.353498e-03 4.470792e-03 4.652685e-03 4.237113e-03 5.457604e-03 1.615116e-05 1.083531e-05 1.023913e-05 1.100069e-05 1.054673e-05 6.638415e-06 8.938875e-06 7.374013e-05 9.872299e-06 4.065752e-05 1.441053e-05 1.436597e-05 2.002715e-06 1.608974e-06 2.427567e-06 1.202054e-06 1.845625e-06 1.553695e-06 1.101524e-06 2.601508e-05 1.215638e-06 1.211414e-05 1.160284e-06 1.035075e-06 7.430189e-05 5.347316e-05 1.242150e-04 3.269058e-03 6.921146e-04 6.709929e-04
<GCONST> -3.354489e+02
<MIXTURE> 2 2.295921e-01
<MEAN> 42
 9.344935e-02 8.640926e-02 -5.491867e-03 -8.857535e-02 4.770295e-02 3.982542e-02 -4.473408e-02 4.131296e-02 8.925067e-02 1.173056e-01 1.371305e-01 1.413180e-01 3.964765e-03 4.329632e-03 3.640209e-04 -4.157756e-03 1.808018e-03 2.360258e-03 -4.335281e-04 4.339587e-03 7.463449e-03 9.495569e-03 9.246981e-03 7.882943e-03 1.170821e-03 7.327978e-04 -4.323305e-04 -9.523482e-04 8.015379e-04 1.524886e-04 -1.491440e-04 4.916864e-04 1.058481e-03 1.629588e-03 1.675089e-03 1.630181e-03 8.988060e-03 1.047133e-03 7.191142e-03 1.165273e-01 5.246134e-02 1.765221e-03
<VARIANCE> 42
 3.430097e-02 2.874339e-02 1.359711e-02 2.820648e-02 1.689365e-02 1.250019e-02 2.913667e-02 1.070264e-01 9.809898e-02 1.055508e-01 9.039855e-02 8.350679e-02 1.293705e-03 6.859730e-04 6.275028e-04 8.337465e-04 7.916131e-04 3.340420e-04 7.470460e-04 1.675589e-03 1.914874e-03 2.087085e-03 2.203251e-03 1.916627e-03 1.056249e-04 6.702690e-05 7.739358e-05 6.710843e-05 7.504752e-05 4.606873e-05 5.323094e-05 1.546587e-04 2.187846e-04 2.181988e-04 2.014968e-04 1.507602e-04 5.534471e-04 6.207981e-04 5.676532e-04 6.102638e-02 1.412792e-02 3.685278e-02
<GCONST> -1.860488e+02
<MIXTURE> 3 4.203126e-01
<MEAN> 42
 4.029296e-03 -9.466889e-04 -4.968470e-03 2.987776e-04 3.770491e-03 -2.392553e-03 2.690107e-03 9.748621e-03 -5.605295e-04 6.302903e-03 2.186336e-04 -6.253147e-03 -2.723873e-04 -6.599288e-04 -3.884505e-04 4.639013e-04 5.081811e-05 -5.289737e-04 -1.503086e-04 -3.622582e-04 -4.438864e-04 -5.548389e-04 -5.100420e-04 -5.209180e-04 -3.541181e-05 -2.580989e-04 -2.252954e-04 1.405516e-04 8.913032e-05 -2.468677e-04 -1.763094e-04 -1.640371e-04 -2.063254e-04 -2.020141e-04 -1.841665e-04 -1.537053e-04 2.433690e-04 -9.285255e-04 -1.153794e-03 -3.193133e-04 -2.156680e-03 -4.568519e-03
<VARIANCE> 42
 7.724639e-04 6.341285e-04 3.997536e-04 5.754979e-04 4.512425e-04 3.584650e-04 5.259814e-04 1.370589e-03 3.149595e-03 1.884116e-03 1.383498e-03 1.932108e-03 9.584292e-06 7.634697e-06 8.434000e-06 6.507285e-06 7.165490e-06 5.718605e-06 5.228102e-06 7.374013e-05 9.872299e-06 4.065752e-05 1.131955e-05 8.494042e-06 1.934355e-06 1.550282e-06 2.471059e-06 1.127543e-06 1.834553e-06 1.560501e-06 9.828307e-07 2.601508e-05 1.441568e-06 1.211414e-05 1.159081e-06 9.298795e-07 9.260179e-06 2.503198e-05 8.784550e-05 7.602962e-04 3.365824e-04 4.425122e-04
<GCONST> -3.553916e+02
<MIXTURE> 4 9.330904e-02
<MEAN> 42
 7.987970e-02 -8.104146e-04 -7.791900e-02 -3.778353e-02 7.712944e-02 -4.175019e-02 -7.853016e-02 -1.227871e-01 -9.554412e-02 -1.415339e-02 4.500912e-02 6.461307e-02 -1.004477e-02 -1.055101e-02 -5.101906e-04 1.031511e-02 -4.793950e-03 -5.554568e-03 1.099553e-03 -1.071792e-02 -1.910727e-02 -2.345608e-02 -2.304102e-02 -1.915173e-02 -3.015414e-03 -1.826332e-03 1.180868e-03 2.428570e-03 -2.103649e-03 -3.303011e-04 6.050991e-04 -1.065059e-03 -2.496309e-03 -3.898619e-03 -4.200865e-03 -4.096156e-03 7.004878e-03 1.585664e-02 3.706845e-03 4.342905e-02 -5.608926e-03 9.157126e-02
<VARIANCE> 42
 7.704699e-02 2.415959e-02 4.241957e-02 4.003157e-02 5.396599e-02 1.394597e-02 3.969130e-02 9.748083e-02 9.058041e-02 1.020933e-01 9.927583e-02 9.738429e-02 2.608499e-03 9.587060e-04 1.586212e-03 1.388739e-03 1.857890e-03 6.241252e-04 8.222549e-04 3.573164e-03 4.821618e-03 5.282187e-03 5.026818e-03 3.836048e-03 3.400387e-04 1.218649e-04 2.503330e-04 1.690673e-04 2.643539e-04 1.018711e-04 1.045772e-04 2.619036e-04 3.341400e-04 3.950084e-04 4.741832e-04 4.053549e-04 9.682713e-04 8.712516e-04 6.409498e-04 6.940300e-02 1.163017e-02 4.240401e-02
<GCONST> -1.630530e+02
<STATE> 5
<MEAN> 42
 1.632742e-02 8.785095e-03 -2.668428e-03 -9.273588e-03 8.363456e-03 -2.777077e-03 6.967630e-03 3.862152e-02 2.122791e-02 1.812870e-02 8.298054e-03 8.650836e-03 1.004416e-04 1.491711e-04 4.786928e-05 -1.244238e-04 2.646737e-05 1.007065e-04 2.167440e-04 7.445626e-04 7.524835e-04 5.511187e-04 4.307604e-04 3.127318e-04 -1.115835e-05 3.846110e-05 4.940748e-05 -1.336350e-05 -3.047162e-05 4.536286e-05 1.663167e-05 3.700564e-05 5.031889e-05 3.899523e-05 4.325644e-05 2.035506e-05 4.969763e-04 -2.139230e-03 8.285358e-04 8.841870e-03 1.855860e-03 -1.728639e-02
<VARIANCE> 42
 2.718617e-03 2.352929e-03 1.595667e-03 2.191355e-03 1.563550e-03 1.286915e-03 2.374606e-03 7.734211e-03 6.031125e-03 4.770592e-03 4.108545e-03 2.676854e-03 7.702747e-05 5.272179e-05 7.130943e-05 4.691369e-05 6.117880e-05 4.306225e-05 3.236474e-05 7.374013e-05 3.919590e-05 4.065752e-05 5.622183e-05 2.752377e-05 2.818747e-05 1.764119e-05 2.452409e-05 1.672415e-05 2.203486e-05 1.416718e-05 7.075874e-06 2.601508e-05 9.164142e-06 1.211414e-05 1.343640e-05 7.330793e-06 2.027492e-05 5.153915e-05 1.331307e-04 2.356904e-03 1.193002e-03 2.105739e-03
<GCONST> -2.940674e+02
<STATE> 6
<MEAN> 42
 2.989266e-02 1.428495e-02 2.765456e-03 -1.760644e-02 1.797005e-02 3.092802e-03 -2.184326e-03 5.052952e-02 5.016975e-02 5.655665e-02 3.628513e-02 2.992919e-02 5.296236e-05 2.840910e-04 2.354738e-04 -1.679647e-04 -8.944132e-05 2.617177e-04 6.774488e-04 7.554417e-04 1.018280e-03 5.177324e-04 2.888232e-04 1.639472e-04 -5.036603e-05 4.421721e-05 9.516525e-05 2.563886e-06 -7.252953e-05 6.994904e-05 1.147965e-04 1.608643e-04 1.364326e-04 1.020679e-04 2.613316e-05 1.019726e-05 2.445407e-03 5.174334e-04 -5.285305e-04 3.482064e-02 1.162712e-03 -2.372609e-02
<VARIANCE> 42
 7.776153e-03 1.259196e-02 9.997132e-03 8.012419e-03 5.570759e-03 9.454885e-03 4.900940e-03 2.876058e-02 2.625903e-02 3.175481e-02 2.126627e-02 1.636806e-02 2.297439e-04 2.424476e-04 1.801760e-04 1.910426e-04 1.447833e-04 1.549059e-04 1.341043e-04 4.101902e-04 6.066391e-04 8.140748e-04 5.592888e-04 4.147174e-04 3.773420e-05 3.377328e-05 3.277791e-05 2.755852e-05 2.692717e-05 2.407414e-05 1.363068e-05 2.965480e-05 4.700835e-05 6.553104e-05 4.597090e-05 3.473855e-05 2.047177e-04 2.133026e-04 2.655022e-04 1.564138e-02 8.305741e-03 7.953369e-03
<GCONST> -2.361664e+02
<STATE> 7
<MEAN> 42
 1.142706e-01 1.145318e-01 5.301256e-03 -1.126378e-01 5.358184e-02 5.445117e-02 -6.260951e-02 2.095011e-02 9.859752e-02 1.802310e-01 1.738373e-01 1.489575e-01 6.410688e-05 2.088779e-04 1.459813e-04 -1.374450e-04 -4.332789e-05 1.755410e-04 -1.853777e-03 -2.953302e-03 -2.468412e-03 -1.062253e-03 -5.911319e-04 -2.858700e-06 6.161349e-05 -4.898755e-05 -1.107019e-04 -7.415962e-06 8.659604e-05 -8.101609e-05 -1.873961e-05 4.861076e-05 6.055938e-06 -2.665972e-05 -3.530927e-05 -2.924166e-05 1.406474e-02 1.043344e-03 8.302458e-04 1.500065e-01 7.154444e-02 1.207821e-02
<VARIANCE> 42
 4.997258e-02 6.955848e-02 5.745359e-02 4.461879e-02 3.694691e-02 5.166769e-02 6.427324e-02 1.249873e-01 1.634831e-01 1.791251e-01 1.462187e-01 1.041343e-01 1.642294e-03 1.965068e-03 1.461998e-03 1.438244e-03 1.065223e-03 1.305536e-03 1.511472e-03 2.728057e-03 4.006589e-03 5.297874e-03 4.564457e-03 3.266080e-03 1.603708e-04 1.927370e-04 1.747292e-04 1.327959e-04 1.199133e-04 1.437011e-04 1.294974e-04 2.491694e-04 3.357015e-04 4.496497e-04 3.976543e-04 2.789327e-04 7.828525e-04 7.763344e-04 5.986891e-04 1.009846e-01 4.841293e-02 6.116030e-02
<GCONST> -1.582798e+02
<STATE> 8
<MEAN> 42
 4.733093e-02 4.289266e-02 -7.036073e-03 -4.350879e-02 2.686882e-02 1.388928e-02 -2.418229e-02 5.584747e-02 6.226410e-02 5.082245e-02 7.780004e-02 4.739993e-02 2.566166e-04 1.787170e-04 -7.972866e-05 -2.188063e-04 1.726758e-04 4.925518e-05 5.602243e-04 1.456537e-03 1.116510e-03 6.809598e-04 5.691493e-04 2.598827e-04 -7.102016e-05 -5.238379e-05 1.918093e-05 6.237166e-05 -4.638098e-05 -1.669835e-05 -1.448247e-04 -3.629231e-04 -2.966514e-04 -1.993750e-04 -1.457200e-04 -9.313891e-05 3.663656e-03 -2.018646e-04 -2.174569e-03 5.410728e-02 2.260907e-02 -1.547924e-02
<VARIANCE> 42
 1.080182e-02 1.372036e-02 2.029983e-03 1.166773e-02 3.011591e-03 5.265343e-03 8.386006e-03 2.053803e-02 3.468747e-02 2.691457e-02 2.536347e-02 1.745346e-02 2.218153e-04 2.931358e-04 7.040378e-05 2.396267e-04 7.441785e-05 1.275483e-04 2.866178e-04 3.429338e-04 1.007051e-03 6.225480e-04 4.433081e-04 3.224025e-04 3.007210e-05 3.525527e-05 2.198828e-05 2.705666e-05 1.761066e-05 2.113124e-05 2.526943e-05 2.963203e-05 1.173199e-04 5.726232e-05 5.821439e-05 2.790753e-05 1.399007e-04 2.551534e-04 2.344224e-04 1.746106e-02 5.393466e-03 5.503217e-03
<GCONST> -2.394597e+02
<STATE> 9
<MEAN> 42
 4.716754e-03 9.861406e-03 3.911955e-03 -3.685678e-03 7.128001e-04 3.100016e-03 6.954656e-04 9.058145e-03 1.356526e-03 3.246780e-03 6.369208e-03 3.789645e-03 -1.948570e-04 -2.780317e-04 -8.271684e-05 2.371966e-04 -5.739645e-05 -1.808735e-04 5.851526e-05 -2.221905e-04 -2.949113e-04 -3.055874e-04 -3.358870e-04 -2.621622e-04 1.815669e-05 1.831394e-05 2.180896e-07 -1.843728e-05 9.326770e-06 9.556414e-06 7.347218e-06 3.652717e-05 2.676962e-05 2.063824e-05 2.922679e-05 1.759698e-05 2.116275e-04 -3.555146e-05 1.509610e-03 3.020205e-03 7.771724e-03 -1.636319e-03
<VARIANCE> 42
 1.024818e-03 1.582309e-03 8.207789e-04 1.129619e-03 5.117328e-04 9.195918e-04 5.252230e-04 1.664242e-03 1.852515e-03 1.732421e-03 1.936725e-03 1.377315e-03 7.366825e-05 5.660274e-05 6.208199e-05 4.952257e-05 5.387880e-05 4.127197e-05 1.790713e-05 7.374013e-05 2.049639e-05 4.065752e-05 3.189158e-05 1.748707e-05 2.638161e-05 2.023317e-05 2.264376e-05 1.759001e-05 1.948087e-05 1.499330e-05 5.347374e-06 2.601508e-05 5.907944e-06 1.211414e-05 8.543195e-06 5.356660e-06 5.094866e-06 2.293628e-05 6.501550e-05 8.138510e-04 9.222697e-04 4.936968e-04
<GCONST> -3.145528e+02
<STATE> 10
<MEAN> 42
 4.004690e-02 -5.121306e-04 -2.635255e-02 -1.817705e-02 4.561396e-02 -1.309427e-02 -3.815822e-02 -1.395235e-02 -3.053995e-02 -1.543217e-02 -1.639061e-02 -6.517076e-04 -2.193369e-04 -3.544717e-05 1.861193e-04 1.266438e-04 -2.039636e-04 7.377702e-05 3.440426e-04 4.519920e-04 4.543397e-04 2.214286e-04 7.668043e-05 -5.880391e-05 -1.165921e-04 -2.884874e-06 1.142922e-04 5.963609e-05 -1.163594e-04 5.490052e-05 1.778269e-04 2.188367e-04 1.941596e-04 8.135231e-05 9.047204e-06 -9.636453e-06 3.117928e-03 4.302243e-04 -3.596625e-03 2.513612e-03 -8.581394e-03 2.140546e-02
<VARIANCE> 42
 3.123502e-02 7.443474e-03 3.867843e-02 9.665788e-03 3.330304e-02 1.524706e-02 2.130442e-02 5.939791e-03 2.135786e-02 1.403503e-02 1.116573e-02 9.330640e-03 6.761258e-04 3.149771e-04 6.817682e-04 3.251050e-04 6.032754e-04 3.299595e-04 3.634661e-04 1.333554e-04 4.100529e-04 3.838429e-04 3.806911e-04 3.341494e-04 1.020281e-04 7.995031e-05 7.676875e-05 7.180391e-05 6.994019e-05 5.331749e-05 2.961715e-05 2.601508e-05 3.166144e-05 3.297227e-05 3.651038e-05 3.371959e-05 2.155602e-04 2.280369e-04 2.910491e-04 5.490834e-03 6.651288e-03 7.665491e-03
<GCONST> -2.266943e+02
<STATE> 11
<MEAN> 42
 -6.301700e-02 -4.914697e-02 8.693468e-03 5.637610e-02 -3.422683e-02 -2.576192e-02 1.103959e-01 1.260726e-01 5.913316e-02 -1.502805e-02 -4.179866e-02 -6.218469e-02 -7.010528e-03 -1.926299e-03 5.097104e-03 4.490072e-03 -6.106975e-03 1.545340e-03 2.912444e-02 4.307684e-02 3.108050e-02 1.230277e-02 1.583381e-03 -3.324275e-03 2.013694e-03 9.463184e-04 -1.084589e-03 -1.471119e-03 1.548847e-03 -6.383861e-05 3.281450e-03 7.474927e-03 6.664196e-03 5.669356e-03 3.720547e-03 2.513901e-03 -6.684488e-03 -7.072466e-03 3.114818e-03 -5.596740e-02 -3.602752e-02 -9.337745e-02
<VARIANCE> 42
 3.808158e-03 3.292589e-03 5.842460e-03 1.839910e-03 3.799321e-03 3.791309e-03 5.751017e-03 1.004946e-02 6.072782e-03 4.753115e-03 3.688107e-03 2.607617e-03 2.095811e-04 2.390665e-04 3.370943e-04 1.408616e-04 2.133621e-04 2.382395e-04 3.894462e-04 5.646520e-04 4.321352e-04 4.908340e-04 3.658782e-04 2.565593e-04 6.581752e-05 4.090467e-05 6.905199e-05 3.643402e-05 5.749612e-05 3.977343e-05 6.228227e-05 1.178376e-04 9.505148e-05 8.102836e-05 6.964840e-05 5.248813e-05 3.132343e-05 1.441633e-04 2.572253e-04 2.606970e-03 2.717288e-03 3.862647e-03
<GCONST> -2.469562e+02
<STATE> 12
<MEAN> 42
 -2.016992e-02 2.997576e-03 1.826819e-02 9.698084e-03 -1.714398e-02 6.943082e-03 1.988003e-01 3.150760e-01 2.480516e-01 1.277174e-01 4.631206e-02 -3.016185e-03 2.922621e-02 2.906316e-02 -2.317755e-04 -2.915223e-02 1.478206e-02 1.470268e-02 6.114085e-03 4.170457e-02 5.272758e-02 5.638273e-02 4.675128e-02 3.767214e-02 1.325841e-02 1.009478e-02 -3.185084e-03 -1.168053e-02 8.277310e-03 3.539106e-03 -1.175030e-02 -4.623882e-03 3.831185e-03 1.255266e-02 1.560757e-02 1.531895e-02 -6.405298e-03 -1.484165e-02 1.171330e-02 9.562658e-03 -1.476669e-02 -2.101820e-01
<VARIANCE> 42
 6.373395e-03 7.089930e-03 8.064593e-03 4.430095e-03 5.502331e-03 6.496529e-03 1.105993e-02 2.515423e-02 1.945072e-02 1.505950e-02 1.261430e-02 8.336765e-03 5.485004e-04 5.427837e-04 6.965360e-04 3.705969e-04 4.892292e-04 4.820920e-04 6.445331e-04 1.144191e-03 8.938760e-04 6.243976e-04 6.095063e-04 5.178524e-04 9.547212e-05 9.391030e-05 1.412340e-04 5.970580e-05 9.482357e-05 9.351523e-05 1.432101e-04 2.078196e-04 1.352705e-04 1.020936e-04 7.576359e-05 7.066362e-05 7.497513e-05 5.697109e-04 7.210102e-04 8.908396e-03 5.232591e-03 8.376235e-03
<GCONST> -2.168145e+02
<STATE> 13
<MEAN> 42
 7.431520e-02 1.096607e-01 4.521728e-02 -9.835571e-02 1.418144e-02 8.026609e-02 -3.497553e-02 2.735540e-02 4.276306e-02 4.266268e-02 3.450665e-02 2.488002e-02 8.393996e-04 6.569220e-04 -1.836284e-04 -7.487764e-04 5.127622e-04 2.408235e-04 -3.973122e-04 4.783229e-04 8.420551e-04 1.114907e-03 1.136832e-03 1.017804e-03 2.028196e-04 1.833059e-04 -1.973770e-05 -1.928131e-04 1.113294e-04 8.219925e-05 -2.519300e-04 -1.049892e-04 4.137639e-05 1.661955e-04 2.405880e-04 2.472308e-04 3.357973e-03 -4.626624e-03 1.177705e-04 4.263402e-02 7.502386e-02 3.727052e-03
<VARIANCE> 42
 3.767176e-02 1.847554e-01 6.967567e-02 9.406938e-02 7.611492e-03 1.180026e-01 3.798327e-02 2.553931e-02 1.453046e-02 2.599060e-02 2.355921e-02 1.278101e-02 1.129398e-03 5.943133e-03 2.240998e-03 2.979926e-03 2.002396e-04 3.813111e-03 1.382661e-03 3.944739e-04 5.200057e-04 8.984434e-04 7.917949e-04 4.283398e-04 8.326399e-05 5.415577e-04 2.449470e-04 2.511953e-04 2.874781e-05 3.725202e-04 1.499016e-04 3.421685e-05 5.390316e-05 8.342311e-05 6.989318e-05 3.696778e-05 1.978912e-04 1.995497e-04 2.306417e-04 2.868703e-02 1.078519e-01 1.249319e-02
<GCONST> -1.900913e+02
<STATE> 14
<MEAN> 42
 4.013583e-01 4.971043e-01 9.387423e-02 -4.487643e-01 1.553180e-01 2.932850e-01 -1.539802e-01 2.282799e-01 5.098432e-01 6.322747e-01 6.073966e-01 5.240193e-01 7.279865e-02 6.514554e-02 -7.648791e-03 -6.897300e-02 4.035193e-02 2.887106e-02 -6.896391e-02 -3.903279e-02 2.291962e-02 8.585586e-02 1.068656e-01 1.061512e-01 3.096127e-03 2.669255e-03 -4.067418e-04 -2.903892e-03 1.721312e-03 1.118471e-03 -1.105671e-02 -2.068640e-02 -1.390570e-02 -3.792590e-04 6.120558e-03 8.011251e-03 4.040887e-02 -1.006621e-02 1.304771e-02 5.223171e-01 3.188122e-01 -5.122489e-02
<VARIANCE> 42
 9.469524e-02 3.897206e-01 2.375009e-01 1.845564e-01 6.860608e-02 2.926417e-01 1.444705e-01 1.685159e-01 1.584676e-01 1.377290e-01 1.192914e-01 9.816982e-02 5.553546e-03 1.854314e-02 1.031376e-02 9.475222e-03 3.310318e-03 1.305563e-02 7.359720e-03 9.582431e-03 1.126234e-02 8.581702e-03 6.514321e-03 4.832514e-03 3.581135e-04 1.578345e-03 8.906262e-04 7.462911e-04 2.310370e-04 1.143949e-03 7.049867e-04 1.010449e-03 1.036690e-03 5.198707e-04 5.649889e-04 4.706441e-04 1.055424e-03 1.413451e-03 1.217120e-03 9.883846e-02 2.484317e-01 9.457109e-02
<GCONST> -1.164419e+02
<STATE> 15
<MEAN> 42
 3.824036e-01 3.928570e-01 6.148384e-03 -3.870811e-01 1.909218e-01 1.952697e-01 -5.224937e-01 -6.325657e-01 -3.233908e-01 3.667913e-01 6.109897e-01 6.420545e-01 -5.090408e-02 -4.773539e-02 3.183928e-03 4.931471e-02 -2.714291e-02 -2.237352e-02 -6.931815e-04 -6.749737e-02 -9.698009e-02 -1.039704e-01 -9.607192e-02 -7.791943e-02 -9.998218e-03 -9.802309e-03 1.963347e-04 9.914992e-03 -5.102097e-03 -4.833710e-03 1.143541e-02 1.327535e-02 3.354258e-03 -1.052406e-02 -1.591166e-02 -1.654287e-02 6.315286e-02 3.071005e-02 1.261816e-03 5.082654e-01 3.259753e-01 5.236235e-01
<VARIANCE> 42
 1.485777e-01 2.355995e-01 3.453090e-01 1.036718e-01 1.882917e-01 2.535133e-01 9.482622e-02 4.219057e-01 8.804024e-01 7.567905e-01 5.996693e-01 4.023539e-01 4.932567e-03 6.917825e-03 6.671670e-03 4.264228e-03 4.075285e-03 5.573023e-03 5.571779e-03 1.490224e-02 1.936763e-02 1.889593e-02 2.545545e-02 2.038709e-02 7.920385e-04 9.030159e-04 8.362369e-04 6.390223e-04 5.882788e-04 6.710101e-04 5.113600e-04 1.436124e-03 2.154636e-03 2.779402e-03 3.480253e-03 2.597112e-03 1.345897e-03 1.834321e-03 1.548167e-03 3.173552e-01 2.191760e-01 2.138198e-01
<GCONST> -9.859087e+01
<STATE> 16
<MEAN> 42
 -9.427451e-02 -7.376700e-02 1.503834e-02 8.373114e-02 -5.204130e-02 -3.480143e-02 -1.436166e-01 -3.883494e-01 -3.443373e-01 -2.727657e-01 -2.139121e-01 -1.321763e-01 -1.606359e-03 -3.383386e-03 -1.771800e-03 2.505211e-03 7.738068e-05 -2.587183e-03 2.977763e-02 6.292382e-02 5.261401e-02 2.698771e-02 1.244971e-02 6.171083e-04 6.715482e-03 7.250761e-03 5.289975e-04 -6.996057e-03 3.118497e-03 3.911383e-03 -1.617376e-03 7.011032e-04 5.751122e-03 1.005023e-02 1.125135e-02 1.047419e-02 -1.755478e-03 3.149402e-02 3.780014e-03 -1.423146e-01 -1.745265e-02 2.195294e-01
<VARIANCE> 42
 2.029434e-02 2.704376e-02 4.874280e-02 1.068722e-02 2.749690e-02 3.228621e-02 9.147242e-02 1.356468e-01 1.823864e-01 5.566463e-02 2.499191e-02 1.403411e-02 7.717899e-04 1.120432e-03 1.547145e-03 5.592670e-04 8.820696e-04 1.140582e-03 1.146588e-03 2.490596e-03 4.268636e-03 2.473763e-03 1.668091e-03 1.124631e-03 1.207453e-04 1.470792e-04 1.341825e-04 9.990822e-05 9.102748e-05 1.102472e-04 1.123635e-04 2.484342e-04 5.320408e-04 4.616767e-04 3.500326e-04 2.241601e-04 4.434213e-04 9.900950e-04 1.168360e-03 1.440165e-02 2.648510e-02 8.013551e-02
<GCONST> -1.761318e+02
<STATE> 17
<MEAN> 42
 2.922376e-02 2.456462e-02 -1.529296e-02 -3.218021e-02 2.708574e-02 4.495705e-03 -2.333374e-02 3.440000e-02 5.721688e-02 4.628992e-02 4.165516e-02 5.544769e-02 7.929815e-05 9.884546e-05 2.031465e-05 -8.992320e-05 3.050835e-05 5.788841e-05 3.330201e-04 4.556439e-04 4.140350e-04 2.928673e-04 2.084170e-04 1.117485e-04 -3.050625e-05 -3.432924e-05 -3.529220e-06 3.252298e-05 -1.369859e-05 -1.942982e-05 -4.180815e-05 -9.493762e-05 -9.657750e-05 -7.050444e-05 -5.551476e-05 -3.862585e-05 1.775811e-03 1.689389e-03 -3.557764e-03 4.416692e-02 1.045736e-02 -1.088432e-02
<VARIANCE> 42
 1.880307e-02 1.902872e-02 4.274260e-02 8.120182e-03 2.623438e-02 2.607491e-02 8.321000e-03 1.440767e-02 4.425601e-02 4.319198e-02 2.954774e-02 3.112665e-02 3.891267e-04 3.554594e-04 6.911874e-04 1.994068e-04 4.529474e-04 4.268256e-04 1.981721e-04 1.516620e-04 2.598205e-04 3.258143e-04 5.541028e-04 6.892561e-04 7.455143e-05 7.645277e-05 8.371798e-05 5.454208e-05 6.039460e-05 6.192451e-05 3.327922e-05 3.325332e-05 3.401563e-05 2.641496e-05 5.368790e-05 6.322779e-05 1.386157e-04 1.454759e-04 2.451690e-04 1.831068e-02 1.419283e-02 7.070766e-03
<GCONST> -2.214961e+02
<STATE> 18
<MEAN> 42
 4.307185e-02 6.390823e-02 1.636644e-02 -5.239463e-02 8.454248e-03 3.892065e-02 -3.488634e-02 1.994710e-02 6.141561e-02 7.289959e-02 7.882464e-02 6.764622e-02 -1.784198e-05 2.533083e-05 4.517411e-05 -1.913735e-06 -3.424220e-05 3.339257e-05 -9.965544e-04 -9.461125e-04 -4.648113e-04 -4.395676e-04 -2.405797e-04 2.636389e-05 -4.757651e-05 -5.841464e-05 -1.173078e-05 5.324231e-05 -1.689569e-05 -3.613375e-05 3.835630e-05 7.492065e-05 1.384331e-05 -3.027424e-05 -6.810078e-05 -8.721236e-05 4.631596e-03 -2.404235e-03 -3.149409e-03 6.689946e-02 4.290675e-02 1.211831e-03
<VARIANCE> 42
 1.745445e-02 5.705281e-02 1.756425e-02 3.264989e-02 3.365027e-03 3.293407e-02 4.939203e-02 6.873514e-02 7.870791e-02 8.475335e-02 7.554533e-02 5.882754e-02 6.715204e-04 1.970130e-03 7.646742e-04 1.130259e-03 2.255580e-04 1.203523e-03 1.538585e-03 2.166026e-03 2.593113e-03 2.925696e-03 2.616375e-03 1.985113e-03 8.965819e-05 1.847265e-04 1.265076e-04 1.056443e-04 6.181154e-05 1.334479e-04 1.390028e-04 2.120151e-04 2.216507e-04 2.505514e-04 2.218528e-04 1.696402e-04 3.724500e-04 3.705712e-04 3.013125e-04 5.957311e-02 3.179191e-02 3.108976e-02
<GCONST> -1.810341e+02
<STATE> 19
<MEAN> 42
 4.172118e-02 7.710188e-02 3.622075e-02 -5.027192e-02 -4.385072e-03 5.164721e-02 -3.432082e-02 4.237949e-02 3.502358e-02 5.358094e-02 5.875324e-02 5.682882e-02 1.976787e-04 -4.800822e-07 -2.007159e-04 -9.782772e-05 2.050584e-04 -1.026652e-04 1.067587e-03 2.101257e-03 1.682096e-03 9.154648e-04 3.864188e-04 1.338521e-05 -3.705670e-05 1.491883e-04 1.828141e-04 -5.481188e-05 -1.098901e-04 1.668652e-04 -1.304940e-04 -3.904263e-04 -2.265440e-04 -7.168750e-05 3.590241e-06 4.987670e-05 4.135218e-03 -3.628272e-03 -2.389709e-03 5.022149e-02 5.640249e-02 8.816370e-04
<VARIANCE> 42
 1.049816e-02 3.521368e-02 1.471518e-02 1.914366e-02 3.825243e-03 2.235389e-02 1.536819e-02 5.665823e-02 1.898874e-02 2.853501e-02 3.105524e-02 2.732001e-02 2.952499e-04 1.122313e-03 5.552343e-04 5.708594e-04 1.478645e-04 7.643909e-04 5.860349e-04 1.716672e-03 5.641695e-04 8.913240e-04 9.962970e-04 8.635480e-04 6.034619e-05 1.614748e-04 7.638660e-05 9.150248e-05 2.879886e-05 1.035849e-04 6.483485e-05 1.603412e-04 6.064921e-05 1.190618e-04 1.310197e-04 1.082283e-04 1.815833e-04 2.237984e-04 2.148803e-04 2.107255e-02 2.194453e-02 1.575386e-02
<GCONST> -2.074000e+02
<STATE> 20
<MEAN> 42
 1.641145e-02 2.404141e-02 -1.164516e-02 -2.828232e-02 2.342766e-02 -4.923160e-03 -6.087908e-03 1.745971e-02 2.186375e-02 -4.984147e-03 1.876322e-02 1.889405e-02 5.114994e-04 4.256926e-04 -8.659351e-05 -4.690483e-04 2.996876e-04 1.723127e-04 3.112476e-04 1.008258e-03 9.743241e-04 9.760064e-04 8.910618e-04 7.527454e-04 7.816571e-05 7.536526e-05 -2.550669e-06 -7.675575e-05 4.013356e-05 3.728573e-05 -1.098650e-04 -9.182737e-05 -5.408421e-05 9.107645e-06 7.970529e-05 1.053427e-04 1.470214e-03 1.666542e-03 1.035727e-03 1.174078e-02 1.638887e-02 -3.197090e-03
<VARIANCE> 42
 1.500452e-02 8.706513e-03 1.652516e-02 7.758936e-03 1.365333e-02 8.639565e-03 1.767573e-02 1.990040e-02 3.363533e-02 1.884364e-02 2.225572e-02 2.174951e-02 5.254165e-04 2.409366e-04 5.561510e-04 2.440950e-04 4.810469e-04 2.676538e-04 3.643395e-04 3.154560e-04 6.449450e-04 4.759683e-04 8.817281e-04 8.073931e-04 7.421026e-05 3.705011e-05 6.546709e-05 3.923012e-05 6.071469e-05 3.279597e-05 3.237982e-05 2.803619e-05 4.634888e-05 4.508493e-05 1.040229e-04 8.938500e-05 1.550296e-04 1.562902e-04 1.792314e-04 9.736837e-03 6.822405e-03 1.446727e-02
<GCONST> -2.242436e+02
<STATE> 21
<MEAN> 42
 -2.061275e-02 9.762561e-02 6.128319e-02 -7.231143e-02 6.720929e-03 1.499078e-02 -6.179218e-02 -7.604539e-02 -1.427183e-01 -1.037843e-01 7.042675e-02 -6.185664e-02 -6.826913e-04 -4.395894e-04 2.433107e-04 5.617895e-04 -4.631529e-04 -9.996878e-05 4.054839e-05 -6.661647e-04 -6.804430e-04 -8.666131e-04 -8.774751e-04 -8.537145e-04 -1.460375e-04 -1.276962e-04 1.860670e-05 1.371119e-04 -8.224280e-05 -5.526277e-05 9.037758e-05 -2.186126e-05 -6.513586e-05 -9.098616e-05 -1.438820e-04 -1.627706e-04 6.211060e-03 6.172113e-03 -1.189495e-02 -2.449029e-02 1.065255e-01 8.606894e-02
<VARIANCE> 42
 3.096258e-02 1.548375e-02 2.840395e-02 1.550211e-02 2.511259e-02 1.472413e-02 1.931885e-02 1.494250e-01 8.682936e-02 4.558883e-02 3.262924e-02 2.597967e-02 9.853933e-04 3.705726e-04 1.013034e-03 4.276074e-04 9.095700e-04 4.464330e-04 3.841103e-04 2.961408e-03 1.491492e-03 8.848294e-04 7.904544e-04 4.853844e-04 1.126454e-04 6.213174e-05 1.107992e-04 6.025374e-05 9.649408e-05 5.855404e-05 2.663899e-05 1.806387e-04 1.075589e-04 7.616314e-05 7.476487e-05 5.037231e-05 2.672762e-04 2.483253e-04 8.405618e-05 2.330821e-02 1.346625e-02 4.526009e-02
<GCONST> -2.015625e+02
<STATE> 22
<MEAN> 42
 2.340595e-02 2.535772e-02 -1.684905e-03 -2.255142e-02 1.377036e-02 6.395342e-03 -1.927148e-03 5.020976e-02 3.846763e-02 2.475428e-02 3.238960e-02 2.333803e-02 1.309730e-04 1.372939e-04 5.727103e-06 -1.353627e-04 6.193169e-05 7.301991e-05 1.507296e-04 4.746660e-04 4.950895e-04 4.093100e-04 2.684912e-04 1.764172e-04 -6.019955e-06 -8.257173e-06 -2.302414e-06 7.145338e-06 -2.005248e-06 -5.240689e-06 2.684551e-05 3.156978e-05 7.313814e-06 -1.004018e-05 -2.770586e-05 -2.159825e-05 1.310030e-03 -1.478362e-03 -1.727650e-05 2.269370e-02 1.394138e-02 -1.874290e-02
<VARIANCE> 42
 4.465549e-03 5.345864e-03 1.710223e-03 4.486845e-03 1.739828e-03 2.415126e-03 2.524404e-03 1.278464e-02 1.115438e-02 7.468450e-03 8.194219e-03 7.627160e-03 6.985968e-05 5.919769e-05 5.507550e-05 5.080587e-05 4.789160e-05 3.996631e-05 2.643964e-05 7.374013e-05 3.833453e-05 4.065752e-05 5.425789e-05 2.860721e-05 2.393194e-05 1.850237e-05 2.010594e-05 1.619747e-05 1.743531e-05 1.347516e-05 5.572315e-06 2.601508e-05 6.686589e-06 1.211414e-05 1.159884e-05 5.791814e-06 3.474411e-05 9.706547e-05 1.554927e-04 4.613239e-03 2.548093e-03 3.182674e-03
<GCONST> -2.869623e+02
<STATE> 23
<MEAN> 42
 1.122548e-01 1.471792e-01 3.190311e-02 -1.273330e-01 3.999478e-02 8.668558e-02 -7.139295e-02 7.743849e-02 1.437638e-01 1.970377e-01 2.058698e-01 1.915971e-01 2.626748e-04 3.908331e-04 1.267027e-04 -3.248616e-04 7.046945e-05 2.586915e-04 -6.001772e-04 -8.360522e-04 -5.585984e-04 -9.410293e-05 3.568373e-04 2.454626e-04 -6.258576e-05 -9.776614e-05 -3.509311e-05 8.054606e-05 -1.402063e-05 -6.859665e-05 -1.223217e-04 -2.728386e-04 -2.160592e-04 -1.253017e-04 -5.148226e-05 -4.145960e-05 1.178532e-02 -1.925397e-03 -1.684224e-03 1.720167e-01 9.758876e-02 -5.938843e-03
<VARIANCE> 42
 3.035839e-02 5.769365e-02 2.773348e-02 3.688274e-02 1.463169e-02 3.582420e-02 5.164908e-02 1.332238e-01 1.396165e-01 1.227394e-01 1.126366e-01 9.038353e-02 9.950456e-04 1.600174e-03 7.786076e-04 1.104138e-03 4.893731e-04 9.440814e-04 1.279496e-03 2.786658e-03 3.382841e-03 3.458358e-03 3.451461e-03 2.653190e-03 1.072868e-04 1.545796e-04 1.042843e-04 1.050394e-04 6.725243e-05 1.028111e-04 1.031319e-04 2.293922e-04 2.863591e-04 3.036443e-04 3.083271e-04 2.271472e-04 5.921190e-04 6.882604e-04 4.271309e-04 7.399417e-02 3.641566e-02 5.691424e-02
<GCONST> -1.712141e+02
<STATE> 24
<MEAN> 42
 6.121347e-03 8.840585e-03 1.849659e-03 -4.768429e-03 2.570850e-03 2.625362e-03 -2.166364e-03 9.303287e-03 4.598863e-03 3.847577e-03 9.350348e-03 9.659306e-04 -1.664947e-04 -1.970525e-04 -3.035608e-05 1.813961e-04 -6.865596e-05 -1.153596e-04 9.838824e-05 -4.117347e-05 -1.363931e-04 -2.027957e-04 -2.326886e-04 -1.963936e-04 1.585464e-05 2.804409e-05 1.230152e-05 -2.235545e-05 1.743739e-06 2.057030e-05 1.086189e-05 4.465141e-05 4.034342e-05 2.522184e-05 2.178363e-05 1.772421e-05 2.855005e-04 -2.611754e-04 -1.409256e-04 4.422676e-03 6.009408e-03 -2.106638e-03
<VARIANCE> 42
 1.155898e-03 1.694632e-03 9.946990e-04 1.233025e-03 6.329426e-04 1.068250e-03 1.017314e-03 2.245518e-03 2.420536e-03 1.614751e-03 2.284366e-03 1.737779e-03 7.622541e-05 5.848634e-05 5.585701e-05 5.346836e-05 5.200887e-05 3.874211e-05 2.650565e-05 7.374013e-05 2.409849e-05 4.065752e-05 3.143917e-05 1.918494e-05 2.739650e-05 2.101637e-05 2.052754e-05 1.908799e-05 1.891239e-05 1.414298e-05 7.230524e-06 2.601508e-05 7.081072e-06 1.211414e-05 8.524235e-06 6.060302e-06 6.233835e-06 2.863887e-05 9.400836e-05 9.199941e-04 9.799188e-04 6.034679e-04
<GCONST> -3.098426e+02
<STATE> 25
<MEAN> 42
 1.201067e-01 1.383941e-01 1.499828e-02 -1.272189e-01 5.201517e-02 7.508729e-02 -7.356784e-02 3.228483e-02 9.127557e-02 1.611011e-01 1.830672e-01 1.826453e-01 4.467804e-04 5.636576e-04 1.184870e-04 -5.043977e-04 1.692347e-04 3.447161e-04 -3.580948e-04 7.500224e-06 2.688869e-04 4.268562e-04 4.622001e-04 6.145512e-04 -2.574870e-05 -4.952124e-05 -2.299669e-05 3.786500e-05 4.150024e-09 -3.655703e-05 -6.356687e-06 -1.049350e-04 -7.164828e-05 -4.113455e-05 -5.213456e-05 -3.740535e-05 1.304590e-02 8.965344e-04 3.086285e-03 1.551535e-01 9.373792e-02 2.078857e-02
<VARIANCE> 42
 5.765856e-02 9.452210e-02 6.794562e-02 5.893479e-02 3.923127e-02 6.719410e-02 7.117014e-02 1.828822e-01 2.141852e-01 1.717113e-01 1.582883e-01 1.264310e-01 1.936548e-03 2.861229e-03 1.825342e-03 1.944179e-03 1.170659e-03 1.861256e-03 1.849119e-03 4.055321e-03 5.039288e-03 5.080263e-03 5.646863e-03 4.485987e-03 1.843680e-04 2.689672e-04 2.120969e-04 1.738045e-04 1.315514e-04 1.944388e-04 1.684759e-04 3.657068e-04 4.136407e-04 4.434369e-04 5.566516e-04 4.321613e-04 7.838267e-04 8.475588e-04 5.546908e-04 9.767205e-02 6.482880e-02 8.847167e-02
<GCONST> -1.496620e+02
<STATE> 26
<MEAN> 42
 1.049285e-02 1.309929e-02 1.384707e-03 -9.197347e-03 5.295993e-03 3.317487e-03 -2.675893e-03 1.361160e-02 9.123636e-03 7.715510e-03 1.112386e-02 8.599736e-03 -7.098635e-05 -1.603765e-04 -8.931495e-05 1.157896e-04 8.425635e-06 -1.252575e-04 4.654785e-05 -4.975648e-05 -8.722401e-05 -1.388904e-04 -1.163220e-04 -1.754066e-04 1.401324e-05 1.319688e-05 -8.796787e-07 -1.362053e-05 7.434111e-06 6.812411e-06 -1.221030e-05 1.486126e-05 1.203495e-05 7.659890e-06 1.270675e-05 1.394560e-05 6.926648e-04 -9.107363e-04 -3.538583e-04 8.181203e-03 8.558065e-03 -3.229746e-03
<VARIANCE> 42
 1.853995e-03 2.447795e-03 1.213136e-03 1.887704e-03 9.150400e-04 1.369664e-03 1.311586e-03 3.017728e-03 3.232686e-03 2.920327e-03 3.097284e-03 2.194971e-03 8.050661e-05 5.866372e-05 5.593979e-05 5.559689e-05 5.370766e-05 3.741274e-05 2.240230e-05 7.374013e-05 2.477597e-05 4.065752e-05 3.711792e-05 2.108149e-05 2.897836e-05 1.968319e-05 2.098961e-05 1.906927e-05 2.011307e-05 1.317088e-05 5.763423e-06 2.601508e-05 6.593138e-06 1.211414e-05 8.834187e-06 5.448190e-06 1.316588e-05 3.752558e-05 8.271235e-05 1.644010e-03 1.391817e-03 8.952685e-04
<GCONST> -3.037271e+02
<STATE> 27
<MEAN> 42
 7.384096e-02 6.675633e-03 -5.772065e-02 -3.076612e-02 6.015159e-02 -2.763254e-02 -4.219292e-02 3.217244e-02 3.820069e-02 3.585736e-02 3.729084e-02 4.428311e-02 1.287621e-03 7.023790e-04 -5.839701e-04 -9.943583e-04 9.370738e-04 5.986349e-05 6.357596e-04 1.976714e-03 1.760987e-03 1.402637e-03 1.035714e-03 1.050636e-03 2.706008e-04 3.788639e-04 1.078084e-04 -3.244557e-04 8.039036e-05 2.412545e-04 -9.045457e-05 -8.897870e-06 2.894075e-04 4.075444e-04 4.113668e-04 3.870986e-04 5.688497e-03 6.668265e-04 -5.566474e-03 4.677575e-02 -1.504047e-02 -2.828733e-03
<VARIANCE> 42
 4.964219e-02 1.587684e-02 2.413255e-02 2.710289e-02 3.356171e-02 7.540829e-03 4.711626e-02 5.277944e-02 6.109911e-02 6.303617e-02 6.122754e-02 4.936687e-02 1.769417e-03 6.621509e-04 7.158275e-04 1.037545e-03 1.082550e-03 2.475230e-04 1.287231e-03 2.011888e-03 2.619820e-03 2.828781e-03 2.768672e-03 2.151402e-03 1.856888e-04 8.211206e-05 8.503519e-05 1.126186e-04 1.155463e-04 3.748569e-05 1.090449e-04 2.167501e-04 2.901308e-04 3.054475e-04 3.034703e-04 2.288730e-04 4.491989e-04 4.632723e-04 2.534272e-04 4.761608e-02 5.632880e-03 2.464653e-02
<GCONST> -1.841316e+02
<STATE> 28
<MEAN> 42
 9.874605e-02 1.634550e-01 5.840912e-02 -1.302307e-01 2.186463e-02 1.070518e-01 -6.461482e-02 4.344438e-02 1.145436e-01 1.789024e-01 2.071963e-01 1.704744e-01 -5.953668e-04 2.180436e-04 8.090400e-04 1.879933e-04 -7.010323e-04 5.137055e-04 -6.231235e-04 -1.268439e-03 -8.752493e-04 -3.562531e-04 -1.106710e-05 -1.136527e-04 -2.419807e-04 -3.590147e-04 -1.164265e-04 3.004788e-04 -6.182349e-05 -2.376208e-04 8.180061e-05 -8.150910e-05 -3.104443e-04 -3.728850e-04 -3.923297e-04 -3.607409e-04 1.046578e-02 1.171479e-03 3.736531e-04 1.595614e-01 1.186611e-01 1.053219e-02
<VARIANCE> 42
 2.895899e-02 8.855041e-02 3.648029e-02 4.975676e-02 1.044331e-02 5.557678e-02 5.476352e-02 1.511022e-01 1.851278e-01 1.383608e-01 1.347589e-01 1.037625e-01 8.476279e-04 2.672226e-03 1.105982e-03 1.484794e-03 3.106160e-04 1.681220e-03 1.363467e-03 2.862261e-03 3.829112e-03 3.835835e-03 4.450458e-03 3.286152e-03 9.149035e-05 2.459155e-04 1.383596e-04 1.342034e-04 5.379292e-05 1.695207e-04 1.223012e-04 2.477182e-04 2.941711e-04 3.416633e-04 4.488069e-04 3.141536e-04 5.736211e-04 6.333808e-04 5.519891e-04 7.802409e-02 6.058215e-02 7.715155e-02
<GCONST> -1.641362e+02
<STATE> 29
<MEAN> 42
 9.023171e-03 1.071799e-02 1.052169e-03 -7.352050e-03 4.380665e-03 3.418369e-03 -1.009375e-03 1.234945e-02 6.752681e-03 7.202772e-03 7.560446e-03 6.414763e-03 -1.559129e-04 -2.117221e-04 -5.516716e-05 1.843522e-04 -5.066023e-05 -1.332298e-04 4.381823e-05 -1.368739e-04 -2.094874e-04 -2.493965e-04 -2.843939e-04 -2.325710e-04 7.215492e-06 2.399366e-05 1.664891e-05 -1.556679e-05 -5.347969e-06 2.052393e-05 -1.396173e-05 8.368854e-06 1.299636e-05 9.959115e-06 1.715626e-05 1.827269e-05 4.272357e-04 -7.606544e-04 3.107367e-04 6.099270e-03 6.910068e-03 -3.311754e-03
<VARIANCE> 42
 1.474817e-03 1.691150e-03 8.636432e-04 1.414954e-03 7.407015e-04 9.273320e-04 1.255258e-03 2.696135e-03 2.827977e-03 2.126692e-03 2.092584e-03 1.388526e-03 7.798542e-05 5.663011e-05 5.536395e-05 5.349048e-05 5.292843e-05 3.662294e-05 2.374224e-05 7.374013e-05 2.189808e-05 4.065752e-05 3.231920e-05 1.829520e-05 2.904409e-05 1.971441e-05 2.055249e-05 1.925789e-05 2.005113e-05 1.294343e-05 6.158882e-06 2.601508e-05 5.755554e-06 1.211414e-05 7.698821e-06 5.200774e-06 7.025683e-06 3.231275e-05 8.373604e-05 1.030682e-03 9.153682e-04 8.005142e-04
<GCONST> -3.095548e+02
<STATE> 30
<MEAN> 42
 -1.897840e-02 -1.146111e-02 3.049271e-04 1.559145e-02 -6.154601e-03 -1.199957e-02 1.002859e-03 6.389308e-02 -3.821212e-02 -4.043366e-02 -4.404682e-02 -3.362216e-02 -2.901575e-03 -2.273736e-03 6.228455e-04 2.582538e-03 -1.781625e-03 -8.446130e-04 6.654344e-03 9.491969e-03 4.588014e-03 3.824388e-04 -1.844542e-03 -2.551777e-03 -4.489094e-04 -3.423500e-04 1.057448e-04 3.972570e-04 -2.830618e-04 -1.225912e-04 1.703611e-03 2.399914e-03 1.648409e-03 5.493773e-04 -1.209148e-06 -4.736305e-04 -5.485080e-04 -9.910204e-05 -3.429726e-03 -3.879853e-02 -5.494498e-03 -1.572934e-02
<VARIANCE> 42
 2.493384e-03 4.060039e-03 3.448036e-03 2.433772e-03 1.768069e-03 2.549414e-03 4.658663e-03 5.421441e-02 6.628697e-03 2.474207e-03 6.584289e-03 2.572116e-03 1.590936e-04 1.643798e-04 2.272145e-04 1.058232e-04 1.518903e-04 1.575113e-04 2.188370e-04 3.823344e-04 2.185019e-04 1.129686e-04 1.931948e-04 1.020758e-04 4.669382e-05 4.000138e-05 4.832240e-05 3.160014e-05 3.794274e-05 3.292299e-05 3.201713e-05 7.012333e-05 4.515841e-05 3.115728e-05 3.861771e-05 2.677280e-05 2.296172e-05 4.502765e-05 7.242733e-05 2.404362e-03 3.307688e-03 5.920098e-03
<GCONST> -2.616819e+02
<STATE> 31
<MEAN> 42
 -6.965433e-02 -5.068626e-02 1.548408e-02 6.149809e-02 -4.175503e-02 -2.130932e-02 1.516209e-01 3.241398e-01 1.015121e-01 9.944070e-03 -5.363841e-02 -6.790932e-02 -1.480339e-03 2.450902e-03 3.949659e-03 -4.701093e-04 -2.718791e-03 3.180947e-03 2.864240e-02 5.014891e-02 4.163867e-02 2.285016e-02 1.207250e-02 2.981112e-04 4.724184e-03 4.490764e-03 -2.219545e-04 -4.611197e-03 2.523884e-03 2.109586e-03 -1.509427e-03 4.281649e-03 7.617560e-03 9.945466e-03 8.594684e-03 6.166520e-03 -6.899338e-03 -7.819036e-03 4.461463e-03 -7.173683e-02 -4.310106e-02 -1.777902e-01
<VARIANCE> 42
 4.274077e-03 7.461496e-03 1.043405e-02 3.000568e-03 5.542154e-03 7.843874e-03 8.433173e-03 1.399736e-01 1.227985e-02 5.567372e-03 4.733725e-03 5.720457e-03 1.839571e-04 2.250612e-04 1.794028e-04 1.600308e-04 1.273006e-04 1.570004e-04 4.905670e-04 7.230209e-04 6.007708e-04 4.428649e-04 2.327437e-04 2.092038e-04 4.097007e-05 4.470651e-05 8.148959e-05 2.258000e-05 4.958045e-05 5.478437e-05 8.443320e-05 1.620831e-04 8.019549e-05 5.780362e-05 4.389592e-05 3.987748e-05 8.437009e-05 2.807012e-04 3.402506e-04 4.580232e-03 5.910950e-03 1.219433e-02
<GCONST> -2.372336e+02
<STATE> 32
<MEAN> 42
 -4.472461e-02 -2.185779e-02 1.936118e-02 3.402364e-02 -3.037317e-02 -5.852806e-03 1.743803e-01 2.857365e-01 1.917170e-01 7.513788e-02 4.986259e-03 -4.205405e-02 1.345853e-02 1.528618e-02 1.856519e-03 -1.437143e-02 5.857048e-03 8.570651e-03 1.765219e-02 5.263014e-02 5.295732e-02 4.490066e-02 3.307727e-02 2.029635e-02 1.099514e-02 8.631515e-03 -2.371278e-03 -9.825485e-03 6.727099e-03 3.172139e-03 -5.954727e-03 3.839368e-03 7.564762e-03 1.304824e-02 1.387789e-02 1.321783e-02 -6.949855e-03 -1.076888e-02 8.792585e-03 -2.411710e-02 -2.851424e-02 -1.878892e-01
<VARIANCE> 42
 5.126873e-03 8.346387e-03 1.044930e-02 3.802293e-03 5.657185e-03 8.284260e-03 1.127189e-02 6.990846e-02 1.680602e-02 8.152422e-03 6.044912e-03 6.716513e-03 2.064171e-04 2.350123e-04 2.828385e-04 1.497134e-04 1.869958e-04 2.137247e-04 6.523289e-04 1.240166e-03 9.847278e-04 5.260870e-04 2.754036e-04 3.432113e-04 7.616065e-05 6.663710e-05 1.149728e-04 4.301919e-05 7.891547e-05 7.152791e-05 1.322482e-04 2.083057e-04 9.733816e-05 4.068745e-05 5.548986e-05 5.199473e-05 8.003445e-05 3.731373e-04 4.202680e-04 5.795706e-03 6.682752e-03 1.256294e-02
<GCONST> -2.279236e+02
<STATE> 33
<MEAN> 42
 -2.096416e-02 -3.114482e-04 1.719720e-02 1.064658e-02 -1.726750e-02 4.257502e-03 2.028881e-01 3.489910e-01 2.497007e-01 1.247321e-01 4.826285e-02 -1.153431e-02 2.957669e-02 2.857319e-02 -9.923504e-04 -2.909835e-02 1.537439e-02 1.384059e-02 6.128897e-03 5.040646e-02 5.884572e-02 5.830120e-02 4.975897e-02 3.824121e-02 1.435042e-02 1.191784e-02 -2.459056e-03 -1.315785e-02 8.467819e-03 4.791453e-03 -1.079932e-02 -1.238998e-03 6.186304e-03 1.387544e-02 1.640175e-02 1.699897e-02 -5.695434e-03 -1.374726e-02 1.553186e-02 4.583741e-03 -1.837109e-02 -2.230172e-01
<VARIANCE> 42
 5.693628e-03 1.012457e-02 8.792920e-03 5.270381e-03 4.764379e-03 8.167883e-03 2.036647e-02 8.465021e-02 2.447086e-02 1.433815e-02 1.025007e-02 1.053276e-02 3.661332e-04 4.172809e-04 6.436234e-04 2.314516e-04 4.019838e-04 4.393639e-04 9.434869e-04 1.897823e-03 1.320801e-03 6.316552e-04 4.817964e-04 5.782305e-04 7.996530e-05 8.361926e-05 1.296291e-04 4.996638e-05 8.480356e-05 8.542641e-05 1.696015e-04 2.152283e-04 1.164816e-04 7.420695e-05 8.639687e-05 7.153875e-05 9.915595e-05 5.818054e-04 6.372100e-04 1.014039e-02 7.196574e-03 1.711955e-02
<GCONST> -2.140770e+02
<STATE> 34
<MEAN> 42
 6.608330e-02 7.333317e-02 3.250289e-03 -6.912325e-02 3.385968e-02 3.292109e-02 1.590062e-01 3.906355e-01 3.248101e-01 2.451930e-01 1.693327e-01 8.870859e-02 5.236859e-02 4.505012e-02 -7.333959e-03 -4.877154e-02 3.004081e-02 1.899079e-02 -1.563310e-02 3.442571e-02 5.944555e-02 7.727582e-02 7.614885e-02 6.657119e-02 1.397159e-02 1.214633e-02 -1.858354e-03 -1.306891e-02 7.971048e-03 5.211910e-03 -1.430992e-02 -9.352465e-03 2.266520e-03 1.200945e-02 1.734075e-02 1.862615e-02 2.053275e-03 -1.557156e-02 1.525559e-02 1.072657e-01 2.306348e-02 -2.250323e-01
<VARIANCE> 42
 5.865624e-03 6.945895e-03 7.574378e-03 4.343684e-03 5.355858e-03 6.322830e-03 1.375060e-02 8.627571e-02 3.503582e-02 1.434627e-02 1.077516e-02 1.145452e-02 7.832904e-04 7.667846e-04 1.394729e-03 4.286705e-04 9.048380e-04 8.789046e-04 1.295271e-03 2.777984e-03 1.863561e-03 9.867253e-04 8.370898e-04 8.787127e-04 8.837365e-05 7.812645e-05 1.441982e-04 4.703960e-05 9.826799e-05 8.897299e-05 1.014801e-04 2.603341e-04 2.463973e-04 1.773786e-04 1.071041e-04 7.146449e-05 1.157363e-04 9.033822e-04 9.000378e-04 7.675961e-03 5.387459e-03 1.945021e-02
<GCONST> -2.057867e+02
<STATE> 35
<MEAN> 42
 2.068666e-01 2.543235e-01 4.581311e-02 -2.300440e-01 8.196092e-02 1.457076e-01 5.173310e-02 3.192025e-01 3.401774e-01 4.216918e-01 4.502874e-01 3.935168e-01 6.744711e-02 7.103338e-02 3.559543e-03 -6.922422e-02 3.209901e-02 3.747117e-02 -6.599695e-02 -3.578342e-02 -8.862277e-03 6.762458e-02 1.238926e-01 1.290986e-01 8.695780e-03 7.409270e-03 -1.279937e-03 -8.007355e-03 4.970842e-03 3.131801e-03 -1.785265e-02 -1.840826e-02 -1.344866e-02 1.753045e-03 1.600257e-02 1.793303e-02 1.609263e-02 -2.247036e-02 1.476069e-02 3.200831e-01 1.675279e-01 -1.232906e-01
<VARIANCE> 42
 4.282187e-02 7.343336e-02 1.863429e-02 5.327284e-02 1.232317e-02 3.580193e-02 1.121326e-01 2.861795e-01 2.490680e-01 2.873516e-02 2.523975e-01 3.635822e-01 1.887321e-03 2.571074e-03 2.647768e-03 1.566612e-03 1.635031e-03 2.130147e-03 5.512226e-03 1.622985e-02 2.299079e-02 3.632517e-03 7.315041e-03 1.117859e-02 4.384681e-04 6.537100e-04 4.973409e-04 4.218271e-04 3.040999e-04 4.647606e-04 8.239492e-04 1.950723e-03 1.101369e-03 3.373175e-04 6.357239e-04 1.004270e-03 6.434595e-04 9.241615e-04 1.127357e-03 1.002488e-01 7.771327e-02 2.079515e-01
<GCONST> -1.354737e+02
<STATE> 36
<MEAN> 42
 6.416873e-02 6.533465e-02 3.088528e-03 -6.426373e-02 2.563895e-02 3.169035e-02 -5.196901e-02 -4.448485e-02 1.783984e-03 2.059879e-02 1.472465e-01 1.614520e-01 6.706335e-04 4.205469e-04 -2.504031e-04 -5.446102e-04 4.630093e-04 8.827275e-05 -2.845454e-04 4.776870e-04 1.259877e-03 9.772056e-04 4.597052e-04 2.564578e-04 1.410636e-04 1.161348e-04 -2.487714e-05 -1.279830e-04 8.264041e-05 4.598455e-05 -1.507995e-04 -1.491928e-04 7.205854e-05 1.140968e-04 6.089587e-05 5.911575e-05 5.018906e-03 -3.329021e-03 -2.752857e-03 9.307712e-02 5.441314e-02 5.756575e-02
<VARIANCE> 42
 1.853750e-02 2.444457e-02 3.963435e-03 2.049582e-02 5.175424e-03 9.653896e-03 2.983442e-02 5.821633e-02 1.158629e-01 3.662929e-02 1.325282e-01 1.548796e-01 7.465421e-04 1.095316e-03 2.980757e-04 8.462698e-04 2.493013e-04 5.120786e-04 1.445810e-03 2.762547e-03 3.605539e-03 1.891816e-03 7.063855e-03 7.129804e-03 8.100941e-05 1.353740e-04 8.537130e-05 8.685615e-05 4.934361e-05 9.018319e-05 2.152103e-04 4.460302e-04 2.775537e-04 2.622330e-04 1.056815e-03 9.473587e-04 1.976657e-04 2.215511e-04 2.185983e-04 4.740829e-02 2.381046e-02 5.983330e-02
<GCONST> -1.825033e+02
<STATE> 37
<MEAN> 42
 1.883599e-01 1.038064e-01 -9.059816e-02 -1.491369e-01 1.401291e-01 6.548997e-04 5.467201e-02 1.009418e+00 4.467162e-01 3.284949e-01 1.730476e-01 4.584093e-01 2.295251e-02 1.713913e-02 -5.816717e-03 -2.002196e-02 1.440392e-02 5.709449e-03 -1.760791e-02 -3.612654e-02 6.347248e-03 2.148344e-02 2.245313e-02 2.237981e-02 2.477274e-03 2.663348e-03 1.846776e-04 -2.569522e-03 1.140059e-03 1.401646e-03 -4.372147e-03 -6.485449e-03 -4.521337e-03 1.034272e-04 1.686212e-03 2.482202e-03 1.215205e-02 -8.797750e-05 2.265715e-02 2.049170e-01 7.775572e-03 -3.822683e-01
<VARIANCE> 42
 4.284880e-02 2.230093e-02 2.148646e-02 2.688781e-02 2.703563e-02 1.150964e-02 2.640407e-02 1.059777e+01 1.053899e-01 4.107438e-02 8.454154e-02 7.168692e-02 3.182557e-03 1.693985e-03 1.779356e-03 1.991708e-03 2.068531e-03 9.483767e-04 2.139838e-03 6.676736e-01 4.371441e-03 2.752511e-03 4.600147e-03 4.591566e-03 1.867982e-04 1.124999e-04 1.408656e-04 1.146811e-04 1.356539e-04 8.123922e-05 1.623904e-04 2.057137e-01 3.563232e-04 9.405289e-05 2.642371e-04 2.998886e-04 6.956566e-04 4.334011e-04 4.543255e-04 1.036787e-01 1.877433e-02 1.037265e+00
<GCONST> -1.503106e+02
<STATE> 38
<MEAN> 42
 5.889772e-01 6.892350e-01 9.826241e-02 -6.376661e-01 2.462847e-01 3.925399e-01 -5.220526e-01 -3.422785e-01 1.513705e-01 8.260912e-01 1.022288e+00 9.477408e-01 -1.226536e-03 -2.807291e-03 -1.581119e-03 1.988592e-03 1.491064e-04 -2.242084e-03 -4.547865e-02 -9.908826e-02 -8.902733e-02 -3.862109e-02 -8.688679e-03 6.961555e-03 -2.025960e-02 -2.035641e-02 -8.756376e-05 2.030277e-02 -1.011558e-02 -1.025773e-02 1.264915e-02 -2.023705e-03 -1.719276e-02 -3.254596e-02 -3.696244e-02 -3.271635e-02 7.716390e-02 1.765253e-02 7.751258e-04 8.375933e-01 5.075859e-01 3.782154e-01
<VARIANCE> 42
 1.137406e-01 3.242256e-01 4.282410e-01 1.125099e-01 1.907231e-01 3.487073e-01 1.211304e-01 4.884081e-01 8.681581e-01 4.340053e-01 2.806060e-01 1.912515e-01 8.777522e-03 1.953969e-02 1.015525e-02 1.162640e-02 4.598975e-03 1.267117e-02 8.636137e-03 1.359131e-02 1.955658e-02 2.446437e-02 3.159319e-02 2.512691e-02 5.003774e-04 1.461570e-03 1.203689e-03 6.804008e-04 4.884611e-04 1.207754e-03 8.136975e-04 2.009375e-03 1.829800e-03 1.149000e-03 1.874431e-03 1.585846e-03 7.834142e-04 1.481977e-03 1.187944e-03 1.321176e-01 2.762224e-01 2.498858e-01
<GCONST> -9.658860e+01
<STATE> 39
<MEAN> 42
 -8.293301e-03 -1.222978e-02 -9.542573e-03 9.256624e-03 4.544199e-03 -1.746041e-02 -2.709362e-01 -5.584340e-01 -4.902503e-01 -3.011919e-01 -1.662055e-01 -6.690112e-02 -3.371590e-02 -2.912928e-02 4.618452e-03 3.142428e-02 -1.923571e-02 -1.231805e-02 3.428607e-02 3.676758e-02 1.226766e-02 -2.973042e-02 -4.750631e-02 -5.026836e-02 8.562725e-03 9.050000e-03 4.851040e-04 -8.812397e-03 4.058950e-03 4.790866e-03 -1.135494e-03 9.428438e-03 1.511208e-02 1.989464e-02 2.007390e-02 1.633849e-02 1.269481e-02 3.541074e-02 6.979673e-03 -9.533399e-02 3.476885e-02 3.569391e-01
<VARIANCE> 42
 6.280683e-02 6.779608e-02 1.435948e-01 2.849453e-02 8.674059e-02 8.786143e-02 1.093181e-01 2.577486e-01 2.817143e-01 1.171567e-01 7.388294e-02 5.311096e-02 3.336269e-03 3.025509e-03 3.882437e-03 2.212687e-03 2.862399e-03 2.620849e-03 1.562982e-03 6.487425e-03 1.197206e-02 1.212076e-02 1.155724e-02 8.078768e-03 2.760265e-04 2.550642e-04 2.963964e-04 1.914626e-04 2.233216e-04 2.066848e-04 2.103804e-04 6.274645e-04 8.525507e-04 9.891165e-04 1.086886e-03 7.610185e-04 9.227029e-04 1.564132e-03 1.380203e-03 4.342277e-02 7.396197e-02 1.285062e-01
<GCONST> -1.374530e+02
<STATE> 40
<MEAN> 42
 1.984265e-02 2.559037e-02 3.311660e-03 -2.112215e-02 9.371583e-03 1.041809e-02 -8.927267e-04 4.114026e-02 3.849968e-02 3.167826e-02 3.418106e-02 2.732048e-02 5.496834e-05 5.628951e-05 5.892653e-07 -5.583029e-05 2.791762e-05 2.977205e-05 3.243438e-04 6.417096e-04 5.729103e-04 3.543967e-04 1.920951e-04 9.154045e-05 -2.196907e-05 -5.163852e-06 1.657879e-05 1.358136e-05 -1.929715e-05 5.441197e-06 -2.054232e-05 -7.774912e-05 -7.657088e-05 -5.204727e-05 -3.861964e-05 -2.697244e-05 1.136601e-03 -1.273729e-03 -3.212818e-04 2.543279e-02 1.529672e-02 -1.613836e-02
<VARIANCE> 42
 4.748325e-03 7.554220e-03 2.184185e-03 5.617732e-03 1.526798e-03 3.803215e-03 3.051308e-03 1.410007e-02 1.697296e-02 1.406490e-02 1.379203e-02 1.215812e-02 8.610090e-05 7.897601e-05 6.956628e-05 6.528487e-05 5.852829e-05 5.295266e-05 4.142973e-05 7.374013e-05 6.034421e-05 4.775476e-05 5.847856e-05 4.109260e-05 2.818944e-05 2.444691e-05 2.348734e-05 2.050973e-05 1.988197e-05 1.700093e-05 8.758318e-06 2.601508e-05 1.012507e-05 1.211414e-05 1.144863e-05 7.727863e-06 3.437783e-05 9.195128e-05 1.451260e-04 8.477258e-03 3.613567e-03 3.658274e-03
<GCONST> -2.771672e+02
<STATE> 41
<MEAN> 42
 -6.922890e-02 -7.499987e-02 -1.090643e-02 7.069520e-02 -2.571441e-02 -4.855432e-02 1.394755e-01 1.312038e-01 7.595204e-02 -7.853171e-03 -5.034305e-02 -7.943904e-02 -3.095522e-03 -1.337646e-03 1.769901e-03 2.209097e-03 -2.461710e-03 1.943838e-04 2.677789e-02 4.315086e-02 3.285952e-02 1.711289e-02 5.536193e-03 -7.207859e-04 3.872561e-03 3.304652e-03 -5.587449e-04 -3.579431e-03 2.206777e-03 1.428468e-03 6.261870e-04 6.067354e-03 7.385137e-03 7.556803e-03 6.189918e-03 4.628413e-03 -8.954637e-03 -5.491530e-03 -2.314841e-04 -6.373976e-02 -5.910803e-02 -1.113238e-01
<VARIANCE> 42
 5.064834e-03 9.257438e-03 1.182125e-02 3.488530e-03 5.907727e-03 1.022417e-02 1.075524e-02 8.442128e-02 1.371423e-02 9.064901e-03 7.790050e-03 4.133539e-03 3.788869e-04 5.161813e-04 4.933869e-04 3.241022e-04 3.106143e-04 4.130106e-04 5.349515e-04 6.569094e-04 6.121088e-04 6.050229e-04 4.789372e-04 3.494292e-04 1.002700e-04 1.223510e-04 1.042675e-04 8.488191e-05 7.270669e-05 8.876999e-05 9.153506e-05 1.489553e-04 7.485044e-05 9.301156e-05 8.577367e-05 7.085122e-05 4.275530e-05 2.136478e-04 2.644573e-04 5.375527e-03 7.117495e-03 1.364512e-02
<GCONST> -2.238106e+02
<STATE> 42
<MEAN> 42
 3.611869e-02 5.592310e-02 1.564524e-02 -4.583248e-02 1.283287e-02 3.152129e-02 1.750604e-01 3.087554e-01 2.961178e-01 2.210694e-01 1.427504e-01 7.700110e-02 4.362935e-02 3.985143e-02 -3.783230e-03 -4.171421e-02 2.374234e-02 1.818929e-02 -6.971170e-03 3.977477e-02 5.611895e-02 7.000592e-02 6.687967e-02 5.646053e-02 1.213318e-02 9.696834e-03 -2.463023e-03 -1.091982e-02 7.317123e-03 3.520973e-03 -1.214237e-02 -6.944337e-03 1.923352e-03 1.086297e-02 1.512580e-02 1.492263e-02 -1.809855e-03 -1.179009e-02 1.314946e-02 8.836593e-02 1.881385e-02 -1.999090e-01
<VARIANCE> 42
 8.172063e-03 1.014771e-02 8.301590e-03 6.656981e-03 5.829182e-03 8.310824e-03 1.786832e-02 1.266350e-01 3.421101e-02 2.336796e-02 1.964610e-02 1.555090e-02 6.254141e-04 7.210623e-04 9.912044e-04 4.256949e-04 6.286700e-04 6.923298e-04 9.271434e-04 1.589495e-03 1.473115e-03 1.128422e-03 8.928088e-04 7.855843e-04 8.757800e-05 8.661778e-05 1.072237e-04 6.026581e-05 7.550018e-05 7.312065e-05 1.503244e-04 4.239006e-04 2.558695e-04 1.902827e-04 1.280523e-04 9.269349e-05 1.356337e-04 7.584545e-04 8.958206e-04 1.350399e-02 6.640805e-03 2.302573e-02
<GCONST> -2.025273e+02
<STATE> 43
<MEAN> 42
 3.875232e-01 4.218560e-01 3.105801e-02 -4.044001e-01 1.807979e-01 2.224258e-01 -4.067008e-01 -3.475201e-01 -6.061143e-02 4.312408e-01 5.844901e-01 5.549434e-01 -8.569880e-03 -7.485114e-03 1.090044e-03 8.036915e-03 -4.856877e-03 -3.237091e-03 -2.474831e-02 -5.733009e-02 -5.329034e-02 -3.669287e-02 -2.424492e-02 -1.387358e-02 -4.967054e-03 -5.163795e-03 -1.898137e-04 5.067464e-03 -2.396380e-03 -2.674432e-03 3.358231e-03 1.190272e-03 -1.771462e-03 -5.878412e-03 -7.014086e-03 -6.781398e-03 5.395840e-02 1.633538e-02 2.462329e-03 4.914777e-01 3.171782e-01 3.322438e-01
<VARIANCE> 42
 1.449753e-01 3.093855e-01 3.373689e-01 1.419786e-01 1.642303e-01 2.886256e-01 1.522277e-01 4.913129e-01 7.812998e-01 5.770140e-01 4.693944e-01 3.146848e-01 8.533343e-03 1.415738e-02 8.223021e-03 9.296534e-03 4.859626e-03 9.065383e-03 7.963027e-03 1.401115e-02 1.953759e-02 2.344446e-02 2.911116e-02 2.180702e-02 6.808394e-04 1.211410e-03 8.558747e-04 7.323886e-04 4.678953e-04 8.645688e-04 7.291381e-04 1.683928e-03 1.890717e-03 2.117329e-03 2.844190e-03 1.972332e-03 1.404964e-03 1.990754e-03 1.487130e-03 2.570826e-01 2.425904e-01 2.406992e-01
<GCONST> -9.462319e+01
<STATE> 44
<MEAN> 42
 -1.080482e-01 -8.154848e-02 1.919223e-02 9.226549e-02 -5.937148e-02 -3.897870e-02 -1.121254e-01 -3.875579e-01 -3.064318e-01 -2.931414e-01 -2.329665e-01 -1.619436e-01 -7.129318e-03 -9.417442e-03 -2.288555e-03 8.290568e-03 -2.431896e-03 -5.871443e-03 3.160540e-02 6.072746e-02 5.205322e-02 2.584336e-02 9.745276e-03 -5.324441e-03 6.485615e-03 8.542356e-03 2.046044e-03 -7.514234e-03 2.264985e-03 5.308377e-03 -1.165645e-03 1.713154e-03 6.481979e-03 1.173585e-02 1.261413e-02 1.186851e-02 -1.445854e-03 3.291173e-02 1.027895e-02 -1.602708e-01 -2.522844e-02 1.986724e-01
<VARIANCE> 42
 2.908947e-02 3.081912e-02 5.024507e-02 1.603274e-02 3.069841e-02 3.341609e-02 1.483334e-01 2.524088e-01 2.898857e-01 7.308301e-02 2.734588e-02 1.600006e-02 8.146896e-04 1.332438e-03 2.055666e-03 5.599932e-04 1.104061e-03 1.500696e-03 1.343714e-03 3.965608e-03 5.617247e-03 3.030761e-03 1.808774e-03 1.214512e-03 1.000449e-04 1.418236e-04 1.721357e-04 7.773109e-05 1.007789e-04 1.319913e-04 1.810417e-04 3.126725e-04 4.804444e-04 4.692162e-04 3.227341e-04 1.933772e-04 5.481561e-04 1.084162e-03 1.243669e-03 1.929650e-02 2.753704e-02 1.292948e-01
<GCONST> -1.691056e+02
<STATE> 45
<MEAN> 42
 -9.806919e-02 -7.144326e-02 2.127899e-02 8.372493e-02 -5.690411e-02 -3.391162e-02 -7.345776e-02 -2.553570e-01 -2.375837e-01 -1.584448e-01 -9.933329e-02 -9.691581e-02 7.414905e-03 2.517740e-03 -4.886384e-03 -4.976296e-03 6.243076e-03 -1.243601e-03 1.847820e-02 4.841499e-02 4.340211e-02 2.539356e-02 1.742300e-02 1.026542e-02 1.728281e-03 2.806186e-03 1.095346e-03 -2.269749e-03 3.137927e-04 1.949098e-03 -1.135502e-03 -2.941241e-03 -1.806285e-03 -2.771870e-04 1.042879e-03 1.902842e-03 -4.306067e-03 1.863203e-02 1.481807e-03 -9.118144e-02 -2.049887e-02 1.390351e-01
<VARIANCE> 42
 9.274794e-03 1.564158e-02 1.710757e-02 7.352660e-03 9.559127e-03 1.478508e-02 3.867456e-02 1.358829e-01 2.712856e-02 1.087183e-02 6.575082e-03 4.008430e-03 5.052451e-04 4.257846e-04 5.849354e-04 3.196030e-04 4.422581e-04 3.813888e-04 1.089701e-03 1.957834e-03 1.892385e-03 8.995281e-04 5.112152e-04 2.779158e-04 1.011980e-04 1.063486e-04 1.025756e-04 7.815784e-05 7.651135e-05 7.925944e-05 6.109165e-05 1.436870e-04 1.702929e-04 1.085656e-04 9.450629e-05 5.271777e-05 9.668068e-05 6.287460e-04 7.387721e-04 5.475550e-03 1.163828e-02 3.090479e-02
<GCONST> -2.103104e+02
<STATE> 46
<MEAN> 42
 -2.584928e-02 -3.358218e-02 -1.026883e-02 3.170404e-02 -7.815336e-03 -2.505606e-02 -3.442819e-02 -1.841167e-01 -7.264073e-02 -5.252554e-02 -5.480588e-02 -5.394242e-02 2.441903e-03 5.637124e-03 3.171202e-03 -4.033479e-03 -3.497172e-04 4.413223e-03 1.865503e-02 3.249605e-02 2.831547e-02 1.712255e-02 1.002281e-02 6.572292e-03 -1.342146e-03 -1.445014e-03 -1.227902e-04 1.393063e-03 -6.447881e-04 -7.907526e-04 -2.683154e-03 -4.747800e-03 -6.324613e-03 -3.542727e-03 -2.874849e-03 -1.939860e-03 -2.069379e-03 6.460727e-03 -1.593639e-03 -2.870922e-02 -1.836462e-02 7.330501e-02
<VARIANCE> 42
 1.927170e-03 2.618384e-03 2.681732e-03 1.392557e-03 1.692909e-03 2.512748e-03 8.528009e-03 3.059068e-01 1.209041e-02 1.438924e-02 4.615026e-03 2.756225e-03 2.202836e-04 2.438497e-04 3.284811e-04 1.500997e-04 2.104541e-04 2.326081e-04 5.096583e-04 1.082608e-03 5.138142e-04 3.442962e-04 3.643465e-04 1.838093e-04 4.746870e-05 4.237791e-05 7.856906e-05 2.541754e-05 5.155729e-05 4.939400e-05 4.036830e-05 3.089688e-04 7.695105e-05 9.878202e-05 1.249779e-04 7.551512e-05 3.096934e-05 9.611030e-05 2.238080e-04 8.009223e-03 2.063628e-03 2.694914e-02
<GCONST> -2.405027e+02
<STATE> 47
<MEAN> 42
 -2.106617e-02 -2.529234e-02 -4.701214e-03 2.576715e-02 -7.972712e-03 -1.854342e-02 2.391088e-02 2.908959e-02 4.002746e-03 -1.950482e-02 -3.287735e-02 -3.870386e-02 9.149460e-04 6.624903e-04 -2.567911e-04 -7.914947e-04 5.918603e-04 2.099276e-04 5.864654e-04 2.462789e-03 2.388134e-03 1.649237e-03 1.241191e-03 7.910315e-04 9.939780e-05 1.419685e-05 -8.440469e-05 -5.750904e-05 9.290315e-05 -3.295495e-05 -2.624904e-04 -3.683943e-04 -3.499388e-04 -1.943865e-04 -1.134601e-04 -5.582196e-05 -3.159690e-03 -9.265040e-04 -2.213050e-03 -2.868219e-02 -2.004299e-02 -2.328078e-02
<VARIANCE> 42
 1.048431e-03 1.042838e-03 1.263828e-03 6.497335e-04 8.728556e-04 8.627725e-04 1.367632e-03 8.540202e-03 4.193722e-03 1.775276e-03 1.387026e-03 1.074128e-03 5.380685e-05 4.892010e-05 5.891321e-05 3.670195e-05 4.457466e-05 4.040588e-05 3.218133e-05 7.374013e-05 4.000077e-05 4.065752e-05 4.335625e-05 2.324901e-05 2.112161e-05 1.989471e-05 2.272351e-05 1.486110e-05 1.710024e-05 1.601219e-05 8.335266e-06 2.601508e-05 1.284865e-05 1.310091e-05 1.467802e-05 8.528808e-06 5.710027e-06 3.238635e-05 9.751612e-05 6.297565e-04 8.295303e-04 1.763707e-03
<GCONST> -3.073109e+02
<STATE> 48
<MEAN> 42
 8.608507e-02 5.572770e-02 -4.169280e-02 -7.413767e-02 7.041676e-02 -2.427805e-03 -4.773318e-02 1.343479e-01 8.010010e-02 6.454740e-02 1.047800e-01 7.267153e-02 1.568109e-03 1.922419e-03 3.617738e-04 -1.743755e-03 5.974630e-04 1.149812e-03 -5.690834e-04 1.121981e-03 1.239510e-03 1.603317e-03 1.536686e-03 1.649351e-03 -1.011688e-04 -1.428132e-05 8.612248e-05 5.716903e-05 -9.669693e-05 3.538026e-05 7.089289e-05 -9.800259e-05 8.051360e-06 1.141594e-05 -2.950018e-05 -4.377868e-05 5.938886e-03 -1.073431e-02 -6.651558e-03 7.496372e-02 2.248947e-02 -3.329859e-02
<VARIANCE> 42
 1.022327e-02 7.914766e-03 3.355610e-03 6.907176e-03 3.852582e-03 5.684863e-03 1.310525e-02 3.559486e-02 1.193881e-02 6.732766e-03 8.688005e-03 1.231695e-02 4.022277e-05 4.003808e-05 2.302160e-05 3.420011e-05 2.169554e-05 2.148986e-05 2.031198e-05 7.374013e-05 2.204037e-05 4.065752e-05 8.476056e-05 2.522623e-05 7.267704e-06 1.124563e-05 7.220188e-06 7.351933e-06 4.379803e-06 7.471158e-06 1.660418e-06 2.601508e-05 1.814325e-06 1.211414e-05 1.226772e-05 2.083054e-06 1.151746e-04 1.675378e-04 2.961669e-04 7.433095e-03 4.235860e-03 1.066646e-02
<GCONST> -2.883059e+02
<STATE> 49
<MEAN> 42
 3.466456e-02 3.781283e-02 2.357951e-03 -3.544977e-02 2.033568e-02 1.213885e-02 2.613359e-02 1.436440e-01 1.109292e-01 8.441846e-02 7.096153e-02 3.989805e-02 3.510044e-04 6.284278e-04 2.753239e-04 -4.869541e-04 5.100147e-05 4.423963e-04 2.957589e-05 1.859047e-03 2.460746e-03 2.203686e-03 1.965646e-03 1.770332e-03 -9.345083e-05 -2.042691e-04 -1.138579e-04 1.535563e-04 1.061743e-05 -1.636542e-04 -1.498295e-04 -2.738322e-04 -8.933898e-05 -1.685511e-04 -7.987802e-05 -7.613492e-05 8.462890e-04 -5.938085e-03 1.132530e-04 4.763899e-02 1.564043e-02 -7.028971e-02
<VARIANCE> 42
 3.578337e-03 1.882883e-03 1.692548e-03 2.004462e-03 1.968143e-03 1.287969e-03 3.248692e-03 2.790064e-02 9.362552e-03 3.359573e-03 2.914728e-03 1.753092e-03 1.403236e-04 9.699941e-05 8.631211e-05 9.699290e-05 8.951723e-05 5.699986e-05 2.545501e-05 7.374013e-05 3.326252e-05 4.065752e-05 3.147892e-05 2.878974e-05 5.138331e-05 3.528634e-05 3.717046e-05 3.405391e-05 3.572578e-05 2.358153e-05 7.105756e-06 2.601508e-05 7.495027e-06 1.211414e-05 8.712846e-06 8.166950e-06 2.899671e-05 8.730797e-05 2.879286e-04 1.183847e-03 1.182772e-03 4.905314e-03
<GCONST> -2.863511e+02
<STATE> 50
<MEAN> 42
 5.663570e-02 4.262429e-02 -1.593034e-02 -4.934517e-02 3.764288e-02 9.098530e-03 7.112321e-04 -1.167799e+00 1.699059e-01 4.049321e-01 1.702097e-02 1.393589e-01 4.250871e-04 6.540584e-04 2.124973e-04 -5.394036e-04 9.624520e-05 4.192418e-04 -1.454824e-03 8.810094e-03 2.763985e-04 2.589003e-03 -1.806419e-03 3.202267e-03 6.156976e-05 4.916621e-04 4.328093e-04 -2.899492e-04 -1.958066e-04 4.532082e-04 2.132695e-04 4.746670e-04 3.691273e-04 -2.223186e-03 5.976856e-04 2.756667e-04 -7.612095e-03 1.454576e-04 4.674989e-03 2.400751e-01 2.764890e-02 3.161285e-01
<VARIANCE> 42
 3.226086e-03 1.559003e-03 2.529817e-03 1.668677e-03 2.237700e-03 1.502412e-03 1.795866e-03 1.784881e+00 1.068476e-02 9.415933e-02 1.656632e-02 1.348235e-02 3.717487e-04 9.778015e-05 2.723118e-04 1.664299e-04 3.029682e-04 9.009624e-05 4.827248e-05 1.542658e-03 7.511728e-05 5.376689e-03 1.012818e-04 1.274706e-04 1.229318e-04 2.961725e-05 1.102153e-04 4.886617e-05 1.107048e-04 3.875048e-05 1.693241e-05 4.748290e-04 2.140282e-05 2.095707e-03 2.181677e-05 2.486765e-05 9.775255e-05 1.187369e-04 8.386209e-05 2.453431e-02 6.039201e-04 1.642724e-01
<GCONST> -2.370104e+02
<STATE> 51
<MEAN> 42
 1.541268e-01 2.128432e-01 5.293830e-02 -1.834051e-01 5.315017e-02 1.289214e-01 -2.227159e-02 2.566489e-01 3.087671e-01 2.908809e-01 2.901205e-01 2.369155e-01 -1.700403e-04 5.758484e-06 1.783136e-04 8.060859e-05 -1.828857e-04 8.990907e-05 -7.937722e-04 -2.751030e-03 -1.930968e-03 -1.296411e-03 -5.872817e-04 -2.711575e-04 -3.124751e-04 -3.469774e-04 -3.581352e-05 3.321316e-04 -1.380368e-04 -1.930611e-04 4.717014e-05 -2.194662e-04 -2.507158e-04 -2.758372e-04 -2.774087e-04 -2.452003e-04 1.071989e-02 -7.401925e-03 -3.607721e-03 2.269174e-01 1.317974e-01 -1.020989e-01
<VARIANCE> 42
 9.835297e-03 1.601015e-02 8.116603e-03 1.011740e-02 3.900337e-03 1.049356e-02 1.139676e-02 4.942358e-02 5.701936e-02 4.978954e-02 4.200362e-02 3.878144e-02 1.435223e-04 1.437550e-04 8.317148e-05 1.230306e-04 7.791939e-05 7.821056e-05 4.916444e-05 1.178263e-04 1.413571e-04 2.183104e-04 1.732056e-04 1.579011e-04 3.456386e-05 2.208080e-05 2.296992e-05 2.264747e-05 2.353778e-05 1.404959e-05 7.927691e-06 2.601508e-05 6.542857e-06 1.211414e-05 7.034326e-06 7.128250e-06 1.524582e-04 4.440166e-04 3.897933e-04 2.603264e-02 9.387477e-03 1.718177e-02
<GCONST> -2.497428e+02
<STATE> 52
<MEAN> 42
 1.025706e-02 1.534935e-02 1.825447e-03 -1.014552e-02 4.397456e-03 5.631655e-03 -6.470265e-03 4.168465e-03 9.062852e-03 9.815485e-03 1.427375e-02 9.272533e-03 -2.388668e-04 -2.736763e-04 -3.476381e-05 2.557818e-04 -1.036093e-04 -1.541745e-04 8.715912e-05 -2.984423e-04 -3.829680e-04 -4.248671e-04 -3.715771e-04 -3.495779e-04 3.759795e-05 4.381243e-05 6.747484e-06 -4.110860e-05 1.590287e-05 2.569893e-05 2.263020e-06 5.336184e-05 4.755739e-05 5.040321e-05 3.147633e-05 3.240830e-05 6.699216e-04 -1.372478e-06 1.087339e-03 1.083437e-02 1.069220e-02 9.194046e-04
<VARIANCE> 42
 1.063584e-03 1.395243e-03 8.162799e-04 1.120530e-03 5.715946e-04 8.802018e-04 1.042383e-03 1.868359e-03 1.862222e-03 1.249431e-03 1.419640e-03 1.088021e-03 8.240666e-05 6.075369e-05 5.655762e-05 5.745916e-05 5.440876e-05 3.826925e-05 2.314694e-05 7.374013e-05 2.184442e-05 4.065752e-05 2.586198e-05 1.875250e-05 2.988677e-05 2.110319e-05 2.110860e-05 2.020315e-05 2.028609e-05 1.371911e-05 6.355136e-06 2.601508e-05 6.257657e-06 1.211414e-05 7.039363e-06 5.500852e-06 4.555633e-06 1.494209e-05 6.837375e-05 7.705024e-04 8.148278e-04 6.005834e-04
<GCONST> -3.145244e+02
<STATE> 53
<MEAN> 42
 -5.961623e-03 1.009423e-02 8.458119e-03 -5.849511e-03 -7.342091e-03 1.619265e-03 -7.215384e-02 -3.406450e-01 -2.122430e-01 -5.396234e-01 -5.198167e-02 -1.783895e-01 -1.112166e-03 -8.420247e-05 1.027538e-03 5.905736e-04 -1.052869e-03 4.784322e-04 1.192133e-03 1.414683e-02 -1.358173e-03 3.395576e-03 2.561682e-03 -4.661595e-03 -2.462199e-04 1.269747e-04 3.692271e-04 5.394715e-05 -2.931362e-04 2.455919e-04 8.595606e-04 8.630902e-04 5.949497e-04 1.859518e-03 -1.287696e-05 -1.799719e-04 -1.383870e-03 -6.947151e-03 -8.532248e-03 -1.609901e-01 3.634197e-02 1.871040e-01
<VARIANCE> 42
 2.291937e-03 1.787035e-03 1.678597e-03 1.618696e-03 1.472864e-03 9.462035e-04 2.866503e-03 3.915219e-01 4.691532e-02 1.883094e+01 2.861979e-02 6.483964e-02 1.463633e-04 3.078031e-05 1.460420e-04 5.210609e-05 1.450758e-04 5.154716e-05 5.941359e-05 1.426765e-04 9.447072e-05 3.832201e+00 4.764369e-05 6.036345e-05 4.631387e-05 1.164025e-05 4.608446e-05 1.750449e-05 4.534212e-05 1.715853e-05 1.290639e-05 2.798045e-05 1.837841e-05 1.444559e+00 1.363262e-05 1.184848e-05 3.637631e-05 3.626594e-03 1.519204e-04 1.028611e+00 1.122097e-02 9.767934e-02
<GCONST> -2.270190e+02
<STATE> 54
<MEAN> 42
 5.024927e-02 4.496193e-02 -1.178628e-02 -4.804743e-02 3.054021e-02 1.141841e-02 -2.126881e-02 3.367208e-02 4.815012e-02 6.269741e-02 6.141134e-02 7.417651e-02 1.642604e-04 1.866770e-04 2.295562e-05 -1.748630e-04 7.176802e-05 1.061518e-04 -8.756139e-05 -1.245812e-04 3.930325e-05 -1.218118e-04 2.472959e-05 2.760834e-04 -6.069766e-06 2.068749e-06 8.209315e-06 2.275923e-06 -7.570219e-06 5.729857e-06 -4.649742e-05 -6.178766e-05 -5.957630e-05 -5.038270e-05 -1.131727e-05 -2.244291e-06 3.211481e-03 1.271073e-03 3.206886e-03 5.798082e-02 2.621762e-02 -4.282334e-03
<VARIANCE> 42
 2.689008e-02 2.322101e-02 2.052878e-02 1.990725e-02 1.800853e-02 1.527746e-02 2.550695e-02 3.000772e+00 1.003591e-01 2.027078e-01 6.600855e-02 6.003304e-02 9.776438e-04 5.862372e-04 7.367838e-04 5.979764e-04 7.145055e-04 4.181924e-04 5.236509e-04 2.355117e-01 1.656431e-03 2.611019e-03 1.835245e-03 1.450535e-03 1.225628e-04 6.416532e-05 1.170161e-04 6.414312e-05 1.042081e-04 6.004805e-05 5.086047e-05 9.105927e-02 1.260481e-04 3.211860e-04 1.641610e-04 1.291687e-04 3.504959e-04 2.404688e-04 2.776862e-04 6.004725e-02 1.638124e-02 3.152368e-01
<GCONST> -1.721924e+02
<TRANSP> 55
 0.000000e+00 1.000000e+00 0.000000e+00 0.000000e+00 0.000000e+00 0.000000e+00 0.000000e+00 0.000000e+00 0.000000e+00 0.000000e+00 0.000000e+00 0.000000e+00 0.000000e+00 0.000000e+00 0.000000e+00 0.000000e+00 0.000000e+00 0.000000e+00 0.000000e+00 0.000000e+00 0.000000e+00 0.000000e+00 0.000000e+00 0.000000e+00 0.000000e+00 0.000000e+00 0.000000e+00 0.000000e+00 0.000000e+00 0.000000e+00 0.000000e+00 0.000000e+00 0.000000e+00 0.000000e+00 0.000000e+00 0.000000e+00 0.000000e+00 0.000000e+00 0.000000e+00 0.000000e+00 0.000000e+00 0.000000e+00 0.000000e+00 0.000000e+00 0.000000e+00 0.000000e+00 0.000000e+00 0.000000e+00 0.000000e+00 0.000000e+00 0.000000e+00 0.000000e+00 0.000000e+00 0.000000e+00 0.000000e+00
 0.000000e+00 9.920353e-01 7.964708e-03 0.000000e+00 0.000000e+00 0.000000e+00 0.000000e+00 0.000000e+00 0.000000e+00 0.000000e+00 0.000000e+00 0.000000e+00 0.000000e+00 0.000000e+00 0.000000e+00 0.000000e+00 0.000000e+00 0.000000e+00 0.000000e+00 0.000000e+00 0.000000e+00 0.000000e+00 0.000000e+00 0.000000e+00 0.000000e+00 0.000000e+00 0.000000e+00 0.000000e+00 0.000000e+00 0.000000e+00 0.000000e+00 0.000000e+00 0.000000e+00 0.000000e+00 0.000000e+00 0.000000e+00 0.000000e+00 0.000000e+00 0.000000e+00 0.000000e+00 0.000000e+00 0.000000e+00 0.000000e+00 0.000000e+00 0.000000e+00 0.000000e+00 0.000000e+00 0.000000e+00 0.000000e+00 0.000000e+00 0.000000e+00 0.000000e+00 0.000000e+00 0.000000e+00 0.000000e+00
 0.000000e+00 0.000000e+00 9.849642e-01 1.503581e-02 0.000000e+00 0.000000e+00 0.000000e+00 0.000000e+00 0.000000e+00 0.000000e+00 0.000000e+00 0.000000e+00 0.000000e+00 0.000000e+00 0.000000e+00 0.000000e+00 0.000000e+00 0.000000e+00 0.000000e+00 0.000000e+00 0.000000e+00 0.000000e+00 0.000000e+00 0.000000e+00 0.000000e+00 0.000000e+00 0.000000e+00 0.000000e+00 0.000000e+00 0.000000e+00 0.000000e+00 0.000000e+00 0.000000e+00 0.000000e+00 0.000000e+00 0.000000e+00 0.000000e+00 0.000000e+00 0.000000e+00 0.000000e+00 0.000000e+00 0.000000e+00 0.000000e+00 0.000000e+00 0.000000e+00 0.000000e+00 0.000000e+00 0.000000e+00 0.000000e+00 0.000000e+00 0.000000e+00 0.000000e+00 0.000000e+00 0.000000e+00 0.000000e+00
 0.000000e+00 0.000000e+00 0.000000e+00 9.981701e-01 1.829853e-03 0.000000e+00 0.000000e+00 0.000000e+00 0.000000e+00 0.000000e+00 0.000000e+00 0.000000e+00 0.000000e+00 0.000000e+00 0.000000e+00 0.000000e+00 0.000000e+00 0.000000e+00 0.000000e+00 0.000000e+00 0.000000e+00 0.000000e+00 0.000000e+00 0.000000e+00 0.000000e+00 0.000000e+00 0.000000e+00 0.000000e+00 0.000000e+00 0.000000e+00 0.000000e+00 0.000000e+00 0.000000e+00 0.000000e+00 0.000000e+00 0.000000e+00 0.000000e+00 0.000000e+00 0.000000e+00 0.000000e+00 0.000000e+00 0.000000e+00 0.000000e+00 0.000000e+00 0.000000e+00 0.000000e+00 0.000000e+00 0.000000e+00 0.000000e+00 0.000000e+00 0.000000e+00 0.000000e+00 0.000000e+00 0.000000e+00 0.000000e+00
 0.000000e+00 0.000000e+00 0.000000e+00 0.000000e+00 9.913815e-01 8.618528e-03 0.000000e+00 0.000000e+00 0.000000e+00 0.000000e+00 0.000000e+00 0.000000e+00 0.000000e+00 0.000000e+00 0.000000e+00 0.000000e+00 0.000000e+00 0.000000e+00 0.000000e+00 0.000000e+00 0.000000e+00 0.000000e+00 0.000000e+00 0.000000e+00 0.000000e+00 0.000000e+00 0.000000e+00 0.000000e+00 0.000000e+00 0.000000e+00 0.000000e+00 0.000000e+00 0.000000e+00 0.000000e+00 0.000000e+00 0.000000e+00 0.000000e+00 0.000000e+00 0.000000e+00 0.000000e+00 0.000000e+00 0.000000e+00 0.000000e+00 0.000000e+00 0.000000e+00 0.000000e+00 0.000000e+00 0.000000e+00 0.000000e+00 0.000000e+00 0.000000e+00 0.000000e+00 0.000000e+00 0.000000e+00 0.000000e+00
 0.000000e+00 0.000000e+00 0.000000e+00 0.000000e+00 0.000000e+00 9.782239e-01 2.177618e-02 0.000000e+00 0.000000e+00 0.000000e+00 0.000000e+00 0.000000e+00 0.000000e+00 0.000000e+00 0.000000e+00 0.000000e+00 0.000000e+00 0.000000e+00 0.000000e+00 0.000000e+00 0.000000e+00 0.000000e+00 0.000000e+00 0.000000e+00 0.000000e+00 0.000000e+00 0.000000e+00 0.000000e+00 0.000000e+00 0.000000e+00 0.000000e+00 0.000000e+00 0.000000e+00 0.000000e+00 0.000000e+00 0.000000e+00 0.000000e+00 0.000000e+00 0.000000e+00 0.000000e+00 0.000000e+00 0.000000e+00 0.000000e+00 0.000000e+00 0.000000e+00 0.000000e+00 0.000000e+00 0.000000e+00 0.000000e+00 0.000000e+00 0.000000e+00 0.000000e+00 0.000000e+00 0.000000e+00 0.000000e+00
 0.000000e+00 0.000000e+00 0.000000e+00 0.000000e+00 0.000000e+00 0.000000e+00 9.846715e-01 1.532852e-02 0.000000e+00 0.000000e+00 0.000000e+00 0.000000e+00 0.000000e+00 0.000000e+00 0.000000e+00 0.000000e+00 0.000000e+00 0.000000e+00 0.000000e+00 0.000000e+00 0.000000e+00 0.000000e+00 0.000000e+00 0.000000e+00 0.000000e+00 0.000000e+00 0.000000e+00 0.000000e+00 0.000000e+00 0.000000e+00 0.000000e+00 0.000000e+00 0.000000e+00 0.000000e+00 0.000000e+00 0.000000e+00 0.000000e+00 0.000000e+00 0.000000e+00 0.000000e+00 0.000000e+00 0.000000e+00 0.000000e+00 0.000000e+00 0.000000e+00 0.000000e+00 0.000000e+00 0.000000e+00 0.000000e+00 0.000000e+00 0.000000e+00 0.000000e+00 0.000000e+00 0.000000e+00 0.000000e+00
 0.000000e+00 0.000000e+00 0.000000e+00 0.000000e+00 0.000000e+00 0.000000e+00 0.000000e+00 9.879860e-01 1.201405e-02 0.000000e+00 0.000000e+00 0.000000e+00 0.000000e+00 0.000000e+00 0.000000e+00 0.000000e+00 0.000000e+00 0.000000e+00 0.000000e+00 0.000000e+00 0.000000e+00 0.000000e+00 0.000000e+00 0.000000e+00 0.000000e+00 0.000000e+00 0.000000e+00 0.000000e+00 0.000000e+00 0.000000e+00 0.000000e+00 0.000000e+00 0.000000e+00 0.000000e+00 0.000000e+00 0.000000e+00 0.000000e+00 0.000000e+00 0.000000e+00 0.000000e+00 0.000000e+00 0.000000e+00 0.000000e+00 0.000000e+00 0.000000e+00 0.000000e+00 0.000000e+00 0.000000e+00 0.000000e+00 0.000000e+00 0.000000e+00 0.000000e+00 0.000000e+00 0.000000e+00 0.000000e+00
 0.000000e+00 0.000000e+00 0.000000e+00 0.000000e+00 0.000000e+00 0.000000e+00 0.000000e+00 0.000000e+00 9.956399e-01 4.360094e-03 0.000000e+00 0.000000e+00 0.000000e+00 0.000000e+00 0.000000e+00 0.000000e+00 0.000000e+00 0.000000e+00 0.000000e+00 0.000000e+00 0.000000e+00 0.000000e+00 0.000000e+00 0.000000e+00 0.000000e+00 0.000000e+00 0.000000e+00 0.000000e+00 0.000000e+00 0.000000e+00 0.000000e+00 0.000000e+00 0.000000e+00 0.000000e+00 0.000000e+00 0.000000e+00 0.000000e+00 0.000000e+00 0.000000e+00 0.000000e+00 0.000000e+00 0.000000e+00 0.000000e+00 0.000000e+00 0.000000e+00 0.000000e+00 0.000000e+00 0.000000e+00 0.000000e+00 0.000000e+00 0.000000e+00 0.000000e+00 0.000000e+00 0.000000e+00 0.000000e+00
 0.000000e+00 0.000000e+00 0.000000e+00 0.000000e+00 0.000000e+00 0.000000e+00 0.000000e+00 0.000000e+00 0.000000e+00 9.816388e-01 1.836119e-02 0.000000e+00 0.000000e+00 0.000000e+00 0.000000e+00 0.000000e+00 0.000000e+00 0.000000e+00 0.000000e+00 0.000000e+00 0.000000e+00 0.000000e+00 0.000000e+00 0.000000e+00 0.000000e+00 0.000000e+00 0.000000e+00 0.000000e+00 0.000000e+00 0.000000e+00 0.000000e+00 0.000000e+00 0.000000e+00 0.000000e+00 0.000000e+00 0.000000e+00 0.000000e+00 0.000000e+00 0.000000e+00 0.000000e+00 0.000000e+00 0.000000e+00 0.000000e+00 0.000000e+00 0.000000e+00 0.000000e+00 0.000000e+00 0.000000e+00 0.000000e+00 0.000000e+00 0.000000e+00 0.000000e+00 0.000000e+00 0.000000e+00 0.000000e+00
 0.000000e+00 0.000000e+00 0.000000e+00 0.000000e+00 0.000000e+00 0.000000e+00 0.000000e+00 0.000000e+00 0.000000e+00 0.000000e+00 7.618394e-01 2.381606e-01 0.000000e+00 0.000000e+00 0.000000e+00 0.000000e+00 0.000000e+00 0.000000e+00 0.000000e+00 0.000000e+00 0.000000e+00 0.000000e+00 0.000000e+00 0.000000e+00 0.000000e+00 0.000000e+00 0.000000e+00 0.000000e+00 0.000000e+00 0.000000e+00 0.000000e+00 0.000000e+00 0.000000e+00 0.000000e+00 0.000000e+00 0.000000e+00 0.000000e+00 0.000000e+00 0.000000e+00 0.000000e+00 0.000000e+00 0.000000e+00 0.000000e+00 0.000000e+00 0.000000e+00 0.000000e+00 0.000000e+00 0.000000e+00 0.000000e+00 0.000000e+00 0.000000e+00 0.000000e+00 0.000000e+00 0.000000e+00 0.000000e+00
 0.000000e+00 0.000000e+00 0.000000e+00 0.000000e+00 0.000000e+00 0.000000e+00 0.000000e+00 0.000000e+00 0.000000e+00 0.000000e+00 0.000000e+00 6.310616e-01 3.689384e-01 0.000000e+00 0.000000e+00 0.000000e+00 0.000000e+00 0.000000e+00 0.000000e+00 0.000000e+00 0.000000e+00 0.000000e+00 0.000000e+00 0.000000e+00 0.000000e+00 0.000000e+00 0.000000e+00 0.000000e+00 0.000000e+00 0.000000e+00 0.000000e+00 0.000000e+00 0.000000e+00 0.000000e+00 0.000000e+00 0.000000e+00 0.000000e+00 0.000000e+00 0.000000e+00 0.000000e+00 0.000000e+00 0.000000e+00 0.000000e+00 0.000000e+00 0.000000e+00 0.000000e+00 0.000000e+00 0.000000e+00 0.000000e+00 0.000000e+00 0.000000e+00 0.000000e+00 0.000000e+00 0.000000e+00 0.000000e+00
 0.000000e+00 0.000000e+00 0.000000e+00 0.000000e+00 0.000000e+00 0.000000e+00 0.000000e+00 0.000000e+00 0.000000e+00 0.000000e+00 0.000000e+00 0.000000e+00 9.851083e-01 1.489168e-02 0.000000e+00 0.000000e+00 0.000000e+00 0.000000e+00 0.000000e+00 0.000000e+00 0.000000e+00 0.000000e+00 0.000000e+00 0.000000e+00 0.000000e+00 0.000000e+00 0.000000e+00 0.000000e+00 0.000000e+00 0.000000e+00 0.000000e+00 0.000000e+00 0.000000e+00 0.000000e+00 0.000000e+00 0.000000e+00 0.000000e+00 0.000000e+00 0.000000e+00 0.000000e+00 0.000000e+00 0.000000e+00 0.000000e+00 0.000000e+00 0.000000e+00 0.000000e+00 0.000000e+00 0.000000e+00 0.000000e+00 0.000000e+00 0.000000e+00 0.000000e+00 0.000000e+00 0.000000e+00 0.000000e+00
 0.000000e+00 0.000000e+00 0.000000e+00 0.000000e+00 0.000000e+00 0.000000e+00 0.000000e+00 0.000000e+00 0.000000e+00 0.000000e+00 0.000000e+00 0.000000e+00 0.000000e+00 8.427028e-01 1.572972e-01 0.000000e+00 0.000000e+00 0.000000e+00 0.000000e+00 0.000000e+00 0.000000e+00 0.000000e+00 0.000000e+00 0.000000e+00 0.000000e+00 0.000000e+00 0.000000e+00 0.000000e+00 0.000000e+00 0.000000e+00 0.000000e+00 0.000000e+00 0.000000e+00 0.000000e+00 0.000000e+00 0.000000e+00 0.000000e+00 0.000000e+00 0.000000e+00 0.000000e+00 0.000000e+00 0.000000e+00 0.000000e+00 0.000000e+00 0.000000e+00 0.000000e+00 0.000000e+00 0.000000e+00 0.000000e+00 0.000000e+00 0.000000e+00 0.000000e+00 0.000000e+00 0.000000e+00 0.000000e+00
 0.000000e+00 0.000000e+00 0.000000e+00 0.000000e+00 0.000000e+00 0.000000e+00 0.000000e+00 0.000000e+00 0.000000e+00 0.000000e+00 0.000000e+00 0.000000e+00 0.000000e+00 0.000000e+00 9.104546e-01 8.954538e-02 0.000000e+00 0.000000e+00 0.000000e+00 0.000000e+00 0.000000e+00 0.000000e+00 0.000000e+00 0.000000e+00 0.000000e+00 0.000000e+00 0.000000e+00 0.000000e+00 0.000000e+00 0.000000e+00 0.000000e+00 0.000000e+00 0.000000e+00 0.000000e+00 0.000000e+00 0.000000e+00 0.000000e+00 0.000000e+00 0.000000e+00 0.000000e+00 0.000000e+00 0.000000e+00 0.000000e+00 0.000000e+00 0.000000e+00 0.000000e+00 0.000000e+00 0.000000e+00 0.000000e+00 0.000000e+00 0.000000e+00 0.000000e+00 0.000000e+00 0.000000e+00 0.000000e+00
 0.000000e+00 0.000000e+00 0.000000e+00 0.000000e+00 0.000000e+00 0.000000e+00 0.000000e+00 0.000000e+00 0.000000e+00 0.000000e+00 0.000000e+00 0.000000e+00 0.000000e+00 0.000000e+00 0.000000e+00 8.727072e-01 1.272928e-01 0.000000e+00 0.000000e+00 0.000000e+00 0.000000e+00 0.000000e+00 0.000000e+00 0.000000e+00 0.000000e+00 0.000000e+00 0.000000e+00 0.000000e+00 0.000000e+00 0.000000e+00 0.000000e+00 0.000000e+00 0.000000e+00 0.000000e+00 0.000000e+00 0.000000e+00 0.000000e+00 0.000000e+00 0.000000e+00 0.000000e+00 0.000000e+00 0.000000e+00 0.000000e+00 0.000000e+00 0.000000e+00 0.000000e+00 0.000000e+00 0.000000e+00 0.000000e+00 0.000000e+00 0.000000e+00 0.000000e+00 0.000000e+00 0.000000e+00 0.000000e+00
 0.000000e+00 0.000000e+00 0.000000e+00 0.000000e+00 0.000000e+00 0.000000e+00 0.000000e+00 0.000000e+00 0.000000e+00 0.000000e+00 0.000000e+00 0.000000e+00 0.000000e+00 0.000000e+00 0.000000e+00 0.000000e+00 9.934447e-01 6.555242e-03 0.000000e+00 0.000000e+00 0.000000e+00 0.000000e+00 0.000000e+00 0.000000e+00 0.000000e+00 0.000000e+00 0.000000e+00 0.000000e+00 0.000000e+00 0.000000e+00 0.000000e+00 0.000000e+00 0.000000e+00 0.000000e+00 0.000000e+00 0.000000e+00 0.000000e+00 0.000000e+00 0.000000e+00 0.000000e+00 0.000000e+00 0.000000e+00 0.000000e+00 0.000000e+00 0.000000e+00 0.000000e+00 0.000000e+00 0.000000e+00 0.000000e+00 0.000000e+00 0.000000e+00 0.000000e+00 0.000000e+00 0.000000e+00 0.000000e+00
 0.000000e+00 0.000000e+00 0.000000e+00 0.000000e+00 0.000000e+00 0.000000e+00 0.000000e+00 0.000000e+00 0.000000e+00 0.000000e+00 0.000000e+00 0.000000e+00 0.000000e+00 0.000000e+00 0.000000e+00 0.000000e+00 0.000000e+00 9.853800e-01 1.462002e-02 0.000000e+00 0.000000e+00 0.000000e+00 0.000000e+00 0.000000e+00 0.000000e+00 0.000000e+00 0.000000e+00 0.000000e+00 0.000000e+00 0.000000e+00 0.000000e+00 0.000000e+00 0.000000e+00 0.000000e+00 0.000000e+00 0.000000e+00 0.000000e+00 0.000000e+00 0.000000e+00 0.000000e+00 0.000000e+00 0.000000e+00 0.000000e+00 0.000000e+00 0.000000e+00 0.000000e+00 0.000000e+00 0.000000e+00 0.000000e+00 0.000000e+00 0.000000e+00 0.000000e+00 0.000000e+00 0.000000e+00 0.000000e+00
 0.000000e+00 0.000000e+00 0.000000e+00 0.000000e+00 0.000000e+00 0.000000e+00 0.000000e+00 0.000000e+00 0.000000e+00 0.000000e+00 0.000000e+00 0.000000e+00 0.000000e+00 0.000000e+00 0.000000e+00 0.000000e+00 0.000000e+00 0.000000e+00 9.648634e-01 3.513659e-02 0.000000e+00 0.000000e+00 0.000000e+00 0.000000e+00 0.000000e+00 0.000000e+00 0.000000e+00 0.000000e+00 0.000000e+00 0.000000e+00 0.000000e+00 0.000000e+00 0.000000e+00 0.000000e+00 0.000000e+00 0.000000e+00 0.000000e+00 0.000000e+00 0.000000e+00 0.000000e+00 0.000000e+00 0.000000e+00 0.000000e+00 0.000000e+00 0.000000e+00 0.000000e+00 0.000000e+00 0.000000e+00 0.000000e+00 0.000000e+00 0.000000e+00 0.000000e+00 0.000000e+00 0.000000e+00 0.000000e+00
 0.000000e+00 0.000000e+00 0.000000e+00 0.000000e+00 0.000000e+00 0.000000e+00 0.000000e+00 0.000000e+00 0.000000e+00 0.000000e+00 0.000000e+00 0.000000e+00 0.000000e+00 0.000000e+00 0.000000e+00 0.000000e+00 0.000000e+00 0.000000e+00 0.000000e+00 9.935489e-01 6.451092e-03 0.000000e+00 0.000000e+00 0.000000e+00 0.000000e+00 0.000000e+00 0.000000e+00 0.000000e+00 0.000000e+00 0.000000e+00 0.000000e+00 0.000000e+00 0.000000e+00 0.000000e+00 0.000000e+00 0.000000e+00 0.000000e+00 0.000000e+00 0.000000e+00 0.000000e+00 0.000000e+00 0.000000e+00 0.000000e+00 0.000000e+00 0.000000e+00 0.000000e+00 0.000000e+00 0.000000e+00 0.000000e+00 0.000000e+00 0.000000e+00 0.000000e+00 0.000000e+00 0.000000e+00 0.000000e+00
 0.000000e+00 0.000000e+00 0.000000e+00 0.000000e+00 0.000000e+00 0.000000e+00 0.000000e+00 0.000000e+00 0.000000e+00 0.000000e+00 0.000000e+00 0.000000e+00 0.000000e+00 0.000000e+00 0.000000e+00 0.000000e+00 0.000000e+00 0.000000e+00 0.000000e+00 0.000000e+00 9.906455e-01 9.354475e-03 0.000000e+00 0.000000e+00 0.000000e+00 0.000000e+00 0.000000e+00 0.000000e+00 0.000000e+00 0.000000e+00 0.000000e+00 0.000000e+00 0.000000e+00 0.000000e+00 0.000000e+00 0.000000e+00 0.000000e+00 0.000000e+00 0.000000e+00 0.000000e+00 0.000000e+00 0.000000e+00 0.000000e+00 0.000000e+00 0.000000e+00 0.000000e+00 0.000000e+00 0.000000e+00 0.000000e+00 0.000000e+00 0.000000e+00 0.000000e+00 0.000000e+00 0.000000e+00 0.000000e+00
 0.000000e+00 0.000000e+00 0.000000e+00 0.000000e+00 0.000000e+00 0.000000e+00 0.000000e+00 0.000000e+00 0.000000e+00 0.000000e+00 0.000000e+00 0.000000e+00 0.000000e+00 0.000000e+00 0.000000e+00 0.000000e+00 0.000000e+00 0.000000e+00 0.000000e+00 0.000000e+00 0.000000e+00 9.959355e-01 4.064529e-03 0.000000e+00 0.000000e+00 0.000000e+00 0.000000e+00 0.000000e+00 0.000000e+00 0.000000e+00 0.000000e+00 0.000000e+00 0.000000e+00 0.000000e+00 0.000000e+00 0.000000e+00 0.000000e+00 0.000000e+00 0.000000e+00 0.000000e+00 0.000000e+00 0.000000e+00 0.000000e+00 0.000000e+00 0.000000e+00 0.000000e+00 0.000000e+00 0.000000e+00 0.000000e+00 0.000000e+00 0.000000e+00 0.000000e+00 0.000000e+00 0.000000e+00 0.000000e+00
 0.000000e+00 0.000000e+00 0.000000e+00 0.000000e+00 0.000000e+00 0.000000e+00 0.000000e+00 0.000000e+00 0.000000e+00 0.000000e+00 0.000000e+00 0.000000e+00 0.000000e+00 0.000000e+00 0.000000e+00 0.000000e+00 0.000000e+00 0.000000e+00 0.000000e+00 0.000000e+00 0.000000e+00 0.000000e+00 9.864469e-01 1.355306e-02 0.000000e+00 0.000000e+00 0.000000e+00 0.000000e+00 0.000000e+00 0.000000e+00 0.000000e+00 0.000000e+00 0.000000e+00 0.000000e+00 0.000000e+00 0.000000e+00 0.000000e+00 0.000000e+00 0.000000e+00 0.000000e+00 0.000000e+00 0.000000e+00 0.000000e+00 0.000000e+00 0.000000e+00 0.000000e+00 0.000000e+00 0.000000e+00 0.000000e+00 0.000000e+00 0.000000e+00 0.000000e+00 0.000000e+00 0.000000e+00 0.000000e+00
 0.000000e+00 0.000000e+00 0.000000e+00 0.000000e+00 0.000000e+00 0.000000e+00 0.000000e+00 0.000000e+00 0.000000e+00 0.000000e+00 0.000000e+00 0.000000e+00 0.000000e+00 0.000000e+00 0.000000e+00 0.000000e+00 0.000000e+00 0.000000e+00 0.000000e+00 0.000000e+00 0.000000e+00 0.000000e+00 0.000000e+00 9.965503e-01 3.449733e-03 0.000000e+00 0.000000e+00 0.000000e+00 0.000000e+00 0.000000e+00 0.000000e+00 0.000000e+00 0.000000e+00 0.000000e+00 0.000000e+00 0.000000e+00 0.000000e+00 0.000000e+00 0.000000e+00 0.000000e+00 0.000000e+00 0.000000e+00 0.000000e+00 0.000000e+00 0.000000e+00 0.000000e+00 0.000000e+00 0.000000e+00 0.000000e+00 0.000000e+00 0.000000e+00 0.000000e+00 0.000000e+00 0.000000e+00 0.000000e+00
 0.000000e+00 0.000000e+00 0.000000e+00 0.000000e+00 0.000000e+00 0.000000e+00 0.000000e+00 0.000000e+00 0.000000e+00 0.000000e+00 0.000000e+00 0.000000e+00 0.000000e+00 0.000000e+00 0.000000e+00 0.000000e+00 0.000000e+00 0.000000e+00 0.000000e+00 0.000000e+00 0.000000e+00 0.000000e+00 0.000000e+00 0.000000e+00 9.892534e-01 1.074660e-02 0.000000e+00 0.000000e+00 0.000000e+00 0.000000e+00 0.000000e+00 0.000000e+00 0.000000e+00 0.000000e+00 0.000000e+00 0.000000e+00 0.000000e+00 0.000000e+00 0.000000e+00 0.000000e+00 0.000000e+00 0.000000e+00 0.000000e+00 0.000000e+00 0.000000e+00 0.000000e+00 0.000000e+00 0.000000e+00 0.000000e+00 0.000000e+00 0.000000e+00 0.000000e+00 0.000000e+00 0.000000e+00 0.000000e+00
 0.000000e+00 0.000000e+00 0.000000e+00 0.000000e+00 0.000000e+00 0.000000e+00 0.000000e+00 0.000000e+00 0.000000e+00 0.000000e+00 0.000000e+00 0.000000e+00 0.000000e+00 0.000000e+00 0.000000e+00 0.000000e+00 0.000000e+00 0.000000e+00 0.000000e+00 0.000000e+00 0.000000e+00 0.000000e+00 0.000000e+00 0.000000e+00 0.000000e+00 9.966268e-01 3.373212e-03 0.000000e+00 0.000000e+00 0.000000e+00 0.000000e+00 0.000000e+00 0.000000e+00 0.000000e+00 0.000000e+00 0.000000e+00 0.000000e+00 0.000000e+00 0.000000e+00 0.000000e+00 0.000000e+00 0.000000e+00 0.000000e+00 0.000000e+00 0.000000e+00 0.000000e+00 0.000000e+00 0.000000e+00 0.000000e+00 0.000000e+00 0.000000e+00 0.000000e+00 0.000000e+00 0.000000e+00 0.000000e+00
 0.000000e+00 0.000000e+00 0.000000e+00 0.000000e+00 0.000000e+00 0.000000e+00 0.000000e+00 0.000000e+00 0.000000e+00 0.000000e+00 0.000000e+00 0.000000e+00 0.000000e+00 0.000000e+00 0.000000e+00 0.000000e+00 0.000000e+00 0.000000e+00 0.000000e+00 0.000000e+00 0.000000e+00 0.000000e+00 0.000000e+00 0.000000e+00 0.000000e+00 0.000000e+00 9.852343e-01 1.476566e-02 0.000000e+00 0.000000e+00 0.000000e+00 0.000000e+00 0.000000e+00 0.000000e+00 0.000000e+00 0.000000e+00 0.000000e+00 0.000000e+00 0.000000e+00 0.000000e+00 0.000000e+00 0.000000e+00 0.000000e+00 0.000000e+00 0.000000e+00 0.000000e+00 0.000000e+00 0.000000e+00 0.000000e+00 0.000000e+00 0.000000e+00 0.000000e+00 0.000000e+00 0.000000e+00 0.000000e+00
 0.000000e+00 0.000000e+00 0.000000e+00 0.000000e+00 0.000000e+00 0.000000e+00 0.000000e+00 0.000000e+00 0.000000e+00 0.000000e+00 0.000000e+00 0.000000e+00 0.000000e+00 0.000000e+00 0.000000e+00 0.000000e+00 0.000000e+00 0.000000e+00 0.000000e+00 0.000000e+00 0.000000e+00 0.000000e+00 0.000000e+00 0.000000e+00 0.000000e+00 0.000000e+00 0.000000e+00 9.886847e-01 1.131529e-02 0.000000e+00 0.000000e+00 0.000000e+00 0.000000e+00 0.000000e+00 0.000000e+00 0.000000e+00 0.000000e+00 0.000000e+00 0.000000e+00 0.000000e+00 0.000000e+00 0.000000e+00 0.000000e+00 0.000000e+00 0.000000e+00 0.000000e+00 0.000000e+00 0.000000e+00 0.000000e+00 0.000000e+00 0.000000e+00 0.000000e+00 0.000000e+00 0.000000e+00 0.000000e+00
 0.000000e+00 0.000000e+00 0.000000e+00 0.000000e+00 0.000000e+00 0.000000e+00 0.000000e+00 0.000000e+00 0.000000e+00 0.000000e+00 0.000000e+00 0.000000e+00 0.000000e+00 0.000000e+00 0.000000e+00 0.000000e+00 0.000000e+00 0.000000e+00 0.000000e+00 0.000000e+00 0.000000e+00 0.000000e+00 0.000000e+00 0.000000e+00 0.000000e+00 0.000000e+00 0.000000e+00 0.000000e+00 9.965562e-01 3.443762e-03 0.000000e+00 0.000000e+00 0.000000e+00 0.000000e+00 0.000000e+00 0.000000e+00 0.000000e+00 0.000000e+00 0.000000e+00 0.000000e+00 0.000000e+00 0.000000e+00 0.000000e+00 0.000000e+00 0.000000e+00 0.000000e+00 0.000000e+00 0.000000e+00 0.000000e+00 0.000000e+00 0.000000e+00 0.000000e+00 0.000000e+00 0.000000e+00 0.000000e+00
 0.000000e+00 0.000000e+00 0.000000e+00 0.000000e+00 0.000000e+00 0.000000e+00 0.000000e+00 0.000000e+00 0.000000e+00 0.000000e+00 0.000000e+00 0.000000e+00 0.000000e+00 0.000000e+00 0.000000e+00 0.000000e+00 0.000000e+00 0.000000e+00 0.000000e+00 0.000000e+00 0.000000e+00 0.000000e+00 0.000000e+00 0.000000e+00 0.000000e+00 0.000000e+00 0.000000e+00 0.000000e+00 0.000000e+00 9.349186e-01 6.508146e-02 0.000000e+00 0.000000e+00 0.000000e+00 0.000000e+00 0.000000e+00 0.000000e+00 0.000000e+00 0.000000e+00 0.000000e+00 0.000000e+00 0.000000e+00 0.000000e+00 0.000000e+00 0.000000e+00 0.000000e+00 0.000000e+00 0.000000e+00 0.000000e+00 0.000000e+00 0.000000e+00 0.000000e+00 0.000000e+00 0.000000e+00 0.000000e+00
 0.000000e+00 0.000000e+00 0.000000e+00 0.000000e+00 0.000000e+00 0.000000e+00 0.000000e+00 0.000000e+00 0.000000e+00 0.000000e+00 0.000000e+00 0.000000e+00 0.000000e+00 0.000000e+00 0.000000e+00 0.000000e+00 0.000000e+00 0.000000e+00 0.000000e+00 0.000000e+00 0.000000e+00 0.000000e+00 0.000000e+00 0.000000e+00 0.000000e+00 0.000000e+00 0.000000e+00 0.000000e+00 0.000000e+00 0.000000e+00 5.005044e-01 4.994956e-01 0.000000e+00 0.000000e+00 0.000000e+00 0.000000e+00 0.000000e+00 0.000000e+00 0.000000e+00 0.000000e+00 0.000000e+00 0.000000e+00 0.000000e+00 0.000000e+00 0.000000e+00 0.000000e+00 0.000000e+00 0.000000e+00 0.000000e+00 0.000000e+00 0.000000e+00 0.000000e+00 0.000000e+00 0.000000e+00 0.000000e+00
 0.000000e+00 0.000000e+00 0.000000e+00 0.000000e+00 0.000000e+00 0.000000e+00 0.000000e+00 0.000000e+00 0.000000e+00 0.000000e+00 0.000000e+00 0.000000e+00 0.000000e+00 0.000000e+00 0.000000e+00 0.000000e+00 0.000000e+00 0.000000e+00 0.000000e+00 0.000000e+00 0.000000e+00 0.000000e+00 0.000000e+00 0.000000e+00 0.000000e+00 0.000000e+00 0.000000e+00 0.000000e+00 0.000000e+00 0.000000e+00 0.000000e+00 1.325246e-01 8.674753e-01 0.000000e+00 0.000000e+00 0.000000e+00 0.000000e+00 0.000000e+00 0.000000e+00 0.000000e+00 0.000000e+00 0.000000e+00 0.000000e+00 0.000000e+00 0.000000e+00 0.000000e+00 0.000000e+00 0.000000e+00 0.000000e+00 0.000000e+00 0.000000e+00 0.000000e+00 0.000000e+00 0.000000e+00 0.000000e+00
 0.000000e+00 0.000000e+00 0.000000e+00 0.000000e+00 0.000000e+00 0.000000e+00 0.000000e+00 0.000000e+00 0.000000e+00 0.000000e+00 0.000000e+00 0.000000e+00 0.000000e+00 0.000000e+00 0.000000e+00 0.000000e+00 0.000000e+00 0.000000e+00 0.000000e+00 0.000000e+00 0.000000e+00 0.000000e+00 0.000000e+00 0.000000e+00 0.000000e+00 0.000000e+00 0.000000e+00 0.000000e+00 0.000000e+00 0.000000e+00 0.000000e+00 0.000000e+00 1.336730e-01 8.663270e-01 0.000000e+00 0.000000e+00 0.000000e+00 0.000000e+00 0.000000e+00 0.000000e+00 0.000000e+00 0.000000e+00 0.000000e+00 0.000000e+00 0.000000e+00 0.000000e+00 0.000000e+00 0.000000e+00 0.000000e+00 0.000000e+00 0.000000e+00 0.000000e+00 0.000000e+00 0.000000e+00 0.000000e+00
 0.000000e+00 0.000000e+00 0.000000e+00 0.000000e+00 0.000000e+00 0.000000e+00 0.000000e+00 0.000000e+00 0.000000e+00 0.000000e+00 0.000000e+00 0.000000e+00 0.000000e+00 0.000000e+00 0.000000e+00 0.000000e+00 0.000000e+00 0.000000e+00 0.000000e+00 0.000000e+00 0.000000e+00 0.000000e+00 0.000000e+00 0.000000e+00 0.000000e+00 0.000000e+00 0.000000e+00 0.000000e+00 0.000000e+00 0.000000e+00 0.000000e+00 0.000000e+00 0.000000e+00 3.444451e-01 6.555550e-01 0.000000e+00 0.000000e+00 0.000000e+00 0.000000e+00 0.000000e+00 0.000000e+00 0.000000e+00 0.000000e+00 0.000000e+00 0.000000e+00 0.000000e+00 0.000000e+00 0.000000e+00 0.000000e+00 0.000000e+00 0.000000e+00 0.000000e+00 0.000000e+00 0.000000e+00 0.000000e+00
 0.000000e+00 0.000000e+00 0.000000e+00 0.000000e+00 0.000000e+00 0.000000e+00 0.000000e+00 0.000000e+00 0.000000e+00 0.000000e+00 0.000000e+00 0.000000e+00 0.000000e+00 0.000000e+00 0.000000e+00 0.000000e+00 0.000000e+00 0.000000e+00 0.000000e+00 0.000000e+00 0.000000e+00 0.000000e+00 0.000000e+00 0.000000e+00 0.000000e+00 0.000000e+00 0.000000e+00 0.000000e+00 0.000000e+00 0.000000e+00 0.000000e+00 0.000000e+00 0.000000e+00 0.000000e+00 3.823301e-01 6.176699e-01 0.000000e+00 0.000000e+00 0.000000e+00 0.000000e+00 0.000000e+00 0.000000e+00 0.000000e+00 0.000000e+00 0.000000e+00 0.000000e+00 0.000000e+00 0.000000e+00 0.000000e+00 0.000000e+00 0.000000e+00 0.000000e+00 0.000000e+00 0.000000e+00 0.000000e+00
 0.000000e+00 0.000000e+00 0.000000e+00 0.000000e+00 0.000000e+00 0.000000e+00 0.000000e+00 0.000000e+00 0.000000e+00 0.000000e+00 0.000000e+00 0.000000e+00 0.000000e+00 0.000000e+00 0.000000e+00 0.000000e+00 0.000000e+00 0.000000e+00 0.000000e+00 0.000000e+00 0.000000e+00 0.000000e+00 0.000000e+00 0.000000e+00 0.000000e+00 0.000000e+00 0.000000e+00 0.000000e+00 0.000000e+00 0.000000e+00 0.000000e+00 0.000000e+00 0.000000e+00 0.000000e+00 0.000000e+00 9.877909e-01 1.220914e-02 0.000000e+00 0.000000e+00 0.000000e+00 0.000000e+00 0.000000e+00 0.000000e+00 0.000000e+00 0.000000e+00 0.000000e+00 0.000000e+00 0.000000e+00 0.000000e+00 0.000000e+00 0.000000e+00 0.000000e+00 0.000000e+00 0.000000e+00 0.000000e+00
 0.000000e+00 0.000000e+00 0.000000e+00 0.000000e+00 0.000000e+00 0.000000e+00 0.000000e+00 0.000000e+00 0.000000e+00 0.000000e+00 0.000000e+00 0.000000e+00 0.000000e+00 0.000000e+00 0.000000e+00 0.000000e+00 0.000000e+00 0.000000e+00 0.000000e+00 0.000000e+00 0.000000e+00 0.000000e+00 0.000000e+00 0.000000e+00 0.000000e+00 0.000000e+00 0.000000e+00 0.000000e+00 0.000000e+00 0.000000e+00 0.000000e+00 0.000000e+00 0.000000e+00 0.000000e+00 0.000000e+00 0.000000e+00 8.245419e-01 1.754582e-01 0.000000e+00 0.000000e+00 0.000000e+00 0.000000e+00 0.000000e+00 0.000000e+00 0.000000e+00 0.000000e+00 0.000000e+00 0.000000e+00 0.000000e+00 0.000000e+00 0.000000e+00 0.000000e+00 0.000000e+00 0.000000e+00 0.000000e+00
