~o
<STREAMINFO> 1 42
<VECSIZE> 42<NULLD><USER><DIAGC>
~h "CONTROL"
<BEGINHMM>
<NUMSTATES> 40
<STATE> 2
<NUMMIXES> 2
<MIXTURE> 1 5.000000e-01
<MEAN> 42
 2.901304e-02 3.868949e-02 1.105995e-02 -1.215834e-02 1.538927e-02 2.016070e-02 -2.586840e-03 1.549467e-02 3.067932e-02 3.548773e-02 3.567758e-02 3.678260e-02 1.330650e-03 1.236041e-03 1.333874e-03 1.327059e-03 1.158561e-03 1.082845e-03 8.836112e-04 1.467030e-03 5.260634e-04 1.090562e-03 6.728055e-04 6.961619e-04 8.789399e-04 7.684973e-04 8.338180e-04 7.355416e-04 7.749656e-04 6.759068e-04 4.524756e-04 1.013514e-03 4.374027e-04 6.915312e-04 4.311328e-04 4.234416e-04 2.343461e-03 1.901189e-03 1.817355e-03 3.188059e-02 2.760954e-02 1.012444e-02
<VARIANCE> 42
 2.044996e-03 3.943269e-03 1.854213e-03 2.530150e-03 9.143272e-04 2.345852e-03 1.777630e-03 3.747533e-03 4.945078e-03 4.047916e-03 4.480998e-03 4.738081e-03 5.156374e-05 4.502025e-05 4.451846e-05 3.727752e-05 3.684383e-05 3.226145e-05 1.934741e-05 7.374013e-05 1.811158e-05 4.065752e-05 1.795842e-05 1.775718e-05 1.957414e-05 1.545539e-05 1.788077e-05 1.309144e-05 1.489089e-05 1.193448e-05 5.139651e-06 2.601508e-05 4.940886e-06 1.211414e-05 4.856598e-06 4.629624e-06 1.561443e-05 4.931556e-05 1.307895e-04 2.649418e-03 2.449255e-03 1.337386e-03
<GCONST> -3.030958e+02
<MIXTURE> 2 5.000000e-01
<MEAN> 42
 1.092438e-02 1.357131e-02 -6.164283e-03 -3.227858e-02 3.294133e-03 7.870998e-04 -1.945162e-02 -8.992165e-03 2.550821e-03 1.003843e-02 8.901478e-03 9.249116e-03 -1.541666e-03 -1.447844e-03 -1.335012e-03 -1.115154e-03 -1.269404e-03 -1.189122e-03 -8.758164e-04 -1.967853e-03 -1.176245e-03 -1.459968e-03 -1.022290e-03 -9.894089e-04 -8.907669e-04 -8.040366e-04 -8.576084e-04 -7.117423e-04 -7.685831e-04 -7.059459e-04 -4.543563e-04 -1.026685e-03 -4.517215e-04 -7.006837e-04 -4.503748e-04 -4.372208e-04 7.628570e-04 -9.078129e-04 -2.757175e-03 1.129159e-02 7.813560e-03 -4.503675e-03
<VARIANCE> 42
 2.044996e-03 3.943269e-03 1.854213e-03 2.530150e-03 9.143272e-04 2.345852e-03 1.777630e-03 3.747533e-03 4.945078e-03 4.047916e-03 4.480998e-03 4.738081e-03 5.156374e-05 4.502025e-05 4.451846e-05 3.727752e-05 3.684383e-05 3.226145e-05 1.934741e-05 7.374013e-05 1.811158e-05 4.065752e-05 1.795842e-05 1.775718e-05 1.957414e-05 1.545539e-05 1.788077e-05 1.309144e-05 1.489089e-05 1.193448e-05 5.139651e-06 2.601508e-05 4.940886e-06 1.211414e-05 4.856598e-06 4.629624e-06 1.561443e-05 4.931556e-05 1.307895e-04 2.649418e-03 2.449255e-03 1.337386e-03
<GCONST> -3.030958e+02
<STATE> 3
<NUMMIXES> 2
<MIXTURE> 1 5.000000e-01
<MEAN> 42
 2.027630e-02 2.466423e-02 5.605100e-03 1.572279e-03 1.573946e-02 9.201739e-03 1.943469e-03 4.362824e-03 8.002277e-03 1.450787e-02 4.285438e-02 1.796201e-02 1.461161e-03 6.550351e-04 1.693875e-03 2.998177e-03 1.700768e-03 7.695999e-04 1.663831e-03 1.637355e-03 5.012051e-04 3.665961e-04 1.542467e-03 2.018698e-04 1.405347e-03 1.191885e-03 1.229359e-03 1.030944e-03 1.140287e-03 9.869774e-04 6.116380e-04 1.096225e-03 7.581678e-04 7.491636e-04 1.285251e-03 6.458358e-04 2.330688e-03 3.439367e-03 2.110113e-03 2.267550e-02 1.866111e-02 1.325064e-02
<VARIANCE> 42
 3.282244e-03 3.232627e-03 1.162407e-03 2.909128e-03 1.333696e-03 1.295511e-03 4.902113e-03 2.700636e-03 2.752689e-03 3.073557e-03 1.112514e-02 2.935770e-03 1.422568e-04 9.091204e-05 1.023928e-04 9.099601e-05 9.937964e-05 6.194383e-05 3.113889e-05 7.374013e-05 3.963767e-05 4.065752e-05 1.549598e-04 3.577127e-05 4.690708e-05 3.029864e-05 3.442719e-05 2.998237e-05 3.302893e-05 2.097302e-05 8.348714e-06 2.601508e-05 1.165531e-05 1.211414e-05 3.866854e-05 9.246874e-06 2.615725e-05 6.381144e-05 1.065663e-04 3.506653e-03 1.608732e-03 5.536551e-04
<GCONST> -2.858586e+02
<MIXTURE> 2 5.000000e-01
<MEAN> 42
 -2.640045e-03 1.921751e-03 -8.032536e-03 -2.000226e-02 1.131534e-03 -5.195544e-03 -2.606257e-02 -1.642423e-02 -1.298415e-02 -7.667996e-03 6.640628e-04 -3.711091e-03 -3.309697e-03 -3.158877e-03 -2.353698e-03 -8.174955e-04 -2.286806e-03 -2.378576e-03 -5.682581e-04 -1.797528e-03 -2.017133e-03 -2.183934e-03 -3.436847e-03 -2.190494e-03 -1.334203e-03 -1.009883e-03 -1.117629e-03 -1.159303e-03 -1.158545e-03 -8.448751e-04 -5.441276e-04 -9.439744e-04 -6.074273e-04 -6.430513e-04 -1.202111e-03 -5.705110e-04 2.849217e-04 2.440846e-04 -2.019125e-03 -1.011300e-03 2.617509e-03 3.838693e-03
<VARIANCE> 42
 3.282244e-03 3.232627e-03 1.162407e-03 2.909128e-03 1.333696e-03 1.295511e-03 4.902113e-03 2.700636e-03 2.752689e-03 3.073557e-03 1.112514e-02 2.935770e-03 1.422568e-04 9.091204e-05 1.023928e-04 9.099601e-05 9.937964e-05 6.194383e-05 3.113889e-05 7.374013e-05 3.963767e-05 4.065752e-05 1.549598e-04 3.577127e-05 4.690708e-05 3.029864e-05 3.442719e-05 2.998237e-05 3.302893e-05 2.097302e-05 8.348714e-06 2.601508e-05 1.165531e-05 1.211414e-05 3.866854e-05 9.246874e-06 2.615725e-05 6.381144e-05 1.065663e-04 3.506653e-03 1.608732e-03 5.536551e-04
<GCONST> -2.858586e+02
<STATE> 4
<NUMMIXES> 2
<MIXTURE> 1 5.000000e-01
<MEAN> 42
 3.095064e-02 2.070481e-02 -8.787317e-04 -1.153921e-03 2.102987e-02 5.765711e-03 -2.301151e-03 2.287314e-02 4.342331e-02 4.032888e-02 4.352961e-02 3.972147e-02 2.280330e-03 1.628491e-03 1.639655e-03 1.725909e-03 1.804989e-03 1.177318e-03 9.011425e-04 2.898235e-03 3.965232e-03 3.048831e-03 2.967201e-03 2.720528e-03 7.644398e-04 5.400934e-04 7.999801e-04 5.034610e-04 7.399753e-04 5.739845e-04 3.683944e-04 1.050565e-03 1.061753e-03 8.344575e-04 8.035064e-04 7.122750e-04 6.480428e-03 4.389010e-03 4.683079e-03 3.772888e-02 1.000152e-02 1.172386e-02
<VARIANCE> 42
 4.663885e-03 3.533964e-03 8.846679e-04 3.868603e-03 1.895998e-03 1.075251e-03 1.684745e-03 8.853054e-03 1.591906e-02 9.205954e-03 9.682949e-03 8.711067e-03 1.269559e-04 6.170933e-05 6.472956e-05 7.815835e-05 8.155689e-05 3.210606e-05 1.840622e-05 1.991769e-04 3.775230e-04 2.257397e-04 2.170881e-04 1.834620e-04 1.419599e-05 7.021964e-06 1.602410e-05 6.602347e-06 1.348351e-05 8.082272e-06 3.113455e-06 2.601508e-05 2.713830e-05 1.724430e-05 1.601114e-05 1.274974e-05 2.099600e-04 2.214201e-04 2.192766e-04 6.992987e-03 1.291822e-03 3.314942e-03
<GCONST> -2.777039e+02
<MIXTURE> 2 5.000000e-01
<MEAN> 42
 3.633581e-03 -3.074056e-03 -1.277608e-02 -2.603316e-02 3.612648e-03 -7.350697e-03 -1.871941e-02 -1.476313e-02 -7.044991e-03 1.949808e-03 4.168814e-03 2.388231e-03 -2.226658e-03 -1.513720e-03 -1.578532e-03 -1.810379e-03 -1.807365e-03 -1.089171e-03 -8.149564e-04 -2.746967e-03 -3.806749e-03 -2.961024e-03 -2.926363e-03 -2.697397e-03 -7.426629e-04 -5.198661e-04 -8.012244e-04 -5.243403e-04 -7.288206e-04 -5.631890e-04 -3.374050e-04 -9.896347e-04 -1.022025e-03 -8.265927e-04 -7.970505e-04 -7.159962e-04 6.844297e-04 -1.563066e-03 -1.240117e-03 4.279245e-03 -4.375251e-03 -1.130636e-02
<VARIANCE> 42
 4.663885e-03 3.533964e-03 8.846679e-04 3.868603e-03 1.895998e-03 1.075251e-03 1.684745e-03 8.853054e-03 1.591906e-02 9.205954e-03 9.682949e-03 8.711067e-03 1.269559e-04 6.170933e-05 6.472956e-05 7.815835e-05 8.155689e-05 3.210606e-05 1.840622e-05 1.991769e-04 3.775230e-04 2.257397e-04 2.170881e-04 1.834620e-04 1.419599e-05 7.021964e-06 1.602410e-05 6.602347e-06 1.348351e-05 8.082272e-06 3.113455e-06 2.601508e-05 2.713830e-05 1.724430e-05 1.601114e-05 1.274974e-05 2.099600e-04 2.214201e-04 2.192766e-04 6.992987e-03 1.291822e-03 3.314942e-03
<GCONST> -2.777039e+02
<STATE> 5
<MEAN> 42
 3.111123e-02 2.429829e-02 -2.977632e-03 -1.948961e-02 1.844737e-02 1.098296e-02 2.140267e-02 1.212879e-01 1.546612e-01 1.054426e-01 7.042196e-02 5.218975e-02 1.130148e-04 1.910737e-03 1.815863e-03 -1.000019e-03 -8.548292e-04 1.895355e-03 3.827124e-04 4.625022e-03 5.347945e-03 3.245702e-03 2.772070e-03 1.750601e-03 -5.433528e-04 7.671040e-05 6.304440e-04 2.528256e-04 -5.992085e-04 3.804737e-04 8.541461e-04 1.398567e-03 1.447002e-03 6.445323e-04 3.220335e-04 -2.055167e-04 -1.033476e-03 -6.797215e-03 -2.766436e-03 6.213547e-02 8.429680e-05 -7.451750e-02
<VARIANCE> 42
 3.703767e-03 3.756278e-03 2.777001e-03 2.705981e-03 1.887649e-03 2.804354e-03 2.305954e-03 1.878836e-02 3.354438e-02 2.577909e-02 1.170482e-02 8.669583e-03 1.676612e-04 1.127490e-04 1.941579e-04 9.135780e-05 1.542349e-04 1.120421e-04 1.265595e-04 1.627482e-04 1.716059e-04 1.542551e-04 1.467092e-04 1.201878e-04 4.973227e-05 2.971549e-05 6.727269e-05 2.293367e-05 5.154657e-05 3.615257e-05 2.397589e-05 4.844736e-05 4.946564e-05 3.413896e-05 3.938840e-05 3.061279e-05 7.613935e-06 5.941289e-05 8.981572e-05 9.093403e-03 1.368540e-03 6.790179e-03
<GCONST> -2.598919e+02
<STATE> 6
<MEAN> 42
 4.140704e-02 3.444211e-02 -7.177736e-03 -3.654223e-02 2.124152e-02 1.355799e-02 -1.330922e-02 3.157100e-02 5.079265e-02 4.960440e-02 4.922950e-02 5.383516e-02 -5.709951e-05 -3.668630e-05 2.082004e-05 4.733880e-05 -3.972757e-05 -8.103525e-06 8.086918e-05 3.875530e-05 -2.737608e-05 -7.596446e-05 -6.360321e-05 -6.702440e-05 -2.980888e-05 1.588254e-06 3.136630e-05 1.423407e-05 -3.097654e-05 1.625484e-05 2.580036e-05 3.162933e-05 3.629415e-05 2.454891e-05 1.628526e-05 5.131164e-06 4.451994e-03 -2.519503e-03 -9.222165e-04 4.593311e-02 1.791945e-02 -9.413430e-03
<VARIANCE> 42
 1.324123e-02 1.289067e-02 2.690412e-03 1.244799e-02 4.690899e-03 4.555485e-03 6.073250e-03 1.125261e-02 2.610181e-02 2.612686e-02 2.787297e-02 2.436664e-02 3.380091e-04 2.320523e-04 1.066735e-04 2.583622e-04 1.654278e-04 8.500998e-05 1.237752e-04 3.813827e-04 8.474894e-04 5.213415e-04 5.540100e-04 4.498044e-04 3.209680e-05 2.024178e-05 2.240595e-05 2.056725e-05 2.231786e-05 1.333620e-05 1.037696e-05 4.552506e-05 8.915873e-05 4.262023e-05 4.129254e-05 2.853177e-05 1.873967e-04 2.106298e-04 2.065551e-04 2.163404e-02 5.286328e-03 3.818498e-03
<GCONST> -2.414576e+02
<STATE> 7
<MEAN> 42
 3.390108e-02 2.492022e-02 -2.667450e-03 -2.408023e-02 1.940656e-02 7.538805e-03 -7.410019e-03 2.618333e-02 2.703832e-02 4.733968e-02 4.165012e-02 2.660308e-02 -7.162921e-06 -1.977634e-06 5.318150e-06 4.672096e-06 -6.121641e-06 1.743058e-06 8.308765e-06 3.608002e-06 -6.675837e-06 -7.102790e-08 -3.418769e-06 -1.865759e-06 -1.431022e-06 -1.764096e-06 -3.698151e-07 1.620235e-06 -4.297890e-07 -1.030729e-06 2.116979e-06 1.435493e-06 1.366698e-07 -9.111354e-07 -6.077644e-07 -8.074494e-08 3.549044e-03 8.255288e-04 1.677133e-03 3.372591e-02 1.256591e-02 -7.602187e-03
<VARIANCE> 42
 1.177541e-02 1.118837e-02 8.805001e-03 9.346271e-03 7.472218e-03 7.106371e-03 5.733542e-03 1.236044e-02 2.957817e-02 5.205244e-02 3.838939e-02 2.431999e-02 3.753749e-04 2.641298e-04 2.400832e-04 2.600274e-04 2.424818e-04 1.589283e-04 1.454939e-04 3.027156e-04 7.639625e-04 1.405794e-03 1.154083e-03 7.349225e-04 4.662304e-05 3.344883e-05 3.825488e-05 3.048184e-05 3.412837e-05 2.431756e-05 1.694654e-05 3.188538e-05 6.436381e-05 1.101048e-04 9.668582e-05 6.531357e-05 2.094182e-04 2.225727e-04 2.196505e-04 2.581906e-02 5.587298e-03 4.669275e-03
<GCONST> -2.287076e+02
<STATE> 8
<MEAN> 42
 3.726280e-02 2.339274e-02 -1.292057e-02 -2.934377e-02 2.362020e-02 1.727008e-03 -2.923618e-02 -7.064889e-03 3.200179e-02 3.276550e-02 8.091087e-02 3.735811e-02 -6.676065e-05 -4.501487e-05 2.168706e-05 5.604110e-05 -4.331412e-05 -1.122506e-05 1.061647e-04 2.050138e-04 1.751188e-04 8.201107e-05 -1.297923e-05 1.283879e-06 -3.188806e-05 -2.354684e-05 8.064786e-06 2.710741e-05 -1.953917e-05 -8.039122e-06 5.544570e-05 6.372816e-05 3.966130e-05 1.920305e-05 -4.849233e-06 -2.109948e-06 4.151187e-03 4.791740e-03 1.273513e-03 4.918868e-02 1.175594e-02 1.063914e-02
<VARIANCE> 42
 1.274421e-02 1.442608e-02 1.490021e-03 1.320744e-02 3.583869e-03 4.881611e-03 1.213073e-02 1.046069e-02 4.280021e-02 3.281849e-02 3.478506e-02 1.772856e-02 3.863815e-04 5.033156e-04 9.245829e-05 4.217222e-04 1.157262e-04 2.035885e-04 4.512275e-04 4.767973e-04 1.768638e-03 1.137016e-03 9.140352e-04 5.949214e-04 3.896159e-05 4.847430e-05 2.983008e-05 3.625395e-05 2.259193e-05 2.944519e-05 4.422674e-05 4.585147e-05 2.125375e-04 1.004370e-04 1.303492e-04 4.974952e-05 2.095740e-04 2.061133e-04 2.256453e-04 2.360747e-02 4.299382e-03 2.395373e-03
<GCONST> -2.280810e+02
<STATE> 9
<MEAN> 42
 -5.067548e-02 -3.411465e-02 1.275770e-02 4.199173e-02 -2.926307e-02 -1.516494e-02 6.526516e-02 7.443294e-02 3.624593e-02 -5.434420e-03 -2.014089e-02 -3.019863e-02 -8.763833e-03 -1.825311e-03 6.915678e-03 5.244127e-03 -7.777453e-03 2.528901e-03 2.209706e-02 2.949152e-02 2.195193e-02 1.130112e-02 3.765479e-03 -5.273116e-04 2.553705e-04 -1.222803e-04 -3.942524e-04 -1.314043e-04 3.048213e-04 -2.621933e-04 5.441061e-03 7.920020e-03 4.666933e-03 3.274137e-03 1.457856e-03 1.293985e-04 -4.277928e-03 -3.593620e-03 5.057097e-04 -3.180324e-02 -2.244858e-02 -5.555787e-02
<VARIANCE> 42
 2.602241e-03 5.064745e-03 4.369939e-03 2.401265e-03 1.940927e-03 4.184135e-03 4.022744e-03 7.892592e-03 7.354890e-03 5.827981e-03 4.491733e-03 8.459589e-03 2.055176e-04 3.915855e-04 3.899790e-04 1.994629e-04 2.025604e-04 3.496180e-04 2.973696e-04 3.207016e-04 4.583707e-04 5.894647e-04 4.998499e-04 3.493328e-04 6.573750e-05 7.757886e-05 9.015980e-05 4.876044e-05 6.058265e-05 6.950831e-05 4.222547e-05 4.725384e-05 5.249104e-05 6.355725e-05 6.662673e-05 5.005074e-05 2.137007e-05 6.175121e-05 2.228590e-04 2.359853e-03 3.482195e-03 1.816452e-03
<GCONST> -2.474099e+02
<STATE> 10
<MEAN> 42
 3.242495e-02 1.595713e-02 -1.051157e-02 -2.670449e-02 2.829485e-02 5.313291e-03 -3.253018e-02 5.150891e-03 5.951840e-03 1.682034e-02 1.187924e-02 1.619421e-02 -2.231479e-05 -4.423433e-06 1.778372e-05 1.297536e-05 -2.041980e-05 7.049530e-06 9.009047e-05 1.461672e-04 9.801623e-05 6.557495e-05 2.208241e-05 -7.066730e-06 1.408903e-05 2.614303e-06 -1.147590e-05 -8.488971e-06 1.237668e-05 -4.427573e-06 5.966384e-06 2.708655e-05 2.277750e-05 2.587101e-05 2.050444e-05 1.268327e-05 2.793810e-03 -1.648908e-03 -4.085511e-03 2.070512e-02 5.104795e-03 8.072116e-03
<VARIANCE> 42
 2.124734e-02 2.327722e-02 2.791977e-02 1.520832e-02 1.910324e-02 2.048861e-02 2.659783e-02 1.582679e-02 2.933615e-02 4.001253e-02 3.331445e-02 2.262009e-02 5.142693e-04 7.845958e-04 5.867974e-04 5.027215e-04 3.559706e-04 5.607270e-04 6.421407e-04 2.830738e-04 7.203517e-04 1.183923e-03 9.952884e-04 6.874077e-04 7.155890e-05 8.921530e-05 6.373727e-05 6.445272e-05 4.565932e-05 5.905289e-05 4.822436e-05 3.111489e-05 5.638484e-05 8.734397e-05 7.233423e-05 5.149471e-05 2.192032e-04 2.244153e-04 2.083584e-04 2.514739e-02 1.391861e-02 8.932467e-03
<GCONST> -2.113640e+02
<STATE> 11
<MEAN> 42
 -5.605061e-02 -2.745201e-02 2.546512e-02 4.162117e-02 -3.810238e-02 -5.249815e-03 1.175102e-01 1.508029e-01 9.459835e-02 4.001264e-02 5.531028e-03 -2.114719e-02 3.542879e-03 1.811536e-03 -1.739571e-03 -2.728190e-03 2.575188e-03 4.416762e-05 2.367175e-02 4.176814e-02 3.362139e-02 2.502825e-02 1.654615e-02 9.284070e-03 9.277329e-03 3.318877e-03 -5.951719e-03 -6.272471e-03 7.569720e-03 -1.311731e-03 -1.000787e-03 6.139348e-03 5.865458e-03 7.391479e-03 7.599792e-03 6.207225e-03 -5.868613e-03 -6.387651e-03 3.261660e-03 -2.183691e-02 -1.948955e-02 -1.054637e-01
<VARIANCE> 42
 5.936169e-03 8.884275e-03 1.016382e-02 4.567531e-03 5.776743e-03 8.482141e-03 6.227249e-03 1.155099e-02 1.369337e-02 1.248084e-02 9.692525e-03 1.229269e-02 5.518691e-04 5.806350e-04 7.098494e-04 3.874655e-04 4.911168e-04 5.178715e-04 3.695581e-04 5.591837e-04 6.978076e-04 8.872315e-04 8.604716e-04 6.942864e-04 9.633893e-05 5.644551e-05 8.505011e-05 5.526751e-05 7.696198e-05 4.864974e-05 5.940135e-05 9.570034e-05 8.515969e-05 8.349193e-05 8.415413e-05 8.075120e-05 5.600349e-05 1.629521e-04 4.221793e-04 5.874690e-03 6.340717e-03 3.698235e-03
<GCONST> -2.253153e+02
<STATE> 12
<MEAN> 42
 -3.599920e-02 -2.341445e-02 9.696070e-03 2.926473e-02 -2.040312e-02 -1.080452e-02 1.421611e-01 1.997489e-01 1.385185e-01 7.690023e-02 3.434445e-02 -1.187883e-03 1.943410e-02 1.041197e-02 -9.025003e-03 -1.491078e-02 1.414239e-02 7.861138e-04 1.602118e-02 4.417528e-02 3.935702e-02 3.464140e-02 2.846945e-02 2.037189e-02 1.180070e-02 7.255425e-03 -4.543282e-03 -9.481446e-03 8.179203e-03 1.425619e-03 -5.930119e-03 3.278923e-03 6.129091e-03 9.230154e-03 1.060658e-02 9.807983e-03 -5.550888e-03 -7.203672e-03 5.570823e-03 -1.973663e-03 -2.331252e-02 -1.348174e-01
<VARIANCE> 42
 7.612206e-03 1.478750e-02 1.450738e-02 7.223113e-03 7.558373e-03 1.320344e-02 7.757436e-03 1.380251e-02 1.877657e-02 1.989122e-02 1.694153e-02 1.804629e-02 6.972306e-04 6.065163e-04 5.862672e-04 5.052309e-04 4.926409e-04 4.247475e-04 6.188415e-04 9.178941e-04 9.630176e-04 1.105586e-03 1.125437e-03 1.005167e-03 1.230823e-04 9.861773e-05 1.419988e-04 7.537709e-05 1.090227e-04 9.155393e-05 9.854445e-05 1.281663e-04 1.090963e-04 1.307558e-04 1.225408e-04 9.733290e-05 8.669965e-05 2.901111e-04 5.433031e-04 1.078407e-02 1.033066e-02 4.499681e-03
<GCONST> -2.113402e+02
<STATE> 13
<MEAN> 42
 7.465570e-02 1.111694e-01 4.644740e-02 -9.930786e-02 1.367456e-02 8.171967e-02 -3.707281e-02 2.504992e-02 4.026441e-02 4.057896e-02 3.329742e-02 2.393442e-02 3.041555e-04 2.025077e-04 -1.022852e-04 -2.530129e-04 2.033974e-04 5.194539e-05 2.868395e-05 4.134830e-04 4.211724e-04 4.339421e-04 4.078883e-04 3.349451e-04 1.051856e-04 7.826858e-05 -2.696697e-05 -9.156024e-05 6.674537e-05 2.586158e-05 -9.085339e-05 -1.511842e-05 3.625127e-05 8.663362e-05 1.123904e-04 1.153788e-04 3.387847e-03 -4.545237e-03 1.101321e-04 4.194481e-02 7.642450e-02 5.660685e-03
<VARIANCE> 42
 3.823353e-02 1.854856e-01 6.936870e-02 9.481511e-02 7.583159e-03 1.180863e-01 3.794627e-02 2.468756e-02 1.328893e-02 2.510419e-02 2.292283e-02 1.251336e-02 1.104026e-03 5.945255e-03 2.222006e-03 2.972614e-03 1.778499e-04 3.810605e-03 1.365177e-03 3.661260e-04 4.789448e-04 8.263036e-04 7.200782e-04 3.649676e-04 8.257318e-05 5.435022e-04 2.420885e-04 2.524866e-04 2.657991e-05 3.723061e-04 1.472889e-04 2.919064e-05 5.090930e-05 8.069768e-05 6.730310e-05 3.361046e-05 1.983098e-04 1.950414e-04 2.168683e-04 2.847458e-02 1.080445e-01 1.198737e-02
<GCONST> -1.915598e+02
<STATE> 14
<MEAN> 42
 2.826023e-01 3.758592e-01 9.282565e-02 -3.316449e-01 9.658671e-02 2.332651e-01 -1.209073e-01 9.757809e-02 2.240589e-01 2.883191e-01 3.030219e-01 2.741647e-01 3.656296e-02 2.973267e-02 -6.849617e-03 -3.311872e-02 2.177327e-02 1.154651e-02 -3.265539e-02 -8.473265e-03 1.484870e-02 3.664690e-02 4.663698e-02 4.483272e-02 4.773052e-03 4.137867e-03 -6.244472e-04 -4.452409e-03 2.709821e-03 1.745371e-03 -8.377132e-03 -7.302793e-03 -9.903088e-04 4.044926e-03 6.443501e-03 6.850298e-03 2.215228e-02 4.644318e-03 1.260952e-02 2.734501e-01 2.559829e-01 1.498694e-02
<VARIANCE> 42
 2.002492e-01 6.082741e-01 3.255467e-01 3.249501e-01 1.108670e-01 4.201538e-01 2.055966e-01 1.624308e-01 1.111839e-01 1.374157e-01 1.316354e-01 1.143106e-01 1.067034e-02 2.585432e-02 1.378148e-02 1.482412e-02 5.771846e-03 1.717467e-02 9.007946e-03 5.427276e-03 5.698899e-03 8.084486e-03 7.521618e-03 6.201592e-03 7.506479e-04 2.273601e-03 1.327350e-03 1.178672e-03 4.732005e-04 1.617232e-03 7.694095e-04 4.824745e-04 4.717260e-04 5.536409e-04 5.105077e-04 4.096398e-04 1.323261e-03 1.561211e-03 1.024959e-03 1.407352e-01 3.648258e-01 9.364840e-02
<GCONST> -1.091867e+02
<STATE> 15
<MEAN> 42
 3.109222e-01 3.112604e-01 -4.160766e-03 -3.099954e-01 1.605249e-01 1.495025e-01 -3.474704e-01 -3.412771e-01 -8.662282e-02 3.485267e-01 4.869720e-01 4.779503e-01 -1.351714e-02 -9.344073e-03 4.188819e-03 1.143679e-02 -8.875489e-03 -2.646827e-03 -1.354818e-02 -4.241147e-02 -4.235220e-02 -3.344732e-02 -2.669845e-02 -1.807047e-02 -4.216149e-03 -3.727050e-03 4.867798e-04 3.969979e-03 -2.355381e-03 -1.633547e-03 3.503061e-03 1.899655e-03 -9.287163e-04 -4.157194e-03 -5.367852e-03 -5.370302e-03 4.820884e-02 2.050184e-02 7.428532e-03 4.094619e-01 2.366088e-01 3.017103e-01
<VARIANCE> 42
 1.333200e-01 2.007878e-01 2.507626e-01 1.026499e-01 1.418353e-01 1.924596e-01 1.453078e-01 4.771162e-01 7.451279e-01 5.868950e-01 4.734627e-01 3.119681e-01 5.987369e-03 7.555163e-03 5.505485e-03 5.399142e-03 3.870534e-03 5.046314e-03 5.311890e-03 1.320937e-02 1.869323e-02 2.121386e-02 2.201634e-02 1.601682e-02 5.526472e-04 6.880340e-04 6.082215e-04 4.685505e-04 4.108035e-04 5.106275e-04 4.561738e-04 1.300702e-03 1.720563e-03 1.908496e-03 1.981544e-03 1.380244e-03 1.689561e-03 2.051049e-03 1.532002e-03 2.722511e-01 1.709465e-01 2.348792e-01
<GCONST> -1.042908e+02
<STATE> 16
<MEAN> 42
 -1.100270e-01 -4.898886e-02 5.579726e-02 7.883286e-02 -7.936955e-02 -2.552427e-03 -9.054210e-02 -3.381978e-01 -2.747293e-01 -2.236411e-01 -1.649556e-01 -1.139126e-01 -6.278089e-03 -1.188589e-02 -5.599483e-03 9.032113e-03 -2.908082e-04 -8.835657e-03 2.255473e-02 4.541374e-02 3.309188e-02 1.297191e-02 2.426591e-03 -5.427981e-03 6.095852e-03 6.393302e-03 3.031204e-04 -6.283601e-03 2.904382e-03 3.370860e-03 -2.239418e-03 1.112203e-03 5.606485e-03 1.004724e-02 1.070478e-02 9.982985e-03 -3.646950e-03 3.269806e-02 6.953572e-03 -1.227759e-01 4.598264e-03 1.784560e-01
<VARIANCE> 42
 1.797892e-02 2.653772e-02 3.981823e-02 1.123532e-02 2.139207e-02 2.823014e-02 1.313751e-01 2.024840e-01 2.489194e-01 5.887995e-02 2.110159e-02 1.812902e-02 8.136685e-04 1.033210e-03 1.093045e-03 6.500912e-04 6.968942e-04 8.664084e-04 1.649824e-03 3.047610e-03 5.615446e-03 2.345765e-03 1.553009e-03 9.861439e-04 1.085480e-04 1.459628e-04 1.425748e-04 9.230050e-05 8.907732e-05 1.179881e-04 1.324425e-04 2.889050e-04 5.135983e-04 4.405652e-04 2.989033e-04 1.829150e-04 5.280047e-04 9.708010e-04 1.107680e-03 1.447461e-02 2.379837e-02 1.174008e-01
<GCONST> -1.755775e+02
<STATE> 17
<MEAN> 42
 3.329498e-02 2.596228e-02 -1.670685e-02 -3.661566e-02 2.862959e-02 4.828423e-03 -3.803779e-02 2.775239e-02 7.220326e-02 6.145228e-02 5.549429e-02 7.109641e-02 7.090086e-05 3.062561e-05 -4.023167e-05 -5.132129e-05 5.500190e-05 -3.593159e-06 1.538575e-04 3.969415e-04 3.835195e-04 3.113115e-04 2.075809e-04 1.275346e-04 3.309163e-05 4.563484e-05 1.250156e-05 -3.934530e-05 1.009669e-05 2.931613e-05 -3.378624e-06 3.592340e-07 2.048768e-05 3.958766e-05 4.707119e-05 4.844655e-05 1.866945e-03 2.731509e-03 -3.258120e-03 5.948333e-02 9.457486e-03 -7.414835e-03
<VARIANCE> 42
 2.598967e-02 3.017367e-02 6.134475e-02 1.256512e-02 3.640226e-02 3.918073e-02 1.672995e-02 2.102107e-02 6.256554e-02 5.781110e-02 4.791025e-02 4.695762e-02 5.612851e-04 7.148903e-04 1.009703e-03 3.856768e-04 6.084350e-04 7.231764e-04 4.824511e-04 5.228745e-04 7.313204e-04 6.861705e-04 9.885281e-04 1.145556e-03 9.753116e-05 1.216659e-04 1.195408e-04 7.971157e-05 7.842844e-05 9.675905e-05 6.570360e-05 8.002275e-05 7.959874e-05 6.243888e-05 9.708437e-05 1.063708e-04 2.093722e-04 2.337630e-04 2.440275e-04 2.975915e-02 2.199655e-02 1.154636e-02
<GCONST> -1.997961e+02
<STATE> 18
<MEAN> 42
 3.233295e-02 4.715991e-02 1.086045e-02 -3.234273e-02 7.033618e-04 2.292789e-02 -8.414896e-03 4.472310e-02 7.046168e-02 4.122997e-02 4.996740e-02 3.641589e-02 1.461885e-04 7.397193e-05 -7.229170e-05 -1.110305e-04 1.087759e-04 3.995898e-06 3.997277e-04 1.061851e-03 9.940926e-04 6.581889e-04 4.457081e-04 2.878048e-04 4.842264e-05 8.929193e-05 4.118326e-05 -6.804265e-05 2.936439e-06 6.674025e-05 -8.927444e-06 1.902851e-05 1.737020e-05 3.036187e-05 5.676981e-05 6.841207e-05 2.970847e-03 -3.681159e-03 -2.143604e-03 3.983754e-02 2.858249e-02 -1.966541e-02
<VARIANCE> 42
 1.041200e-02 3.343077e-02 8.794099e-03 1.948966e-02 1.224723e-03 1.845413e-02 2.749678e-02 4.202504e-02 5.606842e-02 3.950099e-02 3.533060e-02 2.783477e-02 3.953753e-04 1.205629e-03 4.637569e-04 6.846251e-04 1.286964e-04 7.358892e-04 1.028928e-03 1.379123e-03 1.639612e-03 1.336937e-03 1.181277e-03 9.317376e-04 6.610670e-05 1.342451e-04 9.261243e-05 7.701642e-05 4.592363e-05 9.640905e-05 1.051850e-04 1.598167e-04 1.524245e-04 1.337693e-04 1.193713e-04 9.696271e-05 2.135769e-04 2.277033e-04 2.301660e-04 3.192454e-02 1.644989e-02 1.649528e-02
<GCONST> -2.031393e+02
<STATE> 19
<MEAN> 42
 4.123457e-02 6.979017e-02 2.610357e-02 -4.759967e-02 6.151926e-04 4.157911e-02 -2.558043e-02 4.461972e-02 5.088108e-02 4.902798e-02 5.582533e-02 5.081011e-02 4.601959e-05 3.452855e-05 -1.129624e-05 -3.985839e-05 2.798418e-05 1.249125e-05 1.235657e-04 2.773915e-04 2.460349e-04 1.290135e-04 7.564831e-05 4.092662e-05 6.583537e-06 -1.533809e-06 -7.776282e-06 -2.272182e-06 7.298964e-06 -4.556676e-06 1.565182e-06 -2.398700e-06 -1.721392e-05 -1.528093e-05 -3.335706e-06 -3.542387e-06 3.837310e-03 -3.316168e-03 -2.085490e-03 4.756497e-02 4.849353e-02 -6.996088e-03
<VARIANCE> 42
 1.180217e-02 3.225362e-02 1.588721e-02 1.797726e-02 5.775970e-03 2.119470e-02 1.845130e-02 5.029567e-02 2.984303e-02 2.798125e-02 3.037328e-02 2.753916e-02 3.680612e-04 1.039487e-03 6.092848e-04 5.523622e-04 2.306558e-04 7.311192e-04 6.624610e-04 1.551390e-03 8.785757e-04 9.419803e-04 1.060141e-03 9.279943e-04 6.635040e-05 1.384577e-04 8.311477e-05 8.166544e-05 4.059364e-05 9.399166e-05 7.338131e-05 1.565291e-04 8.603802e-05 1.159542e-04 1.312643e-04 1.110226e-04 2.024314e-04 2.116836e-04 2.083833e-04 2.192619e-02 1.958037e-02 1.646077e-02
<GCONST> -2.046584e+02
<STATE> 20
<MEAN> 42
 3.139557e-02 3.963536e-02 -1.612613e-03 -3.802406e-02 1.790444e-02 1.124454e-02 -1.596895e-02 1.402136e-02 1.504557e-02 2.331926e-02 4.485910e-02 4.334022e-02 5.097303e-06 2.155715e-05 1.676820e-05 -1.333273e-05 -5.950380e-06 1.910425e-05 6.118411e-06 3.670092e-05 6.551412e-05 3.945568e-05 2.795472e-05 2.245596e-05 -1.757917e-06 -1.019192e-06 7.432764e-07 1.388440e-06 -1.109557e-06 -2.693232e-07 -3.344214e-06 -1.167513e-05 -1.317465e-05 -6.259519e-06 -4.051315e-06 -2.942453e-06 2.963757e-03 -9.371529e-04 2.484338e-03 3.256211e-02 2.866489e-02 6.021439e-03
<VARIANCE> 42
 2.059708e-02 1.854170e-02 1.731093e-02 1.519291e-02 1.427500e-02 1.294611e-02 1.968753e-02 3.830475e-02 3.913670e-02 3.033698e-02 3.774695e-02 3.612278e-02 6.275087e-04 4.231772e-04 5.466136e-04 3.887781e-04 4.821047e-04 3.282592e-04 3.894631e-04 6.734486e-04 8.247827e-04 6.832877e-04 1.048588e-03 9.730002e-04 7.007988e-05 4.352602e-05 6.260918e-05 4.117266e-05 5.558130e-05 3.560226e-05 3.267627e-05 5.025532e-05 6.076544e-05 5.989536e-05 1.014228e-04 8.642436e-05 2.142510e-04 2.247166e-04 2.103056e-04 2.244014e-02 1.408619e-02 1.972951e-02
<GCONST> -2.124832e+02
<STATE> 21
<MEAN> 42
 2.586087e-03 8.585253e-02 4.180635e-02 -6.588325e-02 1.220672e-02 2.012161e-02 -3.724024e-02 -2.136975e-02 -6.386372e-02 -4.071414e-02 7.776643e-02 -2.081310e-02 2.333826e-04 2.636843e-04 2.824105e-05 -2.494879e-04 1.041086e-04 1.469959e-04 1.157725e-04 4.213982e-04 4.765763e-04 3.884795e-04 3.156364e-04 2.626858e-04 -3.908754e-05 -2.536880e-05 1.347945e-05 3.207453e-05 -2.614891e-05 -5.917822e-06 -4.744164e-05 -1.388206e-04 -1.211775e-04 -7.950284e-05 -7.041200e-05 -4.249298e-05 5.530213e-03 3.033572e-03 -8.120622e-03 4.883610e-03 8.370218e-02 4.427155e-02
<VARIANCE> 42
 2.375703e-02 1.531360e-02 1.911391e-02 1.405769e-02 1.640763e-02 1.125397e-02 1.157166e-02 1.042750e-01 7.515030e-02 4.501775e-02 2.845729e-02 2.450537e-02 6.632850e-04 2.736701e-04 6.369902e-04 3.108752e-04 5.837433e-04 2.896345e-04 2.543036e-04 1.905949e-03 1.118695e-03 6.619941e-04 5.711797e-04 3.443515e-04 8.241470e-05 4.675278e-05 7.873522e-05 4.521605e-05 6.907376e-05 4.218613e-05 1.973526e-05 1.163983e-04 8.383298e-05 5.493926e-05 5.210591e-05 3.213386e-05 1.887684e-04 2.077568e-04 1.594921e-04 2.277382e-02 1.133896e-02 3.005949e-02
<GCONST> -2.132120e+02
<STATE> 22
<MEAN> 42
 2.823132e-02 3.244955e-02 -2.397350e-03 -2.784867e-02 1.888599e-02 1.003308e-02 -1.588565e-02 2.842381e-02 2.873167e-02 2.726098e-02 4.073812e-02 3.657897e-02 1.906910e-05 -5.382060e-05 -7.273391e-05 1.731818e-05 4.620509e-05 -6.371587e-05 1.118731e-04 2.407469e-04 1.307630e-04 4.964114e-05 5.419410e-06 -2.181405e-05 2.419371e-06 2.567111e-06 4.649564e-08 -2.515515e-06 1.031487e-06 1.362907e-06 -1.602690e-05 -2.522105e-05 -1.052352e-05 -4.901862e-06 1.762364e-07 6.914161e-08 2.511282e-03 -1.694813e-03 -7.199367e-04 3.134381e-02 2.070946e-02 -3.836933e-03
<VARIANCE> 42
 9.316294e-03 1.115778e-02 3.047231e-03 9.369126e-03 3.395187e-03 4.959191e-03 1.077737e-02 4.078857e-02 2.576433e-02 1.475541e-02 1.831636e-02 1.797867e-02 2.266047e-04 2.489538e-04 1.717859e-04 1.947216e-04 1.381994e-04 1.540835e-04 1.857066e-04 7.097359e-04 5.132395e-04 3.118876e-04 3.881679e-04 3.372536e-04 4.498227e-05 3.698978e-05 4.399959e-05 2.998499e-05 3.552998e-05 2.933529e-05 1.894537e-05 5.508268e-05 4.184996e-05 2.649272e-05 3.268152e-05 2.752527e-05 1.284204e-04 1.552939e-04 1.885425e-04 1.152136e-02 6.445369e-03 1.434843e-02
<GCONST> -2.394971e+02
<STATE> 23
<MEAN> 42
 1.462388e-02 3.711949e-02 7.962787e-03 -2.420676e-02 2.771906e-03 2.069697e-02 -1.251652e-02 1.392922e-02 2.665167e-02 3.889559e-02 3.360624e-02 1.765072e-02 -1.150648e-04 -9.064707e-05 2.383667e-05 1.032817e-04 -7.117595e-05 -3.343797e-05 1.516275e-04 1.222675e-04 7.039522e-05 -1.837889e-05 -8.643013e-05 -1.957881e-04 -3.689598e-06 1.008560e-05 1.356419e-05 -3.056792e-06 -8.753292e-06 1.203065e-05 6.079717e-07 -1.089591e-05 4.000576e-07 3.019431e-06 4.944088e-06 5.075035e-06 9.511712e-04 2.137879e-03 2.560906e-03 2.672476e-02 2.717158e-02 -2.595930e-03
<VARIANCE> 42
 3.677989e-03 1.567365e-02 6.162697e-03 8.053296e-03 1.074617e-03 1.000583e-02 1.885617e-02 5.196173e-02 5.122323e-02 2.601921e-02 1.655506e-02 1.334820e-02 8.925355e-05 2.143596e-04 7.960469e-05 1.318642e-04 3.117537e-05 1.249793e-04 2.820074e-04 8.082910e-04 8.713134e-04 6.583169e-04 3.481607e-04 1.833101e-04 1.643816e-05 2.079979e-05 9.406329e-06 1.623873e-05 7.875018e-06 1.110340e-05 1.973340e-05 7.206186e-05 8.164538e-05 6.796153e-05 3.141439e-05 1.418100e-05 1.164905e-04 1.310576e-04 1.694299e-04 1.217284e-02 1.337341e-02 2.899156e-02
<GCONST> -2.450437e+02
<STATE> 24
<MEAN> 42
 -2.310467e-02 -1.096787e-02 7.989168e-03 1.692310e-02 -1.449551e-02 -6.816893e-03 7.199924e-04 1.166030e-01 -3.495481e-02 -1.423809e-02 -4.004508e-02 -2.084348e-02 -3.809704e-03 -1.174712e-03 2.604578e-03 2.490924e-03 -3.163580e-03 7.269341e-04 5.887866e-03 8.140692e-03 5.259729e-03 2.172256e-03 -9.614975e-04 -1.622196e-03 -1.671371e-04 3.457296e-04 5.278974e-04 -8.214546e-05 -3.142810e-04 4.324724e-04 1.282661e-03 1.385473e-03 9.397822e-04 1.925482e-04 -7.815648e-05 -2.488732e-04 4.352597e-04 3.465730e-04 -5.093098e-04 -3.341495e-02 -5.282052e-03 -3.289653e-02
<VARIANCE> 42
 3.147821e-03 3.877207e-03 2.140900e-03 2.842056e-03 1.413144e-03 1.863936e-03 2.700927e-03 9.883121e-02 7.569929e-03 3.442896e-03 5.678580e-03 2.059155e-03 1.438664e-04 8.623698e-05 1.476503e-04 7.743469e-05 1.224321e-04 8.118093e-05 1.162680e-04 2.364491e-04 1.263876e-04 8.150722e-05 8.747441e-05 6.969964e-05 4.644572e-05 2.797284e-05 3.972416e-05 2.719316e-05 3.598052e-05 2.238675e-05 1.822273e-05 4.775159e-05 2.121872e-05 2.272763e-05 2.621124e-05 1.901427e-05 2.647219e-05 2.713309e-05 7.535012e-05 3.204605e-03 2.503553e-03 9.092330e-03
<GCONST> -2.715168e+02
<STATE> 25
<MEAN> 42
 2.331812e-02 2.560496e-02 -6.689633e-03 -3.932203e-02 1.304976e-02 1.235577e-02 -3.318278e-03 3.747661e-02 4.325642e-02 6.682281e-02 5.276038e-02 1.051886e-01 -6.370741e-06 1.406061e-05 2.108629e-05 -3.077759e-06 -1.370137e-05 1.790645e-05 6.873573e-05 9.206583e-05 5.515190e-05 1.349115e-05 -3.942056e-06 -1.187960e-05 1.694812e-05 8.184616e-06 -8.157876e-06 -1.269187e-05 1.210119e-05 -1.846238e-07 1.707074e-05 2.875777e-05 1.536430e-05 5.543111e-06 3.412970e-08 -1.148674e-06 -3.895278e-04 6.484907e-03 2.978978e-03 5.490880e-02 1.767414e-02 -8.322043e-03
<VARIANCE> 42
 1.580667e-02 9.774392e-03 2.994705e-03 1.208874e-02 6.931306e-03 2.455121e-03 3.019401e-02 1.408088e-01 6.447435e-02 3.793812e-02 2.096162e-02 3.623023e-02 5.779894e-04 3.445121e-04 1.589244e-04 4.239399e-04 2.805828e-04 1.099594e-04 4.946099e-04 2.084739e-03 1.005719e-03 1.023989e-03 8.301445e-04 5.983182e-04 6.731153e-05 5.935295e-05 4.535387e-05 5.266898e-05 4.115718e-05 3.626231e-05 2.746797e-05 1.479005e-04 9.367664e-05 1.416117e-04 1.225464e-04 8.208610e-05 2.137457e-04 1.818137e-04 1.553576e-04 1.332448e-02 4.286100e-03 4.780853e-02
<GCONST> -2.168034e+02
<STATE> 26
<MEAN> 42
 -2.926880e-02 -1.079910e-02 1.505392e-02 2.026598e-02 -2.087791e-02 -2.758864e-03 3.224541e-02 1.160300e-01 5.288319e-03 -5.384628e-03 -3.144899e-02 -2.593635e-02 -1.621443e-03 6.296744e-04 2.318228e-03 4.538390e-04 -1.986626e-03 1.447824e-03 1.319522e-02 1.865937e-02 1.303166e-02 5.379640e-03 1.099075e-03 -1.481810e-03 7.658814e-04 8.340595e-05 -6.670642e-04 -4.640349e-04 6.975792e-04 -3.211861e-04 2.404451e-03 4.859439e-03 3.913207e-03 2.458975e-03 1.656312e-03 1.022617e-03 -6.792282e-04 -1.677626e-03 -2.478092e-03 -3.173713e-02 -6.277870e-03 -5.059156e-02
<VARIANCE> 42
 4.898522e-03 5.199873e-03 3.853172e-03 3.997916e-03 2.791096e-03 3.163569e-03 4.195547e-03 1.033614e-01 7.843225e-03 5.977825e-03 5.640234e-03 3.605557e-03 1.427767e-04 1.282341e-04 2.072362e-04 8.324527e-05 1.447909e-04 1.327946e-04 2.509356e-04 5.473936e-04 2.860261e-04 2.072337e-04 1.497649e-04 1.091781e-04 2.749981e-05 2.222568e-05 3.322533e-05 1.645690e-05 2.430682e-05 2.128547e-05 3.529636e-05 8.038196e-05 5.153740e-05 5.161377e-05 4.569668e-05 3.889536e-05 4.399185e-05 3.391330e-05 1.352122e-04 4.000936e-03 3.335613e-03 1.089392e-02
<GCONST> -2.569224e+02
<STATE> 27
<MEAN> 42
 3.632745e-02 -1.233082e-03 -2.471228e-02 -4.665297e-03 2.360643e-02 -1.499190e-02 -4.449919e-02 1.642116e-02 2.040260e-02 2.673289e-03 -7.174388e-04 1.432259e-02 1.021556e-05 2.244156e-05 1.269089e-05 -1.702673e-05 -1.275184e-06 1.686582e-05 7.381873e-05 1.350376e-04 1.209879e-04 8.071688e-05 4.407566e-05 2.329762e-05 -6.990626e-06 -1.749000e-06 5.101360e-06 4.072201e-06 -6.499926e-06 1.239975e-06 1.201327e-05 3.257749e-05 3.908256e-05 2.743039e-05 2.094884e-05 1.222147e-05 2.284807e-03 -5.689168e-04 -9.226914e-03 1.783182e-02 -1.375197e-02 2.093086e-03
<VARIANCE> 42
 2.381403e-02 9.437856e-03 5.427313e-03 1.525726e-02 1.237889e-02 1.487729e-03 3.585780e-02 3.491497e-02 3.517484e-02 2.871535e-02 2.820486e-02 2.357586e-02 9.347400e-04 4.023892e-04 1.932934e-04 6.202398e-04 4.673489e-04 6.509657e-05 9.566046e-04 1.320129e-03 1.758088e-03 1.680844e-03 1.468668e-03 1.078015e-03 1.203408e-04 5.514508e-05 3.712654e-05 7.845891e-05 6.561989e-05 1.632157e-05 7.348814e-05 1.514936e-04 2.252130e-04 2.127447e-04 1.798250e-04 1.257887e-04 2.237134e-04 2.258337e-04 1.304199e-04 2.475405e-02 2.459820e-03 1.714122e-02
<GCONST> -2.115453e+02
<STATE> 28
<MEAN> 42
 4.356062e-02 6.262517e-02 1.408472e-02 -4.269599e-02 1.871441e-02 4.078003e-02 -3.640929e-03 6.814584e-02 1.073622e-01 1.108018e-01 9.658135e-02 9.052299e-02 -4.823916e-05 -8.963456e-06 3.938263e-05 2.782317e-05 -4.410303e-05 1.427418e-05 1.406165e-04 1.865344e-04 1.516924e-04 2.433785e-05 2.006273e-05 -2.501608e-05 -1.063701e-05 -3.609686e-06 6.617604e-06 7.133551e-06 -8.398952e-06 1.447275e-06 2.670502e-05 4.545292e-05 4.179929e-05 1.817297e-05 1.319538e-05 -3.817072e-06 5.116869e-03 2.218411e-03 -4.345674e-03 8.109052e-02 3.864486e-02 -3.124846e-02
<VARIANCE> 42
 1.031511e-02 1.478429e-02 4.005907e-03 1.153315e-02 3.491862e-03 6.915004e-03 1.433091e-02 8.412907e-02 1.119999e-01 8.668689e-02 5.904535e-02 4.859575e-02 3.729133e-04 3.288558e-04 2.240523e-04 2.948611e-04 2.180310e-04 1.836142e-04 2.709098e-04 1.407695e-03 2.175462e-03 1.832320e-03 1.488722e-03 1.251979e-03 7.675878e-05 5.358674e-05 5.793221e-05 5.069048e-05 5.430978e-05 3.657632e-05 1.970145e-05 9.119030e-05 1.586219e-04 1.517487e-04 1.263907e-04 1.108604e-04 1.925564e-04 2.030719e-04 2.052185e-04 3.769145e-02 8.753809e-03 3.499914e-02
<GCONST> -2.109784e+02
<STATE> 29
<MEAN> 42
 3.970645e-02 5.980323e-02 1.525424e-02 -4.014072e-02 1.600671e-02 3.937323e-02 1.612045e-03 7.509394e-02 1.069385e-01 1.014712e-01 8.988219e-02 8.432510e-02 -2.975680e-04 -2.285407e-05 2.722688e-04 1.574779e-04 -2.815225e-04 1.149309e-04 1.401671e-03 2.120668e-03 1.719751e-03 8.417694e-04 5.968551e-04 7.515738e-05 5.270111e-05 2.825132e-05 -2.778746e-05 -3.662076e-05 4.504457e-05 4.177201e-07 1.093754e-04 3.997719e-04 3.490597e-04 2.765986e-04 2.947946e-04 1.435579e-04 4.605565e-03 1.685846e-03 -4.742635e-03 7.408886e-02 3.686203e-02 -3.532372e-02
<VARIANCE> 42
 1.088531e-02 1.438048e-02 4.021642e-03 1.151009e-02 3.909855e-03 6.601931e-03 1.512432e-02 9.256407e-02 1.085489e-01 7.084214e-02 5.835996e-02 4.954483e-02 3.759237e-04 2.941240e-04 2.087189e-04 2.828144e-04 2.206291e-04 1.582760e-04 3.410538e-04 1.636462e-03 2.239269e-03 1.712220e-03 1.418730e-03 1.237945e-03 7.797410e-05 4.536169e-05 5.592182e-05 4.771275e-05 5.599298e-05 3.122058e-05 2.471227e-05 1.078395e-04 1.641795e-04 1.398731e-04 1.188312e-04 1.075506e-04 1.916008e-04 2.064119e-04 1.681153e-04 3.614458e-02 8.470627e-03 3.580279e-02
<GCONST> -2.113894e+02
<STATE> 30
<MEAN> 42
 -3.114947e-02 -3.854677e-03 2.401794e-02 1.792447e-02 -2.596368e-02 4.933264e-03 9.012218e-02 1.597930e-01 9.189231e-02 3.123237e-02 2.629790e-03 -2.244335e-02 1.265461e-03 3.133337e-03 1.830485e-03 -2.163138e-03 -1.967850e-04 2.436448e-03 1.808926e-02 3.406477e-02 2.987257e-02 1.844901e-02 1.309812e-02 4.842645e-03 3.640332e-03 2.707750e-03 -9.417843e-04 -3.106600e-03 2.340673e-03 9.274877e-04 -5.772007e-04 4.192355e-03 3.909589e-03 4.812651e-03 5.133722e-03 3.724754e-03 -2.891692e-03 -5.776832e-03 4.066326e-03 -1.744650e-02 -5.644500e-03 -9.810561e-02
<VARIANCE> 42
 5.704890e-03 7.800225e-03 5.253458e-03 5.554226e-03 3.738975e-03 4.983690e-03 1.021125e-02 7.440513e-02 1.201272e-02 8.800799e-03 7.982530e-03 5.586549e-03 4.120888e-04 3.411705e-04 2.051981e-04 3.259753e-04 2.217243e-04 1.754766e-04 9.690952e-04 1.536147e-03 1.205139e-03 7.686043e-04 6.077503e-04 5.569461e-04 6.327545e-05 3.765482e-05 5.443527e-05 3.708599e-05 4.990543e-05 3.086754e-05 9.271254e-05 1.140850e-04 7.820645e-05 5.022410e-05 6.285205e-05 7.971303e-05 6.464252e-05 1.042270e-04 1.922602e-04 4.969652e-03 5.388574e-03 1.384754e-02
<GCONST> -2.312635e+02
<STATE> 31
<MEAN> 42
 -2.289396e-02 4.788347e-03 2.439103e-02 9.466432e-03 -2.192641e-02 9.399589e-03 1.053429e-01 1.956881e-01 1.254374e-01 5.584126e-02 2.294878e-02 -1.152856e-02 7.910639e-03 8.099128e-03 1.748713e-04 -7.915191e-03 3.964494e-03 4.158228e-03 1.445640e-02 3.599763e-02 3.236758e-02 2.375333e-02 1.949662e-02 1.082431e-02 6.697723e-03 4.928022e-03 -1.745642e-03 -5.759973e-03 4.231841e-03 1.659345e-03 -3.677756e-03 1.733385e-03 2.399128e-03 5.119730e-03 6.219604e-03 5.883644e-03 -2.869062e-03 -6.528998e-03 6.511207e-03 -4.768539e-03 -2.406850e-03 -1.191612e-01
<VARIANCE> 42
 6.122604e-03 9.031517e-03 4.867671e-03 6.669913e-03 3.704183e-03 5.242867e-03 1.487784e-02 8.909873e-02 1.937210e-02 1.209511e-02 1.083038e-02 7.862590e-03 5.611405e-04 3.567436e-04 3.064469e-04 3.830416e-04 3.419909e-04 1.956736e-04 1.165363e-03 1.885825e-03 1.449658e-03 8.473374e-04 7.553718e-04 8.237009e-04 7.150277e-05 5.850660e-05 6.184566e-05 4.938459e-05 5.279992e-05 4.317735e-05 7.502330e-05 1.412680e-04 7.450653e-05 6.437528e-05 9.046242e-05 1.002794e-04 7.631666e-05 1.648483e-04 2.839416e-04 6.703582e-03 6.235089e-03 1.935459e-02
<GCONST> -2.222014e+02
<STATE> 32
<MEAN> 42
 -5.764168e-03 1.983678e-02 2.232590e-02 -6.557140e-03 -1.227279e-02 1.596269e-02 1.130362e-01 2.303833e-01 1.590005e-01 8.509745e-02 5.003171e-02 7.561766e-03 1.702536e-02 1.492411e-02 -2.078745e-03 -1.587725e-02 9.604278e-03 6.511544e-03 7.336624e-03 3.447717e-02 3.315039e-02 2.895643e-02 2.671558e-02 1.898091e-02 9.074355e-03 6.783390e-03 -2.254915e-03 -7.921373e-03 5.621319e-03 2.331764e-03 -7.079124e-03 -1.591077e-03 7.551016e-04 5.131359e-03 7.102381e-03 8.051719e-03 -2.190134e-03 -7.047282e-03 8.489151e-03 1.489170e-02 4.657563e-03 -1.363148e-01
<VARIANCE> 42
 7.060300e-03 9.957075e-03 4.509311e-03 7.915268e-03 4.008855e-03 5.245799e-03 2.060340e-02 1.114113e-01 2.952724e-02 1.610208e-02 1.440991e-02 1.167236e-02 6.993276e-04 4.161216e-04 4.451200e-04 4.451310e-04 4.663055e-04 2.592742e-04 1.196812e-03 2.333868e-03 1.693877e-03 9.316701e-04 9.494116e-04 1.111219e-03 9.309169e-05 9.322134e-05 6.941804e-05 7.536663e-05 5.846886e-05 5.858484e-05 7.986354e-05 2.227679e-04 1.411996e-04 1.212834e-04 1.405348e-04 1.132126e-04 8.954880e-05 2.479025e-04 3.896788e-04 9.030442e-03 6.864368e-03 2.693668e-02
<GCONST> -2.117054e+02
<STATE> 33
<MEAN> 42
 2.179574e-02 4.274100e-02 1.769793e-02 -3.175831e-02 3.803343e-03 2.522529e-02 1.106895e-01 2.609796e-01 1.916640e-01 1.194326e-01 8.536889e-02 3.708484e-02 2.745187e-02 2.292433e-02 -4.483726e-03 -2.512698e-02 1.594424e-02 9.354166e-03 -2.818055e-03 2.921034e-02 3.238345e-02 3.416054e-02 3.501929e-02 2.928940e-02 1.030898e-02 7.932741e-03 -2.355139e-03 -9.157266e-03 6.258345e-03 2.833130e-03 -1.006504e-02 -5.320165e-03 -7.996942e-04 5.165372e-03 8.160884e-03 1.015712e-02 -6.184541e-04 -7.478903e-03 9.953207e-03 4.319135e-02 1.665029e-02 -1.473860e-01
<VARIANCE> 42
 8.640027e-03 1.071647e-02 4.484475e-03 9.301929e-03 4.794621e-03 5.171388e-03 2.653797e-02 1.417119e-01 4.306801e-02 2.109519e-02 1.897934e-02 1.737613e-02 8.863367e-04 6.098454e-04 6.299855e-04 5.857286e-04 6.060757e-04 3.997689e-04 1.151016e-03 3.092922e-03 2.228914e-03 1.256148e-03 1.318121e-03 1.402008e-03 1.276704e-04 1.110734e-04 9.318979e-05 9.560781e-05 8.266607e-05 6.929185e-05 1.247450e-04 3.500956e-04 2.621315e-04 1.847892e-04 1.808559e-04 1.315658e-04 1.057901e-04 3.620823e-04 4.730456e-04 1.190047e-02 7.365371e-03 3.647475e-02
<GCONST> -2.007153e+02
<STATE> 34
<MEAN> 42
 6.066221e-02 7.419256e-02 1.026820e-02 -6.697137e-02 2.689097e-02 3.736383e-02 9.652884e-02 2.860618e-01 2.224538e-01 1.594115e-01 1.312720e-01 7.974721e-02 3.835927e-02 3.144861e-02 -6.872070e-03 -3.489324e-02 2.253881e-02 1.244451e-02 -1.519370e-02 2.006236e-02 3.002924e-02 3.962928e-02 4.505040e-02 4.186931e-02 1.054571e-02 8.289968e-03 -2.261472e-03 -9.469164e-03 6.351959e-03 3.035325e-03 -1.207557e-02 -9.135705e-03 -2.438214e-03 5.428581e-03 9.659569e-03 1.217466e-02 2.049664e-03 -7.917044e-03 1.115134e-02 8.175859e-02 3.422830e-02 -1.508154e-01
<VARIANCE> 42
 1.135560e-02 1.211474e-02 5.400873e-03 1.130943e-02 6.395397e-03 5.573293e-03 3.206467e-02 1.841163e-01 6.170542e-02 2.870144e-02 2.579986e-02 2.556349e-02 1.259367e-03 9.537338e-04 9.764106e-04 8.547830e-04 8.837410e-04 6.459515e-04 1.212833e-03 4.223378e-03 3.215035e-03 1.958651e-03 1.931373e-03 1.771682e-03 1.780046e-04 1.287796e-04 1.482458e-04 1.158788e-04 1.307432e-04 9.250949e-05 1.876884e-04 4.618699e-04 3.608144e-04 2.189397e-04 2.088239e-04 1.860175e-04 1.302501e-04 5.163492e-04 5.223943e-04 1.575265e-02 8.207054e-03 4.824536e-02
<GCONST> -1.886221e+02
<STATE> 35
<MEAN> 42
 1.148172e-01 1.166793e-01 -1.553326e-03 -1.154967e-01 5.988313e-02 5.274309e-02 6.993998e-02 3.144008e-01 2.543663e-01 2.080968e-01 1.943804e-01 1.419995e-01 5.015400e-02 4.077272e-02 -9.368362e-03 -4.548824e-02 2.971454e-02 1.588495e-02 -2.988148e-02 5.441945e-03 2.482682e-02 4.543348e-02 5.829492e-02 5.811549e-02 9.982412e-03 8.088908e-03 -1.918655e-03 -9.075082e-03 5.969818e-03 3.104290e-03 -1.323094e-02 -1.364576e-02 -5.218962e-03 5.686430e-03 1.160124e-02 1.423909e-02 6.011999e-03 -8.476491e-03 1.258048e-02 1.345576e-01 5.868804e-02 -1.487107e-01
<VARIANCE> 42
 1.731410e-02 1.562218e-02 9.124498e-03 1.528429e-02 1.044726e-02 7.559777e-03 3.790147e-02 2.616495e-01 9.045978e-02 4.218043e-02 3.833499e-02 3.924579e-02 2.020187e-03 1.474874e-03 1.652981e-03 1.326792e-03 1.477933e-03 1.047916e-03 1.566716e-03 5.548328e-03 4.484848e-03 3.001067e-03 2.875646e-03 2.545809e-03 2.283434e-04 1.540427e-04 1.909762e-04 1.426805e-04 1.705642e-04 1.155747e-04 2.465287e-04 5.795761e-04 4.519497e-04 2.258168e-04 2.736818e-04 3.209499e-04 1.774338e-04 7.187115e-04 5.585050e-04 2.184986e-02 1.044981e-02 6.558545e-02
<GCONST> -1.747599e+02
<STATE> 36
<MEAN> 42
 6.443876e-02 6.410035e-02 1.457104e-03 -6.385125e-02 2.662866e-02 3.017272e-02 -4.975263e-02 1.008479e-02 6.455600e-03 2.149359e-02 1.454440e-01 1.661922e-01 4.338108e-04 4.301512e-04 -3.831320e-06 -4.324860e-04 2.185060e-04 2.152368e-04 -4.477729e-04 -5.387549e-04 4.689702e-05 5.105284e-04 5.280948e-04 6.916331e-04 2.819796e-05 5.256575e-05 2.419101e-05 -4.065751e-05 2.524695e-06 3.855180e-05 -1.099247e-04 -2.277349e-04 -1.091636e-04 4.730027e-05 8.795837e-05 1.020084e-04 5.152551e-03 -3.300365e-03 -2.389622e-03 8.997759e-02 5.198528e-02 3.922893e-02
<VARIANCE> 42
 2.024953e-02 2.541657e-02 4.320079e-03 2.176951e-02 5.994778e-03 9.887330e-03 3.204633e-02 2.827044e-01 1.197226e-01 3.626068e-02 1.379088e-01 1.661367e-01 7.894382e-04 1.086845e-03 3.186588e-04 8.584887e-04 2.835833e-04 5.083858e-04 1.556873e-03 4.720153e-03 3.891008e-03 1.791773e-03 7.222810e-03 7.603835e-03 9.051632e-05 1.387981e-04 9.608969e-05 9.062709e-05 5.866203e-05 9.519161e-05 2.266322e-04 8.859539e-04 2.902042e-04 2.525895e-04 1.064954e-03 9.889388e-04 2.075105e-04 2.182857e-04 2.309410e-04 5.019446e-02 2.497794e-02 8.788913e-02
<GCONST> -1.774077e+02
<STATE> 37
<MEAN> 42
 2.600639e-01 2.641839e-01 -5.703475e-04 -2.640723e-01 1.313777e-01 1.262678e-01 -1.109462e-01 -5.591565e-01 1.644713e-01 3.490298e-01 3.808277e-01 6.201499e-01 1.581533e-02 1.807803e-02 2.280274e-03 -1.699186e-02 6.835527e-03 1.024720e-02 -3.018431e-02 -6.386020e-02 -2.635439e-02 2.744219e-03 2.501860e-02 2.384309e-02 -2.723392e-03 -2.476890e-03 2.530107e-04 2.598503e-03 -1.463363e-03 -1.117797e-03 -1.138784e-04 -1.159232e-03 -1.078353e-03 -3.102473e-03 -7.381732e-03 -6.785881e-03 2.026966e-02 5.517438e-04 2.102926e-02 4.104069e-01 1.998648e-01 2.568872e-01
<VARIANCE> 42
 3.350680e-02 8.843435e-02 4.023271e-02 5.106768e-02 1.508020e-02 5.594515e-02 1.088284e-01 8.489471e+00 4.425482e-01 9.859068e-02 3.662155e-01 2.520153e-01 3.280255e-03 5.861243e-03 2.647153e-03 3.910379e-03 1.502691e-03 3.449596e-03 6.036676e-03 8.571642e-01 1.005070e-02 7.859030e-03 2.315313e-02 2.057944e-02 1.734800e-04 4.454878e-04 3.844343e-04 2.131473e-04 1.665682e-04 3.726835e-04 5.939468e-04 2.665603e-01 9.269111e-04 3.388734e-04 2.212475e-03 1.687721e-03 1.558621e-03 7.057100e-04 8.587810e-04 1.282845e-01 9.000849e-02 9.400405e-01
<GCONST> -1.151708e+02
<STATE> 38
<MEAN> 42
 5.551606e-02 9.103242e-02 4.453984e-02 -5.844936e-02 7.967168e-03 7.287567e-02 -5.603509e-02 -5.946216e-02 2.462867e-02 1.444688e-01 1.558294e-01 1.395326e-01 -1.828604e-03 -1.654812e-03 1.751978e-04 1.743188e-03 -1.005276e-03 -7.460844e-04 -1.967154e-04 -1.943584e-03 -2.063351e-03 -2.295356e-03 -2.815585e-03 -2.211211e-03 -3.981100e-04 -4.630827e-04 -6.521698e-05 4.312680e-04 -1.671718e-04 -2.657176e-04 4.999882e-04 4.905124e-04 -1.119168e-05 -3.946617e-04 -4.149608e-04 -4.278132e-04 6.939058e-03 2.869978e-04 2.956714e-04 1.224780e-01 7.337701e-02 5.025177e-02
<VARIANCE> 42
 2.942578e-02 5.434018e-02 2.972213e-02 3.514281e-02 1.612288e-02 3.446809e-02 4.416638e-02 2.672872e-01 2.317553e-01 1.676463e-01 1.754638e-01 1.153708e-01 9.331332e-04 1.062531e-03 7.190107e-04 8.186196e-04 5.628379e-04 6.607986e-04 7.452712e-04 3.084609e-03 3.713165e-03 3.708258e-03 4.824351e-03 3.073360e-03 1.416070e-04 1.224153e-04 9.869155e-05 1.074112e-04 8.986377e-05 7.546553e-05 7.536804e-05 2.753273e-04 2.689634e-04 3.729181e-04 4.928198e-04 3.086882e-04 4.900316e-04 4.327900e-04 3.687295e-04 9.318237e-02 4.367287e-02 9.187921e-02
<GCONST> -1.691730e+02
<STATE> 39
<MEAN> 42
 3.695710e-02 2.082421e-02 -2.176894e-02 -2.977454e-02 2.752867e-02 -5.838492e-03 -5.648381e-03 3.209404e-02 3.775345e-02 1.672007e-02 2.424556e-02 4.009317e-02 -1.724870e-05 -1.216128e-04 -1.050751e-04 6.962499e-05 4.524614e-05 -1.121209e-04 6.457573e-04 1.307038e-03 3.797508e-04 -2.355276e-04 -2.343575e-04 -3.131675e-04 2.038652e-06 8.163947e-05 7.968776e-05 -4.172832e-05 -3.872618e-05 8.128898e-05 -7.405035e-05 -1.417874e-04 -4.700988e-05 1.022537e-05 3.301603e-05 2.205926e-05 5.391059e-04 -1.265380e-04 2.662048e-03 2.619472e-02 7.698888e-03 -1.039559e-02
<VARIANCE> 42
 1.646844e-02 5.380635e-03 1.225499e-02 7.961660e-03 1.317504e-02 4.583070e-03 8.354396e-03 3.384826e+00 6.055534e-02 7.990973e-01 2.746613e-02 3.720526e-02 6.241471e-04 1.141468e-04 4.838262e-04 2.482409e-04 5.289881e-04 1.428256e-04 1.294285e-04 2.659878e-01 6.075645e-04 1.254227e-01 6.636687e-04 5.845621e-04 9.649611e-05 2.318420e-05 9.505001e-05 3.608745e-05 9.050422e-05 3.496913e-05 1.927812e-05 1.032129e-01 4.342044e-05 4.690367e-02 6.072708e-05 5.599029e-05 1.662788e-04 2.079802e-04 1.976512e-04 7.226431e-02 4.637309e-03 3.377838e-01
<GCONST> -1.873885e+02
<TRANSP> 40
 0.000000e+00 1.000000e+00 0.000000e+00 0.000000e+00 0.000000e+00 0.000000e+00 0.000000e+00 0.000000e+00 0.000000e+00 0.000000e+00 0.000000e+00 0.000000e+00 0.000000e+00 0.000000e+00 0.000000e+00 0.000000e+00 0.000000e+00 0.000000e+00 0.000000e+00 0.000000e+00 0.000000e+00 0.000000e+00 0.000000e+00 0.000000e+00 0.000000e+00 0.000000e+00 0.000000e+00 0.000000e+00 0.000000e+00 0.000000e+00 0.000000e+00 0.000000e+00 0.000000e+00 0.000000e+00 0.000000e+00 0.000000e+00 0.000000e+00 0.000000e+00 0.000000e+00 0.000000e+00
 0.000000e+00 9.940878e-01 5.912166e-03 0.000000e+00 0.000000e+00 0.000000e+00 0.000000e+00 0.000000e+00 0.000000e+00 0.000000e+00 0.000000e+00 0.000000e+00 0.000000e+00 0.000000e+00 0.000000e+00 0.000000e+00 0.000000e+00 0.000000e+00 0.000000e+00 0.000000e+00 0.000000e+00 0.000000e+00 0.000000e+00 0.000000e+00 0.000000e+00 0.000000e+00 0.000000e+00 0.000000e+00 0.000000e+00 0.000000e+00 0.000000e+00 0.000000e+00 0.000000e+00 0.000000e+00 0.000000e+00 0.000000e+00 0.000000e+00 0.000000e+00 0.000000e+00 0.000000e+00
 0.000000e+00 0.000000e+00 9.713341e-01 2.866589e-02 0.000000e+00 0.000000e+00 0.000000e+00 0.000000e+00 0.000000e+00 0.000000e+00 0.000000e+00 0.000000e+00 0.000000e+00 0.000000e+00 0.000000e+00 0.000000e+00 0.000000e+00 0.000000e+00 0.000000e+00 0.000000e+00 0.000000e+00 0.000000e+00 0.000000e+00 0.000000e+00 0.000000e+00 0.000000e+00 0.000000e+00 0.000000e+00 0.000000e+00 0.000000e+00 0.000000e+00 0.000000e+00 0.000000e+00 0.000000e+00 0.000000e+00 0.000000e+00 0.000000e+00 0.000000e+00 0.000000e+00 0.000000e+00
 0.000000e+00 0.000000e+00 0.000000e+00 9.928500e-01 7.149973e-03 0.000000e+00 0.000000e+00 0.000000e+00 0.000000e+00 0.000000e+00 0.000000e+00 0.000000e+00 0.000000e+00 0.000000e+00 0.000000e+00 0.000000e+00 0.000000e+00 0.000000e+00 0.000000e+00 0.000000e+00 0.000000e+00 0.000000e+00 0.000000e+00 0.000000e+00 0.000000e+00 0.000000e+00 0.000000e+00 0.000000e+00 0.000000e+00 0.000000e+00 0.000000e+00 0.000000e+00 0.000000e+00 0.000000e+00 0.000000e+00 0.000000e+00 0.000000e+00 0.000000e+00 0.000000e+00 0.000000e+00
 0.000000e+00 0.000000e+00 0.000000e+00 0.000000e+00 6.561583e-01 3.438417e-01 0.000000e+00 0.000000e+00 0.000000e+00 0.000000e+00 0.000000e+00 0.000000e+00 0.000000e+00 0.000000e+00 0.000000e+00 0.000000e+00 0.000000e+00 0.000000e+00 0.000000e+00 0.000000e+00 0.000000e+00 0.000000e+00 0.000000e+00 0.000000e+00 0.000000e+00 0.000000e+00 0.000000e+00 0.000000e+00 0.000000e+00 0.000000e+00 0.000000e+00 0.000000e+00 0.000000e+00 0.000000e+00 0.000000e+00 0.000000e+00 0.000000e+00 0.000000e+00 0.000000e+00 0.000000e+00
 0.000000e+00 0.000000e+00 0.000000e+00 0.000000e+00 0.000000e+00 9.926032e-01 7.396730e-03 0.000000e+00 0.000000e+00 0.000000e+00 0.000000e+00 0.000000e+00 0.000000e+00 0.000000e+00 0.000000e+00 0.000000e+00 0.000000e+00 0.000000e+00 0.000000e+00 0.000000e+00 0.000000e+00 0.000000e+00 0.000000e+00 0.000000e+00 0.000000e+00 0.000000e+00 0.000000e+00 0.000000e+00 0.000000e+00 0.000000e+00 0.000000e+00 0.000000e+00 0.000000e+00 0.000000e+00 0.000000e+00 0.000000e+00 0.000000e+00 0.000000e+00 0.000000e+00 0.000000e+00
 0.000000e+00 0.000000e+00 0.000000e+00 0.000000e+00 0.000000e+00 0.000000e+00 9.988466e-01 1.153410e-03 0.000000e+00 0.000000e+00 0.000000e+00 0.000000e+00 0.000000e+00 0.000000e+00 0.000000e+00 0.000000e+00 0.000000e+00 0.000000e+00 0.000000e+00 0.000000e+00 0.000000e+00 0.000000e+00 0.000000e+00 0.000000e+00 0.000000e+00 0.000000e+00 0.000000e+00 0.000000e+00 0.000000e+00 0.000000e+00 0.000000e+00 0.000000e+00 0.000000e+00 0.000000e+00 0.000000e+00 0.000000e+00 0.000000e+00 0.000000e+00 0.000000e+00 0.000000e+00
 0.000000e+00 0.000000e+00 0.000000e+00 0.000000e+00 0.000000e+00 0.000000e+00 0.000000e+00 9.906820e-01 9.317953e-03 0.000000e+00 0.000000e+00 0.000000e+00 0.000000e+00 0.000000e+00 0.000000e+00 0.000000e+00 0.000000e+00 0.000000e+00 0.000000e+00 0.000000e+00 0.000000e+00 0.000000e+00 0.000000e+00 0.000000e+00 0.000000e+00 0.000000e+00 0.000000e+00 0.000000e+00 0.000000e+00 0.000000e+00 0.000000e+00 0.000000e+00 0.000000e+00 0.000000e+00 0.000000e+00 0.000000e+00 0.000000e+00 0.000000e+00 0.000000e+00 0.000000e+00
 0.000000e+00 0.000000e+00 0.000000e+00 0.000000e+00 0.000000e+00 0.000000e+00 0.000000e+00 0.000000e+00 9.301103e-02 9.069890e-01 0.000000e+00 0.000000e+00 0.000000e+00 0.000000e+00 0.000000e+00 0.000000e+00 0.000000e+00 0.000000e+00 0.000000e+00 0.000000e+00 0.000000e+00 0.000000e+00 0.000000e+00 0.000000e+00 0.000000e+00 0.000000e+00 0.000000e+00 0.000000e+00 0.000000e+00 0.000000e+00 0.000000e+00 0.000000e+00 0.000000e+00 0.000000e+00 0.000000e+00 0.000000e+00 0.000000e+00 0.000000e+00 0.000000e+00 0.000000e+00
 0.000000e+00 0.000000e+00 0.000000e+00 0.000000e+00 0.000000e+00 0.000000e+00 0.000000e+00 0.000000e+00 0.000000e+00 9.955629e-01 4.437090e-03 0.000000e+00 0.000000e+00 0.000000e+00 0.000000e+00 0.000000e+00 0.000000e+00 0.000000e+00 0.000000e+00 0.000000e+00 0.000000e+00 0.000000e+00 0.000000e+00 0.000000e+00 0.000000e+00 0.000000e+00 0.000000e+00 0.000000e+00 0.000000e+00 0.000000e+00 0.000000e+00 0.000000e+00 0.000000e+00 0.000000e+00 0.000000e+00 0.000000e+00 0.000000e+00 0.000000e+00 0.000000e+00 0.000000e+00
 0.000000e+00 0.000000e+00 0.000000e+00 0.000000e+00 0.000000e+00 0.000000e+00 0.000000e+00 0.000000e+00 0.000000e+00 0.000000e+00 1.352462e-01 8.647538e-01 0.000000e+00 0.000000e+00 0.000000e+00 0.000000e+00 0.000000e+00 0.000000e+00 0.000000e+00 0.000000e+00 0.000000e+00 0.000000e+00 0.000000e+00 0.000000e+00 0.000000e+00 0.000000e+00 0.000000e+00 0.000000e+00 0.000000e+00 0.000000e+00 0.000000e+00 0.000000e+00 0.000000e+00 0.000000e+00 0.000000e+00 0.000000e+00 0.000000e+00 0.000000e+00 0.000000e+00 0.000000e+00
 0.000000e+00 0.000000e+00 0.000000e+00 0.000000e+00 0.000000e+00 0.000000e+00 0.000000e+00 0.000000e+00 0.000000e+00 0.000000e+00 0.000000e+00 1.715290e-01 8.284710e-01 0.000000e+00 0.000000e+00 0.000000e+00 0.000000e+00 0.000000e+00 0.000000e+00 0.000000e+00 0.000000e+00 0.000000e+00 0.000000e+00 0.000000e+00 0.000000e+00 0.000000e+00 0.000000e+00 0.000000e+00 0.000000e+00 0.000000e+00 0.000000e+00 0.000000e+00 0.000000e+00 0.000000e+00 0.000000e+00 0.000000e+00 0.000000e+00 0.000000e+00 0.000000e+00 0.000000e+00
 0.000000e+00 0.000000e+00 0.000000e+00 0.000000e+00 0.000000e+00 0.000000e+00 0.000000e+00 0.000000e+00 0.000000e+00 0.000000e+00 0.000000e+00 0.000000e+00 9.925306e-01 7.469357e-03 0.000000e+00 0.000000e+00 0.000000e+00 0.000000e+00 0.000000e+00 0.000000e+00 0.000000e+00 0.000000e+00 0.000000e+00 0.000000e+00 0.000000e+00 0.000000e+00 0.000000e+00 0.000000e+00 0.000000e+00 0.000000e+00 0.000000e+00 0.000000e+00 0.000000e+00 0.000000e+00 0.000000e+00 0.000000e+00 0.000000e+00 0.000000e+00 0.000000e+00 0.000000e+00
 0.000000e+00 0.000000e+00 0.000000e+00 0.000000e+00 0.000000e+00 0.000000e+00 0.000000e+00 0.000000e+00 0.000000e+00 0.000000e+00 0.000000e+00 0.000000e+00 0.000000e+00 7.607986e-01 2.392014e-01 0.000000e+00 0.000000e+00 0.000000e+00 0.000000e+00 0.000000e+00 0.000000e+00 0.000000e+00 0.000000e+00 0.000000e+00 0.000000e+00 0.000000e+00 0.000000e+00 0.000000e+00 0.000000e+00 0.000000e+00 0.000000e+00 0.000000e+00 0.000000e+00 0.000000e+00 0.000000e+00 0.000000e+00 0.000000e+00 0.000000e+00 0.000000e+00 0.000000e+00
 0.000000e+00 0.000000e+00 0.000000e+00 0.000000e+00 0.000000e+00 0.000000e+00 0.000000e+00 0.000000e+00 0.000000e+00 0.000000e+00 0.000000e+00 0.000000e+00 0.000000e+00 0.000000e+00 9.414335e-01 5.856649e-02 0.000000e+00 0.000000e+00 0.000000e+00 0.000000e+00 0.000000e+00 0.000000e+00 0.000000e+00 0.000000e+00 0.000000e+00 0.000000e+00 0.000000e+00 0.000000e+00 0.000000e+00 0.000000e+00 0.000000e+00 0.000000e+00 0.000000e+00 0.000000e+00 0.000000e+00 0.000000e+00 0.000000e+00 0.000000e+00 0.000000e+00 0.000000e+00
 0.000000e+00 0.000000e+00 0.000000e+00 0.000000e+00 0.000000e+00 0.000000e+00 0.000000e+00 0.000000e+00 0.000000e+00 0.000000e+00 0.000000e+00 0.000000e+00 0.000000e+00 0.000000e+00 0.000000e+00 5.475491e-01 4.524509e-01 0.000000e+00 0.000000e+00 0.000000e+00 0.000000e+00 0.000000e+00 0.000000e+00 0.000000e+00 0.000000e+00 0.000000e+00 0.000000e+00 0.000000e+00 0.000000e+00 0.000000e+00 0.000000e+00 0.000000e+00 0.000000e+00 0.000000e+00 0.000000e+00 0.000000e+00 0.000000e+00 0.000000e+00 0.000000e+00 0.000000e+00
 0.000000e+00 0.000000e+00 0.000000e+00 0.000000e+00 0.000000e+00 0.000000e+00 0.000000e+00 0.000000e+00 0.000000e+00 0.000000e+00 0.000000e+00 0.000000e+00 0.000000e+00 0.000000e+00 0.000000e+00 0.000000e+00 9.940482e-01 5.951789e-03 0.000000e+00 0.000000e+00 0.000000e+00 0.000000e+00 0.000000e+00 0.000000e+00 0.000000e+00 0.000000e+00 0.000000e+00 0.000000e+00 0.000000e+00 0.000000e+00 0.000000e+00 0.000000e+00 0.000000e+00 0.000000e+00 0.000000e+00 0.000000e+00 0.000000e+00 0.000000e+00 0.000000e+00 0.000000e+00
 0.000000e+00 0.000000e+00 0.000000e+00 0.000000e+00 0.000000e+00 0.000000e+00 0.000000e+00 0.000000e+00 0.000000e+00 0.000000e+00 0.000000e+00 0.000000e+00 0.000000e+00 0.000000e+00 0.000000e+00 0.000000e+00 0.000000e+00 9.805112e-01 1.948882e-02 0.000000e+00 0.000000e+00 0.000000e+00 0.000000e+00 0.000000e+00 0.000000e+00 0.000000e+00 0.000000e+00 0.000000e+00 0.000000e+00 0.000000e+00 0.000000e+00 0.000000e+00 0.000000e+00 0.000000e+00 0.000000e+00 0.000000e+00 0.000000e+00 0.000000e+00 0.000000e+00 0.000000e+00
 0.000000e+00 0.000000e+00 0.000000e+00 0.000000e+00 0.000000e+00 0.000000e+00 0.000000e+00 0.000000e+00 0.000000e+00 0.000000e+00 0.000000e+00 0.000000e+00 0.000000e+00 0.000000e+00 0.000000e+00 0.000000e+00 0.000000e+00 0.000000e+00 9.944492e-01 5.550765e-03 0.000000e+00 0.000000e+00 0.000000e+00 0.000000e+00 0.000000e+00 0.000000e+00 0.000000e+00 0.000000e+00 0.000000e+00 0.000000e+00 0.000000e+00 0.000000e+00 0.000000e+00 0.000000e+00 0.000000e+00 0.000000e+00 0.000000e+00 0.000000e+00 0.000000e+00 0.000000e+00
 0.000000e+00 0.000000e+00 0.000000e+00 0.000000e+00 0.000000e+00 0.000000e+00 0.000000e+00 0.000000e+00 0.000000e+00 0.000000e+00 0.000000e+00 0.000000e+00 0.000000e+00 0.000000e+00 0.000000e+00 0.000000e+00 0.000000e+00 0.000000e+00 0.000000e+00 9.984762e-01 1.523816e-03 0.000000e+00 0.000000e+00 0.000000e+00 0.000000e+00 0.000000e+00 0.000000e+00 0.000000e+00 0.000000e+00 0.000000e+00 0.000000e+00 0.000000e+00 0.000000e+00 0.000000e+00 0.000000e+00 0.000000e+00 0.000000e+00 0.000000e+00 0.000000e+00 0.000000e+00
 0.000000e+00 0.000000e+00 0.000000e+00 0.000000e+00 0.000000e+00 0.000000e+00 0.000000e+00 0.000000e+00 0.000000e+00 0.000000e+00 0.000000e+00 0.000000e+00 0.000000e+00 0.000000e+00 0.000000e+00 0.000000e+00 0.000000e+00 0.000000e+00 0.000000e+00 0.000000e+00 9.948438e-01 5.156172e-03 0.000000e+00 0.000000e+00 0.000000e+00 0.000000e+00 0.000000e+00 0.000000e+00 0.000000e+00 0.000000e+00 0.000000e+00 0.000000e+00 0.000000e+00 0.000000e+00 0.000000e+00 0.000000e+00 0.000000e+00 0.000000e+00 0.000000e+00 0.000000e+00
 0.000000e+00 0.000000e+00 0.000000e+00 0.000000e+00 0.000000e+00 0.000000e+00 0.000000e+00 0.000000e+00 0.000000e+00 0.000000e+00 0.000000e+00 0.000000e+00 0.000000e+00 0.000000e+00 0.000000e+00 0.000000e+00 0.000000e+00 0.000000e+00 0.000000e+00 0.000000e+00 0.000000e+00 9.974791e-01 2.520889e-03 0.000000e+00 0.000000e+00 0.000000e+00 0.000000e+00 0.000000e+00 0.000000e+00 0.000000e+00 0.000000e+00 0.000000e+00 0.000000e+00 0.000000e+00 0.000000e+00 0.000000e+00 0.000000e+00 0.000000e+00 0.000000e+00 0.000000e+00
 0.000000e+00 0.000000e+00 0.000000e+00 0.000000e+00 0.000000e+00 0.000000e+00 0.000000e+00 0.000000e+00 0.000000e+00 0.000000e+00 0.000000e+00 0.000000e+00 0.000000e+00 0.000000e+00 0.000000e+00 0.000000e+00 0.000000e+00 0.000000e+00 0.000000e+00 0.000000e+00 0.000000e+00 0.000000e+00 9.951033e-01 4.896695e-03 0.000000e+00 0.000000e+00 0.000000e+00 0.000000e+00 0.000000e+00 0.000000e+00 0.000000e+00 0.000000e+00 0.000000e+00 0.000000e+00 0.000000e+00 0.000000e+00 0.000000e+00 0.000000e+00 0.000000e+00 0.000000e+00
 0.000000e+00 0.000000e+00 0.000000e+00 0.000000e+00 0.000000e+00 0.000000e+00 0.000000e+00 0.000000e+00 0.000000e+00 0.000000e+00 0.000000e+00 0.000000e+00 0.000000e+00 0.000000e+00 0.000000e+00 0.000000e+00 0.000000e+00 0.000000e+00 0.000000e+00 0.000000e+00 0.000000e+00 0.000000e+00 0.000000e+00 5.839226e-01 4.160774e-01 0.000000e+00 0.000000e+00 0.000000e+00 0.000000e+00 0.000000e+00 0.000000e+00 0.000000e+00 0.000000e+00 0.000000e+00 0.000000e+00 0.000000e+00 0.000000e+00 0.000000e+00 0.000000e+00 0.000000e+00
 0.000000e+00 0.000000e+00 0.000000e+00 0.000000e+00 0.000000e+00 0.000000e+00 0.000000e+00 0.000000e+00 0.000000e+00 0.000000e+00 0.000000e+00 0.000000e+00 0.000000e+00 0.000000e+00 0.000000e+00 0.000000e+00 0.000000e+00 0.000000e+00 0.000000e+00 0.000000e+00 0.000000e+00 0.000000e+00 0.000000e+00 0.000000e+00 9.918942e-01 8.105811e-03 0.000000e+00 0.000000e+00 0.000000e+00 0.000000e+00 0.000000e+00 0.000000e+00 0.000000e+00 0.000000e+00 0.000000e+00 0.000000e+00 0.000000e+00 0.000000e+00 0.000000e+00 0.000000e+00
 0.000000e+00 0.000000e+00 0.000000e+00 0.000000e+00 0.000000e+00 0.000000e+00 0.000000e+00 0.000000e+00 0.000000e+00 0.000000e+00 0.000000e+00 0.000000e+00 0.000000e+00 0.000000e+00 0.000000e+00 0.000000e+00 0.000000e+00 0.000000e+00 0.000000e+00 0.000000e+00 0.000000e+00 0.000000e+00 0.000000e+00 0.000000e+00 0.000000e+00 1.407923e-01 8.592077e-01 0.000000e+00 0.000000e+00 0.000000e+00 0.000000e+00 0.000000e+00 0.000000e+00 0.000000e+00 0.000000e+00 0.000000e+00 0.000000e+00 0.000000e+00 0.000000e+00 0.000000e+00
 0.000000e+00 0.000000e+00 0.000000e+00 0.000000e+00 0.000000e+00 0.000000e+00 0.000000e+00 0.000000e+00 0.000000e+00 0.000000e+00 0.000000e+00 0.000000e+00 0.000000e+00 0.000000e+00 0.000000e+00 0.000000e+00 0.000000e+00 0.000000e+00 0.000000e+00 0.000000e+00 0.000000e+00 0.000000e+00 0.000000e+00 0.000000e+00 0.000000e+00 0.000000e+00 9.912920e-01 8.708017e-03 0.000000e+00 0.000000e+00 0.000000e+00 0.000000e+00 0.000000e+00 0.000000e+00 0.000000e+00 0.000000e+00 0.000000e+00 0.000000e+00 0.000000e+00 0.000000e+00
 0.000000e+00 0.000000e+00 0.000000e+00 0.000000e+00 0.000000e+00 0.000000e+00 0.000000e+00 0.000000e+00 0.000000e+00 0.000000e+00 0.000000e+00 0.000000e+00 0.000000e+00 0.000000e+00 0.000000e+00 0.000000e+00 0.000000e+00 0.000000e+00 0.000000e+00 0.000000e+00 0.000000e+00 0.000000e+00 0.000000e+00 0.000000e+00 0.000000e+00 0.000000e+00 0.000000e+00 9.901735e-01 9.826532e-03 0.000000e+00 0.000000e+00 0.000000e+00 0.000000e+00 0.000000e+00 0.000000e+00 0.000000e+00 0.000000e+00 0.000000e+00 0.000000e+00 0.000000e+00
 0.000000e+00 0.000000e+00 0.000000e+00 0.000000e+00 0.000000e+00 0.000000e+00 0.000000e+00 0.000000e+00 0.000000e+00 0.000000e+00 0.000000e+00 0.000000e+00 0.000000e+00 0.000000e+00 0.000000e+00 0.000000e+00 0.000000e+00 0.000000e+00 0.000000e+00 0.000000e+00 0.000000e+00 0.000000e+00 0.000000e+00 0.000000e+00 0.000000e+00 0.000000e+00 0.000000e+00 0.000000e+00 9.147584e-01 8.524160e-02 0.000000e+00 0.000000e+00 0.000000e+00 0.000000e+00 0.000000e+00 0.000000e+00 0.000000e+00 0.000000e+00 0.000000e+00 0.000000e+00
 0.000000e+00 0.000000e+00 0.000000e+00 0.000000e+00 0.000000e+00 0.000000e+00 0.000000e+00 0.000000e+00 0.000000e+00 0.000000e+00 0.000000e+00 0.000000e+00 0.000000e+00 0.000000e+00 0.000000e+00 0.000000e+00 0.000000e+00 0.000000e+00 0.000000e+00 0.000000e+00 0.000000e+00 0.000000e+00 0.000000e+00 0.000000e+00 0.000000e+00 0.000000e+00 0.000000e+00 0.000000e+00 0.000000e+00 2.082372e-02 9.791763e-01 0.000000e+00 0.000000e+00 0.000000e+00 0.000000e+00 0.000000e+00 0.000000e+00 0.000000e+00 0.000000e+00 0.000000e+00
 0.000000e+00 0.000000e+00 0.000000e+00 0.000000e+00 0.000000e+00 0.000000e+00 0.000000e+00 0.000000e+00 0.000000e+00 0.000000e+00 0.000000e+00 0.000000e+00 0.000000e+00 0.000000e+00 0.000000e+00 0.000000e+00 0.000000e+00 0.000000e+00 0.000000e+00 0.000000e+00 0.000000e+00 0.000000e+00 0.000000e+00 0.000000e+00 0.000000e+00 0.000000e+00 0.000000e+00 0.000000e+00 0.000000e+00 0.000000e+00 9.271899e-03 9.907281e-01 0.000000e+00 0.000000e+00 0.000000e+00 0.000000e+00 0.000000e+00 0.000000e+00 0.000000e+00 0.000000e+00
 0.000000e+00 0.000000e+00 0.000000e+00 0.000000e+00 0.000000e+00 0.000000e+00 0.000000e+00 0.000000e+00 0.000000e+00 0.000000e+00 0.000000e+00 0.000000e+00 0.000000e+00 0.000000e+00 0.000000e+00 0.000000e+00 0.000000e+00 0.000000e+00 0.000000e+00 0.000000e+00 0.000000e+00 0.000000e+00 0.000000e+00 0.000000e+00 0.000000e+00 0.000000e+00 0.000000e+00 0.000000e+00 0.000000e+00 0.000000e+00 0.000000e+00 6.675713e-03 9.933243e-01 0.000000e+00 0.000000e+00 0.000000e+00 0.000000e+00 0.000000e+00 0.000000e+00 0.000000e+00
 0.000000e+00 0.000000e+00 0.000000e+00 0.000000e+00 0.000000e+00 0.000000e+00 0.000000e+00 0.000000e+00 0.000000e+00 0.000000e+00 0.000000e+00 0.000000e+00 0.000000e+00 0.000000e+00 0.000000e+00 0.000000e+00 0.000000e+00 0.000000e+00 0.000000e+00 0.000000e+00 0.000000e+00 0.000000e+00 0.000000e+00 0.000000e+00 0.000000e+00 0.000000e+00 0.000000e+00 0.000000e+00 0.000000e+00 0.000000e+00 0.000000e+00 0.000000e+00 8.250711e-03 9.917493e-01 0.000000e+00 0.000000e+00 0.000000e+00 0.000000e+00 0.000000e+00 0.000000e+00
 0.000000e+00 0.000000e+00 0.000000e+00 0.000000e+00 0.000000e+00 0.000000e+00 0.000000e+00 0.000000e+00 0.000000e+00 0.000000e+00 0.000000e+00 0.000000e+00 0.000000e+00 0.000000e+00 0.000000e+00 0.000000e+00 0.000000e+00 0.000000e+00 0.000000e+00 0.000000e+00 0.000000e+00 0.000000e+00 0.000000e+00 0.000000e+00 0.000000e+00 0.000000e+00 0.000000e+00 0.000000e+00 0.000000e+00 0.000000e+00 0.000000e+00 0.000000e+00 0.000000e+00 1.691844e-02 9.830816e-01 0.000000e+00 0.000000e+00 0.000000e+00 0.000000e+00 0.000000e+00
 0.000000e+00 0.000000e+00 0.000000e+00 0.000000e+00 0.000000e+00 0.000000e+00 0.000000e+00 0.000000e+00 0.000000e+00 0.000000e+00 0.000000e+00 0.000000e+00 0.000000e+00 0.000000e+00 0.000000e+00 0.000000e+00 0.000000e+00 0.000000e+00 0.000000e+00 0.000000e+00 0.000000e+00 0.000000e+00 0.000000e+00 0.000000e+00 0.000000e+00 0.000000e+00 0.000000e+00 0.000000e+00 0.000000e+00 0.000000e+00 0.000000e+00 0.000000e+00 0.000000e+00 0.000000e+00 5.223884e-02 9.477612e-01 0.000000e+00 0.000000e+00 0.000000e+00 0.000000e+00
 0.000000e+00 0.000000e+00 0.000000e+00 0.000000e+00 0.000000e+00 0.000000e+00 0.000000e+00 0.000000e+00 0.000000e+00 0.000000e+00 0.000000e+00 0.000000e+00 0.000000e+00 0.000000e+00 0.000000e+00 0.000000e+00 0.000000e+00 0.000000e+00 0.000000e+00 0.000000e+00 0.000000e+00 0.000000e+00 0.000000e+00 0.000000e+00 0.000000e+00 0.000000e+00 0.000000e+00 0.000000e+00 0.000000e+00 0.000000e+00 0.000000e+00 0.000000e+00 0.000000e+00 0.000000e+00 0.000000e+00 9.923175e-01 7.682533e-03 0.000000e+00 0.000000e+00 0.000000e+00
 0.000000e+00 0.000000e+00 0.000000e+00 0.000000e+00 0.000000e+00 0.000000e+00 0.000000e+00 0.000000e+00 0.000000e+00 0.000000e+00 0.000000e+00 0.000000e+00 0.000000e+00 0.000000e+00 0.000000e+00 0.000000e+00 0.000000e+00 0.000000e+00 0.000000e+00 0.000000e+00 0.000000e+00 0.000000e+00 0.000000e+00 0.000000e+00 0.000000e+00 0.000000e+00 0.000000e+00 0.000000e+00 0.000000e+00 0.000000e+00 0.000000e+00 0.000000e+00 0.000000e+00 0.000000e+00 0.000000e+00 0.000000e+00 7.626023e-01 2.373977e-01 0.000000e+00 0.000000e+00
 0.000000e+00 0.000000e+00 0.000000e+00 0.000000e+00 0.000000e+00 0.000000e+00 0.000000e+00 0.000000e+00 0.000000e+00 0.000000e+00 0.000000e+00 0.000000e+00 0.000000e+00 0.000000e+00 0.000000e+00 0.000000e+00 0.000000e+00 0.000000e+00 0.000000e+00 0.000000e+00 0.000000e+00 0.000000e+00 0.000000e+00 0.000000e+00 0.000000e+00 0.000000e+00 0.000000e+00 0.000000e+00 0.000000e+00 0.000000e+00 0.000000e+00 0.000000e+00 0.000000e+00 0.000000e+00 0.000000e+00 0.000000e+00 0.000000e+00 9.910673e-01 8.932695e-03 0.000000e+00
 0.000000e+00 0.000000e+00 0.000000e+00 0.000000e+00 0.000000e+00 0.000000e+00 0.000000e+00 0.000000e+00 0.000000e+00 0.000000e+00 0.000000e+00 0.000000e+00 0.000000e+00 0.000000e+00 0.000000e+00 0.000000e+00 0.000000e+00 0.000000e+00 0.000000e+00 0.000000e+00 0.000000e+00 0.000000e+00 0.000000e+00 0.000000e+00 0.000000e+00 0.000000e+00 0.000000e+00 0.000000e+00 0.000000e+00 0.000000e+00 0.000000e+00 0.000000e+00 0.000000e+00 0.000000e+00 0.000000e+00 0.000000e+00 0.000000e+00 0.000000e+00 9.949814e-01 5.018537e-03
 0.000000e+00 0.000000e+00 0.000000e+00 0.000000e+00 0.000000e+00 0.000000e+00 0.000000e+00 0.000000e+00 0.000000e+00 0.000000e+00 0.000000e+00 0.000000e+00 0.000000e+00 0.000000e+00 0.000000e+00 0.000000e+00 0.000000e+00 0.000000e+00 0.000000e+00 0.000000e+00 0.000000e+00 0.000000e+00 0.000000e+00 0.000000e+00 0.000000e+00 0.000000e+00 0.000000e+00 0.000000e+00 0.000000e+00 0.000000e+00 0.000000e+00 0.000000e+00 0.000000e+00 0.000000e+00 0.000000e+00 0.000000e+00 0.000000e+00 0.000000e+00 0.000000e+00 0.000000e+00
<ENDHMM>
