~o
<STREAMINFO> 1 42
<VECSIZE> 42<NULLD><USER><DIAGC>
~h "CONTROL"
<BEGINHMM>
<NUMSTATES> 25
<STATE> 2
<MEAN> 42
 1.996871e-02 2.613040e-02 2.447832e-03 -2.221846e-02 9.341702e-03 1.047390e-02 -1.101923e-02 3.251255e-03 1.661507e-02 2.276308e-02 2.228953e-02 2.301586e-02 -1.055080e-04 -1.059014e-04 -5.688344e-07 1.059527e-04 -5.542177e-05 -5.313838e-05 3.897352e-06 -2.504119e-04 -3.250907e-04 -1.847031e-04 -1.747420e-04 -1.466235e-04 -5.913480e-06 -1.776961e-05 -1.189519e-05 1.189961e-05 3.191229e-06 -1.501954e-05 -9.403593e-07 -6.585266e-06 -7.159353e-06 -4.576308e-06 -9.621035e-06 -6.889604e-06 1.553159e-03 4.966879e-04 -4.699100e-04 2.158609e-02 1.771155e-02 2.810383e-03
<VARIANCE> 42
 2.044996e-03 3.943269e-03 1.854213e-03 2.530150e-03 9.143272e-04 2.345852e-03 1.777630e-03 3.747534e-03 4.945078e-03 4.047916e-03 4.480998e-03 4.738081e-03 5.156374e-05 4.502025e-05 4.451846e-05 3.727752e-05 3.684383e-05 3.226145e-05 1.934741e-05 7.374013e-05 1.811158e-05 4.065752e-05 1.795842e-05 1.775718e-05 1.957414e-05 1.545539e-05 1.788077e-05 1.309144e-05 1.489089e-05 1.193448e-05 5.139651e-06 2.601508e-05 4.940886e-06 1.211414e-05 4.856598e-06 4.629624e-06 1.561443e-05 4.931556e-05 1.307895e-04 2.649418e-03 2.449255e-03 1.337386e-03
<GCONST> -3.030958e+02
<STATE> 3
<MEAN> 42
 8.819634e-03 1.329915e-02 -1.209168e-03 -9.219307e-03 8.433491e-03 2.008048e-03 -1.205791e-02 -6.000541e-03 -2.503466e-03 3.417246e-03 2.176215e-02 7.124513e-03 -9.231242e-04 -1.252164e-03 -3.312977e-04 1.089890e-03 -2.917910e-04 -8.053341e-04 5.466900e-04 -8.000794e-05 -7.589082e-04 -9.084642e-04 -9.479131e-04 -9.944676e-04 3.572851e-05 9.086882e-05 5.557645e-05 -6.419176e-05 -8.876801e-06 7.086050e-05 3.370525e-05 7.656153e-05 7.529368e-05 5.305719e-05 4.101067e-05 3.736254e-05 1.307885e-03 1.841551e-03 4.514400e-05 1.082813e-02 1.064541e-02 8.538909e-03
<VARIANCE> 42
 3.282019e-03 3.232814e-03 1.162604e-03 2.909109e-03 1.333665e-03 1.295716e-03 4.901758e-03 2.711369e-03 2.754395e-03 3.073391e-03 1.112434e-02 2.935539e-03 1.422626e-04 9.090589e-05 1.024124e-04 9.099091e-05 9.939256e-05 6.194993e-05 3.115152e-05 7.374013e-05 3.964665e-05 4.065752e-05 1.549579e-04 3.576998e-05 4.690612e-05 3.029752e-05 3.443269e-05 2.997996e-05 3.303137e-05 2.097569e-05 8.348682e-06 2.601508e-05 1.165565e-05 1.211414e-05 3.867018e-05 9.247994e-06 2.615514e-05 6.380646e-05 1.065588e-04 3.506553e-03 1.609054e-03 5.540070e-04
<GCONST> -2.858521e+02
<STATE> 4
<MEAN> 42
 1.739282e-02 9.019433e-03 -6.722938e-03 -1.374581e-02 1.231855e-02 -6.320905e-04 -1.052196e-02 4.196407e-03 1.840164e-02 2.126170e-02 2.392873e-02 2.111621e-02 3.425651e-05 5.465194e-05 2.040705e-05 -4.457814e-05 7.699800e-06 3.654229e-05 2.915945e-05 7.004180e-05 7.861157e-05 4.498853e-05 2.161483e-05 1.465449e-05 9.675794e-06 9.330162e-06 -1.935741e-07 -9.441801e-06 4.689784e-06 5.004002e-06 1.719375e-05 3.095886e-05 1.982894e-05 3.439311e-06 2.740187e-06 -2.075496e-06 3.600734e-03 1.400246e-03 1.643551e-03 2.109438e-02 2.948918e-03 1.416402e-04
<VARIANCE> 42
 4.652095e-03 3.534950e-03 8.858530e-04 3.862945e-03 1.890430e-03 1.079884e-03 1.681989e-03 8.830866e-03 1.587973e-02 9.179774e-03 9.652577e-03 8.683378e-03 1.265920e-04 6.158704e-05 6.457425e-05 7.795404e-05 8.132614e-05 3.206897e-05 1.855791e-05 1.985835e-04 3.762688e-04 2.250090e-04 2.163922e-04 1.828844e-04 1.415490e-05 7.013732e-06 1.598017e-05 6.588673e-06 1.344252e-05 8.066644e-06 3.126846e-06 2.601508e-05 2.705151e-05 1.719279e-05 1.596259e-05 1.271410e-05 2.093764e-04 2.207646e-04 2.205010e-04 6.972675e-03 1.293297e-03 3.305723e-03
<GCONST> -2.777686e+02
<STATE> 5
<MEAN> 42
 2.828009e-02 1.858427e-02 -6.133595e-03 -1.636591e-02 1.783893e-02 6.055833e-03 1.596311e-02 9.511497e-02 1.276145e-01 8.136201e-02 5.884319e-02 4.798150e-02 -9.397190e-04 1.505848e-03 2.461020e-03 -2.729749e-04 -1.673181e-03 2.007100e-03 2.680787e-04 3.737538e-03 4.496429e-03 2.880660e-03 2.671384e-03 1.704296e-03 -3.465522e-04 9.812720e-05 4.535192e-04 1.408127e-04 -4.120700e-04 3.028258e-04 6.886654e-04 1.425405e-03 1.162275e-03 7.346568e-04 6.883375e-04 2.166143e-04 -7.162336e-04 -5.485280e-03 -2.742475e-03 5.217727e-02 -1.434124e-03 -5.872406e-02
<VARIANCE> 42
 3.458117e-03 3.411815e-03 2.529364e-03 2.475906e-03 1.777656e-03 2.523162e-03 2.190591e-03 2.001524e-02 3.280794e-02 2.532962e-02 1.087980e-02 7.622374e-03 1.569477e-04 1.010323e-04 1.870719e-04 8.194034e-05 1.467785e-04 1.052720e-04 1.227368e-04 1.787581e-04 1.581008e-04 1.438015e-04 1.732515e-04 1.440077e-04 4.559160e-05 2.758222e-05 6.639976e-05 2.001527e-05 4.913334e-05 3.569755e-05 2.413936e-05 5.442721e-05 4.567622e-05 3.259107e-05 5.260130e-05 4.310289e-05 7.582671e-06 6.049306e-05 7.668927e-05 8.382470e-03 1.179390e-03 7.214270e-03
<GCONST> -2.608662e+02
<STATE> 6
<MEAN> 42
 4.136353e-02 3.443484e-02 -7.142233e-03 -3.651654e-02 2.120369e-02 1.357175e-02 -1.331324e-02 3.158537e-02 5.080253e-02 4.963986e-02 4.925667e-02 5.384819e-02 -5.042132e-05 -3.664228e-05 1.418623e-05 4.397790e-05 -3.332261e-05 -1.138879e-05 8.679234e-05 5.234714e-05 -2.413633e-05 -6.905984e-05 -5.247972e-05 -5.668381e-05 -2.652076e-05 -1.161397e-07 2.637372e-05 1.344225e-05 -2.699838e-05 1.303685e-05 2.842447e-05 3.271833e-05 3.627613e-05 2.195344e-05 1.218903e-05 1.245345e-06 4.453672e-03 -2.517477e-03 -9.118880e-04 4.594444e-02 1.792229e-02 -9.420424e-03
<VARIANCE> 42
 1.324490e-02 1.289511e-02 2.687895e-03 1.245269e-02 4.690532e-03 4.555373e-03 6.074140e-03 1.125356e-02 2.610828e-02 2.613052e-02 2.787934e-02 2.437312e-02 3.380783e-04 2.321114e-04 1.067422e-04 2.584092e-04 1.654855e-04 8.505701e-05 1.237134e-04 3.814234e-04 8.476292e-04 5.213686e-04 5.540489e-04 4.498368e-04 3.211515e-05 2.023533e-05 2.242572e-05 2.056827e-05 2.233897e-05 1.333841e-05 1.037660e-05 4.551003e-05 8.914099e-05 4.261695e-05 4.128124e-05 2.851414e-05 1.874587e-04 2.106899e-04 2.064706e-04 2.164023e-02 5.287625e-03 3.818621e-03
<GCONST> -2.414529e+02
<STATE> 7
<MEAN> 42
 3.402729e-02 2.564821e-02 -2.149704e-03 -2.458193e-02 1.911719e-02 8.228574e-03 -7.083046e-03 2.671660e-02 2.894565e-02 4.929510e-02 4.291295e-02 2.740130e-02 -5.245372e-06 -3.131398e-06 2.243978e-06 4.288107e-06 -3.700919e-06 -3.709283e-07 6.768008e-06 3.393274e-06 -8.462812e-06 2.199668e-07 -2.416036e-06 -7.003546e-07 -1.100576e-06 -2.282388e-06 -1.217824e-06 1.713704e-06 1.487479e-07 -1.721290e-06 1.519069e-06 1.192266e-07 -9.996475e-07 -1.493430e-06 -1.573870e-06 -9.495761e-07 3.583917e-03 7.323929e-04 1.694691e-03 3.478369e-02 1.303639e-02 -8.202070e-03
<VARIANCE> 42
 1.170266e-02 1.136692e-02 8.706875e-03 9.424718e-03 7.346353e-03 7.168923e-03 5.654321e-03 1.229808e-02 3.053269e-02 5.430086e-02 3.933175e-02 2.446027e-02 3.717176e-04 2.664357e-04 2.373357e-04 2.600328e-04 2.386998e-04 1.596019e-04 1.441388e-04 3.002395e-04 7.774561e-04 1.452972e-03 1.168265e-03 7.334138e-04 4.602119e-05 3.343233e-05 3.793956e-05 3.025129e-05 3.367482e-05 2.429810e-05 1.690017e-05 3.178512e-05 6.553914e-05 1.135856e-04 9.721780e-05 6.485340e-05 2.091054e-04 2.223218e-04 2.198770e-04 2.643198e-02 5.629439e-03 4.683673e-03
<GCONST> -2.285743e+02
<STATE> 8
<MEAN> 42
 3.727622e-02 2.337006e-02 -1.295674e-02 -2.933917e-02 2.364499e-02 1.695861e-03 -2.927153e-02 -7.077300e-03 3.197006e-02 3.278001e-02 8.094437e-02 3.738940e-02 -5.954635e-05 -5.275747e-05 6.729868e-06 5.630529e-05 -3.251669e-05 -2.246178e-05 1.025686e-04 1.906440e-04 1.562923e-04 7.072886e-05 -2.478759e-05 -8.598454e-06 -3.403428e-05 -2.401310e-05 9.744766e-06 2.841358e-05 -2.132656e-05 -7.251740e-06 5.404111e-05 5.188063e-05 3.511976e-05 1.029492e-05 -1.658643e-05 -1.276843e-05 4.152038e-03 4.798859e-03 1.279344e-03 4.921155e-02 1.173692e-02 1.066118e-02
<VARIANCE> 42
 1.274333e-02 1.442818e-02 1.488414e-03 1.320842e-02 3.582055e-03 4.881842e-03 1.212596e-02 1.045879e-02 4.280347e-02 3.281731e-02 3.477976e-02 1.772605e-02 3.863518e-04 5.033492e-04 9.233048e-05 4.217560e-04 1.156487e-04 2.035460e-04 4.510040e-04 4.765687e-04 1.768004e-03 1.137105e-03 9.141391e-04 5.950115e-04 3.896702e-05 4.849422e-05 2.987577e-05 3.625521e-05 2.261570e-05 2.947635e-05 4.422183e-05 4.589627e-05 2.124752e-04 1.003548e-04 1.303049e-04 4.973106e-05 2.095803e-04 2.059702e-04 2.254549e-04 2.360527e-02 4.300146e-03 2.393453e-03
<GCONST> -2.280854e+02
<STATE> 9
<MEAN> 42
 -4.966926e-02 -3.725878e-02 8.592991e-03 4.305592e-02 -2.669284e-02 -1.894017e-02 6.199265e-02 7.111558e-02 3.106654e-02 -6.574277e-03 -1.994957e-02 -2.954663e-02 -8.521591e-03 -2.478566e-03 6.020107e-03 5.449512e-03 -7.226532e-03 1.786034e-03 2.169937e-02 2.731213e-02 2.013116e-02 9.465124e-03 1.699885e-03 -2.279525e-03 -1.490961e-04 -5.800659e-05 7.443198e-05 3.853332e-05 -1.235174e-04 2.221854e-05 5.234949e-03 7.018076e-03 4.509931e-03 2.605036e-03 6.193217e-04 -5.887061e-04 -4.341543e-03 -2.818665e-03 8.259221e-04 -3.152943e-02 -2.497610e-02 -5.265182e-02
<VARIANCE> 42
 2.629363e-03 4.834221e-03 4.385571e-03 2.283572e-03 1.995958e-03 4.031306e-03 3.957638e-03 8.172533e-03 7.219139e-03 5.826778e-03 4.380045e-03 8.368454e-03 2.050128e-04 3.927815e-04 3.953647e-04 1.984683e-04 2.050548e-04 3.526170e-04 2.935753e-04 4.219151e-04 4.427724e-04 6.042648e-04 5.067820e-04 3.483373e-04 6.702004e-05 7.933421e-05 9.671858e-05 4.866472e-05 6.454843e-05 7.334994e-05 4.376518e-05 6.355591e-05 5.282109e-05 5.473253e-05 6.084273e-05 4.638727e-05 2.032124e-05 5.369165e-05 1.969159e-04 2.283001e-03 3.371553e-03 1.857088e-03
<GCONST> -2.473536e+02
<STATE> 10
<MEAN> 42
 3.242873e-02 1.593966e-02 -1.053280e-02 -2.669766e-02 2.830713e-02 5.293612e-03 -3.254917e-02 5.121844e-03 5.918276e-03 1.680360e-02 1.186791e-02 1.618757e-02 -2.367816e-05 -6.971997e-06 1.659850e-05 1.493149e-05 -2.063239e-05 5.370472e-06 8.706216e-05 1.339749e-04 8.975581e-05 5.521666e-05 1.046559e-05 -1.655378e-05 1.150077e-05 3.171499e-06 -8.330417e-06 -7.473449e-06 9.476053e-06 -2.545967e-06 4.879381e-06 2.558315e-05 2.320594e-05 2.457208e-05 1.904609e-05 1.179555e-05 2.793045e-03 -1.644765e-03 -4.085117e-03 2.069934e-02 5.091054e-03 8.091744e-03
<VARIANCE> 42
 2.124673e-02 2.327758e-02 2.791889e-02 1.520849e-02 1.910212e-02 2.048858e-02 2.659348e-02 1.582583e-02 2.933167e-02 4.001383e-02 3.331479e-02 2.261968e-02 5.142619e-04 7.846131e-04 5.868383e-04 5.027162e-04 3.559878e-04 5.607567e-04 6.420316e-04 2.828724e-04 7.198893e-04 1.183547e-03 9.951456e-04 6.873746e-04 7.156347e-05 8.921597e-05 6.374613e-05 6.445312e-05 4.566825e-05 5.905654e-05 4.821997e-05 3.110867e-05 5.638457e-05 8.729097e-05 7.230514e-05 5.148486e-05 2.192027e-04 2.243510e-04 2.081712e-04 2.514754e-02 1.391875e-02 8.929986e-03
<GCONST> -2.113688e+02
<STATE> 11
<MEAN> 42
 -5.618717e-02 -3.129577e-02 2.175664e-02 4.361092e-02 -3.640433e-02 -9.066805e-03 1.133119e-01 1.433354e-01 8.683041e-02 3.479405e-02 1.188684e-03 -2.408829e-02 2.727866e-03 1.390563e-03 -1.345543e-03 -2.110227e-03 1.933657e-03 5.561474e-05 2.308627e-02 3.991792e-02 3.235181e-02 2.311430e-02 1.446134e-02 7.688752e-03 8.732301e-03 3.393236e-03 -5.332326e-03 -6.037131e-03 6.974834e-03 -9.766263e-04 -1.013020e-03 6.640818e-03 6.176124e-03 7.483945e-03 7.774191e-03 6.460088e-03 -6.121180e-03 -5.566866e-03 3.107686e-03 -2.430671e-02 -2.234637e-02 -1.008993e-01
<VARIANCE> 42
 5.856128e-03 8.567172e-03 1.024707e-02 4.340372e-03 5.837401e-03 8.343259e-03 6.404631e-03 1.322015e-02 1.347484e-02 1.281818e-02 9.757346e-03 1.204782e-02 5.599358e-04 5.796637e-04 7.252897e-04 3.872171e-04 5.046363e-04 5.229506e-04 3.751140e-04 6.367724e-04 6.904276e-04 8.436582e-04 8.683194e-04 7.043838e-04 1.060921e-04 5.714825e-05 8.923507e-05 5.943505e-05 8.409403e-05 4.859906e-05 5.911529e-05 1.062239e-04 8.500205e-05 7.675435e-05 7.546735e-05 7.513448e-05 5.124185e-05 1.558737e-04 3.655273e-04 5.758069e-03 6.205395e-03 3.991988e-03
<GCONST> -2.251689e+02
<STATE> 12
<MEAN> 42
 -3.743073e-02 -2.754424e-02 6.996610e-03 3.204488e-02 -1.989066e-02 -1.425940e-02 1.379773e-01 1.919962e-01 1.303364e-01 7.023355e-02 2.849044e-02 -5.215988e-03 1.813780e-02 9.970423e-03 -8.170263e-03 -1.404185e-02 1.302936e-02 9.916329e-04 1.586344e-02 4.359023e-02 3.863450e-02 3.299719e-02 2.679057e-02 1.916992e-02 1.128705e-02 7.218114e-03 -4.066940e-03 -9.205945e-03 7.682228e-03 1.620175e-03 -5.527329e-03 4.467760e-03 6.623430e-03 9.425242e-03 1.092937e-02 1.013716e-02 -5.906096e-03 -6.464115e-03 5.204814e-03 -5.581088e-03 -2.616127e-02 -1.302329e-01
<VARIANCE> 42
 7.498521e-03 1.443358e-02 1.450088e-02 6.989481e-03 7.587441e-03 1.300950e-02 7.996595e-03 1.566562e-02 1.856506e-02 2.018914e-02 1.723205e-02 1.793824e-02 7.509833e-04 6.102368e-04 6.084035e-04 5.284134e-04 5.319299e-04 4.241287e-04 6.134479e-04 9.378026e-04 9.489402e-04 1.023130e-03 1.122337e-03 1.020717e-03 1.340688e-04 1.030173e-04 1.441513e-04 8.250615e-05 1.144514e-04 9.206846e-05 1.082890e-04 1.770288e-04 1.232644e-04 1.259087e-04 1.060599e-04 8.392461e-05 8.004550e-05 2.832761e-04 4.645034e-04 1.070179e-02 1.015952e-02 4.794100e-03
<GCONST> -2.108053e+02
<STATE> 13
<MEAN> 42
 7.462695e-02 1.111267e-01 4.643349e-02 -9.927221e-02 1.366591e-02 8.169077e-02 -3.710518e-02 2.498694e-02 4.018721e-02 4.050174e-02 3.322890e-02 2.388677e-02 2.877727e-04 1.964991e-04 -9.191074e-05 -2.418172e-04 1.898434e-04 5.387850e-05 3.586954e-05 4.224000e-04 4.200138e-04 4.184218e-04 3.928923e-04 3.237705e-04 1.007464e-04 7.641988e-05 -2.437647e-05 -8.841635e-05 6.339373e-05 2.599316e-05 -8.215163e-05 -5.042857e-07 4.211561e-05 8.668774e-05 1.130919e-04 1.153910e-04 3.383239e-03 -4.539457e-03 1.049516e-04 4.189811e-02 7.639728e-02 5.697571e-03
<VARIANCE> 42
 3.823886e-02 1.854946e-01 6.937037e-02 9.482238e-02 7.584430e-03 1.180906e-01 3.793504e-02 2.467270e-02 1.326323e-02 2.509162e-02 2.292263e-02 1.251464e-02 1.104046e-03 5.945254e-03 2.222038e-03 2.972616e-03 1.778836e-04 3.810616e-03 1.365565e-03 3.677390e-04 4.790729e-04 8.237652e-04 7.184893e-04 3.643591e-04 8.255730e-05 5.435285e-04 2.420964e-04 2.524899e-04 2.656733e-05 3.723265e-04 1.474585e-04 2.998341e-05 5.130955e-05 8.068058e-05 6.717788e-05 3.352554e-05 1.983063e-04 1.949378e-04 2.158469e-04 2.847596e-02 1.080491e-01 1.197622e-02
<GCONST> -1.915398e+02
<STATE> 14
<MEAN> 42
 2.811811e-01 3.743800e-01 9.275989e-02 -3.302077e-01 9.589138e-02 2.324522e-01 -1.219651e-01 9.546532e-02 2.204009e-01 2.834555e-01 2.991712e-01 2.718019e-01 3.577337e-02 2.919636e-02 -6.596405e-03 -3.245568e-02 2.125486e-02 1.139426e-02 -3.186368e-02 -7.681509e-03 1.484206e-02 3.550380e-02 4.557830e-02 4.404329e-02 4.627747e-03 3.945836e-03 -6.711359e-04 -4.283736e-03 2.670034e-03 1.622581e-03 -7.871418e-03 -6.747611e-03 -7.625943e-04 3.853157e-03 6.214880e-03 6.615329e-03 2.191038e-02 4.861439e-03 1.229663e-02 2.706330e-01 2.551967e-01 1.644125e-02
<VARIANCE> 42
 2.018842e-01 6.113812e-01 3.265907e-01 3.270748e-01 1.114519e-01 4.218403e-01 2.058402e-01 1.623512e-01 1.106176e-01 1.372968e-01 1.330034e-01 1.157344e-01 1.074887e-02 2.593585e-02 1.382678e-02 1.489282e-02 5.813223e-03 1.721888e-02 9.139993e-03 5.635643e-03 5.759147e-03 7.940400e-03 7.464017e-03 6.227610e-03 7.534724e-04 2.278721e-03 1.330354e-03 1.181887e-03 4.747506e-04 1.620626e-03 7.875833e-04 5.132742e-04 4.894260e-04 5.511385e-04 5.071722e-04 4.125078e-04 1.335332e-03 1.557943e-03 9.880279e-04 1.419825e-01 3.664899e-01 9.343684e-02
<GCONST> -1.089519e+02
<STATE> 15
<MEAN> 42
 3.034910e-01 3.070264e-01 -8.949051e-04 -3.042009e-01 1.550168e-01 1.490067e-01 -3.514576e-01 -3.606555e-01 -1.330665e-01 2.919510e-01 4.745454e-01 4.853158e-01 -1.315481e-02 -8.713382e-03 4.456966e-03 1.094024e-02 -8.821740e-03 -2.187726e-03 -1.412846e-02 -4.321880e-02 -4.174697e-02 -3.259389e-02 -2.579649e-02 -1.756578e-02 -3.948954e-03 -3.457781e-03 4.888743e-04 3.701766e-03 -2.220218e-03 -1.496116e-03 3.329325e-03 1.877043e-03 -6.513359e-04 -3.616150e-03 -4.912638e-03 -4.993961e-03 4.716052e-02 1.922432e-02 7.709613e-03 3.901883e-01 2.406928e-01 3.231365e-01
<VARIANCE> 42
 1.371043e-01 2.021088e-01 2.488035e-01 1.057201e-01 1.425367e-01 1.911739e-01 1.548867e-01 4.945669e-01 7.683799e-01 5.022780e-01 4.823440e-01 3.643124e-01 6.215039e-03 7.835462e-03 5.520898e-03 5.649230e-03 3.922745e-03 5.140132e-03 6.053858e-03 1.451848e-02 1.968030e-02 1.828071e-02 2.431962e-02 2.017464e-02 5.859797e-04 7.343775e-04 6.266125e-04 5.037868e-04 4.253370e-04 5.352411e-04 5.711291e-04 1.502520e-03 1.744273e-03 1.742935e-03 2.461141e-03 1.960820e-03 1.717451e-03 2.085270e-03 1.546378e-03 2.632966e-01 1.771870e-01 2.566153e-01
<GCONST> -1.021753e+02
<STATE> 16
<MEAN> 42
 -1.113663e-01 -4.257607e-02 6.350487e-02 7.631849e-02 -8.381321e-02 4.593324e-03 -1.052698e-01 -3.627606e-01 -2.754981e-01 -2.229230e-01 -1.620008e-01 -1.132147e-01 -5.410638e-03 -9.811379e-03 -4.392385e-03 7.561050e-03 -4.199862e-04 -7.203113e-03 2.400323e-02 4.934467e-02 3.725120e-02 1.618469e-02 4.829045e-03 -3.254809e-03 6.039759e-03 6.385078e-03 3.509948e-04 -6.251510e-03 2.854710e-03 3.388653e-03 -1.657029e-03 1.390935e-03 4.801131e-03 8.628604e-03 1.003165e-02 9.632826e-03 -2.997702e-03 3.288078e-02 4.553439e-03 -1.177844e-01 1.043802e-02 1.904496e-01
<VARIANCE> 42
 1.785911e-02 2.500486e-02 3.873448e-02 1.068375e-02 2.122716e-02 2.695656e-02 1.319107e-01 2.006583e-01 2.488552e-01 5.833924e-02 2.023247e-02 1.783285e-02 8.651086e-04 1.089902e-03 1.083841e-03 7.063052e-04 7.049936e-04 8.771431e-04 1.674565e-03 3.411978e-03 6.269008e-03 2.750260e-03 1.733401e-03 1.145801e-03 1.088301e-04 1.484273e-04 1.396208e-04 9.441583e-05 8.709292e-05 1.177316e-04 1.390281e-04 2.974923e-04 5.240432e-04 4.023447e-04 2.936104e-04 1.939746e-04 5.197086e-04 9.817178e-04 1.090001e-03 1.286326e-02 2.303847e-02 1.188111e-01
<GCONST> -1.750934e+02
<STATE> 17
<MEAN> 42
 3.332536e-02 2.610108e-02 -1.660131e-02 -3.670187e-02 2.859502e-02 4.952000e-03 -3.815790e-02 2.760016e-02 7.235485e-02 6.157774e-02 5.560964e-02 7.117400e-02 7.604028e-05 4.192692e-05 -3.406935e-05 -5.954196e-05 5.470903e-05 4.934001e-06 1.756558e-04 4.260920e-04 3.993551e-04 3.181843e-04 2.153142e-04 1.358624e-04 3.342970e-05 3.801724e-05 4.545870e-06 -3.570546e-05 1.402174e-05 2.161103e-05 3.058898e-06 2.669319e-06 1.856602e-05 3.430274e-05 4.214499e-05 4.343871e-05 1.874786e-03 2.723828e-03 -3.296843e-03 5.960871e-02 9.559378e-03 -7.355779e-03
<VARIANCE> 42
 2.598892e-02 3.013355e-02 6.135081e-02 1.254222e-02 3.641472e-02 3.916297e-02 1.672331e-02 2.106122e-02 6.247223e-02 5.775241e-02 4.787230e-02 4.694344e-02 5.617867e-04 7.150779e-04 1.009880e-03 3.859774e-04 6.087385e-04 7.232286e-04 4.835233e-04 5.275034e-04 7.348648e-04 6.883667e-04 9.901596e-04 1.146777e-03 9.756334e-05 1.216524e-04 1.195269e-04 7.972441e-05 7.844033e-05 9.673612e-05 6.566114e-05 8.004501e-05 7.984890e-05 6.247135e-05 9.704070e-05 1.063448e-04 2.092144e-04 2.337331e-04 2.413690e-04 2.971024e-02 2.198349e-02 1.156294e-02
<GCONST> -1.997868e+02
<STATE> 18
<MEAN> 42
 3.237885e-02 4.746476e-02 1.111635e-02 -3.251493e-02 5.989391e-04 2.320723e-02 -8.571003e-03 4.443155e-02 7.076228e-02 4.143612e-02 5.018198e-02 3.654461e-02 1.556355e-04 6.432761e-05 -9.138383e-05 -1.109319e-04 1.226709e-04 -1.055433e-05 4.829276e-04 1.153787e-03 1.037821e-03 6.722971e-04 4.538994e-04 2.948690e-04 4.167564e-05 6.600611e-05 2.464431e-05 -5.302597e-05 6.863194e-06 4.725722e-05 -5.259688e-06 1.310414e-05 7.259061e-06 2.421304e-05 4.433011e-05 5.495623e-05 2.984104e-03 -3.705431e-03 -2.227351e-03 4.005063e-02 2.881770e-02 -1.956841e-02
<VARIANCE> 42
 1.040515e-02 3.334156e-02 8.766749e-03 1.945090e-02 1.228111e-03 1.839959e-02 2.748338e-02 4.205029e-02 5.589958e-02 3.941277e-02 3.527179e-02 2.781701e-02 3.962841e-04 1.205546e-03 4.643627e-04 6.848864e-04 1.294929e-04 7.358796e-04 1.032236e-03 1.390868e-03 1.645557e-03 1.340919e-03 1.184656e-03 9.340066e-04 6.614118e-05 1.342492e-04 9.256980e-05 7.704634e-05 4.591764e-05 9.638023e-05 1.051938e-04 1.599820e-04 1.531274e-04 1.339888e-04 1.193672e-04 9.692367e-05 2.132689e-04 2.275015e-04 2.235310e-04 3.186030e-02 1.640970e-02 1.650738e-02
<GCONST> -2.031501e+02
<STATE> 19
<MEAN> 42
 4.123832e-02 6.984814e-02 2.615723e-02 -4.762983e-02 5.909102e-04 4.163501e-02 -2.559561e-02 4.456136e-02 5.093943e-02 4.906867e-02 5.586765e-02 5.083409e-02 4.583033e-05 2.630660e-05 -1.932919e-05 -3.565266e-05 3.164716e-05 4.473317e-06 1.466004e-04 3.038539e-04 2.599330e-04 1.376616e-04 7.706840e-05 4.083931e-05 3.264352e-06 -5.411615e-06 -8.335018e-06 1.326355e-06 5.790206e-06 -6.665758e-06 -9.350415e-07 -5.933142e-06 -2.034521e-05 -1.421955e-05 -6.057579e-06 -6.797684e-06 3.839193e-03 -3.321611e-03 -2.100342e-03 4.760319e-02 4.854015e-02 -6.980523e-03
<VARIANCE> 42
 1.180136e-02 3.223639e-02 1.588177e-02 1.797004e-02 5.777004e-03 2.118412e-02 1.844634e-02 5.028955e-02 2.981654e-02 2.796447e-02 3.036376e-02 2.753642e-02 3.680986e-04 1.039205e-03 6.093461e-04 5.522246e-04 2.307759e-04 7.309902e-04 6.633128e-04 1.554001e-03 8.796206e-04 9.427727e-04 1.060566e-03 9.282346e-04 6.637236e-05 1.384780e-04 8.309550e-05 8.169135e-05 4.059068e-05 9.398651e-05 7.338689e-05 1.565912e-04 8.617350e-05 1.160659e-04 1.313883e-04 1.110878e-04 2.023689e-04 2.117069e-04 2.071538e-04 2.191547e-02 1.957164e-02 1.645940e-02
<GCONST> -2.046589e+02
<STATE> 20
<MEAN> 42
 3.273357e-02 4.069240e-02 -1.389523e-03 -3.850570e-02 1.842941e-02 1.240404e-02 -1.494441e-02 1.820927e-02 2.150367e-02 2.826861e-02 4.745688e-02 4.555766e-02 1.185315e-05 2.345038e-05 1.188251e-05 -1.765619e-05 -1.625231e-07 1.779766e-05 1.614491e-05 5.905522e-05 8.510755e-05 5.518223e-05 3.656550e-05 3.012034e-05 -2.975073e-06 -1.504046e-06 1.475240e-06 2.239460e-06 -2.069537e-06 -1.235130e-07 -6.302504e-06 -1.561169e-05 -1.691754e-05 -8.280458e-06 -6.169316e-06 -4.912210e-06 3.136351e-03 -7.755124e-04 2.102907e-03 3.525637e-02 2.869712e-02 3.107664e-03
<VARIANCE> 42
 2.068745e-02 1.813093e-02 1.669369e-02 1.516782e-02 1.411206e-02 1.242884e-02 1.911091e-02 4.089065e-02 4.366474e-02 3.484963e-02 3.863129e-02 3.652285e-02 6.332156e-04 4.106635e-04 5.354220e-04 3.881655e-04 4.825609e-04 3.149484e-04 3.783449e-04 7.040460e-04 8.757245e-04 7.330176e-04 1.051699e-03 9.699209e-04 7.219307e-05 4.355295e-05 6.299056e-05 4.214569e-05 5.683898e-05 3.527055e-05 3.204366e-05 5.223606e-05 6.462137e-05 6.398386e-05 1.009833e-04 8.628217e-05 2.152496e-04 2.236962e-04 2.176101e-04 2.349365e-02 1.349289e-02 2.035514e-02
<GCONST> -2.119300e+02
<STATE> 21
<MEAN> 42
 4.273588e-03 8.174375e-02 3.729625e-02 -6.422006e-02 1.359076e-02 1.703689e-02 -3.781096e-02 -2.787453e-02 -7.238298e-02 -4.688355e-02 7.563169e-02 -1.984443e-02 1.826356e-04 2.134742e-04 2.893641e-05 -1.989763e-04 7.821132e-05 1.213781e-04 6.870150e-05 2.837258e-04 3.045908e-04 2.395491e-04 2.186068e-04 1.899970e-04 -4.108264e-05 -1.807025e-05 2.276375e-05 2.944202e-05 -3.179712e-05 2.343844e-06 -4.752628e-05 -1.383220e-04 -1.056121e-04 -6.452979e-05 -5.848603e-05 -3.626864e-05 5.135775e-03 2.929950e-03 -7.299956e-03 2.980744e-03 8.076328e-02 4.850829e-02
<VARIANCE> 42
 2.491771e-02 1.503556e-02 1.940224e-02 1.443045e-02 1.709406e-02 1.066811e-02 1.218248e-02 9.844406e-02 6.507857e-02 3.962585e-02 2.845397e-02 2.618554e-02 6.851840e-04 2.730749e-04 6.355403e-04 3.218414e-04 5.943517e-04 2.831873e-04 2.593432e-04 1.880505e-03 1.125120e-03 6.999564e-04 6.072852e-04 3.794974e-04 8.261105e-05 4.590796e-05 7.867142e-05 4.489875e-05 6.936766e-05 4.170985e-05 2.045225e-05 1.169875e-04 8.508431e-05 5.953060e-05 5.636331e-05 3.548242e-05 1.859276e-04 2.084131e-04 1.647376e-04 2.248802e-02 1.135229e-02 2.817176e-02
<GCONST> -2.128542e+02
<STATE> 22
<MEAN> 42
 2.904980e-02 3.369278e-02 -2.070564e-03 -2.889023e-02 1.946655e-02 1.073196e-02 -1.744969e-02 2.847618e-02 2.984117e-02 2.943632e-02 4.187915e-02 3.800281e-02 1.673075e-04 8.741536e-05 -7.990049e-05 -1.274517e-04 1.243471e-04 3.863199e-06 9.334435e-05 4.073749e-04 3.964058e-04 3.217889e-04 2.590981e-04 1.811778e-04 1.978202e-05 1.569538e-05 -4.141971e-06 -1.780871e-05 1.195541e-05 5.738932e-06 -3.220721e-05 -2.443979e-05 -4.745934e-06 3.990991e-06 1.466807e-05 1.757661e-05 2.613020e-03 -1.546027e-03 -8.652973e-04 3.291102e-02 2.148596e-02 -3.543644e-03
<VARIANCE> 42
 9.923237e-03 1.140152e-02 3.196955e-03 9.754035e-03 3.696193e-03 4.997160e-03 1.084249e-02 4.156531e-02 2.687644e-02 1.573117e-02 1.928551e-02 1.871133e-02 2.466730e-04 2.588021e-04 1.741701e-04 2.090922e-04 1.470171e-04 1.551952e-04 2.050310e-04 7.213403e-04 5.294462e-04 3.370608e-04 4.166733e-04 3.614807e-04 4.615170e-05 3.768508e-05 4.385068e-05 3.095671e-05 3.586739e-05 2.931806e-05 2.019060e-05 5.668766e-05 4.386040e-05 2.900151e-05 3.484925e-05 2.900277e-05 1.341984e-04 1.578102e-04 1.875206e-04 1.221464e-02 6.505219e-03 1.452368e-02
<GCONST> -2.378047e+02
<STATE> 23
<MEAN> 42
 2.564871e-02 2.944810e-02 -2.398425e-03 -2.616631e-02 1.231857e-02 1.341729e-02 -1.646938e-02 2.761569e-02 3.973269e-02 4.652774e-02 3.963577e-02 4.892175e-02 -1.696593e-04 -1.163661e-04 5.337257e-05 1.427987e-04 -1.124007e-04 -3.219034e-05 2.232008e-04 1.929405e-04 5.481723e-05 -7.596991e-05 -1.514223e-04 -2.123054e-04 4.658075e-06 3.916330e-06 -7.780143e-07 -4.128877e-06 2.797664e-06 1.602029e-06 2.274408e-05 3.699288e-05 2.897682e-05 2.116787e-05 1.406620e-05 5.911841e-06 1.494401e-03 2.694770e-03 -8.432872e-04 3.905503e-02 1.757284e-02 -6.463368e-03
<VARIANCE> 42
 1.235817e-02 1.343005e-02 5.204371e-03 1.154572e-02 5.503132e-03 6.283505e-03 2.545357e-02 7.689125e-02 5.971732e-02 3.667068e-02 2.660939e-02 2.763184e-02 4.349449e-04 3.033572e-04 1.491121e-04 3.324354e-04 2.169724e-04 1.185812e-04 4.816508e-04 1.365467e-03 1.303869e-03 1.131858e-03 8.649087e-04 6.223058e-04 6.055822e-05 4.254360e-05 3.253083e-05 4.356691e-05 3.608412e-05 2.268211e-05 3.353244e-05 1.145647e-04 1.292172e-04 1.296105e-04 9.973867e-05 6.877483e-05 1.774812e-04 1.838893e-04 1.860193e-04 1.885563e-02 8.622028e-03 3.236493e-02
<GCONST> -2.184501e+02
<STATE> 24
<MEAN> 42
 4.957834e-02 5.310921e-02 4.054330e-03 -4.751005e-02 2.156378e-02 2.686937e-02 -2.968529e-02 2.371556e-03 3.019019e-02 5.645768e-02 9.597056e-02 1.075570e-01 1.170944e-04 7.821751e-05 -3.853437e-05 -9.699976e-05 7.847259e-05 2.119977e-05 -2.048688e-04 -3.574955e-04 -2.461279e-04 -1.408456e-04 -2.004197e-05 8.072393e-05 -1.837375e-05 -7.304843e-06 1.113276e-05 1.280757e-05 -1.486226e-05 2.201824e-06 -3.142649e-05 -6.527442e-05 -6.519866e-05 -4.900216e-05 -3.335878e-05 -2.020746e-05 3.525036e-03 -1.052774e-03 4.927971e-04 7.266150e-02 3.877177e-02 1.848152e-02
<VARIANCE> 42
 1.931611e-02 2.581473e-02 1.482990e-02 1.903571e-02 1.062719e-02 1.568767e-02 2.631924e-02 1.837176e+00 1.296996e-01 4.353439e-01 1.064217e-01 1.026366e-01 7.413593e-04 7.098663e-04 5.018776e-04 6.002806e-04 4.466413e-04 4.223913e-04 7.717871e-04 1.357689e-01 2.493350e-03 6.053986e-02 3.881494e-03 3.445820e-03 1.067147e-04 8.802069e-05 9.853493e-05 7.275358e-05 8.092898e-05 6.677690e-05 1.000240e-04 5.149556e-02 1.839103e-04 2.222056e-02 4.834688e-04 4.045528e-04 2.799140e-04 2.725906e-04 2.691153e-04 7.613036e-02 2.266544e-02 2.198738e-01
<GCONST> -1.606354e+02
<TRANSP> 25
 0.000000e+00 1.000000e+00 0.000000e+00 0.000000e+00 0.000000e+00 0.000000e+00 0.000000e+00 0.000000e+00 0.000000e+00 0.000000e+00 0.000000e+00 0.000000e+00 0.000000e+00 0.000000e+00 0.000000e+00 0.000000e+00 0.000000e+00 0.000000e+00 0.000000e+00 0.000000e+00 0.000000e+00 0.000000e+00 0.000000e+00 0.000000e+00 0.000000e+00
 0.000000e+00 9.940878e-01 5.912166e-03 0.000000e+00 0.000000e+00 0.000000e+00 0.000000e+00 0.000000e+00 0.000000e+00 0.000000e+00 0.000000e+00 0.000000e+00 0.000000e+00 0.000000e+00 0.000000e+00 0.000000e+00 0.000000e+00 0.000000e+00 0.000000e+00 0.000000e+00 0.000000e+00 0.000000e+00 0.000000e+00 0.000000e+00 0.000000e+00
 0.000000e+00 0.000000e+00 9.713365e-01 2.866348e-02 0.000000e+00 0.000000e+00 0.000000e+00 0.000000e+00 0.000000e+00 0.000000e+00 0.000000e+00 0.000000e+00 0.000000e+00 0.000000e+00 0.000000e+00 0.000000e+00 0.000000e+00 0.000000e+00 0.000000e+00 0.000000e+00 0.000000e+00 0.000000e+00 0.000000e+00 0.000000e+00 0.000000e+00
 0.000000e+00 0.000000e+00 0.000000e+00 9.928740e-01 7.126010e-03 0.000000e+00 0.000000e+00 0.000000e+00 0.000000e+00 0.000000e+00 0.000000e+00 0.000000e+00 0.000000e+00 0.000000e+00 0.000000e+00 0.000000e+00 0.000000e+00 0.000000e+00 0.000000e+00 0.000000e+00 0.000000e+00 0.000000e+00 0.000000e+00 0.000000e+00 0.000000e+00
 0.000000e+00 0.000000e+00 0.000000e+00 0.000000e+00 7.073646e-01 2.926354e-01 0.000000e+00 0.000000e+00 0.000000e+00 0.000000e+00 0.000000e+00 0.000000e+00 0.000000e+00 0.000000e+00 0.000000e+00 0.000000e+00 0.000000e+00 0.000000e+00 0.000000e+00 0.000000e+00 0.000000e+00 0.000000e+00 0.000000e+00 0.000000e+00 0.000000e+00
 0.000000e+00 0.000000e+00 0.000000e+00 0.000000e+00 0.000000e+00 9.926008e-01 7.399182e-03 0.000000e+00 0.000000e+00 0.000000e+00 0.000000e+00 0.000000e+00 0.000000e+00 0.000000e+00 0.000000e+00 0.000000e+00 0.000000e+00 0.000000e+00 0.000000e+00 0.000000e+00 0.000000e+00 0.000000e+00 0.000000e+00 0.000000e+00 0.000000e+00
 0.000000e+00 0.000000e+00 0.000000e+00 0.000000e+00 0.000000e+00 0.000000e+00 9.988690e-01 1.130947e-03 0.000000e+00 0.000000e+00 0.000000e+00 0.000000e+00 0.000000e+00 0.000000e+00 0.000000e+00 0.000000e+00 0.000000e+00 0.000000e+00 0.000000e+00 0.000000e+00 0.000000e+00 0.000000e+00 0.000000e+00 0.000000e+00 0.000000e+00
 0.000000e+00 0.000000e+00 0.000000e+00 0.000000e+00 0.000000e+00 0.000000e+00 0.000000e+00 9.906814e-01 9.318580e-03 0.000000e+00 0.000000e+00 0.000000e+00 0.000000e+00 0.000000e+00 0.000000e+00 0.000000e+00 0.000000e+00 0.000000e+00 0.000000e+00 0.000000e+00 0.000000e+00 0.000000e+00 0.000000e+00 0.000000e+00 0.000000e+00
 0.000000e+00 0.000000e+00 0.000000e+00 0.000000e+00 0.000000e+00 0.000000e+00 0.000000e+00 0.000000e+00 9.077004e-02 9.092300e-01 0.000000e+00 0.000000e+00 0.000000e+00 0.000000e+00 0.000000e+00 0.000000e+00 0.000000e+00 0.000000e+00 0.000000e+00 0.000000e+00 0.000000e+00 0.000000e+00 0.000000e+00 0.000000e+00 0.000000e+00
 0.000000e+00 0.000000e+00 0.000000e+00 0.000000e+00 0.000000e+00 0.000000e+00 0.000000e+00 0.000000e+00 0.000000e+00 9.955629e-01 4.437102e-03 0.000000e+00 0.000000e+00 0.000000e+00 0.000000e+00 0.000000e+00 0.000000e+00 0.000000e+00 0.000000e+00 0.000000e+00 0.000000e+00 0.000000e+00 0.000000e+00 0.000000e+00 0.000000e+00
 0.000000e+00 0.000000e+00 0.000000e+00 0.000000e+00 0.000000e+00 0.000000e+00 0.000000e+00 0.000000e+00 0.000000e+00 0.000000e+00 1.350305e-01 8.649695e-01 0.000000e+00 0.000000e+00 0.000000e+00 0.000000e+00 0.000000e+00 0.000000e+00 0.000000e+00 0.000000e+00 0.000000e+00 0.000000e+00 0.000000e+00 0.000000e+00 0.000000e+00
 0.000000e+00 0.000000e+00 0.000000e+00 0.000000e+00 0.000000e+00 0.000000e+00 0.000000e+00 0.000000e+00 0.000000e+00 0.000000e+00 0.000000e+00 1.713230e-01 8.286770e-01 0.000000e+00 0.000000e+00 0.000000e+00 0.000000e+00 0.000000e+00 0.000000e+00 0.000000e+00 0.000000e+00 0.000000e+00 0.000000e+00 0.000000e+00 0.000000e+00
 0.000000e+00 0.000000e+00 0.000000e+00 0.000000e+00 0.000000e+00 0.000000e+00 0.000000e+00 0.000000e+00 0.000000e+00 0.000000e+00 0.000000e+00 0.000000e+00 9.925306e-01 7.469416e-03 0.000000e+00 0.000000e+00 0.000000e+00 0.000000e+00 0.000000e+00 0.000000e+00 0.000000e+00 0.000000e+00 0.000000e+00 0.000000e+00 0.000000e+00
 0.000000e+00 0.000000e+00 0.000000e+00 0.000000e+00 0.000000e+00 0.000000e+00 0.000000e+00 0.000000e+00 0.000000e+00 0.000000e+00 0.000000e+00 0.000000e+00 0.000000e+00 7.600411e-01 2.399589e-01 0.000000e+00 0.000000e+00 0.000000e+00 0.000000e+00 0.000000e+00 0.000000e+00 0.000000e+00 0.000000e+00 0.000000e+00 0.000000e+00
 0.000000e+00 0.000000e+00 0.000000e+00 0.000000e+00 0.000000e+00 0.000000e+00 0.000000e+00 0.000000e+00 0.000000e+00 0.000000e+00 0.000000e+00 0.000000e+00 0.000000e+00 0.000000e+00 9.420772e-01 5.792282e-02 0.000000e+00 0.000000e+00 0.000000e+00 0.000000e+00 0.000000e+00 0.000000e+00 0.000000e+00 0.000000e+00 0.000000e+00
 0.000000e+00 0.000000e+00 0.000000e+00 0.000000e+00 0.000000e+00 0.000000e+00 0.000000e+00 0.000000e+00 0.000000e+00 0.000000e+00 0.000000e+00 0.000000e+00 0.000000e+00 0.000000e+00 0.000000e+00 5.467655e-01 4.532345e-01 0.000000e+00 0.000000e+00 0.000000e+00 0.000000e+00 0.000000e+00 0.000000e+00 0.000000e+00 0.000000e+00
 0.000000e+00 0.000000e+00 0.000000e+00 0.000000e+00 0.000000e+00 0.000000e+00 0.000000e+00 0.000000e+00 0.000000e+00 0.000000e+00 0.000000e+00 0.000000e+00 0.000000e+00 0.000000e+00 0.000000e+00 0.000000e+00 9.940468e-01 5.953150e-03 0.000000e+00 0.000000e+00 0.000000e+00 0.000000e+00 0.000000e+00 0.000000e+00 0.000000e+00
 0.000000e+00 0.000000e+00 0.000000e+00 0.000000e+00 0.000000e+00 0.000000e+00 0.000000e+00 0.000000e+00 0.000000e+00 0.000000e+00 0.000000e+00 0.000000e+00 0.000000e+00 0.000000e+00 0.000000e+00 0.000000e+00 0.000000e+00 9.805036e-01 1.949633e-02 0.000000e+00 0.000000e+00 0.000000e+00 0.000000e+00 0.000000e+00 0.000000e+00
 0.000000e+00 0.000000e+00 0.000000e+00 0.000000e+00 0.000000e+00 0.000000e+00 0.000000e+00 0.000000e+00 0.000000e+00 0.000000e+00 0.000000e+00 0.000000e+00 0.000000e+00 0.000000e+00 0.000000e+00 0.000000e+00 0.000000e+00 0.000000e+00 9.944491e-01 5.550895e-03 0.000000e+00 0.000000e+00 0.000000e+00 0.000000e+00 0.000000e+00
 0.000000e+00 0.000000e+00 0.000000e+00 0.000000e+00 0.000000e+00 0.000000e+00 0.000000e+00 0.000000e+00 0.000000e+00 0.000000e+00 0.000000e+00 0.000000e+00 0.000000e+00 0.000000e+00 0.000000e+00 0.000000e+00 0.000000e+00 0.000000e+00 0.000000e+00 9.985932e-01 1.406862e-03 0.000000e+00 0.000000e+00 0.000000e+00 0.000000e+00
 0.000000e+00 0.000000e+00 0.000000e+00 0.000000e+00 0.000000e+00 0.000000e+00 0.000000e+00 0.000000e+00 0.000000e+00 0.000000e+00 0.000000e+00 0.000000e+00 0.000000e+00 0.000000e+00 0.000000e+00 0.000000e+00 0.000000e+00 0.000000e+00 0.000000e+00 0.000000e+00 9.949930e-01 5.007048e-03 0.000000e+00 0.000000e+00 0.000000e+00
 0.000000e+00 0.000000e+00 0.000000e+00 0.000000e+00 0.000000e+00 0.000000e+00 0.000000e+00 0.000000e+00 0.000000e+00 0.000000e+00 0.000000e+00 0.000000e+00 0.000000e+00 0.000000e+00 0.000000e+00 0.000000e+00 0.000000e+00 0.000000e+00 0.000000e+00 0.000000e+00 0.000000e+00 9.974933e-01 2.506683e-03 0.000000e+00 0.000000e+00
 0.000000e+00 0.000000e+00 0.000000e+00 0.000000e+00 0.000000e+00 0.000000e+00 0.000000e+00 0.000000e+00 0.000000e+00 0.000000e+00 0.000000e+00 0.000000e+00 0.000000e+00 0.000000e+00 0.000000e+00 0.000000e+00 0.000000e+00 0.000000e+00 0.000000e+00 0.000000e+00 0.000000e+00 0.000000e+00 9.980253e-01 1.974677e-03 0.000000e+00
 0.000000e+00 0.000000e+00 0.000000e+00 0.000000e+00 0.000000e+00 0.000000e+00 0.000000e+00 0.000000e+00 0.000000e+00 0.000000e+00 0.000000e+00 0.000000e+00 0.000000e+00 0.000000e+00 0.000000e+00 0.000000e+00 0.000000e+00 0.000000e+00 0.000000e+00 0.000000e+00 0.000000e+00 0.000000e+00 0.000000e+00 9.976410e-01 2.358982e-03
 0.000000e+00 0.000000e+00 0.000000e+00 0.000000e+00 0.000000e+00 0.000000e+00 0.000000e+00 0.000000e+00 0.000000e+00 0.000000e+00 0.000000e+00 0.000000e+00 0.000000e+00 0.000000e+00 0.000000e+00 0.000000e+00 0.000000e+00 0.000000e+00 0.000000e+00 0.000000e+00 0.000000e+00 0.000000e+00 0.000000e+00 0.000000e+00 0.000000e+00
<ENDHMM>
