~o
<STREAMINFO> 1 42
<VECSIZE> 42<NULLD><USER><DIAGC>
~h "CONTROL"
<BEGINHMM>
<NUMSTATES> 20
<STATE> 2
<NUMMIXES> 8
<MIXTURE> 1 7.812260e-02
<MEAN> 42
 9.415456e-02 1.225068e-01 2.713333e-02 -8.441246e-02 4.330571e-02 6.941877e-02 -2.379701e-02 5.715475e-02 1.116434e-01 1.341450e-01 1.506597e-01 1.343097e-01 9.190281e-04 4.312888e-03 5.036606e-03 4.794624e-04 -7.352092e-04 4.415848e-03 1.734574e-03 1.966492e-03 1.832203e-03 3.141439e-03 3.169166e-03 3.091432e-03 4.001835e-04 1.917997e-03 2.629576e-03 5.547404e-04 -1.728409e-04 2.162851e-03 1.487733e-03 1.947738e-03 1.411906e-03 1.802115e-03 1.465193e-03 1.330170e-03 6.936726e-03 3.950711e-03 3.581590e-03 1.190196e-01 8.619877e-02 1.787498e-02
<VARIANCE> 42
 2.358859e-03 5.464433e-03 3.744201e-03 2.907437e-03 1.449104e-03 3.685812e-03 4.137269e-03 1.480791e-02 1.992780e-02 6.666288e-03 7.968419e-03 7.296341e-03 7.354932e-05 6.141704e-05 5.551319e-05 5.348055e-05 4.905488e-05 4.077341e-05 2.355644e-05 7.374013e-05 2.809918e-05 4.065752e-05 2.697906e-05 2.467319e-05 2.378080e-05 1.991724e-05 2.650941e-05 1.532692e-05 2.012115e-05 1.755174e-05 4.830516e-06 2.601508e-05 4.302182e-06 1.211414e-05 5.597367e-06 4.405090e-06 2.825781e-05 2.615436e-04 3.775729e-04 3.120787e-03 4.154987e-03 5.464159e-03
<GCONST> -2.856145e+02
<MIXTURE> 2 1.577878e-01
<MEAN> 42
 6.049644e-03 1.327666e-02 5.189071e-03 -6.693874e-04 3.148584e-03 6.268935e-03 7.457031e-03 1.251927e-02 1.864622e-02 1.019492e-02 4.019196e-03 9.166928e-03 2.056551e-03 2.651600e-03 1.734316e-03 -4.884086e-04 1.000930e-03 2.010899e-03 1.280935e-03 2.526381e-03 1.656063e-03 2.132837e-03 1.619485e-03 1.632410e-03 1.063657e-03 1.407147e-03 1.030095e-03 -8.210668e-05 5.176416e-04 1.100128e-03 7.019126e-04 1.524491e-03 1.040431e-03 1.270371e-03 8.765154e-04 9.202762e-04 2.983772e-04 3.204623e-05 5.596963e-04 5.973018e-03 9.829546e-03 -6.207041e-04
<VARIANCE> 42
 4.095427e-04 4.612532e-04 4.858077e-04 3.483724e-04 3.170603e-04 4.387883e-04 5.195917e-04 1.370589e-03 1.100669e-03 6.537745e-04 4.191562e-04 8.006800e-04 2.930318e-05 2.026781e-05 2.277603e-05 1.934251e-05 2.100396e-05 1.408028e-05 7.332811e-06 7.374013e-05 9.872299e-06 4.065752e-05 1.131955e-05 1.130616e-05 1.124734e-05 7.502177e-06 7.791653e-06 7.462502e-06 7.588597e-06 4.784310e-06 2.170793e-06 2.601508e-05 3.178694e-06 1.211414e-05 2.333675e-06 2.469890e-06 2.131001e-06 8.319799e-06 3.661432e-05 2.765478e-04 3.009015e-04 3.183697e-04
<GCONST> -3.469448e+02
<MIXTURE> 3 1.489691e-01
<MEAN> 42
 -4.184559e-03 -1.415610e-02 -1.318562e-02 1.838942e-02 8.856033e-03 -1.863826e-02 8.125857e-03 1.075561e-02 -4.591914e-04 -1.093564e-02 -1.641641e-02 -1.228759e-02 -3.502084e-04 -1.125005e-03 1.559770e-04 2.443771e-03 4.969855e-04 -6.067654e-04 -3.379030e-05 9.325567e-04 -4.557687e-04 8.379295e-05 -4.809042e-04 -7.301882e-04 4.195542e-04 -8.744118e-05 1.162158e-04 8.958105e-04 6.415549e-04 -7.389567e-05 -1.249827e-04 6.175829e-04 -1.743375e-04 2.886991e-04 -8.630203e-05 -1.103566e-04 -4.546040e-04 1.549144e-03 -5.313767e-04 -1.103760e-02 -1.162162e-02 -1.356946e-04
<VARIANCE> 42
 3.256628e-04 6.449752e-04 5.865433e-04 3.323286e-04 3.351356e-04 6.028132e-04 8.234866e-04 1.370589e-03 8.895728e-04 7.319195e-04 5.213635e-04 9.682038e-04 2.233170e-05 1.863846e-05 1.819699e-05 1.594558e-05 1.581121e-05 1.295736e-05 6.823343e-06 7.374013e-05 9.872299e-06 4.065752e-05 1.131955e-05 8.494042e-06 9.097839e-06 6.983412e-06 7.612990e-06 6.136732e-06 6.711366e-06 5.046898e-06 2.306402e-06 2.601508e-05 3.122795e-06 1.211414e-05 2.543675e-06 2.427455e-06 4.212193e-06 1.046995e-05 4.150763e-05 3.629402e-04 4.637223e-04 4.256417e-04
<GCONST> -3.454828e+02
<MIXTURE> 4 1.151193e-01
<MEAN> 42
 6.377415e-02 7.927857e-02 1.596354e-02 -5.133224e-02 3.432808e-02 4.322819e-02 -1.412655e-02 1.573879e-02 6.260397e-02 8.580253e-02 8.511085e-02 9.322262e-02 1.795626e-03 -9.784731e-04 -1.181539e-03 2.498211e-03 2.740967e-03 -1.319156e-03 6.522948e-05 -5.381345e-04 -1.656857e-03 -1.190799e-03 -1.434291e-03 -1.257106e-03 1.052099e-03 -3.519005e-04 -3.571706e-04 1.352422e-03 1.474657e-03 -5.147238e-04 -2.456536e-04 1.702818e-04 -5.457806e-04 -3.901455e-04 -5.430980e-04 -4.940287e-04 5.865032e-03 2.665889e-03 4.938944e-03 7.607664e-02 5.579264e-02 1.561767e-02
<VARIANCE> 42
 1.826686e-03 4.872904e-03 3.835227e-03 2.242854e-03 1.394975e-03 3.904406e-03 2.676671e-03 3.664835e-03 4.073352e-03 3.590493e-03 4.115649e-03 6.655953e-03 6.463942e-05 5.383522e-05 5.283602e-05 4.612725e-05 4.508043e-05 3.757397e-05 2.901893e-05 7.374013e-05 2.671440e-05 4.065752e-05 2.805130e-05 2.663808e-05 2.430950e-05 1.680141e-05 1.950805e-05 1.572870e-05 1.753724e-05 1.220504e-05 5.382519e-06 2.601508e-05 5.301905e-06 1.211414e-05 5.360105e-06 5.738720e-06 1.932877e-05 5.521896e-05 2.157113e-04 1.956574e-03 3.665396e-03 1.556816e-03
<GCONST> -2.960764e+02
<MIXTURE> 5 1.577878e-01
<MEAN> 42
 -2.045220e-03 4.685933e-03 -3.627347e-03 -8.135282e-03 -3.973891e-03 -2.109975e-03 -1.660791e-03 -2.289319e-03 5.375683e-03 -3.268989e-05 -4.170125e-03 -2.151588e-03 -1.087453e-04 8.508083e-04 -1.746538e-04 -2.247613e-03 -8.322733e-04 5.099510e-04 1.977679e-04 -9.085019e-04 3.992547e-04 -4.176932e-04 2.737038e-04 2.874251e-04 -2.778250e-04 3.115427e-04 -8.644635e-05 -1.174810e-03 -5.842547e-04 2.252054e-04 1.125681e-04 -5.157087e-04 3.272757e-04 -1.218442e-04 2.654606e-04 2.916408e-04 -2.855407e-04 -1.121716e-03 -1.860694e-03 -6.788722e-04 2.890941e-03 -7.757871e-03
<VARIANCE> 42
 4.095427e-04 4.612532e-04 4.858077e-04 3.483724e-04 3.170603e-04 4.387883e-04 5.195917e-04 1.370589e-03 1.100669e-03 6.537745e-04 4.191562e-04 8.006800e-04 2.930318e-05 2.026781e-05 2.277603e-05 1.934251e-05 2.100396e-05 1.408028e-05 7.332811e-06 7.374013e-05 9.872299e-06 4.065752e-05 1.131955e-05 1.130616e-05 1.124734e-05 7.502177e-06 7.791653e-06 7.462502e-06 7.588597e-06 4.784310e-06 2.170793e-06 2.601508e-05 3.178694e-06 1.211414e-05 2.333675e-06 2.469890e-06 2.131001e-06 8.319799e-06 3.661432e-05 2.765478e-04 3.009015e-04 3.183697e-04
<GCONST> -3.469448e+02
<MIXTURE> 6 1.489691e-01
<MEAN> 42
 -1.140301e-02 -2.431464e-02 -2.287308e-02 1.109746e-02 1.533349e-03 -2.845916e-02 -3.352725e-03 -4.052980e-03 -1.238947e-02 -2.175724e-02 -2.554977e-02 -2.473397e-02 -2.240465e-03 -2.851897e-03 -1.550340e-03 8.464947e-04 -1.093547e-03 -2.046619e-03 -1.078652e-03 -2.502326e-03 -1.712577e-03 -2.466737e-03 -1.826686e-03 -1.895970e-03 -7.869508e-04 -1.144487e-03 -9.874501e-04 -9.508670e-05 -3.946973e-04 -9.725078e-04 -7.324565e-04 -1.422616e-03 -8.811948e-04 -1.103516e-03 -7.242581e-04 -7.335682e-04 -1.275549e-03 2.548516e-04 -3.108433e-03 -1.865800e-02 -2.023530e-02 -8.388129e-03
<VARIANCE> 42
 3.256628e-04 6.449752e-04 5.865433e-04 3.323286e-04 3.351356e-04 6.028132e-04 8.234866e-04 1.370589e-03 8.895728e-04 7.319195e-04 5.213635e-04 9.682038e-04 2.233170e-05 1.863846e-05 1.819699e-05 1.594558e-05 1.581121e-05 1.295736e-05 6.823343e-06 7.374013e-05 9.872299e-06 4.065752e-05 1.131955e-05 8.494042e-06 9.097839e-06 6.983412e-06 7.612990e-06 6.136732e-06 6.711366e-06 5.046898e-06 2.306402e-06 2.601508e-05 3.122795e-06 1.211414e-05 2.543675e-06 2.427455e-06 4.212193e-06 1.046995e-05 4.150763e-05 3.629402e-04 4.637223e-04 4.256417e-04
<GCONST> -3.454828e+02
<MIXTURE> 7 1.151193e-01
<MEAN> 42
 4.667825e-02 5.135610e-02 -8.808148e-03 -7.027575e-02 1.938834e-02 1.823409e-02 -3.482117e-02 -8.476358e-03 3.707483e-02 6.183423e-02 5.944952e-02 6.058901e-02 -1.420320e-03 -3.913373e-03 -4.089075e-03 -2.184709e-04 5.528878e-05 -3.771060e-03 -2.089540e-03 -3.973017e-03 -3.724297e-03 -3.741329e-03 -3.552830e-03 -3.321590e-03 -9.200876e-04 -1.991482e-03 -2.123887e-03 -2.339549e-04 -2.004427e-04 -1.912152e-03 -1.173664e-03 -1.869917e-03 -1.466815e-03 -1.782360e-03 -1.469174e-03 -1.452254e-03 4.106452e-03 -3.064892e-04 -9.359019e-04 5.838337e-02 3.157564e-02 -1.649312e-04
<VARIANCE> 42
 1.826686e-03 4.872904e-03 3.835227e-03 2.242854e-03 1.394975e-03 3.904406e-03 2.676671e-03 3.664835e-03 4.073352e-03 3.590493e-03 4.115649e-03 6.655953e-03 6.463942e-05 5.383522e-05 5.283602e-05 4.612725e-05 4.508043e-05 3.757397e-05 2.901893e-05 7.374013e-05 2.671440e-05 4.065752e-05 2.805130e-05 2.663808e-05 2.430950e-05 1.680141e-05 1.950805e-05 1.572870e-05 1.753724e-05 1.220504e-05 5.382519e-06 2.601508e-05 5.301905e-06 1.211414e-05 5.360105e-06 5.738720e-06 1.932877e-05 5.521896e-05 2.157113e-04 1.956574e-03 3.665396e-03 1.556816e-03
<GCONST> -2.960764e+02
<MIXTURE> 8 7.812260e-02
<MEAN> 42
 7.472732e-02 9.293804e-02 2.657374e-03 -1.059807e-01 2.807887e-02 4.513442e-02 -4.952565e-02 8.479649e-03 5.517710e-02 1.014860e-01 1.149533e-01 1.001423e-01 -2.511408e-03 1.178127e-03 2.056320e-03 -2.445754e-03 -3.536777e-03 1.861686e-03 -2.068249e-04 -1.468391e-03 -2.881432e-04 5.909090e-04 1.091511e-03 1.104548e-03 -1.550439e-03 1.328473e-04 5.700842e-04 -1.011244e-03 -1.967105e-03 4.870591e-04 6.085953e-04 -9.246165e-05 5.822383e-04 4.099005e-04 5.188427e-04 4.906381e-04 4.810403e-03 -2.518213e-03 -4.190905e-03 9.667400e-02 6.041510e-02 -1.169300e-02
<VARIANCE> 42
 2.358859e-03 5.464433e-03 3.744201e-03 2.907437e-03 1.449104e-03 3.685812e-03 4.137269e-03 1.480791e-02 1.992780e-02 6.666288e-03 7.968419e-03 7.296341e-03 7.354932e-05 6.141704e-05 5.551319e-05 5.348055e-05 4.905488e-05 4.077341e-05 2.355644e-05 7.374013e-05 2.809918e-05 4.065752e-05 2.697906e-05 2.467319e-05 2.378080e-05 1.991724e-05 2.650941e-05 1.532692e-05 2.012115e-05 1.755174e-05 4.830516e-06 2.601508e-05 4.302182e-06 1.211414e-05 5.597367e-06 4.405090e-06 2.825781e-05 2.615436e-04 3.775729e-04 3.120787e-03 4.154987e-03 5.464159e-03
<GCONST> -2.856145e+02
<STATE> 3
<NUMMIXES> 8
<MIXTURE> 1 4.355361e-02
<MEAN> 42
 8.753781e-02 9.323902e-02 2.055270e-02 -5.860790e-02 4.581331e-02 4.786049e-02 -5.169910e-02 6.529348e-03 4.807411e-02 6.571436e-02 9.458360e-02 7.001764e-02 5.580089e-03 9.391529e-03 6.384593e-03 -2.915937e-03 1.410552e-03 7.533715e-03 5.072508e-03 6.604335e-03 7.360437e-03 7.360842e-03 9.044819e-03 6.380574e-03 9.312225e-04 2.501722e-03 3.104948e-03 5.586849e-04 1.712551e-05 2.632277e-03 3.106793e-03 3.532477e-03 3.248213e-03 3.224654e-03 4.129564e-03 2.843911e-03 8.546828e-03 4.075966e-03 3.266220e-03 8.492442e-02 5.972588e-02 3.450540e-02
<VARIANCE> 42
 8.545479e-03 4.868951e-03 2.668510e-03 5.791793e-03 3.943193e-03 1.799006e-03 1.808858e-02 1.500403e-03 6.184464e-03 7.883590e-03 1.433048e-02 7.700928e-03 1.744483e-04 1.170403e-04 1.084739e-04 1.187203e-04 1.133005e-04 6.983102e-05 6.519081e-05 7.374013e-05 7.743916e-05 6.779118e-05 2.185438e-04 4.369276e-05 4.671463e-05 2.849224e-05 3.804568e-05 2.814286e-05 3.580398e-05 2.206110e-05 1.457269e-05 2.601508e-05 1.412774e-05 1.591630e-05 3.545801e-05 1.269326e-05 8.916685e-05 8.028193e-05 2.335191e-04 9.264588e-03 1.849674e-03 1.579929e-03
<GCONST> -2.686235e+02
<MIXTURE> 2 2.147675e-01
<MEAN> 42
 4.534844e-03 8.373072e-03 1.065650e-02 6.563025e-03 3.893772e-03 5.774451e-03 7.613411e-03 -8.671996e-04 4.367429e-03 4.069136e-03 1.804858e-02 8.756358e-03 1.844287e-03 3.277121e-03 3.488658e-03 8.859083e-04 6.841373e-04 3.072882e-03 2.421399e-03 3.336305e-03 3.015729e-03 3.089194e-03 4.066084e-03 2.410609e-03 1.918982e-03 1.932744e-03 1.279926e-03 3.257158e-04 1.263851e-03 1.406648e-03 1.279822e-03 2.144924e-03 1.616035e-03 1.442216e-03 1.944597e-03 1.280975e-03 3.064627e-04 1.850751e-03 2.746089e-03 5.652837e-03 7.822257e-03 6.708615e-03
<VARIANCE> 42
 5.810696e-04 8.068387e-04 6.512997e-04 4.691662e-04 3.657847e-04 5.600501e-04 8.003335e-04 1.370589e-03 5.511793e-04 6.537745e-04 3.336514e-03 5.253945e-04 1.004434e-04 6.684536e-05 7.099207e-05 6.585030e-05 6.896465e-05 4.450225e-05 2.086826e-05 7.374013e-05 2.689843e-05 4.065752e-05 1.000639e-04 2.132329e-05 4.125484e-05 2.978660e-05 2.885043e-05 2.828936e-05 2.757641e-05 1.940732e-05 7.144150e-06 2.601508e-05 9.139594e-06 1.211414e-05 3.295431e-05 8.607700e-06 2.131001e-06 3.030864e-05 6.537745e-05 2.835941e-04 5.235938e-04 2.838487e-04
<GCONST> -3.151846e+02
<MIXTURE> 3 1.349466e-01
<MEAN> 42
 -1.459739e-02 -2.468999e-02 -4.409727e-03 3.370803e-02 3.285109e-03 -1.932580e-02 5.545140e-03 -1.051869e-02 -1.217144e-02 -2.134346e-02 -1.895517e-02 -1.850292e-02 7.724795e-04 -2.597756e-03 -8.536263e-04 4.601985e-03 2.712732e-03 -2.103675e-03 8.102451e-04 -4.694948e-05 -1.320152e-03 -2.440605e-03 -3.059696e-03 -2.876453e-03 1.440437e-03 1.122334e-03 1.054843e-03 8.618466e-04 1.318203e-03 9.218454e-04 -1.051074e-04 -1.122244e-04 -2.309290e-04 -1.673838e-04 -1.472940e-04 -2.440916e-04 -9.565341e-04 1.709648e-03 2.991389e-03 -1.718600e-02 -1.712497e-02 8.465230e-03
<VARIANCE> 42
 1.075882e-03 1.278684e-03 1.049978e-03 7.693864e-04 5.911753e-04 9.305594e-04 1.320847e-03 1.370589e-03 1.359551e-03 1.345091e-03 1.984879e-03 1.393407e-03 1.199526e-04 7.943845e-05 1.111699e-04 7.210514e-05 9.526844e-05 6.585111e-05 4.626712e-05 7.374013e-05 4.152269e-05 4.065752e-05 3.643692e-05 2.915691e-05 3.693856e-05 3.068252e-05 3.963831e-05 2.397186e-05 3.044304e-05 2.599812e-05 1.360271e-05 2.601508e-05 1.520797e-05 1.328786e-05 1.574757e-05 1.230875e-05 3.599481e-06 2.940646e-05 1.149862e-04 5.954878e-04 8.293782e-04 3.900444e-04
<GCONST> -3.035239e+02
<MIXTURE> 4 1.067301e-01
<MEAN> 42
 4.455693e-02 8.226580e-02 4.292915e-02 -4.799736e-02 1.675124e-02 5.276774e-02 -1.677532e-02 -3.148100e-03 -1.358146e-03 1.446800e-02 5.870122e-02 2.048434e-02 9.205076e-04 -1.252711e-03 1.048845e-04 4.036119e-03 2.145347e-03 -9.509745e-04 6.850337e-04 5.475155e-04 -3.965634e-04 -4.453730e-04 -8.218160e-04 -5.037725e-04 -2.165233e-04 -9.652886e-04 8.650677e-04 3.024405e-03 7.155970e-04 -2.710701e-04 1.471525e-05 2.401027e-04 -1.015475e-04 -1.591863e-04 -4.216708e-04 -3.302526e-04 3.769292e-03 5.216381e-03 -1.120426e-03 2.961489e-02 6.663784e-02 2.853508e-02
<VARIANCE> 42
 2.239679e-03 2.260530e-03 2.776824e-03 1.308089e-03 1.552060e-03 2.257290e-03 2.496335e-03 1.507998e-03 2.974183e-03 2.377112e-03 7.925956e-03 2.400920e-03 1.234845e-04 8.799698e-05 9.393298e-05 8.238856e-05 8.800370e-05 6.125718e-05 6.189977e-05 7.374013e-05 4.039260e-05 4.065752e-05 6.976109e-05 3.449034e-05 5.125770e-05 3.530881e-05 4.698400e-05 3.157623e-05 4.103227e-05 2.899138e-05 1.202560e-05 2.601508e-05 1.178595e-05 1.211414e-05 1.938523e-05 1.086940e-05 8.492170e-06 6.834269e-05 2.353254e-04 1.606521e-03 1.600336e-03 5.534555e-04
<GCONST> -2.884763e+02
<MIXTURE> 5 2.147675e-01
<MEAN> 42
 -5.107310e-03 -2.988890e-03 4.482730e-04 -2.101073e-03 -3.756428e-03 -3.691699e-03 -3.702655e-03 -1.567579e-02 -5.023454e-03 -6.158470e-03 -5.056451e-03 -4.122360e-04 -2.164571e-03 6.760820e-06 1.183861e-04 -2.360020e-03 -2.637661e-03 4.044819e-04 5.941272e-04 -9.857747e-05 9.411812e-04 5.386639e-04 6.480608e-05 5.635230e-04 -6.502150e-04 -2.503404e-04 -8.685776e-04 -1.801794e-03 -8.366784e-04 -3.555016e-04 2.106802e-04 1.047244e-04 4.067648e-04 5.000067e-05 -3.516367e-04 1.074194e-04 -2.774553e-04 -3.513808e-04 -4.881636e-04 -1.083264e-03 -1.330612e-03 -3.050920e-05
<VARIANCE> 42
 5.810696e-04 8.068387e-04 6.512997e-04 4.691662e-04 3.657847e-04 5.600501e-04 8.003335e-04 1.370589e-03 5.511793e-04 6.537745e-04 3.336514e-03 5.253945e-04 1.004434e-04 6.684536e-05 7.099207e-05 6.585030e-05 6.896465e-05 4.450225e-05 2.086826e-05 7.374013e-05 2.689843e-05 4.065752e-05 1.000639e-04 2.132329e-05 4.125484e-05 2.978660e-05 2.885043e-05 2.828936e-05 2.757641e-05 1.940732e-05 7.144150e-06 2.601508e-05 9.139594e-06 1.211414e-05 3.295431e-05 8.607700e-06 2.131001e-06 3.030864e-05 6.537745e-05 2.835941e-04 5.235938e-04 2.838487e-04
<GCONST> -3.151846e+02
<MIXTURE> 6 1.349466e-01
<MEAN> 42
 -2.771765e-02 -3.899347e-02 -1.737107e-02 2.261291e-02 -6.440530e-03 -3.152782e-02 -8.992244e-03 -2.532727e-02 -2.692028e-02 -3.601366e-02 -3.677597e-02 -3.343426e-02 -3.608435e-03 -6.162886e-03 -5.071112e-03 1.205395e-03 -1.191490e-03 -5.349623e-03 -1.910553e-03 -3.481832e-03 -3.897676e-03 -4.991135e-03 -5.474216e-03 -5.036339e-03 -9.906476e-04 -1.093338e-03 -1.463515e-03 -1.096596e-03 -8.888050e-04 -1.117689e-03 -1.580382e-03 -2.152424e-03 -1.790825e-03 -1.625485e-03 -1.734622e-03 -1.647445e-03 -1.715426e-03 -4.594609e-04 -1.297876e-03 -2.694704e-02 -2.864454e-02 5.654125e-04
<VARIANCE> 42
 1.075882e-03 1.278684e-03 1.049978e-03 7.693864e-04 5.911753e-04 9.305594e-04 1.320847e-03 1.370589e-03 1.359551e-03 1.345091e-03 1.984879e-03 1.393407e-03 1.199526e-04 7.943845e-05 1.111699e-04 7.210514e-05 9.526844e-05 6.585111e-05 4.626712e-05 7.374013e-05 4.152269e-05 4.065752e-05 3.643692e-05 2.915691e-05 3.693856e-05 3.068252e-05 3.963831e-05 2.397186e-05 3.044304e-05 2.599812e-05 1.360271e-05 2.601508e-05 1.520797e-05 1.328786e-05 1.574757e-05 1.230875e-05 3.599481e-06 2.940646e-05 1.149862e-04 5.954878e-04 8.293782e-04 3.900444e-04
<GCONST> -3.035239e+02
<MIXTURE> 7 1.067301e-01
<MEAN> 42
 2.562683e-02 6.324779e-02 2.185092e-02 -6.246436e-02 9.927638e-04 3.376336e-02 -3.676066e-02 -1.868128e-02 -2.317257e-02 -5.034251e-03 2.309009e-02 8.846633e-04 -3.524436e-03 -5.004979e-03 -3.771876e-03 4.053931e-04 -1.607064e-03 -4.081653e-03 -2.462023e-03 -2.887368e-03 -2.938770e-03 -2.995903e-03 -4.162740e-03 -2.852912e-03 -3.080303e-03 -3.342137e-03 -1.876727e-03 7.766953e-04 -1.846661e-03 -2.424816e-03 -1.372403e-03 -1.800097e-03 -1.474774e-03 -1.551401e-03 -2.182817e-03 -1.649003e-03 2.603639e-03 1.909595e-03 -7.256554e-03 1.358231e-02 5.063616e-02 1.912482e-02
<VARIANCE> 42
 2.239679e-03 2.260530e-03 2.776824e-03 1.308089e-03 1.552060e-03 2.257290e-03 2.496335e-03 1.507998e-03 2.974183e-03 2.377112e-03 7.925956e-03 2.400920e-03 1.234845e-04 8.799698e-05 9.393298e-05 8.238856e-05 8.800370e-05 6.125718e-05 6.189977e-05 7.374013e-05 4.039260e-05 4.065752e-05 6.976109e-05 3.449034e-05 5.125770e-05 3.530881e-05 4.698400e-05 3.157623e-05 4.103227e-05 2.899138e-05 1.202560e-05 2.601508e-05 1.178595e-05 1.211414e-05 1.938523e-05 1.086940e-05 8.492170e-06 6.834269e-05 2.353254e-04 1.606521e-03 1.600336e-03 5.534555e-04
<GCONST> -2.884763e+02
<MIXTURE> 8 4.355361e-02
<MEAN> 42
 5.056111e-02 6.532788e-02 -1.103450e-04 -8.904944e-02 2.069537e-02 3.089461e-02 -1.054966e-01 -8.964667e-03 1.661757e-02 3.019852e-02 4.669960e-02 3.491566e-02 2.969336e-04 5.064121e-03 2.218561e-03 -7.274291e-03 -2.847156e-03 4.191116e-03 1.842874e-03 3.169453e-03 3.840456e-03 4.067426e-03 3.131527e-03 3.736554e-03 -1.802702e-03 3.665976e-04 6.377014e-04 -1.563309e-03 -2.376331e-03 7.535071e-04 1.579825e-03 1.492277e-03 1.744737e-03 1.628844e-03 1.747699e-03 1.418807e-03 4.769700e-03 4.919583e-04 -2.846312e-03 4.642332e-02 4.252274e-02 1.860607e-02
<VARIANCE> 42
 8.545479e-03 4.868951e-03 2.668510e-03 5.791793e-03 3.943193e-03 1.799006e-03 1.808858e-02 1.500403e-03 6.184464e-03 7.883590e-03 1.433048e-02 7.700928e-03 1.744483e-04 1.170403e-04 1.084739e-04 1.187203e-04 1.133005e-04 6.983102e-05 6.519081e-05 7.374013e-05 7.743916e-05 6.779118e-05 2.185438e-04 4.369276e-05 4.671463e-05 2.849224e-05 3.804568e-05 2.814286e-05 3.580398e-05 2.206110e-05 1.457269e-05 2.601508e-05 1.412774e-05 1.591630e-05 3.545801e-05 1.269326e-05 8.916685e-05 8.028193e-05 2.335191e-04 9.264588e-03 1.849674e-03 1.579929e-03
<GCONST> -2.686235e+02
<STATE> 4
<NUMMIXES> 8
<MIXTURE> 1 1.253294e-01
<MEAN> 42
 2.977367e-02 3.169293e-02 5.930101e-03 -1.183764e-02 1.868101e-02 1.263980e-02 8.469685e-03 5.200939e-02 4.512089e-02 3.421120e-02 3.882782e-02 2.862995e-02 2.761132e-03 3.615531e-03 2.172790e-03 -8.544851e-04 1.302427e-03 2.693938e-03 1.413039e-03 2.819837e-03 2.279444e-03 2.642525e-03 2.434022e-03 2.071741e-03 1.195202e-03 1.895385e-03 1.397488e-03 -3.665250e-04 4.412984e-04 1.550688e-03 8.594105e-04 1.570086e-03 1.052085e-03 1.391250e-03 1.155604e-03 1.024558e-03 2.134051e-03 -4.783219e-04 2.643950e-03 2.724161e-02 1.972916e-02 -5.871819e-03
<VARIANCE> 42
 2.315446e-03 2.261639e-03 1.253001e-03 1.962372e-03 1.167875e-03 1.234879e-03 1.783377e-03 5.478892e-03 6.028099e-03 4.242985e-03 3.664238e-03 4.214731e-03 4.410513e-05 3.263573e-05 3.223512e-05 3.030084e-05 3.024734e-05 2.154683e-05 2.113665e-05 7.374013e-05 2.229078e-05 4.065752e-05 2.380659e-05 1.845014e-05 1.135052e-05 8.452269e-06 9.140480e-06 7.599989e-06 8.221574e-06 6.012934e-06 4.012964e-06 2.601508e-05 3.555823e-06 1.211414e-05 4.136723e-06 3.160206e-06 2.011975e-05 6.138018e-05 1.449031e-04 2.093924e-03 1.256686e-03 1.770891e-03
<GCONST> -3.100618e+02
<MIXTURE> 2 1.451438e-01
<MEAN> 42
 1.109423e-01 1.707688e-01 6.723534e-02 -5.953586e-02 4.499358e-02 1.099988e-01 -1.725517e-04 1.253753e-01 1.602804e-01 1.840237e-01 2.052503e-01 1.774816e-01 7.628042e-03 1.194603e-02 7.199990e-03 1.580534e-03 3.886604e-03 9.175937e-03 4.632475e-03 9.701826e-03 1.329814e-02 1.485207e-02 1.562805e-02 1.350606e-02 1.943780e-03 1.957862e-03 1.215375e-03 1.886904e-03 1.791210e-03 1.429494e-03 1.732750e-03 2.165136e-03 2.066663e-03 1.935581e-03 2.099604e-03 1.899007e-03 1.255846e-02 1.166486e-03 3.869507e-03 1.595170e-01 1.247943e-01 3.518597e-02
<VARIANCE> 42
 2.594792e-02 6.539283e-02 2.665670e-02 3.887204e-02 9.519729e-03 4.014774e-02 3.782392e-02 9.323582e-02 1.089767e-01 9.567801e-02 9.189475e-02 7.702188e-02 5.765145e-04 1.235538e-03 6.537647e-04 7.428979e-04 3.079736e-04 8.018991e-04 9.544772e-04 1.735632e-03 1.833365e-03 1.526018e-03 1.697902e-03 1.333214e-03 7.110302e-05 1.379521e-04 8.689716e-05 8.282315e-05 4.474156e-05 9.480736e-05 7.617875e-05 1.347920e-04 1.407834e-04 1.350766e-04 1.407971e-04 1.026246e-04 4.495023e-04 3.814658e-04 4.253449e-04 5.886564e-02 4.182222e-02 4.409173e-02
<GCONST> -1.852564e+02
<MIXTURE> 3 1.940649e-01
<MEAN> 42
 4.063254e-03 3.712420e-03 1.449409e-03 6.709498e-03 4.062172e-03 -5.792319e-04 7.377448e-03 1.259932e-02 8.725466e-03 4.007567e-03 4.444970e-03 1.420846e-03 3.134164e-04 -5.734069e-04 1.472750e-04 1.927149e-03 9.105008e-04 -3.625050e-04 3.874834e-04 1.294458e-03 5.651690e-05 5.100734e-04 -1.622270e-04 -2.041054e-04 3.605286e-04 -2.096050e-04 9.513338e-05 1.014602e-03 6.500794e-04 -1.535232e-04 2.084006e-05 7.177615e-04 -1.911001e-05 3.074073e-04 -4.890797e-05 -4.593426e-05 2.140211e-04 5.075646e-04 1.236575e-03 1.675026e-03 2.560037e-03 4.004948e-04
<VARIANCE> 42
 4.789219e-04 6.666458e-04 4.221019e-04 4.496437e-04 2.812516e-04 4.493535e-04 5.306978e-04 1.370589e-03 1.302086e-03 9.611158e-04 8.460166e-04 9.421096e-04 2.530923e-05 2.076944e-05 2.196504e-05 1.755186e-05 1.862805e-05 1.526164e-05 9.648335e-06 7.374013e-05 1.157805e-05 4.065752e-05 1.341139e-05 9.199199e-06 9.781789e-06 7.281607e-06 8.391394e-06 6.436475e-06 7.346851e-06 5.480140e-06 2.844467e-06 2.601508e-05 3.356819e-06 1.211414e-05 3.221239e-06 2.555911e-06 3.517591e-06 1.195848e-05 4.413142e-05 4.276799e-04 4.226113e-04 3.272884e-04
<GCONST> -3.424642e+02
<MIXTURE> 4 3.546382e-02
<MEAN> 42
 1.598071e-01 8.953667e-02 -5.347572e-03 -2.459987e-02 1.351750e-01 2.389665e-02 -8.216978e-02 -8.942561e-02 -2.365232e-02 8.870912e-02 1.743266e-01 1.889681e-01 4.102988e-04 -7.641813e-03 3.521773e-03 2.840229e-02 7.943786e-03 -4.005165e-03 1.570290e-02 8.728089e-03 -2.281457e-03 -1.025145e-02 -9.717338e-03 -6.480942e-03 2.946083e-03 5.180011e-03 6.626042e-03 3.906051e-03 1.761294e-03 5.270376e-03 3.591745e-03 5.548608e-03 6.653597e-03 7.409261e-03 8.083140e-03 6.714161e-03 1.980391e-02 2.487300e-02 6.066675e-03 1.479402e-01 7.210113e-02 1.965038e-01
<VARIANCE> 42
 9.498904e-02 5.037173e-02 7.310951e-02 5.416524e-02 7.084813e-02 3.791811e-02 7.512593e-02 1.880089e-01 2.050948e-01 1.758608e-01 1.627812e-01 1.386494e-01 4.323489e-03 4.171239e-03 3.206962e-03 3.449918e-03 2.728902e-03 2.613799e-03 2.524455e-03 6.469995e-03 8.582051e-03 9.212696e-03 1.073201e-02 8.725295e-03 4.794942e-04 4.243172e-04 4.268016e-04 3.457103e-04 3.477618e-04 3.061258e-04 2.984692e-04 6.803711e-04 8.121011e-04 9.454140e-04 1.361844e-03 1.073480e-03 9.675766e-04 1.111893e-03 7.311678e-04 1.046641e-01 3.592184e-02 8.556876e-02
<GCONST> -1.340282e+02
<MIXTURE> 5 1.940649e-01
<MEAN> 42
 -4.690460e-03 -6.615374e-03 -6.768638e-03 -1.772424e-03 -2.646051e-03 -9.058416e-03 -1.837304e-03 -2.209264e-03 -5.708306e-03 -8.393181e-03 -7.189576e-03 -1.085668e-02 -1.698915e-03 -2.396347e-03 -1.727400e-03 2.513512e-04 -8.159083e-04 -1.925151e-03 -8.549874e-04 -2.140425e-03 -1.304545e-03 -2.040457e-03 -1.627090e-03 -1.417313e-03 -8.905054e-04 -1.288983e-03 -1.063583e-03 -2.062297e-07 -4.341236e-04 -1.089911e-03 -6.537818e-04 -1.322438e-03 -7.519750e-04 -1.084808e-03 -7.668204e-04 -6.854229e-04 -5.361885e-04 -8.756769e-04 -1.420684e-03 -6.597143e-03 -5.662967e-03 -6.835951e-03
<VARIANCE> 42
 4.789219e-04 6.666458e-04 4.221019e-04 4.496437e-04 2.812516e-04 4.493535e-04 5.306978e-04 1.370589e-03 1.302086e-03 9.611158e-04 8.460166e-04 9.421096e-04 2.530923e-05 2.076944e-05 2.196504e-05 1.755186e-05 1.862805e-05 1.526164e-05 9.648335e-06 7.374013e-05 1.157805e-05 4.065752e-05 1.341139e-05 9.199199e-06 9.781789e-06 7.281607e-06 8.391394e-06 6.436475e-06 7.346851e-06 5.480140e-06 2.844467e-06 2.601508e-05 3.356819e-06 1.211414e-05 3.221239e-06 2.555911e-06 3.517591e-06 1.195848e-05 4.413142e-05 4.276799e-04 4.226113e-04 3.272884e-04
<GCONST> -3.424642e+02
<MIXTURE> 6 1.451438e-01
<MEAN> 42
 4.650887e-02 6.848076e-02 1.927819e-03 -1.383998e-01 5.965941e-03 2.985118e-02 -7.796605e-02 3.237125e-03 2.823395e-02 6.029628e-02 8.399370e-02 6.647037e-02 -1.976244e-03 -2.114056e-03 -3.027540e-03 -9.321928e-03 -3.133067e-03 -2.151193e-03 -7.725371e-03 -6.962541e-03 -3.828987e-03 -7.736417e-04 -8.541918e-04 -1.099225e-03 -1.429125e-03 -2.740258e-03 -2.513371e-03 -1.753385e-03 -8.843552e-04 -2.465269e-03 -1.758467e-03 -2.478862e-03 -2.679424e-03 -2.713318e-03 -2.646714e-03 -2.153145e-03 4.077871e-03 -6.645974e-03 -4.380049e-03 6.246801e-02 4.299236e-02 -4.880615e-02
<VARIANCE> 42
 2.594792e-02 6.539283e-02 2.665670e-02 3.887204e-02 9.519729e-03 4.014774e-02 3.782392e-02 9.323582e-02 1.089767e-01 9.567801e-02 9.189475e-02 7.702188e-02 5.765145e-04 1.235538e-03 6.537647e-04 7.428979e-04 3.079736e-04 8.018991e-04 9.544772e-04 1.735632e-03 1.833365e-03 1.526018e-03 1.697902e-03 1.333214e-03 7.110302e-05 1.379521e-04 8.689716e-05 8.282315e-05 4.474156e-05 9.480736e-05 7.617875e-05 1.347920e-04 1.407834e-04 1.350766e-04 1.407971e-04 1.026246e-04 4.495023e-04 3.814658e-04 4.253449e-04 5.886564e-02 4.182222e-02 4.409173e-02
<GCONST> -1.852564e+02
<MIXTURE> 7 1.253294e-01
<MEAN> 42
 1.052603e-02 1.267025e-02 -8.229000e-03 -2.955711e-02 5.011332e-03 -1.416535e-03 -8.422335e-03 2.240157e-02 1.406455e-02 8.155920e-03 1.461464e-02 2.661567e-03 1.046641e-04 1.330423e-03 -9.824859e-05 -3.056333e-03 -8.974767e-04 8.371957e-04 -4.259452e-04 -6.150465e-04 3.909197e-04 9.199500e-05 4.823420e-04 3.535955e-04 -1.524189e-04 7.324733e-04 1.881591e-04 -1.469248e-03 -7.056332e-04 5.698363e-04 5.811514e-05 -4.701132e-04 2.978092e-04 -9.651412e-07 3.420471e-04 3.134789e-04 3.398492e-04 -3.612142e-03 -2.171078e-03 8.937848e-03 5.549256e-03 -2.270460e-02
<VARIANCE> 42
 2.315446e-03 2.261639e-03 1.253001e-03 1.962372e-03 1.167875e-03 1.234879e-03 1.783377e-03 5.478892e-03 6.028099e-03 4.242985e-03 3.664238e-03 4.214731e-03 4.410513e-05 3.263573e-05 3.223512e-05 3.030084e-05 3.024734e-05 2.154683e-05 2.113665e-05 7.374013e-05 2.229078e-05 4.065752e-05 2.380659e-05 1.845014e-05 1.135052e-05 8.452269e-06 9.140480e-06 7.599989e-06 8.221574e-06 6.012934e-06 4.012964e-06 2.601508e-05 3.555823e-06 1.211414e-05 4.136723e-06 3.160206e-06 2.011975e-05 6.138018e-05 1.449031e-04 2.093924e-03 1.256686e-03 1.770891e-03
<GCONST> -3.100618e+02
<MIXTURE> 8 3.546382e-02
<MEAN> 42
 3.652598e-02 -2.379231e-04 -1.135027e-01 -1.176936e-01 2.870579e-02 -5.399365e-02 -1.918062e-01 -2.628656e-01 -2.048019e-01 -7.903392e-02 1.294197e-02 4.002549e-02 -2.589100e-02 -3.347587e-02 -1.913025e-02 4.907888e-03 -1.295177e-02 -2.445529e-02 -4.394681e-03 -2.344642e-02 -3.933720e-02 -4.864457e-02 -5.115550e-02 -4.384466e-02 -5.812859e-03 -3.059574e-03 -1.637629e-03 -3.531263e-03 -5.698055e-03 -1.728204e-03 -3.318759e-03 -4.884961e-03 -4.745359e-03 -4.889774e-03 -6.678129e-03 -6.391441e-03 7.361551e-03 1.153498e-02 -4.749371e-03 1.853292e-02 -3.711108e-03 7.949522e-02
<VARIANCE> 42
 9.498904e-02 5.037173e-02 7.310951e-02 5.416524e-02 7.084813e-02 3.791811e-02 7.512593e-02 1.880089e-01 2.050948e-01 1.758608e-01 1.627812e-01 1.386494e-01 4.323489e-03 4.171239e-03 3.206962e-03 3.449918e-03 2.728902e-03 2.613799e-03 2.524455e-03 6.469995e-03 8.582051e-03 9.212696e-03 1.073201e-02 8.725295e-03 4.794942e-04 4.243172e-04 4.268016e-04 3.457103e-04 3.477618e-04 3.061258e-04 2.984692e-04 6.803711e-04 8.121011e-04 9.454140e-04 1.361844e-03 1.073480e-03 9.675766e-04 1.111893e-03 7.311678e-04 1.046641e-01 3.592184e-02 8.556876e-02
<GCONST> -1.340282e+02
<STATE> 5
<MEAN> 42
 9.289721e-03 8.865152e-03 8.793222e-04 -5.996466e-03 4.806252e-03 7.130383e-04 -1.120134e-03 1.353343e-02 4.125637e-03 4.221437e-03 2.779135e-03 -3.457431e-03 8.718525e-05 6.064532e-06 -8.132661e-05 -4.784515e-05 8.296855e-05 -3.666276e-05 5.921905e-05 3.510703e-04 6.243782e-05 7.893538e-05 6.441398e-06 1.252261e-05 1.626483e-05 2.118244e-05 4.777714e-06 -1.860274e-05 5.966482e-06 1.288478e-05 -1.709224e-05 -1.945899e-05 -6.092858e-06 7.508816e-07 1.386768e-05 1.078816e-05 1.701387e-04 -9.576720e-04 -6.816878e-05 2.023694e-03 4.851443e-03 -4.331630e-03
<VARIANCE> 42
 2.443494e-03 2.031249e-03 1.365890e-03 1.951605e-03 1.309602e-03 1.194360e-03 1.781116e-03 5.410801e-03 4.091742e-03 3.020798e-03 2.574923e-03 2.038774e-03 1.042993e-04 7.763119e-05 8.295460e-05 7.047927e-05 7.471833e-05 5.438732e-05 3.172978e-05 7.374013e-05 3.564939e-05 4.065752e-05 3.202057e-05 2.700349e-05 3.872746e-05 2.927566e-05 2.936961e-05 2.677729e-05 2.690275e-05 1.976367e-05 9.675339e-06 2.601508e-05 1.061457e-05 1.211414e-05 9.509852e-06 8.579070e-06 1.052051e-05 4.141572e-05 1.270519e-04 1.530150e-03 1.079250e-03 1.476809e-03
<GCONST> -2.956179e+02
<STATE> 6
<MEAN> 42
 4.738146e-02 7.202043e-02 1.360365e-02 -6.401847e-02 2.521511e-02 2.914445e-02 -3.562928e-02 3.499311e-02 7.634023e-03 2.578169e-02 1.000066e-01 5.046545e-02 -1.882550e-04 1.804037e-04 3.756974e-04 9.129950e-06 -2.836440e-04 2.706600e-04 5.805499e-04 1.361492e-03 9.335998e-04 7.123596e-04 6.036676e-04 4.933046e-04 -4.832983e-05 -1.558506e-04 -1.106121e-04 1.048969e-04 2.746637e-05 -1.338063e-04 2.568687e-04 3.826850e-04 2.550929e-04 1.017454e-04 -7.983593e-05 -9.133462e-05 4.532311e-03 1.277883e-03 -4.515335e-03 5.078883e-02 5.557708e-02 1.314808e-02
<VARIANCE> 42
 5.988263e-03 9.172932e-03 3.441119e-03 7.054736e-03 2.538000e-03 4.054550e-03 8.343475e-03 1.048270e-02 9.188212e-03 8.908277e-03 2.291319e-02 7.691945e-03 7.655814e-05 9.764906e-05 4.845287e-05 7.522684e-05 3.855615e-05 5.456110e-05 5.615091e-05 1.033059e-04 8.016350e-05 5.666926e-05 2.847895e-04 5.128305e-05 1.937914e-05 2.410932e-05 1.488334e-05 1.811615e-05 1.136340e-05 1.489812e-05 8.712457e-06 2.601508e-05 1.378576e-05 1.211414e-05 4.704871e-05 1.042663e-05 6.819467e-05 2.024804e-04 1.154377e-04 7.581597e-03 5.593140e-03 3.442724e-03
<GCONST> -2.715436e+02
<STATE> 7
<MEAN> 42
 -5.748682e-03 7.579176e-03 1.104309e-02 2.887100e-07 -6.284576e-03 4.764202e-03 2.976637e-02 7.246634e-02 3.501670e-02 1.533169e-02 1.020922e-02 -3.412038e-03 -1.138036e-03 2.877051e-03 3.957428e-03 -8.790126e-04 -2.637165e-03 3.489558e-03 1.189345e-02 1.908353e-02 1.721313e-02 1.207562e-02 7.157247e-03 2.360778e-03 7.037665e-04 8.178737e-04 7.869189e-05 -8.089382e-04 3.046616e-04 4.914011e-04 1.611004e-03 3.458089e-03 3.908210e-03 3.460228e-03 3.305528e-03 2.397712e-03 -1.065469e-03 -2.768560e-03 -1.761524e-03 -1.862999e-03 4.553062e-03 -3.802134e-02
<VARIANCE> 42
 6.708634e-03 5.554289e-03 5.962034e-03 4.625692e-03 4.849928e-03 4.627564e-03 6.026093e-03 1.298594e-02 7.047257e-03 6.554745e-03 6.967645e-03 5.933397e-03 1.966634e-04 1.384317e-04 3.635098e-04 7.720141e-05 2.471015e-04 2.015507e-04 2.891650e-04 6.289775e-04 4.519992e-04 4.940581e-04 4.908526e-04 3.344529e-04 4.795149e-05 2.429018e-05 4.860803e-05 2.372837e-05 4.312186e-05 2.468039e-05 4.845102e-05 7.385830e-05 5.100141e-05 6.692039e-05 7.466891e-05 5.355951e-05 5.664282e-05 7.977004e-05 1.340669e-04 3.804431e-03 3.560322e-03 4.282776e-03
<GCONST> -2.467101e+02
<STATE> 8
<MEAN> 42
 2.124556e-01 1.845292e-01 -2.940354e-02 -1.967992e-01 1.236329e-01 7.149035e-02 -2.289971e-01 -2.315667e-01 -1.024387e-01 1.636548e-01 3.096935e-01 3.125755e-01 9.698345e-04 -1.005891e-03 -1.962020e-03 2.009101e-05 1.464504e-03 -1.470542e-03 -6.393294e-03 -1.079944e-02 -1.002919e-02 -6.408060e-03 -3.493723e-03 -1.909936e-03 1.032807e-04 -6.268390e-05 -1.646190e-04 -2.332667e-05 1.382104e-04 -1.113036e-04 -7.951797e-05 2.019381e-04 2.094992e-04 -5.465908e-05 -1.654425e-04 -5.582727e-05 2.980121e-02 1.674510e-02 3.919146e-03 2.477840e-01 1.417560e-01 2.134028e-01
<VARIANCE> 42
 1.402557e-01 1.286957e-01 1.579214e-01 9.386894e-02 1.160440e-01 1.080106e-01 1.187570e-01 4.044344e-01 5.398902e-01 3.875125e-01 3.887106e-01 3.197411e-01 5.907774e-03 5.181990e-03 4.213886e-03 4.495330e-03 3.783000e-03 3.221522e-03 5.103420e-03 1.367041e-02 1.596747e-02 1.462169e-02 1.911726e-02 1.636384e-02 5.481774e-04 5.317751e-04 4.589921e-04 4.256327e-04 3.723948e-04 3.583817e-04 5.189398e-04 1.307430e-03 1.292924e-03 1.304308e-03 1.979548e-03 1.662021e-03 1.552193e-03 1.642303e-03 1.109779e-03 2.196696e-01 1.052484e-01 1.891999e-01
<GCONST> -1.122484e+02
<STATE> 9
<MEAN> 42
 8.724859e-02 1.225851e-01 2.665749e-02 -1.063407e-01 3.516972e-02 6.532755e-02 -3.000046e-02 1.355676e-01 1.417277e-01 1.345808e-01 1.551654e-01 1.225085e-01 8.221248e-04 8.625637e-04 3.405001e-05 -8.441840e-04 3.983612e-04 4.453168e-04 3.767623e-04 2.002683e-03 2.370690e-03 1.671652e-03 1.353952e-03 1.225015e-03 -1.753813e-04 -2.127233e-04 -3.716913e-05 1.955820e-04 -6.991271e-05 -1.275457e-04 -4.842236e-05 -4.013958e-04 -4.558731e-04 -3.244507e-04 -2.575644e-04 -2.171375e-04 6.141124e-03 -3.880573e-03 -5.716041e-03 1.167430e-01 7.889992e-02 -4.231133e-02
<VARIANCE> 42
 1.509730e-02 2.308944e-02 8.186791e-03 1.665423e-02 5.171540e-03 1.242936e-02 1.176653e-02 4.516414e-02 5.778922e-02 5.034525e-02 4.354535e-02 4.317707e-02 1.504307e-04 1.319536e-04 1.111920e-04 1.137378e-04 9.846997e-05 8.381178e-05 8.763830e-05 1.847239e-04 1.682593e-04 1.283812e-04 1.653105e-04 1.258213e-04 3.953255e-05 2.819006e-05 2.951066e-05 2.668490e-05 2.772699e-05 1.886583e-05 1.244125e-05 2.601508e-05 1.633926e-05 1.368957e-05 2.175663e-05 1.250977e-05 1.226109e-04 2.650702e-04 2.245947e-04 2.913076e-02 1.207032e-02 1.525726e-02
<GCONST> -2.436150e+02
<STATE> 10
<MEAN> 42
 4.821279e-02 3.878141e-03 -2.987639e-02 -2.440537e-02 5.175480e-02 -1.251519e-02 -4.618299e-02 -1.864005e-02 -3.520558e-02 -1.633597e-02 -1.727654e-02 9.747241e-04 -5.053820e-04 -1.888478e-04 3.165554e-04 3.476961e-04 -4.128407e-04 6.143277e-05 4.487566e-04 1.873162e-04 1.898836e-04 7.420656e-05 -8.393855e-05 -1.816073e-04 2.622498e-06 2.673972e-05 2.446433e-05 -1.421619e-05 -1.024259e-05 2.615897e-05 -3.532897e-06 -1.726761e-05 2.856799e-05 3.232214e-05 4.554309e-05 5.006681e-05 3.837708e-03 3.683149e-04 -4.186993e-03 4.796586e-03 -6.353071e-03 2.665546e-02
<VARIANCE> 42
 3.392583e-02 7.357262e-03 4.311446e-02 9.841841e-03 3.685964e-02 1.672592e-02 2.350759e-02 6.641876e-03 2.316807e-02 1.563809e-02 1.231889e-02 1.014945e-02 7.275415e-04 3.463025e-04 7.321964e-04 3.538500e-04 6.457757e-04 3.585210e-04 3.801612e-04 1.353759e-04 4.346714e-04 4.199028e-04 4.159660e-04 3.686050e-04 1.094329e-04 8.350433e-05 8.097314e-05 7.622036e-05 7.467216e-05 5.527586e-05 2.797886e-05 2.601508e-05 3.116081e-05 3.393404e-05 3.673009e-05 3.552856e-05 2.400771e-04 2.437672e-04 2.224174e-04 5.850838e-03 7.060173e-03 8.350222e-03
<GCONST> -2.243940e+02
<STATE> 11
<MEAN> 42
 7.905609e-03 7.376895e-03 2.389018e-04 -4.495351e-03 4.420851e-03 1.982854e-04 1.075602e-03 9.116992e-03 6.649901e-03 3.128576e-03 1.074877e-02 3.511552e-03 -1.929296e-04 -2.685637e-04 -7.542533e-05 2.313365e-04 -5.818627e-05 -1.702256e-04 1.528503e-04 -1.072267e-04 -2.315411e-04 -2.527885e-04 -2.696048e-04 -2.620424e-04 2.194622e-05 3.062754e-05 8.981568e-06 -2.632880e-05 7.546145e-06 1.978048e-05 -1.213921e-05 1.144011e-05 2.804234e-06 5.410153e-06 9.663880e-06 5.038902e-06 1.933176e-04 -5.171250e-05 2.332123e-04 5.084041e-03 4.472356e-03 -3.008759e-03
<VARIANCE> 42
 1.381574e-03 1.656970e-03 9.165882e-04 1.359282e-03 7.411632e-04 9.559423e-04 9.794906e-04 2.200434e-03 2.900687e-03 1.666189e-03 2.369281e-03 1.418126e-03 9.840304e-05 7.074914e-05 6.773017e-05 6.769603e-05 6.574765e-05 4.483334e-05 2.806647e-05 7.374013e-05 2.549615e-05 4.065752e-05 3.537324e-05 2.304478e-05 3.571039e-05 2.442763e-05 2.530143e-05 2.375347e-05 2.454773e-05 1.599518e-05 7.841143e-06 2.601508e-05 7.330402e-06 1.211414e-05 9.446697e-06 6.845725e-06 5.996782e-06 2.639303e-05 9.677332e-05 9.272161e-04 9.760509e-04 7.331658e-04
<GCONST> -3.062928e+02
<STATE> 12
<MEAN> 42
 -4.582987e-02 -3.475915e-02 8.790962e-03 4.192636e-02 -2.668165e-02 -1.540408e-02 8.129131e-02 1.847239e-01 1.605999e-02 -9.239677e-03 -5.150184e-02 -4.221515e-02 2.926402e-05 3.887242e-03 3.876546e-03 -1.965597e-03 -1.916829e-03 3.905916e-03 1.222104e-02 2.292694e-02 1.852921e-02 1.317864e-02 7.462650e-03 3.969504e-03 2.399018e-03 2.058035e-03 -3.429890e-04 -2.231547e-03 1.366314e-03 8.612680e-04 2.176084e-04 3.302722e-03 3.523618e-03 3.932549e-03 3.758256e-03 3.061960e-03 -3.356492e-03 -1.286088e-03 -2.837735e-04 -5.512740e-02 -2.494111e-02 -9.119454e-02
<VARIANCE> 42
 3.552542e-03 2.941222e-03 5.286588e-03 1.847375e-03 3.506287e-03 3.193108e-03 7.218338e-03 1.037632e-01 1.709178e-02 6.838126e-03 6.229816e-03 3.371852e-03 3.810054e-04 1.978829e-04 2.900802e-04 2.166036e-04 2.878466e-04 1.497418e-04 3.034983e-04 7.033115e-04 5.602232e-04 5.396142e-04 4.891777e-04 3.408609e-04 9.591622e-05 5.133351e-05 7.038740e-05 5.605097e-05 7.084080e-05 3.717133e-05 5.446126e-05 8.119264e-05 5.651402e-05 6.950153e-05 8.816786e-05 7.052517e-05 3.366318e-05 1.449434e-04 2.046514e-04 2.767296e-03 2.498135e-03 1.167854e-02
<GCONST> -2.398454e+02
<STATE> 13
<MEAN> 42
 -1.124285e-02 -4.162744e-02 -3.066114e-02 2.465540e-02 1.120710e-02 -3.818992e-02 1.351964e-01 2.053465e-01 1.022731e-01 5.906449e-02 2.606801e-02 -2.065936e-03 2.245945e-02 1.419466e-02 -8.337046e-03 -1.840509e-02 1.550346e-02 2.932842e-03 6.576321e-03 3.339906e-02 2.736724e-02 2.556543e-02 2.578872e-02 2.146340e-02 8.104061e-03 7.431146e-03 -6.975423e-04 -7.794625e-03 4.347849e-03 3.418316e-03 -5.759530e-03 1.534008e-03 3.742400e-03 5.995667e-03 8.014983e-03 7.843599e-03 -3.779536e-03 -5.481385e-03 8.149264e-03 -7.836521e-03 -4.173780e-02 -1.267804e-01
<VARIANCE> 42
 4.708122e-03 2.486372e-02 1.266539e-02 1.113138e-02 2.966314e-03 1.695319e-02 1.389342e-02 7.031974e-02 2.862708e-02 2.579011e-02 2.043363e-02 1.453776e-02 1.188700e-03 2.016135e-03 7.452767e-04 1.421319e-03 4.702252e-04 1.081620e-03 1.699769e-03 1.172341e-03 1.172649e-03 1.806288e-03 1.736072e-03 1.415198e-03 1.430990e-04 2.404524e-04 1.169301e-04 1.618842e-04 7.047188e-05 1.427890e-04 1.538149e-04 1.963057e-04 1.456445e-04 1.515544e-04 1.384384e-04 1.180124e-04 6.058682e-05 3.550093e-04 4.265587e-04 1.276286e-02 1.586927e-02 1.540278e-02
<GCONST> -1.975376e+02
<STATE> 14
<MEAN> 42
 3.632611e-01 4.527376e-01 8.685793e-02 -4.081847e-01 1.393362e-01 2.681016e-01 -9.973765e-02 3.255908e-01 4.809304e-01 5.604434e-01 5.398216e-01 4.504285e-01 7.042759e-02 6.223070e-02 -8.233221e-03 -6.636824e-02 3.950037e-02 2.724354e-02 -6.120910e-02 -2.271114e-02 3.263498e-02 8.414952e-02 1.018018e-01 9.839351e-02 4.407833e-03 4.283756e-03 -1.283139e-04 -4.352845e-03 2.258234e-03 2.074657e-03 -1.270926e-02 -2.012002e-02 -1.092075e-02 2.749246e-03 8.011297e-03 9.721169e-03 3.213188e-02 -4.077379e-03 1.170188e-02 4.497396e-01 2.876923e-01 -9.920238e-02
<VARIANCE> 42
 1.134369e-01 3.987976e-01 2.219943e-01 2.022775e-01 6.804187e-02 2.844264e-01 1.564809e-01 3.191159e-01 1.722286e-01 1.796629e-01 1.643709e-01 1.325425e-01 5.728367e-03 1.794955e-02 9.457552e-03 9.480854e-03 3.120488e-03 1.229406e-02 8.147762e-03 1.142265e-02 9.872413e-03 8.310098e-03 7.771895e-03 5.864219e-03 3.976256e-04 1.544066e-03 8.663798e-04 7.533846e-04 2.478888e-04 1.110464e-03 6.795341e-04 1.148168e-03 1.115537e-03 5.461932e-04 6.659896e-04 5.015476e-04 1.099856e-03 1.258890e-03 1.303557e-03 1.367456e-01 2.490430e-01 1.130595e-01
<GCONST> -1.132392e+02
<STATE> 15
<MEAN> 42
 3.796584e-01 3.368239e-01 -4.809058e-02 -3.587389e-01 2.172469e-01 1.399881e-01 -5.099469e-01 -5.654867e-01 -3.579890e-01 2.695029e-01 5.239085e-01 5.524820e-01 -5.266931e-02 -4.698568e-02 5.725288e-03 4.988104e-02 -2.936584e-02 -2.081908e-02 4.029957e-03 -5.740361e-02 -8.706867e-02 -9.682238e-02 -9.290665e-02 -7.671627e-02 -9.098433e-03 -8.242429e-03 8.630187e-04 8.672765e-03 -4.998217e-03 -3.712274e-03 1.127548e-02 1.324644e-02 5.035836e-03 -6.951086e-03 -1.237835e-02 -1.343581e-02 5.485205e-02 2.863789e-02 2.315649e-04 4.363934e-01 2.742747e-01 4.943570e-01
<VARIANCE> 42
 1.760612e-01 2.295267e-01 3.299658e-01 1.182545e-01 1.959714e-01 2.355818e-01 1.123121e-01 5.721911e-01 8.117878e-01 7.987906e-01 6.955782e-01 4.537785e-01 4.928085e-03 6.231854e-03 5.982738e-03 4.086840e-03 3.898739e-03 4.886258e-03 5.390699e-03 1.516259e-02 1.929008e-02 2.050887e-02 2.776795e-02 2.018465e-02 8.245176e-04 9.168037e-04 7.369308e-04 6.868677e-04 5.520307e-04 6.225579e-04 5.509066e-04 1.468822e-03 2.073165e-03 3.066378e-03 4.088112e-03 2.806794e-03 1.475445e-03 1.814099e-03 1.708391e-03 3.686673e-01 1.963421e-01 2.086864e-01
<GCONST> -9.751971e+01
<STATE> 16
<MEAN> 42
 -1.051646e-01 -5.442007e-02 4.498356e-02 7.993818e-02 -7.306720e-02 -1.030871e-02 -1.124112e-01 -3.294205e-01 -2.690655e-01 -2.251328e-01 -1.760893e-01 -1.179693e-01 2.352190e-04 -3.130060e-03 -3.383314e-03 1.421455e-03 1.835960e-03 -3.303693e-03 2.878086e-02 5.804146e-02 5.024832e-02 2.659847e-02 1.305386e-02 3.409869e-03 4.329663e-03 4.661707e-03 3.397405e-04 -4.488256e-03 2.015092e-03 2.505789e-03 -2.184908e-03 -2.648300e-03 -2.926965e-04 3.108894e-03 4.905124e-03 5.295270e-03 -4.602124e-03 2.328809e-02 8.936225e-03 -1.219529e-01 -3.954963e-03 1.779461e-01
<VARIANCE> 42
 1.668911e-02 1.935105e-02 2.954667e-02 9.918115e-03 1.789258e-02 1.941249e-02 8.936404e-02 1.551516e-01 1.954319e-01 5.044758e-02 2.134615e-02 1.164192e-02 7.468195e-04 5.973168e-04 1.134425e-03 3.885875e-04 7.933807e-04 6.790264e-04 9.752079e-04 2.537922e-03 3.689601e-03 1.698593e-03 1.060895e-03 6.947091e-04 1.170180e-04 1.031786e-04 1.261581e-04 7.861278e-05 9.619453e-05 8.544393e-05 1.023126e-04 2.096372e-04 3.594524e-04 2.901672e-04 2.286109e-04 1.490596e-04 3.496971e-04 7.754965e-04 9.491579e-04 1.186781e-02 1.741368e-02 8.326349e-02
<GCONST> -1.861037e+02
<STATE> 17
<MEAN> 42
 3.098147e-02 2.019682e-02 -2.162725e-02 -3.807651e-02 3.495312e-02 2.346958e-03 -4.913432e-02 1.910220e-02 7.944539e-02 7.142328e-02 5.920964e-02 8.329769e-02 1.816456e-04 2.674513e-05 -1.530929e-04 -1.038177e-04 1.671389e-04 -6.299565e-05 -8.108404e-05 7.435587e-05 5.119014e-05 2.618986e-05 5.886747e-05 4.618652e-05 -3.020243e-06 -5.288730e-06 -2.818511e-06 4.329468e-06 -9.706309e-08 -3.161798e-06 -1.743573e-05 -4.084006e-05 -6.469841e-05 -5.289409e-05 -4.973233e-05 -4.182465e-05 1.298601e-03 4.551798e-03 -3.860746e-03 6.817065e-02 4.151500e-03 -3.718822e-03
<VARIANCE> 42
 3.089806e-02 2.822096e-02 7.532185e-02 1.054985e-02 4.616517e-02 4.410789e-02 1.412577e-02 1.116411e-02 5.682791e-02 6.258266e-02 5.353811e-02 5.235722e-02 5.884690e-04 5.329864e-04 1.125537e-03 2.793152e-04 7.254936e-04 6.837266e-04 3.261385e-04 1.809905e-04 3.907767e-04 5.098174e-04 9.231846e-04 1.180826e-03 9.275966e-05 1.057646e-04 1.164109e-04 7.016119e-05 7.837193e-05 8.850359e-05 4.987666e-05 4.676666e-05 4.874214e-05 3.491373e-05 8.041839e-05 9.883544e-05 2.051876e-04 2.088832e-04 1.891159e-04 3.031351e-02 2.290155e-02 7.996526e-03
<GCONST> -2.059342e+02
<STATE> 18
<MEAN> 42
 2.319223e-02 2.850827e-02 -3.087204e-04 -2.611052e-02 1.610639e-02 4.165364e-03 2.177924e-03 7.787363e-02 4.893123e-02 2.306014e-02 4.406612e-02 2.344675e-02 4.392125e-04 5.276176e-04 8.667481e-05 -4.857410e-04 1.783653e-04 3.117547e-04 3.994518e-04 1.163979e-03 1.053530e-03 8.764153e-04 6.953072e-04 5.657090e-04 -9.188147e-06 -2.307790e-05 -1.422644e-05 1.611838e-05 2.488069e-06 -1.770844e-05 -1.072426e-04 -1.185148e-04 -9.145033e-05 -5.638222e-05 -4.433492e-06 9.944567e-06 1.465173e-03 -1.707464e-03 -9.049417e-04 2.357265e-02 1.590489e-02 -2.975550e-02
<VARIANCE> 42
 8.220881e-03 9.715147e-03 4.109330e-03 7.701399e-03 3.340303e-03 5.406224e-03 5.228135e-03 2.849018e-02 2.440982e-02 1.406941e-02 1.558790e-02 1.656316e-02 1.310940e-04 9.464714e-05 1.266144e-04 8.129493e-05 1.055176e-04 7.825347e-05 5.852546e-05 2.373000e-04 1.376192e-04 9.270456e-05 1.219202e-04 7.395699e-05 3.445100e-05 2.696834e-05 3.419151e-05 2.214579e-05 2.773355e-05 2.205582e-05 8.532526e-06 2.601508e-05 1.609730e-05 1.483795e-05 2.123684e-05 1.247531e-05 6.400609e-05 1.069278e-04 1.902699e-04 9.607833e-03 5.159735e-03 8.306710e-03
<GCONST> -2.600977e+02
<STATE> 19
<MEAN> 42
 4.637720e-02 2.788207e-02 -2.562710e-02 -4.119594e-02 3.520627e-02 -6.060569e-03 -1.017087e-02 1.656848e-02 4.506655e-02 3.019328e-02 2.609138e-02 5.763952e-02 -3.649250e-05 1.062947e-04 1.437597e-04 -3.355900e-05 -9.020486e-05 1.253723e-04 -1.615994e-04 -8.826180e-04 -1.901071e-04 -2.083222e-04 -5.296325e-05 -4.151923e-06 -2.130011e-05 -1.390577e-05 7.474470e-06 1.759160e-05 -1.380986e-05 -3.279558e-06 1.449539e-05 -1.428928e-05 -1.565304e-05 -3.418585e-05 -2.560564e-05 -1.591439e-05 1.537299e-04 3.252445e-04 4.198004e-03 3.737006e-02 1.170437e-02 -4.271148e-03
<VARIANCE> 42
 2.000452e-02 3.903766e-03 1.108768e-02 9.221204e-03 1.472967e-02 2.382041e-03 1.139291e-02 5.490834e+00 8.551385e-02 1.163566e+00 3.347672e-02 5.379335e-02 8.605801e-04 1.020550e-04 6.424293e-04 3.206778e-04 7.311213e-04 1.566215e-04 1.668635e-04 4.165966e-01 7.757770e-04 1.829260e-01 7.531958e-04 7.195916e-04 1.269358e-04 2.265981e-05 1.238482e-04 4.383715e-05 1.204064e-04 4.152682e-05 2.496955e-05 1.594143e-01 5.215622e-05 6.851768e-02 7.221603e-05 6.899047e-05 2.362151e-04 2.395423e-04 2.079410e-04 1.061714e-01 4.784089e-03 5.460510e-01
<GCONST> -1.788610e+02
<TRANSP> 20
 0.000000e+00 1.000000e+00 0.000000e+00 0.000000e+00 0.000000e+00 0.000000e+00 0.000000e+00 0.000000e+00 0.000000e+00 0.000000e+00 0.000000e+00 0.000000e+00 0.000000e+00 0.000000e+00 0.000000e+00 0.000000e+00 0.000000e+00 0.000000e+00 0.000000e+00 0.000000e+00
 0.000000e+00 9.919545e-01 8.045489e-03 0.000000e+00 0.000000e+00 0.000000e+00 0.000000e+00 0.000000e+00 0.000000e+00 0.000000e+00 0.000000e+00 0.000000e+00 0.000000e+00 0.000000e+00 0.000000e+00 0.000000e+00 0.000000e+00 0.000000e+00 0.000000e+00 0.000000e+00
 0.000000e+00 0.000000e+00 9.858538e-01 1.414621e-02 0.000000e+00 0.000000e+00 0.000000e+00 0.000000e+00 0.000000e+00 0.000000e+00 0.000000e+00 0.000000e+00 0.000000e+00 0.000000e+00 0.000000e+00 0.000000e+00 0.000000e+00 0.000000e+00 0.000000e+00 0.000000e+00
 0.000000e+00 0.000000e+00 0.000000e+00 9.996973e-01 3.026643e-04 0.000000e+00 0.000000e+00 0.000000e+00 0.000000e+00 0.000000e+00 0.000000e+00 0.000000e+00 0.000000e+00 0.000000e+00 0.000000e+00 0.000000e+00 0.000000e+00 0.000000e+00 0.000000e+00 0.000000e+00
 0.000000e+00 0.000000e+00 0.000000e+00 0.000000e+00 9.946698e-01 5.330261e-03 0.000000e+00 0.000000e+00 0.000000e+00 0.000000e+00 0.000000e+00 0.000000e+00 0.000000e+00 0.000000e+00 0.000000e+00 0.000000e+00 0.000000e+00 0.000000e+00 0.000000e+00 0.000000e+00
 0.000000e+00 0.000000e+00 0.000000e+00 0.000000e+00 0.000000e+00 9.610824e-01 3.891761e-02 0.000000e+00 0.000000e+00 0.000000e+00 0.000000e+00 0.000000e+00 0.000000e+00 0.000000e+00 0.000000e+00 0.000000e+00 0.000000e+00 0.000000e+00 0.000000e+00 0.000000e+00
 0.000000e+00 0.000000e+00 0.000000e+00 0.000000e+00 0.000000e+00 0.000000e+00 4.176424e-01 5.823576e-01 0.000000e+00 0.000000e+00 0.000000e+00 0.000000e+00 0.000000e+00 0.000000e+00 0.000000e+00 0.000000e+00 0.000000e+00 0.000000e+00 0.000000e+00 0.000000e+00
 0.000000e+00 0.000000e+00 0.000000e+00 0.000000e+00 0.000000e+00 0.000000e+00 0.000000e+00 9.436377e-01 5.636231e-02 0.000000e+00 0.000000e+00 0.000000e+00 0.000000e+00 0.000000e+00 0.000000e+00 0.000000e+00 0.000000e+00 0.000000e+00 0.000000e+00 0.000000e+00
 0.000000e+00 0.000000e+00 0.000000e+00 0.000000e+00 0.000000e+00 0.000000e+00 0.000000e+00 0.000000e+00 9.812059e-01 1.879407e-02 0.000000e+00 0.000000e+00 0.000000e+00 0.000000e+00 0.000000e+00 0.000000e+00 0.000000e+00 0.000000e+00 0.000000e+00 0.000000e+00
 0.000000e+00 0.000000e+00 0.000000e+00 0.000000e+00 0.000000e+00 0.000000e+00 0.000000e+00 0.000000e+00 0.000000e+00 9.894628e-01 1.053716e-02 0.000000e+00 0.000000e+00 0.000000e+00 0.000000e+00 0.000000e+00 0.000000e+00 0.000000e+00 0.000000e+00 0.000000e+00
 0.000000e+00 0.000000e+00 0.000000e+00 0.000000e+00 0.000000e+00 0.000000e+00 0.000000e+00 0.000000e+00 0.000000e+00 0.000000e+00 9.952757e-01 4.724269e-03 0.000000e+00 0.000000e+00 0.000000e+00 0.000000e+00 0.000000e+00 0.000000e+00 0.000000e+00 0.000000e+00
 0.000000e+00 0.000000e+00 0.000000e+00 0.000000e+00 0.000000e+00 0.000000e+00 0.000000e+00 0.000000e+00 0.000000e+00 0.000000e+00 0.000000e+00 8.866848e-01 1.133152e-01 0.000000e+00 0.000000e+00 0.000000e+00 0.000000e+00 0.000000e+00 0.000000e+00 0.000000e+00
 0.000000e+00 0.000000e+00 0.000000e+00 0.000000e+00 0.000000e+00 0.000000e+00 0.000000e+00 0.000000e+00 0.000000e+00 0.000000e+00 0.000000e+00 0.000000e+00 3.440120e-01 6.559880e-01 0.000000e+00 0.000000e+00 0.000000e+00 0.000000e+00 0.000000e+00 0.000000e+00
 0.000000e+00 0.000000e+00 0.000000e+00 0.000000e+00 0.000000e+00 0.000000e+00 0.000000e+00 0.000000e+00 0.000000e+00 0.000000e+00 0.000000e+00 0.000000e+00 0.000000e+00 8.435598e-01 1.564402e-01 0.000000e+00 0.000000e+00 0.000000e+00 0.000000e+00 0.000000e+00
 0.000000e+00 0.000000e+00 0.000000e+00 0.000000e+00 0.000000e+00 0.000000e+00 0.000000e+00 0.000000e+00 0.000000e+00 0.000000e+00 0.000000e+00 0.000000e+00 0.000000e+00 0.000000e+00 8.969131e-01 1.030869e-01 0.000000e+00 0.000000e+00 0.000000e+00 0.000000e+00
 0.000000e+00 0.000000e+00 0.000000e+00 0.000000e+00 0.000000e+00 0.000000e+00 0.000000e+00 0.000000e+00 0.000000e+00 0.000000e+00 0.000000e+00 0.000000e+00 0.000000e+00 0.000000e+00 0.000000e+00 8.511226e-01 1.488774e-01 0.000000e+00 0.000000e+00 0.000000e+00
 0.000000e+00 0.000000e+00 0.000000e+00 0.000000e+00 0.000000e+00 0.000000e+00 0.000000e+00 0.000000e+00 0.000000e+00 0.000000e+00 0.000000e+00 0.000000e+00 0.000000e+00 0.000000e+00 0.000000e+00 0.000000e+00 9.913474e-01 8.652579e-03 0.000000e+00 0.000000e+00
 0.000000e+00 0.000000e+00 0.000000e+00 0.000000e+00 0.000000e+00 0.000000e+00 0.000000e+00 0.000000e+00 0.000000e+00 0.000000e+00 0.000000e+00 0.000000e+00 0.000000e+00 0.000000e+00 0.000000e+00 0.000000e+00 0.000000e+00 9.918946e-01 8.105385e-03 0.000000e+00
 0.000000e+00 0.000000e+00 0.000000e+00 0.000000e+00 0.000000e+00 0.000000e+00 0.000000e+00 0.000000e+00 0.000000e+00 0.000000e+00 0.000000e+00 0.000000e+00 0.000000e+00 0.000000e+00 0.000000e+00 0.000000e+00 0.000000e+00 0.000000e+00 9.926671e-01 7.332879e-03
 0.000000e+00 0.000000e+00 0.000000e+00 0.000000e+00 0.000000e+00 0.000000e+00 0.000000e+00 0.000000e+00 0.000000e+00 0.000000e+00 0.000000e+00 0.000000e+00 0.000000e+00 0.000000e+00 0.000000e+00 0.000000e+00 0.000000e+00 0.000000e+00 0.000000e+00 0.000000e+00
<ENDHMM>
