~o
<STREAMINFO> 1 42
<VECSIZE> 42<NULLD><USER><DIAGC>
~h "PACIENTE"
<BEGINHMM>
<NUMSTATES> 20
<STATE> 2
<NUMMIXES> 8
<MIXTURE> 1 8.363580e-02
<MEAN> 42
 8.352134e-02 1.055913e-01 2.322770e-02 -7.252043e-02 3.927689e-02 6.864014e-02 8.314433e-03 9.205340e-02 2.052418e-01 1.451453e-01 1.461548e-01 1.066484e-01 1.398316e-03 2.302506e-03 1.875913e-03 2.725308e-04 8.441706e-04 1.996819e-03 1.781373e-04 3.911655e-03 2.291674e-03 2.036398e-03 1.567821e-03 1.334813e-03 2.984733e-04 7.220996e-04 9.985236e-04 4.601128e-04 2.155256e-04 8.080382e-04 5.608551e-04 9.788907e-04 5.139605e-04 7.563659e-04 4.831481e-04 3.502750e-04 1.269573e-03 4.890715e-04 -4.809174e-03 1.240041e-01 6.543646e-02 5.972791e-03
<VARIANCE> 42
 2.469651e-03 4.199031e-03 3.149326e-03 2.258569e-03 1.866633e-03 3.647198e-03 7.237089e-03 1.720204e-01 2.847166e-02 1.083118e-02 8.426280e-03 6.052091e-03 2.495971e-05 4.257427e-05 4.066891e-05 2.359746e-05 2.248172e-05 3.583091e-05 3.576466e-05 1.500253e-04 6.578710e-05 4.526707e-05 4.015564e-05 2.413973e-05 6.390806e-06 8.059552e-06 1.016023e-05 4.699754e-06 6.377487e-06 7.626951e-06 6.334788e-06 2.601508e-05 6.134081e-06 1.211414e-05 4.917670e-06 3.336944e-06 2.279181e-04 1.644140e-04 2.445856e-04 5.454898e-03 3.567872e-03 2.086482e-02
<GCONST> -2.865049e+02
<MIXTURE> 2 2.792265e-01
<MEAN> 42
 -7.667572e-03 7.356036e-03 -5.084219e-03 1.016954e-02 -2.233157e-03 1.066318e-02 2.123917e-02 1.055046e-02 1.157556e-02 1.333448e-03 1.183368e-02 4.469787e-03 5.484903e-04 5.716755e-04 7.194553e-04 3.797923e-04 5.089191e-04 5.854252e-04 5.515171e-04 1.947204e-03 1.000652e-03 1.456705e-03 6.270668e-04 4.792509e-04 3.470441e-04 3.892637e-04 5.189092e-04 2.167052e-04 3.081097e-04 4.160200e-04 1.853740e-04 1.015044e-03 3.753494e-04 7.567913e-04 3.607461e-04 3.074262e-04 6.301003e-04 1.556473e-03 6.241307e-03 -4.964112e-04 9.586893e-03 1.312451e-03
<VARIANCE> 42
 8.102726e-04 5.857307e-04 3.415694e-04 5.672516e-04 3.863480e-04 3.011825e-04 9.436194e-04 1.816404e-03 2.082137e-03 7.705937e-04 7.233847e-04 4.041417e-04 7.685268e-06 6.037067e-06 1.010818e-05 4.343345e-06 7.704894e-06 6.314701e-06 3.399867e-06 7.374013e-05 9.872299e-06 4.065752e-05 1.131955e-05 8.494042e-06 3.227275e-06 2.214117e-06 4.317522e-06 1.648636e-06 3.351467e-06 2.513615e-06 1.105044e-06 2.601508e-05 3.201911e-06 1.211414e-05 1.873275e-06 1.347988e-06 9.100837e-06 3.771909e-05 1.230697e-04 2.898960e-04 2.858364e-04 7.204404e-04
<GCONST> -3.547749e+02
<MIXTURE> 3 7.410560e-02
<MEAN> 42
 -1.661408e-02 -6.792793e-02 -7.138385e-02 5.499233e-02 3.208276e-02 -5.992467e-02 5.430738e-02 5.396269e-02 -1.005146e-01 -1.553371e-01 -1.196870e-01 -8.405607e-02 1.008713e-03 2.522497e-04 -5.131995e-06 3.964319e-04 1.179800e-03 5.469011e-05 -4.033209e-06 1.082566e-03 -7.874664e-05 7.039737e-04 3.120879e-04 4.641936e-04 5.522241e-04 2.564309e-04 1.924458e-04 2.646990e-04 6.205857e-04 1.848997e-04 2.794612e-04 9.962654e-04 4.759638e-04 5.786960e-04 3.480679e-04 2.187622e-04 2.451406e-02 6.502239e-03 4.050497e-03 -1.063009e-01 -4.840608e-02 -3.994629e-05
<VARIANCE> 42
 8.448476e-04 1.778182e-03 2.728345e-03 8.024912e-04 1.091719e-03 1.772172e-03 3.636566e-03 3.296114e-03 9.948042e-03 1.081808e-02 8.327267e-03 3.600188e-03 8.800924e-06 7.756978e-06 1.265363e-05 5.101068e-06 9.122111e-06 8.133331e-06 4.715010e-06 7.374013e-05 1.467642e-05 4.065752e-05 1.305982e-05 8.494042e-06 3.692318e-06 3.385325e-06 5.536568e-06 2.133691e-06 3.912075e-06 3.600550e-06 1.822809e-06 2.601508e-05 7.741100e-06 1.211414e-05 6.003496e-06 3.026255e-06 2.896970e-04 8.481169e-05 2.202119e-04 4.782229e-03 9.787220e-04 1.728820e-03
<GCONST> -3.208472e+02
<MIXTURE> 4 6.303115e-02
<MEAN> 42
 -1.429459e-02 1.087450e-02 8.859721e-03 1.977124e-02 -6.530409e-03 1.845174e-02 2.978271e-02 5.018427e-02 -2.849787e-03 -1.535093e-02 1.108980e-02 1.176882e-02 5.991149e-04 4.636178e-04 2.053956e-03 3.060817e-03 1.431946e-03 1.060628e-03 3.406213e-03 6.414928e-03 3.767385e-03 3.106157e-03 3.802064e-03 3.252483e-03 1.160438e-03 5.671238e-04 7.199692e-04 1.080447e-03 1.557379e-03 5.435617e-04 1.456036e-03 3.272190e-03 3.073705e-03 2.400537e-03 2.147240e-03 1.855111e-03 1.183536e-03 1.350000e-02 1.088127e-02 -5.784977e-03 2.044714e-02 3.751000e-02
<VARIANCE> 42
 2.220473e-03 2.569588e-03 2.485862e-03 1.704311e-03 1.708409e-03 2.058888e-03 1.252860e-02 7.547860e-02 3.332739e-02 1.103257e-02 1.513781e-02 8.058494e-03 8.870776e-05 1.118600e-04 1.470506e-04 6.357865e-05 9.033325e-05 1.073300e-04 1.764828e-04 1.001296e-03 8.881330e-04 5.444319e-04 4.498201e-04 3.134953e-04 2.677208e-05 3.474842e-05 5.308431e-05 1.749565e-05 3.140793e-05 3.724329e-05 4.969772e-05 2.582928e-04 2.423942e-04 1.740363e-04 1.496280e-04 1.038594e-04 2.154806e-04 8.263345e-04 3.173387e-04 6.784597e-03 2.389587e-03 1.906071e-02
<GCONST> -2.388073e+02
<MIXTURE> 5 2.792265e-01
<MEAN> 42
 -1.905369e-02 -2.324714e-03 -1.247686e-02 6.427178e-04 -1.009545e-02 3.721340e-03 8.951812e-03 -6.497252e-03 -6.676617e-03 -9.770380e-03 1.075359e-03 -3.571523e-03 -5.604025e-04 -4.111422e-04 -5.522793e-04 -4.538355e-04 -6.013886e-04 -4.197375e-04 -1.860321e-04 -1.487679e-03 -2.561564e-04 -1.093825e-03 -7.187148e-04 -6.865307e-04 -3.715407e-04 -2.059327e-04 -3.122367e-04 -2.968918e-04 -4.241708e-04 -2.181553e-04 -2.351104e-04 -1.025155e-03 -3.404060e-04 -6.354236e-04 -1.867244e-04 -1.569853e-04 -5.766035e-04 -9.001618e-04 1.803835e-03 -7.306945e-03 2.824214e-03 -9.423958e-03
<VARIANCE> 42
 8.102726e-04 5.857307e-04 3.415694e-04 5.672516e-04 3.863480e-04 3.011825e-04 9.436194e-04 1.816404e-03 2.082137e-03 7.705937e-04 7.233847e-04 4.041417e-04 7.685268e-06 6.037067e-06 1.010818e-05 4.343345e-06 7.704894e-06 6.314701e-06 3.399867e-06 7.374013e-05 9.872299e-06 4.065752e-05 1.131955e-05 8.494042e-06 3.227275e-06 2.214117e-06 4.317522e-06 1.648636e-06 3.351467e-06 2.513615e-06 1.105044e-06 2.601508e-05 3.201911e-06 1.211414e-05 1.873275e-06 1.347988e-06 9.100837e-06 3.771909e-05 1.230697e-04 2.898960e-04 2.858364e-04 7.204404e-04
<GCONST> -3.547749e+02
<MIXTURE> 6 8.363580e-02
<MEAN> 42
 6.364310e-02 7.967132e-02 7.801587e-04 -9.153020e-02 2.199507e-02 4.448332e-02 -2.571400e-02 -7.384798e-02 1.377476e-01 1.035161e-01 1.094368e-01 7.553036e-02 -6.000720e-04 -3.074519e-04 -6.749744e-04 -1.670558e-03 -1.052425e-03 -3.975378e-04 -2.214005e-03 -9.877374e-04 -9.526959e-04 -6.548345e-04 -9.669187e-04 -6.304755e-04 -7.127285e-04 -4.134744e-04 -2.764812e-04 -4.070438e-04 -7.946219e-04 -2.966392e-04 -4.459050e-04 -1.061309e-03 -4.767225e-04 -6.358490e-04 -4.038847e-04 -3.804172e-04 -4.769209e-03 -4.639890e-03 -1.106487e-02 9.446114e-02 4.154380e-02 -5.180585e-02
<VARIANCE> 42
 2.469651e-03 4.199031e-03 3.149326e-03 2.258569e-03 1.866633e-03 3.647198e-03 7.237089e-03 1.720204e-01 2.847166e-02 1.083118e-02 8.426280e-03 6.052091e-03 2.495971e-05 4.257427e-05 4.066891e-05 2.359746e-05 2.248172e-05 3.583091e-05 3.576466e-05 1.500253e-04 6.578710e-05 4.526707e-05 4.015564e-05 2.413973e-05 6.390806e-06 8.059552e-06 1.016023e-05 4.699754e-06 6.377487e-06 7.626951e-06 6.334788e-06 2.601508e-05 6.134081e-06 1.211414e-05 4.917670e-06 3.336944e-06 2.279181e-04 1.644140e-04 2.445856e-04 5.454898e-03 3.567872e-03 2.086482e-02
<GCONST> -2.865049e+02
<MIXTURE> 7 7.410560e-02
<MEAN> 42
 -2.824058e-02 -8.479533e-02 -9.227727e-02 4.366101e-02 1.886629e-02 -7.676353e-02 3.018580e-02 3.099797e-02 -1.404106e-01 -1.969411e-01 -1.561886e-01 -1.080567e-01 -1.779408e-04 -8.618045e-04 -1.428010e-03 -5.069899e-04 -2.831366e-05 -1.086070e-03 -8.725962e-04 -2.352317e-03 -1.611139e-03 -1.846556e-03 -1.133447e-03 -7.015880e-04 -2.163921e-04 -4.795392e-04 -7.487506e-04 -3.195874e-04 -1.705729e-04 -5.741049e-04 -2.605846e-04 -1.043934e-03 -6.369494e-04 -8.135189e-04 -6.320133e-04 -4.770832e-04 1.770586e-02 2.818509e-03 -1.885319e-03 -1.339623e-01 -6.091990e-02 -1.667158e-02
<VARIANCE> 42
 8.448476e-04 1.778182e-03 2.728345e-03 8.024912e-04 1.091719e-03 1.772172e-03 3.636566e-03 3.296114e-03 9.948042e-03 1.081808e-02 8.327267e-03 3.600188e-03 8.800924e-06 7.756978e-06 1.265363e-05 5.101068e-06 9.122111e-06 8.133331e-06 4.715010e-06 7.374013e-05 1.467642e-05 4.065752e-05 1.305982e-05 8.494042e-06 3.692318e-06 3.385325e-06 5.536568e-06 2.133691e-06 3.912075e-06 3.600550e-06 1.822809e-06 2.601508e-05 7.741100e-06 1.211414e-05 6.003496e-06 3.026255e-06 2.896970e-04 8.481169e-05 2.202119e-04 4.782229e-03 9.787220e-04 1.728820e-03
<GCONST> -3.208472e+02
<MIXTURE> 8 6.303115e-02
<MEAN> 42
 -3.314335e-02 -9.401944e-03 -1.108365e-02 3.257919e-03 -2.306357e-02 3.017550e-04 -1.498978e-02 -5.970921e-02 -7.587295e-02 -5.736535e-02 -3.812452e-02 -2.413883e-02 -3.168277e-03 -3.766938e-03 -2.796621e-03 -1.286315e-04 -2.369806e-03 -3.083380e-03 -1.907660e-03 -6.242376e-03 -8.153239e-03 -6.227069e-03 -4.681521e-03 -3.829836e-03 -9.092318e-04 -1.790788e-03 -2.194390e-03 -5.926649e-04 -6.843316e-04 -1.897529e-03 -1.363828e-03 -3.156406e-03 -3.153901e-03 -2.876376e-03 -2.745661e-03 -2.221347e-03 -4.688167e-03 2.001582e-03 3.755665e-03 -3.873244e-02 8.937791e-04 -1.771421e-02
<VARIANCE> 42
 2.220473e-03 2.569588e-03 2.485862e-03 1.704311e-03 1.708409e-03 2.058888e-03 1.252860e-02 7.547860e-02 3.332739e-02 1.103257e-02 1.513781e-02 8.058494e-03 8.870776e-05 1.118600e-04 1.470506e-04 6.357865e-05 9.033325e-05 1.073300e-04 1.764828e-04 1.001296e-03 8.881330e-04 5.444319e-04 4.498201e-04 3.134953e-04 2.677208e-05 3.474842e-05 5.308431e-05 1.749565e-05 3.140793e-05 3.724329e-05 4.969772e-05 2.582928e-04 2.423942e-04 1.740363e-04 1.496280e-04 1.038594e-04 2.154806e-04 8.263345e-04 3.173387e-04 6.784597e-03 2.389587e-03 1.906071e-02
<GCONST> -2.388073e+02
<STATE> 3
<NUMMIXES> 8
<MIXTURE> 1 1.066633e-01
<MEAN> 42
 2.703526e-02 2.636154e-02 1.219174e-02 -1.492186e-02 1.727993e-02 1.982193e-02 9.878960e-03 7.283825e-03 3.747983e-02 3.375055e-02 2.935866e-02 1.609815e-02 -7.298100e-05 4.009690e-03 6.567551e-03 1.441704e-03 -1.514767e-03 4.976539e-03 3.445687e-03 4.581682e-03 4.216829e-03 4.672839e-03 4.328014e-03 3.989147e-03 -5.813789e-04 1.935306e-03 4.005873e-03 1.367966e-03 -1.209272e-03 2.773408e-03 1.846852e-03 2.490382e-03 2.192081e-03 2.515069e-03 2.361966e-03 2.214709e-03 3.214173e-03 3.639314e-03 7.215236e-04 2.547876e-02 1.607218e-02 1.940948e-03
<VARIANCE> 42
 1.435340e-03 2.261530e-03 1.810326e-03 1.425276e-03 1.045291e-03 1.771930e-03 2.567305e-03 1.492649e-03 3.611894e-03 2.624264e-03 2.022948e-03 1.546842e-03 1.101569e-04 6.173545e-05 9.614104e-05 6.193315e-05 8.846544e-05 5.203164e-05 2.186246e-05 7.374013e-05 2.576791e-05 4.065752e-05 2.551481e-05 2.169608e-05 3.962766e-05 2.232021e-05 3.485633e-05 2.227994e-05 3.186546e-05 1.891134e-05 5.975658e-06 2.601508e-05 6.702607e-06 1.211414e-05 7.388664e-06 6.478221e-06 2.128247e-05 1.040082e-04 6.031795e-05 1.419618e-03 1.419317e-03 7.111130e-04
<GCONST> -3.000478e+02
<MIXTURE> 2 7.909060e-02
<MEAN> 42
 5.542202e-02 4.420213e-02 1.726747e-02 -1.800503e-02 4.646126e-02 3.194550e-02 4.925683e-02 8.181013e-02 1.499360e-01 1.547450e-01 1.290309e-01 9.050258e-02 2.732635e-03 2.763569e-03 4.273701e-03 1.934778e-03 2.496236e-03 3.167017e-03 3.020334e-03 4.958126e-03 7.314404e-03 8.428250e-03 6.737018e-03 5.153734e-03 9.147580e-04 1.154334e-03 2.503245e-03 1.536303e-03 8.998978e-04 1.612621e-03 1.168250e-03 1.319957e-03 9.824540e-04 1.041805e-03 6.864084e-04 3.679735e-04 1.382690e-02 -1.685061e-03 8.583228e-03 1.020350e-01 2.157862e-02 -2.893950e-02
<VARIANCE> 42
 7.607261e-03 1.373774e-02 1.661415e-02 6.429007e-03 8.649659e-03 1.340056e-02 1.500689e-02 1.500333e-02 2.161695e-02 2.874874e-02 2.279158e-02 1.341875e-02 2.302096e-04 1.265337e-04 2.986602e-04 1.037731e-04 2.342525e-04 1.554858e-04 1.151130e-04 2.199332e-04 3.175088e-04 3.484997e-04 2.470165e-04 1.862333e-04 6.935573e-05 3.573145e-05 8.040931e-05 3.243800e-05 6.639433e-05 4.086766e-05 2.409104e-05 3.749420e-05 2.834494e-05 2.962523e-05 2.444158e-05 2.146862e-05 3.607312e-04 4.122860e-04 4.518947e-04 1.627526e-02 9.616918e-03 6.478947e-03
<GCONST> -2.358507e+02
<MIXTURE> 3 2.878349e-01
<MEAN> 42
 4.635857e-03 -1.741382e-04 4.805402e-03 3.565780e-03 5.948917e-03 2.460696e-03 5.727009e-03 2.019852e-04 9.430828e-03 8.412350e-03 9.687221e-03 -2.694814e-04 2.414461e-03 4.125056e-04 -7.780467e-05 1.322849e-03 2.709914e-03 -7.761666e-05 -5.553762e-05 7.691144e-04 -4.729000e-04 -7.409905e-05 -4.934163e-04 -4.578438e-04 1.680167e-03 5.408484e-04 5.608849e-05 6.174139e-04 1.717264e-03 1.464054e-04 -1.157148e-05 5.523240e-04 -1.042467e-04 1.021941e-04 -1.182913e-04 -1.133479e-04 8.137893e-04 9.201779e-04 9.993722e-04 5.602375e-03 -7.089376e-04 3.940406e-03
<VARIANCE> 42
 5.906812e-04 6.211553e-04 6.954679e-04 4.223630e-04 5.006655e-04 4.926610e-04 8.476123e-04 1.370589e-03 1.018334e-03 7.537670e-04 6.448731e-04 5.916888e-04 6.763535e-05 4.316931e-05 6.350284e-05 3.954940e-05 5.526786e-05 3.681112e-05 1.354413e-05 7.374013e-05 1.387395e-05 4.065752e-05 1.662510e-05 1.462608e-05 2.674820e-05 1.715450e-05 2.440231e-05 1.585999e-05 2.150227e-05 1.423213e-05 4.452328e-06 2.601508e-05 4.801620e-06 1.211414e-05 5.575338e-06 4.833511e-06 9.260803e-06 3.248908e-05 3.532046e-05 3.772045e-04 4.262859e-04 2.979006e-04
<GCONST> -3.258357e+02
<MIXTURE> 4 2.641246e-02
<MEAN> 42
 9.791881e-02 -5.982589e-03 -3.803283e-03 3.089201e-02 1.179580e-01 -9.739075e-03 3.538416e-02 9.865153e-02 1.913316e-01 3.415987e-01 2.717338e-01 1.936922e-01 1.041358e-02 1.845804e-03 6.208871e-03 6.926269e-03 1.137492e-02 2.618858e-03 5.897852e-03 5.043945e-03 7.777815e-03 1.092950e-02 9.804743e-03 1.003996e-02 5.781231e-03 1.097988e-03 -6.086922e-04 7.605732e-04 5.933116e-03 -1.852254e-04 1.029488e-03 2.830742e-03 5.038302e-03 6.792030e-03 6.204787e-03 5.805659e-03 1.705954e-02 1.911582e-02 2.801097e-02 2.212472e-01 -1.445949e-02 2.496699e-02
<VARIANCE> 42
 9.085754e-02 2.422272e-02 1.101751e-01 3.067308e-02 9.504036e-02 4.535514e-02 1.205199e-01 9.529064e-02 2.797629e-01 4.137762e-01 3.063560e-01 2.190069e-01 2.379854e-03 5.060113e-04 2.260471e-03 8.781528e-04 2.197784e-03 7.888923e-04 1.856516e-03 2.892781e-03 7.852762e-03 1.311504e-02 9.326809e-03 6.574830e-03 2.111277e-04 7.155813e-05 2.034123e-04 9.044496e-05 1.898416e-04 8.472581e-05 1.241358e-04 3.365976e-04 6.589065e-04 1.197009e-03 8.068949e-04 5.234786e-04 2.037074e-03 1.592924e-03 1.470683e-03 2.225330e-01 2.558038e-02 5.373861e-02
<GCONST> -1.471672e+02
<MIXTURE> 5 2.878349e-01
<MEAN> 42
 -5.085716e-03 -1.014333e-02 -5.743288e-03 -4.654809e-03 -3.001305e-03 -6.417692e-03 -5.918504e-03 -1.460660e-02 -3.333711e-03 -2.569576e-03 -4.705195e-04 -9.999342e-03 -8.751674e-04 -2.215629e-03 -3.265352e-03 -1.192684e-03 -2.637801e-04 -2.504503e-03 -1.527632e-03 -2.665769e-03 -1.962810e-03 -2.624629e-03 -2.124372e-03 -1.987606e-03 -3.885797e-04 -1.115871e-03 -1.919859e-03 -9.755703e-04 -1.375575e-04 -1.362614e-03 -8.555931e-04 -1.487875e-03 -9.807507e-04 -1.290021e-03 -1.062777e-03 -9.927577e-04 -4.034734e-04 -1.359790e-03 -1.377868e-03 -2.166327e-03 -8.967615e-03 -2.963513e-03
<VARIANCE> 42
 5.906812e-04 6.211553e-04 6.954679e-04 4.223630e-04 5.006655e-04 4.926610e-04 8.476123e-04 1.370589e-03 1.018334e-03 7.537670e-04 6.448731e-04 5.916888e-04 6.763535e-05 4.316931e-05 6.350284e-05 3.954940e-05 5.526786e-05 3.681112e-05 1.354413e-05 7.374013e-05 1.387395e-05 4.065752e-05 1.662510e-05 1.462608e-05 2.674820e-05 1.715450e-05 2.440231e-05 1.585999e-05 2.150227e-05 1.423213e-05 4.452328e-06 2.601508e-05 4.801620e-06 1.211414e-05 5.575338e-06 4.833511e-06 9.260803e-06 3.248908e-05 3.532046e-05 3.772045e-04 4.262859e-04 2.979006e-04
<GCONST> -3.258357e+02
<MIXTURE> 6 1.066633e-01
<MEAN> 42
 1.188090e-02 7.339321e-03 -4.827437e-03 -3.002299e-02 4.347548e-03 2.984210e-03 -1.038847e-02 -8.170101e-03 1.344021e-02 1.325952e-02 1.136778e-02 3.661821e-04 -4.271207e-03 8.668138e-04 2.645489e-03 -1.706200e-03 -5.277009e-03 2.091221e-03 1.575395e-03 1.146799e-03 2.186345e-03 2.122309e-03 2.307526e-03 2.125985e-03 -3.099399e-03 4.553521e-05 1.644303e-03 -5.200994e-04 -3.467252e-03 1.033922e-03 8.690458e-04 4.501824e-04 1.156505e-03 1.122853e-03 1.274682e-03 1.196615e-03 1.368856e-03 -4.400621e-04 -2.385062e-03 1.040764e-02 1.002654e-03 -8.725733e-03
<VARIANCE> 42
 1.435340e-03 2.261530e-03 1.810326e-03 1.425276e-03 1.045291e-03 1.771930e-03 2.567305e-03 1.492649e-03 3.611894e-03 2.624264e-03 2.022948e-03 1.546842e-03 1.101569e-04 6.173545e-05 9.614104e-05 6.193315e-05 8.846544e-05 5.203164e-05 2.186246e-05 7.374013e-05 2.576791e-05 4.065752e-05 2.551481e-05 2.169608e-05 3.962766e-05 2.232021e-05 3.485633e-05 2.227994e-05 3.186546e-05 1.891134e-05 5.975658e-06 2.601508e-05 6.702607e-06 1.211414e-05 7.388664e-06 6.478221e-06 2.128247e-05 1.040082e-04 6.031795e-05 1.419618e-03 1.419317e-03 7.111130e-04
<GCONST> -3.000478e+02
<MIXTURE> 7 7.909060e-02
<MEAN> 42
 2.053418e-02 -2.681112e-03 -3.429089e-02 -5.007747e-02 9.259840e-03 -1.435882e-02 2.557877e-04 3.281489e-02 9.112519e-02 8.692319e-02 6.864340e-02 4.416685e-02 -3.336429e-03 -1.735919e-03 -2.639015e-03 -2.139985e-03 -3.625888e-03 -1.820741e-03 -1.271295e-03 -9.739322e-04 1.868925e-04 9.609908e-04 4.503143e-04 -3.049586e-04 -2.416445e-03 -1.236698e-03 -1.083605e-03 -7.418719e-04 -2.359411e-03 -9.444919e-04 -7.950546e-04 -1.129344e-03 -1.147145e-03 -1.135357e-03 -1.291129e-03 -1.485396e-03 6.229725e-03 -9.806992e-03 8.010212e-05 5.100522e-02 -1.764774e-02 -6.113626e-02
<VARIANCE> 42
 7.607261e-03 1.373774e-02 1.661415e-02 6.429007e-03 8.649659e-03 1.340056e-02 1.500689e-02 1.500333e-02 2.161695e-02 2.874874e-02 2.279158e-02 1.341875e-02 2.302096e-04 1.265337e-04 2.986602e-04 1.037731e-04 2.342525e-04 1.554858e-04 1.151130e-04 2.199332e-04 3.175088e-04 3.484997e-04 2.470165e-04 1.862333e-04 6.935573e-05 3.573145e-05 8.040931e-05 3.243800e-05 6.639433e-05 4.086766e-05 2.409104e-05 3.749420e-05 2.834494e-05 2.962523e-05 2.444158e-05 2.146862e-05 3.607312e-04 4.122860e-04 4.518947e-04 1.627526e-02 9.616918e-03 6.478947e-03
<GCONST> -2.358507e+02
<MIXTURE> 8 2.641246e-02
<MEAN> 42
 -2.265153e-02 -6.823719e-02 -1.365738e-01 -3.916292e-02 -5.356465e-03 -9.492606e-02 -1.034797e-01 -2.482520e-02 -2.023884e-02 8.429693e-02 5.033603e-02 6.499551e-03 -9.099921e-03 -7.152074e-03 -1.280889e-02 -4.927188e-03 -7.377288e-03 -8.616032e-03 -1.133707e-02 -1.646989e-02 -2.766851e-02 -3.487886e-02 -2.882542e-02 -2.239417e-02 -3.086287e-05 -2.285694e-03 -6.313600e-03 -3.043529e-03 4.217958e-04 -3.867090e-03 -3.427162e-03 -4.507897e-03 -5.229367e-03 -7.047098e-03 -5.157571e-03 -3.346203e-03 -9.940378e-04 3.151240e-03 1.267117e-02 3.255360e-02 -7.843496e-02 -6.775936e-02
<VARIANCE> 42
 9.085754e-02 2.422272e-02 1.101751e-01 3.067308e-02 9.504036e-02 4.535514e-02 1.205199e-01 9.529064e-02 2.797629e-01 4.137762e-01 3.063560e-01 2.190069e-01 2.379854e-03 5.060113e-04 2.260471e-03 8.781528e-04 2.197784e-03 7.888923e-04 1.856516e-03 2.892781e-03 7.852762e-03 1.311504e-02 9.326809e-03 6.574830e-03 2.111277e-04 7.155813e-05 2.034123e-04 9.044496e-05 1.898416e-04 8.472581e-05 1.241358e-04 3.365976e-04 6.589065e-04 1.197009e-03 8.068949e-04 5.234786e-04 2.037074e-03 1.592924e-03 1.470683e-03 2.225330e-01 2.558038e-02 5.373861e-02
<GCONST> -1.471672e+02
<STATE> 4
<NUMMIXES> 8
<MIXTURE> 1 1.551916e-01
<MEAN> 42
 2.932625e-02 3.686500e-02 1.678884e-02 -1.411333e-02 1.545675e-02 2.821535e-02 2.674318e-02 7.598979e-02 8.268657e-02 5.998336e-02 4.745786e-02 3.407858e-02 1.351625e-03 2.732922e-03 2.916181e-03 2.768600e-04 4.153842e-04 2.621257e-03 1.418028e-03 2.845129e-03 2.910536e-03 3.117697e-03 2.696028e-03 2.203090e-03 2.643020e-04 1.107994e-03 1.761572e-03 5.595625e-04 -6.956724e-05 1.310775e-03 7.884565e-04 1.504868e-03 1.091488e-03 1.478748e-03 1.225072e-03 1.015921e-03 2.894568e-03 -6.127574e-04 2.859429e-03 3.622372e-02 2.201051e-02 -1.790494e-02
<VARIANCE> 42
 1.955195e-03 3.110465e-03 2.133634e-03 2.009418e-03 1.254752e-03 2.201394e-03 3.743054e-03 1.127788e-02 1.138245e-02 7.235643e-03 3.873481e-03 3.181263e-03 4.596298e-05 3.256863e-05 4.341494e-05 2.851788e-05 3.688455e-05 2.643027e-05 1.885471e-05 7.374013e-05 3.739399e-05 4.065752e-05 2.589988e-05 1.757268e-05 1.455545e-05 8.475927e-06 1.354994e-05 8.164439e-06 1.206780e-05 7.358896e-06 3.500467e-06 2.601508e-05 5.010836e-06 1.211414e-05 5.460024e-06 3.629584e-06 2.518037e-05 6.152352e-05 1.389087e-04 2.319035e-03 2.018998e-03 4.049884e-03
<GCONST> -3.016689e+02
<MIXTURE> 2 6.886190e-02
<MEAN> 42
 9.343694e-02 1.491365e-01 8.559343e-02 -5.200348e-02 3.505741e-02 1.110247e-01 1.356587e-03 1.652303e-01 2.497140e-01 3.085369e-01 2.696998e-01 2.158399e-01 1.217135e-02 1.502218e-02 6.291431e-03 -2.329126e-03 7.030467e-03 1.020748e-02 3.489030e-03 1.220780e-02 2.061780e-02 2.958185e-02 2.782324e-02 2.286177e-02 2.122113e-03 2.578254e-03 2.106934e-03 6.126695e-04 1.530400e-03 2.154391e-03 1.328877e-04 2.724442e-04 1.194670e-03 3.473587e-03 3.559712e-03 3.220696e-03 1.447201e-02 5.036984e-03 7.718487e-03 2.182770e-01 1.046544e-01 2.757577e-02
<VARIANCE> 42
 2.474597e-02 4.330195e-02 3.246266e-02 2.586772e-02 1.781943e-02 3.030563e-02 4.028769e-02 2.702620e-01 1.588447e-01 1.835375e-01 1.368635e-01 9.848381e-02 6.123245e-04 1.183591e-03 7.208142e-04 7.178799e-04 3.727324e-04 7.982763e-04 1.162235e-03 2.532272e-03 1.720927e-03 2.649432e-03 2.348613e-03 1.864253e-03 6.120245e-05 6.828762e-05 7.552408e-05 4.589306e-05 5.154224e-05 5.656393e-05 7.620397e-05 1.901746e-04 1.935671e-04 1.882283e-04 1.388847e-04 9.569491e-05 7.068142e-04 5.894110e-04 5.777248e-04 8.659660e-02 2.937864e-02 7.267695e-02
<GCONST> -1.801121e+02
<MIXTURE> 3 2.533901e-01
<MEAN> 42
 8.453699e-04 -6.070451e-03 8.729962e-04 1.268905e-02 6.117234e-03 -1.890979e-03 1.174518e-02 1.748839e-02 5.661638e-03 -1.637461e-03 8.491147e-04 2.900069e-04 9.970954e-04 -2.439900e-04 -8.271192e-05 1.349258e-03 1.445953e-03 -3.062282e-04 4.523796e-04 1.375495e-03 1.552206e-05 3.174054e-04 -2.548500e-04 -2.640681e-04 9.185038e-04 2.076564e-04 2.632459e-05 4.514604e-04 1.008365e-03 3.250397e-05 6.103929e-05 7.582834e-04 2.087370e-05 2.619883e-04 -3.962195e-05 -4.699593e-05 1.878218e-04 8.580940e-04 2.404714e-03 -2.101246e-03 -4.803866e-03 5.641738e-04
<VARIANCE> 42
 5.714638e-04 8.573592e-04 6.947666e-04 5.289540e-04 4.409295e-04 6.211224e-04 1.276668e-03 1.848520e-03 2.003744e-03 1.336017e-03 1.145756e-03 8.733289e-04 2.575859e-05 1.803569e-05 2.476277e-05 1.577848e-05 2.104316e-05 1.509730e-05 8.503910e-06 7.374013e-05 1.315753e-05 4.065752e-05 1.347127e-05 9.678968e-06 9.490105e-06 5.879003e-06 9.209570e-06 5.406037e-06 7.996548e-06 5.230535e-06 2.330083e-06 2.601508e-05 3.520149e-06 1.211414e-05 3.798631e-06 2.573146e-06 5.602819e-06 1.155175e-05 4.352964e-05 5.798858e-04 5.652985e-04 6.852700e-04
<GCONST> -3.368955e+02
<MIXTURE> 4 2.256173e-02
<MEAN> 42
 1.663337e-01 1.250853e-01 2.907813e-02 -3.418490e-03 1.558999e-01 7.489599e-02 -1.623877e-01 -2.455608e-01 -1.339288e-01 1.801257e-01 2.638980e-01 2.715386e-01 -1.130124e-02 -1.139780e-02 1.092511e-02 3.166811e-02 -3.695395e-04 -1.497637e-03 1.732694e-02 7.193478e-03 -1.793078e-02 -3.451682e-02 -3.333149e-02 -2.519594e-02 2.351699e-03 1.807209e-03 3.307813e-03 6.434858e-03 3.629987e-03 2.120331e-03 8.028347e-03 1.209254e-02 1.234365e-02 8.111437e-03 4.530934e-03 2.474004e-03 2.955560e-02 3.729021e-02 2.201385e-02 2.253164e-01 1.218450e-01 3.568923e-01
<VARIANCE> 42
 9.944952e-02 2.200672e-01 2.392666e-01 9.995492e-02 1.150981e-01 1.998364e-01 1.564523e-01 4.718606e-01 4.079556e-01 5.599713e-01 4.479617e-01 3.326082e-01 2.707290e-03 3.460163e-03 3.828398e-03 2.126866e-03 2.408238e-03 2.968105e-03 2.269394e-03 8.119647e-03 1.391344e-02 1.733017e-02 1.257092e-02 7.803886e-03 4.150757e-04 6.514980e-04 5.954348e-04 3.845021e-04 3.431408e-04 5.201563e-04 2.592651e-04 6.065756e-04 1.603232e-03 2.992562e-03 1.881870e-03 1.102165e-03 1.903127e-03 1.837824e-03 1.508447e-03 2.660039e-01 1.770275e-01 2.067559e-01
<GCONST> -1.143722e+02
<MIXTURE> 5 2.533901e-01
<MEAN> 42
 -8.716754e-03 -1.778273e-02 -9.670375e-03 3.489448e-03 -2.282094e-03 -1.185991e-02 -2.547013e-03 2.906183e-04 -1.224364e-02 -1.625809e-02 -1.269049e-02 -1.153085e-02 -1.033022e-03 -1.942728e-03 -2.073200e-03 -2.396274e-04 -3.889600e-04 -1.860438e-03 -7.140790e-04 -2.059388e-03 -1.435410e-03 -2.233125e-03 -1.722979e-03 -1.508510e-03 -3.137368e-04 -7.622098e-04 -1.187566e-03 -4.785751e-04 -1.227616e-04 -8.823106e-04 -5.495451e-04 -1.281916e-03 -7.296087e-04 -1.130227e-03 -8.192250e-04 -6.886371e-04 -7.589892e-04 -5.014207e-04 -2.343659e-04 -1.173357e-02 -1.431427e-02 -9.906892e-03
<VARIANCE> 42
 5.714638e-04 8.573592e-04 6.947666e-04 5.289540e-04 4.409295e-04 6.211224e-04 1.276668e-03 1.848520e-03 2.003744e-03 1.336017e-03 1.145756e-03 8.733289e-04 2.575859e-05 1.803569e-05 2.476277e-05 1.577848e-05 2.104316e-05 1.509730e-05 8.503910e-06 7.374013e-05 1.315753e-05 4.065752e-05 1.347127e-05 9.678968e-06 9.490105e-06 5.879003e-06 9.209570e-06 5.406037e-06 7.996548e-06 5.230535e-06 2.330083e-06 2.601508e-05 3.520149e-06 1.211414e-05 3.798631e-06 2.573146e-06 5.602819e-06 1.155175e-05 4.352964e-05 5.798858e-04 5.652985e-04 6.852700e-04
<GCONST> -3.368955e+02
<MIXTURE> 6 1.551916e-01
<MEAN> 42
 1.163921e-02 1.455638e-02 -1.687667e-03 -3.204395e-02 1.287763e-03 9.447746e-03 2.270980e-03 3.351085e-02 4.001114e-02 2.595832e-02 2.256294e-02 1.151750e-02 -1.360215e-03 4.501643e-04 2.805797e-04 -1.859225e-03 -2.013922e-03 5.648414e-04 -3.188528e-04 -5.897544e-04 4.645104e-04 5.671669e-04 6.603505e-04 5.262984e-04 -1.261762e-03 -5.654403e-05 2.891620e-04 -5.833769e-04 -1.459117e-03 2.256839e-04 4.007510e-05 -5.353310e-04 1.960925e-04 8.653337e-05 2.904045e-04 2.538627e-04 8.873661e-04 -3.750235e-03 -1.854952e-03 1.696118e-02 4.037208e-03 -4.336042e-02
<VARIANCE> 42
 1.955195e-03 3.110465e-03 2.133634e-03 2.009418e-03 1.254752e-03 2.201394e-03 3.743054e-03 1.127788e-02 1.138245e-02 7.235643e-03 3.873481e-03 3.181263e-03 4.596298e-05 3.256863e-05 4.341494e-05 2.851788e-05 3.688455e-05 2.643027e-05 1.885471e-05 7.374013e-05 3.739399e-05 4.065752e-05 2.589988e-05 1.757268e-05 1.455545e-05 8.475927e-06 1.354994e-05 8.164439e-06 1.206780e-05 7.358896e-06 3.500467e-06 2.601508e-05 5.010836e-06 1.211414e-05 5.460024e-06 3.629584e-06 2.518037e-05 6.152352e-05 1.389087e-04 2.319035e-03 2.018998e-03 4.049884e-03
<GCONST> -3.016689e+02
<MIXTURE> 7 6.886190e-02
<MEAN> 42
 3.051354e-02 6.589996e-02 1.352384e-02 -1.163373e-01 -1.833836e-02 4.139066e-02 -7.893059e-02 -4.271662e-02 9.029274e-02 1.371717e-01 1.217195e-01 9.031134e-02 2.273269e-03 1.260835e-03 -4.447762e-03 -1.304644e-02 -6.920449e-04 -1.094034e-03 -1.014760e-02 -7.920874e-03 4.024179e-03 8.992793e-03 8.438242e-03 5.590971e-03 -1.007166e-03 -7.271994e-04 -1.369250e-03 -2.097107e-03 -1.341317e-03 -8.539687e-04 -3.358908e-03 -5.243708e-03 -4.370466e-03 -2.014266e-03 -1.154262e-03 -6.922554e-04 3.837624e-03 -4.674132e-03 -1.895875e-03 1.005678e-01 3.609359e-02 -8.025888e-02
<VARIANCE> 42
 2.474597e-02 4.330195e-02 3.246266e-02 2.586772e-02 1.781943e-02 3.030563e-02 4.028769e-02 2.702620e-01 1.588447e-01 1.835375e-01 1.368635e-01 9.848381e-02 6.123245e-04 1.183591e-03 7.208142e-04 7.178799e-04 3.727324e-04 7.982763e-04 1.162235e-03 2.532272e-03 1.720927e-03 2.649432e-03 2.348613e-03 1.864253e-03 6.120245e-05 6.828762e-05 7.552408e-05 4.589306e-05 5.154224e-05 5.656393e-05 7.620397e-05 1.901746e-04 1.935671e-04 1.882283e-04 1.388847e-04 9.569491e-05 7.068142e-04 5.894110e-04 5.777248e-04 8.659660e-02 2.937864e-02 7.267695e-02
<GCONST> -1.801121e+02
<MIXTURE> 8 2.256173e-02
<MEAN> 42
 4.019126e-02 -6.255996e-02 -1.665814e-01 -1.298811e-01 2.019550e-02 -1.039163e-01 -3.206039e-01 -5.203292e-01 -3.894144e-01 -1.191993e-01 -3.821790e-03 4.084980e-02 -3.211389e-02 -3.492706e-02 -1.382451e-02 1.322093e-02 -1.999906e-02 -2.328976e-02 -1.728320e-03 -2.885016e-02 -6.511287e-02 -8.717446e-02 -7.817954e-02 -6.053178e-02 -5.797664e-03 -8.402575e-03 -6.452801e-03 -1.408632e-03 -3.779637e-03 -7.002443e-03 1.587663e-03 2.241041e-03 -3.672504e-03 -1.377029e-02 -1.282128e-02 -1.080554e-02 1.210566e-02 2.014227e-02 6.478353e-03 1.901416e-02 -4.645350e-02 1.750107e-01
<VARIANCE> 42
 9.944952e-02 2.200672e-01 2.392666e-01 9.995492e-02 1.150981e-01 1.998364e-01 1.564523e-01 4.718606e-01 4.079556e-01 5.599713e-01 4.479617e-01 3.326082e-01 2.707290e-03 3.460163e-03 3.828398e-03 2.126866e-03 2.408238e-03 2.968105e-03 2.269394e-03 8.119647e-03 1.391344e-02 1.733017e-02 1.257092e-02 7.803886e-03 4.150757e-04 6.514980e-04 5.954348e-04 3.845021e-04 3.431408e-04 5.201563e-04 2.592651e-04 6.065756e-04 1.603232e-03 2.992562e-03 1.881870e-03 1.102165e-03 1.903127e-03 1.837824e-03 1.508447e-03 2.660039e-01 1.770275e-01 2.067559e-01
<GCONST> -1.143722e+02
<STATE> 5
<MEAN> 42
 6.340427e-03 8.026025e-03 2.776290e-03 -9.564407e-03 1.183898e-03 1.061523e-02 2.561233e-02 6.090544e-03 4.943592e-02 2.406550e-02 1.528648e-02 8.748157e-03 -1.035943e-04 -6.828120e-05 3.666000e-05 8.738728e-05 -6.647727e-05 -2.486276e-05 1.891237e-03 2.052317e-03 3.014909e-03 1.299838e-03 7.082112e-04 2.928975e-04 1.931619e-05 -9.849450e-05 -1.167600e-04 4.058489e-05 6.881595e-05 -1.021929e-04 1.545242e-04 1.552547e-04 -2.456454e-06 -1.452528e-04 -2.657169e-04 -2.134557e-04 8.387355e-04 -2.088474e-03 -9.515057e-04 1.299376e-02 2.300978e-03 -1.868698e-02
<VARIANCE> 42
 1.480492e-03 1.725780e-03 2.221615e-03 1.222606e-03 1.349175e-03 1.482249e-03 1.339236e-03 2.166207e-03 3.684943e-03 2.853209e-03 1.762254e-03 8.317727e-04 1.008978e-04 8.286904e-05 1.417719e-04 5.518273e-05 1.013179e-04 8.640794e-05 6.499329e-05 7.374013e-05 1.158904e-04 1.714029e-04 1.014162e-04 6.640673e-05 3.449654e-05 3.066585e-05 4.788627e-05 2.007368e-05 3.387826e-05 3.054229e-05 1.218106e-05 2.601508e-05 3.278603e-05 6.381998e-05 4.010386e-05 2.479080e-05 7.286571e-06 2.782089e-05 1.193301e-04 1.106759e-03 1.107303e-03 7.946294e-04
<GCONST> -2.876058e+02
<STATE> 6
<MEAN> 42
 4.383460e-02 9.201843e-02 6.101244e-02 -6.801230e-02 -8.695490e-03 8.179243e-02 3.795629e-02 1.198140e-01 2.762197e-01 2.336725e-01 1.730071e-01 1.174723e-01 5.383703e-04 7.988535e-04 2.582319e-04 -6.645333e-04 1.248167e-04 5.360791e-04 9.913744e-04 2.203665e-03 2.605935e-03 1.771371e-03 1.572917e-03 9.870041e-04 1.120414e-04 -5.198760e-04 -6.367469e-04 2.001964e-04 3.705115e-04 -5.650660e-04 -1.088392e-04 -1.722187e-05 -3.766605e-04 -4.507723e-04 -3.526718e-04 -2.440612e-04 8.871136e-03 -6.771429e-03 -1.609240e-02 1.423388e-01 4.986905e-02 -9.595310e-02
<VARIANCE> 42
 2.448207e-03 4.494687e-03 3.132530e-03 2.676891e-03 1.826942e-03 3.553417e-03 1.021802e-02 1.912527e-02 1.249564e-02 1.002441e-02 6.009782e-03 3.807730e-03 5.229067e-05 9.787161e-05 1.071361e-04 4.810841e-05 5.522252e-05 8.990930e-05 7.365228e-05 1.225598e-04 1.409326e-04 9.750913e-05 6.760495e-05 4.354722e-05 1.603634e-05 2.033334e-05 2.797693e-05 1.104943e-05 1.686007e-05 2.035055e-05 9.342290e-06 2.601508e-05 9.329575e-06 1.211414e-05 6.949336e-06 5.611322e-06 6.252208e-05 1.094687e-04 2.108701e-04 5.104921e-03 2.536359e-03 5.500830e-03
<GCONST> -2.778997e+02
<STATE> 7
<MEAN> 42
 9.524981e-03 2.246590e-02 1.375472e-02 -1.788286e-02 4.904117e-04 2.263807e-02 1.643237e-02 1.713973e-02 2.260835e-02 1.441427e-02 1.121118e-02 1.129608e-02 -2.904659e-04 -5.863417e-04 -2.977858e-04 4.392664e-04 2.789743e-06 -4.423399e-04 -9.017374e-05 -1.956479e-04 -4.296285e-04 -3.958669e-04 -3.794568e-04 -3.164024e-04 -5.928011e-05 -6.554573e-05 -6.445700e-06 6.254849e-05 -2.523420e-05 -3.759687e-05 4.471573e-05 8.543611e-05 5.427766e-05 2.758036e-05 -1.198394e-06 -1.556145e-05 7.333152e-04 -1.458837e-03 1.008113e-03 8.125354e-03 1.666433e-02 -1.120848e-02
<VARIANCE> 42
 1.526251e-03 2.969993e-03 2.706182e-03 1.696050e-03 1.282350e-03 2.419389e-03 7.031648e-03 9.036496e-03 5.232002e-03 2.640222e-03 2.410062e-03 1.669257e-03 1.034853e-04 5.753916e-05 9.708053e-05 5.680542e-05 8.719556e-05 5.085984e-05 3.027429e-05 7.374013e-05 3.071913e-05 4.065752e-05 3.541804e-05 2.573796e-05 3.991454e-05 1.962869e-05 3.549517e-05 2.114915e-05 3.336235e-05 1.736180e-05 7.705231e-06 2.601508e-05 8.579357e-06 1.211414e-05 9.594972e-06 7.846020e-06 9.767984e-06 7.278162e-05 9.347992e-05 1.127874e-03 1.839174e-03 3.677747e-03
<GCONST> -2.926989e+02
<STATE> 8
<MEAN> 42
 2.506009e-02 -2.441972e-03 -2.340673e-02 -6.525248e-03 2.366071e-02 -9.009616e-03 1.468981e-02 1.444120e-02 6.421786e-02 6.900357e-02 5.755716e-02 4.229232e-02 5.616468e-03 4.126799e-03 -1.479205e-03 -4.880800e-03 3.593938e-03 1.359774e-03 -1.849135e-03 1.573496e-03 1.037972e-02 1.712715e-02 1.509798e-02 1.209946e-02 1.598062e-03 9.202951e-04 -6.783325e-04 -1.259170e-03 1.136438e-03 1.330461e-04 -9.207953e-04 -3.313953e-04 9.982999e-04 2.991511e-03 3.346257e-03 2.860894e-03 4.468926e-03 -1.948328e-03 -9.397838e-04 4.607367e-02 -1.122715e-02 -1.994994e-02
<VARIANCE> 42
 1.672963e-02 1.846999e-01 2.151856e-01 4.702208e-02 6.983049e-02 1.955847e-01 4.940808e-02 1.190993e-01 9.756947e-02 1.935243e-01 1.963362e-01 1.696884e-01 2.447843e-04 5.835022e-04 8.530010e-04 2.005927e-04 4.043058e-04 6.597943e-04 3.197106e-04 1.092477e-03 1.114693e-03 1.665427e-03 1.520752e-03 1.140718e-03 3.493642e-05 3.923659e-05 6.199309e-05 2.149451e-05 3.870095e-05 4.276678e-05 3.020897e-05 8.445910e-05 7.967463e-05 1.037857e-04 1.095763e-04 9.128976e-05 7.036753e-04 4.188647e-04 6.378326e-04 1.198542e-01 1.623330e-01 6.002665e-02
<GCONST> -1.848190e+02
<STATE> 9
<MEAN> 42
 2.425761e-01 2.726538e-01 3.378158e-02 -2.578884e-01 1.071609e-01 1.563569e-01 -3.448128e-01 -3.767889e-01 1.012034e-01 5.939389e-01 6.837470e-01 6.359370e-01 -1.865023e-03 -9.320676e-05 1.769883e-03 9.879046e-04 -1.839745e-03 8.309835e-04 -1.622940e-02 -2.768443e-02 -2.909671e-02 -2.049961e-02 -1.256525e-02 -5.441157e-03 -1.133885e-03 -1.382620e-03 -2.500876e-04 1.257771e-03 -4.480535e-04 -8.259156e-04 1.665057e-03 2.306682e-03 2.243133e-04 -2.949893e-03 -3.400530e-03 -3.331744e-03 4.548727e-02 1.587442e-02 6.091638e-03 5.586407e-01 2.090484e-01 2.728870e-01
<VARIANCE> 42
 8.296908e-02 1.647746e-01 1.459411e-01 8.734909e-02 7.422589e-02 1.358254e-01 1.563924e-01 5.738350e-01 6.272954e-01 5.909297e-01 5.752936e-01 4.771541e-01 3.944888e-03 6.476099e-03 4.159045e-03 4.171733e-03 2.437591e-03 4.348131e-03 3.985779e-03 9.328876e-03 1.583508e-02 2.891432e-02 2.524101e-02 1.786325e-02 4.274232e-04 7.173182e-04 5.575775e-04 4.330543e-04 3.138039e-04 5.321901e-04 3.709531e-04 8.524379e-04 1.781339e-03 3.457655e-03 2.402031e-03 1.494890e-03 1.586200e-03 2.020111e-03 1.645201e-03 3.328610e-01 1.212295e-01 2.387510e-01
<GCONST> -1.083860e+02
<STATE> 10
<MEAN> 42
 9.608622e-02 2.568532e-02 -6.656284e-02 -6.198946e-02 8.716217e-02 -1.723880e-02 -2.235209e-01 -2.794937e-01 -1.691059e-01 4.143840e-03 1.011372e-01 1.710829e-01 -1.260477e-02 -8.353418e-03 4.269217e-03 1.046201e-02 -8.479677e-03 -2.006523e-03 2.797856e-02 4.023928e-02 1.812699e-02 -6.918103e-03 -1.660665e-02 -2.376691e-02 8.547828e-04 1.714180e-03 8.403874e-04 -1.284863e-03 5.759684e-05 1.294007e-03 -1.958344e-05 -1.131769e-03 3.373735e-03 5.096816e-03 4.361914e-03 3.806095e-03 1.081074e-02 1.196388e-02 1.038158e-02 1.115491e-01 2.373377e-02 2.079415e-01
<VARIANCE> 42
 3.509659e-02 4.060485e-02 4.972932e-02 2.576701e-02 3.494605e-02 3.750403e-02 2.691469e-02 1.199063e-01 1.617274e-01 9.939172e-02 6.723751e-02 6.871667e-02 3.239636e-04 5.860063e-04 9.074882e-04 2.294259e-04 4.721857e-04 6.712464e-04 5.478494e-04 2.047393e-03 3.791299e-03 1.947941e-03 1.024380e-03 7.010740e-04 5.510659e-05 6.616124e-05 7.255009e-05 4.254411e-05 4.831811e-05 5.603137e-05 5.000821e-05 9.301330e-05 2.299053e-04 3.343209e-04 2.327281e-04 1.572946e-04 4.470556e-04 1.043048e-03 1.124139e-03 4.397000e-02 3.096955e-02 5.475194e-02
<GCONST> -1.857100e+02
<STATE> 11
<MEAN> 42
 -5.522586e-02 -6.203536e-02 -3.116175e-03 5.800446e-02 -2.534452e-02 -3.084299e-02 -1.220406e-01 -2.240298e-01 -2.175878e-01 -1.576442e-01 -1.210702e-01 -9.415670e-02 7.358687e-03 5.461860e-03 -1.915277e-03 -6.423668e-03 4.694565e-03 1.787682e-03 2.362599e-02 4.267708e-02 4.639498e-02 2.921320e-02 1.953725e-02 1.191768e-02 -4.418669e-05 1.926817e-03 2.002945e-03 -9.412435e-04 -1.048706e-03 1.999079e-03 -2.639519e-03 -4.861374e-03 -3.870957e-03 5.315096e-04 1.702591e-03 2.385354e-03 -4.300363e-03 1.040089e-02 2.307438e-02 -8.058967e-02 -2.813952e-02 1.364844e-01
<VARIANCE> 42
 4.738692e-03 1.501785e-02 1.350437e-02 6.461868e-03 5.716716e-03 1.319313e-02 1.367286e-02 4.507190e-02 4.531148e-02 2.509144e-02 1.618716e-02 1.055566e-02 1.996753e-04 4.992964e-04 5.723105e-04 2.075102e-04 2.636811e-04 4.877385e-04 3.663750e-04 1.362102e-03 1.733742e-03 1.048747e-03 6.979104e-04 4.681633e-04 2.906443e-05 5.258540e-05 5.391080e-05 2.732705e-05 2.898188e-05 4.593826e-05 5.127709e-05 9.661818e-05 1.241078e-04 1.120512e-04 7.446711e-05 5.845822e-05 9.204316e-05 3.728117e-04 7.364498e-04 9.722424e-03 1.055318e-02 1.361392e-02
<GCONST> -2.200616e+02
<STATE> 12
<MEAN> 42
 -1.376645e-02 2.969926e-03 2.192410e-02 5.060555e-03 -1.672525e-02 1.444982e-02 1.542659e-02 2.478092e-02 3.989754e-02 2.321686e-02 1.431049e-02 2.326434e-04 -1.264369e-04 -1.426399e-03 -1.299676e-03 7.799985e-04 5.810285e-04 -1.388747e-03 4.206608e-03 5.910468e-03 5.262035e-03 2.021737e-03 6.446504e-04 -1.867695e-04 -1.723669e-05 -8.696981e-05 -7.099110e-05 5.377631e-05 2.331671e-05 -8.720794e-05 -8.476184e-04 -1.415947e-03 -1.429558e-03 -1.157023e-03 -8.130961e-04 -3.864631e-04 2.258352e-05 -2.488578e-03 2.862334e-03 7.031534e-03 2.025835e-03 -2.167989e-02
<VARIANCE> 42
 1.035680e-03 2.241587e-03 2.437752e-03 9.661446e-04 1.103175e-03 1.990985e-03 2.668115e-03 5.605088e-03 5.245341e-03 3.171584e-03 2.657761e-03 1.956323e-03 9.271823e-05 1.081205e-04 1.246731e-04 6.939709e-05 8.190975e-05 9.407617e-05 5.385291e-05 1.043928e-04 1.670323e-04 2.684734e-04 1.604274e-04 1.122412e-04 3.305400e-05 3.948071e-05 4.220881e-05 2.580778e-05 2.777186e-05 3.304856e-05 1.393285e-05 2.601508e-05 5.872126e-05 1.122838e-04 5.843711e-05 3.456026e-05 8.493917e-06 4.337024e-05 9.675631e-05 1.522104e-03 1.537135e-03 2.178418e-03
<GCONST> -2.780249e+02
<STATE> 13
<MEAN> 42
 2.239343e-02 2.036686e-02 5.140767e-03 -2.103516e-02 1.094026e-02 1.354653e-02 6.928350e-02 2.085841e-01 1.950666e-01 8.227247e-02 3.455039e-02 1.268892e-03 3.813045e-04 4.020029e-04 2.155793e-05 -3.908621e-04 1.828893e-04 2.154428e-04 -3.613228e-04 3.113557e-05 8.352217e-05 2.463731e-04 2.298596e-04 2.362189e-04 -7.430406e-06 1.264982e-05 1.954133e-05 -2.969060e-06 -1.210657e-05 1.504230e-05 -1.283317e-05 -8.232854e-05 -9.799177e-05 -2.989812e-05 -6.785755e-06 1.244371e-06 -1.747184e-04 -1.895247e-03 2.719514e-03 2.724450e-02 -8.041478e-03 -1.290891e-01
<VARIANCE> 42
 5.525371e-03 1.053765e-02 4.542619e-03 6.743955e-03 2.335029e-03 6.282997e-03 1.051719e-02 3.784918e-02 5.453809e-02 5.402748e-02 5.003399e-02 3.734332e-02 4.011866e-05 3.969114e-05 3.772178e-05 3.053138e-05 2.924241e-05 2.885170e-05 1.982648e-05 7.374013e-05 9.735538e-05 8.427513e-05 6.269215e-05 4.237937e-05 1.384848e-05 9.900530e-06 1.201814e-05 8.891309e-06 1.057177e-05 7.595369e-06 2.337150e-06 2.601508e-05 4.091443e-06 1.211414e-05 4.624582e-06 3.065362e-06 1.422688e-04 2.407134e-04 2.651070e-04 3.259299e-02 5.786070e-03 1.242823e-02
<GCONST> -2.739980e+02
<STATE> 14
<MEAN> 42
 6.705584e-03 4.704052e-03 -1.003355e-03 -7.472082e-03 5.568070e-03 4.069534e-03 5.893180e-03 1.675384e-02 5.887769e-03 1.124629e-02 1.233893e-02 1.533784e-02 -1.204545e-04 -1.627499e-04 -4.252684e-05 1.411882e-04 -4.094729e-05 -1.062751e-04 9.783798e-05 -1.402180e-04 -4.148947e-04 -3.074025e-04 -2.390178e-04 -1.930847e-04 4.602751e-06 4.215854e-06 -3.443449e-07 -4.011715e-06 2.002213e-06 2.000706e-06 2.522786e-06 2.551674e-05 3.501782e-05 2.752012e-05 1.820534e-05 1.375756e-05 7.686865e-04 -7.024897e-04 7.884409e-04 7.986354e-03 3.038504e-03 -5.737682e-03
<VARIANCE> 42
 8.333834e-04 1.508025e-03 1.077102e-03 8.755225e-04 5.639986e-04 9.925100e-04 2.526349e-03 3.330540e-03 3.815521e-03 1.881452e-03 1.642241e-03 1.697671e-03 5.788759e-05 3.298364e-05 5.307684e-05 3.259999e-05 4.773482e-05 2.840002e-05 1.525705e-05 7.374013e-05 1.737367e-05 4.065752e-05 1.899946e-05 1.410632e-05 2.324760e-05 1.141579e-05 2.070921e-05 1.233603e-05 1.931194e-05 1.015167e-05 3.807491e-06 2.601508e-05 4.557424e-06 1.211414e-05 5.603343e-06 4.148368e-06 6.092508e-06 2.983074e-05 4.193351e-05 1.035011e-03 9.743548e-04 1.315047e-03
<GCONST> -3.159525e+02
<STATE> 15
<MEAN> 42
 4.217662e-02 9.220469e-03 -3.008166e-02 -2.497100e-02 3.525013e-02 -7.016537e-03 5.212206e-03 7.853446e-02 6.949083e-02 4.540676e-02 4.058096e-02 3.299497e-02 -1.113180e-03 -1.663364e-03 -5.575197e-04 1.386069e-03 -2.819154e-04 -1.121399e-03 1.160036e-04 -8.870008e-04 -1.859814e-03 -1.773577e-03 -1.590123e-03 -1.376209e-03 -2.665721e-04 -4.306604e-04 -1.622557e-04 3.473933e-04 -5.968504e-05 -2.857968e-04 1.597169e-04 -5.628783e-05 -1.413130e-04 -2.743317e-04 -3.341200e-04 -4.521399e-04 6.134829e-03 -2.284864e-03 3.265114e-03 3.484604e-02 -7.707964e-03 -3.783071e-02
<VARIANCE> 42
 3.489194e-03 2.782773e-03 3.356679e-03 2.273341e-03 2.774887e-03 2.147365e-03 1.644752e-03 2.068347e-02 1.888105e-02 8.574110e-03 5.612592e-03 3.329101e-03 8.433159e-05 7.664247e-05 9.495305e-05 5.660001e-05 7.025540e-05 6.499919e-05 3.901144e-05 7.374013e-05 9.395418e-05 1.006838e-04 7.117135e-05 5.491736e-05 2.819409e-05 2.882727e-05 2.315232e-05 2.266750e-05 1.832981e-05 1.913122e-05 7.821359e-06 2.601508e-05 2.340929e-05 2.948507e-05 2.065495e-05 1.489015e-05 9.529646e-05 6.532650e-05 9.202230e-05 3.773273e-03 1.883711e-03 6.266207e-03
<GCONST> -2.771733e+02
<STATE> 16
<MEAN> 42
 1.665065e-02 1.009361e-02 -1.689055e-03 -1.499189e-02 1.078200e-02 4.938226e-03 4.412934e-02 5.079931e-02 2.040921e-02 6.083056e-03 2.336830e-03 -8.279910e-03 -2.249447e-03 -2.161412e-03 8.811237e-05 2.238427e-03 -1.200716e-03 -1.086779e-03 4.826058e-03 4.281695e-03 3.674191e-03 1.242707e-03 -1.482816e-03 -2.866209e-03 1.181314e-04 1.380857e-04 3.223692e-05 -1.394483e-04 5.935493e-05 6.820587e-05 3.230052e-04 1.358824e-03 2.038629e-03 1.480997e-03 4.788231e-04 -9.426149e-07 2.573202e-04 1.069336e-02 6.592027e-03 -6.005265e-03 4.124494e-03 -3.062735e-02
<VARIANCE> 42
 4.125529e-03 7.019281e-03 2.135283e-03 5.646853e-03 1.302816e-03 3.412392e-03 4.395135e-03 1.062822e-02 9.268271e-03 4.728395e-03 5.317736e-03 5.575460e-03 7.624413e-05 6.609067e-05 1.259080e-04 3.951443e-05 8.497438e-05 7.621513e-05 3.394682e-05 9.042065e-05 1.234909e-04 9.010434e-05 4.956871e-05 3.866958e-05 8.961334e-06 6.809474e-06 1.669613e-05 3.701123e-06 1.138395e-05 9.602819e-06 6.937099e-06 2.601508e-05 1.910730e-05 2.338317e-05 1.425939e-05 8.424033e-06 4.430147e-05 3.785200e-04 1.096647e-04 3.496275e-03 4.093079e-03 4.662124e-03
<GCONST> -2.827246e+02
<STATE> 17
<MEAN> 42
 -2.212347e-02 -4.005146e-02 -1.341309e-02 3.196521e-02 -4.398369e-03 -2.514302e-02 3.557917e-02 3.141572e-02 -4.874922e-03 3.650397e-03 -6.487524e-03 -1.565076e-02 1.296994e-03 3.933435e-03 2.602376e-03 -2.610661e-03 -6.211685e-04 3.290356e-03 5.106723e-03 1.194048e-02 1.643352e-02 1.774923e-02 1.250655e-02 8.416844e-03 1.051970e-03 2.719763e-03 1.660971e-03 -1.897900e-03 -2.822639e-04 2.205792e-03 -4.153805e-04 8.289636e-04 2.981439e-03 5.067048e-03 5.082835e-03 4.233906e-03 -1.211717e-03 -1.799563e-03 5.266474e-03 -1.583353e-02 -2.965335e-02 -2.353629e-02
<VARIANCE> 42
 2.465985e-03 2.595022e-03 3.860406e-03 1.751044e-03 2.420607e-03 2.420923e-03 3.431608e-03 6.525979e-03 8.175090e-03 6.668801e-03 4.773223e-03 4.366162e-03 1.776685e-04 2.233732e-04 3.034602e-04 1.244342e-04 1.854968e-04 2.220409e-04 1.472615e-04 4.480199e-04 6.037372e-04 8.486517e-04 5.900099e-04 4.862240e-04 5.639464e-05 6.290800e-05 8.850966e-05 3.750216e-05 5.690826e-05 6.297170e-05 3.608541e-05 8.965782e-05 1.304310e-04 1.927858e-04 1.095271e-04 8.454345e-05 2.040194e-05 8.312683e-05 1.123006e-04 3.136685e-03 2.181489e-03 2.970960e-03
<GCONST> -2.482176e+02
<STATE> 18
<MEAN> 42
 2.025957e-01 2.618584e-01 6.311612e-02 -2.315892e-01 7.186051e-02 1.655889e-01 -3.289804e-01 -3.257542e-01 -6.700896e-02 3.637796e-01 4.611579e-01 4.130658e-01 -1.155367e-03 9.256637e-04 2.093880e-03 1.082844e-04 -1.640220e-03 1.522941e-03 -5.425568e-03 -1.088979e-02 -1.177836e-02 -8.857960e-03 -5.536770e-03 -3.147669e-03 -3.560790e-04 -5.940676e-04 -2.427683e-04 4.736598e-04 -5.157362e-05 -4.244031e-04 7.992917e-04 1.114932e-03 5.113397e-04 -6.400277e-04 -9.593243e-04 -9.260852e-04 3.176660e-02 1.626567e-02 1.060138e-02 3.758863e-01 2.115510e-01 2.710275e-01
<VARIANCE> 42
 9.773499e-02 1.365480e-01 1.532340e-01 7.917415e-02 9.210316e-02 1.221598e-01 1.217657e-01 3.702080e-01 3.862946e-01 5.198504e-01 4.861095e-01 3.857257e-01 4.011797e-03 6.413437e-03 5.310862e-03 3.888013e-03 3.067040e-03 4.867808e-03 4.057925e-03 1.115866e-02 1.851821e-02 2.995424e-02 2.378986e-02 1.610423e-02 4.535670e-04 7.755395e-04 7.488034e-04 4.275934e-04 4.084177e-04 6.481229e-04 2.969298e-04 1.102356e-03 2.501645e-03 3.835896e-03 2.417302e-03 1.517075e-03 1.454094e-03 1.523905e-03 8.994176e-04 2.943864e-01 1.073130e-01 1.461227e-01
<GCONST> -1.096120e+02
<STATE> 19
<MEAN> 42
 9.623931e-03 3.028466e-02 2.995132e-02 -1.910388e-02 -9.908207e-03 3.387270e-02 2.507475e-02 6.114532e-02 1.090536e-01 8.507135e-02 5.918552e-02 3.026311e-02 3.636446e-04 1.528454e-04 -2.134925e-04 -2.587544e-04 2.906006e-04 -2.914909e-05 1.819704e-04 5.799219e-04 1.581656e-03 1.353193e-03 1.054229e-03 6.407571e-04 1.214466e-06 3.561371e-05 3.676386e-05 -1.922793e-05 -1.893971e-05 3.720434e-05 -1.359032e-04 -2.199207e-04 -2.442143e-04 -1.518267e-04 -7.136082e-05 -3.248618e-05 1.841655e-03 -2.136050e-03 3.456396e-04 4.533333e-02 1.539330e-02 -4.705943e-02
<VARIANCE> 42
 2.242713e-03 5.270888e-03 3.298676e-03 2.888932e-03 1.348844e-03 3.780745e-03 6.854421e-03 1.162365e-02 2.696325e-02 2.292418e-02 1.376852e-02 6.737279e-03 7.981799e-05 6.630865e-05 7.556650e-05 5.430783e-05 6.136814e-05 5.138605e-05 3.042895e-05 7.374013e-05 1.050186e-04 1.006941e-04 6.363046e-05 3.774179e-05 3.173327e-05 2.310593e-05 2.664002e-05 2.081679e-05 2.345079e-05 1.705365e-05 6.692858e-06 2.601508e-05 1.819321e-05 2.276796e-05 1.667075e-05 1.096638e-05 3.586560e-05 1.005942e-04 1.862616e-04 1.036502e-02 2.532036e-03 5.385449e-03
<GCONST> -2.743694e+02
<TRANSP> 20
 0.000000e+00 1.000000e+00 0.000000e+00 0.000000e+00 0.000000e+00 0.000000e+00 0.000000e+00 0.000000e+00 0.000000e+00 0.000000e+00 0.000000e+00 0.000000e+00 0.000000e+00 0.000000e+00 0.000000e+00 0.000000e+00 0.000000e+00 0.000000e+00 0.000000e+00 0.000000e+00
 0.000000e+00 9.958135e-01 4.186481e-03 0.000000e+00 0.000000e+00 0.000000e+00 0.000000e+00 0.000000e+00 0.000000e+00 0.000000e+00 0.000000e+00 0.000000e+00 0.000000e+00 0.000000e+00 0.000000e+00 0.000000e+00 0.000000e+00 0.000000e+00 0.000000e+00 0.000000e+00
 0.000000e+00 0.000000e+00 9.984603e-01 1.539694e-03 0.000000e+00 0.000000e+00 0.000000e+00 0.000000e+00 0.000000e+00 0.000000e+00 0.000000e+00 0.000000e+00 0.000000e+00 0.000000e+00 0.000000e+00 0.000000e+00 0.000000e+00 0.000000e+00 0.000000e+00 0.000000e+00
 0.000000e+00 0.000000e+00 0.000000e+00 9.996865e-01 3.134938e-04 0.000000e+00 0.000000e+00 0.000000e+00 0.000000e+00 0.000000e+00 0.000000e+00 0.000000e+00 0.000000e+00 0.000000e+00 0.000000e+00 0.000000e+00 0.000000e+00 0.000000e+00 0.000000e+00 0.000000e+00
 0.000000e+00 0.000000e+00 0.000000e+00 0.000000e+00 9.299380e-01 7.006206e-02 0.000000e+00 0.000000e+00 0.000000e+00 0.000000e+00 0.000000e+00 0.000000e+00 0.000000e+00 0.000000e+00 0.000000e+00 0.000000e+00 0.000000e+00 0.000000e+00 0.000000e+00 0.000000e+00
 0.000000e+00 0.000000e+00 0.000000e+00 0.000000e+00 0.000000e+00 8.583631e-01 1.416369e-01 0.000000e+00 0.000000e+00 0.000000e+00 0.000000e+00 0.000000e+00 0.000000e+00 0.000000e+00 0.000000e+00 0.000000e+00 0.000000e+00 0.000000e+00 0.000000e+00 0.000000e+00
 0.000000e+00 0.000000e+00 0.000000e+00 0.000000e+00 0.000000e+00 0.000000e+00 9.869150e-01 1.308496e-02 0.000000e+00 0.000000e+00 0.000000e+00 0.000000e+00 0.000000e+00 0.000000e+00 0.000000e+00 0.000000e+00 0.000000e+00 0.000000e+00 0.000000e+00 0.000000e+00
 0.000000e+00 0.000000e+00 0.000000e+00 0.000000e+00 0.000000e+00 0.000000e+00 0.000000e+00 9.131848e-01 8.681516e-02 0.000000e+00 0.000000e+00 0.000000e+00 0.000000e+00 0.000000e+00 0.000000e+00 0.000000e+00 0.000000e+00 0.000000e+00 0.000000e+00 0.000000e+00
 0.000000e+00 0.000000e+00 0.000000e+00 0.000000e+00 0.000000e+00 0.000000e+00 0.000000e+00 0.000000e+00 9.368048e-01 6.319525e-02 0.000000e+00 0.000000e+00 0.000000e+00 0.000000e+00 0.000000e+00 0.000000e+00 0.000000e+00 0.000000e+00 0.000000e+00 0.000000e+00
 0.000000e+00 0.000000e+00 0.000000e+00 0.000000e+00 0.000000e+00 0.000000e+00 0.000000e+00 0.000000e+00 0.000000e+00 7.295861e-01 2.704139e-01 0.000000e+00 0.000000e+00 0.000000e+00 0.000000e+00 0.000000e+00 0.000000e+00 0.000000e+00 0.000000e+00 0.000000e+00
 0.000000e+00 0.000000e+00 0.000000e+00 0.000000e+00 0.000000e+00 0.000000e+00 0.000000e+00 0.000000e+00 0.000000e+00 0.000000e+00 7.727371e-01 2.272629e-01 0.000000e+00 0.000000e+00 0.000000e+00 0.000000e+00 0.000000e+00 0.000000e+00 0.000000e+00 0.000000e+00
 0.000000e+00 0.000000e+00 0.000000e+00 0.000000e+00 0.000000e+00 0.000000e+00 0.000000e+00 0.000000e+00 0.000000e+00 0.000000e+00 0.000000e+00 9.190941e-01 8.090584e-02 0.000000e+00 0.000000e+00 0.000000e+00 0.000000e+00 0.000000e+00 0.000000e+00 0.000000e+00
 0.000000e+00 0.000000e+00 0.000000e+00 0.000000e+00 0.000000e+00 0.000000e+00 0.000000e+00 0.000000e+00 0.000000e+00 0.000000e+00 0.000000e+00 0.000000e+00 9.836803e-01 1.631966e-02 0.000000e+00 0.000000e+00 0.000000e+00 0.000000e+00 0.000000e+00 0.000000e+00
 0.000000e+00 0.000000e+00 0.000000e+00 0.000000e+00 0.000000e+00 0.000000e+00 0.000000e+00 0.000000e+00 0.000000e+00 0.000000e+00 0.000000e+00 0.000000e+00 0.000000e+00 9.930242e-01 6.975797e-03 0.000000e+00 0.000000e+00 0.000000e+00 0.000000e+00 0.000000e+00
 0.000000e+00 0.000000e+00 0.000000e+00 0.000000e+00 0.000000e+00 0.000000e+00 0.000000e+00 0.000000e+00 0.000000e+00 0.000000e+00 0.000000e+00 0.000000e+00 0.000000e+00 0.000000e+00 8.611092e-01 1.388908e-01 0.000000e+00 0.000000e+00 0.000000e+00 0.000000e+00
 0.000000e+00 0.000000e+00 0.000000e+00 0.000000e+00 0.000000e+00 0.000000e+00 0.000000e+00 0.000000e+00 0.000000e+00 0.000000e+00 0.000000e+00 0.000000e+00 0.000000e+00 0.000000e+00 0.000000e+00 2.049784e-01 7.950216e-01 0.000000e+00 0.000000e+00 0.000000e+00
 0.000000e+00 0.000000e+00 0.000000e+00 0.000000e+00 0.000000e+00 0.000000e+00 0.000000e+00 0.000000e+00 0.000000e+00 0.000000e+00 0.000000e+00 0.000000e+00 0.000000e+00 0.000000e+00 0.000000e+00 0.000000e+00 7.375062e-01 2.624938e-01 0.000000e+00 0.000000e+00
 0.000000e+00 0.000000e+00 0.000000e+00 0.000000e+00 0.000000e+00 0.000000e+00 0.000000e+00 0.000000e+00 0.000000e+00 0.000000e+00 0.000000e+00 0.000000e+00 0.000000e+00 0.000000e+00 0.000000e+00 0.000000e+00 0.000000e+00 9.032179e-01 9.678217e-02 0.000000e+00
 0.000000e+00 0.000000e+00 0.000000e+00 0.000000e+00 0.000000e+00 0.000000e+00 0.000000e+00 0.000000e+00 0.000000e+00 0.000000e+00 0.000000e+00 0.000000e+00 0.000000e+00 0.000000e+00 0.000000e+00 0.000000e+00 0.000000e+00 0.000000e+00 9.795978e-01 2.040222e-02
 0.000000e+00 0.000000e+00 0.000000e+00 0.000000e+00 0.000000e+00 0.000000e+00 0.000000e+00 0.000000e+00 0.000000e+00 0.000000e+00 0.000000e+00 0.000000e+00 0.000000e+00 0.000000e+00 0.000000e+00 0.000000e+00 0.000000e+00 0.000000e+00 0.000000e+00 0.000000e+00
<ENDHMM>
