~o
<STREAMINFO> 1 42
<VECSIZE> 42<NULLD><USER><DIAGC>
~h "PACIENTE"
<BEGINHMM>
<NUMSTATES> 35
<STATE> 2
<NUMMIXES> 2
<MIXTURE> 1 4.823791e-01
<MEAN> 42
 1.246819e-02 2.836430e-02 3.180158e-03 -1.956130e-02 2.494779e-03 2.292898e-02 3.759285e-03 1.797344e-02 3.452146e-02 2.978619e-02 3.939402e-02 2.726029e-02 8.422777e-05 1.174412e-03 1.091449e-03 -6.304308e-04 -5.007312e-04 1.142581e-03 3.807814e-04 1.357720e-03 1.742976e-03 1.539279e-03 1.289877e-03 8.160999e-04 -1.214366e-04 5.375191e-04 6.566144e-04 -2.077222e-04 -3.904312e-04 5.990792e-04 3.474156e-04 7.411598e-04 9.650029e-04 8.254243e-04 6.350716e-04 4.002774e-04 4.694066e-04 6.011669e-04 9.036127e-04 2.548069e-02 2.081071e-02 -8.523278e-03
<VARIANCE> 42
 2.788688e-03 3.409213e-03 1.371724e-03 2.647903e-03 1.112784e-03 1.833980e-03 2.365264e-03 1.149563e-02 1.326169e-02 7.587529e-03 6.087228e-03 4.393998e-03 2.549523e-05 2.741845e-05 3.857341e-05 1.681352e-05 2.543148e-05 2.697893e-05 2.944295e-05 8.784615e-05 7.469977e-05 5.212317e-05 6.180083e-05 4.623855e-05 8.688660e-06 7.972181e-06 1.282571e-05 5.128822e-06 8.864830e-06 8.318373e-06 6.300912e-06 3.215350e-05 2.228236e-05 1.589577e-05 1.520493e-05 1.036971e-05 6.134177e-05 1.613570e-04 1.751498e-04 4.094646e-03 1.727471e-03 3.933199e-03
<GCONST> -2.936920e+02
<MIXTURE> 2 5.176194e-01
<MEAN> 42
 -1.192625e-02 -1.645659e-02 -2.112841e-02 1.460321e-02 2.030206e-03 -1.035421e-02 1.526751e-02 1.208679e-02 -2.617532e-02 -4.282641e-02 -2.901547e-02 -2.478899e-02 -2.417642e-04 -1.277595e-03 -1.037429e-03 7.603663e-04 3.932323e-04 -1.166344e-03 -3.525356e-04 -1.403025e-03 -1.910608e-03 -1.645524e-03 -1.458898e-03 -1.016832e-03 1.120926e-04 -4.907302e-04 -6.005589e-04 1.887209e-04 3.570653e-04 -5.473805e-04 -3.126948e-04 -6.742368e-04 -9.017519e-04 -7.695471e-04 -5.948539e-04 -3.766072e-04 3.974356e-03 1.310893e-03 2.208847e-03 -3.004640e-02 -9.911895e-03 -4.319982e-03
<VARIANCE> 42
 1.053673e-03 2.385823e-03 2.138080e-03 1.263770e-03 8.269707e-04 1.876291e-03 2.552245e-03 7.198786e-03 7.966056e-03 9.036242e-03 6.980538e-03 3.547515e-03 2.499201e-05 2.198275e-05 2.582692e-05 1.703655e-05 2.032179e-05 1.780253e-05 1.937221e-05 1.057973e-04 1.054552e-04 6.322206e-05 3.692268e-05 2.468274e-05 8.313267e-06 7.011915e-06 1.050799e-05 5.031154e-06 7.806915e-06 6.758243e-06 6.833951e-06 2.601508e-05 2.851587e-05 1.978624e-05 1.595897e-05 1.142989e-05 1.655580e-04 9.898245e-05 1.363445e-04 4.466102e-03 1.387545e-03 2.212160e-03
<GCONST> -2.992018e+02
<STATE> 3
<NUMMIXES> 2
<MIXTURE> 1 4.874821e-01
<MEAN> 42
 2.367208e-02 1.693789e-02 -3.343878e-03 -2.295480e-02 1.478632e-02 5.047428e-03 5.169784e-03 5.713635e-03 3.645336e-02 4.569954e-02 4.440757e-02 2.571997e-02 -1.922031e-04 2.307996e-03 2.498800e-03 -1.058292e-03 -1.350864e-03 2.412202e-03 1.937432e-03 3.004474e-03 3.236137e-03 3.279607e-03 2.832713e-03 2.348654e-03 -7.325006e-04 9.710573e-04 1.702439e-03 -1.193589e-04 -1.218727e-03 1.332657e-03 9.850271e-04 1.045434e-03 1.045840e-03 1.003644e-03 8.914131e-04 7.676383e-04 4.676153e-03 1.904808e-03 2.294547e-03 3.281846e-02 8.022292e-03 -7.333127e-03
<VARIANCE> 42
 4.136214e-03 3.077639e-03 3.990654e-03 2.625430e-03 3.315422e-03 2.549255e-03 2.988776e-03 4.248856e-03 7.011103e-03 1.352453e-02 1.060169e-02 6.284889e-03 1.622620e-04 6.224789e-05 1.628432e-04 7.158780e-05 1.475866e-04 7.196015e-05 6.200653e-05 1.059169e-04 1.218273e-04 1.193537e-04 9.009132e-05 8.330280e-05 4.723854e-05 1.815890e-05 4.346497e-05 2.185237e-05 4.089569e-05 1.901276e-05 1.283472e-05 2.601508e-05 1.246798e-05 1.211414e-05 1.050872e-05 1.021629e-05 1.640471e-04 2.301966e-04 1.668412e-04 6.233555e-03 1.934301e-03 1.289623e-03
<GCONST> -2.718001e+02
<MIXTURE> 2 5.125169e-01
<MEAN> 42
 -5.294088e-03 -1.602025e-02 -6.311554e-03 7.699087e-03 1.835492e-03 -1.309953e-02 5.067455e-03 -1.040029e-02 -1.526785e-03 -1.106333e-02 -3.877368e-03 -1.452370e-02 1.554482e-04 -2.224079e-03 -2.378436e-03 1.034908e-03 1.271319e-03 -2.311942e-03 -1.721380e-03 -2.811778e-03 -3.196537e-03 -3.118356e-03 -2.731345e-03 -2.278273e-03 6.875530e-04 -9.380658e-04 -1.624123e-03 1.257944e-04 1.157386e-03 -1.278529e-03 -9.251647e-04 -9.923575e-04 -1.014530e-03 -9.901532e-04 -8.808443e-04 -7.542261e-04 -8.151977e-04 8.866051e-05 1.349242e-03 -7.253853e-03 -1.297263e-02 -3.961045e-04
<VARIANCE> 42
 4.729766e-03 2.994974e-03 4.601801e-03 2.716436e-03 3.931692e-03 2.617177e-03 4.062404e-03 5.542716e-03 7.476825e-03 1.239997e-02 8.066193e-03 6.157458e-03 2.404010e-04 6.588903e-05 2.135899e-04 9.971957e-05 2.112523e-04 7.960727e-05 8.665682e-05 1.558620e-04 2.169272e-04 2.551092e-04 1.996323e-04 1.489287e-04 4.151622e-05 1.968113e-05 3.798233e-05 2.111778e-05 3.488062e-05 1.852841e-05 1.182435e-05 2.601508e-05 2.429752e-05 2.584067e-05 1.933506e-05 1.578208e-05 1.727045e-04 2.199266e-04 2.534672e-04 5.775172e-03 1.971940e-03 2.171217e-03
<GCONST> -2.632443e+02
<STATE> 4
<NUMMIXES> 2
<MIXTURE> 1 5.140437e-01
<MEAN> 42
 5.998949e-03 1.516698e-02 5.592663e-03 -9.285526e-03 -8.776970e-05 9.443440e-03 2.056973e-03 -1.484125e-02 1.636420e-02 4.907698e-02 8.807413e-03 8.671807e-03 2.470110e-04 1.229302e-03 9.845584e-04 -7.403140e-04 -3.653583e-04 1.110871e-03 1.172417e-03 3.071195e-03 2.662010e-03 2.449199e-03 1.412225e-03 9.763323e-04 -1.192279e-04 3.708521e-04 4.895268e-04 -1.260169e-04 -3.024352e-04 4.272044e-04 3.119925e-04 3.147403e-04 6.403691e-04 7.986237e-04 6.863513e-04 4.865134e-04 -1.217797e-05 2.930069e-03 1.899811e-03 1.864914e-02 1.045361e-02 1.122933e-04
<VARIANCE> 42
 5.710768e-03 2.528731e-03 5.595271e-03 2.691387e-03 5.053327e-03 2.604541e-03 1.364851e-02 6.834584e-02 2.675841e-02 4.525363e-02 9.404662e-03 3.361341e-03 9.028596e-05 3.952548e-05 1.151348e-04 3.615875e-05 9.287016e-05 5.447157e-05 1.598764e-04 4.595201e-04 2.184578e-04 1.610031e-04 1.144423e-04 6.068501e-05 2.454275e-05 8.009788e-06 3.031368e-05 8.721214e-06 2.544427e-05 1.295919e-05 7.734455e-06 2.601508e-05 1.225064e-05 2.197973e-05 1.550375e-05 8.106567e-06 1.980751e-04 1.712847e-04 1.804262e-04 7.172798e-03 1.725224e-03 1.567864e-02
<GCONST> -2.652471e+02
<MIXTURE> 2 4.859554e-01
<MEAN> 42
 -3.339842e-03 -1.466939e-02 -1.495106e-02 9.989947e-03 5.107461e-03 -1.516992e-02 -4.091389e-03 -1.440842e-02 -4.251010e-02 -4.112227e-02 -4.232235e-02 -2.229072e-02 -3.147337e-04 -1.311354e-03 -9.981559e-04 8.153510e-04 3.391223e-04 -1.160581e-03 -1.388632e-03 -2.659522e-03 -2.797153e-03 -2.089745e-03 -1.563749e-03 -1.047497e-03 1.161452e-04 -4.205306e-04 -5.358459e-04 1.521109e-04 3.244270e-04 -4.737581e-04 -3.095811e-04 -3.110305e-04 -6.452856e-04 -8.199210e-04 -7.187985e-04 -5.269130e-04 3.368228e-04 1.169693e-03 3.714204e-03 -2.772932e-02 -9.607431e-03 1.214694e-02
<VARIANCE> 42
 8.000438e-03 2.423469e-03 1.007600e-02 2.655724e-03 8.461733e-03 4.209025e-03 2.583676e-02 1.120566e-01 3.920170e-02 3.782565e-02 2.237285e-02 7.995903e-03 3.056746e-04 7.317369e-05 3.851634e-04 9.315819e-05 3.271090e-04 1.521754e-04 1.902619e-04 6.977271e-04 3.177696e-04 3.441166e-04 2.624995e-04 1.254070e-04 1.991799e-05 9.272208e-06 2.952210e-05 7.240098e-06 2.238818e-05 1.442524e-05 1.322808e-05 4.383057e-05 2.624504e-05 1.753687e-05 1.337093e-05 8.590189e-06 3.889187e-04 2.467761e-04 2.676015e-04 1.527627e-02 2.058567e-03 3.012383e-02
<GCONST> -2.465276e+02
<STATE> 5
<MEAN> 42
 -2.017269e-02 -4.500909e-02 -2.123070e-02 3.276587e-02 1.136952e-03 -3.223307e-02 1.210168e-02 2.944149e-02 -7.874573e-03 -1.945269e-02 -4.197783e-02 -3.855122e-02 -2.628508e-03 -7.173960e-03 -4.599296e-03 4.912977e-03 9.664136e-04 -5.864406e-03 8.387133e-03 1.282630e-02 7.432447e-03 2.226984e-03 -1.889297e-03 -3.287671e-03 -5.972289e-04 8.700469e-05 6.657171e-04 2.511572e-04 -6.385332e-04 4.081136e-04 1.422488e-03 3.089731e-03 3.864890e-03 2.922436e-03 1.382936e-03 5.427032e-04 -9.194347e-04 -1.513151e-03 1.693886e-03 -2.992268e-02 -3.752232e-02 -2.024230e-02
<VARIANCE> 42
 1.340152e-03 1.363357e-03 2.119177e-03 7.786163e-04 1.564433e-03 1.443780e-03 6.751931e-03 5.851512e-03 1.032558e-02 3.023684e-02 3.071584e-03 2.083348e-03 1.291832e-04 1.439118e-04 2.360556e-04 7.789945e-05 1.469966e-04 1.558035e-04 1.315126e-04 3.442547e-04 6.210562e-04 6.542053e-04 3.279029e-04 2.258159e-04 2.915838e-05 3.119120e-05 4.812619e-05 1.845015e-05 3.107769e-05 3.200225e-05 2.259143e-05 6.935772e-05 9.466205e-05 1.397051e-04 5.825766e-05 3.525126e-05 4.341484e-05 6.346094e-05 1.959036e-04 3.548348e-03 1.151515e-03 2.382865e-03
<GCONST> -2.612600e+02
<STATE> 6
<MEAN> 42
 1.406529e-02 -8.438290e-04 -1.308253e-02 -7.774802e-03 2.415419e-02 -5.767005e-03 -2.199426e-02 -4.317111e-02 -5.211350e-02 -1.680246e-02 3.636793e-03 1.249865e-02 4.499712e-05 7.681906e-05 3.194348e-05 -6.118928e-05 6.402240e-06 5.541299e-05 -3.814299e-05 -1.081296e-05 6.721255e-05 1.608017e-04 8.819939e-05 3.615380e-05 2.297682e-05 3.857498e-05 1.546564e-05 -3.095245e-05 3.924404e-06 2.696798e-05 1.648845e-06 1.968927e-05 4.581257e-05 5.944855e-05 4.585198e-05 3.343252e-05 1.790556e-03 -1.348256e-04 -3.759221e-04 2.235048e-03 2.268033e-03 3.407151e-02
<VARIANCE> 42
 3.603208e-02 6.212196e-02 1.201899e-01 1.905014e-02 6.292523e-02 8.218390e-02 5.159610e-02 1.318489e-01 1.334168e-01 6.229712e-02 4.350763e-02 4.570113e-02 2.676831e-04 2.044534e-04 3.940033e-04 1.375728e-04 2.814077e-04 2.319096e-04 2.788851e-04 6.434624e-04 6.356764e-04 2.696284e-04 2.093034e-04 2.352008e-04 3.180234e-05 2.201192e-05 3.840918e-05 1.730982e-05 2.987282e-05 2.227172e-05 1.536396e-05 2.601508e-05 2.350534e-05 1.758381e-05 1.838001e-05 1.715958e-05 2.713152e-04 3.206056e-04 3.279129e-04 2.455449e-02 5.747618e-02 7.381109e-02
<GCONST> -2.161081e+02
<STATE> 7
<MEAN> 42
 4.496177e-03 -1.716819e-03 -4.300795e-03 -1.856008e-03 1.404098e-02 -1.569520e-03 -2.834044e-03 -8.417405e-04 -1.117889e-02 1.316968e-03 7.372694e-03 4.678737e-03 -1.913098e-04 -6.693893e-05 1.243229e-04 1.282905e-04 -1.574242e-04 2.599333e-05 6.401481e-04 1.102574e-03 1.298870e-03 7.791519e-04 4.603980e-04 1.481549e-04 3.229408e-05 3.496694e-05 2.328161e-06 -3.382959e-05 1.540329e-05 1.790937e-05 1.112239e-05 5.802553e-05 1.068778e-04 1.325604e-04 1.207664e-04 9.542418e-05 6.059780e-04 -9.611133e-05 6.039580e-04 2.878496e-03 -1.006157e-03 4.411469e-03
<VARIANCE> 42
 1.065140e-02 6.516502e-03 5.869621e-03 7.048492e-03 6.571597e-03 3.542768e-03 2.650900e-02 9.718984e-02 7.967029e-02 1.112708e-02 3.478236e-03 1.440135e-02 2.494224e-04 1.150958e-04 1.719514e-04 1.393182e-04 1.823812e-04 8.168560e-05 2.442632e-04 4.930053e-04 4.111961e-04 9.467326e-05 8.352719e-05 1.619438e-04 3.658006e-05 1.986876e-05 3.704400e-05 1.896562e-05 3.189417e-05 1.948354e-05 1.486636e-05 2.601508e-05 1.520525e-05 1.379662e-05 1.474080e-05 1.418164e-05 9.371763e-05 1.257601e-04 1.022801e-04 2.998167e-03 6.574190e-03 5.034306e-02
<GCONST> -2.509160e+02
<STATE> 8
<MEAN> 42
 6.570591e-02 7.960550e-02 2.667972e-02 -7.205526e-02 1.952675e-02 5.392719e-02 -3.535797e-02 6.519848e-03 5.762049e-02 1.729126e-02 1.913637e-01 1.823600e-01 4.492794e-03 5.348076e-03 8.484487e-04 -4.919606e-03 1.834961e-03 3.118146e-03 -5.225914e-03 -3.465087e-03 1.961475e-03 6.863030e-03 1.047617e-02 8.713355e-03 -9.863990e-05 -3.330773e-04 -2.330452e-04 2.191253e-04 6.757474e-05 -2.805726e-04 -3.561825e-04 -7.195158e-04 -9.777163e-04 -6.115824e-04 -4.131856e-04 -2.891296e-04 3.605248e-03 1.392276e-03 -3.245879e-04 1.071909e-01 6.366657e-02 3.059679e-02
<VARIANCE> 42
 3.256885e-02 1.898838e-01 1.952601e-01 6.276848e-02 6.676313e-02 1.846771e-01 5.345577e-02 8.648186e-02 1.547214e-01 1.083948e+00 4.141221e-01 3.273057e-01 6.860849e-04 1.057890e-03 1.136619e-03 5.885912e-04 6.463183e-04 9.271389e-04 6.258065e-04 1.022399e-03 1.469436e-03 5.728961e-03 3.300302e-03 2.539778e-03 8.125454e-05 6.579881e-05 9.190782e-05 5.072194e-05 6.977042e-05 5.847767e-05 4.283250e-05 8.574705e-05 1.040977e-04 4.973578e-04 1.808813e-04 1.389830e-04 1.841019e-03 4.748769e-04 1.150471e-03 2.664521e-01 1.528229e-01 4.655905e-02
<GCONST> -1.644017e+02
<STATE> 9
<MEAN> 42
 1.410097e-01 1.155034e-01 -2.168051e-02 -1.292673e-01 8.543715e-02 4.835899e-02 -2.580481e-01 -3.988883e-01 -7.703867e-02 2.604017e-01 2.084922e-01 2.750900e-01 -6.358128e-03 -5.737222e-03 6.414709e-04 6.060046e-03 -3.515599e-03 -2.550460e-03 -3.251415e-03 -1.485825e-02 -2.442019e-02 -2.593053e-02 -2.135881e-02 -1.391289e-02 5.473681e-06 -2.393271e-04 -2.491278e-04 1.175691e-04 1.244047e-04 -2.408742e-04 1.079561e-03 1.987635e-03 1.717960e-03 2.204723e-04 2.315431e-04 -1.183530e-04 2.782500e-02 1.565573e-02 1.968421e-02 2.486957e-01 8.750232e-02 2.413547e-01
<VARIANCE> 42
 6.732310e-02 8.121729e-02 8.241972e-02 5.348236e-02 5.538955e-02 6.600785e-02 1.209354e-01 5.519662e-01 5.222645e-01 4.229955e-01 4.386286e-01 2.105070e-01 3.002064e-03 3.933303e-03 3.024599e-03 2.711301e-03 2.039449e-03 2.734345e-03 3.472340e-03 1.081894e-02 1.383198e-02 2.093907e-02 1.780405e-02 1.061153e-02 3.495492e-04 4.958525e-04 4.601699e-04 3.073554e-04 2.820509e-04 3.913192e-04 3.290307e-04 9.704175e-04 1.471396e-03 2.603602e-03 1.939231e-03 1.032527e-03 1.655296e-03 1.877648e-03 2.074569e-03 2.047042e-01 5.702643e-02 2.017745e-01
<GCONST> -1.205385e+02
<STATE> 10
<MEAN> 42
 2.833302e-02 1.914620e-02 -1.535309e-02 -1.861820e-02 2.694438e-02 -7.924631e-03 -9.270523e-03 1.920263e-02 1.159774e-02 1.835943e-02 5.310411e-02 2.871037e-02 -1.801494e-04 -4.519464e-05 1.344755e-04 1.127831e-04 -1.592110e-04 4.248705e-05 4.294794e-05 -5.916423e-04 1.392663e-04 3.243750e-05 2.038805e-04 7.524469e-05 2.454365e-05 2.538430e-05 1.314504e-06 -2.532697e-05 1.152244e-05 1.205783e-05 4.360339e-05 8.511412e-05 1.269623e-04 9.714370e-05 1.873157e-05 2.353103e-05 8.064972e-04 3.599891e-03 -2.344725e-03 2.831963e-02 1.157993e-02 7.583126e-04
<VARIANCE> 42
 1.300645e-02 4.776461e-03 9.597196e-03 6.454492e-03 1.014598e-02 3.967867e-03 4.373849e-02 6.833578e-01 9.095171e-02 3.041797e-02 5.379154e-02 4.065378e-02 4.441348e-04 1.599156e-04 2.888863e-04 2.298066e-04 3.282756e-04 1.134674e-04 4.490257e-04 2.221918e-03 7.062122e-04 1.002431e-03 1.445169e-03 1.175398e-03 4.703495e-05 2.810182e-05 4.142048e-05 2.722366e-05 3.723852e-05 2.312345e-05 2.492220e-05 1.520328e-04 5.836887e-05 1.111372e-04 1.207985e-04 8.536035e-05 4.392258e-04 2.249066e-04 1.768659e-04 3.368072e-02 5.480728e-03 1.201674e-01
<GCONST> -2.132304e+02
<STATE> 11
<MEAN> 42
 -5.638302e-02 -2.994949e-02 2.881964e-02 4.403048e-02 -4.196716e-02 -2.019852e-04 -9.003997e-02 -1.963236e-01 -2.163129e-01 -1.949505e-01 -1.123854e-01 -8.443603e-02 5.747553e-03 2.002520e-03 -3.738599e-03 -3.890588e-03 4.748648e-03 -9.019066e-04 2.441888e-02 4.895787e-02 5.077305e-02 3.321918e-02 2.159292e-02 9.715198e-03 1.198743e-04 1.270949e-03 1.152085e-03 -7.024716e-04 -5.164640e-04 1.204566e-03 -2.657268e-03 -5.193074e-03 -4.696198e-03 -1.172327e-03 -1.325634e-04 9.974551e-04 -3.396830e-03 6.070367e-03 1.036467e-02 -9.314585e-02 3.389064e-03 1.273784e-01
<VARIANCE> 42
 5.594113e-03 9.402017e-03 9.004053e-03 5.220818e-03 5.108275e-03 7.810570e-03 7.410958e-03 3.228097e-02 3.473296e-02 5.482958e-02 1.964189e-02 1.846428e-02 2.994688e-04 4.627890e-04 3.865861e-04 2.856860e-04 2.290816e-04 3.534684e-04 2.631516e-04 8.064833e-04 1.086373e-03 8.483666e-04 5.722127e-04 5.978796e-04 3.734671e-05 6.750036e-05 5.958806e-05 3.781381e-05 3.174573e-05 5.390430e-05 4.274610e-05 8.370397e-05 1.532583e-04 1.858697e-04 9.001023e-05 6.008910e-05 1.704191e-04 4.509722e-04 6.893949e-04 1.098641e-02 6.553364e-03 9.800254e-03
<GCONST> -2.211490e+02
<STATE> 12
<MEAN> 42
 3.968076e-02 2.637721e-02 -9.279530e-03 -3.792589e-02 2.399642e-02 1.004123e-02 -1.088494e-02 3.558738e-02 5.983985e-02 5.300840e-02 5.503624e-02 5.408440e-02 -1.162779e-05 -4.141554e-05 -2.957599e-05 2.607962e-05 1.052878e-05 -3.674618e-05 1.206758e-04 1.474007e-04 8.926727e-05 1.403459e-05 -3.448897e-05 -2.468884e-05 -5.100497e-06 -1.342650e-05 -8.153637e-06 8.953908e-06 1.759108e-06 -1.084883e-05 -4.305491e-05 -5.915388e-05 -5.595974e-05 -4.887934e-05 -4.167323e-05 -2.692286e-05 3.666223e-03 8.178783e-04 6.866241e-03 4.835659e-02 1.043574e-02 -1.416799e-02
<VARIANCE> 42
 1.071662e-02 1.168244e-02 2.019446e-03 1.070528e-02 3.448729e-03 4.183151e-03 1.594832e-02 3.541446e-02 1.175486e-01 5.867308e-02 3.605862e-02 2.904645e-02 3.650032e-04 3.693331e-04 4.411383e-05 3.561513e-04 1.124187e-04 1.158852e-04 3.109621e-04 7.191443e-04 4.063608e-03 2.204165e-03 1.249643e-03 8.962280e-04 3.827261e-05 3.337422e-05 1.221295e-05 3.276884e-05 1.691209e-05 1.337266e-05 3.242868e-05 5.391465e-05 3.345569e-04 1.703989e-04 9.221894e-05 6.621669e-05 2.061115e-04 2.192105e-04 1.674609e-04 3.300865e-02 3.804694e-03 2.284914e-02
<GCONST> -2.240380e+02
<STATE> 13
<MEAN> 42
 1.128964e-02 -7.942928e-03 -1.242185e-02 1.158709e-03 1.499751e-02 -1.140270e-02 3.315866e-02 6.702222e-02 7.809722e-02 4.757882e-02 5.551741e-02 2.069801e-02 1.604704e-04 6.899291e-05 -9.166719e-05 -1.149178e-04 1.263669e-04 -1.403562e-05 4.876748e-05 7.534341e-04 5.087377e-04 4.502883e-04 2.912133e-04 2.209566e-04 -1.336567e-05 1.532519e-05 2.868492e-05 -9.047199e-07 -2.138243e-05 2.195730e-05 -3.673018e-05 -9.761511e-05 -7.779796e-05 -5.744985e-05 -4.067537e-05 -2.634762e-05 2.315212e-03 1.859683e-03 2.211054e-03 2.898031e-02 -1.504682e-02 -4.585257e-02
<VARIANCE> 42
 3.830025e-03 1.206973e-02 8.914672e-03 5.786967e-03 3.349822e-03 9.699916e-03 1.314855e-02 5.840490e-02 3.592793e-02 4.197440e-02 3.466950e-02 1.950622e-02 5.631692e-05 1.452636e-04 1.415429e-04 6.546131e-05 6.303441e-05 1.300344e-04 4.457745e-04 6.175654e-04 3.198489e-04 3.099862e-04 3.314599e-04 2.391804e-04 1.003866e-05 2.244053e-05 2.529761e-05 9.931958e-06 1.215279e-05 2.150958e-05 4.313239e-05 5.763356e-05 3.007446e-05 2.231297e-05 2.144236e-05 1.985081e-05 1.893396e-04 2.464476e-04 2.198905e-04 2.000092e-02 8.409931e-03 1.525794e-02
<GCONST> -2.443569e+02
<STATE> 14
<MEAN> 42
 5.548307e-03 5.452589e-03 3.069485e-03 -6.934693e-03 5.074938e-03 4.677714e-03 4.539639e-03 1.951865e-02 2.626864e-02 2.953478e-02 2.014155e-02 1.550769e-02 -3.284438e-05 -5.984629e-05 -2.747381e-05 4.616717e-05 -2.784315e-06 -4.202109e-05 2.724197e-05 -8.967954e-05 -1.126979e-04 -6.559353e-05 -9.736583e-05 -4.901701e-05 1.008022e-06 -1.335467e-06 -2.376632e-06 1.722993e-07 1.595439e-06 -1.589963e-06 -2.489505e-06 -2.034203e-07 -5.846423e-06 -1.134274e-06 3.550374e-06 2.651349e-06 1.742133e-03 -2.813055e-04 1.333253e-03 1.643546e-02 1.600826e-03 -1.195229e-02
<VARIANCE> 42
 2.573626e-03 3.008354e-03 1.953535e-03 2.253851e-03 1.569321e-03 1.794686e-03 3.062482e-03 1.047110e-02 1.731374e-02 2.161550e-02 1.180633e-02 7.805591e-03 6.637134e-05 5.887774e-05 5.805200e-05 4.821809e-05 4.808696e-05 4.229050e-05 6.363729e-05 1.826491e-04 2.012441e-04 4.004134e-04 2.596503e-04 1.653833e-04 1.402875e-05 9.800990e-06 1.521600e-05 8.145338e-06 1.231762e-05 9.098658e-06 7.779516e-06 2.601508e-05 1.901724e-05 3.537699e-05 2.154069e-05 1.332970e-05 6.900085e-05 1.139059e-04 1.146791e-04 8.035820e-03 1.557415e-03 4.368391e-03
<GCONST> -2.761558e+02
<STATE> 15
<MEAN> 42
 2.130291e-02 1.184456e-03 -1.442700e-02 -1.304816e-02 1.850964e-02 -4.234063e-03 -1.317439e-02 2.182673e-02 2.898017e-02 3.353136e-02 3.347487e-02 2.375133e-02 -8.246953e-06 -4.448029e-05 -3.640286e-05 2.642547e-05 1.319267e-05 -4.027935e-05 3.003899e-05 1.637621e-05 -1.745736e-05 -1.360494e-05 -2.303411e-05 -1.085964e-04 -1.544605e-06 -1.027032e-05 -8.474149e-06 6.049826e-06 3.843768e-06 -9.704421e-06 1.261332e-05 2.281776e-05 9.999864e-06 1.218405e-07 -5.329192e-06 -5.542865e-06 3.644049e-03 3.995627e-04 3.065192e-03 2.785182e-02 -6.247845e-03 -7.995231e-03
<VARIANCE> 42
 5.080451e-03 4.186714e-03 3.853280e-03 3.660547e-03 3.474919e-03 2.822726e-03 5.101701e-03 1.558810e-02 2.809879e-02 3.498755e-02 2.342653e-02 1.370339e-02 2.143452e-04 1.796932e-04 1.383935e-04 1.622722e-04 1.327402e-04 1.064018e-04 1.199700e-04 3.108090e-04 6.425984e-04 8.810322e-04 6.978675e-04 4.993760e-04 3.259587e-05 2.999603e-05 3.255149e-05 2.310875e-05 2.551426e-05 2.320888e-05 1.324847e-05 3.018255e-05 5.934131e-05 8.696077e-05 7.234590e-05 5.313559e-05 1.936981e-04 2.045947e-04 1.930420e-04 1.519167e-02 2.351437e-03 5.968655e-03
<GCONST> -2.438518e+02
<STATE> 16
<MEAN> 42
 3.285826e-02 1.298460e-02 -1.599715e-02 -2.784579e-02 2.166285e-02 3.705643e-03 -4.916538e-04 6.344439e-02 1.073112e-01 1.204595e-01 1.206660e-01 7.838412e-02 2.171422e-05 1.441344e-04 1.228757e-04 -8.292634e-05 -5.032808e-05 1.317373e-04 -2.831015e-04 -4.158126e-04 -1.070188e-04 9.506446e-05 1.032218e-04 3.240779e-04 -5.312705e-05 -1.157296e-05 4.124573e-05 3.241274e-05 -4.730199e-05 1.442978e-05 4.046371e-05 1.673683e-05 -3.033783e-05 -7.935910e-05 -7.455504e-05 -7.317161e-05 5.919805e-03 -2.719389e-03 -3.444991e-06 8.534943e-02 -2.490312e-03 -3.639319e-02
<VARIANCE> 42
 1.084062e-02 6.815192e-03 4.680017e-03 7.563320e-03 6.087792e-03 3.040727e-03 1.818322e-02 9.960220e-02 8.896030e-02 1.167456e-01 9.578031e-02 4.910950e-02 4.039823e-04 1.723149e-04 2.051695e-04 2.367195e-04 2.623278e-04 8.806087e-05 3.399468e-04 7.370264e-04 1.114608e-03 3.375071e-03 2.824773e-03 1.520603e-03 4.600613e-05 2.083970e-05 3.473982e-05 2.470517e-05 3.530672e-05 1.632599e-05 3.420236e-05 3.631186e-05 9.866641e-05 3.787688e-04 2.950721e-04 1.404436e-04 2.777308e-04 3.289933e-04 2.280604e-04 5.277783e-02 4.281688e-03 3.817856e-02
<GCONST> -2.144394e+02
<STATE> 17
<MEAN> 42
 8.028646e-03 2.664544e-02 -3.330379e-03 -2.572731e-02 7.480446e-03 2.196247e-02 -9.119340e-03 1.604387e-02 4.607284e-02 6.547009e-02 5.440366e-02 4.746564e-02 -3.690843e-05 1.050943e-05 4.843370e-05 1.358475e-05 -4.155854e-05 2.840592e-05 1.191001e-04 1.585023e-04 7.786814e-05 -1.869230e-05 -3.330731e-05 -5.546367e-05 3.838979e-05 1.056215e-05 -2.832279e-05 -2.459267e-05 3.325144e-05 -9.049772e-06 -1.283489e-05 -5.945294e-07 4.887066e-05 7.379131e-05 6.934761e-05 6.398337e-05 4.520994e-03 -1.937208e-03 2.177418e-03 4.432254e-02 1.917220e-02 -7.330846e-03
<VARIANCE> 42
 3.729359e-03 1.278368e-02 6.767001e-03 6.628261e-03 2.046477e-03 8.802596e-03 7.028914e-03 1.593441e-02 2.614658e-02 4.551116e-02 4.697762e-02 3.080205e-02 1.971322e-04 3.535317e-04 2.296223e-04 2.202711e-04 1.272987e-04 2.423782e-04 1.462427e-04 4.275381e-04 9.959246e-04 2.140936e-03 2.197613e-03 1.287536e-03 5.039436e-05 4.340711e-05 5.369852e-05 3.401168e-05 4.192846e-05 3.598742e-05 1.671397e-05 4.880792e-05 1.176380e-04 2.783352e-04 2.826243e-04 1.483755e-04 2.240417e-04 2.510810e-04 2.699230e-04 2.484845e-02 8.138295e-03 6.095099e-03
<GCONST> -2.230993e+02
<STATE> 18
<MEAN> 42
 3.111099e-03 -1.954116e-03 -7.096593e-03 -2.567798e-03 3.150080e-03 -5.902387e-04 6.737970e-03 2.495976e-02 1.390230e-02 1.043233e-02 5.181749e-03 5.300042e-03 -1.185159e-04 -1.013515e-04 1.554296e-05 1.076567e-04 -6.744458e-05 -4.057400e-05 6.105984e-04 1.020441e-03 8.269567e-04 4.115403e-04 1.265844e-04 -1.161988e-04 1.253223e-05 5.170505e-05 3.936156e-05 -3.254385e-05 -1.318012e-05 4.651828e-05 6.274349e-05 1.726439e-04 2.390561e-04 2.625072e-04 1.617726e-04 9.907363e-05 4.439449e-04 -1.220401e-03 -3.586274e-04 3.871495e-03 -3.765978e-03 -1.263126e-02
<VARIANCE> 42
 7.249754e-04 1.364523e-03 1.481535e-03 7.312487e-04 7.583919e-04 1.184100e-03 1.486353e-03 5.178067e-03 6.322959e-03 2.180523e-03 1.444429e-03 1.077076e-03 4.851627e-05 3.487286e-05 6.872044e-05 2.495342e-05 5.092905e-05 3.995258e-05 2.699791e-05 7.374013e-05 6.218569e-05 5.227680e-05 3.617037e-05 2.616901e-05 1.881311e-05 1.308261e-05 2.471430e-05 1.000580e-05 1.894349e-05 1.428582e-05 6.094911e-06 2.601508e-05 1.237106e-05 1.539375e-05 1.109637e-05 7.614599e-06 6.274200e-06 3.834133e-05 7.812330e-05 7.685503e-04 9.624005e-04 1.813706e-03
<GCONST> -3.078372e+02
<STATE> 19
<MEAN> 42
 -3.880692e-02 -1.867583e-02 2.256712e-02 2.904546e-02 -2.997452e-02 3.766527e-03 7.209189e-02 1.094551e-01 8.469804e-02 7.823416e-02 3.231824e-02 2.785515e-03 1.805578e-03 2.933855e-03 1.131952e-03 -2.367682e-03 3.875052e-04 2.070066e-03 1.391829e-02 2.802174e-02 3.241823e-02 3.075265e-02 2.140009e-02 1.216840e-02 2.858329e-03 1.443937e-03 -1.439899e-03 -2.128243e-03 2.196872e-03 -2.651691e-05 5.678245e-04 2.809978e-03 5.102741e-03 7.638624e-03 7.519485e-03 5.696956e-03 -1.855844e-03 -4.452304e-03 3.955107e-03 1.030279e-02 -1.496663e-02 -7.688559e-02
<VARIANCE> 42
 2.581887e-03 5.375501e-03 9.873654e-03 1.514237e-03 4.718968e-03 6.868379e-03 3.418564e-03 7.885346e-03 9.629184e-03 1.236325e-02 8.396520e-03 7.150352e-03 2.004109e-04 3.563786e-04 5.103200e-04 1.506360e-04 2.666763e-04 3.861570e-04 2.770525e-04 6.796253e-04 5.238198e-04 5.943599e-04 4.807188e-04 3.732600e-04 8.637895e-05 1.552919e-04 2.341076e-04 6.249233e-05 1.210927e-04 1.751845e-04 5.688892e-05 1.571860e-04 1.104269e-04 1.200484e-04 1.004628e-04 7.379211e-05 7.717731e-05 1.614517e-04 3.574781e-04 4.867132e-03 4.412616e-03 3.009740e-03
<GCONST> -2.315641e+02
<STATE> 20
<MEAN> 42
 -3.143872e-02 -2.013030e-02 1.356587e-02 2.660957e-02 -2.177579e-02 -1.075313e-03 1.021725e-01 1.691017e-01 1.624415e-01 1.374799e-01 8.024210e-02 2.661155e-02 5.812808e-03 2.028552e-03 -3.841304e-03 -3.908764e-03 4.964975e-03 -9.608124e-04 1.514828e-02 3.189295e-02 4.029272e-02 3.990688e-02 3.091809e-02 1.971395e-02 3.940226e-03 2.806783e-03 -1.163611e-03 -3.361556e-03 2.597383e-03 7.599148e-04 -1.956334e-03 -3.973473e-04 3.677270e-03 7.218385e-03 8.393384e-03 7.625472e-03 3.301179e-05 -5.807393e-03 8.069206e-03 4.112582e-02 -2.378395e-02 -1.198988e-01
<VARIANCE> 42
 3.409423e-03 4.303542e-03 7.492638e-03 2.069019e-03 4.243816e-03 5.010585e-03 5.106349e-03 1.464556e-02 2.271409e-02 1.873392e-02 1.442032e-02 1.031960e-02 4.754443e-04 1.064080e-03 1.337771e-03 4.348067e-04 6.411241e-04 1.090066e-03 4.323825e-04 1.142932e-03 8.371903e-04 1.152265e-03 9.831635e-04 7.466601e-04 1.033271e-04 1.515643e-04 2.057445e-04 7.584564e-05 1.157777e-04 1.530788e-04 7.700465e-05 1.972749e-04 1.399897e-04 1.649564e-04 1.388963e-04 1.129186e-04 1.067531e-04 3.008288e-04 5.199061e-04 7.874367e-03 3.013722e-03 6.451965e-03
<GCONST> -2.152332e+02
<STATE> 21
<MEAN> 42
 8.624455e-03 -2.482786e-02 -3.012759e-02 6.867241e-03 2.061856e-02 -2.690087e-02 1.088813e-01 2.109882e-01 2.265986e-01 2.291940e-01 1.661347e-01 9.741429e-02 2.807248e-02 1.214463e-02 -1.594369e-02 -2.009198e-02 2.222673e-02 -1.827687e-03 -8.286595e-03 8.571190e-03 3.840100e-02 5.736136e-02 5.578673e-02 4.637284e-02 8.323829e-03 3.715283e-03 -4.592821e-03 -6.012947e-03 6.482495e-03 -3.823905e-04 -8.590279e-03 -9.818574e-03 6.305708e-04 8.506681e-03 1.202979e-02 1.218753e-02 3.421937e-03 -4.604319e-05 1.349126e-02 1.064462e-01 -3.935716e-02 -1.432069e-01
<VARIANCE> 42
 1.661035e-02 1.444567e-02 2.308720e-02 9.849494e-03 1.630843e-02 1.442388e-02 1.192921e-02 3.269414e-02 3.532179e-02 3.734602e-02 3.347614e-02 3.376159e-02 1.143225e-03 1.571613e-03 2.079025e-03 8.346293e-04 1.229024e-03 1.545671e-03 9.959361e-04 3.058479e-03 2.138256e-03 2.330373e-03 2.149064e-03 1.884517e-03 1.022722e-04 1.031248e-04 1.593677e-04 6.264596e-05 1.056262e-04 1.064740e-04 1.278474e-04 3.840680e-04 2.400283e-04 2.047150e-04 1.920186e-04 1.523817e-04 5.235444e-04 8.583865e-04 1.519950e-03 2.279789e-02 9.216584e-03 1.309840e-02
<GCONST> -1.861547e+02
<STATE> 22
<MEAN> 42
 3.250478e-02 7.419029e-02 5.157215e-02 -4.923821e-02 -9.287757e-03 6.734594e-02 -3.700353e-02 1.637982e-02 5.074110e-02 1.019537e-01 7.378561e-02 4.743882e-02 2.962702e-04 -1.331180e-05 -3.096062e-04 -1.412625e-04 3.030249e-04 -9.604386e-05 -1.405657e-06 1.750140e-04 4.619109e-04 5.203242e-04 4.960474e-04 4.279749e-04 4.766475e-05 1.264541e-05 -3.463519e-05 -2.999992e-05 3.978148e-05 -1.015465e-05 -1.785798e-05 2.537503e-05 6.123871e-05 8.878221e-05 7.783786e-05 6.270423e-05 4.359602e-03 -2.090529e-03 2.598715e-03 6.606092e-02 5.368839e-02 1.954815e-03
<VARIANCE> 42
 1.002571e-02 4.766062e-02 3.258991e-02 2.075335e-02 9.379508e-03 3.749446e-02 2.101794e-02 4.500633e-02 8.415054e-02 1.075449e-01 5.001775e-02 2.912728e-02 6.641602e-04 2.506003e-03 2.105431e-03 1.058696e-03 7.586621e-04 2.141172e-03 8.795186e-04 1.907646e-03 5.732986e-03 8.267255e-03 3.048849e-03 1.604637e-03 1.322624e-04 3.758286e-04 3.940351e-04 1.555277e-04 1.691941e-04 3.519744e-04 1.119040e-04 2.621592e-04 9.925865e-04 1.596526e-03 4.659643e-04 2.201034e-04 2.110027e-04 2.246552e-04 2.220980e-04 3.983931e-02 3.589371e-02 2.855635e-02
<GCONST> -1.712766e+02
<STATE> 23
<MEAN> 42
 2.711177e-01 2.718868e-01 3.185947e-03 -2.722246e-01 1.363320e-01 1.414601e-01 -3.198246e-01 -3.426324e-01 1.225312e-01 6.413527e-01 6.513993e-01 5.654941e-01 -1.258026e-04 7.174345e-03 7.317339e-03 -3.531822e-03 -3.757312e-03 7.231512e-03 -3.117996e-02 -5.171282e-02 -4.046502e-02 -1.603437e-02 -5.636279e-03 3.315186e-03 -4.640440e-03 -3.093892e-03 1.545696e-03 3.860918e-03 -3.100760e-03 -7.925997e-04 2.267144e-03 8.104991e-04 -5.666406e-03 -1.055441e-02 -1.011611e-02 -8.420848e-03 5.030088e-02 2.524572e-02 3.627511e-03 5.484304e-01 1.946531e-01 2.395050e-01
<VARIANCE> 42
 7.295901e-02 1.419112e-01 1.154614e-01 7.827217e-02 5.891449e-02 1.110595e-01 1.478046e-01 6.755711e-01 7.222596e-01 5.356092e-01 3.533644e-01 2.305957e-01 5.074189e-03 7.624075e-03 5.109587e-03 5.073351e-03 3.191308e-03 5.102372e-03 4.829006e-03 1.073873e-02 1.956639e-02 3.111348e-02 2.421454e-02 1.603260e-02 5.763668e-04 8.706980e-04 7.692138e-04 5.315075e-04 4.561035e-04 6.751868e-04 5.264626e-04 1.230093e-03 2.526377e-03 3.727546e-03 2.334525e-03 1.415353e-03 1.477237e-03 2.370316e-03 1.499589e-03 2.046423e-01 9.944387e-02 2.790860e-01
<GCONST> -1.066345e+02
<STATE> 24
<MEAN> 42
 1.031086e-01 7.491902e-03 -9.588078e-02 -5.181168e-02 1.025217e-01 -1.457610e-01 -1.454222e-01 -2.143264e-01 -1.394710e-01 2.989431e-02 9.509492e-02 1.128342e-01 -1.117986e-02 -8.592450e-03 2.584171e-03 9.884316e-03 -6.883691e-03 -5.153672e-03 5.239453e-03 -1.757537e-03 -2.393212e-02 -3.391932e-02 -3.065745e-02 -2.584645e-02 7.483271e-04 -1.461433e-04 -8.948197e-04 -3.063758e-04 8.230757e-04 -4.346526e-04 1.934674e-03 3.468438e-03 3.640166e-03 2.630064e-03 1.584880e-03 5.874156e-04 2.150365e-02 1.808598e-02 5.999155e-03 9.139013e-02 2.464533e-03 1.526190e-01
<VARIANCE> 42
 9.235360e-02 4.067208e-01 6.053371e-01 9.979698e-02 2.475889e-01 3.139593e-01 1.820347e-01 6.459610e-01 5.271345e-01 4.582981e-01 4.347047e-01 3.835123e-01 1.505928e-03 1.838680e-03 3.426239e-03 8.161577e-04 2.009119e-03 2.159753e-03 1.212316e-03 5.035945e-03 7.206145e-03 9.680737e-03 7.673587e-03 5.358156e-03 1.417771e-04 1.379412e-04 2.114739e-04 8.707166e-05 1.420762e-04 1.364088e-04 6.722260e-05 2.889294e-04 5.349782e-04 8.950530e-04 7.545450e-04 5.046861e-04 1.427870e-03 2.383298e-03 1.895128e-03 2.681453e-01 4.249730e-01 3.117502e-01
<GCONST> -1.290182e+02
<STATE> 25
<MEAN> 42
 -6.760550e-02 -5.804446e-02 1.323620e-02 6.223196e-02 -3.877592e-02 -2.447091e-02 -1.646980e-01 -3.365147e-01 -3.939811e-01 -2.508479e-01 -1.838331e-01 -1.064320e-01 2.715044e-03 -2.224264e-04 -2.937228e-03 -1.220936e-03 2.759838e-03 -1.326506e-03 2.389817e-02 4.591456e-02 4.476152e-02 2.170925e-02 1.197854e-02 3.612449e-03 1.776441e-03 4.705361e-03 2.929625e-03 -3.207744e-03 -6.006535e-04 3.836651e-03 -9.882222e-04 -5.574606e-04 4.188946e-03 8.370493e-03 8.018900e-03 6.915631e-03 -4.887725e-04 1.689552e-02 1.544767e-02 -1.273313e-01 -4.498236e-03 2.257448e-01
<VARIANCE> 42
 2.272439e-02 3.111396e-02 2.616441e-02 2.046509e-02 1.758795e-02 2.155301e-02 3.210915e-02 5.434403e-02 8.633161e-02 6.196512e-02 5.159428e-02 5.192130e-02 3.065414e-04 6.935719e-04 7.385649e-04 3.154194e-04 3.485450e-04 6.322798e-04 6.044147e-04 1.669649e-03 2.302584e-03 1.493081e-03 8.330986e-04 6.106797e-04 5.424489e-05 7.347612e-05 8.288655e-05 4.316925e-05 4.984993e-05 6.405119e-05 6.723464e-05 1.481362e-04 3.045801e-04 2.997825e-04 1.668415e-04 1.240858e-04 6.171204e-04 8.731241e-04 9.200855e-04 3.827498e-02 2.059223e-02 2.385686e-02
<GCONST> -1.928048e+02
<STATE> 26
<MEAN> 42
 -4.476868e-02 -2.914033e-02 2.184612e-02 3.654158e-02 -3.290135e-02 -5.871089e-03 -5.344183e-02 -1.081133e-01 -1.746217e-01 -1.120431e-01 -8.176033e-02 -5.573703e-02 5.737183e-03 5.192985e-03 -5.535414e-04 -5.452059e-03 3.110058e-03 2.578339e-03 1.528876e-02 3.377729e-02 3.629423e-02 2.507170e-02 1.915284e-02 1.161472e-02 -8.955166e-04 3.673537e-04 1.262917e-03 2.544007e-04 -1.059572e-03 8.380540e-04 -2.829733e-03 -5.359393e-03 -3.844581e-03 -1.510388e-03 -1.000785e-03 -5.219867e-04 -8.829713e-04 8.085100e-03 1.102798e-02 -6.703965e-02 -1.729678e-03 8.129544e-02
<VARIANCE> 42
 4.387659e-03 8.054879e-03 8.540386e-03 4.060435e-03 4.593070e-03 5.868422e-03 9.714173e-03 2.165475e-02 2.514856e-02 1.960664e-02 1.714578e-02 1.250437e-02 1.420169e-04 2.562380e-04 2.970943e-04 1.246512e-04 1.580392e-04 2.329535e-04 2.861782e-04 6.397939e-04 5.887224e-04 5.220363e-04 3.583730e-04 2.886589e-04 1.698357e-05 3.173224e-05 4.468721e-05 1.312833e-05 2.304095e-05 3.346103e-05 3.567639e-05 6.397416e-05 1.122978e-04 1.152407e-04 5.657937e-05 2.942913e-05 1.364508e-04 2.630006e-04 3.697020e-04 1.056550e-02 6.061462e-03 7.781009e-03
<GCONST> -2.377436e+02
<STATE> 27
<MEAN> 42
 2.552736e-02 7.077147e-02 5.256025e-02 -4.523582e-02 -1.741655e-02 6.413072e-02 -1.704610e-02 2.177083e-02 6.410220e-02 9.574268e-02 9.607342e-02 8.188486e-02 4.229902e-06 5.762489e-06 1.881176e-06 -5.102831e-06 6.409418e-07 4.543501e-05 2.187379e-05 8.386267e-05 7.966474e-05 7.619734e-05 5.767822e-05 2.965166e-05 2.900258e-06 -1.444761e-05 -1.725116e-05 5.714455e-06 1.041617e-05 -1.840676e-05 2.787913e-06 -3.669553e-06 -1.798435e-05 -3.161082e-05 -2.387332e-05 -1.761376e-05 4.151878e-03 3.099954e-03 -2.192736e-03 7.337970e-02 5.456262e-02 -2.738448e-03
<VARIANCE> 42
 7.152275e-03 3.857331e-02 2.762499e-02 1.590701e-02 7.766414e-03 3.115413e-02 6.865341e-03 2.695310e-02 2.840886e-02 6.190009e-02 7.156259e-02 5.781895e-02 2.547690e-04 5.956177e-04 4.502597e-04 3.127759e-04 2.037811e-04 4.596295e-04 1.104665e-04 8.126275e-04 7.330162e-04 1.793109e-03 2.204272e-03 1.659876e-03 4.521716e-05 5.143726e-05 4.519288e-05 3.704951e-05 3.248750e-05 3.709632e-05 1.202557e-05 7.305311e-05 6.930557e-05 1.987069e-04 2.589998e-04 1.853984e-04 2.113340e-04 2.193425e-04 2.458248e-04 3.666136e-02 2.884432e-02 1.002445e-02
<GCONST> -2.105154e+02
<STATE> 28
<MEAN> 42
 2.555674e-02 6.460128e-03 -1.451716e-02 -2.022880e-02 2.848110e-02 -5.329811e-03 8.763049e-03 4.811232e-02 5.250964e-02 4.751282e-02 3.806189e-02 3.843922e-02 -2.105902e-05 -2.944796e-05 -8.490329e-06 2.546583e-05 -4.370173e-06 -1.610263e-05 1.493620e-04 1.768216e-04 3.625134e-04 3.754950e-05 -4.257702e-05 -5.961046e-05 -6.539966e-06 -1.181266e-05 -5.332193e-06 9.198902e-06 5.202310e-10 -8.567640e-06 -2.518624e-05 -5.703389e-05 -4.931066e-05 -3.670890e-05 -3.994142e-05 -3.100188e-05 2.053361e-03 -2.526086e-03 4.835973e-03 3.279036e-02 -3.691593e-03 -2.536622e-02
<VARIANCE> 42
 2.486896e-02 1.849198e-03 3.074697e-02 5.694557e-03 2.742340e-02 1.006826e-02 4.563427e-02 2.440108e-02 3.973342e-02 5.505260e-02 5.382527e-02 5.150395e-02 5.807436e-04 8.955267e-05 5.572174e-04 1.958755e-04 5.483714e-04 1.787138e-04 3.760264e-04 5.896758e-04 1.415033e-03 1.876906e-03 1.645512e-03 1.445419e-03 9.785395e-05 3.317903e-05 8.473551e-05 4.434179e-05 8.382666e-05 3.484223e-05 2.220757e-05 8.134906e-05 1.282768e-04 1.493575e-04 1.215681e-04 1.037582e-04 2.148132e-04 2.066508e-04 1.839631e-04 4.411060e-02 3.781508e-03 1.332217e-02
<GCONST> -2.117404e+02
<STATE> 29
<MEAN> 42
 5.569499e-02 6.497541e-02 2.831281e-02 -6.208562e-02 1.439891e-02 4.755933e-02 4.880749e-03 1.290500e-01 2.164501e-01 1.706732e-01 1.592687e-01 1.421475e-01 4.536623e-05 3.740636e-04 3.294962e-04 -2.074308e-04 -1.311717e-04 3.880396e-04 3.727372e-04 7.733572e-04 6.384200e-04 6.681738e-04 2.725795e-04 1.802841e-04 -6.869440e-05 -6.529574e-05 2.686269e-06 6.821951e-05 -3.619401e-05 -3.042390e-05 -1.011047e-04 -2.922119e-04 -3.976211e-04 -2.579312e-04 -2.059758e-04 -1.254714e-04 5.419955e-03 -2.222081e-03 1.747918e-03 1.291236e-01 2.947130e-02 -7.315782e-02
<VARIANCE> 42
 1.177777e-02 2.136947e-02 8.949838e-03 1.432183e-02 5.059407e-03 1.219716e-02 2.397562e-02 9.477106e-02 1.157947e-01 1.015643e-01 1.150107e-01 1.026592e-01 2.780870e-04 3.250969e-04 2.891078e-04 2.293398e-04 2.056252e-04 2.363167e-04 2.865997e-04 6.447463e-04 1.050512e-03 1.562328e-03 1.772394e-03 1.464632e-03 4.616659e-05 2.660314e-05 4.091410e-05 2.617143e-05 3.743627e-05 2.226064e-05 1.905405e-05 3.692110e-05 6.522566e-05 9.354180e-05 8.949976e-05 6.713493e-05 1.686444e-04 4.759455e-04 8.854571e-05 6.485604e-02 1.551912e-02 4.528768e-02
<GCONST> -2.126581e+02
<STATE> 30
<MEAN> 42
 4.007877e-02 3.695307e-02 1.921780e-02 -4.087666e-02 1.128370e-02 2.744783e-02 -7.167167e-03 2.736810e-02 5.732447e-02 9.089574e-02 9.922027e-02 1.204849e-01 4.262241e-06 3.375371e-05 2.990590e-05 -1.917389e-05 -1.190176e-05 3.809428e-05 6.464915e-05 1.503535e-04 2.621151e-04 2.218012e-04 1.273321e-04 4.182941e-05 5.215043e-07 -8.137038e-06 -8.949233e-06 3.679997e-06 4.326117e-06 -9.407742e-06 -1.425146e-05 -2.060222e-05 -3.716632e-05 -1.991275e-05 -1.602847e-05 -4.256726e-07 4.203269e-03 -2.408458e-03 4.654471e-04 8.016851e-02 2.452615e-02 -3.550683e-03
<VARIANCE> 42
 1.284447e-02 2.061889e-02 7.570505e-03 1.486183e-02 5.079102e-03 1.095445e-02 2.910918e-02 4.310232e-02 4.250795e-02 7.017161e-02 1.071580e-01 1.002518e-01 2.797420e-04 2.788512e-04 2.090590e-04 2.270306e-04 1.761373e-04 1.753488e-04 2.759682e-04 4.855371e-04 7.951146e-04 1.350460e-03 1.729701e-03 1.361340e-03 3.998546e-05 2.473940e-05 2.955349e-05 2.497119e-05 2.878849e-05 1.738639e-05 1.473473e-05 3.079000e-05 5.552006e-05 8.522857e-05 9.321000e-05 6.240486e-05 1.661742e-04 2.262636e-04 9.320751e-05 6.097507e-02 1.474687e-02 2.563344e-02
<GCONST> -2.198921e+02
<STATE> 31
<MEAN> 42
 1.433341e-02 1.268315e-02 2.900145e-03 -1.464310e-02 5.339141e-03 6.934925e-03 2.703419e-02 8.721621e-02 4.838164e-02 2.336515e-02 7.790647e-03 8.189134e-03 1.183917e-04 2.001078e-04 8.133129e-05 -1.588683e-04 2.105368e-05 1.531815e-04 8.123403e-06 -1.315371e-04 -2.281788e-04 -3.835942e-04 -3.098410e-04 -1.761660e-04 8.570625e-06 1.783041e-06 -6.042711e-06 -5.036004e-06 5.666303e-06 -5.033820e-06 -5.690521e-05 -1.101760e-04 -1.250474e-04 -8.651667e-05 -4.398629e-05 -2.343387e-05 8.263767e-04 -1.125661e-03 6.772561e-03 5.756013e-03 2.950067e-03 -4.367980e-02
<VARIANCE> 42
 1.909540e-02 2.950640e-02 4.683370e-03 2.309352e-02 4.569389e-03 1.247269e-02 2.325047e-02 3.739342e-02 5.968116e-02 1.389621e-01 1.908707e-01 1.812629e-01 8.250352e-05 1.755272e-04 7.077522e-05 1.113257e-04 3.281396e-05 1.032923e-04 1.317413e-04 1.530630e-04 1.493389e-04 4.805164e-04 8.323509e-04 8.191381e-04 5.840912e-06 1.017025e-05 1.074164e-05 5.314218e-06 5.737140e-06 9.057376e-06 6.255560e-06 2.601508e-05 8.149794e-06 1.733396e-05 3.068217e-05 2.702072e-05 6.641970e-04 1.290348e-04 4.180437e-04 1.173175e-01 1.519422e-02 1.444803e-02
<GCONST> -2.405417e+02
<STATE> 32
<MEAN> 42
 1.783919e-03 -4.730629e-03 -4.658666e-03 7.999949e-04 4.503243e-03 -1.509386e-03 4.883593e-03 1.475734e-02 9.052441e-03 1.244787e-03 5.974796e-03 -1.391992e-04 -7.724248e-05 -1.329110e-04 -5.621262e-05 1.050998e-04 -1.185742e-05 -9.492582e-05 1.222198e-04 5.349051e-05 4.093861e-05 -7.835135e-05 -1.052240e-04 -1.212988e-04 -1.891967e-06 8.984003e-06 1.086379e-05 -3.579403e-06 -6.660644e-06 9.065086e-06 5.060923e-06 2.065889e-05 3.353530e-05 2.532384e-05 1.840629e-05 9.869371e-06 2.194734e-04 -5.593599e-05 3.063935e-04 1.186475e-03 -5.351664e-03 -8.128092e-03
<VARIANCE> 42
 1.465213e-03 3.005109e-03 1.856687e-03 1.724689e-03 9.008838e-04 2.015215e-03 2.226514e-03 4.520084e-03 4.037598e-03 2.695272e-03 2.250719e-03 2.289739e-03 4.606973e-05 5.428138e-05 6.326164e-05 3.457448e-05 4.124345e-05 4.688050e-05 3.024723e-05 7.374013e-05 3.473804e-05 4.065752e-05 4.173078e-05 3.733214e-05 1.539726e-05 1.207790e-05 1.564313e-05 9.908789e-06 1.260585e-05 9.835317e-06 4.852798e-06 2.601508e-05 6.436257e-06 1.211414e-05 7.333802e-06 6.563632e-06 1.054943e-05 7.055100e-05 9.792572e-05 1.364575e-03 1.919143e-03 1.427531e-03
<GCONST> -3.037971e+02
<STATE> 33
<MEAN> 42
 1.278935e-02 1.023881e-02 4.891119e-03 -1.287084e-02 4.023059e-03 5.457503e-03 2.622936e-03 9.239918e-03 2.178920e-02 2.590247e-02 2.204543e-02 2.422390e-02 3.865274e-05 -2.534688e-05 -6.361180e-05 -6.000788e-06 5.138410e-05 -5.423788e-05 -2.269619e-05 -2.147933e-05 -7.355101e-05 -1.651565e-05 1.207055e-05 9.189185e-06 9.929869e-06 -1.889619e-05 -2.904087e-05 4.621847e-06 2.007620e-05 -2.365304e-05 1.362909e-06 9.350254e-06 1.779408e-07 9.070605e-06 -5.719940e-07 -3.220654e-06 1.751194e-03 3.870942e-04 7.697987e-04 1.936790e-02 5.339687e-03 -5.302676e-03
<VARIANCE> 42
 1.002266e-02 1.185382e-02 3.372455e-03 1.002109e-02 3.729309e-03 5.338016e-03 1.729930e-02 2.971108e-02 4.721958e-02 4.883531e-02 6.862599e-02 6.901702e-02 2.455822e-04 2.083460e-04 1.092781e-04 1.997063e-04 1.269088e-04 9.864941e-05 3.204315e-04 6.019989e-04 6.128690e-04 8.232019e-04 1.029156e-03 9.209887e-04 2.905690e-05 2.240628e-05 2.891068e-05 1.849538e-05 2.365930e-05 1.855075e-05 2.690194e-05 4.442388e-05 4.523670e-05 6.543206e-05 7.195146e-05 5.739803e-05 1.814374e-04 2.502700e-04 2.378014e-04 4.299271e-02 6.564215e-03 1.662836e-02
<GCONST> -2.294769e+02
<STATE> 34
<MEAN> 42
 2.575201e-02 3.640726e-02 1.484025e-02 -2.772574e-02 8.308445e-03 3.241136e-02 -2.256679e-02 7.362700e-04 6.136188e-02 6.932873e-02 5.818129e-02 2.907153e-02 3.011532e-05 8.766237e-05 5.741213e-05 -5.932929e-05 -1.329321e-05 7.704338e-05 -7.900718e-05 -1.105940e-04 -7.532462e-05 3.962749e-05 5.675376e-05 5.744630e-05 5.477948e-07 1.050028e-05 1.008764e-05 -5.732782e-06 -4.680706e-06 1.037612e-05 -1.047535e-05 -1.139363e-05 -7.563904e-06 -2.139865e-06 4.274320e-06 7.632417e-06 3.645897e-03 1.348553e-03 2.743263e-03 5.052656e-02 2.089850e-02 -3.903377e-03
<VARIANCE> 42
 1.155865e-02 2.279643e-02 8.517666e-03 1.509052e-02 4.377521e-03 1.288795e-02 2.502346e-02 9.300061e-02 6.304032e-02 5.583967e-02 4.300081e-02 2.246577e-02 3.690335e-04 5.828878e-04 2.492028e-04 4.137463e-04 1.643549e-04 3.246074e-04 4.194248e-04 1.077416e-03 8.717036e-04 1.277132e-03 1.054134e-03 5.939338e-04 4.666725e-05 6.532857e-05 3.694397e-05 4.676918e-05 2.561758e-05 3.949137e-05 4.061524e-05 7.021382e-05 6.991675e-05 1.092728e-04 8.365578e-05 4.807296e-05 2.602519e-04 2.578147e-04 2.404689e-04 3.113418e-02 1.257295e-02 3.166516e-02
<GCONST> -2.135768e+02
<TRANSP> 35
 0.000000e+00 1.000000e+00 0.000000e+00 0.000000e+00 0.000000e+00 0.000000e+00 0.000000e+00 0.000000e+00 0.000000e+00 0.000000e+00 0.000000e+00 0.000000e+00 0.000000e+00 0.000000e+00 0.000000e+00 0.000000e+00 0.000000e+00 0.000000e+00 0.000000e+00 0.000000e+00 0.000000e+00 0.000000e+00 0.000000e+00 0.000000e+00 0.000000e+00 0.000000e+00 0.000000e+00 0.000000e+00 0.000000e+00 0.000000e+00 0.000000e+00 0.000000e+00 0.000000e+00 0.000000e+00 0.000000e+00
 0.000000e+00 9.965529e-01 3.447041e-03 0.000000e+00 0.000000e+00 0.000000e+00 0.000000e+00 0.000000e+00 0.000000e+00 0.000000e+00 0.000000e+00 0.000000e+00 0.000000e+00 0.000000e+00 0.000000e+00 0.000000e+00 0.000000e+00 0.000000e+00 0.000000e+00 0.000000e+00 0.000000e+00 0.000000e+00 0.000000e+00 0.000000e+00 0.000000e+00 0.000000e+00 0.000000e+00 0.000000e+00 0.000000e+00 0.000000e+00 0.000000e+00 0.000000e+00 0.000000e+00 0.000000e+00 0.000000e+00
 0.000000e+00 0.000000e+00 9.967943e-01 3.205694e-03 0.000000e+00 0.000000e+00 0.000000e+00 0.000000e+00 0.000000e+00 0.000000e+00 0.000000e+00 0.000000e+00 0.000000e+00 0.000000e+00 0.000000e+00 0.000000e+00 0.000000e+00 0.000000e+00 0.000000e+00 0.000000e+00 0.000000e+00 0.000000e+00 0.000000e+00 0.000000e+00 0.000000e+00 0.000000e+00 0.000000e+00 0.000000e+00 0.000000e+00 0.000000e+00 0.000000e+00 0.000000e+00 0.000000e+00 0.000000e+00 0.000000e+00
 0.000000e+00 0.000000e+00 0.000000e+00 9.952526e-01 4.747409e-03 0.000000e+00 0.000000e+00 0.000000e+00 0.000000e+00 0.000000e+00 0.000000e+00 0.000000e+00 0.000000e+00 0.000000e+00 0.000000e+00 0.000000e+00 0.000000e+00 0.000000e+00 0.000000e+00 0.000000e+00 0.000000e+00 0.000000e+00 0.000000e+00 0.000000e+00 0.000000e+00 0.000000e+00 0.000000e+00 0.000000e+00 0.000000e+00 0.000000e+00 0.000000e+00 0.000000e+00 0.000000e+00 0.000000e+00 0.000000e+00
 0.000000e+00 0.000000e+00 0.000000e+00 0.000000e+00 7.302465e-01 2.697535e-01 0.000000e+00 0.000000e+00 0.000000e+00 0.000000e+00 0.000000e+00 0.000000e+00 0.000000e+00 0.000000e+00 0.000000e+00 0.000000e+00 0.000000e+00 0.000000e+00 0.000000e+00 0.000000e+00 0.000000e+00 0.000000e+00 0.000000e+00 0.000000e+00 0.000000e+00 0.000000e+00 0.000000e+00 0.000000e+00 0.000000e+00 0.000000e+00 0.000000e+00 0.000000e+00 0.000000e+00 0.000000e+00 0.000000e+00
 0.000000e+00 0.000000e+00 0.000000e+00 0.000000e+00 0.000000e+00 9.930564e-01 6.943666e-03 0.000000e+00 0.000000e+00 0.000000e+00 0.000000e+00 0.000000e+00 0.000000e+00 0.000000e+00 0.000000e+00 0.000000e+00 0.000000e+00 0.000000e+00 0.000000e+00 0.000000e+00 0.000000e+00 0.000000e+00 0.000000e+00 0.000000e+00 0.000000e+00 0.000000e+00 0.000000e+00 0.000000e+00 0.000000e+00 0.000000e+00 0.000000e+00 0.000000e+00 0.000000e+00 0.000000e+00 0.000000e+00
 0.000000e+00 0.000000e+00 0.000000e+00 0.000000e+00 0.000000e+00 0.000000e+00 9.854231e-01 1.457688e-02 0.000000e+00 0.000000e+00 0.000000e+00 0.000000e+00 0.000000e+00 0.000000e+00 0.000000e+00 0.000000e+00 0.000000e+00 0.000000e+00 0.000000e+00 0.000000e+00 0.000000e+00 0.000000e+00 0.000000e+00 0.000000e+00 0.000000e+00 0.000000e+00 0.000000e+00 0.000000e+00 0.000000e+00 0.000000e+00 0.000000e+00 0.000000e+00 0.000000e+00 0.000000e+00 0.000000e+00
 0.000000e+00 0.000000e+00 0.000000e+00 0.000000e+00 0.000000e+00 0.000000e+00 0.000000e+00 9.661127e-01 3.388725e-02 0.000000e+00 0.000000e+00 0.000000e+00 0.000000e+00 0.000000e+00 0.000000e+00 0.000000e+00 0.000000e+00 0.000000e+00 0.000000e+00 0.000000e+00 0.000000e+00 0.000000e+00 0.000000e+00 0.000000e+00 0.000000e+00 0.000000e+00 0.000000e+00 0.000000e+00 0.000000e+00 0.000000e+00 0.000000e+00 0.000000e+00 0.000000e+00 0.000000e+00 0.000000e+00
 0.000000e+00 0.000000e+00 0.000000e+00 0.000000e+00 0.000000e+00 0.000000e+00 0.000000e+00 0.000000e+00 9.534438e-01 4.655614e-02 0.000000e+00 0.000000e+00 0.000000e+00 0.000000e+00 0.000000e+00 0.000000e+00 0.000000e+00 0.000000e+00 0.000000e+00 0.000000e+00 0.000000e+00 0.000000e+00 0.000000e+00 0.000000e+00 0.000000e+00 0.000000e+00 0.000000e+00 0.000000e+00 0.000000e+00 0.000000e+00 0.000000e+00 0.000000e+00 0.000000e+00 0.000000e+00 0.000000e+00
 0.000000e+00 0.000000e+00 0.000000e+00 0.000000e+00 0.000000e+00 0.000000e+00 0.000000e+00 0.000000e+00 0.000000e+00 9.896790e-01 1.032093e-02 0.000000e+00 0.000000e+00 0.000000e+00 0.000000e+00 0.000000e+00 0.000000e+00 0.000000e+00 0.000000e+00 0.000000e+00 0.000000e+00 0.000000e+00 0.000000e+00 0.000000e+00 0.000000e+00 0.000000e+00 0.000000e+00 0.000000e+00 0.000000e+00 0.000000e+00 0.000000e+00 0.000000e+00 0.000000e+00 0.000000e+00 0.000000e+00
 0.000000e+00 0.000000e+00 0.000000e+00 0.000000e+00 0.000000e+00 0.000000e+00 0.000000e+00 0.000000e+00 0.000000e+00 0.000000e+00 8.114543e-01 1.885457e-01 0.000000e+00 0.000000e+00 0.000000e+00 0.000000e+00 0.000000e+00 0.000000e+00 0.000000e+00 0.000000e+00 0.000000e+00 0.000000e+00 0.000000e+00 0.000000e+00 0.000000e+00 0.000000e+00 0.000000e+00 0.000000e+00 0.000000e+00 0.000000e+00 0.000000e+00 0.000000e+00 0.000000e+00 0.000000e+00 0.000000e+00
 0.000000e+00 0.000000e+00 0.000000e+00 0.000000e+00 0.000000e+00 0.000000e+00 0.000000e+00 0.000000e+00 0.000000e+00 0.000000e+00 0.000000e+00 9.913710e-01 8.628977e-03 0.000000e+00 0.000000e+00 0.000000e+00 0.000000e+00 0.000000e+00 0.000000e+00 0.000000e+00 0.000000e+00 0.000000e+00 0.000000e+00 0.000000e+00 0.000000e+00 0.000000e+00 0.000000e+00 0.000000e+00 0.000000e+00 0.000000e+00 0.000000e+00 0.000000e+00 0.000000e+00 0.000000e+00 0.000000e+00
 0.000000e+00 0.000000e+00 0.000000e+00 0.000000e+00 0.000000e+00 0.000000e+00 0.000000e+00 0.000000e+00 0.000000e+00 0.000000e+00 0.000000e+00 0.000000e+00 9.942253e-01 5.774662e-03 0.000000e+00 0.000000e+00 0.000000e+00 0.000000e+00 0.000000e+00 0.000000e+00 0.000000e+00 0.000000e+00 0.000000e+00 0.000000e+00 0.000000e+00 0.000000e+00 0.000000e+00 0.000000e+00 0.000000e+00 0.000000e+00 0.000000e+00 0.000000e+00 0.000000e+00 0.000000e+00 0.000000e+00
 0.000000e+00 0.000000e+00 0.000000e+00 0.000000e+00 0.000000e+00 0.000000e+00 0.000000e+00 0.000000e+00 0.000000e+00 0.000000e+00 0.000000e+00 0.000000e+00 0.000000e+00 9.983978e-01 1.602254e-03 0.000000e+00 0.000000e+00 0.000000e+00 0.000000e+00 0.000000e+00 0.000000e+00 0.000000e+00 0.000000e+00 0.000000e+00 0.000000e+00 0.000000e+00 0.000000e+00 0.000000e+00 0.000000e+00 0.000000e+00 0.000000e+00 0.000000e+00 0.000000e+00 0.000000e+00 0.000000e+00
 0.000000e+00 0.000000e+00 0.000000e+00 0.000000e+00 0.000000e+00 0.000000e+00 0.000000e+00 0.000000e+00 0.000000e+00 0.000000e+00 0.000000e+00 0.000000e+00 0.000000e+00 0.000000e+00 9.970375e-01 2.962539e-03 0.000000e+00 0.000000e+00 0.000000e+00 0.000000e+00 0.000000e+00 0.000000e+00 0.000000e+00 0.000000e+00 0.000000e+00 0.000000e+00 0.000000e+00 0.000000e+00 0.000000e+00 0.000000e+00 0.000000e+00 0.000000e+00 0.000000e+00 0.000000e+00 0.000000e+00
 0.000000e+00 0.000000e+00 0.000000e+00 0.000000e+00 0.000000e+00 0.000000e+00 0.000000e+00 0.000000e+00 0.000000e+00 0.000000e+00 0.000000e+00 0.000000e+00 0.000000e+00 0.000000e+00 0.000000e+00 9.913926e-01 8.607426e-03 0.000000e+00 0.000000e+00 0.000000e+00 0.000000e+00 0.000000e+00 0.000000e+00 0.000000e+00 0.000000e+00 0.000000e+00 0.000000e+00 0.000000e+00 0.000000e+00 0.000000e+00 0.000000e+00 0.000000e+00 0.000000e+00 0.000000e+00 0.000000e+00
 0.000000e+00 0.000000e+00 0.000000e+00 0.000000e+00 0.000000e+00 0.000000e+00 0.000000e+00 0.000000e+00 0.000000e+00 0.000000e+00 0.000000e+00 0.000000e+00 0.000000e+00 0.000000e+00 0.000000e+00 0.000000e+00 9.926524e-01 7.347635e-03 0.000000e+00 0.000000e+00 0.000000e+00 0.000000e+00 0.000000e+00 0.000000e+00 0.000000e+00 0.000000e+00 0.000000e+00 0.000000e+00 0.000000e+00 0.000000e+00 0.000000e+00 0.000000e+00 0.000000e+00 0.000000e+00 0.000000e+00
 0.000000e+00 0.000000e+00 0.000000e+00 0.000000e+00 0.000000e+00 0.000000e+00 0.000000e+00 0.000000e+00 0.000000e+00 0.000000e+00 0.000000e+00 0.000000e+00 0.000000e+00 0.000000e+00 0.000000e+00 0.000000e+00 0.000000e+00 9.883898e-01 1.161013e-02 0.000000e+00 0.000000e+00 0.000000e+00 0.000000e+00 0.000000e+00 0.000000e+00 0.000000e+00 0.000000e+00 0.000000e+00 0.000000e+00 0.000000e+00 0.000000e+00 0.000000e+00 0.000000e+00 0.000000e+00 0.000000e+00
 0.000000e+00 0.000000e+00 0.000000e+00 0.000000e+00 0.000000e+00 0.000000e+00 0.000000e+00 0.000000e+00 0.000000e+00 0.000000e+00 0.000000e+00 0.000000e+00 0.000000e+00 0.000000e+00 0.000000e+00 0.000000e+00 0.000000e+00 0.000000e+00 2.255879e-01 7.744121e-01 0.000000e+00 0.000000e+00 0.000000e+00 0.000000e+00 0.000000e+00 0.000000e+00 0.000000e+00 0.000000e+00 0.000000e+00 0.000000e+00 0.000000e+00 0.000000e+00 0.000000e+00 0.000000e+00 0.000000e+00
 0.000000e+00 0.000000e+00 0.000000e+00 0.000000e+00 0.000000e+00 0.000000e+00 0.000000e+00 0.000000e+00 0.000000e+00 0.000000e+00 0.000000e+00 0.000000e+00 0.000000e+00 0.000000e+00 0.000000e+00 0.000000e+00 0.000000e+00 0.000000e+00 0.000000e+00 2.672989e-01 7.327011e-01 0.000000e+00 0.000000e+00 0.000000e+00 0.000000e+00 0.000000e+00 0.000000e+00 0.000000e+00 0.000000e+00 0.000000e+00 0.000000e+00 0.000000e+00 0.000000e+00 0.000000e+00 0.000000e+00
 0.000000e+00 0.000000e+00 0.000000e+00 0.000000e+00 0.000000e+00 0.000000e+00 0.000000e+00 0.000000e+00 0.000000e+00 0.000000e+00 0.000000e+00 0.000000e+00 0.000000e+00 0.000000e+00 0.000000e+00 0.000000e+00 0.000000e+00 0.000000e+00 0.000000e+00 0.000000e+00 6.756684e-01 3.243316e-01 0.000000e+00 0.000000e+00 0.000000e+00 0.000000e+00 0.000000e+00 0.000000e+00 0.000000e+00 0.000000e+00 0.000000e+00 0.000000e+00 0.000000e+00 0.000000e+00 0.000000e+00
 0.000000e+00 0.000000e+00 0.000000e+00 0.000000e+00 0.000000e+00 0.000000e+00 0.000000e+00 0.000000e+00 0.000000e+00 0.000000e+00 0.000000e+00 0.000000e+00 0.000000e+00 0.000000e+00 0.000000e+00 0.000000e+00 0.000000e+00 0.000000e+00 0.000000e+00 0.000000e+00 0.000000e+00 9.927705e-01 7.229457e-03 0.000000e+00 0.000000e+00 0.000000e+00 0.000000e+00 0.000000e+00 0.000000e+00 0.000000e+00 0.000000e+00 0.000000e+00 0.000000e+00 0.000000e+00 0.000000e+00
 0.000000e+00 0.000000e+00 0.000000e+00 0.000000e+00 0.000000e+00 0.000000e+00 0.000000e+00 0.000000e+00 0.000000e+00 0.000000e+00 0.000000e+00 0.000000e+00 0.000000e+00 0.000000e+00 0.000000e+00 0.000000e+00 0.000000e+00 0.000000e+00 0.000000e+00 0.000000e+00 0.000000e+00 0.000000e+00 9.140300e-01 8.596999e-02 0.000000e+00 0.000000e+00 0.000000e+00 0.000000e+00 0.000000e+00 0.000000e+00 0.000000e+00 0.000000e+00 0.000000e+00 0.000000e+00 0.000000e+00
 0.000000e+00 0.000000e+00 0.000000e+00 0.000000e+00 0.000000e+00 0.000000e+00 0.000000e+00 0.000000e+00 0.000000e+00 0.000000e+00 0.000000e+00 0.000000e+00 0.000000e+00 0.000000e+00 0.000000e+00 0.000000e+00 0.000000e+00 0.000000e+00 0.000000e+00 0.000000e+00 0.000000e+00 0.000000e+00 0.000000e+00 9.151568e-01 8.484319e-02 0.000000e+00 0.000000e+00 0.000000e+00 0.000000e+00 0.000000e+00 0.000000e+00 0.000000e+00 0.000000e+00 0.000000e+00 0.000000e+00
 0.000000e+00 0.000000e+00 0.000000e+00 0.000000e+00 0.000000e+00 0.000000e+00 0.000000e+00 0.000000e+00 0.000000e+00 0.000000e+00 0.000000e+00 0.000000e+00 0.000000e+00 0.000000e+00 0.000000e+00 0.000000e+00 0.000000e+00 0.000000e+00 0.000000e+00 0.000000e+00 0.000000e+00 0.000000e+00 0.000000e+00 0.000000e+00 7.791491e-01 2.208509e-01 0.000000e+00 0.000000e+00 0.000000e+00 0.000000e+00 0.000000e+00 0.000000e+00 0.000000e+00 0.000000e+00 0.000000e+00
 0.000000e+00 0.000000e+00 0.000000e+00 0.000000e+00 0.000000e+00 0.000000e+00 0.000000e+00 0.000000e+00 0.000000e+00 0.000000e+00 0.000000e+00 0.000000e+00 0.000000e+00 0.000000e+00 0.000000e+00 0.000000e+00 0.000000e+00 0.000000e+00 0.000000e+00 0.000000e+00 0.000000e+00 0.000000e+00 0.000000e+00 0.000000e+00 0.000000e+00 7.997744e-01 2.002256e-01 0.000000e+00 0.000000e+00 0.000000e+00 0.000000e+00 0.000000e+00 0.000000e+00 0.000000e+00 0.000000e+00
 0.000000e+00 0.000000e+00 0.000000e+00 0.000000e+00 0.000000e+00 0.000000e+00 0.000000e+00 0.000000e+00 0.000000e+00 0.000000e+00 0.000000e+00 0.000000e+00 0.000000e+00 0.000000e+00 0.000000e+00 0.000000e+00 0.000000e+00 0.000000e+00 0.000000e+00 0.000000e+00 0.000000e+00 0.000000e+00 0.000000e+00 0.000000e+00 0.000000e+00 0.000000e+00 9.963230e-01 3.677013e-03 0.000000e+00 0.000000e+00 0.000000e+00 0.000000e+00 0.000000e+00 0.000000e+00 0.000000e+00
 0.000000e+00 0.000000e+00 0.000000e+00 0.000000e+00 0.000000e+00 0.000000e+00 0.000000e+00 0.000000e+00 0.000000e+00 0.000000e+00 0.000000e+00 0.000000e+00 0.000000e+00 0.000000e+00 0.000000e+00 0.000000e+00 0.000000e+00 0.000000e+00 0.000000e+00 0.000000e+00 0.000000e+00 0.000000e+00 0.000000e+00 0.000000e+00 0.000000e+00 0.000000e+00 0.000000e+00 9.921262e-01 7.873755e-03 0.000000e+00 0.000000e+00 0.000000e+00 0.000000e+00 0.000000e+00 0.000000e+00
 0.000000e+00 0.000000e+00 0.000000e+00 0.000000e+00 0.000000e+00 0.000000e+00 0.000000e+00 0.000000e+00 0.000000e+00 0.000000e+00 0.000000e+00 0.000000e+00 0.000000e+00 0.000000e+00 0.000000e+00 0.000000e+00 0.000000e+00 0.000000e+00 0.000000e+00 0.000000e+00 0.000000e+00 0.000000e+00 0.000000e+00 0.000000e+00 0.000000e+00 0.000000e+00 0.000000e+00 0.000000e+00 9.414452e-01 5.855482e-02 0.000000e+00 0.000000e+00 0.000000e+00 0.000000e+00 0.000000e+00
 0.000000e+00 0.000000e+00 0.000000e+00 0.000000e+00 0.000000e+00 0.000000e+00 0.000000e+00 0.000000e+00 0.000000e+00 0.000000e+00 0.000000e+00 0.000000e+00 0.000000e+00 0.000000e+00 0.000000e+00 0.000000e+00 0.000000e+00 0.000000e+00 0.000000e+00 0.000000e+00 0.000000e+00 0.000000e+00 0.000000e+00 0.000000e+00 0.000000e+00 0.000000e+00 0.000000e+00 0.000000e+00 0.000000e+00 9.910133e-01 8.986606e-03 0.000000e+00 0.000000e+00 0.000000e+00 0.000000e+00
 0.000000e+00 0.000000e+00 0.000000e+00 0.000000e+00 0.000000e+00 0.000000e+00 0.000000e+00 0.000000e+00 0.000000e+00 0.000000e+00 0.000000e+00 0.000000e+00 0.000000e+00 0.000000e+00 0.000000e+00 0.000000e+00 0.000000e+00 0.000000e+00 0.000000e+00 0.000000e+00 0.000000e+00 0.000000e+00 0.000000e+00 0.000000e+00 0.000000e+00 0.000000e+00 0.000000e+00 0.000000e+00 0.000000e+00 0.000000e+00 9.784895e-01 2.151049e-02 0.000000e+00 0.000000e+00 0.000000e+00
 0.000000e+00 0.000000e+00 0.000000e+00 0.000000e+00 0.000000e+00 0.000000e+00 0.000000e+00 0.000000e+00 0.000000e+00 0.000000e+00 0.000000e+00 0.000000e+00 0.000000e+00 0.000000e+00 0.000000e+00 0.000000e+00 0.000000e+00 0.000000e+00 0.000000e+00 0.000000e+00 0.000000e+00 0.000000e+00 0.000000e+00 0.000000e+00 0.000000e+00 0.000000e+00 0.000000e+00 0.000000e+00 0.000000e+00 0.000000e+00 0.000000e+00 9.973212e-01 2.678768e-03 0.000000e+00 0.000000e+00
 0.000000e+00 0.000000e+00 0.000000e+00 0.000000e+00 0.000000e+00 0.000000e+00 0.000000e+00 0.000000e+00 0.000000e+00 0.000000e+00 0.000000e+00 0.000000e+00 0.000000e+00 0.000000e+00 0.000000e+00 0.000000e+00 0.000000e+00 0.000000e+00 0.000000e+00 0.000000e+00 0.000000e+00 0.000000e+00 0.000000e+00 0.000000e+00 0.000000e+00 0.000000e+00 0.000000e+00 0.000000e+00 0.000000e+00 0.000000e+00 0.000000e+00 0.000000e+00 9.936585e-01 6.341475e-03 0.000000e+00
 0.000000e+00 0.000000e+00 0.000000e+00 0.000000e+00 0.000000e+00 0.000000e+00 0.000000e+00 0.000000e+00 0.000000e+00 0.000000e+00 0.000000e+00 0.000000e+00 0.000000e+00 0.000000e+00 0.000000e+00 0.000000e+00 0.000000e+00 0.000000e+00 0.000000e+00 0.000000e+00 0.000000e+00 0.000000e+00 0.000000e+00 0.000000e+00 0.000000e+00 0.000000e+00 0.000000e+00 0.000000e+00 0.000000e+00 0.000000e+00 0.000000e+00 0.000000e+00 0.000000e+00 9.977621e-01 2.237860e-03
 0.000000e+00 0.000000e+00 0.000000e+00 0.000000e+00 0.000000e+00 0.000000e+00 0.000000e+00 0.000000e+00 0.000000e+00 0.000000e+00 0.000000e+00 0.000000e+00 0.000000e+00 0.000000e+00 0.000000e+00 0.000000e+00 0.000000e+00 0.000000e+00 0.000000e+00 0.000000e+00 0.000000e+00 0.000000e+00 0.000000e+00 0.000000e+00 0.000000e+00 0.000000e+00 0.000000e+00 0.000000e+00 0.000000e+00 0.000000e+00 0.000000e+00 0.000000e+00 0.000000e+00 0.000000e+00 0.000000e+00
<ENDHMM>
