~o
<STREAMINFO> 1 42
<VECSIZE> 42<NULLD><USER><DIAGC>
~h "PACIENTE"
<BEGINHMM>
<NUMSTATES> 25
<STATE> 2
<NUMMIXES> 4
<MIXTURE> 1 1.600983e-01
<MEAN> 42
 7.450414e-02 9.469282e-02 1.365736e-02 -8.327033e-02 3.023089e-02 5.838665e-02 -1.009172e-02 7.049352e-03 1.714963e-01 1.253776e-01 1.286745e-01 9.158098e-02 5.988572e-04 1.055016e-03 4.592707e-04 -8.268296e-04 6.596505e-05 7.604940e-04 -1.098132e-03 1.503628e-03 7.731433e-04 7.901445e-04 4.183375e-04 4.839674e-04 -2.066156e-04 1.452954e-04 3.511094e-04 3.055645e-05 -2.828700e-04 2.445673e-04 5.748624e-05 -4.608056e-05 1.697335e-05 5.346281e-05 4.261767e-05 -9.669457e-07 -1.893795e-03 -2.217432e-03 -7.609960e-03 1.102945e-01 5.510555e-02 -2.169560e-02
<VARIANCE> 42
 2.396412e-03 4.151062e-03 3.174742e-03 2.195682e-03 1.860776e-03 3.647927e-03 7.327536e-03 1.736274e-01 2.792441e-02 1.061889e-02 8.279799e-03 5.992890e-03 2.467421e-05 4.022230e-05 3.881388e-05 2.274241e-05 2.198053e-05 3.385659e-05 3.730224e-05 1.434864e-04 6.246227e-05 4.187486e-05 3.739727e-05 2.260374e-05 6.399232e-06 7.622593e-06 9.877081e-06 4.552121e-06 6.346413e-06 7.274595e-06 6.502853e-06 2.601508e-05 5.950061e-06 1.211414e-05 4.749146e-06 3.168936e-06 2.260278e-04 1.585547e-04 2.494261e-04 5.337233e-03 3.548716e-03 2.086776e-02
<GCONST> -2.874244e+02
<MIXTURE> 2 5.729587e-01
<MEAN> 42
 -1.330163e-02 1.698479e-03 -8.112594e-03 6.584024e-03 -6.344030e-03 7.005866e-03 1.523468e-02 3.107673e-03 1.916015e-03 -4.564399e-03 5.811838e-03 -6.448398e-04 3.786882e-05 1.198562e-04 7.958322e-05 -7.869946e-05 -2.187727e-05 9.982938e-05 1.687146e-04 2.882184e-04 4.233089e-04 2.061127e-04 -1.696977e-05 -7.404508e-05 -4.721005e-08 8.933360e-05 8.901289e-05 -4.496312e-05 -4.481451e-05 9.029135e-05 -2.612911e-05 -3.623558e-06 1.914735e-05 5.960715e-05 8.321693e-05 7.507144e-05 4.691858e-05 2.058903e-04 3.854938e-03 -4.499063e-03 5.440015e-03 -4.505286e-03
<VARIANCE> 42
 6.954648e-04 5.294559e-04 3.302580e-04 4.799972e-04 3.447997e-04 2.866437e-04 9.455149e-04 1.761793e-03 1.958692e-03 7.377793e-04 6.834163e-04 3.823723e-04 8.794558e-06 6.538291e-06 1.101451e-05 4.924625e-06 8.564285e-06 6.716124e-06 3.811990e-06 7.374013e-05 9.872299e-06 4.065752e-05 1.131955e-05 8.494042e-06 3.624507e-06 2.482255e-06 4.640789e-06 1.901290e-06 3.633923e-06 2.684164e-06 1.342138e-06 2.601508e-05 3.479778e-06 1.211414e-05 1.983285e-06 1.462154e-06 8.596381e-06 3.492298e-05 1.160295e-04 2.765478e-04 2.729564e-04 6.884706e-04
<GCONST> -3.542540e+02
<MIXTURE> 3 1.404070e-01
<MEAN> 42
 -2.238179e-02 -7.701495e-02 -8.263689e-02 4.966014e-02 2.586129e-02 -6.898508e-02 4.261380e-02 4.206616e-02 -1.230192e-01 -1.784211e-01 -1.395830e-01 -9.700958e-02 3.857096e-04 -3.204817e-04 -7.027484e-04 -3.276771e-05 5.533411e-04 -5.145001e-04 -4.836958e-04 -6.774390e-04 -9.082152e-04 -6.091951e-04 -4.242412e-04 -1.350612e-04 1.588728e-04 -9.990841e-05 -2.574919e-04 -2.864710e-05 2.096144e-04 -1.777389e-04 1.654626e-06 -2.374477e-05 -8.676352e-05 -1.223288e-04 -1.486439e-04 -1.399104e-04 2.139077e-02 4.815401e-03 9.519338e-04 -1.215676e-01 -5.501595e-02 -7.797807e-03
<VARIANCE> 42
 8.355412e-04 1.736080e-03 2.709945e-03 7.776518e-04 1.084733e-03 1.747588e-03 3.660317e-03 3.368946e-03 9.632410e-03 1.057958e-02 8.287488e-03 3.588494e-03 8.599929e-06 7.812573e-06 1.254813e-05 5.054780e-06 8.938385e-06 8.133097e-06 4.864862e-06 7.374013e-05 1.468717e-05 4.065752e-05 1.308710e-05 8.494042e-06 3.692103e-06 3.324665e-06 5.433204e-06 2.128172e-06 3.869841e-06 3.508120e-06 1.808162e-06 2.601508e-05 7.547949e-06 1.211414e-05 5.972093e-06 3.029976e-06 2.877293e-04 8.564544e-05 2.198006e-04 4.720315e-03 9.675848e-04 1.740207e-03
<GCONST> -3.211254e+02
<MIXTURE> 4 1.265371e-01
<MEAN> 42
 -2.208061e-02 2.338510e-03 -3.907871e-04 9.987900e-03 -1.437639e-02 1.037666e-02 6.666242e-03 -2.877640e-03 -3.609658e-02 -3.479145e-02 -1.272038e-02 -5.598869e-03 -1.369780e-03 -1.552823e-03 -1.874410e-04 1.459330e-03 -6.026133e-04 -8.686073e-04 8.512770e-04 3.113209e-04 -2.092199e-03 -1.518129e-03 -4.563509e-04 -3.265874e-04 4.561455e-05 -6.429375e-04 -6.879485e-04 2.996204e-04 3.713810e-04 -6.674013e-04 1.039737e-04 4.162092e-05 -9.464566e-05 -3.028299e-04 -3.639914e-04 -2.599234e-04 -1.754177e-03 7.451399e-03 6.998003e-03 -2.096855e-02 1.132257e-02 8.885595e-03
<VARIANCE> 42
 2.240485e-03 2.601542e-03 2.455956e-03 1.735466e-03 1.688516e-03 2.057810e-03 1.205051e-02 7.061028e-02 3.293185e-02 1.073966e-02 1.457149e-02 7.826029e-03 8.619726e-05 1.123427e-04 1.466247e-04 6.266998e-05 8.877600e-05 1.078855e-04 1.724796e-04 9.684822e-04 8.541798e-04 5.258448e-04 4.356974e-04 3.043613e-04 2.654899e-05 3.382908e-05 5.232769e-05 1.711577e-05 3.113829e-05 3.644302e-05 4.796884e-05 2.478722e-04 2.322755e-04 1.666285e-04 1.439020e-04 1.000524e-04 2.071371e-04 7.992360e-04 3.113163e-04 6.574356e-03 2.360708e-03 1.833106e-02
<GCONST> -2.397650e+02
<STATE> 3
<NUMMIXES> 4
<MIXTURE> 1 2.117345e-01
<MEAN> 42
 2.565962e-02 1.983442e-02 -2.110356e-04 -2.701330e-02 1.633004e-02 8.292251e-03 6.244421e-03 1.569508e-03 2.493299e-02 2.938722e-02 2.598973e-02 1.430929e-02 -2.945395e-03 3.195817e-03 6.145084e-03 -1.237822e-04 -4.548632e-03 4.683908e-03 3.217474e-03 3.388383e-03 3.530239e-03 3.636372e-03 3.631710e-03 3.448527e-03 -2.270638e-03 1.049357e-03 3.320811e-03 6.102202e-04 -2.801658e-03 2.178778e-03 1.549299e-03 1.635769e-03 1.763663e-03 1.786300e-03 1.828672e-03 1.787117e-03 3.048867e-03 3.623986e-03 9.092817e-04 2.143219e-02 1.055752e-02 -4.338971e-03
<VARIANCE> 42
 1.870513e-03 1.874729e-03 1.083403e-03 1.651290e-03 9.930173e-04 1.063309e-03 3.658652e-03 1.494439e-03 1.843391e-03 1.788880e-03 1.748250e-03 1.408804e-03 1.382191e-04 6.400258e-05 1.059959e-04 7.470010e-05 1.067547e-04 5.119321e-05 2.346334e-05 7.374013e-05 2.371677e-05 4.065752e-05 2.559201e-05 2.370565e-05 5.032064e-05 2.339555e-05 4.037129e-05 2.681610e-05 3.957464e-05 1.958853e-05 6.691123e-06 2.601508e-05 7.063433e-06 1.211414e-05 7.734125e-06 7.329368e-06 2.282411e-05 1.471392e-04 5.327073e-05 1.084529e-03 1.058042e-03 6.527548e-04
<GCONST> -3.001909e+02
<MIXTURE> 2 1.181604e-01
<MEAN> 42
 5.703625e-02 2.170070e-02 -3.083290e-02 -4.309560e-02 4.757176e-02 -6.169714e-03 3.512734e-02 8.511716e-02 1.162748e-01 1.228467e-01 1.097437e-01 8.569475e-02 -2.121046e-03 -9.644544e-05 2.020599e-03 1.107805e-03 -2.094058e-03 9.718426e-04 2.635607e-03 4.071190e-03 4.751367e-03 4.585982e-03 3.609337e-03 2.478483e-03 -1.830816e-03 1.808745e-05 1.848959e-03 9.051289e-04 -1.843667e-03 9.317573e-04 9.263749e-04 8.891855e-04 7.422706e-04 4.897885e-04 -6.586924e-05 -5.888043e-04 1.446517e-02 -3.669696e-03 7.681976e-03 8.175679e-02 2.713501e-04 -5.201419e-02
<VARIANCE> 42
 1.061694e-02 7.754898e-03 1.809068e-02 4.527578e-03 1.227505e-02 1.047413e-02 1.554156e-02 1.685359e-02 1.522414e-02 2.749570e-02 2.794824e-02 1.708326e-02 3.635956e-04 1.081426e-04 4.229254e-04 1.301832e-04 3.679694e-04 1.752238e-04 1.660330e-04 3.336194e-04 3.502528e-04 3.794408e-04 2.990455e-04 2.758689e-04 9.597039e-05 3.364271e-05 1.015546e-04 3.944141e-05 9.069667e-05 4.384815e-05 4.003837e-05 5.835220e-05 3.907708e-05 3.283679e-05 2.946325e-05 2.885525e-05 5.249071e-04 6.459216e-04 5.883991e-04 1.721507e-02 6.075787e-03 6.654234e-03
<GCONST> -2.294092e+02
<MIXTURE> 3 6.190396e-01
<MEAN> 42
 -7.505706e-04 -4.621080e-03 5.734016e-04 -8.830224e-04 1.686489e-03 -3.431844e-03 -4.679407e-04 -1.114847e-02 3.985897e-03 6.583382e-03 6.283015e-03 -6.280811e-03 1.055079e-03 -1.045133e-03 -2.100975e-03 -5.001697e-06 1.579545e-03 -1.578514e-03 -1.018589e-03 -1.104244e-03 -1.282846e-03 -1.280886e-03 -1.287003e-03 -1.238455e-03 7.459330e-04 -3.151189e-04 -1.061388e-03 -2.151956e-04 9.047925e-04 -6.867618e-04 -4.505912e-04 -4.670540e-04 -5.313710e-04 -5.388985e-04 -5.485319e-04 -5.349217e-04 3.054991e-04 -5.135177e-04 -1.019964e-04 3.124797e-03 -4.354590e-03 1.347274e-03
<VARIANCE> 42
 7.442074e-04 5.494476e-04 6.668507e-04 4.673648e-04 5.884527e-04 4.045085e-04 1.114404e-03 1.370589e-03 8.174796e-04 6.697577e-04 6.890347e-04 6.513605e-04 8.280688e-05 4.120382e-05 6.725283e-05 4.522775e-05 6.517064e-05 3.402082e-05 1.365043e-05 7.374013e-05 1.274685e-05 4.065752e-05 1.567047e-05 1.524055e-05 3.284355e-05 1.709620e-05 2.649241e-05 1.835899e-05 2.556649e-05 1.377354e-05 4.604491e-06 2.601508e-05 4.825201e-06 1.211414e-05 5.471001e-06 5.062291e-06 1.287187e-05 4.033716e-05 3.921011e-05 3.862888e-04 3.674191e-04 3.009725e-04
<GCONST> -3.240950e+02
<MIXTURE> 4 5.106904e-02
<MEAN> 42
 -3.322408e-03 -7.476164e-02 -6.756642e-02 3.556073e-02 3.576666e-02 -7.310840e-02 2.026878e-02 4.793169e-02 2.760474e-02 2.613329e-02 6.820187e-03 -6.467368e-03 3.288072e-03 -2.302211e-03 -5.589125e-03 -4.921020e-04 4.489558e-03 -3.966857e-03 -4.618870e-03 -7.878657e-03 -8.675154e-03 -8.596573e-03 -7.486414e-03 -5.287129e-03 4.943787e-03 -3.475412e-04 -5.286914e-03 -2.297532e-03 5.136691e-03 -2.801329e-03 -2.899068e-03 -2.810929e-03 -1.799332e-03 -1.075335e-03 5.465583e-06 1.040681e-03 -7.286503e-03 3.510807e-03 2.224207e-02 2.976108e-03 -6.884676e-02 -3.595953e-02
<VARIANCE> 42
 9.276934e-02 7.331027e-03 9.245681e-02 2.728165e-02 9.181487e-02 2.670683e-02 1.114961e-01 7.738377e-02 1.688916e-01 2.513821e-01 2.272314e-01 2.017895e-01 2.223337e-03 2.429095e-04 1.953617e-03 7.447113e-04 2.034302e-03 5.424663e-04 1.671943e-03 2.712305e-03 6.102148e-03 7.897650e-03 6.427011e-03 5.403336e-03 1.636876e-04 5.847147e-05 1.613516e-04 7.071417e-05 1.486885e-04 6.907740e-05 9.782906e-05 3.282665e-04 5.094823e-04 6.065221e-04 4.475208e-04 3.641450e-04 1.746572e-03 1.148686e-03 1.271540e-03 1.786550e-01 9.501037e-03 3.809615e-02
<GCONST> -1.596452e+02
<STATE> 4
<NUMMIXES> 4
<MIXTURE> 1 3.111332e-01
<MEAN> 42
 2.040080e-02 2.497999e-02 7.668523e-03 -2.302598e-02 8.235321e-03 1.889443e-02 1.239070e-02 4.921025e-02 6.155604e-02 4.194596e-02 3.404310e-02 2.174864e-02 1.301371e-05 1.552797e-03 1.541804e-03 -7.799398e-04 -7.628816e-04 1.549441e-03 5.133235e-04 1.096323e-03 1.681908e-03 1.817884e-03 1.650712e-03 1.322089e-03 -4.692317e-04 5.372851e-04 1.006050e-03 -3.221973e-05 -7.394176e-04 7.649868e-04 3.959040e-04 4.625290e-04 6.276298e-04 7.741501e-04 7.505878e-04 6.241605e-04 1.930383e-03 -2.060689e-03 2.707157e-04 2.671483e-02 1.228955e-02 -2.865991e-02
<VARIANCE> 42
 1.887572e-03 3.221265e-03 2.310559e-03 1.985322e-03 1.286757e-03 2.377676e-03 3.597409e-03 1.004610e-02 1.035265e-02 7.378463e-03 3.917123e-03 3.164385e-03 4.486856e-05 3.322089e-05 4.285487e-05 2.844178e-05 3.590614e-05 2.677619e-05 1.838576e-05 7.374013e-05 3.674260e-05 4.065752e-05 2.568214e-05 1.725047e-05 1.424565e-05 8.889255e-06 1.348562e-05 8.228621e-06 1.178310e-05 7.623872e-06 3.444474e-06 2.601508e-05 4.970617e-06 1.211414e-05 5.443816e-06 3.559493e-06 2.522325e-05 6.449742e-05 1.394174e-04 2.371178e-03 2.102979e-03 3.648428e-03
<GCONST> -3.018224e+02
<MIXTURE> 2 1.446422e-01
<MEAN> 42
 5.116185e-02 9.046832e-02 4.422050e-02 -7.077174e-02 5.714537e-03 6.568261e-02 -2.567041e-02 7.138900e-02 1.730188e-01 2.095790e-01 1.769615e-01 1.309378e-01 6.719888e-03 7.241662e-03 5.252995e-04 -6.987075e-03 3.115710e-03 3.904805e-03 -2.621764e-03 2.559580e-03 1.198980e-02 1.806473e-02 1.669063e-02 1.303450e-02 5.814364e-04 8.114775e-04 2.312674e-04 -6.970661e-04 1.756676e-04 5.242405e-04 -1.517344e-03 -2.286510e-03 -1.446094e-03 7.893606e-04 1.267576e-03 1.316410e-03 8.482794e-03 1.804135e-05 3.439170e-03 1.434259e-01 5.640173e-02 -3.779054e-02
<VARIANCE> 42
 2.110506e-02 3.979747e-02 2.970080e-02 2.290947e-02 1.541162e-02 2.796966e-02 3.373075e-02 2.463494e-01 1.407896e-01 1.742540e-01 1.231866e-01 8.457722e-02 5.582579e-04 1.044712e-03 6.579670e-04 6.371429e-04 3.488186e-04 7.108130e-04 1.036340e-03 2.212215e-03 1.588679e-03 2.419872e-03 2.128050e-03 1.662697e-03 5.556772e-05 6.119273e-05 7.250261e-05 4.029603e-05 4.900360e-05 5.295099e-05 6.966176e-05 1.715270e-04 1.684215e-04 1.672209e-04 1.194943e-04 8.277176e-05 6.626758e-04 5.674470e-04 5.755773e-04 7.927142e-02 2.657352e-02 6.038066e-02
<GCONST> -1.844552e+02
<MIXTURE> 3 5.021306e-01
<MEAN> 42
 -3.209916e-03 -1.173147e-02 -4.547731e-03 7.476043e-03 2.086749e-03 -6.536524e-03 4.035610e-03 7.573571e-03 -4.063927e-03 -9.073523e-03 -5.616209e-03 -5.369092e-03 -5.071105e-05 -1.096556e-03 -1.048429e-03 5.725074e-04 4.978531e-04 -1.070562e-03 -1.066981e-04 -3.335181e-04 -7.297368e-04 -9.907292e-04 -1.014795e-03 -9.004430e-04 2.889959e-04 -2.862368e-04 -5.754693e-04 -2.597473e-06 4.331729e-04 -4.269324e-04 -2.389002e-04 -2.544249e-04 -3.499129e-04 -4.339610e-04 -4.299750e-04 -3.657274e-04 -2.653555e-04 2.404768e-04 1.131373e-03 -6.613656e-03 -9.448625e-03 -3.856567e-03
<VARIANCE> 42
 5.241668e-04 8.471968e-04 6.990071e-04 5.078575e-04 4.295923e-04 6.290751e-04 1.201314e-03 1.639115e-03 1.780932e-03 1.385237e-03 1.159686e-03 8.489629e-04 2.527702e-05 1.854236e-05 2.458996e-05 1.583577e-05 2.059178e-05 1.537946e-05 8.332699e-06 7.374013e-05 1.291452e-05 4.065752e-05 1.359994e-05 9.576353e-06 9.276965e-06 5.975499e-06 9.078506e-06 5.381883e-06 7.808057e-06 5.261237e-06 2.306877e-06 2.601508e-05 3.488850e-06 1.211414e-05 3.818926e-06 2.548747e-06 5.551834e-06 1.207598e-05 4.195829e-05 5.893763e-04 5.596254e-04 5.765578e-04
<GCONST> -3.375931e+02
<MIXTURE> 4 4.210201e-02
<MEAN> 42
 1.182482e-01 5.210539e-02 -6.235111e-02 -8.489063e-02 9.242809e-02 -6.082729e-04 -2.659813e-01 -4.030254e-01 -2.422830e-01 9.311931e-02 1.900246e-01 2.028680e-01 -2.257288e-02 -2.295470e-02 -3.768031e-04 2.277592e-02 -1.115838e-02 -1.175022e-02 6.388212e-03 -1.359933e-02 -4.555544e-02 -6.392918e-02 -5.753377e-02 -4.387489e-02 -2.032700e-03 -3.337375e-03 -1.302972e-03 2.688389e-03 -3.653155e-04 -2.330381e-03 5.123832e-03 7.482340e-03 4.455574e-03 -3.328839e-03 -4.831862e-03 -4.824833e-03 2.381620e-02 3.073137e-02 1.457090e-02 1.702220e-01 5.303369e-02 2.798604e-01
<VARIANCE> 42
 1.090225e-01 2.318957e-01 2.534017e-01 1.070480e-01 1.239870e-01 2.097334e-01 1.591120e-01 4.524825e-01 4.413889e-01 6.254743e-01 4.959814e-01 3.638802e-01 2.899757e-03 3.826295e-03 4.079465e-03 2.343350e-03 2.538726e-03 3.228955e-03 2.640978e-03 8.878361e-03 1.473723e-02 1.895051e-02 1.360722e-02 8.504742e-03 4.508987e-04 6.893133e-04 6.265907e-04 4.135102e-04 3.672249e-04 5.455752e-04 2.862691e-04 6.768176e-04 1.747966e-03 3.201723e-03 1.999671e-03 1.163572e-03 2.018555e-03 1.950425e-03 1.609899e-03 2.955623e-01 1.839236e-01 2.022751e-01
<GCONST> -1.114423e+02
<STATE> 5
<MEAN> 42
 -1.679920e-02 6.585079e-03 2.361296e-02 2.922300e-03 -1.846651e-02 1.924809e-02 3.376964e-02 1.513391e-02 3.357763e-02 2.134813e-02 1.059074e-02 2.800798e-03 -3.360994e-04 1.164868e-04 4.527135e-04 1.045194e-04 -4.087456e-04 2.684125e-04 1.621563e-03 2.505280e-03 2.691866e-03 1.899974e-03 1.242233e-03 7.506675e-04 -5.731675e-05 8.381821e-05 1.419635e-04 -1.425196e-05 -1.121313e-04 1.305304e-04 -9.303080e-05 -1.614359e-04 -3.954612e-04 -4.451553e-04 -3.476334e-04 -1.978284e-04 5.118215e-04 -2.062733e-03 1.576080e-03 2.487645e-03 7.831467e-03 -2.084275e-02
<VARIANCE> 42
 1.267327e-03 1.398840e-03 1.860931e-03 1.074718e-03 1.226073e-03 1.162183e-03 2.857959e-03 5.865068e-03 4.417507e-03 2.982958e-03 2.255488e-03 1.150636e-03 1.111591e-04 7.839379e-05 1.272349e-04 6.211991e-05 9.958314e-05 7.404838e-05 6.709615e-05 1.025736e-04 1.057316e-04 1.259629e-04 1.005800e-04 6.832128e-05 4.535497e-05 2.704041e-05 4.210303e-05 2.527949e-05 3.712177e-05 2.302919e-05 1.493566e-05 2.601508e-05 2.811281e-05 4.711616e-05 3.655784e-05 2.237138e-05 7.677133e-06 2.281477e-05 1.632507e-04 1.235009e-03 8.941359e-04 1.517230e-03
<GCONST> -2.858830e+02
<STATE> 6
<MEAN> 42
 9.100860e-02 8.200525e-02 -6.057029e-03 -8.433516e-02 5.357431e-02 4.086529e-02 -1.261109e-01 -1.567107e-01 -1.339901e-01 3.929667e-03 6.213890e-02 1.118148e-01 4.209812e-04 5.182194e-04 9.721740e-05 -4.702869e-04 1.514483e-04 3.273815e-04 -5.567883e-04 6.730400e-04 6.669011e-04 8.231223e-04 7.880034e-04 6.002482e-04 -9.399132e-05 -2.082154e-04 -1.162285e-04 1.518392e-04 1.565900e-05 -1.539965e-04 9.612471e-05 9.361281e-05 2.773395e-05 -1.322709e-04 -1.304744e-04 -9.980457e-05 8.764340e-03 -2.909821e-03 -1.650351e-03 6.776914e-02 6.990022e-02 1.360338e-01
<VARIANCE> 42
 2.259373e-02 1.458073e-01 1.806727e-01 4.051011e-02 6.735959e-02 1.575197e-01 9.083390e-02 1.799564e-01 1.594650e-01 1.305764e-01 1.219584e-01 1.191069e-01 1.328827e-04 3.178676e-04 4.958792e-04 1.013936e-04 2.365092e-04 3.733452e-04 1.922468e-04 3.784165e-04 4.591843e-04 5.265253e-04 5.137239e-04 4.352247e-04 3.417607e-05 1.846784e-05 2.970553e-05 1.889129e-05 2.769808e-05 1.577721e-05 1.691861e-05 2.601508e-05 2.405010e-05 2.223331e-05 2.606411e-05 2.703284e-05 6.040568e-04 2.282080e-04 5.536005e-04 7.106665e-02 1.331606e-01 1.121290e-01
<GCONST> -2.053651e+02
<STATE> 7
<MEAN> 42
 3.369853e-03 1.475644e-02 1.260244e-02 -1.099884e-02 1.023179e-04 1.697823e-02 1.518046e-02 3.600324e-02 1.686775e-02 2.245129e-02 1.545772e-02 7.738741e-03 -1.842323e-04 -4.665336e-04 -2.842718e-04 3.269360e-04 5.054990e-05 -4.175330e-04 -9.798855e-07 -1.767159e-04 -1.694263e-04 -3.579419e-04 -3.308115e-04 -2.645401e-04 3.679600e-06 -2.972771e-05 -3.370153e-05 1.348049e-05 1.921887e-05 -3.214253e-05 2.775149e-05 3.862864e-05 2.862571e-05 1.635409e-05 -6.012322e-06 -1.936488e-05 7.420621e-04 -1.929773e-03 -6.726619e-04 7.542661e-03 1.122855e-02 -1.693597e-02
<VARIANCE> 42
 2.349726e-03 4.106681e-03 2.625587e-03 2.587814e-03 1.342539e-03 2.697975e-03 6.649411e-03 1.530102e-02 1.673439e-02 5.087531e-03 3.205793e-03 2.493059e-03 8.181613e-05 5.535583e-05 8.351974e-05 4.761622e-05 6.962733e-05 4.914950e-05 2.787891e-05 7.374013e-05 3.701425e-05 4.065752e-05 3.258277e-05 2.734144e-05 3.047397e-05 1.833485e-05 2.957955e-05 1.696648e-05 2.572038e-05 1.645053e-05 6.568456e-06 2.601508e-05 7.164754e-06 1.211414e-05 9.139678e-06 7.895528e-06 1.822379e-05 6.872077e-05 1.372516e-04 2.460384e-03 2.340034e-03 5.120108e-03
<GCONST> -2.883340e+02
<STATE> 8
<MEAN> 42
 1.507223e-02 -3.687301e-02 -4.797248e-02 1.062341e-02 3.203527e-02 -4.071005e-02 3.072603e-02 7.260241e-02 1.459230e-01 1.793603e-01 1.457307e-01 1.002521e-01 1.172637e-02 7.833371e-03 -3.855273e-03 -9.770844e-03 7.855128e-03 2.066196e-03 -1.098207e-03 9.296210e-03 2.676755e-02 3.984349e-02 3.330015e-02 2.490976e-02 3.980620e-03 2.947373e-03 -1.028228e-03 -3.469714e-03 2.537602e-03 9.755553e-04 -2.208997e-03 -8.120139e-04 3.095425e-03 7.108612e-03 7.381730e-03 6.495384e-03 8.571550e-03 3.731494e-03 9.489888e-04 1.055758e-01 -4.438230e-02 -6.132695e-02
<VARIANCE> 42
 1.381649e-02 2.363464e-02 1.537521e-02 1.513614e-02 8.530498e-03 1.603191e-02 1.249137e-02 3.470806e-02 4.777853e-02 8.003372e-02 6.297019e-02 4.469248e-02 5.437882e-04 7.058594e-04 8.973553e-04 4.018300e-04 5.466421e-04 6.708901e-04 5.060423e-04 1.769933e-03 1.634610e-03 1.968884e-03 1.918310e-03 1.549777e-03 7.663552e-05 8.302965e-05 1.364468e-04 4.579366e-05 8.627865e-05 9.129619e-05 6.978880e-05 1.680791e-04 1.404115e-04 1.619387e-04 1.639288e-04 1.367020e-04 3.229500e-04 8.330871e-04 9.183469e-04 4.208050e-02 1.336742e-02 1.064590e-02
<GCONST> -1.950517e+02
<STATE> 9
<MEAN> 42
 2.644214e-01 2.787386e-01 1.751376e-02 -2.712430e-01 1.256308e-01 1.496965e-01 -3.644736e-01 -4.109309e-01 5.533621e-02 5.242580e-01 6.194891e-01 5.979953e-01 -3.975386e-03 -4.860069e-04 3.473538e-03 2.223978e-03 -3.734507e-03 1.490739e-03 -1.534722e-02 -3.009557e-02 -3.440895e-02 -2.646827e-02 -1.771602e-02 -8.851791e-03 -1.917843e-03 -2.043376e-03 -1.295254e-04 1.976430e-03 -9.020138e-04 -1.087771e-03 2.406568e-03 2.648384e-03 -3.972067e-04 -3.800372e-03 -4.140446e-03 -3.956970e-03 4.172532e-02 1.986713e-02 1.039102e-02 5.234842e-01 2.109538e-01 2.971154e-01
<VARIANCE> 42
 9.350617e-02 1.462466e-01 1.537998e-01 8.150379e-02 8.788013e-02 1.281226e-01 1.474448e-01 5.507052e-01 6.227932e-01 5.845014e-01 5.693163e-01 4.552619e-01 4.436980e-03 5.894589e-03 4.605495e-03 4.015329e-03 3.053517e-03 4.149501e-03 4.034075e-03 8.845789e-03 1.444751e-02 2.479633e-02 2.255511e-02 1.598885e-02 4.540335e-04 6.530179e-04 6.050023e-04 4.023962e-04 3.669822e-04 5.157408e-04 3.569825e-04 8.049696e-04 1.670270e-03 2.988804e-03 2.211020e-03 1.369192e-03 1.652047e-03 2.109131e-03 1.830041e-03 3.187936e-01 1.102105e-01 2.255143e-01
<GCONST> -1.090936e+02
<STATE> 10
<MEAN> 42
 6.142287e-02 -4.485529e-04 -5.976665e-02 -3.159089e-02 6.657931e-02 -2.839603e-02 -1.772939e-01 -2.978092e-01 -2.474453e-01 -7.077250e-02 3.644896e-02 1.241920e-01 -1.607761e-02 -1.125439e-02 4.846728e-03 1.363614e-02 -1.055351e-02 -3.235577e-03 2.951468e-02 3.703676e-02 1.896205e-02 -8.441756e-03 -1.773399e-02 -2.440977e-02 4.722974e-04 9.562530e-04 5.075005e-04 -6.871601e-04 -2.032192e-05 6.829585e-04 -1.376828e-03 -1.769888e-03 3.720944e-03 4.783619e-03 3.668949e-03 3.018409e-03 2.598654e-03 8.143298e-03 1.551175e-02 4.838654e-02 1.645391e-02 2.149741e-01
<VARIANCE> 42
 4.069554e-02 2.783241e-02 3.801205e-02 2.520283e-02 3.495354e-02 2.345795e-02 3.871117e-02 1.410765e-01 1.420283e-01 1.007330e-01 9.498752e-02 1.044454e-01 3.117507e-04 6.206215e-04 8.723782e-04 2.491968e-04 4.377409e-04 6.755187e-04 5.780408e-04 2.937938e-03 3.917723e-03 2.240740e-03 1.120378e-03 7.216876e-04 4.908852e-05 5.365356e-05 8.419600e-05 3.033941e-05 5.417091e-05 5.700126e-05 3.960717e-05 9.299131e-05 1.925562e-04 2.575257e-04 1.954538e-04 1.449088e-04 7.519720e-04 8.058910e-04 7.782345e-04 6.249993e-02 2.298791e-02 6.339495e-02
<GCONST> -1.860434e+02
<STATE> 11
<MEAN> 42
 -8.153792e-02 -5.503517e-02 2.965836e-02 6.865540e-02 -5.509830e-02 -1.238485e-02 -9.123241e-02 -2.354718e-01 -2.627827e-01 -1.885991e-01 -1.493151e-01 -1.027792e-01 8.818740e-03 3.675702e-03 -5.138372e-03 -6.212790e-03 7.059194e-03 -7.245381e-04 2.244484e-02 4.798585e-02 5.270134e-02 3.400216e-02 2.342605e-02 1.287995e-02 1.485639e-03 3.607844e-03 2.116447e-03 -2.542015e-03 -3.189537e-04 2.894947e-03 -2.742009e-03 -4.148190e-03 -2.476686e-03 2.059020e-03 3.032586e-03 3.446302e-03 -6.828983e-03 4.931409e-03 1.283702e-02 -1.103041e-01 -1.008457e-02 1.436944e-01
<VARIANCE> 42
 5.681805e-03 1.137779e-02 1.190193e-02 5.534100e-03 6.272009e-03 1.010347e-02 1.298095e-02 4.007161e-02 4.500800e-02 2.335429e-02 1.573385e-02 9.950858e-03 2.514948e-04 5.097098e-04 5.083568e-04 2.543838e-04 2.546061e-04 4.498914e-04 4.139846e-04 9.321587e-04 1.158280e-03 7.118792e-04 5.670743e-04 5.318124e-04 3.037717e-05 5.205056e-05 5.931293e-05 2.647885e-05 3.256507e-05 4.809000e-05 5.043663e-05 8.832389e-05 1.241251e-04 1.318125e-04 1.017939e-04 7.259440e-05 1.780634e-04 4.560322e-04 8.666400e-04 1.079145e-02 7.517407e-03 1.313872e-02
<GCONST> -2.202563e+02
<STATE> 12
<MEAN> 42
 -1.114892e-02 5.277035e-03 1.999196e-02 3.011594e-03 -1.588168e-02 1.579322e-02 1.510696e-02 2.049997e-03 2.733392e-02 1.737727e-02 1.033736e-02 2.086646e-03 1.189494e-03 -8.581220e-04 -2.063450e-03 -1.721438e-04 1.644511e-03 -1.462435e-03 4.455634e-03 7.307461e-03 6.985250e-03 3.090282e-03 1.514720e-03 3.707053e-04 -1.814511e-04 -1.527831e-04 2.673257e-05 1.576790e-04 -1.085203e-04 -6.634265e-05 -1.110980e-03 -1.799342e-03 -1.948808e-03 -1.564421e-03 -1.174500e-03 -7.015084e-04 5.890284e-04 -1.783074e-03 3.972438e-03 5.682237e-03 5.277986e-03 -1.082703e-02
<VARIANCE> 42
 1.556417e-03 2.159973e-03 3.520436e-03 1.110058e-03 2.032252e-03 2.170209e-03 2.208938e-03 4.296364e-03 5.639508e-03 3.181187e-03 2.719707e-03 1.666576e-03 1.354999e-04 1.022365e-04 1.805111e-04 7.342717e-05 1.339490e-04 1.084734e-04 7.048635e-05 1.425064e-04 2.232430e-04 3.121907e-04 1.994200e-04 1.400031e-04 4.286927e-05 4.122708e-05 5.111641e-05 2.923864e-05 3.720784e-05 3.567861e-05 1.408503e-05 2.852100e-05 7.719012e-05 1.271387e-04 7.088072e-05 4.182519e-05 8.520820e-06 3.488512e-05 1.935600e-04 1.387213e-03 1.568384e-03 1.812538e-03
<GCONST> -2.720282e+02
<STATE> 13
<MEAN> 42
 2.355279e-02 7.429002e-03 -8.462714e-03 -1.409464e-02 1.737049e-02 -4.456957e-04 8.947255e-02 2.235014e-01 1.955340e-01 7.176867e-02 1.839352e-02 -8.454517e-03 5.267481e-04 5.988461e-04 7.407711e-05 -5.629316e-04 2.260689e-04 3.511471e-04 -2.495246e-04 2.601856e-04 4.140314e-04 5.281355e-04 5.157090e-04 4.828167e-04 -5.342758e-06 -1.527965e-05 -9.678053e-06 1.065049e-05 1.395158e-06 -1.199360e-05 -5.005147e-05 -1.199207e-04 -1.401791e-04 -6.419510e-05 -3.143009e-05 -8.061099e-06 2.032951e-04 -3.900709e-03 2.853230e-03 1.486117e-02 -1.986079e-02 -1.410230e-01
<VARIANCE> 42
 4.734925e-03 9.436938e-03 4.858927e-03 5.958030e-03 2.408752e-03 6.110962e-03 1.032448e-02 3.834914e-02 5.133560e-02 5.478433e-02 4.879276e-02 3.591252e-02 3.443442e-05 3.499291e-05 3.329217e-05 2.646789e-05 2.561173e-05 2.544262e-05 2.094777e-05 7.639261e-05 9.090973e-05 8.172895e-05 5.842301e-05 4.168290e-05 1.062414e-05 8.734806e-06 9.717711e-06 7.272406e-06 8.128468e-06 6.555077e-06 3.190607e-06 2.601508e-05 5.088736e-06 1.211414e-05 5.528417e-06 4.388025e-06 1.505757e-04 2.243822e-04 2.502120e-04 3.224694e-02 5.271218e-03 1.174445e-02
<GCONST> -2.757119e+02
<STATE> 14
<MEAN> 42
 8.562507e-03 5.575367e-03 -3.009490e-03 -8.011100e-03 7.030808e-03 3.914075e-03 8.385371e-03 1.577003e-02 1.991840e-02 1.444970e-02 1.496120e-02 1.607030e-02 -5.816460e-05 -1.178969e-04 -6.013895e-05 8.894825e-05 -1.326485e-06 -8.829436e-05 -2.519689e-05 -1.805858e-04 -1.849983e-04 -1.267390e-04 -4.955319e-05 -5.567525e-05 -5.237179e-06 -1.298237e-05 -7.926012e-06 9.244593e-06 1.186499e-06 -1.156549e-05 1.575182e-05 3.901084e-05 3.980905e-05 3.065818e-05 1.949975e-05 1.139417e-05 6.521444e-04 -7.917427e-04 7.639988e-06 1.113202e-02 2.135525e-03 -9.303723e-03
<VARIANCE> 42
 1.028527e-03 1.866503e-03 1.101867e-03 1.126063e-03 5.672696e-04 1.200948e-03 2.424457e-03 4.047604e-03 4.850577e-03 2.079597e-03 2.187279e-03 2.132526e-03 6.360078e-05 3.738474e-05 6.694417e-05 3.402068e-05 5.657072e-05 3.614130e-05 1.990715e-05 7.374013e-05 2.826351e-05 4.065752e-05 2.534138e-05 1.789788e-05 2.554947e-05 1.302723e-05 2.642323e-05 1.280472e-05 2.304373e-05 1.325165e-05 5.364807e-06 2.601508e-05 6.547511e-06 1.211414e-05 7.038766e-06 5.387999e-06 8.237330e-06 3.052478e-05 5.716572e-05 1.226418e-03 1.167944e-03 1.729859e-03
<GCONST> -3.084607e+02
<STATE> 15
<MEAN> 42
 5.485246e-02 1.734423e-02 -3.407403e-02 -3.540826e-02 4.576861e-02 -7.290133e-03 7.050075e-03 1.159496e-01 1.287887e-01 1.032242e-01 9.798427e-02 6.488642e-02 -6.989436e-04 -5.949826e-04 9.881897e-05 6.296125e-04 -3.789529e-04 -2.564419e-04 2.206929e-03 2.597179e-03 2.275874e-03 1.734467e-03 4.313597e-04 -1.055397e-04 -7.091089e-05 1.111114e-04 1.876232e-04 -2.019509e-05 -1.200295e-04 1.573454e-04 2.711308e-04 2.715476e-04 4.649500e-04 8.224983e-04 6.607987e-04 4.364979e-04 1.219601e-02 -4.484507e-03 7.009190e-03 7.415385e-02 -7.659045e-03 -6.037127e-02
<VARIANCE> 42
 6.254383e-03 4.503142e-03 2.261756e-03 4.903039e-03 3.248465e-03 1.697329e-03 2.687153e-03 1.872975e-02 1.847047e-02 1.769288e-02 1.452819e-02 8.993605e-03 9.451790e-05 8.514466e-05 1.008270e-04 6.470153e-05 7.687654e-05 6.948614e-05 5.808071e-05 2.531520e-04 3.028850e-04 3.930909e-04 2.657588e-04 1.928351e-04 2.376847e-05 1.995353e-05 3.091565e-05 1.408815e-05 2.257840e-05 1.964043e-05 9.861489e-06 3.026043e-05 4.993681e-05 8.618389e-05 5.251587e-05 3.648911e-05 1.729625e-04 9.685427e-05 1.209885e-04 9.682691e-03 2.007127e-03 4.797221e-03
<GCONST> -2.599113e+02
<STATE> 16
<MEAN> 42
 2.024346e-01 1.977872e-01 -3.882449e-03 -2.010376e-01 1.059448e-01 1.002466e-01 -3.214933e-01 -4.223524e-01 -1.566136e-01 2.679015e-01 3.809201e-01 4.038119e-01 -1.093573e-04 2.148578e-03 2.264019e-03 -1.011281e-03 -1.183706e-03 2.198313e-03 -3.230080e-03 -4.785935e-03 -3.755438e-03 -2.787183e-03 -1.535693e-03 -5.772355e-05 1.150733e-05 -2.627263e-04 -2.704656e-04 1.278419e-04 1.406786e-04 -2.746872e-04 2.943919e-04 6.793743e-04 4.552581e-04 -1.869423e-05 -7.007097e-05 -2.170912e-04 2.813752e-02 1.236063e-02 1.112077e-03 3.283114e-01 1.648916e-01 3.153905e-01
<VARIANCE> 42
 8.472105e-02 1.113020e-01 1.118167e-01 6.965116e-02 7.180232e-02 9.165943e-02 1.310284e-01 4.810203e-01 5.624630e-01 5.864961e-01 4.791273e-01 3.332376e-01 3.410744e-03 4.447656e-03 3.783782e-03 2.983545e-03 2.491146e-03 3.271673e-03 3.393433e-03 8.163353e-03 1.382978e-02 2.549204e-02 1.996894e-02 1.330213e-02 3.693140e-04 5.530479e-04 5.200118e-04 3.312489e-04 3.064267e-04 4.458246e-04 2.431739e-04 5.904885e-04 1.493355e-03 3.297271e-03 2.106307e-03 1.267322e-03 1.541063e-03 1.603609e-03 9.580674e-04 2.766880e-01 8.265085e-02 2.135529e-01
<GCONST> -1.167216e+02
<STATE> 17
<MEAN> 42
 1.103916e-02 3.168108e-02 2.093744e-02 -2.207487e-02 -2.757957e-03 2.853877e-02 6.314722e-02 1.832139e-01 1.830049e-01 1.107414e-01 7.261351e-02 3.318689e-02 4.172194e-04 -3.973339e-05 -4.565869e-04 -1.891744e-04 4.393609e-04 -2.511941e-04 4.562011e-04 1.429364e-03 1.103398e-03 8.958452e-04 6.691145e-04 3.214920e-04 -5.624885e-06 2.733868e-05 3.131963e-05 -1.182246e-05 -1.770954e-05 2.847421e-05 -1.626272e-04 -3.614961e-04 -3.297104e-04 -2.202402e-04 -1.346901e-04 -3.693462e-05 1.151945e-03 -6.010824e-03 -9.099003e-04 4.868689e-02 8.448862e-03 -1.122007e-01
<VARIANCE> 42
 4.212379e-03 7.544784e-03 4.305156e-03 4.737929e-03 2.107813e-03 4.952456e-03 7.819011e-03 2.921097e-02 3.277953e-02 2.142776e-02 1.531391e-02 1.102676e-02 7.619718e-05 5.777913e-05 7.896556e-05 4.748015e-05 6.361345e-05 4.896203e-05 3.053413e-05 9.996992e-05 1.218475e-04 1.093918e-04 6.924869e-05 4.277033e-05 2.799435e-05 1.773101e-05 2.815134e-05 1.595078e-05 2.384911e-05 1.580495e-05 5.365036e-06 2.601508e-05 1.254222e-05 2.189856e-05 1.467358e-05 9.065065e-06 5.899912e-05 1.496199e-04 1.827634e-04 1.048129e-02 4.700340e-03 1.072404e-02
<GCONST> -2.690771e+02
<STATE> 18
<MEAN> 42
 4.444937e-03 4.944708e-03 2.347501e-03 -5.759741e-03 2.529685e-03 5.060249e-03 -3.590447e-03 7.559948e-03 -1.750329e-03 7.412503e-04 4.612016e-03 4.830203e-03 -8.958223e-05 -1.355576e-04 -4.590346e-05 1.121384e-04 -2.392374e-05 -9.162112e-05 7.582056e-06 -1.773729e-04 -3.057448e-04 -2.332010e-04 -2.164269e-04 -1.468298e-04 1.047242e-05 1.229244e-05 1.586115e-06 -1.099697e-05 4.438215e-06 7.323719e-06 6.895050e-06 2.311755e-05 3.415035e-05 2.490185e-05 1.390528e-05 9.714100e-06 2.511915e-04 -1.066329e-04 4.121816e-04 2.699102e-03 3.618833e-03 2.399848e-04
<VARIANCE> 42
 7.147484e-04 1.002696e-03 6.778902e-04 7.030751e-04 4.618051e-04 6.342014e-04 1.184567e-03 1.370589e-03 1.474100e-03 7.677005e-04 6.955788e-04 6.402567e-04 4.345485e-05 3.137767e-05 4.329995e-05 2.685495e-05 3.592265e-05 2.649506e-05 1.060786e-05 7.374013e-05 1.368001e-05 4.065752e-05 1.398113e-05 1.123087e-05 1.717066e-05 1.147155e-05 1.701764e-05 1.015885e-05 1.435736e-05 9.952380e-06 3.203048e-06 2.601508e-05 3.817696e-06 1.211414e-05 4.269531e-06 3.406281e-06 3.390949e-06 9.533770e-06 3.704802e-05 4.099801e-04 5.835266e-04 3.539551e-04
<GCONST> -3.318218e+02
<STATE> 19
<MEAN> 42
 2.317953e-03 -9.180088e-03 -9.651039e-03 3.740173e-03 6.423667e-03 -9.873810e-03 2.282383e-02 -2.196110e-02 -4.710699e-02 -1.296372e-02 -1.010316e-02 -1.639986e-03 -8.494644e-04 -1.615631e-03 -7.707434e-04 1.242397e-03 -4.899489e-05 -1.205162e-03 2.074662e-03 1.997502e-03 1.291817e-03 7.457072e-04 -1.202879e-05 -6.230618e-04 -1.533337e-04 1.090911e-04 2.647395e-04 2.093820e-05 -2.094853e-04 1.838641e-04 4.389834e-04 7.702192e-04 6.711902e-04 6.512961e-04 3.604309e-04 1.701289e-04 -4.967267e-06 1.468557e-03 3.161122e-03 -1.332170e-02 -2.165115e-03 1.236817e-02
<VARIANCE> 42
 1.415818e-03 4.153652e-03 2.841896e-03 1.907254e-03 1.117382e-03 2.729869e-03 6.782224e-03 2.745881e-03 5.292205e-03 2.919735e-03 2.537524e-03 1.573540e-03 1.056443e-04 1.031779e-04 1.168281e-04 7.536056e-05 8.573308e-05 8.378115e-05 8.804700e-05 1.495446e-04 1.747730e-04 2.075005e-04 1.272496e-04 9.319255e-05 3.893414e-05 3.327834e-05 3.602086e-05 2.720616e-05 2.927125e-05 2.491835e-05 1.273607e-05 3.219618e-05 4.827249e-05 5.904887e-05 3.528272e-05 2.471851e-05 7.630380e-06 2.616388e-05 7.292037e-05 1.382514e-03 3.287107e-03 1.287385e-03
<GCONST> -2.784553e+02
<STATE> 20
<MEAN> 42
 -2.413086e-02 -1.157164e-02 1.613951e-02 1.990471e-02 -1.857784e-02 3.959727e-03 6.759195e-02 8.756170e-02 9.406770e-02 8.150628e-02 5.431898e-02 1.558195e-02 -1.270051e-03 -2.116884e-03 -8.539414e-04 1.701318e-03 -1.629329e-04 -1.493984e-03 9.198297e-03 8.395867e-03 1.134625e-02 1.140706e-02 7.382115e-03 3.948476e-03 5.838711e-04 -1.564417e-04 -7.367426e-04 -2.170637e-04 6.362888e-04 -3.957482e-04 -3.369025e-04 -9.772552e-04 1.075912e-04 1.223104e-03 1.687045e-03 1.478129e-03 3.186260e-04 -4.792516e-03 7.062676e-03 2.455538e-02 -1.138647e-02 -6.793857e-02
<VARIANCE> 42
 2.845099e-03 6.977266e-03 7.720029e-03 3.014531e-03 3.648820e-03 6.727571e-03 1.210825e-02 5.634751e-02 5.215998e-02 2.086034e-02 1.404797e-02 8.795110e-03 1.297973e-04 3.387395e-04 3.529731e-04 1.452174e-04 1.580648e-04 3.124885e-04 3.318506e-04 2.216480e-03 1.747249e-03 7.397564e-04 5.323757e-04 4.661016e-04 2.425390e-05 6.436169e-05 8.254543e-05 2.364972e-05 3.773439e-05 6.784342e-05 3.364271e-05 1.009584e-04 8.870160e-05 1.103618e-04 7.183495e-05 5.014328e-05 5.912681e-05 2.094315e-04 2.612164e-04 7.580944e-03 5.880653e-03 2.426682e-02
<GCONST> -2.291660e+02
<STATE> 21
<MEAN> 42
 6.902516e-02 2.163354e-02 -4.499616e-02 -4.510646e-02 5.827239e-02 -9.550791e-03 6.946987e-02 2.030048e-01 2.878860e-01 3.261221e-01 2.762533e-01 1.939977e-01 3.276713e-02 2.518538e-02 -7.544770e-03 -2.897573e-02 2.015996e-02 8.988623e-03 -1.578702e-02 8.277627e-03 4.568032e-02 7.835521e-02 7.943725e-02 6.752244e-02 7.525981e-03 5.890697e-03 -1.636419e-03 -6.713653e-03 4.586193e-03 2.191206e-03 -7.034970e-03 -5.683201e-03 3.233089e-03 1.226590e-02 1.485106e-02 1.383490e-02 1.830766e-02 -1.487674e-04 1.352330e-02 1.976970e-01 -1.342945e-02 -1.303349e-01
<VARIANCE> 42
 1.378241e-02 3.696531e-02 3.777494e-02 1.636830e-02 1.588875e-02 3.443647e-02 2.503225e-02 9.012029e-02 7.808639e-02 8.643813e-02 8.303595e-02 7.319246e-02 8.759013e-04 1.619310e-03 1.867776e-03 7.820314e-04 9.643022e-04 1.537567e-03 1.080822e-03 4.253877e-03 2.780399e-03 3.875852e-03 4.041206e-03 3.229387e-03 6.103748e-05 1.177715e-04 1.145084e-04 6.089127e-05 5.782393e-05 1.028585e-04 8.418129e-05 2.836011e-04 1.814104e-04 1.820450e-04 1.725400e-04 1.402023e-04 4.400632e-04 8.441123e-04 6.062669e-04 5.190483e-02 2.780316e-02 3.649507e-02
<GCONST> -1.776369e+02
<STATE> 22
<MEAN> 42
 2.293875e-01 1.472815e-01 -7.853407e-02 -1.877577e-01 1.569798e-01 3.616256e-02 -3.207855e-01 -3.769390e-01 -1.290331e-01 3.164972e-01 4.075314e-01 3.861138e-01 -1.041046e-02 -4.896238e-03 5.529515e-03 7.665510e-03 -7.996883e-03 2.918156e-04 -7.817475e-03 -2.523398e-02 -3.689384e-02 -3.869230e-02 -3.265493e-02 -2.371034e-02 -2.424617e-03 -1.974177e-03 4.510693e-04 2.203705e-03 -1.439403e-03 -7.737960e-04 3.073402e-03 3.716869e-03 5.578849e-04 -3.656905e-03 -4.766289e-03 -4.687407e-03 4.588775e-02 1.906925e-02 6.874087e-03 3.470550e-01 1.094019e-01 2.862971e-01
<VARIANCE> 42
 8.761828e-02 3.015429e-01 3.080196e-01 1.189932e-01 1.235531e-01 2.831034e-01 1.610343e-01 5.797566e-01 6.377286e-01 7.857972e-01 6.692436e-01 5.144581e-01 3.339804e-03 6.168718e-03 4.983785e-03 3.509626e-03 2.628289e-03 4.749735e-03 3.442757e-03 9.880605e-03 1.656970e-02 2.750574e-02 2.140043e-02 1.445908e-02 4.097273e-04 6.935363e-04 6.717891e-04 3.835971e-04 3.688871e-04 5.796622e-04 2.506163e-04 9.943395e-04 2.268018e-03 3.600500e-03 2.330760e-03 1.444894e-03 1.415156e-03 1.902313e-03 1.403074e-03 3.868080e-01 2.494726e-01 2.583007e-01
<GCONST> -1.045398e+02
<STATE> 23
<MEAN> 42
 -2.552013e-02 1.558575e-01 1.851924e-01 -6.064466e-02 -1.053728e-01 1.737498e-01 -9.898049e-02 -1.793646e-01 -1.125949e-01 2.692959e-02 6.397367e-02 8.420381e-02 7.434624e-04 -9.351177e-05 -8.566596e-04 -3.507857e-04 8.262584e-04 -4.882568e-04 9.664016e-03 1.900468e-02 2.138416e-02 1.420611e-02 8.684583e-03 3.633630e-03 1.499981e-04 1.477143e-04 1.943554e-06 -1.531136e-04 8.080970e-05 7.422821e-05 -1.157249e-03 -2.251288e-03 -1.927900e-03 -9.539267e-04 -5.325531e-04 -1.351978e-04 -8.183034e-03 3.575324e-03 4.462581e-03 4.886735e-02 1.598121e-01 1.322197e-01
<VARIANCE> 42
 4.001734e-03 5.199251e-02 4.602389e-02 1.595667e-02 1.251793e-02 4.862213e-02 2.447295e-02 5.026147e-02 4.005859e-02 4.800813e-02 4.458088e-02 4.485071e-02 1.749591e-04 3.941252e-04 4.531286e-04 1.725492e-04 2.167511e-04 3.812102e-04 4.259857e-04 9.861242e-04 8.573515e-04 6.032313e-04 3.991009e-04 3.792880e-04 2.758959e-05 4.082641e-05 3.817347e-05 2.504601e-05 2.281604e-05 3.298588e-05 2.703392e-05 6.212116e-05 1.351416e-04 1.514071e-04 8.334422e-05 5.601271e-05 2.061321e-04 2.833596e-04 5.496266e-04 2.868226e-02 4.276092e-02 2.604672e-02
<GCONST> -2.130865e+02
<STATE> 24
<MEAN> 42
 8.987894e-03 1.858646e-02 1.516894e-02 -1.432648e-02 -5.320776e-04 1.858986e-02 1.850770e-02 6.888385e-02 9.154284e-02 6.523017e-02 4.696205e-02 2.402140e-02 1.395410e-04 9.321480e-05 -4.842380e-05 -1.168101e-04 9.479919e-05 2.581876e-05 1.121618e-04 3.581381e-04 6.016537e-04 5.105879e-04 3.976170e-04 2.085131e-04 -3.927290e-06 2.573043e-05 2.976302e-05 -1.163223e-05 -1.720071e-05 2.813161e-05 -5.930779e-05 -8.613079e-05 -6.222009e-05 5.147245e-06 3.577663e-05 3.878992e-05 1.829971e-03 -1.249657e-03 1.230145e-03 3.505602e-02 6.131943e-03 -4.495047e-02
<VARIANCE> 42
 2.637941e-03 5.498202e-03 3.043344e-03 3.158553e-03 1.287698e-03 3.651266e-03 4.381164e-03 1.129447e-02 1.982531e-02 1.724020e-02 1.097034e-02 6.745396e-03 5.807051e-05 5.056310e-05 6.179106e-05 3.890858e-05 4.764150e-05 4.200188e-05 2.104011e-05 7.374013e-05 5.867400e-05 5.981398e-05 4.390834e-05 2.811622e-05 2.205267e-05 1.710191e-05 2.113719e-05 1.431358e-05 1.745488e-05 1.370744e-05 4.813020e-06 2.601508e-05 8.298790e-06 1.211414e-05 9.531680e-06 6.595217e-06 4.026689e-05 1.023030e-04 1.308315e-04 8.019534e-03 2.786091e-03 4.476894e-03
<GCONST> -2.844123e+02
<TRANSP> 25
 0.000000e+00 1.000000e+00 0.000000e+00 0.000000e+00 0.000000e+00 0.000000e+00 0.000000e+00 0.000000e+00 0.000000e+00 0.000000e+00 0.000000e+00 0.000000e+00 0.000000e+00 0.000000e+00 0.000000e+00 0.000000e+00 0.000000e+00 0.000000e+00 0.000000e+00 0.000000e+00 0.000000e+00 0.000000e+00 0.000000e+00 0.000000e+00 0.000000e+00
 0.000000e+00 9.959816e-01 4.018450e-03 0.000000e+00 0.000000e+00 0.000000e+00 0.000000e+00 0.000000e+00 0.000000e+00 0.000000e+00 0.000000e+00 0.000000e+00 0.000000e+00 0.000000e+00 0.000000e+00 0.000000e+00 0.000000e+00 0.000000e+00 0.000000e+00 0.000000e+00 0.000000e+00 0.000000e+00 0.000000e+00 0.000000e+00 0.000000e+00
 0.000000e+00 0.000000e+00 9.975100e-01 2.490016e-03 0.000000e+00 0.000000e+00 0.000000e+00 0.000000e+00 0.000000e+00 0.000000e+00 0.000000e+00 0.000000e+00 0.000000e+00 0.000000e+00 0.000000e+00 0.000000e+00 0.000000e+00 0.000000e+00 0.000000e+00 0.000000e+00 0.000000e+00 0.000000e+00 0.000000e+00 0.000000e+00 0.000000e+00
 0.000000e+00 0.000000e+00 0.000000e+00 9.996741e-01 3.258533e-04 0.000000e+00 0.000000e+00 0.000000e+00 0.000000e+00 0.000000e+00 0.000000e+00 0.000000e+00 0.000000e+00 0.000000e+00 0.000000e+00 0.000000e+00 0.000000e+00 0.000000e+00 0.000000e+00 0.000000e+00 0.000000e+00 0.000000e+00 0.000000e+00 0.000000e+00 0.000000e+00
 0.000000e+00 0.000000e+00 0.000000e+00 0.000000e+00 9.283447e-01 7.165530e-02 0.000000e+00 0.000000e+00 0.000000e+00 0.000000e+00 0.000000e+00 0.000000e+00 0.000000e+00 0.000000e+00 0.000000e+00 0.000000e+00 0.000000e+00 0.000000e+00 0.000000e+00 0.000000e+00 0.000000e+00 0.000000e+00 0.000000e+00 0.000000e+00 0.000000e+00
 0.000000e+00 0.000000e+00 0.000000e+00 0.000000e+00 0.000000e+00 9.323606e-01 6.763937e-02 0.000000e+00 0.000000e+00 0.000000e+00 0.000000e+00 0.000000e+00 0.000000e+00 0.000000e+00 0.000000e+00 0.000000e+00 0.000000e+00 0.000000e+00 0.000000e+00 0.000000e+00 0.000000e+00 0.000000e+00 0.000000e+00 0.000000e+00 0.000000e+00
 0.000000e+00 0.000000e+00 0.000000e+00 0.000000e+00 0.000000e+00 0.000000e+00 9.908583e-01 9.141751e-03 0.000000e+00 0.000000e+00 0.000000e+00 0.000000e+00 0.000000e+00 0.000000e+00 0.000000e+00 0.000000e+00 0.000000e+00 0.000000e+00 0.000000e+00 0.000000e+00 0.000000e+00 0.000000e+00 0.000000e+00 0.000000e+00 0.000000e+00
 0.000000e+00 0.000000e+00 0.000000e+00 0.000000e+00 0.000000e+00 0.000000e+00 0.000000e+00 8.649383e-01 1.350617e-01 0.000000e+00 0.000000e+00 0.000000e+00 0.000000e+00 0.000000e+00 0.000000e+00 0.000000e+00 0.000000e+00 0.000000e+00 0.000000e+00 0.000000e+00 0.000000e+00 0.000000e+00 0.000000e+00 0.000000e+00 0.000000e+00
 0.000000e+00 0.000000e+00 0.000000e+00 0.000000e+00 0.000000e+00 0.000000e+00 0.000000e+00 0.000000e+00 9.412931e-01 5.870695e-02 0.000000e+00 0.000000e+00 0.000000e+00 0.000000e+00 0.000000e+00 0.000000e+00 0.000000e+00 0.000000e+00 0.000000e+00 0.000000e+00 0.000000e+00 0.000000e+00 0.000000e+00 0.000000e+00 0.000000e+00
 0.000000e+00 0.000000e+00 0.000000e+00 0.000000e+00 0.000000e+00 0.000000e+00 0.000000e+00 0.000000e+00 0.000000e+00 7.306967e-01 2.693033e-01 0.000000e+00 0.000000e+00 0.000000e+00 0.000000e+00 0.000000e+00 0.000000e+00 0.000000e+00 0.000000e+00 0.000000e+00 0.000000e+00 0.000000e+00 0.000000e+00 0.000000e+00 0.000000e+00
 0.000000e+00 0.000000e+00 0.000000e+00 0.000000e+00 0.000000e+00 0.000000e+00 0.000000e+00 0.000000e+00 0.000000e+00 0.000000e+00 7.903671e-01 2.096329e-01 0.000000e+00 0.000000e+00 0.000000e+00 0.000000e+00 0.000000e+00 0.000000e+00 0.000000e+00 0.000000e+00 0.000000e+00 0.000000e+00 0.000000e+00 0.000000e+00 0.000000e+00
 0.000000e+00 0.000000e+00 0.000000e+00 0.000000e+00 0.000000e+00 0.000000e+00 0.000000e+00 0.000000e+00 0.000000e+00 0.000000e+00 0.000000e+00 9.040461e-01 9.595393e-02 0.000000e+00 0.000000e+00 0.000000e+00 0.000000e+00 0.000000e+00 0.000000e+00 0.000000e+00 0.000000e+00 0.000000e+00 0.000000e+00 0.000000e+00 0.000000e+00
 0.000000e+00 0.000000e+00 0.000000e+00 0.000000e+00 0.000000e+00 0.000000e+00 0.000000e+00 0.000000e+00 0.000000e+00 0.000000e+00 0.000000e+00 0.000000e+00 9.820454e-01 1.795463e-02 0.000000e+00 0.000000e+00 0.000000e+00 0.000000e+00 0.000000e+00 0.000000e+00 0.000000e+00 0.000000e+00 0.000000e+00 0.000000e+00 0.000000e+00
 0.000000e+00 0.000000e+00 0.000000e+00 0.000000e+00 0.000000e+00 0.000000e+00 0.000000e+00 0.000000e+00 0.000000e+00 0.000000e+00 0.000000e+00 0.000000e+00 0.000000e+00 9.933033e-01 6.696679e-03 0.000000e+00 0.000000e+00 0.000000e+00 0.000000e+00 0.000000e+00 0.000000e+00 0.000000e+00 0.000000e+00 0.000000e+00 0.000000e+00
 0.000000e+00 0.000000e+00 0.000000e+00 0.000000e+00 0.000000e+00 0.000000e+00 0.000000e+00 0.000000e+00 0.000000e+00 0.000000e+00 0.000000e+00 0.000000e+00 0.000000e+00 0.000000e+00 8.947641e-01 1.052359e-01 0.000000e+00 0.000000e+00 0.000000e+00 0.000000e+00 0.000000e+00 0.000000e+00 0.000000e+00 0.000000e+00 0.000000e+00
 0.000000e+00 0.000000e+00 0.000000e+00 0.000000e+00 0.000000e+00 0.000000e+00 0.000000e+00 0.000000e+00 0.000000e+00 0.000000e+00 0.000000e+00 0.000000e+00 0.000000e+00 0.000000e+00 0.000000e+00 9.309445e-01 6.905553e-02 0.000000e+00 0.000000e+00 0.000000e+00 0.000000e+00 0.000000e+00 0.000000e+00 0.000000e+00 0.000000e+00
 0.000000e+00 0.000000e+00 0.000000e+00 0.000000e+00 0.000000e+00 0.000000e+00 0.000000e+00 0.000000e+00 0.000000e+00 0.000000e+00 0.000000e+00 0.000000e+00 0.000000e+00 0.000000e+00 0.000000e+00 0.000000e+00 9.808741e-01 1.912588e-02 0.000000e+00 0.000000e+00 0.000000e+00 0.000000e+00 0.000000e+00 0.000000e+00 0.000000e+00
 0.000000e+00 0.000000e+00 0.000000e+00 0.000000e+00 0.000000e+00 0.000000e+00 0.000000e+00 0.000000e+00 0.000000e+00 0.000000e+00 0.000000e+00 0.000000e+00 0.000000e+00 0.000000e+00 0.000000e+00 0.000000e+00 0.000000e+00 9.944655e-01 5.534453e-03 0.000000e+00 0.000000e+00 0.000000e+00 0.000000e+00 0.000000e+00 0.000000e+00
 0.000000e+00 0.000000e+00 0.000000e+00 0.000000e+00 0.000000e+00 0.000000e+00 0.000000e+00 0.000000e+00 0.000000e+00 0.000000e+00 0.000000e+00 0.000000e+00 0.000000e+00 0.000000e+00 0.000000e+00 0.000000e+00 0.000000e+00 0.000000e+00 9.351332e-01 6.486681e-02 0.000000e+00 0.000000e+00 0.000000e+00 0.000000e+00 0.000000e+00
 0.000000e+00 0.000000e+00 0.000000e+00 0.000000e+00 0.000000e+00 0.000000e+00 0.000000e+00 0.000000e+00 0.000000e+00 0.000000e+00 0.000000e+00 0.000000e+00 0.000000e+00 0.000000e+00 0.000000e+00 0.000000e+00 0.000000e+00 0.000000e+00 0.000000e+00 4.971724e-01 5.028276e-01 0.000000e+00 0.000000e+00 0.000000e+00 0.000000e+00
 0.000000e+00 0.000000e+00 0.000000e+00 0.000000e+00 0.000000e+00 0.000000e+00 0.000000e+00 0.000000e+00 0.000000e+00 0.000000e+00 0.000000e+00 0.000000e+00 0.000000e+00 0.000000e+00 0.000000e+00 0.000000e+00 0.000000e+00 0.000000e+00 0.000000e+00 0.000000e+00 7.436972e-01 2.563028e-01 0.000000e+00 0.000000e+00 0.000000e+00
 0.000000e+00 0.000000e+00 0.000000e+00 0.000000e+00 0.000000e+00 0.000000e+00 0.000000e+00 0.000000e+00 0.000000e+00 0.000000e+00 0.000000e+00 0.000000e+00 0.000000e+00 0.000000e+00 0.000000e+00 0.000000e+00 0.000000e+00 0.000000e+00 0.000000e+00 0.000000e+00 0.000000e+00 9.226176e-01 7.738233e-02 0.000000e+00 0.000000e+00
 0.000000e+00 0.000000e+00 0.000000e+00 0.000000e+00 0.000000e+00 0.000000e+00 0.000000e+00 0.000000e+00 0.000000e+00 0.000000e+00 0.000000e+00 0.000000e+00 0.000000e+00 0.000000e+00 0.000000e+00 0.000000e+00 0.000000e+00 0.000000e+00 0.000000e+00 0.000000e+00 0.000000e+00 0.000000e+00 8.986262e-01 1.013738e-01 0.000000e+00
 0.000000e+00 0.000000e+00 0.000000e+00 0.000000e+00 0.000000e+00 0.000000e+00 0.000000e+00 0.000000e+00 0.000000e+00 0.000000e+00 0.000000e+00 0.000000e+00 0.000000e+00 0.000000e+00 0.000000e+00 0.000000e+00 0.000000e+00 0.000000e+00 0.000000e+00 0.000000e+00 0.000000e+00 0.000000e+00 0.000000e+00 9.892626e-01 1.073734e-02
 0.000000e+00 0.000000e+00 0.000000e+00 0.000000e+00 0.000000e+00 0.000000e+00 0.000000e+00 0.000000e+00 0.000000e+00 0.000000e+00 0.000000e+00 0.000000e+00 0.000000e+00 0.000000e+00 0.000000e+00 0.000000e+00 0.000000e+00 0.000000e+00 0.000000e+00 0.000000e+00 0.000000e+00 0.000000e+00 0.000000e+00 0.000000e+00 0.000000e+00
<ENDHMM>
